~o
<STREAMINFO> 1 25
<VECSIZE> 25<NULLD><MFCC_D_N_Z_0><DIAGC>
~s "silst"
<MEAN> 25
 -9.868877e+00 1.479527e+01 -2.031770e+00 4.218749e+00 7.617482e+00 1.613396e+00 9.484977e+00 5.985130e+00 3.178555e-01 6.536989e+00 2.616443e+00 -1.875773e-01 -1.306352e-01 7.640247e-02 2.227921e-02 -1.068485e-02 1.463854e-02 1.346475e-02 8.166274e-02 1.018262e-01 9.788511e-02 6.136475e-02 6.521437e-02 2.924704e-02 -7.363484e-02
<VARIANCE> 25
 3.246174e+01 4.019053e+01 2.349613e+01 8.922488e+00 1.352268e+01 2.138586e+01 2.945001e+01 1.919452e+01 1.659360e+01 1.559056e+01 2.004994e+01 1.474339e+01 2.171412e+00 2.148131e+00 1.714845e+00 8.399658e-01 1.237586e+00 1.533993e+00 2.170334e+00 1.599802e+00 1.443603e+00 1.315760e+00 1.545942e+00 1.288558e+00 1.766576e+00
<GCONST> 8.740561e+01
~h "E"
<BEGINHMM>
<NUMSTATES> 5
<STATE> 2
<MEAN> 25
 5.665082e+00 -9.995013e+00 1.197983e+00 -5.824708e+00 -3.803749e+00 -2.760981e+00 -1.302658e+00 -1.686352e+00 -2.696450e+00 -3.883791e+00 -4.365664e+00 -3.564250e-01 1.736139e+00 -2.417198e+00 -5.085001e-02 -2.307908e+00 -1.031109e+00 -1.422481e+00 3.493141e-01 -6.364712e-01 -1.377942e+00 -1.715862e+00 -1.085338e+00 2.178749e-01 3.426145e+00
<VARIANCE> 25
 4.498428e+01 9.398921e+01 3.556129e+01 6.542786e+01 5.544776e+01 4.110646e+01 5.095584e+01 6.071290e+01 4.195532e+01 3.864227e+01 4.045670e+01 2.125962e+01 3.571400e+00 7.999681e+00 2.628003e+00 4.208315e+00 4.772366e+00 4.262656e+00 5.022854e+00 7.031174e+00 3.730538e+00 3.142902e+00 4.492337e+00 2.853990e+00 6.847042e+00
<GCONST> 1.112347e+02
<STATE> 3
<MEAN> 25
 8.040163e+00 -1.471144e+01 2.948028e-01 -9.682817e+00 -6.594873e+00 -6.994084e+00 5.968247e+00 -3.978043e+00 -8.398805e+00 -8.610021e+00 -4.814115e+00 3.207929e-01 5.976404e-03 6.222162e-02 -1.146824e-02 2.217398e-01 -3.381956e-01 -1.162281e-01 4.105056e-01 -2.957632e-02 5.764971e-02 4.321186e-02 6.672549e-02 7.672136e-02 -8.518077e-02
<VARIANCE> 25
 1.152406e+01 5.015751e+01 2.874546e+01 1.925861e+01 3.017126e+01 3.740435e+01 4.467617e+01 4.468913e+01 2.161200e+01 2.225167e+01 3.385059e+01 1.726734e+01 3.505527e-01 7.096035e-01 8.892526e-01 6.566042e-01 1.156871e+00 1.165876e+00 2.839599e+00 1.653241e+00 2.179319e+00 1.388125e+00 1.669874e+00 1.171735e+00 4.819758e-01
<GCONST> 8.676186e+01
<STATE> 4
<MEAN> 25
 6.071039e+00 -1.006214e+01 3.487190e+00 -5.556369e+00 -8.591187e+00 -3.024433e+00 -5.317724e-01 -3.787198e+00 -2.222159e+00 -2.649015e+00 -2.908469e+00 2.386160e-03 -6.024426e-01 1.512117e+00 -6.566339e-01 9.819273e-01 6.560167e-01 5.166666e-01 -6.134176e-01 2.768004e-01 9.680917e-01 6.203835e-01 2.221939e-01 -2.416103e-01 -1.859579e+00
<VARIANCE> 25
 3.308642e+01 7.624818e+01 7.511021e+01 4.873144e+01 6.796127e+01 5.789484e+01 7.234921e+01 5.389577e+01 3.162837e+01 5.315542e+01 5.190049e+01 2.446951e+01 2.206913e+00 3.886209e+00 3.683213e+00 4.017234e+00 3.962742e+00 4.712546e+00 4.852786e+00 5.382047e+00 3.037494e+00 3.660522e+00 4.484048e+00 2.457725e+00 5.043729e+00
<GCONST> 1.105652e+02
<TRANSP> 5
 0.000000e+00 1.000000e+00 0.000000e+00 0.000000e+00 0.000000e+00
 0.000000e+00 6.164688e-01 3.835312e-01 0.000000e+00 0.000000e+00
 0.000000e+00 0.000000e+00 8.147395e-01 1.852605e-01 0.000000e+00
 0.000000e+00 0.000000e+00 0.000000e+00 7.257237e-01 2.742763e-01
 0.000000e+00 0.000000e+00 0.000000e+00 0.000000e+00 0.000000e+00
<ENDHMM>
~h "K"
<BEGINHMM>
<NUMSTATES> 5
<STATE> 2
<MEAN> 25
 -1.684587e-08 -6.193333e-08 -4.487690e-08 3.351832e-08 -6.047171e-08 2.058664e-08 -6.607048e-08 -2.205446e-08 -8.534414e-09 2.910867e-08 3.022347e-08 -1.071447e-09 -2.678578e-03 2.715191e-03 1.970940e-04 1.666228e-04 1.831201e-03 -7.320007e-04 3.372927e-03 1.125320e-03 -7.564414e-05 2.413395e-03 8.106225e-04 -2.148533e-03 -1.727290e-03
<VARIANCE> 25
 4.499385e+01 7.342516e+01 3.566479e+01 5.718780e+01 5.546888e+01 4.305736e+01 6.020990e+01 4.209700e+01 2.990068e+01 4.475465e+01 3.376802e+01 1.839641e+01 1.592596e+00 2.317776e+00 1.700131e+00 2.390033e+00 2.486403e+00 2.357601e+00 2.972100e+00 2.655601e+00 2.270027e+00 2.542916e+00 2.264997e+00 1.647762e+00 2.549860e+00
<GCONST> 1.014657e+02
<STATE> 3
<MEAN> 25
 -1.684587e-08 -6.193333e-08 -4.487690e-08 3.351832e-08 -6.047171e-08 2.058664e-08 -6.607048e-08 -2.205446e-08 -8.534414e-09 2.910867e-08 3.022347e-08 -1.071447e-09 -2.678578e-03 2.715191e-03 1.970940e-04 1.666228e-04 1.831201e-03 -7.320007e-04 3.372927e-03 1.125320e-03 -7.564414e-05 2.413395e-03 8.106225e-04 -2.148533e-03 -1.727290e-03
<VARIANCE> 25
 4.499385e+01 7.342516e+01 3.566479e+01 5.718780e+01 5.546888e+01 4.305736e+01 6.020990e+01 4.209700e+01 2.990068e+01 4.475465e+01 3.376802e+01 1.839641e+01 1.592596e+00 2.317776e+00 1.700131e+00 2.390033e+00 2.486403e+00 2.357601e+00 2.972100e+00 2.655601e+00 2.270027e+00 2.542916e+00 2.264997e+00 1.647762e+00 2.549860e+00
<GCONST> 1.014657e+02
<STATE> 4
<MEAN> 25
 -1.684587e-08 -6.193333e-08 -4.487690e-08 3.351832e-08 -6.047171e-08 2.058664e-08 -6.607048e-08 -2.205446e-08 -8.534414e-09 2.910867e-08 3.022347e-08 -1.071447e-09 -2.678578e-03 2.715191e-03 1.970940e-04 1.666228e-04 1.831201e-03 -7.320007e-04 3.372927e-03 1.125320e-03 -7.564414e-05 2.413395e-03 8.106225e-04 -2.148533e-03 -1.727290e-03
<VARIANCE> 25
 4.499385e+01 7.342516e+01 3.566479e+01 5.718780e+01 5.546888e+01 4.305736e+01 6.020990e+01 4.209700e+01 2.990068e+01 4.475465e+01 3.376802e+01 1.839641e+01 1.592596e+00 2.317776e+00 1.700131e+00 2.390033e+00 2.486403e+00 2.357601e+00 2.972100e+00 2.655601e+00 2.270027e+00 2.542916e+00 2.264997e+00 1.647762e+00 2.549860e+00
<GCONST> 1.014657e+02
<TRANSP> 5
 0.000000e+00 1.000000e+00 0.000000e+00 0.000000e+00 0.000000e+00
 0.000000e+00 6.000000e-01 4.000000e-01 0.000000e+00 0.000000e+00
 0.000000e+00 0.000000e+00 6.000000e-01 4.000000e-01 0.000000e+00
 0.000000e+00 0.000000e+00 0.000000e+00 7.000000e-01 3.000000e-01
 0.000000e+00 0.000000e+00 0.000000e+00 0.000000e+00 0.000000e+00
<ENDHMM>
~h "a"
<BEGINHMM>
<NUMSTATES> 5
<STATE> 2
<MEAN> 25
 5.874441e+00 -8.012924e+00 -1.130058e+00 -3.690176e+00 -1.921657e+00 -4.555168e+00 -5.372507e+00 -3.154412e+00 -3.295324e+00 -8.909889e+00 -5.619373e+00 4.297168e-01 -2.322698e-01 5.137919e-01 -2.679763e-02 5.284263e-01 2.422534e-02 1.938792e-01 8.765649e-02 -1.581873e-02 -1.450665e-02 3.203964e-02 1.640378e-01 2.364029e-02 -8.502018e-01
<VARIANCE> 25
 1.755064e+01 6.080184e+01 3.121345e+01 3.805330e+01 5.009834e+01 3.578102e+01 5.901147e+01 3.842419e+01 3.073695e+01 3.872156e+01 3.213720e+01 2.472325e+01 1.979838e+00 3.620882e+00 1.932763e+00 2.071268e+00 3.690306e+00 2.833249e+00 3.858331e+00 3.354613e+00 2.949513e+00 3.402450e+00 2.798784e+00 2.002315e+00 3.505823e+00
<GCONST> 1.025255e+02
<STATE> 3
<MEAN> 25
 -2.356480e+00 -3.743725e+00 -3.872616e-01 1.437390e+00 1.748801e+00 1.414151e+00 1.208054e-01 2.868976e+00 1.410972e+00 -2.848648e+00 1.606113e+00 1.859928e+00 -4.399809e-01 6.956429e-01 2.176568e-01 4.763755e-01 3.486977e-01 3.802623e-01 5.415210e-01 4.977906e-01 3.668203e-01 8.462648e-01 6.696417e-01 -1.232154e-01 -1.042926e+00
<VARIANCE> 25
 1.967207e+01 3.304135e+01 2.609549e+01 1.906874e+01 3.826880e+01 2.975758e+01 3.335791e+01 3.786209e+01 3.124002e+01 4.364921e+01 3.901609e+01 2.174979e+01 1.414856e+00 1.764187e+00 1.540555e+00 1.459152e+00 2.323117e+00 2.508217e+00 2.997860e+00 3.076953e+00 3.125270e+00 3.642570e+00 3.612642e+00 2.162212e+00 1.839911e+00
<GCONST> 9.758066e+01
<STATE> 4
<MEAN> 25
 -1.629848e+00 8.283197e-01 -2.386129e-01 3.472012e+00 3.003192e+00 2.918220e+00 2.984511e+00 1.958930e+00 1.024110e+00 2.022338e+00 1.916752e+00 -1.007469e-03 -5.429289e-02 1.090287e-01 5.169331e-02 4.916437e-02 4.173497e-02 1.863702e-02 6.507434e-02 -6.493284e-02 -2.222134e-02 1.188574e-01 -8.943031e-03 -3.263111e-02 -9.536495e-02
<VARIANCE> 25
 5.078062e+00 1.202008e+01 8.870894e+00 1.071205e+01 1.375288e+01 1.688444e+01 1.594323e+01 1.652463e+01 1.558320e+01 1.845248e+01 1.617780e+01 1.239490e+01 1.661259e-01 3.922438e-01 4.753647e-01 6.510309e-01 9.034587e-01 1.007429e+00 1.241619e+00 1.258183e+00 1.274204e+00 1.429161e+00 1.351943e+00 1.147779e+00 1.323382e-01
<GCONST> 7.206103e+01
<TRANSP> 5
 0.000000e+00 1.000000e+00 0.000000e+00 0.000000e+00 0.000000e+00
 0.000000e+00 8.347519e-01 1.652481e-01 0.000000e+00 0.000000e+00
 0.000000e+00 0.000000e+00 7.693509e-01 2.306491e-01 0.000000e+00
 0.000000e+00 0.000000e+00 0.000000e+00 9.112253e-01 8.877476e-02
 0.000000e+00 0.000000e+00 0.000000e+00 0.000000e+00 0.000000e+00
<ENDHMM>
~h "b"
<BEGINHMM>
<NUMSTATES> 5
<STATE> 2
<MEAN> 25
 4.019226e+00 2.916520e-01 -2.626002e-01 -5.226889e-01 -3.993631e+00 -3.338709e+00 -6.148110e+00 -4.459559e+00 -2.090194e+00 -1.198284e+00 -2.951210e+00 -4.287186e-01 2.583279e+00 -2.261998e-01 -2.627643e-01 -2.816908e+00 -2.438812e+00 -1.726819e+00 -2.645735e+00 -1.223056e+00 -1.120508e+00 -1.790857e+00 -1.874702e+00 1.165982e-01 3.384041e+00
<VARIANCE> 25
 5.033862e+01 6.010011e+01 3.905585e+01 6.584531e+01 6.105375e+01 4.644740e+01 6.477467e+01 4.420892e+01 4.971323e+01 4.192957e+01 4.169369e+01 2.048878e+01 4.528463e+00 8.315878e+00 4.792604e+00 7.119437e+00 4.734359e+00 4.319301e+00 4.425995e+00 4.605119e+00 5.713840e+00 4.396256e+00 4.147017e+00 2.585148e+00 8.009712e+00
<GCONST> 1.129839e+02
<STATE> 3
<MEAN> 25
 8.687943e+00 7.125405e+00 6.215456e-01 -8.058201e+00 -9.166755e+00 -7.224901e+00 -1.157547e+01 -5.546041e+00 -6.913267e+00 -5.834364e+00 -6.856588e+00 -2.179120e-03 1.284925e-01 -1.144682e-01 2.489900e-03 -8.312033e-01 -1.404117e-01 1.043318e-01 1.642247e-01 3.580660e-01 8.456989e-02 -1.210644e-01 -1.481935e-01 3.495939e-01 5.598404e-01
<VARIANCE> 25
 2.826041e+01 3.981656e+01 6.144555e+01 5.500112e+01 2.154078e+01 1.719665e+01 2.577105e+01 2.725716e+01 3.475645e+01 2.255696e+01 2.314389e+01 2.906708e+01 8.230094e-01 2.011734e+00 1.557693e+00 3.239306e+00 1.435416e+00 1.240146e+00 1.431532e+00 2.920261e+00 1.791102e+00 2.027774e+00 1.287800e+00 2.219127e+00 2.298571e+00
<GCONST> 9.404514e+01
<STATE> 4
<MEAN> 25
 1.265708e+01 -1.040672e+01 6.338850e-02 -1.306088e+01 -6.616238e+00 -4.157957e+00 -7.598848e+00 -2.978806e+00 -2.218096e+00 -7.844510e+00 -6.024912e+00 1.965358e+00 -4.055064e-01 -5.999281e-01 -4.023170e-02 2.463003e-01 9.974810e-02 1.917310e-01 5.491205e-01 5.106542e-01 2.303531e-01 -3.052746e-01 4.843595e-02 2.452944e-01 3.190528e-04
<VARIANCE> 25
 3.697119e+01 1.285478e+02 6.046819e+01 5.552271e+01 4.452593e+01 3.412062e+01 3.906998e+01 7.062122e+01 3.683327e+01 4.236160e+01 3.300003e+01 2.190311e+01 8.977146e-01 5.087611e+00 2.416058e+00 4.808259e+00 3.598301e+00 2.971823e+00 3.219265e+00 5.563034e+00 4.258305e+00 4.542633e+00 2.796296e+00 2.989064e+00 5.179718e+00
<GCONST> 1.076734e+02
<TRANSP> 5
 0.000000e+00 1.000000e+00 0.000000e+00 0.000000e+00 0.000000e+00
 0.000000e+00 6.602513e-01 3.397488e-01 0.000000e+00 0.000000e+00
 0.000000e+00 0.000000e+00 7.621302e-01 2.378698e-01 0.000000e+00
 0.000000e+00 0.000000e+00 0.000000e+00 8.470598e-01 1.529402e-01
 0.000000e+00 0.000000e+00 0.000000e+00 0.000000e+00 0.000000e+00
<ENDHMM>
~h "c"
<BEGINHMM>
<NUMSTATES> 5
<STATE> 2
<MEAN> 25
 -1.160279e+00 9.971115e-01 -3.764925e-01 2.377678e+00 3.055743e+00 3.867250e+00 3.734713e+00 1.283470e+00 -2.382077e-01 2.651282e+00 1.655556e+00 -5.210624e-01 -3.788574e-02 8.153251e-03 1.284368e-02 2.749355e-02 5.910178e-02 5.350937e-02 6.367868e-02 4.386215e-02 3.507287e-02 2.493608e-02 -1.360238e-02 1.135561e-02 -1.154886e-02
<VARIANCE> 25
 2.076847e+00 2.654207e+00 4.562778e+00 5.275723e+00 8.026443e+00 9.377231e+00 1.219923e+01 1.224068e+01 1.104313e+01 1.237821e+01 1.205804e+01 1.232249e+01 1.228706e-01 2.023963e-01 3.459229e-01 5.108001e-01 6.910924e-01 9.503831e-01 1.149563e+00 1.101945e+00 1.010191e+00 1.191483e+00 1.230249e+00 1.303593e+00 3.463823e-02
<GCONST> 6.176454e+01
<STATE> 3
<MEAN> 25
 -1.830109e+00 1.611284e+00 -5.592428e-01 3.243974e+00 4.606218e+00 3.316741e+00 5.473509e+00 6.206779e-01 8.999274e-02 3.129083e+00 2.035656e+00 4.252943e-02 -1.074473e+00 1.599298e-01 -3.315213e-02 -6.969996e-01 -5.747952e-01 -1.977772e+00 -5.424155e-01 -1.908667e-01 1.081337e+00 2.678335e-01 1.509886e-01 1.071301e+00 1.959002e+00
<VARIANCE> 25
 9.637548e-01 2.863496e+00 4.075651e+00 6.446787e+00 7.749563e+00 1.668332e+01 1.400467e+01 1.005703e+01 3.382573e+00 5.630799e+00 4.191287e+00 1.744227e+01 1.565879e+00 2.097951e-01 5.525240e-01 2.118902e+00 1.198957e+00 2.107735e+00 1.474889e+00 1.865888e+00 1.350339e+00 2.565509e+00 9.271249e-01 8.439895e-01 4.191968e+00
<GCONST> 7.069341e+01
<STATE> 4
<MEAN> 25
 -7.025400e+00 3.292034e+00 7.039815e-01 -3.338277e+00 8.061416e-01 -2.570232e+00 2.853518e+00 1.741967e+00 5.597369e+00 3.991151e+00 2.384892e+00 1.900224e+00 1.771504e-01 6.165270e-01 1.598713e+00 -2.418258e+00 -2.940732e+00 -1.761980e+00 -2.415838e+00 -1.335855e+00 -4.987213e-01 -1.903949e+00 -7.928221e-01 -1.371187e-01 3.706517e+00
<VARIANCE> 25
 3.151969e+01 1.001753e+01 2.817955e+01 3.720252e+01 1.872798e+01 2.825666e+01 2.254148e+01 1.944013e+01 1.311488e+01 3.057050e+01 1.329151e+01 5.988581e+00 5.869413e+00 3.916659e+00 4.628470e+00 2.183187e+00 2.784152e+00 3.141021e+00 7.852771e+00 4.794137e+00 3.379257e+00 4.404792e+00 3.542496e+00 7.871922e-01 3.135706e+00
<GCONST> 9.749516e+01
<TRANSP> 5
 0.000000e+00 1.000000e+00 0.000000e+00 0.000000e+00 0.000000e+00
 0.000000e+00 9.667659e-01 3.323408e-02 0.000000e+00 0.000000e+00
 0.000000e+00 0.000000e+00 5.054886e-01 4.945114e-01 0.000000e+00
 0.000000e+00 0.000000e+00 0.000000e+00 6.825529e-01 3.174472e-01
 0.000000e+00 0.000000e+00 0.000000e+00 0.000000e+00 0.000000e+00
<ENDHMM>
~h "d"
<BEGINHMM>
<NUMSTATES> 5
<STATE> 2
<MEAN> 25
 -2.141572e+00 3.919851e+00 -2.079366e+00 3.908343e+00 3.159538e+00 1.228771e+00 3.370695e+00 5.239569e-01 1.372992e-02 2.910845e+00 8.630939e-01 -6.093364e-01 -6.078089e-02 1.170796e-01 3.448087e-03 -6.689372e-03 6.103364e-02 1.997183e-02 3.897383e-02 3.941381e-02 -1.095341e-01 4.801861e-02 2.980436e-02 -1.913426e-02 -8.366083e-02
<VARIANCE> 25
 5.699509e+00 2.085026e+01 8.744168e+00 7.642108e+00 1.647423e+01 2.260071e+01 1.408882e+01 1.336978e+01 1.359056e+01 1.361895e+01 1.099793e+01 1.228483e+01 1.014888e-01 2.797998e-01 3.566565e-01 5.097958e-01 7.644199e-01 8.736635e-01 1.165545e+00 1.029943e+00 1.268699e+00 1.059852e+00 1.032878e+00 1.048943e+00 7.191118e-02
<GCONST> 6.846850e+01
<STATE> 3
<MEAN> 25
 -7.629283e-01 7.250966e+00 2.897184e+00 1.508483e+00 2.208586e-01 -1.545331e+00 -2.705974e+00 -7.324657e-01 -1.394221e+00 7.655229e-01 7.763096e-01 -5.723532e-01 1.729718e-01 -7.102252e-01 9.561640e-01 -8.443117e-01 -1.196402e+00 4.598528e-02 -1.417048e+00 3.563577e-02 -4.041362e-01 -5.870659e-01 6.832380e-02 -2.066978e-01 1.951399e+00
<VARIANCE> 25
 3.317223e+01 4.607373e+01 2.310199e+01 2.194640e+01 4.054116e+01 5.075583e+01 7.880859e+01 3.747643e+01 2.085442e+01 1.903428e+01 1.665773e+01 1.373906e+01 2.063756e+00 4.497765e+00 2.678667e+00 3.558782e+00 4.595256e+00 4.739058e+00 4.988328e+00 4.147968e+00 2.650101e+00 2.572769e+00 2.069255e+00 1.644279e+00 3.872009e+00
<GCONST> 1.016357e+02
<STATE> 4
<MEAN> 25
 2.974775e+00 1.034595e+00 3.064286e+00 -4.544975e+00 -8.351632e+00 -5.465041e+00 -4.215596e+00 -7.541077e-01 -2.905190e+00 -4.200685e+00 -2.438704e+00 -6.925521e-01 4.317822e-01 -8.558421e-01 -1.716747e-01 -8.149512e-01 -6.880284e-01 -4.789999e-01 2.752357e-01 5.441326e-02 -8.801166e-03 -5.101504e-01 -7.310389e-01 3.406520e-01 1.584226e+00
<VARIANCE> 25
 1.906648e+01 5.661048e+01 3.784455e+01 3.919497e+01 6.218452e+01 4.046893e+01 6.299918e+01 3.869547e+01 3.284811e+01 4.296009e+01 3.930475e+01 2.523776e+01 2.060236e+00 4.040324e+00 4.072842e+00 4.101865e+00 8.459556e+00 4.379559e+00 6.354729e+00 4.405902e+00 3.248472e+00 5.147459e+00 4.196710e+00 2.400998e+00 7.655316e+00
<GCONST> 1.090560e+02
<TRANSP> 5
 0.000000e+00 1.000000e+00 0.000000e+00 0.000000e+00 0.000000e+00
 0.000000e+00 9.072782e-01 9.272181e-02 0.000000e+00 0.000000e+00
 0.000000e+00 0.000000e+00 6.223043e-01 3.776958e-01 0.000000e+00
 0.000000e+00 0.000000e+00 0.000000e+00 8.424961e-01 1.575039e-01
 0.000000e+00 0.000000e+00 0.000000e+00 0.000000e+00 0.000000e+00
<ENDHMM>
~h "e"
<BEGINHMM>
<NUMSTATES> 5
<STATE> 2
<MEAN> 25
 4.926876e+00 -4.372992e+00 -1.665375e+00 -4.656484e+00 -2.505828e+00 -6.098524e+00 -5.658865e+00 -7.143402e-01 2.438987e+00 -2.715715e+00 -3.231540e+00 -3.991379e-01 2.798591e+00 -9.259619e-01 -1.513787e-01 -3.055550e+00 -8.310534e-01 -1.505052e+00 -2.295900e+00 -1.383622e+00 -1.181830e-01 -1.795241e+00 -1.412718e+00 -8.069059e-02 2.981714e+00
<VARIANCE> 25
 5.585392e+01 1.182315e+02 4.957448e+01 4.679076e+01 5.147650e+01 5.019476e+01 5.280365e+01 4.539095e+01 2.836833e+01 4.094183e+01 4.248268e+01 1.676752e+01 4.388165e+00 7.243241e+00 5.006999e+00 5.152316e+00 7.578047e+00 5.716228e+00 5.231350e+00 7.216604e+00 3.863490e+00 4.832293e+00 4.275698e+00 2.607111e+00 8.418843e+00
<GCONST> 1.133338e+02
<STATE> 3
<MEAN> 25
 9.497775e+00 -7.590586e+00 -1.678550e+00 -1.048074e+01 -3.816085e+00 -7.475526e+00 -7.895540e+00 -2.915999e+00 1.976805e+00 -6.040124e+00 -6.720095e+00 -7.589464e-01 7.487472e-01 -4.998505e-01 -8.036232e-02 -1.529698e+00 3.915572e-01 1.193099e-01 -1.296010e-01 -1.016413e+00 -1.324708e-01 -7.919008e-01 -9.672967e-01 -3.763390e-01 1.026750e+00
<VARIANCE> 25
 2.262062e+01 9.603937e+01 5.828095e+01 3.610781e+01 5.412029e+01 3.970288e+01 4.293417e+01 4.295724e+01 3.988071e+01 4.190869e+01 3.930774e+01 3.168987e+01 2.248123e+00 3.223006e+00 3.862675e+00 3.871404e+00 6.039285e+00 3.604218e+00 4.846768e+00 3.559283e+00 3.457429e+00 4.786603e+00 4.237525e+00 3.424623e+00 3.336060e+00
<GCONST> 1.083234e+02
<STATE> 4
<MEAN> 25
 6.755707e+00 -7.875713e+00 -4.614570e+00 -9.018071e+00 -9.511304e-01 -3.417591e+00 -3.001909e+00 -1.670690e+00 2.209453e+00 -5.352618e+00 -7.040259e+00 -1.126767e+00 -7.358577e-01 7.754267e-01 8.390266e-02 1.125374e+00 1.319038e-01 8.706100e-01 7.396774e-01 4.659584e-01 -2.853869e-01 5.764042e-01 7.128777e-01 -9.689877e-02 -1.712539e+00
<VARIANCE> 25
 2.286169e+01 8.020021e+01 3.000130e+01 5.104435e+01 3.598372e+01 4.754852e+01 5.316056e+01 5.257994e+01 3.385818e+01 3.113197e+01 3.827424e+01 1.870870e+01 1.500575e+00 3.348541e+00 1.615758e+00 2.523711e+00 2.688111e+00 2.579684e+00 2.805299e+00 3.861619e+00 2.454753e+00 3.684809e+00 2.762723e+00 1.564264e+00 4.349343e+00
<GCONST> 1.021844e+02
<TRANSP> 5
 0.000000e+00 1.000000e+00 0.000000e+00 0.000000e+00 0.000000e+00
 0.000000e+00 3.042893e-01 6.957108e-01 0.000000e+00 0.000000e+00
 0.000000e+00 0.000000e+00 3.080829e-01 6.919171e-01 0.000000e+00
 0.000000e+00 0.000000e+00 0.000000e+00 8.087509e-01 1.912491e-01
 0.000000e+00 0.000000e+00 0.000000e+00 0.000000e+00 0.000000e+00
<ENDHMM>
~h "f"
<BEGINHMM>
<NUMSTATES> 5
<STATE> 2
<MEAN> 25
 -2.910027e+00 1.409475e+00 5.054194e-01 4.414861e+00 3.504040e+00 3.757380e+00 2.422153e+00 2.955502e+00 1.895356e+00 2.645225e+00 2.794824e+00 -1.630894e-01 -1.046892e-01 1.307169e-02 -4.699906e-02 2.886523e-02 -5.388058e-02 7.225901e-03 4.407869e-02 -6.377788e-03 2.763174e-02 6.411964e-02 4.894610e-02 -4.470538e-03 8.930898e-02
<VARIANCE> 25
 5.792180e+00 6.461197e+00 1.287707e+01 9.956105e+00 1.210466e+01 1.292215e+01 1.498026e+01 1.465627e+01 1.459801e+01 1.533517e+01 1.599761e+01 1.138763e+01 1.889057e-01 3.164443e-01 5.228472e-01 6.265607e-01 8.560429e-01 9.148749e-01 1.234615e+00 1.250609e+00 1.331654e+00 1.353033e+00 1.386704e+00 1.112226e+00 2.157311e-01
<GCONST> 7.122826e+01
<STATE> 3
<MEAN> 25
 -4.345333e+00 5.671997e+00 -4.757725e+00 3.455477e+00 3.268585e+00 1.360581e+00 2.508976e+00 1.120981e+00 1.863973e+00 3.267302e+00 2.963045e+00 -3.015020e-01 4.320569e-01 -6.971129e-01 -1.274643e-01 -3.350185e-01 -3.010845e-01 -7.327018e-02 -1.883369e-01 -1.661137e-01 -4.710659e-02 -2.710065e-01 -2.524610e-01 3.782935e-02 4.960644e-01
<VARIANCE> 25
 7.036685e+00 3.149920e+01 1.692529e+01 1.017475e+01 2.592720e+01 2.555409e+01 2.388406e+01 1.905118e+01 2.191332e+01 1.774406e+01 2.641819e+01 1.777345e+01 7.884905e-01 3.051978e+00 1.866150e+00 1.575746e+00 1.864408e+00 1.925211e+00 2.050775e+00 1.811713e+00 2.114451e+00 1.880435e+00 2.468757e+00 1.537495e+00 1.092994e+00
<GCONST> 8.857840e+01
<STATE> 4
<MEAN> 25
 7.548394e-01 -1.026592e+01 -1.487072e+00 3.289258e-02 -3.943266e+00 3.148715e+00 -1.907107e+00 -1.824836e+00 6.780744e-01 -3.584787e+00 -3.672145e-01 2.454154e-01 1.449256e+00 -1.483998e+00 5.814834e-01 -1.488756e+00 -7.869838e-01 -3.772929e-01 -1.273966e+00 -1.211606e+00 -5.376332e-01 -6.237447e-01 -1.108688e+00 -1.174016e-01 1.876216e+00
<VARIANCE> 25
 2.661758e+01 9.178262e+01 4.093810e+01 3.661879e+01 4.631981e+01 2.854813e+01 3.556030e+01 2.766325e+01 1.785073e+01 3.867945e+01 2.640551e+01 1.535026e+01 3.675196e+00 9.377582e+00 4.002995e+00 4.451695e+00 4.197520e+00 4.373123e+00 3.818656e+00 4.195751e+00 2.745113e+00 3.642718e+00 5.207700e+00 2.063806e+00 5.291563e+00
<GCONST> 1.061287e+02
<TRANSP> 5
 0.000000e+00 1.000000e+00 0.000000e+00 0.000000e+00 0.000000e+00
 0.000000e+00 9.558451e-01 4.415494e-02 0.000000e+00 0.000000e+00
 0.000000e+00 0.000000e+00 7.959833e-01 2.040167e-01 0.000000e+00
 0.000000e+00 0.000000e+00 0.000000e+00 7.764539e-01 2.235461e-01
 0.000000e+00 0.000000e+00 0.000000e+00 0.000000e+00 0.000000e+00
<ENDHMM>
~h "g"
<BEGINHMM>
<NUMSTATES> 5
<STATE> 2
<MEAN> 25
 7.591878e+00 -8.806402e+00 2.643670e+00 -6.406382e+00 -4.333997e+00 -3.191423e+00 -6.598333e+00 -2.452427e+00 1.048845e+00 -3.155100e+00 -2.131955e+00 1.345364e+00 9.322246e-01 -9.550788e-01 3.783216e-02 -1.504541e+00 -1.236815e+00 -1.072955e+00 -6.058149e-01 -6.502430e-01 -2.686353e-01 -4.432959e-01 -7.340249e-01 3.598799e-01 2.120089e+00
<VARIANCE> 25
 7.145486e+01 1.436791e+02 3.402853e+01 1.046286e+02 1.024802e+02 5.410415e+01 8.135548e+01 7.392280e+01 3.742266e+01 4.983024e+01 3.063063e+01 2.934985e+01 2.870635e+00 9.610514e+00 3.154845e+00 8.015114e+00 6.617542e+00 4.782674e+00 5.726916e+00 6.692707e+00 4.051762e+00 4.260831e+00 3.899081e+00 3.149921e+00 8.744198e+00
<GCONST> 1.161895e+02
<STATE> 3
<MEAN> 25
 7.822261e+00 -5.117002e+00 -7.147092e-01 -1.154871e+01 -7.898127e+00 -9.373783e+00 -2.423525e+00 -4.764522e+00 -1.747938e+00 -5.631141e+00 -9.787053e+00 7.313942e-01 -2.921476e-02 5.599324e-01 1.174236e-02 4.884859e-01 -2.064670e-01 6.913362e-02 7.884938e-02 -1.204436e-01 -5.339051e-01 -3.843158e-01 1.494977e-01 -2.649899e-01 -7.935982e-01
<VARIANCE> 25
 1.112692e+01 5.695724e+01 3.373495e+01 1.962879e+01 8.861686e+01 2.748096e+01 8.376661e+01 2.105594e+01 1.756636e+01 3.298174e+01 2.743025e+01 1.318225e+01 6.320896e-01 2.184563e+00 9.472327e-01 2.179543e+00 2.047070e+00 1.818462e+00 2.723235e+00 1.621908e+00 1.654712e+00 1.588184e+00 1.691260e+00 1.124311e+00 1.686666e+00
<GCONST> 9.239865e+01
<STATE> 4
<MEAN> 25
 -1.533597e+00 -6.789821e+00 -8.648438e-01 1.847667e-01 -6.968484e+00 3.011128e+00 -5.005974e-01 -8.596693e-01 5.236432e-01 -7.719508e-01 2.042089e+00 -1.088963e+00 -9.138058e-01 6.640650e-02 -5.924693e-01 6.870758e-01 6.393110e-01 9.185479e-01 6.414576e-01 5.118100e-01 3.597165e-01 6.481990e-01 5.369676e-01 5.437012e-02 -6.450526e-01
<VARIANCE> 25
 4.568703e+01 1.573271e+02 5.199747e+01 2.983569e+01 4.258244e+01 4.142577e+01 4.352068e+01 3.633720e+01 3.211021e+01 4.063610e+01 3.304091e+01 1.962488e+01 3.282472e+00 2.964306e+00 2.854882e+00 2.515659e+00 2.176778e+00 4.676972e+00 2.638785e+00 3.091655e+00 3.506077e+00 3.545943e+00 3.378472e+00 2.185880e+00 1.598927e+00
<GCONST> 1.043192e+02
<TRANSP> 5
 0.000000e+00 1.000000e+00 0.000000e+00 0.000000e+00 0.000000e+00
 0.000000e+00 8.693836e-01 1.306165e-01 0.000000e+00 0.000000e+00
 0.000000e+00 0.000000e+00 8.386328e-01 1.613673e-01 0.000000e+00
 0.000000e+00 0.000000e+00 0.000000e+00 8.562974e-01 1.437026e-01
 0.000000e+00 0.000000e+00 0.000000e+00 0.000000e+00 0.000000e+00
<ENDHMM>
~h "h"
<BEGINHMM>
<NUMSTATES> 5
<STATE> 2
<MEAN> 25
 -2.926252e+00 7.562830e-01 1.660939e+00 5.256714e+00 3.417586e+00 3.711454e+00 3.786638e+00 3.160034e+00 1.934162e+00 3.190890e+00 2.680443e+00 1.735118e-01 -1.693565e-02 7.955017e-03 6.812220e-04 3.700056e-02 5.059210e-02 4.714987e-02 3.574717e-02 -1.064333e-02 2.139564e-02 4.556653e-02 -5.405167e-03 -3.968354e-03 -1.615851e-02
<VARIANCE> 25
 2.891729e+00 4.142354e+00 8.718904e+00 1.189082e+01 1.049252e+01 1.081289e+01 1.334169e+01 1.229666e+01 1.378709e+01 1.516119e+01 1.252838e+01 1.100083e+01 1.112766e-01 2.175918e-01 4.046211e-01 5.617667e-01 7.783163e-01 8.457181e-01 1.093579e+00 1.117236e+00 1.200711e+00 1.319476e+00 1.117384e+00 9.348086e-01 4.378499e-02
<GCONST> 6.512641e+01
<STATE> 3
<MEAN> 25
 -2.119289e+00 -2.541990e+00 -1.623839e+00 -3.469871e+00 6.009384e+00 7.694524e+00 2.693696e+00 2.597322e+00 1.188554e+00 1.111610e+00 6.104950e-01 3.796419e-01 7.453441e-02 -3.203401e-01 -2.420065e-01 -1.118369e+00 -3.369312e-02 7.392460e-02 -4.489975e-01 -2.803518e-01 -1.580467e-01 -6.298598e-02 -1.208123e-01 1.491746e-01 7.227082e-01
<VARIANCE> 25
 8.639860e+00 2.138563e+01 2.020360e+01 5.040346e+01 1.937440e+01 2.215998e+01 2.819128e+01 1.631451e+01 2.262186e+01 1.957770e+01 1.992095e+01 2.164318e+01 5.421786e-01 7.697386e-01 1.323139e+00 1.621573e+00 1.479239e+00 1.275153e+00 1.463002e+00 1.369681e+00 1.336797e+00 1.604170e+00 1.596648e+00 1.743798e+00 4.571607e-01
<GCONST> 8.466836e+01
<STATE> 4
<MEAN> 25
 1.056029e-01 -4.265705e+00 -2.142473e+00 -5.432890e+00 4.540688e+00 1.677679e+00 -3.228666e+00 -3.946916e+00 -9.367363e-02 -1.076341e+00 -1.381394e+00 8.720106e-02 1.433856e+00 3.840837e-01 -2.933717e-01 -7.061493e-01 -8.873379e-01 -1.304351e+00 -1.382335e+00 -1.427348e+00 -1.096608e+00 -1.166037e+00 -1.132913e+00 -5.755689e-01 8.751752e-01
<VARIANCE> 25
 2.985365e+01 5.310041e+01 2.383220e+01 5.990298e+01 3.390300e+01 4.139809e+01 4.666492e+01 5.229149e+01 3.994323e+01 4.125995e+01 3.332914e+01 3.089697e+01 2.676327e+00 2.605888e+00 1.412243e+00 1.848131e+00 1.851700e+00 3.971387e+00 4.115834e+00 4.005089e+00 3.641452e+00 2.868120e+00 2.928565e+00 3.057222e+00 1.754597e+00
<GCONST> 1.027697e+02
<TRANSP> 5
 0.000000e+00 1.000000e+00 0.000000e+00 0.000000e+00 0.000000e+00
 0.000000e+00 9.449126e-01 5.508741e-02 0.000000e+00 0.000000e+00
 0.000000e+00 0.000000e+00 8.220611e-01 1.779389e-01 0.000000e+00
 0.000000e+00 0.000000e+00 0.000000e+00 6.739697e-01 3.260304e-01
 0.000000e+00 0.000000e+00 0.000000e+00 0.000000e+00 0.000000e+00
<ENDHMM>
~h "i"
<BEGINHMM>
<NUMSTATES> 5
<STATE> 2
<MEAN> 25
 4.112368e+00 1.669232e+00 1.423303e+01 -1.289454e+01 -1.513514e+01 -2.733146e+00 -1.320311e+01 -9.287242e+00 -6.758743e-02 -1.644775e+00 -4.966459e+00 2.174866e+00 1.989380e-01 3.308525e-01 3.885046e-01 -5.816797e-01 -6.514447e-01 8.527705e-02 -6.690298e-01 -3.871627e-01 1.956334e-02 -1.602966e-02 -3.164700e-01 1.500169e-01 2.319050e-01
<VARIANCE> 25
 2.555224e+01 1.217037e+02 3.911514e+01 4.373419e+01 4.331839e+01 2.187151e+01 5.478213e+01 3.696247e+01 2.123822e+01 3.317238e+01 2.129157e+01 2.224459e+01 2.034214e+00 3.539735e+00 3.828072e+00 5.385793e+00 4.877079e+00 3.323193e+00 5.711090e+00 4.036658e+00 2.136843e+00 3.527489e+00 2.690010e+00 2.717988e+00 3.419172e+00
<GCONST> 1.047812e+02
<STATE> 3
<MEAN> 25
 1.630928e+00 1.116773e+00 7.115238e+00 -4.029541e+00 -1.173541e+01 -9.192187e-01 -7.012259e+00 -5.928863e+00 -8.719838e-01 -1.546750e+00 -1.342682e+00 1.052134e+00 -7.835135e-01 -4.923143e-01 -1.966953e+00 2.575150e+00 2.099918e+00 3.501792e-01 2.265462e+00 1.626189e+00 8.010633e-02 3.224577e-01 1.170480e+00 -3.375415e-01 -1.935265e+00
<VARIANCE> 25
 2.855578e+01 7.904472e+01 4.052485e+01 4.728503e+01 5.654751e+01 4.458634e+01 6.479783e+01 4.296219e+01 3.882840e+01 4.386693e+01 4.040502e+01 3.494143e+01 2.291550e+00 6.230115e+00 3.198473e+00 2.932122e+00 3.220475e+00 4.490446e+00 4.798781e+00 3.578744e+00 4.185113e+00 5.098778e+00 3.042787e+00 2.993159e+00 3.966369e+00
<GCONST> 1.087433e+02
<STATE> 4
<MEAN> 25
 -2.432623e+00 1.819789e+00 1.585241e+00 4.309682e+00 3.502059e-01 2.284322e+00 1.947350e+00 1.269014e+00 1.460108e+00 2.326484e+00 2.655678e+00 5.355986e-01 -9.253713e-02 -3.147084e-02 -2.168024e-01 3.460570e-01 6.127900e-01 -2.041382e-02 3.972242e-01 3.265431e-01 -9.876014e-02 5.349088e-02 1.035137e-02 -1.555181e-01 -2.593448e-01
<VARIANCE> 25
 1.109130e+01 2.737540e+01 1.964028e+01 1.802786e+01 3.566056e+01 3.159756e+01 2.519383e+01 2.279543e+01 2.360243e+01 1.986945e+01 2.404303e+01 1.682730e+01 3.574398e-01 8.842565e-01 1.184811e+00 1.107997e+00 1.828012e+00 1.927931e+00 1.962781e+00 1.834305e+00 2.062161e+00 1.789447e+00 1.832993e+00 1.496149e+00 3.820513e-01
<GCONST> 8.607925e+01
<TRANSP> 5
 0.000000e+00 1.000000e+00 0.000000e+00 0.000000e+00 0.000000e+00
 0.000000e+00 8.389134e-01 1.610866e-01 0.000000e+00 0.000000e+00
 0.000000e+00 0.000000e+00 7.462804e-01 2.537195e-01 0.000000e+00
 0.000000e+00 0.000000e+00 0.000000e+00 8.223278e-01 1.776722e-01
 0.000000e+00 0.000000e+00 0.000000e+00 0.000000e+00 0.000000e+00
<ENDHMM>
~h "j"
<BEGINHMM>
<NUMSTATES> 5
<STATE> 2
<MEAN> 25
 -2.183365e+00 1.382547e+00 3.319957e-03 3.335963e+00 3.624208e+00 3.286944e+00 3.715344e+00 1.659835e+00 8.747599e-01 3.406199e+00 3.287302e+00 -4.154538e-01 -1.480384e-03 2.260091e-02 -1.601930e-02 -2.247561e-03 4.583093e-03 -8.243887e-04 7.277265e-02 -5.168018e-02 -5.541713e-02 -1.140573e-02 -4.768846e-02 -3.258412e-03 -9.950792e-03
<VARIANCE> 25
 1.820189e+00 2.499105e+00 6.778341e+00 8.942981e+00 6.352021e+00 8.191773e+00 1.531227e+01 1.477297e+01 1.360372e+01 1.279839e+01 1.430356e+01 1.025380e+01 8.918097e-02 1.708172e-01 4.600928e-01 5.239153e-01 7.213771e-01 8.398186e-01 1.358203e+00 1.583803e+00 1.367681e+00 9.638342e-01 1.484979e+00 1.028850e+00 5.086544e-02
<GCONST> 6.346696e+01
<STATE> 3
<MEAN> 25
 -1.321667e+00 5.342196e+00 3.272959e+00 -2.823470e+00 -4.486557e+00 -4.968477e+00 -7.521359e-01 -2.598564e+00 -1.842527e+00 2.288928e+00 9.761155e-01 -7.117336e-01 1.221496e-01 2.940388e-01 7.148167e-01 -1.159646e+00 -1.629534e+00 -1.261958e+00 -5.343794e-01 -5.829572e-01 -1.912081e-01 -2.136995e-01 -3.836469e-01 -2.936808e-01 1.621363e+00
<VARIANCE> 25
 4.478636e+01 1.738428e+01 2.103069e+01 3.696894e+01 8.130378e+01 4.418500e+01 4.525648e+01 2.400650e+01 4.428819e+01 2.631115e+01 1.794194e+01 1.512948e+01 6.459338e+00 1.805889e+00 2.265744e+00 3.201314e+00 9.233453e+00 3.355802e+00 4.365247e+00 3.039546e+00 4.249331e+00 2.500676e+00 1.894170e+00 1.553838e+00 5.162521e+00
<GCONST> 1.026434e+02
<STATE> 4
<MEAN> 25
 3.521259e+00 -3.309524e-01 3.247770e+00 -8.173231e+00 -1.210417e+01 -9.908573e+00 -2.420340e-01 -1.959017e+00 -4.003433e+00 -4.421491e+00 -8.705710e+00 -9.013651e-01 4.583913e-01 -7.014137e-01 -9.236090e-01 4.866768e-01 1.026493e+00 -4.907610e-02 1.804464e-02 3.429648e-01 -2.084823e-02 -1.278000e+00 -1.025749e+00 5.671195e-01 -1.497349e-01
<VARIANCE> 25
 1.365455e+01 2.339241e+01 1.237454e+01 2.034483e+01 4.514553e+01 2.027570e+01 2.325219e+01 1.177784e+01 1.748891e+01 3.145991e+01 1.972214e+01 1.306163e+01 3.682767e-01 1.669090e+00 1.653656e+00 5.245066e-01 2.299070e+00 2.045882e+00 2.543409e+00 2.667133e+00 2.157357e+00 2.477048e+00 2.176759e+00 1.493261e+00 4.873678e-01
<GCONST> 8.650541e+01
<TRANSP> 5
 0.000000e+00 1.000000e+00 0.000000e+00 0.000000e+00 0.000000e+00
 0.000000e+00 9.725922e-01 2.740786e-02 0.000000e+00 0.000000e+00
 0.000000e+00 0.000000e+00 9.075810e-01 9.241898e-02 0.000000e+00
 0.000000e+00 0.000000e+00 0.000000e+00 8.342730e-01 1.657270e-01
 0.000000e+00 0.000000e+00 0.000000e+00 0.000000e+00 0.000000e+00
<ENDHMM>
~h "k"
<BEGINHMM>
<NUMSTATES> 5
<STATE> 2
<MEAN> 25
 -1.950358e+00 1.933060e+00 -4.175104e-01 3.310183e+00 2.503815e+00 2.288851e+00 3.372515e+00 2.603348e+00 2.198986e+00 3.622432e+00 1.197413e+00 -3.006356e-01 -6.528693e-02 -7.753326e-01 -1.007037e+00 -5.193464e-01 4.551268e-01 -1.865888e-01 -3.421379e-01 3.838343e-01 2.170767e-01 4.641537e-01 -1.882188e-01 2.699248e-01 1.253306e+00
<VARIANCE> 25
 8.201937e+00 1.127768e+01 1.553016e+01 1.796277e+01 2.132105e+01 2.175490e+01 1.708559e+01 2.164639e+01 1.796398e+01 1.831755e+01 1.757638e+01 1.382930e+01 1.194784e+00 2.758691e+00 4.602586e+00 3.949934e+00 2.590720e+00 3.996278e+00 2.896589e+00 2.465913e+00 3.079009e+00 2.829167e+00 2.903500e+00 1.505857e+00 4.662833e+00
<GCONST> 9.302332e+01
<STATE> 3
<MEAN> 25
 -1.024815e+00 -3.570338e+00 -7.823078e+00 -2.086408e+00 4.011944e+00 7.302677e-01 2.618619e-01 3.222384e+00 1.518964e+00 4.800286e+00 -2.207639e+00 1.176357e+00 1.549538e+00 -1.736281e+00 -1.142069e+00 -2.623087e+00 -4.402824e-01 -6.899221e-01 -1.888639e+00 -1.127009e+00 -6.354927e-01 -7.576216e-01 -1.724515e+00 1.086400e-01 3.414131e+00
<VARIANCE> 25
 2.603741e+01 6.693394e+01 5.905939e+01 5.847166e+01 5.453324e+01 6.758308e+01 4.487918e+01 2.888145e+01 4.544403e+01 4.386295e+01 2.494372e+01 2.093542e+01 3.448988e+00 8.317959e+00 6.388157e+00 5.196497e+00 5.045110e+00 7.114086e+00 4.792231e+00 5.232701e+00 4.779521e+00 4.203411e+00 3.251235e+00 2.354830e+00 4.648415e+00
<GCONST> 1.110258e+02
<STATE> 4
<MEAN> 25
 4.357571e+00 -8.679023e+00 -3.749869e+00 -6.812093e+00 1.966517e+00 3.374733e-02 -4.447461e+00 -9.042875e-01 -8.043507e-02 -7.324374e-01 -2.730756e+00 5.496019e-02 1.344127e+00 -5.816212e-01 8.162344e-01 -1.383522e+00 -5.454336e-01 -4.838973e-01 -4.354031e-01 -1.327972e+00 -8.186557e-01 -1.364569e+00 -3.881243e-01 -2.160834e-02 1.436541e+00
<VARIANCE> 25
 5.077267e+01 1.307850e+02 4.410159e+01 6.144132e+01 5.349890e+01 7.840999e+01 5.634995e+01 4.297378e+01 4.334297e+01 4.340699e+01 4.529160e+01 2.046940e+01 4.257070e+00 5.538224e+00 3.141977e+00 4.964159e+00 3.548445e+00 4.804187e+00 4.643434e+00 5.329642e+00 3.671319e+00 3.815842e+00 4.147063e+00 2.424119e+00 7.684691e+00
<GCONST> 1.120969e+02
<TRANSP> 5
 0.000000e+00 1.000000e+00 0.000000e+00 0.000000e+00 0.000000e+00
 0.000000e+00 6.551598e-01 3.448402e-01 0.000000e+00 0.000000e+00
 0.000000e+00 0.000000e+00 4.386987e-01 5.613013e-01 0.000000e+00
 0.000000e+00 0.000000e+00 0.000000e+00 5.013766e-01 4.986235e-01
 0.000000e+00 0.000000e+00 0.000000e+00 0.000000e+00 0.000000e+00
<ENDHMM>
~h "l"
<BEGINHMM>
<NUMSTATES> 5
<STATE> 2
<MEAN> 25
 1.016113e+01 -2.472248e+00 -1.005979e+01 -1.485303e+01 3.365271e+00 -3.014766e+00 -5.717752e+00 -7.376994e+00 -2.328132e+00 -3.642210e+00 -6.929592e+00 -3.853722e+00 1.137354e-01 3.708942e-01 -1.199948e-01 1.705381e-01 -5.538144e-02 -1.034960e-01 -3.052331e-01 -5.464175e-03 2.317061e-01 6.387268e-02 1.806755e-01 -5.963362e-03 -2.033963e-01
<VARIANCE> 25
 6.743183e+00 3.967773e+01 1.454312e+01 4.684858e+01 1.465668e+01 2.504000e+01 2.435659e+01 3.393412e+01 4.217370e+01 2.184937e+01 2.266510e+01 1.606701e+01 1.723447e-01 5.732815e-01 3.340839e-01 9.835833e-01 7.595080e-01 1.008050e+00 9.172735e-01 8.501583e-01 1.142894e+00 9.225223e-01 9.262284e-01 7.641828e-01 2.171170e-01
<GCONST> 7.764314e+01
<STATE> 3
<MEAN> 25
 1.058187e+01 -6.964047e+00 -5.655765e+00 -9.944346e+00 2.046640e+00 -3.431059e+00 -1.058768e+01 -5.088136e+00 4.401950e-01 -5.394785e+00 -5.106765e+00 -2.072461e+00 -3.813969e-01 -3.428641e-01 9.646907e-01 1.248837e+00 -8.483223e-01 -8.208464e-01 -4.573339e-01 2.272116e-01 -1.429549e-01 -6.690058e-01 -1.569460e-01 5.487069e-01 -3.157658e-02
<VARIANCE> 25
 1.367252e+01 1.148514e+02 2.152482e+01 3.792852e+01 3.161646e+01 4.956550e+01 3.029325e+01 4.551033e+01 4.387562e+01 3.390046e+01 2.089332e+01 2.129482e+01 8.371049e-01 1.588600e+00 1.325444e+00 1.816002e+00 2.456830e+00 1.803626e+00 2.158295e+00 2.322019e+00 3.085107e+00 1.705132e+00 1.921895e+00 2.100846e+00 1.035885e+00
<GCONST> 9.535438e+01
<STATE> 4
<MEAN> 25
 8.219836e+00 -2.797845e+00 -6.664787e-02 -4.864335e+00 -7.529244e+00 -8.290054e+00 -8.250637e+00 -4.838842e+00 1.783635e-01 -5.243009e+00 -3.331326e+00 1.327336e+00 -1.572007e+00 4.003985e-01 3.071409e+00 9.913065e-02 -2.833704e+00 1.209968e+00 1.484698e+00 -6.102892e-01 -1.141287e+00 8.230001e-01 4.546017e-01 6.195884e-01 -7.456619e-02
<VARIANCE> 25
 1.677396e+01 7.230044e+01 4.462976e+01 3.612572e+01 9.291450e+01 5.598740e+01 7.074979e+01 3.813908e+01 4.443433e+01 4.986772e+01 3.562661e+01 2.142648e+01 1.122122e+00 1.917951e+00 4.036849e+00 4.102458e+00 7.634419e+00 3.538460e+00 3.203844e+00 5.761757e+00 3.975399e+00 3.896605e+00 2.618738e+00 2.943445e+00 1.493567e+00
<GCONST> 1.062004e+02
<TRANSP> 5
 0.000000e+00 1.000000e+00 0.000000e+00 0.000000e+00 0.000000e+00
 0.000000e+00 8.899580e-01 1.100420e-01 0.000000e+00 0.000000e+00
 0.000000e+00 0.000000e+00 7.079022e-01 2.920978e-01 0.000000e+00
 0.000000e+00 0.000000e+00 0.000000e+00 5.128580e-01 4.871421e-01
 0.000000e+00 0.000000e+00 0.000000e+00 0.000000e+00 0.000000e+00
<ENDHMM>
~h "m"
<BEGINHMM>
<NUMSTATES> 5
<STATE> 2
<MEAN> 25
 7.101923e+00 -6.252267e+00 2.970895e+00 -2.130541e+00 -2.026653e+00 -5.684948e+00 -1.083637e+01 -5.614913e+00 -3.109605e+00 -6.202969e+00 -1.953789e+00 -1.673706e+00 4.769452e-01 -4.384655e-01 1.743192e-01 -2.859126e-01 1.871986e-02 -7.532703e-01 -1.087315e+00 -2.253409e-01 -4.769277e-01 -9.482307e-01 -1.713250e-01 -1.543804e-01 1.021272e+00
<VARIANCE> 25
 3.436135e+01 1.011685e+02 2.730060e+01 4.991844e+01 5.902802e+01 4.105622e+01 5.083460e+01 5.742489e+01 4.331803e+01 4.845562e+01 3.060464e+01 2.372106e+01 2.486612e+00 6.321329e+00 3.029914e+00 6.202186e+00 6.204908e+00 4.435313e+00 4.818928e+00 6.693013e+00 4.253817e+00 3.755754e+00 3.074710e+00 3.017515e+00 6.102500e+00
<GCONST> 1.106110e+02
<STATE> 3
<MEAN> 25
 6.939826e+00 -7.512972e-01 3.358320e+00 -1.014410e+00 -2.749711e+00 -1.081327e+01 -1.102704e+01 -6.136793e+00 -4.843319e+00 -8.413777e+00 -1.116985e+00 -2.248418e+00 -5.204450e-02 2.738060e-01 1.145468e-01 1.742229e-01 -2.454892e-01 -6.238402e-02 2.112758e-02 -3.041361e-02 -5.715812e-02 1.851371e-01 -1.830017e-01 -8.202333e-03 -2.376198e-01
<VARIANCE> 25
 1.101025e+01 8.377119e+01 1.470533e+01 2.374464e+01 3.010191e+01 2.464252e+01 2.376026e+01 5.854102e+01 2.249716e+01 5.705108e+01 2.517767e+01 1.965573e+01 3.594559e-01 8.257828e-01 9.305097e-01 8.910712e-01 1.206286e+00 1.397541e+00 1.518061e+00 1.540095e+00 1.522677e+00 2.004507e+00 1.362383e+00 1.064238e+00 6.070286e-01
<GCONST> 8.679566e+01
<STATE> 4
<MEAN> 25
 4.239319e+00 3.404007e-01 3.037350e+00 1.342038e+00 -3.184330e+00 -5.502333e+00 -8.415693e+00 -5.682720e+00 -3.848809e+00 -4.113912e+00 -1.524921e+00 -1.761538e+00 -1.346617e+00 1.713990e-01 -7.005068e-01 5.278361e-02 2.653907e-01 1.477649e+00 1.665813e+00 1.404469e+00 8.642887e-01 8.094976e-01 7.049668e-01 5.664215e-01 -7.660115e-01
<VARIANCE> 25
 3.077613e+01 8.616261e+01 2.280044e+01 2.403378e+01 3.311040e+01 3.901379e+01 6.067336e+01 5.696499e+01 3.434136e+01 7.351270e+01 3.317993e+01 3.183028e+01 2.840547e+00 4.575224e+00 2.401989e+00 2.470920e+00 3.217204e+00 2.749907e+00 4.455264e+00 4.019279e+00 3.816949e+00 6.059218e+00 2.772536e+00 2.839765e+00 4.270234e+00
<GCONST> 1.063110e+02
<TRANSP> 5
 0.000000e+00 1.000000e+00 0.000000e+00 0.000000e+00 0.000000e+00
 0.000000e+00 8.298308e-01 1.701691e-01 0.000000e+00 0.000000e+00
 0.000000e+00 0.000000e+00 8.613339e-01 1.386661e-01 0.000000e+00
 0.000000e+00 0.000000e+00 0.000000e+00 6.390591e-01 3.609408e-01
 0.000000e+00 0.000000e+00 0.000000e+00 0.000000e+00 0.000000e+00
<ENDHMM>
~h "n"
<BEGINHMM>
<NUMSTATES> 5
<STATE> 2
<MEAN> 25
 5.682403e+00 5.059547e+00 5.315524e+00 1.181969e+00 -9.570196e+00 -1.203105e+01 -7.195774e+00 -5.536958e+00 -4.389525e+00 -5.335109e+00 -2.013265e+00 -2.238742e+00 -2.353923e-01 1.307525e-01 3.185638e-02 6.902974e-02 2.613859e-01 -8.701943e-03 -2.946242e-01 -1.665529e-01 -3.779718e-01 -6.893512e-03 8.777366e-02 -2.060619e-01 -3.092877e-01
<VARIANCE> 25
 8.233968e+00 1.297500e+01 1.166676e+01 1.375608e+01 3.181605e+01 2.102084e+01 2.303007e+01 1.630838e+01 2.311153e+01 2.564752e+01 1.354568e+01 1.626975e+01 3.401954e-01 5.671005e-01 5.550616e-01 6.468471e-01 9.423154e-01 1.201404e+00 1.584404e+00 1.525481e+00 1.818702e+00 1.678034e+00 1.457939e+00 1.309109e+00 2.749548e-01
<GCONST> 7.871836e+01
<STATE> 3
<MEAN> 25
 -4.006211e-02 2.790742e+00 4.400032e+00 3.487385e+00 -3.337309e+00 -3.956738e+00 -3.203898e+00 -1.499124e+00 -3.790624e+00 -2.140925e+00 2.345837e+00 -1.902912e-01 -9.983846e-01 -4.593291e-01 -5.809194e-01 1.522636e-01 1.284185e+00 1.879456e+00 1.675678e+00 1.289228e+00 1.195476e+00 1.504679e+00 9.692712e-01 5.252960e-01 -7.159058e-01
<VARIANCE> 25
 1.176935e+01 2.537430e+01 1.497029e+01 1.535279e+01 3.037288e+01 3.712309e+01 3.557193e+01 3.327343e+01 2.679599e+01 3.965863e+01 3.076383e+01 2.196050e+01 6.721858e-01 1.076882e+00 9.016851e-01 1.011729e+00 1.245977e+00 2.087678e+00 2.476174e+00 2.618502e+00 2.412133e+00 2.455341e+00 2.369072e+00 1.719223e+00 2.615734e-01
<GCONST> 8.892419e+01
<STATE> 4
<MEAN> 25
 -2.496661e+00 9.473542e-01 4.263926e-01 4.114425e+00 3.697248e+00 4.128368e+00 3.638056e+00 2.603153e+00 1.806857e+00 3.594247e+00 2.735699e+00 1.077907e-01 -1.031591e-02 3.798497e-02 -7.527396e-02 3.623356e-02 1.226760e-01 7.743920e-02 8.170289e-02 1.012907e-02 7.485338e-02 8.230813e-02 -5.700034e-02 -4.819788e-02 -4.852787e-02
<VARIANCE> 25
 6.034440e+00 8.274482e+00 1.211575e+01 1.076747e+01 1.447341e+01 1.835764e+01 1.757722e+01 1.492464e+01 1.334218e+01 1.500481e+01 1.603575e+01 1.198731e+01 1.665273e-01 3.406330e-01 5.026953e-01 6.656449e-01 9.700931e-01 1.212422e+00 1.255706e+00 1.327419e+00 1.212585e+00 1.443942e+00 1.327154e+00 1.062967e+00 1.216722e-01
<GCONST> 7.194524e+01
<TRANSP> 5
 0.000000e+00 1.000000e+00 0.000000e+00 0.000000e+00 0.000000e+00
 0.000000e+00 8.195693e-01 1.804307e-01 0.000000e+00 0.000000e+00
 0.000000e+00 0.000000e+00 6.958908e-01 3.041092e-01 0.000000e+00
 0.000000e+00 0.000000e+00 0.000000e+00 9.214261e-01 7.857390e-02
 0.000000e+00 0.000000e+00 0.000000e+00 0.000000e+00 0.000000e+00
<ENDHMM>
~h "o"
<BEGINHMM>
<NUMSTATES> 5
<STATE> 2
<MEAN> 25
 7.816252e+00 -1.798135e+00 -3.761606e+00 -1.420875e+01 -4.109766e+00 -7.983845e-01 -3.654302e+00 -8.584825e+00 -4.469376e+00 -4.085889e-01 -6.137715e+00 -7.342581e-01 1.267156e+00 -4.546195e-01 -7.468846e-01 -1.480159e+00 3.715326e-01 -1.759802e-01 -3.744929e-01 -5.327284e-01 -5.038248e-01 -6.797771e-01 -2.689073e-01 -5.683206e-01 1.136209e+00
<VARIANCE> 25
 2.486133e+01 4.517940e+01 6.816178e+01 7.063332e+01 6.676585e+01 6.904861e+01 4.193873e+01 5.447318e+01 4.495777e+01 3.404652e+01 2.933332e+01 2.373391e+01 1.762778e+00 1.454178e+00 3.059731e+00 3.822421e+00 4.204116e+00 4.747577e+00 3.353196e+00 4.330121e+00 3.293665e+00 3.300949e+00 3.085910e+00 1.883777e+00 1.800074e+00
<GCONST> 1.053032e+02
<STATE> 3
<MEAN> 25
 1.086223e+01 -4.451061e+00 -8.070477e+00 -1.682849e+01 1.477225e+00 1.599168e+00 -5.516881e+00 -6.158291e+00 -4.019821e+00 -1.588439e+00 -4.281012e+00 -2.584566e+00 -1.494176e-01 -2.818758e-01 1.230851e-01 6.432120e-01 3.986354e-02 -5.958366e-01 2.134033e-01 1.637480e-01 5.616205e-01 -2.094933e-01 -1.261384e-01 -1.538450e-01 8.341954e-02
<VARIANCE> 25
 1.195107e+01 7.029349e+01 1.508877e+01 3.156376e+01 1.890669e+01 2.928289e+01 2.674480e+01 3.104617e+01 2.431337e+01 3.308271e+01 3.064666e+01 1.491806e+01 3.534176e-01 9.676440e-01 8.036434e-01 1.893785e+00 1.983052e+00 2.742929e+00 1.658259e+00 1.793801e+00 2.270561e+00 2.500349e+00 2.615249e+00 1.336683e+00 8.302070e-01
<GCONST> 8.963254e+01
<STATE> 4
<MEAN> 25
 7.559916e+00 -3.626001e+00 -5.134101e+00 -8.784697e+00 -1.203399e+00 -1.820745e+00 -2.347922e+00 -4.347729e+00 -8.653902e-01 -2.175145e+00 -4.789676e+00 -1.442304e+00 -1.278734e+00 4.010593e-01 1.663336e+00 2.454162e+00 -9.629214e-01 -5.017534e-01 7.021923e-01 3.109367e-01 3.981600e-01 6.199368e-02 4.134511e-01 3.897266e-01 -1.221889e+00
<VARIANCE> 25
 2.668888e+01 4.767888e+01 2.558155e+01 6.324513e+01 2.483439e+01 5.659107e+01 4.429036e+01 3.832145e+01 3.228296e+01 4.224672e+01 4.631305e+01 1.760818e+01 1.682117e+00 1.378679e+00 2.347430e+00 3.927312e+00 3.689367e+00 4.295629e+00 3.648433e+00 3.554572e+00 2.807939e+00 3.631116e+00 5.037679e+00 1.659953e+00 1.604843e+00
<GCONST> 1.023981e+02
<TRANSP> 5
 0.000000e+00 1.000000e+00 0.000000e+00 0.000000e+00 0.000000e+00
 0.000000e+00 6.653344e-01 3.346657e-01 0.000000e+00 0.000000e+00
 0.000000e+00 0.000000e+00 7.091981e-01 2.908019e-01 0.000000e+00
 0.000000e+00 0.000000e+00 0.000000e+00 5.785263e-01 4.214737e-01
 0.000000e+00 0.000000e+00 0.000000e+00 0.000000e+00 0.000000e+00
<ENDHMM>
~h "p"
<BEGINHMM>
<NUMSTATES> 5
<STATE> 2
<MEAN> 25
 2.817063e+00 -3.695549e+00 -7.893871e-01 -1.451861e-01 -1.123231e+00 -1.811780e-01 -8.300748e-01 1.089314e-01 6.914503e-01 -1.657412e-01 -3.613023e-01 -8.464772e-01 2.136435e+00 -2.392012e+00 -9.007909e-01 -2.081772e+00 -1.456625e+00 -1.266552e+00 -1.168868e+00 -7.688042e-01 -5.517746e-01 -1.643015e+00 -1.315661e+00 -3.208920e-01 3.726899e+00
<VARIANCE> 25
 4.106414e+01 8.388857e+01 3.002942e+01 3.697663e+01 4.429314e+01 3.252218e+01 3.444779e+01 4.518387e+01 2.832820e+01 3.585745e+01 2.874138e+01 2.090100e+01 3.245764e+00 8.836541e+00 3.425424e+00 5.142470e+00 4.487686e+00 3.303942e+00 3.214164e+00 6.844581e+00 3.675717e+00 3.968906e+00 3.325420e+00 2.012318e+00 7.375114e+00
<GCONST> 1.076402e+02
<STATE> 3
<MEAN> 25
 9.247509e+00 -1.145454e+01 -2.961467e+00 -8.305673e+00 -5.711886e+00 -7.748979e+00 4.626030e-01 -3.911654e+00 -5.110700e+00 -7.974930e+00 -5.905822e+00 -1.869122e+00 -1.456964e-01 1.272523e-01 2.166572e-01 -5.036188e-01 -2.084288e-01 -3.375657e-01 5.232151e-01 -4.678174e-01 -4.464902e-01 -6.128294e-01 -1.060388e-01 2.454503e-01 7.140482e-02
<VARIANCE> 25
 1.699154e+01 8.401871e+01 2.840099e+01 3.076801e+01 6.053098e+01 3.139751e+01 5.640753e+01 5.017356e+01 2.540751e+01 2.845175e+01 1.886382e+01 1.389058e+01 1.356441e+00 2.469766e+00 9.261194e-01 2.579872e+00 2.586477e+00 2.202670e+00 3.858725e+00 2.510271e+00 2.474105e+00 2.427489e+00 2.264907e+00 1.491170e+00 1.945601e+00
<GCONST> 9.739933e+01
<STATE> 4
<MEAN> 25
 1.280469e+00 -2.307457e+00 -1.563221e+00 -7.080357e-02 7.590548e-01 7.480339e-01 2.751187e+00 -8.856642e-02 -3.166554e-01 -6.780875e-01 -1.043245e+00 2.230305e-01 -4.294080e-01 4.459119e-01 2.034121e-01 2.357545e-01 1.264058e-01 3.947144e-01 -1.247187e-01 3.389895e-01 3.335078e-01 4.825797e-01 3.796777e-01 1.418447e-01 -5.009159e-01
<VARIANCE> 25
 2.770220e+01 5.892328e+01 1.888568e+01 5.035473e+01 4.168077e+01 3.466311e+01 3.533707e+01 3.365767e+01 2.605774e+01 4.376297e+01 2.299848e+01 1.773335e+01 1.632033e+00 2.938949e+00 1.169281e+00 2.392837e+00 1.540923e+00 2.250327e+00 2.099525e+00 2.626640e+00 1.750547e+00 2.475933e+00 2.020442e+00 1.517590e+00 4.669138e+00
<GCONST> 9.728463e+01
<TRANSP> 5
 0.000000e+00 1.000000e+00 0.000000e+00 0.000000e+00 0.000000e+00
 0.000000e+00 7.220986e-01 2.779014e-01 0.000000e+00 0.000000e+00
 0.000000e+00 0.000000e+00 7.654237e-01 2.345763e-01 0.000000e+00
 0.000000e+00 0.000000e+00 0.000000e+00 7.077346e-01 2.922654e-01
 0.000000e+00 0.000000e+00 0.000000e+00 0.000000e+00 0.000000e+00
<ENDHMM>
~h "r"
<BEGINHMM>
<NUMSTATES> 5
<STATE> 2
<MEAN> 25
 7.022531e+00 -1.014479e+01 2.028103e+00 -3.301377e+00 -6.770421e+00 -3.064815e+00 -3.739917e+00 -1.127519e+00 -1.305151e+00 -7.659939e+00 -4.444452e+00 5.852179e-02 -7.055344e-01 3.290150e-01 2.024354e-01 8.214912e-01 3.867168e-02 1.063202e+00 -5.354216e-01 1.795209e-01 5.830386e-01 1.867313e-02 6.134725e-01 1.862177e-01 -1.087843e+00
<VARIANCE> 25
 3.659746e+01 9.615405e+01 3.741133e+01 4.183675e+01 4.345138e+01 4.004044e+01 4.392013e+01 3.940026e+01 4.822047e+01 4.172298e+01 3.005226e+01 2.096298e+01 4.278817e+00 3.931165e+00 4.236213e+00 3.533237e+00 4.890917e+00 4.912251e+00 3.596378e+00 5.610273e+00 5.546202e+00 4.073485e+00 5.123849e+00 2.503827e+00 4.262888e+00
<GCONST> 1.092702e+02
<STATE> 3
<MEAN> 25
 -8.851693e-01 -7.229919e+00 2.123382e+00 1.565430e+00 -3.039952e+00 3.192165e+00 -6.103870e-01 2.752312e+00 3.079153e+00 -3.906295e+00 1.658594e+00 2.253772e+00 -9.305744e-01 1.185208e+00 2.229610e-02 6.929335e-01 1.014979e+00 4.354431e-01 4.044134e-01 5.107741e-01 2.239566e-01 1.068558e+00 7.818861e-01 -2.968380e-01 -1.289577e+00
<VARIANCE> 25
 2.271463e+01 6.056384e+01 3.494326e+01 2.437084e+01 3.843639e+01 3.381083e+01 4.482832e+01 3.286582e+01 3.145659e+01 5.059296e+01 2.600709e+01 2.560287e+01 2.319633e+00 4.194457e+00 4.074915e+00 1.460309e+00 3.127030e+00 4.191460e+00 4.477552e+00 3.950836e+00 3.680297e+00 4.986535e+00 3.751077e+00 2.629950e+00 1.755564e+00
<GCONST> 1.035256e+02
<STATE> 4
<MEAN> 25
 -3.231429e+00 1.618639e+00 2.280697e-01 4.594306e+00 2.757258e+00 2.959796e+00 2.301726e+00 3.190966e+00 1.884254e+00 2.161051e+00 2.767894e+00 -9.683333e-03 3.947502e-02 8.753297e-02 1.012869e-01 8.839845e-03 1.210135e-01 -8.353262e-02 -8.422603e-02 -5.522142e-02 -9.164053e-03 1.234335e-01 -9.171097e-03 -2.851308e-02 -1.991435e-01
<VARIANCE> 25
 1.318425e+01 1.859137e+01 2.008504e+01 1.314772e+01 2.345129e+01 1.736903e+01 1.764227e+01 1.864665e+01 1.911754e+01 1.840133e+01 1.656977e+01 1.320364e+01 5.036109e-01 6.073908e-01 6.992776e-01 8.098561e-01 1.264696e+00 1.317698e+00 1.511762e+00 1.650050e+00 1.578975e+00 1.526208e+00 1.591032e+00 1.198254e+00 4.491968e-01
<GCONST> 8.047774e+01
<TRANSP> 5
 0.000000e+00 1.000000e+00 0.000000e+00 0.000000e+00 0.000000e+00
 0.000000e+00 6.686319e-01 3.313681e-01 0.000000e+00 0.000000e+00
 0.000000e+00 0.000000e+00 6.852573e-01 3.147427e-01 0.000000e+00
 0.000000e+00 0.000000e+00 0.000000e+00 8.952722e-01 1.047278e-01
 0.000000e+00 0.000000e+00 0.000000e+00 0.000000e+00 0.000000e+00
<ENDHMM>
~h "s"
<BEGINHMM>
<NUMSTATES> 5
<STATE> 2
<MEAN> 25
 -1.055191e+01 2.733239e+00 -3.410596e+00 5.640168e+00 -2.229381e+00 3.246487e+00 5.386354e+00 3.170954e+00 3.125375e+00 4.134128e+00 3.837379e+00 -3.618737e-01 -1.131209e-02 -2.471909e-01 1.288791e-01 -9.729730e-02 -5.405539e-02 -1.796253e-02 -3.551115e-02 9.213375e-02 8.019807e-02 -1.782869e-02 9.618323e-02 -3.644802e-02 1.299643e-01
<VARIANCE> 25
 2.017263e+01 3.022901e+01 2.071769e+01 1.765534e+01 1.988924e+01 2.984661e+01 2.526905e+01 2.057077e+01 1.841599e+01 2.068694e+01 1.486593e+01 1.570177e+01 1.439542e+00 1.520435e+00 1.054064e+00 1.697075e+00 1.360169e+00 1.699256e+00 1.550997e+00 1.465309e+00 1.742584e+00 1.730645e+00 1.454142e+00 1.148552e+00 9.286880e-01
<GCONST> 8.686379e+01
<STATE> 3
<MEAN> 25
 -5.641451e+00 -1.831975e+00 -9.651480e-01 2.777954e+00 -1.761679e+00 1.662205e+00 4.386405e+00 2.556310e+00 3.520910e+00 2.764702e+00 2.278903e+00 2.399773e-01 2.504242e+00 -5.572267e-01 9.529489e-01 -1.543807e+00 -1.302314e+00 -1.240626e+00 -2.378402e+00 -1.722285e+00 -5.680556e-01 -1.438071e+00 -1.412094e+00 3.455832e-02 9.638826e-01
<VARIANCE> 25
 2.268014e+01 6.975509e+01 3.087374e+01 1.985983e+01 3.179915e+01 4.046232e+01 3.159386e+01 2.691681e+01 2.255198e+01 2.377050e+01 1.933427e+01 1.536657e+01 5.416773e+00 6.876528e+00 4.117465e+00 4.011564e+00 4.485035e+00 4.518860e+00 5.610137e+00 5.230108e+00 2.553440e+00 2.320701e+00 2.895809e+00 1.685388e+00 3.290271e+00
<GCONST> 1.029815e+02
<STATE> 4
<MEAN> 25
 3.836128e+00 -8.781361e+00 2.714668e+00 -4.883453e+00 -5.574231e+00 1.775128e+00 -3.907814e+00 -3.805047e+00 1.875349e-02 -1.625214e+00 -4.199120e-01 -6.724056e-01 1.275163e+00 2.770182e-01 2.828295e-01 -1.173459e+00 -2.658584e-01 -6.796779e-01 -1.313375e+00 -9.573054e-01 -4.725137e-01 -6.375362e-01 -7.436232e-01 -4.241896e-02 7.540278e-01
<VARIANCE> 25
 5.357394e+01 1.307138e+02 7.123978e+01 7.102142e+01 7.496320e+01 5.847370e+01 6.071427e+01 5.908622e+01 2.785414e+01 3.702618e+01 3.416814e+01 2.023987e+01 6.226274e+00 5.969989e+00 3.959566e+00 6.753763e+00 6.044971e+00 6.079663e+00 7.493927e+00 6.327500e+00 2.487151e+00 4.883547e+00 4.608641e+00 2.792048e+00 6.527834e+00
<GCONST> 1.146711e+02
<TRANSP> 5
 0.000000e+00 1.000000e+00 0.000000e+00 0.000000e+00 0.000000e+00
 0.000000e+00 8.017458e-01 1.982542e-01 0.000000e+00 0.000000e+00
 0.000000e+00 0.000000e+00 4.088464e-01 5.911536e-01 0.000000e+00
 0.000000e+00 0.000000e+00 0.000000e+00 5.947016e-01 4.052984e-01
 0.000000e+00 0.000000e+00 0.000000e+00 0.000000e+00 0.000000e+00
<ENDHMM>
~h "t"
<BEGINHMM>
<NUMSTATES> 5
<STATE> 2
<MEAN> 25
 -2.215041e+00 2.420917e+00 5.329846e-01 4.834305e+00 3.733616e+00 2.024487e+00 2.968421e+00 1.867190e+00 1.011141e+00 2.659127e+00 1.546043e+00 6.415588e-02 -9.498022e-02 -1.178938e-03 5.168643e-02 5.287609e-02 3.605775e-02 5.077745e-02 1.271375e-02 3.476561e-02 7.473597e-02 8.076622e-02 6.567553e-02 1.826800e-02 -5.222004e-02
<VARIANCE> 25
 3.988709e+00 1.315761e+01 1.081988e+01 7.450831e+00 1.164979e+01 1.538635e+01 1.284177e+01 1.477954e+01 1.521447e+01 1.290118e+01 1.284788e+01 1.074729e+01 2.274810e-01 5.680497e-01 5.743755e-01 5.764060e-01 1.019976e+00 1.207996e+00 1.251315e+00 1.450164e+00 1.482911e+00 1.280954e+00 1.343185e+00 1.121868e+00 5.572067e-01
<GCONST> 7.305902e+01
<STATE> 3
<MEAN> 25
 -3.039489e+00 1.490114e+00 -7.176456e-01 3.565739e+00 2.866373e+00 1.519382e+00 3.702284e+00 2.659973e+00 2.252053e+00 2.287202e+00 1.473975e+00 1.393675e-01 1.095369e-01 -1.490113e+00 -1.588145e-01 -1.313952e+00 -8.712634e-01 -1.277902e+00 -6.191142e-01 2.523590e-01 9.551736e-01 -7.018073e-01 -2.254743e-01 5.677328e-01 3.122637e+00
<VARIANCE> 25
 9.003547e+00 1.947274e+01 1.342287e+01 1.498718e+01 2.812294e+01 2.192634e+01 1.773257e+01 1.797159e+01 1.888000e+01 2.015309e+01 1.560359e+01 1.243812e+01 1.969784e+00 4.107845e+00 2.499344e+00 2.790900e+00 4.882205e+00 5.130635e+00 2.890108e+00 3.476330e+00 2.258652e+00 2.612407e+00 2.005874e+00 1.777020e+00 5.350770e+00
<GCONST> 9.410053e+01
<STATE> 4
<MEAN> 25
 8.516441e-01 -6.388517e+00 -4.149056e-01 -2.490355e+00 -5.598330e-01 -2.124103e+00 -2.353848e+00 4.807978e-03 3.095836e+00 -2.026818e+00 -9.841508e-02 1.184115e+00 2.516356e+00 -1.691234e+00 -1.558184e-01 -2.592017e+00 -1.266933e+00 -9.937838e-01 -2.708048e+00 -1.720363e+00 -7.257059e-01 -1.801919e+00 -1.048808e+00 1.196766e-01 3.838388e+00
<VARIANCE> 25
 5.310924e+01 8.300940e+01 2.932250e+01 5.739635e+01 6.803516e+01 5.226225e+01 8.127120e+01 5.454064e+01 3.024339e+01 4.740348e+01 2.834766e+01 2.157526e+01 3.698765e+00 1.220311e+01 4.832791e+00 5.121858e+00 6.450707e+00 6.742888e+00 6.728988e+00 6.372864e+00 3.084158e+00 4.790735e+00 2.551505e+00 1.983189e+00 1.012356e+01
<GCONST> 1.132027e+02
<TRANSP> 5
 0.000000e+00 1.000000e+00 0.000000e+00 0.000000e+00 0.000000e+00
 0.000000e+00 8.360399e-01 1.639601e-01 0.000000e+00 0.000000e+00
 0.000000e+00 0.000000e+00 4.634094e-01 5.365906e-01 0.000000e+00
 0.000000e+00 0.000000e+00 0.000000e+00 5.721158e-01 4.278842e-01
 0.000000e+00 0.000000e+00 0.000000e+00 0.000000e+00 0.000000e+00
<ENDHMM>
~h "u"
<BEGINHMM>
<NUMSTATES> 5
<STATE> 2
<MEAN> 25
 9.331791e+00 6.995931e+00 -4.290502e+00 -8.022603e+00 -7.863112e+00 -8.509733e+00 -1.001420e+01 -6.129440e+00 -5.394376e+00 -2.909351e+00 -2.040222e+00 1.416250e+00 1.727626e-01 4.168691e-01 3.488983e-01 9.622788e-02 -3.139573e-01 -2.873252e-01 -3.316939e-01 -1.179221e-01 -2.963341e-01 -3.604959e-01 -2.043391e-01 -2.895918e-01 -2.685243e-01
<VARIANCE> 25
 1.674045e+01 2.256152e+01 2.221305e+01 4.545481e+01 2.538605e+01 3.035410e+01 4.061183e+01 3.129795e+01 3.353252e+01 3.295939e+01 2.168103e+01 3.088657e+01 3.004294e+00 2.138246e+00 2.381683e+00 4.927638e+00 2.435392e+00 3.066617e+00 5.559001e+00 3.732364e+00 3.618549e+00 2.699066e+00 2.319962e+00 3.012023e+00 2.011467e+00
<GCONST> 1.003955e+02
<STATE> 3
<MEAN> 25
 9.617369e-01 3.368222e+00 -6.492731e-01 -1.666369e+00 -4.725171e+00 -5.953535e+00 -2.306180e+00 -1.843188e+00 -3.394940e+00 5.924433e-02 2.412548e-01 -7.563370e-01 -2.486562e+00 -8.516964e-01 6.067863e-02 1.069614e+00 1.557350e+00 1.455763e+00 2.646642e+00 1.587521e+00 1.212103e+00 1.919629e+00 1.416803e+00 4.309406e-01 -7.975634e-01
<VARIANCE> 25
 4.620538e+01 2.437350e+01 2.216632e+01 2.142879e+01 3.076583e+01 4.430785e+01 5.089087e+01 4.675620e+01 4.026965e+01 4.303691e+01 2.940881e+01 2.208508e+01 2.274435e+00 2.456480e+00 1.685716e+00 2.938468e+00 1.955631e+00 2.362419e+00 4.410537e+00 3.333552e+00 3.329604e+00 3.334920e+00 2.243160e+00 2.185440e+00 1.798671e+00
<GCONST> 1.001859e+02
<STATE> 4
<MEAN> 25
 -3.534572e+00 2.001406e+00 -8.766518e-01 2.163544e+00 1.828673e+00 6.422231e-01 4.022436e+00 2.164994e+00 6.941076e-01 3.845819e+00 2.331440e+00 -1.438623e-03 -6.760074e-02 9.787017e-03 6.145466e-02 1.939409e-01 2.435145e-01 2.158636e-01 1.769214e-01 6.398760e-02 1.371023e-01 1.596965e-02 -4.892255e-02 -9.245474e-03 -1.974700e-01
<VARIANCE> 25
 2.905009e+01 1.599865e+01 1.312072e+01 1.701341e+01 1.542435e+01 2.962675e+01 2.785149e+01 1.834705e+01 1.917335e+01 2.358648e+01 1.715172e+01 1.252976e+01 3.876190e-01 5.633522e-01 5.358493e-01 8.094736e-01 9.519665e-01 1.265579e+00 1.514667e+00 1.204601e+00 1.650056e+00 1.498505e+00 1.376473e+00 1.091367e+00 2.461648e-01
<GCONST> 7.968330e+01
<TRANSP> 5
 0.000000e+00 1.000000e+00 0.000000e+00 0.000000e+00 0.000000e+00
 0.000000e+00 8.415779e-01 1.584221e-01 0.000000e+00 0.000000e+00
 0.000000e+00 0.000000e+00 6.499637e-01 3.500362e-01 0.000000e+00
 0.000000e+00 0.000000e+00 0.000000e+00 9.083702e-01 9.162984e-02
 0.000000e+00 0.000000e+00 0.000000e+00 0.000000e+00 0.000000e+00
<ENDHMM>
~h "w"
<BEGINHMM>
<NUMSTATES> 5
<STATE> 2
<MEAN> 25
 -1.555625e+00 -7.842591e-01 -1.279910e+00 3.778092e+00 4.329264e+00 4.152989e+00 4.182777e+00 2.761626e+00 2.115125e+00 2.563082e+00 3.474504e+00 2.932436e-01 3.933204e-02 5.338962e-02 -2.873945e-02 -6.419271e-02 -7.217312e-02 1.676968e-02 6.155113e-02 -1.128994e-01 -1.031923e-01 9.234764e-02 -9.039605e-02 -8.961429e-02 -3.216030e-02
<VARIANCE> 25
 2.235036e+00 4.312265e+00 4.488863e+00 5.979820e+00 7.549407e+00 1.203091e+01 1.904964e+01 1.658123e+01 1.293744e+01 1.872003e+01 1.744726e+01 1.138654e+01 1.374393e-01 2.762712e-01 3.768883e-01 5.467609e-01 6.451471e-01 9.227542e-01 1.507179e+00 1.391253e+00 1.328834e+00 1.646059e+00 1.284217e+00 1.027045e+00 6.812592e-02
<GCONST> 6.629266e+01
<STATE> 3
<MEAN> 25
 -1.128287e-01 -1.111425e+00 -7.855808e-01 8.935947e-01 1.818562e+00 -3.952426e+00 -3.861232e+00 -4.118660e+00 -1.710228e+00 -2.156174e+00 -3.420263e+00 -1.256159e+00 2.003824e+00 5.459666e-01 -3.579364e-01 -1.501946e+00 -8.455688e-01 -2.458635e+00 -2.285014e+00 -1.789286e+00 -1.020935e+00 -1.893732e+00 -1.239145e+00 -1.040136e+00 1.670511e+00
<VARIANCE> 25
 2.189654e+01 3.276627e+01 1.276262e+01 8.583135e+00 4.066730e+01 4.187418e+01 4.316233e+01 6.485303e+01 4.175805e+01 3.210682e+01 3.349284e+01 2.868427e+01 2.529760e+00 2.350616e+00 1.161572e+00 2.776252e+00 2.927397e+00 2.132122e+00 2.900523e+00 4.712038e+00 5.727753e+00 2.285595e+00 1.190302e+00 2.678340e+00 2.628045e+00
<GCONST> 9.876232e+01
<STATE> 4
<MEAN> 25
 1.108343e+01 -4.058996e-01 -6.962420e+00 -1.242776e+01 1.993723e+00 -4.297559e+00 -5.967232e+00 -7.761057e+00 -3.770597e+00 -3.810502e-01 -5.181474e+00 -5.232405e+00 -3.230386e-02 -4.077394e-01 -9.995490e-02 -8.784769e-02 6.034995e-01 6.701878e-02 -6.940908e-03 8.714953e-03 6.433355e-02 9.467027e-02 -5.961054e-02 -3.091331e-02 2.957482e-01
<VARIANCE> 25
 1.347768e+01 5.458175e+01 1.320122e+01 3.795839e+01 7.354716e+01 3.399575e+01 2.244949e+01 3.211585e+01 2.187708e+01 2.025523e+01 1.581399e+01 9.212091e+00 1.631658e+00 3.109694e+00 1.182354e+00 4.755738e+00 5.486062e+00 3.132762e+00 1.381495e+00 2.560586e+00 2.024398e+00 1.024658e+00 1.279218e+00 1.268672e+00 1.368968e+00
<GCONST> 9.323092e+01
<TRANSP> 5
 0.000000e+00 1.000000e+00 0.000000e+00 0.000000e+00 0.000000e+00
 0.000000e+00 9.592543e-01 4.074566e-02 0.000000e+00 0.000000e+00
 0.000000e+00 0.000000e+00 7.376646e-01 2.623354e-01 0.000000e+00
 0.000000e+00 0.000000e+00 0.000000e+00 9.499196e-01 5.008037e-02
 0.000000e+00 0.000000e+00 0.000000e+00 0.000000e+00 0.000000e+00
<ENDHMM>
~h "x"
<BEGINHMM>
<NUMSTATES> 5
<STATE> 2
<MEAN> 25
 -2.031727e+00 -9.842443e+00 -1.589333e-01 3.600569e+00 -4.846240e+00 2.681354e+00 8.845276e-01 3.843327e+00 1.831960e+00 -3.360262e+00 3.154120e+00 2.747344e+00 -7.511576e-01 2.906093e-01 -8.317173e-01 7.014420e-01 -3.626613e-01 -2.748604e-01 3.287861e-01 4.592075e-01 -7.233688e-02 -5.739503e-02 5.711282e-01 4.406511e-01 6.218473e-01
<VARIANCE> 25
 9.567029e+00 9.959390e+01 4.508220e+01 3.223018e+01 3.947018e+01 6.101917e+01 2.278429e+01 3.545501e+01 1.807607e+01 3.057116e+01 1.766251e+01 1.861033e+01 1.833722e+00 8.937990e+00 3.181813e+00 3.272193e+00 5.592853e+00 5.162677e+00 2.548647e+00 4.660422e+00 2.323654e+00 4.511368e+00 2.070475e+00 2.117069e+00 5.842385e+00
<GCONST> 1.032485e+02
<STATE> 3
<MEAN> 25
 -1.105386e+01 2.147698e+00 -5.642045e+00 6.756685e+00 -8.691387e+00 4.634362e+00 5.765626e+00 9.521934e+00 9.588845e-01 1.112436e+00 6.197735e+00 1.449445e+00 2.842125e-01 3.364452e-01 1.683507e-01 -2.632541e-01 3.696866e-01 3.380242e-01 -2.033424e-02 -1.029323e-01 -6.164087e-02 1.881115e-01 -1.721074e-01 -1.484134e-01 -4.733576e-01
<VARIANCE> 25
 1.159003e+01 7.459779e+00 9.342067e+00 9.735796e+00 1.724797e+01 1.994052e+01 1.848925e+01 2.021038e+01 1.582685e+01 1.668312e+01 1.822752e+01 1.182698e+01 1.623702e+00 9.175978e-01 7.259648e-01 5.961028e-01 1.438733e+00 2.295016e+00 1.909711e+00 1.378437e+00 1.654087e+00 1.655580e+00 1.802820e+00 1.419493e+00 2.487592e-01
<GCONST> 7.990951e+01
<STATE> 4
<MEAN> 25
 -5.025561e+00 1.090930e+01 -3.047347e+00 6.009482e+00 5.321749e+00 -3.776175e-01 5.334961e+00 2.660859e+00 -8.182830e-01 3.440612e+00 5.245638e-01 -9.417688e-01 -2.807786e-02 1.459829e-01 1.764414e-01 -7.409605e-02 4.003580e-01 -1.258981e-01 -1.144687e-02 -2.572207e-02 -1.573226e-01 8.811232e-02 -6.760541e-02 -9.117360e-02 -4.192067e-01
<VARIANCE> 25
 4.935401e+00 3.047358e+01 7.854674e+00 9.266630e+00 1.592991e+01 1.699232e+01 1.607324e+01 1.613518e+01 1.334436e+01 1.918807e+01 1.660940e+01 1.240069e+01 4.288165e-01 6.509027e-01 5.207903e-01 6.379859e-01 1.682385e+00 1.181583e+00 1.212418e+00 1.152373e+00 1.458016e+00 1.324502e+00 1.568586e+00 1.044574e+00 5.513147e-01
<GCONST> 7.647996e+01
<TRANSP> 5
 0.000000e+00 1.000000e+00 0.000000e+00 0.000000e+00 0.000000e+00
 0.000000e+00 8.631475e-01 1.368524e-01 0.000000e+00 0.000000e+00
 0.000000e+00 0.000000e+00 8.945244e-01 1.054756e-01 0.000000e+00
 0.000000e+00 0.000000e+00 0.000000e+00 9.139524e-01 8.604763e-02
 0.000000e+00 0.000000e+00 0.000000e+00 0.000000e+00 0.000000e+00
<ENDHMM>
~h "y"
<BEGINHMM>
<NUMSTATES> 5
<STATE> 2
<MEAN> 25
 1.491345e+00 6.294056e+00 9.577510e+00 -8.748892e+00 -1.527488e+01 -3.347883e+00 -7.899660e+00 -6.484632e+00 -4.891549e+00 2.041232e+00 -9.109683e+00 2.193462e-01 -1.952808e-01 6.397436e-01 6.981832e-01 -1.894843e-01 -6.000518e-01 5.106974e-01 -5.238875e-01 -3.999404e-01 1.329261e-01 3.090532e-01 3.492216e-02 -2.660339e-02 -3.411976e-01
<VARIANCE> 25
 4.388548e+00 5.701698e+01 1.698183e+01 2.650324e+01 6.118090e+01 3.242295e+01 7.031664e+01 2.271947e+01 3.565674e+01 2.621049e+01 1.241187e+01 2.182979e+01 4.567533e-01 2.074387e+00 1.487198e+00 1.092233e+00 3.219713e+00 1.649856e+00 3.489311e+00 1.894051e+00 2.472151e+00 2.497619e+00 1.443731e+00 1.859316e+00 5.194550e-01
<GCONST> 9.113210e+01
<STATE> 3
<MEAN> 25
 -1.345337e+00 7.884474e-02 6.645918e+00 -4.098128e+00 -7.329015e+00 2.392648e+00 -1.706515e+00 -2.491346e+00 -7.629229e-01 2.383165e+00 -1.145301e+00 2.010602e+00 -1.102311e-01 -1.064924e+00 -1.160230e+00 1.039867e+00 1.984481e+00 3.577537e-01 1.239096e+00 9.288777e-01 2.465149e-01 -2.972184e-01 1.182726e+00 2.102366e-01 -6.516083e-01
<VARIANCE> 25
 2.670865e+01 3.264468e+01 3.996659e+01 4.315075e+01 5.041071e+01 5.419554e+01 5.307085e+01 2.802799e+01 3.259967e+01 3.783719e+01 4.574663e+01 1.997437e+01 1.707494e+00 2.130385e+00 2.275855e+00 2.876601e+00 2.063932e+00 4.276844e+00 4.380411e+00 2.628526e+00 3.621773e+00 3.961506e+00 2.626744e+00 2.593207e+00 9.381405e-01
<GCONST> 1.016332e+02
<STATE> 4
<MEAN> 25
 -1.874464e+00 -7.057158e-01 -7.016963e-01 2.971879e+00 3.722877e+00 3.653146e+00 4.732070e+00 2.212008e+00 1.570574e+00 2.100462e+00 3.128976e+00 5.563912e-01 1.037499e-02 1.885489e-02 -7.419181e-02 3.069372e-02 5.275998e-02 -4.470086e-02 -1.466599e-02 -1.892320e-02 5.449800e-02 1.662120e-04 -7.002152e-02 -2.565662e-02 -2.862932e-02
<VARIANCE> 25
 2.897473e+00 6.726911e+00 5.825732e+00 6.888112e+00 7.539736e+00 1.214409e+01 1.418926e+01 1.356330e+01 1.466619e+01 1.718948e+01 1.454207e+01 1.194217e+01 1.770550e-01 3.346476e-01 5.906869e-01 5.636646e-01 7.462243e-01 1.023010e+00 1.322227e+00 1.173880e+00 1.415850e+00 1.354865e+00 1.315331e+00 1.256503e+00 8.999684e-02
<GCONST> 6.806261e+01
<TRANSP> 5
 0.000000e+00 1.000000e+00 0.000000e+00 0.000000e+00 0.000000e+00
 0.000000e+00 8.974765e-01 1.025235e-01 0.000000e+00 0.000000e+00
 0.000000e+00 0.000000e+00 8.596992e-01 1.403007e-01 0.000000e+00
 0.000000e+00 0.000000e+00 0.000000e+00 9.575354e-01 4.246453e-02
 0.000000e+00 0.000000e+00 0.000000e+00 0.000000e+00 0.000000e+00
<ENDHMM>
~h "z"
<BEGINHMM>
<NUMSTATES> 5
<STATE> 2
<MEAN> 25
 -1.946806e+01 2.282226e+01 5.265759e+00 2.715463e+00 7.422727e+00 6.179985e+00 1.604496e+01 9.906930e+00 1.350979e+00 9.911688e+00 7.351152e+00 1.934344e+00 -4.063902e-01 3.141375e-01 4.823520e-01 -1.930203e-02 -2.052863e-02 4.342559e-01 2.498251e-01 -5.753932e-02 2.145467e-01 3.427753e-01 2.664844e-01 4.383396e-02 -3.284638e-01
<VARIANCE> 25
 4.817853e+01 5.633911e+01 2.092451e+01 2.485954e+00 3.421617e+01 1.303118e+01 2.962732e+01 3.923134e+01 1.277532e+01 1.467370e+01 3.039473e+01 8.188139e+00 2.279925e+00 1.260055e+00 1.984457e+00 6.357251e-01 4.148517e-01 8.563309e-01 1.456404e+00 1.640750e+00 1.100600e+00 1.042936e+00 1.407128e+00 7.289665e-01 1.236459e+00
<GCONST> 8.321297e+01
<STATE> 3
<MEAN> 25
 -5.770545e+00 1.798206e+00 2.704798e+00 4.610738e+00 2.078661e+00 7.301603e+00 3.456964e+00 -2.406936e+00 2.644526e+00 1.755662e+00 -2.232889e+00 -1.222690e+00 2.297996e+00 -5.856055e+00 3.878636e-01 -1.139437e+00 -5.954294e-01 2.745726e-01 -3.362098e+00 -8.297424e-01 -1.236111e-01 -2.393816e+00 -1.247960e-01 4.813219e-01 4.807012e+00
<VARIANCE> 25
 4.908403e+01 2.576469e+02 9.752537e+00 2.325834e+01 6.144314e+01 4.131074e+01 6.007626e+01 5.914607e+01 1.878969e+01 6.327224e+01 6.012713e+01 3.784715e+01 6.015516e+00 1.704021e+01 3.423793e+00 5.742837e+00 1.654848e+01 4.351843e+00 2.878547e+00 6.528352e+00 2.997053e+00 2.791042e+00 4.736060e+00 4.706251e+00 9.534204e+00
<GCONST> 1.139438e+02
<STATE> 4
<MEAN> 25
 2.285150e+00 -1.190006e+01 6.604118e+00 -7.497792e-01 -6.515089e+00 5.055442e+00 -6.901932e+00 -3.272740e+00 5.870939e+00 -2.121686e+00 6.432684e-01 4.065519e-01 1.840128e+00 6.432699e-01 2.547696e-01 -2.876802e+00 -1.950095e+00 -2.636511e+00 -1.061236e+00 -1.207564e+00 -1.936669e-01 1.137797e+00 -2.640144e-01 -3.691852e-01 2.230011e+00
<VARIANCE> 25
 5.702189e+01 6.262093e+01 1.673931e+01 4.484818e+01 1.537985e+02 4.463673e+01 2.351767e+01 1.924629e+01 3.328823e+01 1.794693e+01 3.451527e+01 4.035521e+01 2.640450e+00 8.676146e+00 6.604127e+00 4.371360e+00 6.433556e+00 2.421455e+00 2.747560e+00 1.197935e+00 2.795719e+00 1.331257e+00 2.448589e+00 6.973370e-01 9.672812e+00
<GCONST> 1.038796e+02
<TRANSP> 5
 0.000000e+00 1.000000e+00 0.000000e+00 0.000000e+00 0.000000e+00
 0.000000e+00 8.439048e-01 1.560952e-01 0.000000e+00 0.000000e+00
 0.000000e+00 0.000000e+00 7.154713e-01 2.845287e-01 0.000000e+00
 0.000000e+00 0.000000e+00 0.000000e+00 4.265397e-01 5.734604e-01
 0.000000e+00 0.000000e+00 0.000000e+00 0.000000e+00 0.000000e+00
<ENDHMM>
~h "ah"
<BEGINHMM>
<NUMSTATES> 5
<STATE> 2
<MEAN> 25
 -1.684587e-08 -6.193333e-08 -4.487690e-08 3.351832e-08 -6.047171e-08 2.058664e-08 -6.607048e-08 -2.205446e-08 -8.534414e-09 2.910867e-08 3.022347e-08 -1.071447e-09 -2.678578e-03 2.715191e-03 1.970940e-04 1.666228e-04 1.831201e-03 -7.320007e-04 3.372927e-03 1.125320e-03 -7.564414e-05 2.413395e-03 8.106225e-04 -2.148533e-03 -1.727290e-03
<VARIANCE> 25
 4.499385e+01 7.342516e+01 3.566479e+01 5.718780e+01 5.546888e+01 4.305736e+01 6.020990e+01 4.209700e+01 2.990068e+01 4.475465e+01 3.376802e+01 1.839641e+01 1.592596e+00 2.317776e+00 1.700131e+00 2.390033e+00 2.486403e+00 2.357601e+00 2.972100e+00 2.655601e+00 2.270027e+00 2.542916e+00 2.264997e+00 1.647762e+00 2.549860e+00
<GCONST> 1.014657e+02
<STATE> 3
<MEAN> 25
 -1.684587e-08 -6.193333e-08 -4.487690e-08 3.351832e-08 -6.047171e-08 2.058664e-08 -6.607048e-08 -2.205446e-08 -8.534414e-09 2.910867e-08 3.022347e-08 -1.071447e-09 -2.678578e-03 2.715191e-03 1.970940e-04 1.666228e-04 1.831201e-03 -7.320007e-04 3.372927e-03 1.125320e-03 -7.564414e-05 2.413395e-03 8.106225e-04 -2.148533e-03 -1.727290e-03
<VARIANCE> 25
 4.499385e+01 7.342516e+01 3.566479e+01 5.718780e+01 5.546888e+01 4.305736e+01 6.020990e+01 4.209700e+01 2.990068e+01 4.475465e+01 3.376802e+01 1.839641e+01 1.592596e+00 2.317776e+00 1.700131e+00 2.390033e+00 2.486403e+00 2.357601e+00 2.972100e+00 2.655601e+00 2.270027e+00 2.542916e+00 2.264997e+00 1.647762e+00 2.549860e+00
<GCONST> 1.014657e+02
<STATE> 4
<MEAN> 25
 -1.684587e-08 -6.193333e-08 -4.487690e-08 3.351832e-08 -6.047171e-08 2.058664e-08 -6.607048e-08 -2.205446e-08 -8.534414e-09 2.910867e-08 3.022347e-08 -1.071447e-09 -2.678578e-03 2.715191e-03 1.970940e-04 1.666228e-04 1.831201e-03 -7.320007e-04 3.372927e-03 1.125320e-03 -7.564414e-05 2.413395e-03 8.106225e-04 -2.148533e-03 -1.727290e-03
<VARIANCE> 25
 4.499385e+01 7.342516e+01 3.566479e+01 5.718780e+01 5.546888e+01 4.305736e+01 6.020990e+01 4.209700e+01 2.990068e+01 4.475465e+01 3.376802e+01 1.839641e+01 1.592596e+00 2.317776e+00 1.700131e+00 2.390033e+00 2.486403e+00 2.357601e+00 2.972100e+00 2.655601e+00 2.270027e+00 2.542916e+00 2.264997e+00 1.647762e+00 2.549860e+00
<GCONST> 1.014657e+02
<TRANSP> 5
 0.000000e+00 1.000000e+00 0.000000e+00 0.000000e+00 0.000000e+00
 0.000000e+00 6.000000e-01 4.000000e-01 0.000000e+00 0.000000e+00
 0.000000e+00 0.000000e+00 6.000000e-01 4.000000e-01 0.000000e+00
 0.000000e+00 0.000000e+00 0.000000e+00 7.000000e-01 3.000000e-01
 0.000000e+00 0.000000e+00 0.000000e+00 0.000000e+00 0.000000e+00
<ENDHMM>
~h "aw"
<BEGINHMM>
<NUMSTATES> 5
<STATE> 2
<MEAN> 25
 -1.684587e-08 -6.193333e-08 -4.487690e-08 3.351832e-08 -6.047171e-08 2.058664e-08 -6.607048e-08 -2.205446e-08 -8.534414e-09 2.910867e-08 3.022347e-08 -1.071447e-09 -2.678578e-03 2.715191e-03 1.970940e-04 1.666228e-04 1.831201e-03 -7.320007e-04 3.372927e-03 1.125320e-03 -7.564414e-05 2.413395e-03 8.106225e-04 -2.148533e-03 -1.727290e-03
<VARIANCE> 25
 4.499385e+01 7.342516e+01 3.566479e+01 5.718780e+01 5.546888e+01 4.305736e+01 6.020990e+01 4.209700e+01 2.990068e+01 4.475465e+01 3.376802e+01 1.839641e+01 1.592596e+00 2.317776e+00 1.700131e+00 2.390033e+00 2.486403e+00 2.357601e+00 2.972100e+00 2.655601e+00 2.270027e+00 2.542916e+00 2.264997e+00 1.647762e+00 2.549860e+00
<GCONST> 1.014657e+02
<STATE> 3
<MEAN> 25
 -1.684587e-08 -6.193333e-08 -4.487690e-08 3.351832e-08 -6.047171e-08 2.058664e-08 -6.607048e-08 -2.205446e-08 -8.534414e-09 2.910867e-08 3.022347e-08 -1.071447e-09 -2.678578e-03 2.715191e-03 1.970940e-04 1.666228e-04 1.831201e-03 -7.320007e-04 3.372927e-03 1.125320e-03 -7.564414e-05 2.413395e-03 8.106225e-04 -2.148533e-03 -1.727290e-03
<VARIANCE> 25
 4.499385e+01 7.342516e+01 3.566479e+01 5.718780e+01 5.546888e+01 4.305736e+01 6.020990e+01 4.209700e+01 2.990068e+01 4.475465e+01 3.376802e+01 1.839641e+01 1.592596e+00 2.317776e+00 1.700131e+00 2.390033e+00 2.486403e+00 2.357601e+00 2.972100e+00 2.655601e+00 2.270027e+00 2.542916e+00 2.264997e+00 1.647762e+00 2.549860e+00
<GCONST> 1.014657e+02
<STATE> 4
<MEAN> 25
 -1.684587e-08 -6.193333e-08 -4.487690e-08 3.351832e-08 -6.047171e-08 2.058664e-08 -6.607048e-08 -2.205446e-08 -8.534414e-09 2.910867e-08 3.022347e-08 -1.071447e-09 -2.678578e-03 2.715191e-03 1.970940e-04 1.666228e-04 1.831201e-03 -7.320007e-04 3.372927e-03 1.125320e-03 -7.564414e-05 2.413395e-03 8.106225e-04 -2.148533e-03 -1.727290e-03
<VARIANCE> 25
 4.499385e+01 7.342516e+01 3.566479e+01 5.718780e+01 5.546888e+01 4.305736e+01 6.020990e+01 4.209700e+01 2.990068e+01 4.475465e+01 3.376802e+01 1.839641e+01 1.592596e+00 2.317776e+00 1.700131e+00 2.390033e+00 2.486403e+00 2.357601e+00 2.972100e+00 2.655601e+00 2.270027e+00 2.542916e+00 2.264997e+00 1.647762e+00 2.549860e+00
<GCONST> 1.014657e+02
<TRANSP> 5
 0.000000e+00 1.000000e+00 0.000000e+00 0.000000e+00 0.000000e+00
 0.000000e+00 6.000000e-01 4.000000e-01 0.000000e+00 0.000000e+00
 0.000000e+00 0.000000e+00 6.000000e-01 4.000000e-01 0.000000e+00
 0.000000e+00 0.000000e+00 0.000000e+00 7.000000e-01 3.000000e-01
 0.000000e+00 0.000000e+00 0.000000e+00 0.000000e+00 0.000000e+00
<ENDHMM>
~h "ay"
<BEGINHMM>
<NUMSTATES> 5
<STATE> 2
<MEAN> 25
 2.570703e+00 -2.140049e+00 4.352239e+00 -7.069313e+00 -1.374605e+01 -4.406970e-01 -3.808923e+00 -3.600721e-01 -9.799761e+00 -9.009788e+00 -7.427258e+00 1.747352e+00 -3.846222e-01 1.047016e+00 1.141537e+00 -1.035202e+00 -1.444482e+00 8.653659e-01 -1.027475e-01 -1.123798e+00 5.278339e-01 1.269674e+00 -6.712617e-01 -6.254018e-01 -5.224258e-01
<VARIANCE> 25
 6.136240e+00 1.581679e+01 1.715519e+01 2.398842e+01 3.308963e+01 2.470519e+01 1.054342e+01 3.496452e+01 2.064935e+01 4.608492e+01 2.914305e+01 2.462447e+01 2.314212e-01 5.164281e-01 3.949139e-01 1.565884e+00 2.356092e+00 1.294764e+00 1.984048e+00 1.238508e+00 1.476991e+00 1.671606e+00 1.374501e+00 1.160906e+00 1.758352e-01
<GCONST> 8.163457e+01
<STATE> 3
<MEAN> 25
 -2.345610e+00 2.863052e-01 8.375591e+00 -6.906101e+00 -9.214866e+00 7.295208e+00 -3.500982e+00 -3.673931e+00 -1.294884e+00 -2.357085e-01 -4.908711e+00 1.158687e+00 -2.843055e-01 -3.701609e-01 -3.782892e-01 1.045056e+00 1.609495e+00 3.637078e-01 8.519853e-01 7.835044e-01 5.777382e-01 2.981220e-01 1.220268e+00 1.830949e-01 -9.598842e-01
<VARIANCE> 25
 7.584056e+00 1.359463e+01 7.893676e+00 2.157795e+01 3.996918e+01 2.188351e+01 4.806509e+01 3.367652e+01 2.813279e+01 2.435111e+01 4.806726e+01 1.159505e+01 6.631397e-01 6.218895e-01 9.311537e-01 1.470776e+00 1.509022e+00 2.482074e+00 3.555635e+00 1.583431e+00 3.490627e+00 2.723262e+00 1.870519e+00 1.495437e+00 3.170632e-01
<GCONST> 8.734557e+01
<STATE> 4
<MEAN> 25
 -2.047569e+00 -2.687443e-01 -7.608554e-01 3.579065e+00 5.260874e+00 4.917167e+00 4.629406e+00 3.406925e+00 2.140958e+00 2.809042e+00 3.573204e+00 4.792669e-01 4.946484e-02 5.393182e-02 -1.328979e-01 4.912155e-02 5.346754e-02 -9.530757e-02 -2.786900e-02 -3.630925e-02 3.810559e-02 8.957443e-02 2.185197e-03 4.359470e-03 -4.620601e-02
<VARIANCE> 25
 2.655645e+00 3.470685e+00 5.626019e+00 5.832539e+00 8.179161e+00 8.736485e+00 8.875438e+00 1.410130e+01 1.422071e+01 1.031845e+01 1.323543e+01 9.750482e+00 2.171158e-01 2.848498e-01 7.947378e-01 7.139723e-01 8.132550e-01 8.261527e-01 8.116027e-01 1.016605e+00 1.133300e+00 1.138791e+00 1.090753e+00 8.257140e-01 8.337928e-02
<GCONST> 6.433269e+01
<TRANSP> 5
 0.000000e+00 1.000000e+00 0.000000e+00 0.000000e+00 0.000000e+00
 0.000000e+00 8.910416e-01 1.089584e-01 0.000000e+00 0.000000e+00
 0.000000e+00 0.000000e+00 9.206772e-01 7.932279e-02 0.000000e+00
 0.000000e+00 0.000000e+00 0.000000e+00 9.735428e-01 2.645718e-02
 0.000000e+00 0.000000e+00 0.000000e+00 0.000000e+00 0.000000e+00
<ENDHMM>
~h "kh"
<BEGINHMM>
<NUMSTATES> 5
<STATE> 2
<MEAN> 25
 -7.053068e-01 1.282740e+00 -1.120867e+00 2.407019e+00 3.232532e+00 3.937522e+00 4.666086e+00 1.882897e+00 1.489916e+00 2.589963e+00 2.752283e+00 1.925113e-01 5.927590e-03 3.739516e-03 -7.124818e-03 1.529660e-03 1.006882e-02 1.734100e-02 -8.420522e-03 -2.809325e-02 2.532226e-02 3.539452e-02 -2.830105e-02 -3.845595e-02 -9.611937e-03
<VARIANCE> 25
 1.192243e+00 1.884631e+00 5.026198e+00 6.103496e+00 1.318777e+01 1.134316e+01 1.862833e+01 1.252336e+01 1.541634e+01 1.451309e+01 1.224450e+01 1.082812e+01 1.032586e-01 1.667006e-01 3.905323e-01 5.469878e-01 7.659398e-01 9.186131e-01 1.046244e+00 1.285944e+00 1.076646e+00 1.349212e+00 1.185055e+00 1.017915e+00 4.002777e-02
<GCONST> 6.262014e+01
<STATE> 3
<MEAN> 25
 -2.034883e+00 -1.315720e+00 -6.547826e+00 7.975678e-01 7.914746e+00 1.044590e+00 -1.070455e+00 5.027789e+00 4.490153e+00 6.547098e+00 -1.165518e+00 1.035841e-01 -7.568401e-01 -1.320715e+00 -4.685863e-01 -3.386658e-02 1.773243e+00 -1.816705e+00 -2.783601e+00 7.362381e-01 1.521380e+00 7.056929e-01 -1.555069e+00 1.818265e-01 3.528351e+00
<VARIANCE> 25
 5.179619e+00 2.262252e+01 3.193886e+01 1.606285e+01 3.365122e+01 3.202497e+01 7.148179e+01 2.186167e+01 3.659510e+01 2.214148e+01 3.729522e+01 1.501610e+01 6.048229e-01 2.214124e+00 3.403427e+00 2.367488e+00 2.703252e+00 2.097665e+00 3.676340e+00 3.287792e+00 4.248312e+00 2.033609e+00 1.672085e+00 2.054062e+00 3.799554e+00
<GCONST> 9.564418e+01
<STATE> 4
<MEAN> 25
 -6.948357e+00 -7.572676e+00 1.068895e+00 2.616182e+00 9.163525e+00 -2.175639e+00 -3.894516e+00 -2.056263e-01 5.823428e+00 2.768572e+00 -1.750978e+00 3.753818e+00 7.950949e-01 -2.065008e-01 4.544957e-01 -4.782647e-01 -1.379611e+00 -5.484087e-01 1.572180e-02 -1.978789e+00 -1.711191e+00 -1.293977e+00 3.565309e-01 3.860816e-01 1.125697e-01
<VARIANCE> 25
 2.313700e+01 3.053698e+01 1.853590e+01 9.052497e+00 2.181826e+01 3.515222e+01 3.322872e+01 4.268356e+01 3.167659e+01 3.114699e+01 1.729987e+01 2.309985e+01 5.364985e+00 2.190737e+00 2.321721e+00 2.250450e+00 2.359430e+00 3.957659e+00 4.889209e+00 3.913497e+00 3.284612e+00 2.500604e+00 1.804481e+00 2.727106e+00 6.536704e-01
<GCONST> 9.699178e+01
<TRANSP> 5
 0.000000e+00 1.000000e+00 0.000000e+00 0.000000e+00 0.000000e+00
 0.000000e+00 9.778767e-01 2.212322e-02 0.000000e+00 0.000000e+00
 0.000000e+00 0.000000e+00 7.852436e-01 2.147563e-01 0.000000e+00
 0.000000e+00 0.000000e+00 0.000000e+00 8.258500e-01 1.741500e-01
 0.000000e+00 0.000000e+00 0.000000e+00 0.000000e+00 0.000000e+00
<ENDHMM>
~h "ng"
<BEGINHMM>
<NUMSTATES> 5
<STATE> 2
<MEAN> 25
 5.439984e+00 4.240316e+00 3.023779e+00 -3.120422e-01 -4.262955e+00 -7.605638e+00 -8.118295e+00 -5.175770e+00 -3.858417e+00 -5.359670e+00 -1.843902e+00 -2.803962e-01 -1.894936e-01 3.213789e-02 6.716190e-02 1.391896e-01 -2.675731e-02 3.729925e-02 -4.648202e-02 1.349094e-01 -3.950742e-01 -1.133902e-01 -1.096853e-01 -2.877406e-01 -2.156995e-01
<VARIANCE> 25
 4.877648e+00 1.176025e+01 1.111200e+01 2.381707e+01 1.688649e+01 2.205400e+01 1.953200e+01 2.905573e+01 1.730607e+01 2.399873e+01 1.828948e+01 3.114140e+01 2.246791e-01 4.189924e-01 7.143022e-01 6.447621e-01 9.860629e-01 8.366521e-01 8.653611e-01 1.854984e+00 1.330752e+00 1.664178e+00 1.409896e+00 1.427145e+00 3.384894e-01
<GCONST> 7.776353e+01
<STATE> 3
<MEAN> 25
 -6.136647e-01 2.040548e+00 1.933770e+00 1.723377e+00 5.007932e-01 -8.241587e-01 -1.043858e+00 1.457066e-01 -3.793781e+00 -2.371808e+00 1.431329e+00 -8.964304e-01 -8.955828e-01 -7.727252e-01 -5.640908e-01 1.837422e-01 1.202923e+00 1.453155e+00 1.718212e+00 1.393545e+00 1.514979e+00 1.325812e+00 9.459322e-01 4.330763e-01 -5.278157e-01
<VARIANCE> 25
 1.458682e+01 1.722950e+01 1.075264e+01 1.185290e+01 2.106126e+01 3.127275e+01 4.869425e+01 4.117250e+01 4.081196e+01 4.489662e+01 2.723926e+01 1.992961e+01 1.063432e+00 1.322521e+00 8.780108e-01 1.341567e+00 1.861073e+00 1.850500e+00 2.867575e+00 3.499097e+00 3.740090e+00 2.939749e+00 2.449679e+00 1.670858e+00 9.204350e-01
<GCONST> 9.199628e+01
<STATE> 4
<MEAN> 25
 -3.006265e+00 3.519464e-01 -1.833707e-01 2.439319e+00 3.650833e+00 5.099554e+00 4.807263e+00 2.440748e+00 2.481972e+00 4.391180e+00 2.505860e+00 -2.825831e-01 -2.445498e-02 -2.856481e-03 -1.919632e-02 2.903672e-02 -3.542634e-03 2.043996e-02 4.329095e-02 1.383026e-02 4.342218e-02 5.056905e-02 -1.437600e-02 -1.017744e-02 -1.752667e-02
<VARIANCE> 25
 2.140607e+00 4.714161e+00 5.295380e+00 7.104015e+00 1.199879e+01 1.106199e+01 1.261287e+01 1.019884e+01 1.197064e+01 1.381079e+01 1.303775e+01 1.050390e+01 1.157842e-01 2.019012e-01 4.011371e-01 5.945335e-01 9.147502e-01 8.219427e-01 1.116936e+00 1.056599e+00 1.145481e+00 1.080635e+00 1.162022e+00 8.518693e-01 9.340620e-02
<GCONST> 6.418233e+01
<TRANSP> 5
 0.000000e+00 1.000000e+00 0.000000e+00 0.000000e+00 0.000000e+00
 0.000000e+00 8.747315e-01 1.252685e-01 0.000000e+00 0.000000e+00
 0.000000e+00 0.000000e+00 7.715206e-01 2.284794e-01 0.000000e+00
 0.000000e+00 0.000000e+00 0.000000e+00 9.477931e-01 5.220689e-02
 0.000000e+00 0.000000e+00 0.000000e+00 0.000000e+00 0.000000e+00
<ENDHMM>
~h "ny"
<BEGINHMM>
<NUMSTATES> 5
<STATE> 2
<MEAN> 25
 7.024463e-01 3.878036e+00 4.827539e+00 -2.278581e-01 -7.032465e+00 -5.983721e+00 -5.677666e+00 -5.765057e-01 -9.357406e+00 -8.183820e+00 -1.430474e+00 -2.014882e+00 -1.918414e-01 -2.134466e-01 -5.700143e-02 2.980133e-01 3.869369e-01 2.231742e-01 2.408791e-01 2.004407e-01 3.098280e-01 1.357934e-01 2.321659e-01 1.856705e-01 -2.617322e-01
<VARIANCE> 25
 1.994291e+01 5.261806e+01 1.676622e+01 1.781626e+01 6.780799e+01 3.764907e+01 2.661276e+01 7.627246e+01 6.155556e+01 7.178139e+01 3.649341e+01 3.123619e+01 2.283270e+00 2.959056e+00 1.503745e+00 2.462819e+00 4.463521e+00 3.534040e+00 3.038418e+00 7.013595e+00 3.628333e+00 5.484714e+00 2.115153e+00 2.374375e+00 2.708725e+00
<GCONST> 1.041337e+02
<STATE> 3
<MEAN> 25
 -8.657829e+00 5.457886e+00 -3.591473e+00 2.926786e+00 3.690236e+00 8.895051e-01 8.779126e+00 2.045956e+00 3.639142e+00 4.175800e+00 3.639179e+00 1.632711e+00 3.924515e-01 -2.798543e-01 -5.152259e-02 1.316679e-01 2.845064e-01 6.274766e-01 3.913062e-01 9.450381e-02 2.677908e-01 4.054967e-01 -8.743993e-02 -1.075632e-01 -5.880206e-01
<VARIANCE> 25
 3.854649e+01 3.598139e+01 1.128138e+01 8.582168e+00 7.235340e+00 1.049207e+01 3.304232e+01 1.423673e+01 1.683931e+01 1.727635e+01 2.332543e+01 1.557712e+01 1.154313e+00 1.040320e+00 8.052327e-01 6.358570e-01 5.416252e-01 8.563097e-01 2.656353e+00 2.489647e+00 1.755909e+00 1.412503e+00 2.049169e+00 8.553333e-01 3.768512e-01
<GCONST> 8.093427e+01
<STATE> 4
<MEAN> 25
 -2.534560e+00 -8.189933e-01 -8.842801e-01 3.059429e+00 4.310332e+00 4.884860e+00 5.771656e+00 2.464914e+00 2.667715e+00 3.465373e+00 2.720725e+00 6.169723e-01 2.236454e-02 1.739185e-03 -3.154306e-02 -1.947402e-02 -3.987643e-02 -2.042271e-02 6.668165e-02 -1.053530e-01 -7.445640e-02 3.916524e-02 -3.019727e-02 -5.438789e-03 -2.225451e-02
<VARIANCE> 25
 1.895487e+00 4.712844e+00 3.919485e+00 5.839803e+00 7.096573e+00 1.219666e+01 1.269091e+01 1.318196e+01 1.358954e+01 1.494192e+01 1.729340e+01 1.036470e+01 1.200802e-01 2.013749e-01 3.146845e-01 5.251431e-01 6.824772e-01 1.092311e+00 1.283605e+00 1.421637e+00 1.435217e+00 1.274796e+00 1.688462e+00 9.849653e-01 5.498534e-02
<GCONST> 6.434746e+01
<TRANSP> 5
 0.000000e+00 1.000000e+00 0.000000e+00 0.000000e+00 0.000000e+00
 0.000000e+00 9.204928e-01 7.950723e-02 0.000000e+00 0.000000e+00
 0.000000e+00 0.000000e+00 7.442035e-01 2.557965e-01 0.000000e+00
 0.000000e+00 0.000000e+00 0.000000e+00 9.635323e-01 3.646770e-02
 0.000000e+00 0.000000e+00 0.000000e+00 0.000000e+00 0.000000e+00
<ENDHMM>
~h "sp"
<BEGINHMM>
<NUMSTATES> 3
<STATE> 2
~s "silst"
<TRANSP> 3
 0.000000e+00 1.343811e-01 8.656188e-01
 0.000000e+00 9.246923e-01 7.530767e-02
 0.000000e+00 0.000000e+00 0.000000e+00
<ENDHMM>
~h "sy"
<BEGINHMM>
<NUMSTATES> 5
<STATE> 2
<MEAN> 25
 -9.030942e-01 3.384613e-01 2.620240e-01 1.987201e+00 1.871841e-01 2.688042e+00 3.175056e+00 2.909392e+00 1.932971e-01 1.874856e+00 3.010947e+00 6.310539e-01 2.961231e-02 -7.151840e-03 -2.141852e-02 4.460021e-02 4.931062e-02 -6.805575e-03 1.455485e-02 4.037127e-03 -2.557222e-02 3.174099e-02 2.842972e-02 -2.732964e-02 -6.597503e-03
<VARIANCE> 25
 4.476816e+00 5.566373e+00 9.201589e+00 5.659638e+00 7.867163e+00 1.299139e+01 1.263532e+01 1.505443e+01 1.348190e+01 1.078699e+01 1.456351e+01 1.019824e+01 1.343581e-01 3.089519e-01 3.518322e-01 5.196310e-01 5.521998e-01 8.933340e-01 1.006644e+00 1.293675e+00 1.105697e+00 9.952532e-01 1.015253e+00 1.094383e+00 5.868269e-02
<GCONST> 6.501276e+01
<STATE> 3
<MEAN> 25
 -5.476370e+00 -1.317533e+00 7.423608e+00 -4.932665e-01 8.657725e-01 3.113807e+00 1.570552e+00 4.268883e+00 2.418539e+00 2.059490e+00 4.916969e+00 -1.050466e-01 -2.267426e+00 -6.989547e-01 2.258940e+00 -1.405436e+00 -6.809366e-03 -4.318223e-01 -2.507635e-01 7.490235e-01 8.647181e-01 3.503038e-02 8.100032e-01 -1.962664e-01 1.807784e+00
<VARIANCE> 25
 3.287796e+01 1.087265e+01 4.939608e+01 1.855225e+01 1.173859e+01 1.192983e+01 1.477991e+01 1.319706e+01 2.086289e+01 2.159674e+01 1.260707e+01 2.021794e+01 1.883673e+00 1.381495e+00 2.392643e+00 1.248201e+00 1.506826e+00 1.049487e+00 1.712862e+00 1.210178e+00 2.110567e+00 1.860218e+00 1.381251e+00 1.750466e+00 1.219411e+00
<GCONST> 8.619958e+01
<STATE> 4
<MEAN> 25
 -1.593642e+01 -3.667116e+00 1.482683e+01 -2.288055e+00 -3.052090e+00 3.922437e+00 4.218042e+00 2.599185e+00 4.019819e+00 4.270911e+00 4.738595e+00 -8.235110e-01 7.204078e-01 1.256416e-01 6.989933e-02 -2.984801e-01 -7.927667e-01 -4.501011e-01 -5.621708e-01 -3.454011e-01 -2.422991e-01 -1.953424e-01 -3.784664e-01 8.904045e-03 8.285850e-02
<VARIANCE> 25
 1.665975e+01 2.157229e+01 1.175170e+01 3.023940e+01 3.775428e+01 2.691897e+01 3.900330e+01 2.476114e+01 1.367700e+01 3.314199e+01 1.188342e+01 1.695162e+01 6.523867e+00 8.494883e-01 1.021475e+00 1.412635e+00 3.424628e+00 2.286221e+00 3.532868e+00 1.425816e+00 1.653107e+00 1.159873e+00 9.751928e-01 1.358758e+00 6.273273e-01
<GCONST> 8.914326e+01
<TRANSP> 5
 0.000000e+00 1.000000e+00 0.000000e+00 0.000000e+00 0.000000e+00
 0.000000e+00 9.517685e-01 4.823150e-02 0.000000e+00 0.000000e+00
 0.000000e+00 0.000000e+00 6.568864e-01 3.431136e-01 0.000000e+00
 0.000000e+00 0.000000e+00 0.000000e+00 9.283558e-01 7.164422e-02
 0.000000e+00 0.000000e+00 0.000000e+00 0.000000e+00 0.000000e+00
<ENDHMM>
~h "sil"
<BEGINHMM>
<NUMSTATES> 5
<STATE> 2
<MEAN> 25
 -3.304207e+00 3.695448e+00 -1.566227e-01 5.046317e+00 3.983415e+00 1.741983e+00 2.868703e+00 2.204779e+00 1.634821e+00 3.409333e+00 1.803422e+00 -6.711748e-02 -5.267977e-02 8.920194e-02 3.986286e-02 1.581188e-02 8.543128e-02 2.470751e-02 6.288205e-02 5.902648e-03 -2.400843e-02 6.251272e-02 -2.219997e-02 -3.079792e-02 -7.189845e-02
<VARIANCE> 25
 3.252459e+00 1.829350e+01 1.606201e+01 9.377705e+00 1.033113e+01 1.668955e+01 1.480405e+01 1.351938e+01 1.539835e+01 1.434104e+01 1.386796e+01 1.204031e+01 1.275834e-01 3.136970e-01 4.403557e-01 6.058103e-01 8.225419e-01 8.933911e-01 1.064486e+00 1.133051e+00 1.245366e+00 1.199072e+00 1.194544e+00 1.090667e+00 7.948732e-02
<GCONST> 6.948489e+01
<STATE> 3
~s "silst"
<STATE> 4
<MEAN> 25
 -1.935498e+00 4.281113e-01 -1.169523e+00 3.805893e+00 9.193731e-01 5.200591e-01 1.166967e-01 8.214168e-01 2.288348e+00 4.144396e-01 1.529766e+00 4.713828e-01 2.857575e-01 -3.220297e-01 -1.132783e-01 -1.214440e-01 -2.791273e-01 -2.037841e-01 -3.278583e-01 -1.670754e-01 -4.806874e-02 -2.479119e-01 -7.737570e-02 2.564904e-02 4.130405e-01
<VARIANCE> 25
 1.147608e+01 3.876004e+01 2.918907e+01 2.197130e+01 3.639733e+01 3.145166e+01 3.812680e+01 2.724920e+01 2.557922e+01 4.000148e+01 2.946034e+01 2.068708e+01 1.336629e+00 3.467102e+00 2.222166e+00 2.032052e+00 3.058088e+00 2.744194e+00 3.464155e+00 2.654505e+00 2.611377e+00 3.159516e+00 2.301492e+00 2.022436e+00 2.551671e+00
<GCONST> 9.781216e+01
<TRANSP> 5
 0.000000e+00 1.000000e+00 0.000000e+00 0.000000e+00 0.000000e+00
 0.000000e+00 9.174051e-01 1.405649e-02 6.853844e-02 0.000000e+00
 0.000000e+00 0.000000e+00 9.557644e-01 4.423558e-02 0.000000e+00
 0.000000e+00 1.216424e-01 0.000000e+00 7.214130e-01 1.569447e-01
 0.000000e+00 0.000000e+00 0.000000e+00 0.000000e+00 0.000000e+00
<ENDHMM>
