~o
<STREAMINFO> 1 25
<VECSIZE> 25<NULLD><MFCC_D_N_Z_0><DIAGC>
~t "T_E"
<TRANSP> 5
 0.000000e+00 1.000000e+00 0.000000e+00 0.000000e+00 0.000000e+00
 0.000000e+00 5.933436e-01 4.066564e-01 0.000000e+00 0.000000e+00
 0.000000e+00 0.000000e+00 7.799945e-01 2.200054e-01 0.000000e+00
 0.000000e+00 0.000000e+00 0.000000e+00 7.089183e-01 2.910816e-01
 0.000000e+00 0.000000e+00 0.000000e+00 0.000000e+00 0.000000e+00
~t "T_K"
<TRANSP> 5
 0.000000e+00 1.000000e+00 0.000000e+00 0.000000e+00 0.000000e+00
 0.000000e+00 6.000000e-01 4.000000e-01 0.000000e+00 0.000000e+00
 0.000000e+00 0.000000e+00 6.000000e-01 4.000000e-01 0.000000e+00
 0.000000e+00 0.000000e+00 0.000000e+00 7.000000e-01 3.000000e-01
 0.000000e+00 0.000000e+00 0.000000e+00 0.000000e+00 0.000000e+00
~t "T_a"
<TRANSP> 5
 0.000000e+00 1.000000e+00 0.000000e+00 0.000000e+00 0.000000e+00
 0.000000e+00 8.647987e-01 1.352013e-01 0.000000e+00 0.000000e+00
 0.000000e+00 0.000000e+00 8.171882e-01 1.828118e-01 0.000000e+00
 0.000000e+00 0.000000e+00 0.000000e+00 9.162707e-01 8.372927e-02
 0.000000e+00 0.000000e+00 0.000000e+00 0.000000e+00 0.000000e+00
~t "T_b"
<TRANSP> 5
 0.000000e+00 1.000000e+00 0.000000e+00 0.000000e+00 0.000000e+00
 0.000000e+00 6.854374e-01 3.145625e-01 0.000000e+00 0.000000e+00
 0.000000e+00 0.000000e+00 8.024026e-01 1.975974e-01 0.000000e+00
 0.000000e+00 0.000000e+00 0.000000e+00 8.386490e-01 1.613510e-01
 0.000000e+00 0.000000e+00 0.000000e+00 0.000000e+00 0.000000e+00
~t "T_c"
<TRANSP> 5
 0.000000e+00 1.000000e+00 0.000000e+00 0.000000e+00 0.000000e+00
 0.000000e+00 9.541541e-01 4.584581e-02 0.000000e+00 0.000000e+00
 0.000000e+00 0.000000e+00 5.440205e-01 4.559794e-01 0.000000e+00
 0.000000e+00 0.000000e+00 0.000000e+00 6.826446e-01 3.173554e-01
 0.000000e+00 0.000000e+00 0.000000e+00 0.000000e+00 0.000000e+00
~t "T_d"
<TRANSP> 5
 0.000000e+00 1.000000e+00 0.000000e+00 0.000000e+00 0.000000e+00
 0.000000e+00 8.668582e-01 1.331418e-01 0.000000e+00 0.000000e+00
 0.000000e+00 0.000000e+00 6.815699e-01 3.184300e-01 0.000000e+00
 0.000000e+00 0.000000e+00 0.000000e+00 7.925386e-01 2.074613e-01
 0.000000e+00 0.000000e+00 0.000000e+00 0.000000e+00 0.000000e+00
~t "T_e"
<TRANSP> 5
 0.000000e+00 1.000000e+00 0.000000e+00 0.000000e+00 0.000000e+00
 0.000000e+00 3.021208e-01 6.978792e-01 0.000000e+00 0.000000e+00
 0.000000e+00 0.000000e+00 5.945839e-01 4.054161e-01 0.000000e+00
 0.000000e+00 0.000000e+00 0.000000e+00 7.790980e-01 2.209020e-01
 0.000000e+00 0.000000e+00 0.000000e+00 0.000000e+00 0.000000e+00
~t "T_f"
<TRANSP> 5
 0.000000e+00 1.000000e+00 0.000000e+00 0.000000e+00 0.000000e+00
 0.000000e+00 9.539511e-01 4.604881e-02 0.000000e+00 0.000000e+00
 0.000000e+00 0.000000e+00 7.174503e-01 2.825497e-01 0.000000e+00
 0.000000e+00 0.000000e+00 0.000000e+00 7.353873e-01 2.646127e-01
 0.000000e+00 0.000000e+00 0.000000e+00 0.000000e+00 0.000000e+00
~t "T_g"
<TRANSP> 5
 0.000000e+00 1.000000e+00 0.000000e+00 0.000000e+00 0.000000e+00
 0.000000e+00 8.486972e-01 1.513028e-01 0.000000e+00 0.000000e+00
 0.000000e+00 0.000000e+00 8.555704e-01 1.444297e-01 0.000000e+00
 0.000000e+00 0.000000e+00 0.000000e+00 7.964374e-01 2.035626e-01
 0.000000e+00 0.000000e+00 0.000000e+00 0.000000e+00 0.000000e+00
~t "T_h"
<TRANSP> 5
 0.000000e+00 1.000000e+00 0.000000e+00 0.000000e+00 0.000000e+00
 0.000000e+00 9.267184e-01 7.328159e-02 0.000000e+00 0.000000e+00
 0.000000e+00 0.000000e+00 8.037408e-01 1.962592e-01 0.000000e+00
 0.000000e+00 0.000000e+00 0.000000e+00 6.306760e-01 3.693240e-01
 0.000000e+00 0.000000e+00 0.000000e+00 0.000000e+00 0.000000e+00
~t "T_i"
<TRANSP> 5
 0.000000e+00 1.000000e+00 0.000000e+00 0.000000e+00 0.000000e+00
 0.000000e+00 8.239316e-01 1.760684e-01 0.000000e+00 0.000000e+00
 0.000000e+00 0.000000e+00 7.003418e-01 2.996581e-01 0.000000e+00
 0.000000e+00 0.000000e+00 0.000000e+00 8.544695e-01 1.455304e-01
 0.000000e+00 0.000000e+00 0.000000e+00 0.000000e+00 0.000000e+00
~t "T_j"
<TRANSP> 5
 0.000000e+00 1.000000e+00 0.000000e+00 0.000000e+00 0.000000e+00
 0.000000e+00 9.591985e-01 4.080154e-02 0.000000e+00 0.000000e+00
 0.000000e+00 0.000000e+00 8.697940e-01 1.302060e-01 0.000000e+00
 0.000000e+00 0.000000e+00 0.000000e+00 8.551961e-01 1.448039e-01
 0.000000e+00 0.000000e+00 0.000000e+00 0.000000e+00 0.000000e+00
~t "T_k"
<TRANSP> 5
 0.000000e+00 1.000000e+00 0.000000e+00 0.000000e+00 0.000000e+00
 0.000000e+00 8.132406e-01 1.867593e-01 0.000000e+00 0.000000e+00
 0.000000e+00 0.000000e+00 5.118791e-01 4.881208e-01 0.000000e+00
 0.000000e+00 0.000000e+00 0.000000e+00 5.759259e-01 4.240740e-01
 0.000000e+00 0.000000e+00 0.000000e+00 0.000000e+00 0.000000e+00
~t "T_l"
<TRANSP> 5
 0.000000e+00 1.000000e+00 0.000000e+00 0.000000e+00 0.000000e+00
 0.000000e+00 8.754863e-01 1.245137e-01 0.000000e+00 0.000000e+00
 0.000000e+00 0.000000e+00 7.366272e-01 2.633728e-01 0.000000e+00
 0.000000e+00 0.000000e+00 0.000000e+00 5.393676e-01 4.606325e-01
 0.000000e+00 0.000000e+00 0.000000e+00 0.000000e+00 0.000000e+00
~t "T_m"
<TRANSP> 5
 0.000000e+00 1.000000e+00 0.000000e+00 0.000000e+00 0.000000e+00
 0.000000e+00 8.161356e-01 1.838643e-01 0.000000e+00 0.000000e+00
 0.000000e+00 0.000000e+00 8.209361e-01 1.790639e-01 0.000000e+00
 0.000000e+00 0.000000e+00 0.000000e+00 6.548538e-01 3.451463e-01
 0.000000e+00 0.000000e+00 0.000000e+00 0.000000e+00 0.000000e+00
~t "T_n"
<TRANSP> 5
 0.000000e+00 1.000000e+00 0.000000e+00 0.000000e+00 0.000000e+00
 0.000000e+00 8.141884e-01 1.858117e-01 0.000000e+00 0.000000e+00
 0.000000e+00 0.000000e+00 6.706285e-01 3.293716e-01 0.000000e+00
 0.000000e+00 0.000000e+00 0.000000e+00 9.226667e-01 7.733329e-02
 0.000000e+00 0.000000e+00 0.000000e+00 0.000000e+00 0.000000e+00
~t "T_o"
<TRANSP> 5
 0.000000e+00 1.000000e+00 0.000000e+00 0.000000e+00 0.000000e+00
 0.000000e+00 6.104983e-01 3.895017e-01 0.000000e+00 0.000000e+00
 0.000000e+00 0.000000e+00 7.271141e-01 2.728859e-01 0.000000e+00
 0.000000e+00 0.000000e+00 0.000000e+00 6.602557e-01 3.397443e-01
 0.000000e+00 0.000000e+00 0.000000e+00 0.000000e+00 0.000000e+00
~t "T_p"
<TRANSP> 5
 0.000000e+00 1.000000e+00 0.000000e+00 0.000000e+00 0.000000e+00
 0.000000e+00 7.395264e-01 2.604736e-01 0.000000e+00 0.000000e+00
 0.000000e+00 0.000000e+00 7.550508e-01 2.449491e-01 0.000000e+00
 0.000000e+00 0.000000e+00 0.000000e+00 6.452369e-01 3.547631e-01
 0.000000e+00 0.000000e+00 0.000000e+00 0.000000e+00 0.000000e+00
~t "T_r"
<TRANSP> 5
 0.000000e+00 1.000000e+00 0.000000e+00 0.000000e+00 0.000000e+00
 0.000000e+00 6.120835e-01 3.879166e-01 0.000000e+00 0.000000e+00
 0.000000e+00 0.000000e+00 6.855490e-01 3.144510e-01 0.000000e+00
 0.000000e+00 0.000000e+00 0.000000e+00 8.917886e-01 1.082114e-01
 0.000000e+00 0.000000e+00 0.000000e+00 0.000000e+00 0.000000e+00
~t "T_s"
<TRANSP> 5
 0.000000e+00 1.000000e+00 0.000000e+00 0.000000e+00 0.000000e+00
 0.000000e+00 8.072562e-01 1.927437e-01 0.000000e+00 0.000000e+00
 0.000000e+00 0.000000e+00 4.399824e-01 5.600176e-01 0.000000e+00
 0.000000e+00 0.000000e+00 0.000000e+00 6.475534e-01 3.524466e-01
 0.000000e+00 0.000000e+00 0.000000e+00 0.000000e+00 0.000000e+00
~t "T_t"
<TRANSP> 5
 0.000000e+00 1.000000e+00 0.000000e+00 0.000000e+00 0.000000e+00
 0.000000e+00 9.019937e-01 9.800628e-02 0.000000e+00 0.000000e+00
 0.000000e+00 0.000000e+00 5.387381e-01 4.612618e-01 0.000000e+00
 0.000000e+00 0.000000e+00 0.000000e+00 6.050784e-01 3.949216e-01
 0.000000e+00 0.000000e+00 0.000000e+00 0.000000e+00 0.000000e+00
~t "T_u"
<TRANSP> 5
 0.000000e+00 1.000000e+00 0.000000e+00 0.000000e+00 0.000000e+00
 0.000000e+00 8.440366e-01 1.559634e-01 0.000000e+00 0.000000e+00
 0.000000e+00 0.000000e+00 6.449542e-01 3.550458e-01 0.000000e+00
 0.000000e+00 0.000000e+00 0.000000e+00 8.978763e-01 1.021237e-01
 0.000000e+00 0.000000e+00 0.000000e+00 0.000000e+00 0.000000e+00
~t "T_w"
<TRANSP> 5
 0.000000e+00 1.000000e+00 0.000000e+00 0.000000e+00 0.000000e+00
 0.000000e+00 9.591122e-01 4.088778e-02 0.000000e+00 0.000000e+00
 0.000000e+00 0.000000e+00 7.604983e-01 2.395017e-01 0.000000e+00
 0.000000e+00 0.000000e+00 0.000000e+00 9.478284e-01 5.217158e-02
 0.000000e+00 0.000000e+00 0.000000e+00 0.000000e+00 0.000000e+00
~t "T_x"
<TRANSP> 5
 0.000000e+00 1.000000e+00 0.000000e+00 0.000000e+00 0.000000e+00
 0.000000e+00 8.549330e-01 1.450670e-01 0.000000e+00 0.000000e+00
 0.000000e+00 0.000000e+00 9.074955e-01 9.250448e-02 0.000000e+00
 0.000000e+00 0.000000e+00 0.000000e+00 9.180773e-01 8.192270e-02
 0.000000e+00 0.000000e+00 0.000000e+00 0.000000e+00 0.000000e+00
~t "T_y"
<TRANSP> 5
 0.000000e+00 1.000000e+00 0.000000e+00 0.000000e+00 0.000000e+00
 0.000000e+00 8.941506e-01 1.058495e-01 0.000000e+00 0.000000e+00
 0.000000e+00 0.000000e+00 8.644151e-01 1.355849e-01 0.000000e+00
 0.000000e+00 0.000000e+00 0.000000e+00 9.574223e-01 4.257776e-02
 0.000000e+00 0.000000e+00 0.000000e+00 0.000000e+00 0.000000e+00
~t "T_z"
<TRANSP> 5
 0.000000e+00 1.000000e+00 0.000000e+00 0.000000e+00 0.000000e+00
 0.000000e+00 8.333110e-01 1.666890e-01 0.000000e+00 0.000000e+00
 0.000000e+00 0.000000e+00 7.154953e-01 2.845047e-01 0.000000e+00
 0.000000e+00 0.000000e+00 0.000000e+00 4.286779e-01 5.713221e-01
 0.000000e+00 0.000000e+00 0.000000e+00 0.000000e+00 0.000000e+00
~t "T_ah"
<TRANSP> 5
 0.000000e+00 1.000000e+00 0.000000e+00 0.000000e+00 0.000000e+00
 0.000000e+00 6.000000e-01 4.000000e-01 0.000000e+00 0.000000e+00
 0.000000e+00 0.000000e+00 6.000000e-01 4.000000e-01 0.000000e+00
 0.000000e+00 0.000000e+00 0.000000e+00 7.000000e-01 3.000000e-01
 0.000000e+00 0.000000e+00 0.000000e+00 0.000000e+00 0.000000e+00
~t "T_aw"
<TRANSP> 5
 0.000000e+00 1.000000e+00 0.000000e+00 0.000000e+00 0.000000e+00
 0.000000e+00 6.000000e-01 4.000000e-01 0.000000e+00 0.000000e+00
 0.000000e+00 0.000000e+00 6.000000e-01 4.000000e-01 0.000000e+00
 0.000000e+00 0.000000e+00 0.000000e+00 7.000000e-01 3.000000e-01
 0.000000e+00 0.000000e+00 0.000000e+00 0.000000e+00 0.000000e+00
~t "T_ay"
<TRANSP> 5
 0.000000e+00 1.000000e+00 0.000000e+00 0.000000e+00 0.000000e+00
 0.000000e+00 8.941734e-01 1.058267e-01 0.000000e+00 0.000000e+00
 0.000000e+00 0.000000e+00 9.219914e-01 7.800856e-02 0.000000e+00
 0.000000e+00 0.000000e+00 0.000000e+00 9.734286e-01 2.657137e-02
 0.000000e+00 0.000000e+00 0.000000e+00 0.000000e+00 0.000000e+00
~t "T_kh"
<TRANSP> 5
 0.000000e+00 1.000000e+00 0.000000e+00 0.000000e+00 0.000000e+00
 0.000000e+00 9.743770e-01 2.562299e-02 0.000000e+00 0.000000e+00
 0.000000e+00 0.000000e+00 7.743885e-01 2.256116e-01 0.000000e+00
 0.000000e+00 0.000000e+00 0.000000e+00 8.210371e-01 1.789630e-01
 0.000000e+00 0.000000e+00 0.000000e+00 0.000000e+00 0.000000e+00
~t "T_ng"
<TRANSP> 5
 0.000000e+00 1.000000e+00 0.000000e+00 0.000000e+00 0.000000e+00
 0.000000e+00 8.740326e-01 1.259674e-01 0.000000e+00 0.000000e+00
 0.000000e+00 0.000000e+00 7.637811e-01 2.362188e-01 0.000000e+00
 0.000000e+00 0.000000e+00 0.000000e+00 9.476237e-01 5.237630e-02
 0.000000e+00 0.000000e+00 0.000000e+00 0.000000e+00 0.000000e+00
~t "T_ny"
<TRANSP> 5
 0.000000e+00 1.000000e+00 0.000000e+00 0.000000e+00 0.000000e+00
 0.000000e+00 9.243783e-01 7.562163e-02 0.000000e+00 0.000000e+00
 0.000000e+00 0.000000e+00 7.439215e-01 2.560786e-01 0.000000e+00
 0.000000e+00 0.000000e+00 0.000000e+00 9.630347e-01 3.696531e-02
 0.000000e+00 0.000000e+00 0.000000e+00 0.000000e+00 0.000000e+00
~t "T_sy"
<TRANSP> 5
 0.000000e+00 1.000000e+00 0.000000e+00 0.000000e+00 0.000000e+00
 0.000000e+00 9.546209e-01 4.537909e-02 0.000000e+00 0.000000e+00
 0.000000e+00 0.000000e+00 7.157097e-01 2.842903e-01 0.000000e+00
 0.000000e+00 0.000000e+00 0.000000e+00 9.239115e-01 7.608848e-02
 0.000000e+00 0.000000e+00 0.000000e+00 0.000000e+00 0.000000e+00
~s "ST_f_2_1"
<MEAN> 25
 -2.970869e+00 1.325349e+00 7.162960e-01 4.489483e+00 3.553999e+00 3.929745e+00 2.377432e+00 3.064901e+00 1.924057e+00 2.670698e+00 2.858034e+00 -1.600878e-01 -1.063103e-01 1.006028e-02 -4.409585e-02 3.478517e-02 -4.438126e-02 2.144109e-02 4.346924e-02 -5.134030e-03 2.691378e-02 6.896050e-02 2.887121e-02 -6.812998e-03 8.679248e-02
<VARIANCE> 25
 5.714180e+00 6.094660e+00 1.310448e+01 1.037657e+01 1.248492e+01 1.274448e+01 1.546628e+01 1.439763e+01 1.464305e+01 1.562512e+01 1.658463e+01 1.160728e+01 1.908513e-01 3.261400e-01 5.417460e-01 6.412876e-01 8.919971e-01 9.366413e-01 1.256513e+00 1.261674e+00 1.329609e+00 1.356813e+00 1.422457e+00 1.143808e+00 2.213147e-01
<GCONST> 7.159379e+01
~s "ST_f_3_1"
<MEAN> 25
 -4.396029e+00 5.080094e+00 -4.574011e+00 3.429164e+00 3.211527e+00 1.961911e+00 2.459319e+00 1.084221e+00 1.859613e+00 3.406026e+00 3.162760e+00 -4.215506e-01 4.204345e-01 -7.685108e-01 -1.343444e-01 -3.048060e-01 -2.843110e-01 -1.238255e-01 -9.974500e-02 -8.548070e-02 -5.164525e-02 -1.951547e-01 -1.744719e-01 1.702995e-02 5.068228e-01
<VARIANCE> 25
 7.880004e+00 3.563969e+01 2.101737e+01 1.065016e+01 3.233649e+01 2.509038e+01 2.515711e+01 2.112665e+01 2.247647e+01 1.756088e+01 2.602288e+01 1.849444e+01 7.068765e-01 2.889400e+00 2.008624e+00 1.684904e+00 1.972211e+00 2.102278e+00 2.002648e+00 1.968916e+00 2.301172e+00 1.792441e+00 2.403734e+00 1.604696e+00 1.194936e+00
<GCONST> 8.979707e+01
~s "ST_kh_2_1"
<MEAN> 25
 -6.841355e-01 1.260742e+00 -1.307356e+00 2.395941e+00 3.774404e+00 4.255207e+00 5.064058e+00 1.986086e+00 2.056902e+00 2.838073e+00 2.858626e+00 3.052149e-01 7.784752e-04 7.961340e-03 -8.637547e-03 5.262478e-03 6.194851e-03 3.266252e-02 -8.568670e-04 -3.003272e-02 1.646421e-02 2.625172e-02 -3.440049e-02 -4.060090e-02 -7.780320e-03
<VARIANCE> 25
 8.319884e-01 1.853889e+00 4.405864e+00 6.037245e+00 1.209038e+01 1.094110e+01 1.868118e+01 1.255127e+01 1.370316e+01 1.452486e+01 1.220470e+01 1.024650e+01 5.690703e-02 1.663935e-01 3.396978e-01 5.367264e-01 7.857451e-01 9.034551e-01 1.032964e+00 1.256533e+00 1.124813e+00 1.398505e+00 1.183588e+00 1.002540e+00 2.844448e-02
<GCONST> 6.074643e+01
~s "ST_f_4_1"
<MEAN> 25
 -9.126870e-01 -8.126281e+00 -2.144781e+00 1.471450e+00 -3.309014e+00 3.093665e+00 -5.234694e-01 -1.421073e+00 1.218557e+00 -1.767362e+00 3.996083e-01 -1.553888e-01 1.630222e+00 -1.713911e+00 6.922750e-01 -1.712970e+00 -1.004406e+00 -4.590214e-01 -1.432776e+00 -1.480935e+00 -7.295127e-01 -8.352640e-01 -1.292022e+00 -1.608194e-01 2.061493e+00
<VARIANCE> 25
 1.282461e+01 7.956813e+01 3.949554e+01 2.510208e+01 4.451852e+01 2.505741e+01 3.493578e+01 2.378750e+01 1.663222e+01 3.065957e+01 2.222095e+01 1.307036e+01 3.090363e+00 8.526224e+00 3.989625e+00 4.325264e+00 3.690095e+00 4.605021e+00 3.633765e+00 4.177331e+00 2.726378e+00 3.316790e+00 5.210429e+00 2.047348e+00 3.172789e+00
<GCONST> 1.028156e+02
~s "ST_kh_3_1"
<MEAN> 25
 -2.025653e+00 -1.111588e+00 -6.457738e+00 6.256993e-01 7.942087e+00 1.458926e+00 -7.103790e-01 5.131980e+00 4.436852e+00 6.489931e+00 -1.136966e+00 2.099060e-01 -8.038805e-01 -1.398865e+00 -5.787363e-01 -9.161393e-02 1.828201e+00 -1.939726e+00 -2.965108e+00 8.505493e-01 1.464785e+00 7.743373e-01 -1.650956e+00 8.836105e-02 3.715177e+00
<VARIANCE> 25
 5.439358e+00 2.255054e+01 3.288846e+01 1.616060e+01 3.529460e+01 3.003105e+01 7.155528e+01 2.230985e+01 3.837917e+01 2.150301e+01 3.615629e+01 1.473006e+01 5.433955e-01 2.112438e+00 3.263839e+00 2.412738e+00 2.777058e+00 1.743670e+00 3.066246e+00 3.128582e+00 4.349002e+00 1.805456e+00 1.565296e+00 1.937140e+00 3.107437e+00
<GCONST> 9.471080e+01
~s "ST_kh_4_1"
<MEAN> 25
 -7.346115e+00 -8.000242e+00 1.559362e+00 3.023553e+00 9.246655e+00 -2.321094e+00 -4.314203e+00 -4.347922e-01 5.617133e+00 2.232755e+00 -2.137352e+00 3.304110e+00 5.904031e-01 -4.186091e-01 5.859815e-01 -1.461460e-01 -1.248939e+00 -4.965175e-01 3.478128e-01 -1.852075e+00 -1.559627e+00 -1.281802e+00 4.767243e-01 4.476536e-01 5.765602e-02
<VARIANCE> 25
 1.923949e+01 2.705891e+01 1.108510e+01 7.607947e+00 2.188250e+01 3.645401e+01 3.389298e+01 4.059424e+01 3.004713e+01 2.225358e+01 1.742708e+01 2.465578e+01 5.034855e+00 1.452402e+00 2.372878e+00 1.168157e+00 2.495877e+00 4.233374e+00 3.583520e+00 3.831544e+00 4.111568e+00 2.759568e+00 1.621115e+00 2.925569e+00 7.545345e-01
<GCONST> 9.480380e+01
~s "ST_s_2_1"
<MEAN> 25
 -9.249730e+00 2.563058e+00 -2.862009e+00 5.624551e+00 -9.915213e-01 3.691086e+00 5.156897e+00 3.050425e+00 2.911727e+00 3.885265e+00 3.284645e+00 -4.312706e-01 -8.423762e-02 -1.707608e-01 1.101115e-01 -6.542520e-02 -3.881055e-02 -5.596261e-02 -8.727872e-02 9.972015e-03 5.554257e-02 2.505315e-02 1.051186e-01 -5.567601e-02 1.613749e-01
<VARIANCE> 25
 2.536896e+01 3.094537e+01 1.891300e+01 1.613849e+01 2.122293e+01 2.726880e+01 2.357560e+01 1.891540e+01 1.929935e+01 2.045672e+01 1.672922e+01 1.496871e+01 1.213038e+00 1.293420e+00 9.084434e-01 1.489288e+00 1.238006e+00 1.537535e+00 1.515753e+00 1.329946e+00 1.739887e+00 1.613749e+00 1.416339e+00 1.154052e+00 7.652771e-01
<GCONST> 8.564989e+01
~s "ST_s_3_1"
<MEAN> 25
 -5.939956e+00 -1.048565e+00 -1.272984e+00 2.864487e+00 -1.613116e+00 1.222493e+00 4.729724e+00 2.583526e+00 3.446107e+00 2.912594e+00 2.445944e+00 1.132682e-01 2.461903e+00 -6.233536e-01 7.866051e-01 -1.434616e+00 -1.264211e+00 -1.080869e+00 -2.165789e+00 -1.484298e+00 -5.364189e-01 -1.319929e+00 -1.252965e+00 2.918077e-02 8.703578e-01
<VARIANCE> 25
 2.090896e+01 6.583658e+01 2.903324e+01 1.941150e+01 3.064305e+01 4.060361e+01 2.947819e+01 2.558230e+01 2.372218e+01 2.265498e+01 1.887111e+01 1.466210e+01 5.012142e+00 6.984213e+00 3.860078e+00 4.003026e+00 3.968735e+00 4.459135e+00 5.576976e+00 5.280816e+00 2.644543e+00 2.276729e+00 2.973141e+00 1.658522e+00 3.216768e+00
<GCONST> 1.022786e+02
~s "ST_s_4_1"
<MEAN> 25
 3.916279e+00 -8.590096e+00 2.386732e+00 -3.886870e+00 -5.811630e+00 1.426851e+00 -4.250319e+00 -3.893198e+00 1.072991e-01 -1.485101e+00 -5.100500e-01 -4.277911e-01 1.384012e+00 1.344182e-01 4.077660e-01 -1.359230e+00 -4.116096e-01 -7.021956e-01 -1.426390e+00 -8.711346e-01 -3.891428e-01 -6.275631e-01 -7.048362e-01 1.579857e-01 9.590128e-01
<VARIANCE> 25
 5.295399e+01 1.366852e+02 6.362592e+01 6.885030e+01 6.006577e+01 5.426902e+01 6.377108e+01 5.894987e+01 3.231230e+01 4.142139e+01 3.627921e+01 2.353662e+01 6.173833e+00 7.859551e+00 3.819966e+00 6.875068e+00 5.380651e+00 5.579048e+00 7.739167e+00 6.517359e+00 3.095769e+00 5.576568e+00 4.878974e+00 2.813076e+00 7.155061e+00
<GCONST> 1.153978e+02
~s "ST_i_2_1"
<MEAN> 25
 3.358552e+00 2.914067e+00 1.624960e+01 -1.617404e+01 -1.595173e+01 -1.683446e+00 -1.594549e+01 -1.078196e+01 2.763369e+00 -2.951939e+00 -5.217972e+00 2.780464e+00 -9.875951e-02 2.170677e-01 2.372080e-02 -6.064083e-01 2.748253e-01 2.972448e-01 -6.357199e-01 3.456429e-01 4.002143e-01 -2.344268e-01 2.519713e-01 5.156484e-01 -4.004020e-01
<VARIANCE> 25
 1.433163e+01 1.113869e+02 3.289111e+01 2.878306e+01 2.180656e+01 1.452970e+01 2.949590e+01 2.203449e+01 1.679984e+01 2.035326e+01 1.546534e+01 2.152608e+01 6.511258e-01 1.316239e+00 1.521566e+00 2.275208e+00 2.394751e+00 1.790519e+00 2.499490e+00 2.349075e+00 1.723790e+00 2.548074e+00 2.111588e+00 2.490259e+00 1.119534e+00
<GCONST> 9.161917e+01
~s "ST_i_2_2"
<MEAN> 25
 4.275208e+00 1.379844e+00 1.391905e+01 -1.255168e+01 -1.498133e+01 -3.002018e+00 -1.258918e+01 -9.052085e+00 -9.059370e-01 -6.885602e-01 -4.909689e+00 2.297303e+00 2.301493e-01 3.197460e-01 4.510204e-01 -5.372342e-01 -8.454481e-01 1.007736e-01 -5.271090e-01 -6.138391e-01 -3.787598e-02 8.247523e-02 -4.639238e-01 -2.298108e-02 4.299821e-01
<VARIANCE> 25
 2.635229e+01 1.303720e+02 3.856190e+01 3.951152e+01 4.983412e+01 2.277716e+01 6.104573e+01 3.603806e+01 1.766568e+01 3.379390e+01 2.079055e+01 1.965158e+01 2.046561e+00 3.882042e+00 3.808388e+00 5.612038e+00 4.798013e+00 3.248413e+00 6.515493e+00 4.007276e+00 1.891003e+00 3.895463e+00 2.649447e+00 2.583396e+00 3.484840e+00
<GCONST> 1.048651e+02
~s "ST_i_3_1"
<MEAN> 25
 2.174162e+00 1.304897e+00 8.655915e+00 -5.279009e+00 -1.290674e+01 -8.649715e-01 -8.573425e+00 -7.195280e+00 -6.480051e-01 -1.468174e+00 -1.786369e+00 9.754168e-01 -8.178508e-01 -4.942283e-01 -2.094324e+00 2.862641e+00 2.056274e+00 3.842169e-01 2.386572e+00 1.573864e+00 -1.525013e-01 9.373869e-02 1.194742e+00 -5.157487e-01 -2.076033e+00
<VARIANCE> 25
 2.816733e+01 8.352522e+01 3.852683e+01 4.839988e+01 5.726077e+01 4.503004e+01 6.348268e+01 4.073313e+01 3.733200e+01 4.060942e+01 3.701041e+01 3.625099e+01 2.378282e+00 6.275432e+00 3.126724e+00 2.898618e+00 3.417745e+00 4.647696e+00 4.929242e+00 3.497350e+00 4.062643e+00 4.863331e+00 3.106982e+00 3.018660e+00 3.900609e+00
<GCONST> 1.085823e+02
~s "ST_i_4_1"
<MEAN> 25
 -2.120932e+00 2.277214e+00 7.690902e-01 2.573932e+00 -1.259123e-01 2.583663e+00 1.967554e+00 6.367793e-01 6.857384e-01 1.922167e+00 3.493215e+00 6.033176e-01 -1.130397e-01 -2.995222e-02 -2.590756e-01 3.232514e-01 5.903275e-01 -8.317667e-02 5.233077e-01 3.188412e-01 -1.246894e-01 3.195544e-02 5.272206e-02 -2.579018e-01 -1.931819e-01
<VARIANCE> 25
 4.932955e+00 2.391915e+01 2.218169e+01 1.147209e+01 2.569181e+01 2.805583e+01 2.549378e+01 1.995339e+01 2.227299e+01 1.730141e+01 2.615618e+01 1.442430e+01 3.328404e-01 1.055081e+00 1.114987e+00 9.122714e-01 2.338856e+00 1.897424e+00 2.377977e+00 1.749460e+00 2.441610e+00 1.785148e+00 2.459136e+00 1.341551e+00 4.352889e-01
<GCONST> 8.467641e+01
~s "ST_i_4_2"
<MEAN> 25
 -3.826716e+00 8.874009e-01 3.163336e+00 6.560925e+00 2.491208e+00 3.522728e+00 2.250553e+00 2.953882e+00 2.540581e+00 2.742455e+00 3.078781e+00 5.566448e-01 -4.319256e-03 -7.337535e-02 -4.206753e-02 9.484249e-02 1.536971e-01 -2.428486e-02 1.924129e-01 7.971913e-02 -3.340663e-03 5.750772e-03 -6.845798e-02 -7.197071e-02 -4.691845e-02
<VARIANCE> 25
 2.156299e+00 4.388637e+00 8.372025e+00 1.059291e+01 1.655794e+01 1.650143e+01 1.715528e+01 1.565471e+01 1.489935e+01 1.533163e+01 1.497224e+01 1.349802e+01 1.560573e-01 3.394767e-01 6.153568e-01 6.312330e-01 1.130879e+00 1.380029e+00 1.558814e+00 1.414871e+00 1.451379e+00 1.200902e+00 1.340769e+00 1.235625e+00 1.153117e-01
<GCONST> 7.087563e+01
~s "ST_i_4_3"
<MEAN> 25
 2.160651e-01 1.813633e-01 2.916069e+00 1.777802e+00 -6.987744e+00 -7.712442e-01 -3.544398e-01 -2.128475e+00 -4.193764e-02 1.365049e+00 -5.465349e-02 -7.555504e-01 -2.138512e-01 -4.161636e-01 -1.103633e+00 1.148381e+00 1.512704e+00 -1.270062e-02 1.021244e+00 1.277102e+00 2.578646e-01 3.913437e-01 3.893030e-01 2.688392e-02 -8.905491e-01
<VARIANCE> 25
 3.729074e+01 7.213824e+01 2.651007e+01 2.987294e+01 4.375998e+01 5.690631e+01 3.186472e+01 2.418496e+01 3.426308e+01 3.173273e+01 2.285450e+01 2.133299e+01 1.573129e+00 2.395481e+00 2.481406e+00 1.905003e+00 2.592124e+00 3.746373e+00 2.935103e+00 3.546184e+00 3.212010e+00 4.045481e+00 2.100191e+00 1.735076e+00 1.150768e+00
<GCONST> 9.966074e+01
~s "ST_E_2_1"
<MEAN> 25
 7.169616e+00 -1.190349e+01 6.559530e-01 -6.996029e+00 -4.866008e+00 -3.382404e+00 -1.224879e+00 -2.179539e+00 -3.406430e+00 -5.329139e+00 -4.931638e+00 -3.198531e-01 1.377019e+00 -1.671575e+00 -4.294480e-02 -1.800535e+00 -6.749215e-01 -1.432269e+00 6.777076e-01 -4.502023e-01 -1.154454e+00 -1.551928e+00 -8.193378e-01 2.065505e-01 2.657860e+00
<VARIANCE> 25
 3.227861e+01 7.978848e+01 3.778113e+01 5.648265e+01 5.031787e+01 4.183218e+01 4.484254e+01 5.401627e+01 3.342410e+01 4.113720e+01 4.219777e+01 2.150521e+01 3.082475e+00 4.409698e+00 2.535060e+00 3.444048e+00 3.122641e+00 3.676667e+00 4.386401e+00 6.703406e+00 3.104841e+00 3.239442e+00 5.052417e+00 2.364286e+00 5.178100e+00
<GCONST> 1.079791e+02
~s "ST_E_3_1"
<MEAN> 25
 7.139996e+00 -1.277216e+01 3.014529e+00 -8.107379e+00 -8.113721e+00 -5.037689e+00 2.957306e+00 -3.886964e+00 -8.175986e+00 -5.759120e+00 -2.759753e+00 2.823772e-01 -2.603280e-02 5.801620e-02 -2.985692e-01 2.421051e-01 3.514497e-02 -7.316495e-02 4.646695e-01 -3.853491e-02 7.905594e-02 3.984883e-03 -3.393937e-01 1.372280e-01 -1.479137e-01
<VARIANCE> 25
 1.782100e+01 9.597416e+01 3.608912e+01 2.927500e+01 5.350931e+01 3.699060e+01 3.309938e+01 3.784708e+01 2.912822e+01 3.599586e+01 3.404816e+01 1.816397e+01 4.986579e-01 6.734836e-01 1.149382e+00 8.969790e-01 1.639483e+00 1.152959e+00 2.518414e+00 2.084897e+00 2.096734e+00 1.587538e+00 1.466192e+00 1.071345e+00 4.907540e-01
<GCONST> 9.063678e+01
~s "ST_E_3_2"
<MEAN> 25
 7.829604e+00 -1.445799e+01 -1.604461e+00 -1.013056e+01 -6.971571e+00 -9.968843e+00 9.883661e+00 -6.083833e+00 -9.400623e+00 -9.973063e+00 -6.669739e+00 -8.659546e-01 -8.294143e-04 2.718389e-02 1.210155e-02 3.202626e-01 -3.960790e-01 -8.620092e-02 5.625033e-01 -5.901782e-02 -8.236264e-02 5.811356e-02 2.125740e-01 5.279694e-02 -2.736244e-02
<VARIANCE> 25
 6.466961e+00 1.458574e+01 1.340443e+01 1.126940e+01 1.365502e+01 2.350929e+01 2.619459e+01 2.669147e+01 1.251743e+01 1.173178e+01 2.453003e+01 1.045942e+01 1.727845e-01 2.913079e-01 6.137236e-01 4.596605e-01 7.378258e-01 6.952837e-01 2.012361e+00 8.985419e-01 1.698117e+00 6.873582e-01 1.046499e+00 7.157049e-01 8.813212e-02
<GCONST> 7.147653e+01
~s "ST_E_4_1"
<MEAN> 25
 6.569695e+00 -1.028372e+01 4.940367e-01 -5.128588e+00 -6.939073e+00 -4.633729e+00 8.688114e-01 -1.967104e+00 -2.914721e+00 -4.903079e+00 -4.190429e+00 5.597659e-02 -5.792637e-01 1.582024e+00 -7.710701e-01 9.237090e-01 8.420421e-01 7.636538e-01 -1.001577e+00 3.891012e-01 1.308101e+00 6.851587e-01 1.427477e-01 -3.283024e-01 -2.005438e+00
<VARIANCE> 25
 2.822009e+01 7.517162e+01 4.380592e+01 3.865159e+01 5.121952e+01 4.404369e+01 6.964614e+01 5.142103e+01 3.138132e+01 4.962181e+01 4.836856e+01 2.626004e+01 1.428344e+00 2.939632e+00 2.757973e+00 2.786510e+00 3.422380e+00 3.811360e+00 3.869844e+00 4.548349e+00 2.841606e+00 2.901522e+00 4.016549e+00 2.566409e+00 3.503890e+00
<GCONST> 1.060502e+02
~s "ST_l_2_1"
<MEAN> 25
 1.006285e+01 -1.920260e+00 -1.014105e+01 -1.471505e+01 3.480504e+00 -3.327137e+00 -5.731251e+00 -7.472620e+00 -2.272069e+00 -3.608303e+00 -6.733305e+00 -4.138060e+00 1.524484e-01 4.639496e-01 -1.496076e-01 1.535172e-01 -8.062229e-02 -1.091345e-01 -2.921007e-01 -3.144710e-02 2.277177e-01 8.668710e-02 2.324172e-01 -1.736729e-02 -2.575159e-01
<VARIANCE> 25
 7.420342e+00 3.427150e+01 1.478151e+01 4.562726e+01 1.450394e+01 2.222361e+01 2.537944e+01 3.545852e+01 4.274156e+01 2.369661e+01 2.345378e+01 1.545824e+01 1.458694e-01 4.990339e-01 3.115489e-01 9.940103e-01 7.132946e-01 1.020964e+00 8.586260e-01 7.658790e-01 1.118787e+00 9.141129e-01 8.968700e-01 7.198681e-01 1.836325e-01
<GCONST> 7.675241e+01
~s "ST_l_3_1"
<MEAN> 25
 1.016922e+01 -6.426227e+00 -6.303518e+00 -9.626512e+00 2.688998e+00 -3.181533e+00 -9.840669e+00 -4.856063e+00 2.216455e-01 -4.683916e+00 -5.558385e+00 -2.379014e+00 -3.247212e-01 -4.730235e-01 8.545052e-01 1.107042e+00 -6.414193e-01 -6.926350e-01 -4.140546e-01 2.642595e-01 6.979872e-02 -5.983725e-01 -1.536534e-01 6.338040e-01 1.452938e-01
<VARIANCE> 25
 1.418188e+01 9.489169e+01 2.130734e+01 3.665417e+01 3.090163e+01 4.633832e+01 3.269933e+01 4.404055e+01 3.962464e+01 3.119781e+01 2.523894e+01 1.950302e+01 6.680869e-01 1.249623e+00 1.030379e+00 1.621605e+00 2.066272e+00 1.741363e+00 2.200882e+00 2.064266e+00 2.515179e+00 1.371333e+00 1.606073e+00 1.630865e+00 5.720797e-01
<GCONST> 9.243964e+01
~s "ST_l_4_1"
<MEAN> 25
 8.390206e+00 -2.119807e+00 4.796290e-01 -5.382883e+00 -8.285110e+00 -8.766301e+00 -8.615008e+00 -5.010035e+00 1.208870e+00 -4.529378e+00 -3.223457e+00 1.169797e+00 -1.484433e+00 3.488826e-01 3.140491e+00 -1.552308e-01 -2.984463e+00 1.167582e+00 1.205880e+00 -7.055453e-01 -1.185595e+00 4.615802e-01 3.154393e-01 6.442747e-01 1.340991e-01
<VARIANCE> 25
 1.801911e+01 7.648709e+01 4.395421e+01 3.830608e+01 8.967928e+01 4.840992e+01 7.187331e+01 4.195025e+01 3.782293e+01 4.000481e+01 3.051609e+01 2.076694e+01 1.155939e+00 1.279453e+00 3.817891e+00 3.742346e+00 6.671885e+00 4.230701e+00 3.303496e+00 5.337965e+00 3.740962e+00 3.801040e+00 2.690330e+00 3.114717e+00 8.564510e-01
<GCONST> 1.046514e+02
~s "ST_y_2_1"
<MEAN> 25
 1.522362e+00 6.293628e+00 9.553967e+00 -8.666812e+00 -1.512014e+01 -3.339393e+00 -7.919426e+00 -6.573821e+00 -4.932508e+00 2.020302e+00 -9.162461e+00 2.057526e-01 -2.012564e-01 7.263590e-01 7.326125e-01 -2.166695e-01 -6.137847e-01 5.269557e-01 -6.298773e-01 -3.874258e-01 2.001281e-01 3.079138e-01 4.241541e-02 -2.993335e-03 -3.726667e-01
<VARIANCE> 25
 4.575652e+00 5.908234e+01 1.764766e+01 2.632125e+01 6.270109e+01 3.224574e+01 7.118335e+01 2.269844e+01 3.588719e+01 2.665792e+01 1.209662e+01 2.244080e+01 4.499309e-01 1.777941e+00 1.332737e+00 1.072258e+00 3.112772e+00 1.632862e+00 3.060861e+00 1.925525e+00 2.383050e+00 2.331047e+00 1.432878e+00 1.749567e+00 4.961859e-01
<GCONST> 9.062067e+01
~s "ST_y_3_1"
<MEAN> 25
 -1.289305e+00 2.056254e-01 6.742721e+00 -4.334622e+00 -7.636026e+00 2.356276e+00 -1.844618e+00 -2.535341e+00 -8.149045e-01 2.401874e+00 -1.414832e+00 1.937171e+00 -9.378853e-02 -1.112279e+00 -1.166595e+00 1.031487e+00 1.924198e+00 3.481414e-01 1.348051e+00 9.328210e-01 2.110182e-01 -3.267565e-01 1.125324e+00 1.844290e-01 -6.104125e-01
<VARIANCE> 25
 2.637299e+01 3.289516e+01 3.926964e+01 4.486190e+01 5.522624e+01 5.294501e+01 5.393216e+01 2.868021e+01 3.176936e+01 3.649789e+01 4.687933e+01 1.962008e+01 1.665957e+00 2.254057e+00 2.238295e+00 2.799957e+00 2.173142e+00 4.167773e+00 4.292638e+00 2.506503e+00 3.608311e+00 3.994167e+00 2.673079e+00 2.611760e+00 9.737330e-01
<GCONST> 1.017137e+02
~s "ST_y_4_1"
<MEAN> 25
 -1.871959e+00 -6.855757e-01 -7.115895e-01 2.946497e+00 3.714235e+00 3.660492e+00 4.735789e+00 2.212857e+00 1.550481e+00 2.091419e+00 3.109735e+00 5.297309e-01 1.427740e-02 1.185903e-02 -7.313986e-02 2.563069e-02 4.508874e-02 -4.334521e-02 -5.430649e-03 -6.437604e-03 6.113112e-02 5.364178e-03 -6.271603e-02 -2.120824e-02 -3.051656e-02
<VARIANCE> 25
 2.915299e+00 7.032012e+00 5.802904e+00 6.847935e+00 7.504574e+00 1.210520e+01 1.418116e+01 1.353969e+01 1.473627e+01 1.719979e+01 1.464307e+01 1.205707e+01 1.707066e-01 3.239002e-01 5.815377e-01 5.585510e-01 7.411469e-01 1.026189e+00 1.326935e+00 1.180968e+00 1.417607e+00 1.344130e+00 1.303917e+00 1.246473e+00 8.892283e-02
<GCONST> 6.799151e+01
~s "ST_b_2_1"
<MEAN> 25
 4.087189e+00 3.698757e-01 -4.031122e-01 -8.556648e-01 -4.059995e+00 -3.554785e+00 -6.383281e+00 -3.806612e+00 -2.007140e+00 -1.408214e+00 -3.776358e+00 -1.532806e-01 2.280791e+00 -3.313223e-01 -2.487151e-01 -2.854315e+00 -2.367915e+00 -1.747787e+00 -2.509382e+00 -8.910365e-01 -9.997000e-01 -1.780927e+00 -1.942290e+00 2.113650e-01 3.546127e+00
<VARIANCE> 25
 4.911478e+01 6.088152e+01 4.230536e+01 6.751341e+01 6.063166e+01 4.642404e+01 6.791840e+01 4.887824e+01 5.212350e+01 4.293373e+01 4.279727e+01 1.927386e+01 4.985622e+00 8.202785e+00 5.135543e+00 6.893272e+00 4.691109e+00 4.511751e+00 5.764202e+00 5.784448e+00 5.401111e+00 4.355746e+00 3.713209e+00 2.546427e+00 7.124236e+00
<GCONST> 1.135912e+02
~s "ST_b_3_1"
<MEAN> 25
 7.941992e+00 4.290942e+00 -4.456945e-01 -8.981809e+00 -9.157965e+00 -7.374447e+00 -9.258112e+00 -3.756318e+00 -6.687887e+00 -6.591177e+00 -7.945570e+00 6.304575e-01 9.178909e-02 -1.798719e-02 1.846677e-01 -5.531877e-01 -1.489562e-01 2.584713e-01 2.668279e-01 9.146367e-02 -1.890583e-01 -1.795045e-01 6.850198e-02 2.430225e-01 2.779031e-01
<VARIANCE> 25
 2.989813e+01 5.958013e+01 5.879766e+01 4.721539e+01 2.003710e+01 1.441711e+01 3.885504e+01 3.126955e+01 3.331572e+01 2.365193e+01 2.460541e+01 2.218363e+01 5.538670e-01 1.340330e+00 1.071077e+00 2.468276e+00 1.340982e+00 1.054566e+00 1.843194e+00 1.963350e+00 1.646808e+00 1.710749e+00 1.206143e+00 1.775939e+00 1.415109e+00
<GCONST> 9.155283e+01
~s "ST_b_4_1"
<MEAN> 25
 1.258280e+01 -1.161146e+01 1.142974e+00 -1.300864e+01 -5.814510e+00 -3.255420e+00 -7.861049e+00 -3.162549e+00 -2.090865e+00 -8.018969e+00 -5.859936e+00 1.606209e+00 -4.180321e-01 -4.965392e-01 4.437273e-03 3.387387e-01 6.182596e-02 1.290417e-01 3.446607e-01 4.083238e-01 2.735457e-01 -2.298744e-01 2.721691e-02 1.771488e-01 -1.122199e-01
<VARIANCE> 25
 3.873387e+01 1.292170e+02 5.176986e+01 5.934385e+01 4.854383e+01 3.467262e+01 4.350589e+01 7.501307e+01 4.204420e+01 4.268286e+01 2.853345e+01 2.620980e+01 9.065402e-01 5.620628e+00 2.378531e+00 4.722603e+00 3.628455e+00 2.714389e+00 3.042022e+00 5.738042e+00 4.443508e+00 4.553632e+00 2.908765e+00 3.111158e+00 5.564301e+00
<GCONST> 1.082446e+02
~s "ST_o_2_1"
<MEAN> 25
 8.827965e+00 -3.578987e+00 -5.946226e+00 -1.300213e+01 -8.839061e-01 2.319760e+00 -5.690641e+00 -7.200387e+00 -4.546790e+00 -1.658871e+00 -4.595517e+00 -7.867342e-01 1.878353e+00 -3.384535e-01 -5.621997e-01 -2.135666e+00 2.282839e-01 -5.286952e-01 -7.879189e-01 -1.236920e+00 -7.747806e-01 -9.678702e-01 -3.153217e-01 -6.744943e-01 1.664097e+00
<VARIANCE> 25
 2.343698e+01 7.022395e+01 3.486888e+01 6.652906e+01 2.869453e+01 7.222728e+01 3.457285e+01 3.344619e+01 4.985234e+01 3.497276e+01 2.964106e+01 2.036087e+01 1.786023e+00 1.906216e+00 3.921565e+00 3.184765e+00 5.092745e+00 5.888611e+00 3.753763e+00 4.675156e+00 3.890617e+00 4.537086e+00 3.736650e+00 2.372199e+00 1.995483e+00
<GCONST> 1.054177e+02
~s "ST_o_3_1"
<MEAN> 25
 1.097962e+01 -3.143677e+00 -8.303382e+00 -1.802617e+01 9.597642e-01 1.734510e+00 -5.425310e+00 -5.703313e+00 -4.923939e+00 -1.005803e+00 -5.058933e+00 -1.931334e+00 -1.228413e-01 -3.928157e-01 -7.928512e-02 1.850590e-01 3.513914e-01 -1.992874e-01 2.325403e-01 1.025144e-01 4.836403e-01 -3.520288e-02 -1.145355e-01 -2.159644e-01 2.554699e-01
<VARIANCE> 25
 9.661493e+00 6.924028e+01 1.532751e+01 2.976094e+01 2.096862e+01 2.282076e+01 2.562409e+01 2.955414e+01 2.633451e+01 2.273045e+01 2.379943e+01 1.766517e+01 3.502170e-01 7.747271e-01 5.422939e-01 1.714814e+00 1.287915e+00 2.048015e+00 1.373042e+00 1.747584e+00 2.150478e+00 2.113204e+00 2.270789e+00 1.206445e+00 7.210478e-01
<GCONST> 8.647453e+01
~s "ST_o_4_1"
<MEAN> 25
 6.110296e+00 -3.434231e+00 -5.375429e+00 -6.951441e+00 -1.153885e+00 -1.247445e+00 -2.151562e+00 -2.850205e+00 4.941909e-01 -1.313494e+00 -5.296631e+00 -1.373094e+00 -1.579272e+00 3.546769e-01 1.572088e+00 2.292960e+00 -8.646312e-01 -2.911382e-01 1.346298e+00 9.925615e-01 2.321455e-01 -2.124686e-01 7.265270e-01 6.811984e-01 -1.370407e+00
<VARIANCE> 25
 2.457283e+01 4.862488e+01 2.809443e+01 4.422330e+01 2.567846e+01 5.588885e+01 4.917178e+01 3.577119e+01 2.889953e+01 4.510089e+01 5.687595e+01 2.167488e+01 1.904784e+00 1.847773e+00 2.213574e+00 2.642981e+00 3.825480e+00 4.550183e+00 2.903874e+00 2.169533e+00 3.337063e+00 4.134725e+00 5.337011e+00 1.622183e+00 1.802423e+00
<GCONST> 1.022831e+02
~s "ST_o_4_2"
<MEAN> 25
 1.220395e+01 -5.053620e+00 -7.776340e+00 -1.609966e+01 2.382539e-01 -2.619911e+00 -4.991188e+00 -8.291037e+00 -5.436970e+00 -5.491754e+00 -1.647234e+00 -2.503915e+00 -4.557647e-01 7.357535e-01 1.491257e+00 2.623976e+00 -1.312044e+00 -1.875110e+00 -5.387572e-01 -5.823445e-01 9.329715e-01 3.468584e-01 -5.302095e-01 -3.497515e-01 -9.003802e-01
<VARIANCE> 25
 8.782854e+00 4.112703e+01 2.394850e+01 4.703919e+01 2.644001e+01 4.592139e+01 2.347915e+01 1.885001e+01 1.649001e+01 3.359541e+01 2.715216e+01 1.338043e+01 3.275691e-01 6.863629e-01 2.676212e+00 4.460064e+00 2.407517e+00 2.794387e+00 2.093541e+00 2.823517e+00 9.393192e-01 2.166732e+00 2.097528e+00 1.056925e+00 1.170137e+00
<GCONST> 9.060420e+01
~s "ST_K_2_1"
<MEAN> 25
 -1.684587e-08 -6.193333e-08 -4.487690e-08 3.351832e-08 -6.047171e-08 2.058664e-08 -6.607048e-08 -2.205446e-08 -8.534414e-09 2.910867e-08 3.022347e-08 -1.071447e-09 -2.678578e-03 2.715191e-03 1.970940e-04 1.666228e-04 1.831201e-03 -7.320007e-04 3.372927e-03 1.125320e-03 -7.564414e-05 2.413395e-03 8.106225e-04 -2.148533e-03 -1.727290e-03
<VARIANCE> 25
 4.499385e+01 7.342516e+01 3.566479e+01 5.718780e+01 5.546888e+01 4.305736e+01 6.020990e+01 4.209700e+01 2.990068e+01 4.475465e+01 3.376802e+01 1.839641e+01 1.592596e+00 2.317776e+00 1.700131e+00 2.390033e+00 2.486403e+00 2.357601e+00 2.972100e+00 2.655601e+00 2.270027e+00 2.542916e+00 2.264997e+00 1.647762e+00 2.549860e+00
<GCONST> 1.014657e+02
~s "ST_K_3_1"
<MEAN> 25
 -1.684587e-08 -6.193333e-08 -4.487690e-08 3.351832e-08 -6.047171e-08 2.058664e-08 -6.607048e-08 -2.205446e-08 -8.534414e-09 2.910867e-08 3.022347e-08 -1.071447e-09 -2.678578e-03 2.715191e-03 1.970940e-04 1.666228e-04 1.831201e-03 -7.320007e-04 3.372927e-03 1.125320e-03 -7.564414e-05 2.413395e-03 8.106225e-04 -2.148533e-03 -1.727290e-03
<VARIANCE> 25
 4.499385e+01 7.342516e+01 3.566479e+01 5.718780e+01 5.546888e+01 4.305736e+01 6.020990e+01 4.209700e+01 2.990068e+01 4.475465e+01 3.376802e+01 1.839641e+01 1.592596e+00 2.317776e+00 1.700131e+00 2.390033e+00 2.486403e+00 2.357601e+00 2.972100e+00 2.655601e+00 2.270027e+00 2.542916e+00 2.264997e+00 1.647762e+00 2.549860e+00
<GCONST> 1.014657e+02
~s "ST_K_4_1"
<MEAN> 25
 -1.684587e-08 -6.193333e-08 -4.487690e-08 3.351832e-08 -6.047171e-08 2.058664e-08 -6.607048e-08 -2.205446e-08 -8.534414e-09 2.910867e-08 3.022347e-08 -1.071447e-09 -2.678578e-03 2.715191e-03 1.970940e-04 1.666228e-04 1.831201e-03 -7.320007e-04 3.372927e-03 1.125320e-03 -7.564414e-05 2.413395e-03 8.106225e-04 -2.148533e-03 -1.727290e-03
<VARIANCE> 25
 4.499385e+01 7.342516e+01 3.566479e+01 5.718780e+01 5.546888e+01 4.305736e+01 6.020990e+01 4.209700e+01 2.990068e+01 4.475465e+01 3.376802e+01 1.839641e+01 1.592596e+00 2.317776e+00 1.700131e+00 2.390033e+00 2.486403e+00 2.357601e+00 2.972100e+00 2.655601e+00 2.270027e+00 2.542916e+00 2.264997e+00 1.647762e+00 2.549860e+00
<GCONST> 1.014657e+02
~s "ST_aw_2_1"
<MEAN> 25
 -1.684587e-08 -6.193333e-08 -4.487690e-08 3.351832e-08 -6.047171e-08 2.058664e-08 -6.607048e-08 -2.205446e-08 -8.534415e-09 2.910867e-08 3.022347e-08 -1.071447e-09 -2.678578e-03 2.715191e-03 1.970940e-04 1.666228e-04 1.831201e-03 -7.320007e-04 3.372927e-03 1.125320e-03 -7.564414e-05 2.413395e-03 8.106226e-04 -2.148533e-03 -1.727290e-03
<VARIANCE> 25
 4.499385e+01 7.342516e+01 3.566479e+01 5.718780e+01 5.546888e+01 4.305737e+01 6.020990e+01 4.209700e+01 2.990068e+01 4.475465e+01 3.376802e+01 1.839641e+01 1.592596e+00 2.317776e+00 1.700131e+00 2.390033e+00 2.486403e+00 2.357601e+00 2.972100e+00 2.655601e+00 2.270027e+00 2.542916e+00 2.264997e+00 1.647762e+00 2.549860e+00
<GCONST> 1.014657e+02
~s "ST_aw_3_1"
<MEAN> 25
 -1.684587e-08 -6.193333e-08 -4.487690e-08 3.351832e-08 -6.047171e-08 2.058664e-08 -6.607048e-08 -2.205446e-08 -8.534414e-09 2.910867e-08 3.022347e-08 -1.071447e-09 -2.678578e-03 2.715191e-03 1.970940e-04 1.666228e-04 1.831201e-03 -7.320006e-04 3.372927e-03 1.125320e-03 -7.564413e-05 2.413395e-03 8.106225e-04 -2.148533e-03 -1.727290e-03
<VARIANCE> 25
 4.499385e+01 7.342516e+01 3.566479e+01 5.718780e+01 5.546888e+01 4.305736e+01 6.020990e+01 4.209700e+01 2.990068e+01 4.475465e+01 3.376802e+01 1.839641e+01 1.592596e+00 2.317776e+00 1.700131e+00 2.390033e+00 2.486403e+00 2.357601e+00 2.972100e+00 2.655601e+00 2.270027e+00 2.542916e+00 2.264997e+00 1.647762e+00 2.549860e+00
<GCONST> 1.014657e+02
~s "ST_aw_4_1"
<MEAN> 25
 -1.684587e-08 -6.193333e-08 -4.487690e-08 3.351832e-08 -6.047171e-08 2.058664e-08 -6.607048e-08 -2.205446e-08 -8.534414e-09 2.910867e-08 3.022347e-08 -1.071447e-09 -2.678578e-03 2.715191e-03 1.970940e-04 1.666228e-04 1.831201e-03 -7.320007e-04 3.372927e-03 1.125320e-03 -7.564414e-05 2.413395e-03 8.106225e-04 -2.148533e-03 -1.727290e-03
<VARIANCE> 25
 4.499385e+01 7.342516e+01 3.566479e+01 5.718780e+01 5.546888e+01 4.305736e+01 6.020990e+01 4.209700e+01 2.990068e+01 4.475465e+01 3.376802e+01 1.839641e+01 1.592596e+00 2.317776e+00 1.700131e+00 2.390033e+00 2.486403e+00 2.357601e+00 2.972100e+00 2.655601e+00 2.270027e+00 2.542916e+00 2.264997e+00 1.647762e+00 2.549860e+00
<GCONST> 1.014657e+02
~s "ST_e_2_1"
<MEAN> 25
 6.600681e+00 -4.118124e+00 -2.247810e+00 -6.384040e+00 -3.093566e+00 -7.750438e+00 -6.607017e+00 -1.863697e+00 2.407504e+00 -3.456794e+00 -5.066730e+00 -1.568911e-01 2.380418e+00 -4.900291e-01 -1.163118e-01 -3.159863e+00 -7.517756e-01 -1.419763e+00 -2.014026e+00 -1.500106e+00 -2.290198e-01 -1.879732e+00 -1.517729e+00 -5.693508e-02 2.445893e+00
<VARIANCE> 25
 4.038243e+01 9.630657e+01 3.933843e+01 4.415157e+01 5.199733e+01 4.634019e+01 4.828477e+01 4.131453e+01 2.443065e+01 3.836430e+01 3.675509e+01 1.514962e+01 3.414633e+00 3.413420e+00 4.290669e+00 4.196931e+00 7.301302e+00 5.863257e+00 5.117331e+00 7.615235e+00 3.702444e+00 5.221083e+00 4.920873e+00 2.763881e+00 5.400375e+00
<GCONST> 1.102478e+02
~s "ST_e_3_1"
<MEAN> 25
 9.818394e+00 -1.119376e+01 -1.853948e+00 -1.264683e+01 -2.466460e+00 -5.374813e+00 -7.036150e+00 -6.467996e-01 3.146291e+00 -6.354105e+00 -7.386066e+00 -1.219763e+00 1.538103e-01 -2.436917e-01 -1.846694e-01 -6.214951e-01 3.652592e-01 3.180001e-01 1.343387e-01 -4.464568e-01 -3.319377e-01 -5.992725e-01 -6.541578e-01 -2.339014e-01 2.245160e-01
<VARIANCE> 25
 1.976757e+01 1.177453e+02 4.820480e+01 3.070244e+01 4.724062e+01 5.073262e+01 3.804900e+01 5.124224e+01 4.110331e+01 2.959748e+01 3.265472e+01 2.536231e+01 1.388292e+00 2.352044e+00 2.203469e+00 2.544505e+00 4.078420e+00 2.176080e+00 3.469735e+00 2.898945e+00 2.469942e+00 3.813487e+00 2.532715e+00 2.425110e+00 2.203129e+00
<GCONST> 1.024264e+02
~s "ST_e_4_1"
<MEAN> 25
 4.966218e+00 -4.702333e+00 -4.856119e+00 -6.642535e+00 -1.736550e+00 -3.851125e+00 -2.054317e+00 -1.128569e+00 1.842006e+00 -5.050128e+00 -6.597329e+00 -3.669446e-01 -9.114614e-01 8.950126e-01 2.334868e-01 1.513406e+00 1.240740e-01 1.028136e+00 9.389728e-01 5.484715e-01 -1.159918e-01 9.529555e-01 1.053695e+00 -1.082719e-01 -2.126230e+00
<VARIANCE> 25
 1.913458e+01 5.224239e+01 2.210088e+01 4.530991e+01 3.811424e+01 5.196930e+01 5.481164e+01 5.256504e+01 2.466252e+01 3.612581e+01 4.273805e+01 1.893818e+01 1.525149e+00 3.496198e+00 1.757239e+00 2.189318e+00 2.474878e+00 2.852075e+00 2.964462e+00 4.358276e+00 2.603397e+00 3.584731e+00 2.865125e+00 1.635111e+00 4.390107e+00
<GCONST> 1.016005e+02
~s "ST_r_2_1"
<MEAN> 25
 5.801784e+00 -9.185529e+00 2.375785e+00 -2.818917e+00 -6.621171e+00 -2.339585e+00 -2.485473e+00 -1.286472e+00 -1.410902e+00 -6.615140e+00 -3.874002e+00 4.998294e-01 -1.162109e+00 4.486186e-01 5.985832e-01 8.958388e-01 4.645346e-01 1.373460e+00 -5.622792e-01 7.318886e-01 9.477347e-01 2.751979e-01 1.226333e+00 3.482858e-01 -1.211496e+00
<VARIANCE> 25
 3.108670e+01 8.527650e+01 3.578854e+01 3.979263e+01 5.257035e+01 5.231098e+01 4.304165e+01 4.080173e+01 4.402277e+01 4.281427e+01 3.241393e+01 2.555529e+01 3.594701e+00 4.716254e+00 4.221364e+00 3.845043e+00 5.091450e+00 5.250427e+00 3.823822e+00 5.373725e+00 5.015583e+00 4.225521e+00 4.096931e+00 2.765284e+00 4.824979e+00
<GCONST> 1.097231e+02
~s "ST_r_3_1"
<MEAN> 25
 -1.805531e+00 -6.122776e+00 2.428615e+00 2.221331e+00 -2.641874e+00 3.407383e+00 -1.457282e-01 3.164310e+00 3.462396e+00 -3.199632e+00 2.139452e+00 1.948509e+00 -7.817133e-01 1.050330e+00 -5.109635e-02 5.897352e-01 7.614633e-01 2.569181e-01 2.828948e-01 4.424751e-01 2.848969e-01 9.557054e-01 6.461984e-01 -2.697048e-01 -1.131945e+00
<VARIANCE> 25
 1.648420e+01 6.701414e+01 3.355471e+01 2.589244e+01 3.744978e+01 3.174089e+01 4.266613e+01 3.160049e+01 3.078880e+01 4.922012e+01 2.432461e+01 2.560840e+01 2.275403e+00 4.108220e+00 3.826080e+00 1.583343e+00 3.271229e+00 3.769476e+00 4.540751e+00 3.742433e+00 3.431103e+00 4.770235e+00 3.433197e+00 2.306277e+00 1.636648e+00
<GCONST> 1.025049e+02
~s "ST_r_4_1"
<MEAN> 25
 -2.584746e+00 2.839859e+00 -3.185146e-01 4.313439e+00 3.857507e+00 2.417681e+00 2.689013e+00 2.144040e+00 1.306026e+00 3.180871e+00 2.676942e+00 1.357681e-01 -5.223837e-02 1.061644e-01 1.238363e-02 -4.615419e-02 6.280619e-02 -6.407271e-02 -1.338074e-02 -9.469583e-02 -5.089946e-02 1.776460e-01 2.045857e-02 -1.443424e-02 -5.539290e-02
<VARIANCE> 25
 2.416027e+00 9.438343e+00 1.316537e+01 7.855675e+00 8.835240e+00 1.677944e+01 1.592946e+01 1.344650e+01 1.775157e+01 1.511348e+01 1.338508e+01 1.145070e+01 1.441635e-01 3.610188e-01 3.636968e-01 6.859359e-01 7.508637e-01 1.189043e+00 1.304851e+00 1.291279e+00 1.359182e+00 1.335338e+00 1.182088e+00 1.028793e+00 1.040406e-01
<GCONST> 6.929577e+01
~s "ST_r_4_2"
<MEAN> 25
 3.822668e-01 -5.461682e+00 6.498852e+00 7.073488e-01 -3.523979e+00 -3.011623e-01 -2.486269e+00 3.162832e+00 2.510004e+00 -2.796311e+00 1.718755e+00 6.701274e-01 1.785957e+00 1.208358e-01 -6.463761e-01 -2.822641e-01 -1.672163e+00 -1.007068e+00 -1.425957e+00 -1.592453e+00 -1.030994e+00 -3.098818e-01 -1.091005e+00 -5.735457e-01 1.882209e-01
<VARIANCE> 25
 4.678777e+01 3.389884e+01 3.658133e+01 2.836274e+01 5.133453e+01 3.034041e+01 3.571436e+01 4.549218e+01 4.133997e+01 3.431534e+01 2.954939e+01 2.476724e+01 4.503266e+00 1.828210e+00 5.087324e+00 1.283366e+00 6.398668e+00 2.482648e+00 1.929394e+00 3.927155e+00 2.823982e+00 3.395751e+00 3.651386e+00 1.535830e+00 1.416771e+00
<GCONST> 1.019656e+02
~s "ST_r_4_3"
<MEAN> 25
 -4.459682e+00 2.026140e+00 -2.005633e-01 5.147142e+00 2.136776e+00 3.353886e+00 2.416542e+00 3.764666e+00 1.996578e+00 2.126718e+00 2.847615e+00 -2.289121e-01 1.255418e-01 2.227449e-02 1.551087e-01 1.698506e-02 2.245271e-01 -3.407639e-02 -2.264845e-02 3.251611e-02 3.068292e-02 8.521525e-02 3.380610e-03 5.525777e-02 -3.010484e-01
<VARIANCE> 25
 1.517152e+01 5.732975e+00 1.810044e+01 8.183899e+00 2.645221e+01 1.324191e+01 1.267356e+01 1.497789e+01 1.526431e+01 1.492625e+01 1.535492e+01 1.177567e+01 5.884761e-01 4.261026e-01 5.683582e-01 8.184942e-01 1.197179e+00 1.054879e+00 1.156868e+00 1.377234e+00 1.426773e+00 1.316948e+00 1.580216e+00 1.143926e+00 5.128230e-01
<GCONST> 7.624715e+01
~s "ST_ny_2_1"
<MEAN> 25
 9.365055e-01 3.840741e+00 4.581910e+00 -4.516337e-01 -7.036694e+00 -6.109270e+00 -5.730308e+00 -3.933330e-01 -8.941087e+00 -8.214383e+00 -1.582472e+00 -2.313292e+00 -1.870663e-01 -1.109104e-01 -9.437980e-02 2.527760e-01 3.845106e-01 2.292088e-01 2.726813e-01 1.151682e-01 2.252734e-01 1.028645e-01 1.432230e-01 1.066329e-01 -2.896708e-01
<VARIANCE> 25
 2.245579e+01 5.044617e+01 1.890513e+01 2.032616e+01 6.503784e+01 3.578115e+01 2.600468e+01 7.555614e+01 6.252200e+01 6.977013e+01 3.646877e+01 3.262852e+01 2.207658e+00 3.122891e+00 1.526519e+00 2.465123e+00 4.285076e+00 3.411554e+00 2.997623e+00 7.047331e+00 3.712372e+00 5.368464e+00 2.237939e+00 2.683550e+00 2.612509e+00
<GCONST> 1.044625e+02
~s "ST_ny_3_1"
<MEAN> 25
 -8.489322e+00 5.305912e+00 -3.536236e+00 2.906767e+00 3.636665e+00 9.643400e-01 8.706933e+00 2.138779e+00 3.682982e+00 4.149701e+00 3.530991e+00 1.617846e+00 3.995879e-01 -2.911000e-01 -5.574897e-02 1.285551e-01 2.816048e-01 6.265522e-01 3.875599e-01 1.099958e-01 2.635454e-01 3.795988e-01 -8.744279e-02 -1.078186e-01 -5.973983e-01
<VARIANCE> 25
 3.749810e+01 3.606134e+01 1.113393e+01 8.623981e+00 7.256080e+00 1.004371e+01 3.325444e+01 1.402208e+01 1.719199e+01 1.704241e+01 2.314168e+01 1.585025e+01 1.146554e+00 1.034912e+00 8.114375e-01 6.639808e-01 5.299510e-01 8.588441e-01 2.705988e+00 2.439007e+00 1.728885e+00 1.363109e+00 2.034413e+00 8.602439e-01 3.733086e-01
<GCONST> 8.082367e+01
~s "ST_ny_4_1"
<MEAN> 25
 -2.534400e+00 -8.235400e-01 -8.723908e-01 3.082581e+00 4.330773e+00 4.904814e+00 5.756396e+00 2.502552e+00 2.664783e+00 3.440000e+00 2.742341e+00 6.216382e-01 2.303111e-02 1.796570e-03 -3.566696e-02 -2.207437e-02 -2.914679e-02 -1.017413e-02 7.393221e-02 -1.016172e-01 -7.794509e-02 3.814606e-02 -4.275399e-02 -2.047286e-02 -2.474364e-02
<VARIANCE> 25
 1.894528e+00 4.745587e+00 3.943484e+00 5.812554e+00 7.025134e+00 1.214344e+01 1.282645e+01 1.318481e+01 1.363155e+01 1.492476e+01 1.728795e+01 1.046273e+01 1.195676e-01 2.006383e-01 3.113416e-01 5.216741e-01 6.790000e-01 1.090223e+00 1.269090e+00 1.426251e+00 1.441945e+00 1.273188e+00 1.688258e+00 9.708765e-01 5.346972e-02
<GCONST> 6.428319e+01
~s "ST_h_2_1"
<MEAN> 25
 -3.429621e+00 7.715505e-01 2.351951e+00 6.142554e+00 3.868807e+00 3.515463e+00 3.817325e+00 3.609869e+00 2.408293e+00 3.222215e+00 2.770594e+00 2.455821e-01 -2.399132e-02 1.720314e-02 2.979415e-03 4.473620e-02 6.677891e-02 5.935063e-02 2.931393e-02 -1.756979e-02 1.604329e-02 6.349873e-02 6.825757e-03 -7.189622e-03 -1.801457e-02
<VARIANCE> 25
 2.317515e+00 4.964494e+00 8.477861e+00 1.122966e+01 1.039382e+01 1.162503e+01 1.380397e+01 1.210260e+01 1.330581e+01 1.621904e+01 1.305619e+01 1.124682e+01 1.200141e-01 2.313277e-01 4.304633e-01 5.739088e-01 8.004448e-01 8.472967e-01 1.031214e+00 1.131534e+00 1.256720e+00 1.399655e+00 1.137422e+00 9.506932e-01 4.878663e-02
<GCONST> 6.562863e+01
~s "ST_h_3_1"
<MEAN> 25
 -1.610263e+00 -2.452898e+00 -2.454631e+00 -3.704261e+00 5.792984e+00 7.926163e+00 2.839495e+00 2.789957e+00 4.728238e-01 1.190277e+00 3.541903e-01 3.112733e-01 1.225588e-01 -2.960802e-01 -2.637452e-01 -1.126835e+00 -3.752353e-02 1.557081e-01 -3.947444e-01 -2.316104e-01 -2.135033e-01 -4.808855e-02 -1.171053e-01 1.565517e-01 6.213194e-01
<VARIANCE> 25
 5.830929e+00 1.987731e+01 1.466965e+01 5.294988e+01 1.809169e+01 2.301727e+01 2.660648e+01 1.563170e+01 1.811307e+01 1.924808e+01 2.009368e+01 2.146464e+01 4.275638e-01 5.661483e-01 1.042267e+00 1.508935e+00 1.382317e+00 1.188643e+00 1.422922e+00 1.348525e+00 1.274885e+00 1.478274e+00 1.516851e+00 1.723761e+00 2.833898e-01
<GCONST> 8.185432e+01
~s "ST_h_4_1"
<MEAN> 25
 -2.581261e+00 -3.471009e+00 1.791091e-01 -3.246338e+00 4.940810e+00 3.138144e+00 -1.362708e+00 -1.318214e+00 1.493467e+00 8.822262e-02 9.866399e-01 1.494684e+00 1.237119e+00 6.250691e-02 1.012337e-02 -9.345685e-01 -9.334368e-01 -1.180650e+00 -1.808710e+00 -1.772676e+00 -8.682635e-01 -1.265598e+00 -1.088017e+00 -4.231075e-01 1.280921e+00
<VARIANCE> 25
 1.980940e+01 6.217905e+01 3.322289e+01 6.517281e+01 4.037342e+01 3.465324e+01 4.789097e+01 3.367826e+01 4.173000e+01 3.264859e+01 2.524933e+01 3.062044e+01 2.651051e+00 4.341429e+00 2.743955e+00 2.918489e+00 3.291541e+00 4.807632e+00 3.661660e+00 2.836457e+00 3.998989e+00 2.544324e+00 2.604290e+00 3.311149e+00 2.024661e+00
<GCONST> 1.040456e+02
~s "ST_u_2_1"
<MEAN> 25
 9.620587e+00 6.935154e+00 -4.325871e+00 -8.465831e+00 -7.871413e+00 -8.318282e+00 -1.005183e+01 -6.350872e+00 -5.283084e+00 -3.036353e+00 -1.959225e+00 1.332350e+00 7.918826e-02 4.369970e-01 3.629455e-01 2.149657e-01 -2.746250e-01 -2.290933e-01 -2.126231e-01 -9.086897e-02 -2.812707e-01 -3.487841e-01 -2.010237e-01 -3.159041e-01 -3.781237e-01
<VARIANCE> 25
 1.560306e+01 2.393935e+01 2.180646e+01 4.663397e+01 2.753339e+01 3.002862e+01 3.773613e+01 3.185026e+01 3.524322e+01 3.563282e+01 2.203693e+01 3.029720e+01 2.655371e+00 2.042464e+00 2.179465e+00 5.097433e+00 2.250249e+00 2.890580e+00 4.904263e+00 3.507866e+00 3.520993e+00 2.663135e+00 2.341833e+00 2.903015e+00 1.973632e+00
<GCONST> 9.989396e+01
~s "ST_u_3_1"
<MEAN> 25
 2.153468e+00 3.454176e+00 -8.338002e-01 -1.492811e+00 -4.896276e+00 -5.765595e+00 -3.127834e+00 -2.609699e+00 -3.422761e+00 -6.220712e-01 -1.229920e-01 -6.949899e-01 -2.535004e+00 -9.806246e-01 1.257013e-01 1.295221e+00 1.626588e+00 1.484866e+00 2.696828e+00 1.702898e+00 1.266321e+00 1.998974e+00 1.503346e+00 4.385658e-01 -9.222929e-01
<VARIANCE> 25
 3.605035e+01 2.522436e+01 2.479696e+01 2.090417e+01 3.214217e+01 4.462738e+01 4.713104e+01 4.516927e+01 4.304877e+01 4.473865e+01 2.934393e+01 2.276811e+01 2.206344e+00 2.228461e+00 1.836467e+00 2.953888e+00 2.101272e+00 2.370200e+00 4.491829e+00 3.378470e+00 3.279847e+00 3.341051e+00 2.195196e+00 2.343717e+00 1.929891e+00
<GCONST> 1.003082e+02
~s "ST_u_4_1"
<MEAN> 25
 -1.157653e+00 8.896689e-01 -1.130746e+00 2.810000e+00 1.689771e+00 1.697790e+00 2.744461e+00 1.577601e+00 1.010225e+00 2.801092e+00 2.224303e+00 1.014511e-01 -1.577297e-01 -8.905007e-03 8.127886e-02 1.909036e-01 2.540858e-01 1.462894e-01 1.476290e-01 9.211574e-02 6.022908e-02 5.553778e-02 -2.438668e-02 -5.093268e-02 -1.077136e-01
<VARIANCE> 25
 6.520294e+00 1.277885e+01 1.054392e+01 1.114774e+01 1.597251e+01 1.961480e+01 2.058340e+01 1.796016e+01 1.782580e+01 1.959487e+01 1.628085e+01 1.262268e+01 1.922526e-01 4.973701e-01 5.541840e-01 8.123397e-01 9.946769e-01 1.150497e+00 1.328475e+00 1.227616e+00 1.586201e+00 1.488877e+00 1.237910e+00 1.080692e+00 2.168934e-01
<GCONST> 7.507816e+01
~s "ST_u_4_2"
<MEAN> 25
 -1.138619e+01 4.235921e+00 -1.875111e+00 -1.789667e+00 4.495411e-01 -5.161682e+00 8.242484e+00 2.959191e+00 -1.531980e+00 6.397419e+00 2.540600e+00 4.113478e-01 -1.118219e-01 1.628850e-01 1.701551e-02 3.323534e-01 3.591871e-01 4.274930e-01 4.649242e-01 -5.813527e-02 5.087987e-01 2.315669e-02 -5.311172e-02 4.564686e-02 -4.202795e-01
<VARIANCE> 25
 3.724930e+01 1.200234e+01 1.465666e+01 1.562545e+01 1.682722e+01 2.101748e+01 3.918775e+01 2.605994e+01 2.239857e+01 3.317517e+01 2.352504e+01 1.404397e+01 9.454481e-01 8.484336e-01 4.953842e-01 9.650970e-01 1.197231e+00 1.550030e+00 1.760285e+00 1.466062e+00 1.516998e+00 1.685302e+00 1.599815e+00 1.228652e+00 1.536628e-01
<GCONST> 8.304104e+01
~s "ST_k_2_1"
<MEAN> 25
 -2.481364e+00 1.432401e+00 7.593259e-01 4.726308e+00 3.336327e+00 3.516724e+00 3.429386e+00 2.735489e+00 2.068326e+00 3.223795e+00 2.241733e+00 -2.212745e-01 -6.593442e-02 -1.849671e-01 -1.970581e-01 1.042661e-03 2.666534e-01 -3.400556e-02 -1.159644e-01 1.381385e-01 8.654975e-02 1.003159e-01 1.006706e-02 5.516184e-02 2.911173e-01
<VARIANCE> 25
 5.166823e+00 1.074507e+01 1.301957e+01 1.511284e+01 1.661864e+01 1.705354e+01 1.719513e+01 1.869121e+01 1.703270e+01 1.563861e+01 1.745869e+01 1.245554e+01 5.760788e-01 1.331223e+00 1.643694e+00 1.870350e+00 1.601636e+00 2.169854e+00 1.906400e+00 1.753736e+00 2.149127e+00 1.949390e+00 1.801782e+00 1.372287e+00 1.755685e+00
<GCONST> 8.384306e+01
~s "ST_k_3_1"
<MEAN> 25
 -1.576622e+00 -8.364011e-01 -5.913614e+00 3.645024e-01 3.925196e+00 4.935655e-01 1.489088e+00 3.314051e+00 1.822050e+00 5.288704e+00 -6.415986e-01 3.988730e-01 8.983958e-01 -1.606522e+00 -1.982217e+00 -2.268281e+00 1.331905e-01 -7.053220e-01 -1.543879e+00 -2.509150e-01 -3.056188e-01 9.555370e-02 -1.602460e+00 2.528350e-01 3.241495e+00
<VARIANCE> 25
 1.613686e+01 3.649485e+01 5.542092e+01 5.294357e+01 4.232584e+01 4.896260e+01 2.692661e+01 2.230609e+01 3.415321e+01 3.280973e+01 2.394361e+01 2.017612e+01 3.110591e+00 6.959599e+00 6.933245e+00 5.461522e+00 4.163157e+00 6.810888e+00 4.752825e+00 3.929789e+00 4.998741e+00 3.886971e+00 2.971782e+00 2.182847e+00 4.643379e+00
<GCONST> 1.068988e+02
~s "ST_k_4_1"
<MEAN> 25
 1.911520e+00 -6.802134e+00 -3.061609e+00 -4.349135e+00 2.180284e+00 5.220066e-01 -3.805925e+00 -2.157595e-01 1.402215e+00 2.234349e-01 -2.858732e+00 1.979798e-02 1.527006e+00 -8.815797e-01 6.866130e-01 -1.754084e+00 -7.784990e-01 -4.800903e-01 -9.618396e-01 -1.331855e+00 -8.407682e-01 -1.441490e+00 -6.355538e-01 -1.017600e-02 1.808823e+00
<VARIANCE> 25
 4.747602e+01 1.101495e+02 6.816483e+01 4.890881e+01 7.294539e+01 7.606915e+01 7.037547e+01 5.999955e+01 4.088425e+01 4.377383e+01 4.427924e+01 2.167432e+01 4.412594e+00 9.016253e+00 3.733879e+00 5.623302e+00 4.582482e+00 5.908764e+00 5.719742e+00 6.333202e+00 3.867561e+00 3.533092e+00 4.441068e+00 2.449708e+00 9.112938e+00
<GCONST> 1.147745e+02
~s "ST_x_2_1"
<MEAN> 25
 -2.157923e+00 -9.959461e+00 2.291559e-01 3.968986e+00 -4.948608e+00 2.715914e+00 8.084329e-01 4.165112e+00 2.022698e+00 -3.212532e+00 3.649714e+00 2.747394e+00 -6.841296e-01 1.812171e-01 -8.689454e-01 7.751774e-01 -2.749056e-01 -2.679788e-01 4.065211e-01 5.880299e-01 -1.873388e-02 -5.837154e-02 4.832338e-01 3.266437e-01 7.930636e-01
<VARIANCE> 25
 1.039891e+01 1.051751e+02 4.576618e+01 3.316818e+01 4.062540e+01 6.389907e+01 2.381151e+01 3.613637e+01 1.844115e+01 3.064881e+01 1.525160e+01 1.792086e+01 1.948573e+00 9.802773e+00 3.257615e+00 3.277318e+00 5.362378e+00 5.453078e+00 2.648588e+00 4.845081e+00 2.460720e+00 4.325888e+00 2.158438e+00 1.785050e+00 5.939953e+00
<GCONST> 1.035773e+02
~s "ST_x_3_1"
<MEAN> 25
 -9.912386e+00 2.113131e+00 -5.194716e+00 6.634457e+00 -7.681983e+00 4.448486e+00 5.484073e+00 9.382559e+00 9.815621e-01 1.013355e+00 5.851719e+00 1.371844e+00 3.643861e-01 2.113482e-01 2.924340e-01 -1.897550e-01 6.351156e-01 2.269952e-01 -1.183096e-01 -2.301822e-01 -1.860632e-01 1.317077e-01 -9.386252e-02 -5.706247e-02 -6.704858e-01
<VARIANCE> 25
 1.982183e+01 5.794693e+00 9.759802e+00 9.352755e+00 2.348851e+01 1.971495e+01 1.811629e+01 1.818638e+01 1.521541e+01 1.678499e+01 1.956983e+01 1.196420e+01 1.618686e+00 1.088420e+00 7.710782e-01 6.600781e-01 1.918647e+00 2.146444e+00 1.881565e+00 1.545405e+00 1.748847e+00 1.794528e+00 1.807298e+00 1.450639e+00 5.532122e-01
<GCONST> 8.202799e+01
~s "ST_x_4_1"
<MEAN> 25
 -5.493804e+00 1.194315e+01 -3.148632e+00 6.248634e+00 5.914106e+00 -1.275016e+00 5.120480e+00 2.038780e+00 -1.101365e+00 3.600067e+00 2.928023e-01 -9.573387e-01 -1.378020e-01 2.757024e-01 7.987313e-02 -9.046100e-02 1.705867e-01 -6.743415e-02 1.007869e-01 1.028356e-01 -7.350538e-02 1.220012e-01 -1.141511e-01 -1.642082e-01 -2.197587e-01
<VARIANCE> 25
 3.776001e+00 1.743773e+01 7.451003e+00 9.663579e+00 9.840405e+00 1.515733e+01 1.774461e+01 1.360614e+01 1.256370e+01 1.707557e+01 1.522485e+01 1.246407e+01 1.613122e-01 5.354888e-01 4.443181e-01 5.691347e-01 1.008621e+00 1.157832e+00 1.110077e+00 9.182839e-01 1.337276e+00 1.275823e+00 1.520173e+00 1.012522e+00 1.430428e-01
<GCONST> 7.088812e+01
~s "ST_a_2_1"
<MEAN> 25
 6.356815e+00 -8.687399e+00 -6.849302e-01 -3.962020e+00 -1.832275e+00 -4.299145e+00 -5.956090e+00 -3.305551e+00 -3.339709e+00 -9.289520e+00 -5.191612e+00 2.829907e-01 -3.715735e-01 5.020210e-01 -3.956009e-02 5.608670e-01 2.066874e-02 2.453181e-01 1.952813e-01 1.958296e-02 8.863159e-03 1.129795e-01 1.798543e-01 3.252622e-02 -8.993300e-01
<VARIANCE> 25
 1.832225e+01 7.505770e+01 3.207459e+01 3.925344e+01 5.426144e+01 3.955641e+01 5.681737e+01 4.148266e+01 3.051779e+01 3.849494e+01 3.255161e+01 2.508410e+01 1.930780e+00 3.666482e+00 1.944327e+00 2.055686e+00 3.766067e+00 3.020801e+00 3.691412e+00 3.464270e+00 2.948281e+00 3.587780e+00 2.944668e+00 2.068749e+00 3.559298e+00
<GCONST> 1.032800e+02
~s "ST_a_3_1"
<MEAN> 25
 -1.921479e+00 -3.613078e+00 -1.155245e-01 1.322160e+00 2.482493e+00 1.290212e+00 -2.166283e-01 2.740238e+00 1.211938e+00 -2.932730e+00 1.619149e+00 1.945778e+00 -3.879355e-01 6.457340e-01 2.025170e-01 3.867967e-01 2.885622e-01 3.701117e-01 5.743702e-01 4.934846e-01 3.232811e-01 8.536667e-01 5.755920e-01 -1.125633e-01 -9.575000e-01
<VARIANCE> 25
 1.374577e+01 3.063555e+01 2.173476e+01 1.836431e+01 3.272718e+01 2.862212e+01 3.040439e+01 3.718652e+01 3.149902e+01 4.203608e+01 3.882085e+01 2.154576e+01 1.076450e+00 1.664767e+00 1.415995e+00 1.387116e+00 2.239450e+00 2.557209e+00 3.003826e+00 3.074064e+00 2.846957e+00 3.463666e+00 3.458570e+00 2.212978e+00 1.800762e+00
<GCONST> 9.590810e+01
~s "ST_a_3_2"
<MEAN> 25
 -8.438840e+00 1.412931e+00 -5.862057e+00 3.398811e+00 -4.234251e+00 3.358719e+00 4.916147e+00 3.436482e+00 2.682047e+00 2.808570e+00 4.133194e+00 -6.580180e-01 -4.113913e-01 4.660679e-01 8.165215e-02 4.892655e-01 6.507710e-01 3.931870e-01 2.997174e-01 2.770101e-01 4.790591e-01 6.717213e-01 4.163629e-01 6.537341e-03 -6.159571e-01
<VARIANCE> 25
 2.186676e+01 1.617989e+01 1.936563e+01 1.419529e+01 2.287963e+01 2.256296e+01 1.993019e+01 1.953128e+01 1.724738e+01 2.122763e+01 1.748664e+01 1.479918e+01 3.164232e+00 1.521261e+00 2.148339e+00 1.643453e+00 1.767547e+00 2.234951e+00 2.043630e+00 2.170880e+00 3.623142e+00 4.897784e+00 3.460544e+00 1.526479e+00 7.973648e-01
<GCONST> 9.111255e+01
~s "ST_a_4_1"
<MEAN> 25
 -1.541728e+00 8.661624e-01 -3.244970e-01 3.328792e+00 2.961603e+00 3.128485e+00 3.184861e+00 1.808604e+00 9.771227e-01 2.273587e+00 1.958274e+00 -5.620105e-02 -3.657435e-02 8.009945e-02 4.365761e-02 4.604042e-02 2.911307e-02 1.240864e-02 4.510289e-02 -4.972978e-02 -1.547966e-02 8.289417e-02 -1.045681e-02 -2.432503e-02 -6.815279e-02
<VARIANCE> 25
 4.522085e+00 1.078805e+01 7.910253e+00 9.467543e+00 1.249107e+01 1.541589e+01 1.505805e+01 1.563318e+01 1.489043e+01 1.685200e+01 1.529382e+01 1.186912e+01 1.358825e-01 3.280919e-01 4.354257e-01 6.034504e-01 8.486108e-01 9.362799e-01 1.215993e+00 1.248129e+00 1.247568e+00 1.325889e+00 1.301354e+00 1.087367e+00 9.531553e-02
<GCONST> 6.983882e+01
~s "ST_n_2_1"
<MEAN> 25
 5.767831e+00 5.030065e+00 5.272465e+00 1.020266e+00 -9.758533e+00 -1.197640e+01 -7.133601e+00 -5.212599e+00 -4.138660e+00 -4.851188e+00 -1.831284e+00 -2.139942e+00 -2.158862e-01 1.337036e-01 2.604580e-02 1.001806e-01 2.705024e-01 -6.275603e-02 -3.165521e-01 -1.485815e-01 -3.444625e-01 -1.826359e-02 5.808084e-02 -2.088117e-01 -3.090957e-01
<VARIANCE> 25
 8.705404e+00 1.285831e+01 1.157535e+01 1.369483e+01 3.133421e+01 2.167342e+01 2.336568e+01 1.404422e+01 2.190371e+01 2.523426e+01 1.294658e+01 1.477033e+01 3.105718e-01 5.418796e-01 5.631019e-01 6.718528e-01 9.093847e-01 1.295470e+00 1.573238e+00 1.463673e+00 1.803816e+00 1.657258e+00 1.468010e+00 1.272243e+00 2.787249e-01
<GCONST> 7.829949e+01
~s "ST_n_3_1"
<MEAN> 25
 3.286333e-01 3.000483e+00 4.141147e+00 3.471490e+00 -3.370641e+00 -4.538359e+00 -3.685198e+00 -1.732601e+00 -4.380358e+00 -2.662253e+00 1.905661e+00 -5.223305e-01 -1.045500e+00 -5.348573e-01 -5.924006e-01 1.515649e-01 1.244944e+00 1.888221e+00 1.730554e+00 1.364217e+00 1.221880e+00 1.484933e+00 1.065632e+00 6.119259e-01 -6.899435e-01
<VARIANCE> 25
 1.217873e+01 2.629977e+01 1.572207e+01 1.560562e+01 2.983484e+01 3.597620e+01 3.562450e+01 3.062252e+01 2.566076e+01 3.897892e+01 2.877213e+01 2.123706e+01 6.651846e-01 9.540299e-01 9.572376e-01 1.015095e+00 1.152005e+00 2.169643e+00 2.418735e+00 2.463072e+00 2.491504e+00 2.480813e+00 2.435124e+00 1.698903e+00 2.673616e-01
<GCONST> 8.865488e+01
~s "ST_n_4_1"
<MEAN> 25
 -2.306984e+00 8.253950e-01 5.055751e-01 3.914384e+00 3.415999e+00 3.873843e+00 3.396441e+00 2.674308e+00 1.780774e+00 3.573844e+00 2.899866e+00 2.614530e-01 -1.841806e-02 4.282307e-02 -8.234860e-02 4.857934e-02 1.596871e-01 9.184149e-02 9.045054e-02 1.958685e-03 7.953183e-02 9.416344e-02 -7.703163e-02 -4.211443e-02 -6.319328e-02
<VARIANCE> 25
 5.943996e+00 7.069374e+00 1.279737e+01 1.064044e+01 1.646256e+01 1.807120e+01 1.818278e+01 1.553113e+01 1.363028e+01 1.456667e+01 1.660728e+01 1.297565e+01 1.674268e-01 3.034403e-01 5.537172e-01 6.336662e-01 9.808364e-01 1.171947e+00 1.291861e+00 1.301147e+00 1.291999e+00 1.424967e+00 1.316431e+00 1.071527e+00 1.286571e-01
<GCONST> 7.213692e+01
~s "ST_d_2_1"
<MEAN> 25
 -2.872789e+00 6.205694e+00 -2.250398e+00 4.443845e+00 2.941591e+00 8.235256e-02 3.238487e+00 3.039641e-01 -4.670672e-01 2.734075e+00 5.889634e-01 -5.781481e-01 -8.241910e-02 1.262119e-01 -7.297258e-03 -6.838453e-03 6.125366e-02 -4.958526e-03 3.798791e-02 6.846245e-02 -6.730758e-02 6.271763e-02 6.467146e-02 -1.661548e-02 -9.353926e-02
<VARIANCE> 25
 8.161942e+00 2.423539e+01 1.039328e+01 8.061838e+00 2.086833e+01 2.300539e+01 1.398460e+01 1.446001e+01 1.254552e+01 1.391724e+01 1.179937e+01 1.355908e+01 1.084401e-01 3.622434e-01 3.836877e-01 4.558499e-01 8.747038e-01 9.597704e-01 1.024145e+00 1.061207e+00 1.245149e+00 1.142543e+00 1.090411e+00 1.111926e+00 7.677752e-02
<GCONST> 7.028956e+01
~s "ST_d_3_1"
<MEAN> 25
 -1.267640e+00 5.998354e+00 2.600003e+00 1.662136e+00 -1.100743e-01 -1.044508e+00 -2.159414e+00 -4.157606e-01 -8.723648e-01 9.791393e-01 1.145190e+00 -7.316237e-01 4.344580e-01 -1.057603e+00 1.294523e+00 -1.164944e+00 -1.766827e+00 -1.105313e-01 -1.657775e+00 9.810859e-03 -2.819811e-01 -7.255135e-01 3.249793e-02 -1.275056e-01 2.590133e+00
<VARIANCE> 25
 3.126208e+01 6.204796e+01 2.348061e+01 2.714811e+01 4.232330e+01 5.046692e+01 7.387331e+01 4.011118e+01 2.480561e+01 1.870612e+01 1.721073e+01 1.568170e+01 3.474616e+00 6.053672e+00 3.976800e+00 3.939749e+00 6.496974e+00 5.738362e+00 5.517039e+00 5.218888e+00 2.224148e+00 3.191518e+00 1.854324e+00 1.758113e+00 6.018104e+00
<GCONST> 1.050861e+02
~s "ST_d_4_1"
<MEAN> 25
 5.031319e+00 -1.365194e+00 7.437034e+00 -6.522924e+00 -1.045546e+01 -5.128641e+00 -7.499947e+00 -1.054504e+00 -2.947051e+00 -5.368432e+00 -1.784414e+00 1.337740e-01 8.982552e-01 -1.079047e+00 -4.451708e-02 -1.465667e+00 -1.228526e+00 -7.410377e-01 2.969084e-01 4.703169e-02 -8.074423e-02 -6.861196e-01 -1.076120e+00 4.077110e-01 2.357859e+00
<VARIANCE> 25
 2.654372e+01 1.161430e+02 4.812100e+01 4.320430e+01 6.406523e+01 2.631273e+01 5.954985e+01 4.660335e+01 3.086921e+01 5.303538e+01 3.798685e+01 2.724013e+01 2.634444e+00 7.860681e+00 5.833993e+00 6.430312e+00 8.803859e+00 4.238223e+00 7.959135e+00 4.468495e+00 3.476290e+00 4.975663e+00 4.187534e+00 3.029219e+00 1.038749e+01
<GCONST> 1.128988e+02
~s "ST_ay_2_1"
<MEAN> 25
 2.700079e+00 -2.269778e+00 4.092515e+00 -6.988700e+00 -1.356786e+01 -5.312344e-01 -3.788278e+00 -1.823656e-01 -9.803885e+00 -9.165069e+00 -7.311720e+00 1.812354e+00 -3.994687e-01 1.034423e+00 1.099808e+00 -1.030172e+00 -1.394280e+00 8.690831e-01 -6.123216e-02 -1.116480e+00 4.665930e-01 1.257757e+00 -7.248963e-01 -5.566315e-01 -5.000730e-01
<VARIANCE> 25
 6.335022e+00 1.543676e+01 1.851084e+01 2.320528e+01 3.305560e+01 2.460178e+01 1.039078e+01 3.445626e+01 2.021809e+01 4.570531e+01 2.880260e+01 2.431350e+01 2.311687e-01 5.117500e-01 4.585689e-01 1.526437e+00 2.561425e+00 1.263582e+00 2.015442e+00 1.218874e+00 1.560849e+00 1.617519e+00 1.643403e+00 1.303481e+00 1.851276e-01
<GCONST> 8.213768e+01
~s "ST_ay_3_1"
<MEAN> 25
 -2.355193e+00 2.768672e-01 8.316751e+00 -6.838027e+00 -9.125474e+00 7.276608e+00 -3.408354e+00 -3.553298e+00 -1.253155e+00 -2.264874e-01 -4.806393e+00 1.160053e+00 -2.752894e-01 -3.621621e-01 -3.944318e-01 1.058983e+00 1.612496e+00 3.571473e-01 8.586161e-01 7.568768e-01 5.714475e-01 2.805895e-01 1.184880e+00 1.711215e-01 -9.604213e-01
<VARIANCE> 25
 7.467369e+00 1.354990e+01 8.028786e+00 2.242988e+01 4.104333e+01 2.165332e+01 4.795699e+01 3.449276e+01 2.788355e+01 2.402292e+01 4.846391e+01 1.148987e+01 6.588361e-01 6.165375e-01 9.481053e-01 1.472465e+00 1.493806e+00 2.446960e+00 3.513049e+00 1.612013e+00 3.438987e+00 2.700577e+00 1.941909e+00 1.480779e+00 3.126303e-01
<GCONST> 8.737248e+01
~s "ST_ay_4_1"
<MEAN> 25
 -2.042705e+00 -2.608140e-01 -7.825116e-01 3.590168e+00 5.281734e+00 4.905297e+00 4.632394e+00 3.392767e+00 2.141238e+00 2.817323e+00 3.570700e+00 4.738646e-01 4.798914e-02 5.357228e-02 -1.253158e-01 3.877486e-02 4.411935e-02 -9.533022e-02 -3.476880e-02 -3.440187e-02 3.628639e-02 9.258918e-02 3.643733e-03 7.426661e-03 -4.162477e-02
<VARIANCE> 25
 2.661948e+00 3.473908e+00 5.537328e+00 5.822217e+00 8.112770e+00 8.748796e+00 8.914860e+00 1.411718e+01 1.425828e+01 1.032990e+01 1.328046e+01 9.764720e+00 2.173196e-01 2.856639e-01 7.842323e-01 6.929774e-01 7.964467e-01 8.286840e-01 8.011724e-01 1.018545e+00 1.137288e+00 1.141183e+00 1.094553e+00 8.270113e-01 7.891596e-02
<GCONST> 6.421317e+01
~s "ST_g_2_1"
<MEAN> 25
 6.067591e+00 -6.991436e+00 2.193725e+00 -5.031593e+00 -4.071158e+00 -3.500688e+00 -5.758570e+00 -3.011442e+00 9.852443e-01 -1.845060e+00 -2.231339e+00 1.369281e+00 9.290946e-01 -9.901120e-01 -1.400163e-01 -1.923842e+00 -1.390537e+00 -1.216714e+00 -5.028348e-01 -5.219576e-01 -1.206220e-01 -3.519201e-01 -8.909810e-01 5.804496e-01 2.430444e+00
<VARIANCE> 25
 6.676464e+01 1.344354e+02 4.071258e+01 9.437093e+01 9.912392e+01 5.887675e+01 8.736166e+01 6.734119e+01 3.568803e+01 4.394955e+01 3.381027e+01 3.272734e+01 2.466343e+00 9.065042e+00 4.159831e+00 6.609014e+00 6.881325e+00 5.221437e+00 5.358382e+00 6.737150e+00 4.205652e+00 4.001139e+00 3.917338e+00 3.308292e+00 6.974905e+00
<GCONST> 1.159376e+02
~s "ST_g_3_1"
<MEAN> 25
 7.416045e+00 -6.003840e+00 1.967500e+00 -1.381431e+01 -1.049866e+01 -8.895452e+00 -1.156636e+00 -5.838999e+00 -7.772824e-01 -4.011200e+00 -9.453767e+00 1.032953e+00 8.969503e-02 2.701363e-01 -2.758747e-03 4.538889e-01 -2.243402e-01 -6.766298e-02 2.296127e-01 -1.386366e-01 -5.643311e-01 -3.604732e-01 1.624226e-01 -3.420923e-01 -5.911520e-01
<VARIANCE> 25
 1.728091e+01 8.188987e+01 5.071917e+01 2.210006e+01 8.018502e+01 2.618574e+01 6.385317e+01 6.595074e+01 1.796592e+01 4.716880e+01 2.532826e+01 1.461330e+01 3.622347e-01 1.856530e+00 6.082087e-01 1.550378e+00 1.644090e+00 1.276805e+00 2.793617e+00 1.886979e+00 1.544080e+00 1.542176e+00 1.289384e+00 1.019625e+00 1.192348e+00
<GCONST> 9.214040e+01
~s "ST_g_4_1"
<MEAN> 25
 2.910480e+00 -1.086539e+01 2.084022e+00 -1.485785e+00 -8.115916e+00 1.306020e+00 -3.013676e+00 -2.731897e+00 -6.700798e-01 -3.139276e+00 5.907820e-01 -3.752313e-01 -9.895160e-01 2.985772e-01 -7.152027e-01 1.010754e+00 6.250913e-01 8.138006e-01 4.324119e-01 2.506446e-01 1.165345e-01 4.808439e-01 5.658230e-01 -6.056233e-02 -9.656517e-01
<VARIANCE> 25
 2.333237e+01 1.754899e+02 3.709002e+01 3.379962e+01 5.214645e+01 5.921893e+01 3.446929e+01 3.137293e+01 3.722875e+01 4.017678e+01 3.502556e+01 2.144207e+01 2.781009e+00 4.370727e+00 2.764461e+00 2.694805e+00 2.508585e+00 5.700532e+00 3.577221e+00 3.338389e+00 4.030500e+00 3.593101e+00 3.125469e+00 2.465051e+00 2.355555e+00
<GCONST> 1.055690e+02
~s "ST_t_2_1"
<MEAN> 25
 -2.930597e+00 2.820178e+00 6.118276e-01 5.190636e+00 4.250839e+00 2.291611e+00 3.397566e+00 2.462120e+00 1.018948e+00 3.042089e+00 1.753707e+00 -3.073838e-01 -6.117484e-02 1.273305e-02 8.455194e-03 3.487285e-02 8.371919e-02 6.545650e-02 5.904547e-02 4.526227e-02 2.399567e-02 2.107843e-02 -1.961836e-02 -2.006074e-02 -5.438019e-02
<VARIANCE> 25
 3.329506e+00 1.680025e+01 1.153410e+01 8.755813e+00 1.275611e+01 1.456697e+01 1.244880e+01 1.190779e+01 1.462439e+01 1.236544e+01 1.435209e+01 1.127192e+01 1.369234e-01 3.052516e-01 3.978080e-01 5.709869e-01 8.480668e-01 9.494815e-01 1.072145e+00 1.137545e+00 1.187488e+00 1.159781e+00 1.359946e+00 1.120145e+00 1.107144e-01
<GCONST> 6.895852e+01
~s "ST_t_3_1"
<MEAN> 25
 -3.271498e+00 2.077536e+00 -9.491504e-01 3.941142e+00 3.523671e+00 1.685040e+00 3.934158e+00 2.455998e+00 2.309638e+00 2.732148e+00 1.553386e+00 3.297324e-01 3.025339e-02 -1.373779e+00 -1.310402e-01 -1.096433e+00 -5.740024e-01 -1.245541e+00 -5.559651e-01 1.042546e-01 9.146323e-01 -4.448331e-01 -1.492674e-01 5.234826e-01 2.790312e+00
<VARIANCE> 25
 7.304941e+00 1.963815e+01 1.432508e+01 1.359028e+01 2.070277e+01 2.159773e+01 1.654075e+01 1.712897e+01 1.772782e+01 1.912590e+01 1.680820e+01 1.412709e+01 1.766294e+00 3.921118e+00 2.278240e+00 2.906783e+00 4.719381e+00 4.517815e+00 2.941578e+00 2.818897e+00 2.399808e+00 2.507436e+00 1.947095e+00 1.661716e+00 5.809018e+00
<GCONST> 9.295889e+01
~s "ST_t_4_1"
<MEAN> 25
 1.813980e+00 -6.787036e+00 -4.233654e-01 -3.053054e+00 -5.345339e-01 -2.669859e+00 -3.426212e+00 -6.912912e-01 2.624191e+00 -2.016300e+00 -1.711892e-01 1.302611e+00 2.713605e+00 -1.621594e+00 -1.698324e-01 -2.785464e+00 -1.275195e+00 -1.018870e+00 -2.857870e+00 -1.779237e+00 -9.351823e-01 -1.826155e+00 -9.433633e-01 7.227223e-02 3.959783e+00
<VARIANCE> 25
 6.780044e+01 8.902293e+01 2.858231e+01 6.528296e+01 6.954369e+01 4.877401e+01 9.694631e+01 5.890678e+01 3.219473e+01 4.508659e+01 2.889319e+01 1.966388e+01 3.954128e+00 1.359204e+01 3.959891e+00 5.330183e+00 5.663983e+00 6.555207e+00 8.016756e+00 6.282234e+00 2.923686e+00 4.593646e+00 2.928941e+00 1.902523e+00 1.044622e+01
<GCONST> 1.138150e+02
~s "ST_sil_2_1"
<MEAN> 25
 -3.314333e+00 4.152625e+00 -5.358410e-01 4.890406e+00 4.143569e+00 1.588827e+00 2.914868e+00 2.144659e+00 1.550220e+00 3.510727e+00 1.650651e+00 -1.015565e-01 -6.087843e-02 1.028221e-01 5.032236e-02 1.439457e-02 9.102885e-02 4.025659e-02 7.008618e-02 6.425750e-03 -3.731008e-02 7.227880e-02 -1.625607e-02 -3.314925e-02 -7.951941e-02
<VARIANCE> 25
 3.429839e+00 1.919254e+01 1.642433e+01 9.026375e+00 1.028789e+01 1.692120e+01 1.516554e+01 1.355953e+01 1.564621e+01 1.460608e+01 1.383604e+01 1.199605e+01 1.317678e-01 3.274347e-01 4.473828e-01 6.105772e-01 8.219224e-01 8.754764e-01 1.052207e+00 1.119077e+00 1.236198e+00 1.206345e+00 1.186160e+00 1.084342e+00 8.407025e-02
<GCONST> 6.973069e+01
~s "silst"
<MEAN> 25
 -9.934250e+00 1.498341e+01 -1.988089e+00 4.208089e+00 7.659710e+00 1.611753e+00 9.579600e+00 6.056384e+00 2.576601e-01 6.617698e+00 2.679989e+00 -1.974474e-01 -1.337869e-01 7.624476e-02 1.102707e-02 -2.452861e-02 2.583727e-02 2.478765e-02 9.299926e-02 1.043327e-01 8.912896e-02 6.898995e-02 7.108525e-02 3.569671e-02 -7.823946e-02
<VARIANCE> 25
 3.279541e+01 3.914824e+01 2.377099e+01 8.909319e+00 1.341109e+01 2.129669e+01 2.919214e+01 1.892861e+01 1.673779e+01 1.537886e+01 1.991362e+01 1.475289e+01 2.263097e+00 2.158718e+00 1.734702e+00 8.512009e-01 1.228976e+00 1.532511e+00 2.182653e+00 1.612501e+00 1.426447e+00 1.328327e+00 1.536834e+00 1.266376e+00 1.828034e+00
<GCONST> 8.743847e+01
~s "ST_sil_3_1"
<MEAN> 25
 -1.010476e+01 1.505753e+01 -1.969224e+00 4.168440e+00 7.632695e+00 1.651251e+00 9.693346e+00 6.150711e+00 3.334995e-01 6.682318e+00 2.741988e+00 -1.771840e-01 -1.221123e-01 6.719341e-02 1.098283e-02 -2.532105e-02 2.520138e-02 1.245112e-02 7.702069e-02 1.029971e-01 9.087933e-02 5.834211e-02 5.495810e-02 2.856022e-02 -6.973352e-02
<VARIANCE> 25
 3.291423e+01 3.949664e+01 2.410798e+01 8.933355e+00 1.384276e+01 2.165982e+01 2.927042e+01 1.877377e+01 1.669222e+01 1.536522e+01 1.988175e+01 1.504706e+01 2.311650e+00 2.206884e+00 1.757563e+00 8.588142e-01 1.235938e+00 1.572326e+00 2.227748e+00 1.619862e+00 1.446128e+00 1.326272e+00 1.559139e+00 1.284657e+00 1.874875e+00
<GCONST> 8.771307e+01
~s "ST_sil_4_1"
<MEAN> 25
 -1.954044e+00 4.780425e-01 -1.136803e+00 3.875473e+00 9.116876e-01 5.166292e-01 2.117414e-01 8.688980e-01 2.261858e+00 3.309331e-01 1.457142e+00 5.546601e-01 2.604146e-01 -2.912453e-01 -9.802023e-02 -1.056427e-01 -2.711575e-01 -2.051417e-01 -3.167245e-01 -1.578786e-01 -5.823667e-02 -2.284732e-01 -5.643439e-02 2.346816e-02 3.729010e-01
<VARIANCE> 25
 1.129198e+01 3.766471e+01 2.806881e+01 2.172757e+01 3.540145e+01 3.132409e+01 3.717160e+01 2.657897e+01 2.522121e+01 3.987814e+01 2.870394e+01 2.070072e+01 1.285830e+00 3.472907e+00 2.094346e+00 1.936001e+00 3.010206e+00 2.653935e+00 3.381589e+00 2.606464e+00 2.612483e+00 3.172584e+00 2.251721e+00 2.002087e+00 2.456762e+00
<GCONST> 9.729073e+01
~s "ST_j_2_1"
<MEAN> 25
 -1.702458e+00 1.021300e+00 -7.751137e-01 2.137069e+00 3.708210e+00 3.367093e+00 4.406136e+00 9.946708e-01 3.532497e-01 3.749183e+00 3.352721e+00 -4.231563e-01 -1.409773e-02 1.328547e-02 -4.299352e-02 -2.741975e-02 -4.465309e-03 -3.340832e-03 8.172511e-02 -3.959712e-02 -3.131974e-02 7.802543e-03 -3.318903e-02 7.087315e-03 -9.446583e-03
<VARIANCE> 25
 2.155475e+00 2.313615e+00 3.799942e+00 4.468908e+00 7.216115e+00 9.274200e+00 1.319579e+01 1.333408e+01 1.221552e+01 1.244997e+01 1.475216e+01 9.530388e+00 8.198825e-02 1.641155e-01 3.907367e-01 5.090506e-01 7.441320e-01 8.380982e-01 1.341641e+00 1.542958e+00 1.166959e+00 9.237792e-01 1.553216e+00 9.071333e-01 3.228001e-02
<GCONST> 6.104678e+01
~s "ST_j_3_1"
<MEAN> 25
 -4.270447e+00 5.198997e+00 3.815475e+00 -4.112179e+00 -2.723103e+00 -4.315027e+00 1.076796e+00 -3.316940e+00 6.410381e-01 3.327548e+00 1.784144e+00 -2.017862e-01 2.193270e-01 4.078849e-01 1.132957e+00 -1.660778e+00 -2.276648e+00 -1.453540e+00 -8.532216e-01 -9.570746e-01 -3.084019e-01 -1.826504e-01 -6.588750e-01 -2.748808e-01 2.174345e+00
<VARIANCE> 25
 4.474928e+01 1.680318e+01 2.898039e+01 4.475570e+01 9.370937e+01 5.171099e+01 4.123290e+01 3.244767e+01 3.075770e+01 2.670441e+01 1.808829e+01 1.835842e+01 9.395153e+00 1.729737e+00 3.122590e+00 3.073553e+00 1.157946e+01 4.066906e+00 6.525435e+00 3.204967e+00 5.107243e+00 2.744637e+00 2.091373e+00 2.060711e+00 3.698712e+00
<GCONST> 1.052898e+02
~s "ST_j_4_1"
<MEAN> 25
 4.118820e+00 -1.200235e+00 2.927224e+00 -8.173334e+00 -1.103438e+01 -1.058162e+01 -1.995694e-01 -2.859764e+00 -4.123089e+00 -5.423182e+00 -8.820473e+00 -5.009153e-01 3.833244e-01 -5.786824e-01 -9.546223e-01 5.025454e-01 9.149622e-01 3.240634e-02 -4.823187e-02 2.650906e-01 1.138401e-01 -8.241720e-01 -8.071238e-01 5.081450e-01 -1.749579e-01
<VARIANCE> 25
 3.581975e+00 3.201160e+01 1.839235e+01 1.804327e+01 4.256269e+01 2.141129e+01 3.381599e+01 1.950584e+01 1.601479e+01 3.633104e+01 2.007396e+01 1.437454e+01 2.290665e-01 1.260940e+00 9.146334e-01 4.137932e-01 2.075297e+00 1.651781e+00 1.923224e+00 2.160495e+00 1.916989e+00 3.288568e+00 2.071049e+00 1.414615e+00 3.997583e-01
<GCONST> 8.427328e+01
~s "ST_w_2_1"
<MEAN> 25
 -1.555069e+00 -7.779612e-01 -1.271813e+00 3.789609e+00 4.325274e+00 4.149111e+00 4.196034e+00 2.764857e+00 2.128971e+00 2.568979e+00 3.455244e+00 2.869664e-01 3.897830e-02 5.522888e-02 -2.949020e-02 -6.626209e-02 -7.719558e-02 1.942537e-02 6.341194e-02 -1.156309e-01 -1.056458e-01 9.610794e-02 -9.512357e-02 -9.351416e-02 -3.358372e-02
<VARIANCE> 25
 2.240900e+00 4.306997e+00 4.482165e+00 5.924726e+00 7.548553e+00 1.198485e+01 1.900090e+01 1.662890e+01 1.282192e+01 1.867542e+01 1.739699e+01 1.140806e+01 1.378596e-01 2.765708e-01 3.774812e-01 5.463871e-01 6.391425e-01 9.212710e-01 1.511497e+00 1.387897e+00 1.330983e+00 1.646917e+00 1.277332e+00 1.025289e+00 6.778827e-02
<GCONST> 6.625188e+01
~s "ST_w_3_1"
<MEAN> 25
 2.799833e-01 -1.497266e+00 -1.138624e+00 5.802195e-01 1.811406e+00 -4.223770e+00 -4.451788e+00 -5.399946e+00 -1.930475e+00 -2.334166e+00 -3.976548e+00 -1.345143e+00 2.080158e+00 4.564576e-01 -5.048677e-01 -1.532647e+00 -6.390764e-01 -2.305698e+00 -1.965249e+00 -1.587857e+00 -6.969798e-01 -1.569886e+00 -1.004468e+00 -9.147859e-01 1.603441e+00
<VARIANCE> 25
 2.189195e+01 3.203714e+01 1.372438e+01 8.904758e+00 3.792539e+01 4.022042e+01 4.383150e+01 7.749228e+01 4.073829e+01 3.252666e+01 3.398885e+01 2.639472e+01 2.401649e+00 2.305317e+00 1.313928e+00 2.602247e+00 3.296942e+00 2.205865e+00 3.742646e+00 4.809668e+00 6.402501e+00 3.264861e+00 1.706471e+00 2.678387e+00 2.447051e+00
<GCONST> 1.000244e+02
~s "ST_w_4_1"
<MEAN> 25
 1.133344e+01 -1.494866e-01 -7.068849e+00 -1.279795e+01 1.756426e+00 -4.228213e+00 -5.774523e+00 -7.435257e+00 -3.749160e+00 -2.947114e-01 -5.010899e+00 -5.257011e+00 -1.782346e-02 -4.014416e-01 -1.011039e-01 -8.369682e-02 5.690520e-01 9.798983e-02 -6.352316e-02 2.510081e-03 2.871606e-02 9.831413e-02 -9.969421e-02 -2.653588e-02 2.892779e-01
<VARIANCE> 25
 1.231713e+01 5.498730e+01 1.317154e+01 3.570106e+01 7.336024e+01 3.491831e+01 2.203040e+01 2.985886e+01 2.201658e+01 1.958389e+01 1.536272e+01 8.944095e+00 1.270205e+00 3.203507e+00 1.078587e+00 4.821207e+00 5.552239e+00 3.173713e+00 1.343867e+00 2.619769e+00 1.881207e+00 9.264742e-01 1.231035e+00 1.240550e+00 1.410445e+00
<GCONST> 9.244769e+01
~s "ST_ng_2_1"
<MEAN> 25
 5.429342e+00 4.244770e+00 3.023372e+00 -3.507975e-01 -4.243184e+00 -7.590345e+00 -8.043940e+00 -5.137332e+00 -3.826117e+00 -5.319313e+00 -1.811684e+00 -2.451992e-01 -1.847645e-01 2.920230e-02 6.047001e-02 1.390053e-01 -3.238929e-02 1.220549e-02 -5.019826e-02 1.222975e-01 -3.985692e-01 -1.248666e-01 -1.111586e-01 -2.921933e-01 -2.104932e-01
<VARIANCE> 25
 5.100921e+00 1.207454e+01 1.132965e+01 2.391074e+01 1.699720e+01 2.307401e+01 2.000300e+01 2.916876e+01 1.763476e+01 2.393135e+01 1.779051e+01 3.112267e+01 2.161602e-01 4.171230e-01 7.413663e-01 6.656174e-01 9.811856e-01 8.584004e-01 8.512787e-01 1.861407e+00 1.418346e+00 1.661438e+00 1.405033e+00 1.442930e+00 3.366588e-01
<GCONST> 7.802303e+01
~s "ST_ng_3_1"
<MEAN> 25
 -4.787020e-01 2.109951e+00 2.028560e+00 1.653240e+00 3.417292e-01 -9.407849e-01 -1.094014e+00 5.763673e-02 -4.102190e+00 -2.865654e+00 1.340303e+00 -9.409558e-01 -9.214911e-01 -8.244329e-01 -6.037488e-01 1.717468e-01 1.181804e+00 1.442726e+00 1.785052e+00 1.457158e+00 1.545575e+00 1.377284e+00 1.024883e+00 5.086207e-01 -5.331186e-01
<VARIANCE> 25
 1.508137e+01 1.742790e+01 9.806911e+00 1.216432e+01 2.052743e+01 3.145718e+01 5.017001e+01 4.299892e+01 3.988279e+01 3.955485e+01 2.811012e+01 2.050094e+01 1.078054e+00 1.250890e+00 6.547627e-01 1.336474e+00 1.740489e+00 1.904000e+00 2.805116e+00 3.449292e+00 3.695602e+00 2.612901e+00 2.380517e+00 1.650998e+00 8.324252e-01
<GCONST> 9.125346e+01
~s "ST_m_2_1"
<MEAN> 25
 6.088468e+00 -3.966835e+00 2.168902e+00 -2.065853e+00 -2.497573e+00 -6.334641e+00 -9.792081e+00 -4.786424e+00 -3.193032e+00 -6.264858e+00 -1.606577e+00 -1.739282e+00 5.633720e-01 -2.618244e-01 3.699893e-01 -4.253626e-02 -2.415171e-01 -9.815832e-01 -1.182840e+00 -5.301694e-01 -6.245458e-01 -9.330008e-01 -3.121571e-01 -2.169492e-01 9.087567e-01
<VARIANCE> 25
 3.340137e+01 8.592285e+01 2.714173e+01 4.555386e+01 5.311442e+01 3.836597e+01 5.256028e+01 4.739611e+01 4.367517e+01 4.987917e+01 3.258553e+01 2.427062e+01 2.719520e+00 6.401541e+00 2.952333e+00 5.755387e+00 5.702896e+00 4.250634e+00 5.115889e+00 5.665647e+00 4.502001e+00 3.903632e+00 3.093065e+00 2.908102e+00 6.541913e+00
<GCONST> 1.100145e+02
~s "ST_ng_4_1"
<MEAN> 25
 -2.999839e+00 3.371316e-01 -1.914849e-01 2.431696e+00 3.641837e+00 5.097255e+00 4.814313e+00 2.455616e+00 2.486322e+00 4.387470e+00 2.514687e+00 -2.734418e-01 -2.406387e-02 1.919994e-03 -1.462247e-02 3.191797e-02 2.625914e-03 2.232714e-02 4.075729e-02 7.586316e-03 3.597470e-02 4.820988e-02 -1.854816e-02 -2.036547e-02 -1.879865e-02
<VARIANCE> 25
 2.080423e+00 4.676592e+00 5.263459e+00 7.094836e+00 1.201500e+01 1.110595e+01 1.261355e+01 1.017570e+01 1.197784e+01 1.394728e+01 1.305672e+01 1.051251e+01 1.175696e-01 2.010345e-01 4.036358e-01 6.029890e-01 9.375250e-01 8.360808e-01 1.125877e+00 1.048845e+00 1.134074e+00 1.083533e+00 1.162747e+00 8.471952e-01 9.563458e-02
<GCONST> 6.423923e+01
~s "ST_m_3_1"
<MEAN> 25
 6.625624e+00 1.913100e+00 4.176165e+00 8.443882e-01 -3.672650e+00 -1.162527e+01 -1.078663e+01 -8.490201e+00 -5.007223e+00 -6.419884e+00 -1.929151e+00 -3.083109e+00 -4.406401e-02 2.910723e-01 1.253878e-01 1.675520e-01 -1.023490e-01 -9.651627e-02 9.693328e-03 -1.243936e-01 -9.146036e-02 3.382933e-01 -8.619831e-02 -3.974175e-02 -2.004123e-01
<VARIANCE> 25
 1.119161e+01 4.761022e+01 1.222112e+01 1.273292e+01 2.297431e+01 1.902891e+01 2.243726e+01 4.621954e+01 2.323292e+01 5.138506e+01 2.601738e+01 1.528079e+01 2.806788e-01 5.251204e-01 6.079789e-01 6.166235e-01 9.258316e-01 9.462388e-01 1.253573e+00 1.242727e+00 1.419861e+00 1.679496e+00 1.188089e+00 1.046025e+00 3.629229e-01
<GCONST> 8.085526e+01
~s "ST_m_4_1"
<MEAN> 25
 5.457351e+00 8.638106e-01 2.798276e+00 8.556429e-01 -2.439525e+00 -6.625849e+00 -9.281048e+00 -6.955626e+00 -4.439513e+00 -3.366510e+00 -8.987669e-01 -1.951179e+00 -6.317503e-01 -7.778233e-01 -7.519615e-01 -9.873178e-01 6.787270e-01 1.437780e+00 1.030997e+00 2.033329e+00 6.318556e-01 -4.471327e-01 4.877926e-01 7.817392e-01 4.364036e-01
<VARIANCE> 25
 3.066519e+01 7.891904e+01 1.956568e+01 2.814418e+01 3.572784e+01 3.673553e+01 4.836492e+01 5.558716e+01 2.210166e+01 5.098595e+01 3.051688e+01 2.525566e+01 1.998762e+00 3.061414e+00 2.693808e+00 3.547552e+00 3.381556e+00 2.662632e+00 3.898340e+00 4.218269e+00 2.684064e+00 3.405427e+00 2.574299e+00 2.611004e+00 3.872653e+00
<GCONST> 1.033387e+02
~s "ST_ah_2_1"
<MEAN> 25
 -1.684587e-08 -6.193333e-08 -4.487690e-08 3.351832e-08 -6.047171e-08 2.058664e-08 -6.607048e-08 -2.205446e-08 -8.534414e-09 2.910867e-08 3.022347e-08 -1.071447e-09 -2.678578e-03 2.715191e-03 1.970940e-04 1.666228e-04 1.831201e-03 -7.320007e-04 3.372927e-03 1.125320e-03 -7.564414e-05 2.413395e-03 8.106225e-04 -2.148533e-03 -1.727290e-03
<VARIANCE> 25
 4.499385e+01 7.342516e+01 3.566479e+01 5.718780e+01 5.546888e+01 4.305736e+01 6.020990e+01 4.209700e+01 2.990068e+01 4.475465e+01 3.376802e+01 1.839641e+01 1.592596e+00 2.317776e+00 1.700131e+00 2.390033e+00 2.486403e+00 2.357601e+00 2.972100e+00 2.655601e+00 2.270027e+00 2.542916e+00 2.264997e+00 1.647762e+00 2.549860e+00
<GCONST> 1.014657e+02
~s "ST_ah_3_1"
<MEAN> 25
 -1.684587e-08 -6.193333e-08 -4.487690e-08 3.351832e-08 -6.047171e-08 2.058664e-08 -6.607048e-08 -2.205446e-08 -8.534414e-09 2.910867e-08 3.022347e-08 -1.071447e-09 -2.678578e-03 2.715191e-03 1.970940e-04 1.666228e-04 1.831201e-03 -7.320006e-04 3.372927e-03 1.125320e-03 -7.564414e-05 2.413395e-03 8.106225e-04 -2.148533e-03 -1.727290e-03
<VARIANCE> 25
 4.499385e+01 7.342516e+01 3.566479e+01 5.718781e+01 5.546888e+01 4.305736e+01 6.020990e+01 4.209700e+01 2.990068e+01 4.475465e+01 3.376802e+01 1.839641e+01 1.592596e+00 2.317776e+00 1.700131e+00 2.390033e+00 2.486403e+00 2.357601e+00 2.972100e+00 2.655601e+00 2.270027e+00 2.542916e+00 2.264997e+00 1.647762e+00 2.549860e+00
<GCONST> 1.014657e+02
~s "ST_ah_4_1"
<MEAN> 25
 -1.684587e-08 -6.193333e-08 -4.487690e-08 3.351832e-08 -6.047171e-08 2.058664e-08 -6.607048e-08 -2.205446e-08 -8.534414e-09 2.910867e-08 3.022347e-08 -1.071447e-09 -2.678578e-03 2.715191e-03 1.970940e-04 1.666228e-04 1.831201e-03 -7.320007e-04 3.372927e-03 1.125320e-03 -7.564414e-05 2.413395e-03 8.106225e-04 -2.148533e-03 -1.727290e-03
<VARIANCE> 25
 4.499385e+01 7.342516e+01 3.566479e+01 5.718780e+01 5.546888e+01 4.305736e+01 6.020990e+01 4.209700e+01 2.990068e+01 4.475465e+01 3.376802e+01 1.839641e+01 1.592596e+00 2.317776e+00 1.700131e+00 2.390033e+00 2.486403e+00 2.357601e+00 2.972100e+00 2.655601e+00 2.270027e+00 2.542916e+00 2.264997e+00 1.647762e+00 2.549860e+00
<GCONST> 1.014657e+02
~s "ST_z_2_1"
<MEAN> 25
 -1.991227e+01 2.277150e+01 5.686557e+00 2.941173e+00 7.083545e+00 6.456209e+00 1.654256e+01 9.997697e+00 1.350887e+00 9.958352e+00 7.717942e+00 2.116261e+00 -1.962872e-01 2.667361e-01 3.733577e-01 3.470372e-02 -1.593536e-02 4.067355e-01 1.893725e-01 -1.393807e-01 1.847420e-01 2.573722e-01 1.274974e-01 1.058264e-02 -1.728665e-01
<VARIANCE> 25
 4.693575e+01 5.902530e+01 1.883364e+01 1.898564e+00 3.445861e+01 1.028956e+01 2.675572e+01 4.156631e+01 1.281385e+01 1.467277e+01 2.918577e+01 7.984820e+00 1.736544e+00 1.304804e+00 1.908702e+00 6.242620e-01 4.386039e-01 8.955483e-01 1.477923e+00 1.635166e+00 1.138980e+00 9.805669e-01 1.192959e+00 7.489091e-01 9.343287e-01
<GCONST> 8.189407e+01
~s "ST_z_3_1"
<MEAN> 25
 -5.825240e+00 1.766397e+00 2.733989e+00 4.688076e+00 2.046535e+00 7.358787e+00 3.488516e+00 -2.380358e+00 2.674479e+00 1.733640e+00 -2.235090e+00 -1.267800e+00 2.279809e+00 -5.866452e+00 3.760915e-01 -1.119007e+00 -5.687791e-01 2.979054e-01 -3.360319e+00 -8.182525e-01 -1.128412e-01 -2.388845e+00 -1.194980e-01 4.754115e-01 4.786641e+00
<VARIANCE> 25
 4.820079e+01 2.585618e+02 1.005907e+01 2.300620e+01 6.195410e+01 4.066605e+01 5.975837e+01 5.918130e+01 1.864095e+01 6.364154e+01 6.017974e+01 3.779903e+01 6.014342e+00 1.697121e+01 3.388170e+00 5.622034e+00 1.640527e+01 4.274209e+00 2.859310e+00 6.529830e+00 3.002747e+00 2.820599e+00 4.752596e+00 4.711304e+00 9.549843e+00
<GCONST> 1.138841e+02
~s "ST_z_4_1"
<MEAN> 25
 2.373825e+00 -1.178282e+01 6.514002e+00 -8.862633e-01 -6.428278e+00 4.946188e+00 -6.935827e+00 -3.339541e+00 5.795866e+00 -2.074022e+00 6.821669e-01 5.535563e-01 1.868264e+00 6.659013e-01 2.852398e-01 -2.916676e+00 -2.003179e+00 -2.670065e+00 -1.075031e+00 -1.237698e+00 -2.029524e-01 1.127561e+00 -2.723584e-01 -3.530739e-01 2.262664e+00
<VARIANCE> 25
 5.690000e+01 6.313668e+01 1.666279e+01 4.344387e+01 1.534468e+02 4.511728e+01 2.305013e+01 1.902550e+01 3.388106e+01 1.756698e+01 3.451115e+01 4.055295e+01 2.697038e+00 8.491610e+00 6.665961e+00 4.447873e+00 6.540352e+00 2.346564e+00 2.802741e+00 1.182790e+00 2.828657e+00 1.336563e+00 2.391274e+00 7.089176e-01 9.833341e+00
<GCONST> 1.038706e+02
~s "ST_sy_2_1"
<MEAN> 25
 -8.883713e-01 2.300584e-01 1.526228e-01 2.021334e+00 4.245287e-01 2.917217e+00 3.205930e+00 2.799232e+00 3.475742e-01 1.842452e+00 2.876465e+00 6.280002e-01 2.497370e-02 -1.232659e-02 -1.919657e-02 2.935825e-02 5.413042e-02 1.449574e-02 8.484396e-03 2.009822e-02 -6.504299e-03 4.051679e-02 2.439400e-02 -4.525991e-02 -9.871804e-03
<VARIANCE> 25
 4.448098e+00 5.428421e+00 9.358750e+00 5.511768e+00 8.307483e+00 1.319812e+01 1.219290e+01 1.495998e+01 1.314065e+01 1.047486e+01 1.420760e+01 9.931425e+00 1.375764e-01 3.171147e-01 3.578925e-01 5.539829e-01 5.622147e-01 8.927871e-01 9.865803e-01 1.275692e+00 1.085290e+00 9.808044e-01 9.985523e-01 1.085854e+00 5.729079e-02
<GCONST> 6.492615e+01
~s "ST_sy_3_1"
<MEAN> 25
 -6.646039e+00 -2.207979e+00 7.926658e+00 -8.786903e-01 2.052267e-01 3.063435e+00 2.788400e+00 3.689937e+00 2.744626e+00 2.170319e+00 5.054720e+00 -3.449151e-01 -2.421769e+00 -6.088326e-01 2.262340e+00 -1.308879e+00 -2.774908e-01 -2.981697e-01 -2.042549e-02 4.087373e-01 9.163651e-01 9.111742e-02 6.953598e-01 -3.226847e-01 1.843387e+00
<VARIANCE> 25
 3.593535e+01 1.531663e+01 4.351727e+01 2.117676e+01 2.095312e+01 1.169353e+01 2.684184e+01 2.002828e+01 1.806911e+01 1.848918e+01 1.115646e+01 2.057096e+01 1.699248e+00 1.507098e+00 2.458504e+00 1.150757e+00 1.942514e+00 1.198549e+00 1.950049e+00 1.749427e+00 1.914043e+00 1.711975e+00 1.328820e+00 1.674980e+00 1.099864e+00
<GCONST> 8.825410e+01
~s "ST_sy_4_1"
<MEAN> 25
 -1.635769e+01 -3.656269e+00 1.498919e+01 -2.206693e+00 -2.926210e+00 4.059405e+00 4.163160e+00 2.735989e+00 4.057098e+00 4.370477e+00 4.793637e+00 -8.187801e-01 8.638355e-01 1.461083e-01 3.449714e-03 -2.485439e-01 -7.221230e-01 -4.758852e-01 -5.901181e-01 -3.060171e-01 -2.997875e-01 -2.021406e-01 -3.859932e-01 4.654643e-02 -5.666408e-03
<VARIANCE> 25
 1.160651e+01 2.071602e+01 1.052725e+01 2.932345e+01 3.569026e+01 2.733309e+01 3.618599e+01 2.380042e+01 1.393401e+01 3.443716e+01 1.162881e+01 1.661361e+01 5.961662e+00 7.628021e-01 6.433498e-01 1.409168e+00 3.329249e+00 2.265461e+00 3.272427e+00 1.396531e+00 1.580800e+00 1.099420e+00 9.189957e-01 1.337834e+00 4.552349e-01
<GCONST> 8.716920e+01
~s "ST_c_2_1"
<MEAN> 25
 -6.137132e-01 8.996288e-01 -1.279364e-01 2.561309e+00 2.941372e+00 4.253959e+00 3.276644e+00 1.520981e+00 -2.455752e-01 2.663393e+00 1.181428e+00 -7.052338e-01 -3.732214e-02 1.256757e-03 1.737604e-03 1.001935e-03 9.022205e-03 2.623300e-02 8.513398e-02 1.098863e-01 9.236713e-02 4.523101e-02 -2.046190e-02 4.231429e-02 -1.284173e-02
<VARIANCE> 25
 1.090823e+00 2.417728e+00 4.348147e+00 4.375523e+00 7.449671e+00 8.388330e+00 1.139009e+01 1.177552e+01 1.052757e+01 1.232726e+01 1.153973e+01 1.411618e+01 9.913050e-02 2.186430e-01 3.449270e-01 4.612440e-01 6.443306e-01 8.313118e-01 9.932166e-01 1.091313e+00 1.005843e+00 1.199961e+00 1.281229e+00 1.571055e+00 3.267473e-02
<GCONST> 6.010809e+01
~s "ST_c_3_1"
<MEAN> 25
 -2.216608e+00 2.291402e+00 -2.010165e-01 3.158816e+00 4.499515e+00 3.552877e+00 5.391914e+00 1.920068e+00 1.046958e+00 2.928258e+00 1.674222e+00 8.993844e-01 -1.803704e+00 4.399707e-01 2.031029e-01 -1.918200e+00 -2.253969e-01 -2.277692e+00 -1.300843e-01 -5.840980e-02 1.322944e+00 3.933029e-01 2.822491e-01 5.666896e-01 3.325248e+00
<VARIANCE> 25
 2.225921e+00 4.057096e+00 3.344699e+00 5.982450e+00 7.920560e+00 1.608902e+01 9.211132e+00 1.357137e+01 9.030643e+00 7.198910e+00 3.150773e+00 1.054554e+01 1.432664e+00 5.254399e-01 6.732429e-01 2.420511e+00 1.256994e+00 2.119539e+00 1.783209e+00 1.861394e+00 1.395753e+00 2.502423e+00 8.580207e-01 9.532510e-01 3.688154e+00
<GCONST> 7.323647e+01
~s "ST_c_4_1"
<MEAN> 25
 -7.603383e+00 4.026024e+00 2.165859e+00 -5.478292e+00 1.232317e+00 -4.294135e+00 2.848338e+00 6.563866e-01 6.494607e+00 4.621186e+00 2.466896e+00 1.627875e+00 1.235300e+00 -1.567183e-01 1.282447e+00 -1.448837e+00 -3.000440e+00 -1.274122e+00 -1.945685e+00 -1.490253e+00 -1.038944e+00 -2.249772e+00 -8.304661e-01 -3.868670e-01 3.181891e+00
<VARIANCE> 25
 5.335898e+01 1.616910e+01 2.568173e+01 2.071305e+01 2.956845e+01 1.835476e+01 2.430684e+01 1.691152e+01 2.394768e+01 3.839079e+01 1.593011e+01 7.032895e+00 8.786045e+00 4.961240e+00 3.989899e+00 3.595813e+00 2.927923e+00 3.688834e+00 3.733921e+00 4.149982e+00 7.790939e+00 7.928226e+00 3.193398e+00 9.801352e-01 4.600180e+00
<GCONST> 1.011905e+02
~s "ST_p_2_1"
<MEAN> 25
 2.867421e+00 -4.385720e+00 -7.322376e-01 -4.918280e-01 -1.016271e+00 -1.686704e-01 -5.435961e-01 1.448064e-01 8.096852e-02 -6.772655e-02 -5.954429e-02 -6.904247e-01 2.336643e+00 -2.523878e+00 -9.951351e-01 -2.251045e+00 -1.494325e+00 -1.370074e+00 -1.224898e+00 -8.812758e-01 -6.941324e-01 -1.699120e+00 -1.255272e+00 -1.992969e-01 3.974543e+00
<VARIANCE> 25
 4.328265e+01 9.526347e+01 2.970572e+01 3.933161e+01 4.311882e+01 3.332277e+01 3.884592e+01 4.612683e+01 3.423022e+01 3.493367e+01 2.765391e+01 2.023241e+01 3.255713e+00 1.073231e+01 3.235842e+00 4.835456e+00 4.297884e+00 3.117168e+00 3.527721e+00 6.656374e+00 3.966940e+00 3.995666e+00 3.403248e+00 2.211224e+00 7.440341e+00
<GCONST> 1.083531e+02
~s "ST_p_3_1"
<MEAN> 25
 9.806614e+00 -1.196088e+01 -2.617032e+00 -9.012267e+00 -6.070466e+00 -7.478963e+00 5.516075e-01 -2.963287e+00 -5.649077e+00 -7.931608e+00 -5.294430e+00 -1.723084e+00 9.699453e-03 -2.372275e-02 9.659136e-02 -7.002142e-01 -2.205560e-01 -5.677147e-01 6.190947e-01 -6.175806e-01 -4.648631e-01 -7.018322e-01 -3.237262e-01 1.882283e-01 3.150192e-01
<VARIANCE> 25
 1.557782e+01 9.784379e+01 3.126639e+01 2.750753e+01 5.257343e+01 2.937754e+01 5.636013e+01 4.719013e+01 2.360308e+01 2.700273e+01 2.092017e+01 1.398705e+01 1.154217e+00 2.494503e+00 8.104869e-01 2.082482e+00 2.716556e+00 1.831921e+00 3.750328e+00 2.463862e+00 2.340879e+00 2.007950e+00 2.307610e+00 1.344089e+00 1.463769e+00
<GCONST> 9.586754e+01
~s "ST_p_4_1"
<MEAN> 25
 2.820872e+00 -4.832875e+00 -2.000373e+00 -1.641030e+00 -1.907562e-01 -6.979116e-01 2.648774e+00 -1.913645e+00 -9.313757e-01 -1.596207e+00 -1.863766e+00 2.214429e-01 -3.190596e-01 4.524164e-01 2.596203e-01 3.234140e-01 -1.311788e-01 3.492888e-01 -3.017769e-01 1.093183e-01 2.385793e-01 3.237736e-01 2.656005e-01 1.110143e-01 -5.712696e-01
<VARIANCE> 25
 3.308927e+01 7.439726e+01 2.087891e+01 6.257466e+01 5.204971e+01 4.650084e+01 4.505993e+01 3.895669e+01 3.051954e+01 4.540870e+01 2.898168e+01 1.842958e+01 1.128253e+00 2.546747e+00 1.399557e+00 2.084233e+00 1.807575e+00 1.944196e+00 2.196538e+00 2.790663e+00 1.511002e+00 2.185217e+00 1.786545e+00 1.472976e+00 4.924629e+00
<GCONST> 9.865979e+01
~h "E"
<BEGINHMM>
<NUMSTATES> 5
<STATE> 2
~s "ST_E_2_1"
<STATE> 3
~s "ST_E_3_1"
<STATE> 4
~s "ST_E_4_1"
~t "T_E"
<ENDHMM>
~h "K"
<BEGINHMM>
<NUMSTATES> 5
<STATE> 2
~s "ST_K_2_1"
<STATE> 3
~s "ST_K_3_1"
<STATE> 4
~s "ST_K_4_1"
~t "T_K"
<ENDHMM>
~h "a"
<BEGINHMM>
<NUMSTATES> 5
<STATE> 2
~s "ST_a_2_1"
<STATE> 3
~s "ST_a_3_1"
<STATE> 4
~s "ST_a_4_1"
~t "T_a"
<ENDHMM>
~h "b"
<BEGINHMM>
<NUMSTATES> 5
<STATE> 2
~s "ST_b_2_1"
<STATE> 3
~s "ST_b_3_1"
<STATE> 4
~s "ST_b_4_1"
~t "T_b"
<ENDHMM>
~h "c"
<BEGINHMM>
<NUMSTATES> 5
<STATE> 2
~s "ST_c_2_1"
<STATE> 3
~s "ST_c_3_1"
<STATE> 4
~s "ST_c_4_1"
~t "T_c"
<ENDHMM>
~h "d"
<BEGINHMM>
<NUMSTATES> 5
<STATE> 2
~s "ST_d_2_1"
<STATE> 3
~s "ST_d_3_1"
<STATE> 4
~s "ST_d_4_1"
~t "T_d"
<ENDHMM>
~h "e"
<BEGINHMM>
<NUMSTATES> 5
<STATE> 2
~s "ST_e_2_1"
<STATE> 3
~s "ST_e_3_1"
<STATE> 4
~s "ST_e_4_1"
~t "T_e"
<ENDHMM>
~h "f"
<BEGINHMM>
<NUMSTATES> 5
<STATE> 2
~s "ST_f_2_1"
<STATE> 3
~s "ST_f_3_1"
<STATE> 4
~s "ST_f_4_1"
~t "T_f"
<ENDHMM>
~h "g"
<BEGINHMM>
<NUMSTATES> 5
<STATE> 2
~s "ST_g_2_1"
<STATE> 3
~s "ST_g_3_1"
<STATE> 4
~s "ST_g_4_1"
~t "T_g"
<ENDHMM>
~h "h"
<BEGINHMM>
<NUMSTATES> 5
<STATE> 2
~s "ST_h_2_1"
<STATE> 3
~s "ST_h_3_1"
<STATE> 4
~s "ST_h_4_1"
~t "T_h"
<ENDHMM>
~h "i"
<BEGINHMM>
<NUMSTATES> 5
<STATE> 2
~s "ST_i_2_1"
<STATE> 3
~s "ST_i_3_1"
<STATE> 4
~s "ST_i_4_1"
~t "T_i"
<ENDHMM>
~h "j"
<BEGINHMM>
<NUMSTATES> 5
<STATE> 2
~s "ST_j_2_1"
<STATE> 3
~s "ST_j_3_1"
<STATE> 4
~s "ST_j_4_1"
~t "T_j"
<ENDHMM>
~h "k"
<BEGINHMM>
<NUMSTATES> 5
<STATE> 2
~s "ST_k_2_1"
<STATE> 3
~s "ST_k_3_1"
<STATE> 4
~s "ST_k_4_1"
~t "T_k"
<ENDHMM>
~h "l"
<BEGINHMM>
<NUMSTATES> 5
<STATE> 2
~s "ST_l_2_1"
<STATE> 3
~s "ST_l_3_1"
<STATE> 4
~s "ST_l_4_1"
~t "T_l"
<ENDHMM>
~h "m"
<BEGINHMM>
<NUMSTATES> 5
<STATE> 2
~s "ST_m_2_1"
<STATE> 3
~s "ST_m_3_1"
<STATE> 4
~s "ST_m_4_1"
~t "T_m"
<ENDHMM>
~h "n"
<BEGINHMM>
<NUMSTATES> 5
<STATE> 2
~s "ST_n_2_1"
<STATE> 3
~s "ST_n_3_1"
<STATE> 4
~s "ST_n_4_1"
~t "T_n"
<ENDHMM>
~h "o"
<BEGINHMM>
<NUMSTATES> 5
<STATE> 2
~s "ST_o_2_1"
<STATE> 3
~s "ST_o_3_1"
<STATE> 4
~s "ST_o_4_1"
~t "T_o"
<ENDHMM>
~h "p"
<BEGINHMM>
<NUMSTATES> 5
<STATE> 2
~s "ST_p_2_1"
<STATE> 3
~s "ST_p_3_1"
<STATE> 4
~s "ST_p_4_1"
~t "T_p"
<ENDHMM>
~h "r"
<BEGINHMM>
<NUMSTATES> 5
<STATE> 2
~s "ST_r_2_1"
<STATE> 3
~s "ST_r_3_1"
<STATE> 4
~s "ST_r_4_1"
~t "T_r"
<ENDHMM>
~h "s"
<BEGINHMM>
<NUMSTATES> 5
<STATE> 2
~s "ST_s_2_1"
<STATE> 3
~s "ST_s_3_1"
<STATE> 4
~s "ST_s_4_1"
~t "T_s"
<ENDHMM>
~h "t"
<BEGINHMM>
<NUMSTATES> 5
<STATE> 2
~s "ST_t_2_1"
<STATE> 3
~s "ST_t_3_1"
<STATE> 4
~s "ST_t_4_1"
~t "T_t"
<ENDHMM>
~h "u"
<BEGINHMM>
<NUMSTATES> 5
<STATE> 2
~s "ST_u_2_1"
<STATE> 3
~s "ST_u_3_1"
<STATE> 4
~s "ST_u_4_1"
~t "T_u"
<ENDHMM>
~h "w"
<BEGINHMM>
<NUMSTATES> 5
<STATE> 2
~s "ST_w_2_1"
<STATE> 3
~s "ST_w_3_1"
<STATE> 4
~s "ST_w_4_1"
~t "T_w"
<ENDHMM>
~h "x"
<BEGINHMM>
<NUMSTATES> 5
<STATE> 2
~s "ST_x_2_1"
<STATE> 3
~s "ST_x_3_1"
<STATE> 4
~s "ST_x_4_1"
~t "T_x"
<ENDHMM>
~h "y"
<BEGINHMM>
<NUMSTATES> 5
<STATE> 2
~s "ST_y_2_1"
<STATE> 3
~s "ST_y_3_1"
<STATE> 4
~s "ST_y_4_1"
~t "T_y"
<ENDHMM>
~h "z"
<BEGINHMM>
<NUMSTATES> 5
<STATE> 2
~s "ST_z_2_1"
<STATE> 3
~s "ST_z_3_1"
<STATE> 4
~s "ST_z_4_1"
~t "T_z"
<ENDHMM>
~h "u-r+f"
<BEGINHMM>
<NUMSTATES> 5
<STATE> 2
~s "ST_r_2_1"
<STATE> 3
~s "ST_r_3_1"
<STATE> 4
~s "ST_r_4_2"
~t "T_r"
<ENDHMM>
~h "ah"
<BEGINHMM>
<NUMSTATES> 5
<STATE> 2
~s "ST_ah_2_1"
<STATE> 3
~s "ST_ah_3_1"
<STATE> 4
~s "ST_ah_4_1"
~t "T_ah"
<ENDHMM>
~h "aw"
<BEGINHMM>
<NUMSTATES> 5
<STATE> 2
~s "ST_aw_2_1"
<STATE> 3
~s "ST_aw_3_1"
<STATE> 4
~s "ST_aw_4_1"
~t "T_aw"
<ENDHMM>
~h "ay"
<BEGINHMM>
<NUMSTATES> 5
<STATE> 2
~s "ST_ay_2_1"
<STATE> 3
~s "ST_ay_3_1"
<STATE> 4
~s "ST_ay_4_1"
~t "T_ay"
<ENDHMM>
~h "kh"
<BEGINHMM>
<NUMSTATES> 5
<STATE> 2
~s "ST_kh_2_1"
<STATE> 3
~s "ST_kh_3_1"
<STATE> 4
~s "ST_kh_4_1"
~t "T_kh"
<ENDHMM>
~h "ng"
<BEGINHMM>
<NUMSTATES> 5
<STATE> 2
~s "ST_ng_2_1"
<STATE> 3
~s "ST_ng_3_1"
<STATE> 4
~s "ST_ng_4_1"
~t "T_ng"
<ENDHMM>
~h "ny"
<BEGINHMM>
<NUMSTATES> 5
<STATE> 2
~s "ST_ny_2_1"
<STATE> 3
~s "ST_ny_3_1"
<STATE> 4
~s "ST_ny_4_1"
~t "T_ny"
<ENDHMM>
~h "sp"
<BEGINHMM>
<NUMSTATES> 3
<STATE> 2
~s "ST_sil_3_1"
<TRANSP> 3
 0.000000e+00 1.230206e-01 8.769794e-01
 0.000000e+00 9.275537e-01 7.244632e-02
 0.000000e+00 0.000000e+00 0.000000e+00
<ENDHMM>
~h "sy"
<BEGINHMM>
<NUMSTATES> 5
<STATE> 2
~s "ST_sy_2_1"
<STATE> 3
~s "ST_sy_3_1"
<STATE> 4
~s "ST_sy_4_1"
~t "T_sy"
<ENDHMM>
~h "k-i+a"
<BEGINHMM>
<NUMSTATES> 5
<STATE> 2
~s "ST_i_2_2"
<STATE> 3
~s "ST_i_3_1"
<STATE> 4
~s "ST_i_4_3"
~t "T_i"
<ENDHMM>
~h "k-o+l"
<BEGINHMM>
<NUMSTATES> 5
<STATE> 2
~s "ST_o_2_1"
<STATE> 3
~s "ST_o_3_1"
<STATE> 4
~s "ST_o_4_2"
~t "T_o"
<ENDHMM>
~h "k-u+l"
<BEGINHMM>
<NUMSTATES> 5
<STATE> 2
~s "ST_u_2_1"
<STATE> 3
~s "ST_u_3_1"
<STATE> 4
~s "ST_u_4_2"
~t "T_u"
<ENDHMM>
~h "g-a+s"
<BEGINHMM>
<NUMSTATES> 5
<STATE> 2
~s "ST_a_2_1"
<STATE> 3
~s "ST_a_3_2"
<STATE> 4
~s "ST_a_4_1"
~t "T_a"
<ENDHMM>
~h "g-r+a"
<BEGINHMM>
<NUMSTATES> 5
<STATE> 2
~s "ST_r_2_1"
<STATE> 3
~s "ST_r_3_1"
<STATE> 4
~s "ST_r_4_3"
~t "T_r"
<ENDHMM>
~h "f-E+d"
<BEGINHMM>
<NUMSTATES> 5
<STATE> 2
~s "ST_E_2_1"
<STATE> 3
~s "ST_E_3_2"
<STATE> 4
~s "ST_E_4_1"
~t "T_E"
<ENDHMM>
~h "l-i"
<BEGINHMM>
<NUMSTATES> 5
<STATE> 2
~s "ST_i_2_1"
<STATE> 3
~s "ST_i_3_1"
<STATE> 4
~s "ST_i_4_2"
~t "T_i"
<ENDHMM>
~h "sil"
<BEGINHMM>
<NUMSTATES> 5
<STATE> 2
~s "ST_sil_2_1"
<STATE> 3
~s "ST_sil_3_1"
<STATE> 4
~s "ST_sil_4_1"
<TRANSP> 5
 0.000000e+00 1.000000e+00 0.000000e+00 0.000000e+00 0.000000e+00
 0.000000e+00 9.074683e-01 1.504892e-02 7.748277e-02 0.000000e+00
 0.000000e+00 0.000000e+00 9.546902e-01 4.530976e-02 0.000000e+00
 0.000000e+00 1.183151e-01 0.000000e+00 7.338687e-01 1.478161e-01
 0.000000e+00 0.000000e+00 0.000000e+00 0.000000e+00 0.000000e+00
<ENDHMM>
