~o
<STREAMINFO> 1 25
<VECSIZE> 25<NULLD><MFCC_D_N_Z_0><DIAGC>
~s "silst"
<MEAN> 25
 -1.460031e+00 1.583335e+00 4.413319e-01 1.508357e+00 2.810505e+00 3.499317e+00 2.572760e+00 2.284186e+00 -2.370811e+00 1.495966e+00 3.358257e-02 3.889114e-01 -8.488448e-04 3.033318e-02 2.213243e-02 1.810120e-02 -2.942792e-03 1.211953e-02 2.806084e-02 -3.145095e-02 -2.689389e-02 -3.731797e-02 -3.530096e-02 3.057276e-02 -1.430924e-02
<VARIANCE> 25
 1.739098e+00 2.779045e+00 4.314780e+00 6.138395e+00 9.729945e+00 9.618636e+00 1.075771e+01 1.076921e+01 1.085789e+01 1.129301e+01 1.056271e+01 1.102160e+01 1.092931e-01 3.007173e-01 4.758186e-01 6.610276e-01 9.946815e-01 9.379495e-01 1.208931e+00 1.141459e+00 1.196104e+00 1.138696e+00 1.219476e+00 1.164465e+00 6.150435e-02
<GCONST> 6.320814e+01
~h "E"
<BEGINHMM>
<NUMSTATES> 5
<STATE> 2
<MEAN> 25
 3.571342e+00 -9.598382e-01 -1.777097e+00 -4.211865e+00 -2.936363e+00 -5.310111e+00 -2.293974e+00 1.283705e+00 -4.171729e-01 3.653169e+00 7.480270e+00 4.050179e+00 -7.983320e-01 -3.561190e-01 -3.499497e-01 5.663611e-01 -5.409774e-01 -5.782757e-01 2.260125e-01 7.464271e-01 1.831918e-01 7.994626e-01 4.052860e-01 9.176822e-01 -6.153642e-01
<VARIANCE> 25
 6.154163e+01 1.348243e+01 5.445540e+01 5.753068e+01 2.981254e+01 2.203713e+01 1.538613e+01 5.531605e+01 3.984775e+01 3.804717e+01 1.600315e+01 3.527783e+00 1.144130e+00 1.243222e-01 4.128438e-01 6.715032e-01 7.668708e-01 7.529212e+00 6.957895e-01 7.673668e-01 4.759295e-01 9.738721e-01 4.049190e-01 1.188407e+00 5.008095e-01
<GCONST> 8.101002e+01
<STATE> 3
<MEAN> 25
 7.732092e-01 -2.729269e+00 -3.856881e+00 -1.746472e+00 -1.804178e+00 -5.530109e+00 -1.922841e+00 1.607447e+00 1.776428e+00 4.611443e+00 8.753614e+00 5.024805e+00 -1.511949e-01 2.093006e-02 -5.229940e-01 2.987305e-02 -7.460577e-01 1.536435e+00 4.420067e-01 -2.750641e-01 2.022076e-01 1.949037e-02 7.840101e-01 1.248942e+00 -3.966046e-01
<VARIANCE> 25
 8.014507e+01 1.450223e+01 6.613675e+01 1.249595e+02 1.863529e+01 3.127364e+01 1.211714e+01 9.344125e+01 2.504456e+01 6.052464e+01 3.977478e+00 2.577640e+01 3.716188e-01 3.161882e-01 7.202688e-01 2.354410e-01 3.669521e-01 3.073514e+00 2.606128e+00 6.514026e-01 9.703546e-01 8.490807e-02 4.572749e-01 6.811291e-01 4.236082e-01
<GCONST> 7.959047e+01
<STATE> 4
<MEAN> 25
 5.375341e+00 -3.286634e+00 -1.215069e+01 -1.218444e+01 -4.124231e+00 1.640673e+00 -5.507548e+00 -4.519795e+00 4.354359e+00 -5.803854e+00 1.054943e+01 2.961810e+00 1.186141e-01 2.089734e-01 -2.020182e-01 8.617566e-02 -1.939950e-01 3.285138e-01 -9.298343e-02 1.887223e-01 4.662501e-02 8.809982e-02 -3.535918e-01 9.092150e-02 -2.174310e-02
<VARIANCE> 25
 5.144182e+01 4.780500e+00 5.720343e+01 9.118487e+01 8.769320e+00 4.713170e+01 5.756892e+01 1.074625e+02 3.559009e+00 3.271134e+01 1.567822e+01 1.625361e+01 1.923928e-01 1.438501e-01 1.920488e-01 9.952086e-01 9.188237e-01 3.532584e+00 7.391883e-01 6.113677e-01 2.545735e-01 1.654855e+00 1.471236e+00 5.561271e-01 3.773028e-02
<GCONST> 7.586225e+01
<TRANSP> 5
 0.000000e+00 1.000000e+00 0.000000e+00 0.000000e+00 0.000000e+00
 0.000000e+00 4.284018e-01 5.715982e-01 0.000000e+00 0.000000e+00
 0.000000e+00 0.000000e+00 2.002961e-01 7.997038e-01 0.000000e+00
 0.000000e+00 0.000000e+00 0.000000e+00 6.251860e-01 3.748140e-01
 0.000000e+00 0.000000e+00 0.000000e+00 0.000000e+00 0.000000e+00
<ENDHMM>
~h "a"
<BEGINHMM>
<NUMSTATES> 5
<STATE> 2
<MEAN> 25
 2.870788e+00 -5.227925e+00 -3.256573e-01 -2.211871e+00 -1.849723e+00 -5.832760e+00 -1.457951e+00 -3.123499e+00 5.625382e+00 -3.688452e+00 -1.038575e+00 -2.483198e+00 -7.145637e-02 -8.312135e-01 -4.438105e-01 -7.186015e-01 -3.664030e-01 -1.230421e+00 3.152214e-02 -6.947390e-01 4.351350e-02 -8.375150e-01 4.090354e-01 -1.592954e-01 1.526036e+00
<VARIANCE> 25
 1.792158e+01 6.936186e+01 8.019081e+01 2.194278e+01 4.744450e+01 7.453353e+01 3.682093e+01 4.041482e+01 1.029377e+02 5.155519e+01 2.055741e+01 2.280779e+01 7.629762e-01 2.611927e+00 2.920964e+00 1.414163e+00 2.022224e+00 3.353480e+00 2.425356e+00 5.141601e+00 6.113274e+00 1.856914e+00 2.078709e+00 1.989294e+00 6.439175e+00
<GCONST> 1.030052e+02
<STATE> 3
<MEAN> 25
 3.176108e+00 -4.566936e+00 7.692634e-01 -4.078312e+00 -4.493525e+00 -8.955141e+00 -5.275776e+00 -9.685620e+00 7.492938e+00 -6.081533e+00 -8.713961e-01 -2.796200e+00 2.621901e-01 8.798305e-01 -4.500483e-02 -1.168704e-02 1.568027e-03 -2.093268e-01 -5.643213e-01 -6.177249e-01 -6.523009e-01 6.824024e-01 1.117923e-01 1.433806e-01 -5.586389e-01
<VARIANCE> 25
 7.511352e+00 4.376947e+01 1.192262e+02 1.817138e+01 5.443468e+01 4.593303e+01 5.008120e+01 6.806904e+01 1.192764e+02 4.366090e+01 1.563503e+01 2.169030e+01 6.394007e-01 1.337677e+00 1.215052e+00 6.240557e-01 3.085689e+00 1.656668e+00 2.413560e+00 3.485383e+00 5.294608e+00 4.215378e+00 1.645916e+00 1.520027e+00 1.233202e+00
<GCONST> 9.732608e+01
<STATE> 4
<MEAN> 25
 6.845631e+00 8.485983e-01 -8.249404e-01 -3.728734e+00 -2.045317e+00 -5.202332e+00 -4.597966e+00 -6.498439e+00 2.796993e+00 5.469485e-01 -3.264133e+00 -3.757687e+00 1.318671e-01 9.870672e-01 4.301969e-01 -1.040740e-01 -7.430477e-02 5.351982e-01 6.268215e-01 1.090884e+00 -1.044866e+00 -2.279981e-01 -2.555157e-01 3.821305e-01 -7.364663e-01
<VARIANCE> 25
 2.185752e+01 3.099907e+01 5.564353e+01 3.053599e+01 4.430648e+01 2.982072e+01 2.311700e+01 6.775885e+01 3.078529e+01 2.322979e+01 3.474262e+01 2.113257e+01 8.806696e-01 1.123884e+00 1.265832e+00 3.081701e+00 3.034931e+00 2.309237e+00 2.438374e+00 2.249632e+00 3.753951e+00 3.351168e+00 2.639257e+00 2.015726e+00 1.492284e+00
<GCONST> 9.722147e+01
<TRANSP> 5
 0.000000e+00 1.000000e+00 0.000000e+00 0.000000e+00 0.000000e+00
 0.000000e+00 4.582981e-01 5.417019e-01 0.000000e+00 0.000000e+00
 0.000000e+00 0.000000e+00 6.008071e-01 3.991928e-01 0.000000e+00
 0.000000e+00 0.000000e+00 0.000000e+00 5.187960e-01 4.812041e-01
 0.000000e+00 0.000000e+00 0.000000e+00 0.000000e+00 0.000000e+00
<ENDHMM>
~h "b"
<BEGINHMM>
<NUMSTATES> 5
<STATE> 2
<MEAN> 25
 2.711044e-07 2.276736e-08 -6.105108e-08 -1.720701e-07 -1.586201e-07 9.768173e-08 -1.135738e-07 -1.298416e-07 7.694315e-08 -1.660590e-07 -1.083516e-07 -5.706868e-08 -2.818740e-03 -4.409721e-03 -4.277692e-03 -1.165964e-03 -3.608679e-03 5.208261e-03 -1.757075e-03 5.998432e-03 4.891248e-03 1.720927e-03 7.501529e-04 -5.307185e-03 6.137643e-03
<VARIANCE> 25
 2.670229e+01 2.794268e+01 3.749357e+01 3.307458e+01 5.256620e+01 4.928031e+01 4.561778e+01 4.954230e+01 4.604616e+01 3.096663e+01 2.869331e+01 1.969207e+01 8.024186e-01 8.637462e-01 9.762596e-01 1.208383e+00 1.860729e+00 1.938551e+00 2.342637e+00 2.054597e+00 2.126093e+00 1.768907e+00 1.840738e+00 1.505519e+00 1.027859e+00
<GCONST> 9.389127e+01
<STATE> 3
<MEAN> 25
 2.711044e-07 2.276736e-08 -6.105108e-08 -1.720701e-07 -1.586201e-07 9.768173e-08 -1.135738e-07 -1.298416e-07 7.694315e-08 -1.660590e-07 -1.083516e-07 -5.706868e-08 -2.818740e-03 -4.409721e-03 -4.277692e-03 -1.165964e-03 -3.608679e-03 5.208261e-03 -1.757075e-03 5.998432e-03 4.891248e-03 1.720927e-03 7.501529e-04 -5.307185e-03 6.137643e-03
<VARIANCE> 25
 2.670229e+01 2.794268e+01 3.749357e+01 3.307458e+01 5.256620e+01 4.928031e+01 4.561778e+01 4.954230e+01 4.604616e+01 3.096663e+01 2.869331e+01 1.969207e+01 8.024186e-01 8.637462e-01 9.762596e-01 1.208383e+00 1.860729e+00 1.938551e+00 2.342637e+00 2.054597e+00 2.126093e+00 1.768907e+00 1.840738e+00 1.505519e+00 1.027859e+00
<GCONST> 9.389127e+01
<STATE> 4
<MEAN> 25
 2.711044e-07 2.276736e-08 -6.105108e-08 -1.720701e-07 -1.586201e-07 9.768173e-08 -1.135738e-07 -1.298416e-07 7.694315e-08 -1.660590e-07 -1.083516e-07 -5.706868e-08 -2.818740e-03 -4.409721e-03 -4.277692e-03 -1.165964e-03 -3.608679e-03 5.208261e-03 -1.757075e-03 5.998432e-03 4.891248e-03 1.720927e-03 7.501529e-04 -5.307185e-03 6.137643e-03
<VARIANCE> 25
 2.670229e+01 2.794268e+01 3.749357e+01 3.307458e+01 5.256620e+01 4.928031e+01 4.561778e+01 4.954230e+01 4.604616e+01 3.096663e+01 2.869331e+01 1.969207e+01 8.024186e-01 8.637462e-01 9.762596e-01 1.208383e+00 1.860729e+00 1.938551e+00 2.342637e+00 2.054597e+00 2.126093e+00 1.768907e+00 1.840738e+00 1.505519e+00 1.027859e+00
<GCONST> 9.389127e+01
<TRANSP> 5
 0.000000e+00 1.000000e+00 0.000000e+00 0.000000e+00 0.000000e+00
 0.000000e+00 6.000000e-01 4.000000e-01 0.000000e+00 0.000000e+00
 0.000000e+00 0.000000e+00 6.000000e-01 4.000000e-01 0.000000e+00
 0.000000e+00 0.000000e+00 0.000000e+00 7.000000e-01 3.000000e-01
 0.000000e+00 0.000000e+00 0.000000e+00 0.000000e+00 0.000000e+00
<ENDHMM>
~h "d"
<BEGINHMM>
<NUMSTATES> 5
<STATE> 2
<MEAN> 25
 2.711044e-07 2.276736e-08 -6.105108e-08 -1.720701e-07 -1.586201e-07 9.768173e-08 -1.135738e-07 -1.298416e-07 7.694315e-08 -1.660590e-07 -1.083516e-07 -5.706868e-08 -2.818740e-03 -4.409721e-03 -4.277692e-03 -1.165964e-03 -3.608679e-03 5.208261e-03 -1.757075e-03 5.998432e-03 4.891248e-03 1.720927e-03 7.501529e-04 -5.307185e-03 6.137643e-03
<VARIANCE> 25
 2.670229e+01 2.794268e+01 3.749357e+01 3.307458e+01 5.256620e+01 4.928031e+01 4.561778e+01 4.954230e+01 4.604616e+01 3.096663e+01 2.869331e+01 1.969207e+01 8.024186e-01 8.637462e-01 9.762596e-01 1.208383e+00 1.860729e+00 1.938551e+00 2.342637e+00 2.054597e+00 2.126093e+00 1.768907e+00 1.840738e+00 1.505519e+00 1.027859e+00
<GCONST> 9.389127e+01
<STATE> 3
<MEAN> 25
 2.711044e-07 2.276736e-08 -6.105108e-08 -1.720701e-07 -1.586201e-07 9.768173e-08 -1.135738e-07 -1.298416e-07 7.694315e-08 -1.660590e-07 -1.083516e-07 -5.706868e-08 -2.818740e-03 -4.409721e-03 -4.277692e-03 -1.165964e-03 -3.608679e-03 5.208261e-03 -1.757075e-03 5.998432e-03 4.891248e-03 1.720927e-03 7.501529e-04 -5.307185e-03 6.137643e-03
<VARIANCE> 25
 2.670229e+01 2.794268e+01 3.749357e+01 3.307458e+01 5.256620e+01 4.928031e+01 4.561778e+01 4.954230e+01 4.604616e+01 3.096663e+01 2.869331e+01 1.969207e+01 8.024186e-01 8.637462e-01 9.762596e-01 1.208383e+00 1.860729e+00 1.938551e+00 2.342637e+00 2.054597e+00 2.126093e+00 1.768907e+00 1.840738e+00 1.505519e+00 1.027859e+00
<GCONST> 9.389127e+01
<STATE> 4
<MEAN> 25
 2.711044e-07 2.276736e-08 -6.105108e-08 -1.720701e-07 -1.586201e-07 9.768173e-08 -1.135738e-07 -1.298416e-07 7.694315e-08 -1.660590e-07 -1.083516e-07 -5.706868e-08 -2.818740e-03 -4.409721e-03 -4.277692e-03 -1.165964e-03 -3.608679e-03 5.208261e-03 -1.757075e-03 5.998432e-03 4.891248e-03 1.720927e-03 7.501529e-04 -5.307185e-03 6.137643e-03
<VARIANCE> 25
 2.670229e+01 2.794268e+01 3.749357e+01 3.307458e+01 5.256620e+01 4.928031e+01 4.561778e+01 4.954230e+01 4.604616e+01 3.096663e+01 2.869331e+01 1.969207e+01 8.024186e-01 8.637462e-01 9.762596e-01 1.208383e+00 1.860729e+00 1.938551e+00 2.342637e+00 2.054597e+00 2.126093e+00 1.768907e+00 1.840738e+00 1.505519e+00 1.027859e+00
<GCONST> 9.389127e+01
<TRANSP> 5
 0.000000e+00 1.000000e+00 0.000000e+00 0.000000e+00 0.000000e+00
 0.000000e+00 6.000000e-01 4.000000e-01 0.000000e+00 0.000000e+00
 0.000000e+00 0.000000e+00 6.000000e-01 4.000000e-01 0.000000e+00
 0.000000e+00 0.000000e+00 0.000000e+00 7.000000e-01 3.000000e-01
 0.000000e+00 0.000000e+00 0.000000e+00 0.000000e+00 0.000000e+00
<ENDHMM>
~h "e"
<BEGINHMM>
<NUMSTATES> 5
<STATE> 2
<MEAN> 25
 -2.976276e+00 -3.065934e+00 -8.750191e-01 -1.287923e+00 1.466043e+00 -7.801507e+00 -4.112481e+00 2.061279e+00 -1.974966e+00 -3.330346e-01 -2.700155e+00 1.986087e+00 6.225768e-01 -1.273236e+00 -2.417955e-01 -5.140989e-01 -7.327148e-01 -2.033156e+00 -4.815278e+00 -7.019668e-01 2.850754e+00 -4.612143e-01 5.722682e-01 -6.876977e-02 2.789205e+00
<VARIANCE> 25
 2.146975e+00 4.301098e+01 5.066308e+00 2.746076e+00 1.760411e+00 9.518209e+01 8.432857e+01 1.350450e+01 9.784447e+00 3.096663e-01 5.716233e+00 1.605414e+01 6.298721e+00 2.573086e+00 7.014799e-01 5.431888e-01 1.327509e+01 1.275566e+01 4.610944e+00 1.901119e+00 1.531315e+00 2.696411e+00 2.199506e-01 4.841216e+00 6.487731e-01
<GCONST> 8.106365e+01
<STATE> 3
<MEAN> 25
 -4.085068e-01 -6.820410e+00 -4.207564e+00 -7.852980e+00 -5.477018e-01 -1.343962e+01 -1.797790e+01 -1.486798e+00 1.124856e+01 -1.275722e-02 -1.200705e+00 2.406209e+00 1.333088e+00 -4.863182e-01 -6.553498e-01 -1.614232e+00 -2.529820e+00 7.610815e-01 -1.075040e+00 -1.673223e+00 2.454873e+00 -1.366712e+00 5.393015e-01 -8.281239e-01 2.724952e+00
<VARIANCE> 25
 2.715252e+01 2.408871e+01 1.013437e+01 1.049965e+01 1.114863e+02 2.692691e+01 1.929065e+01 4.311885e+01 2.798664e+01 2.699023e+01 2.143058e+01 2.305171e+01 3.225059e+00 4.441328e+00 9.129557e-01 5.823218e-01 8.038972e+00 7.587685e+00 9.132860e+00 2.381191e+00 6.917185e+00 2.089700e+00 6.373635e+00 4.398247e+00 1.825161e+00
<GCONST> 1.004843e+02
<STATE> 4
<MEAN> 25
 4.838321e+00 -9.302221e+00 -3.652860e+00 -7.124785e+00 -9.248482e+00 -5.733123e+00 -1.276133e+01 -7.477591e+00 1.380677e+01 -8.972113e+00 -2.709759e+00 -3.141834e+00 3.098215e-02 1.543680e-01 1.339033e-01 2.483778e-01 1.446839e-01 -3.290567e-02 2.754212e-01 5.504102e-02 -3.085453e-01 3.166978e-02 3.373867e-02 -8.205539e-02 -4.555549e-01
<VARIANCE> 25
 2.946544e+00 1.474204e+01 6.123008e+01 2.629504e+01 2.131167e+01 6.948397e+01 6.639111e+01 3.251873e+01 7.789030e+01 2.703678e+01 2.386789e+01 2.061171e+01 2.733038e-01 8.248568e-01 2.275955e+00 1.931503e+00 8.182195e-01 1.213820e+00 2.250932e+00 2.862616e+00 3.440507e+00 1.419131e+00 2.562173e+00 1.314373e+00 1.325111e+00
<GCONST> 9.085949e+01
<TRANSP> 5
 0.000000e+00 1.000000e+00 0.000000e+00 0.000000e+00 0.000000e+00
 0.000000e+00 4.002757e-01 5.997243e-01 0.000000e+00 0.000000e+00
 0.000000e+00 0.000000e+00 7.635047e-01 2.364953e-01 0.000000e+00
 0.000000e+00 0.000000e+00 0.000000e+00 9.655043e-01 3.449574e-02
 0.000000e+00 0.000000e+00 0.000000e+00 0.000000e+00 0.000000e+00
<ENDHMM>
~h "f"
<BEGINHMM>
<NUMSTATES> 5
<STATE> 2
<MEAN> 25
 2.711044e-07 2.276736e-08 -6.105108e-08 -1.720701e-07 -1.586201e-07 9.768173e-08 -1.135738e-07 -1.298416e-07 7.694315e-08 -1.660590e-07 -1.083516e-07 -5.706868e-08 -2.818740e-03 -4.409721e-03 -4.277692e-03 -1.165964e-03 -3.608679e-03 5.208261e-03 -1.757075e-03 5.998432e-03 4.891248e-03 1.720927e-03 7.501529e-04 -5.307185e-03 6.137643e-03
<VARIANCE> 25
 2.670229e+01 2.794268e+01 3.749357e+01 3.307458e+01 5.256620e+01 4.928031e+01 4.561778e+01 4.954230e+01 4.604616e+01 3.096663e+01 2.869331e+01 1.969207e+01 8.024186e-01 8.637462e-01 9.762596e-01 1.208383e+00 1.860729e+00 1.938551e+00 2.342637e+00 2.054597e+00 2.126093e+00 1.768907e+00 1.840738e+00 1.505519e+00 1.027859e+00
<GCONST> 9.389127e+01
<STATE> 3
<MEAN> 25
 2.711044e-07 2.276736e-08 -6.105108e-08 -1.720701e-07 -1.586201e-07 9.768173e-08 -1.135738e-07 -1.298416e-07 7.694315e-08 -1.660590e-07 -1.083516e-07 -5.706868e-08 -2.818740e-03 -4.409721e-03 -4.277692e-03 -1.165964e-03 -3.608679e-03 5.208261e-03 -1.757075e-03 5.998432e-03 4.891248e-03 1.720927e-03 7.501529e-04 -5.307185e-03 6.137643e-03
<VARIANCE> 25
 2.670229e+01 2.794268e+01 3.749357e+01 3.307458e+01 5.256620e+01 4.928031e+01 4.561778e+01 4.954230e+01 4.604616e+01 3.096663e+01 2.869331e+01 1.969207e+01 8.024186e-01 8.637462e-01 9.762596e-01 1.208383e+00 1.860729e+00 1.938551e+00 2.342637e+00 2.054597e+00 2.126093e+00 1.768907e+00 1.840738e+00 1.505519e+00 1.027859e+00
<GCONST> 9.389127e+01
<STATE> 4
<MEAN> 25
 2.711044e-07 2.276736e-08 -6.105108e-08 -1.720701e-07 -1.586201e-07 9.768173e-08 -1.135738e-07 -1.298416e-07 7.694315e-08 -1.660590e-07 -1.083516e-07 -5.706868e-08 -2.818740e-03 -4.409721e-03 -4.277692e-03 -1.165964e-03 -3.608679e-03 5.208261e-03 -1.757075e-03 5.998432e-03 4.891248e-03 1.720927e-03 7.501529e-04 -5.307185e-03 6.137643e-03
<VARIANCE> 25
 2.670229e+01 2.794268e+01 3.749357e+01 3.307458e+01 5.256620e+01 4.928031e+01 4.561778e+01 4.954230e+01 4.604616e+01 3.096663e+01 2.869331e+01 1.969207e+01 8.024186e-01 8.637462e-01 9.762596e-01 1.208383e+00 1.860729e+00 1.938551e+00 2.342637e+00 2.054597e+00 2.126093e+00 1.768907e+00 1.840738e+00 1.505519e+00 1.027859e+00
<GCONST> 9.389127e+01
<TRANSP> 5
 0.000000e+00 1.000000e+00 0.000000e+00 0.000000e+00 0.000000e+00
 0.000000e+00 6.000000e-01 4.000000e-01 0.000000e+00 0.000000e+00
 0.000000e+00 0.000000e+00 6.000000e-01 4.000000e-01 0.000000e+00
 0.000000e+00 0.000000e+00 0.000000e+00 7.000000e-01 3.000000e-01
 0.000000e+00 0.000000e+00 0.000000e+00 0.000000e+00 0.000000e+00
<ENDHMM>
~h "g"
<BEGINHMM>
<NUMSTATES> 5
<STATE> 2
<MEAN> 25
 6.588660e+00 -5.510330e+00 1.239035e+01 -3.313228e+00 -1.890771e+01 -7.979675e+00 -1.491412e+01 -5.942390e+00 4.397547e+00 -1.264008e+01 1.567530e+01 7.505487e-01 2.670765e-01 -4.563848e-01 -3.448811e-01 1.108283e-01 -3.392905e-01 6.138256e-01 -9.586765e-01 -7.856920e-01 6.950157e-01 2.253340e-01 9.772000e-01 5.440881e-02 2.192343e-01
<VARIANCE> 25
 1.298966e+01 5.393775e+01 6.203252e+01 3.931040e+01 5.077567e+01 5.807846e+01 4.637070e+01 3.212349e+01 3.592669e+01 2.928008e+01 7.499747e+01 2.403324e+01 2.870453e-01 7.396830e-01 2.167395e+00 6.769739e-01 3.611698e+00 1.500165e+00 1.791550e+00 2.836864e+00 1.953976e+00 5.539495e+00 4.235186e+00 1.939561e+00 5.479954e-01
<GCONST> 9.608428e+01
<STATE> 3
<MEAN> 25
 1.075309e+01 -2.182458e+00 6.169095e-03 -6.970752e+00 -9.035583e+00 2.351979e+00 -1.347135e+01 -8.040632e+00 -8.842307e-02 -7.793056e-01 1.318709e+01 3.215032e+00 -8.208162e-01 7.476612e-01 2.353998e-02 1.512214e-01 1.426512e+00 -2.473731e-01 1.579083e+00 7.274795e-01 -7.517018e-01 7.179095e-01 -1.739611e+00 -1.062843e-02 -6.704092e-01
<VARIANCE> 25
 3.099403e+01 2.375265e+01 2.559296e+01 2.029335e+01 2.540995e+01 2.584114e+01 7.414596e+01 3.691079e+01 8.079491e+01 1.668274e+01 1.014845e+02 8.032950e+00 2.648957e+00 8.642703e-01 2.261772e+00 2.674935e+00 3.431676e+00 3.254617e+00 8.398756e-01 3.910264e+00 4.653098e+00 2.264861e+00 4.777486e+00 2.329762e+00 6.635760e-01
<GCONST> 9.769763e+01
<STATE> 4
<MEAN> 25
 -1.557548e+01 3.069589e+00 6.440216e+00 -7.490457e+00 3.080793e+00 -5.954016e+00 -1.214167e+01 3.517771e+00 9.500698e+00 -1.661027e+00 1.608074e+00 2.046462e+00 -6.752017e-01 -1.985067e-01 6.754289e-02 -2.693690e-01 3.781216e-01 -1.516360e-02 3.352379e-01 7.232549e-01 3.652955e-01 4.227743e-01 -2.588326e-02 8.111969e-03 -2.073539e-01
<VARIANCE> 25
 6.137169e+01 2.252024e+01 2.135953e+01 1.776193e+01 2.034458e+01 2.654902e+01 3.441608e+01 3.416138e+01 3.559749e+01 4.067278e+01 2.654158e+01 1.108888e+01 2.476610e+00 5.339200e-01 5.780352e-01 1.087080e+00 7.917504e-01 1.208446e+00 7.529185e-01 1.728612e+00 1.424236e+00 1.183147e+00 1.580840e+00 9.228941e-01 2.749232e-01
<GCONST> 8.508313e+01
<TRANSP> 5
 0.000000e+00 1.000000e+00 0.000000e+00 0.000000e+00 0.000000e+00
 0.000000e+00 8.672479e-01 1.327520e-01 0.000000e+00 0.000000e+00
 0.000000e+00 0.000000e+00 7.604220e-01 2.395779e-01 0.000000e+00
 0.000000e+00 0.000000e+00 0.000000e+00 8.333323e-01 1.666677e-01
 0.000000e+00 0.000000e+00 0.000000e+00 0.000000e+00 0.000000e+00
<ENDHMM>
~h "h"
<BEGINHMM>
<NUMSTATES> 5
<STATE> 2
<MEAN> 25
 2.711044e-07 2.276736e-08 -6.105108e-08 -1.720701e-07 -1.586201e-07 9.768173e-08 -1.135738e-07 -1.298416e-07 7.694315e-08 -1.660590e-07 -1.083516e-07 -5.706868e-08 -2.818740e-03 -4.409721e-03 -4.277692e-03 -1.165964e-03 -3.608679e-03 5.208261e-03 -1.757075e-03 5.998432e-03 4.891248e-03 1.720927e-03 7.501529e-04 -5.307185e-03 6.137643e-03
<VARIANCE> 25
 2.670229e+01 2.794268e+01 3.749357e+01 3.307458e+01 5.256620e+01 4.928031e+01 4.561778e+01 4.954230e+01 4.604616e+01 3.096663e+01 2.869331e+01 1.969207e+01 8.024186e-01 8.637462e-01 9.762596e-01 1.208383e+00 1.860729e+00 1.938551e+00 2.342637e+00 2.054597e+00 2.126093e+00 1.768907e+00 1.840738e+00 1.505519e+00 1.027859e+00
<GCONST> 9.389127e+01
<STATE> 3
<MEAN> 25
 2.711044e-07 2.276736e-08 -6.105108e-08 -1.720701e-07 -1.586201e-07 9.768173e-08 -1.135738e-07 -1.298416e-07 7.694315e-08 -1.660590e-07 -1.083516e-07 -5.706868e-08 -2.818740e-03 -4.409721e-03 -4.277692e-03 -1.165964e-03 -3.608679e-03 5.208261e-03 -1.757075e-03 5.998432e-03 4.891248e-03 1.720927e-03 7.501529e-04 -5.307185e-03 6.137643e-03
<VARIANCE> 25
 2.670229e+01 2.794268e+01 3.749357e+01 3.307458e+01 5.256620e+01 4.928031e+01 4.561778e+01 4.954230e+01 4.604616e+01 3.096663e+01 2.869331e+01 1.969207e+01 8.024186e-01 8.637462e-01 9.762596e-01 1.208383e+00 1.860729e+00 1.938551e+00 2.342637e+00 2.054597e+00 2.126093e+00 1.768907e+00 1.840738e+00 1.505519e+00 1.027859e+00
<GCONST> 9.389127e+01
<STATE> 4
<MEAN> 25
 2.711044e-07 2.276736e-08 -6.105108e-08 -1.720701e-07 -1.586201e-07 9.768173e-08 -1.135738e-07 -1.298416e-07 7.694315e-08 -1.660590e-07 -1.083516e-07 -5.706868e-08 -2.818740e-03 -4.409721e-03 -4.277692e-03 -1.165964e-03 -3.608679e-03 5.208261e-03 -1.757075e-03 5.998432e-03 4.891248e-03 1.720927e-03 7.501529e-04 -5.307185e-03 6.137643e-03
<VARIANCE> 25
 2.670229e+01 2.794268e+01 3.749357e+01 3.307458e+01 5.256620e+01 4.928031e+01 4.561778e+01 4.954230e+01 4.604616e+01 3.096663e+01 2.869331e+01 1.969207e+01 8.024186e-01 8.637462e-01 9.762596e-01 1.208383e+00 1.860729e+00 1.938551e+00 2.342637e+00 2.054597e+00 2.126093e+00 1.768907e+00 1.840738e+00 1.505519e+00 1.027859e+00
<GCONST> 9.389127e+01
<TRANSP> 5
 0.000000e+00 1.000000e+00 0.000000e+00 0.000000e+00 0.000000e+00
 0.000000e+00 6.000000e-01 4.000000e-01 0.000000e+00 0.000000e+00
 0.000000e+00 0.000000e+00 6.000000e-01 4.000000e-01 0.000000e+00
 0.000000e+00 0.000000e+00 0.000000e+00 7.000000e-01 3.000000e-01
 0.000000e+00 0.000000e+00 0.000000e+00 0.000000e+00 0.000000e+00
<ENDHMM>
~h "i"
<BEGINHMM>
<NUMSTATES> 5
<STATE> 2
<MEAN> 25
 5.793824e-01 3.273176e+00 5.854672e-01 -1.676475e+00 -1.251286e+00 -1.935806e+00 -6.477751e-01 -8.513332e-01 -3.371997e+00 1.118183e-01 -9.051450e-01 2.497682e+00 -5.479113e-01 -3.938752e-01 2.937367e-02 2.570786e-01 6.021214e-01 -9.288673e-01 4.036807e-01 9.248065e-01 4.246761e-01 2.079161e-01 -4.777088e-01 -5.687908e-01 -3.065528e-02
<VARIANCE> 25
 1.016715e+02 2.685895e+01 2.232303e+01 1.233008e+01 2.082212e+01 3.109403e+01 3.203259e+01 3.918530e+01 2.999995e+01 2.087765e+01 1.498330e+01 2.224882e+01 4.561338e-01 1.376517e+00 8.574916e-01 2.551277e+00 1.526122e+00 3.058717e+00 3.950348e+00 3.226779e+00 3.016675e+00 1.007685e+00 2.296968e+00 2.475680e+00 1.597227e+00
<GCONST> 9.305576e+01
<STATE> 3
<MEAN> 25
 -5.221106e+00 7.795554e-01 5.609938e-01 -2.683851e+00 1.463226e+00 -7.916859e+00 -1.915510e+00 3.872996e+00 2.569690e+00 7.101479e-01 -1.743889e+00 3.848629e+00 -3.424513e-01 -3.419569e-01 -2.208712e-01 -2.882752e-01 8.490936e-01 -8.375740e-01 -7.913877e-01 -3.671109e-01 6.640627e-01 3.231066e-01 -2.161989e-01 -6.326312e-01 7.207496e-01
<VARIANCE> 25
 7.751696e+01 2.629744e+01 2.730200e+01 2.159950e+01 2.826693e+01 3.435556e+01 4.571952e+01 3.347846e+01 2.278716e+01 3.043450e+01 2.733403e+01 3.112508e+01 6.271549e-01 8.884582e-01 2.236306e+00 3.279238e+00 1.319684e+00 6.133171e+00 1.072633e+01 6.978671e+00 2.377192e+00 5.049651e-01 1.072870e+00 6.944397e-01 4.099867e+00
<GCONST> 9.655990e+01
<STATE> 4
<MEAN> 25
 -6.561113e+00 1.568411e-01 8.727976e-01 -3.082398e+00 3.657644e+00 -4.258077e+00 1.050452e+00 2.085852e+00 2.740580e-01 7.737248e-01 -2.823152e+00 1.806939e+00 4.819217e-01 2.551883e-01 -1.729829e-01 1.703889e-01 9.649310e-03 2.423707e-01 -1.454833e-01 -5.742735e-01 -3.728589e-01 -5.218454e-02 2.577798e-01 -5.360253e-01 -1.757877e-01
<VARIANCE> 25
 6.647130e+01 1.744866e+01 2.437847e+01 6.116446e+00 2.078216e+01 3.827555e+01 4.265235e+01 1.252565e+01 2.072157e+01 1.089952e+01 1.855502e+01 2.766811e+01 7.807686e-01 4.808428e-01 2.533377e+00 2.138023e+00 1.626050e+00 1.629424e+00 6.423587e+00 6.253667e+00 1.074147e+00 1.628775e+00 1.369472e+00 1.593312e+00 2.830780e+00
<GCONST> 9.038573e+01
<TRANSP> 5
 0.000000e+00 1.000000e+00 0.000000e+00 0.000000e+00 0.000000e+00
 0.000000e+00 4.946216e-01 5.053784e-01 0.000000e+00 0.000000e+00
 0.000000e+00 0.000000e+00 1.258746e-01 8.741254e-01 0.000000e+00
 0.000000e+00 0.000000e+00 0.000000e+00 5.210845e-01 4.789155e-01
 0.000000e+00 0.000000e+00 0.000000e+00 0.000000e+00 0.000000e+00
<ENDHMM>
~h "k"
<BEGINHMM>
<NUMSTATES> 5
<STATE> 2
<MEAN> 25
 5.470870e+00 -2.077642e-01 -1.229021e-01 -6.456405e+00 -3.368594e+00 -3.660277e+00 -1.092470e+01 -4.400707e+00 2.971951e+00 5.294195e-01 2.057608e-01 -1.722224e+00 -2.275447e-02 -9.298413e-01 -3.587923e-01 -4.093338e-01 -2.446870e-01 -5.797665e-01 -3.023690e-01 -2.618552e-01 1.183662e+00 -5.660929e-01 -2.143069e-01 -3.295232e-01 1.611037e+00
<VARIANCE> 25
 4.028667e+01 6.707252e+01 3.192875e+01 3.736893e+01 5.621249e+01 7.665326e+01 1.060970e+02 7.417150e+01 7.144734e+01 3.984773e+01 4.868265e+01 2.033713e+01 2.434579e+00 3.646275e+00 1.944321e+00 4.413571e+00 8.109516e+00 8.514799e+00 1.450056e+01 6.337034e+00 3.832515e+00 5.580793e+00 6.032336e+00 2.598139e+00 6.330802e+00
<GCONST> 1.138728e+02
<STATE> 3
<MEAN> 25
 -4.328918e-01 -8.610403e+00 -1.101381e+01 -5.589586e+00 -8.322223e-01 -9.478397e+00 -2.957708e-01 -7.744711e+00 1.280739e+01 -3.844596e+00 -6.567034e+00 -1.376957e+00 -4.690816e-02 1.032901e-01 -1.722039e-01 3.545569e-01 2.960885e-01 7.071299e-02 3.847387e-01 1.621583e-01 -7.122091e-02 2.961595e-02 -4.428089e-02 1.068321e-01 -4.522489e-01
<VARIANCE> 25
 7.189342e+01 4.936238e+01 2.410955e+01 1.411090e+01 3.476271e+01 1.521955e+01 2.103123e+01 9.023499e+01 2.161602e+01 1.718819e+01 2.499072e+01 3.312703e+01 1.034834e+00 1.057983e+00 1.281851e+00 8.706894e-01 8.278810e-01 1.764810e+00 2.295241e+00 2.879844e+00 1.539308e+00 1.184565e+00 2.373403e+00 8.896574e-01 8.061144e-01
<GCONST> 9.000768e+01
<STATE> 4
<MEAN> 25
 3.639520e+00 -6.116119e+00 -8.562412e+00 -1.726362e+00 3.131528e-01 -1.141443e+00 2.051182e+00 -1.352350e+00 7.468369e+00 -1.931134e+00 -7.366407e-01 -5.211305e+00 1.753308e-01 6.324773e-01 6.962801e-01 2.134665e-01 2.331782e-02 6.232116e-01 1.343363e-01 9.660899e-02 -1.251769e+00 9.445100e-01 -8.979758e-03 -2.877240e-01 -1.202741e+00
<VARIANCE> 25
 2.668311e+01 2.737958e+01 1.028923e+01 1.193196e+01 2.379019e+01 1.702916e+01 2.124026e+01 5.891426e+01 4.362585e+01 3.696893e+01 9.533422e+00 3.560659e+01 3.906880e-01 4.190569e-01 8.429932e-01 1.057776e+00 1.251344e+00 9.858255e-01 1.608166e+00 1.680712e+00 2.321544e+00 1.465602e+00 1.113781e+00 2.347970e+00 2.319820e-01
<GCONST> 8.370506e+01
<TRANSP> 5
 0.000000e+00 1.000000e+00 0.000000e+00 0.000000e+00 0.000000e+00
 0.000000e+00 8.524519e-01 1.475481e-01 0.000000e+00 0.000000e+00
 0.000000e+00 0.000000e+00 9.221591e-01 7.784094e-02 0.000000e+00
 0.000000e+00 0.000000e+00 0.000000e+00 8.255065e-01 1.744935e-01
 0.000000e+00 0.000000e+00 0.000000e+00 0.000000e+00 0.000000e+00
<ENDHMM>
~h "l"
<BEGINHMM>
<NUMSTATES> 5
<STATE> 2
<MEAN> 25
 2.711044e-07 2.276736e-08 -6.105108e-08 -1.720701e-07 -1.586201e-07 9.768173e-08 -1.135738e-07 -1.298416e-07 7.694315e-08 -1.660590e-07 -1.083516e-07 -5.706868e-08 -2.818740e-03 -4.409721e-03 -4.277692e-03 -1.165964e-03 -3.608679e-03 5.208261e-03 -1.757075e-03 5.998432e-03 4.891248e-03 1.720927e-03 7.501529e-04 -5.307185e-03 6.137643e-03
<VARIANCE> 25
 2.670229e+01 2.794268e+01 3.749357e+01 3.307458e+01 5.256620e+01 4.928031e+01 4.561778e+01 4.954230e+01 4.604616e+01 3.096663e+01 2.869331e+01 1.969207e+01 8.024186e-01 8.637462e-01 9.762596e-01 1.208383e+00 1.860729e+00 1.938551e+00 2.342637e+00 2.054597e+00 2.126093e+00 1.768907e+00 1.840738e+00 1.505519e+00 1.027859e+00
<GCONST> 9.389127e+01
<STATE> 3
<MEAN> 25
 2.711044e-07 2.276736e-08 -6.105108e-08 -1.720701e-07 -1.586201e-07 9.768173e-08 -1.135738e-07 -1.298416e-07 7.694315e-08 -1.660590e-07 -1.083516e-07 -5.706868e-08 -2.818740e-03 -4.409721e-03 -4.277692e-03 -1.165964e-03 -3.608679e-03 5.208261e-03 -1.757075e-03 5.998432e-03 4.891248e-03 1.720927e-03 7.501529e-04 -5.307185e-03 6.137643e-03
<VARIANCE> 25
 2.670229e+01 2.794268e+01 3.749357e+01 3.307458e+01 5.256620e+01 4.928031e+01 4.561778e+01 4.954230e+01 4.604616e+01 3.096663e+01 2.869331e+01 1.969207e+01 8.024186e-01 8.637462e-01 9.762596e-01 1.208383e+00 1.860729e+00 1.938551e+00 2.342637e+00 2.054597e+00 2.126093e+00 1.768907e+00 1.840738e+00 1.505519e+00 1.027859e+00
<GCONST> 9.389127e+01
<STATE> 4
<MEAN> 25
 2.711044e-07 2.276736e-08 -6.105108e-08 -1.720701e-07 -1.586201e-07 9.768173e-08 -1.135738e-07 -1.298416e-07 7.694315e-08 -1.660590e-07 -1.083516e-07 -5.706868e-08 -2.818740e-03 -4.409721e-03 -4.277692e-03 -1.165964e-03 -3.608679e-03 5.208261e-03 -1.757075e-03 5.998432e-03 4.891248e-03 1.720927e-03 7.501529e-04 -5.307185e-03 6.137643e-03
<VARIANCE> 25
 2.670229e+01 2.794268e+01 3.749357e+01 3.307458e+01 5.256620e+01 4.928031e+01 4.561778e+01 4.954230e+01 4.604616e+01 3.096663e+01 2.869331e+01 1.969207e+01 8.024186e-01 8.637462e-01 9.762596e-01 1.208383e+00 1.860729e+00 1.938551e+00 2.342637e+00 2.054597e+00 2.126093e+00 1.768907e+00 1.840738e+00 1.505519e+00 1.027859e+00
<GCONST> 9.389127e+01
<TRANSP> 5
 0.000000e+00 1.000000e+00 0.000000e+00 0.000000e+00 0.000000e+00
 0.000000e+00 6.000000e-01 4.000000e-01 0.000000e+00 0.000000e+00
 0.000000e+00 0.000000e+00 6.000000e-01 4.000000e-01 0.000000e+00
 0.000000e+00 0.000000e+00 0.000000e+00 7.000000e-01 3.000000e-01
 0.000000e+00 0.000000e+00 0.000000e+00 0.000000e+00 0.000000e+00
<ENDHMM>
~h "m"
<BEGINHMM>
<NUMSTATES> 5
<STATE> 2
<MEAN> 25
 2.711044e-07 2.276736e-08 -6.105108e-08 -1.720701e-07 -1.586201e-07 9.768173e-08 -1.135738e-07 -1.298416e-07 7.694315e-08 -1.660590e-07 -1.083516e-07 -5.706868e-08 -2.818740e-03 -4.409721e-03 -4.277692e-03 -1.165964e-03 -3.608679e-03 5.208261e-03 -1.757075e-03 5.998432e-03 4.891248e-03 1.720927e-03 7.501529e-04 -5.307185e-03 6.137643e-03
<VARIANCE> 25
 2.670229e+01 2.794268e+01 3.749357e+01 3.307458e+01 5.256620e+01 4.928031e+01 4.561778e+01 4.954230e+01 4.604616e+01 3.096663e+01 2.869331e+01 1.969207e+01 8.024186e-01 8.637462e-01 9.762596e-01 1.208383e+00 1.860729e+00 1.938551e+00 2.342637e+00 2.054597e+00 2.126093e+00 1.768907e+00 1.840738e+00 1.505519e+00 1.027859e+00
<GCONST> 9.389127e+01
<STATE> 3
<MEAN> 25
 2.711044e-07 2.276736e-08 -6.105108e-08 -1.720701e-07 -1.586201e-07 9.768173e-08 -1.135738e-07 -1.298416e-07 7.694315e-08 -1.660590e-07 -1.083516e-07 -5.706868e-08 -2.818740e-03 -4.409721e-03 -4.277692e-03 -1.165964e-03 -3.608679e-03 5.208261e-03 -1.757075e-03 5.998432e-03 4.891248e-03 1.720927e-03 7.501529e-04 -5.307185e-03 6.137643e-03
<VARIANCE> 25
 2.670229e+01 2.794268e+01 3.749357e+01 3.307458e+01 5.256620e+01 4.928031e+01 4.561778e+01 4.954230e+01 4.604616e+01 3.096663e+01 2.869331e+01 1.969207e+01 8.024186e-01 8.637462e-01 9.762596e-01 1.208383e+00 1.860729e+00 1.938551e+00 2.342637e+00 2.054597e+00 2.126093e+00 1.768907e+00 1.840738e+00 1.505519e+00 1.027859e+00
<GCONST> 9.389127e+01
<STATE> 4
<MEAN> 25
 2.711044e-07 2.276736e-08 -6.105108e-08 -1.720701e-07 -1.586201e-07 9.768173e-08 -1.135738e-07 -1.298416e-07 7.694315e-08 -1.660590e-07 -1.083516e-07 -5.706868e-08 -2.818740e-03 -4.409721e-03 -4.277692e-03 -1.165964e-03 -3.608679e-03 5.208261e-03 -1.757075e-03 5.998432e-03 4.891248e-03 1.720927e-03 7.501529e-04 -5.307185e-03 6.137643e-03
<VARIANCE> 25
 2.670229e+01 2.794268e+01 3.749357e+01 3.307458e+01 5.256620e+01 4.928031e+01 4.561778e+01 4.954230e+01 4.604616e+01 3.096663e+01 2.869331e+01 1.969207e+01 8.024186e-01 8.637462e-01 9.762596e-01 1.208383e+00 1.860729e+00 1.938551e+00 2.342637e+00 2.054597e+00 2.126093e+00 1.768907e+00 1.840738e+00 1.505519e+00 1.027859e+00
<GCONST> 9.389127e+01
<TRANSP> 5
 0.000000e+00 1.000000e+00 0.000000e+00 0.000000e+00 0.000000e+00
 0.000000e+00 6.000000e-01 4.000000e-01 0.000000e+00 0.000000e+00
 0.000000e+00 0.000000e+00 6.000000e-01 4.000000e-01 0.000000e+00
 0.000000e+00 0.000000e+00 0.000000e+00 7.000000e-01 3.000000e-01
 0.000000e+00 0.000000e+00 0.000000e+00 0.000000e+00 0.000000e+00
<ENDHMM>
~h "o"
<BEGINHMM>
<NUMSTATES> 5
<STATE> 2
<MEAN> 25
 1.137036e+00 3.034889e+00 -2.090418e+00 2.639168e-01 1.356436e+00 1.880845e+00 2.393737e+00 2.316737e+00 4.165222e-01 5.026925e+00 3.068716e-01 -8.813561e-01 -9.510484e-02 2.435038e-01 4.039001e-01 3.974967e-01 5.029997e-01 4.174542e-01 -2.066846e-01 -7.444581e-02 -7.558041e-02 -2.234802e-01 -9.842278e-02 2.055704e-01 -2.920544e-01
<VARIANCE> 25
 6.865573e+00 5.634718e+00 1.074778e+01 6.751390e+00 2.815460e+01 1.891195e+01 1.560861e+01 2.285965e+01 1.238936e+01 1.110355e+01 1.681201e+01 2.914390e+01 4.188413e-01 3.702849e-01 8.092088e-01 6.721583e-01 1.028949e+00 9.784172e-01 1.161791e+00 1.088449e+00 1.174498e+00 5.534784e-01 1.489528e+00 1.959590e+00 4.627589e-02
<GCONST> 7.249609e+01
<STATE> 3
<MEAN> 25
 6.186779e-01 2.927730e+00 2.175297e-01 4.009736e+00 3.456554e+00 5.795325e+00 3.499203e+00 3.924270e+00 -3.912929e+00 3.450175e+00 1.008828e-01 -1.344360e+00 5.889954e-03 -2.455284e-02 -7.632245e-03 1.186209e-02 -4.311094e-02 5.165980e-02 -5.781334e-03 5.221548e-03 -4.259174e-02 -1.496127e-02 -2.524788e-02 -3.513861e-03 -2.063299e-02
<VARIANCE> 25
 9.902530e-01 2.177652e+00 3.046267e+00 5.897535e+00 7.182487e+00 8.851292e+00 1.156422e+01 1.262934e+01 1.156744e+01 1.103582e+01 1.161949e+01 1.075276e+01 9.836445e-02 2.802545e-01 2.948096e-01 5.225315e-01 6.745015e-01 9.819707e-01 1.200073e+00 1.163537e+00 1.083561e+00 1.133816e+00 1.258598e+00 1.107913e+00 2.934678e-02
<GCONST> 5.988715e+01
<STATE> 4
<MEAN> 25
 3.953135e-01 2.424799e+00 -2.572459e-02 2.703197e+00 2.286144e+00 2.537596e+00 2.229987e+00 2.739959e+00 -3.188125e+00 1.735043e+00 -1.021294e+00 3.180525e-01 1.342342e-01 -2.618592e-01 1.876340e-01 6.558988e-01 9.746539e-01 3.367406e-02 2.972905e-01 5.858592e-01 -7.040832e-04 -4.278303e-01 -7.743839e-01 -1.329886e-01 -1.348934e-02
<VARIANCE> 25
 4.123117e-01 1.226122e+00 7.717188e+00 1.101377e+01 1.606822e+01 4.562519e+01 1.354929e+01 1.084002e+01 4.645815e+00 6.966868e+00 1.185913e+01 2.582017e+00 1.796435e-01 3.744656e-01 2.106958e-01 3.951191e-01 5.484931e-01 1.411085e+00 1.246306e+00 8.174251e-01 4.492206e-01 5.961576e-01 1.112605e+00 1.284706e+00 2.144047e-01
<GCONST> 6.027036e+01
<TRANSP> 5
 0.000000e+00 1.000000e+00 0.000000e+00 0.000000e+00 0.000000e+00
 0.000000e+00 8.158349e-01 1.841650e-01 0.000000e+00 0.000000e+00
 0.000000e+00 0.000000e+00 9.722623e-01 2.773762e-02 0.000000e+00
 0.000000e+00 0.000000e+00 0.000000e+00 4.614635e-01 5.385365e-01
 0.000000e+00 0.000000e+00 0.000000e+00 0.000000e+00 0.000000e+00
<ENDHMM>
~h "p"
<BEGINHMM>
<NUMSTATES> 5
<STATE> 2
<MEAN> 25
 2.711044e-07 2.276736e-08 -6.105108e-08 -1.720701e-07 -1.586201e-07 9.768173e-08 -1.135738e-07 -1.298416e-07 7.694315e-08 -1.660590e-07 -1.083516e-07 -5.706868e-08 -2.818740e-03 -4.409721e-03 -4.277692e-03 -1.165964e-03 -3.608679e-03 5.208261e-03 -1.757075e-03 5.998432e-03 4.891248e-03 1.720927e-03 7.501529e-04 -5.307185e-03 6.137643e-03
<VARIANCE> 25
 2.670229e+01 2.794268e+01 3.749357e+01 3.307458e+01 5.256620e+01 4.928031e+01 4.561778e+01 4.954230e+01 4.604616e+01 3.096663e+01 2.869331e+01 1.969207e+01 8.024186e-01 8.637462e-01 9.762596e-01 1.208383e+00 1.860729e+00 1.938551e+00 2.342637e+00 2.054597e+00 2.126093e+00 1.768907e+00 1.840738e+00 1.505519e+00 1.027859e+00
<GCONST> 9.389127e+01
<STATE> 3
<MEAN> 25
 2.711044e-07 2.276736e-08 -6.105108e-08 -1.720701e-07 -1.586201e-07 9.768173e-08 -1.135738e-07 -1.298416e-07 7.694315e-08 -1.660590e-07 -1.083516e-07 -5.706868e-08 -2.818740e-03 -4.409721e-03 -4.277692e-03 -1.165964e-03 -3.608679e-03 5.208261e-03 -1.757075e-03 5.998432e-03 4.891248e-03 1.720927e-03 7.501529e-04 -5.307185e-03 6.137643e-03
<VARIANCE> 25
 2.670229e+01 2.794268e+01 3.749357e+01 3.307458e+01 5.256620e+01 4.928031e+01 4.561778e+01 4.954230e+01 4.604616e+01 3.096663e+01 2.869331e+01 1.969207e+01 8.024186e-01 8.637462e-01 9.762596e-01 1.208383e+00 1.860729e+00 1.938551e+00 2.342637e+00 2.054597e+00 2.126093e+00 1.768907e+00 1.840738e+00 1.505519e+00 1.027859e+00
<GCONST> 9.389127e+01
<STATE> 4
<MEAN> 25
 2.711044e-07 2.276736e-08 -6.105108e-08 -1.720701e-07 -1.586201e-07 9.768173e-08 -1.135738e-07 -1.298416e-07 7.694315e-08 -1.660590e-07 -1.083516e-07 -5.706868e-08 -2.818740e-03 -4.409721e-03 -4.277692e-03 -1.165964e-03 -3.608679e-03 5.208261e-03 -1.757075e-03 5.998432e-03 4.891248e-03 1.720927e-03 7.501529e-04 -5.307185e-03 6.137643e-03
<VARIANCE> 25
 2.670229e+01 2.794268e+01 3.749357e+01 3.307458e+01 5.256620e+01 4.928031e+01 4.561778e+01 4.954230e+01 4.604616e+01 3.096663e+01 2.869331e+01 1.969207e+01 8.024186e-01 8.637462e-01 9.762596e-01 1.208383e+00 1.860729e+00 1.938551e+00 2.342637e+00 2.054597e+00 2.126093e+00 1.768907e+00 1.840738e+00 1.505519e+00 1.027859e+00
<GCONST> 9.389127e+01
<TRANSP> 5
 0.000000e+00 1.000000e+00 0.000000e+00 0.000000e+00 0.000000e+00
 0.000000e+00 6.000000e-01 4.000000e-01 0.000000e+00 0.000000e+00
 0.000000e+00 0.000000e+00 6.000000e-01 4.000000e-01 0.000000e+00
 0.000000e+00 0.000000e+00 0.000000e+00 7.000000e-01 3.000000e-01
 0.000000e+00 0.000000e+00 0.000000e+00 0.000000e+00 0.000000e+00
<ENDHMM>
~h "r"
<BEGINHMM>
<NUMSTATES> 5
<STATE> 2
<MEAN> 25
 2.020939e+00 -5.926306e+00 6.638779e-01 -2.347998e+00 -1.478589e+00 -9.773755e+00 -8.083654e+00 -9.294823e-01 2.987260e+00 -1.907035e+00 -3.121729e-01 -2.488511e+00 -8.598414e-02 -1.565738e-01 -1.623472e-01 -2.440359e-01 3.254113e-01 6.987865e-01 4.369907e-01 5.573493e-01 -3.535375e-01 -9.667904e-01 -1.101331e-01 -4.186837e-01 3.941446e-01
<VARIANCE> 25
 3.983017e+01 3.768951e+01 5.844720e+01 3.579459e+01 8.430157e+01 6.076439e+01 2.493171e+01 6.156138e+01 1.875224e+01 2.995860e+01 6.956384e+01 6.329637e+01 1.774306e+00 1.129390e+00 3.283227e+00 3.461946e+00 1.059296e-01 3.223082e+00 2.895588e+00 5.793181e+00 5.692251e+00 4.482503e+00 1.234160e+00 6.409373e-01 8.159436e+00
<GCONST> 1.014806e+02
<STATE> 3
<MEAN> 25
 2.695148e+00 -7.113092e+00 1.906458e+00 -1.738893e+00 -4.956662e+00 -9.628223e+00 -4.925013e+00 -5.963325e-02 1.448799e+00 -2.724528e+00 3.299376e+00 -3.434851e+00 -5.240098e-02 -2.376774e-01 -1.581729e-01 3.315499e-01 -4.968714e-01 1.391851e+00 2.210163e+00 1.363973e+00 -4.637101e-02 -1.809584e-01 1.007419e-01 -5.041580e-01 -1.128275e+00
<VARIANCE> 25
 3.404755e+01 2.376395e+01 4.615323e+01 3.645310e+01 1.027926e+02 5.085044e+01 1.757701e+01 5.865010e+01 1.819827e+01 1.260537e+01 6.326688e+01 6.167984e+01 2.433671e+00 9.039309e-01 2.384914e+00 1.107902e+00 6.782824e-01 4.829316e+00 8.288141e-01 1.227980e+00 2.561936e+00 3.004585e+00 1.849714e+00 1.020631e+00 5.116258e+00
<GCONST> 9.654834e+01
<STATE> 4
<MEAN> 25
 2.610283e+00 -9.336752e+00 4.059942e-01 -9.633430e-01 -1.156464e+01 -1.118820e+01 1.106716e+00 5.815500e+00 1.823471e+00 3.489235e-01 6.104296e+00 -4.106318e+00 -3.192258e-01 3.294108e-01 -6.086682e-01 1.167485e-01 1.787682e-02 2.525225e-01 7.271681e-01 8.351680e-01 2.286802e-01 1.341183e+00 8.968796e-01 1.241943e+00 -1.049772e+00
<VARIANCE> 25
 2.428723e+01 1.368990e+01 2.250248e+01 2.654257e+01 1.158852e+02 4.363396e+01 1.891154e+01 4.568426e+01 2.296394e+01 2.543834e+01 4.525154e+01 4.965545e+01 8.213483e-01 7.513862e-01 6.728166e-01 1.467982e+00 8.210835e-01 3.488244e+00 8.388232e-01 8.378464e-01 5.675597e-01 2.393491e+00 1.697448e+00 7.817813e-01 8.538903e-01
<GCONST> 8.815930e+01
<TRANSP> 5
 0.000000e+00 1.000000e+00 0.000000e+00 0.000000e+00 0.000000e+00
 0.000000e+00 8.922218e-03 9.910778e-01 0.000000e+00 0.000000e+00
 0.000000e+00 0.000000e+00 1.735176e-01 8.264824e-01 0.000000e+00
 0.000000e+00 0.000000e+00 0.000000e+00 5.443084e-01 4.556916e-01
 0.000000e+00 0.000000e+00 0.000000e+00 0.000000e+00 0.000000e+00
<ENDHMM>
~h "s"
<BEGINHMM>
<NUMSTATES> 5
<STATE> 2
<MEAN> 25
 -2.748282e+00 4.127098e-01 1.203798e+01 -1.267076e+00 -1.385854e+01 -1.225692e+01 -4.261571e+00 -1.040370e+01 -7.518859e-01 -4.199460e+00 5.935917e+00 2.139392e+00 8.205674e-01 2.082884e-01 3.718204e-01 -4.981590e-01 -1.033795e+00 -2.621629e-02 -6.182799e-01 -7.962158e-01 -5.158517e-02 -1.673094e-01 3.165184e-01 -2.639835e-01 3.054773e-01
<VARIANCE> 25
 6.230187e+01 2.219298e+01 5.641438e+01 2.243086e+01 1.100894e+02 3.364590e+01 8.591876e+01 8.695612e+01 2.490942e+01 4.043544e+01 4.449524e+01 2.467542e+01 5.436739e+00 2.421888e+00 2.321059e+00 3.344501e+00 6.873077e+00 4.209120e+00 7.061573e+00 5.263095e+00 3.693091e+00 3.504269e+00 3.660153e+00 2.691289e+00 2.307514e+00
<GCONST> 1.086655e+02
<STATE> 3
<MEAN> 25
 1.945837e+00 2.506311e+00 2.870151e+00 -6.939333e+00 -8.188128e+00 -1.864081e+00 -2.713732e+00 -6.953173e+00 1.780411e+00 -1.812156e+00 1.588981e+00 7.076861e-01 -8.213069e-01 -1.960460e-01 -4.107351e-01 4.950177e-01 1.493263e+00 4.275325e-02 4.159904e-01 1.188907e+00 -3.106689e-02 1.338495e-01 1.838097e-02 5.377232e-01 -2.049250e-02
<VARIANCE> 25
 5.376485e+01 1.723751e+01 1.226879e+02 1.295013e+02 6.371937e+01 5.130452e+01 3.520484e+01 8.193177e+01 5.634837e+01 2.928540e+01 3.415050e+01 3.332604e+01 2.761089e+00 2.356494e+00 3.587377e+00 3.188800e+00 2.171280e+00 5.626370e+00 2.944141e+00 5.573324e+00 1.914721e+00 2.220436e+00 3.061248e+00 2.179421e+00 2.585087e+00
<GCONST> 1.068624e+02
<STATE> 4
<MEAN> 25
 -9.895316e+00 1.030500e+00 -5.953924e-02 -3.895177e+00 5.626893e+00 -7.453275e+00 -2.608688e+00 2.234379e+00 5.274208e+00 9.073835e-01 -4.075816e-02 5.855649e+00 -2.564228e-01 1.126513e-01 -4.779387e-01 -3.058064e-01 -3.366468e-01 -1.265017e-02 2.252651e-01 -5.967161e-01 -4.971877e-01 -2.727453e-01 9.004992e-03 2.617408e-01 2.064591e-01
<VARIANCE> 25
 6.680064e+01 2.636249e+01 2.968026e+01 1.509972e+01 5.257945e+01 4.009608e+01 6.363240e+01 4.827787e+01 4.312231e+01 1.781134e+01 1.873005e+01 2.614614e+01 4.216492e+00 1.107417e+00 1.292839e+00 7.053661e-01 1.882435e+00 3.165815e+00 6.848410e+00 2.159632e+00 3.028767e+00 1.622975e+00 1.794179e+00 2.545328e+00 2.038473e+00
<GCONST> 9.779835e+01
<TRANSP> 5
 0.000000e+00 1.000000e+00 0.000000e+00 0.000000e+00 0.000000e+00
 0.000000e+00 8.709015e-01 1.290985e-01 0.000000e+00 0.000000e+00
 0.000000e+00 0.000000e+00 8.116435e-01 1.883566e-01 0.000000e+00
 0.000000e+00 0.000000e+00 0.000000e+00 7.039675e-01 2.960326e-01
 0.000000e+00 0.000000e+00 0.000000e+00 0.000000e+00 0.000000e+00
<ENDHMM>
~h "t"
<BEGINHMM>
<NUMSTATES> 5
<STATE> 2
<MEAN> 25
 6.935892e+00 -4.232620e+00 2.235399e+00 2.044009e+00 -1.642425e+01 -9.505200e+00 -8.336931e+00 -8.216120e+00 5.349541e+00 -6.209674e+00 4.985195e+00 2.531269e+00 3.164024e-01 -9.732707e-01 7.923220e-01 1.052417e+00 -1.580703e+00 -1.904079e+00 1.814712e-01 9.329681e-01 -2.140777e-01 -4.959684e-01 8.411125e-01 4.129810e-02 1.662997e-01
<VARIANCE> 25
 1.175332e+01 4.726307e+01 5.367329e+01 1.043347e+01 1.612776e+02 2.941991e+01 2.407941e+01 3.384196e+01 1.189360e+01 7.121792e+01 2.971135e+01 7.943426e+00 1.523228e-01 1.266452e+00 5.887639e+00 1.037897e+00 3.301359e+00 1.712972e+00 1.198092e+00 1.069314e+00 2.902537e+00 3.018530e+00 2.201283e+00 1.090891e+00 6.750295e-01
<GCONST> 9.076641e+01
<STATE> 3
<MEAN> 25
 6.310241e+00 -1.623426e+00 8.246698e+00 2.690474e+00 -1.700813e+01 -1.282602e+01 -6.673326e+00 -6.806667e+00 -4.119960e+00 -6.482191e+00 7.419168e+00 -1.852497e+00 -5.216038e-01 5.768654e-01 3.606852e-01 -6.006795e-01 1.614130e+00 3.017623e-02 -1.771749e-01 -2.378693e-01 -6.373158e-01 1.022953e+00 -1.001838e+00 -1.708603e-01 -4.303662e-01
<VARIANCE> 25
 9.863568e+00 3.819445e+01 1.728185e+01 1.020219e+01 7.939878e+01 3.265252e+01 2.342673e+01 1.593431e+01 3.983350e+01 2.341379e+01 3.196067e+01 1.601700e+01 3.626973e-01 2.338740e+00 8.372551e-01 1.211295e+00 6.249780e+00 9.091581e-01 1.993320e+00 2.197832e+00 3.066789e+00 2.942226e+00 4.918202e+00 1.873946e+00 6.747925e-01
<GCONST> 9.100117e+01
<STATE> 4
<MEAN> 25
 4.208211e+00 -4.278074e+00 4.717464e+00 -1.592599e-01 -4.194139e+00 -1.249021e+01 -1.332058e+01 -3.196083e+00 5.761180e+00 1.255164e-01 7.942818e-02 3.316951e-01 -6.047969e-01 -2.054443e+00 1.572202e-02 -5.003531e-01 -1.017056e+00 1.079111e-01 -7.920956e-01 1.816085e-01 2.454113e+00 -1.052642e+00 9.043861e-01 -3.844225e-01 1.693197e+00
<VARIANCE> 25
 1.108070e+01 8.189993e+01 2.213357e+01 4.827267e+00 1.018268e+02 3.886702e+01 9.683271e+01 3.201375e+01 9.509741e+01 4.477215e+01 3.072930e+01 7.814159e+00 1.500671e+00 2.068362e+00 9.767764e-01 1.016641e+00 1.691049e+01 3.425272e+00 9.437028e+00 1.364172e+00 2.612779e+00 7.175724e+00 5.262174e+00 3.124026e+00 4.087925e+00
<GCONST> 1.024680e+02
<TRANSP> 5
 0.000000e+00 1.000000e+00 0.000000e+00 0.000000e+00 0.000000e+00
 0.000000e+00 7.002481e-01 2.997518e-01 0.000000e+00 0.000000e+00
 0.000000e+00 0.000000e+00 7.753062e-01 2.246938e-01 0.000000e+00
 0.000000e+00 0.000000e+00 0.000000e+00 6.968783e-01 3.031217e-01
 0.000000e+00 0.000000e+00 0.000000e+00 0.000000e+00 0.000000e+00
<ENDHMM>
~h "u"
<BEGINHMM>
<NUMSTATES> 5
<STATE> 2
<MEAN> 25
 -1.595554e+00 -1.330871e+00 1.798967e+00 -4.257283e+00 -1.952005e+00 -4.994566e+00 -5.470969e+00 4.926645e+00 8.316145e+00 1.451019e+00 2.480478e+00 -1.527488e+00 1.205687e-01 -9.257414e-01 -6.245370e-01 -9.570606e-01 -4.095272e-01 1.340384e+00 1.780716e+00 1.043731e-01 -9.187210e-02 -3.140217e-01 -5.196763e-01 -6.026804e-01 -3.492498e-02
<VARIANCE> 25
 7.823844e+01 5.192499e+01 1.015056e+01 3.408322e+01 8.421772e+01 2.150122e+01 1.299315e+02 2.336662e+00 4.665467e+01 2.417686e+01 2.333942e+01 2.455201e+00 4.200069e-01 6.164133e-01 2.144120e+00 7.111211e-01 5.054003e-01 8.692604e-01 4.179473e+00 1.939534e-01 4.910533e-01 3.349245e-01 3.645984e+00 1.378156e+00 3.348438e-01
<GCONST> 8.114983e+01
<STATE> 3
<MEAN> 25
 -6.050032e-01 -5.036110e+00 -7.661955e-01 -6.205423e+00 -5.979144e+00 -4.070669e+00 -2.627592e+00 3.723221e+00 1.116446e+01 -2.985326e+00 -3.299940e+00 -3.457751e+00 -1.371450e-01 -3.528787e-01 -9.596186e-01 4.571788e-02 8.924716e-01 4.243696e-01 2.247664e+00 -5.782788e-01 -2.327649e-01 -6.179804e-01 -1.984128e+00 -4.844684e-01 4.766670e-02
<VARIANCE> 25
 4.416035e+01 5.189115e+01 2.140295e+01 1.323981e+01 8.647747e+01 2.068499e+01 6.762758e+01 1.118464e+01 8.815376e+01 1.544573e+01 2.413614e+01 3.654160e+00 4.867882e-01 4.447163e-01 2.026990e+00 1.151736e+00 6.656457e-01 9.435793e-01 6.689638e+00 6.829910e-01 8.711983e-01 9.908739e-01 3.009037e+00 3.519092e-01 2.095539e-01
<GCONST> 8.386371e+01
<STATE> 4
<MEAN> 25
 8.289767e-02 2.160457e+00 -4.497128e-01 3.713156e+00 3.472326e+00 5.049744e+00 2.945089e+00 2.985358e+00 -4.297585e+00 2.031569e+00 -5.598861e-01 -9.174707e-01 2.882463e-02 -9.728354e-02 5.823216e-03 8.535740e-02 -4.463615e-02 3.142687e-02 -9.581181e-02 3.415565e-02 -1.672880e-02 -8.888655e-03 -1.957955e-03 8.975597e-02 -3.261546e-02
<VARIANCE> 25
 5.425500e+00 8.104322e+00 5.044859e+00 1.093468e+01 1.148592e+01 1.268137e+01 1.146215e+01 8.759047e+00 2.734406e+01 1.206049e+01 1.508190e+01 9.188728e+00 1.615298e-01 2.509072e-01 2.978908e-01 6.717254e-01 8.617369e-01 8.060092e-01 1.819625e+00 1.010065e+00 1.709882e+00 1.228327e+00 1.773931e+00 8.370493e-01 5.110360e-02
<GCONST> 6.765405e+01
<TRANSP> 5
 0.000000e+00 1.000000e+00 0.000000e+00 0.000000e+00 0.000000e+00
 0.000000e+00 6.950171e-02 9.304983e-01 0.000000e+00 0.000000e+00
 0.000000e+00 0.000000e+00 4.139424e-01 5.860576e-01 0.000000e+00
 0.000000e+00 0.000000e+00 0.000000e+00 9.200073e-01 7.999273e-02
 0.000000e+00 0.000000e+00 0.000000e+00 0.000000e+00 0.000000e+00
<ENDHMM>
~h "ng"
<BEGINHMM>
<NUMSTATES> 5
<STATE> 2
<MEAN> 25
 2.711044e-07 2.276736e-08 -6.105108e-08 -1.720701e-07 -1.586201e-07 9.768173e-08 -1.135738e-07 -1.298416e-07 7.694315e-08 -1.660590e-07 -1.083516e-07 -5.706868e-08 -2.818740e-03 -4.409721e-03 -4.277692e-03 -1.165964e-03 -3.608679e-03 5.208261e-03 -1.757075e-03 5.998432e-03 4.891248e-03 1.720927e-03 7.501529e-04 -5.307185e-03 6.137643e-03
<VARIANCE> 25
 2.670229e+01 2.794268e+01 3.749357e+01 3.307458e+01 5.256620e+01 4.928031e+01 4.561778e+01 4.954230e+01 4.604616e+01 3.096663e+01 2.869331e+01 1.969207e+01 8.024186e-01 8.637462e-01 9.762596e-01 1.208383e+00 1.860729e+00 1.938551e+00 2.342637e+00 2.054597e+00 2.126093e+00 1.768907e+00 1.840738e+00 1.505519e+00 1.027859e+00
<GCONST> 9.389127e+01
<STATE> 3
<MEAN> 25
 2.711044e-07 2.276736e-08 -6.105108e-08 -1.720701e-07 -1.586201e-07 9.768173e-08 -1.135738e-07 -1.298416e-07 7.694315e-08 -1.660590e-07 -1.083516e-07 -5.706868e-08 -2.818740e-03 -4.409721e-03 -4.277692e-03 -1.165964e-03 -3.608679e-03 5.208261e-03 -1.757075e-03 5.998432e-03 4.891248e-03 1.720927e-03 7.501529e-04 -5.307185e-03 6.137643e-03
<VARIANCE> 25
 2.670229e+01 2.794268e+01 3.749357e+01 3.307458e+01 5.256620e+01 4.928031e+01 4.561778e+01 4.954230e+01 4.604616e+01 3.096663e+01 2.869331e+01 1.969207e+01 8.024186e-01 8.637462e-01 9.762596e-01 1.208383e+00 1.860729e+00 1.938551e+00 2.342637e+00 2.054597e+00 2.126093e+00 1.768907e+00 1.840738e+00 1.505519e+00 1.027859e+00
<GCONST> 9.389127e+01
<STATE> 4
<MEAN> 25
 2.711044e-07 2.276736e-08 -6.105108e-08 -1.720701e-07 -1.586201e-07 9.768173e-08 -1.135738e-07 -1.298416e-07 7.694315e-08 -1.660590e-07 -1.083516e-07 -5.706868e-08 -2.818740e-03 -4.409721e-03 -4.277692e-03 -1.165964e-03 -3.608679e-03 5.208261e-03 -1.757075e-03 5.998432e-03 4.891248e-03 1.720927e-03 7.501529e-04 -5.307185e-03 6.137643e-03
<VARIANCE> 25
 2.670229e+01 2.794268e+01 3.749357e+01 3.307458e+01 5.256620e+01 4.928031e+01 4.561778e+01 4.954230e+01 4.604616e+01 3.096663e+01 2.869331e+01 1.969207e+01 8.024186e-01 8.637462e-01 9.762596e-01 1.208383e+00 1.860729e+00 1.938551e+00 2.342637e+00 2.054597e+00 2.126093e+00 1.768907e+00 1.840738e+00 1.505519e+00 1.027859e+00
<GCONST> 9.389127e+01
<TRANSP> 5
 0.000000e+00 1.000000e+00 0.000000e+00 0.000000e+00 0.000000e+00
 0.000000e+00 6.000000e-01 4.000000e-01 0.000000e+00 0.000000e+00
 0.000000e+00 0.000000e+00 6.000000e-01 4.000000e-01 0.000000e+00
 0.000000e+00 0.000000e+00 0.000000e+00 7.000000e-01 3.000000e-01
 0.000000e+00 0.000000e+00 0.000000e+00 0.000000e+00 0.000000e+00
<ENDHMM>
~h "sp"
<BEGINHMM>
<NUMSTATES> 3
<STATE> 2
~s "silst"
<TRANSP> 3
 0.000000e+00 4.124428e-01 5.875572e-01
 0.000000e+00 9.503359e-01 4.966410e-02
 0.000000e+00 0.000000e+00 0.000000e+00
<ENDHMM>
~h "sil"
<BEGINHMM>
<NUMSTATES> 5
<STATE> 2
<MEAN> 25
 -1.152212e-01 1.623337e+00 2.360719e-01 2.682396e+00 2.268132e+00 2.943459e+00 2.609553e+00 2.618997e+00 -2.695225e+00 1.492597e+00 -1.051995e-01 -8.496050e-02 -2.719374e-03 5.395297e-03 2.436201e-03 -4.867750e-04 7.357071e-03 2.386708e-02 2.512106e-02 1.076692e-02 -1.031714e-02 7.229973e-03 4.926310e-03 -2.426054e-03 -1.449159e-02
<VARIANCE> 25
 1.306274e+00 2.824638e+00 3.829130e+00 6.764310e+00 7.699384e+00 1.149897e+01 1.065050e+01 1.186762e+01 1.238107e+01 1.161154e+01 1.137584e+01 1.046598e+01 9.612560e-02 2.119013e-01 3.552219e-01 6.024607e-01 7.305327e-01 1.028531e+00 1.189084e+00 1.088858e+00 1.289895e+00 1.207823e+00 1.064901e+00 1.021110e+00 3.099404e-02
<GCONST> 6.116757e+01
<STATE> 3
~s "silst"
<STATE> 4
<MEAN> 25
 -6.254639e-01 -2.385862e+00 -1.579623e+00 -4.318873e+00 -1.727536e+00 -3.307839e+00 -2.119500e+00 -3.956236e+00 2.652206e+00 -1.955854e+00 -1.015796e+00 1.016495e+00 7.353838e-03 -4.095828e-02 -4.664400e-02 -3.350479e-02 -4.946143e-02 -5.763023e-02 -9.201021e-02 2.309652e-02 8.794329e-02 1.465983e-02 -4.703441e-03 -3.290293e-02 1.104962e-01
<VARIANCE> 25
 6.053110e+01 5.983161e+01 7.757289e+01 6.251380e+01 8.924029e+01 6.333409e+01 4.934674e+01 7.936036e+01 5.118342e+01 5.642566e+01 4.763967e+01 3.398501e+01 1.829193e+00 1.943465e+00 1.782163e+00 2.345654e+00 3.236432e+00 3.281670e+00 3.300196e+00 3.203424e+00 3.621240e+00 2.679518e+00 2.606901e+00 2.570132e+00 2.673184e+00
<GCONST> 1.074764e+02
<TRANSP> 5
 0.000000e+00 1.000000e+00 0.000000e+00 0.000000e+00 0.000000e+00
 0.000000e+00 9.756684e-01 7.151001e-03 1.718051e-02 0.000000e+00
 0.000000e+00 0.000000e+00 9.679447e-01 3.205527e-02 0.000000e+00
 0.000000e+00 4.711835e-02 0.000000e+00 9.305840e-01 2.229764e-02
 0.000000e+00 0.000000e+00 0.000000e+00 0.000000e+00 0.000000e+00
<ENDHMM>
