~o
<STREAMINFO> 1 25
<VECSIZE> 25<NULLD><MFCC_D_N_Z_0><DIAGC>
~h "proto"
<BEGINHMM>
<NUMSTATES> 5
<STATE> 2
<MEAN> 25
 -1.684587e-08 -6.193333e-08 -4.487690e-08 3.351832e-08 -6.047171e-08 2.058664e-08 -6.607048e-08 -2.205446e-08 -8.534414e-09 2.910867e-08 3.022347e-08 -1.071447e-09 -2.678578e-03 2.715191e-03 1.970940e-04 1.666228e-04 1.831201e-03 -7.320007e-04 3.372927e-03 1.125320e-03 -7.564414e-05 2.413395e-03 8.106225e-04 -2.148533e-03 -1.727290e-03
<VARIANCE> 25
 4.499385e+01 7.342516e+01 3.566479e+01 5.718780e+01 5.546888e+01 4.305736e+01 6.020990e+01 4.209700e+01 2.990068e+01 4.475465e+01 3.376802e+01 1.839641e+01 1.592596e+00 2.317776e+00 1.700131e+00 2.390033e+00 2.486403e+00 2.357601e+00 2.972100e+00 2.655601e+00 2.270027e+00 2.542916e+00 2.264997e+00 1.647762e+00 2.549860e+00
<GCONST> 1.014657e+02
<STATE> 3
<MEAN> 25
 -1.684587e-08 -6.193333e-08 -4.487690e-08 3.351832e-08 -6.047171e-08 2.058664e-08 -6.607048e-08 -2.205446e-08 -8.534414e-09 2.910867e-08 3.022347e-08 -1.071447e-09 -2.678578e-03 2.715191e-03 1.970940e-04 1.666228e-04 1.831201e-03 -7.320007e-04 3.372927e-03 1.125320e-03 -7.564414e-05 2.413395e-03 8.106225e-04 -2.148533e-03 -1.727290e-03
<VARIANCE> 25
 4.499385e+01 7.342516e+01 3.566479e+01 5.718780e+01 5.546888e+01 4.305736e+01 6.020990e+01 4.209700e+01 2.990068e+01 4.475465e+01 3.376802e+01 1.839641e+01 1.592596e+00 2.317776e+00 1.700131e+00 2.390033e+00 2.486403e+00 2.357601e+00 2.972100e+00 2.655601e+00 2.270027e+00 2.542916e+00 2.264997e+00 1.647762e+00 2.549860e+00
<GCONST> 1.014657e+02
<STATE> 4
<MEAN> 25
 -1.684587e-08 -6.193333e-08 -4.487690e-08 3.351832e-08 -6.047171e-08 2.058664e-08 -6.607048e-08 -2.205446e-08 -8.534414e-09 2.910867e-08 3.022347e-08 -1.071447e-09 -2.678578e-03 2.715191e-03 1.970940e-04 1.666228e-04 1.831201e-03 -7.320007e-04 3.372927e-03 1.125320e-03 -7.564414e-05 2.413395e-03 8.106225e-04 -2.148533e-03 -1.727290e-03
<VARIANCE> 25
 4.499385e+01 7.342516e+01 3.566479e+01 5.718780e+01 5.546888e+01 4.305736e+01 6.020990e+01 4.209700e+01 2.990068e+01 4.475465e+01 3.376802e+01 1.839641e+01 1.592596e+00 2.317776e+00 1.700131e+00 2.390033e+00 2.486403e+00 2.357601e+00 2.972100e+00 2.655601e+00 2.270027e+00 2.542916e+00 2.264997e+00 1.647762e+00 2.549860e+00
<GCONST> 1.014657e+02
<TRANSP> 5
 0.000000e+00 1.000000e+00 0.000000e+00 0.000000e+00 0.000000e+00
 0.000000e+00 6.000000e-01 4.000000e-01 0.000000e+00 0.000000e+00
 0.000000e+00 0.000000e+00 6.000000e-01 4.000000e-01 0.000000e+00
 0.000000e+00 0.000000e+00 0.000000e+00 7.000000e-01 3.000000e-01
 0.000000e+00 0.000000e+00 0.000000e+00 0.000000e+00 0.000000e+00
<ENDHMM>
