~o
<STREAMINFO> 1 25
<VECSIZE> 25<NULLD><MFCC_D_N_Z_0><DIAGC>
~h "E"
<BEGINHMM>
<NUMSTATES> 5
<STATE> 2
<MEAN> 25
 4.835570e-02 -1.195300e+00 4.139833e-01 -3.785829e-01 -9.548263e-01 -5.476677e-04 1.019999e+00 3.864125e-02 -1.737227e-01 -2.166701e-01 -4.471360e-01 -3.106935e-02 8.509375e-03 1.117457e-02 -4.908923e-03 -1.509000e-02 -2.446959e-02 -2.285160e-02 6.138054e-03 -1.662605e-02 -3.467843e-03 6.053003e-03 -1.821223e-02 -8.749364e-03 1.199885e-02
<VARIANCE> 25
 5.076416e+01 1.099461e+02 3.811790e+01 6.058408e+01 6.710233e+01 4.453671e+01 5.762335e+01 4.644327e+01 3.379987e+01 4.575272e+01 3.946323e+01 1.865801e+01 1.682078e+00 3.321705e+00 1.833965e+00 2.609769e+00 2.663557e+00 2.500302e+00 2.962968e+00 2.901544e+00 2.468828e+00 2.640612e+00 2.579242e+00 1.660199e+00 3.365518e+00
<GCONST> 1.040354e+02
<STATE> 3
<MEAN> 25
 8.269814e-02 -1.133169e+00 3.933108e-01 -4.446691e-01 -1.049900e+00 -9.873600e-02 1.039782e+00 -3.450219e-02 -1.924059e-01 -1.849945e-01 -5.046153e-01 -6.164430e-02 5.096947e-03 1.895959e-02 -7.242545e-03 -9.655968e-03 -1.529986e-02 -1.941680e-02 2.776308e-03 -1.239611e-02 -9.528842e-04 9.869963e-03 -8.668791e-03 -6.259519e-03 4.284792e-03
<VARIANCE> 25
 5.187712e+01 1.111679e+02 3.909899e+01 6.113125e+01 6.798055e+01 4.502020e+01 5.864537e+01 4.685417e+01 3.392853e+01 4.584663e+01 3.971321e+01 1.860340e+01 1.694962e+00 3.290139e+00 1.883836e+00 2.634413e+00 2.702588e+00 2.519962e+00 2.997524e+00 2.910140e+00 2.477446e+00 2.652528e+00 2.588603e+00 1.655184e+00 3.333355e+00
<GCONST> 1.042322e+02
<STATE> 4
<MEAN> 25
 9.222140e-02 -9.694551e-01 3.905660e-01 -5.942531e-01 -1.136777e+00 -1.819462e-01 1.072602e+00 -1.341389e-01 -2.059368e-01 -9.554128e-02 -5.203566e-01 -8.715855e-02 -4.086611e-03 3.369244e-02 -2.979528e-03 -1.044015e-03 -6.514077e-03 -1.122193e-02 8.996103e-04 -4.240545e-03 5.289800e-03 1.608620e-02 5.832233e-03 -1.145277e-03 -8.229734e-03
<VARIANCE> 25
 5.474246e+01 1.146162e+02 4.066675e+01 6.250811e+01 6.957912e+01 4.561365e+01 6.118613e+01 4.829195e+01 3.382560e+01 4.630070e+01 4.018966e+01 1.849352e+01 1.696709e+00 3.166407e+00 1.929173e+00 2.641269e+00 2.728395e+00 2.515343e+00 3.045526e+00 2.884527e+00 2.444932e+00 2.642878e+00 2.558847e+00 1.640986e+00 3.234283e+00
<GCONST> 1.044365e+02
<TRANSP> 5
 0.000000e+00 1.000000e+00 0.000000e+00 0.000000e+00 0.000000e+00
 0.000000e+00 7.686093e-01 2.313907e-01 0.000000e+00 0.000000e+00
 0.000000e+00 0.000000e+00 7.686101e-01 2.313899e-01 0.000000e+00
 0.000000e+00 0.000000e+00 0.000000e+00 8.969836e-01 1.030165e-01
 0.000000e+00 0.000000e+00 0.000000e+00 0.000000e+00 0.000000e+00
<ENDHMM>
~h "K"
<BEGINHMM>
<NUMSTATES> 5
<STATE> 2
<MEAN> 25
 -1.684587e-08 -6.193333e-08 -4.487690e-08 3.351832e-08 -6.047171e-08 2.058664e-08 -6.607048e-08 -2.205446e-08 -8.534414e-09 2.910867e-08 3.022347e-08 -1.071447e-09 -2.678578e-03 2.715191e-03 1.970940e-04 1.666228e-04 1.831201e-03 -7.320007e-04 3.372927e-03 1.125320e-03 -7.564414e-05 2.413395e-03 8.106225e-04 -2.148533e-03 -1.727290e-03
<VARIANCE> 25
 4.499385e+01 7.342516e+01 3.566479e+01 5.718780e+01 5.546888e+01 4.305736e+01 6.020990e+01 4.209700e+01 2.990068e+01 4.475465e+01 3.376802e+01 1.839641e+01 1.592596e+00 2.317776e+00 1.700131e+00 2.390033e+00 2.486403e+00 2.357601e+00 2.972100e+00 2.655601e+00 2.270027e+00 2.542916e+00 2.264997e+00 1.647762e+00 2.549860e+00
<GCONST> 1.014657e+02
<STATE> 3
<MEAN> 25
 -1.684587e-08 -6.193333e-08 -4.487690e-08 3.351832e-08 -6.047171e-08 2.058664e-08 -6.607048e-08 -2.205446e-08 -8.534414e-09 2.910867e-08 3.022347e-08 -1.071447e-09 -2.678578e-03 2.715191e-03 1.970940e-04 1.666228e-04 1.831201e-03 -7.320007e-04 3.372927e-03 1.125320e-03 -7.564414e-05 2.413395e-03 8.106225e-04 -2.148533e-03 -1.727290e-03
<VARIANCE> 25
 4.499385e+01 7.342516e+01 3.566479e+01 5.718780e+01 5.546888e+01 4.305736e+01 6.020990e+01 4.209700e+01 2.990068e+01 4.475465e+01 3.376802e+01 1.839641e+01 1.592596e+00 2.317776e+00 1.700131e+00 2.390033e+00 2.486403e+00 2.357601e+00 2.972100e+00 2.655601e+00 2.270027e+00 2.542916e+00 2.264997e+00 1.647762e+00 2.549860e+00
<GCONST> 1.014657e+02
<STATE> 4
<MEAN> 25
 -1.684587e-08 -6.193333e-08 -4.487690e-08 3.351832e-08 -6.047171e-08 2.058664e-08 -6.607048e-08 -2.205446e-08 -8.534414e-09 2.910867e-08 3.022347e-08 -1.071447e-09 -2.678578e-03 2.715191e-03 1.970940e-04 1.666228e-04 1.831201e-03 -7.320007e-04 3.372927e-03 1.125320e-03 -7.564414e-05 2.413395e-03 8.106225e-04 -2.148533e-03 -1.727290e-03
<VARIANCE> 25
 4.499385e+01 7.342516e+01 3.566479e+01 5.718780e+01 5.546888e+01 4.305736e+01 6.020990e+01 4.209700e+01 2.990068e+01 4.475465e+01 3.376802e+01 1.839641e+01 1.592596e+00 2.317776e+00 1.700131e+00 2.390033e+00 2.486403e+00 2.357601e+00 2.972100e+00 2.655601e+00 2.270027e+00 2.542916e+00 2.264997e+00 1.647762e+00 2.549860e+00
<GCONST> 1.014657e+02
<TRANSP> 5
 0.000000e+00 1.000000e+00 0.000000e+00 0.000000e+00 0.000000e+00
 0.000000e+00 6.000000e-01 4.000000e-01 0.000000e+00 0.000000e+00
 0.000000e+00 0.000000e+00 6.000000e-01 4.000000e-01 0.000000e+00
 0.000000e+00 0.000000e+00 0.000000e+00 7.000000e-01 3.000000e-01
 0.000000e+00 0.000000e+00 0.000000e+00 0.000000e+00 0.000000e+00
<ENDHMM>
~h "a"
<BEGINHMM>
<NUMSTATES> 5
<STATE> 2
<MEAN> 25
 3.365323e-01 -4.416041e-01 -2.053672e-01 -1.153915e-01 2.469452e-01 -3.271831e-01 -4.804840e-01 -8.424200e-02 -2.855040e-01 -8.539384e-01 -2.511539e-01 3.691005e-02 -2.222883e-02 2.323477e-02 1.239313e-02 7.068349e-03 -3.526006e-03 1.160387e-02 2.087131e-02 1.632643e-02 4.902103e-03 2.128869e-02 1.391157e-02 6.020226e-03 -2.658927e-02
<VARIANCE> 25
 4.275118e+01 7.106511e+01 3.167788e+01 4.862802e+01 5.419904e+01 4.226844e+01 6.147126e+01 3.981349e+01 2.978179e+01 4.957380e+01 3.416569e+01 1.869703e+01 1.581939e+00 2.388953e+00 1.557931e+00 2.178062e+00 2.587517e+00 2.280774e+00 3.010511e+00 2.651754e+00 2.291802e+00 2.641657e+00 2.318968e+00 1.685116e+00 2.646675e+00
<GCONST> 1.011430e+02
<STATE> 3
<MEAN> 25
 2.321824e-01 -3.389426e-01 -1.494337e-01 -7.492130e-02 2.444500e-01 -2.691275e-01 -3.885066e-01 -9.737107e-03 -2.595153e-01 -7.503865e-01 -1.863222e-01 6.324601e-02 -2.402056e-02 2.453417e-02 1.304296e-02 9.694567e-03 2.035494e-05 1.348212e-02 2.145928e-02 1.726104e-02 6.658869e-03 2.486254e-02 1.493276e-02 5.912433e-03 -3.061271e-02
<VARIANCE> 25
 4.304720e+01 7.130739e+01 3.160418e+01 4.850339e+01 5.445949e+01 4.216336e+01 6.166643e+01 3.971985e+01 2.963080e+01 4.911141e+01 3.383500e+01 1.862991e+01 1.589723e+00 2.388023e+00 1.568582e+00 2.167749e+00 2.589154e+00 2.274027e+00 3.016649e+00 2.643488e+00 2.285924e+00 2.632451e+00 2.307707e+00 1.684861e+00 2.626227e+00
<GCONST> 1.011081e+02
<STATE> 4
<MEAN> 25
 1.334409e-01 -2.991017e-01 -7.162002e-02 -3.145125e-02 2.529176e-01 -1.678088e-01 -2.826288e-01 8.815560e-02 -2.066852e-01 -5.949407e-01 -8.742331e-02 9.384526e-02 -2.010829e-02 1.782841e-02 9.040381e-03 9.515990e-03 6.922268e-03 1.285983e-02 1.824220e-02 1.515065e-02 7.705875e-03 2.453165e-02 1.203648e-02 3.341391e-03 -2.830240e-02
<VARIANCE> 25
 4.341404e+01 7.242522e+01 3.148841e+01 4.869725e+01 5.415231e+01 4.147009e+01 6.228924e+01 3.951413e+01 2.918638e+01 4.804023e+01 3.321694e+01 1.853715e+01 1.603941e+00 2.406495e+00 1.589038e+00 2.158421e+00 2.577417e+00 2.255364e+00 3.043235e+00 2.624088e+00 2.278418e+00 2.608027e+00 2.269516e+00 1.682854e+00 2.626011e+00
<GCONST> 1.010378e+02
<TRANSP> 5
 0.000000e+00 1.000000e+00 0.000000e+00 0.000000e+00 0.000000e+00
 0.000000e+00 7.740794e-01 2.259206e-01 0.000000e+00 0.000000e+00
 0.000000e+00 0.000000e+00 7.740805e-01 2.259195e-01 0.000000e+00
 0.000000e+00 0.000000e+00 0.000000e+00 9.036438e-01 9.635620e-02
 0.000000e+00 0.000000e+00 0.000000e+00 0.000000e+00 0.000000e+00
<ENDHMM>
~h "b"
<BEGINHMM>
<NUMSTATES> 5
<STATE> 2
<MEAN> 25
 1.064455e+00 8.102497e-01 -9.571447e-02 -2.310492e-01 -1.161368e+00 -1.180875e+00 -1.425855e+00 -5.712792e-01 -7.004247e-01 -1.238702e-01 -9.153997e-01 1.330645e-01 2.754256e-02 -4.122822e-04 -1.095677e-02 -5.293166e-02 -2.774373e-02 -2.630955e-02 -2.199195e-02 -2.505431e-02 -4.100236e-02 -3.059827e-02 -2.583889e-02 2.050507e-02 6.040243e-02
<VARIANCE> 25
 4.296198e+01 5.800833e+01 3.463065e+01 5.190137e+01 5.449266e+01 4.435209e+01 6.356084e+01 3.706030e+01 3.435256e+01 4.423862e+01 3.616784e+01 1.820646e+01 1.395672e+00 2.095812e+00 1.726240e+00 2.620850e+00 2.465439e+00 2.287140e+00 2.837390e+00 2.550032e+00 2.510504e+00 2.526135e+00 2.308602e+00 1.732452e+00 2.832867e+00
<GCONST> 1.011990e+02
<STATE> 3
<MEAN> 25
 1.155694e+00 7.946566e-01 -1.303802e-01 -4.394496e-01 -1.220418e+00 -1.248049e+00 -1.458014e+00 -6.513624e-01 -8.312945e-01 -2.394729e-01 -9.909893e-01 2.067770e-01 1.451533e-02 -4.440434e-03 -6.748936e-03 -3.966681e-02 -7.477485e-03 -1.051274e-02 2.225988e-03 -1.246563e-02 -2.518964e-02 -2.133085e-02 -9.672511e-03 1.554525e-02 3.852627e-02
<VARIANCE> 25
 4.380930e+01 5.869181e+01 3.503028e+01 5.272967e+01 5.498689e+01 4.403257e+01 6.323816e+01 3.740107e+01 3.470343e+01 4.540659e+01 3.638041e+01 1.816142e+01 1.416714e+00 2.088025e+00 1.739808e+00 2.637571e+00 2.490929e+00 2.275798e+00 2.788948e+00 2.523099e+00 2.525154e+00 2.552016e+00 2.321371e+00 1.731166e+00 2.866226e+00
<GCONST> 1.013384e+02
<STATE> 4
<MEAN> 25
 1.211675e+00 6.689597e-01 -1.551226e-01 -6.678642e-01 -9.796306e-01 -1.210264e+00 -1.280719e+00 -6.480345e-01 -8.820660e-01 -3.833797e-01 -9.348359e-01 2.400446e-01 -1.637658e-03 -2.242188e-02 3.917908e-03 -1.788634e-02 2.452779e-02 1.158887e-02 2.887460e-02 1.379738e-02 7.197583e-03 -1.202714e-02 1.506074e-02 5.744813e-03 1.523017e-02
<VARIANCE> 25
 4.759389e+01 6.247434e+01 3.448304e+01 5.600782e+01 5.399593e+01 4.289072e+01 6.272117e+01 3.813995e+01 3.316040e+01 4.752158e+01 3.545742e+01 1.796762e+01 1.481464e+00 2.112542e+00 1.714388e+00 2.669245e+00 2.444128e+00 2.217026e+00 2.673578e+00 2.476287e+00 2.492160e+00 2.626915e+00 2.278285e+00 1.720858e+00 2.928273e+00
<GCONST> 1.014187e+02
<TRANSP> 5
 0.000000e+00 1.000000e+00 0.000000e+00 0.000000e+00 0.000000e+00
 0.000000e+00 7.764545e-01 2.235454e-01 0.000000e+00 0.000000e+00
 0.000000e+00 0.000000e+00 7.764546e-01 2.235455e-01 0.000000e+00
 0.000000e+00 0.000000e+00 0.000000e+00 9.067523e-01 9.324769e-02
 0.000000e+00 0.000000e+00 0.000000e+00 0.000000e+00 0.000000e+00
<ENDHMM>
~h "c"
<BEGINHMM>
<NUMSTATES> 5
<STATE> 2
<MEAN> 25
 -5.648037e-01 5.694107e-01 5.960334e-01 2.717215e-01 6.187862e-01 4.932968e-01 1.844165e-01 -5.868827e-01 -4.777397e-01 2.519981e-01 3.997338e-01 -2.115549e-01 -5.037487e-03 -4.991632e-03 1.692933e-02 6.754941e-03 5.661109e-03 2.736989e-03 -1.882843e-02 3.541126e-03 -8.263398e-04 -2.226604e-03 -1.500399e-02 -2.619626e-04 1.507727e-02
<VARIANCE> 25
 1.601436e+01 3.238381e+01 2.198682e+01 2.448458e+01 4.546577e+01 3.551292e+01 4.737226e+01 3.448141e+01 2.300033e+01 3.947855e+01 2.186507e+01 1.688312e+01 1.464864e+00 1.716687e+00 1.621006e+00 2.003277e+00 3.064933e+00 2.551552e+00 3.581831e+00 2.676061e+00 2.441429e+00 3.645360e+00 1.998908e+00 1.724111e+00 2.698103e+00
<GCONST> 9.682718e+01
<STATE> 3
<MEAN> 25
 -5.888693e-01 5.750432e-01 6.771578e-01 3.084519e-01 6.368509e-01 5.133742e-01 1.063256e-01 -5.591761e-01 -4.802599e-01 2.732227e-01 3.296314e-01 -2.286305e-01 -3.692241e-03 1.079166e-03 1.619470e-02 9.316486e-03 4.745978e-03 4.757606e-03 -1.633904e-02 7.663326e-03 5.088538e-05 7.125607e-03 -1.497994e-02 -4.187599e-03 8.805916e-03
<VARIANCE> 25
 1.625849e+01 3.269115e+01 2.278464e+01 2.438233e+01 4.655542e+01 3.576171e+01 4.742146e+01 3.460516e+01 2.351231e+01 3.945816e+01 2.233455e+01 1.703632e+01 1.487142e+00 1.756881e+00 1.665800e+00 2.020509e+00 3.098129e+00 2.566036e+00 3.613883e+00 2.654195e+00 2.484447e+00 3.682077e+00 2.055640e+00 1.733972e+00 2.752506e+00
<GCONST> 9.714262e+01
<STATE> 4
<MEAN> 25
 -6.665297e-01 7.190891e-01 8.139949e-01 3.963581e-01 6.326881e-01 6.297687e-01 1.013693e-01 -5.022800e-01 -5.026898e-01 4.530510e-01 2.390134e-01 -2.935846e-01 -2.878712e-03 5.576817e-03 1.567231e-02 8.922089e-03 1.481446e-04 1.046912e-02 -1.037631e-02 9.146229e-03 -8.517042e-04 1.440654e-02 -1.605089e-02 -7.831953e-03 8.013573e-03
<VARIANCE> 25
 1.670221e+01 3.258905e+01 2.376806e+01 2.422922e+01 4.811825e+01 3.609145e+01 4.741224e+01 3.394882e+01 2.458488e+01 3.820559e+01 2.317800e+01 1.698927e+01 1.513798e+00 1.818345e+00 1.706869e+00 2.065582e+00 3.123979e+00 2.543495e+00 3.613829e+00 2.544029e+00 2.568797e+00 3.627617e+00 2.153555e+00 1.716692e+00 2.787155e+00
<GCONST> 9.739503e+01
<TRANSP> 5
 0.000000e+00 1.000000e+00 0.000000e+00 0.000000e+00 0.000000e+00
 0.000000e+00 7.736194e-01 2.263807e-01 0.000000e+00 0.000000e+00
 0.000000e+00 0.000000e+00 7.736192e-01 2.263807e-01 0.000000e+00
 0.000000e+00 0.000000e+00 0.000000e+00 9.022935e-01 9.770647e-02
 0.000000e+00 0.000000e+00 0.000000e+00 0.000000e+00 0.000000e+00
<ENDHMM>
~h "d"
<BEGINHMM>
<NUMSTATES> 5
<STATE> 2
<MEAN> 25
 3.615549e-01 -2.234169e-01 1.025459e+00 4.144558e-01 -1.037018e+00 -6.986110e-01 1.317790e-02 7.112873e-03 -6.062670e-01 -9.252197e-01 -2.530258e-02 1.074416e-01 -5.549392e-03 -1.018422e-02 -1.207717e-02 -1.220628e-02 6.006839e-03 4.732165e-03 2.694567e-02 8.850976e-03 1.928473e-02 8.165057e-03 3.718324e-05 9.434527e-03 1.157721e-02
<VARIANCE> 25
 3.056909e+01 6.183870e+01 3.089605e+01 4.405371e+01 6.358388e+01 4.564558e+01 4.484209e+01 3.540038e+01 2.732871e+01 4.653730e+01 2.962290e+01 1.811695e+01 1.083128e+00 2.059343e+00 1.518461e+00 2.027147e+00 3.000136e+00 2.283756e+00 2.714844e+00 2.567999e+00 2.092400e+00 2.473409e+00 2.290993e+00 1.573470e+00 2.846761e+00
<GCONST> 9.924948e+01
<STATE> 3
<MEAN> 25
 3.517610e-01 -2.708481e-01 9.804839e-01 3.605781e-01 -1.045390e+00 -6.789231e-01 1.193615e-01 3.887533e-02 -5.119968e-01 -8.686457e-01 -1.265118e-02 1.493810e-01 -2.791304e-04 -1.100564e-02 -1.395915e-02 -1.730961e-02 -4.231126e-03 1.701226e-03 2.599720e-02 4.401018e-03 1.788660e-02 1.289999e-02 1.150003e-03 7.689328e-03 1.736688e-02
<VARIANCE> 25
 3.097018e+01 6.170605e+01 3.121570e+01 4.518674e+01 6.417623e+01 4.628867e+01 4.512609e+01 3.582366e+01 2.744747e+01 4.586321e+01 3.013585e+01 1.806295e+01 1.110858e+00 2.079023e+00 1.515618e+00 2.152184e+00 3.070836e+00 2.350323e+00 2.738791e+00 2.624045e+00 2.119921e+00 2.488340e+00 2.329593e+00 1.569542e+00 2.948280e+00
<GCONST> 9.958493e+01
<STATE> 4
<MEAN> 25
 4.612233e-01 -4.967117e-01 8.397088e-01 2.168418e-01 -1.136766e+00 -6.558490e-01 2.493774e-01 4.868039e-02 -3.672891e-01 -8.265874e-01 2.627444e-02 1.785583e-01 1.072440e-02 -9.010658e-03 -2.163928e-02 -2.022042e-02 -2.502811e-03 -6.074095e-03 1.101525e-02 -2.490657e-03 1.140426e-02 1.066141e-02 -3.079971e-03 7.466676e-04 2.091760e-02
<VARIANCE> 25
 3.129407e+01 6.071233e+01 3.270338e+01 4.691716e+01 6.413485e+01 4.652971e+01 4.638061e+01 3.669426e+01 2.741385e+01 4.478137e+01 3.088111e+01 1.796404e+01 1.180416e+00 2.107814e+00 1.575681e+00 2.256721e+00 3.142744e+00 2.395389e+00 2.786059e+00 2.665086e+00 2.158898e+00 2.540655e+00 2.365505e+00 1.572012e+00 3.029984e+00
<GCONST> 1.000319e+02
<TRANSP> 5
 0.000000e+00 1.000000e+00 0.000000e+00 0.000000e+00 0.000000e+00
 0.000000e+00 7.671974e-01 2.328026e-01 0.000000e+00 0.000000e+00
 0.000000e+00 0.000000e+00 7.671972e-01 2.328027e-01 0.000000e+00
 0.000000e+00 0.000000e+00 0.000000e+00 8.966172e-01 1.033828e-01
 0.000000e+00 0.000000e+00 0.000000e+00 0.000000e+00 0.000000e+00
<ENDHMM>
~h "e"
<BEGINHMM>
<NUMSTATES> 5
<STATE> 2
<MEAN> 25
 8.289610e-01 -1.419148e+00 -7.004929e-01 -6.343395e-01 8.945453e-01 1.430495e-01 -1.848523e-01 3.305038e-01 3.227246e-01 -3.967471e-01 -3.606956e-01 -1.376175e-01 2.723834e-02 -8.681549e-03 -9.804174e-03 -3.979113e-02 -4.385903e-03 -1.615183e-02 -2.140121e-02 -1.953656e-02 -3.104387e-02 -2.368146e-02 -1.266869e-02 -4.694575e-03 2.969920e-02
<VARIANCE> 25
 4.865786e+01 8.953677e+01 3.708937e+01 6.732474e+01 4.814661e+01 4.717160e+01 5.663357e+01 4.474277e+01 3.131289e+01 4.819358e+01 3.653378e+01 1.874791e+01 1.818468e+00 2.581571e+00 1.770999e+00 2.585268e+00 2.220575e+00 2.572093e+00 2.603834e+00 2.875314e+00 2.363416e+00 2.786982e+00 2.463733e+00 1.675340e+00 3.238917e+00
<GCONST> 1.028648e+02
<STATE> 3
<MEAN> 25
 9.288998e-01 -1.454099e+00 -7.226446e-01 -7.834149e-01 8.683062e-01 8.520013e-02 -2.769411e-01 2.475326e-01 1.900905e-01 -4.881283e-01 -4.144214e-01 -1.517698e-01 2.371121e-02 -4.199037e-03 -6.405525e-03 -3.652502e-02 -6.885177e-03 -1.530963e-02 -2.256733e-02 -2.282822e-02 -3.223679e-02 -2.123566e-02 -1.325917e-02 -4.400548e-03 2.833758e-02
<VARIANCE> 25
 4.937357e+01 9.098684e+01 3.748351e+01 6.789350e+01 4.919222e+01 4.741870e+01 5.708042e+01 4.529195e+01 3.192791e+01 4.853265e+01 3.654348e+01 1.889383e+01 1.835916e+00 2.605501e+00 1.782654e+00 2.597442e+00 2.264300e+00 2.580901e+00 2.596844e+00 2.876593e+00 2.389810e+00 2.803424e+00 2.465594e+00 1.692347e+00 3.261300e+00
<GCONST> 1.030812e+02
<STATE> 4
<MEAN> 25
 9.996328e-01 -1.633741e+00 -6.442679e-01 -9.169546e-01 7.875931e-01 1.245753e-01 -3.689124e-01 1.254630e-01 4.788756e-02 -5.657895e-01 -4.977380e-01 -1.461604e-01 1.266855e-02 1.692730e-03 2.407556e-03 -2.603321e-02 -9.868472e-03 -6.474952e-03 -1.770540e-02 -2.544105e-02 -2.847295e-02 -1.198467e-02 -1.276924e-02 -2.423417e-03 1.957870e-02
<VARIANCE> 25
 4.938268e+01 9.306467e+01 3.806591e+01 6.836793e+01 5.104575e+01 4.687991e+01 5.711604e+01 4.562597e+01 3.242523e+01 4.805842e+01 3.698431e+01 1.901134e+01 1.824144e+00 2.620690e+00 1.780823e+00 2.585281e+00 2.335920e+00 2.542138e+00 2.573851e+00 2.837774e+00 2.422148e+00 2.792229e+00 2.457409e+00 1.709845e+00 3.225095e+00
<GCONST> 1.031761e+02
<TRANSP> 5
 0.000000e+00 1.000000e+00 0.000000e+00 0.000000e+00 0.000000e+00
 0.000000e+00 7.661458e-01 2.338543e-01 0.000000e+00 0.000000e+00
 0.000000e+00 0.000000e+00 7.661460e-01 2.338540e-01 0.000000e+00
 0.000000e+00 0.000000e+00 0.000000e+00 8.947893e-01 1.052106e-01
 0.000000e+00 0.000000e+00 0.000000e+00 0.000000e+00 0.000000e+00
<ENDHMM>
~h "f"
<BEGINHMM>
<NUMSTATES> 5
<STATE> 2
<MEAN> 25
 -1.141498e-01 -1.132361e+00 -3.930765e-01 1.662205e-01 2.181242e-01 5.083433e-01 3.771674e-01 -8.421494e-03 5.311452e-01 -3.042224e-02 2.133869e-01 1.778822e-01 2.653353e-02 -4.067968e-02 2.464946e-03 -2.414195e-02 -4.960751e-02 -2.728935e-02 1.136808e-02 -1.928912e-02 -1.628628e-02 -3.351004e-02 -4.201663e-02 -1.250574e-02 7.009522e-02
<VARIANCE> 25
 3.598432e+01 7.823921e+01 3.427956e+01 5.560126e+01 5.040170e+01 3.917035e+01 4.285567e+01 3.915337e+01 2.661045e+01 4.224988e+01 3.885667e+01 1.807403e+01 1.386320e+00 2.660049e+00 1.704909e+00 2.545359e+00 2.317648e+00 2.368540e+00 2.749670e+00 2.746784e+00 2.249900e+00 2.691369e+00 2.616387e+00 1.612693e+00 2.683903e+00
<GCONST> 1.007605e+02
<STATE> 3
<MEAN> 25
 4.574886e-02 -1.351107e+00 -3.850219e-01 2.080841e-02 -1.009894e-02 3.633263e-01 4.215125e-01 -1.251847e-01 4.253480e-01 -2.010518e-01 -2.825761e-03 1.003950e-01 4.118598e-02 -5.158880e-02 2.214714e-05 -3.953873e-02 -5.701661e-02 -4.053208e-02 1.129956e-02 -3.187484e-02 -2.610765e-02 -4.318250e-02 -5.652272e-02 -1.953285e-02 8.961345e-02
<VARIANCE> 25
 3.732800e+01 8.077829e+01 3.478049e+01 5.647065e+01 5.206530e+01 4.039534e+01 4.364162e+01 3.994785e+01 2.753944e+01 4.289875e+01 3.841283e+01 1.818235e+01 1.444771e+00 2.729116e+00 1.768453e+00 2.612226e+00 2.381400e+00 2.424367e+00 2.802258e+00 2.845917e+00 2.300598e+00 2.689564e+00 2.652457e+00 1.622348e+00 2.747250e+00
<GCONST> 1.013036e+02
<STATE> 4
<MEAN> 25
 5.141512e-01 -1.984122e+00 -2.851311e-01 -4.375582e-01 -4.881126e-01 8.871644e-02 4.423066e-01 -4.194397e-01 1.230835e-01 -6.145771e-01 -4.536127e-01 -5.036470e-02 5.980505e-02 -6.916189e-02 -7.789561e-04 -6.075862e-02 -6.656597e-02 -5.180727e-02 2.999145e-03 -4.709274e-02 -3.821126e-02 -5.066266e-02 -6.028043e-02 -1.920206e-02 1.127660e-01
<VARIANCE> 25
 4.022474e+01 8.644822e+01 3.605932e+01 5.974556e+01 5.640926e+01 4.275729e+01 4.567089e+01 4.161527e+01 2.872029e+01 4.434309e+01 3.836066e+01 1.804658e+01 1.558162e+00 2.875373e+00 1.858463e+00 2.716545e+00 2.501696e+00 2.525099e+00 2.904361e+00 2.992932e+00 2.351393e+00 2.733672e+00 2.726125e+00 1.639957e+00 2.923576e+00
<GCONST> 1.023594e+02
<TRANSP> 5
 0.000000e+00 1.000000e+00 0.000000e+00 0.000000e+00 0.000000e+00
 0.000000e+00 7.698307e-01 2.301693e-01 0.000000e+00 0.000000e+00
 0.000000e+00 0.000000e+00 7.698303e-01 2.301696e-01 0.000000e+00
 0.000000e+00 0.000000e+00 0.000000e+00 8.990850e-01 1.009150e-01
 0.000000e+00 0.000000e+00 0.000000e+00 0.000000e+00 0.000000e+00
<ENDHMM>
~h "g"
<BEGINHMM>
<NUMSTATES> 5
<STATE> 2
<MEAN> 25
 3.128839e-01 -2.107523e-01 -3.779058e-01 -8.859158e-01 -8.058004e-01 -9.784628e-01 -1.851760e-01 -3.409691e-01 -1.143123e-01 6.944142e-02 -6.812013e-01 4.632524e-01 -3.006009e-02 2.228631e-02 1.304410e-02 4.923470e-03 -1.099991e-02 5.346131e-03 1.101899e-02 1.097531e-02 6.863201e-04 1.868495e-02 4.459939e-03 -3.501993e-04 -1.078282e-02
<VARIANCE> 25
 4.986153e+01 7.304826e+01 3.257042e+01 6.601436e+01 6.708104e+01 4.971316e+01 6.520668e+01 4.556145e+01 2.876481e+01 4.080792e+01 4.266618e+01 1.983647e+01 1.885653e+00 2.633416e+00 1.739619e+00 2.827582e+00 2.750153e+00 2.671416e+00 3.569285e+00 2.855108e+00 2.427101e+00 2.499293e+00 2.552521e+00 1.790014e+00 2.960189e+00
<GCONST> 1.036570e+02
<STATE> 3
<MEAN> 25
 1.675934e-01 -9.489124e-02 -3.108778e-01 -8.369623e-01 -8.290360e-01 -9.282492e-01 -1.230491e-01 -2.805025e-01 -1.085371e-01 1.674608e-01 -6.366901e-01 4.505642e-01 -3.488052e-02 3.072978e-02 1.690291e-02 1.868042e-02 1.931262e-03 1.434699e-02 1.355037e-02 1.616253e-02 3.018053e-03 2.445328e-02 1.523280e-02 -4.193838e-03 -3.216504e-02
<VARIANCE> 25
 5.030433e+01 7.322054e+01 3.281467e+01 6.525797e+01 6.687331e+01 4.979378e+01 6.588235e+01 4.579221e+01 2.879614e+01 4.067973e+01 4.314344e+01 1.994382e+01 1.878064e+00 2.562948e+00 1.751917e+00 2.767590e+00 2.711399e+00 2.624523e+00 3.592042e+00 2.829885e+00 2.404128e+00 2.480886e+00 2.514422e+00 1.779194e+00 2.840599e+00
<GCONST> 1.035332e+02
<STATE> 4
<MEAN> 25
 -2.039073e-02 -2.504697e-02 -1.183383e-01 -6.975517e-01 -8.207226e-01 -7.194789e-01 -9.003180e-02 -2.163263e-01 -9.066935e-02 3.118385e-01 -4.652305e-01 3.874868e-01 -4.222838e-02 4.147676e-02 2.117675e-02 3.530525e-02 1.896601e-02 2.593060e-02 1.974666e-02 1.999245e-02 6.223885e-03 3.390260e-02 3.004047e-02 -8.867249e-03 -5.967752e-02
<VARIANCE> 25
 5.144173e+01 7.714615e+01 3.349708e+01 6.426418e+01 6.662919e+01 4.816785e+01 6.713741e+01 4.639415e+01 2.857369e+01 4.069741e+01 4.191282e+01 1.971390e+01 1.851468e+00 2.527146e+00 1.762909e+00 2.695091e+00 2.626785e+00 2.512452e+00 3.592972e+00 2.783700e+00 2.367852e+00 2.452398e+00 2.382859e+00 1.743049e+00 2.706805e+00
<GCONST> 1.032709e+02
<TRANSP> 5
 0.000000e+00 1.000000e+00 0.000000e+00 0.000000e+00 0.000000e+00
 0.000000e+00 7.786072e-01 2.213927e-01 0.000000e+00 0.000000e+00
 0.000000e+00 0.000000e+00 7.786073e-01 2.213927e-01 0.000000e+00
 0.000000e+00 0.000000e+00 0.000000e+00 9.083245e-01 9.167555e-02
 0.000000e+00 0.000000e+00 0.000000e+00 0.000000e+00 0.000000e+00
<ENDHMM>
~h "h"
<BEGINHMM>
<NUMSTATES> 5
<STATE> 2
<MEAN> 25
 3.233115e-01 -4.445125e-01 -3.728163e-01 -1.703327e+00 1.444272e+00 1.272498e+00 -1.062114e+00 -3.469524e-01 5.541877e-02 9.546494e-02 -2.290166e-01 1.821452e-02 4.525352e-02 2.056473e-02 -3.933715e-02 -6.320694e-02 -2.579355e-02 -2.321129e-02 -2.636769e-02 -5.335603e-02 -7.151417e-03 1.173255e-03 -1.866492e-02 -5.616177e-03 3.227557e-02
<VARIANCE> 25
 4.016960e+01 5.948242e+01 3.656911e+01 8.541181e+01 4.943447e+01 3.795796e+01 5.866196e+01 4.059341e+01 2.989389e+01 3.906260e+01 3.207075e+01 1.990215e+01 1.356210e+00 1.747504e+00 1.355819e+00 2.293936e+00 2.267094e+00 2.077598e+00 2.586357e+00 2.366074e+00 2.146284e+00 2.300428e+00 2.000913e+00 1.616949e+00 1.709218e+00
<GCONST> 9.927228e+01
<STATE> 3
<MEAN> 25
 5.286810e-01 -3.360139e-01 -5.217604e-01 -1.974398e+00 1.263747e+00 1.131476e+00 -1.190915e+00 -5.992219e-01 1.010554e-02 6.442436e-02 -3.148656e-01 3.081198e-02 4.366267e-02 3.097524e-02 -2.961736e-02 -5.025113e-02 -4.638352e-02 -3.658150e-02 -2.700185e-02 -5.452472e-02 -1.036072e-02 -6.592082e-03 -1.728957e-02 4.262424e-03 2.847516e-02
<VARIANCE> 25
 4.083246e+01 5.887618e+01 3.752896e+01 8.765813e+01 5.026712e+01 3.914530e+01 5.928371e+01 4.132120e+01 2.974488e+01 3.896856e+01 3.196293e+01 2.006381e+01 1.408525e+00 1.801773e+00 1.420529e+00 2.355516e+00 2.329733e+00 2.157480e+00 2.658771e+00 2.386170e+00 2.157511e+00 2.311339e+00 2.011134e+00 1.629358e+00 1.764035e+00
<GCONST> 9.970028e+01
<STATE> 4
<MEAN> 25
 9.284303e-01 -1.044266e-01 -7.326840e-01 -2.412604e+00 6.901122e-01 7.043955e-01 -1.493502e+00 -1.025389e+00 -1.876447e-01 -1.111117e-01 -4.569073e-01 1.234536e-01 3.039727e-02 4.076542e-02 -1.042376e-02 -2.164621e-02 -6.589294e-02 -5.104040e-02 -2.685448e-02 -3.530740e-02 -1.637266e-02 -8.669325e-03 -9.497806e-03 1.086523e-02 2.102667e-02
<VARIANCE> 25
 4.205744e+01 5.774440e+01 3.878439e+01 9.208903e+01 5.213035e+01 4.213404e+01 6.167276e+01 4.254383e+01 3.018628e+01 3.949184e+01 3.232864e+01 2.010673e+01 1.496734e+00 1.911789e+00 1.532852e+00 2.469351e+00 2.447782e+00 2.300299e+00 2.801775e+00 2.415513e+00 2.185313e+00 2.360826e+00 2.069402e+00 1.666585e+00 1.889655e+00
<GCONST> 1.005882e+02
<TRANSP> 5
 0.000000e+00 1.000000e+00 0.000000e+00 0.000000e+00 0.000000e+00
 0.000000e+00 7.745401e-01 2.254599e-01 0.000000e+00 0.000000e+00
 0.000000e+00 0.000000e+00 7.745396e-01 2.254604e-01 0.000000e+00
 0.000000e+00 0.000000e+00 0.000000e+00 9.030778e-01 9.692217e-02
 0.000000e+00 0.000000e+00 0.000000e+00 0.000000e+00 0.000000e+00
<ENDHMM>
~h "i"
<BEGINHMM>
<NUMSTATES> 5
<STATE> 2
<MEAN> 25
 -4.234170e-01 6.957553e-01 1.545034e+00 -5.004069e-02 -1.485999e+00 8.413926e-02 -4.840297e-01 -3.120517e-01 1.906154e-01 3.098904e-01 9.872187e-02 2.742282e-01 -3.075751e-02 1.276864e-02 -5.562217e-03 5.291218e-02 4.067163e-02 2.402254e-02 2.931576e-02 4.371697e-02 1.101533e-02 1.485089e-02 2.815418e-02 3.237569e-03 -5.024693e-02
<VARIANCE> 25
 4.293610e+01 8.123395e+01 4.801451e+01 6.151913e+01 7.205879e+01 4.326667e+01 7.239571e+01 4.628736e+01 2.716995e+01 3.955006e+01 3.495528e+01 1.823764e+01 1.559584e+00 2.560059e+00 2.166622e+00 2.757586e+00 3.078063e+00 2.550573e+00 3.547580e+00 2.837796e+00 2.176513e+00 2.488772e+00 2.309649e+00 1.681754e+00 2.588526e+00
<GCONST> 1.032334e+02
<STATE> 3
<MEAN> 25
 -5.670891e-01 7.414771e-01 1.503448e+00 1.900735e-01 -1.280476e+00 2.022070e-01 -3.299897e-01 -1.089581e-01 2.451814e-01 3.748447e-01 2.228049e-01 2.858350e-01 -2.643676e-02 5.009314e-03 -1.265992e-02 5.032877e-02 5.216674e-02 2.295097e-02 3.356977e-02 4.202581e-02 9.614861e-03 1.269026e-02 2.425302e-02 8.018636e-04 -4.909553e-02
<VARIANCE> 25
 4.231046e+01 7.987788e+01 4.665126e+01 6.014015e+01 7.125385e+01 4.240781e+01 7.068265e+01 4.560130e+01 2.695908e+01 3.932995e+01 3.438624e+01 1.807136e+01 1.527628e+00 2.524005e+00 2.092044e+00 2.674378e+00 3.005893e+00 2.494882e+00 3.468119e+00 2.796357e+00 2.177413e+00 2.463428e+00 2.288375e+00 1.667703e+00 2.549009e+00
<GCONST> 1.028147e+02
<STATE> 4
<MEAN> 25
 -7.490070e-01 7.698740e-01 1.352809e+00 4.501510e-01 -9.023198e-01 3.489343e-01 -7.399134e-02 1.462375e-01 3.093922e-01 4.269183e-01 3.501464e-01 2.829034e-01 -2.484429e-02 2.519133e-03 -1.864872e-02 4.449262e-02 6.370244e-02 2.070067e-02 3.754628e-02 3.894990e-02 9.856278e-03 1.367913e-02 1.915056e-02 -3.275783e-04 -5.030582e-02
<VARIANCE> 25
 4.184199e+01 7.781927e+01 4.517634e+01 5.860552e+01 6.868853e+01 4.064331e+01 6.827121e+01 4.424906e+01 2.648630e+01 3.963433e+01 3.354725e+01 1.775210e+01 1.489700e+00 2.431684e+00 1.991759e+00 2.523952e+00 2.852055e+00 2.388935e+00 3.340379e+00 2.702525e+00 2.164501e+00 2.415417e+00 2.235081e+00 1.640934e+00 2.444902e+00
<GCONST> 1.020789e+02
<TRANSP> 5
 0.000000e+00 1.000000e+00 0.000000e+00 0.000000e+00 0.000000e+00
 0.000000e+00 7.749320e-01 2.250680e-01 0.000000e+00 0.000000e+00
 0.000000e+00 0.000000e+00 7.749316e-01 2.250684e-01 0.000000e+00
 0.000000e+00 0.000000e+00 0.000000e+00 9.048070e-01 9.519298e-02
 0.000000e+00 0.000000e+00 0.000000e+00 0.000000e+00 0.000000e+00
<ENDHMM>
~h "j"
<BEGINHMM>
<NUMSTATES> 5
<STATE> 2
<MEAN> 25
 8.643306e-02 3.289671e-01 6.234829e-02 -7.632584e-01 -1.294039e+00 -8.423937e-01 1.059950e-01 -1.986114e-01 -3.739041e-01 1.523770e-01 -1.271636e-01 7.440059e-01 -6.795734e-03 4.220707e-03 -2.587894e-02 -4.575115e-02 -2.343628e-02 -1.993164e-02 3.878239e-02 -1.323749e-02 -1.845433e-02 5.230474e-03 -4.813335e-03 5.774237e-03 4.522573e-02
<VARIANCE> 25
 2.942289e+01 2.897841e+01 3.294528e+01 4.087161e+01 6.084976e+01 4.186597e+01 4.335490e+01 2.950051e+01 3.521516e+01 4.185888e+01 3.992859e+01 1.776890e+01 1.974615e+00 1.398094e+00 1.961749e+00 1.644659e+00 4.229178e+00 2.213799e+00 3.000884e+00 2.613039e+00 2.559962e+00 2.592438e+00 2.361625e+00 1.497063e+00 2.009216e+00
<GCONST> 9.909375e+01
<STATE> 3
<MEAN> 25
 6.270240e-02 3.502226e-01 -5.110363e-02 -9.458648e-01 -1.389566e+00 -9.317030e-01 2.648798e-01 -2.577835e-01 -4.565875e-01 1.638893e-01 -1.403636e-01 7.654142e-01 -7.446789e-03 3.578816e-04 -2.450518e-02 -3.458075e-02 -1.684784e-02 -1.606133e-02 3.517540e-02 -7.712103e-03 -1.074158e-02 -3.269325e-03 -3.024801e-03 4.732852e-03 4.035184e-02
<VARIANCE> 25
 3.093920e+01 2.862125e+01 3.391192e+01 4.230146e+01 6.077354e+01 4.244453e+01 4.282281e+01 2.970702e+01 3.538069e+01 4.299308e+01 4.005959e+01 1.783779e+01 2.054523e+00 1.409685e+00 1.981302e+00 1.690800e+00 4.339831e+00 2.267660e+00 2.960778e+00 2.629034e+00 2.549533e+00 2.634072e+00 2.406643e+00 1.496933e+00 2.052990e+00
<GCONST> 9.942080e+01
<STATE> 4
<MEAN> 25
 3.377935e-02 3.764389e-01 -2.440607e-01 -1.040759e+00 -1.366328e+00 -1.037630e+00 4.267412e-01 -3.149844e-01 -5.299389e-01 1.352710e-01 -8.436117e-02 7.930771e-01 -4.179372e-03 -2.462117e-04 -1.826100e-02 -9.413943e-03 -7.024989e-03 -1.448637e-02 2.086515e-02 -4.838380e-03 -3.561811e-03 -1.659247e-02 2.536572e-03 -7.925829e-04 2.542021e-02
<VARIANCE> 25
 3.255167e+01 2.800879e+01 3.446078e+01 4.320922e+01 5.954200e+01 4.407693e+01 4.284686e+01 2.991540e+01 3.602413e+01 4.470373e+01 4.066166e+01 1.774628e+01 2.118715e+00 1.362661e+00 1.934987e+00 1.675893e+00 4.261240e+00 2.359744e+00 2.840856e+00 2.572629e+00 2.523778e+00 2.650534e+00 2.451638e+00 1.494720e+00 1.987991e+00
<GCONST> 9.948267e+01
<TRANSP> 5
 0.000000e+00 1.000000e+00 0.000000e+00 0.000000e+00 0.000000e+00
 0.000000e+00 7.761015e-01 2.238985e-01 0.000000e+00 0.000000e+00
 0.000000e+00 0.000000e+00 7.761015e-01 2.238984e-01 0.000000e+00
 0.000000e+00 0.000000e+00 0.000000e+00 9.055296e-01 9.447037e-02
 0.000000e+00 0.000000e+00 0.000000e+00 0.000000e+00 0.000000e+00
<ENDHMM>
~h "k"
<BEGINHMM>
<NUMSTATES> 5
<STATE> 2
<MEAN> 25
 5.388654e-01 -8.638178e-01 -6.280112e-01 -4.349968e-01 8.882416e-01 2.612282e-01 5.125572e-03 -1.512379e-01 2.151657e-02 3.188891e-02 -3.680295e-02 -2.276922e-01 4.126111e-02 -7.041075e-03 -8.959842e-03 -3.173997e-02 -1.553281e-02 -3.727087e-02 -3.028612e-02 -4.189280e-02 -2.473370e-02 -3.191505e-02 -1.659933e-02 -1.511191e-02 3.567559e-02
<VARIANCE> 25
 4.450666e+01 7.174910e+01 3.892682e+01 6.404838e+01 4.618624e+01 4.252253e+01 5.310910e+01 4.687900e+01 2.845029e+01 4.465030e+01 3.474554e+01 1.722116e+01 1.778727e+00 2.332175e+00 1.987177e+00 2.946431e+00 2.304389e+00 2.496542e+00 2.989036e+00 3.002050e+00 2.378255e+00 2.851330e+00 2.482438e+00 1.583552e+00 3.136814e+00
<GCONST> 1.023411e+02
<STATE> 3
<MEAN> 25
 6.613535e-01 -8.842192e-01 -6.259205e-01 -4.922041e-01 8.137717e-01 1.121850e-01 -8.163106e-02 -2.870676e-01 -4.587242e-02 -6.679419e-02 -8.021612e-02 -2.758639e-01 2.696055e-02 -5.935918e-03 3.777640e-03 -1.133870e-02 -1.975914e-02 -3.360254e-02 -2.055317e-02 -3.135379e-02 -1.486166e-02 -2.194091e-02 -8.786533e-03 -1.061310e-02 2.485804e-02
<VARIANCE> 25
 4.480212e+01 7.232506e+01 3.846933e+01 6.397166e+01 4.654877e+01 4.336955e+01 5.415032e+01 4.831025e+01 2.834662e+01 4.476128e+01 3.498013e+01 1.746307e+01 1.763114e+00 2.362212e+00 1.950572e+00 2.866193e+00 2.301954e+00 2.490156e+00 2.991498e+00 2.996877e+00 2.340724e+00 2.831437e+00 2.455709e+00 1.605332e+00 3.147884e+00
<GCONST> 1.023760e+02
<STATE> 4
<MEAN> 25
 6.223397e-01 -9.669390e-01 -5.527084e-01 -4.009594e-01 6.469284e-01 4.336642e-02 -8.572100e-02 -3.034218e-01 -4.898279e-02 -1.284049e-01 -1.017876e-01 -2.780490e-01 1.111685e-03 -4.301484e-03 4.419759e-03 3.764985e-03 -1.579060e-02 -9.891992e-03 3.347192e-03 -5.337426e-03 -5.516609e-03 -2.440609e-03 -4.140738e-03 -7.758337e-04 1.150039e-02
<VARIANCE> 25
 4.473705e+01 7.461977e+01 3.705240e+01 6.201227e+01 4.705484e+01 4.281437e+01 5.591510e+01 4.774662e+01 2.774910e+01 4.389770e+01 3.504844e+01 1.779097e+01 1.768866e+00 2.481811e+00 1.862707e+00 2.666473e+00 2.308629e+00 2.427765e+00 3.062980e+00 2.920821e+00 2.280916e+00 2.732754e+00 2.389310e+00 1.645679e+00 3.185497e+00
<GCONST> 1.021928e+02
<TRANSP> 5
 0.000000e+00 1.000000e+00 0.000000e+00 0.000000e+00 0.000000e+00
 0.000000e+00 7.719979e-01 2.280021e-01 0.000000e+00 0.000000e+00
 0.000000e+00 0.000000e+00 7.719990e-01 2.280010e-01 0.000000e+00
 0.000000e+00 0.000000e+00 0.000000e+00 9.015446e-01 9.845541e-02
 0.000000e+00 0.000000e+00 0.000000e+00 0.000000e+00 0.000000e+00
<ENDHMM>
~h "l"
<BEGINHMM>
<NUMSTATES> 5
<STATE> 2
<MEAN> 25
 1.294021e+00 -4.182016e-01 -8.824605e-01 -2.060127e+00 -2.776931e-01 -4.926437e-01 -1.144125e+00 -1.304724e+00 -1.065632e-01 -6.433578e-01 -1.071749e+00 -2.098082e-01 -6.562889e-02 1.693747e-02 6.145727e-02 1.061123e-01 -2.712007e-02 1.270310e-02 2.645980e-02 6.121724e-02 3.131770e-02 2.129539e-02 4.453953e-02 2.096150e-02 -5.675719e-02
<VARIANCE> 25
 4.792778e+01 7.013811e+01 4.525195e+01 7.819678e+01 5.832134e+01 4.803514e+01 6.536299e+01 5.085807e+01 3.328561e+01 4.238592e+01 4.090817e+01 2.048524e+01 1.350426e+00 1.960988e+00 1.962155e+00 2.448284e+00 2.811046e+00 2.442683e+00 2.818163e+00 2.637465e+00 2.219332e+00 2.375202e+00 2.259146e+00 1.684917e+00 1.988357e+00
<GCONST> 1.024306e+02
<STATE> 3
<MEAN> 25
 9.922950e-01 -3.371067e-01 -6.264739e-01 -1.586339e+00 -3.776282e-01 -4.030494e-01 -1.008592e+00 -1.018690e+00 3.716337e-02 -5.377877e-01 -8.659210e-01 -1.226466e-01 -7.522120e-02 1.905659e-02 5.940260e-02 1.129203e-01 -1.684418e-02 3.139369e-02 3.498046e-02 7.504800e-02 3.327187e-02 2.834401e-02 5.276718e-02 2.081513e-02 -6.786403e-02
<VARIANCE> 25
 4.754173e+01 6.979676e+01 4.449245e+01 7.490885e+01 5.892283e+01 4.798741e+01 6.553989e+01 5.065064e+01 3.292798e+01 4.248389e+01 4.072821e+01 2.022074e+01 1.335568e+00 1.968527e+00 1.952843e+00 2.416910e+00 2.862571e+00 2.439590e+00 2.850346e+00 2.653891e+00 2.211059e+00 2.387651e+00 2.258380e+00 1.697899e+00 2.005068e+00
<GCONST> 1.023665e+02
<STATE> 4
<MEAN> 25
 4.973406e-01 -1.598768e-01 -2.620177e-01 -9.019721e-01 -5.050243e-01 -1.459369e-01 -7.051532e-01 -5.299843e-01 2.693266e-01 -3.118149e-01 -5.493045e-01 -1.785478e-02 -7.802761e-02 2.336509e-02 4.622586e-02 1.069390e-01 -1.372115e-03 4.931966e-02 4.389586e-02 8.125804e-02 2.989776e-02 3.343529e-02 5.542024e-02 1.723036e-02 -7.336699e-02
<VARIANCE> 25
 4.617052e+01 6.725167e+01 4.280520e+01 7.077374e+01 5.883117e+01 4.689742e+01 6.453154e+01 4.970825e+01 3.201858e+01 4.174963e+01 4.056247e+01 1.958217e+01 1.289857e+00 1.908112e+00 1.914607e+00 2.333448e+00 2.890661e+00 2.384426e+00 2.828073e+00 2.624613e+00 2.182949e+00 2.348403e+00 2.242890e+00 1.680396e+00 1.973637e+00
<GCONST> 1.018488e+02
<TRANSP> 5
 0.000000e+00 1.000000e+00 0.000000e+00 0.000000e+00 0.000000e+00
 0.000000e+00 7.707934e-01 2.292066e-01 0.000000e+00 0.000000e+00
 0.000000e+00 0.000000e+00 7.707933e-01 2.292067e-01 0.000000e+00
 0.000000e+00 0.000000e+00 0.000000e+00 8.994926e-01 1.005075e-01
 0.000000e+00 0.000000e+00 0.000000e+00 0.000000e+00 0.000000e+00
<ENDHMM>
~h "m"
<BEGINHMM>
<NUMSTATES> 5
<STATE> 2
<MEAN> 25
 9.521105e-01 2.598317e-03 4.923479e-01 3.109669e-01 -4.716510e-01 -1.320351e+00 -1.376188e+00 -8.091219e-01 -1.215411e+00 -1.424341e+00 6.756282e-03 -3.503689e-01 -2.191927e-02 4.372087e-03 -1.413868e-02 -9.038022e-03 2.130230e-03 1.342895e-02 1.550885e-02 1.410682e-02 -3.832219e-03 -1.040471e-02 1.146955e-02 8.201929e-03 1.497507e-02
<VARIANCE> 25
 4.811226e+01 8.182607e+01 3.194754e+01 4.583830e+01 5.272337e+01 5.318546e+01 7.494755e+01 4.717680e+01 3.334446e+01 5.756703e+01 3.064884e+01 2.025523e+01 1.691503e+00 2.696125e+00 1.757662e+00 2.419281e+00 2.471798e+00 2.682464e+00 3.088653e+00 2.967565e+00 2.384931e+00 2.794113e+00 2.143690e+00 1.767427e+00 2.895247e+00
<GCONST> 1.029785e+02
<STATE> 3
<MEAN> 25
 8.359092e-01 5.522613e-02 4.075440e-01 2.878965e-01 -4.196808e-01 -1.239774e+00 -1.291723e+00 -7.280582e-01 -1.205206e+00 -1.435647e+00 5.027370e-02 -3.208109e-01 -3.038573e-02 1.312462e-02 -2.072321e-02 -3.141840e-03 1.402047e-02 2.098040e-02 2.102151e-02 2.181508e-02 4.165168e-03 -1.416540e-03 1.023838e-02 6.782534e-03 -9.010411e-04
<VARIANCE> 25
 4.927262e+01 8.323354e+01 3.181071e+01 4.509541e+01 5.268296e+01 5.319083e+01 7.543113e+01 4.652122e+01 3.316428e+01 5.747364e+01 3.057760e+01 2.000099e+01 1.737591e+00 2.662807e+00 1.749042e+00 2.393658e+00 2.455924e+00 2.673952e+00 3.067719e+00 2.935510e+00 2.349743e+00 2.762209e+00 2.134651e+00 1.751519e+00 2.839586e+00
<GCONST> 1.028811e+02
<STATE> 4
<MEAN> 25
 5.033707e-01 1.723860e-01 1.855287e-01 3.450393e-01 -1.381634e-01 -9.426967e-01 -1.006176e+00 -4.442497e-01 -1.036168e+00 -1.241054e+00 1.420629e-01 -2.578052e-01 -4.069107e-02 2.087859e-02 -2.149434e-02 6.982291e-03 2.654636e-02 3.280866e-02 3.488004e-02 3.554226e-02 1.564376e-02 2.294959e-02 9.711357e-03 5.821507e-03 -3.326579e-02
<VARIANCE> 25
 4.989364e+01 8.416743e+01 3.159579e+01 4.407472e+01 5.146965e+01 5.103141e+01 7.454964e+01 4.430509e+01 3.266373e+01 5.607357e+01 2.992038e+01 1.958786e+01 1.772859e+00 2.568885e+00 1.724902e+00 2.334236e+00 2.383445e+00 2.577259e+00 2.995486e+00 2.811697e+00 2.289404e+00 2.680623e+00 2.091987e+00 1.709022e+00 2.693939e+00
<GCONST> 1.023254e+02
<TRANSP> 5
 0.000000e+00 1.000000e+00 0.000000e+00 0.000000e+00 0.000000e+00
 0.000000e+00 7.668652e-01 2.331347e-01 0.000000e+00 0.000000e+00
 0.000000e+00 0.000000e+00 7.668649e-01 2.331351e-01 0.000000e+00
 0.000000e+00 0.000000e+00 0.000000e+00 8.955157e-01 1.044843e-01
 0.000000e+00 0.000000e+00 0.000000e+00 0.000000e+00 0.000000e+00
<ENDHMM>
~h "n"
<BEGINHMM>
<NUMSTATES> 5
<STATE> 2
<MEAN> 25
 3.313685e-01 7.895570e-01 1.005385e+00 5.707992e-01 -6.644533e-01 -7.561467e-01 -2.308885e-01 -1.161183e-01 -5.772763e-01 -4.102653e-01 3.049834e-01 -2.850095e-02 -2.329803e-02 -1.130551e-02 -2.742842e-02 7.072807e-03 5.442267e-02 2.818060e-02 2.059411e-02 2.334112e-02 2.464950e-02 8.925934e-03 8.838989e-03 5.684839e-03 -1.775976e-02
<VARIANCE> 25
 3.486221e+01 5.762155e+01 3.195145e+01 4.632358e+01 6.539007e+01 5.282388e+01 5.837331e+01 4.014375e+01 3.028894e+01 5.160836e+01 3.029873e+01 1.721423e+01 1.156402e+00 1.967628e+00 1.411923e+00 1.960335e+00 2.365438e+00 2.469921e+00 2.732629e+00 2.676069e+00 2.179027e+00 2.557624e+00 2.207847e+00 1.553790e+00 2.178116e+00
<GCONST> 9.969415e+01
<STATE> 3
<MEAN> 25
 2.202279e-01 7.429659e-01 8.753532e-01 6.044394e-01 -4.127593e-01 -6.334757e-01 -1.382722e-01 -1.280423e-02 -4.638509e-01 -3.604129e-01 3.436449e-01 -6.704189e-05 -2.351104e-02 -1.362167e-02 -2.965515e-02 5.019454e-03 5.328869e-02 2.626043e-02 2.136008e-02 2.145872e-02 2.447086e-02 1.063950e-02 7.589193e-03 6.851854e-03 -1.381985e-02
<VARIANCE> 25
 3.437637e+01 5.717909e+01 3.190540e+01 4.681975e+01 6.281232e+01 5.178855e+01 5.741671e+01 3.991159e+01 3.017367e+01 5.168148e+01 3.028558e+01 1.727623e+01 1.149407e+00 1.943461e+00 1.399950e+00 1.923942e+00 2.316555e+00 2.422219e+00 2.686413e+00 2.646463e+00 2.176470e+00 2.539907e+00 2.196495e+00 1.553064e+00 2.169075e+00
<GCONST> 9.946790e+01
<STATE> 4
<MEAN> 25
 -6.595756e-03 6.862341e-01 5.933723e-01 6.882995e-01 5.192010e-02 -4.116329e-01 8.003952e-02 1.669684e-01 -2.843355e-01 -2.257095e-01 4.152587e-01 2.194956e-02 -2.208927e-02 -1.023973e-02 -3.045166e-02 6.041591e-03 4.692328e-02 2.026365e-02 2.054120e-02 1.597638e-02 2.250686e-02 1.611479e-02 5.143784e-03 5.010105e-03 -1.090496e-02
<VARIANCE> 25
 3.393199e+01 5.677652e+01 3.137749e+01 4.759057e+01 5.821417e+01 4.955925e+01 5.681679e+01 3.962195e+01 2.991814e+01 5.164296e+01 3.018544e+01 1.727923e+01 1.152824e+00 1.911674e+00 1.371384e+00 1.875296e+00 2.243022e+00 2.353248e+00 2.633297e+00 2.602377e+00 2.152061e+00 2.503538e+00 2.168080e+00 1.538074e+00 2.150074e+00
<GCONST> 9.908239e+01
<TRANSP> 5
 0.000000e+00 1.000000e+00 0.000000e+00 0.000000e+00 0.000000e+00
 0.000000e+00 7.691960e-01 2.308040e-01 0.000000e+00 0.000000e+00
 0.000000e+00 0.000000e+00 7.691964e-01 2.308037e-01 0.000000e+00
 0.000000e+00 0.000000e+00 0.000000e+00 8.972149e-01 1.027851e-01
 0.000000e+00 0.000000e+00 0.000000e+00 0.000000e+00 0.000000e+00
<ENDHMM>
~h "o"
<BEGINHMM>
<NUMSTATES> 5
<STATE> 2
<MEAN> 25
 1.191219e+00 3.987370e-01 -7.130439e-01 -2.422627e+00 -4.665723e-01 -1.383665e-01 -8.631178e-01 -1.708859e+00 -5.283237e-01 -2.909111e-03 -8.105724e-01 -2.383969e-01 -3.419402e-02 -5.454169e-03 4.573093e-02 5.391081e-02 -2.664072e-02 1.041715e-02 9.187663e-03 1.642064e-02 1.828987e-02 5.219738e-03 1.571693e-02 9.920040e-03 -5.681273e-03
<VARIANCE> 25
 5.197219e+01 6.066434e+01 4.779463e+01 8.736708e+01 5.675920e+01 5.068684e+01 6.453885e+01 5.397165e+01 2.969880e+01 4.056559e+01 3.660389e+01 1.973482e+01 1.679127e+00 1.899624e+00 2.159035e+00 2.903530e+00 2.550517e+00 2.575831e+00 2.888159e+00 2.679399e+00 2.288493e+00 2.518354e+00 2.209491e+00 1.658170e+00 2.295521e+00
<GCONST> 1.029419e+02
<STATE> 3
<MEAN> 25
 1.007491e+00 3.862525e-01 -5.183415e-01 -2.167530e+00 -5.525530e-01 -5.152673e-02 -7.842674e-01 -1.590256e+00 -4.360136e-01 3.059880e-02 -7.283583e-01 -1.867277e-01 -4.876058e-02 -7.467989e-03 4.999149e-02 6.780592e-02 -1.922587e-02 2.414191e-02 2.067999e-02 3.408950e-02 2.441695e-02 8.471652e-03 2.165189e-02 1.231712e-02 -1.733162e-02
<VARIANCE> 25
 5.218781e+01 6.250993e+01 4.723995e+01 8.545989e+01 5.746688e+01 4.989492e+01 6.568505e+01 5.344761e+01 2.941601e+01 4.051522e+01 3.664198e+01 1.970461e+01 1.676934e+00 1.936332e+00 2.118206e+00 2.834159e+00 2.582266e+00 2.567114e+00 2.932139e+00 2.641904e+00 2.258130e+00 2.482009e+00 2.179286e+00 1.669047e+00 2.267901e+00
<GCONST> 1.028728e+02
<STATE> 4
<MEAN> 25
 4.379013e-01 5.900401e-01 -1.802560e-01 -1.605165e+00 -4.920551e-01 2.904138e-01 -4.709277e-01 -1.174292e+00 -1.779068e-01 2.349756e-01 -4.767888e-01 -4.299903e-02 -6.095813e-02 5.608606e-04 4.877626e-02 8.354483e-02 3.540386e-04 3.609277e-02 2.876459e-02 4.788447e-02 3.242094e-02 1.227034e-02 3.186255e-02 1.182071e-02 -4.013966e-02
<VARIANCE> 25
 5.172548e+01 6.497411e+01 4.621801e+01 8.262444e+01 5.835724e+01 4.768404e+01 6.759221e+01 5.132325e+01 2.866009e+01 3.990123e+01 3.681671e+01 1.946916e+01 1.606544e+00 1.919174e+00 2.019569e+00 2.671548e+00 2.575248e+00 2.511512e+00 2.921706e+00 2.523564e+00 2.170743e+00 2.366847e+00 2.111910e+00 1.655979e+00 2.107741e+00
<GCONST> 1.023245e+02
<TRANSP> 5
 0.000000e+00 1.000000e+00 0.000000e+00 0.000000e+00 0.000000e+00
 0.000000e+00 7.706804e-01 2.293196e-01 0.000000e+00 0.000000e+00
 0.000000e+00 0.000000e+00 7.706804e-01 2.293196e-01 0.000000e+00
 0.000000e+00 0.000000e+00 0.000000e+00 8.995948e-01 1.004051e-01
 0.000000e+00 0.000000e+00 0.000000e+00 0.000000e+00 0.000000e+00
<ENDHMM>
~h "p"
<BEGINHMM>
<NUMSTATES> 5
<STATE> 2
<MEAN> 25
 5.105560e-01 -1.481918e+00 -1.916043e-01 -2.265083e-01 -8.053712e-01 -1.656827e-01 2.144769e-01 -3.320219e-01 -3.374940e-01 -9.054219e-01 -1.158313e-01 -2.713089e-01 -3.353575e-02 2.880663e-02 1.874302e-02 -1.571949e-02 -3.690331e-02 -1.357453e-02 1.465148e-02 -5.961444e-03 -1.075653e-02 3.179547e-03 -2.849969e-03 7.082271e-03 7.465206e-03
<VARIANCE> 25
 4.686715e+01 7.512819e+01 3.247810e+01 5.626477e+01 5.228762e+01 4.929921e+01 5.216463e+01 4.502960e+01 3.236782e+01 4.574707e+01 3.209930e+01 1.865117e+01 2.043574e+00 3.127155e+00 1.790951e+00 3.030184e+00 2.503561e+00 2.830903e+00 3.141273e+00 3.169161e+00 2.473726e+00 2.935399e+00 2.574292e+00 1.696776e+00 3.660940e+00
<GCONST> 1.034927e+02
<STATE> 3
<MEAN> 25
 3.491981e-01 -1.338762e+00 -7.663967e-02 -2.669507e-01 -9.698512e-01 -1.918806e-01 2.880514e-01 -3.276493e-01 -3.489142e-01 -8.103572e-01 -1.019990e-01 -2.199644e-01 -3.953355e-02 3.699001e-02 2.825555e-02 -4.787861e-03 -3.553715e-02 -4.806871e-03 1.639686e-02 2.556748e-03 -5.316232e-04 2.492984e-02 4.114109e-03 1.189836e-02 -1.337750e-02
<VARIANCE> 25
 4.704681e+01 7.536450e+01 3.308002e+01 5.546213e+01 5.363966e+01 4.932658e+01 5.262988e+01 4.470608e+01 3.215510e+01 4.512115e+01 3.224561e+01 1.883261e+01 2.014135e+00 3.053858e+00 1.790974e+00 3.028908e+00 2.496403e+00 2.816451e+00 3.188895e+00 3.120904e+00 2.495243e+00 2.907861e+00 2.581667e+00 1.701195e+00 3.566377e+00
<GCONST> 1.034569e+02
<STATE> 4
<MEAN> 25
 8.881843e-02 -1.172560e+00 1.956744e-01 -2.302545e-01 -1.135470e+00 -1.228409e-01 3.883942e-01 -2.040238e-01 -3.096813e-01 -5.795406e-01 -1.173731e-02 -1.281793e-01 -3.933410e-02 2.573493e-02 3.245725e-02 1.481494e-02 -1.343045e-02 1.439709e-02 2.145885e-02 1.845340e-02 6.831098e-03 3.019190e-02 1.054562e-02 9.361768e-03 -3.832616e-02
<VARIANCE> 25
 4.614857e+01 7.488506e+01 3.296221e+01 5.280797e+01 5.613939e+01 4.770563e+01 5.301255e+01 4.292728e+01 3.170402e+01 4.398252e+01 3.277995e+01 1.867077e+01 1.891620e+00 2.895717e+00 1.715655e+00 2.850500e+00 2.403875e+00 2.686985e+00 3.220570e+00 2.931762e+00 2.454069e+00 2.841328e+00 2.573590e+00 1.680965e+00 3.330901e+00
<GCONST> 1.028453e+02
<TRANSP> 5
 0.000000e+00 1.000000e+00 0.000000e+00 0.000000e+00 0.000000e+00
 0.000000e+00 7.718387e-01 2.281613e-01 0.000000e+00 0.000000e+00
 0.000000e+00 0.000000e+00 7.718387e-01 2.281612e-01 0.000000e+00
 0.000000e+00 0.000000e+00 0.000000e+00 8.999258e-01 1.000743e-01
 0.000000e+00 0.000000e+00 0.000000e+00 0.000000e+00 0.000000e+00
<ENDHMM>
~h "r"
<BEGINHMM>
<NUMSTATES> 5
<STATE> 2
<MEAN> 25
 2.749795e-01 -1.012849e+00 4.934666e-01 -6.192642e-02 -9.363678e-01 -1.843599e-01 3.253135e-01 1.837306e-01 -4.939088e-02 -4.302779e-01 -2.524518e-01 -7.560800e-02 -1.120590e-02 4.219970e-02 6.845467e-03 2.066210e-02 2.938563e-02 5.720079e-03 5.066992e-04 2.881649e-03 6.601634e-03 2.534283e-02 1.186993e-02 -5.406157e-03 -6.200599e-02
<VARIANCE> 25
 4.821950e+01 9.684334e+01 3.666613e+01 5.324728e+01 6.319411e+01 4.147019e+01 6.251601e+01 4.203787e+01 3.335577e+01 4.775490e+01 3.477329e+01 1.869252e+01 1.719746e+00 2.608520e+00 1.763909e+00 2.377625e+00 2.689581e+00 2.508953e+00 2.989436e+00 2.753471e+00 2.416368e+00 2.616747e+00 2.436969e+00 1.628165e+00 2.757894e+00
<GCONST> 1.027567e+02
<STATE> 3
<MEAN> 25
 2.133276e-01 -8.198380e-01 5.278073e-01 3.356378e-02 -8.112068e-01 -1.436929e-01 3.344523e-01 2.079409e-01 -1.011145e-02 -3.113394e-01 -1.855825e-01 -8.812291e-02 -1.545804e-02 4.533963e-02 8.679859e-03 2.309362e-02 2.894262e-02 9.782314e-03 2.938944e-03 5.182533e-03 8.615053e-03 2.823307e-02 1.585308e-02 -3.097724e-03 -6.586174e-02
<VARIANCE> 25
 4.772859e+01 9.596596e+01 3.725988e+01 5.275345e+01 6.323779e+01 4.088181e+01 6.230020e+01 4.174470e+01 3.310587e+01 4.747335e+01 3.460750e+01 1.869779e+01 1.677298e+00 2.558476e+00 1.758602e+00 2.336608e+00 2.657146e+00 2.464976e+00 2.935890e+00 2.691867e+00 2.385774e+00 2.579207e+00 2.386659e+00 1.610631e+00 2.684369e+00
<GCONST> 1.024809e+02
<STATE> 4
<MEAN> 25
 9.683201e-02 -5.019778e-01 6.429524e-01 1.240805e-01 -6.897056e-01 -5.407967e-02 3.357035e-01 2.054248e-01 1.930691e-02 -1.252494e-01 -5.919418e-02 -5.864047e-02 -1.969827e-02 4.354959e-02 4.387949e-03 2.376657e-02 3.016273e-02 1.206555e-02 6.542949e-03 4.940308e-03 5.156925e-03 2.598101e-02 1.827085e-02 -1.604474e-03 -6.557102e-02
<VARIANCE> 25
 4.670225e+01 9.520529e+01 3.886277e+01 5.173488e+01 6.332176e+01 3.972635e+01 6.284646e+01 4.145609e+01 3.287737e+01 4.671152e+01 3.436207e+01 1.862001e+01 1.625084e+00 2.486783e+00 1.770170e+00 2.270715e+00 2.640099e+00 2.400920e+00 2.887042e+00 2.623211e+00 2.379366e+00 2.522469e+00 2.317048e+00 1.592000e+00 2.578330e+00
<GCONST> 1.021500e+02
<TRANSP> 5
 0.000000e+00 1.000000e+00 0.000000e+00 0.000000e+00 0.000000e+00
 0.000000e+00 7.696702e-01 2.303298e-01 0.000000e+00 0.000000e+00
 0.000000e+00 0.000000e+00 7.696701e-01 2.303299e-01 0.000000e+00
 0.000000e+00 0.000000e+00 0.000000e+00 8.988151e-01 1.011849e-01
 0.000000e+00 0.000000e+00 0.000000e+00 0.000000e+00 0.000000e+00
<ENDHMM>
~h "s"
<BEGINHMM>
<NUMSTATES> 5
<STATE> 2
<MEAN> 25
 -4.542768e-01 -5.999819e-01 -2.047756e-01 -1.938776e-01 -4.298671e-01 4.173574e-01 -1.013340e-01 -9.621811e-02 3.769422e-01 1.102826e-01 1.696611e-01 8.551382e-02 3.644126e-02 -1.739738e-02 -8.602018e-03 -3.144583e-02 3.134548e-02 -3.204404e-03 -1.308795e-02 -1.169034e-02 1.464633e-03 -7.925720e-03 -1.756226e-02 -5.190244e-03 6.899525e-04
<VARIANCE> 25
 5.399149e+01 8.514123e+01 4.382617e+01 6.431213e+01 5.100229e+01 4.092496e+01 6.520664e+01 4.364934e+01 2.824531e+01 4.406667e+01 3.355484e+01 1.861009e+01 2.178079e+00 2.802598e+00 1.908379e+00 2.951118e+00 2.339815e+00 2.505021e+00 3.545113e+00 2.885324e+00 2.360793e+00 2.822301e+00 2.435673e+00 1.697452e+00 2.710356e+00
<GCONST> 1.034289e+02
<STATE> 3
<MEAN> 25
 -2.837036e-01 -6.705403e-01 -2.295605e-01 -3.354633e-01 -2.948818e-01 3.966348e-01 -1.574101e-01 -1.443980e-01 3.802595e-01 7.892925e-02 1.009039e-01 5.987512e-02 4.261228e-02 -1.733492e-02 -6.425036e-03 -3.562434e-02 3.082915e-02 -4.017383e-03 -1.334530e-02 -1.209356e-02 -5.614924e-04 -9.196050e-03 -1.751936e-02 -5.682856e-03 -4.589810e-03
<VARIANCE> 25
 5.386813e+01 8.601955e+01 4.420333e+01 6.578120e+01 5.124081e+01 4.075840e+01 6.513973e+01 4.413503e+01 2.809785e+01 4.425843e+01 3.387974e+01 1.870351e+01 2.150218e+00 2.812541e+00 1.904987e+00 2.957687e+00 2.332667e+00 2.512117e+00 3.506449e+00 2.868201e+00 2.348284e+00 2.803050e+00 2.432268e+00 1.700675e+00 2.750651e+00
<GCONST> 1.034695e+02
<STATE> 4
<MEAN> 25
 6.786198e-03 -7.436313e-01 -1.756754e-01 -5.524828e-01 -1.746644e-01 3.176032e-01 -2.428630e-01 -2.345663e-01 3.299954e-01 4.570946e-02 2.416391e-02 1.832885e-02 3.082154e-02 -7.560508e-03 7.278239e-04 -2.486449e-02 1.996754e-02 -1.950686e-03 -5.350020e-03 -4.592793e-03 -2.686290e-03 -4.470908e-03 -1.038327e-02 -3.311696e-03 -1.129285e-02
<VARIANCE> 25
 5.332887e+01 8.786375e+01 4.444197e+01 6.790225e+01 5.313190e+01 4.113165e+01 6.542250e+01 4.458520e+01 2.784358e+01 4.428678e+01 3.399670e+01 1.881253e+01 2.069733e+00 2.794438e+00 1.910481e+00 2.935694e+00 2.341788e+00 2.511549e+00 3.434764e+00 2.797242e+00 2.331026e+00 2.746438e+00 2.396499e+00 1.708362e+00 2.798561e+00
<GCONST> 1.034663e+02
<TRANSP> 5
 0.000000e+00 1.000000e+00 0.000000e+00 0.000000e+00 0.000000e+00
 0.000000e+00 7.729548e-01 2.270453e-01 0.000000e+00 0.000000e+00
 0.000000e+00 0.000000e+00 7.729548e-01 2.270451e-01 0.000000e+00
 0.000000e+00 0.000000e+00 0.000000e+00 9.017930e-01 9.820703e-02
 0.000000e+00 0.000000e+00 0.000000e+00 0.000000e+00 0.000000e+00
<ENDHMM>
~h "t"
<BEGINHMM>
<NUMSTATES> 5
<STATE> 2
<MEAN> 25
 6.638175e-01 -7.489524e-01 -2.966967e-01 -1.456412e-01 1.046029e-01 -2.810329e-02 1.829012e-01 1.325870e-01 1.831316e-01 -2.412161e-01 -7.250900e-03 -3.369638e-02 -1.278568e-02 3.777453e-03 -9.554736e-03 3.904301e-03 -3.443053e-03 1.519345e-02 3.366390e-02 4.598510e-03 2.590062e-03 1.402005e-02 -2.327484e-03 -1.923420e-03 -7.693972e-03
<VARIANCE> 25
 4.355943e+01 7.655327e+01 3.095726e+01 5.728027e+01 5.307024e+01 3.851397e+01 5.266380e+01 3.753868e+01 2.529168e+01 4.270205e+01 3.054297e+01 1.761850e+01 1.618068e+00 2.761159e+00 1.666968e+00 2.459214e+00 2.755241e+00 2.501408e+00 3.223176e+00 2.670739e+00 2.189322e+00 2.586891e+00 2.368560e+00 1.710821e+00 3.718384e+00
<GCONST> 1.014618e+02
<STATE> 3
<MEAN> 25
 6.143245e-01 -7.346820e-01 -3.349728e-01 -1.360782e-01 7.518125e-02 3.404466e-02 3.120850e-01 1.437087e-01 1.931343e-01 -1.819892e-01 -2.338541e-02 -4.718645e-02 -1.205719e-02 4.674163e-03 -9.854697e-03 2.414784e-03 -7.279584e-03 1.510702e-02 2.997927e-02 2.334623e-03 2.162374e-03 1.410655e-02 -4.042765e-03 -3.833323e-03 -3.890100e-03
<VARIANCE> 25
 4.385295e+01 7.752427e+01 3.059624e+01 5.676092e+01 5.353015e+01 3.863010e+01 5.256022e+01 3.761690e+01 2.535130e+01 4.257042e+01 3.056860e+01 1.763068e+01 1.624690e+00 2.778141e+00 1.674856e+00 2.471101e+00 2.758979e+00 2.518292e+00 3.214670e+00 2.674762e+00 2.203321e+00 2.577204e+00 2.389421e+00 1.710448e+00 3.710498e+00
<GCONST> 1.015085e+02
<STATE> 4
<MEAN> 25
 7.030566e-01 -8.908163e-01 -3.642087e-01 -2.377577e-01 -8.883908e-02 7.570040e-02 3.341302e-01 1.043972e-01 1.808117e-01 -1.941200e-01 -9.707324e-02 -1.057850e-01 -1.031043e-02 5.027620e-03 -3.535407e-03 -1.607473e-03 -1.553009e-02 1.275836e-02 1.742850e-02 -2.357541e-03 2.749223e-03 1.313477e-02 -6.954083e-03 -5.180962e-03 4.295568e-03
<VARIANCE> 25
 4.589926e+01 8.153580e+01 3.009955e+01 5.733423e+01 5.477391e+01 3.862490e+01 5.335837e+01 3.805822e+01 2.580268e+01 4.314491e+01 3.052700e+01 1.768062e+01 1.650097e+00 2.845598e+00 1.674186e+00 2.526982e+00 2.784454e+00 2.521892e+00 3.189119e+00 2.695268e+00 2.229476e+00 2.575932e+00 2.376552e+00 1.719645e+00 3.705986e+00
<GCONST> 1.017622e+02
<TRANSP> 5
 0.000000e+00 1.000000e+00 0.000000e+00 0.000000e+00 0.000000e+00
 0.000000e+00 7.745754e-01 2.254246e-01 0.000000e+00 0.000000e+00
 0.000000e+00 0.000000e+00 7.745753e-01 2.254247e-01 0.000000e+00
 0.000000e+00 0.000000e+00 0.000000e+00 9.046802e-01 9.531980e-02
 0.000000e+00 0.000000e+00 0.000000e+00 0.000000e+00 0.000000e+00
<ENDHMM>
~h "u"
<BEGINHMM>
<NUMSTATES> 5
<STATE> 2
<MEAN> 25
 6.416699e-01 7.580696e-01 -9.781341e-01 -5.833097e-01 -8.003719e-01 -1.228371e+00 -4.518294e-01 -5.097028e-01 -4.206960e-01 2.676110e-01 -8.262121e-02 6.503939e-02 4.087287e-03 -1.882425e-02 4.121473e-03 -1.516627e-02 -5.880009e-03 1.342952e-03 1.630931e-02 1.419563e-02 2.521177e-03 -9.199285e-03 1.259923e-04 -2.567589e-03 2.257659e-02
<VARIANCE> 25
 5.223897e+01 5.413070e+01 2.745075e+01 5.515368e+01 4.772196e+01 4.691595e+01 6.230346e+01 3.721202e+01 3.420237e+01 4.355187e+01 3.118412e+01 1.867882e+01 1.990870e+00 1.964785e+00 1.491876e+00 2.695167e+00 2.295535e+00 2.510857e+00 3.392132e+00 2.620182e+00 2.572843e+00 2.718451e+00 2.189789e+00 1.701877e+00 2.243521e+00
<GCONST> 1.011130e+02
<STATE> 3
<MEAN> 25
 6.367028e-01 6.395423e-01 -9.345651e-01 -6.262988e-01 -7.933298e-01 -1.180372e+00 -3.675431e-01 -4.242036e-01 -3.815126e-01 2.291695e-01 -6.875602e-02 4.927756e-02 -4.054797e-03 -2.851117e-02 1.236465e-02 -5.411264e-03 6.770138e-03 1.555809e-02 1.973623e-02 2.135608e-02 1.159961e-02 -6.935741e-03 4.706330e-03 -3.358947e-03 1.578627e-02
<VARIANCE> 25
 5.263746e+01 5.533015e+01 2.706665e+01 5.571613e+01 4.776192e+01 4.728745e+01 6.212359e+01 3.757473e+01 3.371084e+01 4.423286e+01 3.166940e+01 1.864850e+01 1.954843e+00 1.966447e+00 1.477347e+00 2.691005e+00 2.275106e+00 2.500951e+00 3.358789e+00 2.617806e+00 2.553723e+00 2.718918e+00 2.199231e+00 1.700719e+00 2.276614e+00
<GCONST> 1.011276e+02
<STATE> 4
<MEAN> 25
 6.880340e-01 2.147376e-01 -7.645511e-01 -7.123175e-01 -7.071298e-01 -9.720574e-01 -2.923039e-01 -2.586181e-01 -2.789354e-01 5.957589e-02 -1.738921e-02 5.195094e-02 -1.110680e-02 -3.666990e-02 1.850917e-02 4.028114e-03 2.000494e-02 3.234003e-02 1.972491e-02 2.713567e-02 1.909700e-02 -5.068770e-03 1.287003e-02 -2.604036e-04 6.566049e-03
<VARIANCE> 25
 5.348339e+01 6.099587e+01 2.642233e+01 5.814220e+01 4.767669e+01 4.671824e+01 6.108007e+01 3.823670e+01 3.248832e+01 4.595428e+01 3.247400e+01 1.841339e+01 1.873936e+00 2.040589e+00 1.437011e+00 2.665883e+00 2.233761e+00 2.443524e+00 3.250792e+00 2.599584e+00 2.501137e+00 2.704739e+00 2.208042e+00 1.702864e+00 2.392292e+00
<GCONST> 1.011650e+02
<TRANSP> 5
 0.000000e+00 1.000000e+00 0.000000e+00 0.000000e+00 0.000000e+00
 0.000000e+00 7.783383e-01 2.216617e-01 0.000000e+00 0.000000e+00
 0.000000e+00 0.000000e+00 7.783378e-01 2.216622e-01 0.000000e+00
 0.000000e+00 0.000000e+00 0.000000e+00 9.077888e-01 9.221124e-02
 0.000000e+00 0.000000e+00 0.000000e+00 0.000000e+00 0.000000e+00
<ENDHMM>
~h "w"
<BEGINHMM>
<NUMSTATES> 5
<STATE> 2
<MEAN> 25
 6.756527e-01 -8.761790e-01 -1.325088e+00 -3.266452e-01 2.587928e+00 -1.515641e-01 -5.324606e-01 -8.686552e-01 1.402083e-01 2.552962e-01 -5.615246e-01 -9.774219e-01 5.714459e-03 -3.661067e-02 1.769258e-03 -1.900895e-02 2.148173e-02 -2.613478e-02 -2.117808e-02 -1.629749e-02 -4.695577e-03 -2.388097e-02 -1.708209e-02 1.078527e-02 2.595461e-02
<VARIANCE> 25
 4.352567e+01 4.126096e+01 2.005215e+01 5.895224e+01 5.069980e+01 3.569391e+01 4.768660e+01 4.292076e+01 3.182031e+01 2.929620e+01 3.306787e+01 2.165436e+01 1.389860e+00 1.978758e+00 1.049999e+00 2.211344e+00 2.621944e+00 2.169399e+00 2.685671e+00 2.500879e+00 2.304877e+00 1.912139e+00 1.895481e+00 1.808996e+00 1.409857e+00
<GCONST> 9.760749e+01
<STATE> 3
<MEAN> 25
 7.156385e-01 -1.040874e+00 -1.323797e+00 -4.282734e-01 2.673838e+00 -2.732426e-01 -6.311914e-01 -9.503400e-01 1.124438e-01 1.475477e-01 -6.458108e-01 -9.256276e-01 1.122369e-02 -3.493547e-02 -2.676289e-04 -2.470572e-02 1.268920e-02 -2.771054e-02 -2.308457e-02 -1.867838e-02 -9.530413e-03 -2.491674e-02 -1.949693e-02 1.386310e-02 2.852874e-02
<VARIANCE> 25
 4.356335e+01 4.151047e+01 2.013769e+01 5.914928e+01 5.033464e+01 3.612138e+01 4.708859e+01 4.404494e+01 3.229205e+01 2.955497e+01 3.338298e+01 2.221459e+01 1.406776e+00 2.011401e+00 1.063164e+00 2.252732e+00 2.676258e+00 2.187309e+00 2.684046e+00 2.555177e+00 2.311370e+00 1.934396e+00 1.924219e+00 1.865441e+00 1.459254e+00
<GCONST> 9.790206e+01
<STATE> 4
<MEAN> 25
 8.168977e-01 -1.299782e+00 -1.362052e+00 -6.513746e-01 2.736243e+00 -4.613980e-01 -7.587427e-01 -1.104447e+00 7.001738e-02 -4.384598e-02 -8.090605e-01 -8.396877e-01 1.742556e-02 -3.404625e-02 -2.882324e-03 -2.997912e-02 2.710308e-03 -2.648966e-02 -2.058620e-02 -1.906423e-02 -1.359889e-02 -2.418220e-02 -2.153155e-02 1.880508e-02 3.007479e-02
<VARIANCE> 25
 4.383564e+01 4.124641e+01 2.069497e+01 5.859422e+01 4.954112e+01 3.659627e+01 4.584362e+01 4.594834e+01 3.267159e+01 3.019619e+01 3.402701e+01 2.309675e+01 1.433149e+00 2.024257e+00 1.082867e+00 2.262426e+00 2.737294e+00 2.229743e+00 2.661420e+00 2.630826e+00 2.312418e+00 1.984718e+00 1.969839e+00 1.948693e+00 1.567463e+00
<GCONST> 9.829850e+01
<TRANSP> 5
 0.000000e+00 1.000000e+00 0.000000e+00 0.000000e+00 0.000000e+00
 0.000000e+00 7.763220e-01 2.236780e-01 0.000000e+00 0.000000e+00
 0.000000e+00 0.000000e+00 7.763222e-01 2.236779e-01 0.000000e+00
 0.000000e+00 0.000000e+00 0.000000e+00 9.048384e-01 9.516153e-02
 0.000000e+00 0.000000e+00 0.000000e+00 0.000000e+00 0.000000e+00
<ENDHMM>
~h "x"
<BEGINHMM>
<NUMSTATES> 5
<STATE> 2
<MEAN> 25
 -3.126848e+00 1.093648e+00 -5.004823e-01 3.002609e+00 -6.881467e-01 1.471147e+00 2.520074e+00 3.290277e+00 7.843040e-01 7.478276e-01 1.776716e+00 7.145113e-01 -1.543598e-02 7.633934e-02 1.135135e-01 5.688513e-02 1.869647e-01 6.702965e-02 -2.367838e-02 3.049384e-02 -3.588393e-03 8.612216e-02 5.051491e-02 -6.221204e-03 -1.844897e-01
<VARIANCE> 25
 6.024077e+01 1.157628e+02 3.702712e+01 5.126737e+01 6.649416e+01 3.606377e+01 4.765526e+01 5.706585e+01 2.276544e+01 3.583392e+01 3.304579e+01 1.707646e+01 1.780316e+00 2.894232e+00 2.312941e+00 2.140864e+00 3.246081e+00 2.521525e+00 2.580618e+00 2.984549e+00 2.144398e+00 2.330031e+00 2.257446e+00 1.728505e+00 3.030982e+00
<GCONST> 1.025380e+02
<STATE> 3
<MEAN> 25
 -3.169718e+00 1.423046e+00 8.315953e-03 3.253301e+00 1.750868e-01 1.759876e+00 2.401874e+00 3.383898e+00 7.771495e-01 1.133110e+00 1.975208e+00 6.639361e-01 2.062461e-02 5.490310e-02 1.164293e-01 2.872335e-02 1.871950e-01 5.308928e-02 -2.693349e-02 -9.325839e-03 -7.468114e-04 8.189180e-02 2.838092e-02 -1.753792e-02 -1.750367e-01
<VARIANCE> 25
 5.637768e+01 1.171265e+02 3.586927e+01 4.877198e+01 6.349146e+01 3.296856e+01 4.828080e+01 5.240474e+01 2.217145e+01 3.552835e+01 3.004314e+01 1.679427e+01 1.684129e+00 2.725181e+00 2.135038e+00 2.009442e+00 2.849455e+00 2.375568e+00 2.525346e+00 2.794307e+00 2.077286e+00 2.265718e+00 2.197373e+00 1.666823e+00 2.790028e+00
<GCONST> 1.013042e+02
<STATE> 4
<MEAN> 25
 -3.155997e+00 1.783727e+00 6.628839e-01 3.708953e+00 1.198287e+00 2.082162e+00 2.254254e+00 3.332700e+00 8.228414e-01 1.613674e+00 2.150386e+00 4.850903e-01 4.121595e-02 4.126327e-02 1.039834e-01 1.670906e-02 1.709944e-01 4.102839e-02 -2.479600e-02 -4.157490e-02 7.132109e-03 7.282927e-02 8.303288e-03 -3.330660e-02 -1.655406e-01
<VARIANCE> 25
 4.868492e+01 1.073499e+02 3.334959e+01 4.361648e+01 5.811351e+01 2.898611e+01 4.533031e+01 4.583638e+01 2.095137e+01 3.308702e+01 2.642846e+01 1.592210e+01 1.422501e+00 2.270159e+00 1.831462e+00 1.784634e+00 2.457332e+00 2.125695e+00 2.326469e+00 2.516442e+00 1.926531e+00 2.121713e+00 2.066211e+00 1.541517e+00 2.291322e+00
<GCONST> 9.861517e+01
<TRANSP> 5
 0.000000e+00 1.000000e+00 0.000000e+00 0.000000e+00 0.000000e+00
 0.000000e+00 7.693446e-01 2.306554e-01 0.000000e+00 0.000000e+00
 0.000000e+00 0.000000e+00 7.693447e-01 2.306554e-01 0.000000e+00
 0.000000e+00 0.000000e+00 0.000000e+00 8.981553e-01 1.018447e-01
 0.000000e+00 0.000000e+00 0.000000e+00 0.000000e+00 0.000000e+00
<ENDHMM>
~h "y"
<BEGINHMM>
<NUMSTATES> 5
<STATE> 2
<MEAN> 25
 3.592181e-01 7.117550e-01 1.090300e+00 -1.327972e+00 -1.372970e+00 -6.317331e-01 -1.126184e+00 -7.342116e-01 -9.293627e-01 -1.953297e-01 -1.147262e+00 3.140901e-01 1.883072e-02 -1.050482e-02 -3.752994e-02 4.477847e-02 3.676157e-02 -4.073624e-03 6.386870e-03 2.680574e-02 7.981595e-03 -4.019916e-02 2.685432e-02 -2.260174e-03 -4.354398e-02
<VARIANCE> 25
 3.913356e+01 6.121151e+01 3.681028e+01 4.824427e+01 7.241090e+01 4.514718e+01 8.156358e+01 3.960216e+01 3.271508e+01 5.038893e+01 4.298926e+01 2.092439e+01 1.300121e+00 2.152465e+00 1.681368e+00 2.142410e+00 2.833508e+00 2.274219e+00 3.426669e+00 2.461926e+00 2.469176e+00 2.458148e+00 2.113711e+00 1.855224e+00 1.555420e+00
<GCONST> 1.015101e+02
<STATE> 3
<MEAN> 25
 4.209777e-01 6.479155e-01 8.978673e-01 -1.108755e+00 -1.158074e+00 -6.237296e-01 -1.081242e+00 -5.716118e-01 -8.779422e-01 -3.576168e-01 -1.002211e+00 3.136528e-01 1.492558e-02 -1.576098e-02 -4.478174e-02 4.970236e-02 5.004445e-02 3.098762e-03 9.389778e-03 3.834946e-02 1.223642e-02 -3.634018e-02 3.257706e-02 -1.545578e-03 -5.051422e-02
<VARIANCE> 25
 3.993659e+01 5.937287e+01 3.571115e+01 4.640968e+01 6.933188e+01 4.487925e+01 8.098911e+01 3.942153e+01 3.217042e+01 5.219883e+01 4.280832e+01 2.106445e+01 1.286306e+00 2.183924e+00 1.648087e+00 2.112197e+00 2.748557e+00 2.233760e+00 3.370492e+00 2.447161e+00 2.439283e+00 2.440298e+00 2.114586e+00 1.845265e+00 1.602322e+00
<GCONST> 1.012947e+02
<STATE> 4
<MEAN> 25
 4.273897e-01 5.115064e-01 5.062168e-01 -6.926847e-01 -6.443579e-01 -4.246022e-01 -9.476864e-01 -1.280805e-01 -7.013215e-01 -4.936158e-01 -6.585214e-01 3.306206e-01 -7.180586e-04 -7.421006e-03 -4.135462e-02 4.140789e-02 5.116396e-02 1.873732e-02 1.711749e-02 4.744384e-02 1.933330e-02 -1.370777e-02 3.654743e-02 -1.161576e-03 -5.449476e-02
<VARIANCE> 25
 3.975858e+01 5.477896e+01 3.319248e+01 4.307607e+01 6.308701e+01 4.397281e+01 7.959982e+01 3.838263e+01 3.150904e+01 5.346407e+01 4.198299e+01 2.128950e+01 1.265207e+00 2.104306e+00 1.571978e+00 2.050978e+00 2.564120e+00 2.167457e+00 3.199010e+00 2.439961e+00 2.364482e+00 2.368721e+00 2.111897e+00 1.803713e+00 1.624741e+00
<GCONST> 1.005414e+02
<TRANSP> 5
 0.000000e+00 1.000000e+00 0.000000e+00 0.000000e+00 0.000000e+00
 0.000000e+00 7.762451e-01 2.237550e-01 0.000000e+00 0.000000e+00
 0.000000e+00 0.000000e+00 7.762457e-01 2.237544e-01 0.000000e+00
 0.000000e+00 0.000000e+00 0.000000e+00 9.048596e-01 9.514036e-02
 0.000000e+00 0.000000e+00 0.000000e+00 0.000000e+00 0.000000e+00
<ENDHMM>
~h "z"
<BEGINHMM>
<NUMSTATES> 5
<STATE> 2
<MEAN> 25
 -8.277903e-01 1.556544e+00 1.692645e+00 -3.855928e-01 -1.636040e+00 8.510279e-02 8.215857e-01 5.012754e-01 8.178940e-01 -3.767593e-01 -8.884690e-01 2.879669e-01 5.085497e-02 -1.151328e-01 1.290012e-01 3.412994e-02 -1.428856e-01 -4.536753e-02 -6.322871e-02 -7.209213e-02 -2.638380e-03 -3.473458e-02 -6.703831e-02 -2.993691e-02 1.044917e-01
<VARIANCE> 25
 1.127003e+02 2.104652e+02 5.270039e+01 5.753867e+01 8.561635e+01 4.102686e+01 8.065292e+01 6.083243e+01 2.921309e+01 6.619740e+01 3.938317e+01 2.212998e+01 2.637831e+00 8.280330e+00 2.422653e+00 4.098484e+00 3.942917e+00 2.485706e+00 3.104382e+00 3.347237e+00 2.388618e+00 2.787825e+00 2.557460e+00 2.284146e+00 6.772907e+00
<GCONST> 1.106146e+02
<STATE> 3
<MEAN> 25
 -5.836477e-01 1.046858e+00 2.065461e+00 -3.131527e-01 -2.174520e+00 -1.416120e-01 5.986194e-01 2.680029e-01 8.184139e-01 -4.546094e-01 -1.080642e+00 1.627991e-01 6.680003e-02 -1.368662e-01 8.244572e-02 1.706531e-02 -1.318136e-01 -5.758661e-02 -5.764773e-02 -5.678075e-02 9.930617e-05 -2.230436e-02 -4.760069e-02 -3.156492e-02 1.196930e-01
<VARIANCE> 25
 1.112079e+02 2.073329e+02 5.128398e+01 5.836429e+01 8.843296e+01 4.189180e+01 8.030643e+01 6.200787e+01 2.967748e+01 6.527646e+01 3.914088e+01 2.277769e+01 2.727759e+00 8.641477e+00 2.474459e+00 4.212508e+00 4.117927e+00 2.546028e+00 3.174969e+00 3.458174e+00 2.478367e+00 2.789433e+00 2.532779e+00 2.333920e+00 7.117633e+00
<GCONST> 1.110121e+02
<STATE> 4
<MEAN> 25
 -3.301481e-01 4.264146e-01 2.472778e+00 -4.010264e-01 -2.741499e+00 -4.559355e-01 4.710222e-01 1.602064e-01 7.530904e-01 -3.726379e-01 -1.035623e+00 3.979846e-02 1.056371e-01 -1.692158e-01 3.784145e-02 -1.849563e-02 -1.105416e-01 -6.951078e-02 -8.103333e-02 -4.635189e-02 -3.195292e-03 -3.388767e-02 -2.308752e-02 -1.600504e-02 1.656771e-01
<VARIANCE> 25
 1.140763e+02 2.101291e+02 5.104891e+01 5.939676e+01 9.596275e+01 4.371310e+01 8.447932e+01 6.431548e+01 2.958542e+01 6.510211e+01 3.809835e+01 2.357070e+01 2.927731e+00 9.019732e+00 2.493138e+00 4.413965e+00 4.501592e+00 2.675360e+00 3.381760e+00 3.626497e+00 2.611647e+00 2.775910e+00 2.373897e+00 2.446919e+00 7.698352e+00
<GCONST> 1.118023e+02
<TRANSP> 5
 0.000000e+00 1.000000e+00 0.000000e+00 0.000000e+00 0.000000e+00
 0.000000e+00 7.504438e-01 2.495562e-01 0.000000e+00 0.000000e+00
 0.000000e+00 0.000000e+00 7.504438e-01 2.495562e-01 0.000000e+00
 0.000000e+00 0.000000e+00 0.000000e+00 8.754337e-01 1.245662e-01
 0.000000e+00 0.000000e+00 0.000000e+00 0.000000e+00 0.000000e+00
<ENDHMM>
~h "ah"
<BEGINHMM>
<NUMSTATES> 5
<STATE> 2
<MEAN> 25
 -1.684587e-08 -6.193333e-08 -4.487690e-08 3.351832e-08 -6.047171e-08 2.058664e-08 -6.607048e-08 -2.205446e-08 -8.534414e-09 2.910867e-08 3.022347e-08 -1.071447e-09 -2.678578e-03 2.715191e-03 1.970940e-04 1.666228e-04 1.831201e-03 -7.320007e-04 3.372927e-03 1.125320e-03 -7.564414e-05 2.413395e-03 8.106225e-04 -2.148533e-03 -1.727290e-03
<VARIANCE> 25
 4.499385e+01 7.342516e+01 3.566479e+01 5.718780e+01 5.546888e+01 4.305736e+01 6.020990e+01 4.209700e+01 2.990068e+01 4.475465e+01 3.376802e+01 1.839641e+01 1.592596e+00 2.317776e+00 1.700131e+00 2.390033e+00 2.486403e+00 2.357601e+00 2.972100e+00 2.655601e+00 2.270027e+00 2.542916e+00 2.264997e+00 1.647762e+00 2.549860e+00
<GCONST> 1.014657e+02
<STATE> 3
<MEAN> 25
 -1.684587e-08 -6.193333e-08 -4.487690e-08 3.351832e-08 -6.047171e-08 2.058664e-08 -6.607048e-08 -2.205446e-08 -8.534414e-09 2.910867e-08 3.022347e-08 -1.071447e-09 -2.678578e-03 2.715191e-03 1.970940e-04 1.666228e-04 1.831201e-03 -7.320007e-04 3.372927e-03 1.125320e-03 -7.564414e-05 2.413395e-03 8.106225e-04 -2.148533e-03 -1.727290e-03
<VARIANCE> 25
 4.499385e+01 7.342516e+01 3.566479e+01 5.718780e+01 5.546888e+01 4.305736e+01 6.020990e+01 4.209700e+01 2.990068e+01 4.475465e+01 3.376802e+01 1.839641e+01 1.592596e+00 2.317776e+00 1.700131e+00 2.390033e+00 2.486403e+00 2.357601e+00 2.972100e+00 2.655601e+00 2.270027e+00 2.542916e+00 2.264997e+00 1.647762e+00 2.549860e+00
<GCONST> 1.014657e+02
<STATE> 4
<MEAN> 25
 -1.684587e-08 -6.193333e-08 -4.487690e-08 3.351832e-08 -6.047171e-08 2.058664e-08 -6.607048e-08 -2.205446e-08 -8.534414e-09 2.910867e-08 3.022347e-08 -1.071447e-09 -2.678578e-03 2.715191e-03 1.970940e-04 1.666228e-04 1.831201e-03 -7.320007e-04 3.372927e-03 1.125320e-03 -7.564414e-05 2.413395e-03 8.106225e-04 -2.148533e-03 -1.727290e-03
<VARIANCE> 25
 4.499385e+01 7.342516e+01 3.566479e+01 5.718780e+01 5.546888e+01 4.305736e+01 6.020990e+01 4.209700e+01 2.990068e+01 4.475465e+01 3.376802e+01 1.839641e+01 1.592596e+00 2.317776e+00 1.700131e+00 2.390033e+00 2.486403e+00 2.357601e+00 2.972100e+00 2.655601e+00 2.270027e+00 2.542916e+00 2.264997e+00 1.647762e+00 2.549860e+00
<GCONST> 1.014657e+02
<TRANSP> 5
 0.000000e+00 1.000000e+00 0.000000e+00 0.000000e+00 0.000000e+00
 0.000000e+00 6.000000e-01 4.000000e-01 0.000000e+00 0.000000e+00
 0.000000e+00 0.000000e+00 6.000000e-01 4.000000e-01 0.000000e+00
 0.000000e+00 0.000000e+00 0.000000e+00 7.000000e-01 3.000000e-01
 0.000000e+00 0.000000e+00 0.000000e+00 0.000000e+00 0.000000e+00
<ENDHMM>
~h "aw"
<BEGINHMM>
<NUMSTATES> 5
<STATE> 2
<MEAN> 25
 -1.684587e-08 -6.193333e-08 -4.487690e-08 3.351832e-08 -6.047171e-08 2.058664e-08 -6.607048e-08 -2.205446e-08 -8.534414e-09 2.910867e-08 3.022347e-08 -1.071447e-09 -2.678578e-03 2.715191e-03 1.970940e-04 1.666228e-04 1.831201e-03 -7.320007e-04 3.372927e-03 1.125320e-03 -7.564414e-05 2.413395e-03 8.106225e-04 -2.148533e-03 -1.727290e-03
<VARIANCE> 25
 4.499385e+01 7.342516e+01 3.566479e+01 5.718780e+01 5.546888e+01 4.305736e+01 6.020990e+01 4.209700e+01 2.990068e+01 4.475465e+01 3.376802e+01 1.839641e+01 1.592596e+00 2.317776e+00 1.700131e+00 2.390033e+00 2.486403e+00 2.357601e+00 2.972100e+00 2.655601e+00 2.270027e+00 2.542916e+00 2.264997e+00 1.647762e+00 2.549860e+00
<GCONST> 1.014657e+02
<STATE> 3
<MEAN> 25
 -1.684587e-08 -6.193333e-08 -4.487690e-08 3.351832e-08 -6.047171e-08 2.058664e-08 -6.607048e-08 -2.205446e-08 -8.534414e-09 2.910867e-08 3.022347e-08 -1.071447e-09 -2.678578e-03 2.715191e-03 1.970940e-04 1.666228e-04 1.831201e-03 -7.320007e-04 3.372927e-03 1.125320e-03 -7.564414e-05 2.413395e-03 8.106225e-04 -2.148533e-03 -1.727290e-03
<VARIANCE> 25
 4.499385e+01 7.342516e+01 3.566479e+01 5.718780e+01 5.546888e+01 4.305736e+01 6.020990e+01 4.209700e+01 2.990068e+01 4.475465e+01 3.376802e+01 1.839641e+01 1.592596e+00 2.317776e+00 1.700131e+00 2.390033e+00 2.486403e+00 2.357601e+00 2.972100e+00 2.655601e+00 2.270027e+00 2.542916e+00 2.264997e+00 1.647762e+00 2.549860e+00
<GCONST> 1.014657e+02
<STATE> 4
<MEAN> 25
 -1.684587e-08 -6.193333e-08 -4.487690e-08 3.351832e-08 -6.047171e-08 2.058664e-08 -6.607048e-08 -2.205446e-08 -8.534414e-09 2.910867e-08 3.022347e-08 -1.071447e-09 -2.678578e-03 2.715191e-03 1.970940e-04 1.666228e-04 1.831201e-03 -7.320007e-04 3.372927e-03 1.125320e-03 -7.564414e-05 2.413395e-03 8.106225e-04 -2.148533e-03 -1.727290e-03
<VARIANCE> 25
 4.499385e+01 7.342516e+01 3.566479e+01 5.718780e+01 5.546888e+01 4.305736e+01 6.020990e+01 4.209700e+01 2.990068e+01 4.475465e+01 3.376802e+01 1.839641e+01 1.592596e+00 2.317776e+00 1.700131e+00 2.390033e+00 2.486403e+00 2.357601e+00 2.972100e+00 2.655601e+00 2.270027e+00 2.542916e+00 2.264997e+00 1.647762e+00 2.549860e+00
<GCONST> 1.014657e+02
<TRANSP> 5
 0.000000e+00 1.000000e+00 0.000000e+00 0.000000e+00 0.000000e+00
 0.000000e+00 6.000000e-01 4.000000e-01 0.000000e+00 0.000000e+00
 0.000000e+00 0.000000e+00 6.000000e-01 4.000000e-01 0.000000e+00
 0.000000e+00 0.000000e+00 0.000000e+00 7.000000e-01 3.000000e-01
 0.000000e+00 0.000000e+00 0.000000e+00 0.000000e+00 0.000000e+00
<ENDHMM>
~h "ay"
<BEGINHMM>
<NUMSTATES> 5
<STATE> 2
<MEAN> 25
 2.695769e-01 3.309072e-01 1.259236e+00 -1.482770e+00 -1.341617e+00 1.036045e+00 -1.181634e+00 7.615675e-01 -2.838171e+00 -2.339530e+00 -1.319403e+00 -9.469846e-01 -6.036046e-02 -2.958504e-02 1.285023e-02 5.231486e-02 5.253167e-02 6.451616e-02 7.796226e-02 1.564140e-02 1.041810e-01 9.013944e-02 5.325624e-02 1.752315e-02 -6.881046e-02
<VARIANCE> 25
 3.306180e+01 1.934408e+01 3.659526e+01 4.575686e+01 7.103558e+01 4.454204e+01 5.485869e+01 3.545185e+01 5.559061e+01 5.656981e+01 4.430677e+01 2.773378e+01 9.978725e-01 9.099995e-01 1.446597e+00 1.833059e+00 2.392544e+00 1.920153e+00 2.312366e+00 2.151640e+00 1.924409e+00 2.013757e+00 1.819896e+00 1.169297e+00 8.154048e-01
<GCONST> 9.654454e+01
<STATE> 3
<MEAN> 25
 2.619577e-02 1.976690e-01 1.323781e+00 -1.243017e+00 -1.129128e+00 1.283779e+00 -8.718236e-01 8.069951e-01 -2.384131e+00 -1.959115e+00 -1.093672e+00 -8.581458e-01 -5.279252e-02 -3.139059e-02 9.206314e-03 6.161280e-02 5.790265e-02 5.017855e-02 7.466161e-02 1.257517e-02 1.073781e-01 9.152272e-02 5.634889e-02 2.081704e-02 -6.939194e-02
<VARIANCE> 25
 3.394933e+01 1.876481e+01 3.634417e+01 4.561501e+01 7.078317e+01 4.357841e+01 5.451922e+01 3.546891e+01 5.450189e+01 5.527145e+01 4.414273e+01 2.656109e+01 1.081683e+00 8.887143e-01 1.432806e+00 1.837234e+00 2.373479e+00 1.949009e+00 2.319468e+00 2.137922e+00 1.876538e+00 1.933480e+00 1.772862e+00 1.180907e+00 8.059621e-01
<GCONST> 9.636900e+01
<STATE> 4
<MEAN> 25
 -1.212756e-01 3.403099e-02 1.394396e+00 -9.569049e-01 -9.579533e-01 1.338666e+00 -6.473976e-01 7.539027e-01 -1.900548e+00 -1.564480e+00 -9.272516e-01 -7.876954e-01 -3.589795e-02 -3.273488e-02 7.850584e-03 6.553501e-02 5.361967e-02 2.383685e-02 5.714061e-02 1.661765e-03 1.005310e-01 8.060624e-02 5.236931e-02 2.899410e-02 -5.815044e-02
<VARIANCE> 25
 3.671186e+01 1.883754e+01 3.659668e+01 4.568427e+01 6.899109e+01 4.333986e+01 5.468269e+01 3.530257e+01 5.234260e+01 5.339996e+01 4.327603e+01 2.573674e+01 1.254684e+00 8.892362e-01 1.428234e+00 1.880810e+00 2.318510e+00 2.044335e+00 2.366540e+00 2.155239e+00 1.803260e+00 1.821692e+00 1.688833e+00 1.218330e+00 8.074343e-01
<GCONST> 9.640723e+01
<TRANSP> 5
 0.000000e+00 1.000000e+00 0.000000e+00 0.000000e+00 0.000000e+00
 0.000000e+00 7.714663e-01 2.285336e-01 0.000000e+00 0.000000e+00
 0.000000e+00 0.000000e+00 7.714662e-01 2.285338e-01 0.000000e+00
 0.000000e+00 0.000000e+00 0.000000e+00 8.994039e-01 1.005960e-01
 0.000000e+00 0.000000e+00 0.000000e+00 0.000000e+00 0.000000e+00
<ENDHMM>
~h "kh"
<BEGINHMM>
<NUMSTATES> 5
<STATE> 2
<MEAN> 25
 -1.761205e+00 -3.312632e-01 -1.221978e+00 1.689022e+00 2.178964e+00 1.879287e+00 2.129517e+00 6.460881e-01 1.817647e+00 2.254658e+00 8.311807e-01 4.099983e-01 -3.611823e-02 -8.029851e-02 3.785489e-02 -5.279909e-02 -6.235302e-02 -8.845481e-02 -1.042398e-01 -4.798805e-02 -1.204118e-02 -1.734113e-02 -5.806941e-02 -5.802542e-03 1.764388e-01
<VARIANCE> 25
 2.734058e+01 2.300916e+01 2.211702e+01 2.052979e+01 4.846606e+01 3.081552e+01 4.947684e+01 3.114903e+01 2.716179e+01 3.663948e+01 2.804136e+01 1.581238e+01 1.472461e+00 1.167490e+00 1.280056e+00 1.220558e+00 1.859773e+00 1.859337e+00 2.974683e+00 2.359880e+00 2.387854e+00 2.353775e+00 2.000078e+00 1.412122e+00 1.767060e+00
<GCONST> 9.366743e+01
<STATE> 3
<MEAN> 25
 -1.891684e+00 -7.297094e-01 -1.005031e+00 1.403017e+00 1.799649e+00 1.406723e+00 1.659830e+00 3.861758e-01 1.716013e+00 2.136324e+00 5.477948e-01 4.318985e-01 -2.700528e-02 -9.695157e-02 5.467648e-02 -7.113831e-02 -9.466446e-02 -1.162930e-01 -1.132496e-01 -6.627992e-02 -2.641303e-02 -3.230094e-02 -7.094233e-02 5.584035e-03 2.029590e-01
<VARIANCE> 25
 3.082887e+01 2.704506e+01 2.501333e+01 2.319064e+01 5.524944e+01 3.314482e+01 5.131178e+01 3.382706e+01 2.918149e+01 3.896538e+01 2.898816e+01 1.630703e+01 1.624355e+00 1.278334e+00 1.384315e+00 1.296385e+00 2.052991e+00 1.954783e+00 3.202248e+00 2.449370e+00 2.503240e+00 2.478678e+00 1.997575e+00 1.401660e+00 1.857009e+00
<GCONST> 9.544125e+01
<STATE> 4
<MEAN> 25
 -1.797876e+00 -1.109794e+00 -5.631135e-01 7.780324e-01 5.715158e-01 4.596423e-01 8.811970e-01 -2.614313e-01 1.156505e+00 1.639167e+00 -7.181830e-02 3.385904e-01 1.535729e-02 -5.818234e-02 6.121281e-02 -8.706041e-02 -1.412820e-01 -1.098608e-01 -8.979904e-02 -8.316334e-02 -5.263938e-02 -4.673901e-02 -7.836780e-02 -1.438354e-02 1.592090e-01
<VARIANCE> 25
 3.642587e+01 3.100438e+01 2.930027e+01 2.861654e+01 6.279777e+01 3.639706e+01 5.119725e+01 3.739029e+01 3.013420e+01 4.366140e+01 3.226419e+01 1.684210e+01 1.795263e+00 1.402931e+00 1.505372e+00 1.371874e+00 2.177216e+00 2.061666e+00 3.279497e+00 2.540858e+00 2.572891e+00 2.741752e+00 1.965319e+00 1.454000e+00 1.724492e+00
<GCONST> 9.729861e+01
<TRANSP> 5
 0.000000e+00 1.000000e+00 0.000000e+00 0.000000e+00 0.000000e+00
 0.000000e+00 7.750127e-01 2.249872e-01 0.000000e+00 0.000000e+00
 0.000000e+00 0.000000e+00 7.750127e-01 2.249873e-01 0.000000e+00
 0.000000e+00 0.000000e+00 0.000000e+00 9.040508e-01 9.594921e-02
 0.000000e+00 0.000000e+00 0.000000e+00 0.000000e+00 0.000000e+00
<ENDHMM>
~h "ng"
<BEGINHMM>
<NUMSTATES> 5
<STATE> 2
<MEAN> 25
 3.870981e-01 1.487929e+00 1.865308e-01 5.472699e-01 4.239321e-01 -5.234365e-01 -3.231705e-01 -5.952188e-02 -6.691074e-01 -3.517615e-01 -2.221683e-01 -2.396791e-01 -3.452743e-02 1.134842e-02 -2.509069e-02 9.302638e-03 4.145704e-02 4.570741e-02 6.638256e-02 3.985120e-02 3.083633e-02 5.073740e-02 3.680414e-02 8.535908e-03 -5.494914e-02
<VARIANCE> 25
 3.052568e+01 4.981568e+01 2.406938e+01 3.020707e+01 4.640475e+01 4.343066e+01 6.318946e+01 3.460307e+01 2.969695e+01 4.527548e+01 2.753462e+01 1.820728e+01 1.130147e+00 1.445796e+00 1.361605e+00 1.569941e+00 2.409374e+00 1.888743e+00 2.507587e+00 2.465870e+00 2.287562e+00 2.270011e+00 2.111481e+00 1.553441e+00 1.424462e+00
<GCONST> 9.635934e+01
<STATE> 3
<MEAN> 25
 2.418826e-01 1.533987e+00 7.289583e-02 5.845389e-01 5.946430e-01 -3.299199e-01 -4.276322e-02 1.060899e-01 -5.434369e-01 -1.434794e-01 -7.011840e-02 -2.026815e-01 -3.286451e-02 7.982811e-03 -2.771141e-02 4.854997e-03 3.841181e-02 5.165481e-02 6.390171e-02 3.559032e-02 3.370414e-02 4.817919e-02 3.147905e-02 1.353069e-02 -4.560233e-02
<VARIANCE> 25
 3.055568e+01 4.818086e+01 2.303925e+01 3.081807e+01 4.566748e+01 4.356125e+01 6.168770e+01 3.405755e+01 2.866202e+01 4.484916e+01 2.692490e+01 1.806837e+01 1.096375e+00 1.425386e+00 1.292112e+00 1.568441e+00 2.321985e+00 1.832789e+00 2.464570e+00 2.426314e+00 2.202597e+00 2.246076e+00 2.053357e+00 1.531247e+00 1.382248e+00
<GCONST> 9.585608e+01
<STATE> 4
<MEAN> 25
 4.814754e-02 1.681189e+00 -5.877927e-02 6.500729e-01 7.990608e-01 -1.310057e-01 2.892107e-01 2.922622e-01 -4.593028e-01 5.739154e-02 8.404715e-02 -1.210980e-01 -3.848184e-02 -6.583737e-05 -3.031556e-02 5.916039e-03 3.515173e-02 5.799414e-02 6.864298e-02 3.611087e-02 3.557940e-02 4.409083e-02 2.677109e-02 1.635617e-02 -3.673869e-02
<VARIANCE> 25
 3.108555e+01 4.720645e+01 2.244618e+01 3.177125e+01 4.588426e+01 4.374614e+01 6.009263e+01 3.393742e+01 2.743907e+01 4.416331e+01 2.602805e+01 1.800213e+01 1.085229e+00 1.415848e+00 1.217384e+00 1.585068e+00 2.248199e+00 1.774142e+00 2.409302e+00 2.377599e+00 2.097613e+00 2.229575e+00 1.983171e+00 1.503069e+00 1.344526e+00
<GCONST> 9.542892e+01
<TRANSP> 5
 0.000000e+00 1.000000e+00 0.000000e+00 0.000000e+00 0.000000e+00
 0.000000e+00 7.664631e-01 2.335369e-01 0.000000e+00 0.000000e+00
 0.000000e+00 0.000000e+00 7.664629e-01 2.335371e-01 0.000000e+00
 0.000000e+00 0.000000e+00 0.000000e+00 8.938538e-01 1.061462e-01
 0.000000e+00 0.000000e+00 0.000000e+00 0.000000e+00 0.000000e+00
<ENDHMM>
~h "ny"
<BEGINHMM>
<NUMSTATES> 5
<STATE> 2
<MEAN> 25
 -1.532095e+00 2.651576e+00 2.065197e-01 8.644618e-01 -3.147478e-02 -3.971339e-01 1.119638e+00 7.824026e-01 -2.008042e+00 -2.798205e-01 3.274006e-01 -7.708601e-01 -2.776774e-02 3.110983e-02 -6.511202e-03 -3.180813e-03 3.337881e-03 1.616340e-02 -4.002789e-03 4.520679e-03 1.467957e-02 3.610790e-02 9.404045e-03 -1.002124e-02 -3.189184e-02
<VARIANCE> 25
 3.520411e+01 4.656278e+01 1.972503e+01 2.375632e+01 5.668679e+01 4.530215e+01 6.747711e+01 4.215697e+01 5.487167e+01 5.906644e+01 2.906344e+01 2.185823e+01 1.669669e+00 1.729246e+00 1.158505e+00 1.487303e+00 2.257658e+00 2.316422e+00 2.345572e+00 3.609519e+00 2.317293e+00 2.374581e+00 2.157872e+00 1.569118e+00 1.540410e+00
<GCONST> 9.859221e+01
<STATE> 3
<MEAN> 25
 -1.633694e+00 2.774883e+00 1.898743e-01 8.491430e-01 -2.744142e-02 -3.301557e-01 1.079994e+00 7.982397e-01 -1.952229e+00 -1.395959e-01 3.689462e-01 -8.077777e-01 -2.206277e-02 2.156726e-02 -5.569458e-03 -4.963691e-03 1.371767e-03 2.392292e-02 -6.234712e-03 8.360164e-03 1.784496e-02 3.258087e-02 1.504987e-02 -4.251175e-03 -2.546915e-02
<VARIANCE> 25
 3.537049e+01 4.661350e+01 1.906670e+01 2.304507e+01 5.597407e+01 4.545247e+01 6.905584e+01 4.164640e+01 5.426045e+01 5.687416e+01 2.890209e+01 2.146429e+01 1.683055e+00 1.712258e+00 1.146133e+00 1.453186e+00 2.241561e+00 2.334548e+00 2.456128e+00 3.543818e+00 2.292166e+00 2.313464e+00 2.128511e+00 1.557663e+00 1.534760e+00
<GCONST> 9.839329e+01
<STATE> 4
<MEAN> 25
 -1.590575e+00 2.645208e+00 2.260634e-01 7.656708e-01 -1.571588e-01 -2.344828e-01 8.585521e-01 7.788720e-01 -1.866593e+00 -5.501837e-02 4.457768e-01 -8.203854e-01 -8.903027e-03 1.066395e-02 -1.270310e-03 -9.485145e-03 -7.756107e-03 2.503357e-02 -1.704276e-02 8.411258e-03 1.354739e-02 2.186600e-02 2.009802e-02 1.411313e-03 -1.220235e-02
<VARIANCE> 25
 3.411940e+01 4.420183e+01 1.813197e+01 2.225396e+01 5.476643e+01 4.652772e+01 7.044841e+01 4.024035e+01 5.374983e+01 5.384877e+01 2.843106e+01 2.087633e+01 1.648666e+00 1.667622e+00 1.139477e+00 1.411855e+00 2.237286e+00 2.411752e+00 2.561196e+00 3.416729e+00 2.312304e+00 2.278145e+00 2.103432e+00 1.547478e+00 1.503646e+00
<GCONST> 9.800656e+01
<TRANSP> 5
 0.000000e+00 1.000000e+00 0.000000e+00 0.000000e+00 0.000000e+00
 0.000000e+00 7.675604e-01 2.324396e-01 0.000000e+00 0.000000e+00
 0.000000e+00 0.000000e+00 7.675606e-01 2.324395e-01 0.000000e+00
 0.000000e+00 0.000000e+00 0.000000e+00 8.944595e-01 1.055404e-01
 0.000000e+00 0.000000e+00 0.000000e+00 0.000000e+00 0.000000e+00
<ENDHMM>
~h "sy"
<BEGINHMM>
<NUMSTATES> 5
<STATE> 2
<MEAN> 25
 -2.298645e+00 -1.617496e+00 3.090509e+00 1.841265e-01 -1.154035e+00 1.601135e+00 5.374724e-01 1.398168e+00 5.184084e-01 7.092866e-01 1.980014e+00 3.457052e-01 -6.247124e-02 1.387553e-02 7.354511e-02 -2.718233e-02 -2.076400e-02 3.890613e-02 5.514554e-02 6.131154e-03 2.087379e-02 2.734959e-02 2.134326e-02 -1.109253e-02 -1.064495e-02
<VARIANCE> 25
 4.939861e+01 3.706118e+01 5.857188e+01 2.763834e+01 4.793671e+01 3.034221e+01 4.811002e+01 3.257410e+01 2.727653e+01 4.636988e+01 2.530747e+01 1.785607e+01 2.388587e+00 2.051729e+00 1.935792e+00 2.097029e+00 3.004650e+00 2.040025e+00 3.638214e+00 2.426649e+00 2.338799e+00 2.624041e+00 1.730191e+00 1.718004e+00 1.826492e+00
<GCONST> 9.923212e+01
<STATE> 3
<MEAN> 25
 -2.616349e+00 -1.577740e+00 3.444331e+00 5.386041e-02 -1.267426e+00 1.767443e+00 8.131800e-01 1.375402e+00 5.993816e-01 8.283813e-01 2.033749e+00 2.972349e-01 -6.772359e-02 1.571548e-02 6.498428e-02 -2.236942e-02 -1.828497e-02 3.329675e-02 6.782126e-02 -2.080186e-03 1.893252e-02 2.813260e-02 1.542646e-02 -9.549424e-03 -1.691125e-02
<VARIANCE> 25
 5.188029e+01 3.457391e+01 6.026503e+01 2.875196e+01 4.766582e+01 2.938916e+01 4.726359e+01 3.224320e+01 2.660801e+01 4.463285e+01 2.483780e+01 1.785950e+01 2.536758e+00 1.918473e+00 1.995065e+00 2.158461e+00 3.063384e+00 2.006942e+00 3.622591e+00 2.380692e+00 2.358910e+00 2.558836e+00 1.759161e+00 1.698334e+00 1.833800e+00
<GCONST> 9.915672e+01
<STATE> 4
<MEAN> 25
 -2.998826e+00 -1.648267e+00 3.973560e+00 -2.455138e-01 -1.413259e+00 1.771329e+00 1.024091e+00 1.202762e+00 5.938805e-01 7.156602e-01 1.893396e+00 2.473063e-01 -6.252596e-02 5.751112e-03 5.906204e-02 -2.385554e-02 -2.049086e-02 7.810562e-03 4.718215e-02 -4.747636e-03 1.412108e-02 1.165474e-02 1.066585e-02 -1.687804e-03 2.450537e-04
<VARIANCE> 25
 5.604404e+01 3.261837e+01 6.212351e+01 3.035202e+01 4.924970e+01 2.920934e+01 4.605569e+01 3.248159e+01 2.626859e+01 4.327811e+01 2.465564e+01 1.832756e+01 2.822065e+00 1.821933e+00 2.124433e+00 2.193067e+00 3.266325e+00 1.968586e+00 3.623447e+00 2.348290e+00 2.419411e+00 2.521018e+00 1.804921e+00 1.690838e+00 1.882322e+00
<GCONST> 9.946596e+01
<TRANSP> 5
 0.000000e+00 1.000000e+00 0.000000e+00 0.000000e+00 0.000000e+00
 0.000000e+00 7.730956e-01 2.269044e-01 0.000000e+00 0.000000e+00
 0.000000e+00 0.000000e+00 7.730957e-01 2.269043e-01 0.000000e+00
 0.000000e+00 0.000000e+00 0.000000e+00 9.017782e-01 9.822188e-02
 0.000000e+00 0.000000e+00 0.000000e+00 0.000000e+00 0.000000e+00
<ENDHMM>
~h "sil"
<BEGINHMM>
<NUMSTATES> 5
<STATE> 2
<MEAN> 25
 -3.344924e+00 2.749135e+00 9.699664e-02 4.187451e+00 3.493129e+00 2.394052e+00 2.737617e+00 2.564734e+00 1.949831e+00 3.148477e+00 2.020864e+00 2.418995e-01 2.921083e-03 -2.971379e-02 3.582827e-02 -3.468657e-02 -1.578404e-02 -1.101904e-02 -4.168571e-02 -4.177178e-02 1.423131e-02 -3.822797e-03 2.171574e-02 -3.966668e-02 6.373190e-02
<VARIANCE> 25
 1.900819e+01 3.798629e+01 2.136615e+01 1.899131e+01 2.338546e+01 2.316391e+01 3.457339e+01 2.159402e+01 1.902551e+01 2.305891e+01 1.847875e+01 1.430800e+01 7.858912e-01 1.040263e+00 1.099058e+00 1.113945e+00 1.520072e+00 1.447337e+00 1.910538e+00 1.656584e+00 1.716283e+00 1.722550e+00 1.632243e+00 1.399839e+00 8.370075e-01
<GCONST> 8.678017e+01
<STATE> 3
<MEAN> 25
 -3.096062e+00 2.610861e+00 -4.195512e-02 3.856831e+00 3.306138e+00 2.099706e+00 2.366662e+00 2.311142e+00 1.718887e+00 2.872558e+00 1.839145e+00 -1.646539e-02 7.848126e-02 -4.489171e-02 -5.564740e-02 -9.010679e-02 -6.499725e-02 -8.901426e-02 -1.114456e-01 -7.725701e-02 -6.171129e-02 -7.907680e-02 -6.165244e-02 -6.102787e-02 1.652947e-01
<VARIANCE> 25
 2.146500e+01 3.960270e+01 2.259229e+01 2.473329e+01 2.430974e+01 2.502859e+01 3.803379e+01 2.415558e+01 2.193503e+01 2.645004e+01 2.142362e+01 1.489057e+01 9.355124e-01 1.243594e+00 1.231438e+00 1.351125e+00 1.605407e+00 1.562891e+00 2.095918e+00 1.928974e+00 1.810540e+00 1.899888e+00 1.711887e+00 1.372185e+00 1.161282e+00
<GCONST> 8.959678e+01
<STATE> 4
<MEAN> 25
 -2.125943e+00 2.499138e+00 -5.356541e-01 2.858683e+00 2.459168e+00 9.456598e-01 1.490620e+00 1.304815e+00 1.000852e+00 1.993957e+00 1.047001e+00 -3.101501e-01 1.136279e-01 -2.988033e-02 -7.141373e-02 -9.792442e-02 -6.094217e-02 -1.136252e-01 -1.128154e-01 -1.173188e-01 -7.607035e-02 -8.626010e-02 -9.287182e-02 -2.904670e-02 1.416963e-01
<VARIANCE> 25
 3.016925e+01 4.171595e+01 2.513549e+01 3.662244e+01 3.094592e+01 3.212478e+01 4.426702e+01 3.108457e+01 2.724163e+01 3.411397e+01 2.655305e+01 1.617273e+01 1.143193e+00 1.397373e+00 1.317556e+00 1.700270e+00 1.711393e+00 1.811669e+00 2.262490e+00 2.154685e+00 1.915775e+00 2.071294e+00 1.828168e+00 1.465352e+00 1.463215e+00
<GCONST> 9.367033e+01
<TRANSP> 5
 0.000000e+00 1.000000e+00 0.000000e+00 0.000000e+00 0.000000e+00
 0.000000e+00 7.750976e-01 2.249024e-01 0.000000e+00 0.000000e+00
 0.000000e+00 0.000000e+00 7.750979e-01 2.249021e-01 0.000000e+00
 0.000000e+00 0.000000e+00 0.000000e+00 9.043857e-01 9.561429e-02
 0.000000e+00 0.000000e+00 0.000000e+00 0.000000e+00 0.000000e+00
<ENDHMM>
