~o
<STREAMINFO> 1 25
<VECSIZE> 25<NULLD><MFCC_D_N_Z_0><DIAGC>
~h "E"
<BEGINHMM>
<NUMSTATES> 5
<STATE> 2
<MEAN> 25
 3.641176e+00 -9.798979e-01 -1.930526e+00 -4.379105e+00 -2.916393e+00 -4.862773e+00 -2.319167e+00 1.124787e+00 -3.615692e-01 3.425390e+00 7.410507e+00 3.917760e+00 -8.072997e-01 -3.161924e-01 -3.189804e-01 5.395641e-01 -5.699047e-01 -5.426387e-01 1.800111e-01 7.599950e-01 2.035497e-01 7.945727e-01 4.023049e-01 8.570015e-01 -5.929716e-01
<VARIANCE> 25
 6.295436e+01 1.367479e+01 5.433229e+01 6.115634e+01 2.929244e+01 2.335784e+01 1.626681e+01 5.945947e+01 3.906071e+01 3.967152e+01 1.576361e+01 4.053535e+00 1.045704e+00 1.677824e-01 4.096313e-01 6.654716e-01 7.482412e-01 7.372626e+00 9.731581e-01 7.119343e-01 5.241021e-01 9.270967e-01 4.529352e-01 1.179024e+00 5.048229e-01
<GCONST> 8.198715e+01
<STATE> 3
<MEAN> 25
 1.036115e+00 -2.634143e+00 -3.807938e+00 -2.136120e+00 -2.163345e+00 -5.266366e+00 -2.931030e+00 1.565042e+00 1.740377e+00 4.387815e+00 8.660993e+00 5.125227e+00 -2.193065e-01 -1.275780e-02 -5.203072e-01 8.228137e-02 -6.701830e-01 1.425444e+00 3.883058e-01 -1.848775e-01 2.947167e-01 6.896639e-03 8.299607e-01 1.080340e+00 -3.711066e-01
<VARIANCE> 25
 7.999287e+01 1.371056e+01 6.696484e+01 1.265542e+02 2.017169e+01 3.571458e+01 2.277774e+01 8.818470e+01 2.656877e+01 5.971844e+01 3.841148e+00 2.457876e+01 3.498002e-01 3.037112e-01 6.927949e-01 2.540396e-01 3.938268e-01 3.252169e+00 2.317920e+00 6.603240e-01 8.020300e-01 3.398888e-01 4.111865e-01 1.019592e+00 4.291473e-01
<GCONST> 8.177271e+01
<STATE> 4
<MEAN> 25
 4.922253e+00 -3.221084e+00 -1.167821e+01 -1.150100e+01 -4.129060e+00 1.441282e+00 -4.832938e+00 -3.818933e+00 4.347855e+00 -5.428252e+00 1.060689e+01 3.014940e+00 1.062774e-01 1.933723e-01 -1.980542e-01 1.608313e-02 -1.952560e-01 3.171106e-01 3.560236e-02 1.257368e-01 1.112695e-02 3.049189e-02 -3.039546e-01 1.173652e-01 -3.240840e-02
<VARIANCE> 25
 5.550137e+01 5.409938e+00 6.244374e+01 9.910295e+01 9.670558e+00 5.230099e+01 5.995983e+01 1.158608e+02 4.337739e+00 3.943219e+01 1.729244e+01 1.793114e+01 2.168974e-01 1.555222e-01 2.180360e-01 8.956178e-01 9.488595e-01 3.069922e+00 7.116312e-01 6.524001e-01 2.399931e-01 1.506170e+00 1.368025e+00 5.642781e-01 4.696915e-02
<GCONST> 7.727745e+01
<TRANSP> 5
 0.000000e+00 1.000000e+00 0.000000e+00 0.000000e+00 0.000000e+00
 0.000000e+00 4.241848e-01 5.758152e-01 0.000000e+00 0.000000e+00
 0.000000e+00 0.000000e+00 2.225129e-01 7.774870e-01 0.000000e+00
 0.000000e+00 0.000000e+00 0.000000e+00 5.824772e-01 4.175229e-01
 0.000000e+00 0.000000e+00 0.000000e+00 0.000000e+00 0.000000e+00
<ENDHMM>
~h "a"
<BEGINHMM>
<NUMSTATES> 5
<STATE> 2
<MEAN> 25
 4.186513e+00 -3.269968e+00 2.113707e+00 -2.147026e+00 -3.617906e+00 -6.179354e+00 -4.650723e+00 -3.122115e+00 6.498949e+00 -2.982561e+00 -2.347118e+00 -3.585589e+00 3.992356e-02 4.859400e-02 2.361201e-01 -2.205527e-01 -4.031768e-01 -8.255616e-01 9.321027e-03 7.043029e-02 -1.050295e+00 5.399471e-02 6.092126e-01 1.365480e-01 3.080633e-01
<VARIANCE> 25
 2.479657e+01 8.590646e+01 7.633867e+01 2.271062e+01 4.376043e+01 6.347998e+01 3.982586e+01 4.342702e+01 1.365852e+02 4.480236e+01 2.193364e+01 2.722843e+01 1.174851e+00 2.538219e+00 2.414491e+00 5.382435e-01 2.554427e+00 2.026840e+00 3.115499e+00 4.491582e+00 1.761081e+00 2.635158e+00 1.971208e+00 1.835035e+00 3.955165e+00
<GCONST> 1.013986e+02
<STATE> 3
<MEAN> 25
 3.584513e+00 -2.766532e+00 3.469810e+00 -2.614733e+00 -5.730586e+00 -7.466329e+00 -6.830793e+00 -6.619154e+00 3.223377e+00 -4.278885e+00 -5.041909e-01 -1.744102e+00 3.590373e-01 1.062972e+00 -3.035423e-01 2.091587e-01 1.111975e-01 -1.313712e-01 -9.278391e-02 -6.839640e-01 -1.222141e+00 3.772783e-01 2.381195e-01 1.732107e-01 -7.515845e-01
<VARIANCE> 25
 1.590948e+01 5.704751e+01 1.223014e+02 2.179551e+01 6.943550e+01 5.939654e+01 4.929881e+01 6.838223e+01 8.719228e+01 5.530108e+01 2.103937e+01 2.717808e+01 8.879274e-01 1.602201e+00 1.267696e+00 7.270352e-01 4.500292e+00 1.978469e+00 2.581230e+00 4.521101e+00 5.736019e+00 4.926360e+00 2.183288e+00 1.718823e+00 1.566831e+00
<GCONST> 1.019506e+02
<STATE> 4
<MEAN> 25
 6.763692e+00 3.699670e-01 -2.168510e-01 -3.784212e+00 -2.211752e+00 -5.335142e+00 -4.843589e+00 -7.181129e+00 2.273547e+00 -2.506382e-01 -2.743360e+00 -3.768075e+00 1.821735e-01 9.808587e-01 2.326465e-01 -1.525133e-01 1.390831e-02 5.591823e-01 6.070744e-01 8.755987e-01 -1.054992e+00 -1.249965e-01 -1.991455e-01 3.685240e-01 -7.471710e-01
<VARIANCE> 25
 2.054356e+01 3.664726e+01 7.227183e+01 3.196713e+01 5.200762e+01 3.420998e+01 2.631751e+01 7.047869e+01 3.437415e+01 2.958006e+01 3.127118e+01 2.087255e+01 9.162437e-01 1.327250e+00 1.240870e+00 3.313871e+00 3.207222e+00 2.656939e+00 2.709027e+00 2.361596e+00 4.343125e+00 3.913334e+00 2.899943e+00 2.004360e+00 1.649189e+00
<GCONST> 9.943230e+01
<TRANSP> 5
 0.000000e+00 1.000000e+00 0.000000e+00 0.000000e+00 0.000000e+00
 0.000000e+00 3.529759e-01 6.470241e-01 0.000000e+00 0.000000e+00
 0.000000e+00 0.000000e+00 3.603375e-01 6.396624e-01 0.000000e+00
 0.000000e+00 0.000000e+00 0.000000e+00 4.681615e-01 5.318385e-01
 0.000000e+00 0.000000e+00 0.000000e+00 0.000000e+00 0.000000e+00
<ENDHMM>
~h "b"
<BEGINHMM>
<NUMSTATES> 5
<STATE> 2
<MEAN> 25
 2.711044e-07 2.276736e-08 -6.105108e-08 -1.720701e-07 -1.586201e-07 9.768173e-08 -1.135738e-07 -1.298416e-07 7.694315e-08 -1.660590e-07 -1.083516e-07 -5.706868e-08 -2.818740e-03 -4.409721e-03 -4.277692e-03 -1.165964e-03 -3.608679e-03 5.208261e-03 -1.757075e-03 5.998432e-03 4.891248e-03 1.720927e-03 7.501529e-04 -5.307185e-03 6.137643e-03
<VARIANCE> 25
 2.670229e+01 2.794268e+01 3.749357e+01 3.307458e+01 5.256620e+01 4.928031e+01 4.561778e+01 4.954230e+01 4.604616e+01 3.096663e+01 2.869331e+01 1.969207e+01 8.024186e-01 8.637462e-01 9.762596e-01 1.208383e+00 1.860729e+00 1.938551e+00 2.342637e+00 2.054597e+00 2.126093e+00 1.768907e+00 1.840738e+00 1.505519e+00 1.027859e+00
<GCONST> 9.389128e+01
<STATE> 3
<MEAN> 25
 2.711044e-07 2.276736e-08 -6.105108e-08 -1.720701e-07 -1.586201e-07 9.768173e-08 -1.135738e-07 -1.298416e-07 7.694315e-08 -1.660590e-07 -1.083516e-07 -5.706868e-08 -2.818740e-03 -4.409721e-03 -4.277692e-03 -1.165964e-03 -3.608679e-03 5.208261e-03 -1.757075e-03 5.998432e-03 4.891248e-03 1.720927e-03 7.501529e-04 -5.307185e-03 6.137643e-03
<VARIANCE> 25
 2.670229e+01 2.794268e+01 3.749357e+01 3.307458e+01 5.256620e+01 4.928031e+01 4.561778e+01 4.954230e+01 4.604616e+01 3.096663e+01 2.869331e+01 1.969207e+01 8.024186e-01 8.637462e-01 9.762596e-01 1.208383e+00 1.860729e+00 1.938551e+00 2.342637e+00 2.054597e+00 2.126093e+00 1.768907e+00 1.840738e+00 1.505519e+00 1.027859e+00
<GCONST> 9.389128e+01
<STATE> 4
<MEAN> 25
 2.711044e-07 2.276736e-08 -6.105108e-08 -1.720701e-07 -1.586201e-07 9.768173e-08 -1.135738e-07 -1.298416e-07 7.694315e-08 -1.660590e-07 -1.083516e-07 -5.706868e-08 -2.818740e-03 -4.409721e-03 -4.277692e-03 -1.165964e-03 -3.608679e-03 5.208261e-03 -1.757075e-03 5.998432e-03 4.891248e-03 1.720927e-03 7.501529e-04 -5.307185e-03 6.137643e-03
<VARIANCE> 25
 2.670229e+01 2.794268e+01 3.749357e+01 3.307458e+01 5.256620e+01 4.928031e+01 4.561778e+01 4.954230e+01 4.604616e+01 3.096663e+01 2.869331e+01 1.969207e+01 8.024186e-01 8.637462e-01 9.762596e-01 1.208383e+00 1.860729e+00 1.938551e+00 2.342637e+00 2.054597e+00 2.126093e+00 1.768907e+00 1.840738e+00 1.505519e+00 1.027859e+00
<GCONST> 9.389128e+01
<TRANSP> 5
 0.000000e+00 1.000000e+00 0.000000e+00 0.000000e+00 0.000000e+00
 0.000000e+00 6.000000e-01 4.000000e-01 0.000000e+00 0.000000e+00
 0.000000e+00 0.000000e+00 6.000000e-01 4.000000e-01 0.000000e+00
 0.000000e+00 0.000000e+00 0.000000e+00 7.000000e-01 3.000000e-01
 0.000000e+00 0.000000e+00 0.000000e+00 0.000000e+00 0.000000e+00
<ENDHMM>
~h "d"
<BEGINHMM>
<NUMSTATES> 5
<STATE> 2
<MEAN> 25
 2.711044e-07 2.276736e-08 -6.105108e-08 -1.720701e-07 -1.586201e-07 9.768173e-08 -1.135738e-07 -1.298416e-07 7.694315e-08 -1.660590e-07 -1.083516e-07 -5.706868e-08 -2.818740e-03 -4.409721e-03 -4.277692e-03 -1.165964e-03 -3.608679e-03 5.208261e-03 -1.757075e-03 5.998432e-03 4.891248e-03 1.720927e-03 7.501529e-04 -5.307185e-03 6.137643e-03
<VARIANCE> 25
 2.670229e+01 2.794268e+01 3.749357e+01 3.307458e+01 5.256620e+01 4.928031e+01 4.561778e+01 4.954230e+01 4.604616e+01 3.096663e+01 2.869331e+01 1.969207e+01 8.024186e-01 8.637462e-01 9.762596e-01 1.208383e+00 1.860729e+00 1.938551e+00 2.342637e+00 2.054597e+00 2.126093e+00 1.768907e+00 1.840738e+00 1.505519e+00 1.027859e+00
<GCONST> 9.389128e+01
<STATE> 3
<MEAN> 25
 2.711044e-07 2.276736e-08 -6.105108e-08 -1.720701e-07 -1.586201e-07 9.768173e-08 -1.135738e-07 -1.298416e-07 7.694315e-08 -1.660590e-07 -1.083516e-07 -5.706868e-08 -2.818740e-03 -4.409721e-03 -4.277692e-03 -1.165964e-03 -3.608679e-03 5.208261e-03 -1.757075e-03 5.998432e-03 4.891248e-03 1.720927e-03 7.501529e-04 -5.307185e-03 6.137643e-03
<VARIANCE> 25
 2.670229e+01 2.794268e+01 3.749357e+01 3.307458e+01 5.256620e+01 4.928031e+01 4.561778e+01 4.954230e+01 4.604616e+01 3.096663e+01 2.869331e+01 1.969207e+01 8.024186e-01 8.637462e-01 9.762596e-01 1.208383e+00 1.860729e+00 1.938551e+00 2.342637e+00 2.054597e+00 2.126093e+00 1.768907e+00 1.840738e+00 1.505519e+00 1.027859e+00
<GCONST> 9.389128e+01
<STATE> 4
<MEAN> 25
 2.711044e-07 2.276736e-08 -6.105108e-08 -1.720701e-07 -1.586201e-07 9.768173e-08 -1.135738e-07 -1.298416e-07 7.694315e-08 -1.660590e-07 -1.083516e-07 -5.706868e-08 -2.818740e-03 -4.409721e-03 -4.277692e-03 -1.165964e-03 -3.608679e-03 5.208261e-03 -1.757075e-03 5.998432e-03 4.891248e-03 1.720927e-03 7.501529e-04 -5.307185e-03 6.137643e-03
<VARIANCE> 25
 2.670229e+01 2.794268e+01 3.749357e+01 3.307458e+01 5.256620e+01 4.928031e+01 4.561778e+01 4.954230e+01 4.604616e+01 3.096663e+01 2.869331e+01 1.969207e+01 8.024186e-01 8.637462e-01 9.762596e-01 1.208383e+00 1.860729e+00 1.938551e+00 2.342637e+00 2.054597e+00 2.126093e+00 1.768907e+00 1.840738e+00 1.505519e+00 1.027859e+00
<GCONST> 9.389128e+01
<TRANSP> 5
 0.000000e+00 1.000000e+00 0.000000e+00 0.000000e+00 0.000000e+00
 0.000000e+00 6.000000e-01 4.000000e-01 0.000000e+00 0.000000e+00
 0.000000e+00 0.000000e+00 6.000000e-01 4.000000e-01 0.000000e+00
 0.000000e+00 0.000000e+00 0.000000e+00 7.000000e-01 3.000000e-01
 0.000000e+00 0.000000e+00 0.000000e+00 0.000000e+00 0.000000e+00
<ENDHMM>
~h "e"
<BEGINHMM>
<NUMSTATES> 5
<STATE> 2
<MEAN> 25
 -2.231217e+00 -4.292243e+00 -1.318771e+00 -2.232292e+00 8.057438e-01 -1.017469e+01 -7.471214e+00 1.500941e+00 -3.962110e-01 -5.448927e-01 -2.756382e+00 2.699082e+00 9.752901e-01 -1.077360e+00 -4.822841e-01 -7.176079e-01 -1.221639e+00 -1.172164e+00 -4.161087e+00 -8.673978e-01 2.799238e+00 -7.475236e-01 4.360301e-01 -4.485376e-01 2.767415e+00
<VARIANCE> 25
 6.445298e+00 4.689078e+01 8.326199e+00 6.269216e+00 1.624331e+01 8.520164e+01 9.801029e+01 2.113806e+01 2.567202e+01 2.334073e+00 6.790496e+00 2.025742e+01 6.156504e+00 1.596637e+00 1.258359e+00 8.773661e-01 1.160467e+01 9.136940e+00 4.147105e+00 1.957165e+00 2.956676e+00 2.414201e+00 4.125198e-01 3.367235e+00 5.127833e-01
<GCONST> 9.026727e+01
<STATE> 3
<MEAN> 25
 -9.245780e-01 -6.592467e+00 -4.057768e+00 -7.199975e+00 5.915649e-01 -1.305502e+01 -1.676264e+01 -6.476091e-01 1.023894e+01 4.541860e-01 -1.428973e+00 2.458669e+00 1.161500e+00 -5.334272e-01 -5.999855e-01 -1.530406e+00 -2.240439e+00 2.296274e-01 -1.562136e+00 -1.578141e+00 2.384808e+00 -1.128164e+00 4.840792e-01 -6.824088e-01 2.816358e+00
<VARIANCE> 25
 2.671909e+01 2.528278e+01 9.805409e+00 1.145840e+01 1.066433e+02 3.702956e+01 4.218745e+01 4.020882e+01 3.812562e+01 2.552180e+01 1.957612e+01 2.449971e+01 3.591608e+00 5.162039e+00 9.328097e-01 5.688101e-01 1.008035e+01 1.044266e+01 1.032885e+01 2.454895e+00 6.886466e+00 2.423847e+00 6.059709e+00 5.242226e+00 1.899120e+00
<GCONST> 1.030453e+02
<STATE> 4
<MEAN> 25
 5.006392e+00 -9.872831e+00 -6.235875e+00 -6.258521e+00 -6.466601e+00 -6.725146e+00 -1.028398e+01 -8.708323e+00 1.412380e+01 -7.226451e+00 -4.130233e+00 -2.539509e+00 3.813042e-02 -1.067667e-02 3.793446e-02 2.376305e-01 1.412325e-01 -4.414586e-02 3.420381e-01 -5.935931e-02 -1.174007e-01 -8.225910e-02 1.159116e-02 -7.402179e-02 -1.516543e-01
<VARIANCE> 25
 5.462406e+00 1.626459e+01 6.774199e+01 2.433613e+01 3.736229e+01 5.761471e+01 6.830357e+01 3.666357e+01 6.030197e+01 3.182777e+01 2.799173e+01 1.733562e+01 5.328930e-01 9.133421e-01 1.989249e+00 1.667153e+00 1.357440e+00 2.142119e+00 2.513266e+00 2.922283e+00 3.129455e+00 1.582054e+00 2.456772e+00 1.270383e+00 2.102614e+00
<GCONST> 9.410712e+01
<TRANSP> 5
 0.000000e+00 1.000000e+00 0.000000e+00 0.000000e+00 0.000000e+00
 0.000000e+00 4.375603e-01 5.624398e-01 0.000000e+00 0.000000e+00
 0.000000e+00 0.000000e+00 7.503222e-01 2.496778e-01 0.000000e+00
 0.000000e+00 0.000000e+00 0.000000e+00 9.760275e-01 2.397255e-02
 0.000000e+00 0.000000e+00 0.000000e+00 0.000000e+00 0.000000e+00
<ENDHMM>
~h "f"
<BEGINHMM>
<NUMSTATES> 5
<STATE> 2
<MEAN> 25
 2.711044e-07 2.276736e-08 -6.105108e-08 -1.720701e-07 -1.586201e-07 9.768173e-08 -1.135738e-07 -1.298416e-07 7.694315e-08 -1.660590e-07 -1.083516e-07 -5.706868e-08 -2.818740e-03 -4.409721e-03 -4.277692e-03 -1.165964e-03 -3.608679e-03 5.208261e-03 -1.757075e-03 5.998432e-03 4.891248e-03 1.720927e-03 7.501529e-04 -5.307185e-03 6.137643e-03
<VARIANCE> 25
 2.670229e+01 2.794268e+01 3.749357e+01 3.307458e+01 5.256620e+01 4.928031e+01 4.561778e+01 4.954230e+01 4.604616e+01 3.096663e+01 2.869331e+01 1.969207e+01 8.024186e-01 8.637462e-01 9.762596e-01 1.208383e+00 1.860729e+00 1.938551e+00 2.342637e+00 2.054597e+00 2.126093e+00 1.768907e+00 1.840738e+00 1.505519e+00 1.027859e+00
<GCONST> 9.389128e+01
<STATE> 3
<MEAN> 25
 2.711044e-07 2.276736e-08 -6.105108e-08 -1.720701e-07 -1.586201e-07 9.768173e-08 -1.135738e-07 -1.298416e-07 7.694315e-08 -1.660590e-07 -1.083516e-07 -5.706868e-08 -2.818740e-03 -4.409721e-03 -4.277692e-03 -1.165964e-03 -3.608679e-03 5.208261e-03 -1.757075e-03 5.998432e-03 4.891248e-03 1.720927e-03 7.501529e-04 -5.307185e-03 6.137643e-03
<VARIANCE> 25
 2.670229e+01 2.794268e+01 3.749357e+01 3.307458e+01 5.256620e+01 4.928031e+01 4.561778e+01 4.954230e+01 4.604616e+01 3.096663e+01 2.869331e+01 1.969207e+01 8.024186e-01 8.637462e-01 9.762596e-01 1.208383e+00 1.860729e+00 1.938551e+00 2.342637e+00 2.054597e+00 2.126093e+00 1.768907e+00 1.840738e+00 1.505519e+00 1.027859e+00
<GCONST> 9.389128e+01
<STATE> 4
<MEAN> 25
 2.711044e-07 2.276736e-08 -6.105108e-08 -1.720701e-07 -1.586201e-07 9.768173e-08 -1.135738e-07 -1.298416e-07 7.694315e-08 -1.660590e-07 -1.083516e-07 -5.706868e-08 -2.818740e-03 -4.409721e-03 -4.277692e-03 -1.165964e-03 -3.608679e-03 5.208261e-03 -1.757075e-03 5.998432e-03 4.891248e-03 1.720927e-03 7.501529e-04 -5.307185e-03 6.137643e-03
<VARIANCE> 25
 2.670229e+01 2.794268e+01 3.749357e+01 3.307458e+01 5.256620e+01 4.928031e+01 4.561778e+01 4.954230e+01 4.604616e+01 3.096663e+01 2.869331e+01 1.969207e+01 8.024186e-01 8.637462e-01 9.762596e-01 1.208383e+00 1.860729e+00 1.938551e+00 2.342637e+00 2.054597e+00 2.126093e+00 1.768907e+00 1.840738e+00 1.505519e+00 1.027859e+00
<GCONST> 9.389128e+01
<TRANSP> 5
 0.000000e+00 1.000000e+00 0.000000e+00 0.000000e+00 0.000000e+00
 0.000000e+00 6.000000e-01 4.000000e-01 0.000000e+00 0.000000e+00
 0.000000e+00 0.000000e+00 6.000000e-01 4.000000e-01 0.000000e+00
 0.000000e+00 0.000000e+00 0.000000e+00 7.000000e-01 3.000000e-01
 0.000000e+00 0.000000e+00 0.000000e+00 0.000000e+00 0.000000e+00
<ENDHMM>
~h "g"
<BEGINHMM>
<NUMSTATES> 5
<STATE> 2
<MEAN> 25
 6.944263e+00 -5.642765e+00 1.186195e+01 -3.279934e+00 -1.866060e+01 -7.464995e+00 -1.527367e+01 -6.094219e+00 4.628036e+00 -1.205093e+01 1.605811e+01 7.473036e-01 2.859805e-01 -3.991740e-01 -3.879358e-01 1.396817e-02 -2.596415e-01 6.759357e-01 -8.341735e-01 -7.242652e-01 5.706611e-01 3.011288e-01 9.146910e-01 1.573414e-01 1.665599e-01
<VARIANCE> 25
 1.402539e+01 5.189142e+01 6.291569e+01 3.819076e+01 5.004680e+01 6.051353e+01 4.724719e+01 3.197736e+01 3.468045e+01 3.620615e+01 7.471743e+01 2.335840e+01 2.878569e-01 7.801790e-01 2.041838e+00 9.248797e-01 3.492137e+00 1.519169e+00 1.938826e+00 2.735723e+00 2.080651e+00 5.284395e+00 4.076873e+00 2.183280e+00 5.115695e-01
<GCONST> 9.665037e+01
<STATE> 3
<MEAN> 25
 1.046518e+01 -1.593813e+00 -2.268344e-01 -7.368354e+00 -8.623933e+00 2.309225e+00 -1.267079e+01 -8.012957e+00 -9.651914e-01 -1.004314e+00 1.213292e+01 3.327252e+00 -9.949458e-01 7.420352e-01 8.732328e-02 3.575416e-01 1.489673e+00 -4.310379e-01 1.605496e+00 7.704180e-01 -7.034958e-01 6.880102e-01 -2.001639e+00 -2.441508e-01 -6.811440e-01
<VARIANCE> 25
 3.493509e+01 2.218650e+01 2.718871e+01 1.947394e+01 2.602122e+01 2.907648e+01 7.294997e+01 3.810410e+01 7.848087e+01 1.774533e+01 1.043593e+02 9.082005e+00 2.740893e+00 9.632555e-01 2.437955e+00 2.284964e+00 3.703492e+00 3.070846e+00 9.096733e-01 4.306279e+00 4.954647e+00 2.423024e+00 4.428581e+00 1.764046e+00 7.366498e-01
<GCONST> 9.824422e+01
<STATE> 4
<MEAN> 25
 -1.559845e+01 3.040093e+00 6.409942e+00 -7.559226e+00 3.072545e+00 -5.950545e+00 -1.212196e+01 3.534992e+00 9.456934e+00 -1.547951e+00 1.598211e+00 2.083167e+00 -6.488096e-01 -2.213867e-01 6.955273e-02 -2.676836e-01 3.644705e-01 -7.178441e-03 3.559432e-01 7.169466e-01 3.616924e-01 4.315406e-01 -1.296804e-03 1.065593e-02 -2.152571e-01
<VARIANCE> 25
 6.084472e+01 2.237839e+01 2.158397e+01 1.784858e+01 2.111587e+01 2.643086e+01 3.365482e+01 3.371841e+01 3.455530e+01 4.031250e+01 2.802081e+01 1.050576e+01 2.420587e+00 5.682869e-01 5.817577e-01 1.080251e+00 8.045244e-01 1.204723e+00 8.041446e-01 1.716959e+00 1.441776e+00 1.144344e+00 1.593762e+00 9.200151e-01 2.706697e-01
<GCONST> 8.512235e+01
<TRANSP> 5
 0.000000e+00 1.000000e+00 0.000000e+00 0.000000e+00 0.000000e+00
 0.000000e+00 8.728191e-01 1.271809e-01 0.000000e+00 0.000000e+00
 0.000000e+00 0.000000e+00 7.354070e-01 2.645930e-01 0.000000e+00
 0.000000e+00 0.000000e+00 0.000000e+00 8.348205e-01 1.651795e-01
 0.000000e+00 0.000000e+00 0.000000e+00 0.000000e+00 0.000000e+00
<ENDHMM>
~h "h"
<BEGINHMM>
<NUMSTATES> 5
<STATE> 2
<MEAN> 25
 2.711044e-07 2.276736e-08 -6.105108e-08 -1.720701e-07 -1.586201e-07 9.768173e-08 -1.135738e-07 -1.298416e-07 7.694315e-08 -1.660590e-07 -1.083516e-07 -5.706868e-08 -2.818740e-03 -4.409721e-03 -4.277692e-03 -1.165964e-03 -3.608679e-03 5.208261e-03 -1.757075e-03 5.998432e-03 4.891248e-03 1.720927e-03 7.501529e-04 -5.307185e-03 6.137643e-03
<VARIANCE> 25
 2.670229e+01 2.794268e+01 3.749357e+01 3.307458e+01 5.256620e+01 4.928031e+01 4.561778e+01 4.954230e+01 4.604616e+01 3.096663e+01 2.869331e+01 1.969207e+01 8.024186e-01 8.637462e-01 9.762596e-01 1.208383e+00 1.860729e+00 1.938551e+00 2.342637e+00 2.054597e+00 2.126093e+00 1.768907e+00 1.840738e+00 1.505519e+00 1.027859e+00
<GCONST> 9.389128e+01
<STATE> 3
<MEAN> 25
 2.711044e-07 2.276736e-08 -6.105108e-08 -1.720701e-07 -1.586201e-07 9.768173e-08 -1.135738e-07 -1.298416e-07 7.694315e-08 -1.660590e-07 -1.083516e-07 -5.706868e-08 -2.818740e-03 -4.409721e-03 -4.277692e-03 -1.165964e-03 -3.608679e-03 5.208261e-03 -1.757075e-03 5.998432e-03 4.891248e-03 1.720927e-03 7.501529e-04 -5.307185e-03 6.137643e-03
<VARIANCE> 25
 2.670229e+01 2.794268e+01 3.749357e+01 3.307458e+01 5.256620e+01 4.928031e+01 4.561778e+01 4.954230e+01 4.604616e+01 3.096663e+01 2.869331e+01 1.969207e+01 8.024186e-01 8.637462e-01 9.762596e-01 1.208383e+00 1.860729e+00 1.938551e+00 2.342637e+00 2.054597e+00 2.126093e+00 1.768907e+00 1.840738e+00 1.505519e+00 1.027859e+00
<GCONST> 9.389128e+01
<STATE> 4
<MEAN> 25
 2.711044e-07 2.276736e-08 -6.105108e-08 -1.720701e-07 -1.586201e-07 9.768173e-08 -1.135738e-07 -1.298416e-07 7.694315e-08 -1.660590e-07 -1.083516e-07 -5.706868e-08 -2.818740e-03 -4.409721e-03 -4.277692e-03 -1.165964e-03 -3.608679e-03 5.208261e-03 -1.757075e-03 5.998432e-03 4.891248e-03 1.720927e-03 7.501529e-04 -5.307185e-03 6.137643e-03
<VARIANCE> 25
 2.670229e+01 2.794268e+01 3.749357e+01 3.307458e+01 5.256620e+01 4.928031e+01 4.561778e+01 4.954230e+01 4.604616e+01 3.096663e+01 2.869331e+01 1.969207e+01 8.024186e-01 8.637462e-01 9.762596e-01 1.208383e+00 1.860729e+00 1.938551e+00 2.342637e+00 2.054597e+00 2.126093e+00 1.768907e+00 1.840738e+00 1.505519e+00 1.027859e+00
<GCONST> 9.389128e+01
<TRANSP> 5
 0.000000e+00 1.000000e+00 0.000000e+00 0.000000e+00 0.000000e+00
 0.000000e+00 6.000000e-01 4.000000e-01 0.000000e+00 0.000000e+00
 0.000000e+00 0.000000e+00 6.000000e-01 4.000000e-01 0.000000e+00
 0.000000e+00 0.000000e+00 0.000000e+00 7.000000e-01 3.000000e-01
 0.000000e+00 0.000000e+00 0.000000e+00 0.000000e+00 0.000000e+00
<ENDHMM>
~h "i"
<BEGINHMM>
<NUMSTATES> 5
<STATE> 2
<MEAN> 25
 -1.419816e+00 2.882445e+00 -4.142874e-01 -2.574659e+00 1.131942e+00 -1.910961e+00 -7.709352e-01 -1.071898e+00 -4.682560e-01 7.702976e-01 -2.014859e+00 2.228559e+00 -7.203707e-01 9.657125e-02 -2.534687e-01 -1.660620e-01 4.569715e-01 -1.466425e+00 2.853861e-01 6.335834e-01 4.227779e-01 5.877655e-03 -3.209285e-01 -3.428459e-01 1.643870e-01
<VARIANCE> 25
 1.420308e+02 2.797294e+01 3.016857e+01 7.885209e+00 5.360122e+01 3.909295e+01 4.402018e+01 5.743464e+01 5.588337e+01 2.180821e+01 2.013115e+01 1.808737e+01 1.235684e+00 1.400329e+00 8.776128e-01 3.271403e+00 2.161449e+00 2.740505e+00 5.244782e+00 3.945315e+00 2.136663e+00 8.754637e-01 2.288353e+00 3.363356e+00 2.601131e+00
<GCONST> 9.822648e+01
<STATE> 3
<MEAN> 25
 -5.116469e+00 2.279235e+00 5.448280e-01 -3.285822e+00 2.399144e+00 -7.577181e+00 -2.451658e+00 1.758902e+00 3.253684e+00 1.555436e+00 -1.149484e+00 4.004266e+00 -5.172207e-01 -1.147478e-01 -3.323470e-01 -4.367464e-01 5.752009e-01 -1.308442e+00 -7.846507e-01 -1.887444e-01 8.619077e-01 4.367709e-01 4.439372e-02 -2.095798e-01 8.175589e-01
<VARIANCE> 25
 1.005363e+02 2.084303e+01 2.976326e+01 1.123708e+01 4.618892e+01 2.930229e+01 3.373915e+01 3.354033e+01 2.848610e+01 2.652912e+01 2.447073e+01 2.979481e+01 1.058224e+00 1.433645e+00 2.219266e+00 2.705454e+00 1.877355e+00 3.972016e+00 8.439789e+00 7.574539e+00 2.160689e+00 5.247313e-01 6.552624e-01 1.184134e+00 3.969437e+00
<GCONST> 9.649489e+01
<STATE> 4
<MEAN> 25
 -5.411339e+00 8.698769e-01 1.175186e+00 -3.912970e+00 4.147985e+00 -5.099572e+00 -8.958058e-01 1.318760e+00 1.462377e+00 1.408405e+00 -2.726143e+00 1.589486e+00 3.177758e-01 1.054039e-01 -4.799633e-01 2.175148e-01 2.754538e-01 -8.400290e-02 -3.257976e-01 -4.046191e-01 -3.970064e-02 1.094048e-01 1.156601e-02 -3.141642e-01 1.851138e-01
<VARIANCE> 25
 7.285616e+01 1.643616e+01 2.783384e+01 7.793376e+00 3.360144e+01 4.659703e+01 3.545252e+01 1.329537e+01 2.557317e+01 1.233121e+01 1.771956e+01 2.558400e+01 1.117835e+00 4.752862e-01 1.983910e+00 2.092236e+00 1.356533e+00 1.790402e+00 7.328044e+00 7.521877e+00 1.696350e+00 2.139392e+00 1.181369e+00 1.303736e+00 3.345695e+00
<GCONST> 9.241279e+01
<TRANSP> 5
 0.000000e+00 1.000000e+00 0.000000e+00 0.000000e+00 0.000000e+00
 0.000000e+00 2.482003e-01 7.517998e-01 0.000000e+00 0.000000e+00
 0.000000e+00 0.000000e+00 1.298609e-01 8.701391e-01 0.000000e+00
 0.000000e+00 0.000000e+00 0.000000e+00 4.711197e-01 5.288804e-01
 0.000000e+00 0.000000e+00 0.000000e+00 0.000000e+00 0.000000e+00
<ENDHMM>
~h "k"
<BEGINHMM>
<NUMSTATES> 5
<STATE> 2
<MEAN> 25
 6.785234e+00 8.005245e-01 4.605163e-02 -4.608523e+00 -3.506929e+00 -1.867513e+00 -8.970451e+00 -4.805375e+00 1.161143e+00 -1.495966e+00 7.191382e-01 -1.639177e+00 1.836336e-01 -8.253828e-01 -3.712633e-01 -6.245193e-01 -3.528295e-01 -8.278856e-01 -4.916152e-01 -1.863259e-01 1.139123e+00 -6.503143e-01 -1.602803e-02 -4.000126e-01 1.332032e+00
<VARIANCE> 25
 3.732755e+01 7.829775e+01 3.907978e+01 3.703932e+01 5.732588e+01 7.582885e+01 1.428540e+02 9.051501e+01 6.866745e+01 3.416529e+01 5.372009e+01 2.197391e+01 1.399955e+00 4.596427e+00 2.842911e+00 4.819496e+00 6.430682e+00 8.764980e+00 1.499834e+01 7.121012e+00 5.595492e+00 3.865508e+00 6.671824e+00 2.959995e+00 7.144375e+00
<GCONST> 1.150890e+02
<STATE> 3
<MEAN> 25
 -5.558934e+00 -4.927382e+00 -9.218679e+00 -6.294048e+00 5.783623e-01 -8.797207e+00 5.384566e-01 -1.375955e+00 1.096315e+01 -3.253734e+00 -5.315084e+00 1.260508e+00 -1.413615e-01 2.461755e-01 -1.438290e-03 4.126268e-01 4.290298e-01 3.727731e-02 3.065252e-01 5.248090e-02 -1.218183e-01 2.171394e-01 -1.635633e-01 2.061679e-01 -4.713053e-01
<VARIANCE> 25
 7.912132e+01 5.911385e+01 2.436333e+01 1.824764e+01 5.227217e+01 2.184912e+01 2.183907e+01 7.368353e+01 2.478834e+01 2.140286e+01 3.554344e+01 3.762329e+01 1.485234e+00 1.040814e+00 1.565599e+00 1.039282e+00 1.054746e+00 1.576146e+00 2.383547e+00 3.120618e+00 1.847089e+00 8.725088e-01 3.153525e+00 1.250844e+00 1.018916e+00
<GCONST> 9.369645e+01
<STATE> 4
<MEAN> 25
 3.212444e+00 -5.873491e+00 -8.128637e+00 -2.319519e+00 1.362780e+00 -3.670090e+00 2.105260e+00 -4.176272e+00 9.110172e+00 -2.901894e+00 -1.129682e+00 -4.961098e+00 1.913839e-01 6.665521e-01 6.954340e-01 -7.458299e-03 -4.287437e-01 5.658115e-01 -1.104067e-01 1.668162e-01 -8.048792e-01 9.044308e-01 -6.574964e-02 -3.513359e-01 -9.680166e-01
<VARIANCE> 25
 3.056650e+01 2.650425e+01 1.097633e+01 1.403352e+01 2.286261e+01 3.878736e+01 2.493918e+01 1.011871e+02 5.365791e+01 3.344167e+01 9.208253e+00 4.041975e+01 4.602754e-01 4.518592e-01 1.031185e+00 1.357258e+00 1.155140e+00 8.920525e-01 1.826646e+00 1.941339e+00 3.435268e+00 1.110727e+00 9.483467e-01 1.748265e+00 5.108203e-01
<GCONST> 8.694884e+01
<TRANSP> 5
 0.000000e+00 1.000000e+00 0.000000e+00 0.000000e+00 0.000000e+00
 0.000000e+00 8.137907e-01 1.862092e-01 0.000000e+00 0.000000e+00
 0.000000e+00 0.000000e+00 8.491820e-01 1.508180e-01 0.000000e+00
 0.000000e+00 0.000000e+00 0.000000e+00 7.794769e-01 2.205231e-01
 0.000000e+00 0.000000e+00 0.000000e+00 0.000000e+00 0.000000e+00
<ENDHMM>
~h "l"
<BEGINHMM>
<NUMSTATES> 5
<STATE> 2
<MEAN> 25
 2.711044e-07 2.276736e-08 -6.105108e-08 -1.720701e-07 -1.586201e-07 9.768173e-08 -1.135738e-07 -1.298416e-07 7.694315e-08 -1.660590e-07 -1.083516e-07 -5.706868e-08 -2.818740e-03 -4.409721e-03 -4.277692e-03 -1.165964e-03 -3.608679e-03 5.208261e-03 -1.757075e-03 5.998432e-03 4.891248e-03 1.720927e-03 7.501529e-04 -5.307185e-03 6.137643e-03
<VARIANCE> 25
 2.670229e+01 2.794268e+01 3.749357e+01 3.307458e+01 5.256620e+01 4.928031e+01 4.561778e+01 4.954230e+01 4.604616e+01 3.096663e+01 2.869331e+01 1.969207e+01 8.024186e-01 8.637462e-01 9.762596e-01 1.208383e+00 1.860729e+00 1.938551e+00 2.342637e+00 2.054597e+00 2.126093e+00 1.768907e+00 1.840738e+00 1.505519e+00 1.027859e+00
<GCONST> 9.389128e+01
<STATE> 3
<MEAN> 25
 2.711044e-07 2.276736e-08 -6.105108e-08 -1.720701e-07 -1.586201e-07 9.768173e-08 -1.135738e-07 -1.298416e-07 7.694315e-08 -1.660590e-07 -1.083516e-07 -5.706868e-08 -2.818740e-03 -4.409721e-03 -4.277692e-03 -1.165964e-03 -3.608679e-03 5.208261e-03 -1.757075e-03 5.998432e-03 4.891248e-03 1.720927e-03 7.501529e-04 -5.307185e-03 6.137643e-03
<VARIANCE> 25
 2.670229e+01 2.794268e+01 3.749357e+01 3.307458e+01 5.256620e+01 4.928031e+01 4.561778e+01 4.954230e+01 4.604616e+01 3.096663e+01 2.869331e+01 1.969207e+01 8.024186e-01 8.637462e-01 9.762596e-01 1.208383e+00 1.860729e+00 1.938551e+00 2.342637e+00 2.054597e+00 2.126093e+00 1.768907e+00 1.840738e+00 1.505519e+00 1.027859e+00
<GCONST> 9.389128e+01
<STATE> 4
<MEAN> 25
 2.711044e-07 2.276736e-08 -6.105108e-08 -1.720701e-07 -1.586201e-07 9.768173e-08 -1.135738e-07 -1.298416e-07 7.694315e-08 -1.660590e-07 -1.083516e-07 -5.706868e-08 -2.818740e-03 -4.409721e-03 -4.277692e-03 -1.165964e-03 -3.608679e-03 5.208261e-03 -1.757075e-03 5.998432e-03 4.891248e-03 1.720927e-03 7.501529e-04 -5.307185e-03 6.137643e-03
<VARIANCE> 25
 2.670229e+01 2.794268e+01 3.749357e+01 3.307458e+01 5.256620e+01 4.928031e+01 4.561778e+01 4.954230e+01 4.604616e+01 3.096663e+01 2.869331e+01 1.969207e+01 8.024186e-01 8.637462e-01 9.762596e-01 1.208383e+00 1.860729e+00 1.938551e+00 2.342637e+00 2.054597e+00 2.126093e+00 1.768907e+00 1.840738e+00 1.505519e+00 1.027859e+00
<GCONST> 9.389128e+01
<TRANSP> 5
 0.000000e+00 1.000000e+00 0.000000e+00 0.000000e+00 0.000000e+00
 0.000000e+00 6.000000e-01 4.000000e-01 0.000000e+00 0.000000e+00
 0.000000e+00 0.000000e+00 6.000000e-01 4.000000e-01 0.000000e+00
 0.000000e+00 0.000000e+00 0.000000e+00 7.000000e-01 3.000000e-01
 0.000000e+00 0.000000e+00 0.000000e+00 0.000000e+00 0.000000e+00
<ENDHMM>
~h "m"
<BEGINHMM>
<NUMSTATES> 5
<STATE> 2
<MEAN> 25
 2.711044e-07 2.276736e-08 -6.105108e-08 -1.720701e-07 -1.586201e-07 9.768173e-08 -1.135738e-07 -1.298416e-07 7.694315e-08 -1.660590e-07 -1.083516e-07 -5.706868e-08 -2.818740e-03 -4.409721e-03 -4.277692e-03 -1.165964e-03 -3.608679e-03 5.208261e-03 -1.757075e-03 5.998432e-03 4.891248e-03 1.720927e-03 7.501529e-04 -5.307185e-03 6.137643e-03
<VARIANCE> 25
 2.670229e+01 2.794268e+01 3.749357e+01 3.307458e+01 5.256620e+01 4.928031e+01 4.561778e+01 4.954230e+01 4.604616e+01 3.096663e+01 2.869331e+01 1.969207e+01 8.024186e-01 8.637462e-01 9.762596e-01 1.208383e+00 1.860729e+00 1.938551e+00 2.342637e+00 2.054597e+00 2.126093e+00 1.768907e+00 1.840738e+00 1.505519e+00 1.027859e+00
<GCONST> 9.389128e+01
<STATE> 3
<MEAN> 25
 2.711044e-07 2.276736e-08 -6.105108e-08 -1.720701e-07 -1.586201e-07 9.768173e-08 -1.135738e-07 -1.298416e-07 7.694315e-08 -1.660590e-07 -1.083516e-07 -5.706868e-08 -2.818740e-03 -4.409721e-03 -4.277692e-03 -1.165964e-03 -3.608679e-03 5.208261e-03 -1.757075e-03 5.998432e-03 4.891248e-03 1.720927e-03 7.501529e-04 -5.307185e-03 6.137643e-03
<VARIANCE> 25
 2.670229e+01 2.794268e+01 3.749357e+01 3.307458e+01 5.256620e+01 4.928031e+01 4.561778e+01 4.954230e+01 4.604616e+01 3.096663e+01 2.869331e+01 1.969207e+01 8.024186e-01 8.637462e-01 9.762596e-01 1.208383e+00 1.860729e+00 1.938551e+00 2.342637e+00 2.054597e+00 2.126093e+00 1.768907e+00 1.840738e+00 1.505519e+00 1.027859e+00
<GCONST> 9.389128e+01
<STATE> 4
<MEAN> 25
 2.711044e-07 2.276736e-08 -6.105108e-08 -1.720701e-07 -1.586201e-07 9.768173e-08 -1.135738e-07 -1.298416e-07 7.694315e-08 -1.660590e-07 -1.083516e-07 -5.706868e-08 -2.818740e-03 -4.409721e-03 -4.277692e-03 -1.165964e-03 -3.608679e-03 5.208261e-03 -1.757075e-03 5.998432e-03 4.891248e-03 1.720927e-03 7.501529e-04 -5.307185e-03 6.137643e-03
<VARIANCE> 25
 2.670229e+01 2.794268e+01 3.749357e+01 3.307458e+01 5.256620e+01 4.928031e+01 4.561778e+01 4.954230e+01 4.604616e+01 3.096663e+01 2.869331e+01 1.969207e+01 8.024186e-01 8.637462e-01 9.762596e-01 1.208383e+00 1.860729e+00 1.938551e+00 2.342637e+00 2.054597e+00 2.126093e+00 1.768907e+00 1.840738e+00 1.505519e+00 1.027859e+00
<GCONST> 9.389128e+01
<TRANSP> 5
 0.000000e+00 1.000000e+00 0.000000e+00 0.000000e+00 0.000000e+00
 0.000000e+00 6.000000e-01 4.000000e-01 0.000000e+00 0.000000e+00
 0.000000e+00 0.000000e+00 6.000000e-01 4.000000e-01 0.000000e+00
 0.000000e+00 0.000000e+00 0.000000e+00 7.000000e-01 3.000000e-01
 0.000000e+00 0.000000e+00 0.000000e+00 0.000000e+00 0.000000e+00
<ENDHMM>
~h "o"
<BEGINHMM>
<NUMSTATES> 5
<STATE> 2
<MEAN> 25
 4.347426e-01 1.690830e+00 -2.477171e-01 1.453837e+00 1.558715e+00 1.337182e+00 1.759198e+00 2.836187e+00 -4.065196e-01 2.822701e+00 -6.608210e-01 -5.550280e-01 -3.949894e-02 1.237939e-02 3.850500e-02 3.269362e-01 4.434027e-01 3.809189e-01 -5.381620e-04 1.088861e-01 -1.782625e-01 -2.260872e-01 -6.774812e-02 2.991920e-01 -2.192569e-01
<VARIANCE> 25
 5.358124e+00 1.362090e+01 1.525413e+01 7.482348e+00 2.419012e+01 1.922730e+01 1.366665e+01 2.270160e+01 1.474834e+01 1.314395e+01 1.584922e+01 2.304467e+01 3.637330e-01 9.404647e-01 1.162778e+00 5.283386e-01 1.394749e+00 1.233891e+00 9.190702e-01 1.301190e+00 1.599850e+00 9.262025e-01 2.162808e+00 1.627080e+00 1.769919e-01
<GCONST> 7.710351e+01
<STATE> 3
<MEAN> 25
 3.795583e-01 2.198107e+00 -2.115971e-01 3.415524e+00 2.909617e+00 4.933412e+00 3.155798e+00 3.846433e+00 -3.612552e+00 2.144381e+00 2.652231e-01 -1.146911e+00 3.909125e-04 -2.664885e-02 -1.163563e-02 -4.910013e-03 -7.642528e-02 6.503572e-02 -2.790783e-02 -3.121019e-02 -9.984245e-03 4.129713e-02 -2.208008e-02 -3.615817e-02 -3.631148e-02
<VARIANCE> 25
 1.657254e+00 3.375691e+00 4.271191e+00 6.797843e+00 8.468321e+00 1.112756e+01 1.519274e+01 1.578850e+01 1.308731e+01 1.203110e+01 1.202701e+01 1.197831e+01 1.076116e-01 2.497132e-01 3.893778e-01 5.221102e-01 7.303877e-01 7.909819e-01 1.433874e+00 1.254346e+00 1.306158e+00 8.956186e-01 1.404913e+00 1.210149e+00 3.391309e-02
<GCONST> 6.322463e+01
<STATE> 4
<MEAN> 25
 9.610403e-01 2.672412e+00 -4.372266e-01 1.345330e+00 -1.780012e-01 1.418173e+00 1.342011e+00 2.244251e+00 -2.244346e+00 4.705458e+00 1.204437e+00 9.360796e-01 -1.227492e-01 -1.205545e-01 2.100225e-01 4.226362e-01 1.041276e+00 2.117064e-03 9.049861e-02 6.111728e-01 1.742202e-01 -4.254649e-01 -8.491882e-01 1.218998e-01 -1.437130e-01
<VARIANCE> 25
 2.661052e+00 9.280932e-01 7.421872e+00 1.260252e+01 2.264467e+01 4.319599e+01 1.579301e+01 1.088884e+01 6.297403e+00 1.030305e+01 1.477670e+01 4.288224e+00 2.764973e-01 3.669875e-01 2.033261e-01 4.920867e-01 7.400726e-01 1.402098e+00 1.225583e+00 6.926363e-01 4.678665e-01 5.157422e-01 6.634982e-01 9.378511e-01 1.472573e-01
<GCONST> 6.321525e+01
<TRANSP> 5
 0.000000e+00 1.000000e+00 0.000000e+00 0.000000e+00 0.000000e+00
 0.000000e+00 8.769806e-01 1.230194e-01 0.000000e+00 0.000000e+00
 0.000000e+00 0.000000e+00 9.459120e-01 5.408800e-02 0.000000e+00
 0.000000e+00 0.000000e+00 0.000000e+00 6.021147e-01 3.978853e-01
 0.000000e+00 0.000000e+00 0.000000e+00 0.000000e+00 0.000000e+00
<ENDHMM>
~h "p"
<BEGINHMM>
<NUMSTATES> 5
<STATE> 2
<MEAN> 25
 2.711044e-07 2.276736e-08 -6.105108e-08 -1.720701e-07 -1.586201e-07 9.768173e-08 -1.135738e-07 -1.298416e-07 7.694315e-08 -1.660590e-07 -1.083516e-07 -5.706868e-08 -2.818740e-03 -4.409721e-03 -4.277692e-03 -1.165964e-03 -3.608679e-03 5.208261e-03 -1.757075e-03 5.998432e-03 4.891248e-03 1.720927e-03 7.501529e-04 -5.307185e-03 6.137643e-03
<VARIANCE> 25
 2.670229e+01 2.794268e+01 3.749357e+01 3.307458e+01 5.256620e+01 4.928031e+01 4.561778e+01 4.954230e+01 4.604616e+01 3.096663e+01 2.869331e+01 1.969207e+01 8.024186e-01 8.637462e-01 9.762596e-01 1.208383e+00 1.860729e+00 1.938551e+00 2.342637e+00 2.054597e+00 2.126093e+00 1.768907e+00 1.840738e+00 1.505519e+00 1.027859e+00
<GCONST> 9.389128e+01
<STATE> 3
<MEAN> 25
 2.711044e-07 2.276736e-08 -6.105108e-08 -1.720701e-07 -1.586201e-07 9.768173e-08 -1.135738e-07 -1.298416e-07 7.694315e-08 -1.660590e-07 -1.083516e-07 -5.706868e-08 -2.818740e-03 -4.409721e-03 -4.277692e-03 -1.165964e-03 -3.608679e-03 5.208261e-03 -1.757075e-03 5.998432e-03 4.891248e-03 1.720927e-03 7.501529e-04 -5.307185e-03 6.137643e-03
<VARIANCE> 25
 2.670229e+01 2.794268e+01 3.749357e+01 3.307458e+01 5.256620e+01 4.928031e+01 4.561778e+01 4.954230e+01 4.604616e+01 3.096663e+01 2.869331e+01 1.969207e+01 8.024186e-01 8.637462e-01 9.762596e-01 1.208383e+00 1.860729e+00 1.938551e+00 2.342637e+00 2.054597e+00 2.126093e+00 1.768907e+00 1.840738e+00 1.505519e+00 1.027859e+00
<GCONST> 9.389128e+01
<STATE> 4
<MEAN> 25
 2.711044e-07 2.276736e-08 -6.105108e-08 -1.720701e-07 -1.586201e-07 9.768173e-08 -1.135738e-07 -1.298416e-07 7.694315e-08 -1.660590e-07 -1.083516e-07 -5.706868e-08 -2.818740e-03 -4.409721e-03 -4.277692e-03 -1.165964e-03 -3.608679e-03 5.208261e-03 -1.757075e-03 5.998432e-03 4.891248e-03 1.720927e-03 7.501529e-04 -5.307185e-03 6.137643e-03
<VARIANCE> 25
 2.670229e+01 2.794268e+01 3.749357e+01 3.307458e+01 5.256620e+01 4.928031e+01 4.561778e+01 4.954230e+01 4.604616e+01 3.096663e+01 2.869331e+01 1.969207e+01 8.024186e-01 8.637462e-01 9.762596e-01 1.208383e+00 1.860729e+00 1.938551e+00 2.342637e+00 2.054597e+00 2.126093e+00 1.768907e+00 1.840738e+00 1.505519e+00 1.027859e+00
<GCONST> 9.389128e+01
<TRANSP> 5
 0.000000e+00 1.000000e+00 0.000000e+00 0.000000e+00 0.000000e+00
 0.000000e+00 6.000000e-01 4.000000e-01 0.000000e+00 0.000000e+00
 0.000000e+00 0.000000e+00 6.000000e-01 4.000000e-01 0.000000e+00
 0.000000e+00 0.000000e+00 0.000000e+00 7.000000e-01 3.000000e-01
 0.000000e+00 0.000000e+00 0.000000e+00 0.000000e+00 0.000000e+00
<ENDHMM>
~h "r"
<BEGINHMM>
<NUMSTATES> 5
<STATE> 2
<MEAN> 25
 2.062631e+00 -6.566818e+00 3.676161e-01 -2.386950e+00 -2.468597e+00 -1.018672e+01 -7.711182e+00 -1.169331e+00 3.237084e+00 -2.459813e+00 7.500394e-01 -3.334874e+00 -3.918975e-02 -2.248821e-01 -1.902342e-01 -3.130136e-01 2.076145e-01 7.632216e-01 5.155790e-01 6.631431e-01 -4.395485e-01 -7.116193e-01 1.745902e-01 -2.313341e-01 2.630736e-01
<VARIANCE> 25
 3.208022e+01 3.824420e+01 5.660729e+01 3.626509e+01 9.213749e+01 6.887362e+01 2.466394e+01 5.779414e+01 2.219214e+01 3.146506e+01 7.497385e+01 6.281413e+01 1.979421e+00 1.132751e+00 3.046434e+00 3.023025e+00 2.400590e-01 3.453321e+00 2.831471e+00 5.402147e+00 6.099742e+00 4.673722e+00 1.225339e+00 7.227246e-01 7.746377e+00
<GCONST> 1.025535e+02
<STATE> 3
<MEAN> 25
 2.669257e+00 -7.254941e+00 1.690763e+00 -1.655170e+00 -4.703528e+00 -9.026485e+00 -4.409473e+00 7.316982e-01 2.048936e+00 -3.002839e+00 3.243060e+00 -3.667267e+00 -9.206178e-02 -3.276522e-01 -3.600812e-01 1.798534e-01 -4.261589e-01 1.162712e+00 1.921909e+00 1.400187e+00 -2.188479e-02 -1.483487e-01 2.669996e-01 -2.701715e-01 -1.125986e+00
<VARIANCE> 25
 3.150491e+01 2.350904e+01 4.870492e+01 3.951956e+01 1.016294e+02 4.856145e+01 1.975985e+01 5.626365e+01 1.752025e+01 1.443159e+01 6.320264e+01 6.582749e+01 2.199393e+00 8.877053e-01 2.057081e+00 1.151469e+00 6.981350e-01 5.504842e+00 1.496902e+00 1.391366e+00 2.432579e+00 3.044963e+00 1.902108e+00 1.216745e+00 4.464803e+00
<GCONST> 9.745022e+01
<STATE> 4
<MEAN> 25
 2.617856e+00 -9.419066e+00 8.599076e-02 -1.323409e+00 -1.151366e+01 -1.115580e+01 8.998923e-01 5.831398e+00 1.787331e+00 6.115338e-01 6.380086e+00 -3.627739e+00 -3.002659e-01 3.900312e-01 -6.362205e-01 1.032192e-01 4.974535e-02 2.371147e-01 6.678151e-01 8.063722e-01 1.688022e-01 1.382548e+00 8.867632e-01 1.254611e+00 -1.036039e+00
<VARIANCE> 25
 2.472873e+01 1.290669e+01 2.486696e+01 2.692371e+01 1.140796e+02 4.098199e+01 1.985285e+01 4.781133e+01 2.237729e+01 2.345724e+01 3.999195e+01 4.403131e+01 7.042793e-01 6.819414e-01 7.185040e-01 1.536364e+00 9.102911e-01 3.514308e+00 7.935829e-01 8.349555e-01 5.894004e-01 2.169100e+00 1.660289e+00 8.180712e-01 7.951143e-01
<GCONST> 8.770094e+01
<TRANSP> 5
 0.000000e+00 1.000000e+00 0.000000e+00 0.000000e+00 0.000000e+00
 0.000000e+00 1.300801e-01 8.699199e-01 0.000000e+00 0.000000e+00
 0.000000e+00 0.000000e+00 2.058098e-01 7.941902e-01 0.000000e+00
 0.000000e+00 0.000000e+00 0.000000e+00 5.417256e-01 4.582744e-01
 0.000000e+00 0.000000e+00 0.000000e+00 0.000000e+00 0.000000e+00
<ENDHMM>
~h "s"
<BEGINHMM>
<NUMSTATES> 5
<STATE> 2
<MEAN> 25
 -2.035413e+00 7.628337e-01 1.075012e+01 -6.451530e-01 -8.651436e+00 -1.008458e+01 -4.920425e+00 -5.185839e+00 2.165314e+00 -5.017992e+00 5.714079e+00 3.136767e+00 1.081851e+00 5.992292e-01 6.660947e-01 -4.387876e-01 -9.482579e-01 2.262345e-01 -7.649465e-01 -1.161681e+00 -4.514210e-01 -2.419880e-01 3.928460e-01 -6.618571e-01 2.946793e-01
<VARIANCE> 25
 6.587182e+01 2.950422e+01 1.106777e+02 2.037344e+01 1.120354e+02 2.792125e+01 5.591502e+01 6.575211e+01 4.232686e+01 6.885271e+01 8.344078e+01 2.458436e+01 7.265750e+00 3.494341e+00 3.230384e+00 1.429179e+00 8.506126e+00 3.352915e+00 6.991029e+00 6.134277e+00 5.578694e+00 6.134600e+00 6.895490e+00 3.229033e+00 1.604117e+00
<GCONST> 1.120833e+02
<STATE> 3
<MEAN> 25
 -2.288123e+00 3.045337e+00 7.400835e+00 -3.399016e-01 -4.095578e+00 -4.767338e+00 -1.922178e+00 -2.767629e+00 -3.721134e-01 -1.374837e+00 1.646498e+00 5.234814e-01 -7.350190e-01 -5.144231e-01 -4.766956e-01 2.080431e-01 9.558368e-01 7.646833e-02 3.206298e-01 9.642180e-01 -1.090984e-01 -1.568811e-01 3.485426e-01 6.827367e-01 2.796898e-01
<VARIANCE> 25
 8.690466e+01 2.116099e+01 9.002574e+01 2.303196e+01 7.658987e+01 2.330987e+01 6.358940e+01 6.718666e+01 6.765366e+01 1.969976e+01 4.267738e+01 4.546819e+01 4.396757e+00 3.072265e+00 4.234247e+00 1.538771e+00 3.085055e+00 5.773993e+00 4.724782e+00 3.589300e+00 2.120437e+00 1.489309e+00 3.857543e+00 3.544940e+00 3.830666e+00
<GCONST> 1.070105e+02
<STATE> 4
<MEAN> 25
 -6.898137e+00 5.669373e-01 1.558368e+00 -2.902354e+00 3.928900e+00 -5.150724e+00 -3.620490e+00 1.661553e+00 3.044884e+00 -2.643668e-01 1.167610e+00 3.988256e+00 1.101306e-01 2.159212e-01 -2.844587e-01 -4.352180e-01 -2.624111e-01 3.059433e-01 4.152003e-01 -3.950658e-01 -8.242539e-01 -3.635714e-01 1.510614e-01 3.035647e-01 1.015625e-01
<VARIANCE> 25
 8.640259e+01 3.233143e+01 4.812347e+01 1.647592e+01 6.099340e+01 3.756065e+01 9.017889e+01 5.637313e+01 3.910183e+01 1.391679e+01 2.242603e+01 3.445704e+01 3.776827e+00 1.497279e+00 2.183339e+00 1.057713e+00 2.261879e+00 5.384429e+00 1.024659e+01 2.062873e+00 2.919498e+00 1.658876e+00 2.209358e+00 2.919169e+00 3.230971e+00
<GCONST> 1.025119e+02
<TRANSP> 5
 0.000000e+00 1.000000e+00 0.000000e+00 0.000000e+00 0.000000e+00
 0.000000e+00 6.725180e-01 3.274820e-01 0.000000e+00 0.000000e+00
 0.000000e+00 0.000000e+00 6.109157e-01 3.890844e-01 0.000000e+00
 0.000000e+00 0.000000e+00 0.000000e+00 3.943867e-01 6.056133e-01
 0.000000e+00 0.000000e+00 0.000000e+00 0.000000e+00 0.000000e+00
<ENDHMM>
~h "t"
<BEGINHMM>
<NUMSTATES> 5
<STATE> 2
<MEAN> 25
 7.001333e+00 -4.272078e+00 2.333264e+00 2.138126e+00 -1.652398e+01 -9.683218e+00 -8.217248e+00 -8.041156e+00 5.262317e+00 -6.278873e+00 5.077531e+00 2.444485e+00 2.945247e-01 -9.439949e-01 7.946422e-01 1.022358e+00 -1.499514e+00 -1.895717e+00 1.786268e-01 8.927656e-01 -2.659151e-01 -4.774062e-01 8.168615e-01 1.791187e-02 1.653450e-01
<VARIANCE> 25
 1.178131e+01 4.773726e+01 5.314317e+01 1.036096e+01 1.622452e+02 3.135592e+01 2.433788e+01 3.525460e+01 1.415129e+01 7.214505e+01 3.095020e+01 8.212376e+00 1.867251e-01 1.435745e+00 5.773107e+00 1.056696e+00 3.868956e+00 1.699953e+00 1.304090e+00 1.197068e+00 3.140496e+00 3.055552e+00 2.625815e+00 1.185101e+00 6.897408e-01
<GCONST> 9.219185e+01
<STATE> 3
<MEAN> 25
 6.746284e+00 -1.720611e+00 7.747867e+00 3.161460e+00 -1.609335e+01 -1.236641e+01 -6.219748e+00 -6.276924e+00 -3.374485e+00 -5.906130e+00 7.014400e+00 -1.511650e+00 -5.644612e-01 2.437282e-01 2.367506e-01 -4.483292e-01 1.780826e+00 3.101951e-02 -5.016291e-01 -2.358764e-01 -5.331063e-01 9.360730e-01 -1.061732e+00 -2.677666e-01 -1.177261e-01
<VARIANCE> 25
 9.704938e+00 4.362223e+01 1.772619e+01 5.998544e+00 9.425797e+01 3.949842e+01 2.754560e+01 1.678654e+01 3.695785e+01 2.947068e+01 4.042394e+01 1.531718e+01 5.774826e-01 3.771430e+00 9.269342e-01 9.984005e-01 6.872461e+00 1.020698e+00 3.220113e+00 2.286479e+00 3.261495e+00 2.965085e+00 4.996433e+00 1.612050e+00 1.621645e+00
<GCONST> 9.392607e+01
<STATE> 4
<MEAN> 25
 3.733936e+00 -4.083632e+00 5.473875e+00 -7.578679e-01 -5.934811e+00 -1.290944e+01 -1.368624e+01 -3.906217e+00 4.551101e+00 -8.707002e-01 9.363914e-01 -2.358405e-01 -5.383949e-01 -1.508877e+00 1.118507e-01 -7.195847e-01 -1.104398e+00 1.370805e-01 -2.898239e-01 1.888227e-01 2.183110e+00 -8.222799e-01 8.139500e-01 -2.623886e-01 1.193333e+00
<VARIANCE> 25
 8.328164e+00 7.380423e+01 2.486758e+01 6.844281e+00 1.094577e+02 2.895648e+01 8.198772e+01 3.450690e+01 1.175894e+02 4.337387e+01 2.829302e+01 1.091543e+01 1.160986e+00 2.259512e+00 1.136945e+00 1.284873e+00 1.431981e+01 3.172597e+00 7.922034e+00 1.240890e+00 3.182912e+00 7.356801e+00 4.870517e+00 3.291977e+00 4.173730e+00
<GCONST> 1.025859e+02
<TRANSP> 5
 0.000000e+00 1.000000e+00 0.000000e+00 0.000000e+00 0.000000e+00
 0.000000e+00 7.017293e-01 2.982708e-01 0.000000e+00 0.000000e+00
 0.000000e+00 0.000000e+00 7.628565e-01 2.371435e-01 0.000000e+00
 0.000000e+00 0.000000e+00 0.000000e+00 7.179065e-01 2.820935e-01
 0.000000e+00 0.000000e+00 0.000000e+00 0.000000e+00 0.000000e+00
<ENDHMM>
~h "u"
<BEGINHMM>
<NUMSTATES> 5
<STATE> 2
<MEAN> 25
 -2.960581e+00 -3.627101e+00 6.448207e-01 -4.664598e+00 -1.446464e+00 -4.879016e+00 -5.543503e+00 4.866298e+00 8.359544e+00 3.353797e-01 9.529833e-01 -1.996540e+00 1.601246e-01 -3.943572e-01 -2.797166e-01 -6.195920e-01 -6.773021e-01 1.158602e+00 2.106657e+00 2.413848e-01 -2.865267e-01 -4.751070e-01 -1.207543e+00 -3.604594e-01 -4.957499e-02
<VARIANCE> 25
 5.975248e+01 3.949039e+01 1.616633e+01 2.771965e+01 9.271339e+01 1.536277e+01 1.195965e+02 5.384179e+00 4.909541e+01 1.625104e+01 1.831494e+01 3.568461e+00 4.321530e-01 1.260456e+00 3.429247e+00 1.459138e+00 5.631933e-01 1.058184e+00 4.439484e+00 1.694389e-01 6.629013e-01 7.052146e-01 2.852141e+00 2.283074e+00 3.220984e-01
<GCONST> 8.458979e+01
<STATE> 3
<MEAN> 25
 -2.181283e+00 -5.745985e+00 -9.481350e-01 -5.169960e+00 -3.755640e+00 -3.595531e+00 -2.070612e+00 3.705226e+00 1.047490e+01 -2.529605e+00 -3.317314e+00 -2.638112e+00 5.672358e-02 -1.203150e-01 -5.393988e-01 4.431815e-01 6.753593e-01 4.895182e-01 2.304332e+00 -2.396634e-01 -2.888459e-01 -5.562289e-01 -1.863264e+00 -1.721541e-01 -1.230636e-02
<VARIANCE> 25
 4.091819e+01 2.917999e+01 2.293047e+01 2.025892e+01 8.994955e+01 2.187385e+01 5.980234e+01 1.046858e+01 7.779465e+01 1.887768e+01 2.374512e+01 8.263195e+00 6.037695e-01 1.049116e+00 2.711586e+00 1.176100e+00 1.019349e+00 8.967872e-01 5.387770e+00 6.293407e-01 9.244367e-01 4.747514e-01 3.060008e+00 1.028293e+00 2.377398e-01
<GCONST> 8.648885e+01
<STATE> 4
<MEAN> 25
 -2.272801e-02 1.339672e+00 -1.440192e-01 3.593027e+00 2.373520e+00 3.908365e+00 2.988648e+00 2.400676e+00 -3.482239e+00 1.631719e+00 -8.603257e-01 -6.946886e-01 1.704640e-02 -2.729562e-02 2.072983e-03 5.303481e-02 -4.766757e-03 3.498455e-02 -2.422625e-02 6.764051e-03 -2.359345e-02 1.470750e-02 5.392718e-02 6.665638e-02 -2.005672e-02
<VARIANCE> 25
 2.776224e+00 5.328397e+00 4.499567e+00 8.712413e+00 1.217689e+01 1.150147e+01 1.096225e+01 9.674936e+00 1.952812e+01 1.133206e+01 1.247997e+01 9.372730e+00 1.350073e-01 2.362492e-01 4.005375e-01 8.096858e-01 1.033756e+00 9.035830e-01 1.718995e+00 1.137003e+00 1.255912e+00 1.157473e+00 1.592874e+00 9.353945e-01 4.126543e-02
<GCONST> 6.569294e+01
<TRANSP> 5
 0.000000e+00 1.000000e+00 0.000000e+00 0.000000e+00 0.000000e+00
 0.000000e+00 9.240925e-02 9.075908e-01 0.000000e+00 0.000000e+00
 0.000000e+00 0.000000e+00 3.387989e-01 6.612012e-01 0.000000e+00
 0.000000e+00 0.000000e+00 0.000000e+00 9.565802e-01 4.341981e-02
 0.000000e+00 0.000000e+00 0.000000e+00 0.000000e+00 0.000000e+00
<ENDHMM>
~h "ng"
<BEGINHMM>
<NUMSTATES> 5
<STATE> 2
<MEAN> 25
 2.711044e-07 2.276736e-08 -6.105108e-08 -1.720701e-07 -1.586201e-07 9.768173e-08 -1.135738e-07 -1.298416e-07 7.694315e-08 -1.660590e-07 -1.083516e-07 -5.706868e-08 -2.818740e-03 -4.409721e-03 -4.277692e-03 -1.165964e-03 -3.608679e-03 5.208261e-03 -1.757075e-03 5.998432e-03 4.891248e-03 1.720927e-03 7.501529e-04 -5.307185e-03 6.137643e-03
<VARIANCE> 25
 2.670229e+01 2.794268e+01 3.749357e+01 3.307458e+01 5.256620e+01 4.928031e+01 4.561778e+01 4.954230e+01 4.604616e+01 3.096663e+01 2.869331e+01 1.969207e+01 8.024186e-01 8.637462e-01 9.762596e-01 1.208383e+00 1.860729e+00 1.938551e+00 2.342637e+00 2.054597e+00 2.126093e+00 1.768907e+00 1.840738e+00 1.505519e+00 1.027859e+00
<GCONST> 9.389128e+01
<STATE> 3
<MEAN> 25
 2.711044e-07 2.276736e-08 -6.105108e-08 -1.720701e-07 -1.586201e-07 9.768173e-08 -1.135738e-07 -1.298416e-07 7.694315e-08 -1.660590e-07 -1.083516e-07 -5.706868e-08 -2.818740e-03 -4.409721e-03 -4.277692e-03 -1.165964e-03 -3.608679e-03 5.208261e-03 -1.757075e-03 5.998432e-03 4.891248e-03 1.720927e-03 7.501529e-04 -5.307185e-03 6.137643e-03
<VARIANCE> 25
 2.670229e+01 2.794268e+01 3.749357e+01 3.307458e+01 5.256620e+01 4.928031e+01 4.561778e+01 4.954230e+01 4.604616e+01 3.096663e+01 2.869331e+01 1.969207e+01 8.024186e-01 8.637462e-01 9.762596e-01 1.208383e+00 1.860729e+00 1.938551e+00 2.342637e+00 2.054597e+00 2.126093e+00 1.768907e+00 1.840738e+00 1.505519e+00 1.027859e+00
<GCONST> 9.389128e+01
<STATE> 4
<MEAN> 25
 2.711044e-07 2.276736e-08 -6.105108e-08 -1.720701e-07 -1.586201e-07 9.768173e-08 -1.135738e-07 -1.298416e-07 7.694315e-08 -1.660590e-07 -1.083516e-07 -5.706868e-08 -2.818740e-03 -4.409721e-03 -4.277692e-03 -1.165964e-03 -3.608679e-03 5.208261e-03 -1.757075e-03 5.998432e-03 4.891248e-03 1.720927e-03 7.501529e-04 -5.307185e-03 6.137643e-03
<VARIANCE> 25
 2.670229e+01 2.794268e+01 3.749357e+01 3.307458e+01 5.256620e+01 4.928031e+01 4.561778e+01 4.954230e+01 4.604616e+01 3.096663e+01 2.869331e+01 1.969207e+01 8.024186e-01 8.637462e-01 9.762596e-01 1.208383e+00 1.860729e+00 1.938551e+00 2.342637e+00 2.054597e+00 2.126093e+00 1.768907e+00 1.840738e+00 1.505519e+00 1.027859e+00
<GCONST> 9.389128e+01
<TRANSP> 5
 0.000000e+00 1.000000e+00 0.000000e+00 0.000000e+00 0.000000e+00
 0.000000e+00 6.000000e-01 4.000000e-01 0.000000e+00 0.000000e+00
 0.000000e+00 0.000000e+00 6.000000e-01 4.000000e-01 0.000000e+00
 0.000000e+00 0.000000e+00 0.000000e+00 7.000000e-01 3.000000e-01
 0.000000e+00 0.000000e+00 0.000000e+00 0.000000e+00 0.000000e+00
<ENDHMM>
~h "sil"
<BEGINHMM>
<NUMSTATES> 5
<STATE> 2
<MEAN> 25
 -3.066919e-01 1.620252e+00 3.089157e-01 2.513372e+00 2.298249e+00 2.958961e+00 2.655843e+00 2.630193e+00 -2.622097e+00 1.461423e+00 -2.434477e-02 1.927401e-02 -1.669776e-03 5.754473e-03 1.068117e-03 5.469074e-03 -1.372483e-03 1.209099e-02 8.358964e-03 -2.772708e-03 -2.374493e-03 -5.910117e-04 1.835245e-03 3.091853e-03 -9.280614e-03
<VARIANCE> 25
 1.503561e+00 3.057070e+00 3.771395e+00 6.686734e+00 7.664940e+00 1.177786e+01 1.073215e+01 1.199252e+01 1.238337e+01 1.192739e+01 1.142853e+01 1.054590e+01 9.812149e-02 2.318541e-01 3.656181e-01 5.823833e-01 7.495659e-01 1.061539e+00 1.196316e+00 1.105977e+00 1.252452e+00 1.205926e+00 1.099562e+00 1.063900e+00 3.192719e-02
<GCONST> 6.169360e+01
<STATE> 3
<MEAN> 25
 -1.285476e+00 1.760468e+00 5.910934e-01 1.679162e+00 2.778695e+00 3.467042e+00 2.497801e+00 2.029357e+00 -2.279791e+00 1.801897e+00 2.543347e-01 6.982248e-01 -2.242439e-03 -8.933230e-03 -4.429350e-03 1.532247e-02 3.620090e-02 -3.192190e-02 -3.550987e-02 -3.237088e-02 2.911070e-03 -3.285245e-02 -7.084332e-03 -1.132825e-02 1.674771e-02
<VARIANCE> 25
 2.099834e+00 3.352997e+00 4.002031e+00 5.991252e+00 7.989141e+00 9.021185e+00 8.688721e+00 1.024074e+01 1.122113e+01 1.060343e+01 9.811115e+00 9.729942e+00 1.257372e-01 3.834624e-01 4.163755e-01 6.521783e-01 9.785691e-01 9.431627e-01 9.706584e-01 1.069016e+00 1.305213e+00 1.160708e+00 1.030744e+00 1.082974e+00 8.625946e-02
<GCONST> 6.287560e+01
<STATE> 4
<MEAN> 25
 -4.041142e-02 -9.804273e-01 -1.444072e+00 -2.335018e+00 -3.678961e-01 -7.607089e-01 -4.550581e-01 -1.875879e+00 1.064953e+00 -5.985891e-01 -8.981397e-01 1.570334e-01 -2.162650e-03 -2.649939e-02 -4.475186e-02 -3.108115e-02 -3.332938e-02 2.462155e-02 -7.834293e-03 3.088967e-03 3.518276e-02 1.843375e-02 -4.509963e-03 -2.434768e-02 6.842635e-02
<VARIANCE> 25
 3.963240e+01 4.529696e+01 5.233160e+01 6.346889e+01 6.621957e+01 6.025176e+01 4.114498e+01 7.096616e+01 4.921123e+01 4.569267e+01 3.313673e+01 2.822763e+01 1.246431e+00 1.301972e+00 1.267405e+00 2.070360e+00 2.499892e+00 2.567390e+00 2.589734e+00 2.531620e+00 2.735749e+00 2.367542e+00 2.067580e+00 1.971180e+00 1.907305e+00
<GCONST> 1.014851e+02
<TRANSP> 5
 0.000000e+00 1.000000e+00 0.000000e+00 0.000000e+00 0.000000e+00
 0.000000e+00 9.920486e-01 7.951334e-03 0.000000e+00 0.000000e+00
 0.000000e+00 0.000000e+00 9.523560e-01 4.764403e-02 0.000000e+00
 0.000000e+00 0.000000e+00 0.000000e+00 9.869117e-01 1.308833e-02
 0.000000e+00 0.000000e+00 0.000000e+00 0.000000e+00 0.000000e+00
<ENDHMM>
~h "sp"
<BEGINHMM>
<NUMSTATES> 3
<STATE> 2
<MEAN> 25
 -3.066919e-01 1.620252e+00 3.089157e-01 2.513372e+00 2.298249e+00 2.958961e+00 2.655843e+00 2.630193e+00 -2.622097e+00 1.461423e+00 -2.434477e-02 1.927401e-02 -1.669776e-03 5.754473e-03 1.068117e-03 5.469074e-03 -1.372483e-03 1.209099e-02 8.358964e-03 -2.772708e-03 -2.374493e-03 -5.910117e-04 1.835245e-03 3.091853e-03 -9.280614e-03
<VARIANCE> 25
 1.503561e+00 3.057070e+00 3.771395e+00 6.686734e+00 7.664940e+00 1.177786e+01 1.073215e+01 1.199252e+01 1.238337e+01 1.192739e+01 1.142853e+01 1.054590e+01 9.812149e-02 2.318541e-01 3.656181e-01 5.823833e-01 7.495659e-01 1.061539e+00 1.196316e+00 1.105977e+00 1.252452e+00 1.205926e+00 1.099562e+00 1.063900e+00 3.192719e-02
<GCONST> 6.169360e+01
<TRANSP> 3
0.0 1.0 0.0
0.0 0.9 0.1
0.0 0.0 0.0
<ENDHMM>
