~o
<STREAMINFO> 1 25
<VECSIZE> 25<NULLD><MFCC_D_N_Z_0><DIAGC>
~t "T_E"
<TRANSP> 5
 0.000000e+00 1.000000e+00 0.000000e+00 0.000000e+00 0.000000e+00
 0.000000e+00 4.000055e-01 5.999946e-01 0.000000e+00 0.000000e+00
 0.000000e+00 0.000000e+00 2.499658e-01 7.500342e-01 0.000000e+00
 0.000000e+00 0.000000e+00 0.000000e+00 6.674359e-01 3.325641e-01
 0.000000e+00 0.000000e+00 0.000000e+00 0.000000e+00 0.000000e+00
~t "T_a"
<TRANSP> 5
 0.000000e+00 1.000000e+00 0.000000e+00 0.000000e+00 0.000000e+00
 0.000000e+00 4.738718e-01 5.261282e-01 0.000000e+00 0.000000e+00
 0.000000e+00 0.000000e+00 6.648757e-01 3.351244e-01 0.000000e+00
 0.000000e+00 0.000000e+00 0.000000e+00 5.199960e-01 4.800040e-01
 0.000000e+00 0.000000e+00 0.000000e+00 0.000000e+00 0.000000e+00
~t "T_b"
<TRANSP> 5
 0.000000e+00 1.000000e+00 0.000000e+00 0.000000e+00 0.000000e+00
 0.000000e+00 6.000000e-01 4.000000e-01 0.000000e+00 0.000000e+00
 0.000000e+00 0.000000e+00 6.000000e-01 4.000000e-01 0.000000e+00
 0.000000e+00 0.000000e+00 0.000000e+00 7.000000e-01 3.000000e-01
 0.000000e+00 0.000000e+00 0.000000e+00 0.000000e+00 0.000000e+00
~t "T_d"
<TRANSP> 5
 0.000000e+00 1.000000e+00 0.000000e+00 0.000000e+00 0.000000e+00
 0.000000e+00 6.000000e-01 4.000000e-01 0.000000e+00 0.000000e+00
 0.000000e+00 0.000000e+00 6.000000e-01 4.000000e-01 0.000000e+00
 0.000000e+00 0.000000e+00 0.000000e+00 7.000000e-01 3.000000e-01
 0.000000e+00 0.000000e+00 0.000000e+00 0.000000e+00 0.000000e+00
~t "T_e"
<TRANSP> 5
 0.000000e+00 1.000000e+00 0.000000e+00 0.000000e+00 0.000000e+00
 0.000000e+00 4.000010e-01 5.999990e-01 0.000000e+00 0.000000e+00
 0.000000e+00 0.000000e+00 7.500082e-01 2.499919e-01 0.000000e+00
 0.000000e+00 0.000000e+00 0.000000e+00 9.566509e-01 4.334916e-02
 0.000000e+00 0.000000e+00 0.000000e+00 0.000000e+00 0.000000e+00
~t "T_f"
<TRANSP> 5
 0.000000e+00 1.000000e+00 0.000000e+00 0.000000e+00 0.000000e+00
 0.000000e+00 6.000000e-01 4.000000e-01 0.000000e+00 0.000000e+00
 0.000000e+00 0.000000e+00 6.000000e-01 4.000000e-01 0.000000e+00
 0.000000e+00 0.000000e+00 0.000000e+00 7.000000e-01 3.000000e-01
 0.000000e+00 0.000000e+00 0.000000e+00 0.000000e+00 0.000000e+00
~t "T_g"
<TRANSP> 5
 0.000000e+00 1.000000e+00 0.000000e+00 0.000000e+00 0.000000e+00
 0.000000e+00 8.620910e-01 1.379090e-01 0.000000e+00 0.000000e+00
 0.000000e+00 0.000000e+00 7.775697e-01 2.224304e-01 0.000000e+00
 0.000000e+00 0.000000e+00 0.000000e+00 8.333471e-01 1.666529e-01
 0.000000e+00 0.000000e+00 0.000000e+00 0.000000e+00 0.000000e+00
~t "T_h"
<TRANSP> 5
 0.000000e+00 1.000000e+00 0.000000e+00 0.000000e+00 0.000000e+00
 0.000000e+00 6.000000e-01 4.000000e-01 0.000000e+00 0.000000e+00
 0.000000e+00 0.000000e+00 6.000000e-01 4.000000e-01 0.000000e+00
 0.000000e+00 0.000000e+00 0.000000e+00 7.000000e-01 3.000000e-01
 0.000000e+00 0.000000e+00 0.000000e+00 0.000000e+00 0.000000e+00
~t "T_i"
<TRANSP> 5
 0.000000e+00 1.000000e+00 0.000000e+00 0.000000e+00 0.000000e+00
 0.000000e+00 5.609248e-01 4.390753e-01 0.000000e+00 0.000000e+00
 0.000000e+00 0.000000e+00 1.022527e-01 8.977473e-01 0.000000e+00
 0.000000e+00 0.000000e+00 0.000000e+00 5.272047e-01 4.727953e-01
 0.000000e+00 0.000000e+00 0.000000e+00 0.000000e+00 0.000000e+00
~t "T_k"
<TRANSP> 5
 0.000000e+00 1.000000e+00 0.000000e+00 0.000000e+00 0.000000e+00
 0.000000e+00 8.548904e-01 1.451095e-01 0.000000e+00 0.000000e+00
 0.000000e+00 0.000000e+00 9.343836e-01 6.561645e-02 0.000000e+00
 0.000000e+00 0.000000e+00 0.000000e+00 8.300133e-01 1.699868e-01
 0.000000e+00 0.000000e+00 0.000000e+00 0.000000e+00 0.000000e+00
~t "T_l"
<TRANSP> 5
 0.000000e+00 1.000000e+00 0.000000e+00 0.000000e+00 0.000000e+00
 0.000000e+00 6.000000e-01 4.000000e-01 0.000000e+00 0.000000e+00
 0.000000e+00 0.000000e+00 6.000000e-01 4.000000e-01 0.000000e+00
 0.000000e+00 0.000000e+00 0.000000e+00 7.000000e-01 3.000000e-01
 0.000000e+00 0.000000e+00 0.000000e+00 0.000000e+00 0.000000e+00
~t "T_m"
<TRANSP> 5
 0.000000e+00 1.000000e+00 0.000000e+00 0.000000e+00 0.000000e+00
 0.000000e+00 6.000000e-01 4.000000e-01 0.000000e+00 0.000000e+00
 0.000000e+00 0.000000e+00 6.000000e-01 4.000000e-01 0.000000e+00
 0.000000e+00 0.000000e+00 0.000000e+00 7.000000e-01 3.000000e-01
 0.000000e+00 0.000000e+00 0.000000e+00 0.000000e+00 0.000000e+00
~t "T_o"
<TRANSP> 5
 0.000000e+00 1.000000e+00 0.000000e+00 0.000000e+00 0.000000e+00
 0.000000e+00 8.310682e-01 1.689318e-01 0.000000e+00 0.000000e+00
 0.000000e+00 0.000000e+00 9.722410e-01 2.775900e-02 0.000000e+00
 0.000000e+00 0.000000e+00 0.000000e+00 4.540065e-01 5.459936e-01
 0.000000e+00 0.000000e+00 0.000000e+00 0.000000e+00 0.000000e+00
~t "T_p"
<TRANSP> 5
 0.000000e+00 1.000000e+00 0.000000e+00 0.000000e+00 0.000000e+00
 0.000000e+00 6.000000e-01 4.000000e-01 0.000000e+00 0.000000e+00
 0.000000e+00 0.000000e+00 6.000000e-01 4.000000e-01 0.000000e+00
 0.000000e+00 0.000000e+00 0.000000e+00 7.000000e-01 3.000000e-01
 0.000000e+00 0.000000e+00 0.000000e+00 0.000000e+00 0.000000e+00
~t "T_r"
<TRANSP> 5
 0.000000e+00 1.000000e+00 0.000000e+00 0.000000e+00 0.000000e+00
 0.000000e+00 8.218484e-12 1.000000e+00 0.000000e+00 0.000000e+00
 0.000000e+00 0.000000e+00 1.694199e-01 8.305801e-01 0.000000e+00
 0.000000e+00 0.000000e+00 0.000000e+00 5.452864e-01 4.547136e-01
 0.000000e+00 0.000000e+00 0.000000e+00 0.000000e+00 0.000000e+00
~t "T_s"
<TRANSP> 5
 0.000000e+00 1.000000e+00 0.000000e+00 0.000000e+00 0.000000e+00
 0.000000e+00 8.762298e-01 1.237702e-01 0.000000e+00 0.000000e+00
 0.000000e+00 0.000000e+00 7.458624e-01 2.541377e-01 0.000000e+00
 0.000000e+00 0.000000e+00 0.000000e+00 7.323304e-01 2.676696e-01
 0.000000e+00 0.000000e+00 0.000000e+00 0.000000e+00 0.000000e+00
~t "T_t"
<TRANSP> 5
 0.000000e+00 1.000000e+00 0.000000e+00 0.000000e+00 0.000000e+00
 0.000000e+00 6.655606e-01 3.344393e-01 0.000000e+00 0.000000e+00
 0.000000e+00 0.000000e+00 7.727738e-01 2.272263e-01 0.000000e+00
 0.000000e+00 0.000000e+00 0.000000e+00 7.198559e-01 2.801441e-01
 0.000000e+00 0.000000e+00 0.000000e+00 0.000000e+00 0.000000e+00
~t "T_u"
<TRANSP> 5
 0.000000e+00 1.000000e+00 0.000000e+00 0.000000e+00 0.000000e+00
 0.000000e+00 3.241515e-11 1.000000e+00 0.000000e+00 0.000000e+00
 0.000000e+00 0.000000e+00 4.287192e-01 5.712808e-01 0.000000e+00
 0.000000e+00 0.000000e+00 0.000000e+00 9.200856e-01 7.991437e-02
 0.000000e+00 0.000000e+00 0.000000e+00 0.000000e+00 0.000000e+00
~t "T_ng"
<TRANSP> 5
 0.000000e+00 1.000000e+00 0.000000e+00 0.000000e+00 0.000000e+00
 0.000000e+00 6.000000e-01 4.000000e-01 0.000000e+00 0.000000e+00
 0.000000e+00 0.000000e+00 6.000000e-01 4.000000e-01 0.000000e+00
 0.000000e+00 0.000000e+00 0.000000e+00 7.000000e-01 3.000000e-01
 0.000000e+00 0.000000e+00 0.000000e+00 0.000000e+00 0.000000e+00
~s "ST_f_2_1"
<MEAN> 25
 2.711044e-07 2.276736e-08 -6.105108e-08 -1.720701e-07 -1.586201e-07 9.768172e-08 -1.135738e-07 -1.298416e-07 7.694315e-08 -1.660590e-07 -1.083516e-07 -5.706868e-08 -2.818740e-03 -4.409721e-03 -4.277692e-03 -1.165964e-03 -3.608679e-03 5.208261e-03 -1.757075e-03 5.998432e-03 4.891248e-03 1.720927e-03 7.501529e-04 -5.307185e-03 6.137643e-03
<VARIANCE> 25
 2.670229e+01 2.794268e+01 3.749357e+01 3.307458e+01 5.256620e+01 4.928031e+01 4.561778e+01 4.954230e+01 4.604616e+01 3.096663e+01 2.869331e+01 1.969207e+01 8.024185e-01 8.637462e-01 9.762596e-01 1.208383e+00 1.860729e+00 1.938551e+00 2.342637e+00 2.054597e+00 2.126093e+00 1.768907e+00 1.840738e+00 1.505519e+00 1.027859e+00
<GCONST> 9.389127e+01
~s "ST_f_3_1"
<MEAN> 25
 2.711044e-07 2.276736e-08 -6.105108e-08 -1.720701e-07 -1.586201e-07 9.768172e-08 -1.135738e-07 -1.298416e-07 7.694315e-08 -1.660590e-07 -1.083516e-07 -5.706868e-08 -2.818740e-03 -4.409721e-03 -4.277692e-03 -1.165964e-03 -3.608679e-03 5.208261e-03 -1.757075e-03 5.998432e-03 4.891248e-03 1.720927e-03 7.501529e-04 -5.307185e-03 6.137643e-03
<VARIANCE> 25
 2.670229e+01 2.794268e+01 3.749357e+01 3.307458e+01 5.256620e+01 4.928031e+01 4.561778e+01 4.954230e+01 4.604616e+01 3.096663e+01 2.869331e+01 1.969207e+01 8.024185e-01 8.637462e-01 9.762596e-01 1.208383e+00 1.860729e+00 1.938551e+00 2.342637e+00 2.054597e+00 2.126093e+00 1.768907e+00 1.840738e+00 1.505519e+00 1.027859e+00
<GCONST> 9.389127e+01
~s "ST_f_4_1"
<MEAN> 25
 2.711044e-07 2.276736e-08 -6.105108e-08 -1.720701e-07 -1.586201e-07 9.768173e-08 -1.135738e-07 -1.298416e-07 7.694316e-08 -1.660590e-07 -1.083516e-07 -5.706868e-08 -2.818740e-03 -4.409722e-03 -4.277693e-03 -1.165964e-03 -3.608679e-03 5.208261e-03 -1.757075e-03 5.998433e-03 4.891248e-03 1.720927e-03 7.501530e-04 -5.307185e-03 6.137643e-03
<VARIANCE> 25
 2.670229e+01 2.794268e+01 3.749357e+01 3.307458e+01 5.256620e+01 4.928031e+01 4.561778e+01 4.954230e+01 4.604616e+01 3.096663e+01 2.869331e+01 1.969207e+01 8.024186e-01 8.637463e-01 9.762596e-01 1.208383e+00 1.860729e+00 1.938551e+00 2.342637e+00 2.054597e+00 2.126093e+00 1.768907e+00 1.840738e+00 1.505519e+00 1.027859e+00
<GCONST> 9.389127e+01
~s "ST_s_2_1"
<MEAN> 25
 -2.670240e+00 5.852349e-01 1.261215e+01 -1.248444e+00 -1.446064e+01 -1.230171e+01 -4.583127e+00 -1.101228e+01 -1.237019e+00 -3.377813e+00 6.547614e+00 1.256423e+00 6.318954e-01 7.490112e-02 3.547099e-01 -9.522245e-02 -5.487738e-01 1.670046e-01 -2.857156e-01 -4.565905e-01 -2.174695e-01 -1.291861e-01 4.107611e-01 -2.490042e-01 -6.161876e-02
<VARIANCE> 25
 5.858954e+01 2.028614e+01 4.547762e+01 1.509726e+01 1.064547e+02 2.773556e+01 8.432435e+01 7.988522e+01 2.342238e+01 4.472264e+01 3.647587e+01 2.656551e+01 4.855052e+00 2.227800e+00 2.290402e+00 1.628721e+00 6.161253e+00 3.386595e+00 6.709218e+00 5.399044e+00 3.740368e+00 3.424812e+00 3.280318e+00 2.378713e+00 1.784722e+00
<GCONST> 1.057046e+02
~s "ST_s_3_1"
<MEAN> 25
 3.404438e+00 1.416989e+00 4.618878e-01 -9.292570e+00 -7.414598e+00 -2.269119e-01 -3.252359e+00 -6.992903e+00 3.395866e+00 -4.337776e+00 8.726158e-01 2.373480e+00 -6.804852e-01 -1.041373e-01 -3.563940e-01 -1.553417e-01 9.582108e-01 -1.662189e-01 1.803333e-01 9.489625e-01 3.387388e-01 1.882209e-01 -3.690855e-01 7.059048e-01 6.045243e-01
<VARIANCE> 25
 4.639611e+01 1.819934e+01 1.368600e+02 1.613393e+02 5.448889e+01 6.017000e+01 3.048533e+01 9.375875e+01 6.153027e+01 1.940070e+01 3.245007e+01 3.250259e+01 3.747098e+00 3.013351e+00 3.939921e+00 8.152740e+00 5.936624e+00 7.685886e+00 3.721526e+00 7.867896e+00 1.755310e+00 2.651850e+00 3.681839e+00 2.289388e+00 3.916719e+00
<GCONST> 1.109129e+02
~s "ST_s_4_1"
<MEAN> 25
 -1.094162e+01 1.623173e+00 2.334656e-01 -3.612629e+00 5.315752e+00 -7.606050e+00 -1.135290e+00 2.273255e+00 5.614399e+00 5.920859e-01 -3.321730e-01 6.013951e+00 -4.758075e-01 6.017602e-02 -6.245725e-01 -2.336115e-01 -6.897380e-02 -9.312358e-02 2.379911e-01 -4.535111e-01 -4.259102e-01 -3.535432e-02 8.651149e-02 2.944792e-01 2.161760e-01
<VARIANCE> 25
 5.553403e+01 2.815681e+01 4.031826e+01 1.732479e+01 5.471488e+01 3.190459e+01 6.499151e+01 4.055943e+01 3.369262e+01 2.108132e+01 1.892572e+01 2.564192e+01 4.518999e+00 1.088366e+00 1.438139e+00 7.065412e-01 2.201360e+00 2.882401e+00 6.006181e+00 2.252732e+00 2.830533e+00 1.461308e+00 2.029845e+00 2.596215e+00 1.862359e+00
<GCONST> 9.770821e+01
~s "ST_i_2_1"
<MEAN> 25
 5.053139e-01 3.001303e+00 1.137654e+00 -9.243456e-01 -1.541653e+00 -2.099241e+00 -5.624176e-01 -4.194483e-01 -3.015913e+00 7.079848e-01 -1.694212e-01 2.210805e+00 -5.248799e-01 -4.510545e-01 -2.185033e-01 2.458220e-01 8.606468e-01 -5.934160e-01 2.674180e-01 6.680820e-01 4.070764e-02 -1.193364e-01 -4.035961e-01 -2.436568e-01 -9.123508e-02
<VARIANCE> 25
 7.234778e+01 1.817387e+01 2.020863e+01 1.219154e+01 1.991015e+01 3.027172e+01 2.526471e+01 3.546079e+01 2.812699e+01 1.831937e+01 1.244051e+01 1.646729e+01 3.893117e-01 1.200078e+00 1.149089e+00 2.196401e+00 1.591698e+00 3.196294e+00 3.539452e+00 2.997518e+00 2.728413e+00 1.343292e+00 1.825038e+00 2.355978e+00 1.404197e+00
<GCONST> 9.065177e+01
~s "ST_i_3_1"
<MEAN> 25
 -4.958408e+00 2.282383e-01 3.076436e-01 -3.288598e+00 1.782711e+00 -8.236117e+00 -2.902395e+00 4.618280e+00 2.348212e+00 9.457469e-01 -2.056831e+00 3.631198e+00 -3.321446e-01 -2.272574e-01 -2.007085e-02 -2.729839e-01 8.830970e-01 -7.246523e-01 -7.972175e-01 -3.962963e-01 5.536391e-01 2.559385e-01 -3.893742e-01 -7.411757e-01 7.702771e-01
<VARIANCE> 25
 7.795393e+01 2.536749e+01 2.334463e+01 2.229013e+01 2.947380e+01 3.725980e+01 3.665735e+01 2.556593e+01 2.259330e+01 2.504632e+01 2.941627e+01 3.015745e+01 6.325268e-01 7.787786e-01 2.580286e+00 3.425605e+00 1.249407e+00 6.423875e+00 1.196604e+01 8.032465e+00 2.960403e+00 4.781956e-01 1.150707e+00 4.274992e-01 4.303983e+00
<GCONST> 9.597876e+01
~s "ST_i_4_1"
<MEAN> 25
 -6.062421e+00 2.911886e-01 1.185972e+00 -2.551440e+00 2.999278e+00 -3.338708e+00 1.476929e+00 1.949853e+00 -4.679595e-01 6.602053e-01 -2.582400e+00 1.634972e+00 5.067348e-01 4.695502e-01 -2.402685e-01 2.519989e-01 -1.763783e-01 2.052053e-01 -1.397254e-01 -6.075155e-01 -2.646011e-01 -1.005621e-01 4.140133e-01 -4.760645e-01 -2.160099e-01
<VARIANCE> 25
 6.744769e+01 1.914084e+01 1.904110e+01 7.926671e+00 1.891885e+01 3.887493e+01 4.056527e+01 1.232354e+01 1.633580e+01 1.108405e+01 1.867908e+01 2.877296e+01 8.641538e-01 5.412328e-01 2.572466e+00 2.158624e+00 1.762379e+00 1.703068e+00 6.080386e+00 5.956812e+00 1.278352e+00 1.531377e+00 1.986246e+00 1.813264e+00 2.746308e+00
<GCONST> 9.103408e+01
~s "ST_E_2_1"
<MEAN> 25
 3.488102e+00 -1.089231e+00 -1.774086e+00 -4.275071e+00 -2.885765e+00 -5.569669e+00 -2.381390e+00 9.938500e-01 -2.323784e-01 3.370145e+00 7.278614e+00 4.037795e+00 -7.965668e-01 -3.733123e-01 -2.905990e-01 5.851673e-01 -5.511004e-01 -6.525924e-01 1.107233e-01 7.275960e-01 1.173280e-01 8.392730e-01 3.688945e-01 9.026924e-01 -5.925151e-01
<VARIANCE> 25
 6.445324e+01 1.379833e+01 5.715994e+01 6.030421e+01 3.123993e+01 2.170916e+01 1.598950e+01 5.628828e+01 4.110591e+01 3.824427e+01 1.593936e+01 3.699798e+00 1.200891e+00 1.242568e-01 3.589650e-01 6.973957e-01 8.028082e-01 7.786737e+00 4.496313e-01 7.979841e-01 4.079074e-01 9.888150e-01 3.970802e-01 1.242729e+00 5.146644e-01
<GCONST> 8.088375e+01
~s "ST_E_3_1"
<MEAN> 25
 1.051074e+00 -2.457487e+00 -3.731220e+00 -1.820455e+00 -1.937834e+00 -5.191959e+00 -1.836600e+00 1.949875e+00 1.409010e+00 4.905928e+00 8.926581e+00 4.979789e+00 -1.936365e-01 1.898793e-02 -5.864378e-01 3.971032e-02 -7.206429e-01 1.497883e+00 5.727209e-01 -1.880497e-01 2.833861e-01 1.820887e-02 8.059731e-01 1.247108e+00 -4.387627e-01
<VARIANCE> 25
 7.633242e+01 1.471630e+01 6.226575e+01 1.172788e+02 1.774746e+01 3.105746e+01 1.147639e+01 8.940466e+01 2.552678e+01 5.807261e+01 4.182135e+00 2.420579e+01 3.757133e-01 2.966012e-01 7.362897e-01 2.222706e-01 3.539014e-01 2.904978e+00 2.702102e+00 7.252479e-01 1.009537e+00 7.965795e-02 4.361453e-01 6.388602e-01 4.241276e-01
<GCONST> 7.907143e+01
~s "ST_E_4_1"
<MEAN> 25
 5.698436e+00 -3.289751e+00 -1.277756e+01 -1.232362e+01 -4.051360e+00 1.465457e+00 -6.186141e+00 -4.645066e+00 4.104239e+00 -5.510646e+00 9.966454e+00 2.950082e+00 1.060918e-01 1.855586e-01 -1.802263e-01 4.298564e-01 -2.638257e-01 6.271984e-02 -1.895652e-01 1.321349e-01 3.253217e-01 2.638863e-01 -5.174475e-01 5.963498e-02 -2.144157e-02
<VARIANCE> 25
 4.646472e+01 4.245811e+00 5.384430e+01 8.108315e+01 7.825869e+00 4.206282e+01 5.470537e+01 9.548881e+01 3.739797e+00 2.969335e+01 1.658507e+01 1.442387e+01 1.719554e-01 1.325332e-01 1.777547e-01 1.812509e+00 8.546469e-01 3.691022e+00 7.298666e-01 5.679300e-01 8.383247e-01 1.711372e+00 1.516838e+00 5.011332e-01 3.403145e-02
<GCONST> 7.621835e+01
~s "ST_l_2_1"
<MEAN> 25
 2.711044e-07 2.276736e-08 -6.105108e-08 -1.720701e-07 -1.586201e-07 9.768173e-08 -1.135738e-07 -1.298416e-07 7.694315e-08 -1.660590e-07 -1.083516e-07 -5.706868e-08 -2.818740e-03 -4.409721e-03 -4.277692e-03 -1.165964e-03 -3.608679e-03 5.208261e-03 -1.757075e-03 5.998432e-03 4.891248e-03 1.720927e-03 7.501529e-04 -5.307185e-03 6.137643e-03
<VARIANCE> 25
 2.670229e+01 2.794268e+01 3.749357e+01 3.307458e+01 5.256620e+01 4.928031e+01 4.561777e+01 4.954230e+01 4.604616e+01 3.096663e+01 2.869331e+01 1.969207e+01 8.024185e-01 8.637462e-01 9.762596e-01 1.208383e+00 1.860729e+00 1.938551e+00 2.342637e+00 2.054597e+00 2.126093e+00 1.768907e+00 1.840738e+00 1.505519e+00 1.027859e+00
<GCONST> 9.389127e+01
~s "ST_l_3_1"
<MEAN> 25
 2.711044e-07 2.276736e-08 -6.105108e-08 -1.720701e-07 -1.586201e-07 9.768173e-08 -1.135738e-07 -1.298416e-07 7.694315e-08 -1.660590e-07 -1.083516e-07 -5.706868e-08 -2.818740e-03 -4.409721e-03 -4.277692e-03 -1.165964e-03 -3.608679e-03 5.208261e-03 -1.757075e-03 5.998432e-03 4.891248e-03 1.720927e-03 7.501529e-04 -5.307185e-03 6.137643e-03
<VARIANCE> 25
 2.670229e+01 2.794268e+01 3.749357e+01 3.307458e+01 5.256620e+01 4.928031e+01 4.561778e+01 4.954230e+01 4.604617e+01 3.096663e+01 2.869331e+01 1.969207e+01 8.024186e-01 8.637462e-01 9.762596e-01 1.208383e+00 1.860729e+00 1.938551e+00 2.342637e+00 2.054597e+00 2.126093e+00 1.768907e+00 1.840738e+00 1.505519e+00 1.027859e+00
<GCONST> 9.389127e+01
~s "ST_l_4_1"
<MEAN> 25
 2.711044e-07 2.276736e-08 -6.105108e-08 -1.720701e-07 -1.586201e-07 9.768173e-08 -1.135738e-07 -1.298416e-07 7.694315e-08 -1.660590e-07 -1.083516e-07 -5.706868e-08 -2.818740e-03 -4.409721e-03 -4.277692e-03 -1.165964e-03 -3.608679e-03 5.208261e-03 -1.757075e-03 5.998432e-03 4.891248e-03 1.720927e-03 7.501529e-04 -5.307185e-03 6.137643e-03
<VARIANCE> 25
 2.670229e+01 2.794268e+01 3.749356e+01 3.307458e+01 5.256620e+01 4.928031e+01 4.561778e+01 4.954230e+01 4.604616e+01 3.096663e+01 2.869331e+01 1.969207e+01 8.024186e-01 8.637462e-01 9.762596e-01 1.208383e+00 1.860729e+00 1.938551e+00 2.342637e+00 2.054597e+00 2.126093e+00 1.768907e+00 1.840738e+00 1.505519e+00 1.027859e+00
<GCONST> 9.389127e+01
~s "ST_b_2_1"
<MEAN> 25
 2.711044e-07 2.276736e-08 -6.105108e-08 -1.720701e-07 -1.586201e-07 9.768173e-08 -1.135738e-07 -1.298416e-07 7.694316e-08 -1.660590e-07 -1.083516e-07 -5.706868e-08 -2.818740e-03 -4.409721e-03 -4.277692e-03 -1.165964e-03 -3.608679e-03 5.208261e-03 -1.757075e-03 5.998432e-03 4.891248e-03 1.720927e-03 7.501530e-04 -5.307185e-03 6.137643e-03
<VARIANCE> 25
 2.670229e+01 2.794268e+01 3.749357e+01 3.307458e+01 5.256620e+01 4.928031e+01 4.561778e+01 4.954230e+01 4.604616e+01 3.096663e+01 2.869331e+01 1.969207e+01 8.024186e-01 8.637462e-01 9.762596e-01 1.208383e+00 1.860729e+00 1.938551e+00 2.342637e+00 2.054597e+00 2.126093e+00 1.768907e+00 1.840738e+00 1.505519e+00 1.027859e+00
<GCONST> 9.389127e+01
~s "ST_b_3_1"
<MEAN> 25
 2.711044e-07 2.276736e-08 -6.105108e-08 -1.720701e-07 -1.586201e-07 9.768173e-08 -1.135738e-07 -1.298416e-07 7.694316e-08 -1.660590e-07 -1.083516e-07 -5.706868e-08 -2.818740e-03 -4.409721e-03 -4.277692e-03 -1.165964e-03 -3.608679e-03 5.208261e-03 -1.757075e-03 5.998432e-03 4.891248e-03 1.720927e-03 7.501530e-04 -5.307185e-03 6.137643e-03
<VARIANCE> 25
 2.670229e+01 2.794268e+01 3.749357e+01 3.307458e+01 5.256620e+01 4.928031e+01 4.561778e+01 4.954230e+01 4.604616e+01 3.096663e+01 2.869331e+01 1.969207e+01 8.024186e-01 8.637462e-01 9.762596e-01 1.208383e+00 1.860729e+00 1.938551e+00 2.342637e+00 2.054597e+00 2.126093e+00 1.768907e+00 1.840738e+00 1.505519e+00 1.027859e+00
<GCONST> 9.389127e+01
~s "ST_b_4_1"
<MEAN> 25
 2.711044e-07 2.276736e-08 -6.105109e-08 -1.720701e-07 -1.586201e-07 9.768173e-08 -1.135738e-07 -1.298416e-07 7.694315e-08 -1.660590e-07 -1.083516e-07 -5.706868e-08 -2.818740e-03 -4.409721e-03 -4.277693e-03 -1.165964e-03 -3.608679e-03 5.208261e-03 -1.757075e-03 5.998433e-03 4.891248e-03 1.720927e-03 7.501529e-04 -5.307185e-03 6.137643e-03
<VARIANCE> 25
 2.670229e+01 2.794268e+01 3.749357e+01 3.307458e+01 5.256620e+01 4.928032e+01 4.561778e+01 4.954230e+01 4.604617e+01 3.096663e+01 2.869331e+01 1.969207e+01 8.024186e-01 8.637462e-01 9.762596e-01 1.208383e+00 1.860729e+00 1.938551e+00 2.342637e+00 2.054597e+00 2.126093e+00 1.768907e+00 1.840738e+00 1.505519e+00 1.027859e+00
<GCONST> 9.389127e+01
~s "ST_o_2_1"
<MEAN> 25
 8.022466e-01 3.110450e+00 -2.206453e+00 -9.571795e-02 1.648791e+00 1.570550e+00 2.745560e+00 2.521819e+00 6.565401e-01 5.232769e+00 4.911256e-01 -5.932665e-01 -1.072487e-01 2.659294e-01 3.984742e-01 2.856799e-01 5.169078e-01 4.826615e-01 -1.660263e-01 -9.704013e-02 -1.148244e-01 -2.059858e-01 1.564265e-02 2.654310e-01 -3.066107e-01
<VARIANCE> 25
 8.434215e+00 5.156735e+00 1.041397e+01 7.349733e+00 2.872800e+01 1.948542e+01 1.793258e+01 2.167192e+01 1.228432e+01 8.221019e+00 1.566846e+01 2.812587e+01 3.737251e-01 3.001870e-01 7.730145e-01 7.917364e-01 9.641750e-01 9.124009e-01 1.147754e+00 1.076779e+00 1.136059e+00 5.770519e-01 1.512612e+00 1.876855e+00 5.810585e-02
<GCONST> 7.223163e+01
~s "ST_o_3_1"
<MEAN> 25
 6.321056e-01 2.944375e+00 2.208896e-01 4.051266e+00 3.496357e+00 5.895057e+00 3.542773e+00 3.887941e+00 -3.929891e+00 3.446079e+00 8.623708e-02 -1.370039e+00 8.097293e-03 -2.874466e-02 -3.187520e-03 2.748069e-02 -3.407042e-02 3.752105e-02 -5.728750e-03 1.724221e-02 -4.229600e-02 -2.708178e-02 -4.816585e-02 9.546278e-03 -1.928602e-02
<VARIANCE> 25
 9.672523e-01 2.145471e+00 3.050676e+00 5.628947e+00 7.268721e+00 8.397406e+00 1.156253e+01 1.269384e+01 1.146858e+01 1.098808e+01 1.152354e+01 1.063508e+01 9.928419e-02 2.852868e-01 2.912557e-01 5.089036e-01 6.662165e-01 9.656765e-01 1.188857e+00 1.162883e+00 1.084298e+00 1.110246e+00 1.247920e+00 1.095812e+00 2.925650e-02
<GCONST> 5.964222e+01
~s "ST_o_4_1"
<MEAN> 25
 2.569171e-01 2.286611e+00 -5.069403e-02 2.686239e+00 1.928688e+00 1.315254e+00 1.322133e+00 2.285037e+00 -3.771212e+00 1.379024e+00 -1.148496e+00 3.205150e-01 1.037893e-01 -3.276565e-01 1.736444e-01 7.141553e-01 9.740945e-01 5.271652e-02 3.732341e-01 4.199314e-01 -6.758393e-02 -3.952207e-01 -6.867540e-01 -2.925985e-01 -4.332685e-02
<VARIANCE> 25
 3.941141e-01 1.037672e+00 7.523597e+00 1.132432e+01 1.498919e+01 3.761312e+01 7.883811e+00 8.963626e+00 4.663754e+00 6.470705e+00 1.110132e+01 2.163993e+00 1.886717e-01 3.768237e-01 2.316746e-01 4.376783e-01 5.262542e-01 1.437060e+00 1.082125e+00 9.543449e-01 4.187151e-01 6.228411e-01 1.045900e+00 1.253912e+00 2.208017e-01
<GCONST> 5.891362e+01
~s "ST_e_2_1"
<MEAN> 25
 -2.977726e+00 -3.063144e+00 -8.759942e-01 -1.286379e+00 1.469890e+00 -7.797628e+00 -4.107397e+00 2.059953e+00 -1.978427e+00 -3.325422e-01 -2.702572e+00 1.985496e+00 6.220520e-01 -1.273446e+00 -2.416475e-01 -5.133469e-01 -7.318328e-01 -2.034585e+00 -4.817003e+00 -7.022842e-01 2.849800e+00 -4.605466e-01 5.724610e-01 -6.807042e-02 2.789071e+00
<VARIANCE> 25
 2.140771e+00 4.301191e+01 5.064625e+00 2.742015e+00 1.703296e+00 9.519028e+01 8.430376e+01 1.350554e+01 9.756564e+00 3.096663e-01 5.701039e+00 1.605471e+01 6.299985e+00 2.573900e+00 7.011339e-01 5.421273e-01 1.327659e+01 1.275583e+01 4.605414e+00 1.901579e+00 1.526449e+00 2.695939e+00 2.197813e-01 4.841713e+00 6.489016e-01
<GCONST> 8.101378e+01
~s "ST_e_3_1"
<MEAN> 25
 -6.249804e-01 -6.399130e+00 -4.384102e+00 -7.659901e+00 -2.779581e-02 -1.344412e+01 -1.849494e+01 -1.747279e+00 1.093297e+01 5.171528e-01 -1.054379e+00 2.608242e+00 1.376599e+00 -4.104013e-01 -5.979702e-01 -1.560040e+00 -2.705619e+00 7.609121e-01 -1.397683e+00 -1.758823e+00 2.454921e+00 -1.363359e+00 7.487398e-01 -7.617247e-01 2.805443e+00
<VARIANCE> 25
 2.783744e+01 2.224238e+01 1.018737e+01 1.045797e+01 1.128468e+02 2.849472e+01 1.560588e+01 4.449718e+01 2.779052e+01 2.334631e+01 2.227189e+01 2.361161e+01 3.374774e+00 4.588840e+00 9.050648e-01 5.662468e-01 7.937858e+00 8.021064e+00 7.756974e+00 2.382680e+00 7.320694e+00 2.209282e+00 5.943255e+00 4.570208e+00 1.812114e+00
<GCONST> 1.002245e+02
~s "ST_e_4_1"
<MEAN> 25
 5.099086e+00 -8.397773e+00 -1.256745e+00 -6.514977e+00 -1.040652e+01 -4.744474e+00 -1.557060e+01 -7.141675e+00 1.342579e+01 -9.504251e+00 -2.325844e+00 -2.398761e+00 2.242300e-02 5.949524e-02 3.783089e-01 1.461277e-01 -7.064017e-03 -8.362151e-02 2.402565e-01 2.225728e-01 -3.045366e-01 4.156665e-02 -2.247640e-02 -3.191180e-02 -3.614224e-01
<VARIANCE> 25
 3.199418e+00 1.060378e+01 5.019625e+01 2.864557e+01 1.810133e+01 8.150516e+01 4.229727e+01 2.995042e+01 9.313721e+01 3.038631e+01 2.693869e+01 2.330761e+01 3.442472e-01 8.463006e-01 2.598335e+00 2.192478e+00 8.704534e-01 1.408131e+00 2.271710e+00 2.515090e+00 4.194318e+00 1.622823e+00 3.385574e+00 1.472505e+00 1.514354e+00
<GCONST> 9.196574e+01
~s "ST_r_2_1"
<MEAN> 25
 2.007826e+00 -5.850321e+00 6.437478e-01 -2.368503e+00 -1.342584e+00 -9.719512e+00 -8.119953e+00 -9.253430e-01 3.016620e+00 -1.863208e+00 -4.329497e-01 -2.437694e+00 -8.815835e-02 -1.621111e-01 -1.756809e-01 -2.461117e-01 3.317877e-01 6.918696e-01 4.191971e-01 5.448425e-01 -3.318019e-01 -9.959424e-01 -1.162117e-01 -4.249339e-01 4.231268e-01
<VARIANCE> 25
 4.032328e+01 3.737838e+01 5.891978e+01 3.606147e+01 8.269485e+01 6.036639e+01 2.499259e+01 6.189661e+01 1.847440e+01 2.986857e+01 6.864064e+01 6.353530e+01 1.783644e+00 1.129606e+00 3.289144e+00 3.499210e+00 1.018242e-01 3.233814e+00 2.865984e+00 5.820448e+00 5.670146e+00 4.448249e+00 1.247842e+00 6.468393e-01 8.122282e+00
<GCONST> 1.014349e+02
~s "ST_r_3_1"
<MEAN> 25
 2.693209e+00 -7.132003e+00 1.896951e+00 -1.785427e+00 -5.006138e+00 -9.743090e+00 -4.997638e+00 -1.434338e-01 1.422864e+00 -2.698349e+00 3.394305e+00 -3.331940e+00 -3.854231e-02 -2.236896e-01 -1.382367e-01 3.453749e-01 -5.003054e-01 1.421291e+00 2.241774e+00 1.360950e+00 -7.217843e-02 -1.881801e-01 9.162790e-02 -5.224822e-01 -1.131600e+00
<VARIANCE> 25
 3.426592e+01 2.392992e+01 4.634408e+01 3.640685e+01 1.031346e+02 5.035672e+01 1.695932e+01 5.881942e+01 1.841691e+01 1.256842e+01 6.309487e+01 6.055993e+01 2.432056e+00 9.064712e-01 2.422241e+00 1.098945e+00 6.730783e-01 4.811209e+00 7.775765e-01 1.217356e+00 2.595753e+00 3.002218e+00 1.832227e+00 9.988841e-01 5.155504e+00
<GCONST> 9.642770e+01
~s "ST_r_4_1"
<MEAN> 25
 2.612705e+00 -9.338262e+00 4.293860e-01 -9.395612e-01 -1.157824e+01 -1.118357e+01 1.119725e+00 5.813153e+00 1.802828e+00 2.997580e-01 6.084702e+00 -4.160649e+00 -3.219628e-01 3.300506e-01 -6.008493e-01 1.213957e-01 1.444899e-02 2.589699e-01 7.347021e-01 8.299915e-01 2.291387e-01 1.344518e+00 8.878141e-01 1.238814e+00 -1.057416e+00
<VARIANCE> 25
 2.422934e+01 1.376802e+01 2.251359e+01 2.654782e+01 1.158979e+02 4.375369e+01 1.892621e+01 4.558943e+01 2.289014e+01 2.569330e+01 4.581287e+01 5.027818e+01 8.262437e-01 7.460902e-01 6.640213e-01 1.451402e+00 8.221878e-01 3.459943e+00 8.219630e-01 8.133761e-01 5.655487e-01 2.388921e+00 1.711121e+00 7.830423e-01 8.648587e-01
<GCONST> 8.813092e+01
~s "ST_h_2_1"
<MEAN> 25
 2.711044e-07 2.276736e-08 -6.105108e-08 -1.720701e-07 -1.586201e-07 9.768173e-08 -1.135738e-07 -1.298416e-07 7.694315e-08 -1.660590e-07 -1.083516e-07 -5.706868e-08 -2.818740e-03 -4.409721e-03 -4.277692e-03 -1.165964e-03 -3.608679e-03 5.208261e-03 -1.757075e-03 5.998432e-03 4.891248e-03 1.720927e-03 7.501529e-04 -5.307185e-03 6.137643e-03
<VARIANCE> 25
 2.670229e+01 2.794268e+01 3.749357e+01 3.307458e+01 5.256620e+01 4.928031e+01 4.561778e+01 4.954230e+01 4.604616e+01 3.096663e+01 2.869331e+01 1.969207e+01 8.024186e-01 8.637462e-01 9.762596e-01 1.208383e+00 1.860729e+00 1.938551e+00 2.342637e+00 2.054597e+00 2.126093e+00 1.768907e+00 1.840738e+00 1.505519e+00 1.027859e+00
<GCONST> 9.389127e+01
~s "ST_h_3_1"
<MEAN> 25
 2.711044e-07 2.276736e-08 -6.105108e-08 -1.720701e-07 -1.586201e-07 9.768173e-08 -1.135738e-07 -1.298416e-07 7.694315e-08 -1.660590e-07 -1.083516e-07 -5.706868e-08 -2.818740e-03 -4.409721e-03 -4.277692e-03 -1.165964e-03 -3.608679e-03 5.208261e-03 -1.757075e-03 5.998432e-03 4.891248e-03 1.720927e-03 7.501529e-04 -5.307185e-03 6.137643e-03
<VARIANCE> 25
 2.670229e+01 2.794268e+01 3.749357e+01 3.307458e+01 5.256620e+01 4.928031e+01 4.561778e+01 4.954230e+01 4.604616e+01 3.096663e+01 2.869331e+01 1.969207e+01 8.024186e-01 8.637462e-01 9.762596e-01 1.208383e+00 1.860729e+00 1.938551e+00 2.342637e+00 2.054597e+00 2.126093e+00 1.768907e+00 1.840738e+00 1.505519e+00 1.027859e+00
<GCONST> 9.389127e+01
~s "ST_h_4_1"
<MEAN> 25
 2.711044e-07 2.276736e-08 -6.105108e-08 -1.720701e-07 -1.586201e-07 9.768173e-08 -1.135738e-07 -1.298416e-07 7.694315e-08 -1.660590e-07 -1.083516e-07 -5.706868e-08 -2.818740e-03 -4.409721e-03 -4.277692e-03 -1.165964e-03 -3.608679e-03 5.208261e-03 -1.757075e-03 5.998432e-03 4.891248e-03 1.720927e-03 7.501529e-04 -5.307185e-03 6.137643e-03
<VARIANCE> 25
 2.670229e+01 2.794268e+01 3.749357e+01 3.307458e+01 5.256620e+01 4.928031e+01 4.561778e+01 4.954230e+01 4.604616e+01 3.096663e+01 2.869331e+01 1.969207e+01 8.024186e-01 8.637462e-01 9.762596e-01 1.208383e+00 1.860729e+00 1.938551e+00 2.342637e+00 2.054597e+00 2.126093e+00 1.768907e+00 1.840738e+00 1.505519e+00 1.027859e+00
<GCONST> 9.389127e+01
~s "ST_u_2_1"
<MEAN> 25
 -1.953687e+00 -4.277724e-01 1.918160e+00 -3.939836e+00 -9.549791e-01 -4.887589e+00 -4.586294e+00 5.009284e+00 7.713344e+00 1.831943e+00 2.503294e+00 -1.537070e+00 1.816545e-01 -1.002548e+00 -4.363831e-01 -9.140188e-01 -4.834450e-01 1.388044e+00 1.528188e+00 1.198197e-01 -1.252541e-01 -3.392447e-01 -2.461481e-01 -5.713824e-01 -8.564789e-02
<VARIANCE> 25
 8.223475e+01 4.404621e+01 1.070273e+01 3.523001e+01 7.621216e+01 2.295487e+01 1.283111e+02 2.405534e+00 4.477791e+01 2.396964e+01 2.508694e+01 2.636354e+00 3.974876e-01 5.788933e-01 1.794398e+00 7.362908e-01 4.652415e-01 9.008744e-01 3.570883e+00 2.030900e-01 5.110894e-01 3.469177e-01 2.855752e+00 1.469864e+00 3.229554e-01
<GCONST> 8.063647e+01
~s "ST_u_3_1"
<MEAN> 25
 -5.593334e-01 -5.586102e+00 -7.308963e-01 -6.338329e+00 -6.383612e+00 -4.177958e+00 -3.296884e+00 3.716981e+00 1.157557e+01 -3.019999e+00 -3.150327e+00 -3.507231e+00 -1.533387e-01 -3.306420e-01 -1.064135e+00 -2.390897e-02 8.940015e-01 4.611354e-01 2.426291e+00 -5.502020e-01 -2.123269e-01 -5.865227e-01 -2.091677e+00 -5.128267e-01 7.806718e-02
<VARIANCE> 25
 4.282429e+01 5.080558e+01 2.083607e+01 1.299560e+01 8.784214e+01 2.038250e+01 7.473296e+01 1.089416e+01 8.464983e+01 1.506910e+01 2.412776e+01 2.562617e+00 4.838055e-01 4.405299e-01 2.162493e+00 1.225570e+00 6.368307e-01 8.882004e-01 6.690558e+00 6.711183e-01 8.629014e-01 9.800108e-01 3.110177e+00 3.513435e-01 2.173759e-01
<GCONST> 8.345707e+01
~s "ST_u_4_1"
<MEAN> 25
 9.033140e-02 2.166590e+00 -4.500341e-01 3.703055e+00 3.465293e+00 5.039301e+00 2.944144e+00 2.996404e+00 -4.286614e+00 2.025336e+00 -5.575931e-01 -9.010375e-01 2.886128e-02 -9.691746e-02 5.500786e-03 8.338134e-02 -4.699590e-02 2.780845e-02 -9.762727e-02 3.267530e-02 -1.628179e-02 -1.126056e-02 -4.432772e-03 8.843287e-02 -3.245325e-02
<VARIANCE> 25
 5.473599e+00 8.130182e+00 5.034079e+00 1.101471e+01 1.151475e+01 1.276955e+01 1.144014e+01 8.709916e+00 2.734437e+01 1.207954e+01 1.507926e+01 9.252844e+00 1.604850e-01 2.497058e-01 2.977307e-01 6.678159e-01 8.568934e-01 8.063999e-01 1.819046e+00 1.010604e+00 1.707877e+00 1.229333e+00 1.774925e+00 8.362117e-01 5.087929e-02
<GCONST> 6.765370e+01
~s "ST_k_2_1"
<MEAN> 25
 5.368032e+00 -1.919965e-01 6.901162e-02 -6.427155e+00 -3.439948e+00 -3.680190e+00 -1.081839e+01 -4.113436e+00 2.968586e+00 5.439146e-01 1.254233e-01 -1.571225e+00 9.057767e-03 -9.698246e-01 -4.115389e-01 -5.591537e-01 -3.477054e-01 -6.790572e-01 -1.622914e-01 -2.609845e-01 1.232753e+00 -5.451113e-01 -2.877901e-01 -3.340200e-01 1.641484e+00
<VARIANCE> 25
 4.045130e+01 6.856505e+01 2.876825e+01 3.677443e+01 5.649680e+01 7.617362e+01 1.051568e+02 7.489407e+01 7.263773e+01 3.959201e+01 4.813346e+01 1.948009e+01 2.415501e+00 3.639827e+00 1.980054e+00 4.323954e+00 8.092784e+00 8.178546e+00 1.477556e+01 6.136610e+00 3.631483e+00 5.509756e+00 6.059681e+00 2.658472e+00 6.136423e+00
<GCONST> 1.135958e+02
~s "ST_k_3_1"
<MEAN> 25
 2.931412e-01 -9.405595e+00 -1.111317e+01 -6.221697e+00 -1.637451e+00 -9.672320e+00 -6.605309e-01 -8.042698e+00 1.341087e+01 -4.399481e+00 -6.343809e+00 -2.012995e+00 -2.145897e-02 1.829377e-01 -2.458055e-01 3.777761e-01 3.393059e-01 9.800746e-02 4.093424e-01 -5.217296e-02 -1.480007e-01 2.537858e-02 5.365357e-02 6.603794e-02 -4.875048e-01
<VARIANCE> 25
 6.336724e+01 4.642738e+01 2.387894e+01 1.541574e+01 3.286393e+01 1.329114e+01 1.984647e+01 8.217083e+01 2.203115e+01 1.670468e+01 2.150648e+01 3.041189e+01 8.745529e-01 1.007637e+00 1.336933e+00 8.497972e-01 7.466797e-01 1.468081e+00 2.223083e+00 2.880600e+00 1.418454e+00 1.179396e+00 2.076293e+00 8.769372e-01 7.900631e-01
<GCONST> 8.853789e+01
~s "ST_k_4_1"
<MEAN> 25
 3.693198e+00 -6.228747e+00 -8.861921e+00 -1.616711e+00 1.646217e-01 -1.409592e+00 1.784452e+00 -1.220863e+00 7.181209e+00 -2.094699e+00 -5.067874e-01 -5.436320e+00 1.101013e-01 4.700797e-01 7.229720e-01 3.966883e-01 9.237429e-02 6.983129e-01 1.050566e-01 3.852216e-01 -1.261512e+00 9.064102e-01 -1.005202e-01 -3.124753e-01 -1.251664e+00
<VARIANCE> 25
 2.254884e+01 2.105350e+01 1.026159e+01 1.140218e+01 2.001534e+01 1.832213e+01 1.844297e+01 5.435667e+01 3.676162e+01 3.890352e+01 9.738826e+00 3.317727e+01 4.364285e-01 7.154590e-01 9.303432e-01 1.221676e+00 1.469108e+00 1.292767e+00 1.501172e+00 2.314615e+00 2.351157e+00 1.567448e+00 1.047724e+00 2.259929e+00 2.245469e-01
<GCONST> 8.425390e+01
~s "ST_a_2_1"
<MEAN> 25
 2.604400e+00 -1.660308e+00 2.644942e+00 -1.845285e-01 -1.912808e+00 -3.379162e+00 -7.761157e-01 -2.515576e+00 1.087793e+00 -1.243201e+00 -1.786273e+00 -1.452569e+00 3.569851e-01 -4.138766e-01 -5.162006e-01 -8.996745e-01 -8.020657e-01 -1.997419e+00 -6.279184e-01 -7.141546e-01 -5.394662e-02 -1.284163e+00 9.716438e-01 -3.932715e-01 1.507085e+00
<VARIANCE> 25
 1.911249e+01 6.368334e+01 6.870851e+01 1.808939e+01 4.019091e+01 9.516372e+01 4.643766e+01 2.734264e+01 8.921978e+01 4.641223e+01 2.108140e+01 2.629982e+01 1.870183e+00 4.906185e+00 3.391870e+00 1.377022e+00 2.988505e+00 3.944880e+00 3.608938e+00 5.947882e+00 6.461931e+00 3.019836e+00 2.301692e+00 2.240133e+00 6.404451e+00
<GCONST> 1.059786e+02
~s "ST_a_3_1"
<MEAN> 25
 3.501399e+00 -5.193028e+00 -5.487785e-01 -4.592671e+00 -4.648122e+00 -9.927181e+00 -5.387713e+00 -9.804276e+00 8.702518e+00 -6.574108e+00 -9.269818e-01 -3.030262e+00 3.073674e-01 8.477436e-01 -1.018933e-02 2.408885e-02 -1.289679e-02 -9.447403e-02 -4.178377e-01 -5.971715e-01 -4.839623e-01 8.875920e-01 -1.232145e-01 1.292786e-01 -3.686580e-01
<VARIANCE> 25
 7.466539e+00 5.663152e+01 1.171077e+02 1.549438e+01 5.150992e+01 2.372084e+01 3.782977e+01 6.655753e+01 1.092803e+02 3.350538e+01 1.674399e+01 1.745022e+01 8.277761e-01 1.169534e+00 1.048867e+00 6.213889e-01 2.995194e+00 1.809059e+00 3.166216e+00 2.746866e+00 4.904333e+00 3.025872e+00 1.578853e+00 1.577101e+00 1.425813e+00
<GCONST> 9.567646e+01
~s "ST_a_4_1"
<MEAN> 25
 7.449130e+00 9.659712e-01 -1.130744e+00 -4.005295e+00 -2.085438e+00 -5.205360e+00 -5.054062e+00 -6.416194e+00 2.986296e+00 7.193720e-01 -3.338197e+00 -3.984311e+00 2.467623e-02 7.870892e-01 6.122664e-01 2.770867e-02 -7.685234e-03 6.909352e-01 7.399876e-01 1.403741e+00 -8.895296e-01 -3.455846e-01 -2.256268e-01 3.358339e-01 -6.388096e-01
<VARIANCE> 25
 2.091034e+01 3.418574e+01 3.521370e+01 2.934789e+01 4.713985e+01 2.088346e+01 1.814869e+01 6.346420e+01 2.688445e+01 2.274970e+01 4.174436e+01 2.588575e+01 9.994238e-01 7.214170e-01 1.088559e+00 2.866927e+00 2.579297e+00 1.359725e+00 1.748607e+00 1.688436e+00 3.433635e+00 1.828210e+00 1.777390e+00 2.375007e+00 1.683711e+00
<GCONST> 9.374865e+01
~s "ST_d_2_1"
<MEAN> 25
 2.711044e-07 2.276736e-08 -6.105108e-08 -1.720701e-07 -1.586201e-07 9.768173e-08 -1.135738e-07 -1.298416e-07 7.694315e-08 -1.660590e-07 -1.083516e-07 -5.706868e-08 -2.818740e-03 -4.409721e-03 -4.277693e-03 -1.165964e-03 -3.608679e-03 5.208261e-03 -1.757075e-03 5.998432e-03 4.891248e-03 1.720927e-03 7.501529e-04 -5.307185e-03 6.137643e-03
<VARIANCE> 25
 2.670229e+01 2.794268e+01 3.749357e+01 3.307458e+01 5.256620e+01 4.928031e+01 4.561778e+01 4.954230e+01 4.604616e+01 3.096663e+01 2.869331e+01 1.969207e+01 8.024186e-01 8.637462e-01 9.762596e-01 1.208383e+00 1.860729e+00 1.938551e+00 2.342637e+00 2.054597e+00 2.126093e+00 1.768907e+00 1.840738e+00 1.505519e+00 1.027859e+00
<GCONST> 9.389128e+01
~s "ST_d_3_1"
<MEAN> 25
 2.711044e-07 2.276736e-08 -6.105108e-08 -1.720701e-07 -1.586201e-07 9.768173e-08 -1.135738e-07 -1.298416e-07 7.694315e-08 -1.660590e-07 -1.083516e-07 -5.706868e-08 -2.818740e-03 -4.409721e-03 -4.277693e-03 -1.165964e-03 -3.608679e-03 5.208261e-03 -1.757075e-03 5.998432e-03 4.891248e-03 1.720927e-03 7.501529e-04 -5.307185e-03 6.137643e-03
<VARIANCE> 25
 2.670229e+01 2.794268e+01 3.749357e+01 3.307458e+01 5.256620e+01 4.928031e+01 4.561778e+01 4.954230e+01 4.604616e+01 3.096663e+01 2.869331e+01 1.969207e+01 8.024186e-01 8.637462e-01 9.762596e-01 1.208383e+00 1.860729e+00 1.938551e+00 2.342637e+00 2.054597e+00 2.126093e+00 1.768907e+00 1.840738e+00 1.505519e+00 1.027859e+00
<GCONST> 9.389128e+01
~s "ST_d_4_1"
<MEAN> 25
 2.711044e-07 2.276736e-08 -6.105108e-08 -1.720701e-07 -1.586201e-07 9.768173e-08 -1.135738e-07 -1.298416e-07 7.694316e-08 -1.660590e-07 -1.083516e-07 -5.706868e-08 -2.818740e-03 -4.409722e-03 -4.277693e-03 -1.165964e-03 -3.608679e-03 5.208261e-03 -1.757075e-03 5.998433e-03 4.891248e-03 1.720927e-03 7.501530e-04 -5.307185e-03 6.137643e-03
<VARIANCE> 25
 2.670229e+01 2.794268e+01 3.749357e+01 3.307458e+01 5.256620e+01 4.928032e+01 4.561778e+01 4.954230e+01 4.604616e+01 3.096663e+01 2.869331e+01 1.969207e+01 8.024186e-01 8.637463e-01 9.762596e-01 1.208383e+00 1.860729e+00 1.938551e+00 2.342637e+00 2.054597e+00 2.126093e+00 1.768907e+00 1.840738e+00 1.505519e+00 1.027859e+00
<GCONST> 9.389128e+01
~s "ST_g_2_1"
<MEAN> 25
 6.323242e+00 -5.335098e+00 1.279776e+01 -3.522282e+00 -1.907311e+01 -8.245535e+00 -1.442157e+01 -5.825737e+00 4.138350e+00 -1.305975e+01 1.546263e+01 8.741282e-01 2.536397e-01 -5.037937e-01 -3.001141e-01 1.713456e-01 -4.288595e-01 5.158857e-01 -1.064831e+00 -8.086357e-01 8.250123e-01 9.105203e-02 9.510502e-01 -8.807275e-02 2.762369e-01
<VARIANCE> 25
 1.202882e+01 5.593696e+01 6.086565e+01 4.014923e+01 5.217265e+01 5.850733e+01 4.339449e+01 3.296742e+01 3.636942e+01 2.539183e+01 7.814906e+01 2.461236e+01 2.957061e-01 7.148574e-01 2.256297e+00 5.977111e-01 3.712534e+00 1.320767e+00 1.648478e+00 2.946728e+00 1.656178e+00 5.506103e+00 4.377422e+00 1.460947e+00 5.302463e-01
<GCONST> 9.528632e+01
~s "ST_g_3_1"
<MEAN> 25
 1.087080e+01 -2.639928e+00 2.407614e-01 -6.418157e+00 -9.408067e+00 2.062478e+00 -1.431314e+01 -8.057500e+00 5.841267e-01 -8.729759e-01 1.359884e+01 2.860752e+00 -7.256389e-01 7.394747e-01 -5.363698e-02 4.660048e-02 1.412742e+00 -2.964731e-02 1.552229e+00 6.441476e-01 -8.492011e-01 8.653511e-01 -1.479406e+00 2.377008e-01 -6.840157e-01
<VARIANCE> 25
 2.898390e+01 2.487098e+01 2.451839e+01 2.302319e+01 2.532928e+01 2.526733e+01 7.811027e+01 3.457228e+01 8.097437e+01 1.622209e+01 9.683549e+01 9.247438e+00 2.576113e+00 8.042096e-01 2.182722e+00 2.648882e+00 3.198581e+00 3.688231e+00 8.061347e-01 3.726919e+00 4.468389e+00 2.426083e+00 5.344820e+00 3.014535e+00 6.195350e-01
<GCONST> 9.793893e+01
~s "ST_g_4_1"
<MEAN> 25
 -1.557458e+01 3.070036e+00 6.440618e+00 -7.490293e+00 3.081046e+00 -5.954152e+00 -1.214205e+01 3.517548e+00 9.499991e+00 -1.661591e+00 1.608450e+00 2.046078e+00 -6.755488e-01 -1.984389e-01 6.757952e-02 -2.692015e-01 3.785562e-01 -1.530626e-02 3.355038e-01 7.235600e-01 3.660040e-01 4.226917e-01 -2.588892e-02 7.983375e-03 -2.072618e-01
<VARIANCE> 25
 6.138287e+01 2.251041e+01 2.134525e+01 1.776299e+01 2.034129e+01 2.654687e+01 3.441060e+01 3.417052e+01 3.559672e+01 4.066996e+01 2.653366e+01 1.109356e+01 2.478054e+00 5.338525e-01 5.780504e-01 1.087363e+00 7.924916e-01 1.208730e+00 7.529002e-01 1.729077e+00 1.424133e+00 1.183166e+00 1.582727e+00 9.228286e-01 2.750069e-01
<GCONST> 8.508569e+01
~s "ST_t_2_1"
<MEAN> 25
 6.816304e+00 -4.444852e+00 3.265915e+00 2.805215e+00 -1.692690e+01 -9.729846e+00 -8.233488e+00 -8.144583e+00 5.171572e+00 -6.488210e+00 5.017348e+00 2.227397e+00 3.752142e-01 -8.934020e-01 5.999985e-01 9.156029e-01 -1.694365e+00 -1.991725e+00 9.230339e-02 1.037499e+00 -1.695106e-01 -7.391023e-01 1.129916e+00 -4.204479e-02 2.994560e-01
<VARIANCE> 25
 1.231041e+01 4.689336e+01 4.207169e+01 4.454741e+00 1.711729e+02 3.270237e+01 2.426927e+01 3.908342e+01 1.437904e+01 7.771326e+01 3.640211e+01 1.071214e+01 1.312151e-01 1.333540e+00 5.942743e+00 5.966606e-01 3.521395e+00 1.660715e+00 1.240553e+00 1.086070e+00 3.168670e+00 2.545669e+00 1.814708e+00 1.129033e+00 4.525064e-01
<GCONST> 8.960738e+01
~s "ST_t_3_1"
<MEAN> 25
 6.060229e+00 -4.293424e-01 8.878864e+00 2.228248e+00 -1.700396e+01 -1.238729e+01 -6.574671e+00 -6.880820e+00 -5.022306e+00 -6.115393e+00 7.868609e+00 -2.438299e+00 -5.241130e-01 8.958043e-01 3.716701e-01 -4.446057e-01 1.139312e+00 1.354965e-01 2.810906e-01 -2.163495e-01 -6.527987e-01 8.550972e-01 -6.608893e-01 -5.237971e-02 -6.575754e-01
<VARIANCE> 25
 1.027656e+01 3.662178e+01 1.636275e+01 1.409663e+01 7.982553e+01 2.402600e+01 1.855709e+01 1.871991e+01 3.686632e+01 2.666036e+01 2.427349e+01 1.293569e+01 3.498645e-01 9.689534e-01 7.711875e-01 1.274714e+00 4.111915e+00 7.984478e-01 1.619108e+00 2.171091e+00 3.069350e+00 2.254843e+00 4.018534e+00 2.231572e+00 1.211011e-01
<GCONST> 8.673174e+01
~s "ST_t_4_1"
<MEAN> 25
 5.028214e+00 -4.388640e+00 3.906109e+00 4.588946e-01 -4.189117e+00 -1.228232e+01 -1.259575e+01 -2.719819e+00 6.162998e+00 -1.243619e-01 -4.667784e-01 8.594557e-01 -5.849218e-01 -2.273800e+00 -3.272685e-03 -6.302714e-01 -2.903149e-01 -6.945104e-02 -1.255464e+00 1.084411e-01 2.265822e+00 -7.621958e-01 3.431517e-01 -4.265756e-01 1.816054e+00
<VARIANCE> 25
 1.410606e+01 8.914672e+01 1.545303e+01 2.488118e+00 9.580003e+01 5.444508e+01 1.023537e+02 2.785192e+01 7.244342e+01 4.331675e+01 3.018625e+01 7.844400e+00 1.410294e+00 1.783931e+00 9.819947e-01 9.189726e-01 2.087141e+01 3.294803e+00 8.164994e+00 1.283563e+00 2.866305e+00 8.322120e+00 7.410272e+00 2.470487e+00 3.520203e+00
<GCONST> 1.015044e+02
~s "ST_sil_2_1"
<MEAN> 25
 4.054069e-01 2.374299e+00 5.468928e-01 3.505609e+00 3.047262e+00 4.300656e+00 2.708735e+00 3.632338e+00 -3.127273e+00 1.773589e+00 -2.184868e-01 -7.762201e-01 -4.699071e-03 -8.137802e-04 7.799465e-03 -9.640651e-03 2.657667e-02 4.176604e-02 3.770918e-02 2.961023e-02 -9.163260e-03 1.201452e-02 -7.941213e-03 -4.304984e-03 -2.607284e-02
<VARIANCE> 25
 1.196638e+00 2.080002e+00 4.164933e+00 6.955987e+00 7.520778e+00 1.012235e+01 1.139282e+01 1.142735e+01 1.218398e+01 1.206391e+01 1.197319e+01 1.006483e+01 8.793829e-02 2.473846e-01 3.914526e-01 5.921392e-01 7.016594e-01 8.984306e-01 1.071708e+00 1.186672e+00 1.191634e+00 1.251586e+00 1.055959e+00 9.483858e-01 4.169071e-02
<GCONST> 6.092145e+01
~s "silst"
<MEAN> 25
 -9.758943e-01 1.243997e+00 9.669153e-02 1.664455e+00 2.024865e+00 2.341553e+00 2.545533e+00 1.856108e+00 -2.240843e+00 1.391761e+00 7.285199e-02 5.094323e-01 -1.225357e-03 8.909179e-03 1.064865e-02 1.531665e-02 -1.752888e-03 -1.774579e-03 8.158343e-03 -1.587475e-02 -1.455122e-02 -1.619810e-02 -1.919688e-02 7.955995e-03 -8.595907e-03
<VARIANCE> 25
 1.420564e+00 2.603549e+00 3.903881e+00 5.691692e+00 8.383703e+00 1.052806e+01 1.057860e+01 1.035765e+01 1.168684e+01 1.119509e+01 1.076290e+01 1.047986e+01 1.085577e-01 2.302060e-01 3.966632e-01 6.517345e-01 8.507145e-01 1.080858e+00 1.314888e+00 1.074890e+00 1.303855e+00 1.162478e+00 1.122016e+00 1.112849e+00 3.721108e-02
<GCONST> 6.169902e+01
~s "ST_sil_3_1"
<MEAN> 25
 -9.133375e-01 1.166711e+00 9.350140e-02 1.763007e+00 2.025694e+00 2.363583e+00 2.541265e+00 1.919188e+00 -2.302759e+00 1.354553e+00 3.609578e-02 4.709919e-01 -1.322448e-03 1.386517e-02 1.304741e-02 1.466280e-02 9.899449e-04 6.733598e-03 1.123889e-02 -1.232532e-02 -1.220988e-02 -1.086081e-02 -1.379191e-02 6.127070e-03 -1.097127e-02
<VARIANCE> 25
 1.435114e+00 2.714541e+00 3.882893e+00 5.736049e+00 8.273468e+00 1.036473e+01 1.049901e+01 1.073923e+01 1.187386e+01 1.126998e+01 1.083725e+01 1.043747e+01 1.072079e-01 2.296826e-01 3.926386e-01 6.396551e-01 8.401455e-01 1.071769e+00 1.309335e+00 1.081977e+00 1.327196e+00 1.164414e+00 1.122778e+00 1.112601e+00 3.680180e-02
<GCONST> 6.172495e+01
~s "ST_sil_4_1"
<MEAN> 25
 -6.824077e-01 -2.531229e+00 -1.553166e+00 -4.560240e+00 -1.891435e+00 -3.551212e+00 -2.276791e+00 -4.226228e+00 2.818387e+00 -2.134288e+00 -1.100942e+00 1.123744e+00 5.003548e-03 -3.187543e-02 -6.052516e-02 -4.439422e-02 -6.449845e-02 -4.403588e-02 -7.829402e-02 1.685548e-02 7.843529e-02 1.668415e-02 2.429429e-02 -3.124252e-02 1.188798e-01
<VARIANCE> 25
 6.251978e+01 6.120868e+01 8.013281e+01 6.267457e+01 9.142388e+01 6.357169e+01 4.940116e+01 7.964651e+01 5.151518e+01 5.693914e+01 4.840639e+01 3.470368e+01 1.885077e+00 1.961563e+00 1.785427e+00 2.353026e+00 3.312678e+00 3.357575e+00 3.241618e+00 3.202355e+00 3.671397e+00 2.718158e+00 2.641183e+00 2.646775e+00 2.753504e+00
<GCONST> 1.078239e+02
~s "ST_ng_2_1"
<MEAN> 25
 2.711044e-07 2.276736e-08 -6.105108e-08 -1.720701e-07 -1.586201e-07 9.768173e-08 -1.135738e-07 -1.298416e-07 7.694315e-08 -1.660590e-07 -1.083516e-07 -5.706868e-08 -2.818740e-03 -4.409721e-03 -4.277692e-03 -1.165964e-03 -3.608679e-03 5.208261e-03 -1.757075e-03 5.998432e-03 4.891248e-03 1.720927e-03 7.501529e-04 -5.307185e-03 6.137643e-03
<VARIANCE> 25
 2.670229e+01 2.794268e+01 3.749357e+01 3.307458e+01 5.256620e+01 4.928031e+01 4.561778e+01 4.954230e+01 4.604616e+01 3.096663e+01 2.869331e+01 1.969207e+01 8.024186e-01 8.637462e-01 9.762596e-01 1.208383e+00 1.860729e+00 1.938551e+00 2.342637e+00 2.054597e+00 2.126093e+00 1.768907e+00 1.840738e+00 1.505519e+00 1.027859e+00
<GCONST> 9.389127e+01
~s "ST_ng_3_1"
<MEAN> 25
 2.711044e-07 2.276736e-08 -6.105108e-08 -1.720701e-07 -1.586201e-07 9.768173e-08 -1.135738e-07 -1.298416e-07 7.694315e-08 -1.660590e-07 -1.083516e-07 -5.706868e-08 -2.818740e-03 -4.409721e-03 -4.277692e-03 -1.165964e-03 -3.608679e-03 5.208261e-03 -1.757075e-03 5.998433e-03 4.891248e-03 1.720927e-03 7.501529e-04 -5.307185e-03 6.137643e-03
<VARIANCE> 25
 2.670229e+01 2.794268e+01 3.749357e+01 3.307458e+01 5.256620e+01 4.928031e+01 4.561778e+01 4.954230e+01 4.604616e+01 3.096663e+01 2.869331e+01 1.969207e+01 8.024186e-01 8.637462e-01 9.762596e-01 1.208383e+00 1.860729e+00 1.938551e+00 2.342637e+00 2.054597e+00 2.126093e+00 1.768907e+00 1.840738e+00 1.505519e+00 1.027859e+00
<GCONST> 9.389127e+01
~s "ST_m_2_1"
<MEAN> 25
 2.711044e-07 2.276736e-08 -6.105108e-08 -1.720701e-07 -1.586201e-07 9.768172e-08 -1.135738e-07 -1.298416e-07 7.694315e-08 -1.660590e-07 -1.083516e-07 -5.706868e-08 -2.818740e-03 -4.409721e-03 -4.277692e-03 -1.165964e-03 -3.608679e-03 5.208261e-03 -1.757075e-03 5.998432e-03 4.891247e-03 1.720927e-03 7.501529e-04 -5.307185e-03 6.137643e-03
<VARIANCE> 25
 2.670229e+01 2.794268e+01 3.749356e+01 3.307458e+01 5.256620e+01 4.928031e+01 4.561778e+01 4.954230e+01 4.604616e+01 3.096663e+01 2.869331e+01 1.969207e+01 8.024186e-01 8.637462e-01 9.762596e-01 1.208383e+00 1.860729e+00 1.938551e+00 2.342637e+00 2.054597e+00 2.126093e+00 1.768907e+00 1.840738e+00 1.505519e+00 1.027859e+00
<GCONST> 9.389127e+01
~s "ST_ng_4_1"
<MEAN> 25
 2.711044e-07 2.276736e-08 -6.105108e-08 -1.720701e-07 -1.586201e-07 9.768173e-08 -1.135738e-07 -1.298416e-07 7.694315e-08 -1.660590e-07 -1.083516e-07 -5.706868e-08 -2.818740e-03 -4.409721e-03 -4.277692e-03 -1.165964e-03 -3.608679e-03 5.208261e-03 -1.757075e-03 5.998432e-03 4.891248e-03 1.720927e-03 7.501529e-04 -5.307185e-03 6.137643e-03
<VARIANCE> 25
 2.670229e+01 2.794268e+01 3.749357e+01 3.307458e+01 5.256620e+01 4.928031e+01 4.561778e+01 4.954230e+01 4.604616e+01 3.096663e+01 2.869331e+01 1.969207e+01 8.024186e-01 8.637462e-01 9.762596e-01 1.208383e+00 1.860729e+00 1.938551e+00 2.342637e+00 2.054597e+00 2.126093e+00 1.768907e+00 1.840738e+00 1.505519e+00 1.027859e+00
<GCONST> 9.389127e+01
~s "ST_m_3_1"
<MEAN> 25
 2.711044e-07 2.276736e-08 -6.105108e-08 -1.720701e-07 -1.586201e-07 9.768173e-08 -1.135738e-07 -1.298416e-07 7.694316e-08 -1.660590e-07 -1.083516e-07 -5.706868e-08 -2.818740e-03 -4.409722e-03 -4.277692e-03 -1.165964e-03 -3.608679e-03 5.208261e-03 -1.757075e-03 5.998432e-03 4.891248e-03 1.720927e-03 7.501529e-04 -5.307185e-03 6.137643e-03
<VARIANCE> 25
 2.670229e+01 2.794268e+01 3.749357e+01 3.307458e+01 5.256620e+01 4.928031e+01 4.561778e+01 4.954230e+01 4.604616e+01 3.096663e+01 2.869331e+01 1.969207e+01 8.024186e-01 8.637462e-01 9.762596e-01 1.208383e+00 1.860729e+00 1.938551e+00 2.342637e+00 2.054597e+00 2.126093e+00 1.768907e+00 1.840738e+00 1.505519e+00 1.027859e+00
<GCONST> 9.389128e+01
~s "ST_m_4_1"
<MEAN> 25
 2.711044e-07 2.276736e-08 -6.105108e-08 -1.720701e-07 -1.586201e-07 9.768173e-08 -1.135738e-07 -1.298416e-07 7.694316e-08 -1.660590e-07 -1.083516e-07 -5.706868e-08 -2.818740e-03 -4.409721e-03 -4.277692e-03 -1.165964e-03 -3.608679e-03 5.208261e-03 -1.757075e-03 5.998433e-03 4.891248e-03 1.720927e-03 7.501529e-04 -5.307185e-03 6.137643e-03
<VARIANCE> 25
 2.670229e+01 2.794268e+01 3.749357e+01 3.307458e+01 5.256620e+01 4.928031e+01 4.561778e+01 4.954230e+01 4.604617e+01 3.096663e+01 2.869331e+01 1.969207e+01 8.024186e-01 8.637462e-01 9.762596e-01 1.208383e+00 1.860729e+00 1.938551e+00 2.342637e+00 2.054597e+00 2.126093e+00 1.768907e+00 1.840738e+00 1.505519e+00 1.027859e+00
<GCONST> 9.389128e+01
~s "ST_p_2_1"
<MEAN> 25
 2.711044e-07 2.276736e-08 -6.105108e-08 -1.720701e-07 -1.586201e-07 9.768172e-08 -1.135738e-07 -1.298416e-07 7.694315e-08 -1.660590e-07 -1.083516e-07 -5.706868e-08 -2.818740e-03 -4.409721e-03 -4.277692e-03 -1.165964e-03 -3.608679e-03 5.208260e-03 -1.757075e-03 5.998432e-03 4.891248e-03 1.720927e-03 7.501529e-04 -5.307185e-03 6.137643e-03
<VARIANCE> 25
 2.670229e+01 2.794268e+01 3.749356e+01 3.307458e+01 5.256620e+01 4.928032e+01 4.561777e+01 4.954230e+01 4.604616e+01 3.096663e+01 2.869331e+01 1.969207e+01 8.024186e-01 8.637462e-01 9.762596e-01 1.208383e+00 1.860729e+00 1.938551e+00 2.342637e+00 2.054597e+00 2.126093e+00 1.768907e+00 1.840738e+00 1.505519e+00 1.027859e+00
<GCONST> 9.389127e+01
~s "ST_p_3_1"
<MEAN> 25
 2.711044e-07 2.276736e-08 -6.105108e-08 -1.720701e-07 -1.586201e-07 9.768173e-08 -1.135738e-07 -1.298416e-07 7.694315e-08 -1.660590e-07 -1.083516e-07 -5.706868e-08 -2.818740e-03 -4.409721e-03 -4.277692e-03 -1.165964e-03 -3.608679e-03 5.208261e-03 -1.757075e-03 5.998432e-03 4.891248e-03 1.720927e-03 7.501529e-04 -5.307185e-03 6.137643e-03
<VARIANCE> 25
 2.670229e+01 2.794268e+01 3.749357e+01 3.307458e+01 5.256620e+01 4.928031e+01 4.561778e+01 4.954230e+01 4.604616e+01 3.096663e+01 2.869331e+01 1.969207e+01 8.024185e-01 8.637462e-01 9.762596e-01 1.208383e+00 1.860729e+00 1.938551e+00 2.342637e+00 2.054597e+00 2.126093e+00 1.768907e+00 1.840738e+00 1.505519e+00 1.027859e+00
<GCONST> 9.389127e+01
~s "ST_p_4_1"
<MEAN> 25
 2.711044e-07 2.276736e-08 -6.105108e-08 -1.720701e-07 -1.586201e-07 9.768172e-08 -1.135738e-07 -1.298416e-07 7.694315e-08 -1.660590e-07 -1.083516e-07 -5.706868e-08 -2.818740e-03 -4.409721e-03 -4.277692e-03 -1.165964e-03 -3.608679e-03 5.208261e-03 -1.757075e-03 5.998432e-03 4.891248e-03 1.720927e-03 7.501529e-04 -5.307185e-03 6.137643e-03
<VARIANCE> 25
 2.670229e+01 2.794268e+01 3.749357e+01 3.307458e+01 5.256620e+01 4.928031e+01 4.561778e+01 4.954230e+01 4.604616e+01 3.096663e+01 2.869331e+01 1.969207e+01 8.024186e-01 8.637462e-01 9.762596e-01 1.208383e+00 1.860729e+00 1.938551e+00 2.342637e+00 2.054597e+00 2.126093e+00 1.768907e+00 1.840738e+00 1.505519e+00 1.027859e+00
<GCONST> 9.389127e+01
~h "E"
<BEGINHMM>
<NUMSTATES> 5
<STATE> 2
~s "ST_E_2_1"
<STATE> 3
~s "ST_E_3_1"
<STATE> 4
~s "ST_E_4_1"
~t "T_E"
<ENDHMM>
~h "a"
<BEGINHMM>
<NUMSTATES> 5
<STATE> 2
~s "ST_a_2_1"
<STATE> 3
~s "ST_a_3_1"
<STATE> 4
~s "ST_a_4_1"
~t "T_a"
<ENDHMM>
~h "b"
<BEGINHMM>
<NUMSTATES> 5
<STATE> 2
~s "ST_b_2_1"
<STATE> 3
~s "ST_b_3_1"
<STATE> 4
~s "ST_b_4_1"
~t "T_b"
<ENDHMM>
~h "d"
<BEGINHMM>
<NUMSTATES> 5
<STATE> 2
~s "ST_d_2_1"
<STATE> 3
~s "ST_d_3_1"
<STATE> 4
~s "ST_d_4_1"
~t "T_d"
<ENDHMM>
~h "e"
<BEGINHMM>
<NUMSTATES> 5
<STATE> 2
~s "ST_e_2_1"
<STATE> 3
~s "ST_e_3_1"
<STATE> 4
~s "ST_e_4_1"
~t "T_e"
<ENDHMM>
~h "f"
<BEGINHMM>
<NUMSTATES> 5
<STATE> 2
~s "ST_f_2_1"
<STATE> 3
~s "ST_f_3_1"
<STATE> 4
~s "ST_f_4_1"
~t "T_f"
<ENDHMM>
~h "g"
<BEGINHMM>
<NUMSTATES> 5
<STATE> 2
~s "ST_g_2_1"
<STATE> 3
~s "ST_g_3_1"
<STATE> 4
~s "ST_g_4_1"
~t "T_g"
<ENDHMM>
~h "h"
<BEGINHMM>
<NUMSTATES> 5
<STATE> 2
~s "ST_h_2_1"
<STATE> 3
~s "ST_h_3_1"
<STATE> 4
~s "ST_h_4_1"
~t "T_h"
<ENDHMM>
~h "i"
<BEGINHMM>
<NUMSTATES> 5
<STATE> 2
~s "ST_i_2_1"
<STATE> 3
~s "ST_i_3_1"
<STATE> 4
~s "ST_i_4_1"
~t "T_i"
<ENDHMM>
~h "k"
<BEGINHMM>
<NUMSTATES> 5
<STATE> 2
~s "ST_k_2_1"
<STATE> 3
~s "ST_k_3_1"
<STATE> 4
~s "ST_k_4_1"
~t "T_k"
<ENDHMM>
~h "l"
<BEGINHMM>
<NUMSTATES> 5
<STATE> 2
~s "ST_l_2_1"
<STATE> 3
~s "ST_l_3_1"
<STATE> 4
~s "ST_l_4_1"
~t "T_l"
<ENDHMM>
~h "m"
<BEGINHMM>
<NUMSTATES> 5
<STATE> 2
~s "ST_m_2_1"
<STATE> 3
~s "ST_m_3_1"
<STATE> 4
~s "ST_m_4_1"
~t "T_m"
<ENDHMM>
~h "o"
<BEGINHMM>
<NUMSTATES> 5
<STATE> 2
~s "ST_o_2_1"
<STATE> 3
~s "ST_o_3_1"
<STATE> 4
~s "ST_o_4_1"
~t "T_o"
<ENDHMM>
~h "p"
<BEGINHMM>
<NUMSTATES> 5
<STATE> 2
~s "ST_p_2_1"
<STATE> 3
~s "ST_p_3_1"
<STATE> 4
~s "ST_p_4_1"
~t "T_p"
<ENDHMM>
~h "r"
<BEGINHMM>
<NUMSTATES> 5
<STATE> 2
~s "ST_r_2_1"
<STATE> 3
~s "ST_r_3_1"
<STATE> 4
~s "ST_r_4_1"
~t "T_r"
<ENDHMM>
~h "s"
<BEGINHMM>
<NUMSTATES> 5
<STATE> 2
~s "ST_s_2_1"
<STATE> 3
~s "ST_s_3_1"
<STATE> 4
~s "ST_s_4_1"
~t "T_s"
<ENDHMM>
~h "t"
<BEGINHMM>
<NUMSTATES> 5
<STATE> 2
~s "ST_t_2_1"
<STATE> 3
~s "ST_t_3_1"
<STATE> 4
~s "ST_t_4_1"
~t "T_t"
<ENDHMM>
~h "u"
<BEGINHMM>
<NUMSTATES> 5
<STATE> 2
~s "ST_u_2_1"
<STATE> 3
~s "ST_u_3_1"
<STATE> 4
~s "ST_u_4_1"
~t "T_u"
<ENDHMM>
~h "ng"
<BEGINHMM>
<NUMSTATES> 5
<STATE> 2
~s "ST_ng_2_1"
<STATE> 3
~s "ST_ng_3_1"
<STATE> 4
~s "ST_ng_4_1"
~t "T_ng"
<ENDHMM>
~h "sp"
<BEGINHMM>
<NUMSTATES> 3
<STATE> 2
~s "ST_sil_3_1"
<TRANSP> 3
 0.000000e+00 4.210764e-01 5.789236e-01
 0.000000e+00 9.812058e-01 1.879422e-02
 0.000000e+00 0.000000e+00 0.000000e+00
<ENDHMM>
~h "sil"
<BEGINHMM>
<NUMSTATES> 5
<STATE> 2
~s "ST_sil_2_1"
<STATE> 3
~s "ST_sil_3_1"
<STATE> 4
~s "ST_sil_4_1"
<TRANSP> 5
 0.000000e+00 1.000000e+00 0.000000e+00 0.000000e+00 0.000000e+00
 0.000000e+00 9.617286e-01 1.459170e-02 2.367974e-02 0.000000e+00
 0.000000e+00 0.000000e+00 9.857849e-01 1.421512e-02 0.000000e+00
 0.000000e+00 3.209905e-02 0.000000e+00 9.448041e-01 2.309676e-02
 0.000000e+00 0.000000e+00 0.000000e+00 0.000000e+00 0.000000e+00
<ENDHMM>
