~o
<STREAMINFO> 1 25
<VECSIZE> 25<NULLD><MFCC_D_N_Z_0><DIAGC>
~t "T_E"
<TRANSP> 5
 0.000000e+00 1.000000e+00 0.000000e+00 0.000000e+00 0.000000e+00
 0.000000e+00 4.000016e-01 5.999984e-01 0.000000e+00 0.000000e+00
 0.000000e+00 0.000000e+00 2.499629e-01 7.500371e-01 0.000000e+00
 0.000000e+00 0.000000e+00 0.000000e+00 6.680431e-01 3.319569e-01
 0.000000e+00 0.000000e+00 0.000000e+00 0.000000e+00 0.000000e+00
~t "T_a"
<TRANSP> 5
 0.000000e+00 1.000000e+00 0.000000e+00 0.000000e+00 0.000000e+00
 0.000000e+00 4.824219e-01 5.175781e-01 0.000000e+00 0.000000e+00
 0.000000e+00 0.000000e+00 6.637050e-01 3.362951e-01 0.000000e+00
 0.000000e+00 0.000000e+00 0.000000e+00 5.206706e-01 4.793294e-01
 0.000000e+00 0.000000e+00 0.000000e+00 0.000000e+00 0.000000e+00
~t "T_b"
<TRANSP> 5
 0.000000e+00 1.000000e+00 0.000000e+00 0.000000e+00 0.000000e+00
 0.000000e+00 6.000000e-01 4.000000e-01 0.000000e+00 0.000000e+00
 0.000000e+00 0.000000e+00 6.000000e-01 4.000000e-01 0.000000e+00
 0.000000e+00 0.000000e+00 0.000000e+00 7.000000e-01 3.000000e-01
 0.000000e+00 0.000000e+00 0.000000e+00 0.000000e+00 0.000000e+00
~t "T_d"
<TRANSP> 5
 0.000000e+00 1.000000e+00 0.000000e+00 0.000000e+00 0.000000e+00
 0.000000e+00 6.000000e-01 4.000000e-01 0.000000e+00 0.000000e+00
 0.000000e+00 0.000000e+00 6.000000e-01 4.000000e-01 0.000000e+00
 0.000000e+00 0.000000e+00 0.000000e+00 7.000000e-01 3.000000e-01
 0.000000e+00 0.000000e+00 0.000000e+00 0.000000e+00 0.000000e+00
~t "T_e"
<TRANSP> 5
 0.000000e+00 1.000000e+00 0.000000e+00 0.000000e+00 0.000000e+00
 0.000000e+00 4.000015e-01 5.999985e-01 0.000000e+00 0.000000e+00
 0.000000e+00 0.000000e+00 7.500062e-01 2.499938e-01 0.000000e+00
 0.000000e+00 0.000000e+00 0.000000e+00 9.568194e-01 4.318067e-02
 0.000000e+00 0.000000e+00 0.000000e+00 0.000000e+00 0.000000e+00
~t "T_f"
<TRANSP> 5
 0.000000e+00 1.000000e+00 0.000000e+00 0.000000e+00 0.000000e+00
 0.000000e+00 6.000000e-01 4.000000e-01 0.000000e+00 0.000000e+00
 0.000000e+00 0.000000e+00 6.000000e-01 4.000000e-01 0.000000e+00
 0.000000e+00 0.000000e+00 0.000000e+00 7.000000e-01 3.000000e-01
 0.000000e+00 0.000000e+00 0.000000e+00 0.000000e+00 0.000000e+00
~t "T_g"
<TRANSP> 5
 0.000000e+00 1.000000e+00 0.000000e+00 0.000000e+00 0.000000e+00
 0.000000e+00 8.607777e-01 1.392223e-01 0.000000e+00 0.000000e+00
 0.000000e+00 0.000000e+00 7.775823e-01 2.224178e-01 0.000000e+00
 0.000000e+00 0.000000e+00 0.000000e+00 8.333480e-01 1.666520e-01
 0.000000e+00 0.000000e+00 0.000000e+00 0.000000e+00 0.000000e+00
~t "T_h"
<TRANSP> 5
 0.000000e+00 1.000000e+00 0.000000e+00 0.000000e+00 0.000000e+00
 0.000000e+00 6.000000e-01 4.000000e-01 0.000000e+00 0.000000e+00
 0.000000e+00 0.000000e+00 6.000000e-01 4.000000e-01 0.000000e+00
 0.000000e+00 0.000000e+00 0.000000e+00 7.000000e-01 3.000000e-01
 0.000000e+00 0.000000e+00 0.000000e+00 0.000000e+00 0.000000e+00
~t "T_i"
<TRANSP> 5
 0.000000e+00 1.000000e+00 0.000000e+00 0.000000e+00 0.000000e+00
 0.000000e+00 5.709510e-01 4.290490e-01 0.000000e+00 0.000000e+00
 0.000000e+00 0.000000e+00 1.022504e-01 8.977495e-01 0.000000e+00
 0.000000e+00 0.000000e+00 0.000000e+00 5.258679e-01 4.741320e-01
 0.000000e+00 0.000000e+00 0.000000e+00 0.000000e+00 0.000000e+00
~t "T_k"
<TRANSP> 5
 0.000000e+00 1.000000e+00 0.000000e+00 0.000000e+00 0.000000e+00
 0.000000e+00 8.548822e-01 1.451177e-01 0.000000e+00 0.000000e+00
 0.000000e+00 0.000000e+00 9.343856e-01 6.561436e-02 0.000000e+00
 0.000000e+00 0.000000e+00 0.000000e+00 8.298042e-01 1.701957e-01
 0.000000e+00 0.000000e+00 0.000000e+00 0.000000e+00 0.000000e+00
~t "T_l"
<TRANSP> 5
 0.000000e+00 1.000000e+00 0.000000e+00 0.000000e+00 0.000000e+00
 0.000000e+00 6.000000e-01 4.000000e-01 0.000000e+00 0.000000e+00
 0.000000e+00 0.000000e+00 6.000000e-01 4.000000e-01 0.000000e+00
 0.000000e+00 0.000000e+00 0.000000e+00 7.000000e-01 3.000000e-01
 0.000000e+00 0.000000e+00 0.000000e+00 0.000000e+00 0.000000e+00
~t "T_m"
<TRANSP> 5
 0.000000e+00 1.000000e+00 0.000000e+00 0.000000e+00 0.000000e+00
 0.000000e+00 6.000000e-01 4.000000e-01 0.000000e+00 0.000000e+00
 0.000000e+00 0.000000e+00 6.000000e-01 4.000000e-01 0.000000e+00
 0.000000e+00 0.000000e+00 0.000000e+00 7.000000e-01 3.000000e-01
 0.000000e+00 0.000000e+00 0.000000e+00 0.000000e+00 0.000000e+00
~t "T_o"
<TRANSP> 5
 0.000000e+00 1.000000e+00 0.000000e+00 0.000000e+00 0.000000e+00
 0.000000e+00 8.313563e-01 1.686437e-01 0.000000e+00 0.000000e+00
 0.000000e+00 0.000000e+00 9.722424e-01 2.775764e-02 0.000000e+00
 0.000000e+00 0.000000e+00 0.000000e+00 4.483380e-01 5.516620e-01
 0.000000e+00 0.000000e+00 0.000000e+00 0.000000e+00 0.000000e+00
~t "T_p"
<TRANSP> 5
 0.000000e+00 1.000000e+00 0.000000e+00 0.000000e+00 0.000000e+00
 0.000000e+00 6.000000e-01 4.000000e-01 0.000000e+00 0.000000e+00
 0.000000e+00 0.000000e+00 6.000000e-01 4.000000e-01 0.000000e+00
 0.000000e+00 0.000000e+00 0.000000e+00 7.000000e-01 3.000000e-01
 0.000000e+00 0.000000e+00 0.000000e+00 0.000000e+00 0.000000e+00
~t "T_r"
<TRANSP> 5
 0.000000e+00 1.000000e+00 0.000000e+00 0.000000e+00 0.000000e+00
 0.000000e+00 4.014429e-14 1.000000e+00 0.000000e+00 0.000000e+00
 0.000000e+00 0.000000e+00 1.689779e-01 8.310221e-01 0.000000e+00
 0.000000e+00 0.000000e+00 0.000000e+00 5.452901e-01 4.547100e-01
 0.000000e+00 0.000000e+00 0.000000e+00 0.000000e+00 0.000000e+00
~t "T_s"
<TRANSP> 5
 0.000000e+00 1.000000e+00 0.000000e+00 0.000000e+00 0.000000e+00
 0.000000e+00 8.795292e-01 1.204709e-01 0.000000e+00 0.000000e+00
 0.000000e+00 0.000000e+00 7.283384e-01 2.716616e-01 0.000000e+00
 0.000000e+00 0.000000e+00 0.000000e+00 7.335306e-01 2.664694e-01
 0.000000e+00 0.000000e+00 0.000000e+00 0.000000e+00 0.000000e+00
~t "T_t"
<TRANSP> 5
 0.000000e+00 1.000000e+00 0.000000e+00 0.000000e+00 0.000000e+00
 0.000000e+00 6.649337e-01 3.350663e-01 0.000000e+00 0.000000e+00
 0.000000e+00 0.000000e+00 7.648989e-01 2.351011e-01 0.000000e+00
 0.000000e+00 0.000000e+00 0.000000e+00 7.289671e-01 2.710329e-01
 0.000000e+00 0.000000e+00 0.000000e+00 0.000000e+00 0.000000e+00
~t "T_u"
<TRANSP> 5
 0.000000e+00 1.000000e+00 0.000000e+00 0.000000e+00 0.000000e+00
 0.000000e+00 2.428710e-14 1.000000e+00 0.000000e+00 0.000000e+00
 0.000000e+00 0.000000e+00 4.287604e-01 5.712395e-01 0.000000e+00
 0.000000e+00 0.000000e+00 0.000000e+00 9.200855e-01 7.991446e-02
 0.000000e+00 0.000000e+00 0.000000e+00 0.000000e+00 0.000000e+00
~t "T_ng"
<TRANSP> 5
 0.000000e+00 1.000000e+00 0.000000e+00 0.000000e+00 0.000000e+00
 0.000000e+00 6.000000e-01 4.000000e-01 0.000000e+00 0.000000e+00
 0.000000e+00 0.000000e+00 6.000000e-01 4.000000e-01 0.000000e+00
 0.000000e+00 0.000000e+00 0.000000e+00 7.000000e-01 3.000000e-01
 0.000000e+00 0.000000e+00 0.000000e+00 0.000000e+00 0.000000e+00
~s "ST_f_2_1"
<MEAN> 25
 2.711044e-07 2.276736e-08 -6.105108e-08 -1.720701e-07 -1.586201e-07 9.768172e-08 -1.135738e-07 -1.298416e-07 7.694315e-08 -1.660590e-07 -1.083516e-07 -5.706868e-08 -2.818740e-03 -4.409721e-03 -4.277692e-03 -1.165964e-03 -3.608679e-03 5.208261e-03 -1.757075e-03 5.998432e-03 4.891248e-03 1.720927e-03 7.501529e-04 -5.307185e-03 6.137643e-03
<VARIANCE> 25
 2.670229e+01 2.794268e+01 3.749357e+01 3.307458e+01 5.256620e+01 4.928031e+01 4.561778e+01 4.954230e+01 4.604616e+01 3.096663e+01 2.869331e+01 1.969207e+01 8.024185e-01 8.637462e-01 9.762596e-01 1.208383e+00 1.860729e+00 1.938551e+00 2.342637e+00 2.054597e+00 2.126093e+00 1.768907e+00 1.840738e+00 1.505519e+00 1.027859e+00
<GCONST> 9.389127e+01
~s "ST_f_3_1"
<MEAN> 25
 2.711044e-07 2.276736e-08 -6.105108e-08 -1.720701e-07 -1.586201e-07 9.768172e-08 -1.135738e-07 -1.298416e-07 7.694315e-08 -1.660590e-07 -1.083516e-07 -5.706868e-08 -2.818740e-03 -4.409721e-03 -4.277692e-03 -1.165964e-03 -3.608679e-03 5.208261e-03 -1.757075e-03 5.998432e-03 4.891248e-03 1.720927e-03 7.501529e-04 -5.307185e-03 6.137643e-03
<VARIANCE> 25
 2.670229e+01 2.794268e+01 3.749357e+01 3.307458e+01 5.256620e+01 4.928031e+01 4.561778e+01 4.954230e+01 4.604616e+01 3.096663e+01 2.869331e+01 1.969207e+01 8.024185e-01 8.637462e-01 9.762596e-01 1.208383e+00 1.860729e+00 1.938551e+00 2.342637e+00 2.054597e+00 2.126093e+00 1.768907e+00 1.840738e+00 1.505519e+00 1.027859e+00
<GCONST> 9.389127e+01
~s "ST_f_4_1"
<MEAN> 25
 2.711044e-07 2.276736e-08 -6.105108e-08 -1.720701e-07 -1.586201e-07 9.768173e-08 -1.135738e-07 -1.298416e-07 7.694316e-08 -1.660590e-07 -1.083516e-07 -5.706868e-08 -2.818740e-03 -4.409722e-03 -4.277693e-03 -1.165964e-03 -3.608679e-03 5.208261e-03 -1.757075e-03 5.998433e-03 4.891248e-03 1.720927e-03 7.501530e-04 -5.307185e-03 6.137643e-03
<VARIANCE> 25
 2.670229e+01 2.794268e+01 3.749357e+01 3.307458e+01 5.256620e+01 4.928031e+01 4.561778e+01 4.954230e+01 4.604616e+01 3.096663e+01 2.869331e+01 1.969207e+01 8.024186e-01 8.637463e-01 9.762596e-01 1.208383e+00 1.860729e+00 1.938551e+00 2.342637e+00 2.054597e+00 2.126093e+00 1.768907e+00 1.840738e+00 1.505519e+00 1.027859e+00
<GCONST> 9.389127e+01
~s "ST_s_2_1"
<MEAN> 25
 -2.539297e+00 7.519216e-01 1.282946e+01 -1.231722e+00 -1.445233e+01 -1.208143e+01 -4.545360e+00 -1.108707e+01 -1.336285e+00 -3.405092e+00 6.629646e+00 1.144470e+00 5.699130e-01 1.081675e-01 3.147693e-01 -3.540827e-02 -4.351406e-01 2.309675e-01 -2.260732e-01 -3.983545e-01 -2.664028e-01 -9.049220e-02 3.567076e-01 -2.200603e-01 -1.282638e-01
<VARIANCE> 25
 5.780420e+01 2.068355e+01 4.482346e+01 1.475378e+01 1.035282e+02 2.937205e+01 8.342979e+01 7.671928e+01 2.419280e+01 4.406922e+01 3.598043e+01 2.789755e+01 4.887107e+00 2.265860e+00 2.308950e+00 1.534236e+00 6.107595e+00 3.360875e+00 6.599267e+00 5.341126e+00 3.668633e+00 3.448615e+00 3.531453e+00 2.390012e+00 1.671178e+00
<GCONST> 1.056328e+02
~s "ST_s_3_1"
<MEAN> 25
 3.533786e+00 1.018321e+00 -7.399757e-01 -9.864805e+00 -7.090811e+00 -2.055577e-02 -3.341615e+00 -6.683588e+00 3.895219e+00 -4.457485e+00 3.509851e-01 2.753814e+00 -6.297188e-01 -2.062004e-01 -2.909924e-01 -3.229685e-01 7.627568e-01 -3.436076e-01 4.550659e-02 8.472416e-01 4.875767e-01 1.037052e-01 -2.610708e-01 7.218333e-01 8.408291e-01
<VARIANCE> 25
 4.842846e+01 1.768204e+01 1.238935e+02 1.670368e+02 5.584066e+01 6.238884e+01 2.933227e+01 9.866891e+01 5.897356e+01 1.835107e+01 2.923693e+01 2.906215e+01 3.840875e+00 2.966574e+00 4.168748e+00 8.781549e+00 6.679523e+00 7.884620e+00 3.940991e+00 8.482183e+00 1.645232e+00 2.639670e+00 3.314184e+00 2.371495e+00 4.074090e+00
<GCONST> 1.109369e+02
~s "ST_s_4_1"
<MEAN> 25
 -1.097105e+01 1.626002e+00 2.552583e-01 -3.686613e+00 5.334428e+00 -7.609942e+00 -1.153977e+00 2.239497e+00 5.595278e+00 5.921608e-01 -2.995148e-01 6.035453e+00 -4.774183e-01 6.481181e-02 -6.112833e-01 -2.196386e-01 -7.547481e-02 -9.821222e-02 2.480042e-01 -4.155554e-01 -4.126652e-01 -4.159196e-02 9.280837e-02 2.744855e-01 2.002788e-01
<VARIANCE> 25
 5.466572e+01 2.811102e+01 4.095933e+01 1.720466e+01 5.339170e+01 3.182585e+01 6.536558e+01 4.105555e+01 3.372010e+01 2.086514e+01 1.941708e+01 2.507280e+01 4.541190e+00 1.076167e+00 1.414894e+00 6.936279e-01 2.199580e+00 2.910454e+00 5.986265e+00 2.382166e+00 2.878016e+00 1.490043e+00 2.102314e+00 2.528838e+00 1.814196e+00
<GCONST> 9.772328e+01
~s "ST_i_2_1"
<MEAN> 25
 5.551197e-01 3.036361e+00 1.295644e+00 -8.750721e-01 -1.743113e+00 -2.100691e+00 -5.390970e-01 -3.529282e-01 -2.938739e+00 8.034298e-01 -1.035374e-01 2.072644e+00 -5.069476e-01 -4.350249e-01 -2.425453e-01 2.611878e-01 8.964201e-01 -5.614367e-01 2.709831e-01 6.653607e-01 4.364102e-02 -1.104611e-01 -4.220793e-01 -2.131286e-01 -1.041581e-01
<VARIANCE> 25
 7.097375e+01 1.781217e+01 2.104290e+01 1.191040e+01 2.145802e+01 2.969359e+01 2.482743e+01 3.504159e+01 2.793859e+01 1.864194e+01 1.234373e+01 1.721341e+01 3.940172e-01 1.187221e+00 1.160900e+00 2.163667e+00 1.616809e+00 3.174960e+00 3.488631e+00 2.958811e+00 2.659114e+00 1.316873e+00 1.814641e+00 2.372451e+00 1.381135e+00
<GCONST> 9.062013e+01
~s "ST_i_3_1"
<MEAN> 25
 -4.961429e+00 2.200612e-01 3.137678e-01 -3.269075e+00 1.794062e+00 -8.227586e+00 -2.893656e+00 4.601645e+00 2.356328e+00 9.718597e-01 -2.080496e+00 3.611924e+00 -3.316354e-01 -2.272737e-01 -1.950387e-02 -2.726104e-01 8.750626e-01 -7.222211e-01 -7.946039e-01 -3.950501e-01 5.587376e-01 2.619141e-01 -3.876588e-01 -7.501521e-01 7.710419e-01
<VARIANCE> 25
 7.811575e+01 2.531707e+01 2.326173e+01 2.221016e+01 2.952975e+01 3.719532e+01 3.676193e+01 2.547687e+01 2.250161e+01 2.484333e+01 2.939954e+01 3.010743e+01 6.315467e-01 7.781152e-01 2.583284e+00 3.428299e+00 1.253441e+00 6.427547e+00 1.198094e+01 8.038324e+00 2.943605e+00 4.859059e-01 1.157806e+00 4.028567e-01 4.301885e+00
<GCONST> 9.591869e+01
~s "ST_i_4_1"
<MEAN> 25
 -6.033583e+00 2.788771e-01 1.194555e+00 -2.548873e+00 2.991269e+00 -3.319593e+00 1.466303e+00 1.946728e+00 -4.598673e-01 6.709772e-01 -2.577479e+00 1.610533e+00 5.113103e-01 4.734679e-01 -2.431380e-01 2.463068e-01 -1.771774e-01 1.994733e-01 -1.498940e-01 -6.062853e-01 -2.630304e-01 -1.033705e-01 4.122098e-01 -4.754065e-01 -2.151119e-01
<VARIANCE> 25
 6.732915e+01 1.914542e+01 1.902297e+01 7.943472e+00 1.896285e+01 3.885495e+01 4.060036e+01 1.235909e+01 1.633293e+01 1.103709e+01 1.871723e+01 2.855240e+01 8.591796e-01 5.375521e-01 2.576411e+00 2.152637e+00 1.765849e+00 1.701134e+00 6.066181e+00 5.955455e+00 1.279695e+00 1.531233e+00 1.989448e+00 1.820256e+00 2.753881e+00
<GCONST> 9.102277e+01
~s "ST_E_2_1"
<MEAN> 25
 3.488065e+00 -1.089274e+00 -1.774131e+00 -4.275077e+00 -2.885719e+00 -5.569695e+00 -2.381380e+00 9.938250e-01 -2.323128e-01 3.370074e+00 7.278609e+00 4.037791e+00 -7.965552e-01 -3.733093e-01 -2.906009e-01 5.851624e-01 -5.511094e-01 -6.525654e-01 1.107254e-01 7.275866e-01 1.173205e-01 8.392622e-01 3.688960e-01 9.026905e-01 -5.925105e-01
<VARIANCE> 25
 6.445368e+01 1.379840e+01 5.716080e+01 6.030495e+01 3.124004e+01 2.170912e+01 1.598951e+01 5.628904e+01 4.110604e+01 3.824447e+01 1.593950e+01 3.699835e+00 1.200906e+00 1.242586e-01 3.589622e-01 6.974044e-01 8.028091e-01 7.786817e+00 4.496310e-01 7.979897e-01 4.079112e-01 9.888238e-01 3.970788e-01 1.242728e+00 5.146673e-01
<GCONST> 8.088389e+01
~s "ST_E_3_1"
<MEAN> 25
 1.051057e+00 -2.457530e+00 -3.731247e+00 -1.820479e+00 -1.937813e+00 -5.191988e+00 -1.836631e+00 1.949825e+00 1.409057e+00 4.905838e+00 8.926584e+00 4.979799e+00 -1.936293e-01 1.898867e-02 -5.864294e-01 3.970616e-02 -7.206500e-01 1.497888e+00 5.727010e-01 -1.880513e-01 2.833740e-01 1.820859e-02 8.059719e-01 1.247104e+00 -4.387578e-01
<VARIANCE> 25
 7.633296e+01 1.471629e+01 6.226645e+01 1.172801e+02 1.774751e+01 3.105755e+01 1.147652e+01 8.940564e+01 2.552676e+01 5.807286e+01 4.182106e+00 2.420593e+01 3.757154e-01 2.966041e-01 7.362890e-01 2.222731e-01 3.539019e-01 2.905008e+00 2.702107e+00 7.252396e-01 1.009537e+00 7.965873e-02 4.361482e-01 6.388680e-01 4.241280e-01
<GCONST> 7.907156e+01
~s "ST_E_4_1"
<MEAN> 25
 5.703705e+00 -3.287039e+00 -1.278933e+01 -1.231906e+01 -4.048124e+00 1.461054e+00 -6.198045e+00 -4.651642e+00 4.111956e+00 -5.505843e+00 9.957133e+00 2.947762e+00 1.060523e-01 1.843151e-01 -1.776584e-01 4.343466e-01 -2.660581e-01 5.779790e-02 -1.900285e-01 1.319688e-01 3.279515e-01 2.667919e-01 -5.202227e-01 5.944421e-02 -2.232009e-02
<VARIANCE> 25
 4.639521e+01 4.242104e+00 5.382177e+01 8.094706e+01 7.817323e+00 4.199703e+01 5.468248e+01 9.533794e+01 3.765666e+00 2.965187e+01 1.660251e+01 1.440036e+01 1.716426e-01 1.331422e-01 1.810600e-01 1.820289e+00 8.558351e-01 3.697624e+00 7.286591e-01 5.669070e-01 8.406009e-01 1.712891e+00 1.518319e+00 5.002429e-01 3.439423e-02
<GCONST> 7.625275e+01
~s "ST_l_2_1"
<MEAN> 25
 2.711044e-07 2.276736e-08 -6.105108e-08 -1.720701e-07 -1.586201e-07 9.768173e-08 -1.135738e-07 -1.298416e-07 7.694315e-08 -1.660590e-07 -1.083516e-07 -5.706868e-08 -2.818740e-03 -4.409721e-03 -4.277692e-03 -1.165964e-03 -3.608679e-03 5.208261e-03 -1.757075e-03 5.998432e-03 4.891248e-03 1.720927e-03 7.501529e-04 -5.307185e-03 6.137643e-03
<VARIANCE> 25
 2.670229e+01 2.794268e+01 3.749357e+01 3.307458e+01 5.256620e+01 4.928031e+01 4.561777e+01 4.954230e+01 4.604616e+01 3.096663e+01 2.869331e+01 1.969207e+01 8.024185e-01 8.637462e-01 9.762596e-01 1.208383e+00 1.860729e+00 1.938551e+00 2.342637e+00 2.054597e+00 2.126093e+00 1.768907e+00 1.840738e+00 1.505519e+00 1.027859e+00
<GCONST> 9.389127e+01
~s "ST_l_3_1"
<MEAN> 25
 2.711044e-07 2.276736e-08 -6.105108e-08 -1.720701e-07 -1.586201e-07 9.768173e-08 -1.135738e-07 -1.298416e-07 7.694315e-08 -1.660590e-07 -1.083516e-07 -5.706868e-08 -2.818740e-03 -4.409721e-03 -4.277692e-03 -1.165964e-03 -3.608679e-03 5.208261e-03 -1.757075e-03 5.998432e-03 4.891248e-03 1.720927e-03 7.501529e-04 -5.307185e-03 6.137643e-03
<VARIANCE> 25
 2.670229e+01 2.794268e+01 3.749357e+01 3.307458e+01 5.256620e+01 4.928031e+01 4.561778e+01 4.954230e+01 4.604617e+01 3.096663e+01 2.869331e+01 1.969207e+01 8.024186e-01 8.637462e-01 9.762596e-01 1.208383e+00 1.860729e+00 1.938551e+00 2.342637e+00 2.054597e+00 2.126093e+00 1.768907e+00 1.840738e+00 1.505519e+00 1.027859e+00
<GCONST> 9.389127e+01
~s "ST_l_4_1"
<MEAN> 25
 2.711044e-07 2.276736e-08 -6.105108e-08 -1.720701e-07 -1.586201e-07 9.768173e-08 -1.135738e-07 -1.298416e-07 7.694315e-08 -1.660590e-07 -1.083516e-07 -5.706868e-08 -2.818740e-03 -4.409721e-03 -4.277692e-03 -1.165964e-03 -3.608679e-03 5.208261e-03 -1.757075e-03 5.998432e-03 4.891248e-03 1.720927e-03 7.501529e-04 -5.307185e-03 6.137643e-03
<VARIANCE> 25
 2.670229e+01 2.794268e+01 3.749356e+01 3.307458e+01 5.256620e+01 4.928031e+01 4.561778e+01 4.954230e+01 4.604616e+01 3.096663e+01 2.869331e+01 1.969207e+01 8.024186e-01 8.637462e-01 9.762596e-01 1.208383e+00 1.860729e+00 1.938551e+00 2.342637e+00 2.054597e+00 2.126093e+00 1.768907e+00 1.840738e+00 1.505519e+00 1.027859e+00
<GCONST> 9.389127e+01
~s "ST_b_2_1"
<MEAN> 25
 2.711044e-07 2.276736e-08 -6.105108e-08 -1.720701e-07 -1.586201e-07 9.768173e-08 -1.135738e-07 -1.298416e-07 7.694316e-08 -1.660590e-07 -1.083516e-07 -5.706868e-08 -2.818740e-03 -4.409721e-03 -4.277692e-03 -1.165964e-03 -3.608679e-03 5.208261e-03 -1.757075e-03 5.998432e-03 4.891248e-03 1.720927e-03 7.501530e-04 -5.307185e-03 6.137643e-03
<VARIANCE> 25
 2.670229e+01 2.794268e+01 3.749357e+01 3.307458e+01 5.256620e+01 4.928031e+01 4.561778e+01 4.954230e+01 4.604616e+01 3.096663e+01 2.869331e+01 1.969207e+01 8.024186e-01 8.637462e-01 9.762596e-01 1.208383e+00 1.860729e+00 1.938551e+00 2.342637e+00 2.054597e+00 2.126093e+00 1.768907e+00 1.840738e+00 1.505519e+00 1.027859e+00
<GCONST> 9.389127e+01
~s "ST_b_3_1"
<MEAN> 25
 2.711044e-07 2.276736e-08 -6.105108e-08 -1.720701e-07 -1.586201e-07 9.768173e-08 -1.135738e-07 -1.298416e-07 7.694316e-08 -1.660590e-07 -1.083516e-07 -5.706868e-08 -2.818740e-03 -4.409721e-03 -4.277692e-03 -1.165964e-03 -3.608679e-03 5.208261e-03 -1.757075e-03 5.998432e-03 4.891248e-03 1.720927e-03 7.501530e-04 -5.307185e-03 6.137643e-03
<VARIANCE> 25
 2.670229e+01 2.794268e+01 3.749357e+01 3.307458e+01 5.256620e+01 4.928031e+01 4.561778e+01 4.954230e+01 4.604616e+01 3.096663e+01 2.869331e+01 1.969207e+01 8.024186e-01 8.637462e-01 9.762596e-01 1.208383e+00 1.860729e+00 1.938551e+00 2.342637e+00 2.054597e+00 2.126093e+00 1.768907e+00 1.840738e+00 1.505519e+00 1.027859e+00
<GCONST> 9.389127e+01
~s "ST_b_4_1"
<MEAN> 25
 2.711044e-07 2.276736e-08 -6.105109e-08 -1.720701e-07 -1.586201e-07 9.768173e-08 -1.135738e-07 -1.298416e-07 7.694315e-08 -1.660590e-07 -1.083516e-07 -5.706868e-08 -2.818740e-03 -4.409721e-03 -4.277693e-03 -1.165964e-03 -3.608679e-03 5.208261e-03 -1.757075e-03 5.998433e-03 4.891248e-03 1.720927e-03 7.501529e-04 -5.307185e-03 6.137643e-03
<VARIANCE> 25
 2.670229e+01 2.794268e+01 3.749357e+01 3.307458e+01 5.256620e+01 4.928032e+01 4.561778e+01 4.954230e+01 4.604617e+01 3.096663e+01 2.869331e+01 1.969207e+01 8.024186e-01 8.637462e-01 9.762596e-01 1.208383e+00 1.860729e+00 1.938551e+00 2.342637e+00 2.054597e+00 2.126093e+00 1.768907e+00 1.840738e+00 1.505519e+00 1.027859e+00
<GCONST> 9.389127e+01
~s "ST_o_2_1"
<MEAN> 25
 8.020468e-01 3.109262e+00 -2.205908e+00 -9.685753e-02 1.647328e+00 1.573130e+00 2.741126e+00 2.522498e+00 6.553631e-01 5.232020e+00 4.950119e-01 -5.930772e-01 -1.069737e-01 2.654594e-01 3.976630e-01 2.843231e-01 5.164480e-01 4.839977e-01 -1.656969e-01 -9.704968e-02 -1.162048e-01 -2.056247e-01 1.819959e-02 2.644323e-01 -3.060961e-01
<VARIANCE> 25
 8.420400e+00 5.151002e+00 1.039641e+01 7.340848e+00 2.868443e+01 1.945917e+01 1.791351e+01 2.163372e+01 1.226897e+01 8.209186e+00 1.566102e+01 2.808745e+01 3.731525e-01 2.998379e-01 7.722553e-01 7.932734e-01 9.637288e-01 9.144531e-01 1.147845e+00 1.077274e+00 1.135746e+00 5.777293e-01 1.514604e+00 1.875028e+00 5.818607e-02
<GCONST> 7.221893e+01
~s "ST_o_3_1"
<MEAN> 25
 6.325394e-01 2.945619e+00 2.225783e-01 4.054406e+00 3.500053e+00 5.898578e+00 3.547054e+00 3.889953e+00 -3.930574e+00 3.444984e+00 8.367829e-02 -1.371333e+00 7.842133e-03 -2.897804e-02 -3.080760e-03 2.828603e-02 -3.294666e-02 3.686153e-02 -5.974756e-03 1.808192e-02 -4.202987e-02 -2.748923e-02 -4.982237e-02 9.778509e-03 -1.929203e-02
<VARIANCE> 25
 9.668334e-01 2.144741e+00 3.048810e+00 5.619661e+00 7.271918e+00 8.395974e+00 1.156402e+01 1.269385e+01 1.146211e+01 1.098672e+01 1.152423e+01 1.063310e+01 9.934343e-02 2.853523e-01 2.910996e-01 5.088313e-01 6.682487e-01 9.646861e-01 1.188322e+00 1.163508e+00 1.083802e+00 1.109830e+00 1.248822e+00 1.095434e+00 2.924578e-02
<GCONST> 5.964021e+01
~s "ST_o_4_1"
<MEAN> 25
 2.460642e-01 2.262281e+00 -7.229441e-02 2.642700e+00 1.860304e+00 1.225884e+00 1.234226e+00 2.235156e+00 -3.774975e+00 1.378391e+00 -1.125770e+00 3.571340e-01 1.102764e-01 -3.253273e-01 1.736256e-01 7.064543e-01 9.582033e-01 5.669946e-02 3.808392e-01 4.101237e-01 -6.775412e-02 -3.906814e-01 -6.694605e-01 -2.977369e-01 -4.311657e-02
<VARIANCE> 25
 3.931999e-01 1.009891e+00 7.588758e+00 1.134489e+01 1.478932e+01 3.729744e+01 7.483771e+00 8.871930e+00 4.693952e+00 6.540485e+00 1.116505e+01 2.059975e+00 1.875541e-01 3.802013e-01 2.357893e-01 4.453883e-01 5.234178e-01 1.448340e+00 1.086574e+00 9.487549e-01 4.231554e-01 6.315676e-01 1.043264e+00 1.265887e+00 2.230507e-01
<GCONST> 5.886430e+01
~s "ST_e_2_1"
<MEAN> 25
 -2.977732e+00 -3.063175e+00 -8.759880e-01 -1.286379e+00 1.469892e+00 -7.797667e+00 -4.107420e+00 2.059958e+00 -1.978440e+00 -3.325404e-01 -2.702578e+00 1.985516e+00 6.220514e-01 -1.273441e+00 -2.416462e-01 -5.133494e-01 -7.318455e-01 -2.034575e+00 -4.816996e+00 -7.022842e-01 2.849802e+00 -4.605491e-01 5.724620e-01 -6.807785e-02 2.789071e+00
<VARIANCE> 25
 2.140769e+00 4.301201e+01 5.064648e+00 2.742005e+00 1.703296e+00 9.519038e+01 8.430361e+01 1.350551e+01 9.756561e+00 3.096663e-01 5.701023e+00 1.605474e+01 6.299960e+00 2.573898e+00 7.011358e-01 5.421286e-01 1.327659e+01 1.275581e+01 4.605414e+00 1.901571e+00 1.526449e+00 2.695932e+00 2.197820e-01 4.841709e+00 6.488996e-01
<GCONST> 8.101376e+01
~s "ST_e_3_1"
<MEAN> 25
 -6.250042e-01 -6.399143e+00 -4.384071e+00 -7.659881e+00 -2.775990e-02 -1.344416e+01 -1.849493e+01 -1.747207e+00 1.093293e+01 5.171843e-01 -1.054396e+00 2.608252e+00 1.376603e+00 -4.103965e-01 -5.979717e-01 -1.560047e+00 -2.705627e+00 7.609078e-01 -1.397694e+00 -1.758821e+00 2.454929e+00 -1.363352e+00 7.487335e-01 -7.617319e-01 2.805453e+00
<VARIANCE> 25
 2.783743e+01 2.224250e+01 1.018740e+01 1.045778e+01 1.128469e+02 2.849442e+01 1.560587e+01 4.449678e+01 2.779022e+01 2.334617e+01 2.227165e+01 2.361168e+01 3.374787e+00 4.588845e+00 9.050683e-01 5.662454e-01 7.937873e+00 8.021090e+00 7.756961e+00 2.382695e+00 7.320689e+00 2.209275e+00 5.943276e+00 4.570227e+00 1.812095e+00
<GCONST> 1.002245e+02
~s "ST_e_4_1"
<MEAN> 25
 5.083263e+00 -8.381338e+00 -1.170814e+00 -6.487671e+00 -1.041729e+01 -4.794451e+00 -1.554984e+01 -7.127979e+00 1.337248e+01 -9.507495e+00 -2.290696e+00 -2.357837e+00 1.944328e-02 5.860951e-02 3.953516e-01 1.463019e-01 -2.280881e-02 -6.953263e-02 2.380934e-01 2.095701e-01 -3.134906e-01 5.407728e-02 5.519195e-04 -2.462002e-02 -3.593531e-01
<VARIANCE> 25
 3.251374e+00 1.063207e+01 5.189687e+01 2.872541e+01 1.806169e+01 8.182886e+01 4.224321e+01 2.988260e+01 9.350298e+01 3.027163e+01 2.715305e+01 2.364699e+01 3.451950e-01 8.432182e-01 2.662722e+00 2.183966e+00 9.307334e-01 1.453571e+00 2.264144e+00 2.548949e+00 4.198710e+00 1.656644e+00 3.508345e+00 1.480403e+00 1.509568e+00
<GCONST> 9.222928e+01
~s "ST_r_2_1"
<MEAN> 25
 2.008020e+00 -5.849505e+00 6.457252e-01 -2.368425e+00 -1.345665e+00 -9.718946e+00 -8.117557e+00 -9.239109e-01 3.015210e+00 -1.862888e+00 -4.347894e-01 -2.439130e+00 -8.857106e-02 -1.624587e-01 -1.753783e-01 -2.456482e-01 3.318399e-01 6.922694e-01 4.197350e-01 5.452381e-01 -3.313105e-01 -9.960232e-01 -1.167232e-01 -4.258288e-01 4.226416e-01
<VARIANCE> 25
 4.032378e+01 3.737103e+01 5.890753e+01 3.606189e+01 8.268757e+01 6.037933e+01 2.499423e+01 6.188528e+01 1.847565e+01 2.985952e+01 6.865023e+01 6.355296e+01 1.784547e+00 1.128593e+00 3.290056e+00 3.500476e+00 1.017791e-01 3.234250e+00 2.867764e+00 5.821314e+00 5.668717e+00 4.447809e+00 1.248295e+00 6.469100e-01 8.124767e+00
<GCONST> 1.014358e+02
~s "ST_r_3_1"
<MEAN> 25
 2.689580e+00 -7.131516e+00 1.898232e+00 -1.785861e+00 -5.004522e+00 -9.744816e+00 -4.997209e+00 -1.429529e-01 1.423681e+00 -2.696611e+00 3.395277e+00 -3.328411e+00 -3.811281e-02 -2.242992e-01 -1.392007e-01 3.449153e-01 -5.005286e-01 1.421109e+00 2.241698e+00 1.360635e+00 -7.172429e-02 -1.884032e-01 9.252417e-02 -5.222381e-01 -1.131054e+00
<VARIANCE> 25
 3.425312e+01 2.392633e+01 4.636201e+01 3.642579e+01 1.031562e+02 5.034435e+01 1.696581e+01 5.884642e+01 1.842358e+01 1.256747e+01 6.308512e+01 6.056731e+01 2.432511e+00 9.062551e-01 2.421770e+00 1.098934e+00 6.733338e-01 4.813614e+00 7.778026e-01 1.217806e+00 2.595192e+00 3.002963e+00 1.831160e+00 9.989999e-01 5.157266e+00
<GCONST> 9.643032e+01
~s "ST_r_4_1"
<MEAN> 25
 2.612730e+00 -9.338293e+00 4.294056e-01 -9.395681e-01 -1.157831e+01 -1.118359e+01 1.119734e+00 5.813146e+00 1.802804e+00 2.997365e-01 6.084756e+00 -4.160667e+00 -3.219579e-01 3.300548e-01 -6.008466e-01 1.213971e-01 1.444350e-02 2.589717e-01 7.347115e-01 8.299882e-01 2.291401e-01 1.344523e+00 8.877974e-01 1.238806e+00 -1.057430e+00
<VARIANCE> 25
 2.422914e+01 1.376802e+01 2.251363e+01 2.654770e+01 1.158973e+02 4.375313e+01 1.892619e+01 4.558917e+01 2.289004e+01 2.569340e+01 4.581241e+01 5.027787e+01 8.262364e-01 7.460833e-01 6.640239e-01 1.451394e+00 8.221904e-01 3.459930e+00 8.219724e-01 8.133653e-01 5.655502e-01 2.388917e+00 1.711149e+00 7.830590e-01 8.648875e-01
<GCONST> 8.813092e+01
~s "ST_h_2_1"
<MEAN> 25
 2.711044e-07 2.276736e-08 -6.105108e-08 -1.720701e-07 -1.586201e-07 9.768173e-08 -1.135738e-07 -1.298416e-07 7.694315e-08 -1.660590e-07 -1.083516e-07 -5.706868e-08 -2.818740e-03 -4.409721e-03 -4.277692e-03 -1.165964e-03 -3.608679e-03 5.208261e-03 -1.757075e-03 5.998432e-03 4.891248e-03 1.720927e-03 7.501529e-04 -5.307185e-03 6.137643e-03
<VARIANCE> 25
 2.670229e+01 2.794268e+01 3.749357e+01 3.307458e+01 5.256620e+01 4.928031e+01 4.561778e+01 4.954230e+01 4.604616e+01 3.096663e+01 2.869331e+01 1.969207e+01 8.024186e-01 8.637462e-01 9.762596e-01 1.208383e+00 1.860729e+00 1.938551e+00 2.342637e+00 2.054597e+00 2.126093e+00 1.768907e+00 1.840738e+00 1.505519e+00 1.027859e+00
<GCONST> 9.389127e+01
~s "ST_h_3_1"
<MEAN> 25
 2.711044e-07 2.276736e-08 -6.105108e-08 -1.720701e-07 -1.586201e-07 9.768173e-08 -1.135738e-07 -1.298416e-07 7.694315e-08 -1.660590e-07 -1.083516e-07 -5.706868e-08 -2.818740e-03 -4.409721e-03 -4.277692e-03 -1.165964e-03 -3.608679e-03 5.208261e-03 -1.757075e-03 5.998432e-03 4.891248e-03 1.720927e-03 7.501529e-04 -5.307185e-03 6.137643e-03
<VARIANCE> 25
 2.670229e+01 2.794268e+01 3.749357e+01 3.307458e+01 5.256620e+01 4.928031e+01 4.561778e+01 4.954230e+01 4.604616e+01 3.096663e+01 2.869331e+01 1.969207e+01 8.024186e-01 8.637462e-01 9.762596e-01 1.208383e+00 1.860729e+00 1.938551e+00 2.342637e+00 2.054597e+00 2.126093e+00 1.768907e+00 1.840738e+00 1.505519e+00 1.027859e+00
<GCONST> 9.389127e+01
~s "ST_h_4_1"
<MEAN> 25
 2.711044e-07 2.276736e-08 -6.105108e-08 -1.720701e-07 -1.586201e-07 9.768173e-08 -1.135738e-07 -1.298416e-07 7.694315e-08 -1.660590e-07 -1.083516e-07 -5.706868e-08 -2.818740e-03 -4.409721e-03 -4.277692e-03 -1.165964e-03 -3.608679e-03 5.208261e-03 -1.757075e-03 5.998432e-03 4.891248e-03 1.720927e-03 7.501529e-04 -5.307185e-03 6.137643e-03
<VARIANCE> 25
 2.670229e+01 2.794268e+01 3.749357e+01 3.307458e+01 5.256620e+01 4.928031e+01 4.561778e+01 4.954230e+01 4.604616e+01 3.096663e+01 2.869331e+01 1.969207e+01 8.024186e-01 8.637462e-01 9.762596e-01 1.208383e+00 1.860729e+00 1.938551e+00 2.342637e+00 2.054597e+00 2.126093e+00 1.768907e+00 1.840738e+00 1.505519e+00 1.027859e+00
<GCONST> 9.389127e+01
~s "ST_u_2_1"
<MEAN> 25
 -1.953706e+00 -4.277461e-01 1.918160e+00 -3.939843e+00 -9.549536e-01 -4.887577e+00 -4.586277e+00 5.009289e+00 7.713320e+00 1.831968e+00 2.503304e+00 -1.537066e+00 1.816554e-01 -1.002549e+00 -4.363782e-01 -9.140144e-01 -4.834434e-01 1.388041e+00 1.528184e+00 1.198174e-01 -1.252574e-01 -3.392452e-01 -2.461396e-01 -5.713772e-01 -8.565022e-02
<VARIANCE> 25
 8.223505e+01 4.404602e+01 1.070272e+01 3.523011e+01 7.621194e+01 2.295485e+01 1.283107e+02 2.405536e+00 4.477774e+01 2.396959e+01 2.508693e+01 2.636352e+00 3.974887e-01 5.788945e-01 1.794390e+00 7.362900e-01 4.652427e-01 9.008749e-01 3.570878e+00 2.030897e-01 5.110875e-01 3.469192e-01 2.855751e+00 1.469866e+00 3.229539e-01
<GCONST> 8.063646e+01
~s "ST_u_3_1"
<MEAN> 25
 -5.592920e-01 -5.586641e+00 -7.313937e-01 -6.338548e+00 -6.383643e+00 -4.178226e+00 -3.296704e+00 3.716850e+00 1.157609e+01 -3.020048e+00 -3.151007e+00 -3.507369e+00 -1.533476e-01 -3.306815e-01 -1.064130e+00 -2.391704e-02 8.940592e-01 4.611083e-01 2.426127e+00 -5.501488e-01 -2.122784e-01 -5.864195e-01 -2.091521e+00 -5.127329e-01 7.803167e-02
<VARIANCE> 25
 4.282142e+01 5.080619e+01 2.083815e+01 1.299531e+01 8.783586e+01 2.038202e+01 7.472762e+01 1.089367e+01 8.464782e+01 1.506803e+01 2.413238e+01 2.562686e+00 4.837731e-01 4.405180e-01 2.162331e+00 1.225484e+00 6.368317e-01 8.881446e-01 6.690391e+00 6.711149e-01 8.628727e-01 9.800966e-01 3.110260e+00 3.514291e-01 2.173747e-01
<GCONST> 8.345701e+01
~s "ST_u_4_1"
<MEAN> 25
 9.033713e-02 2.166597e+00 -4.500444e-01 3.703046e+00 3.465273e+00 5.039286e+00 2.944117e+00 2.996389e+00 -4.286616e+00 2.025319e+00 -5.575649e-01 -9.010299e-01 2.886196e-02 -9.691584e-02 5.504174e-03 8.338525e-02 -4.699193e-02 2.780955e-02 -9.763155e-02 3.268208e-02 -1.627789e-02 -1.126715e-02 -4.416502e-03 8.843382e-02 -3.245404e-02
<VARIANCE> 25
 5.473690e+00 8.130260e+00 5.034321e+00 1.101468e+01 1.151496e+01 1.276965e+01 1.144033e+01 8.709982e+00 2.734438e+01 1.207967e+01 1.507885e+01 9.252775e+00 1.604866e-01 2.497036e-01 2.977232e-01 6.678200e-01 8.569005e-01 8.064007e-01 1.819041e+00 1.010613e+00 1.707882e+00 1.229324e+00 1.774946e+00 8.362110e-01 5.087955e-02
<GCONST> 6.765379e+01
~s "ST_k_2_1"
<MEAN> 25
 5.368166e+00 -1.920407e-01 7.042461e-02 -6.425462e+00 -3.441610e+00 -3.681037e+00 -1.081781e+01 -4.114643e+00 2.969701e+00 5.438641e-01 1.252587e-01 -1.571040e+00 9.080401e-03 -9.698782e-01 -4.109488e-01 -5.593486e-01 -3.473466e-01 -6.784663e-01 -1.616912e-01 -2.609304e-01 1.232210e+00 -5.453614e-01 -2.874902e-01 -3.338693e-01 1.640989e+00
<VARIANCE> 25
 4.045343e+01 6.856525e+01 2.872283e+01 3.677152e+01 5.650481e+01 7.617467e+01 1.051607e+02 7.491300e+01 7.266012e+01 3.959437e+01 4.813477e+01 1.947772e+01 2.415629e+00 3.639980e+00 1.982645e+00 4.323404e+00 8.092541e+00 8.177433e+00 1.477709e+01 6.136654e+00 3.631965e+00 5.508815e+00 6.059234e+00 2.658713e+00 6.139831e+00
<GCONST> 1.135966e+02
~s "ST_k_3_1"
<MEAN> 25
 2.935472e-01 -9.405999e+00 -1.111233e+01 -6.222013e+00 -1.637899e+00 -9.672886e+00 -6.609786e-01 -8.041781e+00 1.340999e+01 -4.398564e+00 -6.344135e+00 -2.012660e+00 -2.151550e-02 1.826857e-01 -2.457039e-01 3.779358e-01 3.392272e-01 9.781332e-02 4.092798e-01 -5.212545e-02 -1.481215e-01 2.559116e-02 5.365380e-02 6.615043e-02 -4.874157e-01
<VARIANCE> 25
 6.336930e+01 4.642325e+01 2.387719e+01 1.541601e+01 3.286547e+01 1.328591e+01 1.985022e+01 8.216556e+01 2.203875e+01 1.671102e+01 2.149721e+01 3.041607e+01 8.745154e-01 1.008273e+00 1.337642e+00 8.505100e-01 7.468840e-01 1.468848e+00 2.222892e+00 2.880699e+00 1.418488e+00 1.180330e+00 2.076365e+00 8.770750e-01 7.899159e-01
<GCONST> 8.854150e+01
~s "ST_k_4_1"
<MEAN> 25
 3.682649e+00 -6.222682e+00 -8.864553e+00 -1.617192e+00 1.726178e-01 -1.404973e+00 1.795222e+00 -1.208077e+00 7.177960e+00 -2.093068e+00 -5.021446e-01 -5.424822e+00 1.112955e-01 4.688472e-01 7.240446e-01 3.983252e-01 9.093606e-02 6.993764e-01 1.069642e-01 3.846955e-01 -1.259813e+00 9.050061e-01 -1.031751e-01 -3.119900e-01 -1.252140e+00
<VARIANCE> 25
 2.248587e+01 2.105349e+01 1.026063e+01 1.139878e+01 1.998805e+01 1.832874e+01 1.835580e+01 5.427365e+01 3.680455e+01 3.892147e+01 9.738214e+00 3.313095e+01 4.361784e-01 7.189433e-01 9.321340e-01 1.219750e+00 1.469615e+00 1.293742e+00 1.496260e+00 2.317148e+00 2.354655e+00 1.567160e+00 1.042151e+00 2.263660e+00 2.242560e-01
<GCONST> 8.424348e+01
~s "ST_a_2_1"
<MEAN> 25
 2.605943e+00 -1.539914e+00 2.644269e+00 -1.001905e-01 -1.817359e+00 -3.433714e+00 -9.676808e-01 -2.636307e+00 1.016154e+00 -1.216747e+00 -1.908367e+00 -1.473736e+00 4.100643e-01 -3.691467e-01 -4.836647e-01 -8.540624e-01 -8.168857e-01 -2.057964e+00 -6.662841e-01 -6.904356e-01 -1.810222e-02 -1.288350e+00 9.409473e-01 -3.906401e-01 1.511577e+00
<VARIANCE> 25
 1.896479e+01 6.337469e+01 6.686909e+01 1.748916e+01 3.860963e+01 9.432690e+01 4.856979e+01 2.830750e+01 8.826759e+01 4.471246e+01 2.074569e+01 2.615320e+01 1.956054e+00 4.968375e+00 3.376719e+00 1.424123e+00 2.968849e+00 4.093586e+00 3.647393e+00 5.888029e+00 6.274818e+00 3.010699e+00 2.358876e+00 2.219241e+00 6.285526e+00
<GCONST> 1.059476e+02
~s "ST_a_3_1"
<MEAN> 25
 3.523991e+00 -5.294522e+00 -6.762595e-01 -4.594871e+00 -4.607210e+00 -9.980843e+00 -5.312908e+00 -9.774570e+00 8.851367e+00 -6.557965e+00 -9.440094e-01 -3.057350e+00 3.046294e-01 8.466445e-01 -1.417089e-02 1.691881e-02 -2.014552e-02 -6.748974e-02 -4.022863e-01 -5.698811e-01 -4.872596e-01 8.950384e-01 -1.095339e-01 1.233160e-01 -3.608717e-01
<VARIANCE> 25
 7.534929e+00 5.709200e+01 1.150548e+02 1.555580e+01 5.132269e+01 2.372752e+01 3.694727e+01 6.685654e+01 1.082794e+02 3.381767e+01 1.679564e+01 1.759818e+01 8.348608e-01 1.181658e+00 1.063476e+00 6.265336e-01 3.013691e+00 1.739988e+00 3.215704e+00 2.776880e+00 4.935488e+00 3.041770e+00 1.591682e+00 1.594198e+00 1.430804e+00
<GCONST> 9.573753e+01
~s "ST_a_4_1"
<MEAN> 25
 7.461388e+00 9.432001e-01 -1.143494e+00 -4.009066e+00 -2.077556e+00 -5.184320e+00 -5.062580e+00 -6.412547e+00 2.977841e+00 7.156149e-01 -3.327894e+00 -3.995612e+00 2.504861e-02 7.883505e-01 6.118472e-01 2.644197e-02 -7.724074e-03 6.885827e-01 7.343665e-01 1.406836e+00 -8.917125e-01 -3.514202e-01 -2.238559e-01 3.395039e-01 -6.383267e-01
<VARIANCE> 25
 2.090943e+01 3.426882e+01 3.471626e+01 2.927999e+01 4.704448e+01 2.085106e+01 1.810063e+01 6.315590e+01 2.681771e+01 2.272365e+01 4.164812e+01 2.601607e+01 9.969974e-01 7.199365e-01 1.086952e+00 2.861316e+00 2.570265e+00 1.353329e+00 1.743176e+00 1.684411e+00 3.425533e+00 1.802889e+00 1.767544e+00 2.375323e+00 1.680421e+00
<GCONST> 9.367714e+01
~s "ST_d_2_1"
<MEAN> 25
 2.711044e-07 2.276736e-08 -6.105108e-08 -1.720701e-07 -1.586201e-07 9.768173e-08 -1.135738e-07 -1.298416e-07 7.694315e-08 -1.660590e-07 -1.083516e-07 -5.706868e-08 -2.818740e-03 -4.409721e-03 -4.277693e-03 -1.165964e-03 -3.608679e-03 5.208261e-03 -1.757075e-03 5.998432e-03 4.891248e-03 1.720927e-03 7.501529e-04 -5.307185e-03 6.137643e-03
<VARIANCE> 25
 2.670229e+01 2.794268e+01 3.749357e+01 3.307458e+01 5.256620e+01 4.928031e+01 4.561778e+01 4.954230e+01 4.604616e+01 3.096663e+01 2.869331e+01 1.969207e+01 8.024186e-01 8.637462e-01 9.762596e-01 1.208383e+00 1.860729e+00 1.938551e+00 2.342637e+00 2.054597e+00 2.126093e+00 1.768907e+00 1.840738e+00 1.505519e+00 1.027859e+00
<GCONST> 9.389128e+01
~s "ST_d_3_1"
<MEAN> 25
 2.711044e-07 2.276736e-08 -6.105108e-08 -1.720701e-07 -1.586201e-07 9.768173e-08 -1.135738e-07 -1.298416e-07 7.694315e-08 -1.660590e-07 -1.083516e-07 -5.706868e-08 -2.818740e-03 -4.409721e-03 -4.277693e-03 -1.165964e-03 -3.608679e-03 5.208261e-03 -1.757075e-03 5.998432e-03 4.891248e-03 1.720927e-03 7.501529e-04 -5.307185e-03 6.137643e-03
<VARIANCE> 25
 2.670229e+01 2.794268e+01 3.749357e+01 3.307458e+01 5.256620e+01 4.928031e+01 4.561778e+01 4.954230e+01 4.604616e+01 3.096663e+01 2.869331e+01 1.969207e+01 8.024186e-01 8.637462e-01 9.762596e-01 1.208383e+00 1.860729e+00 1.938551e+00 2.342637e+00 2.054597e+00 2.126093e+00 1.768907e+00 1.840738e+00 1.505519e+00 1.027859e+00
<GCONST> 9.389128e+01
~s "ST_d_4_1"
<MEAN> 25
 2.711044e-07 2.276736e-08 -6.105108e-08 -1.720701e-07 -1.586201e-07 9.768173e-08 -1.135738e-07 -1.298416e-07 7.694316e-08 -1.660590e-07 -1.083516e-07 -5.706868e-08 -2.818740e-03 -4.409722e-03 -4.277693e-03 -1.165964e-03 -3.608679e-03 5.208261e-03 -1.757075e-03 5.998433e-03 4.891248e-03 1.720927e-03 7.501530e-04 -5.307185e-03 6.137643e-03
<VARIANCE> 25
 2.670229e+01 2.794268e+01 3.749357e+01 3.307458e+01 5.256620e+01 4.928032e+01 4.561778e+01 4.954230e+01 4.604616e+01 3.096663e+01 2.869331e+01 1.969207e+01 8.024186e-01 8.637463e-01 9.762596e-01 1.208383e+00 1.860729e+00 1.938551e+00 2.342637e+00 2.054597e+00 2.126093e+00 1.768907e+00 1.840738e+00 1.505519e+00 1.027859e+00
<GCONST> 9.389128e+01
~s "ST_g_2_1"
<MEAN> 25
 6.374921e+00 -5.353156e+00 1.272872e+01 -3.511242e+00 -1.911022e+01 -8.233566e+00 -1.445335e+01 -5.829597e+00 4.196378e+00 -1.317531e+01 1.552529e+01 8.591443e-01 2.592628e-01 -5.008023e-01 -3.217078e-01 1.806441e-01 -4.121248e-01 5.328603e-01 -1.052584e+00 -7.933462e-01 8.092919e-01 1.183413e-01 9.263600e-01 -1.029761e-01 2.561288e-01
<VARIANCE> 25
 1.185630e+01 5.643450e+01 6.093174e+01 4.051802e+01 5.252438e+01 5.904726e+01 4.369184e+01 3.327890e+01 3.635308e+01 2.421683e+01 7.847308e+01 2.481860e+01 2.951478e-01 7.205939e-01 2.227957e+00 5.941690e-01 3.717705e+00 1.302276e+00 1.648237e+00 2.949934e+00 1.645252e+00 5.477854e+00 4.354073e+00 1.451223e+00 4.920438e-01
<GCONST> 9.516492e+01
~s "ST_g_3_1"
<MEAN> 25
 1.087086e+01 -2.640158e+00 2.410238e-01 -6.417933e+00 -9.408288e+00 2.062226e+00 -1.431379e+01 -8.057493e+00 5.848410e-01 -8.733416e-01 1.359918e+01 2.860183e+00 -7.255772e-01 7.394977e-01 -5.369344e-02 4.662202e-02 1.412743e+00 -2.955279e-02 1.552104e+00 6.440279e-01 -8.492276e-01 8.655257e-01 -1.479297e+00 2.377283e-01 -6.840274e-01
<VARIANCE> 25
 2.898215e+01 2.487140e+01 2.451776e+01 2.302386e+01 2.533072e+01 2.526787e+01 7.811626e+01 3.457383e+01 8.098086e+01 1.622325e+01 9.682655e+01 9.254256e+00 2.576058e+00 8.041661e-01 2.182689e+00 2.648800e+00 3.198461e+00 3.688543e+00 8.063866e-01 3.726941e+00 4.468153e+00 2.426593e+00 5.344906e+00 3.014544e+00 6.195065e-01
<GCONST> 9.794026e+01
~s "ST_g_4_1"
<MEAN> 25
 -1.557459e+01 3.070035e+00 6.440602e+00 -7.490277e+00 3.081045e+00 -5.954167e+00 -1.214206e+01 3.517513e+00 9.499993e+00 -1.661600e+00 1.608438e+00 2.046108e+00 -6.755504e-01 -1.984365e-01 6.757902e-02 -2.692039e-01 3.785404e-01 -1.530802e-02 3.354877e-01 7.235559e-01 3.659684e-01 4.226906e-01 -2.591022e-02 7.991044e-03 -2.072620e-01
<VARIANCE> 25
 6.138279e+01 2.251067e+01 2.134580e+01 1.776291e+01 2.034133e+01 2.654679e+01 3.441060e+01 3.417044e+01 3.559673e+01 4.066979e+01 2.653380e+01 1.109323e+01 2.478061e+00 5.338534e-01 5.780500e-01 1.087362e+00 7.924690e-01 1.208732e+00 7.528993e-01 1.729085e+00 1.424164e+00 1.183164e+00 1.582693e+00 9.228370e-01 2.750073e-01
<GCONST> 8.508569e+01
~s "ST_t_2_1"
<MEAN> 25
 6.813266e+00 -4.444767e+00 3.286392e+00 2.813880e+00 -1.695793e+01 -9.750626e+00 -8.242984e+00 -8.146673e+00 5.174548e+00 -6.498909e+00 5.025024e+00 2.225082e+00 3.755977e-01 -8.899862e-01 5.945904e-01 9.124541e-01 -1.695996e+00 -1.991493e+00 9.554269e-02 1.037701e+00 -1.704588e-01 -7.427275e-01 1.133297e+00 -4.508227e-02 3.009563e-01
<VARIANCE> 25
 1.232843e+01 4.697754e+01 4.191660e+01 4.425722e+00 1.710115e+02 3.255709e+01 2.426721e+01 3.915394e+01 1.440152e+01 7.779928e+01 3.644926e+01 1.073056e+01 1.313998e-01 1.329929e+00 5.939231e+00 5.924969e-01 3.526756e+00 1.663565e+00 1.237109e+00 1.088180e+00 3.174175e+00 2.543405e+00 1.811985e+00 1.126209e+00 4.520907e-01
<GCONST> 8.959183e+01
~s "ST_t_3_1"
<MEAN> 25
 5.980003e+00 -1.034669e-01 9.071612e+00 2.214929e+00 -1.681678e+01 -1.215413e+01 -6.377463e+00 -7.000699e+00 -5.449959e+00 -5.941379e+00 7.946342e+00 -2.726233e+00 -5.387284e-01 9.673864e-01 3.705029e-01 -4.014492e-01 9.058077e-01 1.639195e-01 3.787033e-01 -2.576413e-01 -6.495624e-01 7.108417e-01 -4.862542e-01 -7.748756e-02 -6.662026e-01
<VARIANCE> 25
 1.044021e+01 3.472106e+01 1.582121e+01 1.457984e+01 8.154233e+01 2.323280e+01 1.803533e+01 1.893913e+01 3.268335e+01 2.667899e+01 2.493055e+01 1.090972e+01 3.555178e-01 8.494711e-01 7.976913e-01 1.263220e+00 2.626485e+00 8.019342e-01 1.391024e+00 2.195254e+00 3.175272e+00 1.711282e+00 3.246939e+00 2.290102e+00 1.227781e-01
<GCONST> 8.531082e+01
~s "ST_t_4_1"
<MEAN> 25
 5.139405e+00 -4.512928e+00 3.882444e+00 5.503785e-01 -4.832059e+00 -1.252634e+01 -1.256923e+01 -2.712882e+00 6.118367e+00 -4.744280e-01 -2.570978e-01 1.093529e+00 -5.698590e-01 -2.240203e+00 2.011225e-02 -6.693563e-01 4.464845e-02 -1.058718e-01 -1.334196e+00 1.211146e-01 2.163530e+00 -5.148984e-01 9.329651e-02 -3.677015e-01 1.735113e+00
<VARIANCE> 25
 1.401448e+01 8.627009e+01 1.496362e+01 2.578899e+00 1.045549e+02 5.437527e+01 9.900993e+01 2.680410e+01 6.904035e+01 4.555079e+01 3.049158e+01 8.380209e+00 1.371170e+00 1.758737e+00 9.497106e-01 9.310943e-01 2.273550e+01 3.182091e+00 7.855464e+00 1.207554e+00 3.081360e+00 9.289327e+00 8.556799e+00 2.404526e+00 3.588724e+00
<GCONST> 1.017684e+02
~s "ST_sil_2_1"
<MEAN> 25
 4.290120e-01 2.402816e+00 5.548671e-01 3.552890e+00 3.094313e+00 4.358929e+00 2.737755e+00 3.637900e+00 -3.136267e+00 1.813372e+00 -2.378376e-01 -8.191703e-01 -4.654802e-03 -7.604238e-04 8.745957e-03 -9.514377e-03 2.721664e-02 3.910490e-02 4.359219e-02 3.269467e-02 -1.188859e-02 1.260218e-02 -1.001368e-02 -3.616969e-03 -2.688546e-02
<VARIANCE> 25
 1.204543e+00 2.055061e+00 4.239428e+00 6.949407e+00 7.543982e+00 1.011820e+01 1.152455e+01 1.155257e+01 1.218371e+01 1.211613e+01 1.207408e+01 1.018662e+01 8.829090e-02 2.465968e-01 3.981661e-01 5.902482e-01 6.956284e-01 8.863173e-01 1.081406e+00 1.201095e+00 1.186203e+00 1.263174e+00 1.071552e+00 9.625303e-01 4.318957e-02
<GCONST> 6.106546e+01
~s "silst"
<MEAN> 25
 -9.758943e-01 1.243997e+00 9.669153e-02 1.664455e+00 2.024865e+00 2.341553e+00 2.545533e+00 1.856108e+00 -2.240843e+00 1.391761e+00 7.285199e-02 5.094323e-01 -1.225357e-03 8.909179e-03 1.064865e-02 1.531665e-02 -1.752888e-03 -1.774579e-03 8.158343e-03 -1.587475e-02 -1.455122e-02 -1.619810e-02 -1.919688e-02 7.955995e-03 -8.595907e-03
<VARIANCE> 25
 1.420564e+00 2.603549e+00 3.903881e+00 5.691692e+00 8.383703e+00 1.052806e+01 1.057860e+01 1.035765e+01 1.168684e+01 1.119509e+01 1.076290e+01 1.047986e+01 1.085577e-01 2.302060e-01 3.966632e-01 6.517345e-01 8.507145e-01 1.080858e+00 1.314888e+00 1.074890e+00 1.303855e+00 1.162478e+00 1.122016e+00 1.112849e+00 3.721108e-02
<GCONST> 6.169902e+01
~s "ST_sil_3_1"
<MEAN> 25
 -8.947653e-01 1.178103e+00 9.882113e-02 1.777538e+00 2.024114e+00 2.376279e+00 2.526719e+00 1.956035e+00 -2.314948e+00 1.341748e+00 3.928030e-02 4.634675e-01 -1.507680e-03 1.362921e-02 1.233870e-02 1.398584e-02 8.268277e-04 9.229679e-03 9.585291e-03 -1.265643e-02 -1.124774e-02 -1.021970e-02 -1.269993e-02 5.175596e-03 -1.127337e-02
<VARIANCE> 25
 1.430430e+00 2.713113e+00 3.847958e+00 5.746361e+00 8.218354e+00 1.032019e+01 1.043765e+01 1.074786e+01 1.189845e+01 1.124426e+01 1.080265e+01 1.034944e+01 1.065226e-01 2.304139e-01 3.890495e-01 6.395204e-01 8.406703e-01 1.074525e+00 1.296409e+00 1.076790e+00 1.327291e+00 1.161551e+00 1.112877e+00 1.100811e+00 3.614329e-02
<GCONST> 6.162187e+01
~s "ST_sil_4_1"
<MEAN> 25
 -6.834856e-01 -2.530557e+00 -1.552066e+00 -4.557921e+00 -1.890869e+00 -3.549165e+00 -2.272203e+00 -4.221911e+00 2.815630e+00 -2.131556e+00 -1.098059e+00 1.127378e+00 4.925216e-03 -3.225397e-02 -6.020485e-02 -4.409367e-02 -6.426673e-02 -4.427843e-02 -7.772390e-02 1.652207e-02 7.854213e-02 1.659189e-02 2.471145e-02 -3.057849e-02 1.196209e-01
<VARIANCE> 25
 6.250663e+01 6.119537e+01 8.011771e+01 6.268003e+01 9.139838e+01 6.357079e+01 4.944958e+01 7.968811e+01 5.151691e+01 5.694835e+01 4.839983e+01 3.468574e+01 1.884586e+00 1.961298e+00 1.785010e+00 2.353010e+00 3.312474e+00 3.357335e+00 3.240597e+00 3.200123e+00 3.670537e+00 2.716913e+00 2.640578e+00 2.647445e+00 2.752450e+00
<GCONST> 1.078213e+02
~s "ST_ng_2_1"
<MEAN> 25
 2.711044e-07 2.276736e-08 -6.105108e-08 -1.720701e-07 -1.586201e-07 9.768173e-08 -1.135738e-07 -1.298416e-07 7.694315e-08 -1.660590e-07 -1.083516e-07 -5.706868e-08 -2.818740e-03 -4.409721e-03 -4.277692e-03 -1.165964e-03 -3.608679e-03 5.208261e-03 -1.757075e-03 5.998432e-03 4.891248e-03 1.720927e-03 7.501529e-04 -5.307185e-03 6.137643e-03
<VARIANCE> 25
 2.670229e+01 2.794268e+01 3.749357e+01 3.307458e+01 5.256620e+01 4.928031e+01 4.561778e+01 4.954230e+01 4.604616e+01 3.096663e+01 2.869331e+01 1.969207e+01 8.024186e-01 8.637462e-01 9.762596e-01 1.208383e+00 1.860729e+00 1.938551e+00 2.342637e+00 2.054597e+00 2.126093e+00 1.768907e+00 1.840738e+00 1.505519e+00 1.027859e+00
<GCONST> 9.389127e+01
~s "ST_ng_3_1"
<MEAN> 25
 2.711044e-07 2.276736e-08 -6.105108e-08 -1.720701e-07 -1.586201e-07 9.768173e-08 -1.135738e-07 -1.298416e-07 7.694315e-08 -1.660590e-07 -1.083516e-07 -5.706868e-08 -2.818740e-03 -4.409721e-03 -4.277692e-03 -1.165964e-03 -3.608679e-03 5.208261e-03 -1.757075e-03 5.998433e-03 4.891248e-03 1.720927e-03 7.501529e-04 -5.307185e-03 6.137643e-03
<VARIANCE> 25
 2.670229e+01 2.794268e+01 3.749357e+01 3.307458e+01 5.256620e+01 4.928031e+01 4.561778e+01 4.954230e+01 4.604616e+01 3.096663e+01 2.869331e+01 1.969207e+01 8.024186e-01 8.637462e-01 9.762596e-01 1.208383e+00 1.860729e+00 1.938551e+00 2.342637e+00 2.054597e+00 2.126093e+00 1.768907e+00 1.840738e+00 1.505519e+00 1.027859e+00
<GCONST> 9.389127e+01
~s "ST_m_2_1"
<MEAN> 25
 2.711044e-07 2.276736e-08 -6.105108e-08 -1.720701e-07 -1.586201e-07 9.768172e-08 -1.135738e-07 -1.298416e-07 7.694315e-08 -1.660590e-07 -1.083516e-07 -5.706868e-08 -2.818740e-03 -4.409721e-03 -4.277692e-03 -1.165964e-03 -3.608679e-03 5.208261e-03 -1.757075e-03 5.998432e-03 4.891247e-03 1.720927e-03 7.501529e-04 -5.307185e-03 6.137643e-03
<VARIANCE> 25
 2.670229e+01 2.794268e+01 3.749356e+01 3.307458e+01 5.256620e+01 4.928031e+01 4.561778e+01 4.954230e+01 4.604616e+01 3.096663e+01 2.869331e+01 1.969207e+01 8.024186e-01 8.637462e-01 9.762596e-01 1.208383e+00 1.860729e+00 1.938551e+00 2.342637e+00 2.054597e+00 2.126093e+00 1.768907e+00 1.840738e+00 1.505519e+00 1.027859e+00
<GCONST> 9.389127e+01
~s "ST_ng_4_1"
<MEAN> 25
 2.711044e-07 2.276736e-08 -6.105108e-08 -1.720701e-07 -1.586201e-07 9.768173e-08 -1.135738e-07 -1.298416e-07 7.694315e-08 -1.660590e-07 -1.083516e-07 -5.706868e-08 -2.818740e-03 -4.409721e-03 -4.277692e-03 -1.165964e-03 -3.608679e-03 5.208261e-03 -1.757075e-03 5.998432e-03 4.891248e-03 1.720927e-03 7.501529e-04 -5.307185e-03 6.137643e-03
<VARIANCE> 25
 2.670229e+01 2.794268e+01 3.749357e+01 3.307458e+01 5.256620e+01 4.928031e+01 4.561778e+01 4.954230e+01 4.604616e+01 3.096663e+01 2.869331e+01 1.969207e+01 8.024186e-01 8.637462e-01 9.762596e-01 1.208383e+00 1.860729e+00 1.938551e+00 2.342637e+00 2.054597e+00 2.126093e+00 1.768907e+00 1.840738e+00 1.505519e+00 1.027859e+00
<GCONST> 9.389127e+01
~s "ST_m_3_1"
<MEAN> 25
 2.711044e-07 2.276736e-08 -6.105108e-08 -1.720701e-07 -1.586201e-07 9.768173e-08 -1.135738e-07 -1.298416e-07 7.694316e-08 -1.660590e-07 -1.083516e-07 -5.706868e-08 -2.818740e-03 -4.409722e-03 -4.277692e-03 -1.165964e-03 -3.608679e-03 5.208261e-03 -1.757075e-03 5.998432e-03 4.891248e-03 1.720927e-03 7.501529e-04 -5.307185e-03 6.137643e-03
<VARIANCE> 25
 2.670229e+01 2.794268e+01 3.749357e+01 3.307458e+01 5.256620e+01 4.928031e+01 4.561778e+01 4.954230e+01 4.604616e+01 3.096663e+01 2.869331e+01 1.969207e+01 8.024186e-01 8.637462e-01 9.762596e-01 1.208383e+00 1.860729e+00 1.938551e+00 2.342637e+00 2.054597e+00 2.126093e+00 1.768907e+00 1.840738e+00 1.505519e+00 1.027859e+00
<GCONST> 9.389128e+01
~s "ST_m_4_1"
<MEAN> 25
 2.711044e-07 2.276736e-08 -6.105108e-08 -1.720701e-07 -1.586201e-07 9.768173e-08 -1.135738e-07 -1.298416e-07 7.694316e-08 -1.660590e-07 -1.083516e-07 -5.706868e-08 -2.818740e-03 -4.409721e-03 -4.277692e-03 -1.165964e-03 -3.608679e-03 5.208261e-03 -1.757075e-03 5.998433e-03 4.891248e-03 1.720927e-03 7.501529e-04 -5.307185e-03 6.137643e-03
<VARIANCE> 25
 2.670229e+01 2.794268e+01 3.749357e+01 3.307458e+01 5.256620e+01 4.928031e+01 4.561778e+01 4.954230e+01 4.604617e+01 3.096663e+01 2.869331e+01 1.969207e+01 8.024186e-01 8.637462e-01 9.762596e-01 1.208383e+00 1.860729e+00 1.938551e+00 2.342637e+00 2.054597e+00 2.126093e+00 1.768907e+00 1.840738e+00 1.505519e+00 1.027859e+00
<GCONST> 9.389128e+01
~s "ST_p_2_1"
<MEAN> 25
 2.711044e-07 2.276736e-08 -6.105108e-08 -1.720701e-07 -1.586201e-07 9.768172e-08 -1.135738e-07 -1.298416e-07 7.694315e-08 -1.660590e-07 -1.083516e-07 -5.706868e-08 -2.818740e-03 -4.409721e-03 -4.277692e-03 -1.165964e-03 -3.608679e-03 5.208260e-03 -1.757075e-03 5.998432e-03 4.891248e-03 1.720927e-03 7.501529e-04 -5.307185e-03 6.137643e-03
<VARIANCE> 25
 2.670229e+01 2.794268e+01 3.749356e+01 3.307458e+01 5.256620e+01 4.928032e+01 4.561777e+01 4.954230e+01 4.604616e+01 3.096663e+01 2.869331e+01 1.969207e+01 8.024186e-01 8.637462e-01 9.762596e-01 1.208383e+00 1.860729e+00 1.938551e+00 2.342637e+00 2.054597e+00 2.126093e+00 1.768907e+00 1.840738e+00 1.505519e+00 1.027859e+00
<GCONST> 9.389127e+01
~s "ST_p_3_1"
<MEAN> 25
 2.711044e-07 2.276736e-08 -6.105108e-08 -1.720701e-07 -1.586201e-07 9.768173e-08 -1.135738e-07 -1.298416e-07 7.694315e-08 -1.660590e-07 -1.083516e-07 -5.706868e-08 -2.818740e-03 -4.409721e-03 -4.277692e-03 -1.165964e-03 -3.608679e-03 5.208261e-03 -1.757075e-03 5.998432e-03 4.891248e-03 1.720927e-03 7.501529e-04 -5.307185e-03 6.137643e-03
<VARIANCE> 25
 2.670229e+01 2.794268e+01 3.749357e+01 3.307458e+01 5.256620e+01 4.928031e+01 4.561778e+01 4.954230e+01 4.604616e+01 3.096663e+01 2.869331e+01 1.969207e+01 8.024185e-01 8.637462e-01 9.762596e-01 1.208383e+00 1.860729e+00 1.938551e+00 2.342637e+00 2.054597e+00 2.126093e+00 1.768907e+00 1.840738e+00 1.505519e+00 1.027859e+00
<GCONST> 9.389127e+01
~s "ST_p_4_1"
<MEAN> 25
 2.711044e-07 2.276736e-08 -6.105108e-08 -1.720701e-07 -1.586201e-07 9.768172e-08 -1.135738e-07 -1.298416e-07 7.694315e-08 -1.660590e-07 -1.083516e-07 -5.706868e-08 -2.818740e-03 -4.409721e-03 -4.277692e-03 -1.165964e-03 -3.608679e-03 5.208261e-03 -1.757075e-03 5.998432e-03 4.891248e-03 1.720927e-03 7.501529e-04 -5.307185e-03 6.137643e-03
<VARIANCE> 25
 2.670229e+01 2.794268e+01 3.749357e+01 3.307458e+01 5.256620e+01 4.928031e+01 4.561778e+01 4.954230e+01 4.604616e+01 3.096663e+01 2.869331e+01 1.969207e+01 8.024186e-01 8.637462e-01 9.762596e-01 1.208383e+00 1.860729e+00 1.938551e+00 2.342637e+00 2.054597e+00 2.126093e+00 1.768907e+00 1.840738e+00 1.505519e+00 1.027859e+00
<GCONST> 9.389127e+01
~h "E"
<BEGINHMM>
<NUMSTATES> 5
<STATE> 2
~s "ST_E_2_1"
<STATE> 3
~s "ST_E_3_1"
<STATE> 4
~s "ST_E_4_1"
~t "T_E"
<ENDHMM>
~h "a"
<BEGINHMM>
<NUMSTATES> 5
<STATE> 2
~s "ST_a_2_1"
<STATE> 3
~s "ST_a_3_1"
<STATE> 4
~s "ST_a_4_1"
~t "T_a"
<ENDHMM>
~h "b"
<BEGINHMM>
<NUMSTATES> 5
<STATE> 2
~s "ST_b_2_1"
<STATE> 3
~s "ST_b_3_1"
<STATE> 4
~s "ST_b_4_1"
~t "T_b"
<ENDHMM>
~h "d"
<BEGINHMM>
<NUMSTATES> 5
<STATE> 2
~s "ST_d_2_1"
<STATE> 3
~s "ST_d_3_1"
<STATE> 4
~s "ST_d_4_1"
~t "T_d"
<ENDHMM>
~h "e"
<BEGINHMM>
<NUMSTATES> 5
<STATE> 2
~s "ST_e_2_1"
<STATE> 3
~s "ST_e_3_1"
<STATE> 4
~s "ST_e_4_1"
~t "T_e"
<ENDHMM>
~h "f"
<BEGINHMM>
<NUMSTATES> 5
<STATE> 2
~s "ST_f_2_1"
<STATE> 3
~s "ST_f_3_1"
<STATE> 4
~s "ST_f_4_1"
~t "T_f"
<ENDHMM>
~h "g"
<BEGINHMM>
<NUMSTATES> 5
<STATE> 2
~s "ST_g_2_1"
<STATE> 3
~s "ST_g_3_1"
<STATE> 4
~s "ST_g_4_1"
~t "T_g"
<ENDHMM>
~h "h"
<BEGINHMM>
<NUMSTATES> 5
<STATE> 2
~s "ST_h_2_1"
<STATE> 3
~s "ST_h_3_1"
<STATE> 4
~s "ST_h_4_1"
~t "T_h"
<ENDHMM>
~h "i"
<BEGINHMM>
<NUMSTATES> 5
<STATE> 2
~s "ST_i_2_1"
<STATE> 3
~s "ST_i_3_1"
<STATE> 4
~s "ST_i_4_1"
~t "T_i"
<ENDHMM>
~h "k"
<BEGINHMM>
<NUMSTATES> 5
<STATE> 2
~s "ST_k_2_1"
<STATE> 3
~s "ST_k_3_1"
<STATE> 4
~s "ST_k_4_1"
~t "T_k"
<ENDHMM>
~h "l"
<BEGINHMM>
<NUMSTATES> 5
<STATE> 2
~s "ST_l_2_1"
<STATE> 3
~s "ST_l_3_1"
<STATE> 4
~s "ST_l_4_1"
~t "T_l"
<ENDHMM>
~h "m"
<BEGINHMM>
<NUMSTATES> 5
<STATE> 2
~s "ST_m_2_1"
<STATE> 3
~s "ST_m_3_1"
<STATE> 4
~s "ST_m_4_1"
~t "T_m"
<ENDHMM>
~h "o"
<BEGINHMM>
<NUMSTATES> 5
<STATE> 2
~s "ST_o_2_1"
<STATE> 3
~s "ST_o_3_1"
<STATE> 4
~s "ST_o_4_1"
~t "T_o"
<ENDHMM>
~h "p"
<BEGINHMM>
<NUMSTATES> 5
<STATE> 2
~s "ST_p_2_1"
<STATE> 3
~s "ST_p_3_1"
<STATE> 4
~s "ST_p_4_1"
~t "T_p"
<ENDHMM>
~h "r"
<BEGINHMM>
<NUMSTATES> 5
<STATE> 2
~s "ST_r_2_1"
<STATE> 3
~s "ST_r_3_1"
<STATE> 4
~s "ST_r_4_1"
~t "T_r"
<ENDHMM>
~h "s"
<BEGINHMM>
<NUMSTATES> 5
<STATE> 2
~s "ST_s_2_1"
<STATE> 3
~s "ST_s_3_1"
<STATE> 4
~s "ST_s_4_1"
~t "T_s"
<ENDHMM>
~h "t"
<BEGINHMM>
<NUMSTATES> 5
<STATE> 2
~s "ST_t_2_1"
<STATE> 3
~s "ST_t_3_1"
<STATE> 4
~s "ST_t_4_1"
~t "T_t"
<ENDHMM>
~h "u"
<BEGINHMM>
<NUMSTATES> 5
<STATE> 2
~s "ST_u_2_1"
<STATE> 3
~s "ST_u_3_1"
<STATE> 4
~s "ST_u_4_1"
~t "T_u"
<ENDHMM>
~h "ng"
<BEGINHMM>
<NUMSTATES> 5
<STATE> 2
~s "ST_ng_2_1"
<STATE> 3
~s "ST_ng_3_1"
<STATE> 4
~s "ST_ng_4_1"
~t "T_ng"
<ENDHMM>
~h "sp"
<BEGINHMM>
<NUMSTATES> 3
<STATE> 2
~s "ST_sil_3_1"
<TRANSP> 3
 0.000000e+00 4.213054e-01 5.786946e-01
 0.000000e+00 9.812928e-01 1.870716e-02
 0.000000e+00 0.000000e+00 0.000000e+00
<ENDHMM>
~h "sil"
<BEGINHMM>
<NUMSTATES> 5
<STATE> 2
~s "ST_sil_2_1"
<STATE> 3
~s "ST_sil_3_1"
<STATE> 4
~s "ST_sil_4_1"
<TRANSP> 5
 0.000000e+00 1.000000e+00 0.000000e+00 0.000000e+00 0.000000e+00
 0.000000e+00 9.597614e-01 1.478714e-02 2.545144e-02 0.000000e+00
 0.000000e+00 0.000000e+00 9.866554e-01 1.334464e-02 0.000000e+00
 0.000000e+00 3.257324e-02 0.000000e+00 9.443357e-01 2.309107e-02
 0.000000e+00 0.000000e+00 0.000000e+00 0.000000e+00 0.000000e+00
<ENDHMM>
