~o
<STREAMINFO> 1 25
<VECSIZE> 25<NULLD><MFCC_D_N_Z_0><DIAGC>
~h "E"
<BEGINHMM>
<NUMSTATES> 5
<STATE> 2
<MEAN> 25
 3.437768e+00 -8.297108e+00 1.376524e+00 -3.705986e+00 -3.913822e+00 -1.310964e+00 1.154981e+00 -5.407380e-01 -2.599555e+00 -3.547115e+00 -2.460969e+00 1.918675e-01 5.133939e-01 -9.976285e-01 1.614583e-01 -6.754074e-01 -5.609604e-01 -3.485387e-01 1.605381e-01 -2.244163e-01 -3.754563e-01 -3.541763e-01 -2.549820e-01 1.019138e-01 1.213480e+00
<VARIANCE> 25
 5.221089e+01 1.434291e+02 2.783813e+01 6.254307e+01 5.794998e+01 4.903234e+01 5.470817e+01 4.706161e+01 4.359265e+01 5.287149e+01 3.437837e+01 1.915861e+01 3.451409e+00 8.134271e+00 1.806318e+00 4.294659e+00 3.552977e+00 3.392711e+00 3.719932e+00 4.119482e+00 3.539968e+00 3.778722e+00 3.516626e+00 1.971361e+00 8.494281e+00
<GCONST> 1.096403e+02
<STATE> 3
<MEAN> 25
 5.233751e+00 -1.096996e+01 2.179125e+00 -5.730729e+00 -5.702209e+00 -2.398518e+00 1.112622e+00 -1.625656e+00 -3.437617e+00 -4.354469e+00 -3.147798e+00 2.528449e-01 2.510113e-01 -3.184240e-01 7.560252e-02 -3.439560e-01 -3.368197e-01 -2.173237e-01 6.493976e-02 -2.729699e-01 -1.255701e-01 -9.749757e-02 -1.432383e-01 -1.105765e-02 5.588794e-01
<VARIANCE> 25
 4.670498e+01 1.202328e+02 3.056973e+01 5.705118e+01 5.644728e+01 5.340759e+01 6.528000e+01 4.990643e+01 4.789779e+01 4.904937e+01 3.573548e+01 2.039177e+01 2.892407e+00 6.790206e+00 2.024511e+00 4.592233e+00 3.695761e+00 3.358063e+00 3.763417e+00 4.513693e+00 3.503237e+00 3.584731e+00 3.575201e+00 2.130397e+00 7.823353e+00
<GCONST> 1.096735e+02
<STATE> 4
<MEAN> 25
 1.608735e+00 -4.343894e+00 2.958352e+00 -3.709836e+00 -3.793373e+00 -5.841841e-01 1.501490e+00 -6.687468e-01 -1.072166e+00 -7.041830e-01 -6.746536e-01 5.859472e-01 -1.555657e-01 3.285021e-01 -1.021045e-01 2.427461e-01 8.700527e-02 6.118857e-02 -6.337445e-02 3.708999e-02 1.530688e-01 6.848884e-02 5.517145e-02 -6.533693e-03 -4.048399e-01
<VARIANCE> 25
 1.044994e+02 2.606905e+02 6.000914e+01 7.066730e+01 9.462146e+01 5.506064e+01 1.050122e+02 6.542248e+01 3.978186e+01 6.696896e+01 4.604691e+01 2.319932e+01 2.234129e+00 5.470288e+00 3.312489e+00 3.455889e+00 3.365207e+00 3.135151e+00 3.675340e+00 3.806519e+00 2.591299e+00 3.145298e+00 3.107541e+00 2.027950e+00 4.932560e+00
<GCONST> 1.122369e+02
<TRANSP> 5
 0.000000e+00 1.000000e+00 0.000000e+00 0.000000e+00 0.000000e+00
 0.000000e+00 6.400798e-01 3.599202e-01 0.000000e+00 0.000000e+00
 0.000000e+00 0.000000e+00 6.506357e-01 3.493643e-01 0.000000e+00
 0.000000e+00 0.000000e+00 0.000000e+00 8.974442e-01 1.025558e-01
 0.000000e+00 0.000000e+00 0.000000e+00 0.000000e+00 0.000000e+00
<ENDHMM>
~h "K"
<BEGINHMM>
<NUMSTATES> 5
<STATE> 2
<MEAN> 25
 -1.684587e-08 -6.193333e-08 -4.487690e-08 3.351832e-08 -6.047171e-08 2.058664e-08 -6.607048e-08 -2.205446e-08 -8.534414e-09 2.910867e-08 3.022347e-08 -1.071447e-09 -2.678578e-03 2.715191e-03 1.970940e-04 1.666228e-04 1.831201e-03 -7.320007e-04 3.372927e-03 1.125320e-03 -7.564414e-05 2.413395e-03 8.106225e-04 -2.148533e-03 -1.727290e-03
<VARIANCE> 25
 4.499385e+01 7.342516e+01 3.566479e+01 5.718780e+01 5.546888e+01 4.305736e+01 6.020990e+01 4.209700e+01 2.990068e+01 4.475465e+01 3.376802e+01 1.839641e+01 1.592596e+00 2.317776e+00 1.700131e+00 2.390033e+00 2.486403e+00 2.357601e+00 2.972100e+00 2.655601e+00 2.270027e+00 2.542916e+00 2.264997e+00 1.647762e+00 2.549860e+00
<GCONST> 1.014657e+02
<STATE> 3
<MEAN> 25
 -1.684587e-08 -6.193333e-08 -4.487690e-08 3.351832e-08 -6.047171e-08 2.058664e-08 -6.607048e-08 -2.205446e-08 -8.534414e-09 2.910867e-08 3.022347e-08 -1.071447e-09 -2.678578e-03 2.715191e-03 1.970940e-04 1.666228e-04 1.831201e-03 -7.320007e-04 3.372927e-03 1.125320e-03 -7.564414e-05 2.413395e-03 8.106225e-04 -2.148533e-03 -1.727290e-03
<VARIANCE> 25
 4.499385e+01 7.342516e+01 3.566479e+01 5.718780e+01 5.546888e+01 4.305736e+01 6.020990e+01 4.209700e+01 2.990068e+01 4.475465e+01 3.376802e+01 1.839641e+01 1.592596e+00 2.317776e+00 1.700131e+00 2.390033e+00 2.486403e+00 2.357601e+00 2.972100e+00 2.655601e+00 2.270027e+00 2.542916e+00 2.264997e+00 1.647762e+00 2.549860e+00
<GCONST> 1.014657e+02
<STATE> 4
<MEAN> 25
 -1.684587e-08 -6.193333e-08 -4.487690e-08 3.351832e-08 -6.047171e-08 2.058664e-08 -6.607048e-08 -2.205446e-08 -8.534414e-09 2.910867e-08 3.022347e-08 -1.071447e-09 -2.678578e-03 2.715191e-03 1.970940e-04 1.666228e-04 1.831201e-03 -7.320007e-04 3.372927e-03 1.125320e-03 -7.564414e-05 2.413395e-03 8.106225e-04 -2.148533e-03 -1.727290e-03
<VARIANCE> 25
 4.499385e+01 7.342516e+01 3.566479e+01 5.718780e+01 5.546888e+01 4.305736e+01 6.020990e+01 4.209700e+01 2.990068e+01 4.475465e+01 3.376802e+01 1.839641e+01 1.592596e+00 2.317776e+00 1.700131e+00 2.390033e+00 2.486403e+00 2.357601e+00 2.972100e+00 2.655601e+00 2.270027e+00 2.542916e+00 2.264997e+00 1.647762e+00 2.549860e+00
<GCONST> 1.014657e+02
<TRANSP> 5
 0.000000e+00 1.000000e+00 0.000000e+00 0.000000e+00 0.000000e+00
 0.000000e+00 6.000000e-01 4.000000e-01 0.000000e+00 0.000000e+00
 0.000000e+00 0.000000e+00 6.000000e-01 4.000000e-01 0.000000e+00
 0.000000e+00 0.000000e+00 0.000000e+00 7.000000e-01 3.000000e-01
 0.000000e+00 0.000000e+00 0.000000e+00 0.000000e+00 0.000000e+00
<ENDHMM>
~h "a"
<BEGINHMM>
<NUMSTATES> 5
<STATE> 2
<MEAN> 25
 1.554345e+00 -4.361691e+00 -1.358184e+00 -4.963759e-01 5.919009e-01 -1.390866e+00 -1.846743e+00 -8.989544e-01 -1.297143e+00 -4.897661e+00 -2.154678e+00 4.729984e-01 -2.640818e-01 1.438706e-01 9.938700e-02 3.462157e-01 2.641459e-01 7.913262e-02 4.924110e-02 1.181894e-01 -1.521580e-02 -1.245567e-03 2.561064e-01 2.790965e-02 -4.125659e-01
<VARIANCE> 25
 3.369542e+01 6.838222e+01 2.262300e+01 3.550770e+01 3.651366e+01 4.187807e+01 5.916981e+01 4.105680e+01 3.593368e+01 6.120413e+01 4.008144e+01 2.222848e+01 1.411473e+00 2.738192e+00 1.355310e+00 1.677389e+00 2.735071e+00 2.340120e+00 3.200803e+00 3.033128e+00 2.855789e+00 3.366837e+00 2.615721e+00 1.889363e+00 2.572567e+00
<GCONST> 1.011027e+02
<STATE> 3
<MEAN> 25
 2.194142e-01 -2.805779e+00 -9.479934e-01 9.414364e-01 1.355348e+00 -3.743343e-01 -7.204650e-01 2.100284e-01 -6.974516e-01 -3.377138e+00 -4.972127e-01 6.225688e-01 -2.200463e-01 3.729905e-01 1.550677e-01 2.768430e-01 9.336679e-02 1.486291e-01 1.907623e-01 1.654272e-01 1.186855e-01 2.938939e-01 2.781297e-01 -3.494648e-03 -5.824666e-01
<VARIANCE> 25
 3.197288e+01 6.582922e+01 1.923664e+01 2.812716e+01 3.068127e+01 3.893638e+01 5.131183e+01 3.740272e+01 3.167655e+01 5.837872e+01 3.753459e+01 2.183511e+01 1.108159e+00 1.956924e+00 1.133332e+00 1.330031e+00 2.139092e+00 2.013612e+00 2.670886e+00 2.522242e+00 2.432631e+00 2.963676e+00 2.477185e+00 1.898134e+00 1.930181e+00
<GCONST> 9.750228e+01
<STATE> 4
<MEAN> 25
 -1.345888e+00 -1.162181e-01 -2.133283e-01 2.913362e+00 2.986134e+00 1.728358e+00 1.536733e+00 1.642266e+00 4.706831e-01 1.728460e-01 1.234407e+00 3.922629e-01 -6.471621e-02 2.025627e-01 6.691094e-02 8.101910e-02 3.814863e-03 4.872048e-02 7.920124e-02 -9.017926e-03 7.912095e-02 2.111280e-01 2.567397e-02 -4.704303e-02 -2.318485e-01
<VARIANCE> 25
 1.806737e+01 4.073547e+01 1.407941e+01 2.019578e+01 2.363199e+01 2.772218e+01 3.422060e+01 2.607434e+01 2.194196e+01 3.927802e+01 2.566523e+01 1.638188e+01 6.816899e-01 1.295811e+00 8.435997e-01 1.054219e+00 1.463288e+00 1.520877e+00 2.133456e+00 1.896710e+00 1.858718e+00 2.275064e+00 1.899791e+00 1.531445e+00 1.247763e+00
<GCONST> 8.896504e+01
<TRANSP> 5
 0.000000e+00 1.000000e+00 0.000000e+00 0.000000e+00 0.000000e+00
 0.000000e+00 6.637945e-01 3.362055e-01 0.000000e+00 0.000000e+00
 0.000000e+00 0.000000e+00 6.446886e-01 3.553114e-01 0.000000e+00
 0.000000e+00 0.000000e+00 0.000000e+00 8.459672e-01 1.540328e-01
 0.000000e+00 0.000000e+00 0.000000e+00 0.000000e+00 0.000000e+00
<ENDHMM>
~h "b"
<BEGINHMM>
<NUMSTATES> 5
<STATE> 2
<MEAN> 25
 4.707891e+00 2.969230e+00 -1.168070e-02 -1.122273e+00 -4.463447e+00 -5.394079e+00 -6.310685e+00 -3.416581e+00 -4.252108e+00 -2.738049e+00 -3.956629e+00 -6.179670e-01 6.487307e-01 2.803226e-01 -1.193933e-01 -4.785564e-01 -7.221780e-01 -6.547827e-01 -7.145973e-01 -3.851080e-01 -5.913010e-01 -8.076553e-01 -7.677534e-01 -1.222893e-01 6.595188e-01
<VARIANCE> 25
 3.191124e+01 5.094239e+01 3.424083e+01 4.850247e+01 4.059280e+01 4.898756e+01 5.143644e+01 3.481096e+01 3.483490e+01 3.343224e+01 3.867256e+01 2.288595e+01 2.695314e+00 2.945461e+00 2.186268e+00 4.132923e+00 3.439206e+00 3.489565e+00 3.933566e+00 3.523434e+00 3.581241e+00 3.000686e+00 2.975974e+00 2.300870e+00 4.797420e+00
<GCONST> 1.049403e+02
<STATE> 3
<MEAN> 25
 6.042450e+00 3.565647e+00 -1.567466e-01 -3.103581e+00 -6.267444e+00 -6.681643e+00 -7.646383e+00 -3.700087e+00 -4.841933e+00 -4.275493e+00 -5.915194e+00 -5.893093e-01 1.781405e-01 -1.890545e-02 -6.144847e-02 -3.589223e-01 -2.314903e-01 -1.476633e-01 -8.786761e-02 6.128733e-02 -8.765523e-02 -2.642791e-01 -2.497620e-01 3.751696e-02 4.004345e-01
<VARIANCE> 25
 2.860380e+01 5.016779e+01 3.846906e+01 4.725634e+01 3.559433e+01 3.467511e+01 4.534149e+01 3.875181e+01 3.667155e+01 3.336808e+01 3.400336e+01 2.225385e+01 2.149934e+00 2.553892e+00 2.178116e+00 3.933490e+00 2.480660e+00 2.332267e+00 3.139499e+00 3.269957e+00 3.024618e+00 2.654473e+00 2.633281e+00 2.364286e+00 4.269613e+00
<GCONST> 1.023480e+02
<STATE> 4
<MEAN> 25
 8.245410e+00 -6.756062e-01 -7.450863e-01 -7.350405e+00 -6.540067e+00 -5.838455e+00 -6.846675e+00 -3.488001e+00 -4.282315e+00 -6.597005e+00 -6.494969e+00 4.246525e-01 -1.962903e-01 -2.735026e-01 1.658468e-01 -5.416982e-02 1.567156e-01 2.222981e-01 2.249036e-01 9.269678e-02 8.827398e-02 4.216016e-03 1.849433e-01 1.598907e-01 3.132280e-02
<VARIANCE> 25
 3.802146e+01 9.717683e+01 4.327464e+01 6.747421e+01 3.890807e+01 3.415125e+01 4.462173e+01 4.302443e+01 3.456320e+01 4.597884e+01 3.132946e+01 2.204103e+01 1.428504e+00 3.092914e+00 1.738549e+00 4.120617e+00 2.639958e+00 2.363394e+00 2.801345e+00 3.282385e+00 3.088696e+00 3.382809e+00 2.455102e+00 2.131562e+00 3.945251e+00
<GCONST> 1.036796e+02
<TRANSP> 5
 0.000000e+00 1.000000e+00 0.000000e+00 0.000000e+00 0.000000e+00
 0.000000e+00 6.665497e-01 3.334503e-01 0.000000e+00 0.000000e+00
 0.000000e+00 0.000000e+00 7.196415e-01 2.803584e-01 0.000000e+00
 0.000000e+00 0.000000e+00 0.000000e+00 8.575221e-01 1.424779e-01
 0.000000e+00 0.000000e+00 0.000000e+00 0.000000e+00 0.000000e+00
<ENDHMM>
~h "c"
<BEGINHMM>
<NUMSTATES> 5
<STATE> 2
<MEAN> 25
 -9.617392e-01 7.553146e-01 -2.659316e-01 2.336876e+00 3.067868e+00 2.930714e+00 2.813823e+00 1.071303e+00 -4.561711e-02 1.847946e+00 1.951865e+00 -2.663839e-01 -1.147789e-01 -6.168165e-02 -2.725745e-03 9.476958e-02 2.049540e-01 2.025598e-01 2.227565e-01 1.090290e-01 4.524669e-02 1.704542e-01 5.628975e-02 -5.994439e-02 -1.615557e-01
<VARIANCE> 25
 3.457338e+00 4.967530e+00 5.488035e+00 7.011479e+00 1.009406e+01 1.218536e+01 1.703785e+01 1.314920e+01 1.237316e+01 2.012017e+01 1.655218e+01 1.083720e+01 4.250115e-01 5.555555e-01 6.204765e-01 7.718453e-01 1.144128e+00 1.570411e+00 1.817329e+00 1.458175e+00 1.408435e+00 2.370459e+00 1.556476e+00 1.237125e+00 6.064275e-01
<GCONST> 7.411269e+01
<STATE> 3
<MEAN> 25
 -9.999803e-01 1.953189e-01 -5.854021e-01 1.812594e+00 3.071951e+00 2.760302e+00 2.964111e+00 9.964032e-01 1.733651e-01 1.955924e+00 1.305926e+00 -5.506809e-01 -5.259581e-02 -3.485339e-02 -1.244431e-02 -7.220238e-02 2.355642e-02 -2.650280e-02 5.489733e-02 -5.984870e-03 5.667973e-02 -9.241415e-03 -3.339813e-02 2.284420e-02 1.573957e-01
<VARIANCE> 25
 6.209277e+00 9.062853e+00 5.082594e+00 1.088773e+01 1.394483e+01 1.973019e+01 1.837887e+01 1.788726e+01 1.326096e+01 2.545183e+01 1.605323e+01 1.104171e+01 7.684529e-01 7.612436e-01 4.625918e-01 1.100151e+00 1.720454e+00 1.791860e+00 1.725506e+00 1.638592e+00 1.467598e+00 2.888518e+00 1.329054e+00 1.157171e+00 1.712535e+00
<GCONST> 7.976871e+01
<STATE> 4
<MEAN> 25
 -7.024742e-01 -2.955154e-01 6.434391e-02 1.279350e+00 1.180435e+00 1.978631e+00 2.345695e+00 1.383444e+00 3.242055e-01 1.337988e+00 8.918481e-01 1.406847e-02 -1.219776e-02 2.720780e-02 6.213878e-02 -7.876012e-02 -8.977593e-02 -1.122319e-01 -7.714719e-02 -2.891455e-02 -1.040236e-02 -7.572407e-02 -1.093669e-02 1.345468e-02 1.526606e-01
<VARIANCE> 25
 8.223241e+00 1.256561e+01 9.745269e+00 1.881798e+01 3.223037e+01 2.772017e+01 2.015095e+01 2.417171e+01 1.905605e+01 2.741527e+01 2.231930e+01 1.582860e+01 1.061536e+00 1.266531e+00 9.673687e-01 1.890960e+00 2.872214e+00 2.595873e+00 2.491263e+00 2.278693e+00 2.098449e+00 2.543293e+00 2.386652e+00 1.533511e+00 3.365643e+00
<GCONST> 8.973674e+01
<TRANSP> 5
 0.000000e+00 1.000000e+00 0.000000e+00 0.000000e+00 0.000000e+00
 0.000000e+00 9.476655e-01 5.233447e-02 0.000000e+00 0.000000e+00
 0.000000e+00 0.000000e+00 8.653986e-01 1.346014e-01 0.000000e+00
 0.000000e+00 0.000000e+00 0.000000e+00 9.791533e-01 2.084665e-02
 0.000000e+00 0.000000e+00 0.000000e+00 0.000000e+00 0.000000e+00
<ENDHMM>
~h "d"
<BEGINHMM>
<NUMSTATES> 5
<STATE> 2
<MEAN> 25
 -7.170576e-01 1.239569e+00 -6.684253e-02 2.321709e+00 1.561801e+00 9.783418e-01 1.599422e+00 1.112636e+00 -3.658468e-01 7.973244e-01 1.304268e+00 -5.086715e-01 3.841036e-02 -3.445541e-02 -7.092968e-03 -8.128352e-02 -8.545507e-02 -9.358962e-02 -1.360916e-02 5.724697e-03 -6.899787e-02 -3.689186e-03 -9.170967e-02 -2.245145e-02 1.344918e-01
<VARIANCE> 25
 1.326129e+01 2.814701e+01 1.350648e+01 1.653249e+01 3.953924e+01 3.516793e+01 2.852430e+01 2.371591e+01 2.018271e+01 2.680978e+01 2.196228e+01 1.477269e+01 3.692903e-01 1.480571e+00 8.210155e-01 1.181905e+00 1.732474e+00 1.617118e+00 1.954916e+00 1.894073e+00 1.601459e+00 1.799166e+00 1.523561e+00 1.266554e+00 1.711093e+00
<GCONST> 8.706591e+01
<STATE> 3
<MEAN> 25
 -1.733203e-01 1.255388e+00 2.281178e-01 1.271366e+00 -4.130759e-01 -5.105754e-01 1.405729e+00 4.368813e-01 -8.531445e-01 3.795160e-01 5.148801e-01 -4.991710e-01 1.214086e-01 -2.267220e-01 -4.121661e-02 -3.009952e-01 -2.331890e-01 -1.943778e-01 -4.421485e-02 3.481899e-02 -1.222355e-01 -1.223480e-01 -1.521809e-01 -5.010808e-03 4.911021e-01
<VARIANCE> 25
 1.948699e+01 3.874921e+01 1.773718e+01 2.911648e+01 5.964957e+01 4.384563e+01 3.083895e+01 2.644686e+01 2.306092e+01 3.157500e+01 2.437673e+01 1.717555e+01 6.634663e-01 1.951174e+00 1.154034e+00 2.128675e+00 2.901772e+00 2.178988e+00 2.266981e+00 2.452344e+00 1.880405e+00 2.000273e+00 1.955142e+00 1.427843e+00 3.387255e+00
<GCONST> 9.430946e+01
<STATE> 4
<MEAN> 25
 1.322290e+00 -4.279353e-01 4.411576e-01 -1.140348e+00 -3.430413e+00 -2.691252e+00 9.951586e-01 1.593464e-01 -1.208159e+00 -1.703555e+00 -9.178547e-01 -2.059978e-02 1.215783e-01 -1.998205e-01 -8.069722e-02 -2.133171e-01 -1.222851e-01 -1.515611e-01 5.434244e-02 -8.979236e-02 -8.448347e-02 -2.341115e-01 -2.331371e-01 4.487479e-02 4.165911e-01
<VARIANCE> 25
 2.087876e+01 3.650240e+01 1.997445e+01 4.076474e+01 7.401084e+01 5.508514e+01 3.531173e+01 3.012717e+01 2.720557e+01 4.467710e+01 3.595407e+01 1.863819e+01 9.055296e-01 2.138729e+00 1.675505e+00 2.428031e+00 4.920276e+00 3.010907e+00 3.045535e+00 2.818294e+00 2.357980e+00 2.944396e+00 2.903893e+00 1.789440e+00 4.518751e+00
<GCONST> 1.001818e+02
<TRANSP> 5
 0.000000e+00 1.000000e+00 0.000000e+00 0.000000e+00 0.000000e+00
 0.000000e+00 8.729579e-01 1.270421e-01 0.000000e+00 0.000000e+00
 0.000000e+00 0.000000e+00 7.647324e-01 2.352676e-01 0.000000e+00
 0.000000e+00 0.000000e+00 0.000000e+00 9.042612e-01 9.573883e-02
 0.000000e+00 0.000000e+00 0.000000e+00 0.000000e+00 0.000000e+00
<ENDHMM>
~h "e"
<BEGINHMM>
<NUMSTATES> 5
<STATE> 2
<MEAN> 25
 2.579369e+00 -4.626249e+00 -2.324529e+00 -2.721801e+00 1.352000e+00 -1.654692e+00 -1.493576e+00 2.305526e-01 2.925238e+00 -7.906602e-01 -2.842460e+00 -3.489136e-01 4.600847e-01 -6.047611e-01 -6.805413e-02 -6.386373e-01 -8.509106e-03 -1.549883e-01 -3.078797e-01 -2.269900e-01 -3.904211e-03 -3.599757e-01 -3.364189e-01 -7.646926e-02 8.978683e-01
<VARIANCE> 25
 4.956219e+01 9.267275e+01 4.513036e+01 8.067244e+01 3.982250e+01 5.194802e+01 5.210508e+01 4.483366e+01 2.789566e+01 4.889544e+01 4.899692e+01 1.928737e+01 4.053651e+00 5.068527e+00 3.136942e+00 5.016583e+00 3.491807e+00 4.808326e+00 4.253151e+00 3.865551e+00 2.671916e+00 4.874279e+00 3.719038e+00 1.706036e+00 9.510897e+00
<GCONST> 1.101055e+02
<STATE> 3
<MEAN> 25
 4.670887e+00 -6.808563e+00 -2.779634e+00 -5.142058e+00 6.768446e-01 -2.296770e+00 -2.468808e+00 -8.407169e-01 2.355751e+00 -2.403271e+00 -4.063514e+00 -5.647460e-01 4.857631e-01 -3.549789e-01 9.196895e-02 -5.059522e-01 -2.669685e-01 1.058484e-02 -1.970201e-01 -2.297954e-01 -2.177605e-01 -3.870569e-01 -2.016407e-01 -9.843533e-02 5.827698e-01
<VARIANCE> 25
 4.963178e+01 9.977747e+01 4.043556e+01 8.024696e+01 3.786089e+01 5.112967e+01 5.119117e+01 5.186555e+01 3.372049e+01 4.681060e+01 4.729176e+01 2.064029e+01 3.978319e+00 4.823852e+00 3.375758e+00 5.262200e+00 3.631459e+00 4.399758e+00 3.880425e+00 4.082095e+00 2.837183e+00 4.732541e+00 3.643426e+00 1.845502e+00 9.474054e+00
<GCONST> 1.103565e+02
<STATE> 4
<MEAN> 25
 7.632190e+00 -1.150232e+01 -1.739268e+00 -7.801918e+00 -7.099588e-01 -6.117043e-01 -3.597423e+00 -9.867024e-01 6.361624e-01 -5.443275e+00 -4.357040e+00 -3.134421e-01 -1.845119e-01 3.835539e-01 1.162708e-01 3.768828e-01 -1.875463e-01 2.381997e-01 4.807632e-02 1.094751e-01 -1.516726e-01 -2.235125e-02 2.064586e-01 -3.980721e-02 -6.057572e-01
<VARIANCE> 25
 4.236828e+01 1.144115e+02 4.240143e+01 6.736427e+01 4.786279e+01 4.196567e+01 5.307069e+01 4.763074e+01 4.260707e+01 4.861991e+01 3.602503e+01 2.192067e+01 2.273118e+00 4.326119e+00 2.607854e+00 3.570588e+00 3.192650e+00 3.065585e+00 2.964480e+00 3.758817e+00 3.202356e+00 3.688846e+00 3.353448e+00 1.889544e+00 5.800107e+00
<GCONST> 1.074208e+02
<TRANSP> 5
 0.000000e+00 1.000000e+00 0.000000e+00 0.000000e+00 0.000000e+00
 0.000000e+00 5.642357e-01 4.357643e-01 0.000000e+00 0.000000e+00
 0.000000e+00 0.000000e+00 5.961491e-01 4.038509e-01 0.000000e+00
 0.000000e+00 0.000000e+00 0.000000e+00 8.137393e-01 1.862607e-01
 0.000000e+00 0.000000e+00 0.000000e+00 0.000000e+00 0.000000e+00
<ENDHMM>
~h "f"
<BEGINHMM>
<NUMSTATES> 5
<STATE> 2
<MEAN> 25
 -2.659044e+00 1.504087e+00 -1.857626e-01 3.894722e+00 3.366719e+00 3.132076e+00 1.670685e+00 2.412939e+00 1.684356e+00 2.179074e+00 3.128908e+00 3.006940e-01 -7.961854e-02 4.771015e-02 -4.020808e-03 5.597882e-02 -2.705411e-02 -5.846188e-03 2.525247e-02 1.778468e-02 -1.034496e-03 4.172046e-02 5.243281e-03 -1.674971e-02 2.881688e-02
<VARIANCE> 25
 6.379026e+00 1.841973e+01 1.895953e+01 1.234702e+01 1.605740e+01 1.715084e+01 1.753565e+01 1.972576e+01 1.680451e+01 2.081100e+01 2.361901e+01 1.524833e+01 3.643618e-01 9.768099e-01 7.730038e-01 8.296194e-01 1.099374e+00 1.194927e+00 1.523915e+00 1.470097e+00 1.583818e+00 1.836364e+00 1.882710e+00 1.302432e+00 5.186843e-01
<GCONST> 8.028735e+01
<STATE> 3
<MEAN> 25
 -3.820312e+00 7.035280e-01 -2.442643e+00 2.824184e+00 5.644264e-01 2.443331e+00 1.618506e+00 1.789485e+00 2.122652e+00 9.519923e-01 2.095333e+00 -2.807352e-02 3.866172e-01 -6.015023e-01 -4.276521e-02 -4.121931e-01 -3.067016e-01 -1.257799e-01 -1.407748e-01 -2.409071e-01 -1.856024e-01 -3.119037e-01 -4.223102e-01 -9.475511e-02 5.919236e-01
<VARIANCE> 25
 1.626721e+01 4.909843e+01 2.009003e+01 1.601993e+01 2.133404e+01 2.463862e+01 2.195213e+01 2.186046e+01 2.002466e+01 2.854819e+01 2.284348e+01 1.386417e+01 1.448400e+00 3.219694e+00 1.517164e+00 2.079051e+00 1.776515e+00 2.086139e+00 2.031260e+00 2.259779e+00 2.041075e+00 2.280017e+00 2.691895e+00 1.454195e+00 1.836948e+00
<GCONST> 9.198151e+01
<STATE> 4
<MEAN> 25
 2.215101e+00 -8.352221e+00 -1.857955e+00 -2.372533e+00 -2.646544e+00 5.120834e-01 -1.112777e+00 -1.422436e+00 -6.104093e-02 -4.425090e+00 -2.028614e+00 1.150877e-01 7.586399e-01 -8.073174e-01 1.478868e-01 -7.719703e-01 -4.099677e-01 -5.097365e-01 -1.911526e-01 -6.481571e-01 -4.761465e-01 -5.537964e-01 -6.519272e-01 -4.037511e-02 8.886700e-01
<VARIANCE> 25
 4.154882e+01 1.023620e+02 3.179845e+01 5.716662e+01 3.577388e+01 4.657486e+01 3.371475e+01 4.257105e+01 2.711320e+01 4.640592e+01 3.929377e+01 2.026248e+01 3.226399e+00 6.303101e+00 2.714170e+00 4.796109e+00 3.278018e+00 3.941359e+00 3.455153e+00 4.817058e+00 2.823028e+00 3.780713e+00 4.892554e+00 1.871461e+00 5.240198e+00
<GCONST> 1.075004e+02
<TRANSP> 5
 0.000000e+00 1.000000e+00 0.000000e+00 0.000000e+00 0.000000e+00
 0.000000e+00 9.443714e-01 5.562857e-02 0.000000e+00 0.000000e+00
 0.000000e+00 0.000000e+00 7.201144e-01 2.798857e-01 0.000000e+00
 0.000000e+00 0.000000e+00 0.000000e+00 8.486565e-01 1.513434e-01
 0.000000e+00 0.000000e+00 0.000000e+00 0.000000e+00 0.000000e+00
<ENDHMM>
~h "g"
<BEGINHMM>
<NUMSTATES> 5
<STATE> 2
<MEAN> 25
 4.246416e+00 -4.949128e+00 -1.020515e+00 -5.734590e+00 -1.686030e+00 -5.309806e+00 -3.014448e+00 -3.420254e+00 -3.906743e-01 -2.964728e+00 -4.621297e+00 8.395601e-01 5.677368e-01 -1.834914e-01 -2.173081e-01 -8.762886e-01 -8.594167e-01 -8.144932e-01 -3.137276e-01 -4.275135e-01 -1.891313e-01 -4.681275e-01 -6.677468e-01 8.543152e-02 1.116553e+00
<VARIANCE> 25
 5.307187e+01 7.306782e+01 2.231590e+01 8.078257e+01 9.567455e+01 5.611346e+01 7.325439e+01 4.055834e+01 2.689190e+01 4.920616e+01 5.785837e+01 2.172391e+01 2.785807e+00 5.132178e+00 1.775942e+00 5.631889e+00 5.321200e+00 4.698944e+00 4.554939e+00 4.080362e+00 3.031860e+00 2.858411e+00 4.080962e+00 2.472579e+00 6.698209e+00
<GCONST> 1.100934e+02
<STATE> 3
<MEAN> 25
 4.417343e+00 -1.783567e+00 -1.809958e+00 -6.076875e+00 -5.024644e+00 -6.530229e+00 -1.620938e+00 -2.840299e+00 -1.179873e+00 -3.289751e+00 -6.107802e+00 5.925327e-01 -2.001012e-01 4.963115e-01 -1.074917e-01 3.017997e-01 -2.393183e-01 3.154513e-01 -3.753988e-02 8.986496e-02 -7.627106e-02 -7.663899e-03 2.607249e-01 1.060587e-02 -3.998560e-01
<VARIANCE> 25
 4.083640e+01 6.745369e+01 2.714656e+01 5.903803e+01 6.793456e+01 5.483661e+01 6.979300e+01 3.639819e+01 2.854469e+01 4.054673e+01 6.090129e+01 2.499056e+01 3.088945e+00 2.627666e+00 2.236934e+00 3.604138e+00 3.494935e+00 4.573167e+00 5.019929e+00 3.462539e+00 3.083779e+00 3.484716e+00 4.090999e+00 2.329049e+00 3.467067e+00
<GCONST> 1.073722e+02
<STATE> 4
<MEAN> 25
 1.491457e+00 -1.062245e+00 -2.457353e+00 -2.366072e+00 -5.520735e+00 -1.850993e+00 -1.242533e+00 -1.314416e+00 -6.887751e-01 -1.763959e+00 -1.529814e+00 5.951053e-01 -4.251301e-01 3.866216e-01 -1.508796e-01 4.940136e-01 1.080946e-01 3.883830e-01 -2.687682e-03 9.533336e-02 -9.423349e-02 2.949282e-01 4.964377e-01 1.459571e-01 -5.072543e-01
<VARIANCE> 25
 6.570293e+01 1.107355e+02 4.309589e+01 5.449409e+01 6.004023e+01 5.571036e+01 6.844946e+01 4.472758e+01 3.285522e+01 4.228285e+01 4.443348e+01 2.760152e+01 3.351801e+00 2.362857e+00 3.085775e+00 3.144678e+00 2.889489e+00 4.222486e+00 5.267762e+00 3.674691e+00 3.173141e+00 3.019791e+00 2.970772e+00 2.171132e+00 3.085747e+00
<GCONST> 1.081482e+02
<TRANSP> 5
 0.000000e+00 1.000000e+00 0.000000e+00 0.000000e+00 0.000000e+00
 0.000000e+00 8.531545e-01 1.468454e-01 0.000000e+00 0.000000e+00
 0.000000e+00 0.000000e+00 7.622405e-01 2.377595e-01 0.000000e+00
 0.000000e+00 0.000000e+00 0.000000e+00 7.842433e-01 2.157567e-01
 0.000000e+00 0.000000e+00 0.000000e+00 0.000000e+00 0.000000e+00
<ENDHMM>
~h "h"
<BEGINHMM>
<NUMSTATES> 5
<STATE> 2
<MEAN> 25
 -2.594344e+00 -1.241597e-01 5.992350e-01 3.713489e+00 3.765507e+00 3.644514e+00 3.515155e+00 2.766443e+00 1.424243e+00 2.320054e+00 1.928920e+00 5.657793e-03 2.014987e-02 4.003645e-02 -3.222202e-02 -8.833507e-02 1.635536e-02 6.876321e-02 5.761196e-03 -6.202232e-02 -4.162290e-02 6.918589e-02 -2.916415e-02 -1.186004e-02 -4.391138e-03
<VARIANCE> 25
 5.934455e+00 1.600449e+01 1.069830e+01 2.664467e+01 1.285135e+01 1.508647e+01 1.953924e+01 1.642721e+01 1.603121e+01 1.720546e+01 1.596560e+01 1.343693e+01 2.583215e-01 4.049744e-01 5.125099e-01 8.839446e-01 9.408964e-01 1.018092e+00 1.221720e+00 1.315525e+00 1.346422e+00 1.364393e+00 1.285613e+00 1.151152e+00 2.397645e-01
<GCONST> 7.513435e+01
<STATE> 3
<MEAN> 25
 -1.384503e+00 -1.247306e+00 -1.209357e+00 -1.696736e+00 4.307123e+00 4.603368e+00 1.375391e+00 1.070960e+00 1.677987e-01 1.005519e+00 7.254076e-02 -7.041865e-02 2.866041e-01 5.755616e-02 -1.724626e-01 -4.356266e-01 -1.386869e-01 -1.226522e-01 -2.782840e-01 -2.802979e-01 -2.267707e-01 -1.846511e-01 -1.739057e-01 -9.450282e-03 2.185087e-01
<VARIANCE> 25
 1.800590e+01 3.539745e+01 2.006386e+01 7.051472e+01 1.969124e+01 3.087968e+01 3.958564e+01 2.593635e+01 2.338946e+01 2.435396e+01 2.396715e+01 1.988388e+01 9.298262e-01 7.163641e-01 7.599939e-01 1.611002e+00 1.161169e+00 1.463613e+00 1.805594e+00 1.932920e+00 1.937409e+00 1.724531e+00 1.708571e+00 1.504102e+00 6.366423e-01
<GCONST> 8.878993e+01
<STATE> 4
<MEAN> 25
 5.689356e+00 -1.068742e+00 -5.168283e+00 -1.131551e+01 1.722360e+00 -1.058595e-01 -4.783240e+00 -4.203900e+00 -2.764393e+00 -2.016849e+00 -4.361684e+00 -1.988131e+00 3.538831e-01 1.772732e-01 -1.554184e-01 -2.181923e-01 -2.244417e-01 -3.869824e-01 -1.948089e-01 -2.008070e-01 -6.829228e-02 -2.929158e-02 -2.573809e-01 -1.322021e-01 1.901166e-01
<VARIANCE> 25
 3.626264e+01 3.651243e+01 2.884758e+01 9.757712e+01 3.976355e+01 3.981486e+01 3.995667e+01 3.495200e+01 3.380033e+01 2.790490e+01 2.842558e+01 2.039449e+01 1.342852e+00 1.186824e+00 9.116185e-01 2.216969e+00 1.769097e+00 2.129817e+00 2.237118e+00 2.250222e+00 2.092362e+00 1.849264e+00 1.781599e+00 1.385518e+00 1.264562e+00
<GCONST> 9.550263e+01
<TRANSP> 5
 0.000000e+00 1.000000e+00 0.000000e+00 0.000000e+00 0.000000e+00
 0.000000e+00 9.427034e-01 5.729660e-02 0.000000e+00 0.000000e+00
 0.000000e+00 0.000000e+00 7.499948e-01 2.500053e-01 0.000000e+00
 0.000000e+00 0.000000e+00 0.000000e+00 8.599228e-01 1.400772e-01
 0.000000e+00 0.000000e+00 0.000000e+00 0.000000e+00 0.000000e+00
<ENDHMM>
~h "i"
<BEGINHMM>
<NUMSTATES> 5
<STATE> 2
<MEAN> 25
 2.452155e+00 1.849416e+00 1.165642e+01 -9.420967e+00 -1.293756e+01 -1.679943e+00 -1.053376e+01 -7.759770e+00 3.691089e-01 -9.406580e-01 -3.570670e+00 1.595299e+00 -2.657763e-02 2.419183e-01 3.058002e-01 -1.525990e-01 -3.597010e-01 1.451004e-01 -3.998918e-01 -1.457697e-01 -5.999866e-02 -6.732877e-02 -5.688787e-02 8.500814e-02 -3.474718e-02
<VARIANCE> 25
 3.055639e+01 1.054705e+02 6.036655e+01 7.510669e+01 6.904868e+01 3.583618e+01 8.289793e+01 4.414057e+01 2.480936e+01 3.577037e+01 3.043509e+01 2.513351e+01 2.567580e+00 4.402055e+00 6.238222e+00 7.713655e+00 7.123500e+00 3.802833e+00 8.470566e+00 5.069630e+00 2.658592e+00 3.809796e+00 3.295068e+00 2.827101e+00 5.185377e+00
<GCONST> 1.114418e+02
<STATE> 3
<MEAN> 25
 4.273529e-01 2.435173e+00 6.448565e+00 -3.547615e+00 -9.371106e+00 -2.934850e-01 -5.901214e+00 -4.049964e+00 -2.975174e-03 -1.137460e-01 -1.098810e+00 1.046957e+00 -3.267234e-01 -6.149403e-01 -1.051715e+00 1.354208e+00 1.172675e+00 3.333952e-01 1.426997e+00 1.033238e+00 -1.266221e-02 1.336200e-01 6.125913e-01 -2.320406e-01 -8.165658e-01
<VARIANCE> 25
 2.796271e+01 7.862856e+01 4.597254e+01 6.330228e+01 7.916985e+01 4.122213e+01 8.033260e+01 4.309052e+01 3.049887e+01 3.622550e+01 3.583218e+01 2.518882e+01 1.568749e+00 4.374356e+00 3.020534e+00 3.737315e+00 4.402737e+00 3.535219e+00 5.646043e+00 3.792939e+00 3.131695e+00 3.926035e+00 2.791904e+00 2.317537e+00 3.199864e+00
<GCONST> 1.073697e+02
<STATE> 4
<MEAN> 25
 -2.952371e+00 2.601031e+00 1.745524e+00 3.222271e+00 -7.268631e-02 1.848217e+00 1.755656e+00 1.477333e+00 8.425310e-01 2.263915e+00 2.039503e+00 1.161729e-01 -9.168541e-02 -2.289560e-01 -3.805539e-01 4.530543e-01 5.646605e-01 -1.756703e-02 4.745854e-01 3.958844e-01 -6.534888e-02 -2.253286e-02 1.329024e-01 -4.974420e-02 -2.540154e-01
<VARIANCE> 25
 2.822222e+01 6.071599e+01 2.439182e+01 2.991562e+01 6.157869e+01 3.259224e+01 4.426969e+01 2.974724e+01 2.297775e+01 2.878680e+01 2.479817e+01 1.692142e+01 8.061372e-01 2.052850e+00 1.696627e+00 1.842205e+00 2.330643e+00 2.259785e+00 2.936555e+00 2.154813e+00 2.056991e+00 2.174220e+00 1.980594e+00 1.540671e+00 1.407575e+00
<GCONST> 9.541219e+01
<TRANSP> 5
 0.000000e+00 1.000000e+00 0.000000e+00 0.000000e+00 0.000000e+00
 0.000000e+00 8.564771e-01 1.435229e-01 0.000000e+00 0.000000e+00
 0.000000e+00 0.000000e+00 6.380340e-01 3.619660e-01 0.000000e+00
 0.000000e+00 0.000000e+00 0.000000e+00 8.079839e-01 1.920160e-01
 0.000000e+00 0.000000e+00 0.000000e+00 0.000000e+00 0.000000e+00
<ENDHMM>
~h "j"
<BEGINHMM>
<NUMSTATES> 5
<STATE> 2
<MEAN> 25
 -1.577729e+00 3.577776e-01 1.256462e-01 2.496131e+00 3.694581e+00 2.532291e+00 1.415410e+00 1.994089e+00 1.391000e+00 1.736328e+00 3.396187e+00 6.920097e-01 -3.230452e-02 5.705541e-02 4.693574e-02 -9.548944e-02 -8.241466e-02 -3.220864e-02 9.726293e-02 -1.364950e-01 4.873320e-02 -1.699443e-03 -1.304848e-01 -9.490025e-03 1.560928e-01
<VARIANCE> 25
 6.942028e+00 1.041451e+01 8.863056e+00 1.236519e+01 1.884995e+01 1.537544e+01 2.530161e+01 2.082769e+01 1.961982e+01 2.452149e+01 2.090762e+01 1.475944e+01 5.831985e-01 4.289952e-01 7.324973e-01 8.535795e-01 1.709729e+00 1.176340e+00 2.060848e+00 1.689347e+00 1.780041e+00 1.908856e+00 1.648070e+00 1.642339e+00 8.153358e-01
<GCONST> 8.087479e+01
<STATE> 3
<MEAN> 25
 -3.449090e-01 6.941283e-01 1.235056e+00 -4.575630e-01 -8.086696e-01 -3.382676e-01 1.001806e+00 -5.805276e-01 4.419545e-01 6.154935e-01 6.096895e-01 -1.468210e-01 -3.938494e-02 3.712667e-02 1.278519e-01 -3.769485e-01 -3.473759e-01 -2.594329e-01 3.670180e-02 -1.624686e-01 -3.026469e-02 -4.221448e-03 -1.332424e-01 -1.160379e-01 4.776335e-01
<VARIANCE> 25
 2.393910e+01 2.511008e+01 2.033873e+01 3.934126e+01 7.158308e+01 3.398166e+01 3.973508e+01 2.697758e+01 3.227372e+01 4.028136e+01 2.902019e+01 1.548337e+01 2.634614e+00 1.672879e+00 2.270277e+00 1.998470e+00 7.712874e+00 1.971430e+00 4.267859e+00 2.382731e+00 2.728945e+00 2.731675e+00 1.913339e+00 1.387460e+00 2.784179e+00
<GCONST> 9.912802e+01
<STATE> 4
<MEAN> 25
 -1.112956e+00 1.263895e+00 1.324755e+00 -8.226311e-01 -2.005075e+00 -1.285160e+00 2.199906e+00 -4.368115e-01 3.778594e-03 1.508810e+00 4.046685e-02 -1.919032e-01 -1.479092e-01 -9.627428e-02 2.681552e-02 -1.424216e-02 -1.481887e-01 -4.863907e-02 6.531506e-02 6.714336e-02 5.328104e-02 -9.306239e-02 -8.760901e-02 4.577842e-02 2.665163e-01
<VARIANCE> 25
 2.453979e+01 1.261091e+01 1.704149e+01 3.239405e+01 7.788544e+01 5.045139e+01 2.900123e+01 2.127695e+01 2.797890e+01 3.829078e+01 4.439074e+01 1.102914e+01 2.493521e+00 9.961527e-01 1.688144e+00 1.373009e+00 5.456748e+00 2.417717e+00 2.442548e+00 2.179213e+00 2.695138e+00 2.467302e+00 2.190457e+00 1.172972e+00 1.736361e+00
<GCONST> 9.525902e+01
<TRANSP> 5
 0.000000e+00 1.000000e+00 0.000000e+00 0.000000e+00 0.000000e+00
 0.000000e+00 9.339170e-01 6.608306e-02 0.000000e+00 0.000000e+00
 0.000000e+00 0.000000e+00 8.472682e-01 1.527318e-01 0.000000e+00
 0.000000e+00 0.000000e+00 0.000000e+00 9.533479e-01 4.665211e-02
 0.000000e+00 0.000000e+00 0.000000e+00 0.000000e+00 0.000000e+00
<ENDHMM>
~h "k"
<BEGINHMM>
<NUMSTATES> 5
<STATE> 2
<MEAN> 25
 -5.652298e-01 -1.057213e+00 -1.858314e+00 9.478899e-01 2.395643e+00 1.596041e+00 1.149052e+00 1.325292e+00 1.263626e+00 1.936843e+00 4.895887e-02 -4.375110e-01 3.794743e-01 -4.906846e-01 -8.377019e-01 -8.207439e-01 1.974539e-01 -1.160894e-01 -2.743609e-01 -1.599943e-01 -1.288503e-01 -5.938222e-02 -5.148565e-01 -1.191499e-03 9.912695e-01
<VARIANCE> 25
 2.156966e+01 4.680912e+01 3.693100e+01 4.490365e+01 2.853917e+01 3.749333e+01 3.808619e+01 3.227246e+01 2.332259e+01 3.514634e+01 3.112868e+01 1.537715e+01 2.042404e+00 3.004793e+00 4.225941e+00 5.002334e+00 2.580536e+00 3.831182e+00 3.258824e+00 3.870932e+00 3.082510e+00 3.382864e+00 3.497354e+00 1.675183e+00 5.570390e+00
<GCONST> 1.027687e+02
<STATE> 3
<MEAN> 25
 1.242704e+00 -3.070260e+00 -3.541781e+00 -2.059015e+00 2.297152e+00 2.984274e-01 3.291936e-01 -2.370956e-01 5.048848e-01 3.964905e-01 -1.937514e+00 -5.531940e-01 5.048053e-01 -4.144032e-01 -3.425355e-01 -7.155152e-01 -3.290753e-02 -3.043007e-01 -2.035482e-01 -4.405400e-01 -2.718704e-01 -3.621176e-01 -4.026823e-01 -2.139775e-02 8.760296e-01
<VARIANCE> 25
 3.186631e+01 5.944483e+01 3.755554e+01 6.595634e+01 3.078771e+01 5.719759e+01 4.283761e+01 4.498866e+01 2.887636e+01 4.968610e+01 4.197722e+01 1.796772e+01 2.550505e+00 3.099755e+00 3.289019e+00 4.601452e+00 2.755614e+00 3.496832e+00 3.520978e+00 4.052557e+00 2.921018e+00 3.822540e+00 3.168998e+00 1.849032e+00 4.927526e+00
<GCONST> 1.057242e+02
<STATE> 4
<MEAN> 25
 1.818696e+00 -4.587628e+00 -2.548643e+00 -1.555504e+00 2.197596e+00 5.329319e-01 1.987327e-01 -2.898377e-01 1.922800e-01 -9.015225e-01 -1.418922e+00 -2.319416e-01 1.918294e-01 -4.705211e-02 -1.004762e-01 -1.738724e-01 -3.813099e-02 9.600411e-03 -1.449199e-01 -1.179261e-01 -1.137926e-01 -1.532772e-01 1.554914e-02 6.869522e-02 1.582487e-01
<VARIANCE> 25
 3.977575e+01 8.659685e+01 3.256066e+01 7.277378e+01 2.704061e+01 4.836491e+01 4.006837e+01 4.228768e+01 2.740741e+01 5.080188e+01 4.051349e+01 1.786770e+01 2.404690e+00 3.238642e+00 2.361302e+00 3.241143e+00 2.277839e+00 3.116562e+00 3.131107e+00 3.523708e+00 2.591232e+00 2.902322e+00 2.726771e+00 1.797505e+00 5.066872e+00
<GCONST> 1.039750e+02
<TRANSP> 5
 0.000000e+00 1.000000e+00 0.000000e+00 0.000000e+00 0.000000e+00
 0.000000e+00 6.445358e-01 3.554642e-01 0.000000e+00 0.000000e+00
 0.000000e+00 0.000000e+00 5.955776e-01 4.044224e-01 0.000000e+00
 0.000000e+00 0.000000e+00 0.000000e+00 7.243437e-01 2.756563e-01
 0.000000e+00 0.000000e+00 0.000000e+00 0.000000e+00 0.000000e+00
<ENDHMM>
~h "l"
<BEGINHMM>
<NUMSTATES> 5
<STATE> 2
<MEAN> 25
 9.538260e+00 -4.274317e+00 -7.350665e+00 -1.039452e+01 4.900314e-01 -5.257962e+00 -4.447823e+00 -7.158700e+00 -2.257799e+00 -4.922133e+00 -6.974005e+00 -2.563819e+00 6.076857e-02 1.850391e-01 -2.272202e-02 1.543720e-01 -1.462022e-02 -2.100582e-02 -3.594080e-01 -5.783670e-03 2.778788e-01 7.030719e-02 3.342830e-03 4.708814e-02 -1.207584e-01
<VARIANCE> 25
 1.461583e+01 5.866045e+01 3.792038e+01 4.173907e+01 4.365143e+01 3.660535e+01 6.713749e+01 3.563431e+01 4.725145e+01 2.839466e+01 3.432751e+01 2.160717e+01 5.800863e-01 1.266328e+00 1.358020e+00 1.816185e+00 1.984713e+00 1.703033e+00 1.910995e+00 1.771087e+00 2.483578e+00 1.655096e+00 1.713773e+00 1.490332e+00 6.719989e-01
<GCONST> 9.402005e+01
<STATE> 3
<MEAN> 25
 7.817287e+00 -3.132030e+00 -4.299688e+00 -6.857560e+00 -1.048560e+00 -4.485649e+00 -6.899963e+00 -5.570174e+00 6.995965e-01 -3.641722e+00 -5.536129e+00 -6.744138e-01 -4.993236e-01 7.306755e-02 8.475353e-01 6.959172e-01 -5.791764e-01 -4.257951e-02 1.362138e-02 3.619331e-01 9.684887e-02 -4.873116e-02 3.472750e-01 4.538592e-01 -2.829213e-01
<VARIANCE> 25
 3.113572e+01 6.704173e+01 5.138523e+01 4.943511e+01 6.519797e+01 5.067752e+01 5.848420e+01 5.083656e+01 4.719898e+01 3.694554e+01 3.813671e+01 2.398874e+01 1.113424e+00 1.469533e+00 2.672218e+00 2.079313e+00 4.303963e+00 2.679412e+00 2.632451e+00 3.101062e+00 3.166617e+00 2.316854e+00 2.599613e+00 2.123071e+00 9.582956e-01
<GCONST> 1.022241e+02
<STATE> 4
<MEAN> 25
 2.860497e+00 -1.485985e+00 -7.179042e-01 -2.096000e+00 -7.530475e-01 -1.652552e+00 -3.598852e+00 -1.300971e+00 1.108646e+00 -2.136701e+00 -1.421752e+00 9.514059e-01 -6.361576e-01 1.658210e-01 9.495408e-01 4.229593e-01 -6.404154e-01 1.955728e-01 4.161497e-01 2.955737e-01 -2.263232e-01 1.696491e-01 3.930599e-01 2.800679e-01 -3.120782e-01
<VARIANCE> 25
 4.332337e+01 5.547944e+01 4.089317e+01 5.025233e+01 7.494547e+01 5.977582e+01 7.154702e+01 5.434752e+01 4.148790e+01 4.746872e+01 5.441454e+01 2.046198e+01 1.117339e+00 1.335044e+00 3.114077e+00 1.805673e+00 5.746428e+00 2.622199e+00 2.428244e+00 3.349095e+00 3.146742e+00 3.025883e+00 2.767244e+00 1.905451e+00 1.035732e+00
<GCONST> 1.035199e+02
<TRANSP> 5
 0.000000e+00 1.000000e+00 0.000000e+00 0.000000e+00 0.000000e+00
 0.000000e+00 8.644173e-01 1.355827e-01 0.000000e+00 0.000000e+00
 0.000000e+00 0.000000e+00 6.277441e-01 3.722559e-01 0.000000e+00
 0.000000e+00 0.000000e+00 0.000000e+00 6.426611e-01 3.573389e-01
 0.000000e+00 0.000000e+00 0.000000e+00 0.000000e+00 0.000000e+00
<ENDHMM>
~h "m"
<BEGINHMM>
<NUMSTATES> 5
<STATE> 2
<MEAN> 25
 6.890869e+00 -2.477968e+00 3.091794e+00 -1.493702e+00 -2.655493e+00 -8.010083e+00 -1.057535e+01 -6.334015e+00 -4.385151e+00 -7.236067e+00 -1.890183e+00 -2.074637e+00 1.710348e-01 -7.710915e-02 7.022180e-02 -5.680230e-02 -8.655912e-02 -3.236470e-01 -3.933727e-01 -2.320989e-02 -3.407384e-01 -4.263636e-01 2.137213e-02 -1.801078e-02 3.031921e-01
<VARIANCE> 25
 2.955264e+01 1.101493e+02 2.296070e+01 3.729165e+01 4.467663e+01 4.701451e+01 4.675971e+01 6.043633e+01 3.134882e+01 4.963494e+01 2.832193e+01 2.323479e+01 1.740905e+00 4.432411e+00 2.047264e+00 3.843658e+00 3.279778e+00 3.487110e+00 3.636978e+00 4.818622e+00 3.177417e+00 3.648488e+00 2.008106e+00 2.237543e+00 4.348197e+00
<GCONST> 1.050527e+02
<STATE> 3
<MEAN> 25
 6.333960e+00 -2.553001e+00 2.931232e+00 -1.836160e+00 -2.704226e+00 -7.702237e+00 -9.602959e+00 -4.277915e+00 -4.734886e+00 -8.234937e+00 -1.248670e+00 -8.284100e-01 -3.626713e-01 1.611714e-01 -1.253532e-01 1.302436e-01 7.638953e-02 3.007731e-01 4.200590e-01 4.961144e-01 1.525197e-01 -1.584967e-03 9.036236e-02 2.489730e-01 -4.046080e-01
<VARIANCE> 25
 2.688908e+01 1.178063e+02 2.378784e+01 3.608529e+01 4.622173e+01 5.199519e+01 5.343580e+01 6.099242e+01 2.825621e+01 6.651455e+01 2.762808e+01 2.614054e+01 1.537596e+00 3.236915e+00 1.858217e+00 2.548391e+00 2.726475e+00 3.016966e+00 3.386250e+00 4.041044e+00 2.497395e+00 3.934516e+00 2.223053e+00 2.225596e+00 3.284417e+00
<GCONST> 1.037142e+02
<STATE> 4
<MEAN> 25
 2.848701e+00 -1.915775e-01 2.012691e+00 -5.127461e-02 -2.089992e+00 -4.304689e+00 -5.607104e+00 -1.611753e+00 -3.047422e+00 -5.865156e+00 -7.451932e-01 4.020355e-01 -7.338196e-01 2.021275e-01 -2.652012e-01 2.567903e-01 1.616094e-01 6.890987e-01 8.265482e-01 5.563571e-01 5.462428e-01 5.727227e-01 1.754698e-01 1.572097e-01 -6.519968e-01
<VARIANCE> 25
 3.279953e+01 1.025059e+02 2.766130e+01 3.070308e+01 3.639045e+01 4.783155e+01 6.285999e+01 3.927261e+01 3.086991e+01 7.637875e+01 2.626748e+01 2.462004e+01 1.920729e+00 2.789626e+00 1.833370e+00 1.833002e+00 2.520501e+00 2.763187e+00 3.582258e+00 3.502645e+00 2.568459e+00 4.267583e+00 2.267077e+00 2.021061e+00 2.769167e+00
<GCONST> 1.026185e+02
<TRANSP> 5
 0.000000e+00 1.000000e+00 0.000000e+00 0.000000e+00 0.000000e+00
 0.000000e+00 8.401881e-01 1.598119e-01 0.000000e+00 0.000000e+00
 0.000000e+00 0.000000e+00 7.631059e-01 2.368942e-01 0.000000e+00
 0.000000e+00 0.000000e+00 0.000000e+00 7.135581e-01 2.864418e-01
 0.000000e+00 0.000000e+00 0.000000e+00 0.000000e+00 0.000000e+00
<ENDHMM>
~h "n"
<BEGINHMM>
<NUMSTATES> 5
<STATE> 2
<MEAN> 25
 4.342297e+00 3.173892e+00 3.820918e+00 1.087912e+00 -6.835932e+00 -8.717171e+00 -5.963257e+00 -3.444027e+00 -3.771559e+00 -5.156051e+00 -3.462218e-01 -1.179179e+00 -2.477422e-01 1.144929e-01 -2.661254e-03 1.940515e-01 3.069562e-01 1.224916e-01 3.320778e-02 2.458383e-02 -8.032167e-02 1.451418e-01 2.148636e-01 -1.038925e-01 -3.562492e-01
<VARIANCE> 25
 2.126801e+01 2.033965e+01 1.832320e+01 1.951768e+01 5.382836e+01 5.029371e+01 4.941018e+01 2.954076e+01 2.646359e+01 4.648997e+01 2.277410e+01 1.731391e+01 6.838434e-01 1.301153e+00 1.059732e+00 1.159685e+00 1.877052e+00 2.535357e+00 2.605805e+00 2.403136e+00 2.106165e+00 2.689406e+00 2.089186e+00 1.625814e+00 1.057753e+00
<GCONST> 9.267500e+01
<STATE> 3
<MEAN> 25
 9.163177e-01 2.602533e+00 2.630745e+00 2.479585e+00 -2.729894e+00 -3.610903e+00 -2.376591e+00 -1.128401e+00 -2.551123e+00 -2.591650e+00 1.210987e+00 -4.339595e-01 -4.116301e-01 -8.547740e-02 -2.169938e-01 1.078714e-01 6.276125e-01 6.883932e-01 5.067953e-01 3.816150e-01 2.671151e-01 4.819119e-01 2.917663e-01 4.455855e-02 -3.858059e-01
<VARIANCE> 25
 2.285567e+01 2.296922e+01 1.936755e+01 1.977060e+01 4.583397e+01 5.960564e+01 5.358049e+01 3.381934e+01 2.970441e+01 4.956577e+01 2.330042e+01 1.778566e+01 6.714906e-01 9.243658e-01 8.967708e-01 9.462692e-01 1.503227e+00 2.238606e+00 2.719840e+00 2.600425e+00 2.455531e+00 2.815429e+00 2.219493e+00 1.509874e+00 6.077557e-01
<GCONST> 9.206795e+01
<STATE> 4
<MEAN> 25
 -2.315596e+00 1.799817e+00 2.249562e-02 3.675171e+00 3.040887e+00 2.965506e+00 3.094329e+00 2.336354e+00 1.002763e+00 2.677654e+00 2.378172e+00 7.724913e-03 -3.975103e-02 2.710022e-02 -4.188550e-02 -7.973380e-03 6.561457e-02 6.112852e-02 5.378920e-02 6.793682e-03 5.944063e-02 9.971812e-02 1.026664e-02 -9.508448e-03 -2.779232e-02
<VARIANCE> 25
 9.735600e+00 1.798341e+01 1.151451e+01 1.252682e+01 2.029330e+01 2.540450e+01 2.550668e+01 1.888710e+01 1.911168e+01 2.447996e+01 1.740452e+01 1.268154e+01 3.011964e-01 4.563587e-01 5.762193e-01 7.378018e-01 1.046349e+00 1.397133e+00 1.438093e+00 1.535346e+00 1.485941e+00 1.620226e+00 1.503137e+00 1.101441e+00 3.456819e-01
<GCONST> 7.870385e+01
<TRANSP> 5
 0.000000e+00 1.000000e+00 0.000000e+00 0.000000e+00 0.000000e+00
 0.000000e+00 8.292640e-01 1.707359e-01 0.000000e+00 0.000000e+00
 0.000000e+00 0.000000e+00 7.298560e-01 2.701440e-01 0.000000e+00
 0.000000e+00 0.000000e+00 0.000000e+00 9.584802e-01 4.151976e-02
 0.000000e+00 0.000000e+00 0.000000e+00 0.000000e+00 0.000000e+00
<ENDHMM>
~h "o"
<BEGINHMM>
<NUMSTATES> 5
<STATE> 2
<MEAN> 25
 8.181693e+00 -8.923846e-01 -4.851990e+00 -1.484473e+01 -2.940494e+00 -1.987061e+00 -4.432188e+00 -8.157857e+00 -4.013996e+00 -2.361973e-01 -6.045400e+00 -8.819785e-01 4.913263e-01 -1.562324e-01 -2.339188e-01 -2.397260e-01 -3.819991e-02 -4.421761e-01 -1.394926e-01 -4.468240e-01 -4.284060e-02 -3.101952e-01 -1.122165e-01 -2.342113e-01 3.942209e-01
<VARIANCE> 25
 2.576492e+01 4.111829e+01 8.299226e+01 6.802827e+01 7.056374e+01 4.012661e+01 3.785904e+01 4.923263e+01 3.291987e+01 3.241614e+01 2.993383e+01 2.211212e+01 1.743152e+00 1.361485e+00 3.128109e+00 4.660514e+00 2.898663e+00 3.132143e+00 2.526315e+00 3.315212e+00 2.855905e+00 2.820789e+00 2.402869e+00 1.654616e+00 1.886781e+00
<GCONST> 1.024745e+02
<STATE> 3
<MEAN> 25
 8.345283e+00 -1.906608e+00 -5.165490e+00 -1.177328e+01 -1.782103e+00 -2.928752e+00 -4.809585e+00 -7.412446e+00 -2.385005e+00 -1.318656e+00 -4.740010e+00 -1.855893e+00 -3.430413e-01 6.095564e-02 4.693092e-01 1.089295e+00 -1.240919e-01 -2.939776e-01 -1.328138e-02 1.442819e-02 3.743464e-01 -7.055929e-02 8.908805e-02 4.877767e-02 -4.445960e-01
<VARIANCE> 25
 2.285680e+01 4.142366e+01 6.142210e+01 7.438300e+01 5.496198e+01 3.864280e+01 4.815676e+01 4.540646e+01 2.690418e+01 3.545112e+01 3.465564e+01 1.711536e+01 1.106467e+00 1.314480e+00 3.091705e+00 3.954285e+00 3.229232e+00 2.980417e+00 2.797357e+00 2.690052e+00 2.459605e+00 2.287471e+00 2.687675e+00 1.399695e+00 1.550928e+00
<GCONST> 1.004759e+02
<STATE> 4
<MEAN> 25
 5.829104e+00 -1.283985e+00 -3.341560e+00 -6.461447e+00 -1.002904e+00 -2.371273e+00 -3.776976e+00 -5.520008e+00 -5.613020e-01 -1.118389e+00 -3.228775e+00 -1.211102e+00 -6.168006e-01 1.576895e-01 8.378752e-01 1.286034e+00 -1.787343e-01 -1.283366e-01 9.815728e-02 2.252427e-01 3.738703e-01 -1.833478e-02 1.938297e-01 1.598437e-01 -6.014908e-01
<VARIANCE> 25
 3.044185e+01 4.055806e+01 5.113832e+01 7.847321e+01 4.588633e+01 4.373717e+01 6.161109e+01 6.064360e+01 2.515271e+01 3.301577e+01 3.554235e+01 1.804085e+01 1.103957e+00 1.118064e+00 2.333698e+00 2.901526e+00 2.559575e+00 2.451450e+00 2.674461e+00 2.383752e+00 2.361056e+00 2.094357e+00 2.379171e+00 1.360083e+00 1.025306e+00
<GCONST> 9.898811e+01
<TRANSP> 5
 0.000000e+00 1.000000e+00 0.000000e+00 0.000000e+00 0.000000e+00
 0.000000e+00 8.270965e-01 1.729035e-01 0.000000e+00 0.000000e+00
 0.000000e+00 0.000000e+00 6.793036e-01 3.206964e-01 0.000000e+00
 0.000000e+00 0.000000e+00 0.000000e+00 5.549344e-01 4.450656e-01
 0.000000e+00 0.000000e+00 0.000000e+00 0.000000e+00 0.000000e+00
<ENDHMM>
~h "p"
<BEGINHMM>
<NUMSTATES> 5
<STATE> 2
<MEAN> 25
 4.933067e+00 -6.284544e+00 -2.084598e+00 -2.773006e+00 -2.176878e+00 -2.143288e+00 -4.468714e-01 -1.725464e+00 -7.765632e-01 -2.833000e+00 -2.262157e+00 -1.099087e+00 8.509555e-01 -1.145359e+00 -3.654743e-01 -9.630860e-01 -7.107570e-01 -6.350695e-01 -1.762296e-01 -3.065903e-01 -2.493022e-01 -7.669556e-01 -5.018624e-01 -5.969439e-02 1.650515e+00
<VARIANCE> 25
 3.963138e+01 8.194459e+01 2.870155e+01 5.455610e+01 5.109754e+01 4.845407e+01 4.489313e+01 4.326610e+01 3.401907e+01 4.831969e+01 3.453952e+01 2.045695e+01 3.961318e+00 7.769320e+00 2.872367e+00 5.364741e+00 4.151951e+00 4.249092e+00 4.334300e+00 5.147859e+00 3.410446e+00 4.796565e+00 3.999620e+00 2.050554e+00 1.045527e+01
<GCONST> 1.101233e+02
<STATE> 3
<MEAN> 25
 5.519341e+00 -7.488519e+00 -2.199501e+00 -4.627153e+00 -5.043999e+00 -4.311029e+00 6.691677e-01 -2.618721e+00 -2.332870e+00 -4.727812e+00 -2.734483e+00 -7.649249e-01 -1.384200e-01 1.627541e-01 8.927657e-02 -3.478788e-01 -2.754104e-01 1.196727e-01 -9.871223e-02 -1.751232e-02 -1.507252e-01 -1.655327e-01 6.452021e-02 1.810372e-01 1.481092e-01
<VARIANCE> 25
 4.070771e+01 7.524020e+01 2.981831e+01 4.674284e+01 5.778221e+01 5.391475e+01 6.152508e+01 4.825877e+01 3.969550e+01 4.614667e+01 3.736894e+01 2.238329e+01 4.581851e+00 5.655903e+00 2.409720e+00 6.500970e+00 4.634665e+00 5.400355e+00 4.749770e+00 5.385450e+00 3.521507e+00 5.610896e+00 4.790110e+00 2.480873e+00 7.397341e+00
<GCONST> 1.114241e+02
<STATE> 4
<MEAN> 25
 4.845792e-01 -2.947934e+00 -1.705977e+00 -1.733389e+00 -3.306164e+00 -1.156485e-02 1.973934e+00 2.763127e-01 -7.397590e-01 -2.078829e+00 -3.958172e-01 -1.198774e-01 -4.552773e-01 5.763172e-01 1.305794e-01 1.579604e-01 3.126573e-01 3.507535e-01 -6.020037e-02 2.326129e-01 1.849842e-01 2.685040e-01 1.410309e-01 5.081565e-02 -4.122189e-01
<VARIANCE> 25
 5.427315e+01 8.952208e+01 2.730151e+01 5.170529e+01 5.846178e+01 5.360650e+01 5.082566e+01 4.374990e+01 3.016854e+01 3.862396e+01 3.206831e+01 1.808613e+01 2.702699e+00 3.423550e+00 1.662788e+00 4.107103e+00 3.671901e+00 3.992438e+00 3.668858e+00 3.966175e+00 2.808421e+00 3.598918e+00 3.747555e+00 2.142642e+00 3.350770e+00
<GCONST> 1.059831e+02
<TRANSP> 5
 0.000000e+00 1.000000e+00 0.000000e+00 0.000000e+00 0.000000e+00
 0.000000e+00 7.997922e-01 2.002078e-01 0.000000e+00 0.000000e+00
 0.000000e+00 0.000000e+00 7.237335e-01 2.762664e-01 0.000000e+00
 0.000000e+00 0.000000e+00 0.000000e+00 7.530674e-01 2.469326e-01
 0.000000e+00 0.000000e+00 0.000000e+00 0.000000e+00 0.000000e+00
<ENDHMM>
~h "r"
<BEGINHMM>
<NUMSTATES> 5
<STATE> 2
<MEAN> 25
 2.822711e+00 -7.845846e+00 1.088011e+00 -1.847497e+00 -4.009606e+00 -7.883288e-01 -1.066558e+00 1.795532e-01 -2.597163e-01 -4.508139e+00 -1.500949e+00 -8.564190e-02 -2.554427e-01 9.744895e-02 2.317704e-01 3.449185e-01 2.545744e-02 2.829072e-01 -2.346579e-01 2.921690e-01 1.864808e-01 -3.482617e-02 3.484012e-01 5.042933e-02 -4.551563e-01
<VARIANCE> 25
 5.940997e+01 1.187582e+02 3.558669e+01 5.103069e+01 5.610179e+01 4.340018e+01 6.027972e+01 4.208418e+01 4.592324e+01 4.947933e+01 3.766954e+01 2.161830e+01 2.839266e+00 3.283798e+00 3.143351e+00 2.073987e+00 3.525424e+00 3.306678e+00 3.793860e+00 4.241329e+00 4.049924e+00 3.322646e+00 3.864715e+00 2.040741e+00 2.980966e+00
<GCONST> 1.074785e+02
<STATE> 3
<MEAN> 25
 1.018201e+00 -5.150643e+00 1.094148e+00 1.414093e-01 -3.121557e+00 9.938129e-02 -7.417055e-01 1.239968e+00 3.447327e-01 -3.257851e+00 -8.503587e-02 8.342049e-02 -1.985975e-01 3.182115e-01 1.387231e-01 3.067400e-01 2.457525e-01 1.433955e-01 -7.937238e-02 1.343293e-01 3.887838e-02 2.619060e-01 2.921744e-01 -6.701822e-03 -6.005011e-01
<VARIANCE> 25
 5.428805e+01 9.732319e+01 3.856198e+01 4.187060e+01 6.038058e+01 4.009304e+01 5.535975e+01 4.008316e+01 4.278115e+01 4.781887e+01 3.805081e+01 2.119480e+01 2.354027e+00 2.772398e+00 3.064721e+00 1.571179e+00 3.711960e+00 3.142186e+00 3.579961e+00 3.438679e+00 3.380886e+00 3.255476e+00 3.390456e+00 1.835742e+00 2.143017e+00
<GCONST> 1.051227e+02
<STATE> 4
<MEAN> 25
 -1.798303e+00 3.038252e-01 1.254016e+00 3.413594e+00 1.431587e+00 1.548429e+00 1.229942e+00 2.563646e+00 1.133311e+00 5.643301e-01 1.520810e+00 -6.463160e-02 4.986470e-03 2.126883e-01 3.467129e-02 8.463048e-02 1.159486e-01 -6.235202e-02 -1.233825e-02 -9.355474e-02 -7.638338e-02 1.536768e-01 -2.762078e-02 -2.928956e-02 -2.856317e-01
<VARIANCE> 25
 2.591023e+01 6.173764e+01 2.357556e+01 2.385019e+01 4.346920e+01 2.240243e+01 3.288713e+01 2.531249e+01 2.615129e+01 3.209523e+01 2.429591e+01 1.528275e+01 1.084227e+00 1.396786e+00 1.562935e+00 1.060246e+00 2.237129e+00 1.640610e+00 2.001044e+00 2.061662e+00 2.083005e+00 2.103142e+00 2.061504e+00 1.304867e+00 1.143462e+00
<GCONST> 9.215009e+01
<TRANSP> 5
 0.000000e+00 1.000000e+00 0.000000e+00 0.000000e+00 0.000000e+00
 0.000000e+00 6.569490e-01 3.430510e-01 0.000000e+00 0.000000e+00
 0.000000e+00 0.000000e+00 5.935847e-01 4.064153e-01 0.000000e+00
 0.000000e+00 0.000000e+00 0.000000e+00 8.391031e-01 1.608969e-01
 0.000000e+00 0.000000e+00 0.000000e+00 0.000000e+00 0.000000e+00
<ENDHMM>
~h "s"
<BEGINHMM>
<NUMSTATES> 5
<STATE> 2
<MEAN> 25
 -6.638828e+00 4.515166e-01 -2.318803e+00 3.580479e+00 -1.054076e+00 1.355501e+00 3.915374e+00 1.908004e+00 2.238794e+00 2.123124e+00 2.057637e+00 -5.722847e-02 1.855537e-02 -4.671113e-01 -9.972052e-02 -2.338327e-01 -1.592248e-01 9.490919e-03 -2.796891e-01 -1.341637e-02 3.234557e-01 1.293190e-01 1.775598e-01 4.234481e-02 5.112032e-01
<VARIANCE> 25
 5.275789e+01 7.700007e+01 3.498310e+01 2.999897e+01 3.577320e+01 3.954157e+01 5.374234e+01 2.873466e+01 2.402222e+01 3.826035e+01 2.516175e+01 1.710626e+01 5.383785e+00 4.793876e+00 2.224427e+00 3.426644e+00 2.367292e+00 3.326261e+00 5.318124e+00 3.648245e+00 3.004445e+00 4.096829e+00 3.510987e+00 1.524544e+00 3.772296e+00
<GCONST> 1.045238e+02
<STATE> 3
<MEAN> 25
 -3.921663e+00 -1.645848e+00 -1.871275e+00 1.480860e+00 -1.695998e+00 1.047411e+00 1.105193e+00 6.048495e-01 2.327837e+00 1.324454e+00 1.557425e+00 2.229898e-02 1.099885e+00 -3.405046e-01 2.507265e-01 -9.398249e-01 -3.413638e-01 -3.430775e-01 -1.025252e+00 -7.112169e-01 -1.472656e-01 -4.047871e-01 -3.689820e-01 1.480993e-02 7.787599e-01
<VARIANCE> 25
 8.035918e+01 9.318751e+01 4.063630e+01 5.958827e+01 4.033944e+01 4.689968e+01 7.271595e+01 3.948764e+01 2.477680e+01 4.046904e+01 3.008718e+01 1.734620e+01 5.908477e+00 5.611055e+00 2.679757e+00 5.079374e+00 3.080511e+00 3.862538e+00 6.426040e+00 4.838991e+00 2.806864e+00 3.805853e+00 3.719590e+00 1.752512e+00 5.087864e+00
<GCONST> 1.092316e+02
<STATE> 4
<MEAN> 25
 2.743583e+00 -6.126899e+00 1.241048e+00 -3.481344e+00 -4.456695e+00 1.634367e-01 -3.397576e+00 -1.762951e+00 7.522649e-01 -1.760579e+00 -3.518255e-03 -8.189300e-02 4.516482e-01 1.080645e-01 2.168389e-01 -3.381014e-01 -2.283544e-01 -2.207899e-01 -4.201125e-01 -3.314097e-01 -1.774402e-01 -2.158036e-01 -2.966361e-01 -2.447496e-02 7.367352e-02
<VARIANCE> 25
 1.093582e+02 1.681912e+02 6.092806e+01 9.312054e+01 6.129722e+01 4.553889e+01 8.650449e+01 6.098166e+01 3.088299e+01 5.038557e+01 3.359796e+01 2.192505e+01 4.772542e+00 6.142694e+00 3.142298e+00 6.332355e+00 3.833437e+00 3.935492e+00 6.032441e+00 5.238073e+00 3.037068e+00 3.715330e+00 3.052683e+00 2.435843e+00 6.629888e+00
<GCONST> 1.137243e+02
<TRANSP> 5
 0.000000e+00 1.000000e+00 0.000000e+00 0.000000e+00 0.000000e+00
 0.000000e+00 6.633296e-01 3.366704e-01 0.000000e+00 0.000000e+00
 0.000000e+00 0.000000e+00 6.231371e-01 3.768629e-01 0.000000e+00
 0.000000e+00 0.000000e+00 0.000000e+00 7.829129e-01 2.170871e-01
 0.000000e+00 0.000000e+00 0.000000e+00 0.000000e+00 0.000000e+00
<ENDHMM>
~h "t"
<BEGINHMM>
<NUMSTATES> 5
<STATE> 2
<MEAN> 25
 -4.594099e-01 -9.790285e-01 -5.875309e-01 2.436459e+00 2.232010e+00 1.282939e+00 1.439687e+00 1.456944e+00 1.157456e+00 3.848180e-01 2.564203e-01 4.771412e-02 -2.009652e-01 4.829904e-02 -1.015651e-01 4.595150e-02 1.774914e-01 5.027980e-02 2.040356e-01 2.094365e-01 1.210425e-01 1.993183e-01 1.099081e-01 1.313182e-01 -1.345297e-01
<VARIANCE> 25
 2.088406e+01 6.222989e+01 1.763111e+01 3.506443e+01 3.532224e+01 2.721613e+01 3.219997e+01 2.292709e+01 1.847002e+01 3.757202e+01 2.508426e+01 1.625689e+01 1.311040e+00 4.010591e+00 1.283343e+00 1.957597e+00 2.358293e+00 2.654816e+00 3.215813e+00 2.393804e+00 1.874538e+00 3.033612e+00 2.376286e+00 1.495684e+00 5.148318e+00
<GCONST> 9.667049e+01
<STATE> 3
<MEAN> 25
 -8.650748e-01 -9.068039e-01 -8.551638e-01 2.428977e+00 2.409414e+00 1.148997e+00 1.798203e+00 1.789845e+00 1.463562e+00 7.423709e-01 4.456081e-01 3.367428e-01 2.210295e-02 -1.964472e-01 -1.611040e-01 -2.739170e-01 -7.789008e-02 -1.987306e-01 -4.517073e-02 2.465440e-02 1.351144e-01 -7.258424e-03 -1.691311e-02 1.016633e-01 5.755131e-01
<VARIANCE> 25
 1.913797e+01 5.814923e+01 1.730640e+01 3.316440e+01 3.576514e+01 2.934575e+01 3.412201e+01 2.438450e+01 1.911924e+01 3.522079e+01 2.316686e+01 1.615889e+01 1.701920e+00 3.925544e+00 1.514093e+00 2.568659e+00 2.577610e+00 3.262435e+00 3.254476e+00 2.619625e+00 2.136543e+00 2.959288e+00 2.344404e+00 1.571889e+00 7.135266e+00
<GCONST> 9.807505e+01
<STATE> 4
<MEAN> 25
 4.905820e-01 -3.707006e+00 -1.344757e+00 2.504728e-02 9.062130e-01 6.768743e-02 6.539000e-01 1.195257e+00 1.737842e+00 -6.051086e-01 -5.808001e-01 5.351623e-01 2.964053e-01 -1.657331e-01 -2.191801e-01 -5.305004e-01 -3.325129e-01 -3.348326e-01 -3.504221e-01 -4.282587e-01 -2.662546e-02 -2.314343e-01 -1.691660e-01 1.896142e-02 9.217262e-01
<VARIANCE> 25
 3.329644e+01 8.337954e+01 1.962081e+01 4.799237e+01 5.439893e+01 3.632894e+01 4.785093e+01 3.151683e+01 2.306172e+01 4.209159e+01 2.790638e+01 1.657956e+01 3.010848e+00 4.975204e+00 2.078129e+00 4.348931e+00 3.849696e+00 4.125409e+00 4.245637e+00 3.755618e+00 2.622538e+00 3.402404e+00 2.593243e+00 1.767412e+00 9.743951e+00
<GCONST> 1.050761e+02
<TRANSP> 5
 0.000000e+00 1.000000e+00 0.000000e+00 0.000000e+00 0.000000e+00
 0.000000e+00 6.484197e-01 3.515802e-01 0.000000e+00 0.000000e+00
 0.000000e+00 0.000000e+00 6.517814e-01 3.482186e-01 0.000000e+00
 0.000000e+00 0.000000e+00 0.000000e+00 7.789241e-01 2.210759e-01
 0.000000e+00 0.000000e+00 0.000000e+00 0.000000e+00 0.000000e+00
<ENDHMM>
~h "u"
<BEGINHMM>
<NUMSTATES> 5
<STATE> 2
<MEAN> 25
 2.996345e+00 4.020862e+00 -2.884740e+00 -3.261562e+00 -3.622159e+00 -6.271571e+00 -4.281373e+00 -2.999310e+00 -2.393694e+00 -6.795747e-01 -1.855595e-01 8.023995e-01 -1.342326e-02 1.839767e-01 5.166304e-02 -1.599188e-01 -1.031978e-01 -1.711683e-01 -7.103466e-02 6.914169e-02 -7.139406e-02 7.549581e-02 6.308316e-02 3.860126e-02 3.807813e-02
<VARIANCE> 25
 6.876765e+01 2.768341e+01 2.314781e+01 5.197915e+01 3.640882e+01 5.375673e+01 8.823763e+01 4.077927e+01 3.733436e+01 3.871783e+01 2.419906e+01 2.408283e+01 4.919947e+00 1.956565e+00 2.073674e+00 4.151862e+00 2.757014e+00 3.818925e+00 7.510327e+00 3.742885e+00 3.860773e+00 3.649771e+00 2.609601e+00 2.457537e+00 2.063745e+00
<GCONST> 1.053388e+02
<STATE> 3
<MEAN> 25
 4.724762e-01 3.581262e+00 -2.032431e+00 -2.433644e+00 -2.605813e+00 -5.079681e+00 -1.514531e+00 -1.288083e+00 -1.808447e+00 6.183064e-01 2.236070e-01 4.204236e-01 -4.139269e-01 -8.668613e-02 1.412171e-01 1.798495e-01 2.553682e-01 3.494742e-01 5.187727e-01 2.944572e-01 1.605545e-01 1.829549e-01 1.213620e-01 -6.132468e-02 -1.311022e-01
<VARIANCE> 25
 8.083334e+01 2.783705e+01 1.740368e+01 5.345189e+01 3.848383e+01 5.077266e+01 8.363931e+01 3.746749e+01 3.331038e+01 4.119981e+01 2.604727e+01 2.101921e+01 3.406759e+00 1.481173e+00 1.502148e+00 3.323441e+00 2.320087e+00 2.702589e+00 4.973596e+00 2.934082e+00 3.284430e+00 3.294259e+00 2.271968e+00 1.920831e+00 1.582059e+00
<GCONST> 1.017147e+02
<STATE> 4
<MEAN> 25
 -8.929501e-01 1.883036e+00 -1.186633e+00 -3.566048e-01 -7.951401e-02 -1.166239e+00 1.767465e+00 5.317354e-01 -4.519643e-01 1.903443e+00 1.162283e+00 5.797993e-02 -8.712768e-02 -1.547136e-01 8.578926e-02 2.453298e-01 1.974073e-01 2.659525e-01 2.073612e-01 9.967886e-02 1.351907e-01 1.792207e-02 1.903687e-02 -5.837798e-02 -1.118025e-01
<VARIANCE> 25
 6.831067e+01 2.863942e+01 1.486370e+01 5.659072e+01 3.340732e+01 3.846686e+01 5.772351e+01 3.007768e+01 2.509188e+01 3.740390e+01 2.434139e+01 1.682317e+01 1.222300e+00 1.098277e+00 9.155701e-01 2.031387e+00 1.606051e+00 1.941703e+00 2.318161e+00 1.945015e+00 2.263125e+00 2.226646e+00 1.910887e+00 1.504587e+00 9.480014e-01
<GCONST> 9.391611e+01
<TRANSP> 5
 0.000000e+00 1.000000e+00 0.000000e+00 0.000000e+00 0.000000e+00
 0.000000e+00 7.875683e-01 2.124317e-01 0.000000e+00 0.000000e+00
 0.000000e+00 0.000000e+00 7.465877e-01 2.534123e-01 0.000000e+00
 0.000000e+00 0.000000e+00 0.000000e+00 8.416330e-01 1.583670e-01
 0.000000e+00 0.000000e+00 0.000000e+00 0.000000e+00 0.000000e+00
<ENDHMM>
~h "w"
<BEGINHMM>
<NUMSTATES> 5
<STATE> 2
<MEAN> 25
 -1.574336e+00 -1.459947e+00 -1.071255e+00 2.574432e+00 4.566004e+00 2.644295e+00 2.447473e+00 1.824219e+00 1.901482e+00 2.324632e+00 2.533902e+00 4.350725e-01 -4.614226e-02 2.987124e-02 -1.247231e-03 1.097140e-01 -1.033240e-02 6.201418e-02 9.089770e-02 -1.544124e-03 2.033571e-02 1.098345e-01 7.056542e-02 2.502487e-02 -1.345735e-01
<VARIANCE> 25
 9.775221e+00 1.529698e+01 5.964966e+00 1.299929e+01 2.023627e+01 1.660186e+01 2.328731e+01 2.256494e+01 1.756134e+01 2.010341e+01 2.305918e+01 1.605458e+01 7.788482e-01 5.599366e-01 4.275355e-01 8.628250e-01 1.079585e+00 1.001181e+00 1.495983e+00 1.486553e+00 1.440166e+00 1.468289e+00 1.514701e+00 1.423186e+00 2.942318e-01
<GCONST> 7.851063e+01
<STATE> 3
<MEAN> 25
 1.900583e-01 2.127266e-02 -1.669878e+00 1.698657e+00 2.648702e+00 1.756457e+00 2.163854e+00 -7.769714e-02 3.036402e-01 2.148509e+00 1.388594e+00 -7.277212e-01 3.126602e-01 1.124654e-01 -1.084713e-01 -4.297803e-01 -1.675888e-01 -3.112219e-01 -3.282657e-01 -2.031551e-01 -2.919595e-01 -2.261391e-01 -1.732279e-01 -1.685275e-01 2.509453e-01
<VARIANCE> 25
 1.848114e+01 1.330935e+01 7.340641e+00 2.939948e+01 1.804267e+01 3.392110e+01 3.249089e+01 2.909592e+01 1.801494e+01 2.576713e+01 2.366285e+01 1.581452e+01 8.990055e-01 8.907362e-01 5.637001e-01 1.793848e+00 1.754638e+00 1.893493e+00 2.408648e+00 1.736257e+00 1.643701e+00 2.146841e+00 1.391063e+00 1.239950e+00 6.986550e-01
<GCONST> 8.602795e+01
<STATE> 4
<MEAN> 25
 3.873746e+00 -2.426640e+00 -4.563684e+00 -4.625393e+00 4.754415e+00 -1.078218e+00 -1.525161e+00 -3.423500e+00 -5.084475e-01 6.843979e-02 -2.010615e+00 -2.744785e+00 -2.010980e-02 -1.189150e-01 -1.985169e-02 -5.878052e-03 6.869059e-02 -1.252533e-02 -5.965190e-02 3.443003e-02 -1.072413e-02 -8.905333e-02 -5.514571e-02 6.089259e-02 1.532125e-01
<VARIANCE> 25
 6.055233e+01 4.021585e+01 1.802177e+01 7.601362e+01 5.345181e+01 3.633400e+01 3.767170e+01 5.493666e+01 3.193227e+01 2.479487e+01 3.168258e+01 1.977721e+01 1.455732e+00 2.062432e+00 7.052109e-01 2.598911e+00 3.664704e+00 2.636694e+00 2.078640e+00 3.218695e+00 2.467254e+00 1.729748e+00 1.626536e+00 1.546165e+00 1.429008e+00
<GCONST> 9.789283e+01
<TRANSP> 5
 0.000000e+00 1.000000e+00 0.000000e+00 0.000000e+00 0.000000e+00
 0.000000e+00 9.585504e-01 4.144964e-02 0.000000e+00 0.000000e+00
 0.000000e+00 0.000000e+00 8.344956e-01 1.655044e-01 0.000000e+00
 0.000000e+00 0.000000e+00 0.000000e+00 9.674410e-01 3.255906e-02
 0.000000e+00 0.000000e+00 0.000000e+00 0.000000e+00 0.000000e+00
<ENDHMM>
~h "x"
<BEGINHMM>
<NUMSTATES> 5
<STATE> 2
<MEAN> 25
 -5.059707e+00 -4.676065e+00 -1.690959e+00 5.722441e+00 -6.664321e+00 1.939662e+00 3.294306e+00 6.088702e+00 1.088048e+00 -1.372739e+00 4.524231e+00 1.768822e+00 -1.178446e+00 4.775338e-01 -6.478732e-01 6.174228e-01 -4.933899e-01 2.117508e-01 4.923617e-01 5.786041e-01 -2.267432e-01 -3.082304e-02 5.790438e-01 2.192910e-01 6.626267e-01
<VARIANCE> 25
 3.541651e+01 9.426530e+01 4.932405e+01 2.867298e+01 4.772234e+01 4.680898e+01 2.697018e+01 4.235074e+01 2.314207e+01 2.332612e+01 2.060307e+01 1.868547e+01 2.339704e+00 4.910193e+00 3.729020e+00 2.523625e+00 5.534356e+00 4.705160e+00 2.194030e+00 3.823083e+00 2.421261e+00 2.675921e+00 1.983086e+00 2.050482e+00 5.228653e+00
<GCONST> 1.033063e+02
<STATE> 3
<MEAN> 25
 -9.217958e+00 1.939056e+00 -4.435384e+00 7.010268e+00 -5.944366e+00 3.804383e+00 5.202753e+00 6.565819e+00 -3.729226e-03 5.575118e-01 5.567793e+00 1.453340e+00 -3.054280e-01 7.592348e-01 -2.083784e-01 -1.305040e-01 3.738972e-01 4.783837e-01 1.357521e-01 4.050797e-02 6.659421e-02 5.253789e-01 1.129217e-01 -2.206634e-01 -4.530501e-01
<VARIANCE> 25
 2.625393e+01 5.608027e+01 2.035490e+01 1.241372e+01 4.996301e+01 3.694624e+01 2.814370e+01 4.533122e+01 1.802183e+01 2.311616e+01 1.906949e+01 1.507241e+01 1.407022e+00 1.806710e+00 1.848531e+00 1.033180e+00 2.225156e+00 3.028641e+00 2.115634e+00 2.193645e+00 1.999161e+00 2.649665e+00 1.537618e+00 1.764291e+00 8.432037e-01
<GCONST> 9.265627e+01
<STATE> 4
<MEAN> 25
 -9.107052e+00 1.154066e+01 -3.702437e+00 5.725872e+00 3.157256e+00 1.898580e+00 7.172919e+00 6.498077e+00 1.113204e+00 4.530237e+00 3.086303e+00 2.377746e-01 1.679050e-01 3.634927e-02 1.147764e-01 -7.232039e-02 2.993316e-01 -3.485517e-03 -3.399852e-02 1.951906e-03 1.737820e-02 4.786601e-02 -1.031497e-01 -2.884950e-02 -3.287378e-01
<VARIANCE> 25
 2.689289e+01 7.753925e+01 1.444757e+01 1.119832e+01 6.508789e+01 2.598058e+01 4.082610e+01 3.266558e+01 1.690328e+01 2.496060e+01 2.301664e+01 1.570526e+01 1.690107e+00 1.352059e+00 1.299244e+00 9.074743e-01 1.575971e+00 1.500311e+00 2.320804e+00 1.734141e+00 1.609543e+00 1.375228e+00 1.684964e+00 1.301443e+00 1.251777e+00
<GCONST> 9.028804e+01
<TRANSP> 5
 0.000000e+00 1.000000e+00 0.000000e+00 0.000000e+00 0.000000e+00
 0.000000e+00 8.100582e-01 1.899419e-01 0.000000e+00 0.000000e+00
 0.000000e+00 0.000000e+00 6.605656e-01 3.394344e-01 0.000000e+00
 0.000000e+00 0.000000e+00 0.000000e+00 9.516020e-01 4.839807e-02
 0.000000e+00 0.000000e+00 0.000000e+00 0.000000e+00 0.000000e+00
<ENDHMM>
~h "y"
<BEGINHMM>
<NUMSTATES> 5
<STATE> 2
<MEAN> 25
 1.291269e+00 4.263812e+00 8.129069e+00 -7.298617e+00 -1.283991e+01 -2.746738e+00 -7.009692e+00 -5.271456e+00 -4.306090e+00 9.951091e-01 -7.629389e+00 8.603595e-01 -1.752178e-01 2.274476e-01 3.217136e-01 1.063899e-02 -1.757173e-01 3.940626e-01 4.139807e-02 -5.882202e-02 8.318351e-02 1.537188e-01 1.593187e-01 -1.146213e-02 -2.354252e-01
<VARIANCE> 25
 1.186339e+01 7.056350e+01 2.976583e+01 3.672922e+01 6.815707e+01 4.344185e+01 7.155846e+01 2.695897e+01 3.871729e+01 3.405802e+01 2.308545e+01 2.194892e+01 7.948158e-01 2.795403e+00 2.312942e+00 1.941418e+00 4.595980e+00 2.743866e+00 4.602580e+00 2.512654e+00 3.193289e+00 2.893389e+00 1.956994e+00 2.380627e+00 6.143604e-01
<GCONST> 9.920205e+01
<STATE> 3
<MEAN> 25
 6.802244e-01 -9.813466e-02 4.613045e+00 -3.585512e+00 -5.651457e+00 -3.021646e-01 -3.048307e+00 -3.355577e+00 -2.017426e+00 -8.385737e-01 -2.645143e+00 1.851240e+00 -1.110454e-01 -6.286625e-01 -7.064054e-01 6.996898e-01 1.307804e+00 1.896822e-01 4.494789e-01 5.190454e-01 1.587333e-01 -4.726998e-01 6.909648e-01 1.117032e-01 -6.146858e-01
<VARIANCE> 25
 2.955930e+01 5.701521e+01 4.403496e+01 4.166268e+01 5.927783e+01 5.521757e+01 5.937486e+01 3.012991e+01 2.851373e+01 6.172926e+01 4.537192e+01 2.215367e+01 1.167516e+00 2.382273e+00 1.990249e+00 2.364089e+00 2.831723e+00 3.373540e+00 4.763534e+00 2.161761e+00 3.021891e+00 3.563119e+00 2.608606e+00 2.333269e+00 8.949919e-01
<GCONST> 1.020922e+02
<STATE> 4
<MEAN> 25
 -9.426216e-01 -1.028930e+00 -3.076667e-01 2.106571e+00 2.385599e+00 2.312206e+00 2.374134e+00 1.611044e+00 7.261040e-01 2.316217e-01 1.806801e+00 3.710854e-01 -1.358716e-02 -1.125892e-02 -1.060346e-01 1.327840e-01 1.100317e-01 -3.217100e-02 4.811832e-02 9.810373e-02 7.150970e-02 -9.781719e-03 9.623487e-03 -4.051206e-02 -1.070780e-01
<VARIANCE> 25
 1.234323e+01 1.834936e+01 1.000959e+01 1.322838e+01 1.548258e+01 2.278309e+01 4.641388e+01 1.761530e+01 2.166691e+01 3.476920e+01 2.778848e+01 1.628708e+01 4.616946e-01 6.208122e-01 7.867424e-01 8.058139e-01 1.116683e+00 1.181918e+00 1.860693e+00 1.363178e+00 1.776181e+00 1.417076e+00 1.651457e+00 1.398571e+00 3.960395e-01
<GCONST> 8.190400e+01
<TRANSP> 5
 0.000000e+00 1.000000e+00 0.000000e+00 0.000000e+00 0.000000e+00
 0.000000e+00 9.184425e-01 8.155750e-02 0.000000e+00 0.000000e+00
 0.000000e+00 0.000000e+00 7.517543e-01 2.482457e-01 0.000000e+00
 0.000000e+00 0.000000e+00 0.000000e+00 9.557710e-01 4.422902e-02
 0.000000e+00 0.000000e+00 0.000000e+00 0.000000e+00 0.000000e+00
<ENDHMM>
~h "z"
<BEGINHMM>
<NUMSTATES> 5
<STATE> 2
<MEAN> 25
 -8.580424e+00 1.350726e+01 -2.457261e+00 3.442934e+00 6.318047e+00 -3.872980e-01 8.081657e+00 4.710466e+00 -6.652244e-01 5.989789e+00 1.255781e+00 -1.537697e+00 4.208881e-01 -6.385949e-01 3.418468e-01 -2.811980e-01 3.422717e-01 2.341964e-01 -9.368569e-01 -2.053918e-01 -1.988255e-01 -4.726860e-01 -2.664471e-01 -1.646746e-01 7.418756e-01
<VARIANCE> 25
 4.335180e+01 7.735362e+01 2.042677e+01 1.948712e+01 3.202673e+01 2.554052e+01 2.664785e+01 4.209822e+01 1.536049e+01 1.677694e+01 1.945799e+01 1.720266e+01 5.030533e+00 5.323284e+00 1.111301e+00 2.260005e+00 3.496036e+00 3.160197e+00 3.240703e+00 4.439358e+00 2.386158e+00 2.589584e+00 1.946558e+00 2.701494e+00 6.240407e+00
<GCONST> 9.973511e+01
<STATE> 3
<MEAN> 25
 -2.449897e+00 4.899406e+00 -1.346845e+00 1.388274e+00 4.853225e+00 1.032075e+00 1.802274e+00 -5.207548e-02 -1.900859e+00 1.367719e+00 -1.176161e+00 -2.168635e+00 1.662882e+00 -2.440048e+00 2.219612e-01 -7.280925e-01 1.194192e-02 4.056041e-01 -1.647033e+00 -7.936852e-01 -5.352558e-01 -1.465748e+00 -3.660550e-01 3.578250e-01 2.656181e+00
<VARIANCE> 25
 8.952382e+01 2.209284e+02 2.692068e+01 4.191113e+01 4.731275e+01 5.680481e+01 8.521194e+01 5.674712e+01 2.335088e+01 4.896962e+01 2.320343e+01 2.127064e+01 6.796896e+00 1.195784e+01 1.565509e+00 3.537678e+00 7.353473e+00 5.825809e+00 5.023424e+00 5.597272e+00 3.237792e+00 3.429353e+00 2.305273e+00 3.819521e+00 1.124600e+01
<GCONST> 1.126973e+02
<STATE> 4
<MEAN> 25
 1.532594e+00 -2.432010e+00 2.367996e+00 -2.103672e+00 -2.359783e+00 1.254976e-01 -9.992011e-01 -5.218454e-01 -4.524698e-01 -1.312367e+00 -5.780420e-01 -3.606465e-02 4.935242e-02 -9.712209e-02 1.139770e-02 -4.038945e-02 -5.028465e-02 -1.929299e-02 -5.468321e-02 1.270622e-03 1.627303e-02 -2.863452e-02 1.013258e-02 1.226102e-02 8.979991e-02
<VARIANCE> 25
 1.068191e+02 2.480157e+02 6.097768e+01 8.275102e+01 9.570480e+01 5.167265e+01 1.080621e+02 7.124111e+01 3.159541e+01 6.011226e+01 2.997636e+01 2.445097e+01 3.471096e+00 8.127800e+00 3.280775e+00 4.239735e+00 4.294969e+00 3.494065e+00 4.588189e+00 3.626070e+00 2.721116e+00 3.182971e+00 2.537985e+00 2.336913e+00 7.830392e+00
<GCONST> 1.137487e+02
<TRANSP> 5
 0.000000e+00 1.000000e+00 0.000000e+00 0.000000e+00 0.000000e+00
 0.000000e+00 6.672192e-01 3.327807e-01 0.000000e+00 0.000000e+00
 0.000000e+00 0.000000e+00 6.113593e-01 3.886406e-01 0.000000e+00
 0.000000e+00 0.000000e+00 0.000000e+00 9.935741e-01 6.425859e-03
 0.000000e+00 0.000000e+00 0.000000e+00 0.000000e+00 0.000000e+00
<ENDHMM>
~h "ah"
<BEGINHMM>
<NUMSTATES> 5
<STATE> 2
<MEAN> 25
 -1.684587e-08 -6.193333e-08 -4.487690e-08 3.351832e-08 -6.047171e-08 2.058664e-08 -6.607048e-08 -2.205446e-08 -8.534414e-09 2.910867e-08 3.022347e-08 -1.071447e-09 -2.678578e-03 2.715191e-03 1.970940e-04 1.666228e-04 1.831201e-03 -7.320007e-04 3.372927e-03 1.125320e-03 -7.564414e-05 2.413395e-03 8.106225e-04 -2.148533e-03 -1.727290e-03
<VARIANCE> 25
 4.499385e+01 7.342516e+01 3.566479e+01 5.718780e+01 5.546888e+01 4.305736e+01 6.020990e+01 4.209700e+01 2.990068e+01 4.475465e+01 3.376802e+01 1.839641e+01 1.592596e+00 2.317776e+00 1.700131e+00 2.390033e+00 2.486403e+00 2.357601e+00 2.972100e+00 2.655601e+00 2.270027e+00 2.542916e+00 2.264997e+00 1.647762e+00 2.549860e+00
<GCONST> 1.014657e+02
<STATE> 3
<MEAN> 25
 -1.684587e-08 -6.193333e-08 -4.487690e-08 3.351832e-08 -6.047171e-08 2.058664e-08 -6.607048e-08 -2.205446e-08 -8.534414e-09 2.910867e-08 3.022347e-08 -1.071447e-09 -2.678578e-03 2.715191e-03 1.970940e-04 1.666228e-04 1.831201e-03 -7.320007e-04 3.372927e-03 1.125320e-03 -7.564414e-05 2.413395e-03 8.106225e-04 -2.148533e-03 -1.727290e-03
<VARIANCE> 25
 4.499385e+01 7.342516e+01 3.566479e+01 5.718780e+01 5.546888e+01 4.305736e+01 6.020990e+01 4.209700e+01 2.990068e+01 4.475465e+01 3.376802e+01 1.839641e+01 1.592596e+00 2.317776e+00 1.700131e+00 2.390033e+00 2.486403e+00 2.357601e+00 2.972100e+00 2.655601e+00 2.270027e+00 2.542916e+00 2.264997e+00 1.647762e+00 2.549860e+00
<GCONST> 1.014657e+02
<STATE> 4
<MEAN> 25
 -1.684587e-08 -6.193333e-08 -4.487690e-08 3.351832e-08 -6.047171e-08 2.058664e-08 -6.607048e-08 -2.205446e-08 -8.534414e-09 2.910867e-08 3.022347e-08 -1.071447e-09 -2.678578e-03 2.715191e-03 1.970940e-04 1.666228e-04 1.831201e-03 -7.320007e-04 3.372927e-03 1.125320e-03 -7.564414e-05 2.413395e-03 8.106225e-04 -2.148533e-03 -1.727290e-03
<VARIANCE> 25
 4.499385e+01 7.342516e+01 3.566479e+01 5.718780e+01 5.546888e+01 4.305736e+01 6.020990e+01 4.209700e+01 2.990068e+01 4.475465e+01 3.376802e+01 1.839641e+01 1.592596e+00 2.317776e+00 1.700131e+00 2.390033e+00 2.486403e+00 2.357601e+00 2.972100e+00 2.655601e+00 2.270027e+00 2.542916e+00 2.264997e+00 1.647762e+00 2.549860e+00
<GCONST> 1.014657e+02
<TRANSP> 5
 0.000000e+00 1.000000e+00 0.000000e+00 0.000000e+00 0.000000e+00
 0.000000e+00 6.000000e-01 4.000000e-01 0.000000e+00 0.000000e+00
 0.000000e+00 0.000000e+00 6.000000e-01 4.000000e-01 0.000000e+00
 0.000000e+00 0.000000e+00 0.000000e+00 7.000000e-01 3.000000e-01
 0.000000e+00 0.000000e+00 0.000000e+00 0.000000e+00 0.000000e+00
<ENDHMM>
~h "aw"
<BEGINHMM>
<NUMSTATES> 5
<STATE> 2
<MEAN> 25
 -1.684587e-08 -6.193333e-08 -4.487690e-08 3.351832e-08 -6.047171e-08 2.058664e-08 -6.607048e-08 -2.205446e-08 -8.534414e-09 2.910867e-08 3.022347e-08 -1.071447e-09 -2.678578e-03 2.715191e-03 1.970940e-04 1.666228e-04 1.831201e-03 -7.320007e-04 3.372927e-03 1.125320e-03 -7.564414e-05 2.413395e-03 8.106225e-04 -2.148533e-03 -1.727290e-03
<VARIANCE> 25
 4.499385e+01 7.342516e+01 3.566479e+01 5.718780e+01 5.546888e+01 4.305736e+01 6.020990e+01 4.209700e+01 2.990068e+01 4.475465e+01 3.376802e+01 1.839641e+01 1.592596e+00 2.317776e+00 1.700131e+00 2.390033e+00 2.486403e+00 2.357601e+00 2.972100e+00 2.655601e+00 2.270027e+00 2.542916e+00 2.264997e+00 1.647762e+00 2.549860e+00
<GCONST> 1.014657e+02
<STATE> 3
<MEAN> 25
 -1.684587e-08 -6.193333e-08 -4.487690e-08 3.351832e-08 -6.047171e-08 2.058664e-08 -6.607048e-08 -2.205446e-08 -8.534414e-09 2.910867e-08 3.022347e-08 -1.071447e-09 -2.678578e-03 2.715191e-03 1.970940e-04 1.666228e-04 1.831201e-03 -7.320007e-04 3.372927e-03 1.125320e-03 -7.564414e-05 2.413395e-03 8.106225e-04 -2.148533e-03 -1.727290e-03
<VARIANCE> 25
 4.499385e+01 7.342516e+01 3.566479e+01 5.718780e+01 5.546888e+01 4.305736e+01 6.020990e+01 4.209700e+01 2.990068e+01 4.475465e+01 3.376802e+01 1.839641e+01 1.592596e+00 2.317776e+00 1.700131e+00 2.390033e+00 2.486403e+00 2.357601e+00 2.972100e+00 2.655601e+00 2.270027e+00 2.542916e+00 2.264997e+00 1.647762e+00 2.549860e+00
<GCONST> 1.014657e+02
<STATE> 4
<MEAN> 25
 -1.684587e-08 -6.193333e-08 -4.487690e-08 3.351832e-08 -6.047171e-08 2.058664e-08 -6.607048e-08 -2.205446e-08 -8.534414e-09 2.910867e-08 3.022347e-08 -1.071447e-09 -2.678578e-03 2.715191e-03 1.970940e-04 1.666228e-04 1.831201e-03 -7.320007e-04 3.372927e-03 1.125320e-03 -7.564414e-05 2.413395e-03 8.106225e-04 -2.148533e-03 -1.727290e-03
<VARIANCE> 25
 4.499385e+01 7.342516e+01 3.566479e+01 5.718780e+01 5.546888e+01 4.305736e+01 6.020990e+01 4.209700e+01 2.990068e+01 4.475465e+01 3.376802e+01 1.839641e+01 1.592596e+00 2.317776e+00 1.700131e+00 2.390033e+00 2.486403e+00 2.357601e+00 2.972100e+00 2.655601e+00 2.270027e+00 2.542916e+00 2.264997e+00 1.647762e+00 2.549860e+00
<GCONST> 1.014657e+02
<TRANSP> 5
 0.000000e+00 1.000000e+00 0.000000e+00 0.000000e+00 0.000000e+00
 0.000000e+00 6.000000e-01 4.000000e-01 0.000000e+00 0.000000e+00
 0.000000e+00 0.000000e+00 6.000000e-01 4.000000e-01 0.000000e+00
 0.000000e+00 0.000000e+00 0.000000e+00 7.000000e-01 3.000000e-01
 0.000000e+00 0.000000e+00 0.000000e+00 0.000000e+00 0.000000e+00
<ENDHMM>
~h "ay"
<BEGINHMM>
<NUMSTATES> 5
<STATE> 2
<MEAN> 25
 2.547974e+00 5.448933e-01 1.355747e+00 -3.034718e+00 -3.237026e+00 -1.092430e+00 -3.228994e+00 -4.333554e-01 -5.551353e+00 -3.939989e+00 -3.943563e+00 -1.299974e+00 -1.248260e-01 6.542016e-02 1.375529e-01 -7.742194e-02 -9.040894e-02 1.483801e-01 -4.156562e-02 -7.603844e-02 6.233182e-02 5.242012e-02 -3.399818e-03 5.924365e-02 -8.989412e-02
<VARIANCE> 25
 1.534566e+01 2.141500e+01 3.989444e+01 4.387032e+01 8.735425e+01 3.359134e+01 4.519094e+01 3.430299e+01 5.888286e+01 6.407781e+01 4.471293e+01 3.610255e+01 4.189373e-01 9.605320e-01 1.480065e+00 1.617704e+00 2.816005e+00 1.916190e+00 2.280768e+00 2.003883e+00 2.696646e+00 2.069569e+00 1.912657e+00 1.243069e+00 5.308896e-01
<GCONST> 9.528224e+01
<STATE> 3
<MEAN> 25
 -1.753974e+00 4.480060e-01 6.185233e+00 -4.997917e+00 -7.201966e+00 6.851663e+00 -2.388189e+00 -2.033823e+00 -3.321872e-01 3.028777e-01 -4.142289e+00 1.018064e+00 -3.604849e-01 -2.783207e-01 -3.654479e-01 6.748246e-01 1.297624e+00 4.008913e-01 7.831277e-01 5.106165e-01 6.474299e-01 5.155343e-01 1.041642e+00 6.367152e-02 -7.992409e-01
<VARIANCE> 25
 9.853060e+00 9.074170e+00 2.077801e+01 2.956973e+01 7.051340e+01 2.269314e+01 4.754953e+01 3.192540e+01 3.159804e+01 2.697627e+01 4.705018e+01 1.296661e+01 6.607955e-01 7.341500e-01 1.291360e+00 1.478100e+00 2.189411e+00 2.184453e+00 3.397063e+00 1.824525e+00 3.054257e+00 2.530813e+00 2.100118e+00 1.532586e+00 3.273517e-01
<GCONST> 9.013510e+01
<STATE> 4
<MEAN> 25
 -2.188597e+00 -4.855109e-01 9.801905e-02 2.741511e+00 4.163160e+00 5.232458e+00 4.103934e+00 3.001251e+00 1.894980e+00 2.727694e+00 3.256139e+00 6.567733e-01 3.212007e-02 1.602615e-02 -1.263374e-01 1.668092e-01 1.733216e-01 -9.722204e-02 1.084867e-01 5.747266e-02 4.636750e-02 8.537668e-02 1.243590e-01 -1.580516e-02 -9.554970e-02
<VARIANCE> 25
 3.086215e+00 4.372660e+00 1.209047e+01 1.276011e+01 1.872305e+01 1.109104e+01 1.349323e+01 1.608429e+01 1.448039e+01 1.094970e+01 1.598040e+01 9.812271e+00 2.634119e-01 3.184611e-01 8.091325e-01 9.112423e-01 1.057061e+00 9.887245e-01 1.126918e+00 1.152483e+00 1.242310e+00 1.185985e+00 1.320652e+00 9.188427e-01 1.491872e-01
<GCONST> 7.062601e+01
<TRANSP> 5
 0.000000e+00 1.000000e+00 0.000000e+00 0.000000e+00 0.000000e+00
 0.000000e+00 9.807749e-01 1.922506e-02 0.000000e+00 0.000000e+00
 0.000000e+00 0.000000e+00 8.391901e-01 1.608099e-01 0.000000e+00
 0.000000e+00 0.000000e+00 0.000000e+00 9.759782e-01 2.402177e-02
 0.000000e+00 0.000000e+00 0.000000e+00 0.000000e+00 0.000000e+00
<ENDHMM>
~h "kh"
<BEGINHMM>
<NUMSTATES> 5
<STATE> 2
<MEAN> 25
 -1.197660e+00 1.279029e+00 -1.319710e+00 2.333812e+00 2.469290e+00 3.375374e+00 3.801598e+00 1.890162e+00 1.373122e+00 2.006979e+00 2.620548e+00 2.153541e-01 2.137749e-02 -5.272856e-03 -2.738790e-02 -2.120311e-03 5.378633e-02 7.500669e-03 1.655347e-02 -3.694487e-02 4.310926e-02 1.047587e-01 -7.716408e-02 -3.055646e-02 4.485871e-03
<VARIANCE> 25
 8.856907e+00 4.883891e+00 6.812577e+00 6.777116e+00 1.785938e+01 1.418581e+01 2.038470e+01 1.468868e+01 1.660124e+01 1.782328e+01 1.713066e+01 1.133760e+01 4.939744e-01 4.047232e-01 6.063281e-01 5.882500e-01 9.246684e-01 1.309356e+00 1.523214e+00 1.351242e+00 1.483980e+00 1.745843e+00 1.482793e+00 1.119745e+00 5.460209e-01
<GCONST> 7.486821e+01
<STATE> 3
<MEAN> 25
 -4.000023e+00 -2.566063e+00 -2.203562e+00 2.783962e+00 8.095788e+00 1.641822e+00 -1.284162e+00 2.714076e+00 6.506176e+00 4.467443e+00 -1.975199e+00 1.286384e+00 -8.920758e-01 -8.625339e-01 -2.777949e-02 -2.112408e-01 1.038553e+00 -6.029410e-01 -1.294962e+00 3.455481e-01 5.536330e-01 7.199927e-02 -5.742486e-01 3.622524e-01 2.059595e+00
<VARIANCE> 25
 1.619700e+01 2.238972e+01 2.404969e+01 8.956559e+00 3.946623e+01 2.193856e+01 5.539979e+01 2.253812e+01 2.901059e+01 1.917804e+01 2.972128e+01 2.017267e+01 1.038532e+00 1.625889e+00 3.059407e+00 1.485247e+00 3.851182e+00 2.956059e+00 6.360231e+00 3.065344e+00 3.875109e+00 2.031845e+00 3.028808e+00 1.949372e+00 6.074486e+00
<GCONST> 9.690738e+01
<STATE> 4
<MEAN> 25
 -6.523120e+00 -6.774524e+00 -6.278175e-01 1.523191e+00 8.375961e+00 -1.425802e+00 -3.222271e+00 8.618216e-01 4.800666e+00 2.435004e+00 -1.785086e+00 3.125726e+00 7.361077e-01 -6.648550e-01 5.470979e-02 -3.540040e-01 -7.567159e-01 -1.112474e+00 -2.870910e-01 -1.166867e+00 -1.126683e+00 -8.332404e-01 -6.217113e-02 1.562051e-01 4.813865e-01
<VARIANCE> 25
 2.280050e+01 3.354439e+01 3.304086e+01 1.300723e+01 3.114930e+01 3.393311e+01 4.399514e+01 5.123632e+01 3.321562e+01 2.395752e+01 2.236319e+01 2.231734e+01 4.164453e+00 1.840725e+00 2.442530e+00 1.629762e+00 3.020468e+00 3.260820e+00 4.626523e+00 4.469023e+00 4.259668e+00 2.962445e+00 1.951233e+00 2.423394e+00 2.363668e+00
<GCONST> 9.990926e+01
<TRANSP> 5
 0.000000e+00 1.000000e+00 0.000000e+00 0.000000e+00 0.000000e+00
 0.000000e+00 9.804225e-01 1.957749e-02 0.000000e+00 0.000000e+00
 0.000000e+00 0.000000e+00 7.248114e-01 2.751886e-01 0.000000e+00
 0.000000e+00 0.000000e+00 0.000000e+00 7.931040e-01 2.068960e-01
 0.000000e+00 0.000000e+00 0.000000e+00 0.000000e+00 0.000000e+00
<ENDHMM>
~h "ng"
<BEGINHMM>
<NUMSTATES> 5
<STATE> 2
<MEAN> 25
 4.367732e+00 3.239661e+00 2.186116e+00 4.290889e-01 -3.180934e+00 -5.757395e+00 -6.691068e+00 -5.200126e+00 -2.905126e+00 -4.865610e+00 -1.640617e+00 -8.131984e-02 -3.060649e-01 -3.242389e-02 -2.187885e-02 1.250623e-01 1.999714e-01 3.881820e-01 4.753852e-01 3.599228e-01 -1.452921e-01 2.748470e-01 1.361057e-01 2.038612e-03 -3.418132e-01
<VARIANCE> 25
 1.105735e+01 1.178728e+01 1.486531e+01 1.962239e+01 2.327164e+01 3.051735e+01 3.422139e+01 3.508348e+01 2.795151e+01 3.025367e+01 2.178797e+01 2.374974e+01 5.980856e-01 8.046124e-01 1.118815e+00 8.389416e-01 1.885138e+00 1.726925e+00 1.928797e+00 2.384354e+00 2.514418e+00 2.460311e+00 1.954267e+00 1.642704e+00 5.691417e-01
<GCONST> 8.747437e+01
<STATE> 3
<MEAN> 25
 1.498907e+00 1.783541e+00 6.874247e-01 1.137734e+00 -3.937246e-01 -1.230545e+00 -2.013997e+00 -1.605278e+00 -1.844998e+00 -2.284356e+00 -3.410070e-01 4.762217e-01 -4.315025e-01 -1.540045e-01 -1.635092e-01 7.110790e-02 4.686868e-01 5.904297e-01 6.394833e-01 5.268199e-01 4.292535e-01 6.040324e-01 2.835356e-01 -1.815284e-02 -3.574997e-01
<VARIANCE> 25
 1.730026e+01 1.039165e+01 1.423649e+01 1.731971e+01 2.804964e+01 3.905007e+01 4.348859e+01 3.645523e+01 3.584490e+01 4.115744e+01 2.346925e+01 1.955563e+01 5.734059e-01 9.194606e-01 1.069458e+00 9.200275e-01 1.848019e+00 1.949157e+00 2.673819e+00 2.389457e+00 3.156784e+00 2.793680e+00 2.093551e+00 1.516627e+00 6.394201e-01
<GCONST> 8.980408e+01
<STATE> 4
<MEAN> 25
 -1.029881e+00 1.043553e+00 -4.138717e-02 1.647266e+00 1.316009e+00 2.418211e+00 2.055730e+00 9.813233e-01 6.790285e-01 2.143831e+00 1.460965e+00 7.078354e-02 -4.035561e-02 -4.923544e-03 -6.641736e-03 2.360036e-02 3.686218e-02 3.813352e-02 6.098316e-02 3.511241e-02 2.583763e-02 3.094961e-02 1.780322e-02 -1.520690e-03 -2.076133e-02
<VARIANCE> 25
 1.626632e+01 1.895006e+01 1.243263e+01 1.958256e+01 2.799061e+01 3.090079e+01 3.658921e+01 2.758040e+01 2.951092e+01 3.268464e+01 1.984191e+01 1.488022e+01 6.185613e-01 6.760795e-01 6.422610e-01 1.158043e+00 1.449038e+00 1.621233e+00 1.894332e+00 1.723446e+00 1.901407e+00 1.805302e+00 1.595352e+00 1.364890e+00 3.642796e-01
<GCONST> 8.528289e+01
<TRANSP> 5
 0.000000e+00 1.000000e+00 0.000000e+00 0.000000e+00 0.000000e+00
 0.000000e+00 8.553131e-01 1.446870e-01 0.000000e+00 0.000000e+00
 0.000000e+00 0.000000e+00 7.509364e-01 2.490637e-01 0.000000e+00
 0.000000e+00 0.000000e+00 0.000000e+00 9.718548e-01 2.814523e-02
 0.000000e+00 0.000000e+00 0.000000e+00 0.000000e+00 0.000000e+00
<ENDHMM>
~h "ny"
<BEGINHMM>
<NUMSTATES> 5
<STATE> 2
<MEAN> 25
 -1.311788e+00 1.913622e+00 2.921398e+00 1.107444e+00 -4.871797e+00 -4.528804e+00 -2.731589e+00 1.212619e+00 -7.870039e+00 -7.122135e+00 -1.845876e-01 -1.499401e+00 -8.522972e-02 -3.087669e-02 -2.170169e-02 1.624254e-01 2.662127e-01 1.282287e-01 1.656150e-01 1.425075e-01 1.282077e-01 7.152769e-02 8.463213e-02 -1.544421e-01 -3.074116e-01
<VARIANCE> 25
 3.096037e+01 4.100739e+01 2.635732e+01 1.252869e+01 8.421161e+01 4.506979e+01 5.131856e+01 7.544259e+01 1.063622e+02 1.090575e+02 3.392496e+01 2.888146e+01 1.344558e+00 2.292197e+00 7.330337e-01 1.061560e+00 3.029012e+00 2.356204e+00 1.995701e+00 7.392555e+00 3.481783e+00 4.292949e+00 2.058462e+00 1.783752e+00 2.237409e+00
<GCONST> 1.019842e+02
<STATE> 3
<MEAN> 25
 -3.634330e+00 3.129943e+00 -3.086061e-01 2.476049e+00 1.269730e+00 2.106090e-02 2.866547e+00 1.078519e+00 -6.316728e-01 -2.156009e-02 1.624252e+00 -1.014097e+00 6.346408e-02 1.613020e-01 -6.340046e-02 7.466781e-02 2.542067e-01 1.702663e-01 2.910518e-01 -8.695428e-02 8.132876e-02 3.207328e-01 -1.174663e-01 -4.908092e-02 -4.297222e-01
<VARIANCE> 25
 3.615328e+01 4.442431e+01 1.856920e+01 1.122296e+01 5.563257e+01 3.570792e+01 5.625039e+01 5.011219e+01 6.127054e+01 4.919500e+01 3.373381e+01 2.064512e+01 1.354803e+00 1.541374e+00 6.737489e-01 8.454615e-01 1.729380e+00 1.589093e+00 1.780224e+00 3.596670e+00 2.411847e+00 1.823814e+00 1.888187e+00 9.879172e-01 7.614732e-01
<GCONST> 9.363675e+01
<STATE> 4
<MEAN> 25
 -1.936991e+00 6.213219e-01 -5.899058e-01 2.549941e+00 2.690567e+00 2.076921e+00 3.452575e+00 1.305486e+00 5.857949e-01 2.515734e+00 2.028004e+00 2.217147e-01 9.024532e-02 7.120930e-02 2.529523e-02 -8.726480e-02 -9.625560e-02 -1.071475e-01 -1.494346e-01 -9.146640e-02 -1.081883e-01 -7.399814e-03 -9.508492e-02 -6.254751e-02 1.557150e-02
<VARIANCE> 25
 1.026820e+01 1.768166e+01 6.894630e+00 1.014156e+01 2.323535e+01 3.221115e+01 4.365042e+01 2.345728e+01 3.994237e+01 2.885427e+01 2.263758e+01 1.563686e+01 5.027133e-01 5.446045e-01 5.396802e-01 7.568418e-01 1.141686e+00 1.797405e+00 1.905433e+00 1.938802e+00 2.057466e+00 1.795362e+00 1.880149e+00 1.326618e+00 5.702082e-01
<GCONST> 8.335794e+01
<TRANSP> 5
 0.000000e+00 1.000000e+00 0.000000e+00 0.000000e+00 0.000000e+00
 0.000000e+00 8.767154e-01 1.232846e-01 0.000000e+00 0.000000e+00
 0.000000e+00 0.000000e+00 8.024293e-01 1.975707e-01 0.000000e+00
 0.000000e+00 0.000000e+00 0.000000e+00 9.694471e-01 3.055284e-02
 0.000000e+00 0.000000e+00 0.000000e+00 0.000000e+00 0.000000e+00
<ENDHMM>
~h "sy"
<BEGINHMM>
<NUMSTATES> 5
<STATE> 2
<MEAN> 25
 -8.460613e-01 3.141727e-01 1.513266e+00 1.126081e+00 -1.162333e+00 2.852514e+00 1.473563e+00 2.515804e+00 -8.250993e-01 4.188074e-01 3.218901e+00 1.956804e-01 -4.165876e-01 -4.100096e-02 3.060168e-01 1.210029e-01 2.083540e-01 3.156023e-02 4.242325e-01 1.640175e-01 1.615046e-01 5.448769e-01 1.518929e-01 -1.740711e-02 1.725202e-02
<VARIANCE> 25
 8.587017e+00 8.911993e+00 1.585819e+01 9.614556e+00 1.979424e+01 1.527369e+01 2.684363e+01 1.983622e+01 1.900472e+01 2.984435e+01 2.570793e+01 1.631138e+01 1.847886e+00 8.262135e-01 1.398445e+00 8.544149e-01 1.055841e+00 9.791197e-01 2.637867e+00 1.693272e+00 2.142931e+00 2.874187e+00 1.661145e+00 1.393081e+00 3.419866e-01
<GCONST> 8.339496e+01
<STATE> 3
<MEAN> 25
 -3.112136e+00 -5.521039e-01 3.213345e+00 1.573062e+00 -7.488785e-01 3.182882e+00 3.398133e+00 2.636734e+00 8.916891e-02 2.718643e+00 3.142702e+00 -2.958024e-01 -6.049327e-01 -1.016065e-01 3.143153e-01 -1.827634e-04 2.607760e-01 1.543138e-01 2.926061e-01 1.585512e-01 3.416747e-01 3.261738e-01 1.765394e-01 5.164009e-02 2.237384e-01
<VARIANCE> 25
 3.131686e+01 1.086604e+01 3.898703e+01 1.200121e+01 1.754566e+01 1.313913e+01 1.655465e+01 1.894626e+01 1.862338e+01 3.001115e+01 1.438468e+01 1.337290e+01 2.118082e+00 7.863236e-01 1.156994e+00 7.073630e-01 1.242761e+00 1.106097e+00 1.609175e+00 1.582455e+00 2.332198e+00 2.363559e+00 1.372044e+00 1.146205e+00 4.788768e-01
<GCONST> 8.368505e+01
<STATE> 4
<MEAN> 25
 -1.188818e+01 -2.850612e+00 1.258268e+01 -2.293591e+00 -3.124659e+00 3.219034e+00 2.901750e+00 2.483497e+00 3.159666e+00 3.294529e+00 4.001410e+00 -6.181106e-01 4.760036e-01 -5.424451e-03 1.175956e-01 -4.331611e-01 -5.943484e-01 -4.405757e-01 -4.828836e-01 -2.703046e-01 -7.028475e-02 -2.967138e-01 -2.897972e-01 -2.271086e-02 3.494680e-01
<VARIANCE> 25
 6.391494e+01 2.138807e+01 3.809846e+01 3.500989e+01 4.885119e+01 2.815590e+01 4.350201e+01 2.420327e+01 1.876785e+01 3.112863e+01 1.490926e+01 1.616686e+01 7.056212e+00 1.306773e+00 2.314376e+00 1.702654e+00 3.934580e+00 2.130849e+00 4.672856e+00 1.740611e+00 2.026454e+00 2.039259e+00 1.517220e+00 1.405555e+00 1.004221e+00
<GCONST> 9.639969e+01
<TRANSP> 5
 0.000000e+00 1.000000e+00 0.000000e+00 0.000000e+00 0.000000e+00
 0.000000e+00 8.864582e-01 1.135418e-01 0.000000e+00 0.000000e+00
 0.000000e+00 0.000000e+00 8.687737e-01 1.312263e-01 0.000000e+00
 0.000000e+00 0.000000e+00 0.000000e+00 9.473767e-01 5.262331e-02
 0.000000e+00 0.000000e+00 0.000000e+00 0.000000e+00 0.000000e+00
<ENDHMM>
~h "sil"
<BEGINHMM>
<NUMSTATES> 5
<STATE> 2
<MEAN> 25
 -3.917975e+00 4.081042e+00 -2.189362e-01 4.755128e+00 3.754840e+00 1.978772e+00 3.359823e+00 2.630496e+00 1.652174e+00 3.483494e+00 2.135250e+00 7.503994e-02 -3.609871e-02 5.868005e-02 2.159244e-02 2.043991e-02 7.135787e-02 2.926881e-02 5.140289e-02 5.854576e-03 1.800836e-02 5.572088e-02 -2.611406e-03 -3.140287e-02 -6.466734e-02
<VARIANCE> 25
 9.037152e+00 2.767037e+01 1.727699e+01 9.843305e+00 1.569016e+01 1.795062e+01 2.010104e+01 1.558453e+01 1.609640e+01 1.627221e+01 1.529790e+01 1.268039e+01 3.004960e-01 5.511076e-01 5.723413e-01 6.827459e-01 1.054674e+00 1.008517e+00 1.236599e+00 1.222817e+00 1.301570e+00 1.274853e+00 1.244476e+00 1.132384e+00 2.652543e-01
<GCONST> 7.608814e+01
<STATE> 3
<MEAN> 25
 -5.490978e+00 6.490040e+00 -1.433371e+00 4.310676e+00 4.955057e+00 2.380991e+00 5.074074e+00 3.809642e+00 1.822214e+00 4.575163e+00 2.238919e+00 -3.110130e-01 3.818850e-02 -7.787377e-02 -7.884786e-02 -1.130942e-01 -1.359451e-01 -1.298347e-01 -1.343315e-01 -3.778077e-02 -9.819089e-03 -4.856867e-02 -4.621282e-02 -5.043595e-02 2.155143e-01
<VARIANCE> 25
 2.151980e+01 5.745649e+01 1.961506e+01 1.319833e+01 2.184904e+01 1.820860e+01 2.830538e+01 2.034451e+01 1.711230e+01 1.715868e+01 1.418324e+01 1.346168e+01 1.129533e+00 1.531437e+00 1.295985e+00 1.086869e+00 1.754957e+00 1.431741e+00 1.728042e+00 1.761382e+00 1.640052e+00 1.394995e+00 1.505586e+00 1.322205e+00 1.318595e+00
<GCONST> 8.661713e+01
<STATE> 4
<MEAN> 25
 -1.181155e+00 1.734594e+00 -8.893788e-01 1.237666e+00 1.529878e+00 3.708624e-01 9.780574e-01 1.107956e+00 5.608183e-01 1.227909e+00 9.888622e-01 -3.658992e-02 4.724092e-02 -4.853112e-02 -2.976188e-03 -2.883117e-02 -1.820830e-02 -3.643705e-02 -4.770274e-02 -3.830364e-02 -2.997622e-02 -2.555018e-02 -2.251230e-02 1.230257e-02 5.371372e-02
<VARIANCE> 25
 3.753630e+01 4.218126e+01 2.940749e+01 4.473198e+01 4.103778e+01 3.980545e+01 5.837619e+01 3.717133e+01 2.897162e+01 4.074284e+01 2.719047e+01 1.652728e+01 1.477568e+00 1.736529e+00 1.599477e+00 1.710779e+00 2.239332e+00 2.382998e+00 2.859509e+00 2.268271e+00 2.022939e+00 2.315742e+00 2.042412e+00 1.607201e+00 1.803821e+00
<GCONST> 9.757451e+01
<TRANSP> 5
 0.000000e+00 1.000000e+00 0.000000e+00 0.000000e+00 0.000000e+00
 0.000000e+00 9.661747e-01 3.382526e-02 0.000000e+00 0.000000e+00
 0.000000e+00 0.000000e+00 7.309328e-01 2.690673e-01 0.000000e+00
 0.000000e+00 0.000000e+00 0.000000e+00 9.177456e-01 8.225438e-02
 0.000000e+00 0.000000e+00 0.000000e+00 0.000000e+00 0.000000e+00
<ENDHMM>
