~o
<STREAMINFO> 1 25
<VECSIZE> 25<NULLD><MFCC_D_N_Z_0><DIAGC>
~h "E"
<BEGINHMM>
<NUMSTATES> 5
<STATE> 2
<MEAN> 25
 3.861123e+00 -8.699966e+00 1.768207e+00 -4.311193e+00 -3.080784e+00 -1.906085e+00 -2.276505e-01 -2.933291e-01 -3.001343e+00 -3.604897e+00 -2.682344e+00 2.644362e-01 1.490455e+00 -2.378651e+00 1.945630e-02 -1.840015e+00 -1.210070e+00 -1.050762e+00 1.712514e-01 -3.235638e-01 -1.263066e+00 -1.297153e+00 -8.199838e-01 1.949771e-01 3.049343e+00
<VARIANCE> 25
 6.189853e+01 1.304697e+02 3.392449e+01 6.886016e+01 5.646616e+01 4.632456e+01 5.856298e+01 5.720692e+01 4.605696e+01 5.074301e+01 4.232247e+01 2.236965e+01 5.043312e+00 1.141762e+01 2.278437e+00 5.144101e+00 5.018077e+00 4.320669e+00 6.062179e+00 5.461278e+00 3.795600e+00 3.673929e+00 4.096222e+00 2.652209e+00 1.078374e+01
<GCONST> 1.137849e+02
<STATE> 3
<MEAN> 25
 7.800076e+00 -1.444893e+01 1.934688e+00 -9.269082e+00 -7.340754e+00 -5.517201e+00 4.056524e+00 -3.028957e+00 -7.458057e+00 -7.420075e+00 -4.060280e+00 4.020991e-02 3.257474e-02 1.092068e-01 1.311699e-01 7.630672e-02 -4.190257e-01 -2.333121e-01 3.516855e-01 -3.295621e-01 -3.016732e-02 7.526439e-02 -1.184311e-01 -3.570537e-02 6.364153e-02
<VARIANCE> 25
 2.088848e+01 7.327065e+01 2.921662e+01 3.281924e+01 4.155131e+01 4.596482e+01 6.861597e+01 5.164834e+01 3.242493e+01 3.259718e+01 3.080741e+01 2.015572e+01 1.357395e+00 3.186244e+00 1.529928e+00 2.955923e+00 2.681991e+00 2.511225e+00 4.073990e+00 3.334728e+00 2.590824e+00 2.612649e+00 3.138905e+00 1.949622e+00 4.440607e+00
<GCONST> 1.019726e+02
<STATE> 4
<MEAN> 25
 3.913060e+00 -7.639232e+00 4.267386e+00 -5.239292e+00 -7.365569e+00 -1.314108e+00 1.164809e-01 -3.210060e+00 -2.296422e+00 -1.551979e+00 -1.786584e+00 4.361218e-01 -5.041175e-01 8.443305e-01 -3.977893e-01 6.631714e-01 4.223465e-01 4.116726e-01 -1.518387e-01 2.151139e-01 5.154676e-01 2.078751e-01 2.981617e-01 3.581893e-02 -1.234299e+00
<VARIANCE> 25
 6.088757e+01 1.293674e+02 7.138993e+01 6.043605e+01 9.200372e+01 5.945909e+01 7.731285e+01 6.329829e+01 2.996718e+01 5.052142e+01 5.042915e+01 2.335746e+01 2.399384e+00 4.523708e+00 3.664692e+00 3.748980e+00 4.166059e+00 4.136556e+00 4.276512e+00 4.677341e+00 2.736994e+00 3.558580e+00 3.935143e+00 2.347700e+00 5.486684e+00
<GCONST> 1.118346e+02
<TRANSP> 5
 0.000000e+00 1.000000e+00 0.000000e+00 0.000000e+00 0.000000e+00
 0.000000e+00 4.956371e-01 5.043629e-01 0.000000e+00 0.000000e+00
 0.000000e+00 0.000000e+00 7.610482e-01 2.389518e-01 0.000000e+00
 0.000000e+00 0.000000e+00 0.000000e+00 6.688361e-01 3.311639e-01
 0.000000e+00 0.000000e+00 0.000000e+00 0.000000e+00 0.000000e+00
<ENDHMM>
~h "K"
<BEGINHMM>
<NUMSTATES> 5
<STATE> 2
<MEAN> 25
 -1.684587e-08 -6.193333e-08 -4.487690e-08 3.351832e-08 -6.047171e-08 2.058664e-08 -6.607048e-08 -2.205446e-08 -8.534414e-09 2.910867e-08 3.022347e-08 -1.071447e-09 -2.678578e-03 2.715191e-03 1.970940e-04 1.666228e-04 1.831201e-03 -7.320007e-04 3.372927e-03 1.125320e-03 -7.564414e-05 2.413395e-03 8.106225e-04 -2.148533e-03 -1.727290e-03
<VARIANCE> 25
 4.499385e+01 7.342516e+01 3.566479e+01 5.718780e+01 5.546888e+01 4.305736e+01 6.020990e+01 4.209700e+01 2.990068e+01 4.475465e+01 3.376802e+01 1.839641e+01 1.592596e+00 2.317776e+00 1.700131e+00 2.390033e+00 2.486403e+00 2.357601e+00 2.972100e+00 2.655601e+00 2.270027e+00 2.542916e+00 2.264997e+00 1.647762e+00 2.549860e+00
<GCONST> 1.014657e+02
<STATE> 3
<MEAN> 25
 -1.684587e-08 -6.193333e-08 -4.487690e-08 3.351832e-08 -6.047171e-08 2.058664e-08 -6.607048e-08 -2.205446e-08 -8.534414e-09 2.910867e-08 3.022347e-08 -1.071447e-09 -2.678578e-03 2.715191e-03 1.970940e-04 1.666228e-04 1.831201e-03 -7.320007e-04 3.372927e-03 1.125320e-03 -7.564414e-05 2.413395e-03 8.106225e-04 -2.148533e-03 -1.727290e-03
<VARIANCE> 25
 4.499385e+01 7.342516e+01 3.566479e+01 5.718780e+01 5.546888e+01 4.305736e+01 6.020990e+01 4.209700e+01 2.990068e+01 4.475465e+01 3.376802e+01 1.839641e+01 1.592596e+00 2.317776e+00 1.700131e+00 2.390033e+00 2.486403e+00 2.357601e+00 2.972100e+00 2.655601e+00 2.270027e+00 2.542916e+00 2.264997e+00 1.647762e+00 2.549860e+00
<GCONST> 1.014657e+02
<STATE> 4
<MEAN> 25
 -1.684587e-08 -6.193333e-08 -4.487690e-08 3.351832e-08 -6.047171e-08 2.058664e-08 -6.607048e-08 -2.205446e-08 -8.534414e-09 2.910867e-08 3.022347e-08 -1.071447e-09 -2.678578e-03 2.715191e-03 1.970940e-04 1.666228e-04 1.831201e-03 -7.320007e-04 3.372927e-03 1.125320e-03 -7.564414e-05 2.413395e-03 8.106225e-04 -2.148533e-03 -1.727290e-03
<VARIANCE> 25
 4.499385e+01 7.342516e+01 3.566479e+01 5.718780e+01 5.546888e+01 4.305736e+01 6.020990e+01 4.209700e+01 2.990068e+01 4.475465e+01 3.376802e+01 1.839641e+01 1.592596e+00 2.317776e+00 1.700131e+00 2.390033e+00 2.486403e+00 2.357601e+00 2.972100e+00 2.655601e+00 2.270027e+00 2.542916e+00 2.264997e+00 1.647762e+00 2.549860e+00
<GCONST> 1.014657e+02
<TRANSP> 5
 0.000000e+00 1.000000e+00 0.000000e+00 0.000000e+00 0.000000e+00
 0.000000e+00 6.000000e-01 4.000000e-01 0.000000e+00 0.000000e+00
 0.000000e+00 0.000000e+00 6.000000e-01 4.000000e-01 0.000000e+00
 0.000000e+00 0.000000e+00 0.000000e+00 7.000000e-01 3.000000e-01
 0.000000e+00 0.000000e+00 0.000000e+00 0.000000e+00 0.000000e+00
<ENDHMM>
~h "a"
<BEGINHMM>
<NUMSTATES> 5
<STATE> 2
<MEAN> 25
 3.607482e+00 -7.048406e+00 -1.927962e+00 -1.985497e+00 -4.763867e-01 -3.661801e+00 -4.356028e+00 -3.065420e+00 -2.396040e+00 -7.629774e+00 -4.675269e+00 6.684881e-01 -3.339440e-01 3.822576e-01 4.225237e-02 5.130031e-01 2.312199e-01 2.311847e-01 1.303514e-01 2.469650e-01 5.423534e-02 4.888374e-02 3.360887e-01 1.017676e-01 -7.631292e-01
<VARIANCE> 25
 2.728724e+01 5.663073e+01 2.392024e+01 3.209333e+01 4.303566e+01 3.726381e+01 6.350362e+01 4.151263e+01 3.523440e+01 4.779364e+01 3.647274e+01 2.593100e+01 2.009596e+00 3.394209e+00 1.540199e+00 1.817509e+00 3.244050e+00 3.029553e+00 4.271285e+00 3.734082e+00 3.354520e+00 3.924835e+00 3.162899e+00 2.217640e+00 3.406157e+00
<GCONST> 1.032265e+02
<STATE> 3
<MEAN> 25
 -6.425045e-01 -4.769163e+00 -1.284594e+00 6.363329e-01 1.359960e+00 -2.055037e-01 -9.834099e-01 1.254395e+00 -6.742438e-02 -4.456021e+00 -3.813060e-01 1.863509e+00 -4.002918e-01 9.170956e-01 2.757399e-01 4.877567e-01 2.781376e-01 3.919046e-01 5.617478e-01 5.113353e-01 3.449588e-01 8.095028e-01 6.549314e-01 -8.709592e-02 -1.203355e+00
<VARIANCE> 25
 3.063170e+01 4.970246e+01 2.141372e+01 2.502006e+01 3.389675e+01 3.532089e+01 4.364841e+01 3.854558e+01 3.537400e+01 5.000822e+01 3.811552e+01 2.335754e+01 1.133989e+00 2.026892e+00 1.232375e+00 1.421416e+00 1.992215e+00 2.337112e+00 3.049341e+00 3.199747e+00 2.747532e+00 3.092215e+00 3.019914e+00 2.069700e+00 1.776388e+00
<GCONST> 9.810005e+01
<STATE> 4
<MEAN> 25
 -2.195249e+00 8.023139e-01 -3.743128e-01 3.493665e+00 3.240457e+00 2.697684e+00 2.757625e+00 2.465739e+00 1.169505e+00 1.501616e+00 1.926960e+00 2.407948e-01 -2.147300e-02 1.701588e-01 8.871015e-02 4.835248e-02 5.591481e-02 2.056576e-02 5.734953e-02 -2.817696e-02 1.079255e-02 1.714561e-01 2.015058e-02 -5.606671e-02 -1.813440e-01
<VARIANCE> 25
 1.015149e+01 2.217762e+01 1.101088e+01 1.284804e+01 1.726012e+01 1.948443e+01 1.995049e+01 1.883206e+01 1.805882e+01 2.469091e+01 1.932032e+01 1.397055e+01 3.310226e-01 6.373312e-01 6.289524e-01 8.262454e-01 1.118373e+00 1.213476e+00 1.480458e+00 1.439461e+00 1.504676e+00 1.836670e+00 1.588259e+00 1.275332e+00 4.820041e-01
<GCONST> 7.960468e+01
<TRANSP> 5
 0.000000e+00 1.000000e+00 0.000000e+00 0.000000e+00 0.000000e+00
 0.000000e+00 7.659382e-01 2.340617e-01 0.000000e+00 0.000000e+00
 0.000000e+00 0.000000e+00 5.084887e-01 4.915113e-01 0.000000e+00
 0.000000e+00 0.000000e+00 0.000000e+00 9.062355e-01 9.376445e-02
 0.000000e+00 0.000000e+00 0.000000e+00 0.000000e+00 0.000000e+00
<ENDHMM>
~h "b"
<BEGINHMM>
<NUMSTATES> 5
<STATE> 2
<MEAN> 25
 4.689624e+00 1.174209e+00 -6.861409e-01 -1.277420e-01 -4.194486e+00 -4.437827e+00 -6.621384e+00 -4.757989e+00 -3.003874e+00 -1.686558e+00 -3.044233e+00 -5.786251e-01 2.459097e+00 1.239701e-01 -4.673748e-01 -2.347239e+00 -2.009902e+00 -1.630577e+00 -2.358762e+00 -1.180195e+00 -1.319844e+00 -1.920466e+00 -1.736775e+00 -1.731467e-01 2.623695e+00
<VARIANCE> 25
 3.824952e+01 5.734909e+01 3.293735e+01 5.273962e+01 4.733171e+01 4.736345e+01 4.927643e+01 3.993766e+01 4.965194e+01 3.714246e+01 3.399511e+01 2.468481e+01 3.578963e+00 5.989140e+00 3.340135e+00 7.100114e+00 3.817488e+00 4.640058e+00 3.888921e+00 3.684469e+00 5.337564e+00 3.678777e+00 3.186700e+00 2.365339e+00 7.273300e+00
<GCONST> 1.094014e+02
<STATE> 3
<MEAN> 25
 7.516046e+00 5.087363e+00 9.503706e-01 -3.337408e+00 -7.840413e+00 -8.246152e+00 -1.038429e+01 -5.841164e+00 -5.563549e+00 -3.702386e+00 -6.375201e+00 -8.926746e-01 1.556033e-01 -1.525493e-01 -1.495741e-01 -7.783318e-01 -1.773254e-01 -2.951028e-02 -4.030399e-02 4.365585e-01 2.057921e-01 -1.586511e-01 -2.830790e-01 2.829954e-01 7.123906e-01
<VARIANCE> 25
 1.931081e+01 3.550036e+01 4.178620e+01 4.677206e+01 2.126946e+01 2.234531e+01 3.030767e+01 3.323093e+01 3.722197e+01 2.703310e+01 2.595469e+01 2.711456e+01 1.424870e+00 2.679201e+00 2.722965e+00 4.734363e+00 1.951612e+00 1.804604e+00 2.167825e+00 3.605910e+00 2.931323e+00 2.307348e+00 1.850294e+00 2.762692e+00 3.900780e+00
<GCONST> 9.871989e+01
<STATE> 4
<MEAN> 25
 1.106401e+01 -4.743295e+00 -1.047860e+00 -1.194323e+01 -7.524287e+00 -5.742854e+00 -7.639418e+00 -2.843515e+00 -4.044579e+00 -8.362479e+00 -6.398749e+00 1.577475e+00 -3.340638e-01 -4.050633e-01 9.116278e-02 1.881060e-01 1.802029e-01 2.756204e-01 4.254859e-01 2.890648e-01 1.699269e-01 -1.034450e-01 2.523176e-01 1.515644e-01 -1.542114e-01
<VARIANCE> 25
 3.671288e+01 1.384011e+02 5.081668e+01 5.243489e+01 3.383630e+01 3.239766e+01 3.731090e+01 5.146942e+01 3.868176e+01 4.126154e+01 3.214361e+01 2.068636e+01 9.631402e-01 3.807570e+00 1.599953e+00 3.936121e+00 2.624966e+00 2.386199e+00 2.648987e+00 3.944485e+00 3.442884e+00 3.972540e+00 2.566055e+00 2.492293e+00 3.969403e+00
<GCONST> 1.039736e+02
<TRANSP> 5
 0.000000e+00 1.000000e+00 0.000000e+00 0.000000e+00 0.000000e+00
 0.000000e+00 5.929404e-01 4.070596e-01 0.000000e+00 0.000000e+00
 0.000000e+00 0.000000e+00 7.817507e-01 2.182493e-01 0.000000e+00
 0.000000e+00 0.000000e+00 0.000000e+00 8.953573e-01 1.046428e-01
 0.000000e+00 0.000000e+00 0.000000e+00 0.000000e+00 0.000000e+00
<ENDHMM>
~h "c"
<BEGINHMM>
<NUMSTATES> 5
<STATE> 2
<MEAN> 25
 -1.077427e+00 9.015746e-01 -4.179787e-01 2.399298e+00 3.122726e+00 3.945833e+00 3.727163e+00 1.457382e+00 -1.829506e-01 2.929635e+00 1.974045e+00 -5.785068e-01 -3.089649e-02 1.643836e-02 -4.898182e-02 3.849753e-02 8.636502e-02 9.094810e-02 9.724990e-02 -1.103751e-02 5.976572e-02 1.020119e-01 -5.911028e-02 -9.790284e-03 -4.574244e-02
<VARIANCE> 25
 2.159128e+00 2.459781e+00 4.552067e+00 5.047030e+00 7.187743e+00 9.016945e+00 1.185613e+01 1.269221e+01 1.140058e+01 1.154937e+01 1.166414e+01 1.129528e+01 1.387441e-01 2.192963e-01 3.969319e-01 4.453765e-01 6.841037e-01 9.204913e-01 1.207690e+00 1.203650e+00 1.174149e+00 1.253938e+00 1.266409e+00 1.323041e+00 5.368539e-02
<GCONST> 6.236223e+01
<STATE> 3
<MEAN> 25
 -1.392859e+00 7.714462e-01 -8.630178e-01 2.316828e+00 3.767235e+00 4.038143e+00 4.383710e+00 8.860707e-01 6.575360e-01 2.896579e+00 1.348431e+00 -6.585122e-01 -6.357251e-01 8.708729e-02 -7.722676e-02 -1.573355e-01 -2.260875e-01 -7.909805e-01 1.942882e-02 5.054272e-02 9.126140e-01 8.415187e-03 8.754361e-02 8.101385e-01 9.657614e-01
<VARIANCE> 25
 9.954194e-01 3.243138e+00 4.691220e+00 7.331858e+00 5.936613e+00 1.735440e+01 1.235017e+01 9.936573e+00 7.757136e+00 6.249086e+00 5.201204e+00 1.803221e+01 6.662161e-01 2.776473e-01 5.507756e-01 7.767133e-01 1.134407e+00 1.799839e+00 1.161069e+00 1.875138e+00 7.719490e-01 1.906405e+00 9.684199e-01 1.148196e+00 1.732986e+00
<GCONST> 6.852128e+01
<STATE> 4
<MEAN> 25
 -3.585681e+00 1.759005e+00 -7.508331e-01 3.722070e-01 3.393687e+00 2.287993e+00 5.076734e+00 2.161831e+00 2.814361e+00 4.939552e+00 1.800727e+00 8.131050e-01 -1.270006e+00 6.538646e-02 2.131311e-01 -2.507850e+00 -9.235750e-01 -1.971230e+00 -1.187268e+00 -1.182463e-01 9.514547e-01 -1.243303e-01 -5.280768e-01 5.165548e-01 4.207716e+00
<VARIANCE> 25
 1.562300e+01 3.868932e+00 7.052296e+00 3.010713e+01 8.652561e+00 1.886849e+01 1.266120e+01 2.205114e+01 1.352423e+01 2.976626e+01 9.877898e+00 6.418360e+00 2.673407e+00 2.864853e+00 1.792590e+00 2.727807e+00 4.538980e+00 2.800726e+00 4.938914e+00 1.956921e+00 2.086532e+00 4.191793e+00 4.031566e+00 9.894176e-01 2.791864e+00
<GCONST> 8.929433e+01
<TRANSP> 5
 0.000000e+00 1.000000e+00 0.000000e+00 0.000000e+00 0.000000e+00
 0.000000e+00 9.655838e-01 3.441614e-02 0.000000e+00 0.000000e+00
 0.000000e+00 0.000000e+00 2.666340e-01 7.333660e-01 0.000000e+00
 0.000000e+00 0.000000e+00 0.000000e+00 4.707693e-01 5.292307e-01
 0.000000e+00 0.000000e+00 0.000000e+00 0.000000e+00 0.000000e+00
<ENDHMM>
~h "d"
<BEGINHMM>
<NUMSTATES> 5
<STATE> 2
<MEAN> 25
 -1.998894e+00 2.674507e+00 -1.173977e+00 3.270783e+00 3.599669e+00 2.601286e+00 3.137807e+00 1.322993e+00 4.027787e-01 2.627403e+00 1.444508e+00 -5.484732e-01 -4.117513e-02 4.855580e-02 -6.483281e-03 -1.149505e-02 3.197299e-02 3.862594e-02 3.237471e-02 1.810487e-02 -4.899384e-02 2.962671e-02 -1.844110e-02 7.608989e-03 -1.759807e-02
<VARIANCE> 25
 6.587588e+00 2.243517e+01 9.564715e+00 8.975866e+00 1.497565e+01 1.907317e+01 1.502605e+01 1.510470e+01 1.416383e+01 1.397980e+01 1.479115e+01 1.151287e+01 1.508027e-01 4.935514e-01 4.845163e-01 5.764462e-01 8.242114e-01 1.088399e+00 1.040617e+00 1.324591e+00 1.220987e+00 1.130597e+00 1.193253e+00 1.042893e+00 2.349343e-01
<GCONST> 7.233221e+01
<STATE> 3
<MEAN> 25
 -4.408754e-01 6.999814e+00 1.969033e+00 2.903869e+00 1.055223e+00 -8.208041e-01 -1.072913e+00 1.294760e-01 -8.768684e-01 1.599283e+00 1.230705e+00 1.932657e-01 2.396953e-02 -8.740627e-01 5.122597e-01 -8.344626e-01 -6.200290e-01 -4.642295e-03 -1.100668e+00 2.748634e-01 -2.815759e-01 -4.414336e-01 -1.500991e-05 3.334390e-02 1.779586e+00
<VARIANCE> 25
 2.312510e+01 5.241961e+01 1.905195e+01 1.329972e+01 3.956639e+01 4.951712e+01 6.929762e+01 2.527028e+01 2.509662e+01 2.602531e+01 1.636835e+01 1.321738e+01 7.971861e-01 4.090286e+00 2.028254e+00 3.258552e+00 2.777235e+00 3.221487e+00 3.223932e+00 2.782428e+00 2.716730e+00 2.381540e+00 1.724039e+00 1.422845e+00 3.337490e+00
<GCONST> 9.691441e+01
<STATE> 4
<MEAN> 25
 2.853858e+00 -1.578231e+00 9.122643e-01 -3.725314e+00 -6.789690e+00 -5.393621e+00 -7.662014e-01 -4.831091e-01 -2.019980e+00 -4.563134e+00 -2.045790e+00 -2.699682e-02 2.978034e-01 -5.640480e-01 -1.381290e-01 -4.989234e-01 -5.033522e-01 -4.514157e-01 2.213164e-01 -1.026789e-01 -2.104636e-01 -6.101960e-01 -5.234850e-01 2.329444e-01 1.004212e+00
<VARIANCE> 25
 1.841992e+01 4.530642e+01 2.276678e+01 4.000286e+01 6.579498e+01 4.539826e+01 4.291872e+01 3.413815e+01 3.100799e+01 4.208851e+01 4.419923e+01 2.246941e+01 1.230968e+00 3.380923e+00 2.457806e+00 3.207289e+00 7.021919e+00 3.621665e+00 4.666203e+00 3.988668e+00 3.039469e+00 3.994964e+00 3.690730e+00 2.013230e+00 6.024025e+00
<GCONST> 1.048031e+02
<TRANSP> 5
 0.000000e+00 1.000000e+00 0.000000e+00 0.000000e+00 0.000000e+00
 0.000000e+00 9.052677e-01 9.473237e-02 0.000000e+00 0.000000e+00
 0.000000e+00 0.000000e+00 3.085049e-01 6.914951e-01 0.000000e+00
 0.000000e+00 0.000000e+00 0.000000e+00 8.699878e-01 1.300122e-01
 0.000000e+00 0.000000e+00 0.000000e+00 0.000000e+00 0.000000e+00
<ENDHMM>
~h "e"
<BEGINHMM>
<NUMSTATES> 5
<STATE> 2
<MEAN> 25
 2.670494e+00 -4.618268e+00 -2.786756e+00 -2.710639e+00 -7.814280e-01 -4.412062e+00 -3.015688e+00 5.342775e-01 3.429253e+00 -1.132512e+00 -2.546040e+00 -9.166591e-02 1.750703e+00 -1.271132e+00 1.693913e-02 -1.866426e+00 -2.698655e-01 -9.475544e-01 -1.288521e+00 -1.047171e+00 -1.151882e-01 -1.386051e+00 -1.198359e+00 -6.944165e-02 2.503459e+00
<VARIANCE> 25
 4.955190e+01 8.012179e+01 6.123762e+01 5.254466e+01 5.588370e+01 5.547874e+01 5.274473e+01 4.324791e+01 2.962865e+01 5.359606e+01 5.084371e+01 2.117383e+01 6.035134e+00 9.593740e+00 4.253025e+00 6.663394e+00 6.173009e+00 7.039713e+00 5.652274e+00 5.480676e+00 3.072321e+00 5.423579e+00 4.016147e+00 1.917529e+00 1.174031e+01
<GCONST> 1.143589e+02
<STATE> 3
<MEAN> 25
 7.728546e+00 -7.823933e+00 -3.732696e+00 -8.060311e+00 -1.220659e+00 -6.138713e+00 -6.366939e+00 -2.763334e+00 2.524575e+00 -4.338248e+00 -6.535594e+00 -5.292254e-01 9.785797e-01 -8.179866e-01 2.893310e-01 -1.534320e+00 -2.059265e-01 -1.943555e-02 -1.794205e-01 -8.029367e-01 -4.748343e-01 -7.414398e-01 -6.595354e-01 -3.308635e-01 1.433963e+00
<VARIANCE> 25
 3.203468e+01 9.105596e+01 3.383817e+01 5.647601e+01 4.762624e+01 5.087033e+01 4.517695e+01 4.366821e+01 2.949285e+01 3.260732e+01 4.612994e+01 1.983444e+01 4.880328e+00 7.471434e+00 4.344415e+00 7.631049e+00 6.278343e+00 5.022826e+00 5.701779e+00 4.191481e+00 3.376083e+00 5.300332e+00 3.354221e+00 1.927028e+00 1.235741e+01
<GCONST> 1.115353e+02
<STATE> 4
<MEAN> 25
 9.186210e+00 -1.331032e+01 -1.708450e+00 -9.872748e+00 -1.026427e+00 -1.629412e+00 -4.604406e+00 -1.825402e+00 5.367838e-01 -6.966196e+00 -6.042439e+00 -4.020857e-01 -4.535110e-01 6.407488e-01 1.251918e-01 8.709318e-01 -1.069452e-01 5.867996e-01 2.975957e-01 2.705216e-01 -1.324766e-01 2.221606e-01 4.081929e-01 -1.012668e-01 -1.260168e+00
<VARIANCE> 25
 2.439343e+01 9.280271e+01 4.645171e+01 5.074208e+01 4.410313e+01 4.328174e+01 5.481914e+01 4.651651e+01 4.126918e+01 3.599611e+01 3.246397e+01 2.234581e+01 1.544422e+00 3.716866e+00 2.141700e+00 3.125099e+00 3.194700e+00 2.839226e+00 3.433213e+00 3.566609e+00 2.991320e+00 3.535784e+00 3.145691e+00 1.982618e+00 4.122983e+00
<GCONST> 1.046897e+02
<TRANSP> 5
 0.000000e+00 1.000000e+00 0.000000e+00 0.000000e+00 0.000000e+00
 0.000000e+00 3.928241e-01 6.071759e-01 0.000000e+00 0.000000e+00
 0.000000e+00 0.000000e+00 4.643368e-01 5.356632e-01 0.000000e+00
 0.000000e+00 0.000000e+00 0.000000e+00 8.503160e-01 1.496840e-01
 0.000000e+00 0.000000e+00 0.000000e+00 0.000000e+00 0.000000e+00
<ENDHMM>
~h "f"
<BEGINHMM>
<NUMSTATES> 5
<STATE> 2
<MEAN> 25
 -2.992731e+00 2.217786e+00 -4.963239e-01 4.245430e+00 3.423568e+00 3.100913e+00 2.532736e+00 2.591492e+00 1.648253e+00 2.656000e+00 2.785846e+00 -3.483302e-03 -1.099363e-01 7.926817e-02 1.155940e-02 4.556870e-02 -1.571358e-02 1.062550e-03 6.858938e-02 2.382226e-02 3.798835e-02 8.858180e-02 8.683766e-03 -3.622439e-02 9.924083e-03
<VARIANCE> 25
 5.785944e+00 1.394499e+01 1.597790e+01 1.008843e+01 1.379365e+01 1.563150e+01 1.617700e+01 1.600486e+01 1.555296e+01 1.573741e+01 1.803834e+01 1.291813e+01 2.064930e-01 5.041825e-01 5.950981e-01 6.615608e-01 9.569733e-01 9.864607e-01 1.297491e+00 1.284316e+00 1.376493e+00 1.382091e+00 1.550254e+00 1.192991e+00 2.653499e-01
<GCONST> 7.449134e+01
<STATE> 3
<MEAN> 25
 -5.266513e+00 4.706897e+00 -3.049160e+00 3.067175e+00 1.934979e+00 1.652760e+00 3.330346e+00 2.541708e+00 2.124715e+00 2.633728e+00 2.065943e+00 -6.208064e-01 8.365846e-01 -1.095244e+00 -7.192309e-02 -5.693361e-01 -4.771249e-01 -1.550301e-01 -3.642037e-01 -4.121169e-01 -2.824899e-01 -5.728491e-01 -5.977290e-01 -6.039514e-02 8.027859e-01
<VARIANCE> 25
 1.290870e+01 4.407725e+01 1.534704e+01 9.323510e+00 2.325705e+01 2.355782e+01 2.153520e+01 1.975308e+01 2.103094e+01 2.573977e+01 1.908641e+01 1.522706e+01 1.174287e+00 2.708826e+00 2.250117e+00 2.078512e+00 2.129703e+00 2.232335e+00 1.766959e+00 2.048643e+00 2.187952e+00 2.092664e+00 1.979833e+00 1.309052e+00 1.540765e+00
<GCONST> 9.003066e+01
<STATE> 4
<MEAN> 25
 1.754946e+00 -9.936536e+00 -1.688758e+00 -1.182695e+00 -3.458514e+00 2.166443e+00 -2.422327e+00 -1.299583e+00 7.623379e-01 -4.401713e+00 -1.582789e+00 -2.412193e-02 1.287610e+00 -1.359559e+00 3.144085e-01 -1.323649e+00 -6.174693e-01 -5.671402e-01 -8.357353e-01 -9.521324e-01 -5.386395e-01 -8.226625e-01 -9.758791e-01 -8.157025e-02 1.729964e+00
<VARIANCE> 25
 3.601656e+01 9.143087e+01 3.632956e+01 4.876209e+01 4.166566e+01 3.480571e+01 3.544847e+01 3.707637e+01 2.169057e+01 4.207003e+01 3.363877e+01 1.755795e+01 3.945266e+00 8.572203e+00 3.469292e+00 5.129415e+00 4.334047e+00 4.627107e+00 3.670036e+00 4.637706e+00 2.605683e+00 4.107874e+00 4.930052e+00 1.930828e+00 6.475758e+00
<GCONST> 1.079088e+02
<TRANSP> 5
 0.000000e+00 1.000000e+00 0.000000e+00 0.000000e+00 0.000000e+00
 0.000000e+00 9.657205e-01 3.427955e-02 0.000000e+00 0.000000e+00
 0.000000e+00 0.000000e+00 6.812679e-01 3.187321e-01 0.000000e+00
 0.000000e+00 0.000000e+00 0.000000e+00 8.266634e-01 1.733366e-01
 0.000000e+00 0.000000e+00 0.000000e+00 0.000000e+00 0.000000e+00
<ENDHMM>
~h "g"
<BEGINHMM>
<NUMSTATES> 5
<STATE> 2
<MEAN> 25
 6.234731e+00 -6.589720e+00 6.443869e-01 -5.803117e+00 -2.622470e+00 -3.645484e+00 -6.202284e+00 -4.161014e+00 -1.017239e-01 -3.128220e+00 -2.823331e+00 6.940179e-01 9.892249e-01 -6.794862e-01 -1.832722e-01 -1.603042e+00 -1.246343e+00 -1.197372e+00 -7.064655e-01 -5.644300e-01 -1.860650e-01 -5.789262e-01 -9.872478e-01 1.623360e-01 2.056643e+00
<VARIANCE> 25
 7.121761e+01 1.085637e+02 2.628020e+01 9.438533e+01 1.128864e+02 5.515366e+01 7.592415e+01 5.011820e+01 3.460605e+01 5.287556e+01 3.783756e+01 2.530365e+01 3.168249e+00 8.729637e+00 2.248556e+00 7.988936e+00 6.806190e+00 4.841802e+00 5.545029e+00 5.304636e+00 3.644642e+00 3.756225e+00 3.710437e+00 2.809903e+00 7.794269e+00
<GCONST> 1.141723e+02
<STATE> 3
<MEAN> 25
 7.444991e+00 -4.310647e+00 -1.401639e+00 -1.026030e+01 -8.312146e+00 -9.487816e+00 -9.847044e-01 -3.654180e+00 -1.780700e+00 -5.758748e+00 -9.748860e+00 3.923289e-01 -2.378642e-01 6.446132e-01 2.119830e-02 6.753964e-01 -1.500068e-01 3.251105e-01 3.907311e-02 -4.035297e-02 -3.898705e-01 -2.017353e-01 4.880465e-01 -1.593488e-01 -9.391855e-01
<VARIANCE> 25
 1.442745e+01 5.592704e+01 2.145560e+01 2.853966e+01 5.460277e+01 3.217909e+01 7.561993e+01 2.108248e+01 2.549544e+01 2.669559e+01 3.213388e+01 1.761355e+01 1.533472e+00 2.251262e+00 1.487744e+00 2.194297e+00 2.726375e+00 3.015297e+00 3.528436e+00 2.223784e+00 2.293281e+00 2.697434e+00 2.844717e+00 1.636406e+00 2.058647e+00
<GCONST> 9.743571e+01
<STATE> 4
<MEAN> 25
 8.246612e-01 -7.554436e+00 -7.606506e-01 -2.076906e+00 -7.133485e+00 1.107810e+00 -1.544555e+00 -4.126079e-01 7.624348e-01 -1.661726e+00 9.811798e-01 -2.943425e-01 -9.721226e-01 6.911588e-02 -6.364102e-01 7.613221e-01 5.559238e-01 1.043013e+00 5.199221e-01 2.772829e-01 1.891989e-01 8.232442e-01 5.727381e-01 4.908373e-02 -5.771532e-01
<VARIANCE> 25
 5.528165e+01 1.739768e+02 5.566041e+01 5.596988e+01 4.924136e+01 3.744030e+01 4.255050e+01 3.941334e+01 3.331215e+01 4.219177e+01 3.278241e+01 2.367353e+01 3.549387e+00 2.493059e+00 3.550791e+00 2.910320e+00 2.381421e+00 4.724607e+00 3.482228e+00 4.492351e+00 4.265227e+00 3.291463e+00 3.395672e+00 2.382902e+00 2.375547e+00
<GCONST> 1.072932e+02
<TRANSP> 5
 0.000000e+00 1.000000e+00 0.000000e+00 0.000000e+00 0.000000e+00
 0.000000e+00 8.612131e-01 1.387870e-01 0.000000e+00 0.000000e+00
 0.000000e+00 0.000000e+00 8.213509e-01 1.786492e-01 0.000000e+00
 0.000000e+00 0.000000e+00 0.000000e+00 7.908475e-01 2.091525e-01
 0.000000e+00 0.000000e+00 0.000000e+00 0.000000e+00 0.000000e+00
<ENDHMM>
~h "h"
<BEGINHMM>
<NUMSTATES> 5
<STATE> 2
<MEAN> 25
 -2.605138e+00 1.021202e+00 6.357172e-01 4.614796e+00 3.162431e+00 3.226089e+00 3.780194e+00 2.808966e+00 1.498960e+00 3.075008e+00 2.527312e+00 1.044708e-01 -2.057736e-02 3.738689e-02 3.712108e-04 7.039513e-03 3.943233e-02 5.161310e-02 6.850457e-02 -1.319310e-02 -1.499069e-02 5.755756e-02 1.246452e-02 -6.554118e-03 -3.670716e-02
<VARIANCE> 25
 3.768963e+00 9.436784e+00 1.063840e+01 1.289247e+01 1.076581e+01 1.308653e+01 1.426735e+01 1.349769e+01 1.503326e+01 1.585859e+01 1.354106e+01 1.147491e+01 1.383379e-01 3.164041e-01 4.292656e-01 6.677869e-01 8.483258e-01 8.938944e-01 1.169667e+00 1.188873e+00 1.225845e+00 1.313007e+00 1.154264e+00 9.942245e-01 8.666473e-02
<GCONST> 6.901050e+01
<STATE> 3
<MEAN> 25
 -2.181495e+00 -2.785496e+00 -1.754949e+00 -4.355185e+00 5.958610e+00 7.589813e+00 2.304417e+00 2.260676e+00 1.209597e+00 9.893122e-01 5.103996e-01 3.333367e-01 1.839484e-01 -2.182841e-01 -2.227656e-01 -9.711170e-01 -1.361113e-01 -5.182967e-02 -4.827545e-01 -4.346707e-01 -3.379989e-01 -2.433719e-01 -1.620881e-01 4.790189e-02 6.654841e-01
<VARIANCE> 25
 9.836460e+00 2.659237e+01 2.129892e+01 5.069887e+01 2.255032e+01 2.627962e+01 2.872069e+01 1.724125e+01 2.445140e+01 2.078172e+01 2.153906e+01 2.243576e+01 8.223675e-01 7.442840e-01 1.188872e+00 1.646415e+00 1.479241e+00 1.356163e+00 1.564737e+00 1.670591e+00 1.739843e+00 1.793167e+00 1.780988e+00 1.966544e+00 4.787697e-01
<GCONST> 8.699144e+01
<STATE> 4
<MEAN> 25
 6.537858e+00 -1.249244e+00 -6.058098e+00 -1.261938e+01 1.168864e+00 -4.029739e-01 -5.356012e+00 -4.812332e+00 -4.377100e+00 -2.372147e+00 -4.807989e+00 -1.869671e+00 5.731018e-01 1.150971e-01 -2.690887e-01 -4.347138e-01 -2.673151e-01 -5.253857e-01 -3.160615e-01 -3.001116e-01 -1.069944e-01 -1.453904e-01 -5.889477e-01 -1.683020e-01 4.484661e-01
<VARIANCE> 25
 3.130274e+01 3.969895e+01 1.895331e+01 9.777636e+01 4.225304e+01 3.468285e+01 3.588487e+01 3.774797e+01 3.565520e+01 2.909232e+01 3.123909e+01 1.711107e+01 1.894082e+00 1.210578e+00 9.480837e-01 1.674198e+00 1.504107e+00 2.663153e+00 2.516177e+00 2.960554e+00 2.403503e+00 2.262684e+00 2.355192e+00 1.545872e+00 1.673679e+00
<GCONST> 9.651194e+01
<TRANSP> 5
 0.000000e+00 1.000000e+00 0.000000e+00 0.000000e+00 0.000000e+00
 0.000000e+00 9.638470e-01 3.615296e-02 0.000000e+00 0.000000e+00
 0.000000e+00 0.000000e+00 8.065000e-01 1.934999e-01 0.000000e+00
 0.000000e+00 0.000000e+00 0.000000e+00 8.048429e-01 1.951572e-01
 0.000000e+00 0.000000e+00 0.000000e+00 0.000000e+00 0.000000e+00
<ENDHMM>
~h "i"
<BEGINHMM>
<NUMSTATES> 5
<STATE> 2
<MEAN> 25
 4.224422e+00 6.755142e-01 1.362207e+01 -1.184954e+01 -1.499260e+01 -2.739169e+00 -1.239641e+01 -9.275236e+00 -2.724252e-02 -1.749777e+00 -4.631452e+00 1.879749e+00 7.323573e-02 5.008204e-01 5.097606e-01 -4.848336e-01 -7.286197e-01 1.391155e-01 -6.954758e-01 -4.980073e-01 -6.600024e-02 -2.593748e-02 -3.190249e-01 1.491817e-01 8.272541e-02
<VARIANCE> 25
 2.761975e+01 1.260780e+02 4.391084e+01 5.189716e+01 4.582295e+01 2.988519e+01 6.187732e+01 3.848001e+01 2.203633e+01 3.527157e+01 2.415097e+01 2.420565e+01 2.678916e+00 4.036737e+00 5.782608e+00 7.020001e+00 6.114303e+00 3.856759e+00 7.073138e+00 4.716680e+00 2.496431e+00 3.946965e+00 3.124966e+00 2.980573e+00 4.972616e+00
<GCONST> 1.087335e+02
<STATE> 3
<MEAN> 25
 7.054181e-01 2.164011e+00 6.864816e+00 -3.692220e+00 -1.111443e+01 -5.773699e-01 -7.197977e+00 -5.404812e+00 -6.495394e-01 -1.355646e+00 -8.337721e-01 1.119613e+00 -6.321518e-01 -8.997169e-01 -1.748340e+00 2.266265e+00 1.882762e+00 4.246536e-01 2.383990e+00 1.627990e+00 5.734035e-02 3.144466e-01 1.225600e+00 -2.466092e-01 -1.522977e+00
<VARIANCE> 25
 2.213384e+01 7.385255e+01 3.591603e+01 4.311495e+01 5.695087e+01 4.232374e+01 5.966685e+01 3.676122e+01 3.988986e+01 4.117470e+01 4.324652e+01 3.338544e+01 2.123699e+00 5.125282e+00 2.814058e+00 2.920787e+00 3.912803e+00 4.275082e+00 4.801097e+00 3.442116e+00 4.156159e+00 4.906931e+00 2.899090e+00 2.822784e+00 3.232177e+00
<GCONST> 1.072572e+02
<STATE> 4
<MEAN> 25
 -3.072915e+00 1.731079e+00 1.017355e+00 4.211166e+00 5.699461e-01 2.646591e+00 2.351575e+00 1.639404e+00 1.270875e+00 2.606821e+00 2.556459e+00 7.058807e-02 -8.464001e-02 -8.804159e-02 -1.953982e-01 3.141662e-01 4.636056e-01 -3.030800e-03 3.521270e-01 2.820786e-01 -5.301762e-02 5.202594e-02 7.435931e-02 -8.014248e-02 -2.007952e-01
<VARIANCE> 25
 1.576256e+01 2.720076e+01 1.758440e+01 1.635063e+01 3.706273e+01 2.536156e+01 2.351631e+01 2.089972e+01 2.232113e+01 2.267047e+01 2.083875e+01 1.583494e+01 4.095564e-01 1.132367e+00 1.194730e+00 1.204950e+00 1.840075e+00 1.871654e+00 2.024456e+00 1.752794e+00 1.955022e+00 1.819512e+00 1.714408e+00 1.353724e+00 6.938680e-01
<GCONST> 8.658256e+01
<TRANSP> 5
 0.000000e+00 1.000000e+00 0.000000e+00 0.000000e+00 0.000000e+00
 0.000000e+00 8.663901e-01 1.336100e-01 0.000000e+00 0.000000e+00
 0.000000e+00 0.000000e+00 7.178557e-01 2.821443e-01 0.000000e+00
 0.000000e+00 0.000000e+00 0.000000e+00 8.686510e-01 1.313490e-01
 0.000000e+00 0.000000e+00 0.000000e+00 0.000000e+00 0.000000e+00
<ENDHMM>
~h "j"
<BEGINHMM>
<NUMSTATES> 5
<STATE> 2
<MEAN> 25
 -2.241296e+00 1.153907e+00 2.254236e-01 2.959676e+00 3.774111e+00 2.761934e+00 2.856561e+00 2.082489e+00 1.114125e+00 2.821631e+00 3.796920e+00 -1.264901e-02 -5.780833e-03 8.747482e-02 3.352266e-02 5.435956e-03 -1.160533e-02 4.060961e-02 1.042137e-01 -1.118367e-01 -3.047971e-02 1.170716e-02 -7.245716e-02 -8.002372e-03 -3.038484e-02
<VARIANCE> 25
 2.012439e+00 3.203280e+00 6.215744e+00 1.029605e+01 7.877896e+00 1.041884e+01 2.092623e+01 1.999425e+01 1.448583e+01 1.683158e+01 1.573867e+01 1.306080e+01 1.530624e-01 2.246645e-01 4.483776e-01 6.384933e-01 9.000961e-01 1.066025e+00 1.625386e+00 1.609190e+00 1.317808e+00 1.339209e+00 1.759283e+00 1.436252e+00 1.290342e-01
<GCONST> 6.898224e+01
<STATE> 3
<MEAN> 25
 -3.434968e-01 5.654299e+00 3.618191e+00 -3.088470e+00 -5.084218e+00 -5.740012e+00 -1.304132e+00 -2.780760e+00 -1.961329e+00 2.215883e+00 1.202559e-01 -1.413446e+00 -1.612747e-03 2.011505e-01 6.797615e-01 -1.077303e+00 -1.600852e+00 -9.812781e-01 -4.376658e-01 -3.848980e-01 -2.024203e-01 -9.323940e-02 -3.120017e-01 -2.378401e-01 1.547104e+00
<VARIANCE> 25
 4.302727e+01 1.906118e+01 2.110824e+01 3.767431e+01 8.317789e+01 3.601015e+01 4.653542e+01 2.218356e+01 5.099558e+01 2.536967e+01 1.608442e+01 9.882855e+00 5.784200e+00 1.805200e+00 2.881770e+00 2.761224e+00 9.939487e+00 2.227788e+00 3.841289e+00 2.588522e+00 4.486874e+00 2.141705e+00 1.791922e+00 8.361044e-01 5.614732e+00
<GCONST> 1.007201e+02
<STATE> 4
<MEAN> 25
 2.296875e+00 2.498523e+00 4.471184e+00 -6.442880e+00 -1.411507e+01 -9.194989e+00 -1.604551e+00 -9.688329e-01 -3.935654e+00 -1.016035e+00 -7.117385e+00 -7.276309e-01 2.494262e-01 -6.729249e-01 -7.520338e-01 3.595465e-01 7.245420e-01 1.857163e-01 1.128769e-01 3.607372e-01 -1.852944e-01 -1.445078e+00 -9.043006e-01 4.450211e-01 8.851556e-02
<VARIANCE> 25
 2.509336e+01 1.042880e+01 1.254478e+01 2.593743e+01 5.280571e+01 3.556510e+01 2.578522e+01 9.157061e+00 1.992986e+01 2.217409e+01 4.266191e+01 1.341561e+01 1.226470e+00 1.297418e+00 2.016286e+00 9.290122e-01 4.683525e+00 2.468921e+00 2.106500e+00 1.957976e+00 2.474395e+00 2.395270e+00 1.391409e+00 1.394954e+00 1.142047e+00
<GCONST> 9.027467e+01
<TRANSP> 5
 0.000000e+00 1.000000e+00 0.000000e+00 0.000000e+00 0.000000e+00
 0.000000e+00 9.696932e-01 3.030679e-02 0.000000e+00 0.000000e+00
 0.000000e+00 0.000000e+00 8.822822e-01 1.177178e-01 0.000000e+00
 0.000000e+00 0.000000e+00 0.000000e+00 7.502654e-01 2.497346e-01
 0.000000e+00 0.000000e+00 0.000000e+00 0.000000e+00 0.000000e+00
<ENDHMM>
~h "k"
<BEGINHMM>
<NUMSTATES> 5
<STATE> 2
<MEAN> 25
 -1.613865e+00 7.584270e-01 -1.311951e+00 2.562099e+00 2.605382e+00 2.020044e+00 2.690535e+00 2.672875e+00 2.034898e+00 3.623873e+00 6.086657e-01 -3.882208e-01 8.338644e-02 -8.253946e-01 -1.226216e+00 -8.780949e-01 4.723643e-01 -9.537838e-02 -5.203109e-01 2.160334e-01 5.279062e-03 2.698598e-01 -4.661170e-01 2.989661e-01 1.413713e+00
<VARIANCE> 25
 9.817975e+00 2.135221e+01 2.797009e+01 2.552018e+01 2.497087e+01 2.749107e+01 2.667610e+01 2.176798e+01 2.021586e+01 2.247047e+01 1.893111e+01 1.491179e+01 1.538858e+00 3.455000e+00 5.652778e+00 5.240469e+00 2.495834e+00 4.804368e+00 3.222300e+00 2.915675e+00 3.710027e+00 3.308633e+00 3.647862e+00 1.638100e+00 5.726369e+00
<GCONST> 9.834441e+01
<STATE> 3
<MEAN> 25
 1.004551e+00 -4.962948e+00 -6.697990e+00 -3.982395e+00 2.706120e+00 -2.473221e-01 -1.658846e+00 5.266650e-01 6.265562e-01 1.899462e+00 -3.691618e+00 6.954703e-01 1.352769e+00 -1.060658e+00 -4.508137e-01 -1.934812e+00 -3.840648e-01 -6.722647e-01 -9.448259e-01 -1.237063e+00 -8.399705e-01 -1.013941e+00 -1.082534e+00 9.150540e-02 2.421509e+00
<VARIANCE> 25
 3.290275e+01 6.481650e+01 4.859303e+01 6.525267e+01 5.470630e+01 8.616112e+01 4.987645e+01 4.724353e+01 4.273914e+01 5.117422e+01 3.949493e+01 2.238566e+01 3.547394e+00 5.255535e+00 4.983392e+00 5.576142e+00 3.967921e+00 5.526098e+00 4.827185e+00 4.877357e+00 4.123736e+00 4.549905e+00 4.031720e+00 2.553403e+00 5.213905e+00
<GCONST> 1.117833e+02
<STATE> 4
<MEAN> 25
 4.068034e+00 -8.912498e+00 -4.210141e+00 -5.717796e+00 2.221954e+00 -7.914004e-02 -1.945954e+00 -2.040407e-01 -3.981720e-01 -1.923505e+00 -2.724631e+00 5.687434e-01 5.795063e-01 -9.946485e-02 1.527824e-01 -5.161747e-01 -1.207021e-01 -1.998898e-01 -3.252567e-01 -7.358552e-01 -4.436764e-01 -6.819845e-01 -3.676050e-02 -8.384982e-02 5.153336e-01
<VARIANCE> 25
 5.039307e+01 1.236532e+02 4.105298e+01 6.584328e+01 3.871106e+01 6.520251e+01 4.674278e+01 4.341757e+01 3.667751e+01 6.117416e+01 4.925990e+01 1.961463e+01 3.585220e+00 4.603492e+00 3.077496e+00 4.241511e+00 3.311427e+00 4.142534e+00 3.974326e+00 4.527919e+00 3.215222e+00 3.118139e+00 3.047366e+00 2.084920e+00 6.986427e+00
<GCONST> 1.096044e+02
<TRANSP> 5
 0.000000e+00 1.000000e+00 0.000000e+00 0.000000e+00 0.000000e+00
 0.000000e+00 6.782641e-01 3.217358e-01 0.000000e+00 0.000000e+00
 0.000000e+00 0.000000e+00 4.135102e-01 5.864897e-01 0.000000e+00
 0.000000e+00 0.000000e+00 0.000000e+00 4.342021e-01 5.657979e-01
 0.000000e+00 0.000000e+00 0.000000e+00 0.000000e+00 0.000000e+00
<ENDHMM>
~h "l"
<BEGINHMM>
<NUMSTATES> 5
<STATE> 2
<MEAN> 25
 9.903769e+00 -4.307207e+00 -8.102981e+00 -1.207642e+01 1.659602e+00 -4.579646e+00 -4.489373e+00 -7.143626e+00 -2.546455e+00 -5.207161e+00 -6.956872e+00 -3.303898e+00 1.273169e-01 2.308137e-01 -1.089395e-01 2.073527e-01 -4.522539e-02 -9.168763e-02 -3.688170e-01 -3.502262e-02 2.590117e-01 5.150743e-02 5.272087e-02 2.175501e-02 -1.608076e-01
<VARIANCE> 25
 7.684844e+00 7.007565e+01 2.422844e+01 3.735697e+01 2.909551e+01 3.233169e+01 4.966041e+01 3.445591e+01 4.477065e+01 2.322456e+01 2.425500e+01 1.913667e+01 3.248805e-01 8.906782e-01 6.193307e-01 1.171731e+00 1.087572e+00 1.116981e+00 1.481143e+00 1.133670e+00 1.717374e+00 1.208824e+00 1.129997e+00 9.563636e-01 3.374365e-01
<GCONST> 8.529611e+01
<STATE> 3
<MEAN> 25
 9.888225e+00 -5.085740e+00 -4.516850e+00 -7.761995e+00 -9.608232e-01 -5.849823e+00 -1.093057e+01 -5.374797e+00 1.363263e+00 -5.505372e+00 -6.154075e+00 -5.075088e-01 -6.706929e-01 7.543157e-02 1.452413e+00 1.466429e+00 -1.418572e+00 -7.475091e-01 1.007600e-01 5.176208e-01 -2.377828e-01 -2.940832e-01 2.397231e-01 8.079398e-01 -3.417522e-01
<VARIANCE> 25
 1.897954e+01 9.289381e+01 3.055509e+01 3.876688e+01 4.362740e+01 5.587896e+01 3.264600e+01 5.309828e+01 5.336861e+01 4.360656e+01 2.407048e+01 2.121545e+01 1.074678e+00 1.824458e+00 2.314279e+00 2.005018e+00 4.153024e+00 2.312650e+00 2.713265e+00 3.378252e+00 3.740806e+00 2.674166e+00 2.704819e+00 2.297426e+00 1.295769e+00
<GCONST> 1.008184e+02
<STATE> 4
<MEAN> 25
 6.878145e+00 -2.728181e+00 -1.745340e+00 -2.831279e+00 -3.639614e+00 -6.505136e+00 -8.228791e+00 -2.303381e+00 -4.475131e-01 -4.636444e+00 -2.708358e+00 1.708262e+00 -1.296721e+00 3.198425e-01 2.196084e+00 4.150040e-01 -2.057462e+00 6.620255e-01 1.363253e+00 1.001347e-01 -8.790076e-01 6.135597e-01 5.640332e-01 4.972492e-01 -3.266713e-01
<VARIANCE> 25
 2.661745e+01 6.591619e+01 3.187307e+01 3.862400e+01 7.915591e+01 6.441911e+01 6.204909e+01 4.237884e+01 4.848484e+01 4.969953e+01 4.650920e+01 2.424674e+01 1.482504e+00 2.082727e+00 4.551815e+00 2.018586e+00 8.693883e+00 2.684371e+00 2.503975e+00 5.296655e+00 4.258551e+00 3.227476e+00 2.880023e+00 2.422737e+00 1.440364e+00
<GCONST> 1.057677e+02
<TRANSP> 5
 0.000000e+00 1.000000e+00 0.000000e+00 0.000000e+00 0.000000e+00
 0.000000e+00 9.170272e-01 8.297278e-02 0.000000e+00 0.000000e+00
 0.000000e+00 0.000000e+00 5.793397e-01 4.206603e-01 0.000000e+00
 0.000000e+00 0.000000e+00 0.000000e+00 3.246935e-01 6.753065e-01
 0.000000e+00 0.000000e+00 0.000000e+00 0.000000e+00 0.000000e+00
<ENDHMM>
~h "m"
<BEGINHMM>
<NUMSTATES> 5
<STATE> 2
<MEAN> 25
 7.295115e+00 -3.486834e+00 3.505508e+00 -1.308539e+00 -3.199507e+00 -7.756201e+00 -1.130762e+01 -7.394973e+00 -3.872433e+00 -5.829265e+00 -2.263038e+00 -2.594505e+00 3.046502e-01 -1.797108e-01 5.276022e-02 -3.147789e-01 -2.946561e-03 -5.326028e-01 -8.602276e-01 -1.579670e-01 -4.365276e-01 -6.410401e-01 -7.176772e-02 -1.647297e-01 6.594463e-01
<VARIANCE> 25
 2.645473e+01 1.002600e+02 2.463638e+01 4.190775e+01 4.321289e+01 3.973719e+01 4.242073e+01 5.227642e+01 3.826214e+01 4.120969e+01 2.702455e+01 2.258895e+01 1.955193e+00 5.453674e+00 2.410983e+00 4.920162e+00 4.270494e+00 3.664673e+00 3.760679e+00 5.177747e+00 3.703519e+00 3.668217e+00 2.484089e+00 2.534374e+00 5.211779e+00
<GCONST> 1.063591e+02
<STATE> 3
<MEAN> 25
 6.847427e+00 -2.835422e+00 3.468446e+00 -3.036039e+00 -2.487840e+00 -9.388115e+00 -1.141031e+01 -3.931049e+00 -5.308863e+00 -1.031213e+01 -7.998718e-01 -9.984446e-01 -2.166549e-01 2.955769e-01 2.599984e-02 2.513880e-01 -1.689948e-01 2.566148e-01 4.102097e-01 2.384472e-01 3.603804e-02 -4.404528e-02 -1.468809e-01 2.086397e-01 -4.559032e-01
<VARIANCE> 25
 1.552498e+01 1.169999e+02 2.459819e+01 3.105922e+01 4.328058e+01 3.360993e+01 3.206269e+01 5.909861e+01 2.487555e+01 6.032481e+01 2.570301e+01 2.546032e+01 8.240435e-01 2.029856e+00 1.557822e+00 1.485701e+00 2.062876e+00 2.066491e+00 2.362583e+00 2.531373e+00 1.732758e+00 2.778211e+00 1.864410e+00 1.881043e+00 2.163299e+00
<GCONST> 9.690691e+01
<STATE> 4
<MEAN> 25
 2.694065e+00 -3.927717e-01 2.136425e+00 1.201934e+00 -2.299019e+00 -3.600796e+00 -5.749250e+00 -2.378300e+00 -2.941085e+00 -5.420238e+00 -1.241942e+00 -7.745834e-02 -1.435857e+00 1.957955e-01 -7.506593e-01 4.283212e-01 4.190789e-01 1.406011e+00 1.717301e+00 1.060959e+00 1.166028e+00 1.441869e+00 6.629586e-01 2.381938e-01 -1.007580e+00
<VARIANCE> 25
 2.336253e+01 8.232450e+01 2.910957e+01 2.364679e+01 3.076144e+01 4.790545e+01 4.441390e+01 3.716969e+01 3.217728e+01 7.899509e+01 3.449973e+01 2.781040e+01 2.729030e+00 3.543169e+00 2.375231e+00 1.705513e+00 2.612411e+00 3.202957e+00 4.113166e+00 4.024161e+00 3.521204e+00 6.054504e+00 2.699996e+00 2.472890e+00 3.492507e+00
<GCONST> 1.042622e+02
<TRANSP> 5
 0.000000e+00 1.000000e+00 0.000000e+00 0.000000e+00 0.000000e+00
 0.000000e+00 8.636824e-01 1.363175e-01 0.000000e+00 0.000000e+00
 0.000000e+00 0.000000e+00 8.487824e-01 1.512176e-01 0.000000e+00
 0.000000e+00 0.000000e+00 0.000000e+00 6.229950e-01 3.770050e-01
 0.000000e+00 0.000000e+00 0.000000e+00 0.000000e+00 0.000000e+00
<ENDHMM>
~h "n"
<BEGINHMM>
<NUMSTATES> 5
<STATE> 2
<MEAN> 25
 5.647704e+00 4.138974e+00 4.935173e+00 1.026161e+00 -9.520662e+00 -1.136433e+01 -6.682670e+00 -4.826797e+00 -4.747487e+00 -5.747323e+00 -1.888051e+00 -1.704370e+00 -3.410351e-01 2.185982e-01 1.035436e-01 2.373312e-01 3.408289e-01 -3.027406e-03 -1.412648e-01 -1.105677e-01 -2.437367e-01 9.835796e-02 1.386694e-01 -2.250916e-01 -5.049024e-01
<VARIANCE> 25
 8.750316e+00 1.571977e+01 1.189258e+01 1.803619e+01 3.180535e+01 2.364846e+01 2.777097e+01 1.873604e+01 2.279766e+01 2.859909e+01 1.670048e+01 2.008963e+01 4.828936e-01 1.067686e+00 8.314382e-01 9.222988e-01 1.453891e+00 2.032477e+00 1.898676e+00 2.201504e+00 1.968016e+00 2.079235e+00 1.829092e+00 1.426620e+00 8.311816e-01
<GCONST> 8.518137e+01
<STATE> 3
<MEAN> 25
 -5.217615e-01 1.929284e+00 3.960998e+00 3.724941e+00 -3.108697e+00 -3.158842e+00 -2.715172e+00 -5.334783e-01 -2.891932e+00 -2.345219e+00 2.983137e+00 4.237031e-01 -9.346613e-01 -2.736069e-01 -5.691873e-01 1.768930e-01 1.301922e+00 1.699236e+00 1.503170e+00 1.118591e+00 1.099578e+00 1.389458e+00 1.032494e+00 4.504889e-01 -7.195267e-01
<VARIANCE> 25
 1.009309e+01 2.624837e+01 1.546286e+01 1.384591e+01 3.051880e+01 3.652832e+01 3.008915e+01 3.188771e+01 3.244997e+01 4.021222e+01 2.912740e+01 2.096047e+01 6.861184e-01 1.146118e+00 7.919770e-01 8.592369e-01 1.180125e+00 2.381696e+00 2.929172e+00 2.782843e+00 3.009831e+00 2.759907e+00 2.659241e+00 1.743348e+00 2.796117e-01
<GCONST> 8.924677e+01
<STATE> 4
<MEAN> 25
 -2.687223e+00 1.902074e+00 -3.083756e-02 3.815155e+00 3.469353e+00 3.791521e+00 3.907937e+00 2.345387e+00 1.392528e+00 3.470560e+00 2.382167e+00 -2.463357e-01 -2.372054e-02 4.675906e-02 -6.194531e-02 9.439064e-03 8.994425e-02 5.741289e-02 7.483017e-02 3.046212e-03 4.677518e-02 8.266266e-02 -4.797239e-02 -4.339581e-02 -4.417961e-02
<VARIANCE> 25
 5.642352e+00 1.786437e+01 1.059351e+01 1.002226e+01 1.278269e+01 1.659283e+01 1.606489e+01 1.458897e+01 1.429982e+01 1.529703e+01 1.573410e+01 1.249036e+01 1.620084e-01 3.041687e-01 5.078116e-01 6.361594e-01 8.778123e-01 1.134242e+00 1.192012e+00 1.331840e+00 1.279899e+00 1.391525e+00 1.313368e+00 1.070594e+00 1.178568e-01
<GCONST> 7.180507e+01
<TRANSP> 5
 0.000000e+00 1.000000e+00 0.000000e+00 0.000000e+00 0.000000e+00
 0.000000e+00 8.516285e-01 1.483714e-01 0.000000e+00 0.000000e+00
 0.000000e+00 0.000000e+00 6.726267e-01 3.273733e-01 0.000000e+00
 0.000000e+00 0.000000e+00 0.000000e+00 9.513165e-01 4.868351e-02
 0.000000e+00 0.000000e+00 0.000000e+00 0.000000e+00 0.000000e+00
<ENDHMM>
~h "o"
<BEGINHMM>
<NUMSTATES> 5
<STATE> 2
<MEAN> 25
 8.148052e+00 -9.586871e-01 -3.842068e+00 -1.530742e+01 -4.190970e+00 -8.971761e-01 -4.364935e+00 -8.616007e+00 -4.720023e+00 2.230200e-01 -6.607654e+00 -8.315795e-01 8.456428e-01 -5.063014e-01 -5.234165e-01 -8.772581e-01 3.467274e-01 -3.052215e-01 -2.022528e-01 -6.290761e-01 -1.798483e-01 -5.946335e-01 -1.870807e-01 -5.892482e-01 8.122095e-01
<VARIANCE> 25
 2.315492e+01 4.104857e+01 7.666628e+01 6.057472e+01 7.610437e+01 5.633878e+01 3.482496e+01 4.767765e+01 3.628505e+01 3.053613e+01 2.541784e+01 2.248711e+01 1.804943e+00 1.306109e+00 2.478849e+00 3.824706e+00 3.291372e+00 3.966875e+00 2.858954e+00 4.047403e+00 3.030566e+00 3.342609e+00 2.662043e+00 1.767189e+00 1.545198e+00
<GCONST> 1.028080e+02
<STATE> 3
<MEAN> 25
 1.037571e+01 -4.249734e+00 -7.886303e+00 -1.429096e+01 1.029433e+00 -1.119673e+00 -5.582307e+00 -7.084249e+00 -3.193821e+00 -2.216755e+00 -4.108582e+00 -2.813307e+00 -4.047837e-01 1.554268e-01 8.105585e-01 1.691455e+00 -5.618770e-01 -1.026043e+00 4.261061e-02 1.145896e-01 5.843805e-01 -3.036070e-01 -7.666723e-02 5.012533e-03 -5.690992e-01
<VARIANCE> 25
 1.447059e+01 4.346904e+01 1.939995e+01 4.724104e+01 2.214436e+01 3.911226e+01 3.142740e+01 3.172276e+01 2.726071e+01 4.513622e+01 4.263715e+01 1.523616e+01 6.013374e-01 1.150075e+00 2.042345e+00 3.540293e+00 2.846168e+00 3.471643e+00 2.510451e+00 2.519371e+00 2.392961e+00 2.601263e+00 3.487176e+00 1.392935e+00 1.386548e+00
<GCONST> 9.595233e+01
<STATE> 4
<MEAN> 25
 6.793409e+00 -2.437031e+00 -4.786743e+00 -7.196798e+00 -5.512080e-01 -2.335151e+00 -3.263735e+00 -4.665285e+00 -5.436990e-01 -1.727256e+00 -4.018935e+00 -1.735659e+00 -9.406599e-01 3.108115e-01 1.337334e+00 2.038452e+00 -3.915346e-01 -3.221425e-01 3.889017e-01 3.203237e-01 3.407678e-01 -2.281452e-01 3.157836e-01 3.110312e-01 -8.705369e-01
<VARIANCE> 25
 1.765911e+01 3.363568e+01 2.719474e+01 6.721694e+01 2.687983e+01 5.165693e+01 5.369291e+01 5.208106e+01 2.545731e+01 3.282647e+01 3.892669e+01 1.526221e+01 1.124388e+00 9.314102e-01 1.903047e+00 2.618718e+00 2.864610e+00 2.446492e+00 2.829575e+00 2.869024e+00 2.540287e+00 2.315881e+00 3.121441e+00 1.514485e+00 1.091354e+00
<GCONST> 9.723846e+01
<TRANSP> 5
 0.000000e+00 1.000000e+00 0.000000e+00 0.000000e+00 0.000000e+00
 0.000000e+00 7.639007e-01 2.360993e-01 0.000000e+00 0.000000e+00
 0.000000e+00 0.000000e+00 6.268904e-01 3.731096e-01 0.000000e+00
 0.000000e+00 0.000000e+00 0.000000e+00 4.786490e-01 5.213510e-01
 0.000000e+00 0.000000e+00 0.000000e+00 0.000000e+00 0.000000e+00
<ENDHMM>
~h "p"
<BEGINHMM>
<NUMSTATES> 5
<STATE> 2
<MEAN> 25
 4.590477e+00 -5.645377e+00 -2.005965e+00 -1.614504e+00 -1.427955e+00 -1.151725e+00 -1.735267e+00 -8.054180e-01 1.991540e-01 -1.421098e+00 -1.965963e+00 -1.523787e+00 1.772757e+00 -2.175735e+00 -8.366365e-01 -1.721674e+00 -1.256717e+00 -1.066735e+00 -6.737997e-01 -5.473217e-01 -5.383965e-01 -1.435297e+00 -1.071089e+00 -2.710873e-01 3.029927e+00
<VARIANCE> 25
 3.725753e+01 8.577949e+01 3.302700e+01 4.437835e+01 4.979316e+01 3.255331e+01 3.491946e+01 4.550817e+01 3.072759e+01 3.635922e+01 3.191014e+01 1.971961e+01 3.044611e+00 7.971028e+00 3.194729e+00 4.848883e+00 4.270493e+00 3.345009e+00 3.341337e+00 5.965551e+00 3.809416e+00 4.005113e+00 3.473056e+00 1.979918e+00 8.693509e+00
<GCONST> 1.079282e+02
<STATE> 3
<MEAN> 25
 8.674505e+00 -1.027416e+01 -2.959004e+00 -8.104700e+00 -7.561101e+00 -8.356700e+00 2.337282e+00 -4.457764e+00 -5.164129e+00 -7.765050e+00 -5.251227e+00 -1.278143e+00 -4.988357e-01 6.158159e-01 2.679374e-01 -1.341536e-01 -1.879706e-01 -4.085292e-02 3.050123e-01 -1.072680e-01 -2.875028e-01 -1.810557e-01 2.850935e-01 4.795834e-01 -3.127395e-01
<VARIANCE> 25
 2.057408e+01 5.729499e+01 2.140826e+01 3.304250e+01 4.960494e+01 3.634835e+01 6.514717e+01 3.784841e+01 3.633015e+01 3.781859e+01 2.863777e+01 1.999052e+01 3.071170e+00 3.039423e+00 1.333497e+00 5.075288e+00 3.428549e+00 4.279037e+00 4.790947e+00 3.853036e+00 3.019982e+00 4.809177e+00 4.229702e+00 2.151611e+00 3.646948e+00
<GCONST> 1.043890e+02
<STATE> 4
<MEAN> 25
 -6.513386e-01 -1.098616e+00 -1.935063e+00 2.707593e-01 1.929905e-01 1.112106e+00 3.715147e+00 1.953277e+00 -1.085982e-01 3.217990e-01 3.591166e-01 4.532700e-01 -5.278024e-01 5.846612e-01 1.385344e-01 2.077669e-01 3.736650e-01 3.965409e-01 2.487518e-02 2.655306e-01 2.713426e-01 4.024500e-01 2.911268e-01 -5.964939e-02 -3.607958e-01
<VARIANCE> 25
 3.879935e+01 9.846862e+01 2.097520e+01 4.121036e+01 4.707930e+01 3.003838e+01 4.479252e+01 3.154358e+01 2.588086e+01 3.722837e+01 2.204609e+01 1.527881e+01 2.544305e+00 2.673546e+00 1.451728e+00 2.982630e+00 2.524563e+00 3.393212e+00 2.770828e+00 3.482039e+00 2.211779e+00 2.979862e+00 2.860057e+00 1.882064e+00 3.319731e+00
<GCONST> 1.007212e+02
<TRANSP> 5
 0.000000e+00 1.000000e+00 0.000000e+00 0.000000e+00 0.000000e+00
 0.000000e+00 7.358964e-01 2.641036e-01 0.000000e+00 0.000000e+00
 0.000000e+00 0.000000e+00 7.208160e-01 2.791840e-01 0.000000e+00
 0.000000e+00 0.000000e+00 0.000000e+00 7.672271e-01 2.327729e-01
 0.000000e+00 0.000000e+00 0.000000e+00 0.000000e+00 0.000000e+00
<ENDHMM>
~h "r"
<BEGINHMM>
<NUMSTATES> 5
<STATE> 2
<MEAN> 25
 5.667372e+00 -1.076562e+01 1.714192e+00 -3.669954e+00 -5.811710e+00 -1.575934e+00 -2.860312e+00 -8.272072e-01 -9.431865e-01 -6.782487e+00 -3.041978e+00 2.547817e-01 -5.535337e-01 2.612217e-01 2.104481e-01 5.408071e-01 4.125823e-02 6.845791e-01 -3.595793e-01 4.547109e-01 4.627163e-01 2.704191e-02 6.033508e-01 4.862713e-02 -8.124062e-01
<VARIANCE> 25
 4.138320e+01 9.756962e+01 3.927111e+01 4.224857e+01 4.519725e+01 4.447878e+01 4.812600e+01 4.041656e+01 4.575265e+01 4.218797e+01 3.300873e+01 2.360125e+01 3.654626e+00 3.929379e+00 4.357197e+00 2.930769e+00 4.733560e+00 4.364805e+00 4.237106e+00 5.643443e+00 5.114189e+00 3.570788e+00 4.519284e+00 2.434627e+00 3.781778e+00
<GCONST> 1.091143e+02
<STATE> 3
<MEAN> 25
 1.187254e+00 -6.857636e+00 1.509436e+00 6.440643e-01 -3.993147e+00 1.694346e+00 -2.234873e+00 1.996472e+00 1.723944e+00 -4.341165e+00 4.664956e-01 7.409250e-01 -5.715359e-01 8.195494e-01 -6.870955e-02 6.714382e-01 8.258535e-01 2.086849e-01 2.053460e-01 3.278897e-01 5.223383e-02 7.750172e-01 5.805826e-01 -1.521695e-01 -9.537829e-01
<VARIANCE> 25
 4.187740e+01 6.034323e+01 4.260544e+01 2.860289e+01 4.734546e+01 3.589873e+01 4.646531e+01 3.827875e+01 3.621125e+01 4.165354e+01 3.368514e+01 2.574465e+01 2.778056e+00 4.120646e+00 4.495584e+00 1.370974e+00 4.512577e+00 3.787777e+00 4.684889e+00 3.926118e+00 3.306314e+00 3.959265e+00 3.609071e+00 2.085099e+00 2.121814e+00
<GCONST> 1.052425e+02
<STATE> 4
<MEAN> 25
 -3.047373e+00 8.357191e-01 3.437160e-01 4.448016e+00 2.464916e+00 2.893630e+00 2.302037e+00 3.499373e+00 2.095956e+00 1.899847e+00 2.675799e+00 1.436465e-01 1.745939e-02 1.165799e-01 7.478229e-02 5.351308e-02 1.036249e-01 -5.949477e-02 -6.198982e-02 -7.855284e-02 -8.882665e-03 1.221866e-01 -3.369002e-02 -1.684665e-02 -2.063747e-01
<VARIANCE> 25
 1.638407e+01 2.640191e+01 2.156155e+01 1.316360e+01 2.459017e+01 1.670417e+01 1.913745e+01 1.916800e+01 2.141469e+01 2.139034e+01 1.758309e+01 1.390614e+01 6.132408e-01 7.100560e-01 9.306950e-01 8.510235e-01 1.418624e+00 1.342592e+00 1.643358e+00 1.663887e+00 1.732503e+00 1.830520e+00 1.617303e+00 1.215049e+00 5.508397e-01
<GCONST> 8.303325e+01
<TRANSP> 5
 0.000000e+00 1.000000e+00 0.000000e+00 0.000000e+00 0.000000e+00
 0.000000e+00 7.774253e-01 2.225747e-01 0.000000e+00 0.000000e+00
 0.000000e+00 0.000000e+00 5.561862e-01 4.438138e-01 0.000000e+00
 0.000000e+00 0.000000e+00 0.000000e+00 9.034772e-01 9.652278e-02
 0.000000e+00 0.000000e+00 0.000000e+00 0.000000e+00 0.000000e+00
<ENDHMM>
~h "s"
<BEGINHMM>
<NUMSTATES> 5
<STATE> 2
<MEAN> 25
 -1.029609e+01 3.834198e+00 -3.161936e+00 4.968622e+00 -3.900555e-03 2.043828e+00 6.458716e+00 3.502092e+00 2.657892e+00 3.848392e+00 3.292427e+00 1.340456e-01 -1.199113e-01 -3.905126e-01 7.226053e-02 -2.214981e-01 -1.609897e-01 -2.710271e-02 -1.549631e-01 1.084666e-01 2.993461e-01 1.411892e-01 1.979201e-01 3.779554e-02 2.896050e-01
<VARIANCE> 25
 3.294432e+01 6.383877e+01 2.893552e+01 1.694354e+01 3.675053e+01 3.247779e+01 3.200607e+01 2.193255e+01 2.042285e+01 2.638614e+01 1.717986e+01 1.541016e+01 3.440122e+00 3.160979e+00 1.768133e+00 1.950844e+00 1.787453e+00 2.345090e+00 2.592446e+00 2.173744e+00 2.197474e+00 2.525466e+00 2.327978e+00 1.305248e+00 1.849207e+00
<GCONST> 9.552655e+01
<STATE> 3
<MEAN> 25
 -5.218940e+00 -2.169415e+00 -1.620609e+00 2.166429e+00 -1.369869e+00 1.528193e+00 3.079713e+00 2.367240e+00 3.253288e+00 2.129672e+00 2.543624e+00 3.782099e-01 2.825602e+00 -1.019403e+00 4.851860e-01 -1.739835e+00 -1.169907e+00 -1.132787e+00 -2.525737e+00 -1.895605e+00 -5.799412e-01 -1.472146e+00 -1.299845e+00 -6.333184e-03 1.472351e+00
<VARIANCE> 25
 3.553043e+01 8.882184e+01 3.244147e+01 2.462839e+01 3.592030e+01 4.484686e+01 4.398521e+01 2.903543e+01 2.224099e+01 2.930776e+01 2.344600e+01 1.543172e+01 6.155571e+00 8.547015e+00 3.841496e+00 4.325109e+00 4.392196e+00 4.887691e+00 6.427402e+00 5.314368e+00 2.392089e+00 3.110922e+00 3.639302e+00 1.761778e+00 6.096224e+00
<GCONST> 1.066388e+02
<STATE> 4
<MEAN> 25
 6.246712e+00 -1.111915e+01 3.026815e+00 -6.271433e+00 -6.194562e+00 8.001831e-01 -5.538041e+00 -3.516250e+00 3.685561e-01 -3.255548e+00 -7.008808e-01 -1.044211e-01 8.485904e-01 2.115291e-01 1.520278e-01 -6.690612e-01 -2.642801e-01 -4.795487e-01 -7.898562e-01 -6.987776e-01 -3.426707e-01 -3.947292e-01 -5.630903e-01 -9.402826e-02 4.198039e-01
<VARIANCE> 25
 6.338284e+01 1.364115e+02 6.147314e+01 7.435586e+01 6.643977e+01 5.471675e+01 6.360377e+01 6.231301e+01 2.821163e+01 4.357882e+01 3.223354e+01 2.196041e+01 5.667222e+00 8.475811e+00 4.189395e+00 7.600674e+00 5.732163e+00 5.283711e+00 7.150948e+00 6.789481e+00 3.088239e+00 4.233783e+00 3.753266e+00 2.555633e+00 9.657426e+00
<GCONST> 1.153245e+02
<TRANSP> 5
 0.000000e+00 1.000000e+00 0.000000e+00 0.000000e+00 0.000000e+00
 0.000000e+00 7.460546e-01 2.539454e-01 0.000000e+00 0.000000e+00
 0.000000e+00 0.000000e+00 3.615259e-01 6.384741e-01 0.000000e+00
 0.000000e+00 0.000000e+00 0.000000e+00 7.259756e-01 2.740245e-01
 0.000000e+00 0.000000e+00 0.000000e+00 0.000000e+00 0.000000e+00
<ENDHMM>
~h "t"
<BEGINHMM>
<NUMSTATES> 5
<STATE> 2
<MEAN> 25
 -1.659687e+00 1.442625e+00 -6.143348e-01 4.230986e+00 3.012519e+00 2.013856e+00 3.091334e+00 1.378487e+00 9.449043e-01 2.147041e+00 1.006660e+00 -1.490431e-01 -3.214402e-01 1.553757e-01 -2.229677e-02 3.927177e-02 6.262821e-02 -8.595301e-02 3.053334e-01 1.272857e-01 2.280705e-01 4.040268e-01 2.137029e-01 7.755726e-02 -6.175717e-02
<VARIANCE> 25
 7.554295e+00 1.852641e+01 1.379986e+01 1.203555e+01 2.958609e+01 1.767843e+01 1.903556e+01 1.719713e+01 1.591680e+01 1.847083e+01 1.499915e+01 1.241776e+01 7.191646e-01 2.395341e+00 9.597737e-01 1.449291e+00 1.941039e+00 2.311578e+00 2.129203e+00 1.958174e+00 2.153597e+00 2.299824e+00 2.076283e+00 1.310959e+00 3.213933e+00
<GCONST> 8.653374e+01
<STATE> 3
<MEAN> 25
 -2.672570e+00 1.313661e+00 -1.002590e+00 3.691315e+00 2.565094e+00 1.520549e+00 3.868462e+00 2.546992e+00 1.828195e+00 2.452450e+00 1.688138e+00 3.445710e-01 -1.650744e-01 -8.521312e-01 -1.272223e-01 -7.547636e-01 -3.614057e-01 -9.725809e-01 -2.346174e-01 2.247225e-01 6.618618e-01 -2.846738e-01 4.811256e-02 4.971266e-01 2.174044e+00
<VARIANCE> 25
 1.096291e+01 2.483891e+01 1.471262e+01 1.537029e+01 2.552938e+01 1.916902e+01 1.942103e+01 2.304294e+01 1.884386e+01 1.833766e+01 1.470806e+01 1.438370e+01 1.549897e+00 3.460059e+00 2.011148e+00 2.706195e+00 3.932199e+00 4.148511e+00 2.682375e+00 3.103679e+00 2.205752e+00 2.814907e+00 1.666667e+00 1.808908e+00 6.880657e+00
<GCONST> 9.361471e+01
<STATE> 4
<MEAN> 25
 3.183106e-02 -3.477027e+00 4.368280e-01 -1.221141e+00 -2.164624e-01 -1.553909e+00 -1.395024e+00 5.618895e-01 1.312900e+00 -1.008953e+00 -5.983696e-01 9.801036e-01 1.180732e+00 -9.952970e-01 -1.825325e-01 -1.251116e+00 -7.131693e-01 -5.585657e-01 -1.340493e+00 -9.041071e-01 -2.656453e-01 -1.049540e+00 -6.441322e-01 3.144115e-02 2.138911e+00
<VARIANCE> 25
 5.877361e+01 1.350083e+02 3.455779e+01 4.880616e+01 7.091840e+01 5.277261e+01 7.154050e+01 4.806030e+01 3.370851e+01 6.181066e+01 3.363728e+01 2.100627e+01 4.268494e+00 9.383053e+00 3.340025e+00 5.986048e+00 6.036385e+00 5.671713e+00 5.477889e+00 5.151014e+00 2.894809e+00 5.242223e+00 3.044902e+00 2.199413e+00 1.257724e+01
<GCONST> 1.136410e+02
<TRANSP> 5
 0.000000e+00 1.000000e+00 0.000000e+00 0.000000e+00 0.000000e+00
 0.000000e+00 5.965046e-01 4.034954e-01 0.000000e+00 0.000000e+00
 0.000000e+00 0.000000e+00 3.621097e-01 6.378903e-01 0.000000e+00
 0.000000e+00 0.000000e+00 0.000000e+00 7.229885e-01 2.770115e-01
 0.000000e+00 0.000000e+00 0.000000e+00 0.000000e+00 0.000000e+00
<ENDHMM>
~h "u"
<BEGINHMM>
<NUMSTATES> 5
<STATE> 2
<MEAN> 25
 7.596858e+00 6.222679e+00 -3.920323e+00 -6.521855e+00 -6.642575e+00 -8.641931e+00 -9.458791e+00 -5.918353e+00 -4.340520e+00 -2.277812e+00 -1.277429e+00 1.428921e+00 -3.303010e-02 2.606534e-01 2.802072e-01 1.899140e-02 -2.599387e-01 -3.510761e-01 -1.801855e-01 4.700639e-02 -3.467336e-01 -8.909936e-02 -3.724755e-02 -1.141933e-01 -5.677709e-02
<VARIANCE> 25
 2.721809e+01 2.496458e+01 2.729755e+01 4.922010e+01 3.347154e+01 3.973661e+01 5.639023e+01 3.582166e+01 4.012648e+01 3.317229e+01 2.340899e+01 3.356013e+01 5.444337e+00 2.469166e+00 2.841997e+00 5.005223e+00 3.374445e+00 4.304724e+00 9.899484e+00 4.661035e+00 4.266630e+00 4.056366e+00 3.044680e+00 3.304723e+00 2.223831e+00
<GCONST> 1.060556e+02
<STATE> 3
<MEAN> 25
 6.857827e-01 4.093627e+00 -1.806881e+00 -2.674510e+00 -4.151870e+00 -6.077642e+00 -1.979397e+00 -1.490892e+00 -3.209310e+00 1.051090e+00 4.760611e-01 1.057877e-01 -1.758771e+00 -5.384213e-01 4.692899e-02 8.050970e-01 1.125276e+00 1.160939e+00 1.890273e+00 1.085687e+00 1.081937e+00 1.358527e+00 9.173241e-01 2.012939e-01 -6.635779e-01
<VARIANCE> 25
 6.189851e+01 2.845501e+01 1.528362e+01 3.402113e+01 2.963302e+01 3.893675e+01 5.665818e+01 4.200234e+01 3.160165e+01 3.851872e+01 2.580585e+01 1.922248e+01 2.758104e+00 2.193694e+00 1.613521e+00 3.059586e+00 2.282670e+00 2.349874e+00 3.493043e+00 3.618444e+00 3.505051e+00 3.788580e+00 2.519494e+00 2.112359e+00 1.450972e+00
<GCONST> 1.000548e+02
<STATE> 4
<MEAN> 25
 -4.313933e+00 2.400135e+00 -7.243473e-01 2.256487e+00 1.446839e+00 -2.765243e-02 4.068172e+00 1.904478e+00 6.538745e-01 3.696325e+00 2.240769e+00 3.858640e-02 -6.214777e-02 -5.761971e-02 5.453750e-02 2.372857e-01 2.370829e-01 2.719783e-01 1.804874e-01 9.556544e-02 1.662137e-01 -5.119410e-03 -3.266509e-02 -5.182985e-02 -2.039658e-01
<VARIANCE> 25
 3.570643e+01 1.675508e+01 1.481586e+01 2.219045e+01 1.879716e+01 3.195650e+01 3.335868e+01 1.969000e+01 1.935044e+01 2.512652e+01 1.912282e+01 1.336547e+01 5.448040e-01 7.263666e-01 5.480121e-01 8.905560e-01 1.070555e+00 1.341167e+00 1.673791e+00 1.284458e+00 1.765182e+00 1.604652e+00 1.484862e+00 1.149355e+00 3.157573e-01
<GCONST> 8.265768e+01
<TRANSP> 5
 0.000000e+00 1.000000e+00 0.000000e+00 0.000000e+00 0.000000e+00
 0.000000e+00 8.108367e-01 1.891633e-01 0.000000e+00 0.000000e+00
 0.000000e+00 0.000000e+00 5.259686e-01 4.740314e-01 0.000000e+00
 0.000000e+00 0.000000e+00 0.000000e+00 8.981785e-01 1.018215e-01
 0.000000e+00 0.000000e+00 0.000000e+00 0.000000e+00 0.000000e+00
<ENDHMM>
~h "w"
<BEGINHMM>
<NUMSTATES> 5
<STATE> 2
<MEAN> 25
 -1.549383e+00 -7.228907e-01 -1.324731e+00 3.477211e+00 4.258351e+00 3.976490e+00 4.315447e+00 2.877419e+00 2.111633e+00 2.430609e+00 3.791299e+00 2.206839e-01 9.649768e-03 6.350654e-03 -9.938062e-03 1.441403e-02 5.662544e-02 5.158143e-02 5.147532e-02 -5.875890e-02 4.578661e-03 1.318257e-01 1.520323e-02 -3.798509e-02 -3.244899e-02
<VARIANCE> 25
 3.033668e+00 3.988219e+00 4.491919e+00 7.395629e+00 7.753095e+00 1.427562e+01 1.845242e+01 1.782725e+01 1.374886e+01 1.836713e+01 1.614033e+01 1.211907e+01 1.565449e-01 3.086044e-01 3.898906e-01 6.039905e-01 7.503982e-01 1.005029e+00 1.778772e+00 1.352698e+00 1.581689e+00 1.566420e+00 1.410230e+00 1.182535e+00 1.163113e-01
<GCONST> 6.864031e+01
<STATE> 3
<MEAN> 25
 1.169163e+00 -8.759852e-02 -1.821749e+00 9.232680e-01 1.186236e+00 -6.300703e-02 2.188638e+00 -2.926587e+00 -1.089123e+00 1.771338e+00 -5.162457e-01 -1.440912e+00 1.165080e+00 9.360313e-01 -2.945010e-02 -1.207012e+00 -1.109596e+00 -1.756206e+00 -1.519812e+00 -8.303953e-01 -1.095493e+00 -1.032089e+00 -4.821489e-01 -1.148131e+00 6.320111e-01
<VARIANCE> 25
 1.050100e+01 1.434645e+01 1.206310e+01 1.790609e+01 1.089452e+01 3.413512e+01 2.647695e+01 4.726292e+01 1.656346e+01 2.457494e+01 2.683256e+01 1.092085e+01 1.191010e+00 8.294534e-01 1.237813e+00 1.884272e+00 1.973047e+00 2.510956e+00 3.906992e+00 1.540927e+00 2.193922e+00 2.560626e+00 8.425348e-01 1.214412e+00 4.250962e-01
<GCONST> 8.620052e+01
<STATE> 4
<MEAN> 25
 8.791875e+00 -1.145719e+00 -6.057259e+00 -1.062727e+01 3.155586e+00 -4.368437e+00 -5.374081e+00 -6.959718e+00 -3.190068e+00 -7.146467e-01 -4.654058e+00 -4.952378e+00 -1.518829e-01 -3.917832e-01 1.886384e-02 -9.993281e-02 4.320805e-01 -7.436653e-02 -1.581888e-01 -3.916687e-02 5.977680e-02 -1.761029e-01 -1.307642e-01 4.634195e-02 4.094208e-01
<VARIANCE> 25
 4.633981e+01 5.947455e+01 1.809337e+01 5.284241e+01 8.674197e+01 3.315578e+01 2.676929e+01 3.310391e+01 2.990907e+01 2.013673e+01 1.778140e+01 1.399964e+01 2.389374e+00 2.934819e+00 1.101660e+00 4.459271e+00 5.346071e+00 3.573208e+00 2.273456e+00 3.248115e+00 2.668498e+00 1.431606e+00 1.623581e+00 1.549031e+00 1.920031e+00
<GCONST> 9.880389e+01
<TRANSP> 5
 0.000000e+00 1.000000e+00 0.000000e+00 0.000000e+00 0.000000e+00
 0.000000e+00 9.587898e-01 4.121019e-02 0.000000e+00 0.000000e+00
 0.000000e+00 0.000000e+00 5.182683e-01 4.817317e-01 0.000000e+00
 0.000000e+00 0.000000e+00 0.000000e+00 9.567173e-01 4.328273e-02
 0.000000e+00 0.000000e+00 0.000000e+00 0.000000e+00 0.000000e+00
<ENDHMM>
~h "x"
<BEGINHMM>
<NUMSTATES> 5
<STATE> 2
<MEAN> 25
 -2.555114e+00 -1.044154e+01 2.804903e-01 4.170799e+00 -5.554314e+00 2.611333e+00 9.729195e-01 4.700417e+00 2.106588e+00 -3.537892e+00 3.646706e+00 2.793854e+00 -7.934648e-01 3.555439e-01 -8.199399e-01 7.474900e-01 -3.301303e-01 -2.066814e-01 3.511387e-01 5.317329e-01 -2.187648e-01 -2.266455e-01 5.229418e-01 3.682455e-01 7.597946e-01
<VARIANCE> 25
 1.213296e+01 9.969664e+01 4.699860e+01 3.577007e+01 3.654909e+01 6.564729e+01 2.312827e+01 3.613661e+01 1.891059e+01 2.795417e+01 1.606497e+01 1.839526e+01 2.148347e+00 8.874031e+00 3.164125e+00 3.220363e+00 5.669830e+00 5.885181e+00 2.547086e+00 4.706356e+00 2.395072e+00 3.860274e+00 2.124038e+00 1.745539e+00 5.886432e+00
<GCONST> 1.035104e+02
<STATE> 3
<MEAN> 25
 -1.085978e+01 2.682834e+00 -5.897741e+00 7.108358e+00 -7.926273e+00 4.323933e+00 5.935760e+00 8.760565e+00 1.707793e-01 6.758065e-01 6.688967e+00 1.655300e+00 4.270122e-02 5.675667e-01 3.221771e-02 -2.194125e-01 3.408699e-01 3.697182e-01 3.020560e-02 -1.647288e-01 5.571482e-03 4.699088e-01 -1.446725e-01 -2.324777e-01 -4.539277e-01
<VARIANCE> 25
 1.542513e+01 7.159394e+00 9.111722e+00 9.724182e+00 3.101293e+01 2.481416e+01 2.119968e+01 2.698006e+01 1.524814e+01 1.932245e+01 1.493732e+01 1.289845e+01 1.137875e+00 1.230615e+00 7.579108e-01 6.960767e-01 1.484861e+00 2.467497e+00 2.133899e+00 1.561001e+00 1.737235e+00 2.229832e+00 1.598887e+00 1.610447e+00 2.394212e-01
<GCONST> 8.214662e+01
<STATE> 4
<MEAN> 25
 -7.451903e+00 1.299513e+01 -3.137515e+00 5.724113e+00 5.437743e+00 4.205140e-01 6.990920e+00 4.712564e+00 1.201321e-01 4.701567e+00 1.417709e+00 -4.880179e-01 1.163557e-01 8.697823e-02 1.554922e-01 -8.100469e-02 2.790215e-01 -6.226659e-02 3.001018e-03 2.547468e-02 -7.484143e-02 2.577695e-02 -1.035460e-01 -6.862231e-02 -3.207262e-01
<VARIANCE> 25
 2.159180e+01 5.216288e+01 1.052890e+01 8.953671e+00 3.461524e+01 2.183253e+01 3.098456e+01 2.745236e+01 1.659573e+01 2.000611e+01 1.957646e+01 1.301089e+01 1.474326e+00 1.189816e+00 1.002017e+00 6.227365e-01 1.524822e+00 1.448924e+00 1.920190e+00 1.486359e+00 1.472579e+00 1.267388e+00 1.725965e+00 1.151398e+00 1.133766e+00
<GCONST> 8.560684e+01
<TRANSP> 5
 0.000000e+00 1.000000e+00 0.000000e+00 0.000000e+00 0.000000e+00
 0.000000e+00 8.435009e-01 1.564991e-01 0.000000e+00 0.000000e+00
 0.000000e+00 0.000000e+00 8.752980e-01 1.247020e-01 0.000000e+00
 0.000000e+00 0.000000e+00 0.000000e+00 9.481264e-01 5.187358e-02
 0.000000e+00 0.000000e+00 0.000000e+00 0.000000e+00 0.000000e+00
<ENDHMM>
~h "y"
<BEGINHMM>
<NUMSTATES> 5
<STATE> 2
<MEAN> 25
 1.676875e+00 5.167828e+00 9.056012e+00 -8.234319e+00 -1.489025e+01 -3.554046e+00 -7.385742e+00 -6.153522e+00 -4.804111e+00 1.603029e+00 -9.019795e+00 3.670427e-01 -2.194197e-01 5.044259e-01 6.579540e-01 -1.516323e-01 -6.726544e-01 4.346785e-01 -1.237636e-01 -2.924354e-01 1.863701e-02 2.831294e-01 1.125249e-01 -6.267639e-02 -2.714118e-01
<VARIANCE> 25
 5.597510e+00 6.347374e+01 2.030756e+01 3.018351e+01 5.822741e+01 3.552659e+01 6.827023e+01 2.564671e+01 3.605584e+01 2.778394e+01 1.660345e+01 2.226631e+01 6.479483e-01 2.542605e+00 2.004424e+00 1.362767e+00 4.182256e+00 2.202147e+00 4.494690e+00 2.426672e+00 3.065240e+00 2.684148e+00 1.710282e+00 2.323173e+00 5.663978e-01
<GCONST> 9.519534e+01
<STATE> 3
<MEAN> 25
 -2.347980e-01 -5.646871e-01 5.559242e+00 -3.679774e+00 -5.903820e+00 8.616835e-01 -1.874936e+00 -3.521176e+00 -1.905551e+00 1.807337e-01 -1.291814e+00 1.771420e+00 -1.792002e-01 -7.951956e-01 -9.874156e-01 9.578665e-01 1.866007e+00 3.889575e-01 8.704078e-01 8.917781e-01 2.650495e-01 -3.837596e-01 1.085804e+00 1.905647e-01 -7.862887e-01
<VARIANCE> 25
 3.280777e+01 3.871485e+01 4.107959e+01 3.560071e+01 3.885037e+01 5.946136e+01 4.896746e+01 2.770736e+01 3.879747e+01 5.962320e+01 4.120842e+01 2.203501e+01 1.532987e+00 2.250215e+00 2.254502e+00 2.956970e+00 2.296352e+00 4.142416e+00 4.691030e+00 2.263309e+00 3.930424e+00 4.060660e+00 2.802401e+00 2.134539e+00 9.290130e-01
<GCONST> 1.021329e+02
<STATE> 4
<MEAN> 25
 -2.013750e+00 -4.137308e-01 -6.253526e-01 3.027676e+00 3.560142e+00 3.673247e+00 4.679470e+00 2.422554e+00 1.812258e+00 2.260079e+00 3.136553e+00 5.208312e-01 1.575763e-02 3.964721e-02 -1.037402e-01 5.553618e-02 4.269363e-02 -4.319007e-02 2.165183e-02 -1.499421e-02 7.469811e-02 3.797482e-02 -6.262055e-02 -4.138577e-02 -2.813907e-02
<VARIANCE> 25
 3.493437e+00 7.514436e+00 6.132480e+00 7.583817e+00 7.943400e+00 1.297294e+01 1.665333e+01 1.325103e+01 1.512373e+01 1.827567e+01 1.558605e+01 1.228571e+01 2.273443e-01 3.723935e-01 6.354409e-01 6.284498e-01 7.735159e-01 1.050894e+00 1.455694e+00 1.226881e+00 1.433571e+00 1.360720e+00 1.416483e+00 1.275073e+00 1.480055e-01
<GCONST> 7.029742e+01
<TRANSP> 5
 0.000000e+00 1.000000e+00 0.000000e+00 0.000000e+00 0.000000e+00
 0.000000e+00 9.135905e-01 8.640954e-02 0.000000e+00 0.000000e+00
 0.000000e+00 0.000000e+00 8.542311e-01 1.457689e-01 0.000000e+00
 0.000000e+00 0.000000e+00 0.000000e+00 9.639168e-01 3.608320e-02
 0.000000e+00 0.000000e+00 0.000000e+00 0.000000e+00 0.000000e+00
<ENDHMM>
~h "z"
<BEGINHMM>
<NUMSTATES> 5
<STATE> 2
<MEAN> 25
 -1.646721e+01 2.112650e+01 2.589665e+00 3.049746e+00 7.849095e+00 4.722373e+00 1.386073e+01 8.729265e+00 5.553532e-01 8.460372e+00 5.040310e+00 4.129038e-01 -4.094989e-01 2.888661e-01 3.290566e-01 -4.044380e-02 1.246343e-01 3.614631e-01 2.056201e-01 1.434363e-01 1.363301e-01 2.741441e-01 2.995493e-01 8.370179e-02 -3.424895e-01
<VARIANCE> 25
 6.098856e+01 5.855916e+01 3.455233e+01 4.808290e+00 2.580060e+01 1.636333e+01 3.674090e+01 3.569583e+01 1.303276e+01 2.104572e+01 3.855466e+01 1.366071e+01 2.510596e+00 1.952263e+00 1.683347e+00 6.153662e-01 6.903000e-01 9.737214e-01 1.689162e+00 1.644687e+00 1.462275e+00 1.262287e+00 1.708952e+00 1.402428e+00 1.586269e+00
<GCONST> 8.854327e+01
<STATE> 3
<MEAN> 25
 -4.632458e+00 -5.785758e-01 2.459028e+00 3.473671e+00 2.487744e+00 6.798577e+00 2.912153e+00 -1.671632e+00 1.737219e+00 1.826949e+00 3.089593e-01 3.657253e-01 2.903343e+00 -6.237552e+00 4.339265e-01 -1.905940e+00 -9.547966e-01 1.098592e-01 -3.521954e+00 -1.010507e+00 2.299362e-01 -2.394693e+00 -1.760446e-01 7.662178e-01 5.723965e+00
<VARIANCE> 25
 6.545168e+01 2.805008e+02 9.684257e+00 3.290267e+01 6.229372e+01 5.609587e+01 6.334222e+01 5.466481e+01 1.638079e+01 6.339111e+01 4.294854e+01 4.351427e+01 5.896362e+00 1.738845e+01 3.739570e+00 7.067026e+00 1.977318e+01 5.522326e+00 2.682816e+00 7.176203e+00 2.561993e+00 2.886911e+00 4.403686e+00 5.106074e+00 7.747854e+00
<GCONST> 1.150327e+02
<STATE> 4
<MEAN> 25
 5.469238e-01 -1.030426e+01 6.556969e+00 7.750232e-01 -5.724020e+00 6.511218e+00 -5.916750e+00 -3.775430e+00 4.950274e+00 -3.820482e+00 -1.663467e+00 -6.421481e-01 1.218747e+00 6.714987e-01 -5.976025e-02 -2.130513e+00 -1.453930e+00 -2.224711e+00 -1.015512e+00 -9.515381e-01 -9.626430e-02 1.084945e+00 -1.573410e-01 -1.928836e-01 1.382963e+00
<VARIANCE> 25
 5.335762e+01 8.476385e+01 1.830756e+01 4.671921e+01 1.473843e+02 2.987866e+01 2.742724e+01 1.996712e+01 3.243069e+01 2.096501e+01 4.517410e+01 3.860511e+01 1.828151e+00 1.255921e+01 6.333169e+00 2.920170e+00 4.574035e+00 2.836622e+00 4.365486e+00 1.566780e+00 2.333467e+00 1.916715e+00 3.596864e+00 1.432296e+00 7.745915e+00
<GCONST> 1.055184e+02
<TRANSP> 5
 0.000000e+00 1.000000e+00 0.000000e+00 0.000000e+00 0.000000e+00
 0.000000e+00 9.000040e-01 9.999592e-02 0.000000e+00 0.000000e+00
 0.000000e+00 0.000000e+00 6.676460e-01 3.323540e-01 0.000000e+00
 0.000000e+00 0.000000e+00 0.000000e+00 4.387500e-01 5.612500e-01
 0.000000e+00 0.000000e+00 0.000000e+00 0.000000e+00 0.000000e+00
<ENDHMM>
~h "ah"
<BEGINHMM>
<NUMSTATES> 5
<STATE> 2
<MEAN> 25
 -1.684587e-08 -6.193333e-08 -4.487690e-08 3.351832e-08 -6.047171e-08 2.058664e-08 -6.607048e-08 -2.205446e-08 -8.534414e-09 2.910867e-08 3.022347e-08 -1.071447e-09 -2.678578e-03 2.715191e-03 1.970940e-04 1.666228e-04 1.831201e-03 -7.320007e-04 3.372927e-03 1.125320e-03 -7.564414e-05 2.413395e-03 8.106225e-04 -2.148533e-03 -1.727290e-03
<VARIANCE> 25
 4.499385e+01 7.342516e+01 3.566479e+01 5.718780e+01 5.546888e+01 4.305736e+01 6.020990e+01 4.209700e+01 2.990068e+01 4.475465e+01 3.376802e+01 1.839641e+01 1.592596e+00 2.317776e+00 1.700131e+00 2.390033e+00 2.486403e+00 2.357601e+00 2.972100e+00 2.655601e+00 2.270027e+00 2.542916e+00 2.264997e+00 1.647762e+00 2.549860e+00
<GCONST> 1.014657e+02
<STATE> 3
<MEAN> 25
 -1.684587e-08 -6.193333e-08 -4.487690e-08 3.351832e-08 -6.047171e-08 2.058664e-08 -6.607048e-08 -2.205446e-08 -8.534414e-09 2.910867e-08 3.022347e-08 -1.071447e-09 -2.678578e-03 2.715191e-03 1.970940e-04 1.666228e-04 1.831201e-03 -7.320007e-04 3.372927e-03 1.125320e-03 -7.564414e-05 2.413395e-03 8.106225e-04 -2.148533e-03 -1.727290e-03
<VARIANCE> 25
 4.499385e+01 7.342516e+01 3.566479e+01 5.718780e+01 5.546888e+01 4.305736e+01 6.020990e+01 4.209700e+01 2.990068e+01 4.475465e+01 3.376802e+01 1.839641e+01 1.592596e+00 2.317776e+00 1.700131e+00 2.390033e+00 2.486403e+00 2.357601e+00 2.972100e+00 2.655601e+00 2.270027e+00 2.542916e+00 2.264997e+00 1.647762e+00 2.549860e+00
<GCONST> 1.014657e+02
<STATE> 4
<MEAN> 25
 -1.684587e-08 -6.193333e-08 -4.487690e-08 3.351832e-08 -6.047171e-08 2.058664e-08 -6.607048e-08 -2.205446e-08 -8.534414e-09 2.910867e-08 3.022347e-08 -1.071447e-09 -2.678578e-03 2.715191e-03 1.970940e-04 1.666228e-04 1.831201e-03 -7.320007e-04 3.372927e-03 1.125320e-03 -7.564414e-05 2.413395e-03 8.106225e-04 -2.148533e-03 -1.727290e-03
<VARIANCE> 25
 4.499385e+01 7.342516e+01 3.566479e+01 5.718780e+01 5.546888e+01 4.305736e+01 6.020990e+01 4.209700e+01 2.990068e+01 4.475465e+01 3.376802e+01 1.839641e+01 1.592596e+00 2.317776e+00 1.700131e+00 2.390033e+00 2.486403e+00 2.357601e+00 2.972100e+00 2.655601e+00 2.270027e+00 2.542916e+00 2.264997e+00 1.647762e+00 2.549860e+00
<GCONST> 1.014657e+02
<TRANSP> 5
 0.000000e+00 1.000000e+00 0.000000e+00 0.000000e+00 0.000000e+00
 0.000000e+00 6.000000e-01 4.000000e-01 0.000000e+00 0.000000e+00
 0.000000e+00 0.000000e+00 6.000000e-01 4.000000e-01 0.000000e+00
 0.000000e+00 0.000000e+00 0.000000e+00 7.000000e-01 3.000000e-01
 0.000000e+00 0.000000e+00 0.000000e+00 0.000000e+00 0.000000e+00
<ENDHMM>
~h "aw"
<BEGINHMM>
<NUMSTATES> 5
<STATE> 2
<MEAN> 25
 -1.684587e-08 -6.193333e-08 -4.487690e-08 3.351832e-08 -6.047171e-08 2.058664e-08 -6.607048e-08 -2.205446e-08 -8.534414e-09 2.910867e-08 3.022347e-08 -1.071447e-09 -2.678578e-03 2.715191e-03 1.970940e-04 1.666228e-04 1.831201e-03 -7.320007e-04 3.372927e-03 1.125320e-03 -7.564414e-05 2.413395e-03 8.106225e-04 -2.148533e-03 -1.727290e-03
<VARIANCE> 25
 4.499385e+01 7.342516e+01 3.566479e+01 5.718780e+01 5.546888e+01 4.305736e+01 6.020990e+01 4.209700e+01 2.990068e+01 4.475465e+01 3.376802e+01 1.839641e+01 1.592596e+00 2.317776e+00 1.700131e+00 2.390033e+00 2.486403e+00 2.357601e+00 2.972100e+00 2.655601e+00 2.270027e+00 2.542916e+00 2.264997e+00 1.647762e+00 2.549860e+00
<GCONST> 1.014657e+02
<STATE> 3
<MEAN> 25
 -1.684587e-08 -6.193333e-08 -4.487690e-08 3.351832e-08 -6.047171e-08 2.058664e-08 -6.607048e-08 -2.205446e-08 -8.534414e-09 2.910867e-08 3.022347e-08 -1.071447e-09 -2.678578e-03 2.715191e-03 1.970940e-04 1.666228e-04 1.831201e-03 -7.320007e-04 3.372927e-03 1.125320e-03 -7.564414e-05 2.413395e-03 8.106225e-04 -2.148533e-03 -1.727290e-03
<VARIANCE> 25
 4.499385e+01 7.342516e+01 3.566479e+01 5.718780e+01 5.546888e+01 4.305736e+01 6.020990e+01 4.209700e+01 2.990068e+01 4.475465e+01 3.376802e+01 1.839641e+01 1.592596e+00 2.317776e+00 1.700131e+00 2.390033e+00 2.486403e+00 2.357601e+00 2.972100e+00 2.655601e+00 2.270027e+00 2.542916e+00 2.264997e+00 1.647762e+00 2.549860e+00
<GCONST> 1.014657e+02
<STATE> 4
<MEAN> 25
 -1.684587e-08 -6.193333e-08 -4.487690e-08 3.351832e-08 -6.047171e-08 2.058664e-08 -6.607048e-08 -2.205446e-08 -8.534414e-09 2.910867e-08 3.022347e-08 -1.071447e-09 -2.678578e-03 2.715191e-03 1.970940e-04 1.666228e-04 1.831201e-03 -7.320007e-04 3.372927e-03 1.125320e-03 -7.564414e-05 2.413395e-03 8.106225e-04 -2.148533e-03 -1.727290e-03
<VARIANCE> 25
 4.499385e+01 7.342516e+01 3.566479e+01 5.718780e+01 5.546888e+01 4.305736e+01 6.020990e+01 4.209700e+01 2.990068e+01 4.475465e+01 3.376802e+01 1.839641e+01 1.592596e+00 2.317776e+00 1.700131e+00 2.390033e+00 2.486403e+00 2.357601e+00 2.972100e+00 2.655601e+00 2.270027e+00 2.542916e+00 2.264997e+00 1.647762e+00 2.549860e+00
<GCONST> 1.014657e+02
<TRANSP> 5
 0.000000e+00 1.000000e+00 0.000000e+00 0.000000e+00 0.000000e+00
 0.000000e+00 6.000000e-01 4.000000e-01 0.000000e+00 0.000000e+00
 0.000000e+00 0.000000e+00 6.000000e-01 4.000000e-01 0.000000e+00
 0.000000e+00 0.000000e+00 0.000000e+00 7.000000e-01 3.000000e-01
 0.000000e+00 0.000000e+00 0.000000e+00 0.000000e+00 0.000000e+00
<ENDHMM>
~h "ay"
<BEGINHMM>
<NUMSTATES> 5
<STATE> 2
<MEAN> 25
 2.613554e+00 -2.461252e+00 3.738996e+00 -6.606016e+00 -1.263599e+01 -9.582256e-01 -3.846611e+00 -2.622546e-01 -1.000258e+01 -9.730223e+00 -7.026572e+00 2.092874e+00 -3.298209e-01 8.810725e-01 1.060327e+00 -1.047747e+00 -1.566259e+00 7.932020e-01 1.158614e-01 -1.030293e+00 3.285708e-01 1.122108e+00 -6.489363e-01 -4.150708e-01 -4.330114e-01
<VARIANCE> 25
 6.423750e+00 1.729503e+01 1.897488e+01 2.954377e+01 4.238224e+01 2.641478e+01 1.111351e+01 3.531622e+01 1.923858e+01 4.423724e+01 2.722876e+01 2.632473e+01 1.736365e-01 8.051985e-01 4.936894e-01 1.435433e+00 2.297138e+00 1.364105e+00 2.249220e+00 1.445462e+00 2.145269e+00 1.880310e+00 1.828854e+00 1.361578e+00 2.322036e-01
<GCONST> 8.415700e+01
<STATE> 3
<MEAN> 25
 -2.116739e+00 3.240820e-01 8.523598e+00 -7.196535e+00 -9.944901e+00 7.151998e+00 -4.078832e+00 -4.033049e+00 -1.343288e+00 -3.860140e-01 -5.672505e+00 1.207125e+00 -3.951239e-01 -3.595994e-01 -2.699032e-01 9.555384e-01 1.593040e+00 4.048471e-01 7.684219e-01 7.296367e-01 5.890247e-01 4.285994e-01 1.263085e+00 1.636959e-01 -9.592257e-01
<VARIANCE> 25
 8.902536e+00 1.342107e+01 7.822016e+00 1.913119e+01 3.928112e+01 2.409398e+01 4.605975e+01 2.999796e+01 2.844930e+01 2.528509e+01 4.623687e+01 1.153090e+01 6.828856e-01 6.892980e-01 9.754130e-01 1.375649e+00 1.477485e+00 2.525899e+00 3.761900e+00 1.746343e+00 3.451335e+00 2.693261e+00 1.819608e+00 1.603303e+00 3.248471e-01
<GCONST> 8.759499e+01
<STATE> 4
<MEAN> 25
 -2.038202e+00 -2.426678e-01 -6.586782e-01 3.485228e+00 5.114596e+00 4.874307e+00 4.511427e+00 3.350077e+00 2.092532e+00 2.841258e+00 3.601101e+00 4.555475e-01 5.835054e-02 6.034300e-02 -1.377990e-01 9.766779e-02 7.888610e-02 -1.093841e-01 3.947137e-03 -3.640969e-02 4.380615e-02 8.765741e-02 -2.216106e-04 -9.715199e-03 -5.525601e-02
<VARIANCE> 25
 2.630761e+00 3.546543e+00 6.138962e+00 6.038000e+00 8.921573e+00 8.953154e+00 9.721556e+00 1.423877e+01 1.423478e+01 1.018987e+01 1.288455e+01 9.619329e+00 2.211740e-01 2.839808e-01 8.194386e-01 8.054544e-01 8.841760e-01 8.497617e-01 8.916772e-01 1.033647e+00 1.104018e+00 1.137335e+00 1.101349e+00 8.579452e-01 1.030818e-01
<GCONST> 6.524871e+01
<TRANSP> 5
 0.000000e+00 1.000000e+00 0.000000e+00 0.000000e+00 0.000000e+00
 0.000000e+00 8.964759e-01 1.035241e-01 0.000000e+00 0.000000e+00
 0.000000e+00 0.000000e+00 9.180149e-01 8.198512e-02 0.000000e+00
 0.000000e+00 0.000000e+00 0.000000e+00 9.745347e-01 2.546531e-02
 0.000000e+00 0.000000e+00 0.000000e+00 0.000000e+00 0.000000e+00
<ENDHMM>
~h "kh"
<BEGINHMM>
<NUMSTATES> 5
<STATE> 2
<MEAN> 25
 -6.927953e-01 1.284417e+00 -1.125505e+00 2.368800e+00 3.273203e+00 3.945450e+00 4.593610e+00 1.894614e+00 1.433993e+00 2.517409e+00 2.818357e+00 1.582032e-01 5.160003e-03 6.784468e-03 -2.795591e-02 8.819182e-03 1.725004e-02 2.119606e-02 1.562161e-02 -4.976201e-02 3.548905e-02 7.479441e-02 -6.778167e-02 -3.489691e-02 -1.741864e-02
<VARIANCE> 25
 1.249293e+00 1.919232e+00 5.087592e+00 5.967083e+00 1.312981e+01 1.134453e+01 1.814670e+01 1.284851e+01 1.539494e+01 1.458027e+01 1.259466e+01 1.101014e+01 1.103586e-01 1.955869e-01 4.094425e-01 5.366116e-01 7.691133e-01 9.571772e-01 1.110726e+00 1.310042e+00 1.076852e+00 1.385311e+00 1.248416e+00 1.038918e+00 6.896368e-02
<GCONST> 6.373905e+01
<STATE> 3
<MEAN> 25
 -2.688815e+00 -1.571758e+00 -4.772473e+00 1.625337e+00 8.780133e+00 9.198135e-01 -2.321012e+00 4.294733e+00 6.017233e+00 5.632191e+00 -2.562795e+00 -9.064485e-02 -1.005906e+00 -1.084682e+00 -2.091757e-01 -4.602687e-02 1.765834e+00 -1.328099e+00 -2.411518e+00 6.109288e-01 1.338349e+00 3.212609e-01 -1.389172e+00 4.608553e-01 3.508032e+00
<VARIANCE> 25
 6.868136e+00 1.940981e+01 3.203456e+01 1.314658e+01 3.467237e+01 3.050012e+01 7.406017e+01 2.366607e+01 3.301746e+01 2.225496e+01 3.895905e+01 1.533696e+01 5.790699e-01 2.536786e+00 4.260295e+00 2.009968e+00 2.869265e+00 3.713539e+00 5.966762e+00 3.785086e+00 3.635192e+00 2.553787e+00 2.446891e+00 2.272026e+00 4.003474e+00
<GCONST> 9.765378e+01
<STATE> 4
<MEAN> 25
 -6.647020e+00 -7.348364e+00 3.178593e-01 1.797457e+00 8.147486e+00 -1.988132e+00 -3.853512e+00 -1.063613e+00 4.512625e+00 2.141591e+00 -2.066651e+00 3.924004e+00 1.086646e+00 -5.338822e-01 -1.167287e-03 -5.017727e-01 -1.227314e+00 -1.060557e+00 -2.145993e-01 -1.897199e+00 -1.651309e+00 -1.167541e+00 7.754916e-02 -1.617977e-02 5.355200e-02
<VARIANCE> 25
 2.539516e+01 2.895413e+01 2.869971e+01 1.252207e+01 2.063352e+01 3.673843e+01 3.373011e+01 5.166115e+01 3.825937e+01 3.592844e+01 1.943793e+01 1.764716e+01 4.728988e+00 2.071502e+00 1.898235e+00 1.821810e+00 1.955757e+00 3.033158e+00 3.926900e+00 3.929853e+00 4.167242e+00 2.990353e+00 1.989108e+00 2.721823e+00 8.021497e-01
<GCONST> 9.761987e+01
<TRANSP> 5
 0.000000e+00 1.000000e+00 0.000000e+00 0.000000e+00 0.000000e+00
 0.000000e+00 9.785894e-01 2.141064e-02 0.000000e+00 0.000000e+00
 0.000000e+00 0.000000e+00 7.777188e-01 2.222812e-01 0.000000e+00
 0.000000e+00 0.000000e+00 0.000000e+00 8.617915e-01 1.382086e-01
 0.000000e+00 0.000000e+00 0.000000e+00 0.000000e+00 0.000000e+00
<ENDHMM>
~h "ng"
<BEGINHMM>
<NUMSTATES> 5
<STATE> 2
<MEAN> 25
 5.378540e+00 4.025636e+00 2.907170e+00 3.296549e-01 -3.836183e+00 -7.283630e+00 -8.238682e+00 -6.294524e+00 -3.374495e+00 -5.725299e+00 -2.422749e+00 -2.355317e-01 -2.602993e-01 2.462433e-02 1.401409e-01 8.753042e-02 -5.172224e-02 2.155678e-01 2.924634e-01 1.319100e-01 -3.186138e-01 6.232294e-02 1.186109e-02 -1.359499e-01 -3.088418e-01
<VARIANCE> 25
 5.339615e+00 1.145957e+01 1.061331e+01 1.769189e+01 1.563940e+01 1.909180e+01 1.945360e+01 2.650811e+01 2.359752e+01 2.342159e+01 1.793456e+01 2.774925e+01 4.844474e-01 6.156265e-01 9.029667e-01 7.007507e-01 1.300371e+00 1.144346e+00 1.336205e+00 1.900012e+00 1.549371e+00 1.746885e+00 1.546486e+00 1.488762e+00 4.286115e-01
<GCONST> 8.040945e+01
<STATE> 3
<MEAN> 25
 6.048859e-01 1.918024e+00 5.943652e-01 1.135180e+00 2.426399e-01 3.011598e-01 1.035231e-01 -8.294823e-01 -3.727858e+00 -2.340951e+00 2.726052e-01 4.332080e-01 -9.443724e-01 -5.968370e-01 -3.402930e-01 2.599047e-01 1.023458e+00 1.060589e+00 1.437123e+00 1.315782e+00 1.377455e+00 1.206457e+00 1.024523e+00 4.758420e-01 -5.089276e-01
<VARIANCE> 25
 1.911469e+01 1.244531e+01 1.772761e+01 1.475398e+01 1.834059e+01 2.969272e+01 2.865014e+01 3.337722e+01 3.357054e+01 4.058102e+01 2.267793e+01 1.565967e+01 7.934960e-01 1.466283e+00 1.557825e+00 1.176865e+00 2.076708e+00 2.197171e+00 3.017874e+00 3.348555e+00 4.949992e+00 3.546651e+00 2.595983e+00 1.867702e+00 8.389650e-01
<GCONST> 9.209493e+01
<STATE> 4
<MEAN> 25
 -2.876010e+00 8.851398e-01 1.986732e-01 2.814427e+00 3.876841e+00 4.803013e+00 4.373743e+00 2.165240e+00 2.314625e+00 3.930693e+00 2.266095e+00 -2.211641e-01 -4.714114e-03 2.267184e-02 -2.117555e-02 8.813510e-03 7.813643e-02 8.478233e-02 5.929173e-02 4.049181e-02 1.323967e-02 2.034748e-02 -4.344123e-02 -3.279045e-02 -3.490698e-02
<VARIANCE> 25
 4.242846e+00 9.823394e+00 6.081532e+00 8.650211e+00 1.538528e+01 1.531484e+01 1.729787e+01 1.215182e+01 1.560389e+01 1.583174e+01 1.343325e+01 1.029483e+01 2.345356e-01 3.236809e-01 4.468645e-01 7.778997e-01 1.151846e+00 9.469702e-01 1.389444e+00 1.347661e+00 1.522190e+00 1.313614e+00 1.194588e+00 8.570035e-01 1.800138e-01
<GCONST> 7.097002e+01
<TRANSP> 5
 0.000000e+00 1.000000e+00 0.000000e+00 0.000000e+00 0.000000e+00
 0.000000e+00 8.945495e-01 1.054505e-01 0.000000e+00 0.000000e+00
 0.000000e+00 0.000000e+00 7.236505e-01 2.763495e-01 0.000000e+00
 0.000000e+00 0.000000e+00 0.000000e+00 9.160098e-01 8.399016e-02
 0.000000e+00 0.000000e+00 0.000000e+00 0.000000e+00 0.000000e+00
<ENDHMM>
~h "ny"
<BEGINHMM>
<NUMSTATES> 5
<STATE> 2
<MEAN> 25
 8.919125e-01 2.838233e+00 4.687990e+00 -7.096008e-02 -8.300773e+00 -5.969156e+00 -5.429589e+00 1.225593e-01 -1.104699e+01 -9.712320e+00 -1.546662e+00 -2.440134e+00 -1.110127e-01 -1.130155e-01 -2.139505e-01 3.214610e-01 5.553460e-01 -2.588618e-02 2.347264e-01 2.404510e-01 4.210424e-01 -1.060997e-01 2.170878e-01 8.291270e-02 -3.422511e-01
<VARIANCE> 25
 1.974474e+01 4.987753e+01 1.615391e+01 1.281695e+01 6.913531e+01 3.749638e+01 2.123041e+01 8.708594e+01 6.272072e+01 7.637518e+01 3.142638e+01 3.366917e+01 2.117054e+00 3.352846e+00 7.768993e-01 1.389588e+00 3.990065e+00 3.329539e+00 2.271021e+00 8.398025e+00 3.799994e+00 5.060658e+00 2.044110e+00 1.951125e+00 2.850590e+00
<GCONST> 1.019522e+02
<STATE> 3
<MEAN> 25
 -7.372033e+00 7.604204e+00 -3.633699e+00 3.756622e+00 4.094671e+00 6.488175e-01 6.507286e+00 -2.230665e-01 9.238371e-01 2.534026e+00 1.869894e+00 2.726427e-01 1.394339e-01 -5.435595e-02 1.076516e-01 1.355879e-01 1.234983e-01 1.463172e-01 1.627326e-01 3.629546e-01 2.045155e-01 4.763838e-01 4.428671e-02 -1.179823e-01 -5.125442e-01
<VARIANCE> 25
 3.832049e+01 3.010895e+01 1.293229e+01 6.209510e+00 1.131522e+01 1.654964e+01 4.529300e+01 2.649603e+01 2.534502e+01 2.991080e+01 2.568875e+01 1.695479e+01 1.038871e+00 1.083801e+00 7.124606e-01 8.137603e-01 8.418614e-01 8.076136e-01 1.669777e+00 1.862076e+00 1.789046e+00 1.535871e+00 1.780301e+00 1.098241e+00 2.862132e-01
<GCONST> 8.316592e+01
<STATE> 4
<MEAN> 25
 -2.338992e+00 -8.952556e-01 -9.738129e-01 2.858339e+00 4.502541e+00 4.601629e+00 5.776634e+00 2.438522e+00 2.709623e+00 3.719176e+00 2.416721e+00 4.323636e-01 4.758831e-02 4.994739e-02 1.174065e-02 -3.181655e-02 -8.773142e-02 -1.009293e-01 -1.006253e-01 -1.999891e-01 -1.134659e-01 6.211999e-02 -7.052202e-02 1.505810e-02 -3.841233e-02
<VARIANCE> 25
 2.650425e+00 6.601417e+00 3.672638e+00 5.404063e+00 7.598659e+00 1.371604e+01 1.580019e+01 1.607323e+01 1.611187e+01 1.614809e+01 1.886548e+01 1.234853e+01 1.522575e-01 2.329871e-01 3.276118e-01 5.433409e-01 7.007149e-01 1.422783e+00 1.550225e+00 1.362254e+00 1.551351e+00 1.256438e+00 1.808126e+00 1.097902e+00 1.266097e-01
<GCONST> 6.795899e+01
<TRANSP> 5
 0.000000e+00 1.000000e+00 0.000000e+00 0.000000e+00 0.000000e+00
 0.000000e+00 8.936828e-01 1.063172e-01 0.000000e+00 0.000000e+00
 0.000000e+00 0.000000e+00 7.997905e-01 2.002095e-01 0.000000e+00
 0.000000e+00 0.000000e+00 0.000000e+00 9.545145e-01 4.548550e-02
 0.000000e+00 0.000000e+00 0.000000e+00 0.000000e+00 0.000000e+00
<ENDHMM>
~h "sy"
<BEGINHMM>
<NUMSTATES> 5
<STATE> 2
<MEAN> 25
 -6.324027e-01 7.112897e-01 8.298104e-01 1.607427e+00 -1.528307e-01 2.782376e+00 2.220694e+00 3.227644e+00 -6.551234e-01 6.704015e-01 3.426354e+00 4.639388e-01 -6.214268e-02 2.698246e-02 1.244181e-01 4.643711e-02 9.941787e-02 3.821436e-02 1.605015e-01 5.859417e-04 3.463278e-02 2.245510e-01 4.742973e-02 -3.737648e-02 -3.272315e-02
<VARIANCE> 25
 3.959762e+00 5.636998e+00 7.985339e+00 7.700767e+00 1.057163e+01 1.255164e+01 2.189673e+01 1.650013e+01 1.714178e+01 2.317330e+01 2.409214e+01 1.373921e+01 5.779002e-01 4.006900e-01 7.236673e-01 4.787321e-01 6.911717e-01 9.158462e-01 1.259459e+00 1.532740e+00 1.914399e+00 1.668008e+00 1.516806e+00 1.288907e+00 9.709764e-02
<GCONST> 7.291267e+01
<STATE> 3
<MEAN> 25
 -2.803727e+00 -1.143348e+00 4.139811e+00 1.429662e+00 -1.141843e+00 4.249149e+00 3.613438e+00 2.212166e+00 9.519758e-01 3.778033e+00 3.160892e+00 -2.142971e-01 -1.590937e+00 -7.918604e-01 1.458035e+00 -4.918686e-01 4.790176e-01 -2.194644e-01 2.926832e-01 1.039026e+00 1.498548e+00 3.442827e-01 7.629610e-01 3.296827e-01 1.016559e+00
<VARIANCE> 25
 3.007941e+01 1.269696e+01 4.177309e+01 1.473453e+01 1.789585e+01 8.894162e+00 8.497391e+00 1.691277e+01 2.178253e+01 2.543796e+01 1.137074e+01 1.175914e+01 3.088630e+00 1.288937e+00 2.545677e+00 9.311312e-01 2.971602e+00 1.281466e+00 3.684008e+00 8.635130e-01 3.763545e+00 4.404788e+00 1.776386e+00 1.562006e+00 6.677635e-01
<GCONST> 8.772913e+01
<STATE> 4
<MEAN> 25
 -1.391697e+01 -3.373374e+00 1.454311e+01 -2.896669e+00 -3.377599e+00 3.385407e+00 3.002914e+00 2.827157e+00 3.742188e+00 3.826910e+00 4.572237e+00 -6.983216e-01 3.648084e-01 1.325021e-02 1.682179e-01 -4.494652e-01 -6.602900e-01 -4.179339e-01 -4.735858e-01 -2.509528e-01 -1.171189e-01 -2.784106e-01 -2.643627e-01 -3.040284e-02 3.907530e-01
<VARIANCE> 25
 4.246851e+01 2.112897e+01 1.519976e+01 3.430173e+01 4.848125e+01 2.886496e+01 4.598877e+01 2.395796e+01 1.647528e+01 3.051558e+01 1.354564e+01 1.717949e+01 7.458705e+00 1.173761e+00 2.326182e+00 1.596842e+00 3.707290e+00 2.121891e+00 3.652173e+00 1.520645e+00 1.918787e+00 1.874038e+00 1.456644e+00 1.446915e+00 1.167480e+00
<GCONST> 9.436031e+01
<TRANSP> 5
 0.000000e+00 1.000000e+00 0.000000e+00 0.000000e+00 0.000000e+00
 0.000000e+00 9.322879e-01 6.771210e-02 0.000000e+00 0.000000e+00
 0.000000e+00 0.000000e+00 4.229887e-01 5.770113e-01 0.000000e+00
 0.000000e+00 0.000000e+00 0.000000e+00 9.421089e-01 5.789102e-02
 0.000000e+00 0.000000e+00 0.000000e+00 0.000000e+00 0.000000e+00
<ENDHMM>
~h "sil"
<BEGINHMM>
<NUMSTATES> 5
<STATE> 2
<MEAN> 25
 -3.221305e+00 3.027092e+00 2.394454e-01 4.934879e+00 3.651546e+00 2.124310e+00 2.883868e+00 2.186600e+00 1.626206e+00 3.145010e+00 1.931614e+00 3.633341e-03 -4.376559e-02 7.042302e-02 2.801007e-02 1.632445e-02 6.983452e-02 1.950291e-02 6.785220e-02 9.045353e-03 1.092877e-02 7.369136e-02 -1.803105e-02 -3.703699e-02 -6.235018e-02
<VARIANCE> 25
 3.456790e+00 1.737690e+01 1.453372e+01 9.845953e+00 1.227900e+01 1.670345e+01 1.629809e+01 1.425795e+01 1.567457e+01 1.526928e+01 1.441108e+01 1.218204e+01 1.624685e-01 3.755276e-01 4.939809e-01 6.509255e-01 9.232363e-01 9.449916e-01 1.121831e+00 1.168723e+00 1.255041e+00 1.241748e+00 1.212348e+00 1.103833e+00 1.254790e-01
<GCONST> 7.128617e+01
<STATE> 3
<MEAN> 25
 -8.136182e+00 1.168353e+01 -2.072444e+00 4.244542e+00 6.180345e+00 1.720607e+00 7.391344e+00 5.187129e+00 1.456558e+00 5.938908e+00 2.764642e+00 9.608428e-02 -3.929443e-02 -1.802240e-02 -1.997306e-02 -4.069059e-02 -7.401852e-02 -3.725579e-02 -2.485498e-02 -7.173030e-03 3.061254e-02 -9.146926e-03 9.138142e-03 6.868799e-04 6.394299e-02
<VARIANCE> 25
 3.243055e+01 5.665983e+01 2.423534e+01 9.914707e+00 1.960081e+01 2.223552e+01 3.573986e+01 2.042957e+01 1.738740e+01 1.663079e+01 1.841702e+01 1.441256e+01 1.630348e+00 1.890567e+00 1.563987e+00 8.991879e-01 1.518703e+00 1.489019e+00 1.895985e+00 1.573996e+00 1.502480e+00 1.315966e+00 1.471566e+00 1.338186e+00 1.523483e+00
<GCONST> 8.802011e+01
<STATE> 4
<MEAN> 25
 -1.345614e+00 7.615232e-01 -1.196477e+00 2.836366e+00 1.526011e+00 3.433687e-01 1.100501e+00 6.495439e-01 1.157088e+00 8.832924e-01 1.035623e+00 -2.907506e-01 1.925798e-01 -1.984250e-01 -8.054328e-02 -1.026153e-01 -7.237311e-02 -1.250017e-01 -2.627950e-01 -9.320735e-02 -8.153626e-02 -1.309400e-01 -7.541562e-04 8.957539e-02 2.101601e-01
<VARIANCE> 25
 1.938427e+01 3.491913e+01 2.997458e+01 2.646556e+01 3.727344e+01 3.564849e+01 4.554817e+01 2.936362e+01 2.290311e+01 3.937392e+01 2.881179e+01 1.856417e+01 1.582694e+00 2.375007e+00 1.716205e+00 1.583212e+00 2.677503e+00 2.572994e+00 3.304528e+00 2.409140e+00 1.914898e+00 2.745015e+00 2.213045e+00 1.766319e+00 2.334222e+00
<GCONST> 9.681615e+01
<TRANSP> 5
 0.000000e+00 1.000000e+00 0.000000e+00 0.000000e+00 0.000000e+00
 0.000000e+00 9.544941e-01 4.550598e-02 0.000000e+00 0.000000e+00
 0.000000e+00 0.000000e+00 9.048246e-01 9.517540e-02 0.000000e+00
 0.000000e+00 0.000000e+00 0.000000e+00 8.008556e-01 1.991444e-01
 0.000000e+00 0.000000e+00 0.000000e+00 0.000000e+00 0.000000e+00
<ENDHMM>
