~o
<STREAMINFO> 1 25
<VECSIZE> 25<NULLD><MFCC_D_N_Z_0><DIAGC>
~t "T_E"
<TRANSP> 5
 0.000000e+00 1.000000e+00 0.000000e+00 0.000000e+00 0.000000e+00
 0.000000e+00 6.238997e-01 3.761003e-01 0.000000e+00 0.000000e+00
 0.000000e+00 0.000000e+00 7.843376e-01 2.156624e-01 0.000000e+00
 0.000000e+00 0.000000e+00 0.000000e+00 7.385892e-01 2.614108e-01
 0.000000e+00 0.000000e+00 0.000000e+00 0.000000e+00 0.000000e+00
~t "T_K"
<TRANSP> 5
 0.000000e+00 1.000000e+00 0.000000e+00 0.000000e+00 0.000000e+00
 0.000000e+00 6.000000e-01 4.000000e-01 0.000000e+00 0.000000e+00
 0.000000e+00 0.000000e+00 6.000000e-01 4.000000e-01 0.000000e+00
 0.000000e+00 0.000000e+00 0.000000e+00 7.000000e-01 3.000000e-01
 0.000000e+00 0.000000e+00 0.000000e+00 0.000000e+00 0.000000e+00
~t "T_a"
<TRANSP> 5
 0.000000e+00 1.000000e+00 0.000000e+00 0.000000e+00 0.000000e+00
 0.000000e+00 8.539107e-01 1.460893e-01 0.000000e+00 0.000000e+00
 0.000000e+00 0.000000e+00 8.026140e-01 1.973860e-01 0.000000e+00
 0.000000e+00 0.000000e+00 0.000000e+00 9.139160e-01 8.608403e-02
 0.000000e+00 0.000000e+00 0.000000e+00 0.000000e+00 0.000000e+00
~t "T_b"
<TRANSP> 5
 0.000000e+00 1.000000e+00 0.000000e+00 0.000000e+00 0.000000e+00
 0.000000e+00 6.717456e-01 3.282544e-01 0.000000e+00 0.000000e+00
 0.000000e+00 0.000000e+00 7.771614e-01 2.228386e-01 0.000000e+00
 0.000000e+00 0.000000e+00 0.000000e+00 8.359687e-01 1.640313e-01
 0.000000e+00 0.000000e+00 0.000000e+00 0.000000e+00 0.000000e+00
~t "T_c"
<TRANSP> 5
 0.000000e+00 1.000000e+00 0.000000e+00 0.000000e+00 0.000000e+00
 0.000000e+00 9.668564e-01 3.314364e-02 0.000000e+00 0.000000e+00
 0.000000e+00 0.000000e+00 5.024903e-01 4.975097e-01 0.000000e+00
 0.000000e+00 0.000000e+00 0.000000e+00 6.761063e-01 3.238937e-01
 0.000000e+00 0.000000e+00 0.000000e+00 0.000000e+00 0.000000e+00
~t "T_d"
<TRANSP> 5
 0.000000e+00 1.000000e+00 0.000000e+00 0.000000e+00 0.000000e+00
 0.000000e+00 8.738024e-01 1.261976e-01 0.000000e+00 0.000000e+00
 0.000000e+00 0.000000e+00 6.853018e-01 3.146982e-01 0.000000e+00
 0.000000e+00 0.000000e+00 0.000000e+00 8.369105e-01 1.630895e-01
 0.000000e+00 0.000000e+00 0.000000e+00 0.000000e+00 0.000000e+00
~t "T_e"
<TRANSP> 5
 0.000000e+00 1.000000e+00 0.000000e+00 0.000000e+00 0.000000e+00
 0.000000e+00 3.018739e-01 6.981261e-01 0.000000e+00 0.000000e+00
 0.000000e+00 0.000000e+00 4.304235e-01 5.695766e-01 0.000000e+00
 0.000000e+00 0.000000e+00 0.000000e+00 8.053435e-01 1.946565e-01
 0.000000e+00 0.000000e+00 0.000000e+00 0.000000e+00 0.000000e+00
~t "T_f"
<TRANSP> 5
 0.000000e+00 1.000000e+00 0.000000e+00 0.000000e+00 0.000000e+00
 0.000000e+00 9.522911e-01 4.770895e-02 0.000000e+00 0.000000e+00
 0.000000e+00 0.000000e+00 7.643093e-01 2.356907e-01 0.000000e+00
 0.000000e+00 0.000000e+00 0.000000e+00 7.385238e-01 2.614762e-01
 0.000000e+00 0.000000e+00 0.000000e+00 0.000000e+00 0.000000e+00
~t "T_g"
<TRANSP> 5
 0.000000e+00 1.000000e+00 0.000000e+00 0.000000e+00 0.000000e+00
 0.000000e+00 8.619473e-01 1.380527e-01 0.000000e+00 0.000000e+00
 0.000000e+00 0.000000e+00 8.589654e-01 1.410346e-01 0.000000e+00
 0.000000e+00 0.000000e+00 0.000000e+00 8.320197e-01 1.679803e-01
 0.000000e+00 0.000000e+00 0.000000e+00 0.000000e+00 0.000000e+00
~t "T_h"
<TRANSP> 5
 0.000000e+00 1.000000e+00 0.000000e+00 0.000000e+00 0.000000e+00
 0.000000e+00 9.397362e-01 6.026381e-02 0.000000e+00 0.000000e+00
 0.000000e+00 0.000000e+00 8.142545e-01 1.857455e-01 0.000000e+00
 0.000000e+00 0.000000e+00 0.000000e+00 6.729873e-01 3.270127e-01
 0.000000e+00 0.000000e+00 0.000000e+00 0.000000e+00 0.000000e+00
~t "T_i"
<TRANSP> 5
 0.000000e+00 1.000000e+00 0.000000e+00 0.000000e+00 0.000000e+00
 0.000000e+00 8.264011e-01 1.735989e-01 0.000000e+00 0.000000e+00
 0.000000e+00 0.000000e+00 7.295746e-01 2.704254e-01 0.000000e+00
 0.000000e+00 0.000000e+00 0.000000e+00 8.224225e-01 1.775775e-01
 0.000000e+00 0.000000e+00 0.000000e+00 0.000000e+00 0.000000e+00
~t "T_j"
<TRANSP> 5
 0.000000e+00 1.000000e+00 0.000000e+00 0.000000e+00 0.000000e+00
 0.000000e+00 9.597689e-01 4.023111e-02 0.000000e+00 0.000000e+00
 0.000000e+00 0.000000e+00 8.610574e-01 1.389426e-01 0.000000e+00
 0.000000e+00 0.000000e+00 0.000000e+00 8.554848e-01 1.445152e-01
 0.000000e+00 0.000000e+00 0.000000e+00 0.000000e+00 0.000000e+00
~t "T_k"
<TRANSP> 5
 0.000000e+00 1.000000e+00 0.000000e+00 0.000000e+00 0.000000e+00
 0.000000e+00 7.904971e-01 2.095029e-01 0.000000e+00 0.000000e+00
 0.000000e+00 0.000000e+00 4.619097e-01 5.380903e-01 0.000000e+00
 0.000000e+00 0.000000e+00 0.000000e+00 5.837348e-01 4.162652e-01
 0.000000e+00 0.000000e+00 0.000000e+00 0.000000e+00 0.000000e+00
~t "T_l"
<TRANSP> 5
 0.000000e+00 1.000000e+00 0.000000e+00 0.000000e+00 0.000000e+00
 0.000000e+00 8.728068e-01 1.271932e-01 0.000000e+00 0.000000e+00
 0.000000e+00 0.000000e+00 7.283850e-01 2.716150e-01 0.000000e+00
 0.000000e+00 0.000000e+00 0.000000e+00 6.004935e-01 3.995065e-01
 0.000000e+00 0.000000e+00 0.000000e+00 0.000000e+00 0.000000e+00
~t "T_m"
<TRANSP> 5
 0.000000e+00 1.000000e+00 0.000000e+00 0.000000e+00 0.000000e+00
 0.000000e+00 8.127323e-01 1.872677e-01 0.000000e+00 0.000000e+00
 0.000000e+00 0.000000e+00 8.283142e-01 1.716858e-01 0.000000e+00
 0.000000e+00 0.000000e+00 0.000000e+00 6.436853e-01 3.563147e-01
 0.000000e+00 0.000000e+00 0.000000e+00 0.000000e+00 0.000000e+00
~t "T_n"
<TRANSP> 5
 0.000000e+00 1.000000e+00 0.000000e+00 0.000000e+00 0.000000e+00
 0.000000e+00 8.157304e-01 1.842696e-01 0.000000e+00 0.000000e+00
 0.000000e+00 0.000000e+00 6.680561e-01 3.319439e-01 0.000000e+00
 0.000000e+00 0.000000e+00 0.000000e+00 9.237773e-01 7.622276e-02
 0.000000e+00 0.000000e+00 0.000000e+00 0.000000e+00 0.000000e+00
~t "T_o"
<TRANSP> 5
 0.000000e+00 1.000000e+00 0.000000e+00 0.000000e+00 0.000000e+00
 0.000000e+00 5.771005e-01 4.228995e-01 0.000000e+00 0.000000e+00
 0.000000e+00 0.000000e+00 7.159817e-01 2.840183e-01 0.000000e+00
 0.000000e+00 0.000000e+00 0.000000e+00 6.956899e-01 3.043101e-01
 0.000000e+00 0.000000e+00 0.000000e+00 0.000000e+00 0.000000e+00
~t "T_p"
<TRANSP> 5
 0.000000e+00 1.000000e+00 0.000000e+00 0.000000e+00 0.000000e+00
 0.000000e+00 7.388659e-01 2.611341e-01 0.000000e+00 0.000000e+00
 0.000000e+00 0.000000e+00 7.491965e-01 2.508036e-01 0.000000e+00
 0.000000e+00 0.000000e+00 0.000000e+00 7.366850e-01 2.633150e-01
 0.000000e+00 0.000000e+00 0.000000e+00 0.000000e+00 0.000000e+00
~t "T_r"
<TRANSP> 5
 0.000000e+00 1.000000e+00 0.000000e+00 0.000000e+00 0.000000e+00
 0.000000e+00 6.623712e-01 3.376288e-01 0.000000e+00 0.000000e+00
 0.000000e+00 0.000000e+00 6.916322e-01 3.083678e-01 0.000000e+00
 0.000000e+00 0.000000e+00 0.000000e+00 8.923951e-01 1.076049e-01
 0.000000e+00 0.000000e+00 0.000000e+00 0.000000e+00 0.000000e+00
~t "T_s"
<TRANSP> 5
 0.000000e+00 1.000000e+00 0.000000e+00 0.000000e+00 0.000000e+00
 0.000000e+00 8.128980e-01 1.871020e-01 0.000000e+00 0.000000e+00
 0.000000e+00 0.000000e+00 4.624695e-01 5.375305e-01 0.000000e+00
 0.000000e+00 0.000000e+00 0.000000e+00 6.257855e-01 3.742145e-01
 0.000000e+00 0.000000e+00 0.000000e+00 0.000000e+00 0.000000e+00
~t "T_t"
<TRANSP> 5
 0.000000e+00 1.000000e+00 0.000000e+00 0.000000e+00 0.000000e+00
 0.000000e+00 8.917888e-01 1.082112e-01 0.000000e+00 0.000000e+00
 0.000000e+00 0.000000e+00 5.266724e-01 4.733276e-01 0.000000e+00
 0.000000e+00 0.000000e+00 0.000000e+00 6.089975e-01 3.910025e-01
 0.000000e+00 0.000000e+00 0.000000e+00 0.000000e+00 0.000000e+00
~t "T_u"
<TRANSP> 5
 0.000000e+00 1.000000e+00 0.000000e+00 0.000000e+00 0.000000e+00
 0.000000e+00 8.415030e-01 1.584970e-01 0.000000e+00 0.000000e+00
 0.000000e+00 0.000000e+00 6.622528e-01 3.377472e-01 0.000000e+00
 0.000000e+00 0.000000e+00 0.000000e+00 8.894963e-01 1.105037e-01
 0.000000e+00 0.000000e+00 0.000000e+00 0.000000e+00 0.000000e+00
~t "T_w"
<TRANSP> 5
 0.000000e+00 1.000000e+00 0.000000e+00 0.000000e+00 0.000000e+00
 0.000000e+00 9.534544e-01 4.654565e-02 0.000000e+00 0.000000e+00
 0.000000e+00 0.000000e+00 7.535090e-01 2.464910e-01 0.000000e+00
 0.000000e+00 0.000000e+00 0.000000e+00 9.475072e-01 5.249279e-02
 0.000000e+00 0.000000e+00 0.000000e+00 0.000000e+00 0.000000e+00
~t "T_x"
<TRANSP> 5
 0.000000e+00 1.000000e+00 0.000000e+00 0.000000e+00 0.000000e+00
 0.000000e+00 8.647998e-01 1.352002e-01 0.000000e+00 0.000000e+00
 0.000000e+00 0.000000e+00 9.050826e-01 9.491747e-02 0.000000e+00
 0.000000e+00 0.000000e+00 0.000000e+00 9.070942e-01 9.290578e-02
 0.000000e+00 0.000000e+00 0.000000e+00 0.000000e+00 0.000000e+00
~t "T_y"
<TRANSP> 5
 0.000000e+00 1.000000e+00 0.000000e+00 0.000000e+00 0.000000e+00
 0.000000e+00 8.952921e-01 1.047079e-01 0.000000e+00 0.000000e+00
 0.000000e+00 0.000000e+00 8.640544e-01 1.359456e-01 0.000000e+00
 0.000000e+00 0.000000e+00 0.000000e+00 9.574898e-01 4.251017e-02
 0.000000e+00 0.000000e+00 0.000000e+00 0.000000e+00 0.000000e+00
~t "T_z"
<TRANSP> 5
 0.000000e+00 1.000000e+00 0.000000e+00 0.000000e+00 0.000000e+00
 0.000000e+00 8.375433e-01 1.624567e-01 0.000000e+00 0.000000e+00
 0.000000e+00 0.000000e+00 7.149666e-01 2.850334e-01 0.000000e+00
 0.000000e+00 0.000000e+00 0.000000e+00 4.297739e-01 5.702261e-01
 0.000000e+00 0.000000e+00 0.000000e+00 0.000000e+00 0.000000e+00
~t "T_ah"
<TRANSP> 5
 0.000000e+00 1.000000e+00 0.000000e+00 0.000000e+00 0.000000e+00
 0.000000e+00 6.000000e-01 4.000000e-01 0.000000e+00 0.000000e+00
 0.000000e+00 0.000000e+00 6.000000e-01 4.000000e-01 0.000000e+00
 0.000000e+00 0.000000e+00 0.000000e+00 7.000000e-01 3.000000e-01
 0.000000e+00 0.000000e+00 0.000000e+00 0.000000e+00 0.000000e+00
~t "T_aw"
<TRANSP> 5
 0.000000e+00 1.000000e+00 0.000000e+00 0.000000e+00 0.000000e+00
 0.000000e+00 6.000000e-01 4.000000e-01 0.000000e+00 0.000000e+00
 0.000000e+00 0.000000e+00 6.000000e-01 4.000000e-01 0.000000e+00
 0.000000e+00 0.000000e+00 0.000000e+00 7.000000e-01 3.000000e-01
 0.000000e+00 0.000000e+00 0.000000e+00 0.000000e+00 0.000000e+00
~t "T_ay"
<TRANSP> 5
 0.000000e+00 1.000000e+00 0.000000e+00 0.000000e+00 0.000000e+00
 0.000000e+00 8.916397e-01 1.083603e-01 0.000000e+00 0.000000e+00
 0.000000e+00 0.000000e+00 9.215500e-01 7.844999e-02 0.000000e+00
 0.000000e+00 0.000000e+00 0.000000e+00 9.734567e-01 2.654336e-02
 0.000000e+00 0.000000e+00 0.000000e+00 0.000000e+00 0.000000e+00
~t "T_kh"
<TRANSP> 5
 0.000000e+00 1.000000e+00 0.000000e+00 0.000000e+00 0.000000e+00
 0.000000e+00 9.776033e-01 2.239667e-02 0.000000e+00 0.000000e+00
 0.000000e+00 0.000000e+00 7.815980e-01 2.184020e-01 0.000000e+00
 0.000000e+00 0.000000e+00 0.000000e+00 8.266394e-01 1.733606e-01
 0.000000e+00 0.000000e+00 0.000000e+00 0.000000e+00 0.000000e+00
~t "T_ng"
<TRANSP> 5
 0.000000e+00 1.000000e+00 0.000000e+00 0.000000e+00 0.000000e+00
 0.000000e+00 8.739810e-01 1.260190e-01 0.000000e+00 0.000000e+00
 0.000000e+00 0.000000e+00 7.621960e-01 2.378040e-01 0.000000e+00
 0.000000e+00 0.000000e+00 0.000000e+00 9.475972e-01 5.240276e-02
 0.000000e+00 0.000000e+00 0.000000e+00 0.000000e+00 0.000000e+00
~t "T_ny"
<TRANSP> 5
 0.000000e+00 1.000000e+00 0.000000e+00 0.000000e+00 0.000000e+00
 0.000000e+00 9.204460e-01 7.955401e-02 0.000000e+00 0.000000e+00
 0.000000e+00 0.000000e+00 7.450285e-01 2.549715e-01 0.000000e+00
 0.000000e+00 0.000000e+00 0.000000e+00 9.635058e-01 3.649420e-02
 0.000000e+00 0.000000e+00 0.000000e+00 0.000000e+00 0.000000e+00
~t "T_sy"
<TRANSP> 5
 0.000000e+00 1.000000e+00 0.000000e+00 0.000000e+00 0.000000e+00
 0.000000e+00 9.513539e-01 4.864604e-02 0.000000e+00 0.000000e+00
 0.000000e+00 0.000000e+00 7.089207e-01 2.910793e-01 0.000000e+00
 0.000000e+00 0.000000e+00 0.000000e+00 9.244176e-01 7.558243e-02
 0.000000e+00 0.000000e+00 0.000000e+00 0.000000e+00 0.000000e+00
~s "ST_f_2_1"
<MEAN> 25
 -3.097362e+00 1.356857e+00 8.638250e-01 4.720845e+00 3.725364e+00 3.988362e+00 2.111148e+00 2.939265e+00 1.875557e+00 2.689162e+00 2.722037e+00 -2.653516e-01 -1.156828e-01 -5.832309e-03 -4.621148e-02 2.374709e-02 -6.595638e-02 1.237583e-02 3.215927e-02 -7.274874e-03 3.230885e-02 9.557720e-02 5.120609e-02 3.333401e-03 1.110610e-01
<VARIANCE> 25
 5.184076e+00 6.023625e+00 1.247710e+01 9.639594e+00 1.161002e+01 1.216593e+01 1.359096e+01 1.517851e+01 1.424340e+01 1.568863e+01 1.640154e+01 1.191437e+01 1.840084e-01 3.223296e-01 5.384854e-01 6.293915e-01 8.817786e-01 9.015090e-01 1.219408e+00 1.271348e+00 1.327964e+00 1.392549e+00 1.440178e+00 1.193425e+00 1.980220e-01
<GCONST> 7.098112e+01
~s "ST_f_3_1"
<MEAN> 25
 -4.373376e+00 5.732934e+00 -4.858936e+00 3.564692e+00 3.673759e+00 2.002520e+00 2.675005e+00 8.574241e-01 1.553613e+00 3.319204e+00 3.149541e+00 -4.563398e-01 3.479328e-01 -7.530219e-01 -2.246410e-01 -2.507043e-01 -2.859544e-01 -1.057485e-01 -7.479957e-02 -2.076020e-02 7.714075e-03 -2.872146e-01 -1.832496e-01 7.489354e-02 5.435402e-01
<VARIANCE> 25
 7.639073e+00 3.354914e+01 1.833780e+01 1.053159e+01 2.994275e+01 2.591110e+01 2.449235e+01 2.109836e+01 2.177095e+01 1.738863e+01 2.660848e+01 1.889526e+01 7.072343e-01 3.178223e+00 2.036891e+00 1.656406e+00 1.940530e+00 2.143623e+00 2.053583e+00 2.005059e+00 2.110281e+00 1.748421e+00 2.470348e+00 1.564550e+00 1.115764e+00
<GCONST> 8.944836e+01
~s "ST_kh_2_1"
<MEAN> 25
 -6.467685e-01 1.344385e+00 -8.170531e-01 2.407558e+00 2.853702e+00 3.713581e+00 4.157999e+00 1.880011e+00 1.029736e+00 2.465124e+00 2.703136e+00 8.442570e-02 3.566560e-03 4.479710e-03 -8.382812e-03 -1.722225e-03 6.094142e-03 1.513327e-02 -4.767589e-03 -3.381905e-02 1.933718e-02 2.242278e-02 -2.594415e-02 -2.908408e-02 -1.005384e-02
<VARIANCE> 25
 1.246824e+00 1.847238e+00 4.901845e+00 6.116858e+00 1.385648e+01 1.143615e+01 1.994329e+01 1.319146e+01 1.517150e+01 1.411919e+01 1.258576e+01 1.108172e+01 1.126408e-01 1.601575e-01 3.942300e-01 5.377128e-01 7.537997e-01 9.293357e-01 1.162541e+00 1.363720e+00 9.621025e-01 1.279670e+00 1.252091e+00 1.057606e+00 4.117531e-02
<GCONST> 6.296207e+01
~s "ST_f_4_1"
<MEAN> 25
 -8.259251e-01 -8.637136e+00 -2.494381e+00 1.883412e+00 -3.859723e+00 3.193734e+00 -8.036559e-01 -1.608156e+00 1.121716e+00 -2.428278e+00 2.971613e-01 -1.212718e-01 1.494398e+00 -1.918297e+00 8.140046e-01 -1.586440e+00 -1.138195e+00 -3.291226e-01 -1.299255e+00 -1.327416e+00 -5.910397e-01 -8.608485e-01 -1.096243e+00 -1.800429e-01 2.020858e+00
<VARIANCE> 25
 1.293247e+01 7.724833e+01 3.913091e+01 2.214910e+01 3.994045e+01 2.546069e+01 3.425815e+01 2.445753e+01 1.533856e+01 2.919681e+01 2.217059e+01 1.350994e+01 2.981214e+00 8.330070e+00 4.128039e+00 4.271597e+00 3.618299e+00 4.510947e+00 3.453735e+00 4.188388e+00 2.322199e+00 3.293034e+00 5.029318e+00 1.953163e+00 3.101889e+00
<GCONST> 1.020778e+02
~s "ST_kh_3_1"
<MEAN> 25
 -2.106312e+00 -1.889261e+00 -4.957461e+00 1.313876e+00 8.602607e+00 7.872198e-01 -2.309377e+00 4.225342e+00 5.608949e+00 5.821736e+00 -2.461432e+00 -5.275229e-01 -1.000951e+00 -1.650003e+00 -4.080205e-01 -2.485914e-03 2.294135e+00 -2.028214e+00 -3.386714e+00 9.341037e-01 1.951167e+00 6.171553e-01 -2.033408e+00 1.350610e-01 4.215586e+00
<VARIANCE> 25
 5.793250e+00 2.197422e+01 2.381209e+01 8.680491e+00 4.146561e+01 3.269762e+01 7.506114e+01 2.137177e+01 3.438249e+01 2.294952e+01 3.649070e+01 1.169498e+01 4.489920e-01 1.254423e+00 2.627216e+00 1.234486e+00 2.350391e+00 1.588537e+00 2.716593e+00 2.379641e+00 1.849460e+00 2.033830e+00 1.245841e+00 1.486286e+00 2.527355e+00
<GCONST> 9.009869e+01
~s "ST_kh_4_1"
<MEAN> 25
 -7.583566e+00 -7.990811e+00 1.983775e+00 2.975770e+00 9.350398e+00 -2.052651e+00 -4.250610e+00 -4.737601e-01 5.668638e+00 1.895007e+00 -2.336015e+00 3.398960e+00 5.613918e-01 -4.217494e-01 5.915756e-01 -1.597368e-01 -1.303593e+00 -4.929889e-01 3.745912e-01 -1.869084e+00 -1.701294e+00 -1.347714e+00 4.845647e-01 3.841730e-01 9.937471e-02
<VARIANCE> 25
 1.840680e+01 2.821021e+01 5.947162e+00 7.683373e+00 2.225560e+01 3.601993e+01 3.439204e+01 4.118911e+01 2.980425e+01 1.821677e+01 1.669606e+01 2.543206e+01 5.184247e+00 1.474049e+00 2.436465e+00 1.127933e+00 2.455064e+00 4.396695e+00 3.672469e+00 3.905704e+00 3.427252e+00 2.704674e+00 1.683313e+00 2.862772e+00 7.007120e-01
<GCONST> 9.384264e+01
~s "ST_s_2_1"
<MEAN> 25
 -1.041427e+01 2.940551e+00 -3.270001e+00 5.406735e+00 -1.731792e+00 2.920128e+00 5.862406e+00 3.232506e+00 2.926589e+00 4.283041e+00 3.780456e+00 -1.267919e-01 -1.997691e-02 -1.798671e-01 1.553233e-01 -2.584248e-02 -6.378617e-02 -2.236205e-02 -5.610894e-02 3.872794e-02 1.100420e-01 -2.796838e-02 7.018971e-02 -2.609596e-02 1.081114e-01
<VARIANCE> 25
 2.070584e+01 2.777653e+01 1.873999e+01 1.957088e+01 2.135019e+01 3.267722e+01 2.786035e+01 1.957267e+01 1.878360e+01 2.134636e+01 1.519581e+01 1.556124e+01 1.351049e+00 1.393620e+00 9.973142e-01 1.682014e+00 1.282027e+00 1.663041e+00 1.515148e+00 1.369575e+00 1.731179e+00 1.720441e+00 1.490455e+00 1.109525e+00 8.597050e-01
<GCONST> 8.659539e+01
~s "ST_s_3_1"
<MEAN> 25
 -5.450665e+00 -1.030317e+00 -8.429337e-01 2.820897e+00 -1.520686e+00 1.438486e+00 4.602950e+00 2.530017e+00 2.981021e+00 2.875704e+00 2.560217e+00 2.493655e-01 2.257784e+00 -5.864350e-01 9.269790e-01 -1.241946e+00 -1.179021e+00 -1.005313e+00 -2.242289e+00 -1.476766e+00 -5.382181e-01 -1.277694e+00 -1.226169e+00 1.204663e-01 7.003715e-01
<VARIANCE> 25
 1.969635e+01 6.026252e+01 3.204683e+01 1.956135e+01 3.193980e+01 3.931909e+01 2.626452e+01 2.676221e+01 2.324043e+01 2.239036e+01 1.919920e+01 1.547085e+01 4.810186e+00 6.727379e+00 3.800417e+00 4.149659e+00 4.598764e+00 4.771908e+00 5.426791e+00 5.044155e+00 2.619897e+00 2.433904e+00 2.944844e+00 1.684281e+00 3.460475e+00
<GCONST> 1.024346e+02
~s "ST_s_4_1"
<MEAN> 25
 3.861534e+00 -8.275585e+00 2.511460e+00 -3.747689e+00 -6.100187e+00 1.161729e+00 -4.311184e+00 -3.967734e+00 2.768494e-01 -1.381698e+00 -4.188754e-01 -3.157190e-01 1.247833e+00 2.144503e-01 4.993325e-01 -1.232150e+00 -4.569852e-01 -6.949936e-01 -1.462459e+00 -8.750244e-01 -3.963498e-01 -6.747065e-01 -6.802104e-01 4.662883e-02 8.398228e-01
<VARIANCE> 25
 5.177316e+01 1.336014e+02 6.467977e+01 7.166685e+01 6.391157e+01 5.173995e+01 6.403173e+01 6.231181e+01 3.205465e+01 3.912305e+01 3.651135e+01 2.368854e+01 5.939998e+00 6.818737e+00 3.481190e+00 6.636860e+00 5.193093e+00 5.463080e+00 7.570809e+00 6.533706e+00 2.887213e+00 5.515164e+00 4.904246e+00 2.843326e+00 6.237253e+00
<GCONST> 1.148436e+02
~s "ST_i_2_1"
<MEAN> 25
 3.557213e+00 2.483289e+00 1.624145e+01 -1.597791e+01 -1.625659e+01 -1.775323e+00 -1.568076e+01 -1.101809e+01 2.632840e+00 -3.015343e+00 -5.244888e+00 2.445400e+00 -8.620507e-02 3.152616e-01 1.616147e-01 -6.961592e-01 9.236614e-02 3.512502e-01 -7.295116e-01 1.851912e-01 3.534786e-01 -1.497554e-01 1.347785e-01 5.287832e-01 -2.946518e-01
<VARIANCE> 25
 1.463434e+01 1.112413e+02 3.200980e+01 3.047509e+01 1.989602e+01 1.564544e+01 2.826094e+01 2.230304e+01 1.805608e+01 2.044916e+01 1.523057e+01 2.044933e+01 9.837015e-01 1.589682e+00 1.974983e+00 2.358611e+00 2.685207e+00 2.354287e+00 2.802608e+00 2.856518e+00 2.027323e+00 2.662838e+00 2.196600e+00 2.521044e+00 1.258104e+00
<GCONST> 9.360172e+01
~s "ST_i_2_2"
<MEAN> 25
 5.110254e+00 -5.232400e-01 1.435801e+01 -1.356927e+01 -1.550728e+01 -2.769653e+00 -1.232683e+01 -9.464277e+00 -5.687022e-01 -1.214322e+00 -5.007062e+00 2.207090e+00 2.271443e-01 3.248181e-01 3.911013e-01 -4.454798e-01 -7.482685e-01 1.575925e-01 -5.410184e-01 -6.209015e-01 -7.077400e-02 6.800745e-02 -3.524068e-01 -5.835928e-02 2.992343e-01
<VARIANCE> 25
 2.439761e+01 1.243778e+02 4.200589e+01 4.071256e+01 4.719217e+01 2.171539e+01 6.594808e+01 3.863140e+01 1.904774e+01 3.553064e+01 2.236200e+01 1.914675e+01 1.883837e+00 3.223032e+00 3.685785e+00 5.843340e+00 4.845225e+00 3.344326e+00 5.711921e+00 4.061094e+00 2.031162e+00 4.205737e+00 2.658306e+00 2.686396e+00 3.527331e+00
<GCONST> 1.049353e+02
~s "ST_i_3_1"
<MEAN> 25
 2.278104e+00 4.256349e-01 8.258563e+00 -4.706245e+00 -1.256675e+01 -4.162514e-01 -8.484595e+00 -7.059137e+00 -7.035022e-01 -1.824349e+00 -1.408756e+00 9.501631e-01 -9.647157e-01 -2.254634e-01 -2.095731e+00 2.779558e+00 2.081359e+00 4.141241e-01 2.176122e+00 1.727634e+00 6.457260e-02 3.665386e-01 1.228645e+00 -4.686218e-01 -2.130499e+00
<VARIANCE> 25
 3.058201e+01 9.380836e+01 4.205411e+01 5.036417e+01 5.293865e+01 5.028685e+01 6.432300e+01 3.985308e+01 3.756195e+01 4.447260e+01 3.500611e+01 3.827270e+01 2.151793e+00 5.858559e+00 3.121078e+00 3.025132e+00 3.266225e+00 5.049376e+00 4.930623e+00 3.624194e+00 3.965356e+00 4.965321e+00 3.009352e+00 3.047496e+00 3.850189e+00
<GCONST> 1.089335e+02
~s "ST_i_4_1"
<MEAN> 25
 -2.082931e+00 2.167669e+00 9.525140e-01 2.682137e+00 -2.937251e-01 2.657755e+00 1.857733e+00 5.822554e-01 7.988505e-01 1.972123e+00 3.456503e+00 6.709679e-01 -1.156204e-01 -2.512719e-02 -2.332334e-01 3.153769e-01 5.877051e-01 -9.841865e-02 5.140302e-01 3.462137e-01 -1.635187e-01 2.975536e-02 7.593016e-02 -2.607558e-01 -1.888409e-01
<VARIANCE> 25
 5.457883e+00 2.351188e+01 2.316180e+01 1.187899e+01 2.776480e+01 2.973843e+01 2.459165e+01 2.072020e+01 2.335147e+01 1.746648e+01 2.707510e+01 1.446419e+01 3.535445e-01 1.039630e+00 1.162295e+00 8.993646e-01 2.335871e+00 1.956107e+00 2.301419e+00 1.748806e+00 2.507708e+00 1.751871e+00 2.522930e+00 1.337163e+00 4.723628e-01
<GCONST> 8.525098e+01
~s "ST_i_4_2"
<MEAN> 25
 -3.611194e+00 1.210345e+00 2.877880e+00 5.793380e+00 1.851267e+00 3.922436e+00 2.003537e+00 2.632530e+00 2.494177e+00 2.644674e+00 3.375788e+00 9.288182e-01 -2.363011e-02 -7.702129e-02 -8.190280e-02 1.242863e-01 2.699492e-01 -1.532325e-02 2.985477e-01 1.458746e-01 -6.995848e-02 1.433094e-02 -5.032293e-02 -9.438824e-02 -8.841107e-02
<VARIANCE> 25
 2.806596e+00 6.849105e+00 1.181394e+01 1.202599e+01 2.158432e+01 1.828018e+01 2.022941e+01 1.939516e+01 1.789790e+01 1.726531e+01 1.650602e+01 1.378270e+01 1.857676e-01 5.102383e-01 8.046235e-01 7.167850e-01 1.413241e+00 1.584747e+00 1.704766e+00 1.655540e+00 1.756464e+00 1.240215e+00 1.435614e+00 1.330087e+00 1.553545e-01
<GCONST> 7.547060e+01
~s "ST_i_4_3"
<MEAN> 25
 -7.900338e-01 1.712473e+00 2.388886e+00 3.340843e+00 -3.883536e+00 4.731234e-01 6.499668e-01 -4.421642e-01 9.851276e-01 2.056329e+00 1.027350e+00 -8.555676e-01 -1.871537e-01 -1.251920e-01 -6.213370e-01 7.149318e-01 9.992043e-01 -2.089733e-01 6.119228e-01 7.655562e-01 7.113992e-02 2.444557e-01 1.640180e-01 -1.515264e-01 -5.662326e-01
<VARIANCE> 25
 3.247511e+01 5.180491e+01 2.117802e+01 2.871625e+01 4.753720e+01 5.684703e+01 3.078564e+01 2.639806e+01 2.625352e+01 2.516371e+01 2.536040e+01 2.133449e+01 8.073506e-01 1.640973e+00 2.072496e+00 1.761249e+00 1.842836e+00 2.990287e+00 2.240419e+00 2.429110e+00 2.434254e+00 2.730910e+00 2.065385e+00 1.475390e+00 8.066255e-01
<GCONST> 9.494480e+01
~s "ST_E_2_1"
<MEAN> 25
 6.342442e+00 -1.111877e+01 3.139704e-01 -7.037635e+00 -3.813870e+00 -3.061754e+00 -7.547445e-01 -1.943231e+00 -3.424694e+00 -4.309251e+00 -4.757431e+00 -3.174383e-01 1.627939e+00 -2.173673e+00 -1.363904e-01 -1.970730e+00 -7.882587e-01 -1.543565e+00 6.166651e-01 -5.063606e-01 -1.308306e+00 -1.846267e+00 -8.984898e-01 2.157213e-01 3.051279e+00
<VARIANCE> 25
 3.946324e+01 8.956586e+01 3.525745e+01 5.908981e+01 4.961176e+01 4.208649e+01 5.014363e+01 5.646509e+01 4.103921e+01 3.760857e+01 4.019218e+01 2.160330e+01 3.376431e+00 5.543594e+00 2.604913e+00 3.982519e+00 3.656127e+00 3.761177e+00 4.653385e+00 7.107419e+00 3.379625e+00 2.860234e+00 4.911105e+00 2.211151e+00 6.199383e+00
<GCONST> 1.093265e+02
~s "ST_E_3_1"
<MEAN> 25
 7.817785e+00 -1.431146e+01 1.533555e+00 -9.142573e+00 -6.979124e+00 -5.882993e+00 4.457633e+00 -3.896405e+00 -8.723718e+00 -6.712456e+00 -3.095576e+00 4.146021e-01 -1.924659e-02 1.189183e-02 -2.458676e-01 1.823946e-01 -1.530215e-01 -9.935091e-02 3.458933e-01 -4.530097e-02 1.751796e-01 -2.943742e-02 -1.740126e-01 1.561641e-01 -1.343204e-01
<VARIANCE> 25
 1.511078e+01 9.115792e+01 3.608749e+01 2.696174e+01 4.012745e+01 3.828055e+01 3.219806e+01 4.126907e+01 2.952489e+01 3.020452e+01 3.261284e+01 1.874021e+01 4.305135e-01 6.377720e-01 1.183128e+00 7.834178e-01 1.341406e+00 1.110228e+00 2.648536e+00 1.709484e+00 2.244334e+00 1.307872e+00 1.567097e+00 1.168170e+00 4.372593e-01
<GCONST> 8.918717e+01
~s "ST_E_3_2"
<MEAN> 25
 8.049233e+00 -1.475223e+01 -1.377613e+00 -1.027654e+01 -6.790761e+00 -9.604356e+00 9.594245e+00 -5.431264e+00 -9.445353e+00 -1.007214e+01 -6.142279e+00 -5.592373e-01 -1.016449e-02 2.342045e-02 6.516771e-03 3.081004e-01 -3.700485e-01 -1.359718e-01 6.204849e-01 -5.779884e-02 -1.209637e-01 1.831534e-02 2.262191e-01 8.977960e-02 -1.285238e-02
<VARIANCE> 25
 7.114212e+00 1.628620e+01 1.432560e+01 1.224348e+01 1.388898e+01 2.626682e+01 2.757908e+01 3.607943e+01 1.147473e+01 1.125580e+01 2.843892e+01 1.324601e+01 1.776375e-01 3.421231e-01 5.797648e-01 4.583769e-01 6.797280e-01 7.399130e-01 1.998353e+00 9.603323e-01 1.802179e+00 7.799943e-01 1.147762e+00 8.388235e-01 1.087942e-01
<GCONST> 7.338410e+01
~s "ST_E_4_1"
<MEAN> 25
 7.181297e+00 -1.130159e+01 7.923905e-01 -5.813736e+00 -7.263005e+00 -4.508568e+00 2.700659e-01 -2.582957e+00 -2.451846e+00 -4.429230e+00 -3.602870e+00 -1.429270e-01 -4.923248e-01 1.593045e+00 -8.096591e-01 9.029493e-01 7.535794e-01 6.174704e-01 -9.288216e-01 3.368827e-01 1.188506e+00 6.525232e-01 1.158989e-01 -4.122740e-01 -1.978261e+00
<VARIANCE> 25
 2.918282e+01 8.248457e+01 5.483883e+01 4.117997e+01 5.176388e+01 4.587216e+01 7.480892e+01 5.146070e+01 3.137815e+01 4.768788e+01 4.767405e+01 2.569465e+01 1.640697e+00 2.942418e+00 2.798083e+00 3.276230e+00 3.403376e+00 3.917318e+00 4.258507e+00 4.607601e+00 2.851771e+00 2.801691e+00 3.787952e+00 2.482738e+00 3.941050e+00
<GCONST> 1.069528e+02
~s "ST_l_2_1"
<MEAN> 25
 1.016573e+01 -2.862909e+00 -1.044264e+01 -1.478132e+01 3.773351e+00 -3.121674e+00 -5.568660e+00 -8.196257e+00 -1.891974e+00 -3.930419e+00 -6.741107e+00 -3.879062e+00 1.569584e-01 4.729098e-01 -1.446345e-01 2.048999e-01 -8.617084e-02 -1.901585e-01 -3.446219e-01 -1.021422e-02 2.510795e-01 7.622606e-02 2.460212e-01 -1.163436e-02 -2.625173e-01
<VARIANCE> 25
 7.385005e+00 2.841603e+01 1.430128e+01 4.435944e+01 1.184901e+01 2.352899e+01 2.538009e+01 3.139416e+01 3.816900e+01 2.036341e+01 2.302796e+01 1.268638e+01 1.666459e-01 5.410903e-01 3.267995e-01 9.956746e-01 7.194472e-01 9.776282e-01 8.414574e-01 7.110400e-01 1.037474e+00 9.361382e-01 8.997360e-01 7.077349e-01 1.976226e-01
<GCONST> 7.589379e+01
~s "ST_l_3_1"
<MEAN> 25
 1.048160e+01 -6.650500e+00 -6.313383e+00 -9.878786e+00 2.482741e+00 -3.571691e+00 -1.014006e+01 -5.305581e+00 8.520826e-01 -4.649079e+00 -5.464259e+00 -2.141300e+00 -3.378866e-01 -3.725418e-01 9.788945e-01 1.280449e+00 -7.681460e-01 -9.017185e-01 -5.035477e-01 3.897505e-01 2.492426e-02 -6.140767e-01 -1.070345e-01 6.420468e-01 5.290684e-02
<VARIANCE> 25
 1.390136e+01 1.055013e+02 2.127337e+01 3.357787e+01 2.587753e+01 5.020774e+01 2.657127e+01 4.144630e+01 3.857829e+01 2.503747e+01 2.006165e+01 2.054442e+01 6.942901e-01 1.273302e+00 1.224705e+00 1.514575e+00 2.221230e+00 1.580702e+00 1.997989e+00 1.804854e+00 2.484791e+00 1.107925e+00 1.642937e+00 1.843957e+00 6.454491e-01
<GCONST> 9.159359e+01
~s "ST_l_4_1"
<MEAN> 25
 8.018361e+00 -3.826563e+00 -5.369954e-01 -4.970016e+00 -6.132750e+00 -8.613591e+00 -7.964260e+00 -4.738542e+00 -6.739762e-01 -5.476007e+00 -3.933109e+00 1.090723e+00 -1.534690e+00 3.425167e-01 3.068202e+00 -1.722949e-02 -2.951415e+00 1.079162e+00 1.277217e+00 -7.756426e-01 -1.149374e+00 4.819016e-01 3.504494e-01 6.664373e-01 -7.764184e-02
<VARIANCE> 25
 1.730985e+01 8.439946e+01 3.653715e+01 2.995464e+01 9.468108e+01 5.086208e+01 5.876749e+01 4.329327e+01 4.437926e+01 3.785682e+01 3.375762e+01 1.839542e+01 1.290500e+00 1.113506e+00 3.859883e+00 2.767073e+00 6.810816e+00 3.481889e+00 2.693435e+00 5.070661e+00 3.109453e+00 3.473184e+00 2.433960e+00 2.613899e+00 1.148817e+00
<GCONST> 1.032908e+02
~s "ST_y_2_1"
<MEAN> 25
 1.688663e+00 3.856100e+00 9.362341e+00 -9.619587e+00 -1.714440e+01 -2.889085e+00 -5.482037e+00 -6.791443e+00 -4.589641e+00 2.030006e+00 -9.264155e+00 -7.382071e-03 -3.070889e-01 8.474893e-01 7.898340e-01 -3.412480e-01 -6.247576e-01 6.037109e-01 -7.827948e-01 -3.863655e-01 3.392859e-01 4.013319e-01 4.162598e-03 1.145226e-02 -4.829193e-01
<VARIANCE> 25
 5.021368e+00 4.965792e+01 1.735697e+01 2.821482e+01 4.240305e+01 3.244598e+01 6.385625e+01 2.106802e+01 2.757228e+01 2.710965e+01 1.253520e+01 2.012534e+01 3.666858e-01 1.909343e+00 1.339737e+00 1.037298e+00 2.983181e+00 1.562905e+00 2.946444e+00 1.636481e+00 2.175848e+00 2.416492e+00 1.428920e+00 1.642330e+00 4.294975e-01
<GCONST> 8.899094e+01
~s "ST_y_3_1"
<MEAN> 25
 -2.520257e+00 -1.526432e+00 8.062286e+00 -4.341579e+00 -7.797897e+00 3.826557e+00 -2.431864e-01 -2.091269e+00 -3.948170e-01 1.826230e+00 -8.103094e-01 1.433736e+00 -5.088758e-02 -9.467899e-01 -1.074353e+00 1.223734e+00 1.988843e+00 2.147480e-01 1.185836e+00 9.719796e-01 1.382838e-01 -3.579797e-01 1.207654e+00 1.751661e-01 -5.858329e-01
<VARIANCE> 25
 1.944970e+01 2.510048e+01 2.816908e+01 4.453947e+01 5.542638e+01 3.822805e+01 4.080313e+01 2.746813e+01 3.188954e+01 3.424166e+01 5.024787e+01 1.542901e+01 1.561111e+00 2.135248e+00 1.861787e+00 2.209327e+00 1.730999e+00 3.408993e+00 3.842206e+00 1.938667e+00 3.852288e+00 3.794665e+00 2.472729e+00 2.145540e+00 6.594338e-01
<GCONST> 9.793756e+01
~s "ST_y_4_1"
<MEAN> 25
 -1.777857e+00 -3.120976e-01 -7.896798e-01 3.056261e+00 3.854360e+00 3.505152e+00 4.891798e+00 2.000379e+00 1.644631e+00 2.459926e+00 2.997393e+00 5.821428e-01 1.939315e-02 3.030455e-02 -9.143559e-02 1.867133e-02 5.629942e-02 -4.850574e-02 -2.083483e-02 -2.915631e-02 7.777929e-02 2.995648e-02 -9.416363e-02 -1.428971e-02 -3.302927e-02
<VARIANCE> 25
 2.922114e+00 6.417700e+00 5.685574e+00 6.733359e+00 7.677125e+00 1.287073e+01 1.321108e+01 1.287630e+01 1.431695e+01 1.633289e+01 1.481155e+01 1.224260e+01 1.653927e-01 3.174816e-01 5.849789e-01 6.006152e-01 8.052261e-01 1.118018e+00 1.310397e+00 1.102012e+00 1.395204e+00 1.267274e+00 1.360781e+00 1.200754e+00 8.471505e-02
<GCONST> 6.777000e+01
~s "ST_b_2_1"
<MEAN> 25
 4.757681e+00 6.120552e-01 1.849896e-01 -6.836701e-01 -4.906431e+00 -3.708196e+00 -6.622592e+00 -5.009997e+00 -2.918634e+00 -2.115270e+00 -3.178514e+00 -3.245227e-01 2.804486e+00 -2.153142e-01 -1.820096e-01 -3.082972e+00 -2.664358e+00 -1.785498e+00 -2.669568e+00 -1.090322e+00 -1.130125e+00 -1.948426e+00 -2.069107e+00 -3.213056e-02 3.630660e+00
<VARIANCE> 25
 5.366637e+01 6.471101e+01 4.153514e+01 7.337376e+01 6.091664e+01 4.653532e+01 6.666666e+01 4.510589e+01 5.289030e+01 4.382745e+01 3.891677e+01 2.099010e+01 4.081124e+00 8.577341e+00 5.189826e+00 6.766376e+00 4.652630e+00 4.206197e+00 4.254304e+00 5.315779e+00 5.658382e+00 4.384323e+00 3.465064e+00 2.521308e+00 7.437452e+00
<GCONST> 1.131261e+02
~s "ST_b_3_1"
<MEAN> 25
 8.674129e+00 5.813231e+00 -3.675238e-01 -9.086243e+00 -9.154651e+00 -7.514387e+00 -1.051241e+01 -4.581941e+00 -6.272209e+00 -6.112131e+00 -7.430151e+00 3.917669e-01 6.946567e-02 -1.584814e-01 2.913146e-02 -7.873286e-01 -8.140063e-02 1.557342e-01 3.163774e-01 3.642876e-01 3.904159e-02 -2.810639e-01 -1.292540e-01 2.933326e-01 5.104164e-01
<VARIANCE> 25
 2.802147e+01 5.260339e+01 6.335440e+01 5.156499e+01 1.955945e+01 1.563355e+01 3.124466e+01 2.486034e+01 3.741754e+01 1.878707e+01 2.581340e+01 2.303695e+01 5.317747e-01 1.442473e+00 1.320548e+00 2.911034e+00 1.237310e+00 1.116161e+00 1.533794e+00 2.784116e+00 1.548164e+00 1.982909e+00 1.198871e+00 2.047327e+00 2.196424e+00
<GCONST> 9.231783e+01
~s "ST_b_4_1"
<MEAN> 25
 1.289603e+01 -1.145550e+01 1.167272e+00 -1.350679e+01 -6.113721e+00 -3.795864e+00 -8.032940e+00 -2.727401e+00 -2.407399e+00 -8.488826e+00 -6.089816e+00 1.978415e+00 -4.607405e-01 -6.247141e-01 -1.273018e-02 3.715497e-01 5.623352e-02 1.244078e-01 4.348958e-01 3.678248e-01 2.059143e-01 -2.530877e-01 2.381094e-02 2.104794e-01 -2.726451e-02
<VARIANCE> 25
 4.100235e+01 1.307714e+02 5.361682e+01 5.223195e+01 4.241259e+01 3.268599e+01 4.025908e+01 7.922712e+01 3.740091e+01 4.009710e+01 3.292673e+01 2.325650e+01 8.941028e-01 4.794807e+00 2.435524e+00 4.440212e+00 3.623867e+00 2.489312e+00 3.161448e+00 5.442617e+00 4.320942e+00 4.418913e+00 2.960285e+00 2.926125e+00 5.202868e+00
<GCONST> 1.073663e+02
~s "ST_o_2_1"
<MEAN> 25
 9.780683e+00 -4.353100e+00 -6.600793e+00 -1.481360e+01 -1.009981e+00 1.887746e+00 -5.362604e+00 -8.693568e+00 -4.463198e+00 -1.178252e+00 -5.747950e+00 -1.366311e+00 1.825864e+00 -4.123539e-01 -6.702985e-01 -1.962621e+00 5.112538e-01 -4.576945e-01 -6.462136e-01 -1.180319e+00 -5.888318e-01 -8.117297e-01 -2.253359e-01 -8.508198e-01 1.551676e+00
<VARIANCE> 25
 2.062060e+01 5.806852e+01 3.534838e+01 5.947235e+01 3.063338e+01 7.396340e+01 3.602049e+01 3.666979e+01 5.526146e+01 3.357177e+01 3.139630e+01 1.899552e+01 1.824219e+00 1.640062e+00 3.598813e+00 3.442289e+00 4.111565e+00 5.228197e+00 3.522838e+00 3.996496e+00 3.919320e+00 4.484118e+00 3.522711e+00 1.807140e+00 2.047939e+00
<GCONST> 1.042734e+02
~s "ST_o_3_1"
<MEAN> 25
 1.180199e+01 -5.297643e+00 -8.667172e+00 -1.805429e+01 1.726572e+00 1.935519e+00 -5.328642e+00 -7.455647e+00 -4.598266e+00 -1.428659e+00 -4.292361e+00 -2.414878e+00 -9.809487e-02 -2.759270e-01 -2.565025e-03 3.038471e-01 1.720924e-01 -4.162531e-01 2.603277e-01 2.048359e-01 4.876812e-01 -2.048592e-01 7.996812e-02 -2.175435e-01 1.514680e-01
<VARIANCE> 25
 1.054988e+01 7.337657e+01 1.653943e+01 2.619431e+01 1.733936e+01 2.618575e+01 2.132934e+01 2.691550e+01 2.425108e+01 2.684554e+01 2.325006e+01 1.385687e+01 3.768260e-01 8.623627e-01 6.419482e-01 1.782531e+00 1.590209e+00 2.702770e+00 1.653257e+00 1.830324e+00 2.218192e+00 2.418903e+00 2.565123e+00 1.289824e+00 8.672526e-01
<GCONST> 8.770478e+01
~s "ST_o_4_1"
<MEAN> 25
 6.944473e+00 -4.128578e+00 -5.664392e+00 -8.427057e+00 -9.971886e-01 -1.186341e+00 -1.455496e+00 -3.425665e+00 3.265822e-01 -1.384840e+00 -4.357608e+00 -1.672561e+00 -1.535911e+00 3.083422e-01 1.593788e+00 2.370193e+00 -8.610473e-01 -6.641511e-02 1.170617e+00 9.688272e-01 2.765306e-01 -1.590918e-01 5.613227e-01 4.567242e-01 -1.294097e+00
<VARIANCE> 25
 2.735005e+01 5.503848e+01 2.853628e+01 4.916303e+01 2.465009e+01 5.832956e+01 4.171492e+01 3.803971e+01 2.798129e+01 4.492781e+01 5.649545e+01 1.929689e+01 1.783057e+00 1.185100e+00 1.995297e+00 2.768891e+00 3.950826e+00 4.595665e+00 3.475485e+00 2.967317e+00 2.774094e+00 4.142670e+00 4.373445e+00 1.687778e+00 1.638048e+00
<GCONST> 1.019051e+02
~s "ST_o_4_2"
<MEAN> 25
 1.103016e+01 -4.452645e+00 -8.220171e+00 -1.847873e+01 9.718864e-01 -6.671469e-01 -3.706902e+00 -7.757868e+00 -5.388061e+00 -2.769296e+00 -5.191615e+00 -2.301067e+00 -5.560952e-01 2.959416e-01 1.006474e+00 1.573968e+00 -5.025055e-01 -8.531926e-01 -2.890263e-01 -3.309566e-01 8.522171e-01 3.198516e-01 -4.172485e-01 -1.079001e-01 -4.356466e-01
<VARIANCE> 25
 1.113652e+01 3.362826e+01 1.745555e+01 5.577368e+01 2.141140e+01 3.281465e+01 2.365026e+01 2.184109e+01 2.080243e+01 2.871970e+01 3.350568e+01 1.206940e+01 4.494484e-01 7.541246e-01 2.429944e+00 5.259700e+00 2.241676e+00 2.662640e+00 1.964437e+00 2.277938e+00 1.147330e+00 1.498554e+00 1.824045e+00 1.148309e+00 1.358948e+00
<GCONST> 9.028951e+01
~s "ST_K_2_1"
<MEAN> 25
 -1.684587e-08 -6.193333e-08 -4.487690e-08 3.351832e-08 -6.047171e-08 2.058664e-08 -6.607048e-08 -2.205446e-08 -8.534414e-09 2.910867e-08 3.022347e-08 -1.071447e-09 -2.678578e-03 2.715191e-03 1.970940e-04 1.666228e-04 1.831201e-03 -7.320007e-04 3.372927e-03 1.125320e-03 -7.564414e-05 2.413395e-03 8.106225e-04 -2.148533e-03 -1.727290e-03
<VARIANCE> 25
 4.499385e+01 7.342516e+01 3.566479e+01 5.718780e+01 5.546888e+01 4.305736e+01 6.020990e+01 4.209700e+01 2.990068e+01 4.475465e+01 3.376802e+01 1.839641e+01 1.592596e+00 2.317776e+00 1.700131e+00 2.390033e+00 2.486403e+00 2.357601e+00 2.972100e+00 2.655601e+00 2.270027e+00 2.542916e+00 2.264997e+00 1.647762e+00 2.549860e+00
<GCONST> 1.014657e+02
~s "ST_K_3_1"
<MEAN> 25
 -1.684587e-08 -6.193333e-08 -4.487690e-08 3.351832e-08 -6.047171e-08 2.058664e-08 -6.607048e-08 -2.205446e-08 -8.534414e-09 2.910867e-08 3.022347e-08 -1.071447e-09 -2.678578e-03 2.715191e-03 1.970940e-04 1.666228e-04 1.831201e-03 -7.320007e-04 3.372927e-03 1.125320e-03 -7.564414e-05 2.413395e-03 8.106225e-04 -2.148533e-03 -1.727290e-03
<VARIANCE> 25
 4.499385e+01 7.342516e+01 3.566479e+01 5.718780e+01 5.546888e+01 4.305736e+01 6.020990e+01 4.209700e+01 2.990068e+01 4.475465e+01 3.376802e+01 1.839641e+01 1.592596e+00 2.317776e+00 1.700131e+00 2.390033e+00 2.486403e+00 2.357601e+00 2.972100e+00 2.655601e+00 2.270027e+00 2.542916e+00 2.264997e+00 1.647762e+00 2.549860e+00
<GCONST> 1.014657e+02
~s "ST_K_4_1"
<MEAN> 25
 -1.684587e-08 -6.193333e-08 -4.487690e-08 3.351832e-08 -6.047171e-08 2.058664e-08 -6.607048e-08 -2.205446e-08 -8.534414e-09 2.910867e-08 3.022347e-08 -1.071447e-09 -2.678578e-03 2.715191e-03 1.970940e-04 1.666228e-04 1.831201e-03 -7.320007e-04 3.372927e-03 1.125320e-03 -7.564414e-05 2.413395e-03 8.106225e-04 -2.148533e-03 -1.727290e-03
<VARIANCE> 25
 4.499385e+01 7.342516e+01 3.566479e+01 5.718780e+01 5.546888e+01 4.305736e+01 6.020990e+01 4.209700e+01 2.990068e+01 4.475465e+01 3.376802e+01 1.839641e+01 1.592596e+00 2.317776e+00 1.700131e+00 2.390033e+00 2.486403e+00 2.357601e+00 2.972100e+00 2.655601e+00 2.270027e+00 2.542916e+00 2.264997e+00 1.647762e+00 2.549860e+00
<GCONST> 1.014657e+02
~s "ST_aw_2_1"
<MEAN> 25
 -1.684587e-08 -6.193333e-08 -4.487690e-08 3.351832e-08 -6.047171e-08 2.058664e-08 -6.607048e-08 -2.205446e-08 -8.534415e-09 2.910867e-08 3.022347e-08 -1.071447e-09 -2.678578e-03 2.715191e-03 1.970940e-04 1.666228e-04 1.831201e-03 -7.320007e-04 3.372927e-03 1.125320e-03 -7.564414e-05 2.413395e-03 8.106226e-04 -2.148533e-03 -1.727290e-03
<VARIANCE> 25
 4.499385e+01 7.342516e+01 3.566479e+01 5.718780e+01 5.546888e+01 4.305737e+01 6.020990e+01 4.209700e+01 2.990068e+01 4.475465e+01 3.376802e+01 1.839641e+01 1.592596e+00 2.317776e+00 1.700131e+00 2.390033e+00 2.486403e+00 2.357601e+00 2.972100e+00 2.655601e+00 2.270027e+00 2.542916e+00 2.264997e+00 1.647762e+00 2.549860e+00
<GCONST> 1.014657e+02
~s "ST_aw_3_1"
<MEAN> 25
 -1.684587e-08 -6.193333e-08 -4.487690e-08 3.351832e-08 -6.047171e-08 2.058664e-08 -6.607048e-08 -2.205446e-08 -8.534414e-09 2.910867e-08 3.022347e-08 -1.071447e-09 -2.678578e-03 2.715191e-03 1.970940e-04 1.666228e-04 1.831201e-03 -7.320006e-04 3.372927e-03 1.125320e-03 -7.564413e-05 2.413395e-03 8.106225e-04 -2.148533e-03 -1.727290e-03
<VARIANCE> 25
 4.499385e+01 7.342516e+01 3.566479e+01 5.718780e+01 5.546888e+01 4.305736e+01 6.020990e+01 4.209700e+01 2.990068e+01 4.475465e+01 3.376802e+01 1.839641e+01 1.592596e+00 2.317776e+00 1.700131e+00 2.390033e+00 2.486403e+00 2.357601e+00 2.972100e+00 2.655601e+00 2.270027e+00 2.542916e+00 2.264997e+00 1.647762e+00 2.549860e+00
<GCONST> 1.014657e+02
~s "ST_aw_4_1"
<MEAN> 25
 -1.684587e-08 -6.193333e-08 -4.487690e-08 3.351832e-08 -6.047171e-08 2.058664e-08 -6.607048e-08 -2.205446e-08 -8.534414e-09 2.910867e-08 3.022347e-08 -1.071447e-09 -2.678578e-03 2.715191e-03 1.970940e-04 1.666228e-04 1.831201e-03 -7.320007e-04 3.372927e-03 1.125320e-03 -7.564414e-05 2.413395e-03 8.106225e-04 -2.148533e-03 -1.727290e-03
<VARIANCE> 25
 4.499385e+01 7.342516e+01 3.566479e+01 5.718780e+01 5.546888e+01 4.305736e+01 6.020990e+01 4.209700e+01 2.990068e+01 4.475465e+01 3.376802e+01 1.839641e+01 1.592596e+00 2.317776e+00 1.700131e+00 2.390033e+00 2.486403e+00 2.357601e+00 2.972100e+00 2.655601e+00 2.270027e+00 2.542916e+00 2.264997e+00 1.647762e+00 2.549860e+00
<GCONST> 1.014657e+02
~s "ST_e_2_1"
<MEAN> 25
 6.184494e+00 -5.285596e+00 -2.000617e+00 -6.473915e+00 -3.722925e+00 -7.410999e+00 -6.689061e+00 -2.663672e+00 2.446775e+00 -4.370775e+00 -5.588295e+00 5.411173e-02 2.785352e+00 -2.779931e-01 3.354174e-02 -3.468565e+00 -8.035195e-01 -1.748140e+00 -1.776244e+00 -1.975229e+00 -2.524511e-01 -2.062603e+00 -2.092483e+00 -1.447736e-01 2.478070e+00
<VARIANCE> 25
 4.742449e+01 1.167265e+02 3.723959e+01 3.579293e+01 5.254168e+01 4.321741e+01 4.391569e+01 4.368805e+01 2.136396e+01 3.396350e+01 3.630171e+01 1.467999e+01 3.704110e+00 3.753214e+00 4.039219e+00 3.974991e+00 6.262824e+00 4.945737e+00 5.201174e+00 7.443719e+00 3.895721e+00 4.873795e+00 4.444901e+00 2.677382e+00 5.844682e+00
<GCONST> 1.095970e+02
~s "ST_e_3_1"
<MEAN> 25
 9.363662e+00 -8.724459e+00 -3.259912e+00 -1.199146e+01 -2.624229e+00 -6.679467e+00 -6.697223e+00 -3.259948e+00 3.284616e+00 -5.845608e+00 -8.560760e+00 -1.034275e+00 4.673490e-01 -3.279466e-01 4.834297e-02 -1.229819e+00 5.740405e-01 3.241334e-01 3.110355e-01 -9.574491e-01 -2.779260e-01 -5.012435e-01 -1.015058e+00 -4.544239e-01 6.175023e-01
<VARIANCE> 25
 2.380487e+01 1.039482e+02 4.546392e+01 2.675408e+01 4.632425e+01 4.842944e+01 3.687749e+01 4.141996e+01 3.763730e+01 3.678631e+01 2.938001e+01 2.215482e+01 2.141996e+00 3.026857e+00 2.595463e+00 3.537994e+00 4.720882e+00 3.254800e+00 4.619236e+00 3.165303e+00 2.379041e+00 4.495869e+00 3.655538e+00 2.125787e+00 3.576509e+00
<GCONST> 1.048188e+02
~s "ST_e_4_1"
<MEAN> 25
 5.596257e+00 -6.745543e+00 -5.014298e+00 -8.012249e+00 -1.270878e+00 -3.462800e+00 -1.733562e+00 -1.371782e+00 2.853490e+00 -5.307657e+00 -7.530649e+00 -7.522442e-01 -8.462542e-01 8.499566e-01 1.836775e-01 1.432689e+00 4.367731e-02 9.671317e-01 7.520377e-01 7.006318e-01 -1.963883e-01 6.320185e-01 9.859628e-01 -5.613419e-02 -1.980203e+00
<VARIANCE> 25
 2.075643e+01 7.085149e+01 2.191328e+01 4.964690e+01 3.598129e+01 5.354905e+01 4.751064e+01 5.551393e+01 2.395283e+01 2.912049e+01 3.900889e+01 1.792648e+01 1.435519e+00 3.416955e+00 1.523527e+00 2.286923e+00 2.123083e+00 2.607788e+00 3.124191e+00 4.465180e+00 2.255122e+00 3.521233e+00 2.887598e+00 1.396097e+00 4.295054e+00
<GCONST> 1.008801e+02
~s "ST_r_2_1"
<MEAN> 25
 6.581826e+00 -9.756718e+00 2.832983e+00 -3.615816e+00 -6.727174e+00 -3.530837e+00 -2.292316e+00 -4.185098e-01 -1.909014e+00 -7.604920e+00 -3.596079e+00 9.224330e-01 -6.625034e-01 1.126353e-01 1.470088e-01 6.258376e-01 2.805729e-01 1.268669e+00 -5.874103e-01 5.767303e-01 8.286197e-01 6.947022e-02 7.963385e-01 3.407650e-01 -6.431687e-01
<VARIANCE> 25
 3.750935e+01 8.449873e+01 3.676393e+01 4.447425e+01 5.058130e+01 3.716732e+01 4.622749e+01 3.717928e+01 5.001327e+01 4.000529e+01 3.006352e+01 2.198176e+01 4.292377e+00 3.823968e+00 3.893699e+00 3.510758e+00 4.972886e+00 4.826370e+00 3.496675e+00 5.455199e+00 5.326632e+00 4.180949e+00 5.100182e+00 2.625906e+00 4.418084e+00
<GCONST> 1.092143e+02
~s "ST_r_3_1"
<MEAN> 25
 -1.334832e+00 -7.209316e+00 2.589416e+00 1.684180e+00 -2.817360e+00 3.941368e+00 -3.931474e-01 3.060385e+00 3.475556e+00 -3.572298e+00 1.777935e+00 2.139052e+00 -8.656695e-01 1.059429e+00 4.519536e-03 5.644208e-01 9.282904e-01 3.495698e-01 2.262132e-01 4.639625e-01 1.932734e-01 8.831838e-01 7.050282e-01 -2.732908e-01 -1.166748e+00
<VARIANCE> 25
 2.309757e+01 6.895183e+01 3.220512e+01 2.563095e+01 3.686644e+01 3.124371e+01 4.484956e+01 3.201929e+01 2.998763e+01 4.814837e+01 2.526685e+01 2.472707e+01 2.469654e+00 4.073517e+00 3.689281e+00 1.396538e+00 3.033595e+00 4.100543e+00 4.312138e+00 3.566677e+00 3.480970e+00 4.565344e+00 3.702536e+00 2.261149e+00 1.669199e+00
<GCONST> 1.026722e+02
~s "ST_r_4_1"
<MEAN> 25
 -2.605749e+00 2.676768e+00 -5.045469e-02 4.277332e+00 3.843306e+00 2.431840e+00 2.585191e+00 2.170001e+00 1.355480e+00 3.055564e+00 2.578013e+00 3.035145e-02 -4.071307e-02 1.072630e-01 -1.405309e-02 -5.267452e-02 7.563250e-02 -4.590704e-02 7.778251e-03 -1.155830e-01 -2.348995e-02 2.344490e-01 -4.639722e-02 -8.328395e-02 -6.052746e-02
<VARIANCE> 25
 3.187860e+00 1.166681e+01 1.343007e+01 8.465530e+00 1.082649e+01 1.685322e+01 1.630502e+01 1.416906e+01 1.855948e+01 1.676065e+01 1.283561e+01 1.144848e+01 2.017034e-01 4.545910e-01 4.208573e-01 6.936470e-01 8.153406e-01 1.161285e+00 1.306698e+00 1.399336e+00 1.407960e+00 1.498961e+00 1.210702e+00 1.059869e+00 1.726459e-01
<GCONST> 7.184373e+01
~s "ST_r_4_2"
<MEAN> 25
 -1.290473e+00 -1.895858e+00 2.684943e+00 2.213545e+00 9.279219e-01 2.055572e+00 8.867836e-01 3.823361e+00 1.799102e+00 -1.483569e-01 3.253215e+00 5.846987e-01 2.379111e-01 1.570315e-01 1.975855e-01 -6.474207e-02 -3.576046e-01 -4.742319e-01 -4.564684e-01 -3.826710e-01 -2.955622e-01 -3.788622e-02 -1.811957e-01 -7.579195e-02 -1.687746e-01
<VARIANCE> 25
 2.383787e+01 4.146846e+01 3.395105e+01 2.447490e+01 4.166434e+01 2.708350e+01 3.154778e+01 3.497318e+01 2.881007e+01 3.118025e+01 2.495496e+01 1.723617e+01 1.211910e+00 8.290365e-01 1.392658e+00 9.076814e-01 3.123525e+00 2.200464e+00 2.043585e+00 2.761973e+00 1.866158e+00 1.868800e+00 2.216766e+00 1.191050e+00 6.211987e-01
<GCONST> 9.210624e+01
~s "ST_r_4_3"
<MEAN> 25
 -4.473960e+00 2.143401e+00 -1.569208e-01 5.292936e+00 2.170021e+00 3.417615e+00 2.406528e+00 3.762489e+00 2.023341e+00 2.194649e+00 2.895218e+00 -2.121862e-01 1.297274e-01 5.459046e-03 1.472881e-01 1.054335e-02 2.356012e-01 -3.951072e-02 -1.536593e-02 4.268593e-02 3.318090e-02 7.651893e-02 -7.156185e-03 3.001637e-02 -3.007386e-01
<VARIANCE> 25
 1.452353e+01 6.583454e+00 1.759582e+01 8.725484e+00 2.605600e+01 1.294503e+01 1.283834e+01 1.514662e+01 1.516847e+01 1.462876e+01 1.534854e+01 1.177995e+01 5.649220e-01 4.363065e-01 5.862004e-01 7.316597e-01 1.106631e+00 1.019194e+00 1.230369e+00 1.396368e+00 1.394310e+00 1.303985e+00 1.580717e+00 1.155576e+00 4.976656e-01
<GCONST> 7.614895e+01
~s "ST_ny_2_1"
<MEAN> 25
 6.989405e-01 3.880831e+00 4.839455e+00 -2.209914e-01 -7.038544e+00 -5.974733e+00 -5.678860e+00 -5.828069e-01 -9.361566e+00 -8.176512e+00 -1.416247e+00 -2.019198e+00 -1.913923e-01 -2.136651e-01 -5.465990e-02 3.001659e-01 3.860953e-01 2.214266e-01 2.368440e-01 2.015214e-01 3.109659e-01 1.384946e-01 2.356315e-01 1.909104e-01 -2.605945e-01
<VARIANCE> 25
 1.996800e+01 5.268221e+01 1.663755e+01 1.782558e+01 6.788233e+01 3.770240e+01 2.668564e+01 7.630601e+01 6.161644e+01 7.209871e+01 3.664583e+01 3.114725e+01 2.284735e+00 2.961555e+00 1.503176e+00 2.464063e+00 4.465412e+00 3.532284e+00 3.016387e+00 7.018178e+00 3.630674e+00 5.493379e+00 2.114293e+00 2.362004e+00 2.709664e+00
<GCONST> 1.041332e+02
~s "ST_ny_3_1"
<MEAN> 25
 -8.603771e+00 5.393391e+00 -3.574445e+00 2.905538e+00 3.637722e+00 9.040392e-01 8.749711e+00 2.079405e+00 3.664354e+00 4.194977e+00 3.596511e+00 1.622741e+00 3.916197e-01 -2.864837e-01 -5.329714e-02 1.336944e-01 2.777347e-01 6.298690e-01 3.915601e-01 1.024056e-01 2.724017e-01 4.002939e-01 -8.166584e-02 -1.075905e-01 -5.914645e-01
<VARIANCE> 25
 3.812481e+01 3.603665e+01 1.119013e+01 8.585627e+00 7.194974e+00 1.031103e+01 3.301001e+01 1.413206e+01 1.701432e+01 1.724976e+01 2.328062e+01 1.574067e+01 1.150501e+00 1.037486e+00 8.109882e-01 6.515910e-01 5.320957e-01 8.550412e-01 2.690606e+00 2.445245e+00 1.729357e+00 1.394818e+00 2.040421e+00 8.531719e-01 3.752920e-01
<GCONST> 8.086539e+01
~s "ST_ny_4_1"
<MEAN> 25
 -2.529123e+00 -8.163971e-01 -8.838252e-01 3.061167e+00 4.316316e+00 4.886922e+00 5.767477e+00 2.462465e+00 2.663972e+00 3.459302e+00 2.724459e+00 6.229820e-01 2.256781e-02 2.194668e-03 -3.149096e-02 -1.964743e-02 -3.820161e-02 -2.146331e-02 6.762625e-02 -1.051029e-01 -7.597178e-02 3.902387e-02 -3.070393e-02 -5.725760e-03 -2.187122e-02
<VARIANCE> 25
 1.890257e+00 4.711855e+00 3.927173e+00 5.844647e+00 7.109344e+00 1.219765e+01 1.271117e+01 1.318977e+01 1.354423e+01 1.490823e+01 1.730307e+01 1.036298e+01 1.201156e-01 2.013459e-01 3.141964e-01 5.226775e-01 6.852413e-01 1.093990e+00 1.290552e+00 1.425828e+00 1.437756e+00 1.276453e+00 1.689825e+00 9.862279e-01 5.486976e-02
<GCONST> 6.435699e+01
~s "ST_h_2_1"
<MEAN> 25
 -3.172333e+00 7.912378e-01 1.903288e+00 5.733925e+00 3.673954e+00 3.609115e+00 3.792808e+00 3.301314e+00 2.190846e+00 3.350847e+00 2.776376e+00 9.597626e-02 -1.148868e-02 1.427697e-02 -7.096124e-03 3.129150e-02 6.858654e-02 5.838579e-02 3.974005e-02 -3.286746e-02 -4.967277e-03 3.325463e-02 -1.528476e-02 -6.689377e-03 -1.524002e-02
<VARIANCE> 25
 2.497234e+00 3.857971e+00 9.326118e+00 1.174849e+01 1.038781e+01 1.101517e+01 1.367472e+01 1.247422e+01 1.355264e+01 1.543780e+01 1.282112e+01 1.105781e+01 1.135080e-01 2.288318e-01 4.288926e-01 5.629466e-01 7.701122e-01 8.701950e-01 1.097933e+00 1.109706e+00 1.195937e+00 1.325297e+00 1.133531e+00 9.278208e-01 4.507425e-02
<GCONST> 6.522259e+01
~s "ST_h_3_1"
<MEAN> 25
 -1.845707e+00 -2.699883e+00 -2.198399e+00 -3.610165e+00 6.162745e+00 7.975186e+00 2.833880e+00 2.860364e+00 7.395041e-01 9.791756e-01 3.431911e-01 4.837695e-02 8.199247e-02 -3.574921e-01 -2.548881e-01 -1.135267e+00 1.418691e-02 1.275121e-01 -3.915755e-01 -2.577009e-01 -1.988219e-01 -6.725161e-02 -1.396818e-01 1.574755e-01 7.071252e-01
<VARIANCE> 25
 6.655860e+00 1.948173e+01 1.537692e+01 5.098351e+01 1.865480e+01 2.169618e+01 2.832325e+01 1.520420e+01 1.879734e+01 1.922061e+01 1.988197e+01 2.099828e+01 4.575752e-01 6.531637e-01 1.099329e+00 1.639753e+00 1.374310e+00 1.256380e+00 1.361696e+00 1.390514e+00 1.256930e+00 1.619808e+00 1.575407e+00 1.673846e+00 3.694899e-01
<GCONST> 8.271982e+01
~s "ST_h_4_1"
<MEAN> 25
 -9.551740e-01 -3.688008e+00 -1.922877e+00 -4.525230e+00 4.576166e+00 3.107327e+00 -2.044499e+00 -2.555560e+00 -4.907396e-01 -4.593586e-01 -1.495935e-01 1.107127e+00 1.515894e+00 1.478588e-01 -1.363912e-01 -9.017792e-01 -1.030371e+00 -1.316333e+00 -1.708250e+00 -1.846057e+00 -1.070630e+00 -1.400838e+00 -1.178909e+00 -5.344914e-01 1.140197e+00
<VARIANCE> 25
 2.021996e+01 5.480189e+01 2.580002e+01 7.853201e+01 3.284564e+01 3.817705e+01 5.404742e+01 4.418460e+01 3.615757e+01 3.863882e+01 2.510593e+01 3.020708e+01 2.351357e+00 3.501269e+00 2.193411e+00 2.458423e+00 2.251774e+00 4.901796e+00 4.082147e+00 3.209505e+00 3.721632e+00 2.541078e+00 2.363302e+00 2.864258e+00 1.761199e+00
<GCONST> 1.028491e+02
~s "ST_u_2_1"
<MEAN> 25
 1.036080e+01 6.226986e+00 -4.564679e+00 -9.097643e+00 -8.094242e+00 -8.917145e+00 -1.025586e+01 -6.312941e+00 -5.709150e+00 -3.997834e+00 -2.208030e+00 1.932598e+00 7.294483e-02 6.067463e-01 4.988350e-01 4.060739e-01 -3.908553e-01 -3.271627e-01 -2.934353e-01 1.131244e-02 -3.529681e-01 -3.688616e-01 -2.649507e-01 -3.447939e-01 -5.173780e-01
<VARIANCE> 25
 1.700193e+01 2.639845e+01 2.489429e+01 4.598238e+01 2.213597e+01 3.079043e+01 4.238411e+01 2.816133e+01 2.969459e+01 3.243214e+01 2.093759e+01 2.861868e+01 3.126607e+00 2.057772e+00 2.295095e+00 4.971927e+00 2.253291e+00 3.256413e+00 5.738488e+00 3.796896e+00 3.523306e+00 2.709638e+00 2.423006e+00 2.784986e+00 2.412972e+00
<GCONST> 1.003882e+02
~s "ST_u_3_1"
<MEAN> 25
 1.130783e+00 3.522225e+00 -8.347382e-01 -1.717862e+00 -5.196553e+00 -6.281430e+00 -2.218287e+00 -1.486960e+00 -3.986295e+00 -7.245992e-01 -2.327626e-01 -6.137112e-01 -2.523573e+00 -6.644272e-01 1.369672e-01 1.101902e+00 1.646653e+00 1.510169e+00 2.528520e+00 1.459795e+00 1.093469e+00 2.042437e+00 1.422818e+00 3.566566e-01 -8.884580e-01
<VARIANCE> 25
 4.638353e+01 2.421638e+01 2.273198e+01 2.019379e+01 2.752899e+01 4.228804e+01 5.348100e+01 4.631976e+01 4.190503e+01 4.335423e+01 2.977142e+01 2.046394e+01 2.163201e+00 2.210847e+00 1.432984e+00 2.622082e+00 1.742181e+00 2.398298e+00 4.582225e+00 3.263080e+00 3.549322e+00 2.838359e+00 2.056440e+00 2.084771e+00 1.703662e+00
<GCONST> 9.921354e+01
~s "ST_u_4_1"
<MEAN> 25
 -2.467381e+00 2.258279e+00 -7.689955e-01 2.870876e+00 1.334401e+00 3.320125e-01 2.803769e+00 1.788673e+00 9.734562e-01 3.418920e+00 2.237210e+00 -5.008811e-02 -1.702476e-01 -7.083362e-03 9.223402e-02 2.151997e-01 3.171774e-01 2.097853e-01 2.053777e-01 1.239871e-01 8.566941e-02 5.717040e-02 -5.940396e-02 -7.080167e-02 -1.726098e-01
<VARIANCE> 25
 1.863015e+01 1.672353e+01 1.341718e+01 1.448721e+01 1.727294e+01 2.421631e+01 2.752356e+01 1.894784e+01 1.877336e+01 2.183900e+01 1.831300e+01 1.263844e+01 2.927303e-01 6.296335e-01 5.946135e-01 8.673545e-01 1.032674e+00 1.269523e+00 1.430043e+00 1.183811e+00 1.762200e+00 1.545652e+00 1.343533e+00 1.080735e+00 2.493685e-01
<GCONST> 7.914182e+01
~s "ST_u_4_2"
<MEAN> 25
 -7.193125e+00 3.333892e+00 -1.530819e+00 -9.516914e-02 1.333354e+00 -1.871168e+00 6.259645e+00 2.556340e+00 -8.147173e-01 4.803557e+00 1.871893e+00 -5.614550e-02 -4.526849e-02 8.797122e-02 2.256563e-02 2.206324e-01 3.251801e-01 2.433559e-01 2.910137e-01 -1.217673e-01 3.238000e-01 7.116682e-02 -4.441239e-02 8.152501e-02 -2.809004e-01
<VARIANCE> 25
 5.050272e+01 1.180401e+01 1.209401e+01 1.895625e+01 1.418535e+01 3.406769e+01 3.109905e+01 1.993259e+01 2.177919e+01 3.029574e+01 2.034716e+01 1.326730e+01 4.799284e-01 5.213334e-01 4.819353e-01 7.813249e-01 9.977477e-01 1.365927e+00 1.415400e+00 1.389094e+00 1.615825e+00 1.390443e+00 1.389788e+00 1.119976e+00 1.682700e-01
<GCONST> 8.056573e+01
~s "ST_k_2_1"
<MEAN> 25
 -2.431397e+00 1.597958e+00 8.665283e-01 4.621367e+00 3.230499e+00 3.177137e+00 3.304748e+00 2.785379e+00 2.010264e+00 3.327816e+00 2.180676e+00 -4.346243e-01 -5.161917e-02 -3.987257e-01 -4.834884e-01 -2.164985e-01 2.668547e-01 -1.019383e-01 -1.646226e-01 1.482360e-01 8.954415e-02 2.445496e-01 -1.016260e-01 1.019257e-01 6.812792e-01
<VARIANCE> 25
 6.363682e+00 1.095602e+01 1.373369e+01 1.595801e+01 1.818112e+01 1.882720e+01 1.725545e+01 1.959772e+01 1.760819e+01 1.570338e+01 1.777091e+01 1.195525e+01 7.839432e-01 1.931264e+00 2.836857e+00 2.745836e+00 1.838882e+00 2.537903e+00 2.249770e+00 1.837740e+00 2.465934e+00 2.243054e+00 2.023681e+00 1.417894e+00 2.977151e+00
<GCONST> 8.750430e+01
~s "ST_k_3_1"
<MEAN> 25
 -1.405614e+00 -2.541712e+00 -7.524398e+00 -1.286169e+00 4.353074e+00 6.667528e-01 8.024427e-01 3.186287e+00 1.276268e+00 5.180441e+00 -1.560852e+00 1.011638e+00 1.282637e+00 -1.817801e+00 -1.708594e+00 -2.450740e+00 -1.087409e-01 -6.551538e-01 -1.757340e+00 -7.618828e-01 -4.730801e-01 -3.192832e-01 -1.724406e+00 1.482502e-01 3.457473e+00
<VARIANCE> 25
 2.297105e+01 5.481368e+01 6.209800e+01 6.100373e+01 4.733328e+01 5.955168e+01 3.657265e+01 2.280872e+01 4.297089e+01 3.701048e+01 2.384133e+01 2.059370e+01 3.457943e+00 8.899656e+00 6.888041e+00 5.149827e+00 4.550025e+00 6.811660e+00 5.301988e+00 4.692344e+00 5.024454e+00 4.365834e+00 3.244617e+00 2.265518e+00 4.770882e+00
<GCONST> 1.098520e+02
~s "ST_k_4_1"
<MEAN> 25
 2.590561e+00 -6.772147e+00 -4.076788e+00 -4.884517e+00 2.452551e+00 7.587208e-01 -3.536150e+00 -4.560053e-02 1.027186e+00 -6.795285e-02 -2.626395e+00 -8.178675e-02 1.526002e+00 -7.030436e-01 8.891100e-01 -1.616116e+00 -6.404759e-01 -5.040937e-01 -5.639186e-01 -1.274736e+00 -8.486645e-01 -1.419664e+00 -5.363092e-01 3.169097e-02 1.528235e+00
<VARIANCE> 25
 4.247026e+01 1.055570e+02 4.370698e+01 5.657959e+01 5.393924e+01 7.759645e+01 6.516707e+01 4.474183e+01 4.178102e+01 4.417045e+01 4.623241e+01 1.983809e+01 3.840347e+00 6.067617e+00 3.021364e+00 5.187786e+00 3.600643e+00 5.263023e+00 5.365590e+00 5.481775e+00 3.990667e+00 3.736333e+00 4.248983e+00 2.455640e+00 8.273928e+00
<GCONST> 1.122112e+02
~s "ST_x_2_1"
<MEAN> 25
 -1.965275e+00 -1.064370e+01 8.743880e-01 3.533782e+00 -5.904399e+00 2.896121e+00 1.252243e+00 4.466335e+00 2.076421e+00 -2.990157e+00 3.445929e+00 2.434427e+00 -7.486562e-01 2.653324e-02 -9.071086e-01 7.810420e-01 -4.555876e-01 -3.457128e-01 2.328550e-01 7.163919e-01 -3.221425e-02 -4.157473e-01 4.257072e-01 5.098910e-01 9.666583e-01
<VARIANCE> 25
 1.070410e+01 1.059652e+02 4.408964e+01 3.394909e+01 3.343894e+01 6.586941e+01 2.111750e+01 3.535563e+01 1.888297e+01 2.658354e+01 1.594660e+01 1.690965e+01 2.099132e+00 9.051199e+00 3.334303e+00 3.129806e+00 5.450797e+00 5.809097e+00 2.135285e+00 4.959681e+00 2.429649e+00 3.199135e+00 2.087743e+00 1.622684e+00 6.009277e+00
<GCONST> 1.025893e+02
~s "ST_x_3_1"
<MEAN> 25
 -1.029810e+01 2.074802e+00 -5.351277e+00 6.708504e+00 -8.157413e+00 4.528748e+00 5.608812e+00 9.721814e+00 1.000549e+00 9.350552e-01 5.909756e+00 1.311799e+00 3.859422e-01 1.954360e-01 2.644062e-01 -2.178031e-01 6.044703e-01 2.790059e-01 -1.627873e-01 -2.132684e-01 -1.515389e-01 1.053755e-01 -1.340685e-01 -7.229342e-02 -6.377732e-01
<VARIANCE> 25
 1.765901e+01 5.475908e+00 9.381942e+00 9.435601e+00 1.952070e+01 1.911197e+01 1.745007e+01 1.580115e+01 1.551386e+01 1.677821e+01 1.932292e+01 1.173620e+01 1.673424e+00 9.208179e-01 7.582362e-01 6.295747e-01 1.816517e+00 2.176807e+00 1.804341e+00 1.539122e+00 1.737554e+00 1.698165e+00 1.840142e+00 1.420821e+00 5.220871e-01
<GCONST> 8.101109e+01
~s "ST_x_4_1"
<MEAN> 25
 -4.897486e+00 1.076888e+01 -2.572586e+00 6.561784e+00 5.644442e+00 -7.804484e-01 4.659534e+00 2.609941e+00 -1.008956e+00 2.779035e+00 1.907903e-01 -8.111025e-01 -1.233530e-01 1.688872e-01 1.546970e-01 -9.217411e-02 3.402882e-01 -4.373490e-02 7.969632e-02 -2.961395e-02 -1.541570e-01 1.642604e-01 6.774404e-03 -8.735948e-02 -3.586422e-01
<VARIANCE> 25
 4.808533e+00 2.825476e+01 8.565720e+00 9.444831e+00 1.379105e+01 1.610129e+01 1.846304e+01 1.318057e+01 1.405620e+01 1.937610e+01 1.605216e+01 1.316904e+01 2.446034e-01 6.093000e-01 5.565003e-01 6.104411e-01 1.527656e+00 1.044361e+00 1.237251e+00 1.031991e+00 1.461379e+00 1.227041e+00 1.397336e+00 9.596025e-01 3.679290e-01
<GCONST> 7.471581e+01
~s "ST_a_2_1"
<MEAN> 25
 6.426616e+00 -9.719778e+00 -9.185290e-01 -4.424685e+00 -2.019596e+00 -3.651619e+00 -5.105520e+00 -2.886938e+00 -3.311062e+00 -9.312032e+00 -5.262571e+00 6.310641e-01 -3.488668e-01 5.917162e-01 -6.303596e-02 6.153735e-01 6.691469e-02 2.322988e-01 1.354958e-01 -1.483823e-02 -8.756462e-03 6.736456e-02 1.837955e-01 3.412778e-02 -9.767218e-01
<VARIANCE> 25
 2.185460e+01 7.279087e+01 3.261599e+01 4.210712e+01 5.137964e+01 3.923383e+01 5.853535e+01 3.846661e+01 2.940302e+01 3.726258e+01 3.579411e+01 2.326946e+01 2.018086e+00 3.574829e+00 2.027825e+00 1.919067e+00 3.627546e+00 2.923833e+00 3.574435e+00 3.171065e+00 2.861899e+00 3.283274e+00 2.978434e+00 1.895097e+00 3.286781e+00
<GCONST> 1.028813e+02
~s "ST_a_3_1"
<MEAN> 25
 -2.024434e+00 -3.876188e+00 -3.494895e-01 1.348899e+00 2.193199e+00 1.428463e+00 -3.351716e-01 2.855687e+00 9.417645e-01 -3.351798e+00 1.980069e+00 1.975019e+00 -4.300680e-01 7.332743e-01 2.526828e-01 4.631523e-01 3.430175e-01 2.986311e-01 5.158055e-01 4.947539e-01 3.764339e-01 8.844469e-01 5.762207e-01 -1.421528e-01 -1.010929e+00
<VARIANCE> 25
 1.624523e+01 3.285022e+01 2.361851e+01 1.918382e+01 3.398562e+01 2.803229e+01 3.229547e+01 3.787159e+01 3.196249e+01 4.305638e+01 3.893948e+01 2.170077e+01 1.172448e+00 1.670184e+00 1.470084e+00 1.420603e+00 2.207700e+00 2.360613e+00 2.832216e+00 2.978159e+00 2.918466e+00 3.479889e+00 3.544569e+00 2.181905e+00 1.540513e+00
<GCONST> 9.626511e+01
~s "ST_a_3_2"
<MEAN> 25
 -6.848955e+00 -2.792213e-02 -4.044053e+00 3.732002e+00 -2.781007e+00 3.839290e+00 4.576324e+00 2.547461e+00 1.735611e+00 1.675928e+00 3.610077e+00 -4.608110e-01 -2.323894e-01 5.799692e-01 1.543801e-01 4.046547e-01 5.883957e-01 1.661336e-01 2.838004e-01 2.882945e-01 4.546672e-01 5.853615e-01 3.356091e-01 -5.492854e-02 -7.432225e-01
<VARIANCE> 25
 2.636852e+01 2.547225e+01 3.077430e+01 1.415467e+01 2.644614e+01 2.586301e+01 2.575851e+01 2.752033e+01 1.952443e+01 2.997380e+01 2.138750e+01 1.704514e+01 2.669795e+00 1.884647e+00 1.871139e+00 1.655865e+00 2.091565e+00 1.926909e+00 1.899245e+00 1.910171e+00 3.466261e+00 4.496070e+00 3.366627e+00 1.579654e+00 9.200770e-01
<GCONST> 9.365889e+01
~s "ST_a_4_1"
<MEAN> 25
 -1.793949e+00 1.094327e+00 -1.170438e-01 3.854806e+00 3.196160e+00 2.785245e+00 2.911233e+00 1.893480e+00 1.139628e+00 2.108863e+00 1.833416e+00 -1.394832e-02 -4.643492e-02 9.773931e-02 4.446068e-02 5.233208e-02 3.752490e-02 4.609496e-03 5.104034e-02 -5.531021e-02 -1.454998e-02 1.035603e-01 -1.435035e-02 -1.758995e-02 -8.476397e-02
<VARIANCE> 25
 4.927790e+00 1.330310e+01 9.256197e+00 1.071844e+01 1.319626e+01 1.651041e+01 1.532310e+01 1.662165e+01 1.468824e+01 1.776622e+01 1.580393e+01 1.207370e+01 1.467523e-01 3.547758e-01 4.623874e-01 6.242194e-01 8.558326e-01 9.673964e-01 1.181469e+00 1.209539e+00 1.234512e+00 1.339135e+00 1.305869e+00 1.122308e+00 1.089598e-01
<GCONST> 7.110516e+01
~s "ST_n_2_1"
<MEAN> 25
 5.957156e+00 5.299512e+00 5.520701e+00 1.468814e+00 -1.005077e+01 -1.204262e+01 -7.381944e+00 -6.041738e+00 -5.012193e+00 -5.467971e+00 -2.216876e+00 -2.597929e+00 -2.682662e-01 9.689428e-02 8.030136e-03 5.253988e-02 3.350394e-01 5.691405e-02 -3.467895e-01 -1.771251e-01 -3.629278e-01 -1.874810e-02 1.107212e-01 -2.339696e-01 -3.064813e-01
<VARIANCE> 25
 8.157291e+00 1.271902e+01 1.080840e+01 1.408819e+01 3.218267e+01 1.926452e+01 2.425678e+01 1.445603e+01 2.217888e+01 2.540456e+01 1.337541e+01 1.690513e+01 3.540452e-01 5.028833e-01 4.620996e-01 6.704727e-01 9.178598e-01 1.177595e+00 1.607461e+00 1.403031e+00 1.643177e+00 1.624346e+00 1.441513e+00 1.293958e+00 2.320554e-01
<GCONST> 7.779715e+01
~s "ST_n_3_1"
<MEAN> 25
 2.925765e-01 3.060658e+00 4.568532e+00 3.569823e+00 -3.633012e+00 -4.426210e+00 -3.653616e+00 -1.751137e+00 -4.142965e+00 -2.711562e+00 2.082790e+00 -5.549407e-01 -1.056760e+00 -5.797675e-01 -6.383458e-01 1.256386e-01 1.359053e+00 1.974284e+00 1.768904e+00 1.425492e+00 1.303106e+00 1.549237e+00 1.098575e+00 6.403131e-01 -7.292005e-01
<VARIANCE> 25
 1.154852e+01 2.612354e+01 1.357944e+01 1.551448e+01 2.831294e+01 3.328857e+01 3.353934e+01 3.254410e+01 2.635740e+01 4.025401e+01 2.882400e+01 2.157666e+01 6.923298e-01 1.021153e+00 8.987301e-01 1.028081e+00 1.077634e+00 2.015208e+00 2.511129e+00 2.587540e+00 2.438538e+00 2.275360e+00 2.389134e+00 1.680495e+00 2.423510e-01
<GCONST> 8.815755e+01
~s "ST_n_4_1"
<MEAN> 25
 -2.385082e+00 7.943224e-01 5.692639e-01 4.323702e+00 3.595119e+00 3.817299e+00 3.261433e+00 2.649905e+00 1.809666e+00 3.469414e+00 2.892009e+00 1.755221e-01 -1.825432e-02 3.861629e-02 -9.586915e-02 4.349009e-02 1.745069e-01 9.616631e-02 9.147335e-02 2.654629e-02 9.202196e-02 1.022123e-01 -1.039881e-01 -5.573278e-02 -6.697696e-02
<VARIANCE> 25
 5.413817e+00 7.112298e+00 1.281976e+01 1.210237e+01 1.617980e+01 1.707445e+01 1.729319e+01 1.497312e+01 1.318703e+01 1.448691e+01 1.608342e+01 1.258622e+01 1.543400e-01 3.328538e-01 4.538253e-01 7.124330e-01 1.027535e+00 1.220672e+00 1.254204e+00 1.318258e+00 1.236235e+00 1.451112e+00 1.257252e+00 1.067335e+00 1.205072e-01
<GCONST> 7.177694e+01
~s "ST_d_2_1"
<MEAN> 25
 -2.729716e+00 5.423800e+00 -2.139772e+00 4.405829e+00 3.094331e+00 5.816306e-01 3.324991e+00 5.271648e-01 -4.741966e-01 2.698045e+00 8.186350e-01 -4.663487e-01 -6.972779e-02 1.191561e-01 -5.571743e-03 -4.721057e-04 5.856258e-02 -3.145698e-02 2.835571e-02 4.930684e-02 -7.907625e-02 7.936816e-02 4.774639e-02 -3.146444e-03 -8.878729e-02
<VARIANCE> 25
 6.162208e+00 2.098752e+01 9.046069e+00 7.521926e+00 1.681909e+01 2.121602e+01 1.238835e+01 1.453020e+01 1.260144e+01 1.304982e+01 1.141024e+01 1.289419e+01 1.030515e-01 2.911464e-01 3.627931e-01 4.720801e-01 8.152911e-01 8.913471e-01 9.755374e-01 1.036707e+00 1.201746e+00 1.100265e+00 1.088739e+00 1.086880e+00 6.000516e-02
<GCONST> 6.824897e+01
~s "ST_d_3_1"
<MEAN> 25
 -1.271916e+00 6.977915e+00 2.853443e+00 1.837274e+00 7.246432e-01 -8.528817e-01 -2.424647e+00 -8.129078e-01 -1.276658e+00 8.537863e-01 8.545431e-01 -9.089172e-01 3.259837e-01 -8.887133e-01 9.920996e-01 -9.902633e-01 -1.327534e+00 -1.530311e-01 -1.342193e+00 5.692196e-02 -3.321947e-01 -7.361239e-01 -6.885017e-02 -9.704474e-02 2.162379e+00
<VARIANCE> 25
 3.083965e+01 4.642915e+01 2.362736e+01 2.586516e+01 3.958907e+01 4.650022e+01 7.168336e+01 3.631603e+01 2.493349e+01 2.385522e+01 1.656147e+01 1.507673e+01 2.677778e+00 5.582534e+00 3.085896e+00 3.621610e+00 4.811141e+00 5.064749e+00 5.396111e+00 5.471816e+00 2.516065e+00 3.571312e+00 2.069441e+00 1.592058e+00 4.673562e+00
<GCONST> 1.035467e+02
~s "ST_d_4_1"
<MEAN> 25
 3.810176e+00 -1.692812e-01 4.311356e+00 -5.218467e+00 -7.976470e+00 -4.926988e+00 -5.029901e+00 -6.944654e-01 -3.359052e+00 -4.930430e+00 -1.506409e+00 -4.723072e-01 7.230657e-01 -8.389574e-01 2.982917e-02 -1.149992e+00 -1.067801e+00 -5.902695e-01 1.948106e-01 -4.865764e-02 -7.208702e-02 -5.758606e-01 -6.983023e-01 2.871410e-01 1.799099e+00
<VARIANCE> 25
 2.491932e+01 8.534837e+01 4.871674e+01 3.917260e+01 6.841103e+01 2.935629e+01 6.672395e+01 4.164444e+01 2.956326e+01 5.997289e+01 3.805014e+01 2.763472e+01 2.662253e+00 6.056144e+00 4.772885e+00 5.373559e+00 8.952967e+00 3.988305e+00 6.992087e+00 4.032961e+00 3.223831e+00 5.635128e+00 4.270007e+00 2.914467e+00 1.075465e+01
<GCONST> 1.118720e+02
~s "ST_ay_2_1"
<MEAN> 25
 2.585592e+00 -2.188753e+00 4.312334e+00 -7.021506e+00 -1.367349e+01 -4.857954e-01 -3.818413e+00 -3.249483e-01 -9.827888e+00 -9.083407e+00 -7.404532e+00 1.782618e+00 -3.875152e-01 1.042479e+00 1.138699e+00 -1.033692e+00 -1.451417e+00 8.645203e-01 -8.843821e-02 -1.122638e+00 5.162457e-01 1.264784e+00 -6.621341e-01 -6.181403e-01 -5.162039e-01
<VARIANCE> 25
 6.098516e+00 1.581596e+01 1.724350e+01 2.388388e+01 3.344148e+01 2.489880e+01 1.052203e+01 3.481805e+01 2.059974e+01 4.640517e+01 2.913923e+01 2.470547e+01 2.314362e-01 5.189995e-01 3.973526e-01 1.561439e+00 2.383230e+00 1.290168e+00 2.016286e+00 1.241447e+00 1.493187e+00 1.664811e+00 1.392132e+00 1.168556e+00 1.799812e-01
<GCONST> 8.173311e+01
~s "ST_ay_3_1"
<MEAN> 25
 -2.353494e+00 2.722991e-01 8.330250e+00 -6.844169e+00 -9.135077e+00 7.291040e+00 -3.427968e+00 -3.576527e+00 -1.261092e+00 -2.222282e-01 -4.828977e+00 1.157167e+00 -2.779154e-01 -3.649648e-01 -3.921659e-01 1.057118e+00 1.613989e+00 3.600133e-01 8.596957e-01 7.665678e-01 5.747805e-01 2.865692e-01 1.199362e+00 1.744713e-01 -9.609557e-01
<VARIANCE> 25
 7.507836e+00 1.353007e+01 8.023028e+00 2.204423e+01 4.057498e+01 2.168911e+01 4.809689e+01 3.437277e+01 2.800351e+01 2.413491e+01 4.832665e+01 1.151567e+01 6.603586e-01 6.181952e-01 9.452556e-01 1.473749e+00 1.498273e+00 2.457480e+00 3.528676e+00 1.597236e+00 3.454309e+00 2.706810e+00 1.901310e+00 1.486323e+00 3.141067e-01
<GCONST> 8.735576e+01
~s "ST_ay_4_1"
<MEAN> 25
 -2.043843e+00 -2.633830e-01 -7.761427e-01 3.588463e+00 5.277497e+00 4.908297e+00 4.631071e+00 3.395910e+00 2.140625e+00 2.813622e+00 3.572456e+00 4.770936e-01 4.847281e-02 5.377739e-02 -1.270868e-01 4.128728e-02 4.629913e-02 -9.569272e-02 -3.369111e-02 -3.453285e-02 3.681488e-02 9.210092e-02 3.481294e-03 6.638730e-03 -4.269215e-02
<VARIANCE> 25
 2.660017e+00 3.473848e+00 5.569054e+00 5.820715e+00 8.122059e+00 8.741819e+00 8.902394e+00 1.410684e+01 1.424742e+01 1.033720e+01 1.327337e+01 9.767564e+00 2.173680e-01 2.855350e-01 7.864727e-01 6.978716e-01 8.000847e-01 8.283082e-01 8.025861e-01 1.018030e+00 1.136396e+00 1.140243e+00 1.093285e+00 8.267643e-01 7.984587e-02
<GCONST> 6.423948e+01
~s "ST_g_2_1"
<MEAN> 25
 6.934975e+00 -9.522476e+00 3.198029e+00 -6.173875e+00 -4.359482e+00 -3.286525e+00 -6.180686e+00 -2.135992e+00 1.575046e+00 -3.075706e+00 -2.415106e+00 1.429648e+00 8.611116e-01 -1.060197e+00 8.920856e-02 -1.683527e+00 -1.328182e+00 -1.063234e+00 -5.034141e-01 -6.265388e-01 -1.128180e-01 -3.706101e-01 -7.881603e-01 4.505316e-01 2.262530e+00
<VARIANCE> 25
 6.987927e+01 1.433924e+02 3.310198e+01 1.044253e+02 1.069718e+02 5.585026e+01 7.630413e+01 7.359209e+01 3.266916e+01 4.712477e+01 2.890167e+01 3.019795e+01 2.400876e+00 9.056434e+00 3.288957e+00 7.027712e+00 6.791923e+00 4.842703e+00 4.649529e+00 6.645967e+00 4.166952e+00 4.012276e+00 3.784418e+00 3.196218e+00 7.725252e+00
<GCONST> 1.152444e+02
~s "ST_g_3_1"
<MEAN> 25
 7.360148e+00 -4.576416e+00 8.201357e-01 -1.286679e+01 -9.203880e+00 -8.957208e+00 -2.182743e+00 -7.133125e+00 -1.325736e+00 -4.456616e+00 -9.774972e+00 6.032038e-01 -1.639227e-02 4.060481e-01 -1.833584e-03 4.658469e-01 -2.306519e-01 2.783734e-02 2.799011e-01 -1.162231e-01 -5.490904e-01 -3.484001e-01 1.716328e-01 -3.625551e-01 -7.096722e-01
<VARIANCE> 25
 1.321952e+01 5.618553e+01 4.585059e+01 2.386128e+01 9.376137e+01 2.414390e+01 7.933997e+01 4.091347e+01 1.730844e+01 4.316943e+01 2.019448e+01 1.211774e+01 5.535300e-01 2.075099e+00 7.727610e-01 1.905591e+00 1.868516e+00 1.649891e+00 2.632853e+00 1.489234e+00 1.481123e+00 1.490983e+00 1.533411e+00 1.039357e+00 1.499670e+00
<GCONST> 9.216266e+01
~s "ST_g_4_1"
<MEAN> 25
 1.313613e-01 -8.374336e+00 2.657143e-01 -1.029933e+00 -7.720329e+00 2.270693e+00 -1.062397e+00 -1.998117e+00 7.282943e-02 -1.539058e+00 1.147427e+00 -1.127080e+00 -1.170795e+00 -6.151805e-03 -8.377267e-01 7.617907e-01 5.840504e-01 1.076670e+00 6.485739e-01 5.553370e-01 4.206392e-01 7.740307e-01 7.720575e-01 1.030471e-01 -5.814374e-01
<VARIANCE> 25
 3.779995e+01 1.591693e+02 5.904023e+01 3.396109e+01 5.206262e+01 4.308781e+01 3.933192e+01 4.015904e+01 3.446554e+01 3.905323e+01 3.487881e+01 1.889974e+01 3.516826e+00 2.677552e+00 3.150599e+00 2.663186e+00 2.281674e+00 4.964252e+00 2.877547e+00 3.785654e+00 3.977414e+00 3.730149e+00 3.333848e+00 2.231266e+00 1.806465e+00
<GCONST> 1.055092e+02
~s "ST_t_2_1"
<MEAN> 25
 -2.649597e+00 2.704865e+00 6.612903e-01 5.410783e+00 4.556285e+00 2.158897e+00 2.987524e+00 2.424320e+00 1.115986e+00 2.738340e+00 1.783561e+00 -1.485941e-01 -5.937026e-02 2.741787e-02 4.411681e-03 3.699417e-02 6.807904e-02 3.752263e-02 2.870666e-02 6.493428e-02 3.305752e-02 4.611101e-02 9.319793e-03 8.486452e-03 -4.833995e-02
<VARIANCE> 25
 3.622407e+00 1.436337e+01 1.226054e+01 8.586269e+00 1.177324e+01 1.524520e+01 1.225265e+01 1.349043e+01 1.457550e+01 1.242918e+01 1.376966e+01 1.075148e+01 1.430100e-01 3.831156e-01 4.611538e-01 5.615821e-01 8.653576e-01 9.149339e-01 1.075422e+00 1.217465e+00 1.203771e+00 1.178528e+00 1.297650e+00 1.032542e+00 1.527105e-01
<GCONST> 6.959379e+01
~s "ST_t_3_1"
<MEAN> 25
 -3.016103e+00 2.167852e+00 -1.114376e+00 3.468163e+00 3.476236e+00 1.423222e+00 3.832056e+00 2.764628e+00 1.666428e+00 2.241295e+00 1.546430e+00 4.324634e-01 6.170901e-02 -1.299108e+00 -8.128355e-02 -1.172541e+00 -7.423696e-01 -1.246048e+00 -4.223326e-01 4.953412e-02 7.745262e-01 -4.934115e-01 -1.562907e-01 5.048804e-01 2.776803e+00
<VARIANCE> 25
 6.995225e+00 2.039905e+01 1.344336e+01 1.283496e+01 2.201407e+01 2.201233e+01 1.620448e+01 1.753481e+01 1.889413e+01 1.825959e+01 1.396652e+01 1.347060e+01 1.849771e+00 3.952861e+00 2.228910e+00 2.844916e+00 4.253398e+00 5.190045e+00 2.874993e+00 3.168068e+00 2.618307e+00 2.480852e+00 2.115544e+00 1.832579e+00 5.954888e+00
<GCONST> 9.312233e+01
~s "ST_t_4_1"
<MEAN> 25
 2.034268e+00 -6.066097e+00 -8.557969e-01 -2.418089e+00 -1.112471e+00 -2.811270e+00 -3.657223e+00 -1.393354e+00 2.461214e+00 -1.727378e+00 -1.301082e-01 1.082051e+00 2.718512e+00 -1.517385e+00 -1.537475e-01 -2.642502e+00 -1.373020e+00 -9.556876e-01 -2.999260e+00 -1.928213e+00 -8.491799e-01 -1.606965e+00 -8.856778e-01 1.231342e-01 3.732426e+00
<VARIANCE> 25
 6.637251e+01 8.691677e+01 2.823733e+01 6.563941e+01 5.892127e+01 5.517632e+01 9.730829e+01 5.434008e+01 3.050379e+01 4.444728e+01 2.934303e+01 1.833057e+01 4.365090e+00 1.318685e+01 3.832628e+00 5.709406e+00 5.582983e+00 6.961698e+00 8.221942e+00 5.830802e+00 3.410559e+00 4.748391e+00 2.785797e+00 1.915190e+00 1.053331e+01
<GCONST> 1.137739e+02
~s "ST_sil_2_1"
<MEAN> 25
 -3.344521e+00 3.982194e+00 -3.163864e-01 5.016677e+00 4.077857e+00 1.601444e+00 2.897615e+00 2.191037e+00 1.577264e+00 3.487214e+00 1.674795e+00 -1.119346e-01 -5.751283e-02 9.979506e-02 4.797173e-02 1.360788e-02 8.947104e-02 3.752609e-02 6.540649e-02 7.488233e-03 -3.117667e-02 6.625541e-02 -1.899203e-02 -3.493674e-02 -7.542498e-02
<VARIANCE> 25
 3.320054e+00 1.898311e+01 1.647141e+01 9.134349e+00 1.025329e+01 1.680669e+01 1.476731e+01 1.339304e+01 1.541008e+01 1.442652e+01 1.365014e+01 1.202152e+01 1.296566e-01 3.166436e-01 4.315382e-01 6.014152e-01 8.222356e-01 8.851038e-01 1.064343e+00 1.117073e+00 1.225141e+00 1.206518e+00 1.178693e+00 1.089199e+00 7.980543e-02
<GCONST> 6.947124e+01
~s "silst"
<MEAN> 25
 -9.934250e+00 1.498341e+01 -1.988089e+00 4.208089e+00 7.659710e+00 1.611753e+00 9.579600e+00 6.056384e+00 2.576601e-01 6.617698e+00 2.679989e+00 -1.974474e-01 -1.337869e-01 7.624476e-02 1.102707e-02 -2.452861e-02 2.583727e-02 2.478765e-02 9.299926e-02 1.043327e-01 8.912896e-02 6.898995e-02 7.108525e-02 3.569671e-02 -7.823946e-02
<VARIANCE> 25
 3.279541e+01 3.914824e+01 2.377099e+01 8.909319e+00 1.341109e+01 2.129669e+01 2.919214e+01 1.892861e+01 1.673779e+01 1.537886e+01 1.991362e+01 1.475289e+01 2.263097e+00 2.158718e+00 1.734702e+00 8.512009e-01 1.228976e+00 1.532511e+00 2.182653e+00 1.612501e+00 1.426447e+00 1.328327e+00 1.536834e+00 1.266376e+00 1.828034e+00
<GCONST> 8.743847e+01
~s "ST_sil_3_1"
<MEAN> 25
 -9.934250e+00 1.498341e+01 -1.988089e+00 4.208089e+00 7.659710e+00 1.611753e+00 9.579600e+00 6.056384e+00 2.576601e-01 6.617698e+00 2.679989e+00 -1.974474e-01 -1.337869e-01 7.624476e-02 1.102707e-02 -2.452861e-02 2.583727e-02 2.478765e-02 9.299926e-02 1.043327e-01 8.912896e-02 6.898995e-02 7.108525e-02 3.569671e-02 -7.823946e-02
<VARIANCE> 25
 3.279541e+01 3.914824e+01 2.377099e+01 8.909319e+00 1.341109e+01 2.129669e+01 2.919214e+01 1.892861e+01 1.673779e+01 1.537886e+01 1.991362e+01 1.475289e+01 2.263097e+00 2.158718e+00 1.734702e+00 8.512009e-01 1.228976e+00 1.532511e+00 2.182653e+00 1.612501e+00 1.426447e+00 1.328327e+00 1.536834e+00 1.266376e+00 1.828034e+00
<GCONST> 8.743847e+01
~s "ST_sil_4_1"
<MEAN> 25
 -1.923329e+00 4.831126e-01 -1.153895e+00 3.876500e+00 8.673790e-01 4.334486e-01 1.611739e-01 8.178334e-01 2.313041e+00 3.154438e-01 1.396039e+00 5.651584e-01 2.751601e-01 -3.087956e-01 -1.120840e-01 -1.119815e-01 -2.882523e-01 -2.234260e-01 -3.202633e-01 -1.676198e-01 -3.744324e-02 -2.228730e-01 -5.644855e-02 3.500111e-02 4.036880e-01
<VARIANCE> 25
 1.076807e+01 3.803415e+01 2.823442e+01 2.089557e+01 3.592657e+01 3.094969e+01 3.734158e+01 2.608388e+01 2.541281e+01 4.006697e+01 2.888654e+01 2.101133e+01 1.244366e+00 3.498650e+00 2.118130e+00 1.841445e+00 3.022149e+00 2.618282e+00 3.356767e+00 2.525707e+00 2.624611e+00 3.146188e+00 2.213570e+00 2.007559e+00 2.437396e+00
<GCONST> 9.710324e+01
~s "ST_j_2_1"
<MEAN> 25
 -1.535549e+00 9.210058e-01 -7.257603e-01 2.702307e+00 3.843461e+00 3.582897e+00 3.977237e+00 1.659402e+00 4.569289e-01 3.735337e+00 2.892880e+00 -6.476456e-01 -6.206364e-03 8.475017e-03 -4.122143e-02 -2.420510e-02 4.479476e-03 -2.369764e-02 7.515764e-02 -3.426168e-02 -9.659429e-02 -3.372004e-03 -5.033962e-03 2.864925e-02 -7.036171e-03
<VARIANCE> 25
 1.894557e+00 2.231092e+00 5.401122e+00 6.078486e+00 5.551841e+00 7.428872e+00 1.316562e+01 1.260765e+01 1.322403e+01 1.104842e+01 1.502981e+01 1.029811e+01 9.238899e-02 1.628759e-01 4.982322e-01 5.864719e-01 7.029355e-01 7.758167e-01 1.288421e+00 1.684938e+00 1.413408e+00 8.258986e-01 1.396083e+00 1.016390e+00 3.714143e-02
<GCONST> 6.169113e+01
~s "ST_j_3_1"
<MEAN> 25
 -2.227937e+00 4.663968e+00 3.209184e+00 -3.833270e+00 -3.085239e+00 -3.800212e+00 4.958512e-01 -2.329263e+00 -7.375446e-01 3.001806e+00 1.428945e+00 -4.547828e-01 3.217927e-01 1.951737e-01 8.127291e-01 -1.652786e+00 -1.970864e+00 -1.366872e+00 -5.177436e-01 -7.523863e-01 -1.101227e-01 -1.239186e-01 -5.491961e-01 -3.746357e-01 2.065451e+00
<VARIANCE> 25
 4.157499e+01 1.312887e+01 2.337530e+01 4.312219e+01 8.296806e+01 4.065074e+01 4.196274e+01 2.545131e+01 3.861757e+01 2.224907e+01 1.792215e+01 2.203514e+01 7.105402e+00 1.703328e+00 2.135441e+00 3.226313e+00 8.796857e+00 2.455696e+00 5.072587e+00 3.088331e+00 4.544095e+00 2.410740e+00 1.895123e+00 2.310594e+00 4.433271e+00
<GCONST> 1.026041e+02
~s "ST_j_4_1"
<MEAN> 25
 4.277764e+00 -3.243407e+00 1.953673e+00 -9.267541e+00 -9.037894e+00 -1.004255e+01 1.679879e+00 -3.157131e+00 -3.444284e+00 -6.992882e+00 -8.548556e+00 -8.767956e-01 3.356633e-01 -5.915899e-01 -9.508450e-01 5.544046e-01 9.302366e-01 -1.960276e-01 6.206292e-02 9.123298e-02 3.001843e-02 -1.063687e+00 -8.634365e-01 4.876202e-01 -1.420800e-01
<VARIANCE> 25
 5.917617e+00 2.010980e+01 1.207351e+01 1.497853e+01 3.626245e+01 1.813255e+01 1.747218e+01 1.626146e+01 1.476282e+01 3.598304e+01 1.978742e+01 1.303512e+01 2.135562e-01 1.534306e+00 1.183818e+00 4.119859e-01 1.916290e+00 1.310294e+00 1.982830e+00 2.360184e+00 1.841876e+00 3.103111e+00 2.518896e+00 1.343128e+00 4.374552e-01
<GCONST> 8.265479e+01
~s "ST_w_2_1"
<MEAN> 25
 -1.739509e+00 -6.294083e-01 -1.120126e+00 3.778954e+00 4.327598e+00 4.272730e+00 4.554461e+00 2.932314e+00 2.214932e+00 2.553963e+00 3.669335e+00 2.242896e-01 3.419687e-02 3.292087e-02 -2.999397e-02 -5.055404e-02 -8.331426e-02 2.615680e-03 2.093114e-02 -1.179176e-01 -5.916227e-02 1.334648e-01 -7.615159e-02 -7.841965e-02 -2.983012e-02
<VARIANCE> 25
 2.048919e+00 3.843910e+00 4.564503e+00 5.507427e+00 7.538942e+00 1.255022e+01 1.792627e+01 1.710348e+01 1.169778e+01 1.945912e+01 1.739690e+01 1.156026e+01 1.322583e-01 2.434164e-01 3.761611e-01 5.237582e-01 6.423286e-01 9.644952e-01 1.511956e+00 1.418640e+00 1.387062e+00 1.707097e+00 1.231847e+00 1.035220e+00 6.681242e-02
<GCONST> 6.586520e+01
~s "ST_w_3_1"
<MEAN> 25
 1.470618e-01 -1.759506e+00 -1.286852e+00 6.440911e-01 2.182958e+00 -4.166805e+00 -4.248745e+00 -5.154156e+00 -1.644855e+00 -2.296613e+00 -3.921190e+00 -1.222656e+00 2.078569e+00 4.450275e-01 -4.599997e-01 -1.483050e+00 -6.742564e-01 -2.343347e+00 -2.038134e+00 -1.584538e+00 -7.223933e-01 -1.633191e+00 -1.027934e+00 -9.867885e-01 1.616231e+00
<VARIANCE> 25
 2.176075e+01 3.191784e+01 1.364742e+01 9.034018e+00 3.671721e+01 4.113403e+01 4.369596e+01 7.774520e+01 4.025511e+01 3.289959e+01 3.465173e+01 2.653726e+01 2.471489e+00 2.405774e+00 1.279552e+00 2.651673e+00 3.249293e+00 2.227276e+00 3.658010e+00 4.991409e+00 6.435788e+00 3.146776e+00 1.669857e+00 2.715073e+00 2.513696e+00
<GCONST> 1.000979e+02
~s "ST_w_4_1"
<MEAN> 25
 1.137339e+01 5.724401e-03 -7.048462e+00 -1.286384e+01 1.571837e+00 -4.232915e+00 -5.759536e+00 -7.406159e+00 -3.871262e+00 -3.860305e-01 -4.960267e+00 -5.275446e+00 1.823801e-02 -3.918144e-01 -1.248852e-01 -1.275999e-01 5.425221e-01 1.124072e-01 -7.312598e-02 5.163371e-03 4.995479e-02 1.206145e-01 -1.086210e-01 1.419037e-02 3.005275e-01
<VARIANCE> 25
 1.212117e+01 5.443852e+01 1.371794e+01 3.515713e+01 7.332463e+01 3.515955e+01 2.234168e+01 2.997352e+01 2.208624e+01 1.979380e+01 1.513123e+01 8.976944e+00 1.237071e+00 3.239873e+00 1.096166e+00 4.858796e+00 5.525843e+00 3.227479e+00 1.342112e+00 2.650320e+00 1.921030e+00 9.141344e-01 1.264705e+00 1.203862e+00 1.428707e+00
<GCONST> 9.252196e+01
~s "ST_ng_2_1"
<MEAN> 25
 5.233006e+00 4.530748e+00 3.201062e+00 1.209434e-01 -4.174875e+00 -7.181801e+00 -8.175299e+00 -5.584887e+00 -4.055456e+00 -5.672241e+00 -2.042685e+00 -2.305097e-01 -2.541350e-01 6.371440e-02 1.147819e-01 1.535231e-01 2.143292e-03 3.784890e-02 2.416353e-02 1.492792e-01 -5.428153e-01 -1.599077e-01 -1.107203e-01 -3.729704e-01 -2.840309e-01
<VARIANCE> 25
 6.569027e+00 1.072508e+01 1.011247e+01 2.206411e+01 1.655968e+01 2.188018e+01 2.039434e+01 2.593632e+01 1.831767e+01 2.625863e+01 2.001205e+01 3.113431e+01 2.633967e-01 4.188491e-01 6.598226e-01 6.147197e-01 1.017424e+00 8.380998e-01 9.310406e-01 1.708451e+00 1.454488e+00 1.598085e+00 1.412662e+00 1.648591e+00 3.239132e-01
<GCONST> 7.814322e+01
~s "ST_ng_3_1"
<MEAN> 25
 -4.981029e-01 2.010295e+00 2.242535e+00 2.082210e+00 9.248161e-01 -7.784430e-01 -9.708231e-01 1.230697e-01 -4.297418e+00 -2.686378e+00 1.216749e+00 -1.151811e+00 -9.063445e-01 -7.564683e-01 -6.842788e-01 3.291240e-02 1.136436e+00 1.421956e+00 1.830678e+00 1.526336e+00 1.580936e+00 1.511985e+00 9.625394e-01 4.455643e-01 -5.382125e-01
<VARIANCE> 25
 1.143471e+01 1.760025e+01 9.689807e+00 1.132693e+01 2.075682e+01 3.061655e+01 4.454855e+01 4.858482e+01 4.287778e+01 3.607164e+01 2.802291e+01 2.003699e+01 8.271364e-01 1.287365e+00 6.290110e-01 1.313354e+00 1.958365e+00 2.035822e+00 2.719997e+00 3.858492e+00 3.972776e+00 2.504513e+00 2.475908e+00 1.824271e+00 8.530434e-01
<GCONST> 9.101062e+01
~s "ST_m_2_1"
<MEAN> 25
 6.498610e+00 -4.667403e+00 2.352451e+00 -2.059134e+00 -2.549623e+00 -6.498449e+00 -1.037596e+01 -4.862820e+00 -3.480548e+00 -6.269820e+00 -1.610820e+00 -1.797105e+00 5.961953e-01 -5.078199e-01 1.914508e-01 -2.071567e-01 -1.626240e-01 -8.644773e-01 -1.185910e+00 -3.973951e-01 -4.838176e-01 -9.347848e-01 -2.183550e-01 -1.957833e-01 1.134609e+00
<VARIANCE> 25
 3.422914e+01 9.378131e+01 2.834910e+01 4.458822e+01 5.887624e+01 3.883208e+01 5.152719e+01 5.173732e+01 4.370710e+01 4.607402e+01 3.171222e+01 2.451069e+01 2.768108e+00 6.649062e+00 2.998866e+00 5.456652e+00 6.042617e+00 4.277362e+00 5.018572e+00 5.737007e+00 4.198421e+00 3.522973e+00 2.950460e+00 2.939336e+00 6.706376e+00
<GCONST> 1.101268e+02
~s "ST_ng_4_1"
<MEAN> 25
 -2.949000e+00 6.021706e-01 2.744368e-03 2.431645e+00 3.640696e+00 5.066206e+00 4.636430e+00 2.454833e+00 2.279588e+00 4.153312e+00 2.492571e+00 -3.201350e-01 -1.186011e-02 1.118498e-02 -2.851139e-02 1.626284e-02 4.176363e-03 1.387180e-02 5.989143e-02 2.319233e-02 1.774425e-02 3.918249e-02 -1.162768e-02 -2.087108e-02 -1.823254e-02
<VARIANCE> 25
 2.062343e+00 4.921892e+00 5.427380e+00 7.545206e+00 1.301937e+01 1.091999e+01 1.297634e+01 1.017106e+01 1.279316e+01 1.333958e+01 1.300109e+01 9.739958e+00 1.111846e-01 1.990275e-01 4.027222e-01 6.654435e-01 9.764612e-01 8.296984e-01 1.222249e+00 1.118979e+00 1.192083e+00 1.051789e+00 1.103096e+00 8.221903e-01 1.019156e-01
<GCONST> 6.461729e+01
~s "ST_m_3_1"
<MEAN> 25
 7.114605e+00 -2.058280e-01 3.074738e+00 -4.541434e-01 -3.109868e+00 -1.146053e+01 -1.099989e+01 -7.818141e+00 -5.492462e+00 -8.358338e+00 -9.947405e-01 -2.619549e+00 -7.326622e-02 3.162527e-01 1.465083e-01 1.700410e-01 -2.296020e-01 -5.367723e-02 7.872505e-02 -6.074955e-02 -1.531676e-01 3.085875e-01 -1.830498e-01 -2.402739e-03 -2.502681e-01
<VARIANCE> 25
 1.207438e+01 5.950042e+01 1.452953e+01 1.690367e+01 3.015841e+01 2.232067e+01 2.620345e+01 6.054999e+01 2.259871e+01 6.253806e+01 2.507194e+01 1.684127e+01 3.089541e-01 6.717628e-01 6.922458e-01 6.676782e-01 1.221544e+00 1.143469e+00 1.455909e+00 1.403380e+00 1.395822e+00 1.974915e+00 1.445077e+00 1.031166e+00 4.580751e-01
<GCONST> 8.454495e+01
~s "ST_m_4_1"
<MEAN> 25
 5.031353e+00 7.592006e-01 2.823880e+00 1.057772e+00 -2.581285e+00 -6.046951e+00 -9.334179e+00 -7.000612e+00 -4.952684e+00 -3.711835e+00 -9.817838e-01 -1.991409e+00 -1.073207e+00 -2.920806e-01 -6.810617e-01 -4.729838e-01 7.070456e-01 1.578909e+00 1.412756e+00 1.990975e+00 9.054096e-01 1.294230e-01 6.560228e-01 7.156253e-01 -2.007362e-01
<VARIANCE> 25
 3.437225e+01 7.963518e+01 1.932595e+01 2.964905e+01 4.266180e+01 3.326064e+01 5.304215e+01 6.294224e+01 2.650947e+01 6.006382e+01 3.337582e+01 2.607998e+01 2.894396e+00 3.307608e+00 2.839903e+00 3.578470e+00 3.333502e+00 2.747689e+00 4.001894e+00 4.384310e+00 3.205187e+00 5.514904e+00 2.692157e+00 2.543608e+00 3.414712e+00
<GCONST> 1.054069e+02
~s "ST_ah_2_1"
<MEAN> 25
 -1.684587e-08 -6.193333e-08 -4.487690e-08 3.351832e-08 -6.047171e-08 2.058664e-08 -6.607048e-08 -2.205446e-08 -8.534414e-09 2.910867e-08 3.022347e-08 -1.071447e-09 -2.678578e-03 2.715191e-03 1.970940e-04 1.666228e-04 1.831201e-03 -7.320007e-04 3.372927e-03 1.125320e-03 -7.564414e-05 2.413395e-03 8.106225e-04 -2.148533e-03 -1.727290e-03
<VARIANCE> 25
 4.499385e+01 7.342516e+01 3.566479e+01 5.718780e+01 5.546888e+01 4.305736e+01 6.020990e+01 4.209700e+01 2.990068e+01 4.475465e+01 3.376802e+01 1.839641e+01 1.592596e+00 2.317776e+00 1.700131e+00 2.390033e+00 2.486403e+00 2.357601e+00 2.972100e+00 2.655601e+00 2.270027e+00 2.542916e+00 2.264997e+00 1.647762e+00 2.549860e+00
<GCONST> 1.014657e+02
~s "ST_ah_3_1"
<MEAN> 25
 -1.684587e-08 -6.193333e-08 -4.487690e-08 3.351832e-08 -6.047171e-08 2.058664e-08 -6.607048e-08 -2.205446e-08 -8.534414e-09 2.910867e-08 3.022347e-08 -1.071447e-09 -2.678578e-03 2.715191e-03 1.970940e-04 1.666228e-04 1.831201e-03 -7.320006e-04 3.372927e-03 1.125320e-03 -7.564414e-05 2.413395e-03 8.106225e-04 -2.148533e-03 -1.727290e-03
<VARIANCE> 25
 4.499385e+01 7.342516e+01 3.566479e+01 5.718781e+01 5.546888e+01 4.305736e+01 6.020990e+01 4.209700e+01 2.990068e+01 4.475465e+01 3.376802e+01 1.839641e+01 1.592596e+00 2.317776e+00 1.700131e+00 2.390033e+00 2.486403e+00 2.357601e+00 2.972100e+00 2.655601e+00 2.270027e+00 2.542916e+00 2.264997e+00 1.647762e+00 2.549860e+00
<GCONST> 1.014657e+02
~s "ST_ah_4_1"
<MEAN> 25
 -1.684587e-08 -6.193333e-08 -4.487690e-08 3.351832e-08 -6.047171e-08 2.058664e-08 -6.607048e-08 -2.205446e-08 -8.534414e-09 2.910867e-08 3.022347e-08 -1.071447e-09 -2.678578e-03 2.715191e-03 1.970940e-04 1.666228e-04 1.831201e-03 -7.320007e-04 3.372927e-03 1.125320e-03 -7.564414e-05 2.413395e-03 8.106225e-04 -2.148533e-03 -1.727290e-03
<VARIANCE> 25
 4.499385e+01 7.342516e+01 3.566479e+01 5.718780e+01 5.546888e+01 4.305736e+01 6.020990e+01 4.209700e+01 2.990068e+01 4.475465e+01 3.376802e+01 1.839641e+01 1.592596e+00 2.317776e+00 1.700131e+00 2.390033e+00 2.486403e+00 2.357601e+00 2.972100e+00 2.655601e+00 2.270027e+00 2.542916e+00 2.264997e+00 1.647762e+00 2.549860e+00
<GCONST> 1.014657e+02
~s "ST_z_2_1"
<MEAN> 25
 -1.973690e+01 2.279358e+01 5.522310e+00 2.847422e+00 7.214887e+00 6.347326e+00 1.634189e+01 9.958465e+00 1.354214e+00 9.940045e+00 7.575831e+00 2.048407e+00 -2.796907e-01 2.847047e-01 4.173511e-01 1.127296e-02 -1.995595e-02 4.167886e-01 2.119156e-01 -1.069503e-01 1.975908e-01 2.912973e-01 1.824274e-01 2.249069e-02 -2.341410e-01
<VARIANCE> 25
 4.741453e+01 5.788231e+01 1.965323e+01 2.126675e+00 3.447391e+01 1.139577e+01 2.801632e+01 4.073104e+01 1.279717e+01 1.466885e+01 2.967081e+01 8.145037e+00 1.962974e+00 1.284987e+00 1.943282e+00 6.340398e-01 4.310502e-01 8.771435e-01 1.476597e+00 1.640390e+00 1.128071e+00 1.006888e+00 1.283867e+00 7.365416e-01 1.059547e+00
<GCONST> 8.250813e+01
~s "ST_z_3_1"
<MEAN> 25
 -5.827831e+00 1.812212e+00 2.725306e+00 4.668413e+00 2.067433e+00 7.349499e+00 3.483889e+00 -2.392820e+00 2.666832e+00 1.744316e+00 -2.260231e+00 -1.263610e+00 2.284974e+00 -5.871178e+00 3.768274e-01 -1.118759e+00 -5.746785e-01 2.891743e-01 -3.368184e+00 -8.208023e-01 -1.165899e-01 -2.396490e+00 -1.237855e-01 4.770514e-01 4.792681e+00
<VARIANCE> 25
 4.828297e+01 2.582017e+02 9.914327e+00 2.291942e+01 6.182055e+01 4.079636e+01 5.992611e+01 5.928386e+01 1.872112e+01 6.358232e+01 6.006284e+01 3.767085e+01 6.009948e+00 1.698005e+01 3.396575e+00 5.637234e+00 1.646543e+01 4.301775e+00 2.865269e+00 6.533724e+00 2.994562e+00 2.795865e+00 4.752157e+00 4.717204e+00 9.543504e+00
<GCONST> 1.138764e+02
~s "ST_z_4_1"
<MEAN> 25
 2.382161e+00 -1.188298e+01 6.547649e+00 -8.699536e-01 -6.455554e+00 4.951550e+00 -6.913043e+00 -3.310023e+00 5.802595e+00 -2.089600e+00 6.772533e-01 4.861055e-01 1.867946e+00 6.472762e-01 2.800688e-01 -2.910331e+00 -1.987755e+00 -2.652218e+00 -1.057872e+00 -1.225228e+00 -2.088668e-01 1.125642e+00 -2.704711e-01 -3.618339e-01 2.269560e+00
<VARIANCE> 25
 5.693420e+01 6.211535e+01 1.679950e+01 4.450875e+01 1.535586e+02 4.529617e+01 2.323775e+01 1.912788e+01 3.372425e+01 1.777138e+01 3.447033e+01 4.033751e+01 2.688728e+00 8.562362e+00 6.644753e+00 4.450103e+00 6.516311e+00 2.391535e+00 2.735463e+00 1.190589e+00 2.801739e+00 1.338723e+00 2.435275e+00 7.126667e-01 9.801007e+00
<GCONST> 1.039182e+02
~s "ST_sy_2_1"
<MEAN> 25
 -6.761836e-01 6.160473e-01 3.684117e-01 2.159563e+00 2.708209e-02 2.415250e+00 3.058819e+00 3.195238e+00 2.435285e-02 1.741373e+00 3.062398e+00 5.730178e-01 5.364029e-02 -1.217647e-02 -2.196855e-02 4.947986e-02 4.833840e-02 -2.294274e-02 -9.410746e-03 -2.110685e-03 -9.856810e-03 3.362609e-02 1.395852e-02 -6.817389e-02 -9.751405e-03
<VARIANCE> 25
 1.994784e+00 4.760424e+00 4.756727e+00 4.881989e+00 6.981979e+00 1.314335e+01 1.317836e+01 1.549649e+01 1.303975e+01 1.034751e+01 1.562054e+01 1.062290e+01 9.951223e-02 2.936382e-01 2.910415e-01 4.267910e-01 4.959457e-01 9.377254e-01 9.930456e-01 1.423544e+00 1.142280e+00 9.910213e-01 1.101513e+00 1.179527e+00 6.138557e-02
<GCONST> 6.275488e+01
~s "ST_sy_3_1"
<MEAN> 25
 -5.594771e+00 -1.027400e+00 7.673728e+00 -1.518390e+00 1.362495e+00 2.581537e+00 1.699419e+00 4.859596e+00 2.442652e+00 1.870746e+00 5.119463e+00 -8.185009e-01 -2.610139e+00 -4.475906e-01 2.499885e+00 -1.674913e+00 9.669352e-02 -3.569248e-01 -4.109485e-01 6.649557e-01 1.061054e+00 1.553551e-01 6.669822e-01 -2.263052e-01 2.087364e+00
<VARIANCE> 25
 3.288030e+01 8.867004e+00 3.829430e+01 2.273248e+01 1.144013e+01 1.130738e+01 1.604644e+01 9.847646e+00 2.013311e+01 1.461574e+01 1.394190e+01 1.709691e+01 1.548246e+00 1.205345e+00 1.902384e+00 8.903539e-01 1.015736e+00 9.005166e-01 1.402621e+00 1.105003e+00 1.972370e+00 1.876083e+00 1.745484e+00 1.810663e+00 7.750648e-01
<GCONST> 8.317902e+01
~s "ST_sy_4_1"
<MEAN> 25
 -1.633228e+01 -1.850992e+00 1.545849e+01 -3.719501e+00 -1.413374e+00 2.878418e+00 2.930065e+00 3.283156e+00 4.130248e+00 3.501728e+00 4.923764e+00 -6.238585e-01 9.852795e-01 1.742200e-01 8.905093e-02 -2.673938e-01 -9.207106e-01 -4.759904e-01 -6.195943e-01 -4.028701e-01 -3.747479e-01 -1.952956e-01 -4.184143e-01 1.128940e-01 1.198263e-01
<VARIANCE> 25
 1.667051e+01 2.405385e+01 1.072484e+01 2.635828e+01 3.567092e+01 2.346309e+01 3.200856e+01 2.389277e+01 1.517408e+01 2.775091e+01 1.157676e+01 1.656084e+01 7.445612e+00 6.972250e-01 6.176882e-01 1.528892e+00 3.970159e+00 2.074816e+00 3.140288e+00 1.231745e+00 1.689787e+00 9.893420e-01 9.124813e-01 1.395660e+00 5.006655e-01
<GCONST> 8.736847e+01
~s "ST_c_2_1"
<MEAN> 25
 -1.165359e+00 1.009610e+00 -3.625464e-01 2.378600e+00 3.042029e+00 3.858568e+00 3.749537e+00 1.283862e+00 -2.387224e-01 2.631342e+00 1.653334e+00 -5.367132e-01 -3.836839e-02 7.476882e-03 1.057842e-02 2.811143e-02 5.088101e-02 5.012883e-02 6.568922e-02 5.026752e-02 4.000763e-02 1.910740e-02 -1.368374e-02 1.368599e-02 -8.815875e-03
<VARIANCE> 25
 2.071718e+00 2.613521e+00 4.528667e+00 5.277165e+00 7.998878e+00 9.398852e+00 1.222563e+01 1.225697e+01 1.103720e+01 1.216608e+01 1.203951e+01 1.247136e+01 1.241059e-01 2.020955e-01 3.467300e-01 5.124401e-01 7.009991e-01 9.566111e-01 1.149059e+00 1.105312e+00 1.014177e+00 1.182410e+00 1.227804e+00 1.303383e+00 3.548202e-02
<GCONST> 6.179005e+01
~s "ST_c_3_1"
<MEAN> 25
 -1.820262e+00 1.815057e+00 -4.683945e-01 3.303230e+00 4.859731e+00 3.628767e+00 5.540965e+00 6.366105e-01 1.777386e-01 3.061890e+00 1.963583e+00 6.131290e-01 -1.308417e+00 2.492127e-01 -3.434488e-02 -9.970836e-01 -5.379422e-01 -2.243363e+00 -6.270558e-01 -2.849532e-01 1.082157e+00 3.222331e-01 3.192560e-01 1.045606e+00 2.367158e+00
<VARIANCE> 25
 1.451446e+00 3.558464e+00 4.241384e+00 6.891284e+00 7.004724e+00 1.775569e+01 1.350783e+01 9.512217e+00 3.166043e+00 6.788633e+00 3.727692e+00 1.515230e+01 1.675596e+00 3.074940e-01 5.661810e-01 2.431872e+00 1.154518e+00 2.363523e+00 1.423585e+00 1.843272e+00 1.328000e+00 2.610736e+00 1.000856e+00 9.167556e-01 4.486455e+00
<GCONST> 7.202834e+01
~s "ST_c_4_1"
<MEAN> 25
 -7.000668e+00 3.187262e+00 8.496622e-01 -4.004628e+00 2.539380e-01 -3.223556e+00 2.517087e+00 1.495859e+00 5.582719e+00 3.757426e+00 2.299992e+00 1.794281e+00 5.132748e-01 4.851564e-01 1.614240e+00 -2.281074e+00 -3.105589e+00 -1.582041e+00 -2.435233e+00 -1.344562e+00 -6.591029e-01 -2.276288e+00 -9.438635e-01 -1.655714e-01 3.524279e+00
<VARIANCE> 25
 3.303939e+01 1.011244e+01 2.934361e+01 3.653351e+01 2.049706e+01 2.423806e+01 2.236024e+01 2.200816e+01 1.416277e+01 3.328659e+01 1.412943e+01 5.859434e+00 6.113688e+00 4.288722e+00 4.765959e+00 2.422463e+00 2.599022e+00 2.896615e+00 7.976311e+00 4.811556e+00 3.462357e+00 5.688297e+00 3.306609e+00 7.649291e-01 3.487788e+00
<GCONST> 9.825125e+01
~s "ST_p_2_1"
<MEAN> 25
 3.033574e+00 -4.326780e+00 -5.736195e-01 -3.871463e-02 -1.838290e+00 -1.675387e-01 -1.209854e+00 5.177832e-01 5.521008e-01 -4.521258e-01 -3.633296e-01 -8.751010e-01 2.288228e+00 -2.605454e+00 -8.421640e-01 -2.325969e+00 -1.640224e+00 -1.171996e+00 -1.177612e+00 -6.109636e-01 -5.927298e-01 -1.588973e+00 -1.210183e+00 -2.276239e-01 3.793435e+00
<VARIANCE> 25
 4.562294e+01 9.201528e+01 3.256985e+01 3.745254e+01 4.726319e+01 3.403923e+01 3.838946e+01 4.599488e+01 2.804150e+01 3.536401e+01 2.889109e+01 2.020535e+01 3.679555e+00 1.074484e+01 3.813552e+00 5.327928e+00 4.745496e+00 3.419297e+00 4.112056e+00 7.419396e+00 3.806205e+00 4.110707e+00 3.625658e+00 2.216496e+00 8.307667e+00
<GCONST> 1.093689e+02
~s "ST_p_3_1"
<MEAN> 25
 9.969064e+00 -1.221524e+01 -2.306164e+00 -9.176847e+00 -6.396462e+00 -7.073238e+00 3.765683e-01 -2.383405e+00 -5.591437e+00 -8.043324e+00 -5.195443e+00 -1.435701e+00 -8.082879e-02 7.822506e-02 1.848021e-01 -7.980937e-01 -1.045031e-01 -5.060389e-01 7.642501e-01 -5.742839e-01 -4.909829e-01 -6.722487e-01 -1.750788e-01 2.338517e-01 2.829269e-01
<VARIANCE> 25
 1.709037e+01 1.083241e+02 3.565284e+01 3.015467e+01 5.233421e+01 2.985283e+01 6.381382e+01 5.128436e+01 2.279883e+01 2.866456e+01 1.936919e+01 1.269644e+01 1.218887e+00 2.369658e+00 9.024116e-01 2.415282e+00 2.613021e+00 1.954830e+00 3.859436e+00 2.506962e+00 2.431233e+00 2.196392e+00 2.310433e+00 1.363555e+00 1.464074e+00
<GCONST> 9.682959e+01
~s "ST_p_4_1"
<MEAN> 25
 1.994668e+00 -3.027344e+00 -9.254810e-01 -1.355494e+00 -9.625354e-01 -6.569810e-01 2.989146e+00 -9.215770e-01 -1.058110e+00 -1.984769e+00 -1.769681e+00 8.266003e-02 -3.467457e-01 6.006265e-01 2.608078e-01 3.005969e-01 -1.468941e-01 4.080369e-01 -4.250696e-01 6.177382e-02 2.143908e-01 3.496008e-01 2.254401e-01 2.421700e-01 -5.474668e-01
<VARIANCE> 25
 3.687872e+01 6.746498e+01 2.038164e+01 6.779136e+01 6.170943e+01 5.099382e+01 4.339373e+01 3.701959e+01 3.125987e+01 5.329134e+01 3.174727e+01 1.910859e+01 1.052099e+00 2.456158e+00 1.023428e+00 2.492216e+00 1.795689e+00 1.846131e+00 1.964689e+00 2.554007e+00 1.692178e+00 2.087788e+00 1.489579e+00 1.577689e+00 3.623361e+00
<GCONST> 9.836036e+01
~h "E"
<BEGINHMM>
<NUMSTATES> 5
<STATE> 2
~s "ST_E_2_1"
<STATE> 3
~s "ST_E_3_1"
<STATE> 4
~s "ST_E_4_1"
~t "T_E"
<ENDHMM>
~h "K"
<BEGINHMM>
<NUMSTATES> 5
<STATE> 2
~s "ST_K_2_1"
<STATE> 3
~s "ST_K_3_1"
<STATE> 4
~s "ST_K_4_1"
~t "T_K"
<ENDHMM>
~h "a"
<BEGINHMM>
<NUMSTATES> 5
<STATE> 2
~s "ST_a_2_1"
<STATE> 3
~s "ST_a_3_1"
<STATE> 4
~s "ST_a_4_1"
~t "T_a"
<ENDHMM>
~h "b"
<BEGINHMM>
<NUMSTATES> 5
<STATE> 2
~s "ST_b_2_1"
<STATE> 3
~s "ST_b_3_1"
<STATE> 4
~s "ST_b_4_1"
~t "T_b"
<ENDHMM>
~h "c"
<BEGINHMM>
<NUMSTATES> 5
<STATE> 2
~s "ST_c_2_1"
<STATE> 3
~s "ST_c_3_1"
<STATE> 4
~s "ST_c_4_1"
~t "T_c"
<ENDHMM>
~h "d"
<BEGINHMM>
<NUMSTATES> 5
<STATE> 2
~s "ST_d_2_1"
<STATE> 3
~s "ST_d_3_1"
<STATE> 4
~s "ST_d_4_1"
~t "T_d"
<ENDHMM>
~h "e"
<BEGINHMM>
<NUMSTATES> 5
<STATE> 2
~s "ST_e_2_1"
<STATE> 3
~s "ST_e_3_1"
<STATE> 4
~s "ST_e_4_1"
~t "T_e"
<ENDHMM>
~h "f"
<BEGINHMM>
<NUMSTATES> 5
<STATE> 2
~s "ST_f_2_1"
<STATE> 3
~s "ST_f_3_1"
<STATE> 4
~s "ST_f_4_1"
~t "T_f"
<ENDHMM>
~h "g"
<BEGINHMM>
<NUMSTATES> 5
<STATE> 2
~s "ST_g_2_1"
<STATE> 3
~s "ST_g_3_1"
<STATE> 4
~s "ST_g_4_1"
~t "T_g"
<ENDHMM>
~h "h"
<BEGINHMM>
<NUMSTATES> 5
<STATE> 2
~s "ST_h_2_1"
<STATE> 3
~s "ST_h_3_1"
<STATE> 4
~s "ST_h_4_1"
~t "T_h"
<ENDHMM>
~h "i"
<BEGINHMM>
<NUMSTATES> 5
<STATE> 2
~s "ST_i_2_1"
<STATE> 3
~s "ST_i_3_1"
<STATE> 4
~s "ST_i_4_1"
~t "T_i"
<ENDHMM>
~h "j"
<BEGINHMM>
<NUMSTATES> 5
<STATE> 2
~s "ST_j_2_1"
<STATE> 3
~s "ST_j_3_1"
<STATE> 4
~s "ST_j_4_1"
~t "T_j"
<ENDHMM>
~h "k"
<BEGINHMM>
<NUMSTATES> 5
<STATE> 2
~s "ST_k_2_1"
<STATE> 3
~s "ST_k_3_1"
<STATE> 4
~s "ST_k_4_1"
~t "T_k"
<ENDHMM>
~h "l"
<BEGINHMM>
<NUMSTATES> 5
<STATE> 2
~s "ST_l_2_1"
<STATE> 3
~s "ST_l_3_1"
<STATE> 4
~s "ST_l_4_1"
~t "T_l"
<ENDHMM>
~h "m"
<BEGINHMM>
<NUMSTATES> 5
<STATE> 2
~s "ST_m_2_1"
<STATE> 3
~s "ST_m_3_1"
<STATE> 4
~s "ST_m_4_1"
~t "T_m"
<ENDHMM>
~h "n"
<BEGINHMM>
<NUMSTATES> 5
<STATE> 2
~s "ST_n_2_1"
<STATE> 3
~s "ST_n_3_1"
<STATE> 4
~s "ST_n_4_1"
~t "T_n"
<ENDHMM>
~h "o"
<BEGINHMM>
<NUMSTATES> 5
<STATE> 2
~s "ST_o_2_1"
<STATE> 3
~s "ST_o_3_1"
<STATE> 4
~s "ST_o_4_1"
~t "T_o"
<ENDHMM>
~h "p"
<BEGINHMM>
<NUMSTATES> 5
<STATE> 2
~s "ST_p_2_1"
<STATE> 3
~s "ST_p_3_1"
<STATE> 4
~s "ST_p_4_1"
~t "T_p"
<ENDHMM>
~h "r"
<BEGINHMM>
<NUMSTATES> 5
<STATE> 2
~s "ST_r_2_1"
<STATE> 3
~s "ST_r_3_1"
<STATE> 4
~s "ST_r_4_1"
~t "T_r"
<ENDHMM>
~h "s"
<BEGINHMM>
<NUMSTATES> 5
<STATE> 2
~s "ST_s_2_1"
<STATE> 3
~s "ST_s_3_1"
<STATE> 4
~s "ST_s_4_1"
~t "T_s"
<ENDHMM>
~h "t"
<BEGINHMM>
<NUMSTATES> 5
<STATE> 2
~s "ST_t_2_1"
<STATE> 3
~s "ST_t_3_1"
<STATE> 4
~s "ST_t_4_1"
~t "T_t"
<ENDHMM>
~h "u"
<BEGINHMM>
<NUMSTATES> 5
<STATE> 2
~s "ST_u_2_1"
<STATE> 3
~s "ST_u_3_1"
<STATE> 4
~s "ST_u_4_1"
~t "T_u"
<ENDHMM>
~h "w"
<BEGINHMM>
<NUMSTATES> 5
<STATE> 2
~s "ST_w_2_1"
<STATE> 3
~s "ST_w_3_1"
<STATE> 4
~s "ST_w_4_1"
~t "T_w"
<ENDHMM>
~h "x"
<BEGINHMM>
<NUMSTATES> 5
<STATE> 2
~s "ST_x_2_1"
<STATE> 3
~s "ST_x_3_1"
<STATE> 4
~s "ST_x_4_1"
~t "T_x"
<ENDHMM>
~h "y"
<BEGINHMM>
<NUMSTATES> 5
<STATE> 2
~s "ST_y_2_1"
<STATE> 3
~s "ST_y_3_1"
<STATE> 4
~s "ST_y_4_1"
~t "T_y"
<ENDHMM>
~h "z"
<BEGINHMM>
<NUMSTATES> 5
<STATE> 2
~s "ST_z_2_1"
<STATE> 3
~s "ST_z_3_1"
<STATE> 4
~s "ST_z_4_1"
~t "T_z"
<ENDHMM>
~h "u-r+f"
<BEGINHMM>
<NUMSTATES> 5
<STATE> 2
~s "ST_r_2_1"
<STATE> 3
~s "ST_r_3_1"
<STATE> 4
~s "ST_r_4_2"
~t "T_r"
<ENDHMM>
~h "ah"
<BEGINHMM>
<NUMSTATES> 5
<STATE> 2
~s "ST_ah_2_1"
<STATE> 3
~s "ST_ah_3_1"
<STATE> 4
~s "ST_ah_4_1"
~t "T_ah"
<ENDHMM>
~h "aw"
<BEGINHMM>
<NUMSTATES> 5
<STATE> 2
~s "ST_aw_2_1"
<STATE> 3
~s "ST_aw_3_1"
<STATE> 4
~s "ST_aw_4_1"
~t "T_aw"
<ENDHMM>
~h "ay"
<BEGINHMM>
<NUMSTATES> 5
<STATE> 2
~s "ST_ay_2_1"
<STATE> 3
~s "ST_ay_3_1"
<STATE> 4
~s "ST_ay_4_1"
~t "T_ay"
<ENDHMM>
~h "kh"
<BEGINHMM>
<NUMSTATES> 5
<STATE> 2
~s "ST_kh_2_1"
<STATE> 3
~s "ST_kh_3_1"
<STATE> 4
~s "ST_kh_4_1"
~t "T_kh"
<ENDHMM>
~h "ng"
<BEGINHMM>
<NUMSTATES> 5
<STATE> 2
~s "ST_ng_2_1"
<STATE> 3
~s "ST_ng_3_1"
<STATE> 4
~s "ST_ng_4_1"
~t "T_ng"
<ENDHMM>
~h "ny"
<BEGINHMM>
<NUMSTATES> 5
<STATE> 2
~s "ST_ny_2_1"
<STATE> 3
~s "ST_ny_3_1"
<STATE> 4
~s "ST_ny_4_1"
~t "T_ny"
<ENDHMM>
~h "sp"
<BEGINHMM>
<NUMSTATES> 3
<STATE> 2
~s "ST_sil_3_1"
<TRANSP> 3
 0.000000e+00 1.199559e-01 8.800441e-01
 0.000000e+00 9.310433e-01 6.895664e-02
 0.000000e+00 0.000000e+00 0.000000e+00
<ENDHMM>
~h "sy"
<BEGINHMM>
<NUMSTATES> 5
<STATE> 2
~s "ST_sy_2_1"
<STATE> 3
~s "ST_sy_3_1"
<STATE> 4
~s "ST_sy_4_1"
~t "T_sy"
<ENDHMM>
~h "k-i+a"
<BEGINHMM>
<NUMSTATES> 5
<STATE> 2
~s "ST_i_2_2"
<STATE> 3
~s "ST_i_3_1"
<STATE> 4
~s "ST_i_4_3"
~t "T_i"
<ENDHMM>
~h "k-o+l"
<BEGINHMM>
<NUMSTATES> 5
<STATE> 2
~s "ST_o_2_1"
<STATE> 3
~s "ST_o_3_1"
<STATE> 4
~s "ST_o_4_2"
~t "T_o"
<ENDHMM>
~h "k-u+l"
<BEGINHMM>
<NUMSTATES> 5
<STATE> 2
~s "ST_u_2_1"
<STATE> 3
~s "ST_u_3_1"
<STATE> 4
~s "ST_u_4_2"
~t "T_u"
<ENDHMM>
~h "g-a+s"
<BEGINHMM>
<NUMSTATES> 5
<STATE> 2
~s "ST_a_2_1"
<STATE> 3
~s "ST_a_3_2"
<STATE> 4
~s "ST_a_4_1"
~t "T_a"
<ENDHMM>
~h "g-r+a"
<BEGINHMM>
<NUMSTATES> 5
<STATE> 2
~s "ST_r_2_1"
<STATE> 3
~s "ST_r_3_1"
<STATE> 4
~s "ST_r_4_3"
~t "T_r"
<ENDHMM>
~h "f-E+d"
<BEGINHMM>
<NUMSTATES> 5
<STATE> 2
~s "ST_E_2_1"
<STATE> 3
~s "ST_E_3_2"
<STATE> 4
~s "ST_E_4_1"
~t "T_E"
<ENDHMM>
~h "l-i"
<BEGINHMM>
<NUMSTATES> 5
<STATE> 2
~s "ST_i_2_1"
<STATE> 3
~s "ST_i_3_1"
<STATE> 4
~s "ST_i_4_2"
~t "T_i"
<ENDHMM>
~h "sil"
<BEGINHMM>
<NUMSTATES> 5
<STATE> 2
~s "ST_sil_2_1"
<STATE> 3
~s "ST_sil_3_1"
<STATE> 4
~s "ST_sil_4_1"
<TRANSP> 5
 0.000000e+00 1.000000e+00 0.000000e+00 0.000000e+00 0.000000e+00
 0.000000e+00 9.128506e-01 1.502333e-02 7.212609e-02 0.000000e+00
 0.000000e+00 0.000000e+00 9.539105e-01 4.608950e-02 0.000000e+00
 0.000000e+00 1.172541e-01 0.000000e+00 7.325453e-01 1.502006e-01
 0.000000e+00 0.000000e+00 0.000000e+00 0.000000e+00 0.000000e+00
<ENDHMM>
