~h "a"
<BEGINHMM>
<NUMSTATES> 5
<STATE> 2
<MEAN> 25
 2.711044e-07 2.276736e-08 -6.105108e-08 -1.720701e-07 -1.586201e-07 9.768173e-08 -1.135738e-07 -1.298416e-07 7.694315e-08 -1.660590e-07 -1.083516e-07 -5.706868e-08 -2.818740e-03 -4.409721e-03 -4.277692e-03 -1.165964e-03 -3.608679e-03 5.208261e-03 -1.757075e-03 5.998432e-03 4.891248e-03 1.720927e-03 7.501529e-04 -5.307185e-03 6.137643e-03
<VARIANCE> 25
 2.670229e+01 2.794268e+01 3.749357e+01 3.307458e+01 5.256620e+01 4.928031e+01 4.561778e+01 4.954230e+01 4.604616e+01 3.096663e+01 2.869331e+01 1.969207e+01 8.024186e-01 8.637462e-01 9.762594e-01 1.208383e+00 1.860729e+00 1.938551e+00 2.342637e+00 2.054597e+00 2.126093e+00 1.768907e+00 1.840738e+00 1.505519e+00 1.027859e+00
<GCONST> 9.389128e+01
<STATE> 3
<MEAN> 25
 2.711044e-07 2.276736e-08 -6.105108e-08 -1.720701e-07 -1.586201e-07 9.768173e-08 -1.135738e-07 -1.298416e-07 7.694315e-08 -1.660590e-07 -1.083516e-07 -5.706868e-08 -2.818740e-03 -4.409721e-03 -4.277692e-03 -1.165964e-03 -3.608679e-03 5.208261e-03 -1.757075e-03 5.998432e-03 4.891248e-03 1.720927e-03 7.501529e-04 -5.307185e-03 6.137643e-03
<VARIANCE> 25
 2.670229e+01 2.794268e+01 3.749357e+01 3.307458e+01 5.256620e+01 4.928031e+01 4.561778e+01 4.954230e+01 4.604616e+01 3.096663e+01 2.869331e+01 1.969207e+01 8.024186e-01 8.637462e-01 9.762594e-01 1.208383e+00 1.860729e+00 1.938551e+00 2.342637e+00 2.054597e+00 2.126093e+00 1.768907e+00 1.840738e+00 1.505519e+00 1.027859e+00
<GCONST> 9.389128e+01
<STATE> 4
<MEAN> 25
 2.711044e-07 2.276736e-08 -6.105108e-08 -1.720701e-07 -1.586201e-07 9.768173e-08 -1.135738e-07 -1.298416e-07 7.694315e-08 -1.660590e-07 -1.083516e-07 -5.706868e-08 -2.818740e-03 -4.409721e-03 -4.277692e-03 -1.165964e-03 -3.608679e-03 5.208261e-03 -1.757075e-03 5.998432e-03 4.891248e-03 1.720927e-03 7.501529e-04 -5.307185e-03 6.137643e-03
<VARIANCE> 25
 2.670229e+01 2.794268e+01 3.749357e+01 3.307458e+01 5.256620e+01 4.928031e+01 4.561778e+01 4.954230e+01 4.604616e+01 3.096663e+01 2.869331e+01 1.969207e+01 8.024186e-01 8.637462e-01 9.762594e-01 1.208383e+00 1.860729e+00 1.938551e+00 2.342637e+00 2.054597e+00 2.126093e+00 1.768907e+00 1.840738e+00 1.505519e+00 1.027859e+00
<GCONST> 9.389128e+01
<TRANSP> 5
 0.000000e+00 1.000000e+00 0.000000e+00 0.000000e+00 0.000000e+00
 0.000000e+00 6.000000e-01 4.000000e-01 0.000000e+00 0.000000e+00
 0.000000e+00 0.000000e+00 6.000000e-01 4.000000e-01 0.000000e+00
 0.000000e+00 0.000000e+00 0.000000e+00 7.000000e-01 3.000000e-01
 0.000000e+00 0.000000e+00 0.000000e+00 0.000000e+00 0.000000e+00
<ENDHMM>
~h "g"
<BEGINHMM>
<NUMSTATES> 5
<STATE> 2
<MEAN> 25
 2.711044e-07 2.276736e-08 -6.105108e-08 -1.720701e-07 -1.586201e-07 9.768173e-08 -1.135738e-07 -1.298416e-07 7.694315e-08 -1.660590e-07 -1.083516e-07 -5.706868e-08 -2.818740e-03 -4.409721e-03 -4.277692e-03 -1.165964e-03 -3.608679e-03 5.208261e-03 -1.757075e-03 5.998432e-03 4.891248e-03 1.720927e-03 7.501529e-04 -5.307185e-03 6.137643e-03
<VARIANCE> 25
 2.670229e+01 2.794268e+01 3.749357e+01 3.307458e+01 5.256620e+01 4.928031e+01 4.561778e+01 4.954230e+01 4.604616e+01 3.096663e+01 2.869331e+01 1.969207e+01 8.024186e-01 8.637462e-01 9.762594e-01 1.208383e+00 1.860729e+00 1.938551e+00 2.342637e+00 2.054597e+00 2.126093e+00 1.768907e+00 1.840738e+00 1.505519e+00 1.027859e+00
<GCONST> 9.389128e+01
<STATE> 3
<MEAN> 25
 2.711044e-07 2.276736e-08 -6.105108e-08 -1.720701e-07 -1.586201e-07 9.768173e-08 -1.135738e-07 -1.298416e-07 7.694315e-08 -1.660590e-07 -1.083516e-07 -5.706868e-08 -2.818740e-03 -4.409721e-03 -4.277692e-03 -1.165964e-03 -3.608679e-03 5.208261e-03 -1.757075e-03 5.998432e-03 4.891248e-03 1.720927e-03 7.501529e-04 -5.307185e-03 6.137643e-03
<VARIANCE> 25
 2.670229e+01 2.794268e+01 3.749357e+01 3.307458e+01 5.256620e+01 4.928031e+01 4.561778e+01 4.954230e+01 4.604616e+01 3.096663e+01 2.869331e+01 1.969207e+01 8.024186e-01 8.637462e-01 9.762594e-01 1.208383e+00 1.860729e+00 1.938551e+00 2.342637e+00 2.054597e+00 2.126093e+00 1.768907e+00 1.840738e+00 1.505519e+00 1.027859e+00
<GCONST> 9.389128e+01
<STATE> 4
<MEAN> 25
 2.711044e-07 2.276736e-08 -6.105108e-08 -1.720701e-07 -1.586201e-07 9.768173e-08 -1.135738e-07 -1.298416e-07 7.694315e-08 -1.660590e-07 -1.083516e-07 -5.706868e-08 -2.818740e-03 -4.409721e-03 -4.277692e-03 -1.165964e-03 -3.608679e-03 5.208261e-03 -1.757075e-03 5.998432e-03 4.891248e-03 1.720927e-03 7.501529e-04 -5.307185e-03 6.137643e-03
<VARIANCE> 25
 2.670229e+01 2.794268e+01 3.749357e+01 3.307458e+01 5.256620e+01 4.928031e+01 4.561778e+01 4.954230e+01 4.604616e+01 3.096663e+01 2.869331e+01 1.969207e+01 8.024186e-01 8.637462e-01 9.762594e-01 1.208383e+00 1.860729e+00 1.938551e+00 2.342637e+00 2.054597e+00 2.126093e+00 1.768907e+00 1.840738e+00 1.505519e+00 1.027859e+00
<GCONST> 9.389128e+01
<TRANSP> 5
 0.000000e+00 1.000000e+00 0.000000e+00 0.000000e+00 0.000000e+00
 0.000000e+00 6.000000e-01 4.000000e-01 0.000000e+00 0.000000e+00
 0.000000e+00 0.000000e+00 6.000000e-01 4.000000e-01 0.000000e+00
 0.000000e+00 0.000000e+00 0.000000e+00 7.000000e-01 3.000000e-01
 0.000000e+00 0.000000e+00 0.000000e+00 0.000000e+00 0.000000e+00
<ENDHMM>
~h "u"
<BEGINHMM>
<NUMSTATES> 5
<STATE> 2
<MEAN> 25
 2.711044e-07 2.276736e-08 -6.105108e-08 -1.720701e-07 -1.586201e-07 9.768173e-08 -1.135738e-07 -1.298416e-07 7.694315e-08 -1.660590e-07 -1.083516e-07 -5.706868e-08 -2.818740e-03 -4.409721e-03 -4.277692e-03 -1.165964e-03 -3.608679e-03 5.208261e-03 -1.757075e-03 5.998432e-03 4.891248e-03 1.720927e-03 7.501529e-04 -5.307185e-03 6.137643e-03
<VARIANCE> 25
 2.670229e+01 2.794268e+01 3.749357e+01 3.307458e+01 5.256620e+01 4.928031e+01 4.561778e+01 4.954230e+01 4.604616e+01 3.096663e+01 2.869331e+01 1.969207e+01 8.024186e-01 8.637462e-01 9.762594e-01 1.208383e+00 1.860729e+00 1.938551e+00 2.342637e+00 2.054597e+00 2.126093e+00 1.768907e+00 1.840738e+00 1.505519e+00 1.027859e+00
<GCONST> 9.389128e+01
<STATE> 3
<MEAN> 25
 2.711044e-07 2.276736e-08 -6.105108e-08 -1.720701e-07 -1.586201e-07 9.768173e-08 -1.135738e-07 -1.298416e-07 7.694315e-08 -1.660590e-07 -1.083516e-07 -5.706868e-08 -2.818740e-03 -4.409721e-03 -4.277692e-03 -1.165964e-03 -3.608679e-03 5.208261e-03 -1.757075e-03 5.998432e-03 4.891248e-03 1.720927e-03 7.501529e-04 -5.307185e-03 6.137643e-03
<VARIANCE> 25
 2.670229e+01 2.794268e+01 3.749357e+01 3.307458e+01 5.256620e+01 4.928031e+01 4.561778e+01 4.954230e+01 4.604616e+01 3.096663e+01 2.869331e+01 1.969207e+01 8.024186e-01 8.637462e-01 9.762594e-01 1.208383e+00 1.860729e+00 1.938551e+00 2.342637e+00 2.054597e+00 2.126093e+00 1.768907e+00 1.840738e+00 1.505519e+00 1.027859e+00
<GCONST> 9.389128e+01
<STATE> 4
<MEAN> 25
 2.711044e-07 2.276736e-08 -6.105108e-08 -1.720701e-07 -1.586201e-07 9.768173e-08 -1.135738e-07 -1.298416e-07 7.694315e-08 -1.660590e-07 -1.083516e-07 -5.706868e-08 -2.818740e-03 -4.409721e-03 -4.277692e-03 -1.165964e-03 -3.608679e-03 5.208261e-03 -1.757075e-03 5.998432e-03 4.891248e-03 1.720927e-03 7.501529e-04 -5.307185e-03 6.137643e-03
<VARIANCE> 25
 2.670229e+01 2.794268e+01 3.749357e+01 3.307458e+01 5.256620e+01 4.928031e+01 4.561778e+01 4.954230e+01 4.604616e+01 3.096663e+01 2.869331e+01 1.969207e+01 8.024186e-01 8.637462e-01 9.762594e-01 1.208383e+00 1.860729e+00 1.938551e+00 2.342637e+00 2.054597e+00 2.126093e+00 1.768907e+00 1.840738e+00 1.505519e+00 1.027859e+00
<GCONST> 9.389128e+01
<TRANSP> 5
 0.000000e+00 1.000000e+00 0.000000e+00 0.000000e+00 0.000000e+00
 0.000000e+00 6.000000e-01 4.000000e-01 0.000000e+00 0.000000e+00
 0.000000e+00 0.000000e+00 6.000000e-01 4.000000e-01 0.000000e+00
 0.000000e+00 0.000000e+00 0.000000e+00 7.000000e-01 3.000000e-01
 0.000000e+00 0.000000e+00 0.000000e+00 0.000000e+00 0.000000e+00
<ENDHMM>
~h "s"
<BEGINHMM>
<NUMSTATES> 5
<STATE> 2
<MEAN> 25
 2.711044e-07 2.276736e-08 -6.105108e-08 -1.720701e-07 -1.586201e-07 9.768173e-08 -1.135738e-07 -1.298416e-07 7.694315e-08 -1.660590e-07 -1.083516e-07 -5.706868e-08 -2.818740e-03 -4.409721e-03 -4.277692e-03 -1.165964e-03 -3.608679e-03 5.208261e-03 -1.757075e-03 5.998432e-03 4.891248e-03 1.720927e-03 7.501529e-04 -5.307185e-03 6.137643e-03
<VARIANCE> 25
 2.670229e+01 2.794268e+01 3.749357e+01 3.307458e+01 5.256620e+01 4.928031e+01 4.561778e+01 4.954230e+01 4.604616e+01 3.096663e+01 2.869331e+01 1.969207e+01 8.024186e-01 8.637462e-01 9.762594e-01 1.208383e+00 1.860729e+00 1.938551e+00 2.342637e+00 2.054597e+00 2.126093e+00 1.768907e+00 1.840738e+00 1.505519e+00 1.027859e+00
<GCONST> 9.389128e+01
<STATE> 3
<MEAN> 25
 2.711044e-07 2.276736e-08 -6.105108e-08 -1.720701e-07 -1.586201e-07 9.768173e-08 -1.135738e-07 -1.298416e-07 7.694315e-08 -1.660590e-07 -1.083516e-07 -5.706868e-08 -2.818740e-03 -4.409721e-03 -4.277692e-03 -1.165964e-03 -3.608679e-03 5.208261e-03 -1.757075e-03 5.998432e-03 4.891248e-03 1.720927e-03 7.501529e-04 -5.307185e-03 6.137643e-03
<VARIANCE> 25
 2.670229e+01 2.794268e+01 3.749357e+01 3.307458e+01 5.256620e+01 4.928031e+01 4.561778e+01 4.954230e+01 4.604616e+01 3.096663e+01 2.869331e+01 1.969207e+01 8.024186e-01 8.637462e-01 9.762594e-01 1.208383e+00 1.860729e+00 1.938551e+00 2.342637e+00 2.054597e+00 2.126093e+00 1.768907e+00 1.840738e+00 1.505519e+00 1.027859e+00
<GCONST> 9.389128e+01
<STATE> 4
<MEAN> 25
 2.711044e-07 2.276736e-08 -6.105108e-08 -1.720701e-07 -1.586201e-07 9.768173e-08 -1.135738e-07 -1.298416e-07 7.694315e-08 -1.660590e-07 -1.083516e-07 -5.706868e-08 -2.818740e-03 -4.409721e-03 -4.277692e-03 -1.165964e-03 -3.608679e-03 5.208261e-03 -1.757075e-03 5.998432e-03 4.891248e-03 1.720927e-03 7.501529e-04 -5.307185e-03 6.137643e-03
<VARIANCE> 25
 2.670229e+01 2.794268e+01 3.749357e+01 3.307458e+01 5.256620e+01 4.928031e+01 4.561778e+01 4.954230e+01 4.604616e+01 3.096663e+01 2.869331e+01 1.969207e+01 8.024186e-01 8.637462e-01 9.762594e-01 1.208383e+00 1.860729e+00 1.938551e+00 2.342637e+00 2.054597e+00 2.126093e+00 1.768907e+00 1.840738e+00 1.505519e+00 1.027859e+00
<GCONST> 9.389128e+01
<TRANSP> 5
 0.000000e+00 1.000000e+00 0.000000e+00 0.000000e+00 0.000000e+00
 0.000000e+00 6.000000e-01 4.000000e-01 0.000000e+00 0.000000e+00
 0.000000e+00 0.000000e+00 6.000000e-01 4.000000e-01 0.000000e+00
 0.000000e+00 0.000000e+00 0.000000e+00 7.000000e-01 3.000000e-01
 0.000000e+00 0.000000e+00 0.000000e+00 0.000000e+00 0.000000e+00
<ENDHMM>
~h "b"
<BEGINHMM>
<NUMSTATES> 5
<STATE> 2
<MEAN> 25
 2.711044e-07 2.276736e-08 -6.105108e-08 -1.720701e-07 -1.586201e-07 9.768173e-08 -1.135738e-07 -1.298416e-07 7.694315e-08 -1.660590e-07 -1.083516e-07 -5.706868e-08 -2.818740e-03 -4.409721e-03 -4.277692e-03 -1.165964e-03 -3.608679e-03 5.208261e-03 -1.757075e-03 5.998432e-03 4.891248e-03 1.720927e-03 7.501529e-04 -5.307185e-03 6.137643e-03
<VARIANCE> 25
 2.670229e+01 2.794268e+01 3.749357e+01 3.307458e+01 5.256620e+01 4.928031e+01 4.561778e+01 4.954230e+01 4.604616e+01 3.096663e+01 2.869331e+01 1.969207e+01 8.024186e-01 8.637462e-01 9.762594e-01 1.208383e+00 1.860729e+00 1.938551e+00 2.342637e+00 2.054597e+00 2.126093e+00 1.768907e+00 1.840738e+00 1.505519e+00 1.027859e+00
<GCONST> 9.389128e+01
<STATE> 3
<MEAN> 25
 2.711044e-07 2.276736e-08 -6.105108e-08 -1.720701e-07 -1.586201e-07 9.768173e-08 -1.135738e-07 -1.298416e-07 7.694315e-08 -1.660590e-07 -1.083516e-07 -5.706868e-08 -2.818740e-03 -4.409721e-03 -4.277692e-03 -1.165964e-03 -3.608679e-03 5.208261e-03 -1.757075e-03 5.998432e-03 4.891248e-03 1.720927e-03 7.501529e-04 -5.307185e-03 6.137643e-03
<VARIANCE> 25
 2.670229e+01 2.794268e+01 3.749357e+01 3.307458e+01 5.256620e+01 4.928031e+01 4.561778e+01 4.954230e+01 4.604616e+01 3.096663e+01 2.869331e+01 1.969207e+01 8.024186e-01 8.637462e-01 9.762594e-01 1.208383e+00 1.860729e+00 1.938551e+00 2.342637e+00 2.054597e+00 2.126093e+00 1.768907e+00 1.840738e+00 1.505519e+00 1.027859e+00
<GCONST> 9.389128e+01
<STATE> 4
<MEAN> 25
 2.711044e-07 2.276736e-08 -6.105108e-08 -1.720701e-07 -1.586201e-07 9.768173e-08 -1.135738e-07 -1.298416e-07 7.694315e-08 -1.660590e-07 -1.083516e-07 -5.706868e-08 -2.818740e-03 -4.409721e-03 -4.277692e-03 -1.165964e-03 -3.608679e-03 5.208261e-03 -1.757075e-03 5.998432e-03 4.891248e-03 1.720927e-03 7.501529e-04 -5.307185e-03 6.137643e-03
<VARIANCE> 25
 2.670229e+01 2.794268e+01 3.749357e+01 3.307458e+01 5.256620e+01 4.928031e+01 4.561778e+01 4.954230e+01 4.604616e+01 3.096663e+01 2.869331e+01 1.969207e+01 8.024186e-01 8.637462e-01 9.762594e-01 1.208383e+00 1.860729e+00 1.938551e+00 2.342637e+00 2.054597e+00 2.126093e+00 1.768907e+00 1.840738e+00 1.505519e+00 1.027859e+00
<GCONST> 9.389128e+01
<TRANSP> 5
 0.000000e+00 1.000000e+00 0.000000e+00 0.000000e+00 0.000000e+00
 0.000000e+00 6.000000e-01 4.000000e-01 0.000000e+00 0.000000e+00
 0.000000e+00 0.000000e+00 6.000000e-01 4.000000e-01 0.000000e+00
 0.000000e+00 0.000000e+00 0.000000e+00 7.000000e-01 3.000000e-01
 0.000000e+00 0.000000e+00 0.000000e+00 0.000000e+00 0.000000e+00
<ENDHMM>
~h "k"
<BEGINHMM>
<NUMSTATES> 5
<STATE> 2
<MEAN> 25
 2.711044e-07 2.276736e-08 -6.105108e-08 -1.720701e-07 -1.586201e-07 9.768173e-08 -1.135738e-07 -1.298416e-07 7.694315e-08 -1.660590e-07 -1.083516e-07 -5.706868e-08 -2.818740e-03 -4.409721e-03 -4.277692e-03 -1.165964e-03 -3.608679e-03 5.208261e-03 -1.757075e-03 5.998432e-03 4.891248e-03 1.720927e-03 7.501529e-04 -5.307185e-03 6.137643e-03
<VARIANCE> 25
 2.670229e+01 2.794268e+01 3.749357e+01 3.307458e+01 5.256620e+01 4.928031e+01 4.561778e+01 4.954230e+01 4.604616e+01 3.096663e+01 2.869331e+01 1.969207e+01 8.024186e-01 8.637462e-01 9.762594e-01 1.208383e+00 1.860729e+00 1.938551e+00 2.342637e+00 2.054597e+00 2.126093e+00 1.768907e+00 1.840738e+00 1.505519e+00 1.027859e+00
<GCONST> 9.389128e+01
<STATE> 3
<MEAN> 25
 2.711044e-07 2.276736e-08 -6.105108e-08 -1.720701e-07 -1.586201e-07 9.768173e-08 -1.135738e-07 -1.298416e-07 7.694315e-08 -1.660590e-07 -1.083516e-07 -5.706868e-08 -2.818740e-03 -4.409721e-03 -4.277692e-03 -1.165964e-03 -3.608679e-03 5.208261e-03 -1.757075e-03 5.998432e-03 4.891248e-03 1.720927e-03 7.501529e-04 -5.307185e-03 6.137643e-03
<VARIANCE> 25
 2.670229e+01 2.794268e+01 3.749357e+01 3.307458e+01 5.256620e+01 4.928031e+01 4.561778e+01 4.954230e+01 4.604616e+01 3.096663e+01 2.869331e+01 1.969207e+01 8.024186e-01 8.637462e-01 9.762594e-01 1.208383e+00 1.860729e+00 1.938551e+00 2.342637e+00 2.054597e+00 2.126093e+00 1.768907e+00 1.840738e+00 1.505519e+00 1.027859e+00
<GCONST> 9.389128e+01
<STATE> 4
<MEAN> 25
 2.711044e-07 2.276736e-08 -6.105108e-08 -1.720701e-07 -1.586201e-07 9.768173e-08 -1.135738e-07 -1.298416e-07 7.694315e-08 -1.660590e-07 -1.083516e-07 -5.706868e-08 -2.818740e-03 -4.409721e-03 -4.277692e-03 -1.165964e-03 -3.608679e-03 5.208261e-03 -1.757075e-03 5.998432e-03 4.891248e-03 1.720927e-03 7.501529e-04 -5.307185e-03 6.137643e-03
<VARIANCE> 25
 2.670229e+01 2.794268e+01 3.749357e+01 3.307458e+01 5.256620e+01 4.928031e+01 4.561778e+01 4.954230e+01 4.604616e+01 3.096663e+01 2.869331e+01 1.969207e+01 8.024186e-01 8.637462e-01 9.762594e-01 1.208383e+00 1.860729e+00 1.938551e+00 2.342637e+00 2.054597e+00 2.126093e+00 1.768907e+00 1.840738e+00 1.505519e+00 1.027859e+00
<GCONST> 9.389128e+01
<TRANSP> 5
 0.000000e+00 1.000000e+00 0.000000e+00 0.000000e+00 0.000000e+00
 0.000000e+00 6.000000e-01 4.000000e-01 0.000000e+00 0.000000e+00
 0.000000e+00 0.000000e+00 6.000000e-01 4.000000e-01 0.000000e+00
 0.000000e+00 0.000000e+00 0.000000e+00 7.000000e-01 3.000000e-01
 0.000000e+00 0.000000e+00 0.000000e+00 0.000000e+00 0.000000e+00
<ENDHMM>
~h "d"
<BEGINHMM>
<NUMSTATES> 5
<STATE> 2
<MEAN> 25
 2.711044e-07 2.276736e-08 -6.105108e-08 -1.720701e-07 -1.586201e-07 9.768173e-08 -1.135738e-07 -1.298416e-07 7.694315e-08 -1.660590e-07 -1.083516e-07 -5.706868e-08 -2.818740e-03 -4.409721e-03 -4.277692e-03 -1.165964e-03 -3.608679e-03 5.208261e-03 -1.757075e-03 5.998432e-03 4.891248e-03 1.720927e-03 7.501529e-04 -5.307185e-03 6.137643e-03
<VARIANCE> 25
 2.670229e+01 2.794268e+01 3.749357e+01 3.307458e+01 5.256620e+01 4.928031e+01 4.561778e+01 4.954230e+01 4.604616e+01 3.096663e+01 2.869331e+01 1.969207e+01 8.024186e-01 8.637462e-01 9.762594e-01 1.208383e+00 1.860729e+00 1.938551e+00 2.342637e+00 2.054597e+00 2.126093e+00 1.768907e+00 1.840738e+00 1.505519e+00 1.027859e+00
<GCONST> 9.389128e+01
<STATE> 3
<MEAN> 25
 2.711044e-07 2.276736e-08 -6.105108e-08 -1.720701e-07 -1.586201e-07 9.768173e-08 -1.135738e-07 -1.298416e-07 7.694315e-08 -1.660590e-07 -1.083516e-07 -5.706868e-08 -2.818740e-03 -4.409721e-03 -4.277692e-03 -1.165964e-03 -3.608679e-03 5.208261e-03 -1.757075e-03 5.998432e-03 4.891248e-03 1.720927e-03 7.501529e-04 -5.307185e-03 6.137643e-03
<VARIANCE> 25
 2.670229e+01 2.794268e+01 3.749357e+01 3.307458e+01 5.256620e+01 4.928031e+01 4.561778e+01 4.954230e+01 4.604616e+01 3.096663e+01 2.869331e+01 1.969207e+01 8.024186e-01 8.637462e-01 9.762594e-01 1.208383e+00 1.860729e+00 1.938551e+00 2.342637e+00 2.054597e+00 2.126093e+00 1.768907e+00 1.840738e+00 1.505519e+00 1.027859e+00
<GCONST> 9.389128e+01
<STATE> 4
<MEAN> 25
 2.711044e-07 2.276736e-08 -6.105108e-08 -1.720701e-07 -1.586201e-07 9.768173e-08 -1.135738e-07 -1.298416e-07 7.694315e-08 -1.660590e-07 -1.083516e-07 -5.706868e-08 -2.818740e-03 -4.409721e-03 -4.277692e-03 -1.165964e-03 -3.608679e-03 5.208261e-03 -1.757075e-03 5.998432e-03 4.891248e-03 1.720927e-03 7.501529e-04 -5.307185e-03 6.137643e-03
<VARIANCE> 25
 2.670229e+01 2.794268e+01 3.749357e+01 3.307458e+01 5.256620e+01 4.928031e+01 4.561778e+01 4.954230e+01 4.604616e+01 3.096663e+01 2.869331e+01 1.969207e+01 8.024186e-01 8.637462e-01 9.762594e-01 1.208383e+00 1.860729e+00 1.938551e+00 2.342637e+00 2.054597e+00 2.126093e+00 1.768907e+00 1.840738e+00 1.505519e+00 1.027859e+00
<GCONST> 9.389128e+01
<TRANSP> 5
 0.000000e+00 1.000000e+00 0.000000e+00 0.000000e+00 0.000000e+00
 0.000000e+00 6.000000e-01 4.000000e-01 0.000000e+00 0.000000e+00
 0.000000e+00 0.000000e+00 6.000000e-01 4.000000e-01 0.000000e+00
 0.000000e+00 0.000000e+00 0.000000e+00 7.000000e-01 3.000000e-01
 0.000000e+00 0.000000e+00 0.000000e+00 0.000000e+00 0.000000e+00
<ENDHMM>
~h "f"
<BEGINHMM>
<NUMSTATES> 5
<STATE> 2
<MEAN> 25
 2.711044e-07 2.276736e-08 -6.105108e-08 -1.720701e-07 -1.586201e-07 9.768173e-08 -1.135738e-07 -1.298416e-07 7.694315e-08 -1.660590e-07 -1.083516e-07 -5.706868e-08 -2.818740e-03 -4.409721e-03 -4.277692e-03 -1.165964e-03 -3.608679e-03 5.208261e-03 -1.757075e-03 5.998432e-03 4.891248e-03 1.720927e-03 7.501529e-04 -5.307185e-03 6.137643e-03
<VARIANCE> 25
 2.670229e+01 2.794268e+01 3.749357e+01 3.307458e+01 5.256620e+01 4.928031e+01 4.561778e+01 4.954230e+01 4.604616e+01 3.096663e+01 2.869331e+01 1.969207e+01 8.024186e-01 8.637462e-01 9.762594e-01 1.208383e+00 1.860729e+00 1.938551e+00 2.342637e+00 2.054597e+00 2.126093e+00 1.768907e+00 1.840738e+00 1.505519e+00 1.027859e+00
<GCONST> 9.389128e+01
<STATE> 3
<MEAN> 25
 2.711044e-07 2.276736e-08 -6.105108e-08 -1.720701e-07 -1.586201e-07 9.768173e-08 -1.135738e-07 -1.298416e-07 7.694315e-08 -1.660590e-07 -1.083516e-07 -5.706868e-08 -2.818740e-03 -4.409721e-03 -4.277692e-03 -1.165964e-03 -3.608679e-03 5.208261e-03 -1.757075e-03 5.998432e-03 4.891248e-03 1.720927e-03 7.501529e-04 -5.307185e-03 6.137643e-03
<VARIANCE> 25
 2.670229e+01 2.794268e+01 3.749357e+01 3.307458e+01 5.256620e+01 4.928031e+01 4.561778e+01 4.954230e+01 4.604616e+01 3.096663e+01 2.869331e+01 1.969207e+01 8.024186e-01 8.637462e-01 9.762594e-01 1.208383e+00 1.860729e+00 1.938551e+00 2.342637e+00 2.054597e+00 2.126093e+00 1.768907e+00 1.840738e+00 1.505519e+00 1.027859e+00
<GCONST> 9.389128e+01
<STATE> 4
<MEAN> 25
 2.711044e-07 2.276736e-08 -6.105108e-08 -1.720701e-07 -1.586201e-07 9.768173e-08 -1.135738e-07 -1.298416e-07 7.694315e-08 -1.660590e-07 -1.083516e-07 -5.706868e-08 -2.818740e-03 -4.409721e-03 -4.277692e-03 -1.165964e-03 -3.608679e-03 5.208261e-03 -1.757075e-03 5.998432e-03 4.891248e-03 1.720927e-03 7.501529e-04 -5.307185e-03 6.137643e-03
<VARIANCE> 25
 2.670229e+01 2.794268e+01 3.749357e+01 3.307458e+01 5.256620e+01 4.928031e+01 4.561778e+01 4.954230e+01 4.604616e+01 3.096663e+01 2.869331e+01 1.969207e+01 8.024186e-01 8.637462e-01 9.762594e-01 1.208383e+00 1.860729e+00 1.938551e+00 2.342637e+00 2.054597e+00 2.126093e+00 1.768907e+00 1.840738e+00 1.505519e+00 1.027859e+00
<GCONST> 9.389128e+01
<TRANSP> 5
 0.000000e+00 1.000000e+00 0.000000e+00 0.000000e+00 0.000000e+00
 0.000000e+00 6.000000e-01 4.000000e-01 0.000000e+00 0.000000e+00
 0.000000e+00 0.000000e+00 6.000000e-01 4.000000e-01 0.000000e+00
 0.000000e+00 0.000000e+00 0.000000e+00 7.000000e-01 3.000000e-01
 0.000000e+00 0.000000e+00 0.000000e+00 0.000000e+00 0.000000e+00
<ENDHMM>
~h "t"
<BEGINHMM>
<NUMSTATES> 5
<STATE> 2
<MEAN> 25
 2.711044e-07 2.276736e-08 -6.105108e-08 -1.720701e-07 -1.586201e-07 9.768173e-08 -1.135738e-07 -1.298416e-07 7.694315e-08 -1.660590e-07 -1.083516e-07 -5.706868e-08 -2.818740e-03 -4.409721e-03 -4.277692e-03 -1.165964e-03 -3.608679e-03 5.208261e-03 -1.757075e-03 5.998432e-03 4.891248e-03 1.720927e-03 7.501529e-04 -5.307185e-03 6.137643e-03
<VARIANCE> 25
 2.670229e+01 2.794268e+01 3.749357e+01 3.307458e+01 5.256620e+01 4.928031e+01 4.561778e+01 4.954230e+01 4.604616e+01 3.096663e+01 2.869331e+01 1.969207e+01 8.024186e-01 8.637462e-01 9.762594e-01 1.208383e+00 1.860729e+00 1.938551e+00 2.342637e+00 2.054597e+00 2.126093e+00 1.768907e+00 1.840738e+00 1.505519e+00 1.027859e+00
<GCONST> 9.389128e+01
<STATE> 3
<MEAN> 25
 2.711044e-07 2.276736e-08 -6.105108e-08 -1.720701e-07 -1.586201e-07 9.768173e-08 -1.135738e-07 -1.298416e-07 7.694315e-08 -1.660590e-07 -1.083516e-07 -5.706868e-08 -2.818740e-03 -4.409721e-03 -4.277692e-03 -1.165964e-03 -3.608679e-03 5.208261e-03 -1.757075e-03 5.998432e-03 4.891248e-03 1.720927e-03 7.501529e-04 -5.307185e-03 6.137643e-03
<VARIANCE> 25
 2.670229e+01 2.794268e+01 3.749357e+01 3.307458e+01 5.256620e+01 4.928031e+01 4.561778e+01 4.954230e+01 4.604616e+01 3.096663e+01 2.869331e+01 1.969207e+01 8.024186e-01 8.637462e-01 9.762594e-01 1.208383e+00 1.860729e+00 1.938551e+00 2.342637e+00 2.054597e+00 2.126093e+00 1.768907e+00 1.840738e+00 1.505519e+00 1.027859e+00
<GCONST> 9.389128e+01
<STATE> 4
<MEAN> 25
 2.711044e-07 2.276736e-08 -6.105108e-08 -1.720701e-07 -1.586201e-07 9.768173e-08 -1.135738e-07 -1.298416e-07 7.694315e-08 -1.660590e-07 -1.083516e-07 -5.706868e-08 -2.818740e-03 -4.409721e-03 -4.277692e-03 -1.165964e-03 -3.608679e-03 5.208261e-03 -1.757075e-03 5.998432e-03 4.891248e-03 1.720927e-03 7.501529e-04 -5.307185e-03 6.137643e-03
<VARIANCE> 25
 2.670229e+01 2.794268e+01 3.749357e+01 3.307458e+01 5.256620e+01 4.928031e+01 4.561778e+01 4.954230e+01 4.604616e+01 3.096663e+01 2.869331e+01 1.969207e+01 8.024186e-01 8.637462e-01 9.762594e-01 1.208383e+00 1.860729e+00 1.938551e+00 2.342637e+00 2.054597e+00 2.126093e+00 1.768907e+00 1.840738e+00 1.505519e+00 1.027859e+00
<GCONST> 9.389128e+01
<TRANSP> 5
 0.000000e+00 1.000000e+00 0.000000e+00 0.000000e+00 0.000000e+00
 0.000000e+00 6.000000e-01 4.000000e-01 0.000000e+00 0.000000e+00
 0.000000e+00 0.000000e+00 6.000000e-01 4.000000e-01 0.000000e+00
 0.000000e+00 0.000000e+00 0.000000e+00 7.000000e-01 3.000000e-01
 0.000000e+00 0.000000e+00 0.000000e+00 0.000000e+00 0.000000e+00
<ENDHMM>
~h "r"
<BEGINHMM>
<NUMSTATES> 5
<STATE> 2
<MEAN> 25
 2.711044e-07 2.276736e-08 -6.105108e-08 -1.720701e-07 -1.586201e-07 9.768173e-08 -1.135738e-07 -1.298416e-07 7.694315e-08 -1.660590e-07 -1.083516e-07 -5.706868e-08 -2.818740e-03 -4.409721e-03 -4.277692e-03 -1.165964e-03 -3.608679e-03 5.208261e-03 -1.757075e-03 5.998432e-03 4.891248e-03 1.720927e-03 7.501529e-04 -5.307185e-03 6.137643e-03
<VARIANCE> 25
 2.670229e+01 2.794268e+01 3.749357e+01 3.307458e+01 5.256620e+01 4.928031e+01 4.561778e+01 4.954230e+01 4.604616e+01 3.096663e+01 2.869331e+01 1.969207e+01 8.024186e-01 8.637462e-01 9.762594e-01 1.208383e+00 1.860729e+00 1.938551e+00 2.342637e+00 2.054597e+00 2.126093e+00 1.768907e+00 1.840738e+00 1.505519e+00 1.027859e+00
<GCONST> 9.389128e+01
<STATE> 3
<MEAN> 25
 2.711044e-07 2.276736e-08 -6.105108e-08 -1.720701e-07 -1.586201e-07 9.768173e-08 -1.135738e-07 -1.298416e-07 7.694315e-08 -1.660590e-07 -1.083516e-07 -5.706868e-08 -2.818740e-03 -4.409721e-03 -4.277692e-03 -1.165964e-03 -3.608679e-03 5.208261e-03 -1.757075e-03 5.998432e-03 4.891248e-03 1.720927e-03 7.501529e-04 -5.307185e-03 6.137643e-03
<VARIANCE> 25
 2.670229e+01 2.794268e+01 3.749357e+01 3.307458e+01 5.256620e+01 4.928031e+01 4.561778e+01 4.954230e+01 4.604616e+01 3.096663e+01 2.869331e+01 1.969207e+01 8.024186e-01 8.637462e-01 9.762594e-01 1.208383e+00 1.860729e+00 1.938551e+00 2.342637e+00 2.054597e+00 2.126093e+00 1.768907e+00 1.840738e+00 1.505519e+00 1.027859e+00
<GCONST> 9.389128e+01
<STATE> 4
<MEAN> 25
 2.711044e-07 2.276736e-08 -6.105108e-08 -1.720701e-07 -1.586201e-07 9.768173e-08 -1.135738e-07 -1.298416e-07 7.694315e-08 -1.660590e-07 -1.083516e-07 -5.706868e-08 -2.818740e-03 -4.409721e-03 -4.277692e-03 -1.165964e-03 -3.608679e-03 5.208261e-03 -1.757075e-03 5.998432e-03 4.891248e-03 1.720927e-03 7.501529e-04 -5.307185e-03 6.137643e-03
<VARIANCE> 25
 2.670229e+01 2.794268e+01 3.749357e+01 3.307458e+01 5.256620e+01 4.928031e+01 4.561778e+01 4.954230e+01 4.604616e+01 3.096663e+01 2.869331e+01 1.969207e+01 8.024186e-01 8.637462e-01 9.762594e-01 1.208383e+00 1.860729e+00 1.938551e+00 2.342637e+00 2.054597e+00 2.126093e+00 1.768907e+00 1.840738e+00 1.505519e+00 1.027859e+00
<GCONST> 9.389128e+01
<TRANSP> 5
 0.000000e+00 1.000000e+00 0.000000e+00 0.000000e+00 0.000000e+00
 0.000000e+00 6.000000e-01 4.000000e-01 0.000000e+00 0.000000e+00
 0.000000e+00 0.000000e+00 6.000000e-01 4.000000e-01 0.000000e+00
 0.000000e+00 0.000000e+00 0.000000e+00 7.000000e-01 3.000000e-01
 0.000000e+00 0.000000e+00 0.000000e+00 0.000000e+00 0.000000e+00
<ENDHMM>
~h "i"
<BEGINHMM>
<NUMSTATES> 5
<STATE> 2
<MEAN> 25
 2.711044e-07 2.276736e-08 -6.105108e-08 -1.720701e-07 -1.586201e-07 9.768173e-08 -1.135738e-07 -1.298416e-07 7.694315e-08 -1.660590e-07 -1.083516e-07 -5.706868e-08 -2.818740e-03 -4.409721e-03 -4.277692e-03 -1.165964e-03 -3.608679e-03 5.208261e-03 -1.757075e-03 5.998432e-03 4.891248e-03 1.720927e-03 7.501529e-04 -5.307185e-03 6.137643e-03
<VARIANCE> 25
 2.670229e+01 2.794268e+01 3.749357e+01 3.307458e+01 5.256620e+01 4.928031e+01 4.561778e+01 4.954230e+01 4.604616e+01 3.096663e+01 2.869331e+01 1.969207e+01 8.024186e-01 8.637462e-01 9.762594e-01 1.208383e+00 1.860729e+00 1.938551e+00 2.342637e+00 2.054597e+00 2.126093e+00 1.768907e+00 1.840738e+00 1.505519e+00 1.027859e+00
<GCONST> 9.389128e+01
<STATE> 3
<MEAN> 25
 2.711044e-07 2.276736e-08 -6.105108e-08 -1.720701e-07 -1.586201e-07 9.768173e-08 -1.135738e-07 -1.298416e-07 7.694315e-08 -1.660590e-07 -1.083516e-07 -5.706868e-08 -2.818740e-03 -4.409721e-03 -4.277692e-03 -1.165964e-03 -3.608679e-03 5.208261e-03 -1.757075e-03 5.998432e-03 4.891248e-03 1.720927e-03 7.501529e-04 -5.307185e-03 6.137643e-03
<VARIANCE> 25
 2.670229e+01 2.794268e+01 3.749357e+01 3.307458e+01 5.256620e+01 4.928031e+01 4.561778e+01 4.954230e+01 4.604616e+01 3.096663e+01 2.869331e+01 1.969207e+01 8.024186e-01 8.637462e-01 9.762594e-01 1.208383e+00 1.860729e+00 1.938551e+00 2.342637e+00 2.054597e+00 2.126093e+00 1.768907e+00 1.840738e+00 1.505519e+00 1.027859e+00
<GCONST> 9.389128e+01
<STATE> 4
<MEAN> 25
 2.711044e-07 2.276736e-08 -6.105108e-08 -1.720701e-07 -1.586201e-07 9.768173e-08 -1.135738e-07 -1.298416e-07 7.694315e-08 -1.660590e-07 -1.083516e-07 -5.706868e-08 -2.818740e-03 -4.409721e-03 -4.277692e-03 -1.165964e-03 -3.608679e-03 5.208261e-03 -1.757075e-03 5.998432e-03 4.891248e-03 1.720927e-03 7.501529e-04 -5.307185e-03 6.137643e-03
<VARIANCE> 25
 2.670229e+01 2.794268e+01 3.749357e+01 3.307458e+01 5.256620e+01 4.928031e+01 4.561778e+01 4.954230e+01 4.604616e+01 3.096663e+01 2.869331e+01 1.969207e+01 8.024186e-01 8.637462e-01 9.762594e-01 1.208383e+00 1.860729e+00 1.938551e+00 2.342637e+00 2.054597e+00 2.126093e+00 1.768907e+00 1.840738e+00 1.505519e+00 1.027859e+00
<GCONST> 9.389128e+01
<TRANSP> 5
 0.000000e+00 1.000000e+00 0.000000e+00 0.000000e+00 0.000000e+00
 0.000000e+00 6.000000e-01 4.000000e-01 0.000000e+00 0.000000e+00
 0.000000e+00 0.000000e+00 6.000000e-01 4.000000e-01 0.000000e+00
 0.000000e+00 0.000000e+00 0.000000e+00 7.000000e-01 3.000000e-01
 0.000000e+00 0.000000e+00 0.000000e+00 0.000000e+00 0.000000e+00
<ENDHMM>
~h "E"
<BEGINHMM>
<NUMSTATES> 5
<STATE> 2
<MEAN> 25
 2.711044e-07 2.276736e-08 -6.105108e-08 -1.720701e-07 -1.586201e-07 9.768173e-08 -1.135738e-07 -1.298416e-07 7.694315e-08 -1.660590e-07 -1.083516e-07 -5.706868e-08 -2.818740e-03 -4.409721e-03 -4.277692e-03 -1.165964e-03 -3.608679e-03 5.208261e-03 -1.757075e-03 5.998432e-03 4.891248e-03 1.720927e-03 7.501529e-04 -5.307185e-03 6.137643e-03
<VARIANCE> 25
 2.670229e+01 2.794268e+01 3.749357e+01 3.307458e+01 5.256620e+01 4.928031e+01 4.561778e+01 4.954230e+01 4.604616e+01 3.096663e+01 2.869331e+01 1.969207e+01 8.024186e-01 8.637462e-01 9.762594e-01 1.208383e+00 1.860729e+00 1.938551e+00 2.342637e+00 2.054597e+00 2.126093e+00 1.768907e+00 1.840738e+00 1.505519e+00 1.027859e+00
<GCONST> 9.389128e+01
<STATE> 3
<MEAN> 25
 2.711044e-07 2.276736e-08 -6.105108e-08 -1.720701e-07 -1.586201e-07 9.768173e-08 -1.135738e-07 -1.298416e-07 7.694315e-08 -1.660590e-07 -1.083516e-07 -5.706868e-08 -2.818740e-03 -4.409721e-03 -4.277692e-03 -1.165964e-03 -3.608679e-03 5.208261e-03 -1.757075e-03 5.998432e-03 4.891248e-03 1.720927e-03 7.501529e-04 -5.307185e-03 6.137643e-03
<VARIANCE> 25
 2.670229e+01 2.794268e+01 3.749357e+01 3.307458e+01 5.256620e+01 4.928031e+01 4.561778e+01 4.954230e+01 4.604616e+01 3.096663e+01 2.869331e+01 1.969207e+01 8.024186e-01 8.637462e-01 9.762594e-01 1.208383e+00 1.860729e+00 1.938551e+00 2.342637e+00 2.054597e+00 2.126093e+00 1.768907e+00 1.840738e+00 1.505519e+00 1.027859e+00
<GCONST> 9.389128e+01
<STATE> 4
<MEAN> 25
 2.711044e-07 2.276736e-08 -6.105108e-08 -1.720701e-07 -1.586201e-07 9.768173e-08 -1.135738e-07 -1.298416e-07 7.694315e-08 -1.660590e-07 -1.083516e-07 -5.706868e-08 -2.818740e-03 -4.409721e-03 -4.277692e-03 -1.165964e-03 -3.608679e-03 5.208261e-03 -1.757075e-03 5.998432e-03 4.891248e-03 1.720927e-03 7.501529e-04 -5.307185e-03 6.137643e-03
<VARIANCE> 25
 2.670229e+01 2.794268e+01 3.749357e+01 3.307458e+01 5.256620e+01 4.928031e+01 4.561778e+01 4.954230e+01 4.604616e+01 3.096663e+01 2.869331e+01 1.969207e+01 8.024186e-01 8.637462e-01 9.762594e-01 1.208383e+00 1.860729e+00 1.938551e+00 2.342637e+00 2.054597e+00 2.126093e+00 1.768907e+00 1.840738e+00 1.505519e+00 1.027859e+00
<GCONST> 9.389128e+01
<TRANSP> 5
 0.000000e+00 1.000000e+00 0.000000e+00 0.000000e+00 0.000000e+00
 0.000000e+00 6.000000e-01 4.000000e-01 0.000000e+00 0.000000e+00
 0.000000e+00 0.000000e+00 6.000000e-01 4.000000e-01 0.000000e+00
 0.000000e+00 0.000000e+00 0.000000e+00 7.000000e-01 3.000000e-01
 0.000000e+00 0.000000e+00 0.000000e+00 0.000000e+00 0.000000e+00
<ENDHMM>
~h "o"
<BEGINHMM>
<NUMSTATES> 5
<STATE> 2
<MEAN> 25
 2.711044e-07 2.276736e-08 -6.105108e-08 -1.720701e-07 -1.586201e-07 9.768173e-08 -1.135738e-07 -1.298416e-07 7.694315e-08 -1.660590e-07 -1.083516e-07 -5.706868e-08 -2.818740e-03 -4.409721e-03 -4.277692e-03 -1.165964e-03 -3.608679e-03 5.208261e-03 -1.757075e-03 5.998432e-03 4.891248e-03 1.720927e-03 7.501529e-04 -5.307185e-03 6.137643e-03
<VARIANCE> 25
 2.670229e+01 2.794268e+01 3.749357e+01 3.307458e+01 5.256620e+01 4.928031e+01 4.561778e+01 4.954230e+01 4.604616e+01 3.096663e+01 2.869331e+01 1.969207e+01 8.024186e-01 8.637462e-01 9.762594e-01 1.208383e+00 1.860729e+00 1.938551e+00 2.342637e+00 2.054597e+00 2.126093e+00 1.768907e+00 1.840738e+00 1.505519e+00 1.027859e+00
<GCONST> 9.389128e+01
<STATE> 3
<MEAN> 25
 2.711044e-07 2.276736e-08 -6.105108e-08 -1.720701e-07 -1.586201e-07 9.768173e-08 -1.135738e-07 -1.298416e-07 7.694315e-08 -1.660590e-07 -1.083516e-07 -5.706868e-08 -2.818740e-03 -4.409721e-03 -4.277692e-03 -1.165964e-03 -3.608679e-03 5.208261e-03 -1.757075e-03 5.998432e-03 4.891248e-03 1.720927e-03 7.501529e-04 -5.307185e-03 6.137643e-03
<VARIANCE> 25
 2.670229e+01 2.794268e+01 3.749357e+01 3.307458e+01 5.256620e+01 4.928031e+01 4.561778e+01 4.954230e+01 4.604616e+01 3.096663e+01 2.869331e+01 1.969207e+01 8.024186e-01 8.637462e-01 9.762594e-01 1.208383e+00 1.860729e+00 1.938551e+00 2.342637e+00 2.054597e+00 2.126093e+00 1.768907e+00 1.840738e+00 1.505519e+00 1.027859e+00
<GCONST> 9.389128e+01
<STATE> 4
<MEAN> 25
 2.711044e-07 2.276736e-08 -6.105108e-08 -1.720701e-07 -1.586201e-07 9.768173e-08 -1.135738e-07 -1.298416e-07 7.694315e-08 -1.660590e-07 -1.083516e-07 -5.706868e-08 -2.818740e-03 -4.409721e-03 -4.277692e-03 -1.165964e-03 -3.608679e-03 5.208261e-03 -1.757075e-03 5.998432e-03 4.891248e-03 1.720927e-03 7.501529e-04 -5.307185e-03 6.137643e-03
<VARIANCE> 25
 2.670229e+01 2.794268e+01 3.749357e+01 3.307458e+01 5.256620e+01 4.928031e+01 4.561778e+01 4.954230e+01 4.604616e+01 3.096663e+01 2.869331e+01 1.969207e+01 8.024186e-01 8.637462e-01 9.762594e-01 1.208383e+00 1.860729e+00 1.938551e+00 2.342637e+00 2.054597e+00 2.126093e+00 1.768907e+00 1.840738e+00 1.505519e+00 1.027859e+00
<GCONST> 9.389128e+01
<TRANSP> 5
 0.000000e+00 1.000000e+00 0.000000e+00 0.000000e+00 0.000000e+00
 0.000000e+00 6.000000e-01 4.000000e-01 0.000000e+00 0.000000e+00
 0.000000e+00 0.000000e+00 6.000000e-01 4.000000e-01 0.000000e+00
 0.000000e+00 0.000000e+00 0.000000e+00 7.000000e-01 3.000000e-01
 0.000000e+00 0.000000e+00 0.000000e+00 0.000000e+00 0.000000e+00
<ENDHMM>
~h "e"
<BEGINHMM>
<NUMSTATES> 5
<STATE> 2
<MEAN> 25
 2.711044e-07 2.276736e-08 -6.105108e-08 -1.720701e-07 -1.586201e-07 9.768173e-08 -1.135738e-07 -1.298416e-07 7.694315e-08 -1.660590e-07 -1.083516e-07 -5.706868e-08 -2.818740e-03 -4.409721e-03 -4.277692e-03 -1.165964e-03 -3.608679e-03 5.208261e-03 -1.757075e-03 5.998432e-03 4.891248e-03 1.720927e-03 7.501529e-04 -5.307185e-03 6.137643e-03
<VARIANCE> 25
 2.670229e+01 2.794268e+01 3.749357e+01 3.307458e+01 5.256620e+01 4.928031e+01 4.561778e+01 4.954230e+01 4.604616e+01 3.096663e+01 2.869331e+01 1.969207e+01 8.024186e-01 8.637462e-01 9.762594e-01 1.208383e+00 1.860729e+00 1.938551e+00 2.342637e+00 2.054597e+00 2.126093e+00 1.768907e+00 1.840738e+00 1.505519e+00 1.027859e+00
<GCONST> 9.389128e+01
<STATE> 3
<MEAN> 25
 2.711044e-07 2.276736e-08 -6.105108e-08 -1.720701e-07 -1.586201e-07 9.768173e-08 -1.135738e-07 -1.298416e-07 7.694315e-08 -1.660590e-07 -1.083516e-07 -5.706868e-08 -2.818740e-03 -4.409721e-03 -4.277692e-03 -1.165964e-03 -3.608679e-03 5.208261e-03 -1.757075e-03 5.998432e-03 4.891248e-03 1.720927e-03 7.501529e-04 -5.307185e-03 6.137643e-03
<VARIANCE> 25
 2.670229e+01 2.794268e+01 3.749357e+01 3.307458e+01 5.256620e+01 4.928031e+01 4.561778e+01 4.954230e+01 4.604616e+01 3.096663e+01 2.869331e+01 1.969207e+01 8.024186e-01 8.637462e-01 9.762594e-01 1.208383e+00 1.860729e+00 1.938551e+00 2.342637e+00 2.054597e+00 2.126093e+00 1.768907e+00 1.840738e+00 1.505519e+00 1.027859e+00
<GCONST> 9.389128e+01
<STATE> 4
<MEAN> 25
 2.711044e-07 2.276736e-08 -6.105108e-08 -1.720701e-07 -1.586201e-07 9.768173e-08 -1.135738e-07 -1.298416e-07 7.694315e-08 -1.660590e-07 -1.083516e-07 -5.706868e-08 -2.818740e-03 -4.409721e-03 -4.277692e-03 -1.165964e-03 -3.608679e-03 5.208261e-03 -1.757075e-03 5.998432e-03 4.891248e-03 1.720927e-03 7.501529e-04 -5.307185e-03 6.137643e-03
<VARIANCE> 25
 2.670229e+01 2.794268e+01 3.749357e+01 3.307458e+01 5.256620e+01 4.928031e+01 4.561778e+01 4.954230e+01 4.604616e+01 3.096663e+01 2.869331e+01 1.969207e+01 8.024186e-01 8.637462e-01 9.762594e-01 1.208383e+00 1.860729e+00 1.938551e+00 2.342637e+00 2.054597e+00 2.126093e+00 1.768907e+00 1.840738e+00 1.505519e+00 1.027859e+00
<GCONST> 9.389128e+01
<TRANSP> 5
 0.000000e+00 1.000000e+00 0.000000e+00 0.000000e+00 0.000000e+00
 0.000000e+00 6.000000e-01 4.000000e-01 0.000000e+00 0.000000e+00
 0.000000e+00 0.000000e+00 6.000000e-01 4.000000e-01 0.000000e+00
 0.000000e+00 0.000000e+00 0.000000e+00 7.000000e-01 3.000000e-01
 0.000000e+00 0.000000e+00 0.000000e+00 0.000000e+00 0.000000e+00
<ENDHMM>
~h "m"
<BEGINHMM>
<NUMSTATES> 5
<STATE> 2
<MEAN> 25
 2.711044e-07 2.276736e-08 -6.105108e-08 -1.720701e-07 -1.586201e-07 9.768173e-08 -1.135738e-07 -1.298416e-07 7.694315e-08 -1.660590e-07 -1.083516e-07 -5.706868e-08 -2.818740e-03 -4.409721e-03 -4.277692e-03 -1.165964e-03 -3.608679e-03 5.208261e-03 -1.757075e-03 5.998432e-03 4.891248e-03 1.720927e-03 7.501529e-04 -5.307185e-03 6.137643e-03
<VARIANCE> 25
 2.670229e+01 2.794268e+01 3.749357e+01 3.307458e+01 5.256620e+01 4.928031e+01 4.561778e+01 4.954230e+01 4.604616e+01 3.096663e+01 2.869331e+01 1.969207e+01 8.024186e-01 8.637462e-01 9.762594e-01 1.208383e+00 1.860729e+00 1.938551e+00 2.342637e+00 2.054597e+00 2.126093e+00 1.768907e+00 1.840738e+00 1.505519e+00 1.027859e+00
<GCONST> 9.389128e+01
<STATE> 3
<MEAN> 25
 2.711044e-07 2.276736e-08 -6.105108e-08 -1.720701e-07 -1.586201e-07 9.768173e-08 -1.135738e-07 -1.298416e-07 7.694315e-08 -1.660590e-07 -1.083516e-07 -5.706868e-08 -2.818740e-03 -4.409721e-03 -4.277692e-03 -1.165964e-03 -3.608679e-03 5.208261e-03 -1.757075e-03 5.998432e-03 4.891248e-03 1.720927e-03 7.501529e-04 -5.307185e-03 6.137643e-03
<VARIANCE> 25
 2.670229e+01 2.794268e+01 3.749357e+01 3.307458e+01 5.256620e+01 4.928031e+01 4.561778e+01 4.954230e+01 4.604616e+01 3.096663e+01 2.869331e+01 1.969207e+01 8.024186e-01 8.637462e-01 9.762594e-01 1.208383e+00 1.860729e+00 1.938551e+00 2.342637e+00 2.054597e+00 2.126093e+00 1.768907e+00 1.840738e+00 1.505519e+00 1.027859e+00
<GCONST> 9.389128e+01
<STATE> 4
<MEAN> 25
 2.711044e-07 2.276736e-08 -6.105108e-08 -1.720701e-07 -1.586201e-07 9.768173e-08 -1.135738e-07 -1.298416e-07 7.694315e-08 -1.660590e-07 -1.083516e-07 -5.706868e-08 -2.818740e-03 -4.409721e-03 -4.277692e-03 -1.165964e-03 -3.608679e-03 5.208261e-03 -1.757075e-03 5.998432e-03 4.891248e-03 1.720927e-03 7.501529e-04 -5.307185e-03 6.137643e-03
<VARIANCE> 25
 2.670229e+01 2.794268e+01 3.749357e+01 3.307458e+01 5.256620e+01 4.928031e+01 4.561778e+01 4.954230e+01 4.604616e+01 3.096663e+01 2.869331e+01 1.969207e+01 8.024186e-01 8.637462e-01 9.762594e-01 1.208383e+00 1.860729e+00 1.938551e+00 2.342637e+00 2.054597e+00 2.126093e+00 1.768907e+00 1.840738e+00 1.505519e+00 1.027859e+00
<GCONST> 9.389128e+01
<TRANSP> 5
 0.000000e+00 1.000000e+00 0.000000e+00 0.000000e+00 0.000000e+00
 0.000000e+00 6.000000e-01 4.000000e-01 0.000000e+00 0.000000e+00
 0.000000e+00 0.000000e+00 6.000000e-01 4.000000e-01 0.000000e+00
 0.000000e+00 0.000000e+00 0.000000e+00 7.000000e-01 3.000000e-01
 0.000000e+00 0.000000e+00 0.000000e+00 0.000000e+00 0.000000e+00
<ENDHMM>
~h "l"
<BEGINHMM>
<NUMSTATES> 5
<STATE> 2
<MEAN> 25
 2.711044e-07 2.276736e-08 -6.105108e-08 -1.720701e-07 -1.586201e-07 9.768173e-08 -1.135738e-07 -1.298416e-07 7.694315e-08 -1.660590e-07 -1.083516e-07 -5.706868e-08 -2.818740e-03 -4.409721e-03 -4.277692e-03 -1.165964e-03 -3.608679e-03 5.208261e-03 -1.757075e-03 5.998432e-03 4.891248e-03 1.720927e-03 7.501529e-04 -5.307185e-03 6.137643e-03
<VARIANCE> 25
 2.670229e+01 2.794268e+01 3.749357e+01 3.307458e+01 5.256620e+01 4.928031e+01 4.561778e+01 4.954230e+01 4.604616e+01 3.096663e+01 2.869331e+01 1.969207e+01 8.024186e-01 8.637462e-01 9.762594e-01 1.208383e+00 1.860729e+00 1.938551e+00 2.342637e+00 2.054597e+00 2.126093e+00 1.768907e+00 1.840738e+00 1.505519e+00 1.027859e+00
<GCONST> 9.389128e+01
<STATE> 3
<MEAN> 25
 2.711044e-07 2.276736e-08 -6.105108e-08 -1.720701e-07 -1.586201e-07 9.768173e-08 -1.135738e-07 -1.298416e-07 7.694315e-08 -1.660590e-07 -1.083516e-07 -5.706868e-08 -2.818740e-03 -4.409721e-03 -4.277692e-03 -1.165964e-03 -3.608679e-03 5.208261e-03 -1.757075e-03 5.998432e-03 4.891248e-03 1.720927e-03 7.501529e-04 -5.307185e-03 6.137643e-03
<VARIANCE> 25
 2.670229e+01 2.794268e+01 3.749357e+01 3.307458e+01 5.256620e+01 4.928031e+01 4.561778e+01 4.954230e+01 4.604616e+01 3.096663e+01 2.869331e+01 1.969207e+01 8.024186e-01 8.637462e-01 9.762594e-01 1.208383e+00 1.860729e+00 1.938551e+00 2.342637e+00 2.054597e+00 2.126093e+00 1.768907e+00 1.840738e+00 1.505519e+00 1.027859e+00
<GCONST> 9.389128e+01
<STATE> 4
<MEAN> 25
 2.711044e-07 2.276736e-08 -6.105108e-08 -1.720701e-07 -1.586201e-07 9.768173e-08 -1.135738e-07 -1.298416e-07 7.694315e-08 -1.660590e-07 -1.083516e-07 -5.706868e-08 -2.818740e-03 -4.409721e-03 -4.277692e-03 -1.165964e-03 -3.608679e-03 5.208261e-03 -1.757075e-03 5.998432e-03 4.891248e-03 1.720927e-03 7.501529e-04 -5.307185e-03 6.137643e-03
<VARIANCE> 25
 2.670229e+01 2.794268e+01 3.749357e+01 3.307458e+01 5.256620e+01 4.928031e+01 4.561778e+01 4.954230e+01 4.604616e+01 3.096663e+01 2.869331e+01 1.969207e+01 8.024186e-01 8.637462e-01 9.762594e-01 1.208383e+00 1.860729e+00 1.938551e+00 2.342637e+00 2.054597e+00 2.126093e+00 1.768907e+00 1.840738e+00 1.505519e+00 1.027859e+00
<GCONST> 9.389128e+01
<TRANSP> 5
 0.000000e+00 1.000000e+00 0.000000e+00 0.000000e+00 0.000000e+00
 0.000000e+00 6.000000e-01 4.000000e-01 0.000000e+00 0.000000e+00
 0.000000e+00 0.000000e+00 6.000000e-01 4.000000e-01 0.000000e+00
 0.000000e+00 0.000000e+00 0.000000e+00 7.000000e-01 3.000000e-01
 0.000000e+00 0.000000e+00 0.000000e+00 0.000000e+00 0.000000e+00
<ENDHMM>
~h "p"
<BEGINHMM>
<NUMSTATES> 5
<STATE> 2
<MEAN> 25
 2.711044e-07 2.276736e-08 -6.105108e-08 -1.720701e-07 -1.586201e-07 9.768173e-08 -1.135738e-07 -1.298416e-07 7.694315e-08 -1.660590e-07 -1.083516e-07 -5.706868e-08 -2.818740e-03 -4.409721e-03 -4.277692e-03 -1.165964e-03 -3.608679e-03 5.208261e-03 -1.757075e-03 5.998432e-03 4.891248e-03 1.720927e-03 7.501529e-04 -5.307185e-03 6.137643e-03
<VARIANCE> 25
 2.670229e+01 2.794268e+01 3.749357e+01 3.307458e+01 5.256620e+01 4.928031e+01 4.561778e+01 4.954230e+01 4.604616e+01 3.096663e+01 2.869331e+01 1.969207e+01 8.024186e-01 8.637462e-01 9.762594e-01 1.208383e+00 1.860729e+00 1.938551e+00 2.342637e+00 2.054597e+00 2.126093e+00 1.768907e+00 1.840738e+00 1.505519e+00 1.027859e+00
<GCONST> 9.389128e+01
<STATE> 3
<MEAN> 25
 2.711044e-07 2.276736e-08 -6.105108e-08 -1.720701e-07 -1.586201e-07 9.768173e-08 -1.135738e-07 -1.298416e-07 7.694315e-08 -1.660590e-07 -1.083516e-07 -5.706868e-08 -2.818740e-03 -4.409721e-03 -4.277692e-03 -1.165964e-03 -3.608679e-03 5.208261e-03 -1.757075e-03 5.998432e-03 4.891248e-03 1.720927e-03 7.501529e-04 -5.307185e-03 6.137643e-03
<VARIANCE> 25
 2.670229e+01 2.794268e+01 3.749357e+01 3.307458e+01 5.256620e+01 4.928031e+01 4.561778e+01 4.954230e+01 4.604616e+01 3.096663e+01 2.869331e+01 1.969207e+01 8.024186e-01 8.637462e-01 9.762594e-01 1.208383e+00 1.860729e+00 1.938551e+00 2.342637e+00 2.054597e+00 2.126093e+00 1.768907e+00 1.840738e+00 1.505519e+00 1.027859e+00
<GCONST> 9.389128e+01
<STATE> 4
<MEAN> 25
 2.711044e-07 2.276736e-08 -6.105108e-08 -1.720701e-07 -1.586201e-07 9.768173e-08 -1.135738e-07 -1.298416e-07 7.694315e-08 -1.660590e-07 -1.083516e-07 -5.706868e-08 -2.818740e-03 -4.409721e-03 -4.277692e-03 -1.165964e-03 -3.608679e-03 5.208261e-03 -1.757075e-03 5.998432e-03 4.891248e-03 1.720927e-03 7.501529e-04 -5.307185e-03 6.137643e-03
<VARIANCE> 25
 2.670229e+01 2.794268e+01 3.749357e+01 3.307458e+01 5.256620e+01 4.928031e+01 4.561778e+01 4.954230e+01 4.604616e+01 3.096663e+01 2.869331e+01 1.969207e+01 8.024186e-01 8.637462e-01 9.762594e-01 1.208383e+00 1.860729e+00 1.938551e+00 2.342637e+00 2.054597e+00 2.126093e+00 1.768907e+00 1.840738e+00 1.505519e+00 1.027859e+00
<GCONST> 9.389128e+01
<TRANSP> 5
 0.000000e+00 1.000000e+00 0.000000e+00 0.000000e+00 0.000000e+00
 0.000000e+00 6.000000e-01 4.000000e-01 0.000000e+00 0.000000e+00
 0.000000e+00 0.000000e+00 6.000000e-01 4.000000e-01 0.000000e+00
 0.000000e+00 0.000000e+00 0.000000e+00 7.000000e-01 3.000000e-01
 0.000000e+00 0.000000e+00 0.000000e+00 0.000000e+00 0.000000e+00
<ENDHMM>
~h "ng"
<BEGINHMM>
<NUMSTATES> 5
<STATE> 2
<MEAN> 25
 2.711044e-07 2.276736e-08 -6.105108e-08 -1.720701e-07 -1.586201e-07 9.768173e-08 -1.135738e-07 -1.298416e-07 7.694315e-08 -1.660590e-07 -1.083516e-07 -5.706868e-08 -2.818740e-03 -4.409721e-03 -4.277692e-03 -1.165964e-03 -3.608679e-03 5.208261e-03 -1.757075e-03 5.998432e-03 4.891248e-03 1.720927e-03 7.501529e-04 -5.307185e-03 6.137643e-03
<VARIANCE> 25
 2.670229e+01 2.794268e+01 3.749357e+01 3.307458e+01 5.256620e+01 4.928031e+01 4.561778e+01 4.954230e+01 4.604616e+01 3.096663e+01 2.869331e+01 1.969207e+01 8.024186e-01 8.637462e-01 9.762594e-01 1.208383e+00 1.860729e+00 1.938551e+00 2.342637e+00 2.054597e+00 2.126093e+00 1.768907e+00 1.840738e+00 1.505519e+00 1.027859e+00
<GCONST> 9.389128e+01
<STATE> 3
<MEAN> 25
 2.711044e-07 2.276736e-08 -6.105108e-08 -1.720701e-07 -1.586201e-07 9.768173e-08 -1.135738e-07 -1.298416e-07 7.694315e-08 -1.660590e-07 -1.083516e-07 -5.706868e-08 -2.818740e-03 -4.409721e-03 -4.277692e-03 -1.165964e-03 -3.608679e-03 5.208261e-03 -1.757075e-03 5.998432e-03 4.891248e-03 1.720927e-03 7.501529e-04 -5.307185e-03 6.137643e-03
<VARIANCE> 25
 2.670229e+01 2.794268e+01 3.749357e+01 3.307458e+01 5.256620e+01 4.928031e+01 4.561778e+01 4.954230e+01 4.604616e+01 3.096663e+01 2.869331e+01 1.969207e+01 8.024186e-01 8.637462e-01 9.762594e-01 1.208383e+00 1.860729e+00 1.938551e+00 2.342637e+00 2.054597e+00 2.126093e+00 1.768907e+00 1.840738e+00 1.505519e+00 1.027859e+00
<GCONST> 9.389128e+01
<STATE> 4
<MEAN> 25
 2.711044e-07 2.276736e-08 -6.105108e-08 -1.720701e-07 -1.586201e-07 9.768173e-08 -1.135738e-07 -1.298416e-07 7.694315e-08 -1.660590e-07 -1.083516e-07 -5.706868e-08 -2.818740e-03 -4.409721e-03 -4.277692e-03 -1.165964e-03 -3.608679e-03 5.208261e-03 -1.757075e-03 5.998432e-03 4.891248e-03 1.720927e-03 7.501529e-04 -5.307185e-03 6.137643e-03
<VARIANCE> 25
 2.670229e+01 2.794268e+01 3.749357e+01 3.307458e+01 5.256620e+01 4.928031e+01 4.561778e+01 4.954230e+01 4.604616e+01 3.096663e+01 2.869331e+01 1.969207e+01 8.024186e-01 8.637462e-01 9.762594e-01 1.208383e+00 1.860729e+00 1.938551e+00 2.342637e+00 2.054597e+00 2.126093e+00 1.768907e+00 1.840738e+00 1.505519e+00 1.027859e+00
<GCONST> 9.389128e+01
<TRANSP> 5
 0.000000e+00 1.000000e+00 0.000000e+00 0.000000e+00 0.000000e+00
 0.000000e+00 6.000000e-01 4.000000e-01 0.000000e+00 0.000000e+00
 0.000000e+00 0.000000e+00 6.000000e-01 4.000000e-01 0.000000e+00
 0.000000e+00 0.000000e+00 0.000000e+00 7.000000e-01 3.000000e-01
 0.000000e+00 0.000000e+00 0.000000e+00 0.000000e+00 0.000000e+00
<ENDHMM>
~h "h"
<BEGINHMM>
<NUMSTATES> 5
<STATE> 2
<MEAN> 25
 2.711044e-07 2.276736e-08 -6.105108e-08 -1.720701e-07 -1.586201e-07 9.768173e-08 -1.135738e-07 -1.298416e-07 7.694315e-08 -1.660590e-07 -1.083516e-07 -5.706868e-08 -2.818740e-03 -4.409721e-03 -4.277692e-03 -1.165964e-03 -3.608679e-03 5.208261e-03 -1.757075e-03 5.998432e-03 4.891248e-03 1.720927e-03 7.501529e-04 -5.307185e-03 6.137643e-03
<VARIANCE> 25
 2.670229e+01 2.794268e+01 3.749357e+01 3.307458e+01 5.256620e+01 4.928031e+01 4.561778e+01 4.954230e+01 4.604616e+01 3.096663e+01 2.869331e+01 1.969207e+01 8.024186e-01 8.637462e-01 9.762594e-01 1.208383e+00 1.860729e+00 1.938551e+00 2.342637e+00 2.054597e+00 2.126093e+00 1.768907e+00 1.840738e+00 1.505519e+00 1.027859e+00
<GCONST> 9.389128e+01
<STATE> 3
<MEAN> 25
 2.711044e-07 2.276736e-08 -6.105108e-08 -1.720701e-07 -1.586201e-07 9.768173e-08 -1.135738e-07 -1.298416e-07 7.694315e-08 -1.660590e-07 -1.083516e-07 -5.706868e-08 -2.818740e-03 -4.409721e-03 -4.277692e-03 -1.165964e-03 -3.608679e-03 5.208261e-03 -1.757075e-03 5.998432e-03 4.891248e-03 1.720927e-03 7.501529e-04 -5.307185e-03 6.137643e-03
<VARIANCE> 25
 2.670229e+01 2.794268e+01 3.749357e+01 3.307458e+01 5.256620e+01 4.928031e+01 4.561778e+01 4.954230e+01 4.604616e+01 3.096663e+01 2.869331e+01 1.969207e+01 8.024186e-01 8.637462e-01 9.762594e-01 1.208383e+00 1.860729e+00 1.938551e+00 2.342637e+00 2.054597e+00 2.126093e+00 1.768907e+00 1.840738e+00 1.505519e+00 1.027859e+00
<GCONST> 9.389128e+01
<STATE> 4
<MEAN> 25
 2.711044e-07 2.276736e-08 -6.105108e-08 -1.720701e-07 -1.586201e-07 9.768173e-08 -1.135738e-07 -1.298416e-07 7.694315e-08 -1.660590e-07 -1.083516e-07 -5.706868e-08 -2.818740e-03 -4.409721e-03 -4.277692e-03 -1.165964e-03 -3.608679e-03 5.208261e-03 -1.757075e-03 5.998432e-03 4.891248e-03 1.720927e-03 7.501529e-04 -5.307185e-03 6.137643e-03
<VARIANCE> 25
 2.670229e+01 2.794268e+01 3.749357e+01 3.307458e+01 5.256620e+01 4.928031e+01 4.561778e+01 4.954230e+01 4.604616e+01 3.096663e+01 2.869331e+01 1.969207e+01 8.024186e-01 8.637462e-01 9.762594e-01 1.208383e+00 1.860729e+00 1.938551e+00 2.342637e+00 2.054597e+00 2.126093e+00 1.768907e+00 1.840738e+00 1.505519e+00 1.027859e+00
<GCONST> 9.389128e+01
<TRANSP> 5
 0.000000e+00 1.000000e+00 0.000000e+00 0.000000e+00 0.000000e+00
 0.000000e+00 6.000000e-01 4.000000e-01 0.000000e+00 0.000000e+00
 0.000000e+00 0.000000e+00 6.000000e-01 4.000000e-01 0.000000e+00
 0.000000e+00 0.000000e+00 0.000000e+00 7.000000e-01 3.000000e-01
 0.000000e+00 0.000000e+00 0.000000e+00 0.000000e+00 0.000000e+00
<ENDHMM>
~h "sil"
<BEGINHMM>
<NUMSTATES> 5
<STATE> 2
<MEAN> 25
 2.711044e-07 2.276736e-08 -6.105108e-08 -1.720701e-07 -1.586201e-07 9.768173e-08 -1.135738e-07 -1.298416e-07 7.694315e-08 -1.660590e-07 -1.083516e-07 -5.706868e-08 -2.818740e-03 -4.409721e-03 -4.277692e-03 -1.165964e-03 -3.608679e-03 5.208261e-03 -1.757075e-03 5.998432e-03 4.891248e-03 1.720927e-03 7.501529e-04 -5.307185e-03 6.137643e-03
<VARIANCE> 25
 2.670229e+01 2.794268e+01 3.749357e+01 3.307458e+01 5.256620e+01 4.928031e+01 4.561778e+01 4.954230e+01 4.604616e+01 3.096663e+01 2.869331e+01 1.969207e+01 8.024186e-01 8.637462e-01 9.762594e-01 1.208383e+00 1.860729e+00 1.938551e+00 2.342637e+00 2.054597e+00 2.126093e+00 1.768907e+00 1.840738e+00 1.505519e+00 1.027859e+00
<GCONST> 9.389128e+01
<STATE> 3
<MEAN> 25
 2.711044e-07 2.276736e-08 -6.105108e-08 -1.720701e-07 -1.586201e-07 9.768173e-08 -1.135738e-07 -1.298416e-07 7.694315e-08 -1.660590e-07 -1.083516e-07 -5.706868e-08 -2.818740e-03 -4.409721e-03 -4.277692e-03 -1.165964e-03 -3.608679e-03 5.208261e-03 -1.757075e-03 5.998432e-03 4.891248e-03 1.720927e-03 7.501529e-04 -5.307185e-03 6.137643e-03
<VARIANCE> 25
 2.670229e+01 2.794268e+01 3.749357e+01 3.307458e+01 5.256620e+01 4.928031e+01 4.561778e+01 4.954230e+01 4.604616e+01 3.096663e+01 2.869331e+01 1.969207e+01 8.024186e-01 8.637462e-01 9.762594e-01 1.208383e+00 1.860729e+00 1.938551e+00 2.342637e+00 2.054597e+00 2.126093e+00 1.768907e+00 1.840738e+00 1.505519e+00 1.027859e+00
<GCONST> 9.389128e+01
<STATE> 4
<MEAN> 25
 2.711044e-07 2.276736e-08 -6.105108e-08 -1.720701e-07 -1.586201e-07 9.768173e-08 -1.135738e-07 -1.298416e-07 7.694315e-08 -1.660590e-07 -1.083516e-07 -5.706868e-08 -2.818740e-03 -4.409721e-03 -4.277692e-03 -1.165964e-03 -3.608679e-03 5.208261e-03 -1.757075e-03 5.998432e-03 4.891248e-03 1.720927e-03 7.501529e-04 -5.307185e-03 6.137643e-03
<VARIANCE> 25
 2.670229e+01 2.794268e+01 3.749357e+01 3.307458e+01 5.256620e+01 4.928031e+01 4.561778e+01 4.954230e+01 4.604616e+01 3.096663e+01 2.869331e+01 1.969207e+01 8.024186e-01 8.637462e-01 9.762594e-01 1.208383e+00 1.860729e+00 1.938551e+00 2.342637e+00 2.054597e+00 2.126093e+00 1.768907e+00 1.840738e+00 1.505519e+00 1.027859e+00
<GCONST> 9.389128e+01
<TRANSP> 5
 0.000000e+00 1.000000e+00 0.000000e+00 0.000000e+00 0.000000e+00
 0.000000e+00 6.000000e-01 4.000000e-01 0.000000e+00 0.000000e+00
 0.000000e+00 0.000000e+00 6.000000e-01 4.000000e-01 0.000000e+00
 0.000000e+00 0.000000e+00 0.000000e+00 7.000000e-01 3.000000e-01
 0.000000e+00 0.000000e+00 0.000000e+00 0.000000e+00 0.000000e+00
<ENDHMM>
