~o
<STREAMINFO> 1 25
<VECSIZE> 25<NULLD><MFCC_D_N_Z_0><DIAGC>
~s "silst"
<MEAN> 25
 -1.380249e+00 1.524858e+00 1.469046e-01 1.388233e+00 2.492935e+00 2.882707e+00 2.780310e+00 2.031868e+00 -2.228832e+00 1.557739e+00 1.788672e-01 4.072039e-01 1.408168e-03 2.587031e-02 1.957520e-02 1.717713e-02 5.417000e-03 2.397397e-03 2.278297e-02 -1.045936e-02 -1.052954e-02 -2.255707e-02 -4.258515e-02 1.707043e-02 -9.465954e-03
<VARIANCE> 25
 1.523931e+00 2.495313e+00 4.344543e+00 5.931557e+00 8.922594e+00 1.038235e+01 1.042564e+01 1.022457e+01 1.186777e+01 1.151350e+01 1.107641e+01 1.052322e+01 1.158246e-01 2.629438e-01 4.329118e-01 6.926469e-01 9.006173e-01 1.054713e+00 1.314232e+00 1.086247e+00 1.316291e+00 1.189856e+00 1.191789e+00 1.116823e+00 4.779663e-02
<GCONST> 6.270776e+01
~h "E"
<BEGINHMM>
<NUMSTATES> 5
<STATE> 2
<MEAN> 25
 3.488488e+00 -1.088856e+00 -1.774236e+00 -4.275057e+00 -2.885985e+00 -5.568879e+00 -2.381201e+00 9.945149e-01 -2.329596e-01 3.370940e+00 7.279261e+00 4.037792e+00 -7.965596e-01 -3.732580e-01 -2.907679e-01 5.850988e-01 -5.510698e-01 -6.523525e-01 1.110388e-01 7.276427e-01 1.175105e-01 8.391534e-01 3.689893e-01 9.027512e-01 -5.925916e-01
<VARIANCE> 25
 6.444328e+01 1.379752e+01 5.715283e+01 6.029556e+01 3.123515e+01 2.171002e+01 1.598758e+01 5.628563e+01 4.110184e+01 3.824418e+01 1.593935e+01 3.699289e+00 1.200757e+00 1.242600e-01 3.591287e-01 6.973299e-01 8.027058e-01 7.786188e+00 4.503587e-01 7.979120e-01 4.081188e-01 9.887967e-01 3.971035e-01 1.242565e+00 5.146122e-01
<GCONST> 8.088467e+01
<STATE> 3
<MEAN> 25
 1.050566e+00 -2.458151e+00 -3.731719e+00 -1.820521e+00 -1.937578e+00 -5.192707e+00 -1.836879e+00 1.948806e+00 1.409877e+00 4.905126e+00 8.926167e+00 4.979796e+00 -1.935234e-01 1.900545e-02 -5.862868e-01 3.967679e-02 -7.207084e-01 1.498019e+00 5.723866e-01 -1.882697e-01 2.831803e-01 1.820554e-02 8.059036e-01 1.247095e+00 -4.386666e-01
<VARIANCE> 25
 7.634071e+01 1.471586e+01 6.227540e+01 1.172974e+02 1.774932e+01 3.105756e+01 1.147824e+01 8.941560e+01 2.552546e+01 5.808002e+01 4.181697e+00 2.420929e+01 3.757148e-01 2.966477e-01 7.362481e-01 2.223081e-01 3.539394e-01 2.905399e+00 2.701930e+00 7.250826e-01 1.009461e+00 7.967029e-02 4.361972e-01 6.389688e-01 4.241211e-01
<GCONST> 7.907291e+01
<STATE> 4
<MEAN> 25
 5.632914e+00 -3.292043e+00 -1.264876e+01 -1.230274e+01 -4.068321e+00 1.502827e+00 -6.047493e+00 -4.615152e+00 4.142914e+00 -5.570539e+00 1.008484e+01 2.954535e+00 1.084623e-01 1.912192e-01 -1.869729e-01 3.611383e-01 -2.484823e-01 1.173740e-01 -1.710778e-01 1.428658e-01 2.706387e-01 2.281092e-01 -4.840148e-01 6.568070e-02 -2.058084e-02
<VARIANCE> 25
 4.747810e+01 4.348907e+00 5.454775e+01 8.310680e+01 8.011028e+00 4.307914e+01 5.532823e+01 9.787685e+01 3.688624e+00 3.030887e+01 1.644687e+01 1.478879e+01 1.761075e-01 1.340746e-01 1.770135e-01 1.669362e+00 8.660313e-01 3.664877e+00 7.342682e-01 5.775675e-01 7.386411e-01 1.703748e+00 1.510694e+00 5.124472e-01 3.434088e-02
<GCONST> 7.628239e+01
<TRANSP> 5
 0.000000e+00 1.000000e+00 0.000000e+00 0.000000e+00 0.000000e+00
 0.000000e+00 4.000872e-01 5.999128e-01 0.000000e+00 0.000000e+00
 0.000000e+00 0.000000e+00 2.498411e-01 7.501590e-01 0.000000e+00
 0.000000e+00 0.000000e+00 0.000000e+00 6.589354e-01 3.410646e-01
 0.000000e+00 0.000000e+00 0.000000e+00 0.000000e+00 0.000000e+00
<ENDHMM>
~h "a"
<BEGINHMM>
<NUMSTATES> 5
<STATE> 2
<MEAN> 25
 2.879680e+00 -3.090561e+00 2.104799e+00 -1.022004e+00 -2.035432e+00 -4.950627e+00 -1.604136e+00 -2.560864e+00 2.368340e+00 -2.492677e+00 -8.657562e-01 -2.092978e+00 -1.345915e-01 -1.109355e+00 -4.257488e-01 -9.328524e-01 -6.340154e-01 -1.550777e+00 -1.556244e-01 -8.408061e-01 2.588427e-01 -9.994586e-01 8.000996e-01 -2.181523e-01 1.719696e+00
<VARIANCE> 25
 2.092217e+01 6.922205e+01 8.087472e+01 1.888278e+01 5.124816e+01 9.148408e+01 4.087391e+01 3.126998e+01 9.946886e+01 4.724419e+01 2.288177e+01 2.681523e+01 8.650254e-01 2.857163e+00 3.479033e+00 1.439451e+00 3.245039e+00 3.508444e+00 2.804422e+00 6.394517e+00 6.515083e+00 2.373652e+00 2.237759e+00 2.165554e+00 7.113628e+00
<GCONST> 1.051502e+02
<STATE> 3
<MEAN> 25
 3.210200e+00 -5.434037e+00 -5.225589e-01 -4.464576e+00 -4.357643e+00 -9.335391e+00 -4.939277e+00 -9.507398e+00 8.868940e+00 -6.395499e+00 -1.135541e+00 -2.799794e+00 2.874279e-01 8.912505e-01 -7.820844e-02 3.366099e-02 5.183759e-02 -1.090498e-01 -3.892469e-01 -5.469907e-01 -6.166183e-01 6.808879e-01 -6.963784e-02 1.719430e-01 -4.476027e-01
<VARIANCE> 25
 7.272745e+00 4.790474e+01 1.154999e+02 1.770194e+01 5.065352e+01 3.510159e+01 4.537629e+01 6.905581e+01 1.040869e+02 3.984933e+01 1.580387e+01 1.962351e+01 6.125529e-01 1.171535e+00 1.230132e+00 6.140098e-01 2.565902e+00 1.648404e+00 2.672169e+00 2.956752e+00 5.052265e+00 3.966411e+00 1.615324e+00 1.496560e+00 1.322755e+00
<GCONST> 9.608047e+01
<STATE> 4
<MEAN> 25
 6.891461e+00 7.102844e-01 -1.122120e+00 -3.856272e+00 -1.771798e+00 -4.992106e+00 -4.467379e+00 -6.222296e+00 2.948672e+00 6.671311e-01 -3.614777e+00 -3.679215e+00 4.826105e-02 9.720416e-01 4.904428e-01 -5.256897e-02 7.646878e-03 6.000579e-01 7.174839e-01 1.287779e+00 -1.063249e+00 -3.480133e-01 -2.277669e-01 3.654246e-01 -7.274573e-01
<VARIANCE> 25
 2.198299e+01 2.994871e+01 4.225680e+01 3.108156e+01 4.373616e+01 2.834958e+01 2.223936e+01 6.638793e+01 2.956927e+01 2.277916e+01 4.322857e+01 2.317236e+01 1.091520e+00 9.540544e-01 1.290839e+00 2.970752e+00 2.658639e+00 2.321761e+00 2.239091e+00 1.878129e+00 3.544049e+00 2.530780e+00 2.183362e+00 2.047526e+00 1.451008e+00
<GCONST> 9.616396e+01
<TRANSP> 5
 0.000000e+00 1.000000e+00 0.000000e+00 0.000000e+00 0.000000e+00
 0.000000e+00 3.754094e-01 6.245906e-01 0.000000e+00 0.000000e+00
 0.000000e+00 0.000000e+00 6.557039e-01 3.442961e-01 0.000000e+00
 0.000000e+00 0.000000e+00 0.000000e+00 5.216033e-01 4.783967e-01
 0.000000e+00 0.000000e+00 0.000000e+00 0.000000e+00 0.000000e+00
<ENDHMM>
~h "b"
<BEGINHMM>
<NUMSTATES> 5
<STATE> 2
<MEAN> 25
 2.711044e-07 2.276736e-08 -6.105108e-08 -1.720701e-07 -1.586201e-07 9.768173e-08 -1.135738e-07 -1.298416e-07 7.694315e-08 -1.660590e-07 -1.083516e-07 -5.706868e-08 -2.818740e-03 -4.409721e-03 -4.277692e-03 -1.165964e-03 -3.608679e-03 5.208261e-03 -1.757075e-03 5.998432e-03 4.891248e-03 1.720927e-03 7.501529e-04 -5.307185e-03 6.137643e-03
<VARIANCE> 25
 2.670229e+01 2.794268e+01 3.749357e+01 3.307458e+01 5.256620e+01 4.928031e+01 4.561778e+01 4.954230e+01 4.604616e+01 3.096663e+01 2.869331e+01 1.969207e+01 8.024186e-01 8.637462e-01 9.762596e-01 1.208383e+00 1.860729e+00 1.938551e+00 2.342637e+00 2.054597e+00 2.126093e+00 1.768907e+00 1.840738e+00 1.505519e+00 1.027859e+00
<GCONST> 9.389127e+01
<STATE> 3
<MEAN> 25
 2.711044e-07 2.276736e-08 -6.105108e-08 -1.720701e-07 -1.586201e-07 9.768173e-08 -1.135738e-07 -1.298416e-07 7.694315e-08 -1.660590e-07 -1.083516e-07 -5.706868e-08 -2.818740e-03 -4.409721e-03 -4.277692e-03 -1.165964e-03 -3.608679e-03 5.208261e-03 -1.757075e-03 5.998432e-03 4.891248e-03 1.720927e-03 7.501529e-04 -5.307185e-03 6.137643e-03
<VARIANCE> 25
 2.670229e+01 2.794268e+01 3.749357e+01 3.307458e+01 5.256620e+01 4.928031e+01 4.561778e+01 4.954230e+01 4.604616e+01 3.096663e+01 2.869331e+01 1.969207e+01 8.024186e-01 8.637462e-01 9.762596e-01 1.208383e+00 1.860729e+00 1.938551e+00 2.342637e+00 2.054597e+00 2.126093e+00 1.768907e+00 1.840738e+00 1.505519e+00 1.027859e+00
<GCONST> 9.389127e+01
<STATE> 4
<MEAN> 25
 2.711044e-07 2.276736e-08 -6.105108e-08 -1.720701e-07 -1.586201e-07 9.768173e-08 -1.135738e-07 -1.298416e-07 7.694315e-08 -1.660590e-07 -1.083516e-07 -5.706868e-08 -2.818740e-03 -4.409721e-03 -4.277692e-03 -1.165964e-03 -3.608679e-03 5.208261e-03 -1.757075e-03 5.998432e-03 4.891248e-03 1.720927e-03 7.501529e-04 -5.307185e-03 6.137643e-03
<VARIANCE> 25
 2.670229e+01 2.794268e+01 3.749357e+01 3.307458e+01 5.256620e+01 4.928031e+01 4.561778e+01 4.954230e+01 4.604616e+01 3.096663e+01 2.869331e+01 1.969207e+01 8.024186e-01 8.637462e-01 9.762596e-01 1.208383e+00 1.860729e+00 1.938551e+00 2.342637e+00 2.054597e+00 2.126093e+00 1.768907e+00 1.840738e+00 1.505519e+00 1.027859e+00
<GCONST> 9.389127e+01
<TRANSP> 5
 0.000000e+00 1.000000e+00 0.000000e+00 0.000000e+00 0.000000e+00
 0.000000e+00 6.000000e-01 4.000000e-01 0.000000e+00 0.000000e+00
 0.000000e+00 0.000000e+00 6.000000e-01 4.000000e-01 0.000000e+00
 0.000000e+00 0.000000e+00 0.000000e+00 7.000000e-01 3.000000e-01
 0.000000e+00 0.000000e+00 0.000000e+00 0.000000e+00 0.000000e+00
<ENDHMM>
~h "d"
<BEGINHMM>
<NUMSTATES> 5
<STATE> 2
<MEAN> 25
 2.711044e-07 2.276736e-08 -6.105108e-08 -1.720701e-07 -1.586201e-07 9.768173e-08 -1.135738e-07 -1.298416e-07 7.694315e-08 -1.660590e-07 -1.083516e-07 -5.706868e-08 -2.818740e-03 -4.409721e-03 -4.277692e-03 -1.165964e-03 -3.608679e-03 5.208261e-03 -1.757075e-03 5.998432e-03 4.891248e-03 1.720927e-03 7.501529e-04 -5.307185e-03 6.137643e-03
<VARIANCE> 25
 2.670229e+01 2.794268e+01 3.749357e+01 3.307458e+01 5.256620e+01 4.928031e+01 4.561778e+01 4.954230e+01 4.604616e+01 3.096663e+01 2.869331e+01 1.969207e+01 8.024186e-01 8.637462e-01 9.762596e-01 1.208383e+00 1.860729e+00 1.938551e+00 2.342637e+00 2.054597e+00 2.126093e+00 1.768907e+00 1.840738e+00 1.505519e+00 1.027859e+00
<GCONST> 9.389127e+01
<STATE> 3
<MEAN> 25
 2.711044e-07 2.276736e-08 -6.105108e-08 -1.720701e-07 -1.586201e-07 9.768173e-08 -1.135738e-07 -1.298416e-07 7.694315e-08 -1.660590e-07 -1.083516e-07 -5.706868e-08 -2.818740e-03 -4.409721e-03 -4.277692e-03 -1.165964e-03 -3.608679e-03 5.208261e-03 -1.757075e-03 5.998432e-03 4.891248e-03 1.720927e-03 7.501529e-04 -5.307185e-03 6.137643e-03
<VARIANCE> 25
 2.670229e+01 2.794268e+01 3.749357e+01 3.307458e+01 5.256620e+01 4.928031e+01 4.561778e+01 4.954230e+01 4.604616e+01 3.096663e+01 2.869331e+01 1.969207e+01 8.024186e-01 8.637462e-01 9.762596e-01 1.208383e+00 1.860729e+00 1.938551e+00 2.342637e+00 2.054597e+00 2.126093e+00 1.768907e+00 1.840738e+00 1.505519e+00 1.027859e+00
<GCONST> 9.389127e+01
<STATE> 4
<MEAN> 25
 2.711044e-07 2.276736e-08 -6.105108e-08 -1.720701e-07 -1.586201e-07 9.768173e-08 -1.135738e-07 -1.298416e-07 7.694315e-08 -1.660590e-07 -1.083516e-07 -5.706868e-08 -2.818740e-03 -4.409721e-03 -4.277692e-03 -1.165964e-03 -3.608679e-03 5.208261e-03 -1.757075e-03 5.998432e-03 4.891248e-03 1.720927e-03 7.501529e-04 -5.307185e-03 6.137643e-03
<VARIANCE> 25
 2.670229e+01 2.794268e+01 3.749357e+01 3.307458e+01 5.256620e+01 4.928031e+01 4.561778e+01 4.954230e+01 4.604616e+01 3.096663e+01 2.869331e+01 1.969207e+01 8.024186e-01 8.637462e-01 9.762596e-01 1.208383e+00 1.860729e+00 1.938551e+00 2.342637e+00 2.054597e+00 2.126093e+00 1.768907e+00 1.840738e+00 1.505519e+00 1.027859e+00
<GCONST> 9.389127e+01
<TRANSP> 5
 0.000000e+00 1.000000e+00 0.000000e+00 0.000000e+00 0.000000e+00
 0.000000e+00 6.000000e-01 4.000000e-01 0.000000e+00 0.000000e+00
 0.000000e+00 0.000000e+00 6.000000e-01 4.000000e-01 0.000000e+00
 0.000000e+00 0.000000e+00 0.000000e+00 7.000000e-01 3.000000e-01
 0.000000e+00 0.000000e+00 0.000000e+00 0.000000e+00 0.000000e+00
<ENDHMM>
~h "e"
<BEGINHMM>
<NUMSTATES> 5
<STATE> 2
<MEAN> 25
 -2.977701e+00 -3.063105e+00 -8.760071e-01 -1.286352e+00 1.469880e+00 -7.797481e+00 -4.107228e+00 2.059995e+00 -1.978438e+00 -3.325412e-01 -2.702562e+00 1.985475e+00 6.220093e-01 -1.273471e+00 -2.416464e-01 -5.133482e-01 -7.317725e-01 -2.034646e+00 -4.817012e+00 -7.022598e-01 2.849812e+00 -4.605172e-01 5.724598e-01 -6.803337e-02 2.789074e+00
<VARIANCE> 25
 2.140789e+00 4.301165e+01 5.064602e+00 2.741999e+00 1.703310e+00 9.519077e+01 8.430409e+01 1.350545e+01 9.756392e+00 3.096663e-01 5.701141e+00 1.605459e+01 6.299920e+00 2.573926e+00 7.011322e-01 5.421207e-01 1.327667e+01 1.275591e+01 4.605437e+00 1.901563e+00 1.526432e+00 2.695938e+00 2.197809e-01 4.841754e+00 6.489120e-01
<GCONST> 8.101379e+01
<STATE> 3
<MEAN> 25
 -6.247712e-01 -6.399201e+00 -4.384194e+00 -7.660202e+00 -2.832175e-02 -1.344377e+01 -1.849467e+01 -1.747645e+00 1.093323e+01 5.167605e-01 -1.054136e+00 2.608117e+00 1.376545e+00 -4.104346e-01 -5.979657e-01 -1.560035e+00 -2.705480e+00 7.609535e-01 -1.397449e+00 -1.758803e+00 2.454812e+00 -1.363430e+00 7.487169e-01 -7.616997e-01 2.805321e+00
<VARIANCE> 25
 2.783708e+01 2.224231e+01 1.018730e+01 1.046002e+01 1.128475e+02 2.849695e+01 1.560696e+01 4.450039e+01 2.779117e+01 2.334853e+01 2.227438e+01 2.361088e+01 3.374626e+00 4.588697e+00 9.050468e-01 5.662433e-01 7.937835e+00 8.020753e+00 7.757697e+00 2.382596e+00 7.320720e+00 2.209353e+00 5.943283e+00 4.570050e+00 1.812355e+00
<GCONST> 1.002252e+02
<STATE> 4
<MEAN> 25
 5.112139e+00 -8.414296e+00 -1.328973e+00 -6.539155e+00 -1.039967e+01 -4.699708e+00 -1.558916e+01 -7.155737e+00 1.347235e+01 -9.501390e+00 -2.353094e+00 -2.432725e+00 2.531347e-02 6.007827e-02 3.632701e-01 1.461205e-01 6.098737e-03 -9.546860e-02 2.420369e-01 2.327879e-01 -2.956982e-01 3.030214e-02 -4.243594e-02 -3.858805e-02 -3.632746e-01
<VARIANCE> 25
 3.158470e+00 1.055658e+01 4.881540e+01 2.857316e+01 1.813496e+01 8.119767e+01 4.233928e+01 2.998789e+01 9.283355e+01 3.048049e+01 2.677626e+01 2.304125e+01 3.428043e-01 8.490329e-01 2.540738e+00 2.200031e+00 8.213400e-01 1.371441e+00 2.278366e+00 2.489458e+00 4.184768e+00 1.591429e+00 3.280552e+00 1.464657e+00 1.518565e+00
<GCONST> 9.173293e+01
<TRANSP> 5
 0.000000e+00 1.000000e+00 0.000000e+00 0.000000e+00 0.000000e+00
 0.000000e+00 4.000036e-01 5.999964e-01 0.000000e+00 0.000000e+00
 0.000000e+00 0.000000e+00 7.500257e-01 2.499743e-01 0.000000e+00
 0.000000e+00 0.000000e+00 0.000000e+00 9.565002e-01 4.349978e-02
 0.000000e+00 0.000000e+00 0.000000e+00 0.000000e+00 0.000000e+00
<ENDHMM>
~h "f"
<BEGINHMM>
<NUMSTATES> 5
<STATE> 2
<MEAN> 25
 2.711044e-07 2.276736e-08 -6.105108e-08 -1.720701e-07 -1.586201e-07 9.768173e-08 -1.135738e-07 -1.298416e-07 7.694315e-08 -1.660590e-07 -1.083516e-07 -5.706868e-08 -2.818740e-03 -4.409721e-03 -4.277692e-03 -1.165964e-03 -3.608679e-03 5.208261e-03 -1.757075e-03 5.998432e-03 4.891248e-03 1.720927e-03 7.501529e-04 -5.307185e-03 6.137643e-03
<VARIANCE> 25
 2.670229e+01 2.794268e+01 3.749357e+01 3.307458e+01 5.256620e+01 4.928031e+01 4.561778e+01 4.954230e+01 4.604616e+01 3.096663e+01 2.869331e+01 1.969207e+01 8.024186e-01 8.637462e-01 9.762596e-01 1.208383e+00 1.860729e+00 1.938551e+00 2.342637e+00 2.054597e+00 2.126093e+00 1.768907e+00 1.840738e+00 1.505519e+00 1.027859e+00
<GCONST> 9.389127e+01
<STATE> 3
<MEAN> 25
 2.711044e-07 2.276736e-08 -6.105108e-08 -1.720701e-07 -1.586201e-07 9.768173e-08 -1.135738e-07 -1.298416e-07 7.694315e-08 -1.660590e-07 -1.083516e-07 -5.706868e-08 -2.818740e-03 -4.409721e-03 -4.277692e-03 -1.165964e-03 -3.608679e-03 5.208261e-03 -1.757075e-03 5.998432e-03 4.891248e-03 1.720927e-03 7.501529e-04 -5.307185e-03 6.137643e-03
<VARIANCE> 25
 2.670229e+01 2.794268e+01 3.749357e+01 3.307458e+01 5.256620e+01 4.928031e+01 4.561778e+01 4.954230e+01 4.604616e+01 3.096663e+01 2.869331e+01 1.969207e+01 8.024186e-01 8.637462e-01 9.762596e-01 1.208383e+00 1.860729e+00 1.938551e+00 2.342637e+00 2.054597e+00 2.126093e+00 1.768907e+00 1.840738e+00 1.505519e+00 1.027859e+00
<GCONST> 9.389127e+01
<STATE> 4
<MEAN> 25
 2.711044e-07 2.276736e-08 -6.105108e-08 -1.720701e-07 -1.586201e-07 9.768173e-08 -1.135738e-07 -1.298416e-07 7.694315e-08 -1.660590e-07 -1.083516e-07 -5.706868e-08 -2.818740e-03 -4.409721e-03 -4.277692e-03 -1.165964e-03 -3.608679e-03 5.208261e-03 -1.757075e-03 5.998432e-03 4.891248e-03 1.720927e-03 7.501529e-04 -5.307185e-03 6.137643e-03
<VARIANCE> 25
 2.670229e+01 2.794268e+01 3.749357e+01 3.307458e+01 5.256620e+01 4.928031e+01 4.561778e+01 4.954230e+01 4.604616e+01 3.096663e+01 2.869331e+01 1.969207e+01 8.024186e-01 8.637462e-01 9.762596e-01 1.208383e+00 1.860729e+00 1.938551e+00 2.342637e+00 2.054597e+00 2.126093e+00 1.768907e+00 1.840738e+00 1.505519e+00 1.027859e+00
<GCONST> 9.389127e+01
<TRANSP> 5
 0.000000e+00 1.000000e+00 0.000000e+00 0.000000e+00 0.000000e+00
 0.000000e+00 6.000000e-01 4.000000e-01 0.000000e+00 0.000000e+00
 0.000000e+00 0.000000e+00 6.000000e-01 4.000000e-01 0.000000e+00
 0.000000e+00 0.000000e+00 0.000000e+00 7.000000e-01 3.000000e-01
 0.000000e+00 0.000000e+00 0.000000e+00 0.000000e+00 0.000000e+00
<ENDHMM>
~h "g"
<BEGINHMM>
<NUMSTATES> 5
<STATE> 2
<MEAN> 25
 6.325125e+00 -5.336444e+00 1.279485e+01 -3.521186e+00 -1.907199e+01 -8.243464e+00 -1.442706e+01 -5.826873e+00 4.142006e+00 -1.305682e+01 1.546376e+01 8.709560e-01 2.536960e-01 -5.031945e-01 -3.005597e-01 1.712950e-01 -4.279735e-01 5.164344e-01 -1.064685e+00 -8.088773e-01 8.242446e-01 9.286033e-02 9.510396e-01 -8.757306e-02 2.757601e-01
<VARIANCE> 25
 1.203845e+01 5.591442e+01 6.087268e+01 4.013759e+01 5.215011e+01 5.850006e+01 4.344508e+01 3.296519e+01 3.638895e+01 2.540484e+01 7.811242e+01 2.463890e+01 2.957106e-01 7.156255e-01 2.255832e+00 5.978714e-01 3.711417e+00 1.323254e+00 1.647689e+00 2.945866e+00 1.657783e+00 5.510377e+00 4.376699e+00 1.461891e+00 5.307802e-01
<GCONST> 9.529393e+01
<STATE> 3
<MEAN> 25
 1.087010e+01 -2.636727e+00 2.382773e-01 -6.421123e+00 -9.404466e+00 2.065251e+00 -1.430479e+01 -8.057684e+00 5.758345e-01 -8.695014e-01 1.359651e+01 2.867046e+00 -7.264350e-01 7.392280e-01 -5.283603e-02 4.653529e-02 1.412840e+00 -3.110996e-02 1.553763e+00 6.455274e-01 -8.489413e-01 8.631505e-01 -1.481072e+00 2.370848e-01 -6.838259e-01
<VARIANCE> 25
 2.900098e+01 2.486452e+01 2.452348e+01 2.301348e+01 2.532534e+01 2.526725e+01 7.804208e+01 3.457421e+01 8.091085e+01 1.621381e+01 9.689290e+01 9.171940e+00 2.576949e+00 8.046172e-01 2.182960e+00 2.650045e+00 3.200196e+00 3.684416e+00 8.030525e-01 3.726552e+00 4.470545e+00 2.419959e+00 5.342560e+00 3.014451e+00 6.198942e-01
<GCONST> 9.792419e+01
<STATE> 4
<MEAN> 25
 -1.557471e+01 3.070068e+00 6.440682e+00 -7.490348e+00 3.081050e+00 -5.954109e+00 -1.214206e+01 3.517676e+00 9.500016e+00 -1.661552e+00 1.608483e+00 2.046042e+00 -6.755193e-01 -1.984473e-01 6.757503e-02 -2.692116e-01 3.785644e-01 -1.528759e-02 3.355223e-01 7.235489e-01 3.660483e-01 4.227020e-01 -2.583024e-02 7.973461e-03 -2.072685e-01
<VARIANCE> 25
 6.138103e+01 2.250951e+01 2.134401e+01 1.776305e+01 2.034129e+01 2.654710e+01 3.441048e+01 3.417002e+01 3.559595e+01 4.067036e+01 2.653348e+01 1.109408e+01 2.477917e+00 5.338517e-01 5.780501e-01 1.087346e+00 7.924919e-01 1.208697e+00 7.528990e-01 1.729020e+00 1.424068e+00 1.183169e+00 1.582664e+00 9.228203e-01 2.749996e-01
<GCONST> 8.508533e+01
<TRANSP> 5
 0.000000e+00 1.000000e+00 0.000000e+00 0.000000e+00 0.000000e+00
 0.000000e+00 8.621465e-01 1.378535e-01 0.000000e+00 0.000000e+00
 0.000000e+00 0.000000e+00 7.774262e-01 2.225738e-01 0.000000e+00
 0.000000e+00 0.000000e+00 0.000000e+00 8.333463e-01 1.666537e-01
 0.000000e+00 0.000000e+00 0.000000e+00 0.000000e+00 0.000000e+00
<ENDHMM>
~h "h"
<BEGINHMM>
<NUMSTATES> 5
<STATE> 2
<MEAN> 25
 2.711044e-07 2.276736e-08 -6.105108e-08 -1.720701e-07 -1.586201e-07 9.768173e-08 -1.135738e-07 -1.298416e-07 7.694315e-08 -1.660590e-07 -1.083516e-07 -5.706868e-08 -2.818740e-03 -4.409721e-03 -4.277692e-03 -1.165964e-03 -3.608679e-03 5.208261e-03 -1.757075e-03 5.998432e-03 4.891248e-03 1.720927e-03 7.501529e-04 -5.307185e-03 6.137643e-03
<VARIANCE> 25
 2.670229e+01 2.794268e+01 3.749357e+01 3.307458e+01 5.256620e+01 4.928031e+01 4.561778e+01 4.954230e+01 4.604616e+01 3.096663e+01 2.869331e+01 1.969207e+01 8.024186e-01 8.637462e-01 9.762596e-01 1.208383e+00 1.860729e+00 1.938551e+00 2.342637e+00 2.054597e+00 2.126093e+00 1.768907e+00 1.840738e+00 1.505519e+00 1.027859e+00
<GCONST> 9.389127e+01
<STATE> 3
<MEAN> 25
 2.711044e-07 2.276736e-08 -6.105108e-08 -1.720701e-07 -1.586201e-07 9.768173e-08 -1.135738e-07 -1.298416e-07 7.694315e-08 -1.660590e-07 -1.083516e-07 -5.706868e-08 -2.818740e-03 -4.409721e-03 -4.277692e-03 -1.165964e-03 -3.608679e-03 5.208261e-03 -1.757075e-03 5.998432e-03 4.891248e-03 1.720927e-03 7.501529e-04 -5.307185e-03 6.137643e-03
<VARIANCE> 25
 2.670229e+01 2.794268e+01 3.749357e+01 3.307458e+01 5.256620e+01 4.928031e+01 4.561778e+01 4.954230e+01 4.604616e+01 3.096663e+01 2.869331e+01 1.969207e+01 8.024186e-01 8.637462e-01 9.762596e-01 1.208383e+00 1.860729e+00 1.938551e+00 2.342637e+00 2.054597e+00 2.126093e+00 1.768907e+00 1.840738e+00 1.505519e+00 1.027859e+00
<GCONST> 9.389127e+01
<STATE> 4
<MEAN> 25
 2.711044e-07 2.276736e-08 -6.105108e-08 -1.720701e-07 -1.586201e-07 9.768173e-08 -1.135738e-07 -1.298416e-07 7.694315e-08 -1.660590e-07 -1.083516e-07 -5.706868e-08 -2.818740e-03 -4.409721e-03 -4.277692e-03 -1.165964e-03 -3.608679e-03 5.208261e-03 -1.757075e-03 5.998432e-03 4.891248e-03 1.720927e-03 7.501529e-04 -5.307185e-03 6.137643e-03
<VARIANCE> 25
 2.670229e+01 2.794268e+01 3.749357e+01 3.307458e+01 5.256620e+01 4.928031e+01 4.561778e+01 4.954230e+01 4.604616e+01 3.096663e+01 2.869331e+01 1.969207e+01 8.024186e-01 8.637462e-01 9.762596e-01 1.208383e+00 1.860729e+00 1.938551e+00 2.342637e+00 2.054597e+00 2.126093e+00 1.768907e+00 1.840738e+00 1.505519e+00 1.027859e+00
<GCONST> 9.389127e+01
<TRANSP> 5
 0.000000e+00 1.000000e+00 0.000000e+00 0.000000e+00 0.000000e+00
 0.000000e+00 6.000000e-01 4.000000e-01 0.000000e+00 0.000000e+00
 0.000000e+00 0.000000e+00 6.000000e-01 4.000000e-01 0.000000e+00
 0.000000e+00 0.000000e+00 0.000000e+00 7.000000e-01 3.000000e-01
 0.000000e+00 0.000000e+00 0.000000e+00 0.000000e+00 0.000000e+00
<ENDHMM>
~h "i"
<BEGINHMM>
<NUMSTATES> 5
<STATE> 2
<MEAN> 25
 8.763523e-01 3.284253e+00 8.568203e-01 -1.204493e+00 -1.461394e+00 -1.765314e+00 -6.957882e-01 -4.704310e-01 -3.481024e+00 2.968334e-01 -3.491140e-01 2.269560e+00 -5.478480e-01 -4.353483e-01 -1.329229e-01 2.425573e-01 7.274192e-01 -7.238436e-01 2.944709e-01 7.672670e-01 1.885520e-01 -4.478539e-02 -4.556865e-01 -3.851334e-01 -8.268108e-02
<VARIANCE> 25
 8.155503e+01 2.180948e+01 1.980563e+01 1.219500e+01 1.693176e+01 3.070997e+01 2.643536e+01 3.654845e+01 2.487472e+01 2.001916e+01 1.295691e+01 1.873203e+01 3.772909e-01 1.219510e+00 1.057260e+00 2.236981e+00 1.400685e+00 3.061743e+00 3.567602e+00 3.163980e+00 2.883596e+00 1.418216e+00 1.890860e+00 2.341223e+00 1.410859e+00
<GCONST> 9.095160e+01
<STATE> 3
<MEAN> 25
 -4.970083e+00 5.663350e-01 5.203799e-01 -2.848213e+00 1.591380e+00 -8.111950e+00 -2.446759e+00 4.345115e+00 2.841030e+00 9.810344e-01 -1.826005e+00 3.706499e+00 -3.174906e-01 -2.794795e-01 -1.494310e-01 -2.586313e-01 9.231921e-01 -8.261885e-01 -8.209519e-01 -4.159979e-01 5.815751e-01 2.402295e-01 -3.342250e-01 -6.746702e-01 7.997966e-01
<VARIANCE> 25
 7.473400e+01 2.596354e+01 2.477211e+01 2.380758e+01 2.986863e+01 3.639544e+01 3.997421e+01 2.767454e+01 2.111899e+01 2.755788e+01 2.973340e+01 2.931682e+01 6.471030e-01 8.512124e-01 2.309086e+00 3.460566e+00 1.204591e+00 6.396406e+00 1.194407e+01 7.556345e+00 2.617559e+00 4.007894e-01 1.082444e+00 5.539613e-01 4.216650e+00
<GCONST> 9.603613e+01
<STATE> 4
<MEAN> 25
 -6.366642e+00 1.740709e-01 9.069843e-01 -2.573354e+00 3.434952e+00 -3.624669e+00 1.389232e+00 2.244120e+00 -2.033431e-01 6.810010e-01 -2.794398e+00 1.715852e+00 5.179538e-01 4.172454e-01 -1.978103e-01 2.053050e-01 -1.650789e-01 2.053871e-01 -1.309378e-01 -6.478970e-01 -3.804423e-01 -6.711563e-02 4.371925e-01 -4.572030e-01 -2.388251e-01
<VARIANCE> 25
 6.807195e+01 1.773656e+01 2.046393e+01 7.698718e+00 1.833962e+01 3.759946e+01 4.109525e+01 1.140293e+01 1.822992e+01 1.074862e+01 1.782779e+01 2.772067e+01 8.129923e-01 5.951184e-01 2.621923e+00 2.077641e+00 1.705819e+00 1.638484e+00 5.931628e+00 5.655053e+00 1.127641e+00 1.576645e+00 1.877818e+00 1.799608e+00 2.675232e+00
<GCONST> 9.055635e+01
<TRANSP> 5
 0.000000e+00 1.000000e+00 0.000000e+00 0.000000e+00 0.000000e+00
 0.000000e+00 5.566539e-01 4.433461e-01 0.000000e+00 0.000000e+00
 0.000000e+00 0.000000e+00 1.025940e-01 8.974059e-01 0.000000e+00
 0.000000e+00 0.000000e+00 0.000000e+00 5.425932e-01 4.574068e-01
 0.000000e+00 0.000000e+00 0.000000e+00 0.000000e+00 0.000000e+00
<ENDHMM>
~h "k"
<BEGINHMM>
<NUMSTATES> 5
<STATE> 2
<MEAN> 25
 5.363592e+00 -2.176602e-01 7.195148e-02 -6.454256e+00 -3.451498e+00 -3.679384e+00 -1.081206e+01 -4.102808e+00 2.964090e+00 5.304897e-01 1.288081e-01 -1.578626e+00 8.764165e-03 -9.667860e-01 -4.195345e-01 -5.539044e-01 -3.414434e-01 -6.736581e-01 -1.601317e-01 -2.660485e-01 1.236166e+00 -5.472798e-01 -2.879703e-01 -3.358038e-01 1.643046e+00
<VARIANCE> 25
 4.037882e+01 6.870322e+01 2.854129e+01 3.692081e+01 5.642339e+01 7.609518e+01 1.049749e+02 7.469464e+01 7.269418e+01 3.962831e+01 4.808144e+01 1.957486e+01 2.411344e+00 3.636943e+00 1.965007e+00 4.332847e+00 8.081946e+00 8.165136e+00 1.476882e+01 6.133027e+00 3.631895e+00 5.499985e+00 6.048048e+00 2.654088e+00 6.115194e+00
<GCONST> 1.135700e+02
<STATE> 3
<MEAN> 25
 2.947967e-01 -9.395321e+00 -1.113411e+01 -6.221635e+00 -1.621271e+00 -9.668108e+00 -6.524177e-01 -8.040488e+00 1.339549e+01 -4.399143e+00 -6.336621e+00 -2.015416e+00 -2.197790e-02 1.830491e-01 -2.462514e-01 3.785712e-01 3.373719e-01 9.502435e-02 4.029019e-01 -4.557858e-02 -1.463604e-01 2.796848e-02 5.452784e-02 6.597000e-02 -4.871950e-01
<VARIANCE> 25
 6.334136e+01 4.646193e+01 2.390349e+01 1.542406e+01 3.274425e+01 1.336773e+01 1.991121e+01 8.210426e+01 2.204983e+01 1.669126e+01 2.160574e+01 3.040931e+01 8.741732e-01 1.006410e+00 1.322506e+00 8.513920e-01 7.527134e-01 1.482558e+00 2.215272e+00 2.890485e+00 1.425600e+00 1.180192e+00 2.082575e+00 8.753204e-01 7.849501e-01
<GCONST> 8.855643e+01
<STATE> 4
<MEAN> 25
 3.750688e+00 -6.259785e+00 -8.844196e+00 -1.600388e+00 1.365195e-01 -1.371782e+00 1.727828e+00 -1.314048e+00 7.222561e+00 -2.150956e+00 -5.179800e-01 -5.510568e+00 1.087976e-01 4.872819e-01 7.138109e-01 3.786059e-01 9.894385e-02 6.960915e-01 9.222749e-02 3.738636e-01 -1.264742e+00 9.105340e-01 -8.734653e-02 -3.212700e-01 -1.248051e+00
<VARIANCE> 25
 2.298365e+01 2.121346e+01 1.035789e+01 1.132298e+01 2.002927e+01 1.787953e+01 1.868892e+01 5.536509e+01 3.684565e+01 3.851195e+01 9.798497e+00 3.340313e+01 4.369437e-01 6.810135e-01 9.145921e-01 1.207690e+00 1.461087e+00 1.262493e+00 1.553549e+00 2.283202e+00 2.350386e+00 1.551963e+00 1.074361e+00 2.241821e+00 2.296376e-01
<GCONST> 8.423979e+01
<TRANSP> 5
 0.000000e+00 1.000000e+00 0.000000e+00 0.000000e+00 0.000000e+00
 0.000000e+00 8.551325e-01 1.448676e-01 0.000000e+00 0.000000e+00
 0.000000e+00 0.000000e+00 9.344090e-01 6.559107e-02 0.000000e+00
 0.000000e+00 0.000000e+00 0.000000e+00 8.305275e-01 1.694725e-01
 0.000000e+00 0.000000e+00 0.000000e+00 0.000000e+00 0.000000e+00
<ENDHMM>
~h "l"
<BEGINHMM>
<NUMSTATES> 5
<STATE> 2
<MEAN> 25
 2.711044e-07 2.276736e-08 -6.105108e-08 -1.720701e-07 -1.586201e-07 9.768173e-08 -1.135738e-07 -1.298416e-07 7.694315e-08 -1.660590e-07 -1.083516e-07 -5.706868e-08 -2.818740e-03 -4.409721e-03 -4.277692e-03 -1.165964e-03 -3.608679e-03 5.208261e-03 -1.757075e-03 5.998432e-03 4.891248e-03 1.720927e-03 7.501529e-04 -5.307185e-03 6.137643e-03
<VARIANCE> 25
 2.670229e+01 2.794268e+01 3.749357e+01 3.307458e+01 5.256620e+01 4.928031e+01 4.561778e+01 4.954230e+01 4.604616e+01 3.096663e+01 2.869331e+01 1.969207e+01 8.024186e-01 8.637462e-01 9.762596e-01 1.208383e+00 1.860729e+00 1.938551e+00 2.342637e+00 2.054597e+00 2.126093e+00 1.768907e+00 1.840738e+00 1.505519e+00 1.027859e+00
<GCONST> 9.389127e+01
<STATE> 3
<MEAN> 25
 2.711044e-07 2.276736e-08 -6.105108e-08 -1.720701e-07 -1.586201e-07 9.768173e-08 -1.135738e-07 -1.298416e-07 7.694315e-08 -1.660590e-07 -1.083516e-07 -5.706868e-08 -2.818740e-03 -4.409721e-03 -4.277692e-03 -1.165964e-03 -3.608679e-03 5.208261e-03 -1.757075e-03 5.998432e-03 4.891248e-03 1.720927e-03 7.501529e-04 -5.307185e-03 6.137643e-03
<VARIANCE> 25
 2.670229e+01 2.794268e+01 3.749357e+01 3.307458e+01 5.256620e+01 4.928031e+01 4.561778e+01 4.954230e+01 4.604616e+01 3.096663e+01 2.869331e+01 1.969207e+01 8.024186e-01 8.637462e-01 9.762596e-01 1.208383e+00 1.860729e+00 1.938551e+00 2.342637e+00 2.054597e+00 2.126093e+00 1.768907e+00 1.840738e+00 1.505519e+00 1.027859e+00
<GCONST> 9.389127e+01
<STATE> 4
<MEAN> 25
 2.711044e-07 2.276736e-08 -6.105108e-08 -1.720701e-07 -1.586201e-07 9.768173e-08 -1.135738e-07 -1.298416e-07 7.694315e-08 -1.660590e-07 -1.083516e-07 -5.706868e-08 -2.818740e-03 -4.409721e-03 -4.277692e-03 -1.165964e-03 -3.608679e-03 5.208261e-03 -1.757075e-03 5.998432e-03 4.891248e-03 1.720927e-03 7.501529e-04 -5.307185e-03 6.137643e-03
<VARIANCE> 25
 2.670229e+01 2.794268e+01 3.749357e+01 3.307458e+01 5.256620e+01 4.928031e+01 4.561778e+01 4.954230e+01 4.604616e+01 3.096663e+01 2.869331e+01 1.969207e+01 8.024186e-01 8.637462e-01 9.762596e-01 1.208383e+00 1.860729e+00 1.938551e+00 2.342637e+00 2.054597e+00 2.126093e+00 1.768907e+00 1.840738e+00 1.505519e+00 1.027859e+00
<GCONST> 9.389127e+01
<TRANSP> 5
 0.000000e+00 1.000000e+00 0.000000e+00 0.000000e+00 0.000000e+00
 0.000000e+00 6.000000e-01 4.000000e-01 0.000000e+00 0.000000e+00
 0.000000e+00 0.000000e+00 6.000000e-01 4.000000e-01 0.000000e+00
 0.000000e+00 0.000000e+00 0.000000e+00 7.000000e-01 3.000000e-01
 0.000000e+00 0.000000e+00 0.000000e+00 0.000000e+00 0.000000e+00
<ENDHMM>
~h "m"
<BEGINHMM>
<NUMSTATES> 5
<STATE> 2
<MEAN> 25
 2.711044e-07 2.276736e-08 -6.105108e-08 -1.720701e-07 -1.586201e-07 9.768173e-08 -1.135738e-07 -1.298416e-07 7.694315e-08 -1.660590e-07 -1.083516e-07 -5.706868e-08 -2.818740e-03 -4.409721e-03 -4.277692e-03 -1.165964e-03 -3.608679e-03 5.208261e-03 -1.757075e-03 5.998432e-03 4.891248e-03 1.720927e-03 7.501529e-04 -5.307185e-03 6.137643e-03
<VARIANCE> 25
 2.670229e+01 2.794268e+01 3.749357e+01 3.307458e+01 5.256620e+01 4.928031e+01 4.561778e+01 4.954230e+01 4.604616e+01 3.096663e+01 2.869331e+01 1.969207e+01 8.024186e-01 8.637462e-01 9.762596e-01 1.208383e+00 1.860729e+00 1.938551e+00 2.342637e+00 2.054597e+00 2.126093e+00 1.768907e+00 1.840738e+00 1.505519e+00 1.027859e+00
<GCONST> 9.389127e+01
<STATE> 3
<MEAN> 25
 2.711044e-07 2.276736e-08 -6.105108e-08 -1.720701e-07 -1.586201e-07 9.768173e-08 -1.135738e-07 -1.298416e-07 7.694315e-08 -1.660590e-07 -1.083516e-07 -5.706868e-08 -2.818740e-03 -4.409721e-03 -4.277692e-03 -1.165964e-03 -3.608679e-03 5.208261e-03 -1.757075e-03 5.998432e-03 4.891248e-03 1.720927e-03 7.501529e-04 -5.307185e-03 6.137643e-03
<VARIANCE> 25
 2.670229e+01 2.794268e+01 3.749357e+01 3.307458e+01 5.256620e+01 4.928031e+01 4.561778e+01 4.954230e+01 4.604616e+01 3.096663e+01 2.869331e+01 1.969207e+01 8.024186e-01 8.637462e-01 9.762596e-01 1.208383e+00 1.860729e+00 1.938551e+00 2.342637e+00 2.054597e+00 2.126093e+00 1.768907e+00 1.840738e+00 1.505519e+00 1.027859e+00
<GCONST> 9.389127e+01
<STATE> 4
<MEAN> 25
 2.711044e-07 2.276736e-08 -6.105108e-08 -1.720701e-07 -1.586201e-07 9.768173e-08 -1.135738e-07 -1.298416e-07 7.694315e-08 -1.660590e-07 -1.083516e-07 -5.706868e-08 -2.818740e-03 -4.409721e-03 -4.277692e-03 -1.165964e-03 -3.608679e-03 5.208261e-03 -1.757075e-03 5.998432e-03 4.891248e-03 1.720927e-03 7.501529e-04 -5.307185e-03 6.137643e-03
<VARIANCE> 25
 2.670229e+01 2.794268e+01 3.749357e+01 3.307458e+01 5.256620e+01 4.928031e+01 4.561778e+01 4.954230e+01 4.604616e+01 3.096663e+01 2.869331e+01 1.969207e+01 8.024186e-01 8.637462e-01 9.762596e-01 1.208383e+00 1.860729e+00 1.938551e+00 2.342637e+00 2.054597e+00 2.126093e+00 1.768907e+00 1.840738e+00 1.505519e+00 1.027859e+00
<GCONST> 9.389127e+01
<TRANSP> 5
 0.000000e+00 1.000000e+00 0.000000e+00 0.000000e+00 0.000000e+00
 0.000000e+00 6.000000e-01 4.000000e-01 0.000000e+00 0.000000e+00
 0.000000e+00 0.000000e+00 6.000000e-01 4.000000e-01 0.000000e+00
 0.000000e+00 0.000000e+00 0.000000e+00 7.000000e-01 3.000000e-01
 0.000000e+00 0.000000e+00 0.000000e+00 0.000000e+00 0.000000e+00
<ENDHMM>
~h "o"
<BEGINHMM>
<NUMSTATES> 5
<STATE> 2
<MEAN> 25
 8.030975e-01 3.115906e+00 -2.206182e+00 -9.144270e-02 1.653416e+00 1.560064e+00 2.760943e+00 2.513973e+00 6.568135e-01 5.236235e+00 4.765274e-01 -5.952216e-01 -1.087861e-01 2.679160e-01 4.026534e-01 2.937963e-01 5.181921e-01 4.737229e-01 -1.674516e-01 -9.480347e-02 -1.085300e-01 -2.097598e-01 2.585229e-03 2.705266e-01 -3.083678e-01
<VARIANCE> 25
 8.493578e+00 5.180986e+00 1.049144e+01 7.394544e+00 2.893634e+01 1.961129e+01 1.799282e+01 2.181556e+01 1.235615e+01 8.284890e+00 1.571679e+01 2.828957e+01 3.764328e-01 3.017222e-01 7.756924e-01 7.810996e-01 9.680063e-01 9.025228e-01 1.148216e+00 1.073786e+00 1.137755e+00 5.726978e-01 1.499471e+00 1.886158e+00 5.778445e-02
<GCONST> 7.228043e+01
<STATE> 3
<MEAN> 25
 6.310513e-01 2.940583e+00 2.151693e-01 4.040978e+00 3.483004e+00 5.882106e+00 3.526145e+00 3.880393e+00 -3.928694e+00 3.452322e+00 9.781677e-02 -1.364672e+00 9.058720e-03 -2.776184e-02 -3.486777e-03 2.416883e-02 -3.852683e-02 4.069285e-02 -4.335812e-03 1.347885e-02 -4.349605e-02 -2.545206e-02 -4.137525e-02 8.629335e-03 -1.933246e-02
<VARIANCE> 25
 9.686125e-01 2.146421e+00 3.057392e+00 5.660500e+00 7.251381e+00 8.394049e+00 1.154357e+01 1.269579e+01 1.149692e+01 1.099352e+01 1.151828e+01 1.064955e+01 9.905065e-02 2.851237e-01 2.918526e-01 5.093921e-01 6.579257e-01 9.701630e-01 1.190430e+00 1.160981e+00 1.086648e+00 1.112088e+00 1.245188e+00 1.097684e+00 2.931146e-02
<GCONST> 5.964854e+01
<STATE> 4
<MEAN> 25
 2.969121e-01 2.374824e+00 1.701484e-02 2.825231e+00 2.182563e+00 1.691736e+00 1.653184e+00 2.481560e+00 -3.701757e+00 1.383646e+00 -1.252018e+00 1.762611e-01 8.282716e-02 -3.330842e-01 1.676995e-01 7.300045e-01 1.023152e+00 2.958808e-02 3.312260e-01 4.661439e-01 -6.285241e-02 -4.047621e-01 -7.443937e-01 -2.715414e-01 -4.191580e-02
<VARIANCE> 25
 4.010085e-01 1.139197e+00 7.270568e+00 1.120472e+01 1.563618e+01 3.880692e+01 9.541756e+00 9.325562e+00 4.598012e+00 6.198612e+00 1.088671e+01 2.534768e+00 1.903595e-01 3.619152e-01 2.205449e-01 4.153797e-01 5.422347e-01 1.390698e+00 1.079252e+00 9.587898e-01 4.012131e-01 5.936541e-01 1.060956e+00 1.205795e+00 2.110939e-01
<GCONST> 5.907053e+01
<TRANSP> 5
 0.000000e+00 1.000000e+00 0.000000e+00 0.000000e+00 0.000000e+00
 0.000000e+00 8.296506e-01 1.703494e-01 0.000000e+00 0.000000e+00
 0.000000e+00 0.000000e+00 9.722117e-01 2.778829e-02 0.000000e+00
 0.000000e+00 0.000000e+00 0.000000e+00 4.781136e-01 5.218865e-01
 0.000000e+00 0.000000e+00 0.000000e+00 0.000000e+00 0.000000e+00
<ENDHMM>
~h "p"
<BEGINHMM>
<NUMSTATES> 5
<STATE> 2
<MEAN> 25
 2.711044e-07 2.276736e-08 -6.105108e-08 -1.720701e-07 -1.586201e-07 9.768173e-08 -1.135738e-07 -1.298416e-07 7.694315e-08 -1.660590e-07 -1.083516e-07 -5.706868e-08 -2.818740e-03 -4.409721e-03 -4.277692e-03 -1.165964e-03 -3.608679e-03 5.208261e-03 -1.757075e-03 5.998432e-03 4.891248e-03 1.720927e-03 7.501529e-04 -5.307185e-03 6.137643e-03
<VARIANCE> 25
 2.670229e+01 2.794268e+01 3.749357e+01 3.307458e+01 5.256620e+01 4.928031e+01 4.561778e+01 4.954230e+01 4.604616e+01 3.096663e+01 2.869331e+01 1.969207e+01 8.024186e-01 8.637462e-01 9.762596e-01 1.208383e+00 1.860729e+00 1.938551e+00 2.342637e+00 2.054597e+00 2.126093e+00 1.768907e+00 1.840738e+00 1.505519e+00 1.027859e+00
<GCONST> 9.389127e+01
<STATE> 3
<MEAN> 25
 2.711044e-07 2.276736e-08 -6.105108e-08 -1.720701e-07 -1.586201e-07 9.768173e-08 -1.135738e-07 -1.298416e-07 7.694315e-08 -1.660590e-07 -1.083516e-07 -5.706868e-08 -2.818740e-03 -4.409721e-03 -4.277692e-03 -1.165964e-03 -3.608679e-03 5.208261e-03 -1.757075e-03 5.998432e-03 4.891248e-03 1.720927e-03 7.501529e-04 -5.307185e-03 6.137643e-03
<VARIANCE> 25
 2.670229e+01 2.794268e+01 3.749357e+01 3.307458e+01 5.256620e+01 4.928031e+01 4.561778e+01 4.954230e+01 4.604616e+01 3.096663e+01 2.869331e+01 1.969207e+01 8.024186e-01 8.637462e-01 9.762596e-01 1.208383e+00 1.860729e+00 1.938551e+00 2.342637e+00 2.054597e+00 2.126093e+00 1.768907e+00 1.840738e+00 1.505519e+00 1.027859e+00
<GCONST> 9.389127e+01
<STATE> 4
<MEAN> 25
 2.711044e-07 2.276736e-08 -6.105108e-08 -1.720701e-07 -1.586201e-07 9.768173e-08 -1.135738e-07 -1.298416e-07 7.694315e-08 -1.660590e-07 -1.083516e-07 -5.706868e-08 -2.818740e-03 -4.409721e-03 -4.277692e-03 -1.165964e-03 -3.608679e-03 5.208261e-03 -1.757075e-03 5.998432e-03 4.891248e-03 1.720927e-03 7.501529e-04 -5.307185e-03 6.137643e-03
<VARIANCE> 25
 2.670229e+01 2.794268e+01 3.749357e+01 3.307458e+01 5.256620e+01 4.928031e+01 4.561778e+01 4.954230e+01 4.604616e+01 3.096663e+01 2.869331e+01 1.969207e+01 8.024186e-01 8.637462e-01 9.762596e-01 1.208383e+00 1.860729e+00 1.938551e+00 2.342637e+00 2.054597e+00 2.126093e+00 1.768907e+00 1.840738e+00 1.505519e+00 1.027859e+00
<GCONST> 9.389127e+01
<TRANSP> 5
 0.000000e+00 1.000000e+00 0.000000e+00 0.000000e+00 0.000000e+00
 0.000000e+00 6.000000e-01 4.000000e-01 0.000000e+00 0.000000e+00
 0.000000e+00 0.000000e+00 6.000000e-01 4.000000e-01 0.000000e+00
 0.000000e+00 0.000000e+00 0.000000e+00 7.000000e-01 3.000000e-01
 0.000000e+00 0.000000e+00 0.000000e+00 0.000000e+00 0.000000e+00
<ENDHMM>
~h "r"
<BEGINHMM>
<NUMSTATES> 5
<STATE> 2
<MEAN> 25
 2.007551e+00 -5.852626e+00 6.392298e-01 -2.368907e+00 -1.334030e+00 -9.721273e+00 -8.127620e+00 -9.282999e-01 3.016948e+00 -1.862812e+00 -4.269150e-01 -2.433035e+00 -8.657196e-02 -1.611026e-01 -1.762249e-01 -2.476620e-01 3.316879e-01 6.915216e-01 4.182848e-01 5.439180e-01 -3.329281e-01 -9.957643e-01 -1.152886e-01 -4.223979e-01 4.238337e-01
<VARIANCE> 25
 4.032100e+01 3.739956e+01 5.895628e+01 3.606103e+01 8.272561e+01 6.032359e+01 2.498911e+01 6.193341e+01 1.845849e+01 2.987608e+01 6.862327e+01 6.347558e+01 1.781013e+00 1.132652e+00 3.287631e+00 3.495343e+00 1.019128e-01 3.232931e+00 2.862617e+00 5.818585e+00 5.672554e+00 4.449468e+00 1.245614e+00 6.464977e-01 8.118947e+00
<GCONST> 1.014310e+02
<STATE> 3
<MEAN> 25
 2.703066e+00 -7.129687e+00 1.893206e+00 -1.784778e+00 -5.006079e+00 -9.735330e+00 -4.997288e+00 -1.460266e-01 1.420847e+00 -2.700643e+00 3.387385e+00 -3.340047e+00 -3.992387e-02 -2.224399e-01 -1.363147e-01 3.466783e-01 -4.998333e-01 1.421534e+00 2.241987e+00 1.361629e+00 -7.194807e-02 -1.884292e-01 8.895039e-02 -5.234864e-01 -1.132536e+00
<VARIANCE> 25
 3.431397e+01 2.391354e+01 4.631121e+01 3.636609e+01 1.030512e+02 5.038980e+01 1.694181e+01 5.875927e+01 1.840106e+01 1.255588e+01 6.310651e+01 6.054723e+01 2.431619e+00 9.068489e-01 2.422923e+00 1.099464e+00 6.725613e-01 4.805926e+00 7.769387e-01 1.216450e+00 2.592722e+00 2.999415e+00 1.835845e+00 9.986255e-01 5.151263e+00
<GCONST> 9.641885e+01
<STATE> 4
<MEAN> 25
 2.612747e+00 -9.338200e+00 4.292435e-01 -9.396726e-01 -1.157819e+01 -1.118358e+01 1.119620e+00 5.813078e+00 1.802847e+00 2.999924e-01 6.084716e+00 -4.160501e+00 -3.219522e-01 3.300530e-01 -6.008704e-01 1.213696e-01 1.448378e-02 2.589783e-01 7.346603e-01 8.300116e-01 2.291292e-01 1.344499e+00 8.878646e-01 1.238852e+00 -1.057372e+00
<VARIANCE> 25
 2.422858e+01 1.376792e+01 2.251358e+01 2.654798e+01 1.158986e+02 4.375478e+01 1.892598e+01 4.558961e+01 2.288992e+01 2.569249e+01 4.581237e+01 5.027633e+01 8.262438e-01 7.461193e-01 6.640497e-01 1.451446e+00 8.221654e-01 3.460034e+00 8.220013e-01 8.134667e-01 5.655493e-01 2.388971e+00 1.710985e+00 7.830043e-01 8.647478e-01
<GCONST> 8.813086e+01
<TRANSP> 5
 0.000000e+00 1.000000e+00 0.000000e+00 0.000000e+00 0.000000e+00
 0.000000e+00 3.037989e-07 9.999997e-01 0.000000e+00 0.000000e+00
 0.000000e+00 0.000000e+00 1.703762e-01 8.296238e-01 0.000000e+00
 0.000000e+00 0.000000e+00 0.000000e+00 5.452881e-01 4.547119e-01
 0.000000e+00 0.000000e+00 0.000000e+00 0.000000e+00 0.000000e+00
<ENDHMM>
~h "s"
<BEGINHMM>
<NUMSTATES> 5
<STATE> 2
<MEAN> 25
 -2.413983e+00 5.894432e-01 1.199810e+01 -1.216348e+00 -1.407759e+01 -1.215519e+01 -4.598663e+00 -1.061524e+01 -1.218678e+00 -3.624289e+00 6.108667e+00 1.643620e+00 7.933919e-01 1.729799e-01 3.002172e-01 -3.824064e-01 -8.700252e-01 3.735080e-02 -4.921864e-01 -6.845110e-01 -1.627985e-01 -1.571461e-01 4.243370e-01 -2.219435e-01 1.947212e-01
<VARIANCE> 25
 6.007323e+01 2.166859e+01 5.271156e+01 1.720933e+01 1.084101e+02 3.105554e+01 8.478155e+01 8.297045e+01 2.376016e+01 4.279022e+01 3.943084e+01 2.663877e+01 5.053394e+00 2.255456e+00 2.271286e+00 3.144829e+00 6.996764e+00 4.051722e+00 6.912984e+00 5.132824e+00 3.748890e+00 3.430287e+00 3.240731e+00 2.698357e+00 2.475845e+00
<GCONST> 1.077324e+02
<STATE> 3
<MEAN> 25
 3.290360e+00 2.005001e+00 1.743026e+00 -8.703147e+00 -8.071680e+00 -2.353128e-01 -3.003711e+00 -7.313692e+00 2.805328e+00 -3.130333e+00 1.422187e+00 1.129115e+00 -8.073035e-01 -1.959962e-01 -2.498881e-01 4.201173e-01 1.472568e+00 -8.770578e-02 3.645506e-01 1.336473e+00 2.711795e-01 2.023848e-01 -3.390601e-01 4.799536e-01 1.502559e-01
<VARIANCE> 25
 4.573832e+01 1.787837e+01 1.382512e+02 1.538301e+02 5.308708e+01 5.205474e+01 2.708269e+01 8.843235e+01 6.380802e+01 2.618519e+01 3.199774e+01 3.369100e+01 2.860415e+00 2.943625e+00 3.890148e+00 4.298053e+00 2.196599e+00 6.658398e+00 3.329535e+00 6.525902e+00 1.655905e+00 2.427608e+00 3.621268e+00 2.195562e+00 2.696224e+00
<GCONST> 1.078927e+02
<STATE> 4
<MEAN> 25
 -1.083999e+01 1.617886e+00 2.577624e-01 -3.654700e+00 5.397653e+00 -7.735340e+00 -1.370116e+00 2.217262e+00 5.602306e+00 7.749655e-01 -3.228880e-01 6.021376e+00 -4.949839e-01 8.120435e-02 -6.319593e-01 -2.397846e-01 -9.554576e-02 -5.982782e-02 2.423858e-01 -4.842944e-01 -4.636367e-01 -1.087869e-01 1.405504e-01 3.464619e-01 2.368871e-01
<VARIANCE> 25
 5.642457e+01 2.857554e+01 3.790724e+01 1.742865e+01 5.258773e+01 3.184449e+01 6.498583e+01 4.129981e+01 3.413091e+01 1.950817e+01 1.887240e+01 2.562571e+01 4.559173e+00 1.069704e+00 1.494912e+00 6.927386e-01 2.224605e+00 2.901927e+00 6.114214e+00 2.241181e+00 2.846988e+00 1.428477e+00 1.984617e+00 2.555888e+00 1.878287e+00
<GCONST> 9.758546e+01
<TRANSP> 5
 0.000000e+00 1.000000e+00 0.000000e+00 0.000000e+00 0.000000e+00
 0.000000e+00 8.787079e-01 1.212921e-01 0.000000e+00 0.000000e+00
 0.000000e+00 0.000000e+00 7.600493e-01 2.399508e-01 0.000000e+00
 0.000000e+00 0.000000e+00 0.000000e+00 7.262213e-01 2.737786e-01
 0.000000e+00 0.000000e+00 0.000000e+00 0.000000e+00 0.000000e+00
<ENDHMM>
~h "t"
<BEGINHMM>
<NUMSTATES> 5
<STATE> 2
<MEAN> 25
 6.854886e+00 -4.319799e+00 2.884344e+00 2.602704e+00 -1.670623e+01 -9.729630e+00 -8.107522e+00 -8.199987e+00 5.282468e+00 -6.552864e+00 5.207004e+00 2.416271e+00 3.529953e-01 -9.257709e-01 6.624273e-01 9.361523e-01 -1.659896e+00 -1.976070e+00 1.109207e-01 9.828594e-01 -2.016844e-01 -6.932222e-01 1.007177e+00 -2.434717e-02 2.690525e-01
<VARIANCE> 25
 1.207501e+01 5.056024e+01 4.476763e+01 6.063674e+00 1.705318e+02 3.149800e+01 2.545893e+01 3.627084e+01 1.293545e+01 7.255572e+01 3.185904e+01 8.745062e+00 1.482695e-01 1.315619e+00 5.957058e+00 7.170416e-01 3.535346e+00 1.673604e+00 1.251879e+00 1.139361e+00 3.109390e+00 2.670897e+00 2.068879e+00 1.124153e+00 5.033224e-01
<GCONST> 9.008089e+01
<STATE> 3
<MEAN> 25
 6.120962e+00 -7.332279e-01 8.657426e+00 2.305734e+00 -1.721355e+01 -1.247509e+01 -6.554399e+00 -6.936260e+00 -4.896148e+00 -6.173493e+00 7.769809e+00 -2.197671e+00 -5.766749e-01 6.499048e-01 3.390865e-01 -4.978008e-01 1.475843e+00 7.510930e-02 5.938756e-02 -2.210936e-01 -5.969070e-01 9.904929e-01 -8.113221e-01 -1.874668e-02 -5.045236e-01
<VARIANCE> 25
 1.018904e+01 3.707861e+01 1.761319e+01 1.349571e+01 7.516137e+01 2.760211e+01 2.116450e+01 1.636709e+01 3.891809e+01 2.713585e+01 2.437488e+01 1.428388e+01 3.955186e-01 2.035923e+00 8.190609e-01 1.252574e+00 5.329390e+00 8.647692e-01 1.990063e+00 2.153362e+00 3.091778e+00 2.589915e+00 4.513661e+00 2.222531e+00 6.409429e-01
<GCONST> 9.038586e+01
<STATE> 4
<MEAN> 25
 4.470594e+00 -5.402046e+00 4.057492e+00 3.147229e-01 -3.555237e+00 -1.287672e+01 -1.355624e+01 -2.875193e+00 6.976771e+00 -8.566367e-02 -6.050852e-01 8.545159e-01 -5.295340e-01 -2.204360e+00 4.080648e-02 -6.335784e-01 -8.726724e-01 4.105230e-02 -1.133736e+00 1.553690e-01 2.457493e+00 -1.046930e+00 6.693281e-01 -5.871217e-01 1.833709e+00
<VARIANCE> 25
 1.187888e+01 7.692700e+01 1.669320e+01 2.502753e+00 9.546954e+01 4.668674e+01 9.884462e+01 3.010990e+01 7.114411e+01 4.383358e+01 3.194997e+01 7.344121e+00 1.475792e+00 1.781322e+00 1.011602e+00 9.508460e-01 1.919301e+01 3.527308e+00 8.948637e+00 1.387983e+00 2.708210e+00 7.816843e+00 6.654798e+00 2.487835e+00 3.651181e+00
<GCONST> 1.012173e+02
<TRANSP> 5
 0.000000e+00 1.000000e+00 0.000000e+00 0.000000e+00 0.000000e+00
 0.000000e+00 6.721575e-01 3.278425e-01 0.000000e+00 0.000000e+00
 0.000000e+00 0.000000e+00 7.789609e-01 2.210390e-01 0.000000e+00
 0.000000e+00 0.000000e+00 0.000000e+00 6.912589e-01 3.087411e-01
 0.000000e+00 0.000000e+00 0.000000e+00 0.000000e+00 0.000000e+00
<ENDHMM>
~h "u"
<BEGINHMM>
<NUMSTATES> 5
<STATE> 2
<MEAN> 25
 -1.953245e+00 -4.272741e-01 1.918115e+00 -3.939708e+00 -9.553169e-01 -4.887362e+00 -4.585846e+00 5.009372e+00 7.712819e+00 1.832235e+00 2.503298e+00 -1.537008e+00 1.816176e-01 -1.002523e+00 -4.363468e-01 -9.139796e-01 -4.834377e-01 1.388017e+00 1.528050e+00 1.197658e-01 -1.252991e-01 -3.391480e-01 -2.459381e-01 -5.713391e-01 -8.568139e-02
<VARIANCE> 25
 8.223527e+01 4.404741e+01 1.070226e+01 3.522868e+01 7.621149e+01 2.295438e+01 1.283069e+02 2.405532e+00 4.477964e+01 2.396959e+01 2.508596e+01 2.636349e+00 3.975011e-01 5.788787e-01 1.794302e+00 7.362750e-01 4.652229e-01 9.008528e-01 3.571000e+00 2.031327e-01 5.110886e-01 3.470992e-01 2.856443e+00 1.469832e+00 3.229515e-01
<GCONST> 8.063720e+01
<STATE> 3
<MEAN> 25
 -5.594677e-01 -5.585067e+00 -7.300366e-01 -6.337917e+00 -6.383370e+00 -4.177449e+00 -3.297002e+00 3.717214e+00 1.157454e+01 -3.019853e+00 -3.149227e+00 -3.507020e+00 -1.533114e-01 -3.305854e-01 -1.064106e+00 -2.387488e-02 8.938985e-01 4.611835e-01 2.426504e+00 -5.502927e-01 -2.124228e-01 -5.867073e-01 -2.091885e+00 -5.129651e-01 7.811400e-02
<VARIANCE> 25
 4.282991e+01 5.080490e+01 2.083298e+01 1.299625e+01 8.785312e+01 2.038355e+01 7.474107e+01 1.089520e+01 8.465415e+01 1.507097e+01 2.412026e+01 2.562498e+00 4.838639e-01 4.405546e-01 2.162747e+00 1.225714e+00 6.368306e-01 8.883061e-01 6.690871e+00 6.711406e-01 8.629563e-01 9.798845e-01 3.110050e+00 3.512094e-01 2.173772e-01
<GCONST> 8.345742e+01
<STATE> 4
<MEAN> 25
 9.033861e-02 2.166607e+00 -4.500053e-01 3.703065e+00 3.465304e+00 5.039317e+00 2.944176e+00 2.996412e+00 -4.286639e+00 2.025359e+00 -5.576157e-01 -9.010508e-01 2.885712e-02 -9.692258e-02 5.495386e-03 8.338006e-02 -4.699912e-02 2.780927e-02 -9.762027e-02 3.266145e-02 -1.628965e-02 -1.125056e-02 -4.460686e-03 8.843196e-02 -3.245295e-02
<VARIANCE> 25
 5.473559e+00 8.129870e+00 5.033641e+00 1.101467e+01 1.151464e+01 1.276939e+01 1.143987e+01 8.709893e+00 2.734379e+01 1.207931e+01 1.507983e+01 9.252937e+00 1.604862e-01 2.497119e-01 2.977415e-01 6.678160e-01 8.568859e-01 8.064008e-01 1.819051e+00 1.010591e+00 1.707868e+00 1.229345e+00 1.774890e+00 8.362119e-01 5.087927e-02
<GCONST> 6.765353e+01
<TRANSP> 5
 0.000000e+00 1.000000e+00 0.000000e+00 0.000000e+00 0.000000e+00
 0.000000e+00 5.780787e-05 9.999422e-01 0.000000e+00 0.000000e+00
 0.000000e+00 0.000000e+00 4.286442e-01 5.713559e-01 0.000000e+00
 0.000000e+00 0.000000e+00 0.000000e+00 9.200864e-01 7.991356e-02
 0.000000e+00 0.000000e+00 0.000000e+00 0.000000e+00 0.000000e+00
<ENDHMM>
~h "ng"
<BEGINHMM>
<NUMSTATES> 5
<STATE> 2
<MEAN> 25
 2.711044e-07 2.276736e-08 -6.105108e-08 -1.720701e-07 -1.586201e-07 9.768173e-08 -1.135738e-07 -1.298416e-07 7.694315e-08 -1.660590e-07 -1.083516e-07 -5.706868e-08 -2.818740e-03 -4.409721e-03 -4.277692e-03 -1.165964e-03 -3.608679e-03 5.208261e-03 -1.757075e-03 5.998432e-03 4.891248e-03 1.720927e-03 7.501529e-04 -5.307185e-03 6.137643e-03
<VARIANCE> 25
 2.670229e+01 2.794268e+01 3.749357e+01 3.307458e+01 5.256620e+01 4.928031e+01 4.561778e+01 4.954230e+01 4.604616e+01 3.096663e+01 2.869331e+01 1.969207e+01 8.024186e-01 8.637462e-01 9.762596e-01 1.208383e+00 1.860729e+00 1.938551e+00 2.342637e+00 2.054597e+00 2.126093e+00 1.768907e+00 1.840738e+00 1.505519e+00 1.027859e+00
<GCONST> 9.389127e+01
<STATE> 3
<MEAN> 25
 2.711044e-07 2.276736e-08 -6.105108e-08 -1.720701e-07 -1.586201e-07 9.768173e-08 -1.135738e-07 -1.298416e-07 7.694315e-08 -1.660590e-07 -1.083516e-07 -5.706868e-08 -2.818740e-03 -4.409721e-03 -4.277692e-03 -1.165964e-03 -3.608679e-03 5.208261e-03 -1.757075e-03 5.998432e-03 4.891248e-03 1.720927e-03 7.501529e-04 -5.307185e-03 6.137643e-03
<VARIANCE> 25
 2.670229e+01 2.794268e+01 3.749357e+01 3.307458e+01 5.256620e+01 4.928031e+01 4.561778e+01 4.954230e+01 4.604616e+01 3.096663e+01 2.869331e+01 1.969207e+01 8.024186e-01 8.637462e-01 9.762596e-01 1.208383e+00 1.860729e+00 1.938551e+00 2.342637e+00 2.054597e+00 2.126093e+00 1.768907e+00 1.840738e+00 1.505519e+00 1.027859e+00
<GCONST> 9.389127e+01
<STATE> 4
<MEAN> 25
 2.711044e-07 2.276736e-08 -6.105108e-08 -1.720701e-07 -1.586201e-07 9.768173e-08 -1.135738e-07 -1.298416e-07 7.694315e-08 -1.660590e-07 -1.083516e-07 -5.706868e-08 -2.818740e-03 -4.409721e-03 -4.277692e-03 -1.165964e-03 -3.608679e-03 5.208261e-03 -1.757075e-03 5.998432e-03 4.891248e-03 1.720927e-03 7.501529e-04 -5.307185e-03 6.137643e-03
<VARIANCE> 25
 2.670229e+01 2.794268e+01 3.749357e+01 3.307458e+01 5.256620e+01 4.928031e+01 4.561778e+01 4.954230e+01 4.604616e+01 3.096663e+01 2.869331e+01 1.969207e+01 8.024186e-01 8.637462e-01 9.762596e-01 1.208383e+00 1.860729e+00 1.938551e+00 2.342637e+00 2.054597e+00 2.126093e+00 1.768907e+00 1.840738e+00 1.505519e+00 1.027859e+00
<GCONST> 9.389127e+01
<TRANSP> 5
 0.000000e+00 1.000000e+00 0.000000e+00 0.000000e+00 0.000000e+00
 0.000000e+00 6.000000e-01 4.000000e-01 0.000000e+00 0.000000e+00
 0.000000e+00 0.000000e+00 6.000000e-01 4.000000e-01 0.000000e+00
 0.000000e+00 0.000000e+00 0.000000e+00 7.000000e-01 3.000000e-01
 0.000000e+00 0.000000e+00 0.000000e+00 0.000000e+00 0.000000e+00
<ENDHMM>
~h "sp"
<BEGINHMM>
<NUMSTATES> 3
<STATE> 2
~s "silst"
<TRANSP> 3
 0.000000e+00 3.661204e-01 6.338796e-01
 0.000000e+00 9.678475e-01 3.215250e-02
 0.000000e+00 0.000000e+00 0.000000e+00
<ENDHMM>
~h "sil"
<BEGINHMM>
<NUMSTATES> 5
<STATE> 2
<MEAN> 25
 1.310953e-02 1.647786e+00 3.241920e-01 2.872944e+00 2.359772e+00 3.171700e+00 2.516305e+00 2.788507e+00 -2.783001e+00 1.488131e+00 -1.739502e-01 -1.764305e-01 -4.953087e-03 1.152424e-04 5.124619e-03 -3.576391e-04 1.356850e-02 2.656464e-02 1.902732e-02 4.716260e-03 -1.232415e-02 6.182217e-03 6.575070e-03 -8.645603e-04 -1.801729e-02
<VARIANCE> 25
 1.247025e+00 2.993128e+00 3.882357e+00 6.638409e+00 7.963679e+00 1.144759e+01 1.100596e+01 1.223395e+01 1.217558e+01 1.161872e+01 1.129224e+01 1.059489e+01 9.352436e-02 2.260746e-01 3.711148e-01 5.875320e-01 7.460132e-01 9.924483e-01 1.181842e+00 1.131835e+00 1.263418e+00 1.201572e+00 1.045878e+00 1.018450e+00 3.608212e-02
<GCONST> 6.143465e+01
<STATE> 3
~s "silst"
<STATE> 4
<MEAN> 25
 -6.631208e-01 -2.532024e+00 -1.581121e+00 -4.554148e+00 -1.895400e+00 -3.565472e+00 -2.279490e+00 -4.218534e+00 2.833188e+00 -2.137370e+00 -1.081568e+00 1.121298e+00 7.901555e-03 -2.958082e-02 -5.477717e-02 -4.310806e-02 -6.862042e-02 -4.497399e-02 -7.957096e-02 2.523559e-02 8.031802e-02 2.077074e-02 1.390582e-02 -4.069385e-02 1.145907e-01
<VARIANCE> 25
 6.266084e+01 6.135378e+01 8.021172e+01 6.302750e+01 9.148855e+01 6.370941e+01 4.955675e+01 7.994156e+01 5.154318e+01 5.713380e+01 4.864368e+01 3.485183e+01 1.888157e+00 1.960134e+00 1.794298e+00 2.360113e+00 3.295012e+00 3.347635e+00 3.260022e+00 3.223798e+00 3.664516e+00 2.721346e+00 2.662560e+00 2.655420e+00 2.757223e+00
<GCONST> 1.078828e+02
<TRANSP> 5
 0.000000e+00 1.000000e+00 0.000000e+00 0.000000e+00 0.000000e+00
 0.000000e+00 9.783287e-01 7.320838e-03 1.435051e-02 0.000000e+00
 0.000000e+00 0.000000e+00 9.739876e-01 2.601242e-02 0.000000e+00
 0.000000e+00 3.469786e-02 0.000000e+00 9.421480e-01 2.315416e-02
 0.000000e+00 0.000000e+00 0.000000e+00 0.000000e+00 0.000000e+00
<ENDHMM>
