~o
<STREAMINFO> 1 25
<VECSIZE> 25<NULLD><MFCC_D_N_Z_0><DIAGC>
~h "E"
<BEGINHMM>
<NUMSTATES> 5
<STATE> 2
<MEAN> 25
 2.242045e+00 -2.152513e+00 -1.510515e+00 -3.063465e+00 -2.867702e+00 -4.821973e+00 -1.480682e+00 3.077080e+00 1.353927e+00 2.644067e+00 6.416835e+00 3.340708e+00 -8.462949e-01 -5.215593e-02 -3.888774e-01 4.702311e-01 -1.768838e-01 -4.833790e-01 2.665530e-01 4.047914e-01 2.861391e-01 4.988967e-01 3.553545e-01 3.587132e-01 -1.927528e-01
<VARIANCE> 25
 7.554018e+01 1.581849e+01 5.629305e+01 7.305788e+01 4.719706e+01 4.295463e+01 3.189295e+01 8.065632e+01 4.470206e+01 4.576744e+01 2.289400e+01 1.461599e+01 8.029088e-01 4.025527e-01 7.633623e-01 1.190132e+00 1.961122e+00 6.169976e+00 2.350427e+00 1.795439e+00 7.711996e-01 1.685101e+00 1.553323e+00 1.330131e+00 1.385935e+00
<GCONST> 9.427997e+01
<STATE> 3
<MEAN> 25
 8.316698e-01 -2.430798e+00 -2.134057e+00 -1.932869e+00 -2.694760e+00 -5.964209e+00 -1.966012e+00 3.468874e+00 1.714430e+00 3.797810e+00 7.914379e+00 4.591503e+00 -5.692871e-01 -9.066524e-02 -5.738356e-01 1.711735e-01 -7.745954e-02 -8.570373e-04 9.986341e-02 -9.384666e-02 2.638488e-01 6.211048e-02 6.167081e-01 5.628652e-01 2.805717e-02
<VARIANCE> 25
 7.565487e+01 1.280182e+01 6.189354e+01 1.017922e+02 3.487162e+01 5.373510e+01 3.611792e+01 8.136355e+01 3.424047e+01 5.214872e+01 1.647708e+01 2.491792e+01 5.730941e-01 3.705930e-01 1.131360e+00 1.497804e+00 1.748168e+00 4.264134e+00 3.311781e+00 2.718534e+00 6.623803e-01 1.205917e+00 1.131402e+00 1.433767e+00 2.220770e+00
<GCONST> 9.483897e+01
<STATE> 4
<MEAN> 25
 1.204174e+00 -2.669659e+00 -5.473287e+00 -4.646247e+00 -2.598303e+00 -6.746120e+00 -2.459816e+00 1.127333e+00 2.551341e+00 1.832691e+00 8.361871e+00 3.379637e+00 2.515480e-01 -1.192238e-01 -7.788954e-01 -6.424500e-01 -2.177469e-01 8.194302e-01 -1.308971e-01 -8.566187e-01 4.983726e-01 -6.550453e-01 3.329506e-01 2.717559e-01 6.023403e-01
<VARIANCE> 25
 5.837930e+01 1.171894e+01 6.300262e+01 9.717126e+01 2.278461e+01 7.948584e+01 5.990708e+01 1.096246e+02 2.368399e+01 5.707393e+01 1.945718e+01 3.009507e+01 1.263194e+00 4.465543e-01 1.742949e+00 2.466161e+00 2.046314e+00 4.641876e+00 4.750224e+00 3.528726e+00 1.222263e+00 2.138746e+00 1.172282e+00 1.089907e+00 4.092774e+00
<GCONST> 9.963917e+01
<TRANSP> 5
 0.000000e+00 1.000000e+00 0.000000e+00 0.000000e+00 0.000000e+00
 0.000000e+00 2.517197e-01 7.482803e-01 0.000000e+00 0.000000e+00
 0.000000e+00 0.000000e+00 2.513368e-01 7.486631e-01 0.000000e+00
 0.000000e+00 0.000000e+00 0.000000e+00 4.536328e-01 5.463672e-01
 0.000000e+00 0.000000e+00 0.000000e+00 0.000000e+00 0.000000e+00
<ENDHMM>
~h "a"
<BEGINHMM>
<NUMSTATES> 5
<STATE> 2
<MEAN> 25
 4.770033e+00 -3.737931e+00 1.777450e+00 -2.173059e+00 -4.564026e+00 -5.744340e+00 -4.903236e+00 -4.552857e+00 6.791623e+00 -2.700866e+00 -1.694044e+00 -3.934600e+00 -3.922020e-02 7.394113e-02 4.350528e-01 -1.676658e-01 -3.559750e-01 1.047245e-01 6.958719e-02 1.338865e-01 -7.565278e-01 5.270021e-02 4.722846e-01 1.340558e-01 -1.852348e-02
<VARIANCE> 25
 2.025434e+01 7.155157e+01 9.246971e+01 2.605393e+01 5.251406e+01 6.613286e+01 4.474781e+01 6.178442e+01 1.162060e+02 4.780248e+01 3.657119e+01 2.280183e+01 6.440210e-01 1.927615e+00 2.119067e+00 8.115565e-01 3.034794e+00 2.225892e+00 2.600238e+00 3.928761e+00 3.627839e+00 3.211982e+00 2.698073e+00 1.635281e+00 3.013595e+00
<GCONST> 1.024744e+02
<STATE> 3
<MEAN> 25
 4.669394e+00 -3.202080e+00 2.426077e+00 -2.090785e+00 -5.325070e+00 -5.353911e+00 -4.861753e+00 -5.189369e+00 4.281756e+00 -2.745720e+00 -7.488584e-01 -3.098619e+00 1.029803e-01 4.789617e-01 4.784053e-02 8.447347e-02 -4.020915e-01 1.900430e-01 -3.100002e-02 -1.004324e-01 -9.464293e-01 -1.726408e-01 3.267144e-01 2.400944e-01 -3.915440e-01
<VARIANCE> 25
 1.819817e+01 5.745517e+01 9.685358e+01 2.501933e+01 6.299200e+01 6.769273e+01 4.430441e+01 6.680068e+01 9.427522e+01 5.249543e+01 3.343412e+01 2.765230e+01 7.606607e-01 1.701888e+00 1.591767e+00 1.236656e+00 3.860005e+00 2.072085e+00 2.541631e+00 4.571245e+00 4.556496e+00 3.474002e+00 2.457700e+00 1.413258e+00 2.234624e+00
<GCONST> 1.026574e+02
<STATE> 4
<MEAN> 25
 5.725813e+00 -1.388549e+00 7.980862e-01 -2.249818e+00 -4.168895e+00 -4.171871e+00 -4.518035e+00 -5.327555e+00 3.011152e+00 -1.688580e+00 -1.691285e+00 -3.448172e+00 1.010186e-01 7.696949e-01 7.826998e-02 -9.522791e-02 -1.675512e-01 3.096445e-01 5.561458e-02 4.591735e-01 -9.810972e-01 -2.161513e-01 -1.607163e-02 2.901709e-01 -6.342925e-01
<VARIANCE> 25
 1.852092e+01 4.828347e+01 7.641620e+01 2.729127e+01 6.293824e+01 5.086477e+01 3.371632e+01 7.017017e+01 5.518721e+01 4.540064e+01 3.272577e+01 2.583971e+01 7.720510e-01 1.321784e+00 1.280285e+00 2.164040e+00 2.891269e+00 2.236436e+00 2.530713e+00 3.485995e+00 4.090004e+00 3.195045e+00 2.404229e+00 1.620980e+00 1.304496e+00
<GCONST> 1.000716e+02
<TRANSP> 5
 0.000000e+00 1.000000e+00 0.000000e+00 0.000000e+00 0.000000e+00
 0.000000e+00 4.471500e-01 5.528500e-01 0.000000e+00 0.000000e+00
 0.000000e+00 0.000000e+00 4.049852e-01 5.950149e-01 0.000000e+00
 0.000000e+00 0.000000e+00 0.000000e+00 4.402631e-01 5.597368e-01
 0.000000e+00 0.000000e+00 0.000000e+00 0.000000e+00 0.000000e+00
<ENDHMM>
~h "b"
<BEGINHMM>
<NUMSTATES> 5
<STATE> 2
<MEAN> 25
 2.711044e-07 2.276736e-08 -6.105108e-08 -1.720701e-07 -1.586201e-07 9.768173e-08 -1.135738e-07 -1.298416e-07 7.694315e-08 -1.660590e-07 -1.083516e-07 -5.706868e-08 -2.818740e-03 -4.409721e-03 -4.277692e-03 -1.165964e-03 -3.608679e-03 5.208261e-03 -1.757075e-03 5.998432e-03 4.891248e-03 1.720927e-03 7.501529e-04 -5.307185e-03 6.137643e-03
<VARIANCE> 25
 2.670229e+01 2.794268e+01 3.749357e+01 3.307458e+01 5.256620e+01 4.928031e+01 4.561778e+01 4.954230e+01 4.604616e+01 3.096663e+01 2.869331e+01 1.969207e+01 8.024186e-01 8.637462e-01 9.762596e-01 1.208383e+00 1.860729e+00 1.938551e+00 2.342637e+00 2.054597e+00 2.126093e+00 1.768907e+00 1.840738e+00 1.505519e+00 1.027859e+00
<GCONST> 9.389128e+01
<STATE> 3
<MEAN> 25
 2.711044e-07 2.276736e-08 -6.105108e-08 -1.720701e-07 -1.586201e-07 9.768173e-08 -1.135738e-07 -1.298416e-07 7.694315e-08 -1.660590e-07 -1.083516e-07 -5.706868e-08 -2.818740e-03 -4.409721e-03 -4.277692e-03 -1.165964e-03 -3.608679e-03 5.208261e-03 -1.757075e-03 5.998432e-03 4.891248e-03 1.720927e-03 7.501529e-04 -5.307185e-03 6.137643e-03
<VARIANCE> 25
 2.670229e+01 2.794268e+01 3.749357e+01 3.307458e+01 5.256620e+01 4.928031e+01 4.561778e+01 4.954230e+01 4.604616e+01 3.096663e+01 2.869331e+01 1.969207e+01 8.024186e-01 8.637462e-01 9.762596e-01 1.208383e+00 1.860729e+00 1.938551e+00 2.342637e+00 2.054597e+00 2.126093e+00 1.768907e+00 1.840738e+00 1.505519e+00 1.027859e+00
<GCONST> 9.389128e+01
<STATE> 4
<MEAN> 25
 2.711044e-07 2.276736e-08 -6.105108e-08 -1.720701e-07 -1.586201e-07 9.768173e-08 -1.135738e-07 -1.298416e-07 7.694315e-08 -1.660590e-07 -1.083516e-07 -5.706868e-08 -2.818740e-03 -4.409721e-03 -4.277692e-03 -1.165964e-03 -3.608679e-03 5.208261e-03 -1.757075e-03 5.998432e-03 4.891248e-03 1.720927e-03 7.501529e-04 -5.307185e-03 6.137643e-03
<VARIANCE> 25
 2.670229e+01 2.794268e+01 3.749357e+01 3.307458e+01 5.256620e+01 4.928031e+01 4.561778e+01 4.954230e+01 4.604616e+01 3.096663e+01 2.869331e+01 1.969207e+01 8.024186e-01 8.637462e-01 9.762596e-01 1.208383e+00 1.860729e+00 1.938551e+00 2.342637e+00 2.054597e+00 2.126093e+00 1.768907e+00 1.840738e+00 1.505519e+00 1.027859e+00
<GCONST> 9.389128e+01
<TRANSP> 5
 0.000000e+00 1.000000e+00 0.000000e+00 0.000000e+00 0.000000e+00
 0.000000e+00 6.000000e-01 4.000000e-01 0.000000e+00 0.000000e+00
 0.000000e+00 0.000000e+00 6.000000e-01 4.000000e-01 0.000000e+00
 0.000000e+00 0.000000e+00 0.000000e+00 7.000000e-01 3.000000e-01
 0.000000e+00 0.000000e+00 0.000000e+00 0.000000e+00 0.000000e+00
<ENDHMM>
~h "d"
<BEGINHMM>
<NUMSTATES> 5
<STATE> 2
<MEAN> 25
 2.711044e-07 2.276736e-08 -6.105108e-08 -1.720701e-07 -1.586201e-07 9.768173e-08 -1.135738e-07 -1.298416e-07 7.694315e-08 -1.660590e-07 -1.083516e-07 -5.706868e-08 -2.818740e-03 -4.409721e-03 -4.277692e-03 -1.165964e-03 -3.608679e-03 5.208261e-03 -1.757075e-03 5.998432e-03 4.891248e-03 1.720927e-03 7.501529e-04 -5.307185e-03 6.137643e-03
<VARIANCE> 25
 2.670229e+01 2.794268e+01 3.749357e+01 3.307458e+01 5.256620e+01 4.928031e+01 4.561778e+01 4.954230e+01 4.604616e+01 3.096663e+01 2.869331e+01 1.969207e+01 8.024186e-01 8.637462e-01 9.762596e-01 1.208383e+00 1.860729e+00 1.938551e+00 2.342637e+00 2.054597e+00 2.126093e+00 1.768907e+00 1.840738e+00 1.505519e+00 1.027859e+00
<GCONST> 9.389128e+01
<STATE> 3
<MEAN> 25
 2.711044e-07 2.276736e-08 -6.105108e-08 -1.720701e-07 -1.586201e-07 9.768173e-08 -1.135738e-07 -1.298416e-07 7.694315e-08 -1.660590e-07 -1.083516e-07 -5.706868e-08 -2.818740e-03 -4.409721e-03 -4.277692e-03 -1.165964e-03 -3.608679e-03 5.208261e-03 -1.757075e-03 5.998432e-03 4.891248e-03 1.720927e-03 7.501529e-04 -5.307185e-03 6.137643e-03
<VARIANCE> 25
 2.670229e+01 2.794268e+01 3.749357e+01 3.307458e+01 5.256620e+01 4.928031e+01 4.561778e+01 4.954230e+01 4.604616e+01 3.096663e+01 2.869331e+01 1.969207e+01 8.024186e-01 8.637462e-01 9.762596e-01 1.208383e+00 1.860729e+00 1.938551e+00 2.342637e+00 2.054597e+00 2.126093e+00 1.768907e+00 1.840738e+00 1.505519e+00 1.027859e+00
<GCONST> 9.389128e+01
<STATE> 4
<MEAN> 25
 2.711044e-07 2.276736e-08 -6.105108e-08 -1.720701e-07 -1.586201e-07 9.768173e-08 -1.135738e-07 -1.298416e-07 7.694315e-08 -1.660590e-07 -1.083516e-07 -5.706868e-08 -2.818740e-03 -4.409721e-03 -4.277692e-03 -1.165964e-03 -3.608679e-03 5.208261e-03 -1.757075e-03 5.998432e-03 4.891248e-03 1.720927e-03 7.501529e-04 -5.307185e-03 6.137643e-03
<VARIANCE> 25
 2.670229e+01 2.794268e+01 3.749357e+01 3.307458e+01 5.256620e+01 4.928031e+01 4.561778e+01 4.954230e+01 4.604616e+01 3.096663e+01 2.869331e+01 1.969207e+01 8.024186e-01 8.637462e-01 9.762596e-01 1.208383e+00 1.860729e+00 1.938551e+00 2.342637e+00 2.054597e+00 2.126093e+00 1.768907e+00 1.840738e+00 1.505519e+00 1.027859e+00
<GCONST> 9.389128e+01
<TRANSP> 5
 0.000000e+00 1.000000e+00 0.000000e+00 0.000000e+00 0.000000e+00
 0.000000e+00 6.000000e-01 4.000000e-01 0.000000e+00 0.000000e+00
 0.000000e+00 0.000000e+00 6.000000e-01 4.000000e-01 0.000000e+00
 0.000000e+00 0.000000e+00 0.000000e+00 7.000000e-01 3.000000e-01
 0.000000e+00 0.000000e+00 0.000000e+00 0.000000e+00 0.000000e+00
<ENDHMM>
~h "e"
<BEGINHMM>
<NUMSTATES> 5
<STATE> 2
<MEAN> 25
 -8.080088e-02 -4.600573e+00 -3.266582e+00 -4.028208e+00 -9.638615e-01 -7.514929e+00 -7.933492e+00 3.789437e-01 3.591555e+00 -1.233284e+00 -1.621278e+00 1.815759e+00 9.138419e-01 -7.332311e-01 -2.013698e-01 -5.494694e-01 -1.313971e+00 -5.197621e-01 -2.471259e+00 -7.830375e-01 2.371127e+00 -9.751474e-01 3.213775e-01 -3.697388e-01 2.114499e+00
<VARIANCE> 25
 1.318558e+01 3.645992e+01 1.341429e+01 1.064363e+01 3.800422e+01 8.553117e+01 1.512357e+02 2.782275e+01 6.675086e+01 1.224724e+01 1.057976e+01 1.547322e+01 5.228367e+00 2.213823e+00 2.067301e+00 1.511813e+00 7.617973e+00 6.420465e+00 9.826032e+00 2.107317e+00 5.452074e+00 1.834283e+00 1.030216e+00 3.073391e+00 3.013826e+00
<GCONST> 1.003864e+02
<STATE> 3
<MEAN> 25
 4.705118e-01 -6.349525e+00 -3.720235e+00 -5.156905e+00 -2.163373e+00 -8.659338e+00 -1.040085e+01 -1.008639e-01 9.284218e+00 -2.186833e+00 -2.117911e+00 1.308090e+00 5.390897e-01 -1.094779e+00 -3.201024e-01 -8.865811e-01 -1.066610e+00 -5.829904e-01 -1.557098e+00 -6.767891e-01 2.943935e+00 -7.849455e-01 1.046994e-01 -5.471576e-01 2.332185e+00
<VARIANCE> 25
 1.714483e+01 3.272621e+01 1.444200e+01 1.598055e+01 6.777357e+01 6.039923e+01 1.387312e+02 3.852085e+01 9.075417e+01 2.398359e+01 1.360455e+01 1.973114e+01 3.132541e+00 3.144194e+00 1.447896e+00 1.067215e+00 9.542126e+00 8.681009e+00 1.101046e+01 1.611570e+00 5.289039e+00 2.041183e+00 2.116807e+00 3.876738e+00 2.509635e+00
<GCONST> 1.033170e+02
<STATE> 4
<MEAN> 25
 4.647855e+00 -9.857808e+00 -6.700735e+00 -6.336210e+00 -5.569061e+00 -6.564713e+00 -1.032320e+01 -8.369640e+00 1.377635e+01 -6.373553e+00 -3.844954e+00 -2.476248e+00 1.217223e-01 -4.776302e-02 -4.992618e-02 1.009250e-01 6.928877e-03 -4.101235e-02 1.561891e-01 -1.845841e-01 7.402559e-02 -1.700794e-01 -1.483936e-02 -1.335945e-01 7.788944e-03
<VARIANCE> 25
 1.011335e+01 1.711753e+01 5.706430e+01 2.416173e+01 4.718107e+01 5.398323e+01 7.229089e+01 4.124737e+01 5.998825e+01 3.271699e+01 2.849615e+01 2.049634e+01 7.878546e-01 1.205725e+00 1.707868e+00 1.777773e+00 2.314953e+00 2.822767e+00 3.215193e+00 3.051808e+00 3.245026e+00 1.565542e+00 2.565539e+00 1.595932e+00 2.652246e+00
<GCONST> 9.735522e+01
<TRANSP> 5
 0.000000e+00 1.000000e+00 0.000000e+00 0.000000e+00 0.000000e+00
 0.000000e+00 2.448631e-01 7.551369e-01 0.000000e+00 0.000000e+00
 0.000000e+00 0.000000e+00 3.189628e-01 6.810371e-01 0.000000e+00
 0.000000e+00 0.000000e+00 0.000000e+00 9.771398e-01 2.286024e-02
 0.000000e+00 0.000000e+00 0.000000e+00 0.000000e+00 0.000000e+00
<ENDHMM>
~h "f"
<BEGINHMM>
<NUMSTATES> 5
<STATE> 2
<MEAN> 25
 2.711044e-07 2.276736e-08 -6.105108e-08 -1.720701e-07 -1.586201e-07 9.768173e-08 -1.135738e-07 -1.298416e-07 7.694315e-08 -1.660590e-07 -1.083516e-07 -5.706868e-08 -2.818740e-03 -4.409721e-03 -4.277692e-03 -1.165964e-03 -3.608679e-03 5.208261e-03 -1.757075e-03 5.998432e-03 4.891248e-03 1.720927e-03 7.501529e-04 -5.307185e-03 6.137643e-03
<VARIANCE> 25
 2.670229e+01 2.794268e+01 3.749357e+01 3.307458e+01 5.256620e+01 4.928031e+01 4.561778e+01 4.954230e+01 4.604616e+01 3.096663e+01 2.869331e+01 1.969207e+01 8.024186e-01 8.637462e-01 9.762596e-01 1.208383e+00 1.860729e+00 1.938551e+00 2.342637e+00 2.054597e+00 2.126093e+00 1.768907e+00 1.840738e+00 1.505519e+00 1.027859e+00
<GCONST> 9.389128e+01
<STATE> 3
<MEAN> 25
 2.711044e-07 2.276736e-08 -6.105108e-08 -1.720701e-07 -1.586201e-07 9.768173e-08 -1.135738e-07 -1.298416e-07 7.694315e-08 -1.660590e-07 -1.083516e-07 -5.706868e-08 -2.818740e-03 -4.409721e-03 -4.277692e-03 -1.165964e-03 -3.608679e-03 5.208261e-03 -1.757075e-03 5.998432e-03 4.891248e-03 1.720927e-03 7.501529e-04 -5.307185e-03 6.137643e-03
<VARIANCE> 25
 2.670229e+01 2.794268e+01 3.749357e+01 3.307458e+01 5.256620e+01 4.928031e+01 4.561778e+01 4.954230e+01 4.604616e+01 3.096663e+01 2.869331e+01 1.969207e+01 8.024186e-01 8.637462e-01 9.762596e-01 1.208383e+00 1.860729e+00 1.938551e+00 2.342637e+00 2.054597e+00 2.126093e+00 1.768907e+00 1.840738e+00 1.505519e+00 1.027859e+00
<GCONST> 9.389128e+01
<STATE> 4
<MEAN> 25
 2.711044e-07 2.276736e-08 -6.105108e-08 -1.720701e-07 -1.586201e-07 9.768173e-08 -1.135738e-07 -1.298416e-07 7.694315e-08 -1.660590e-07 -1.083516e-07 -5.706868e-08 -2.818740e-03 -4.409721e-03 -4.277692e-03 -1.165964e-03 -3.608679e-03 5.208261e-03 -1.757075e-03 5.998432e-03 4.891248e-03 1.720927e-03 7.501529e-04 -5.307185e-03 6.137643e-03
<VARIANCE> 25
 2.670229e+01 2.794268e+01 3.749357e+01 3.307458e+01 5.256620e+01 4.928031e+01 4.561778e+01 4.954230e+01 4.604616e+01 3.096663e+01 2.869331e+01 1.969207e+01 8.024186e-01 8.637462e-01 9.762596e-01 1.208383e+00 1.860729e+00 1.938551e+00 2.342637e+00 2.054597e+00 2.126093e+00 1.768907e+00 1.840738e+00 1.505519e+00 1.027859e+00
<GCONST> 9.389128e+01
<TRANSP> 5
 0.000000e+00 1.000000e+00 0.000000e+00 0.000000e+00 0.000000e+00
 0.000000e+00 6.000000e-01 4.000000e-01 0.000000e+00 0.000000e+00
 0.000000e+00 0.000000e+00 6.000000e-01 4.000000e-01 0.000000e+00
 0.000000e+00 0.000000e+00 0.000000e+00 7.000000e-01 3.000000e-01
 0.000000e+00 0.000000e+00 0.000000e+00 0.000000e+00 0.000000e+00
<ENDHMM>
~h "g"
<BEGINHMM>
<NUMSTATES> 5
<STATE> 2
<MEAN> 25
 7.477363e+00 -5.098401e+00 1.035019e+01 -3.832446e+00 -1.709128e+01 -6.316732e+00 -1.513490e+01 -6.106159e+00 3.943994e+00 -1.039614e+01 1.562863e+01 9.505497e-01 1.559990e-01 -1.647543e-01 -4.485956e-01 -9.895141e-02 5.279926e-03 4.616816e-01 -4.143387e-01 -4.093265e-01 1.629714e-01 1.216420e-01 4.190944e-01 1.760007e-01 8.728218e-02
<VARIANCE> 25
 1.948152e+01 4.818467e+01 7.147566e+01 4.062713e+01 6.687557e+01 6.719339e+01 4.930762e+01 3.392173e+01 3.985869e+01 4.902029e+01 8.303445e+01 2.253296e+01 7.204117e-01 8.906463e-01 1.674950e+00 1.461164e+00 3.805892e+00 1.853798e+00 2.649307e+00 2.755849e+00 2.996319e+00 4.371450e+00 5.061322e+00 2.332694e+00 6.248574e-01
<GCONST> 1.006736e+02
<STATE> 3
<MEAN> 25
 7.627342e+00 -1.547626e+00 1.176223e+00 -6.394231e+00 -8.475060e+00 1.009070e+00 -1.193761e+01 -7.005569e+00 1.250592e+00 -2.776021e+00 9.479259e+00 2.380797e+00 -9.896193e-01 3.417743e-01 1.440183e-02 2.136893e-01 1.130591e+00 -1.117976e-01 1.058398e+00 2.275180e-01 -2.877703e-01 8.804686e-01 -1.379460e+00 -3.089970e-02 -3.827924e-01
<VARIANCE> 25
 5.953925e+01 3.186115e+01 3.552213e+01 3.176730e+01 4.503815e+01 3.596862e+01 8.392281e+01 4.916547e+01 8.326507e+01 3.647747e+01 1.262913e+02 1.817698e+01 3.015771e+00 1.315025e+00 2.593701e+00 1.919834e+00 3.604878e+00 2.971723e+00 2.165411e+00 4.511163e+00 4.063630e+00 3.538992e+00 5.950062e+00 2.082058e+00 8.522452e-01
<GCONST> 1.046527e+02
<STATE> 4
<MEAN> 25
 -1.215287e+01 2.988854e+00 5.107551e+00 -7.536166e+00 1.633496e+00 -5.173173e+00 -1.137291e+01 2.603822e+00 7.091397e+00 -1.446127e+00 2.828200e+00 2.102841e+00 -7.259471e-01 -1.139473e-01 1.226784e-01 -6.778546e-02 4.786231e-01 -1.590137e-01 5.067600e-01 8.062060e-01 4.043584e-01 5.357907e-01 -2.259248e-01 -5.142266e-02 -3.129453e-01
<VARIANCE> 25
 1.359250e+02 1.924829e+01 2.544144e+01 1.706967e+01 3.217703e+01 3.015047e+01 3.651167e+01 3.930247e+01 6.450343e+01 2.881737e+01 3.539458e+01 1.107963e+01 2.179200e+00 7.247843e-01 9.505956e-01 1.211905e+00 1.123881e+00 1.583823e+00 1.107676e+00 2.155583e+00 1.671215e+00 1.402048e+00 2.112647e+00 1.141781e+00 4.039016e-01
<GCONST> 9.040685e+01
<TRANSP> 5
 0.000000e+00 1.000000e+00 0.000000e+00 0.000000e+00 0.000000e+00
 0.000000e+00 8.867031e-01 1.132969e-01 0.000000e+00 0.000000e+00
 0.000000e+00 0.000000e+00 6.217741e-01 3.782258e-01 0.000000e+00
 0.000000e+00 0.000000e+00 0.000000e+00 8.456023e-01 1.543977e-01
 0.000000e+00 0.000000e+00 0.000000e+00 0.000000e+00 0.000000e+00
<ENDHMM>
~h "h"
<BEGINHMM>
<NUMSTATES> 5
<STATE> 2
<MEAN> 25
 2.711044e-07 2.276736e-08 -6.105108e-08 -1.720701e-07 -1.586201e-07 9.768173e-08 -1.135738e-07 -1.298416e-07 7.694315e-08 -1.660590e-07 -1.083516e-07 -5.706868e-08 -2.818740e-03 -4.409721e-03 -4.277692e-03 -1.165964e-03 -3.608679e-03 5.208261e-03 -1.757075e-03 5.998432e-03 4.891248e-03 1.720927e-03 7.501529e-04 -5.307185e-03 6.137643e-03
<VARIANCE> 25
 2.670229e+01 2.794268e+01 3.749357e+01 3.307458e+01 5.256620e+01 4.928031e+01 4.561778e+01 4.954230e+01 4.604616e+01 3.096663e+01 2.869331e+01 1.969207e+01 8.024186e-01 8.637462e-01 9.762596e-01 1.208383e+00 1.860729e+00 1.938551e+00 2.342637e+00 2.054597e+00 2.126093e+00 1.768907e+00 1.840738e+00 1.505519e+00 1.027859e+00
<GCONST> 9.389128e+01
<STATE> 3
<MEAN> 25
 2.711044e-07 2.276736e-08 -6.105108e-08 -1.720701e-07 -1.586201e-07 9.768173e-08 -1.135738e-07 -1.298416e-07 7.694315e-08 -1.660590e-07 -1.083516e-07 -5.706868e-08 -2.818740e-03 -4.409721e-03 -4.277692e-03 -1.165964e-03 -3.608679e-03 5.208261e-03 -1.757075e-03 5.998432e-03 4.891248e-03 1.720927e-03 7.501529e-04 -5.307185e-03 6.137643e-03
<VARIANCE> 25
 2.670229e+01 2.794268e+01 3.749357e+01 3.307458e+01 5.256620e+01 4.928031e+01 4.561778e+01 4.954230e+01 4.604616e+01 3.096663e+01 2.869331e+01 1.969207e+01 8.024186e-01 8.637462e-01 9.762596e-01 1.208383e+00 1.860729e+00 1.938551e+00 2.342637e+00 2.054597e+00 2.126093e+00 1.768907e+00 1.840738e+00 1.505519e+00 1.027859e+00
<GCONST> 9.389128e+01
<STATE> 4
<MEAN> 25
 2.711044e-07 2.276736e-08 -6.105108e-08 -1.720701e-07 -1.586201e-07 9.768173e-08 -1.135738e-07 -1.298416e-07 7.694315e-08 -1.660590e-07 -1.083516e-07 -5.706868e-08 -2.818740e-03 -4.409721e-03 -4.277692e-03 -1.165964e-03 -3.608679e-03 5.208261e-03 -1.757075e-03 5.998432e-03 4.891248e-03 1.720927e-03 7.501529e-04 -5.307185e-03 6.137643e-03
<VARIANCE> 25
 2.670229e+01 2.794268e+01 3.749357e+01 3.307458e+01 5.256620e+01 4.928031e+01 4.561778e+01 4.954230e+01 4.604616e+01 3.096663e+01 2.869331e+01 1.969207e+01 8.024186e-01 8.637462e-01 9.762596e-01 1.208383e+00 1.860729e+00 1.938551e+00 2.342637e+00 2.054597e+00 2.126093e+00 1.768907e+00 1.840738e+00 1.505519e+00 1.027859e+00
<GCONST> 9.389128e+01
<TRANSP> 5
 0.000000e+00 1.000000e+00 0.000000e+00 0.000000e+00 0.000000e+00
 0.000000e+00 6.000000e-01 4.000000e-01 0.000000e+00 0.000000e+00
 0.000000e+00 0.000000e+00 6.000000e-01 4.000000e-01 0.000000e+00
 0.000000e+00 0.000000e+00 0.000000e+00 7.000000e-01 3.000000e-01
 0.000000e+00 0.000000e+00 0.000000e+00 0.000000e+00 0.000000e+00
<ENDHMM>
~h "i"
<BEGINHMM>
<NUMSTATES> 5
<STATE> 2
<MEAN> 25
 -1.844794e+00 2.064301e+00 4.502160e+00 -1.883213e+00 -8.850409e-02 -5.149989e+00 -2.219230e+00 -2.884611e+00 -6.204718e-01 2.042482e-01 -1.801668e-02 1.610984e+00 -5.000668e-01 6.138996e-02 -2.956790e-01 -2.791896e-01 7.794038e-01 -6.170401e-01 3.294371e-01 3.003432e-01 6.224662e-01 4.766971e-01 -4.319132e-01 1.451284e-01 -3.750698e-02
<VARIANCE> 25
 7.553182e+01 2.467491e+01 7.730373e+01 1.072338e+01 9.500167e+01 4.168433e+01 5.846904e+01 7.489662e+01 3.642459e+01 3.806881e+01 2.045188e+01 1.904912e+01 1.416049e+00 1.457507e+00 1.377666e+00 2.629712e+00 2.467175e+00 4.612260e+00 4.761815e+00 3.523715e+00 2.044481e+00 2.328512e+00 1.681227e+00 2.457952e+00 2.953388e+00
<GCONST> 1.013918e+02
<STATE> 3
<MEAN> 25
 -2.812421e+00 1.826237e+00 3.170757e+00 -2.734821e+00 1.958162e+00 -6.120512e+00 -2.141816e+00 -1.658038e+00 9.502237e-01 1.700397e+00 -9.164063e-01 2.336066e+00 -2.589152e-01 -1.256233e-01 -5.165538e-01 -3.411235e-01 4.443396e-01 -5.338770e-01 -2.765752e-01 1.486786e-01 7.426421e-01 3.894502e-01 -2.775749e-01 3.617751e-03 2.593225e-01
<VARIANCE> 25
 7.323118e+01 2.343885e+01 5.111453e+01 1.711588e+01 6.380563e+01 3.592028e+01 4.582523e+01 5.563088e+01 2.775579e+01 2.020946e+01 2.043930e+01 2.711229e+01 1.396863e+00 1.393251e+00 1.861402e+00 1.989445e+00 2.489363e+00 4.207928e+00 6.517404e+00 5.661059e+00 1.839757e+00 1.920884e+00 1.697152e+00 1.695742e+00 3.648813e+00
<GCONST> 9.994282e+01
<STATE> 4
<MEAN> 25
 -3.179980e+00 9.697656e-01 2.251060e+00 -3.096295e+00 2.546746e+00 -5.654125e+00 -1.590041e+00 -5.651740e-01 1.795253e+00 2.421513e+00 -1.567088e+00 1.675017e+00 2.631802e-01 -9.451648e-02 -5.769560e-01 1.558710e-02 5.308272e-02 1.124471e-01 -2.451204e-01 1.106530e-01 2.235706e-01 1.124108e-01 -2.177706e-02 -2.984610e-01 3.296588e-02
<VARIANCE> 25
 6.577431e+01 2.196367e+01 3.138111e+01 1.895940e+01 5.141071e+01 3.908668e+01 4.792572e+01 3.056873e+01 2.293095e+01 1.348590e+01 2.065935e+01 2.664908e+01 1.469123e+00 9.010593e-01 1.365056e+00 1.574308e+00 1.797329e+00 2.731400e+00 6.107413e+00 6.733414e+00 1.671272e+00 1.789291e+00 1.849755e+00 1.345948e+00 2.510720e+00
<GCONST> 9.583267e+01
<TRANSP> 5
 0.000000e+00 1.000000e+00 0.000000e+00 0.000000e+00 0.000000e+00
 0.000000e+00 3.298979e-01 6.701021e-01 0.000000e+00 0.000000e+00
 0.000000e+00 0.000000e+00 3.132801e-01 6.867200e-01 0.000000e+00
 0.000000e+00 0.000000e+00 0.000000e+00 3.825407e-01 6.174594e-01
 0.000000e+00 0.000000e+00 0.000000e+00 0.000000e+00 0.000000e+00
<ENDHMM>
~h "k"
<BEGINHMM>
<NUMSTATES> 5
<STATE> 2
<MEAN> 25
 6.233244e+00 -6.432458e-01 -2.047869e+00 -5.277840e+00 -3.433816e+00 -1.996331e+00 -7.297401e+00 -5.900675e+00 2.775448e+00 -2.447123e+00 1.803138e-01 -2.372718e+00 2.220055e-01 -2.534979e-01 -7.933135e-02 -3.751012e-01 -3.734798e-01 -1.719348e-01 -2.439975e-01 2.427477e-02 4.079720e-01 -1.904458e-01 -1.662872e-01 -1.153984e-01 6.041784e-01
<VARIANCE> 25
 3.450619e+01 7.909277e+01 5.201738e+01 4.268633e+01 4.591200e+01 7.225766e+01 1.347324e+02 8.937383e+01 7.383424e+01 3.597279e+01 6.006973e+01 2.314099e+01 1.238241e+00 3.462298e+00 2.085845e+00 3.537241e+00 4.849828e+00 7.171175e+00 1.342052e+01 6.238278e+00 3.792788e+00 3.113618e+00 5.711796e+00 2.135239e+00 4.914087e+00
<GCONST> 1.121817e+02
<STATE> 3
<MEAN> 25
 -2.764462e+00 -3.457417e+00 -7.851685e+00 -5.665754e+00 -2.804363e-01 -6.513156e+00 -6.764313e-01 -1.480442e+00 8.788094e+00 -2.375335e+00 -4.126812e+00 1.020128e-01 -2.132806e-01 1.454336e-01 -3.023282e-02 1.753342e-01 2.527717e-01 7.138546e-02 2.063235e-01 2.775772e-01 -7.266196e-03 2.720925e-01 -2.998353e-02 6.192069e-02 -3.362201e-01
<VARIANCE> 25
 9.487695e+01 6.484882e+01 3.823161e+01 2.850309e+01 5.163793e+01 4.650328e+01 5.587186e+01 7.748038e+01 5.015505e+01 2.359599e+01 4.660267e+01 3.680809e+01 1.311984e+00 1.862213e+00 1.792190e+00 1.861852e+00 2.625310e+00 2.263216e+00 3.743249e+00 2.920533e+00 2.790103e+00 1.455588e+00 3.610505e+00 1.775307e+00 1.566823e+00
<GCONST> 1.023261e+02
<STATE> 4
<MEAN> 25
 1.700468e+00 -3.383759e+00 -7.536018e+00 -2.315328e+00 1.607387e+00 -2.626006e+00 9.971911e-01 -1.778867e+00 7.448921e+00 -1.294934e+00 -4.511354e-01 -3.138936e+00 1.940637e-01 4.599815e-01 5.046387e-01 1.945525e-01 -2.820856e-01 1.993455e-01 -1.378253e-01 2.262976e-01 -6.507310e-01 7.723945e-01 -1.454193e-01 -2.656403e-01 -8.424382e-01
<VARIANCE> 25
 4.172147e+01 2.636971e+01 2.364977e+01 2.621921e+01 2.431301e+01 3.686085e+01 3.759850e+01 8.141758e+01 6.393671e+01 2.592009e+01 1.423853e+01 3.248679e+01 5.062769e-01 7.852131e-01 1.097189e+00 1.918481e+00 1.083932e+00 1.826646e+00 2.489469e+00 1.660089e+00 3.476608e+00 1.265041e+00 1.531681e+00 1.431010e+00 6.049434e-01
<GCONST> 9.144154e+01
<TRANSP> 5
 0.000000e+00 1.000000e+00 0.000000e+00 0.000000e+00 0.000000e+00
 0.000000e+00 8.086604e-01 1.913396e-01 0.000000e+00 0.000000e+00
 0.000000e+00 0.000000e+00 8.637938e-01 1.362062e-01 0.000000e+00
 0.000000e+00 0.000000e+00 0.000000e+00 6.847005e-01 3.152995e-01
 0.000000e+00 0.000000e+00 0.000000e+00 0.000000e+00 0.000000e+00
<ENDHMM>
~h "l"
<BEGINHMM>
<NUMSTATES> 5
<STATE> 2
<MEAN> 25
 2.711044e-07 2.276736e-08 -6.105108e-08 -1.720701e-07 -1.586201e-07 9.768173e-08 -1.135738e-07 -1.298416e-07 7.694315e-08 -1.660590e-07 -1.083516e-07 -5.706868e-08 -2.818740e-03 -4.409721e-03 -4.277692e-03 -1.165964e-03 -3.608679e-03 5.208261e-03 -1.757075e-03 5.998432e-03 4.891248e-03 1.720927e-03 7.501529e-04 -5.307185e-03 6.137643e-03
<VARIANCE> 25
 2.670229e+01 2.794268e+01 3.749357e+01 3.307458e+01 5.256620e+01 4.928031e+01 4.561778e+01 4.954230e+01 4.604616e+01 3.096663e+01 2.869331e+01 1.969207e+01 8.024186e-01 8.637462e-01 9.762596e-01 1.208383e+00 1.860729e+00 1.938551e+00 2.342637e+00 2.054597e+00 2.126093e+00 1.768907e+00 1.840738e+00 1.505519e+00 1.027859e+00
<GCONST> 9.389128e+01
<STATE> 3
<MEAN> 25
 2.711044e-07 2.276736e-08 -6.105108e-08 -1.720701e-07 -1.586201e-07 9.768173e-08 -1.135738e-07 -1.298416e-07 7.694315e-08 -1.660590e-07 -1.083516e-07 -5.706868e-08 -2.818740e-03 -4.409721e-03 -4.277692e-03 -1.165964e-03 -3.608679e-03 5.208261e-03 -1.757075e-03 5.998432e-03 4.891248e-03 1.720927e-03 7.501529e-04 -5.307185e-03 6.137643e-03
<VARIANCE> 25
 2.670229e+01 2.794268e+01 3.749357e+01 3.307458e+01 5.256620e+01 4.928031e+01 4.561778e+01 4.954230e+01 4.604616e+01 3.096663e+01 2.869331e+01 1.969207e+01 8.024186e-01 8.637462e-01 9.762596e-01 1.208383e+00 1.860729e+00 1.938551e+00 2.342637e+00 2.054597e+00 2.126093e+00 1.768907e+00 1.840738e+00 1.505519e+00 1.027859e+00
<GCONST> 9.389128e+01
<STATE> 4
<MEAN> 25
 2.711044e-07 2.276736e-08 -6.105108e-08 -1.720701e-07 -1.586201e-07 9.768173e-08 -1.135738e-07 -1.298416e-07 7.694315e-08 -1.660590e-07 -1.083516e-07 -5.706868e-08 -2.818740e-03 -4.409721e-03 -4.277692e-03 -1.165964e-03 -3.608679e-03 5.208261e-03 -1.757075e-03 5.998432e-03 4.891248e-03 1.720927e-03 7.501529e-04 -5.307185e-03 6.137643e-03
<VARIANCE> 25
 2.670229e+01 2.794268e+01 3.749357e+01 3.307458e+01 5.256620e+01 4.928031e+01 4.561778e+01 4.954230e+01 4.604616e+01 3.096663e+01 2.869331e+01 1.969207e+01 8.024186e-01 8.637462e-01 9.762596e-01 1.208383e+00 1.860729e+00 1.938551e+00 2.342637e+00 2.054597e+00 2.126093e+00 1.768907e+00 1.840738e+00 1.505519e+00 1.027859e+00
<GCONST> 9.389128e+01
<TRANSP> 5
 0.000000e+00 1.000000e+00 0.000000e+00 0.000000e+00 0.000000e+00
 0.000000e+00 6.000000e-01 4.000000e-01 0.000000e+00 0.000000e+00
 0.000000e+00 0.000000e+00 6.000000e-01 4.000000e-01 0.000000e+00
 0.000000e+00 0.000000e+00 0.000000e+00 7.000000e-01 3.000000e-01
 0.000000e+00 0.000000e+00 0.000000e+00 0.000000e+00 0.000000e+00
<ENDHMM>
~h "m"
<BEGINHMM>
<NUMSTATES> 5
<STATE> 2
<MEAN> 25
 2.711044e-07 2.276736e-08 -6.105108e-08 -1.720701e-07 -1.586201e-07 9.768173e-08 -1.135738e-07 -1.298416e-07 7.694315e-08 -1.660590e-07 -1.083516e-07 -5.706868e-08 -2.818740e-03 -4.409721e-03 -4.277692e-03 -1.165964e-03 -3.608679e-03 5.208261e-03 -1.757075e-03 5.998432e-03 4.891248e-03 1.720927e-03 7.501529e-04 -5.307185e-03 6.137643e-03
<VARIANCE> 25
 2.670229e+01 2.794268e+01 3.749357e+01 3.307458e+01 5.256620e+01 4.928031e+01 4.561778e+01 4.954230e+01 4.604616e+01 3.096663e+01 2.869331e+01 1.969207e+01 8.024186e-01 8.637462e-01 9.762596e-01 1.208383e+00 1.860729e+00 1.938551e+00 2.342637e+00 2.054597e+00 2.126093e+00 1.768907e+00 1.840738e+00 1.505519e+00 1.027859e+00
<GCONST> 9.389128e+01
<STATE> 3
<MEAN> 25
 2.711044e-07 2.276736e-08 -6.105108e-08 -1.720701e-07 -1.586201e-07 9.768173e-08 -1.135738e-07 -1.298416e-07 7.694315e-08 -1.660590e-07 -1.083516e-07 -5.706868e-08 -2.818740e-03 -4.409721e-03 -4.277692e-03 -1.165964e-03 -3.608679e-03 5.208261e-03 -1.757075e-03 5.998432e-03 4.891248e-03 1.720927e-03 7.501529e-04 -5.307185e-03 6.137643e-03
<VARIANCE> 25
 2.670229e+01 2.794268e+01 3.749357e+01 3.307458e+01 5.256620e+01 4.928031e+01 4.561778e+01 4.954230e+01 4.604616e+01 3.096663e+01 2.869331e+01 1.969207e+01 8.024186e-01 8.637462e-01 9.762596e-01 1.208383e+00 1.860729e+00 1.938551e+00 2.342637e+00 2.054597e+00 2.126093e+00 1.768907e+00 1.840738e+00 1.505519e+00 1.027859e+00
<GCONST> 9.389128e+01
<STATE> 4
<MEAN> 25
 2.711044e-07 2.276736e-08 -6.105108e-08 -1.720701e-07 -1.586201e-07 9.768173e-08 -1.135738e-07 -1.298416e-07 7.694315e-08 -1.660590e-07 -1.083516e-07 -5.706868e-08 -2.818740e-03 -4.409721e-03 -4.277692e-03 -1.165964e-03 -3.608679e-03 5.208261e-03 -1.757075e-03 5.998432e-03 4.891248e-03 1.720927e-03 7.501529e-04 -5.307185e-03 6.137643e-03
<VARIANCE> 25
 2.670229e+01 2.794268e+01 3.749357e+01 3.307458e+01 5.256620e+01 4.928031e+01 4.561778e+01 4.954230e+01 4.604616e+01 3.096663e+01 2.869331e+01 1.969207e+01 8.024186e-01 8.637462e-01 9.762596e-01 1.208383e+00 1.860729e+00 1.938551e+00 2.342637e+00 2.054597e+00 2.126093e+00 1.768907e+00 1.840738e+00 1.505519e+00 1.027859e+00
<GCONST> 9.389128e+01
<TRANSP> 5
 0.000000e+00 1.000000e+00 0.000000e+00 0.000000e+00 0.000000e+00
 0.000000e+00 6.000000e-01 4.000000e-01 0.000000e+00 0.000000e+00
 0.000000e+00 0.000000e+00 6.000000e-01 4.000000e-01 0.000000e+00
 0.000000e+00 0.000000e+00 0.000000e+00 7.000000e-01 3.000000e-01
 0.000000e+00 0.000000e+00 0.000000e+00 0.000000e+00 0.000000e+00
<ENDHMM>
~h "o"
<BEGINHMM>
<NUMSTATES> 5
<STATE> 2
<MEAN> 25
 5.833042e-01 2.103667e+00 -3.698947e-01 2.358387e+00 2.321439e+00 2.996753e+00 2.815660e+00 3.528103e+00 -1.762162e+00 2.660003e+00 -1.301910e-01 -9.801645e-01 -8.250872e-03 5.461068e-02 7.180073e-02 1.822667e-01 1.894194e-01 2.774462e-01 -2.291655e-02 1.185815e-02 -2.011792e-01 -5.072721e-02 -7.360498e-02 8.806928e-02 -1.748999e-01
<VARIANCE> 25
 4.583210e+00 7.844080e+00 1.205375e+01 9.837662e+00 2.191403e+01 1.984694e+01 1.519054e+01 1.706454e+01 1.873335e+01 1.365378e+01 1.504386e+01 1.962337e+01 2.270724e-01 5.312284e-01 7.339233e-01 5.355409e-01 1.120689e+00 1.046802e+00 1.033297e+00 1.293915e+00 1.507986e+00 1.004254e+00 1.680140e+00 1.561566e+00 1.197979e-01
<GCONST> 7.382841e+01
<STATE> 3
<MEAN> 25
 3.999921e-01 1.922721e+00 -2.977575e-01 2.946480e+00 2.303064e+00 4.166030e+00 2.674005e+00 3.628526e+00 -3.384974e+00 2.110232e+00 3.402271e-01 -1.048866e+00 -3.582870e-02 5.732343e-04 -1.671017e-02 2.980569e-03 1.265308e-02 5.203669e-02 -6.648983e-03 -1.093041e-03 -1.511022e-02 -4.523162e-03 -2.622629e-02 7.640714e-03 -5.286277e-02
<VARIANCE> 25
 2.334321e+00 5.519046e+00 5.966724e+00 7.637336e+00 1.359129e+01 1.586930e+01 1.619386e+01 1.644658e+01 1.290852e+01 1.296214e+01 1.352836e+01 1.246525e+01 1.568644e-01 3.870230e-01 4.552430e-01 5.888582e-01 8.386759e-01 8.385022e-01 1.487425e+00 1.265839e+00 1.282940e+00 8.846710e-01 1.464650e+00 1.198238e+00 7.008909e-02
<GCONST> 6.772198e+01
<STATE> 4
<MEAN> 25
 6.144947e-01 2.434246e+00 1.755951e-01 2.366647e+00 2.080415e-01 2.447953e+00 1.427523e+00 2.197878e+00 -3.044464e+00 3.241075e+00 1.309808e+00 -1.800827e-01 -1.747146e-01 -6.541295e-02 1.580429e-01 1.866514e-01 7.842423e-01 5.828153e-02 2.048922e-01 3.372734e-01 1.735367e-01 -1.085993e-01 -5.912734e-01 2.747400e-01 -5.502347e-02
<VARIANCE> 25
 2.717366e+00 1.759957e+00 8.609784e+00 9.071124e+00 2.714352e+01 3.434702e+01 1.911987e+01 1.764181e+01 6.950311e+00 1.017064e+01 9.789737e+00 9.604321e+00 2.011133e-01 4.235868e-01 4.400907e-01 1.003249e+00 1.145132e+00 1.254993e+00 1.228778e+00 9.204163e-01 7.134854e-01 6.470053e-01 7.703414e-01 7.613602e-01 1.512272e-01
<GCONST> 6.734015e+01
<TRANSP> 5
 0.000000e+00 1.000000e+00 0.000000e+00 0.000000e+00 0.000000e+00
 0.000000e+00 9.275544e-01 7.244553e-02 0.000000e+00 0.000000e+00
 0.000000e+00 0.000000e+00 9.244044e-01 7.559557e-02 0.000000e+00
 0.000000e+00 0.000000e+00 0.000000e+00 5.779232e-01 4.220768e-01
 0.000000e+00 0.000000e+00 0.000000e+00 0.000000e+00 0.000000e+00
<ENDHMM>
~h "p"
<BEGINHMM>
<NUMSTATES> 5
<STATE> 2
<MEAN> 25
 2.711044e-07 2.276736e-08 -6.105108e-08 -1.720701e-07 -1.586201e-07 9.768173e-08 -1.135738e-07 -1.298416e-07 7.694315e-08 -1.660590e-07 -1.083516e-07 -5.706868e-08 -2.818740e-03 -4.409721e-03 -4.277692e-03 -1.165964e-03 -3.608679e-03 5.208261e-03 -1.757075e-03 5.998432e-03 4.891248e-03 1.720927e-03 7.501529e-04 -5.307185e-03 6.137643e-03
<VARIANCE> 25
 2.670229e+01 2.794268e+01 3.749357e+01 3.307458e+01 5.256620e+01 4.928031e+01 4.561778e+01 4.954230e+01 4.604616e+01 3.096663e+01 2.869331e+01 1.969207e+01 8.024186e-01 8.637462e-01 9.762596e-01 1.208383e+00 1.860729e+00 1.938551e+00 2.342637e+00 2.054597e+00 2.126093e+00 1.768907e+00 1.840738e+00 1.505519e+00 1.027859e+00
<GCONST> 9.389128e+01
<STATE> 3
<MEAN> 25
 2.711044e-07 2.276736e-08 -6.105108e-08 -1.720701e-07 -1.586201e-07 9.768173e-08 -1.135738e-07 -1.298416e-07 7.694315e-08 -1.660590e-07 -1.083516e-07 -5.706868e-08 -2.818740e-03 -4.409721e-03 -4.277692e-03 -1.165964e-03 -3.608679e-03 5.208261e-03 -1.757075e-03 5.998432e-03 4.891248e-03 1.720927e-03 7.501529e-04 -5.307185e-03 6.137643e-03
<VARIANCE> 25
 2.670229e+01 2.794268e+01 3.749357e+01 3.307458e+01 5.256620e+01 4.928031e+01 4.561778e+01 4.954230e+01 4.604616e+01 3.096663e+01 2.869331e+01 1.969207e+01 8.024186e-01 8.637462e-01 9.762596e-01 1.208383e+00 1.860729e+00 1.938551e+00 2.342637e+00 2.054597e+00 2.126093e+00 1.768907e+00 1.840738e+00 1.505519e+00 1.027859e+00
<GCONST> 9.389128e+01
<STATE> 4
<MEAN> 25
 2.711044e-07 2.276736e-08 -6.105108e-08 -1.720701e-07 -1.586201e-07 9.768173e-08 -1.135738e-07 -1.298416e-07 7.694315e-08 -1.660590e-07 -1.083516e-07 -5.706868e-08 -2.818740e-03 -4.409721e-03 -4.277692e-03 -1.165964e-03 -3.608679e-03 5.208261e-03 -1.757075e-03 5.998432e-03 4.891248e-03 1.720927e-03 7.501529e-04 -5.307185e-03 6.137643e-03
<VARIANCE> 25
 2.670229e+01 2.794268e+01 3.749357e+01 3.307458e+01 5.256620e+01 4.928031e+01 4.561778e+01 4.954230e+01 4.604616e+01 3.096663e+01 2.869331e+01 1.969207e+01 8.024186e-01 8.637462e-01 9.762596e-01 1.208383e+00 1.860729e+00 1.938551e+00 2.342637e+00 2.054597e+00 2.126093e+00 1.768907e+00 1.840738e+00 1.505519e+00 1.027859e+00
<GCONST> 9.389128e+01
<TRANSP> 5
 0.000000e+00 1.000000e+00 0.000000e+00 0.000000e+00 0.000000e+00
 0.000000e+00 6.000000e-01 4.000000e-01 0.000000e+00 0.000000e+00
 0.000000e+00 0.000000e+00 6.000000e-01 4.000000e-01 0.000000e+00
 0.000000e+00 0.000000e+00 0.000000e+00 7.000000e-01 3.000000e-01
 0.000000e+00 0.000000e+00 0.000000e+00 0.000000e+00 0.000000e+00
<ENDHMM>
~h "r"
<BEGINHMM>
<NUMSTATES> 5
<STATE> 2
<MEAN> 25
 3.011097e+00 -6.699514e+00 1.173115e+00 -1.899745e+00 -5.670762e+00 -9.571231e+00 -5.593047e+00 -6.924756e-01 2.514393e+00 -2.900837e+00 2.733068e+00 -3.720491e+00 -3.390758e-01 1.026089e-01 -4.398129e-02 -4.600546e-01 3.706829e-01 2.207243e-01 2.195882e-01 6.499802e-01 -4.067369e-01 4.132999e-02 9.843556e-02 2.105764e-01 -1.909051e-01
<VARIANCE> 25
 2.889216e+01 4.758168e+01 5.347385e+01 3.038563e+01 1.055123e+02 6.454279e+01 2.710665e+01 6.563434e+01 4.666821e+01 3.693741e+01 5.748074e+01 6.515884e+01 1.546961e+00 1.122069e+00 2.350433e+00 2.102298e+00 1.107571e+00 3.798285e+00 3.866341e+00 4.175328e+00 4.413821e+00 3.504572e+00 2.020796e+00 1.364513e+00 5.454450e+00
<GCONST> 1.043736e+02
<STATE> 3
<MEAN> 25
 3.050535e+00 -7.089636e+00 1.503603e+00 -1.764441e+00 -6.404891e+00 -9.180492e+00 -4.012569e+00 1.189542e+00 1.783309e+00 -2.563590e+00 4.041718e+00 -3.458074e+00 -3.486843e-01 6.617524e-02 -2.789252e-01 -1.226444e-01 1.111976e-01 3.961394e-01 1.029512e+00 9.677072e-01 -1.559733e-01 4.554833e-01 1.256627e-01 3.729381e-01 -8.865792e-01
<VARIANCE> 25
 2.959685e+01 3.877553e+01 5.815202e+01 3.759401e+01 1.150184e+02 4.692852e+01 2.668890e+01 6.477876e+01 3.496572e+01 2.485884e+01 4.714998e+01 6.661952e+01 1.437155e+00 9.318061e-01 1.570724e+00 1.280029e+00 1.483407e+00 4.631701e+00 2.375404e+00 1.880499e+00 2.572183e+00 3.119986e+00 1.738605e+00 1.653682e+00 3.173838e+00
<GCONST> 1.002592e+02
<STATE> 4
<MEAN> 25
 2.482887e+00 -7.631128e+00 6.365661e-01 -1.949981e+00 -8.486766e+00 -9.770048e+00 -1.165224e+00 3.800445e+00 1.758448e+00 -3.876323e-01 4.380752e+00 -2.970492e+00 -5.100279e-01 2.939053e-01 -5.400658e-01 1.282569e-01 3.062271e-01 2.718996e-01 7.123439e-01 7.204046e-01 -2.443216e-02 1.021985e+00 4.803280e-01 7.984127e-01 -8.699444e-01
<VARIANCE> 25
 3.328947e+01 3.090377e+01 4.648755e+01 3.318467e+01 1.138061e+02 4.478471e+01 3.147524e+01 7.225921e+01 3.263368e+01 2.338455e+01 3.806213e+01 4.830315e+01 7.749181e-01 7.877129e-01 1.026175e+00 1.457930e+00 1.907387e+00 3.860579e+00 1.416563e+00 1.108514e+00 1.359679e+00 2.412847e+00 2.033903e+00 1.487355e+00 1.296591e+00
<GCONST> 9.555605e+01
<TRANSP> 5
 0.000000e+00 1.000000e+00 0.000000e+00 0.000000e+00 0.000000e+00
 0.000000e+00 2.161213e-01 7.838787e-01 0.000000e+00 0.000000e+00
 0.000000e+00 0.000000e+00 2.571099e-01 7.428901e-01 0.000000e+00
 0.000000e+00 0.000000e+00 0.000000e+00 3.350983e-01 6.649017e-01
 0.000000e+00 0.000000e+00 0.000000e+00 0.000000e+00 0.000000e+00
<ENDHMM>
~h "s"
<BEGINHMM>
<NUMSTATES> 5
<STATE> 2
<MEAN> 25
 -3.493909e+00 1.180078e+00 7.728731e+00 -8.908944e-01 -5.378891e+00 -8.763400e+00 -3.183215e+00 -3.291976e+00 2.064337e+00 -3.520525e+00 3.068569e+00 3.396908e+00 5.408223e-01 4.014647e-01 2.336346e-01 -2.204058e-01 -4.952882e-01 6.192413e-03 -5.791795e-01 -6.001981e-01 -4.754076e-01 -2.308074e-01 3.290527e-01 -3.477867e-01 6.595030e-02
<VARIANCE> 25
 7.514278e+01 2.966904e+01 1.156341e+02 2.535754e+01 1.081143e+02 3.423383e+01 5.815507e+01 6.901922e+01 4.553785e+01 4.996876e+01 8.373983e+01 3.208945e+01 6.800012e+00 3.191976e+00 3.366832e+00 1.490124e+00 6.556108e+00 3.539571e+00 6.160718e+00 5.946529e+00 4.301748e+00 4.488344e+00 5.529806e+00 3.084207e+00 1.861900e+00
<GCONST> 1.116343e+02
<STATE> 3
<MEAN> 25
 -4.107284e+00 1.524828e+00 4.120121e+00 -1.971683e+00 -1.966774e+00 -6.880572e+00 -3.931015e+00 -1.663040e+00 1.549854e+00 -1.926950e+00 1.092043e+00 2.651222e+00 -2.091440e-03 -1.453622e-01 -1.972041e-01 3.541140e-02 2.557349e-01 7.848630e-02 -1.837945e-01 2.076472e-01 -1.636987e-01 -1.436381e-01 8.077308e-02 4.401511e-03 9.837402e-02
<VARIANCE> 25
 9.457984e+01 2.697621e+01 1.133010e+02 2.046681e+01 1.002986e+02 3.347068e+01 7.073370e+01 6.574557e+01 5.506590e+01 3.058722e+01 4.909136e+01 3.923495e+01 4.569652e+00 2.972458e+00 3.424424e+00 1.519265e+00 3.938505e+00 5.079735e+00 6.841763e+00 3.462208e+00 2.845661e+00 2.613687e+00 3.840819e+00 3.749603e+00 3.451996e+00
<GCONST> 1.094279e+02
<STATE> 4
<MEAN> 25
 -4.859673e+00 5.219125e-01 2.371006e+00 -2.152526e+00 9.978690e-01 -5.960583e+00 -3.830553e+00 -7.963804e-02 1.261369e+00 -1.258073e+00 7.327753e-01 2.667009e+00 2.182049e-01 -6.426866e-02 -1.421805e-01 -1.394373e-02 -1.457864e-01 2.185344e-01 2.411559e-01 -3.750811e-02 -7.078400e-03 -3.338064e-01 1.867930e-01 2.969700e-02 2.431653e-01
<VARIANCE> 25
 8.971800e+01 3.073196e+01 8.328031e+01 1.645943e+01 8.935307e+01 4.203302e+01 5.861356e+01 5.550129e+01 4.693770e+01 1.902812e+01 3.041327e+01 3.144696e+01 3.355992e+00 1.884831e+00 2.483832e+00 1.641568e+00 3.629085e+00 4.756076e+00 8.958910e+00 3.117653e+00 3.702001e+00 2.160994e+00 2.566362e+00 3.812486e+00 3.820185e+00
<GCONST> 1.061970e+02
<TRANSP> 5
 0.000000e+00 1.000000e+00 0.000000e+00 0.000000e+00 0.000000e+00
 0.000000e+00 7.605803e-01 2.394197e-01 0.000000e+00 0.000000e+00
 0.000000e+00 0.000000e+00 6.211908e-01 3.788092e-01 0.000000e+00
 0.000000e+00 0.000000e+00 0.000000e+00 4.901839e-01 5.098161e-01
 0.000000e+00 0.000000e+00 0.000000e+00 0.000000e+00 0.000000e+00
<ENDHMM>
~h "t"
<BEGINHMM>
<NUMSTATES> 5
<STATE> 2
<MEAN> 25
 7.355514e+00 -2.986393e+00 3.051236e+00 2.016146e+00 -1.558111e+01 -8.744865e+00 -7.293971e+00 -6.710115e+00 2.304565e+00 -5.441646e+00 5.032320e+00 9.790430e-01 -7.420400e-02 -7.031196e-01 6.597840e-01 6.571988e-01 -3.751758e-01 -1.312757e+00 -1.211928e-01 4.790097e-01 -2.245515e-01 -5.384073e-02 2.632399e-01 -1.991534e-02 1.600544e-01
<VARIANCE> 25
 1.047785e+01 5.459767e+01 5.298954e+01 1.183426e+01 1.424384e+02 5.692935e+01 2.915124e+01 4.019885e+01 4.213462e+01 6.730905e+01 3.870001e+01 1.321687e+01 4.739158e-01 2.378201e+00 4.114188e+00 1.500280e+00 6.852021e+00 2.336534e+00 2.309429e+00 2.095057e+00 3.442725e+00 3.190068e+00 4.397361e+00 1.417332e+00 1.150199e+00
<GCONST> 9.964736e+01
<STATE> 3
<MEAN> 25
 6.625350e+00 -2.696068e+00 4.824923e+00 2.429620e+00 -1.276602e+01 -1.071927e+01 -7.612527e+00 -4.761571e+00 -1.743309e-01 -3.975481e+00 4.343307e+00 -1.016189e-01 -4.061990e-01 -5.480140e-01 4.119562e-01 -1.671280e-01 9.599746e-01 -6.602976e-01 -8.133414e-01 1.265877e-01 7.578950e-02 3.937514e-01 -4.833159e-01 -2.083646e-02 3.880868e-01
<VARIANCE> 25
 1.108912e+01 5.727503e+01 2.635313e+01 6.455762e+00 1.544782e+02 7.104013e+01 4.575279e+01 3.087826e+01 5.003541e+01 5.418793e+01 5.570811e+01 1.527716e+01 7.976317e-01 3.578272e+00 2.201296e+00 1.185030e+00 1.089510e+01 2.324466e+00 4.252530e+00 2.224936e+00 4.350707e+00 4.614737e+00 5.844494e+00 1.697956e+00 2.395935e+00
<GCONST> 1.024005e+02
<STATE> 4
<MEAN> 25
 4.929097e+00 -4.278778e+00 5.927331e+00 3.808159e-01 -9.654393e+00 -1.143088e+01 -1.227098e+01 -3.812186e+00 2.759044e+00 -2.746949e+00 2.944436e+00 -5.800350e-01 -4.182605e-01 -8.847406e-01 1.145598e-01 -5.969484e-01 -6.613008e-01 -1.492511e-02 -3.445374e-01 4.181781e-02 1.287593e+00 -5.681832e-01 4.067495e-01 -3.961034e-01 9.078953e-01
<VARIANCE> 25
 8.908810e+00 5.608023e+01 2.150161e+01 1.067222e+01 1.132880e+02 5.071748e+01 7.127296e+01 3.231441e+01 1.024812e+02 3.604544e+01 4.320922e+01 1.277748e+01 8.398043e-01 3.380781e+00 1.761746e+00 1.173364e+00 1.295041e+01 2.328732e+00 6.407516e+00 1.302008e+00 5.367942e+00 5.640382e+00 5.702360e+00 2.141224e+00 3.367299e+00
<GCONST> 1.029473e+02
<TRANSP> 5
 0.000000e+00 1.000000e+00 0.000000e+00 0.000000e+00 0.000000e+00
 0.000000e+00 7.270346e-01 2.729653e-01 0.000000e+00 0.000000e+00
 0.000000e+00 0.000000e+00 6.396842e-01 3.603159e-01 0.000000e+00
 0.000000e+00 0.000000e+00 0.000000e+00 7.402413e-01 2.597586e-01
 0.000000e+00 0.000000e+00 0.000000e+00 0.000000e+00 0.000000e+00
<ENDHMM>
~h "u"
<BEGINHMM>
<NUMSTATES> 5
<STATE> 2
<MEAN> 25
 -3.181737e+00 -2.912244e+00 -3.000816e-01 -3.357086e+00 1.357653e+00 -3.783860e+00 -4.408480e+00 1.742526e+00 6.369401e+00 -1.208504e+00 1.386230e+00 -1.677718e+00 2.315017e-01 -7.302762e-01 -6.339536e-01 -5.098090e-01 -4.736998e-02 -1.202871e-02 1.119617e+00 -3.573251e-01 3.967830e-01 -3.892829e-01 -4.566858e-01 -2.947967e-01 9.918324e-01
<VARIANCE> 25
 6.134868e+01 4.028845e+01 3.082652e+01 4.269919e+01 6.906358e+01 6.905657e+01 7.193393e+01 4.449846e+01 1.118257e+02 2.704711e+01 1.315648e+01 6.402788e+00 3.488974e-01 1.018991e+00 1.495019e+00 1.514354e+00 1.063567e+00 1.547845e+00 4.358403e+00 2.000932e+00 2.845349e+00 1.544745e+00 3.167430e+00 6.154184e-01 4.487997e+00
<GCONST> 9.602804e+01
<STATE> 3
<MEAN> 25
 -2.378235e+00 -3.233906e+00 -9.840927e-01 -3.229115e+00 8.484005e-01 -3.005867e+00 -2.488258e+00 1.384990e+00 5.318487e+00 -2.003184e+00 2.259847e-01 -1.644226e+00 2.653468e-01 -3.216640e-01 -2.181284e-01 1.891870e-01 2.416365e-03 2.880084e-01 1.422036e+00 -1.148601e-01 9.521365e-03 -2.537710e-01 -7.922110e-01 -7.067447e-02 4.642989e-01
<VARIANCE> 25
 5.696225e+01 3.496713e+01 3.748191e+01 4.122609e+01 6.806069e+01 5.920411e+01 4.997865e+01 6.009033e+01 1.037341e+02 2.954025e+01 1.638056e+01 6.737879e+00 4.928360e-01 6.860846e-01 1.609699e+00 1.257781e+00 1.245025e+00 4.865437e-01 4.574474e+00 1.121307e+00 1.426862e+00 9.272122e-01 3.113943e+00 5.680566e-01 1.395974e+00
<GCONST> 9.186555e+01
<STATE> 4
<MEAN> 25
 -2.249320e-01 1.445822e+00 -5.059838e-01 3.175071e+00 3.289851e+00 4.785043e+00 2.468182e+00 3.105124e+00 -3.322469e+00 1.727771e+00 -5.895730e-01 -2.166952e-01 5.468487e-02 -6.999066e-02 -4.837805e-02 8.581159e-02 -2.027448e-02 -2.043417e-02 9.829916e-02 -2.238538e-02 1.655554e-01 -8.522090e-02 -2.104869e-01 -3.310862e-02 6.788306e-02
<VARIANCE> 25
 8.105478e+00 1.377125e+01 6.680621e+00 1.580671e+01 1.593458e+01 2.464916e+01 1.687710e+01 1.844106e+01 4.754495e+01 2.031351e+01 1.505510e+01 6.961933e+00 1.973234e-01 2.560463e-01 3.767983e-01 4.176047e-01 8.105837e-01 8.100472e-01 2.467277e+00 1.142132e+00 1.698405e+00 1.193463e+00 2.019981e+00 7.125244e-01 2.068915e-01
<GCONST> 7.383650e+01
<TRANSP> 5
 0.000000e+00 1.000000e+00 0.000000e+00 0.000000e+00 0.000000e+00
 0.000000e+00 2.785904e-01 7.214096e-01 0.000000e+00 0.000000e+00
 0.000000e+00 0.000000e+00 2.621807e-01 7.378194e-01 0.000000e+00
 0.000000e+00 0.000000e+00 0.000000e+00 8.731737e-01 1.268263e-01
 0.000000e+00 0.000000e+00 0.000000e+00 0.000000e+00 0.000000e+00
<ENDHMM>
~h "ng"
<BEGINHMM>
<NUMSTATES> 5
<STATE> 2
<MEAN> 25
 2.711044e-07 2.276736e-08 -6.105108e-08 -1.720701e-07 -1.586201e-07 9.768173e-08 -1.135738e-07 -1.298416e-07 7.694315e-08 -1.660590e-07 -1.083516e-07 -5.706868e-08 -2.818740e-03 -4.409721e-03 -4.277692e-03 -1.165964e-03 -3.608679e-03 5.208261e-03 -1.757075e-03 5.998432e-03 4.891248e-03 1.720927e-03 7.501529e-04 -5.307185e-03 6.137643e-03
<VARIANCE> 25
 2.670229e+01 2.794268e+01 3.749357e+01 3.307458e+01 5.256620e+01 4.928031e+01 4.561778e+01 4.954230e+01 4.604616e+01 3.096663e+01 2.869331e+01 1.969207e+01 8.024186e-01 8.637462e-01 9.762596e-01 1.208383e+00 1.860729e+00 1.938551e+00 2.342637e+00 2.054597e+00 2.126093e+00 1.768907e+00 1.840738e+00 1.505519e+00 1.027859e+00
<GCONST> 9.389128e+01
<STATE> 3
<MEAN> 25
 2.711044e-07 2.276736e-08 -6.105108e-08 -1.720701e-07 -1.586201e-07 9.768173e-08 -1.135738e-07 -1.298416e-07 7.694315e-08 -1.660590e-07 -1.083516e-07 -5.706868e-08 -2.818740e-03 -4.409721e-03 -4.277692e-03 -1.165964e-03 -3.608679e-03 5.208261e-03 -1.757075e-03 5.998432e-03 4.891248e-03 1.720927e-03 7.501529e-04 -5.307185e-03 6.137643e-03
<VARIANCE> 25
 2.670229e+01 2.794268e+01 3.749357e+01 3.307458e+01 5.256620e+01 4.928031e+01 4.561778e+01 4.954230e+01 4.604616e+01 3.096663e+01 2.869331e+01 1.969207e+01 8.024186e-01 8.637462e-01 9.762596e-01 1.208383e+00 1.860729e+00 1.938551e+00 2.342637e+00 2.054597e+00 2.126093e+00 1.768907e+00 1.840738e+00 1.505519e+00 1.027859e+00
<GCONST> 9.389128e+01
<STATE> 4
<MEAN> 25
 2.711044e-07 2.276736e-08 -6.105108e-08 -1.720701e-07 -1.586201e-07 9.768173e-08 -1.135738e-07 -1.298416e-07 7.694315e-08 -1.660590e-07 -1.083516e-07 -5.706868e-08 -2.818740e-03 -4.409721e-03 -4.277692e-03 -1.165964e-03 -3.608679e-03 5.208261e-03 -1.757075e-03 5.998432e-03 4.891248e-03 1.720927e-03 7.501529e-04 -5.307185e-03 6.137643e-03
<VARIANCE> 25
 2.670229e+01 2.794268e+01 3.749357e+01 3.307458e+01 5.256620e+01 4.928031e+01 4.561778e+01 4.954230e+01 4.604616e+01 3.096663e+01 2.869331e+01 1.969207e+01 8.024186e-01 8.637462e-01 9.762596e-01 1.208383e+00 1.860729e+00 1.938551e+00 2.342637e+00 2.054597e+00 2.126093e+00 1.768907e+00 1.840738e+00 1.505519e+00 1.027859e+00
<GCONST> 9.389128e+01
<TRANSP> 5
 0.000000e+00 1.000000e+00 0.000000e+00 0.000000e+00 0.000000e+00
 0.000000e+00 6.000000e-01 4.000000e-01 0.000000e+00 0.000000e+00
 0.000000e+00 0.000000e+00 6.000000e-01 4.000000e-01 0.000000e+00
 0.000000e+00 0.000000e+00 0.000000e+00 7.000000e-01 3.000000e-01
 0.000000e+00 0.000000e+00 0.000000e+00 0.000000e+00 0.000000e+00
<ENDHMM>
~h "sil"
<BEGINHMM>
<NUMSTATES> 5
<STATE> 2
<MEAN> 25
 -3.444459e-01 1.935919e+00 5.338418e-01 2.566811e+00 2.744862e+00 3.367732e+00 2.655917e+00 2.867049e+00 -2.785744e+00 1.378479e+00 -1.572658e-01 -1.048794e-01 -3.599838e-03 8.253820e-03 -3.087110e-03 1.003435e-02 8.631696e-04 1.874046e-02 1.860688e-02 -3.081491e-03 -1.006118e-02 -5.610325e-03 6.953332e-03 -4.812912e-04 -1.651653e-02
<VARIANCE> 25
 1.831628e+00 2.823917e+00 3.828945e+00 6.910187e+00 7.656782e+00 1.200283e+01 1.040482e+01 1.223313e+01 1.135593e+01 1.184698e+01 1.131410e+01 1.057576e+01 9.333831e-02 2.321842e-01 3.748590e-01 5.576332e-01 7.825230e-01 1.012142e+00 1.100531e+00 1.085157e+00 1.121238e+00 1.176000e+00 1.127066e+00 1.081390e+00 4.086328e-02
<GCONST> 6.174367e+01
<STATE> 3
<MEAN> 25
 -6.924015e-01 1.814631e+00 4.266594e-01 2.234303e+00 2.442565e+00 3.148601e+00 2.864147e+00 2.509841e+00 -2.509665e+00 1.980642e+00 6.053953e-01 1.806888e-01 5.763765e-03 -1.382132e-02 -2.247239e-02 4.971993e-02 9.656951e-03 -6.297530e-02 -4.365032e-02 -9.725259e-02 -2.274147e-02 -1.188600e-02 -9.588307e-03 1.534897e-02 2.471175e-02
<VARIANCE> 25
 1.927606e+00 2.611468e+00 3.646763e+00 7.228787e+00 7.016662e+00 9.208230e+00 8.876712e+00 1.050324e+01 1.133212e+01 9.526515e+00 1.058216e+01 9.042117e+00 1.350196e-01 2.520451e-01 3.674538e-01 7.357302e-01 8.275896e-01 1.102688e+00 8.999707e-01 1.158356e+00 1.202749e+00 1.060554e+00 1.111340e+00 1.002398e+00 7.738420e-02
<GCONST> 6.183529e+01
<STATE> 4
<MEAN> 25
 -3.133049e-01 -3.356852e-01 -8.575453e-01 -5.015938e-01 3.495138e-01 3.133079e-01 6.893620e-01 -5.016091e-01 -1.810736e-01 3.983158e-01 -4.574042e-01 1.291723e-01 -5.205032e-03 -8.777551e-03 -1.213609e-02 -4.936968e-03 -7.455927e-03 1.754264e-02 -4.887886e-03 9.411583e-03 7.799331e-03 7.710980e-03 -6.848008e-03 -1.029686e-02 1.981752e-02
<VARIANCE> 25
 2.479488e+01 3.104037e+01 3.482253e+01 4.040536e+01 4.388921e+01 4.243674e+01 3.218822e+01 4.948829e+01 3.778566e+01 3.420023e+01 2.555065e+01 2.081677e+01 7.883241e-01 9.023120e-01 9.300596e-01 1.323259e+00 1.755207e+00 1.830039e+00 2.153148e+00 1.951997e+00 2.264057e+00 1.931466e+00 1.696324e+00 1.580232e+00 1.130579e+00
<GCONST> 9.323953e+01
<TRANSP> 5
 0.000000e+00 1.000000e+00 0.000000e+00 0.000000e+00 0.000000e+00
 0.000000e+00 9.900525e-01 9.947514e-03 0.000000e+00 0.000000e+00
 0.000000e+00 0.000000e+00 8.486486e-01 1.513513e-01 0.000000e+00
 0.000000e+00 0.000000e+00 0.000000e+00 9.914651e-01 8.534873e-03
 0.000000e+00 0.000000e+00 0.000000e+00 0.000000e+00 0.000000e+00
<ENDHMM>
