~o
<STREAMINFO> 1 25
<VECSIZE> 25<NULLD><MFCC_D_N_Z_0><DIAGC>
~s "silst"
<MEAN> 25
 -9.334576e+00 1.385915e+01 -2.266011e+00 4.179221e+00 7.305212e+00 1.525770e+00 8.993090e+00 5.674003e+00 5.727261e-01 6.368597e+00 2.621434e+00 -4.715019e-02 -1.042483e-01 6.226002e-02 1.146587e-02 -2.788950e-02 1.512466e-02 -1.326173e-02 3.152157e-02 6.823622e-02 8.633550e-02 3.812078e-02 4.570375e-02 2.788481e-02 -4.707880e-02
<VARIANCE> 25
 3.293586e+01 4.531212e+01 2.353002e+01 9.165869e+00 1.489885e+01 2.171267e+01 3.056438e+01 1.989760e+01 1.716781e+01 1.613991e+01 1.952753e+01 1.450155e+01 2.015891e+00 2.130032e+00 1.701825e+00 8.644845e-01 1.323229e+00 1.554769e+00 2.197479e+00 1.610485e+00 1.495987e+00 1.342477e+00 1.543708e+00 1.314419e+00 1.680866e+00
<GCONST> 8.784157e+01
~h "E"
<BEGINHMM>
<NUMSTATES> 5
<STATE> 2
<MEAN> 25
 4.870096e+00 -9.145167e+00 1.770523e+00 -4.982991e+00 -3.539331e+00 -2.322011e+00 -1.261379e+00 -7.557690e-01 -2.707501e+00 -2.860169e+00 -3.520912e+00 -3.213735e-01 1.877349e+00 -2.661728e+00 -1.684911e-01 -2.481373e+00 -1.267802e+00 -1.334059e+00 2.550528e-01 -5.568550e-01 -1.484247e+00 -1.665809e+00 -1.090071e+00 2.193091e-01 3.671909e+00
<VARIANCE> 25
 5.175056e+01 9.871675e+01 3.691919e+01 6.692206e+01 5.769245e+01 4.209431e+01 5.603601e+01 6.073357e+01 4.386777e+01 4.320072e+01 4.332918e+01 2.230573e+01 3.896018e+00 9.210125e+00 2.806380e+00 4.670919e+00 5.440865e+00 4.276200e+00 4.948839e+00 6.690713e+00 4.145829e+00 3.535699e+00 4.098220e+00 3.029770e+00 8.195168e+00
<GCONST> 1.127541e+02
<STATE> 3
<MEAN> 25
 8.268381e+00 -1.537932e+01 1.089963e+00 -9.923070e+00 -6.932579e+00 -6.161516e+00 5.046333e+00 -3.136080e+00 -8.181975e+00 -8.400008e+00 -4.236829e+00 4.197440e-01 -4.250031e-03 1.128853e-01 1.155317e-01 2.014135e-01 -4.695184e-01 -2.312821e-01 3.947423e-01 -1.396022e-01 7.086857e-03 -2.840795e-04 6.746674e-03 3.761166e-02 -6.785385e-02
<VARIANCE> 25
 1.344690e+01 5.627976e+01 2.857345e+01 2.036279e+01 3.267588e+01 3.810532e+01 5.161539e+01 5.089120e+01 2.591150e+01 2.456312e+01 2.954238e+01 1.923726e+01 6.164316e-01 1.362354e+00 1.033944e+00 1.218590e+00 1.477033e+00 1.734286e+00 3.651455e+00 2.502540e+00 2.402381e+00 1.909360e+00 2.435770e+00 1.549811e+00 1.399317e+00
<GCONST> 9.313844e+01
<STATE> 4
<MEAN> 25
 5.623003e+00 -9.482235e+00 4.280378e+00 -5.454946e+00 -8.782279e+00 -2.022228e+00 -9.144416e-01 -4.034277e+00 -2.328086e+00 -2.104660e+00 -2.216002e+00 2.089323e-01 -6.892163e-01 1.264053e+00 -6.373804e-01 1.015908e+00 6.006056e-01 6.538884e-01 -3.976058e-01 3.686749e-01 8.136016e-01 3.805386e-01 3.330350e-01 -6.328978e-02 -1.759559e+00
<VARIANCE> 25
 3.676402e+01 8.159151e+01 7.906959e+01 5.183957e+01 8.074531e+01 6.230456e+01 7.473566e+01 5.333115e+01 2.760063e+01 4.912934e+01 5.112727e+01 2.233572e+01 2.388241e+00 4.498819e+00 3.902128e+00 3.988525e+00 4.316993e+00 4.890348e+00 4.905788e+00 5.528647e+00 3.169340e+00 3.861067e+00 4.473954e+00 2.347079e+00 5.709578e+00
<GCONST> 1.114058e+02
<TRANSP> 5
 0.000000e+00 1.000000e+00 0.000000e+00 0.000000e+00 0.000000e+00
 0.000000e+00 5.208092e-01 4.791908e-01 0.000000e+00 0.000000e+00
 0.000000e+00 0.000000e+00 8.089942e-01 1.910059e-01 0.000000e+00
 0.000000e+00 0.000000e+00 0.000000e+00 6.908224e-01 3.091776e-01
 0.000000e+00 0.000000e+00 0.000000e+00 0.000000e+00 0.000000e+00
<ENDHMM>
~h "K"
<BEGINHMM>
<NUMSTATES> 5
<STATE> 2
<MEAN> 25
 -1.684587e-08 -6.193333e-08 -4.487690e-08 3.351832e-08 -6.047171e-08 2.058664e-08 -6.607048e-08 -2.205446e-08 -8.534414e-09 2.910867e-08 3.022347e-08 -1.071447e-09 -2.678578e-03 2.715191e-03 1.970940e-04 1.666228e-04 1.831201e-03 -7.320007e-04 3.372927e-03 1.125320e-03 -7.564414e-05 2.413395e-03 8.106225e-04 -2.148533e-03 -1.727290e-03
<VARIANCE> 25
 4.499385e+01 7.342516e+01 3.566479e+01 5.718780e+01 5.546888e+01 4.305736e+01 6.020990e+01 4.209700e+01 2.990068e+01 4.475465e+01 3.376802e+01 1.839641e+01 1.592596e+00 2.317776e+00 1.700131e+00 2.390033e+00 2.486403e+00 2.357601e+00 2.972100e+00 2.655601e+00 2.270027e+00 2.542916e+00 2.264997e+00 1.647762e+00 2.549860e+00
<GCONST> 1.014657e+02
<STATE> 3
<MEAN> 25
 -1.684587e-08 -6.193333e-08 -4.487690e-08 3.351832e-08 -6.047171e-08 2.058664e-08 -6.607048e-08 -2.205446e-08 -8.534414e-09 2.910867e-08 3.022347e-08 -1.071447e-09 -2.678578e-03 2.715191e-03 1.970940e-04 1.666228e-04 1.831201e-03 -7.320007e-04 3.372927e-03 1.125320e-03 -7.564414e-05 2.413395e-03 8.106225e-04 -2.148533e-03 -1.727290e-03
<VARIANCE> 25
 4.499385e+01 7.342516e+01 3.566479e+01 5.718780e+01 5.546888e+01 4.305736e+01 6.020990e+01 4.209700e+01 2.990068e+01 4.475465e+01 3.376802e+01 1.839641e+01 1.592596e+00 2.317776e+00 1.700131e+00 2.390033e+00 2.486403e+00 2.357601e+00 2.972100e+00 2.655601e+00 2.270027e+00 2.542916e+00 2.264997e+00 1.647762e+00 2.549860e+00
<GCONST> 1.014657e+02
<STATE> 4
<MEAN> 25
 -1.684587e-08 -6.193333e-08 -4.487690e-08 3.351832e-08 -6.047171e-08 2.058664e-08 -6.607048e-08 -2.205446e-08 -8.534414e-09 2.910867e-08 3.022347e-08 -1.071447e-09 -2.678578e-03 2.715191e-03 1.970940e-04 1.666228e-04 1.831201e-03 -7.320007e-04 3.372927e-03 1.125320e-03 -7.564414e-05 2.413395e-03 8.106225e-04 -2.148533e-03 -1.727290e-03
<VARIANCE> 25
 4.499385e+01 7.342516e+01 3.566479e+01 5.718780e+01 5.546888e+01 4.305736e+01 6.020990e+01 4.209700e+01 2.990068e+01 4.475465e+01 3.376802e+01 1.839641e+01 1.592596e+00 2.317776e+00 1.700131e+00 2.390033e+00 2.486403e+00 2.357601e+00 2.972100e+00 2.655601e+00 2.270027e+00 2.542916e+00 2.264997e+00 1.647762e+00 2.549860e+00
<GCONST> 1.014657e+02
<TRANSP> 5
 0.000000e+00 1.000000e+00 0.000000e+00 0.000000e+00 0.000000e+00
 0.000000e+00 6.000000e-01 4.000000e-01 0.000000e+00 0.000000e+00
 0.000000e+00 0.000000e+00 6.000000e-01 4.000000e-01 0.000000e+00
 0.000000e+00 0.000000e+00 0.000000e+00 7.000000e-01 3.000000e-01
 0.000000e+00 0.000000e+00 0.000000e+00 0.000000e+00 0.000000e+00
<ENDHMM>
~h "a"
<BEGINHMM>
<NUMSTATES> 5
<STATE> 2
<MEAN> 25
 4.853376e+00 -7.615387e+00 -1.746323e+00 -2.813902e+00 -1.172130e+00 -4.509826e+00 -5.027993e+00 -3.330884e+00 -2.997113e+00 -8.591660e+00 -5.506426e+00 4.691793e-01 -2.988316e-01 4.270899e-01 -5.755779e-03 5.248823e-01 1.160943e-01 1.913708e-01 6.828295e-02 1.142346e-01 2.360819e-02 3.357806e-02 2.767390e-01 1.021245e-01 -7.625555e-01
<VARIANCE> 25
 1.933194e+01 5.078758e+01 2.525883e+01 3.279494e+01 4.558563e+01 3.580423e+01 5.945795e+01 3.708812e+01 3.200346e+01 4.352808e+01 3.324277e+01 2.582426e+01 2.049448e+00 3.604795e+00 1.781894e+00 1.946269e+00 3.546493e+00 3.072341e+00 4.031648e+00 3.618593e+00 3.218176e+00 3.816772e+00 2.907896e+00 2.164819e+00 3.668371e+00
<GCONST> 1.026062e+02
<STATE> 3
<MEAN> 25
 -1.712667e+00 -4.706122e+00 -6.921102e-01 9.893996e-01 1.942598e+00 6.422833e-01 -4.401492e-01 2.476285e+00 1.115953e+00 -3.652018e+00 7.868796e-01 2.200171e+00 -4.593228e-01 8.473408e-01 3.256457e-01 5.336680e-01 3.460483e-01 4.095724e-01 5.308077e-01 5.335772e-01 4.474382e-01 8.936339e-01 7.258146e-01 -1.151050e-01 -1.195961e+00
<VARIANCE> 25
 2.375440e+01 3.870858e+01 2.577242e+01 2.164463e+01 3.868114e+01 3.211452e+01 3.730454e+01 3.838552e+01 3.366169e+01 4.514711e+01 3.863147e+01 2.338315e+01 1.251555e+00 1.912899e+00 1.412984e+00 1.457942e+00 2.212327e+00 2.484841e+00 3.125692e+00 3.390928e+00 2.939485e+00 3.395990e+00 3.415127e+00 2.227020e+00 1.935177e+00
<GCONST> 9.826932e+01
<STATE> 4
<MEAN> 25
 -1.847933e+00 6.941754e-01 -1.639541e-01 3.517833e+00 2.925297e+00 2.877909e+00 2.751666e+00 2.191498e+00 1.121256e+00 1.689727e+00 1.955423e+00 1.378872e-01 -3.564206e-02 1.503155e-01 8.716326e-02 5.449359e-02 4.567469e-02 3.032153e-02 7.604551e-02 -6.577495e-02 -2.514241e-02 1.615741e-01 1.741332e-03 -6.101044e-02 -1.508033e-01
<VARIANCE> 25
 7.583163e+00 1.454472e+01 9.998069e+00 1.165822e+01 1.542366e+01 1.800445e+01 1.755297e+01 1.775050e+01 1.625162e+01 2.113934e+01 1.786880e+01 1.307391e+01 2.409817e-01 4.833828e-01 5.502006e-01 7.208310e-01 1.020591e+00 1.066529e+00 1.362913e+00 1.335141e+00 1.370367e+00 1.651310e+00 1.499202e+00 1.207391e+00 2.500151e-01
<GCONST> 7.570211e+01
<TRANSP> 5
 0.000000e+00 1.000000e+00 0.000000e+00 0.000000e+00 0.000000e+00
 0.000000e+00 7.903942e-01 2.096058e-01 0.000000e+00 0.000000e+00
 0.000000e+00 0.000000e+00 6.698955e-01 3.301044e-01 0.000000e+00
 0.000000e+00 0.000000e+00 0.000000e+00 9.038509e-01 9.614909e-02
 0.000000e+00 0.000000e+00 0.000000e+00 0.000000e+00 0.000000e+00
<ENDHMM>
~h "b"
<BEGINHMM>
<NUMSTATES> 5
<STATE> 2
<MEAN> 25
 4.248471e+00 3.885875e-01 -6.239766e-01 -3.691541e-01 -3.747107e+00 -3.405021e+00 -5.926332e+00 -4.416796e+00 -2.520319e+00 -1.524517e+00 -2.895887e+00 -2.976052e-01 2.694666e+00 -1.568898e-01 -2.043574e-01 -2.558777e+00 -2.287177e+00 -1.739373e+00 -2.729769e+00 -1.398397e+00 -1.414317e+00 -1.989320e+00 -1.774119e+00 2.366828e-02 3.165008e+00
<VARIANCE> 25
 4.950150e+01 6.268962e+01 3.772284e+01 6.461786e+01 5.744492e+01 4.607250e+01 6.372252e+01 4.340010e+01 5.054508e+01 4.125085e+01 3.643182e+01 2.153604e+01 4.563891e+00 8.400163e+00 4.145107e+00 7.288885e+00 4.268405e+00 4.334061e+00 4.288398e+00 3.876293e+00 5.273521e+00 3.678053e+00 3.626224e+00 2.484274e+00 8.487436e+00
<GCONST> 1.119847e+02
<STATE> 3
<MEAN> 25
 7.822753e+00 6.646579e+00 1.371744e+00 -5.112015e+00 -8.029989e+00 -7.991588e+00 -1.144601e+01 -5.925743e+00 -6.305968e+00 -4.744240e+00 -7.040003e+00 -8.543506e-01 1.329772e-01 -2.002464e-01 -1.490317e-01 -7.975568e-01 -1.765191e-01 -1.501289e-02 6.568138e-03 4.460587e-01 2.355750e-01 -4.749547e-02 -2.360204e-01 3.385071e-01 7.037817e-01
<VARIANCE> 25
 2.312459e+01 3.734259e+01 5.066274e+01 5.755333e+01 2.138685e+01 1.794413e+01 2.747105e+01 3.027371e+01 3.447729e+01 2.424130e+01 2.197373e+01 2.840796e+01 1.106306e+00 2.578126e+00 2.355340e+00 4.106029e+00 1.838307e+00 1.500705e+00 1.583240e+00 3.358508e+00 2.454447e+00 2.061738e+00 1.543079e+00 2.359564e+00 3.277850e+00
<GCONST> 9.662804e+01
<STATE> 4
<MEAN> 25
 1.199028e+01 -7.498557e+00 -1.438155e+00 -1.274352e+01 -7.183092e+00 -5.254410e+00 -6.889961e+00 -2.593020e+00 -3.410417e+00 -8.423024e+00 -6.398862e+00 1.794015e+00 -3.317343e-01 -4.681908e-01 8.441338e-02 2.222387e-01 5.789525e-02 1.811463e-01 5.160238e-01 3.636027e-01 1.075425e-01 -3.362636e-01 1.467844e-01 2.332184e-01 -8.445553e-02
<VARIANCE> 25
 3.500141e+01 1.268140e+02 4.925074e+01 4.895364e+01 3.962132e+01 3.338536e+01 3.433812e+01 5.744845e+01 4.008152e+01 4.018483e+01 3.349858e+01 1.989005e+01 8.238671e-01 4.332990e+00 1.593502e+00 4.020703e+00 2.849468e+00 2.365025e+00 2.853618e+00 4.472291e+00 3.763158e+00 4.092505e+00 2.624869e+00 2.607931e+00 4.195045e+00
<GCONST> 1.044698e+02
<TRANSP> 5
 0.000000e+00 1.000000e+00 0.000000e+00 0.000000e+00 0.000000e+00
 0.000000e+00 6.408078e-01 3.591922e-01 0.000000e+00 0.000000e+00
 0.000000e+00 0.000000e+00 7.925763e-01 2.074237e-01 0.000000e+00
 0.000000e+00 0.000000e+00 0.000000e+00 8.680511e-01 1.319489e-01
 0.000000e+00 0.000000e+00 0.000000e+00 0.000000e+00 0.000000e+00
<ENDHMM>
~h "c"
<BEGINHMM>
<NUMSTATES> 5
<STATE> 2
<MEAN> 25
 -1.158768e+00 9.864390e-01 -3.981870e-01 2.363637e+00 3.049315e+00 3.863835e+00 3.732730e+00 1.266653e+00 -2.431776e-01 2.667826e+00 1.673051e+00 -5.271825e-01 -3.990594e-02 7.049116e-03 2.305690e-03 2.627437e-02 5.412202e-02 5.306997e-02 6.499686e-02 3.959142e-02 4.511146e-02 3.629715e-02 -2.429160e-02 4.809056e-03 -1.575972e-02
<VARIANCE> 25
 2.070650e+00 2.673437e+00 4.612164e+00 5.281216e+00 8.002357e+00 9.335302e+00 1.214563e+01 1.218185e+01 1.097250e+01 1.245526e+01 1.207505e+01 1.233379e+01 1.233045e-01 2.051575e-01 3.507019e-01 5.101819e-01 6.843161e-01 9.497315e-01 1.141943e+00 1.110414e+00 1.012071e+00 1.220124e+00 1.232058e+00 1.321279e+00 3.711012e-02
<GCONST> 6.189553e+01
<STATE> 3
<MEAN> 25
 -1.670632e+00 1.502374e+00 -7.390890e-01 3.179203e+00 4.264860e+00 3.322490e+00 4.840358e+00 9.359438e-01 3.408805e-01 2.944795e+00 1.798073e+00 -5.559059e-01 -7.138666e-01 1.376299e-01 -4.195901e-02 -1.427018e-01 -4.601561e-01 -1.564324e+00 -4.270693e-01 -9.873176e-02 8.658846e-01 -9.901582e-02 -1.921456e-02 1.064320e+00 1.155941e+00
<VARIANCE> 25
 8.186398e-01 2.233570e+00 4.538608e+00 6.850069e+00 7.736312e+00 1.726041e+01 1.278677e+01 1.119407e+01 3.704839e+00 5.681779e+00 3.825089e+00 1.784391e+01 1.019528e+00 2.025630e-01 6.771368e-01 9.714863e-01 1.332640e+00 1.845315e+00 1.764439e+00 2.013668e+00 1.459197e+00 2.124725e+00 8.405299e-01 8.560355e-01 1.866540e+00
<GCONST> 6.871345e+01
<STATE> 4
<MEAN> 25
 -5.921172e+00 2.587856e+00 -6.188563e-01 -2.021932e+00 2.253220e+00 -1.523036e+00 4.130521e+00 1.831572e+00 4.871715e+00 4.454604e+00 1.895936e+00 2.013955e+00 -6.868649e-01 5.100601e-01 1.030177e+00 -2.797125e+00 -2.335120e+00 -2.188059e+00 -1.779566e+00 -8.183667e-01 1.702778e-01 -1.050339e+00 -2.844060e-01 7.776693e-02 4.461153e+00
<VARIANCE> 25
 2.089697e+01 6.641018e+00 1.677709e+01 4.175966e+01 1.620702e+01 3.534859e+01 2.018354e+01 1.832742e+01 1.532475e+01 2.517409e+01 1.279827e+01 6.761656e+00 5.208816e+00 3.220187e+00 2.695386e+00 1.356519e+00 2.803371e+00 2.966648e+00 7.098486e+00 3.468869e+00 3.206331e+00 4.791501e+00 3.289281e+00 9.806948e-01 1.104148e+00
<GCONST> 9.355202e+01
<TRANSP> 5
 0.000000e+00 1.000000e+00 0.000000e+00 0.000000e+00 0.000000e+00
 0.000000e+00 9.670697e-01 3.293027e-02 0.000000e+00 0.000000e+00
 0.000000e+00 0.000000e+00 4.052472e-01 5.947527e-01 0.000000e+00
 0.000000e+00 0.000000e+00 0.000000e+00 6.547341e-01 3.452659e-01
 0.000000e+00 0.000000e+00 0.000000e+00 0.000000e+00 0.000000e+00
<ENDHMM>
~h "d"
<BEGINHMM>
<NUMSTATES> 5
<STATE> 2
<MEAN> 25
 -2.172698e+00 3.118299e+00 -1.850610e+00 3.562457e+00 3.336224e+00 1.974492e+00 3.255595e+00 1.049051e+00 2.754464e-01 2.779335e+00 1.177308e+00 -5.826832e-01 -4.861051e-02 7.925833e-02 3.100523e-03 1.163895e-02 5.242738e-02 1.933416e-02 3.603567e-02 -1.843115e-03 -9.714841e-02 4.017344e-02 -1.567781e-02 -7.019173e-03 -6.121312e-02
<VARIANCE> 25
 4.674718e+00 1.995085e+01 8.581261e+00 7.372428e+00 1.503050e+01 2.074070e+01 1.361722e+01 1.481652e+01 1.368636e+01 1.348715e+01 1.335180e+01 1.179143e+01 1.168350e-01 3.463208e-01 4.049093e-01 4.983965e-01 7.788488e-01 1.023239e+00 1.031013e+00 1.174095e+00 1.234878e+00 1.083042e+00 1.169204e+00 1.055974e+00 8.986535e-02
<GCONST> 6.920445e+01
<STATE> 3
<MEAN> 25
 -6.278105e-01 7.022040e+00 1.982751e+00 2.669067e+00 9.235864e-01 -9.646900e-01 -1.283404e+00 -2.689162e-01 -1.596418e+00 1.432018e+00 1.133195e+00 1.711671e-01 1.817086e-01 -1.186157e+00 8.943301e-01 -9.063091e-01 -1.407175e+00 -3.291463e-02 -1.461492e+00 2.754388e-01 -2.542666e-01 -6.297377e-01 2.891843e-01 -1.061733e-01 2.146051e+00
<VARIANCE> 25
 2.270549e+01 4.169360e+01 2.171347e+01 1.454618e+01 3.919287e+01 5.015752e+01 6.851690e+01 2.627796e+01 2.156189e+01 1.645858e+01 1.504800e+01 1.307470e+01 1.077242e+00 3.559672e+00 2.240392e+00 3.157751e+00 3.404854e+00 4.298675e+00 2.936242e+00 3.334717e+00 3.142524e+00 2.494059e+00 2.015120e+00 1.575688e+00 3.312067e+00
<GCONST> 9.746581e+01
<STATE> 4
<MEAN> 25
 3.161383e+00 -9.713125e-01 1.464322e+00 -3.796069e+00 -8.604779e+00 -5.859607e+00 -1.435063e+00 -5.923294e-01 -2.189914e+00 -4.899405e+00 -2.041229e+00 -1.347703e-02 3.444044e-01 -6.666577e-01 -1.243594e-01 -6.109211e-01 -5.110033e-01 -4.624308e-01 2.581886e-01 -9.675580e-02 -2.514724e-01 -6.518807e-01 -6.561334e-01 2.466158e-01 1.167087e+00
<VARIANCE> 25
 1.766743e+01 3.705047e+01 2.447432e+01 4.239339e+01 5.610609e+01 4.432817e+01 4.189931e+01 3.475848e+01 3.257796e+01 3.974548e+01 4.647674e+01 2.327694e+01 1.476283e+00 3.471909e+00 2.925148e+00 3.384883e+00 7.526369e+00 4.154985e+00 5.055650e+00 4.234296e+00 2.867169e+00 4.415839e+00 3.886991e+00 2.025437e+00 6.368821e+00
<GCONST> 1.055173e+02
<TRANSP> 5
 0.000000e+00 1.000000e+00 0.000000e+00 0.000000e+00 0.000000e+00
 0.000000e+00 9.248902e-01 7.510974e-02 0.000000e+00 0.000000e+00
 0.000000e+00 0.000000e+00 4.516238e-01 5.483763e-01 0.000000e+00
 0.000000e+00 0.000000e+00 0.000000e+00 8.627491e-01 1.372509e-01
 0.000000e+00 0.000000e+00 0.000000e+00 0.000000e+00 0.000000e+00
<ENDHMM>
~h "e"
<BEGINHMM>
<NUMSTATES> 5
<STATE> 2
<MEAN> 25
 3.120796e+00 -4.323202e+00 -2.006303e+00 -2.768442e+00 -2.040040e+00 -5.230355e+00 -4.250220e+00 7.120634e-01 3.230644e+00 -1.669294e+00 -2.543096e+00 -2.726118e-01 2.287961e+00 -1.284792e+00 1.542813e-01 -2.307056e+00 -5.627985e-01 -1.264848e+00 -1.656296e+00 -1.268651e+00 -2.310718e-01 -1.588621e+00 -1.350349e+00 3.009927e-02 2.942636e+00
<VARIANCE> 25
 5.493139e+01 9.522422e+01 6.161367e+01 4.558023e+01 5.439362e+01 5.115366e+01 5.120892e+01 4.468977e+01 2.903739e+01 4.787858e+01 4.524135e+01 1.887650e+01 5.138498e+00 1.009410e+01 4.867688e+00 6.595620e+00 7.433359e+00 6.575302e+00 5.088631e+00 6.066447e+00 3.502344e+00 5.760242e+00 4.279500e+00 2.099919e+00 1.041135e+01
<GCONST> 1.143834e+02
<STATE> 3
<MEAN> 25
 8.869352e+00 -8.125467e+00 -3.096548e+00 -9.310495e+00 -2.494729e+00 -7.088877e+00 -7.242000e+00 -3.153194e+00 2.533127e+00 -4.858838e+00 -7.078791e+00 -8.769681e-01 7.560977e-01 -7.405340e-01 3.824702e-01 -1.606800e+00 1.526209e-01 6.288212e-02 6.246975e-02 -1.050460e+00 -4.558024e-01 -7.411149e-01 -7.498677e-01 -2.850148e-01 1.301250e+00
<VARIANCE> 25
 2.495682e+01 9.332483e+01 4.072147e+01 4.798489e+01 5.062992e+01 3.675642e+01 4.511370e+01 4.107614e+01 3.253672e+01 3.159174e+01 4.102676e+01 2.517686e+01 3.859141e+00 6.377845e+00 3.743113e+00 6.900219e+00 5.969710e+00 4.018206e+00 5.535348e+00 3.360751e+00 3.946781e+00 5.068151e+00 3.888219e+00 2.862190e+00 9.268672e+00
<GCONST> 1.103943e+02
<STATE> 4
<MEAN> 25
 8.248863e+00 -1.222622e+01 -2.890670e+00 -9.449644e+00 -6.554855e-02 -2.014210e+00 -4.328604e+00 -1.920757e+00 1.146280e+00 -6.546656e+00 -6.632986e+00 -4.457029e-01 -5.389327e-01 6.831766e-01 5.866762e-02 9.968452e-01 4.327016e-02 7.028961e-01 3.752230e-01 2.861736e-01 -1.878372e-01 3.433795e-01 5.548210e-01 -1.027517e-01 -1.396121e+00
<VARIANCE> 25
 2.425393e+01 9.045755e+01 4.221852e+01 5.085895e+01 3.748130e+01 4.330075e+01 5.725383e+01 4.766881e+01 3.951085e+01 3.174257e+01 3.515923e+01 1.968595e+01 1.467544e+00 3.151285e+00 1.773505e+00 2.653922e+00 3.174941e+00 2.602424e+00 3.369531e+00 3.629553e+00 2.785793e+00 3.518429e+00 3.030396e+00 1.691945e+00 3.678538e+00
<GCONST> 1.032058e+02
<TRANSP> 5
 0.000000e+00 1.000000e+00 0.000000e+00 0.000000e+00 0.000000e+00
 0.000000e+00 3.784262e-01 6.215737e-01 0.000000e+00 0.000000e+00
 0.000000e+00 0.000000e+00 3.995157e-01 6.004844e-01 0.000000e+00
 0.000000e+00 0.000000e+00 0.000000e+00 8.386840e-01 1.613160e-01
 0.000000e+00 0.000000e+00 0.000000e+00 0.000000e+00 0.000000e+00
<ENDHMM>
~h "f"
<BEGINHMM>
<NUMSTATES> 5
<STATE> 2
<MEAN> 25
 -2.895000e+00 1.811028e+00 -7.446072e-02 4.373672e+00 3.302421e+00 3.282186e+00 2.520165e+00 2.702992e+00 1.794856e+00 2.638225e+00 2.695844e+00 -1.077312e-01 -1.030944e-01 3.892983e-02 -1.821965e-02 4.047716e-02 -2.997956e-02 1.037747e-02 5.131445e-02 1.402878e-02 3.300883e-02 6.463823e-02 3.684611e-02 -1.472840e-02 5.578517e-02
<VARIANCE> 25
 5.733361e+00 9.992511e+00 1.396064e+01 9.706261e+00 1.215797e+01 1.484261e+01 1.508449e+01 1.510764e+01 1.510102e+01 1.531755e+01 1.674107e+01 1.186346e+01 1.886558e-01 3.881405e-01 5.321577e-01 6.404650e-01 8.712407e-01 9.293829e-01 1.252022e+00 1.264145e+00 1.364012e+00 1.369735e+00 1.426410e+00 1.094773e+00 2.214520e-01
<GCONST> 7.238421e+01
<STATE> 3
<MEAN> 25
 -4.368655e+00 4.540285e+00 -4.183859e+00 3.039630e+00 2.160919e+00 1.195153e+00 2.469061e+00 1.778960e+00 2.118396e+00 3.223337e+00 2.662364e+00 -5.981669e-01 7.151968e-01 -1.029245e+00 -1.471588e-01 -5.517166e-01 -4.154937e-01 -1.047135e-01 -2.537553e-01 -3.709040e-01 -2.708111e-01 -4.803420e-01 -4.939347e-01 -4.235602e-02 7.556682e-01
<VARIANCE> 25
 9.176541e+00 3.527987e+01 1.574159e+01 9.995885e+00 2.078062e+01 2.372485e+01 2.233637e+01 1.696044e+01 2.268152e+01 1.688216e+01 2.283138e+01 1.469747e+01 1.011292e+00 3.143426e+00 1.972999e+00 1.977167e+00 1.922504e+00 1.951871e+00 1.887052e+00 1.764637e+00 2.133136e+00 1.898565e+00 2.579268e+00 1.463695e+00 1.348099e+00
<GCONST> 8.875562e+01
<STATE> 4
<MEAN> 25
 1.863195e+00 -1.076076e+01 -1.050577e+00 -9.232028e-01 -3.929711e+00 2.858361e+00 -2.335263e+00 -1.630124e+00 4.216775e-01 -4.396885e+00 -1.172901e+00 1.097621e-01 1.491817e+00 -1.443900e+00 4.673018e-01 -1.504056e+00 -6.644220e-01 -4.654235e-01 -1.137993e+00 -1.151029e+00 -5.400928e-01 -7.190080e-01 -1.136995e+00 -1.310304e-01 1.926796e+00
<VARIANCE> 25
 3.539489e+01 8.691402e+01 3.793172e+01 4.500866e+01 4.568186e+01 3.074383e+01 3.563820e+01 3.246587e+01 1.835108e+01 4.163414e+01 2.872836e+01 1.624558e+01 4.213116e+00 8.994370e+00 3.742238e+00 5.073039e+00 4.635596e+00 4.548892e+00 3.596687e+00 4.473185e+00 2.612710e+00 3.873376e+00 5.237868e+00 2.088867e+00 7.018531e+00
<GCONST> 1.075672e+02
<TRANSP> 5
 0.000000e+00 1.000000e+00 0.000000e+00 0.000000e+00 0.000000e+00
 0.000000e+00 9.615546e-01 3.844542e-02 0.000000e+00 0.000000e+00
 0.000000e+00 0.000000e+00 6.910633e-01 3.089367e-01 0.000000e+00
 0.000000e+00 0.000000e+00 0.000000e+00 7.913868e-01 2.086132e-01
 0.000000e+00 0.000000e+00 0.000000e+00 0.000000e+00 0.000000e+00
<ENDHMM>
~h "g"
<BEGINHMM>
<NUMSTATES> 5
<STATE> 2
<MEAN> 25
 7.785791e+00 -7.843116e+00 2.139091e+00 -6.157024e+00 -4.235594e+00 -3.313274e+00 -7.152250e+00 -3.326334e+00 5.637451e-01 -3.055266e+00 -2.154070e+00 1.068532e+00 1.008351e+00 -9.444580e-01 5.344087e-02 -1.567934e+00 -1.298587e+00 -1.137067e+00 -7.127493e-01 -6.309142e-01 -2.222622e-01 -5.341892e-01 -8.119165e-01 2.953949e-01 2.202842e+00
<VARIANCE> 25
 7.371364e+01 1.344905e+02 3.080490e+01 1.032585e+02 1.005057e+02 5.303262e+01 8.316766e+01 7.182213e+01 4.132084e+01 4.909404e+01 3.084944e+01 3.007855e+01 3.237362e+00 1.004607e+01 3.093729e+00 8.817854e+00 6.724782e+00 4.863302e+00 6.255802e+00 6.838871e+00 4.322299e+00 4.225290e+00 3.875564e+00 3.218966e+00 9.115197e+00
<GCONST> 1.166080e+02
<STATE> 3
<MEAN> 25
 8.063150e+00 -5.715619e+00 -1.404931e+00 -1.140484e+01 -7.161075e+00 -9.650022e+00 -2.079856e+00 -4.341977e+00 -1.646342e+00 -6.537054e+00 -9.699287e+00 5.869309e-01 -1.331640e-01 6.043591e-01 1.727946e-02 5.382977e-01 -1.898669e-01 1.940397e-01 9.056925e-02 -1.032673e-01 -5.584137e-01 -3.389454e-01 2.281116e-01 -2.394160e-01 -8.376386e-01
<VARIANCE> 25
 1.053246e+01 5.619781e+01 2.405254e+01 2.379283e+01 7.847245e+01 2.752630e+01 8.375564e+01 2.099104e+01 2.037246e+01 2.800155e+01 2.776950e+01 1.528432e+01 9.160141e-01 2.169977e+00 1.102507e+00 2.235157e+00 2.204703e+00 2.127372e+00 2.943261e+00 1.715922e+00 1.835170e+00 1.772503e+00 1.958611e+00 1.287935e+00 1.789001e+00
<GCONST> 9.366730e+01
<STATE> 4
<MEAN> 25
 1.828966e-01 -9.139854e+00 1.979114e-01 -1.153560e+00 -7.522718e+00 2.774732e+00 -1.279954e+00 -8.071398e-01 6.057142e-01 -1.573018e+00 1.728325e+00 -7.522073e-01 -9.779664e-01 4.058162e-02 -6.345863e-01 7.664421e-01 5.820950e-01 1.017540e+00 7.070403e-01 4.473809e-01 3.538623e-01 7.523748e-01 6.063119e-01 4.599614e-02 -6.629353e-01
<VARIANCE> 25
 4.848789e+01 1.713112e+02 5.927147e+01 4.479197e+01 4.621842e+01 4.062816e+01 3.933023e+01 3.720131e+01 3.052496e+01 4.136296e+01 3.179883e+01 2.140746e+01 3.189294e+00 2.982947e+00 2.934263e+00 2.615991e+00 2.252291e+00 4.688225e+00 2.680222e+00 3.539439e+00 3.824617e+00 3.544690e+00 3.362513e+00 2.294012e+00 1.804582e+00
<GCONST> 1.054841e+02
<TRANSP> 5
 0.000000e+00 1.000000e+00 0.000000e+00 0.000000e+00 0.000000e+00
 0.000000e+00 8.669775e-01 1.330225e-01 0.000000e+00 0.000000e+00
 0.000000e+00 0.000000e+00 8.342588e-01 1.657412e-01 0.000000e+00
 0.000000e+00 0.000000e+00 0.000000e+00 8.388856e-01 1.611144e-01
 0.000000e+00 0.000000e+00 0.000000e+00 0.000000e+00 0.000000e+00
<ENDHMM>
~h "h"
<BEGINHMM>
<NUMSTATES> 5
<STATE> 2
<MEAN> 25
 -2.701073e+00 7.023907e-01 1.195183e+00 5.005587e+00 3.349838e+00 3.510170e+00 3.673574e+00 2.988901e+00 1.823413e+00 3.196856e+00 2.629314e+00 2.127868e-01 -1.691884e-02 1.654018e-02 2.815031e-03 4.422374e-02 5.880482e-02 5.007203e-02 4.768157e-02 -1.067254e-02 1.030858e-02 3.885474e-02 4.294083e-03 -1.173615e-02 -2.846291e-02
<VARIANCE> 25
 3.324535e+00 5.563196e+00 1.011367e+01 1.253134e+01 1.071418e+01 1.134183e+01 1.343813e+01 1.320027e+01 1.469183e+01 1.585029e+01 1.254992e+01 1.120100e+01 1.097392e-01 2.402938e-01 4.108230e-01 5.847185e-01 8.073541e-01 8.671749e-01 1.129727e+00 1.144487e+00 1.226146e+00 1.299210e+00 1.103016e+00 9.600289e-01 5.236598e-02
<GCONST> 6.649319e+01
<STATE> 3
<MEAN> 25
 -2.219474e+00 -2.912387e+00 -1.580185e+00 -3.850667e+00 6.042025e+00 7.605879e+00 2.458318e+00 2.510970e+00 1.404196e+00 1.018752e+00 6.753880e-01 5.264679e-01 1.669126e-01 -2.796590e-01 -2.859230e-01 -1.094854e+00 -1.199694e-01 -1.094697e-02 -5.066679e-01 -3.986819e-01 -2.671643e-01 -1.487240e-01 -1.746918e-01 7.578170e-02 6.969860e-01
<VARIANCE> 25
 8.988593e+00 2.373344e+01 2.063636e+01 4.986077e+01 2.079341e+01 2.306847e+01 2.990870e+01 1.693252e+01 2.362080e+01 2.033494e+01 2.072029e+01 2.239153e+01 6.990476e-01 7.794330e-01 1.262883e+00 1.599883e+00 1.554019e+00 1.346596e+00 1.494294e+00 1.527917e+00 1.551754e+00 1.732652e+00 1.835410e+00 2.042621e+00 5.228139e-01
<GCONST> 8.628290e+01
<STATE> 4
<MEAN> 25
 4.568679e+00 -2.155626e+00 -4.449416e+00 -8.243278e+00 1.515358e+00 -5.774696e-01 -5.263915e+00 -4.927244e+00 -2.281810e+00 -2.546577e+00 -3.308872e+00 -1.470977e+00 9.398877e-01 1.894815e-01 -3.889379e-01 -6.070493e-01 -4.401937e-01 -6.719865e-01 -5.501156e-01 -6.489231e-01 -5.163513e-01 -4.529963e-01 -8.022794e-01 -2.596858e-01 5.828980e-01
<VARIANCE> 25
 4.324063e+01 5.269540e+01 1.858748e+01 6.031247e+01 5.726809e+01 4.410791e+01 4.033525e+01 4.643592e+01 3.896482e+01 3.524186e+01 3.127414e+01 2.005356e+01 2.575029e+00 1.784804e+00 1.102726e+00 1.597918e+00 1.605882e+00 3.108933e+00 3.270252e+00 3.771280e+00 3.016715e+00 2.851188e+00 2.462635e+00 1.981660e+00 1.665854e+00
<GCONST> 1.001953e+02
<TRANSP> 5
 0.000000e+00 1.000000e+00 0.000000e+00 0.000000e+00 0.000000e+00
 0.000000e+00 9.527582e-01 4.724180e-02 0.000000e+00 0.000000e+00
 0.000000e+00 0.000000e+00 8.298219e-01 1.701781e-01 0.000000e+00
 0.000000e+00 0.000000e+00 0.000000e+00 7.288719e-01 2.711281e-01
 0.000000e+00 0.000000e+00 0.000000e+00 0.000000e+00 0.000000e+00
<ENDHMM>
~h "i"
<BEGINHMM>
<NUMSTATES> 5
<STATE> 2
<MEAN> 25
 4.284007e+00 1.015132e+00 1.392002e+01 -1.251023e+01 -1.510014e+01 -2.762862e+00 -1.287114e+01 -9.252014e+00 -1.024936e-02 -1.814829e+00 -4.866838e+00 2.027879e+00 1.555544e-01 4.458311e-01 4.498431e-01 -5.277202e-01 -7.116597e-01 1.199249e-01 -7.094591e-01 -4.637453e-01 -1.892051e-02 -3.475149e-02 -3.687156e-01 1.313275e-01 1.384462e-01
<VARIANCE> 25
 2.751021e+01 1.251295e+02 4.196527e+01 4.675303e+01 4.490120e+01 2.382258e+01 5.839271e+01 3.832244e+01 2.187997e+01 3.538533e+01 2.260249e+01 2.326216e+01 2.282578e+00 3.840869e+00 4.938975e+00 6.104007e+00 5.401944e+00 3.605990e+00 6.317875e+00 4.423284e+00 2.315613e+00 3.776748e+00 2.838912e+00 2.838188e+00 4.275942e+00
<GCONST> 1.068625e+02
<STATE> 3
<MEAN> 25
 9.971988e-01 1.725936e+00 6.916342e+00 -3.720812e+00 -1.159137e+01 -6.089042e-01 -7.028615e+00 -5.937474e+00 -8.355236e-01 -1.477355e+00 -1.154214e+00 1.084420e+00 -7.411152e-01 -6.429496e-01 -1.913947e+00 2.465349e+00 2.074854e+00 3.631608e-01 2.398290e+00 1.638913e+00 5.706188e-02 3.627932e-01 1.252698e+00 -2.886473e-01 -1.797728e+00
<VARIANCE> 25
 2.449774e+01 7.217615e+01 3.639813e+01 4.439133e+01 5.378445e+01 4.409113e+01 6.260595e+01 3.864487e+01 4.032615e+01 4.223108e+01 4.213166e+01 3.490707e+01 2.252189e+00 5.796887e+00 2.968642e+00 2.939070e+00 3.462328e+00 4.397368e+00 4.524024e+00 3.466154e+00 4.189049e+00 5.020514e+00 2.974235e+00 2.905274e+00 3.519621e+00
<GCONST> 1.077800e+02
<STATE> 4
<MEAN> 25
 -2.825605e+00 1.663234e+00 1.255918e+00 4.339396e+00 6.649027e-01 2.667431e+00 2.204828e+00 1.573889e+00 1.379767e+00 2.564789e+00 2.639223e+00 2.367287e-01 -7.686179e-02 -3.688147e-02 -1.618148e-01 3.100503e-01 5.332808e-01 4.404857e-04 3.308649e-01 2.708858e-01 -7.021631e-02 4.941091e-02 1.278139e-02 -1.265683e-01 -2.281699e-01
<VARIANCE> 25
 1.308826e+01 2.248363e+01 1.691130e+01 1.589258e+01 3.399492e+01 2.730824e+01 2.175035e+01 2.054749e+01 2.240844e+01 1.952717e+01 2.119577e+01 1.617784e+01 3.321157e-01 8.557391e-01 1.072290e+00 1.041382e+00 1.765772e+00 1.812220e+00 1.821191e+00 1.720664e+00 1.921769e+00 1.646862e+00 1.780339e+00 1.415671e+00 4.779131e-01
<GCONST> 8.457553e+01
<TRANSP> 5
 0.000000e+00 1.000000e+00 0.000000e+00 0.000000e+00 0.000000e+00
 0.000000e+00 8.515290e-01 1.484710e-01 0.000000e+00 0.000000e+00
 0.000000e+00 0.000000e+00 7.366671e-01 2.633330e-01 0.000000e+00
 0.000000e+00 0.000000e+00 0.000000e+00 8.607721e-01 1.392279e-01
 0.000000e+00 0.000000e+00 0.000000e+00 0.000000e+00 0.000000e+00
<ENDHMM>
~h "j"
<BEGINHMM>
<NUMSTATES> 5
<STATE> 2
<MEAN> 25
 -2.196257e+00 1.244662e+00 -7.042571e-04 3.176862e+00 3.683446e+00 3.096624e+00 3.345730e+00 1.939147e+00 9.788626e-01 3.153239e+00 3.518748e+00 -9.541141e-02 -6.059166e-04 5.236938e-02 1.452190e-02 -4.809541e-03 -6.919527e-03 -1.672168e-03 7.753374e-02 -6.172252e-02 -2.923210e-02 3.364825e-03 -4.900429e-02 7.497328e-03 -1.135306e-02
<VARIANCE> 25
 1.962278e+00 2.906419e+00 6.603165e+00 9.376397e+00 6.908432e+00 9.295424e+00 1.793069e+01 1.733797e+01 1.427082e+01 1.514765e+01 1.516261e+01 1.220145e+01 1.264781e-01 2.078651e-01 4.639305e-01 5.600070e-01 7.545754e-01 9.410091e-01 1.436509e+00 1.686540e+00 1.346510e+00 1.144604e+00 1.583515e+00 1.276425e+00 6.965273e-02
<GCONST> 6.633999e+01
<STATE> 3
<MEAN> 25
 -1.256913e+00 5.570583e+00 3.570736e+00 -3.300063e+00 -4.835678e+00 -5.368826e+00 -1.045091e+00 -2.664052e+00 -1.566545e+00 2.592761e+00 5.909094e-01 -1.182645e+00 -1.842155e-02 1.876049e-01 7.432558e-01 -1.302144e+00 -1.801825e+00 -1.167300e+00 -4.172360e-01 -5.711264e-01 -2.867039e-01 -1.643035e-01 -3.116934e-01 -3.362796e-01 1.805256e+00
<VARIANCE> 25
 4.778892e+01 1.804245e+01 2.142712e+01 3.770878e+01 8.347820e+01 3.815768e+01 4.376158e+01 2.454033e+01 4.735507e+01 2.443389e+01 1.699941e+01 1.057035e+01 6.542002e+00 1.779208e+00 2.504488e+00 3.285822e+00 1.003020e+01 2.456969e+00 3.509869e+00 2.703340e+00 4.378929e+00 2.190504e+00 1.728721e+00 1.002232e+00 5.498966e+00
<GCONST> 1.012231e+02
<STATE> 4
<MEAN> 25
 2.838034e+00 7.483726e-01 3.957279e+00 -7.914779e+00 -1.388347e+01 -9.224704e+00 -4.292091e-01 -1.480811e+00 -4.364700e+00 -2.523509e+00 -8.443410e+00 -1.545887e+00 5.455183e-01 -8.089575e-01 -1.033584e+00 5.113195e-01 1.095643e+00 2.421462e-02 3.289822e-02 5.282024e-01 -6.006757e-02 -1.615400e+00 -1.303244e+00 5.998067e-01 -5.751523e-02
<VARIANCE> 25
 2.248443e+01 1.672197e+01 1.180858e+01 2.630880e+01 3.904440e+01 2.004248e+01 2.746641e+01 1.246662e+01 1.685351e+01 2.119090e+01 2.493805e+01 1.262132e+01 5.791274e-01 1.762438e+00 1.873400e+00 5.732366e-01 2.784874e+00 3.557631e+00 2.517565e+00 2.781644e+00 2.131783e+00 2.317858e+00 2.122253e+00 1.481768e+00 5.700769e-01
<GCONST> 8.825642e+01
<TRANSP> 5
 0.000000e+00 1.000000e+00 0.000000e+00 0.000000e+00 0.000000e+00
 0.000000e+00 9.753939e-01 2.460612e-02 0.000000e+00 0.000000e+00
 0.000000e+00 0.000000e+00 8.955029e-01 1.044970e-01 0.000000e+00
 0.000000e+00 0.000000e+00 0.000000e+00 7.974600e-01 2.025400e-01
 0.000000e+00 0.000000e+00 0.000000e+00 0.000000e+00 0.000000e+00
<ENDHMM>
~h "k"
<BEGINHMM>
<NUMSTATES> 5
<STATE> 2
<MEAN> 25
 -1.615250e+00 1.407389e+00 -7.690076e-01 3.014692e+00 2.531424e+00 2.208041e+00 2.949709e+00 2.591750e+00 2.127750e+00 3.699872e+00 9.089840e-01 -3.764134e-01 -4.058439e-02 -7.787837e-01 -1.079318e+00 -6.170970e-01 4.578367e-01 -9.961433e-02 -3.660617e-01 3.438647e-01 1.313405e-01 4.155164e-01 -2.552141e-01 2.915237e-01 1.299099e+00
<VARIANCE> 25
 8.843036e+00 1.401936e+01 2.047270e+01 2.232599e+01 2.247837e+01 2.439209e+01 2.044031e+01 2.244117e+01 1.911579e+01 1.895698e+01 1.745138e+01 1.433683e+01 1.273118e+00 3.168812e+00 5.181108e+00 4.559108e+00 2.576357e+00 4.259891e+00 3.187067e+00 2.548928e+00 3.413802e+00 3.059693e+00 3.084930e+00 1.583225e+00 5.138279e+00
<GCONST> 9.535822e+01
<STATE> 3
<MEAN> 25
 2.497071e-02 -4.253742e+00 -7.383286e+00 -3.275652e+00 3.312515e+00 3.780965e-01 -1.223044e+00 1.600406e+00 8.212246e-01 3.599735e+00 -2.923562e+00 1.018253e+00 1.568943e+00 -1.437614e+00 -8.127748e-01 -2.548711e+00 -5.536019e-01 -5.949731e-01 -1.562055e+00 -1.334612e+00 -8.558341e-01 -9.933183e-01 -1.512340e+00 8.617666e-02 2.988555e+00
<VARIANCE> 25
 3.079383e+01 7.054906e+01 5.561083e+01 6.528989e+01 5.716190e+01 7.970788e+01 5.056991e+01 4.109519e+01 4.472734e+01 5.003617e+01 3.344100e+01 2.206804e+01 3.617360e+00 6.546041e+00 5.939758e+00 5.368410e+00 4.430539e+00 7.338012e+00 4.864686e+00 5.123788e+00 4.618916e+00 4.194610e+00 3.777511e+00 2.565406e+00 4.756132e+00
<GCONST> 1.123274e+02
<STATE> 4
<MEAN> 25
 4.230955e+00 -8.158486e+00 -4.190035e+00 -6.618207e+00 1.511439e+00 1.818987e-01 -3.038756e+00 -6.176453e-01 2.223509e-02 -8.405853e-01 -2.554085e+00 2.454716e-01 8.435048e-01 -2.568827e-01 4.506939e-01 -8.391418e-01 -3.571906e-01 -4.817110e-01 -3.040937e-01 -1.093914e+00 -5.932712e-01 -9.899156e-01 -2.855200e-01 -1.758266e-01 9.333550e-01
<VARIANCE> 25
 5.319877e+01 1.273832e+02 4.472653e+01 7.162319e+01 5.243076e+01 7.311455e+01 5.062280e+01 4.203899e+01 4.153113e+01 5.167826e+01 4.217894e+01 2.023762e+01 4.518618e+00 5.533053e+00 3.379263e+00 4.838891e+00 3.458450e+00 4.286388e+00 4.828802e+00 5.003590e+00 3.364600e+00 3.835424e+00 3.554785e+00 2.303322e+00 7.817825e+00
<GCONST> 1.117866e+02
<TRANSP> 5
 0.000000e+00 1.000000e+00 0.000000e+00 0.000000e+00 0.000000e+00
 0.000000e+00 6.688728e-01 3.311272e-01 0.000000e+00 0.000000e+00
 0.000000e+00 0.000000e+00 4.233989e-01 5.766011e-01 0.000000e+00
 0.000000e+00 0.000000e+00 0.000000e+00 4.309599e-01 5.690400e-01
 0.000000e+00 0.000000e+00 0.000000e+00 0.000000e+00 0.000000e+00
<ENDHMM>
~h "l"
<BEGINHMM>
<NUMSTATES> 5
<STATE> 2
<MEAN> 25
 9.987728e+00 -3.606846e+00 -8.848797e+00 -1.346448e+01 2.177273e+00 -3.772494e+00 -4.998225e+00 -7.161642e+00 -2.753155e+00 -4.491110e+00 -7.070817e+00 -3.452971e+00 1.017746e-01 2.817115e-01 -1.148746e-01 1.987414e-01 -1.810990e-02 -1.269449e-01 -3.312224e-01 -2.064339e-02 2.459247e-01 4.924526e-02 1.052012e-01 -2.518089e-02 -1.810889e-01
<VARIANCE> 25
 7.087805e+00 6.014508e+01 1.938612e+01 4.681551e+01 2.290024e+01 3.091571e+01 4.032014e+01 3.281816e+01 4.242300e+01 2.329318e+01 2.398619e+01 1.708119e+01 2.278245e-01 7.246032e-01 4.661074e-01 1.009659e+00 9.153717e-01 9.851951e-01 1.128279e+00 9.439505e-01 1.373920e+00 1.056519e+00 9.644889e-01 8.143420e-01 2.543366e-01
<GCONST> 8.164104e+01
<STATE> 3
<MEAN> 25
 1.068138e+01 -6.212299e+00 -5.259512e+00 -9.374997e+00 4.348713e-01 -5.011038e+00 -1.109882e+01 -5.274236e+00 1.011732e+00 -5.619744e+00 -5.187251e+00 -1.485264e+00 -5.303167e-01 -9.644330e-02 1.264804e+00 1.499820e+00 -1.264373e+00 -8.653671e-01 -2.063512e-01 3.253429e-01 -2.544105e-01 -5.737163e-01 2.331929e-02 7.166914e-01 -2.548613e-01
<VARIANCE> 25
 1.639973e+01 1.208448e+02 2.492517e+01 3.905991e+01 4.089303e+01 5.160038e+01 2.805570e+01 5.006815e+01 4.945134e+01 4.018512e+01 2.010753e+01 2.242476e+01 9.746192e-01 1.816847e+00 1.816802e+00 1.788860e+00 3.324933e+00 1.994317e+00 2.515883e+00 3.059881e+00 3.446468e+00 2.336889e+00 2.389325e+00 2.383346e+00 1.207836e+00
<GCONST> 9.872478e+01
<STATE> 4
<MEAN> 25
 7.958221e+00 -2.963433e+00 -7.822591e-01 -3.788122e+00 -6.472752e+00 -8.199469e+00 -8.737244e+00 -3.820536e+00 -4.444856e-01 -5.733687e+00 -3.038809e+00 1.563634e+00 -1.520081e+00 3.365476e-01 2.816163e+00 1.821884e-01 -2.621067e+00 9.717390e-01 1.492013e+00 -3.289747e-01 -1.201050e+00 7.755571e-01 5.526652e-01 5.868679e-01 -1.299584e-01
<VARIANCE> 25
 1.837713e+01 6.836048e+01 3.764786e+01 3.473159e+01 8.610571e+01 5.889253e+01 6.767445e+01 4.017615e+01 4.690275e+01 4.760179e+01 3.994487e+01 2.268931e+01 1.325347e+00 1.818606e+00 4.403701e+00 2.841542e+00 8.888168e+00 2.995259e+00 2.791872e+00 5.869847e+00 4.441247e+00 3.581147e+00 2.633445e+00 2.802938e+00 1.382588e+00
<GCONST> 1.057927e+02
<TRANSP> 5
 0.000000e+00 1.000000e+00 0.000000e+00 0.000000e+00 0.000000e+00
 0.000000e+00 9.150385e-01 8.496150e-02 0.000000e+00 0.000000e+00
 0.000000e+00 0.000000e+00 6.318007e-01 3.681992e-01 0.000000e+00
 0.000000e+00 0.000000e+00 0.000000e+00 4.045860e-01 5.954140e-01
 0.000000e+00 0.000000e+00 0.000000e+00 0.000000e+00 0.000000e+00
<ENDHMM>
~h "m"
<BEGINHMM>
<NUMSTATES> 5
<STATE> 2
<MEAN> 25
 7.577925e+00 -5.470097e+00 3.402716e+00 -1.488431e+00 -2.785581e+00 -6.397081e+00 -1.150155e+01 -7.071877e+00 -3.383593e+00 -5.622079e+00 -2.565605e+00 -2.189473e+00 4.472679e-01 -3.943415e-01 6.986682e-02 -4.686695e-01 1.057489e-01 -6.900027e-01 -1.158084e+00 -2.074015e-01 -4.894572e-01 -9.264653e-01 -5.453149e-02 -1.897542e-01 1.023328e+00
<VARIANCE> 25
 3.045412e+01 1.020662e+02 2.837111e+01 4.773100e+01 4.818505e+01 3.950202e+01 4.725557e+01 5.449958e+01 4.148532e+01 4.191332e+01 3.072648e+01 2.395231e+01 2.368632e+00 6.658883e+00 2.908947e+00 6.120560e+00 5.313915e+00 4.152296e+00 4.428945e+00 6.456661e+00 4.101144e+00 3.742378e+00 3.028971e+00 2.953223e+00 6.267735e+00
<GCONST> 1.095095e+02
<STATE> 3
<MEAN> 25
 6.781474e+00 -1.607210e+00 3.386678e+00 -2.480028e+00 -2.499790e+00 -1.022591e+01 -1.132882e+01 -4.773954e+00 -4.985281e+00 -9.443518e+00 -8.124311e-01 -1.581305e+00 -9.597369e-02 2.574188e-01 9.727032e-02 2.124156e-01 -2.605211e-01 6.471393e-02 2.038134e-01 1.026820e-01 -3.988305e-02 7.182594e-02 -2.651825e-01 6.002182e-02 -2.995517e-01
<VARIANCE> 25
 1.381967e+01 1.056610e+02 2.022466e+01 2.817295e+01 3.790543e+01 2.984630e+01 2.764076e+01 6.127127e+01 2.208326e+01 5.539379e+01 2.298041e+01 2.290392e+01 5.210754e-01 1.267247e+00 1.184678e+00 1.155701e+00 1.588432e+00 1.694470e+00 1.830651e+00 1.921461e+00 1.586099e+00 2.177661e+00 1.539066e+00 1.378005e+00 1.132756e+00
<GCONST> 9.168254e+01
<STATE> 4
<MEAN> 25
 3.161956e+00 1.119986e-01 2.316873e+00 1.054236e+00 -3.086798e+00 -4.204697e+00 -6.744719e+00 -3.302030e+00 -3.030403e+00 -4.084665e+00 -1.440282e+00 -9.008878e-01 -1.559857e+00 1.865502e-01 -8.032159e-01 3.851991e-01 4.023766e-01 1.561218e+00 1.856065e+00 1.300951e+00 1.115496e+00 1.293316e+00 8.292490e-01 4.567969e-01 -1.022959e+00
<VARIANCE> 25
 2.795140e+01 9.078003e+01 3.024452e+01 2.540444e+01 3.412930e+01 4.539457e+01 4.940180e+01 4.618390e+01 3.581839e+01 7.480254e+01 3.332855e+01 2.772339e+01 2.948947e+00 4.271852e+00 2.806220e+00 2.137190e+00 3.037257e+00 2.979085e+00 3.999764e+00 4.179920e+00 4.062606e+00 6.176313e+00 2.564590e+00 2.661911e+00 4.278481e+00
<GCONST> 1.061712e+02
<TRANSP> 5
 0.000000e+00 1.000000e+00 0.000000e+00 0.000000e+00 0.000000e+00
 0.000000e+00 8.275293e-01 1.724707e-01 0.000000e+00 0.000000e+00
 0.000000e+00 0.000000e+00 8.758900e-01 1.241099e-01 0.000000e+00
 0.000000e+00 0.000000e+00 0.000000e+00 6.150377e-01 3.849623e-01
 0.000000e+00 0.000000e+00 0.000000e+00 0.000000e+00 0.000000e+00
<ENDHMM>
~h "n"
<BEGINHMM>
<NUMSTATES> 5
<STATE> 2
<MEAN> 25
 5.647386e+00 4.899829e+00 5.323575e+00 1.315821e+00 -9.418816e+00 -1.150957e+01 -7.156734e+00 -5.486284e+00 -4.736183e+00 -5.517597e+00 -2.034807e+00 -2.100736e+00 -2.712967e-01 1.644813e-01 8.225942e-02 1.339129e-01 2.842708e-01 -2.806751e-02 -2.867423e-01 -1.188029e-01 -2.822572e-01 1.438737e-02 1.198265e-01 -2.552252e-01 -4.020146e-01
<VARIANCE> 25
 8.330238e+00 1.361410e+01 1.109903e+01 1.438317e+01 3.070459e+01 2.120310e+01 2.320614e+01 1.713537e+01 2.358652e+01 2.677140e+01 1.453661e+01 1.763972e+01 4.185568e-01 6.933898e-01 6.838914e-01 7.392813e-01 1.098881e+00 1.530078e+00 1.610692e+00 1.699118e+00 1.963821e+00 1.846658e+00 1.650083e+00 1.344831e+00 4.628279e-01
<GCONST> 8.113200e+01
<STATE> 3
<MEAN> 25
 -4.970071e-01 2.233115e+00 4.113199e+00 3.603491e+00 -2.914037e+00 -2.891220e+00 -2.853422e+00 -6.088873e-01 -3.096744e+00 -2.355325e+00 2.801007e+00 2.425447e-01 -9.744890e-01 -3.621417e-01 -5.944616e-01 1.446598e-01 1.344896e+00 1.792531e+00 1.645587e+00 1.216542e+00 1.191136e+00 1.568718e+00 1.001012e+00 4.565378e-01 -7.440227e-01
<VARIANCE> 25
 1.060204e+01 2.619844e+01 1.587782e+01 1.362993e+01 3.033986e+01 3.920680e+01 3.490481e+01 3.433708e+01 3.279636e+01 3.997598e+01 3.164773e+01 2.160014e+01 7.006448e-01 1.225780e+00 8.418080e-01 9.432180e-01 1.165620e+00 2.316372e+00 2.676893e+00 2.676233e+00 2.689080e+00 2.685494e+00 2.569455e+00 1.882830e+00 2.848024e-01
<GCONST> 8.970406e+01
<STATE> 4
<MEAN> 25
 -2.646258e+00 1.627545e+00 2.470929e-01 4.058564e+00 3.726974e+00 3.981110e+00 3.763547e+00 2.390134e+00 1.557744e+00 3.465498e+00 2.388245e+00 -1.234939e-01 -1.307357e-02 3.948824e-02 -7.109658e-02 1.730883e-02 9.067194e-02 4.631590e-02 7.843070e-02 -1.585624e-03 5.767843e-02 7.998977e-02 -5.425715e-02 -4.385392e-02 -3.961968e-02
<VARIANCE> 25
 5.814423e+00 1.490323e+01 1.121159e+01 1.073368e+01 1.262277e+01 1.784750e+01 1.601220e+01 1.466576e+01 1.414284e+01 1.501103e+01 1.596707e+01 1.239952e+01 1.551919e-01 3.026789e-01 4.961093e-01 6.547172e-01 8.640642e-01 1.195858e+00 1.167496e+00 1.271666e+00 1.200349e+00 1.412108e+00 1.325451e+00 1.064043e+00 1.039868e-01
<GCONST> 7.157487e+01
<TRANSP> 5
 0.000000e+00 1.000000e+00 0.000000e+00 0.000000e+00 0.000000e+00
 0.000000e+00 8.342063e-01 1.657937e-01 0.000000e+00 0.000000e+00
 0.000000e+00 0.000000e+00 7.125283e-01 2.874717e-01 0.000000e+00
 0.000000e+00 0.000000e+00 0.000000e+00 9.338646e-01 6.613543e-02
 0.000000e+00 0.000000e+00 0.000000e+00 0.000000e+00 0.000000e+00
<ENDHMM>
~h "o"
<BEGINHMM>
<NUMSTATES> 5
<STATE> 2
<MEAN> 25
 8.034979e+00 -1.128295e+00 -3.380363e+00 -1.494202e+01 -4.537402e+00 -8.436113e-01 -4.178724e+00 -8.455448e+00 -4.906887e+00 9.976425e-02 -6.594364e+00 -7.247218e-01 9.755936e-01 -5.273055e-01 -6.591179e-01 -1.128345e+00 4.341393e-01 -2.193181e-01 -2.876031e-01 -5.719724e-01 -2.867498e-01 -5.959335e-01 -2.290603e-01 -5.861236e-01 9.467776e-01
<VARIANCE> 25
 2.313749e+01 4.377888e+01 7.376319e+01 6.384532e+01 7.479792e+01 6.112588e+01 3.794620e+01 5.055338e+01 3.963330e+01 3.069188e+01 2.561068e+01 2.202809e+01 1.779946e+00 1.335203e+00 2.560882e+00 3.740773e+00 3.591190e+00 4.307265e+00 3.031828e+00 4.030650e+00 3.102941e+00 3.449742e+00 2.784949e+00 1.763391e+00 1.614338e+00
<GCONST> 1.035590e+02
<STATE> 3
<MEAN> 25
 1.095852e+01 -5.099476e+00 -8.376906e+00 -1.590925e+01 1.892160e+00 3.877946e-01 -5.725331e+00 -6.970883e+00 -3.466946e+00 -2.026808e+00 -4.014622e+00 -2.895881e+00 -3.068827e-01 -1.067340e-02 6.080881e-01 1.334846e+00 -4.747735e-01 -1.066901e+00 2.175011e-01 2.332851e-01 6.643329e-01 -3.433901e-01 -2.307518e-01 5.664283e-03 -2.968930e-01
<VARIANCE> 25
 1.364713e+01 5.670486e+01 1.570071e+01 3.418596e+01 1.609071e+01 3.619530e+01 2.823586e+01 2.868800e+01 2.723687e+01 4.405523e+01 3.960974e+01 1.580623e+01 4.412227e-01 1.157063e+00 1.568223e+00 3.138046e+00 2.600081e+00 3.306965e+00 2.206187e+00 2.054540e+00 2.513648e+00 2.933358e+00 3.308007e+00 1.422683e+00 1.267497e+00
<GCONST> 9.384551e+01
<STATE> 4
<MEAN> 25
 7.150092e+00 -3.033017e+00 -4.918393e+00 -8.307809e+00 -8.961395e-01 -1.973116e+00 -2.212389e+00 -4.453416e+00 -5.131185e-01 -1.721870e+00 -5.137652e+00 -1.430594e+00 -1.242653e+00 2.955306e-01 1.543429e+00 2.356165e+00 -6.611605e-01 -2.686497e-01 6.556194e-01 3.479608e-01 3.619757e-01 -1.044151e-01 4.872314e-01 3.747062e-01 -1.091793e+00
<VARIANCE> 25
 1.992060e+01 3.497018e+01 2.464626e+01 6.671858e+01 2.469494e+01 5.396796e+01 4.616137e+01 4.588480e+01 2.899160e+01 3.706212e+01 4.024015e+01 1.483497e+01 1.456150e+00 1.199192e+00 2.192761e+00 3.584652e+00 3.366506e+00 3.312425e+00 3.470782e+00 3.618134e+00 2.489996e+00 2.701128e+00 4.391489e+00 1.647963e+00 1.534852e+00
<GCONST> 9.999776e+01
<TRANSP> 5
 0.000000e+00 1.000000e+00 0.000000e+00 0.000000e+00 0.000000e+00
 0.000000e+00 7.350374e-01 2.649625e-01 0.000000e+00 0.000000e+00
 0.000000e+00 0.000000e+00 6.443189e-01 3.556812e-01 0.000000e+00
 0.000000e+00 0.000000e+00 0.000000e+00 4.636416e-01 5.363584e-01
 0.000000e+00 0.000000e+00 0.000000e+00 0.000000e+00 0.000000e+00
<ENDHMM>
~h "p"
<BEGINHMM>
<NUMSTATES> 5
<STATE> 2
<MEAN> 25
 3.353021e+00 -4.572494e+00 -9.808870e-01 -7.168885e-01 -1.425345e+00 -5.763797e-01 -1.010504e+00 -7.879602e-02 6.055677e-01 -6.995268e-01 -9.582406e-01 -1.010998e+00 2.128730e+00 -2.515569e+00 -9.083049e-01 -2.078302e+00 -1.360783e+00 -1.183447e+00 -1.126659e+00 -7.700794e-01 -5.831906e-01 -1.649759e+00 -1.327961e+00 -3.236679e-01 3.684422e+00
<VARIANCE> 25
 4.238243e+01 8.843666e+01 3.144089e+01 4.036825e+01 4.517469e+01 3.282843e+01 3.440728e+01 4.659296e+01 2.789754e+01 3.743261e+01 3.010345e+01 2.067544e+01 3.163126e+00 8.605888e+00 3.387015e+00 5.038041e+00 4.650407e+00 3.278179e+00 3.098398e+00 6.749718e+00 3.603642e+00 3.977037e+00 3.210235e+00 1.991929e+00 7.524857e+00
<GCONST> 1.078301e+02
<STATE> 3
<MEAN> 25
 8.781775e+00 -1.116594e+01 -3.181456e+00 -7.854231e+00 -6.750711e+00 -8.374017e+00 1.517553e+00 -4.816686e+00 -5.213249e+00 -8.485244e+00 -6.629554e+00 -1.923563e+00 -4.355654e-01 5.766768e-01 2.872864e-01 -2.663337e-01 -1.400678e-01 -1.446681e-02 4.274060e-01 -2.345673e-01 -2.506438e-01 -3.351217e-01 2.573280e-01 3.774767e-01 -3.236601e-01
<VARIANCE> 25
 1.868601e+01 5.640435e+01 2.259213e+01 3.112897e+01 6.211730e+01 3.273642e+01 5.737019e+01 4.399218e+01 2.809647e+01 2.724401e+01 1.689510e+01 1.601118e+01 2.295961e+00 2.737106e+00 1.031083e+00 3.760134e+00 2.837546e+00 3.414247e+00 4.572367e+00 3.398808e+00 2.657491e+00 3.181591e+00 3.195900e+00 1.756128e+00 2.975934e+00
<GCONST> 1.003126e+02
<STATE> 4
<MEAN> 25
 5.426720e-01 -2.037628e+00 -1.500316e+00 2.163442e-01 8.379483e-01 1.283499e+00 2.877613e+00 6.228383e-01 -4.106437e-02 -2.046224e-01 -3.320780e-01 2.654034e-01 -5.963016e-01 4.307927e-01 1.229561e-01 2.373944e-01 3.322456e-01 4.874166e-01 -1.114518e-02 4.395077e-01 3.777143e-01 4.951640e-01 4.590924e-01 4.209666e-02 -3.702091e-01
<VARIANCE> 25
 2.874275e+01 6.067944e+01 2.093581e+01 4.517578e+01 3.643116e+01 2.807417e+01 3.522571e+01 3.170251e+01 2.358065e+01 3.527031e+01 2.102046e+01 1.699146e+01 2.434927e+00 2.490961e+00 1.390804e+00 2.601150e+00 1.938440e+00 2.848237e+00 2.245954e+00 3.109491e+00 2.234916e+00 2.905057e+00 2.343946e+00 1.627638e+00 4.319880e+00
<GCONST> 9.822649e+01
<TRANSP> 5
 0.000000e+00 1.000000e+00 0.000000e+00 0.000000e+00 0.000000e+00
 0.000000e+00 7.190377e-01 2.809623e-01 0.000000e+00 0.000000e+00
 0.000000e+00 0.000000e+00 7.164823e-01 2.835177e-01 0.000000e+00
 0.000000e+00 0.000000e+00 0.000000e+00 7.017160e-01 2.982840e-01
 0.000000e+00 0.000000e+00 0.000000e+00 0.000000e+00 0.000000e+00
<ENDHMM>
~h "r"
<BEGINHMM>
<NUMSTATES> 5
<STATE> 2
<MEAN> 25
 6.391444e+00 -1.041198e+01 2.186524e+00 -3.456257e+00 -6.405364e+00 -2.381953e+00 -3.156415e+00 -8.367491e-01 -8.923864e-01 -7.123459e+00 -3.742299e+00 5.288801e-02 -6.632720e-01 2.775350e-01 1.887498e-01 7.458822e-01 2.566108e-02 1.009671e+00 -5.303751e-01 3.595162e-01 5.972992e-01 -1.436605e-02 6.643643e-01 1.135228e-01 -1.064203e+00
<VARIANCE> 25
 4.003431e+01 9.684062e+01 3.689053e+01 4.305854e+01 4.137443e+01 4.081203e+01 4.594422e+01 3.867135e+01 4.709908e+01 4.335377e+01 3.316570e+01 2.389096e+01 3.757583e+00 3.523132e+00 4.272549e+00 2.863902e+00 4.603967e+00 4.629246e+00 3.706824e+00 5.499339e+00 5.443448e+00 3.475655e+00 4.931150e+00 2.417658e+00 3.254922e+00
<GCONST> 1.085515e+02
<STATE> 3
<MEAN> 25
 3.049017e-01 -7.122449e+00 1.759311e+00 1.395294e+00 -3.126404e+00 2.544322e+00 -1.853830e+00 2.533774e+00 2.617044e+00 -4.373780e+00 1.165878e+00 1.793236e+00 -7.270484e-01 1.010821e+00 -3.554081e-04 7.015012e-01 9.037486e-01 2.144071e-01 4.055612e-01 3.840386e-01 5.270123e-02 1.063907e+00 7.243595e-01 -2.953937e-01 -1.155602e+00
<VARIANCE> 25
 3.162488e+01 5.649360e+01 4.019086e+01 2.640443e+01 4.187654e+01 3.593217e+01 4.469627e+01 3.606452e+01 3.313458e+01 4.826466e+01 3.056804e+01 2.635486e+01 2.464952e+00 4.422106e+00 4.465020e+00 1.314078e+00 3.557748e+00 3.831115e+00 4.644847e+00 4.025477e+00 3.426112e+00 4.828309e+00 3.509352e+00 2.640275e+00 2.031293e+00
<GCONST> 1.046124e+02
<STATE> 4
<MEAN> 25
 -2.994998e+00 1.138007e+00 3.144839e-01 4.615742e+00 2.680376e+00 2.991571e+00 2.349311e+00 3.425848e+00 2.050968e+00 2.134184e+00 2.792615e+00 4.169438e-02 2.731326e-02 9.591975e-02 8.601684e-02 1.032473e-02 9.961124e-02 -6.574443e-02 -6.254016e-02 -6.842273e-02 -9.229774e-05 1.301105e-01 -1.995741e-02 -7.953536e-03 -2.018217e-01
<VARIANCE> 25
 1.432137e+01 2.072202e+01 2.039240e+01 1.339008e+01 2.423163e+01 1.708998e+01 1.782035e+01 1.829492e+01 1.995878e+01 1.934389e+01 1.652223e+01 1.338362e+01 5.133827e-01 6.168820e-01 7.705456e-01 8.120438e-01 1.314644e+00 1.315257e+00 1.612540e+00 1.632942e+00 1.589826e+00 1.676308e+00 1.583930e+00 1.239378e+00 4.710884e-01
<GCONST> 8.121662e+01
<TRANSP> 5
 0.000000e+00 1.000000e+00 0.000000e+00 0.000000e+00 0.000000e+00
 0.000000e+00 6.910840e-01 3.089160e-01 0.000000e+00 0.000000e+00
 0.000000e+00 0.000000e+00 6.184849e-01 3.815151e-01 0.000000e+00
 0.000000e+00 0.000000e+00 0.000000e+00 8.948025e-01 1.051976e-01
 0.000000e+00 0.000000e+00 0.000000e+00 0.000000e+00 0.000000e+00
<ENDHMM>
~h "s"
<BEGINHMM>
<NUMSTATES> 5
<STATE> 2
<MEAN> 25
 -1.052796e+01 2.594398e+00 -3.501304e+00 5.767215e+00 -2.097559e+00 3.012314e+00 5.660422e+00 3.366019e+00 3.374691e+00 3.857737e+00 3.991721e+00 -1.246788e-01 -4.251351e-03 -2.741377e-01 1.449220e-01 -1.675259e-01 -1.323314e-01 -2.753062e-02 -9.206498e-02 9.482206e-02 1.386005e-01 1.943357e-02 1.048588e-01 -2.841843e-02 1.925593e-01
<VARIANCE> 25
 2.310913e+01 3.771540e+01 2.318763e+01 1.773418e+01 2.185082e+01 3.018654e+01 2.624818e+01 2.231350e+01 1.849749e+01 2.147803e+01 1.493299e+01 1.507147e+01 2.022562e+00 2.128506e+00 1.324741e+00 1.864411e+00 1.519612e+00 1.956721e+00 1.876477e+00 1.683036e+00 1.839050e+00 1.895712e+00 1.681218e+00 1.187101e+00 1.202300e+00
<GCONST> 8.972959e+01
<STATE> 3
<MEAN> 25
 -5.432183e+00 -2.354467e+00 -1.062431e+00 2.390780e+00 -1.894258e+00 1.890435e+00 3.649441e+00 2.516815e+00 3.611444e+00 2.402967e+00 2.113972e+00 3.279231e-01 2.705498e+00 -6.305218e-01 7.720153e-01 -1.702904e+00 -1.232827e+00 -1.312519e+00 -2.521276e+00 -1.895642e+00 -6.461775e-01 -1.520040e+00 -1.492671e+00 8.597437e-02 1.084538e+00
<VARIANCE> 25
 2.602103e+01 7.851408e+01 3.319028e+01 2.070201e+01 3.488673e+01 4.165873e+01 3.504398e+01 2.944539e+01 2.147309e+01 2.662048e+01 2.127549e+01 1.613369e+01 5.813522e+00 8.100122e+00 4.409711e+00 4.019422e+00 4.582562e+00 4.760744e+00 5.822453e+00 5.091364e+00 2.382311e+00 2.721307e+00 3.111204e+00 1.757158e+00 4.248954e+00
<GCONST> 1.047228e+02
<STATE> 4
<MEAN> 25
 4.720156e+00 -1.002722e+01 3.558022e+00 -5.717508e+00 -5.799535e+00 1.440034e+00 -4.293596e+00 -3.172624e+00 -1.234058e-01 -2.812911e+00 -7.407784e-01 -2.348833e-01 9.684651e-01 3.943107e-01 8.530249e-02 -9.207615e-01 -2.105671e-01 -6.373840e-01 -9.646916e-01 -7.475392e-01 -3.541580e-01 -4.607970e-01 -6.648348e-01 -8.624884e-02 4.424055e-01
<VARIANCE> 25
 5.266442e+01 1.325412e+02 6.967691e+01 6.589347e+01 7.239520e+01 6.167822e+01 5.393890e+01 5.964127e+01 2.545804e+01 4.730936e+01 3.332414e+01 2.125298e+01 6.099682e+00 8.096572e+00 4.018025e+00 7.267841e+00 6.143395e+00 5.789050e+00 6.923218e+00 6.004251e+00 2.575662e+00 4.999558e+00 4.193067e+00 2.577600e+00 8.971992e+00
<GCONST> 1.150689e+02
<TRANSP> 5
 0.000000e+00 1.000000e+00 0.000000e+00 0.000000e+00 0.000000e+00
 0.000000e+00 7.750723e-01 2.249277e-01 0.000000e+00 0.000000e+00
 0.000000e+00 0.000000e+00 3.706573e-01 6.293426e-01 0.000000e+00
 0.000000e+00 0.000000e+00 0.000000e+00 6.700693e-01 3.299306e-01
 0.000000e+00 0.000000e+00 0.000000e+00 0.000000e+00 0.000000e+00
<ENDHMM>
~h "t"
<BEGINHMM>
<NUMSTATES> 5
<STATE> 2
<MEAN> 25
 -1.751638e+00 1.895049e+00 -6.570983e-01 4.441164e+00 3.312020e+00 2.174626e+00 3.307441e+00 1.204341e+00 6.503599e-01 2.374759e+00 1.224064e+00 -9.121598e-02 -2.379686e-01 2.077064e-02 5.237380e-02 -1.894376e-02 -5.338913e-02 -2.789433e-02 1.597021e-01 8.517576e-02 1.972399e-01 3.161344e-01 2.222735e-01 3.848027e-02 7.320214e-03
<VARIANCE> 25
 5.337890e+00 1.400908e+01 1.215540e+01 9.586992e+00 1.751468e+01 1.713567e+01 1.497825e+01 1.637061e+01 1.633189e+01 1.349246e+01 1.433075e+01 1.127348e+01 5.342151e-01 1.269346e+00 8.501833e-01 9.770426e-01 1.497403e+00 1.953349e+00 1.770243e+00 1.811255e+00 2.153515e+00 1.821821e+00 1.633982e+00 1.233016e+00 2.219053e+00
<GCONST> 8.123499e+01
<STATE> 3
<MEAN> 25
 -3.089423e+00 1.663882e+00 -9.401177e-01 3.661913e+00 2.602381e+00 1.626361e+00 3.991149e+00 2.848696e+00 2.474948e+00 2.259053e+00 1.451051e+00 2.480146e-02 -2.848911e-02 -1.279855e+00 -1.744320e-01 -1.149466e+00 -8.187375e-01 -1.255225e+00 -6.115537e-01 2.499756e-01 9.978485e-01 -6.336768e-01 -1.239978e-01 6.213650e-01 2.916048e+00
<VARIANCE> 25
 1.073558e+01 2.009835e+01 1.573337e+01 1.367077e+01 2.423664e+01 1.748972e+01 1.813928e+01 1.864152e+01 1.813627e+01 1.736794e+01 1.496811e+01 1.327120e+01 1.782497e+00 3.278149e+00 2.523493e+00 2.974850e+00 4.924631e+00 5.006967e+00 2.881813e+00 3.761574e+00 2.144932e+00 2.654687e+00 1.890047e+00 1.796116e+00 5.406433e+00
<GCONST> 9.362791e+01
<STATE> 4
<MEAN> 25
 -4.595617e-01 -4.349958e+00 -6.344585e-01 -1.735451e+00 5.242834e-01 -2.012174e+00 -2.125227e+00 4.507491e-01 2.747739e+00 -1.999404e+00 -4.336923e-02 1.019764e+00 2.031330e+00 -1.244527e+00 -2.064617e-01 -2.174364e+00 -1.072918e+00 -8.468089e-01 -2.366658e+00 -1.604029e+00 -6.356466e-01 -1.495548e+00 -9.830741e-01 1.354726e-01 3.228083e+00
<VARIANCE> 25
 5.280387e+01 1.017724e+02 2.830217e+01 5.468896e+01 6.023897e+01 5.254158e+01 8.114365e+01 4.670140e+01 3.232627e+01 5.007257e+01 2.927893e+01 2.125432e+01 4.012138e+00 1.033827e+01 4.201478e+00 5.315363e+00 6.099877e+00 6.519730e+00 6.354852e+00 6.384853e+00 2.894370e+00 4.663158e+00 2.665339e+00 2.317958e+00 9.885816e+00
<GCONST> 1.129356e+02
<TRANSP> 5
 0.000000e+00 1.000000e+00 0.000000e+00 0.000000e+00 0.000000e+00
 0.000000e+00 6.451669e-01 3.548331e-01 0.000000e+00 0.000000e+00
 0.000000e+00 0.000000e+00 3.733987e-01 6.266013e-01 0.000000e+00
 0.000000e+00 0.000000e+00 0.000000e+00 5.946755e-01 4.053245e-01
 0.000000e+00 0.000000e+00 0.000000e+00 0.000000e+00 0.000000e+00
<ENDHMM>
~h "u"
<BEGINHMM>
<NUMSTATES> 5
<STATE> 2
<MEAN> 25
 8.861696e+00 6.704391e+00 -4.173002e+00 -7.482222e+00 -7.591609e+00 -8.600261e+00 -1.019382e+01 -6.392097e+00 -4.806771e+00 -2.401082e+00 -1.708844e+00 1.398316e+00 1.738436e-01 3.985951e-01 3.100333e-01 2.798009e-02 -3.617547e-01 -3.503850e-01 -3.109502e-01 -5.886078e-02 -3.118435e-01 -2.842000e-01 -1.781828e-01 -2.344643e-01 -1.791740e-01
<VARIANCE> 25
 1.887863e+01 2.333635e+01 2.646451e+01 5.068883e+01 2.884134e+01 3.561141e+01 4.701970e+01 3.129062e+01 3.547483e+01 3.384914e+01 2.434973e+01 3.327620e+01 3.862300e+00 2.426938e+00 2.717751e+00 5.196291e+00 2.779052e+00 3.766643e+00 7.671412e+00 4.227531e+00 4.056417e+00 3.054895e+00 2.630547e+00 3.283917e+00 2.187020e+00
<GCONST> 1.034218e+02
<STATE> 3
<MEAN> 25
 6.790002e-01 3.446894e+00 -1.017995e+00 -2.026355e+00 -4.599731e+00 -5.690269e+00 -1.752963e+00 -1.420966e+00 -3.162220e+00 6.665281e-01 5.942070e-01 -3.580609e-01 -2.353550e+00 -8.421097e-01 6.116347e-02 1.024175e+00 1.502648e+00 1.434072e+00 2.463081e+00 1.507576e+00 1.303060e+00 1.851749e+00 1.359277e+00 3.789689e-01 -7.836046e-01
<VARIANCE> 25
 4.988354e+01 2.313426e+01 1.901605e+01 2.298133e+01 2.887548e+01 3.902221e+01 4.543948e+01 4.623159e+01 3.760842e+01 3.909087e+01 2.807147e+01 2.042160e+01 2.336605e+00 2.411725e+00 1.678861e+00 2.827569e+00 2.243464e+00 2.254310e+00 3.922059e+00 3.367118e+00 3.106787e+00 3.394946e+00 2.361349e+00 2.017931e+00 1.726660e+00
<GCONST> 9.935101e+01
<STATE> 4
<MEAN> 25
 -3.702089e+00 2.146049e+00 -5.751401e-01 2.214664e+00 1.726274e+00 5.599358e-01 4.064804e+00 2.030329e+00 6.085359e-01 3.742463e+00 2.328609e+00 3.074983e-02 -5.812581e-02 -1.759537e-02 5.338189e-02 2.075731e-01 2.420547e-01 2.272049e-01 1.613462e-01 6.821264e-02 1.373417e-01 1.171318e-02 -3.849816e-02 -1.966310e-02 -1.954864e-01
<VARIANCE> 25
 2.947907e+01 1.514281e+01 1.371066e+01 1.752614e+01 1.576946e+01 2.953855e+01 2.831832e+01 1.778549e+01 1.840834e+01 2.281052e+01 1.704293e+01 1.232589e+01 4.251390e-01 5.863621e-01 5.108280e-01 7.913076e-01 9.644197e-01 1.250482e+00 1.507082e+00 1.217351e+00 1.628639e+00 1.483799e+00 1.407180e+00 1.061440e+00 2.617335e-01
<GCONST> 7.972546e+01
<TRANSP> 5
 0.000000e+00 1.000000e+00 0.000000e+00 0.000000e+00 0.000000e+00
 0.000000e+00 8.279423e-01 1.720577e-01 0.000000e+00 0.000000e+00
 0.000000e+00 0.000000e+00 6.232058e-01 3.767942e-01 0.000000e+00
 0.000000e+00 0.000000e+00 0.000000e+00 9.072205e-01 9.277949e-02
 0.000000e+00 0.000000e+00 0.000000e+00 0.000000e+00 0.000000e+00
<ENDHMM>
~h "w"
<BEGINHMM>
<NUMSTATES> 5
<STATE> 2
<MEAN> 25
 -1.572939e+00 -8.177915e-01 -1.307213e+00 3.714746e+00 4.305794e+00 4.109909e+00 4.117735e+00 2.761884e+00 2.101087e+00 2.555382e+00 3.566052e+00 2.990059e-01 3.578326e-02 4.428731e-02 -2.584303e-02 -4.622984e-02 -3.623612e-02 2.053262e-02 5.309292e-02 -1.099735e-01 -8.949902e-02 8.746146e-02 -5.345768e-02 -7.991300e-02 -2.685745e-02
<VARIANCE> 25
 2.255687e+00 4.433795e+00 4.503950e+00 6.226411e+00 7.560494e+00 1.227108e+01 1.945996e+01 1.624593e+01 1.339497e+01 1.850101e+01 1.754058e+01 1.144812e+01 1.457490e-01 2.938377e-01 3.800884e-01 5.503489e-01 6.947404e-01 9.603000e-01 1.575850e+00 1.374860e+00 1.381063e+00 1.616632e+00 1.346933e+00 1.056404e+00 7.792488e-02
<GCONST> 6.694196e+01
<STATE> 3
<MEAN> 25
 -3.094208e-01 -5.934620e-01 4.126928e-01 1.400545e+00 8.206429e-01 -9.515812e-01 -1.458903e+00 -3.970398e+00 -2.522738e+00 2.597557e-01 -1.753720e+00 -1.227687e+00 2.131015e+00 1.351925e+00 -1.376088e-01 -1.500501e+00 -1.417158e+00 -2.496119e+00 -2.579814e+00 -1.725357e+00 -1.533705e+00 -1.858810e+00 -1.077817e+00 -1.460782e+00 9.283179e-01
<VARIANCE> 25
 1.327987e+01 2.726332e+01 6.744666e+00 7.813127e+00 1.328587e+01 2.315404e+01 4.419561e+01 4.356251e+01 2.603503e+01 2.347173e+01 2.381554e+01 1.804289e+01 1.184624e+00 8.956771e-01 1.535875e+00 2.605544e+00 1.666116e+00 2.314797e+00 2.575999e+00 3.628035e+00 3.173458e+00 2.683013e+00 1.388759e+00 1.815833e+00 8.316811e-01
<GCONST> 8.948646e+01
<STATE> 4
<MEAN> 25
 1.003458e+01 -7.121552e-01 -6.540010e+00 -1.127324e+01 2.448584e+00 -4.597717e+00 -6.015834e+00 -7.574155e+00 -3.602624e+00 -8.031370e-01 -5.280124e+00 -5.086581e+00 5.410198e-03 -4.251187e-01 -1.064143e-01 -1.854692e-01 5.711265e-01 -9.273916e-02 -6.488249e-02 -8.855952e-02 4.506632e-02 -8.314102e-02 -1.246127e-01 -5.418094e-02 4.565835e-01
<VARIANCE> 25
 2.493165e+01 5.399839e+01 1.497749e+01 4.754205e+01 7.728227e+01 3.506784e+01 2.295354e+01 3.724465e+01 2.522968e+01 2.229053e+01 1.751468e+01 1.325763e+01 2.378662e+00 2.971729e+00 1.174130e+00 4.677821e+00 5.324443e+00 3.425955e+00 1.963078e+00 3.061458e+00 2.534251e+00 1.379313e+00 1.503458e+00 1.430593e+00 1.871420e+00
<GCONST> 9.715587e+01
<TRANSP> 5
 0.000000e+00 1.000000e+00 0.000000e+00 0.000000e+00 0.000000e+00
 0.000000e+00 9.604465e-01 3.955356e-02 0.000000e+00 0.000000e+00
 0.000000e+00 0.000000e+00 5.564811e-01 4.435189e-01 0.000000e+00
 0.000000e+00 0.000000e+00 0.000000e+00 9.548639e-01 4.513612e-02
 0.000000e+00 0.000000e+00 0.000000e+00 0.000000e+00 0.000000e+00
<ENDHMM>
~h "x"
<BEGINHMM>
<NUMSTATES> 5
<STATE> 2
<MEAN> 25
 -1.956677e+00 -1.025858e+01 1.430931e-01 3.697897e+00 -5.202534e+00 2.408572e+00 7.484224e-01 4.210447e+00 1.920632e+00 -3.636141e+00 3.134390e+00 2.819591e+00 -7.568434e-01 2.265308e-01 -7.494820e-01 7.153046e-01 -2.999216e-01 -1.963017e-01 3.031209e-01 5.054613e-01 -1.402496e-01 -2.041216e-01 5.437582e-01 4.364234e-01 6.688409e-01
<VARIANCE> 25
 1.052232e+01 1.019111e+02 4.607945e+01 3.337720e+01 3.676696e+01 6.129969e+01 2.239613e+01 3.584214e+01 1.846122e+01 2.848306e+01 1.763061e+01 1.848118e+01 1.903606e+00 8.953143e+00 3.418663e+00 3.240042e+00 5.822159e+00 5.339668e+00 2.391971e+00 4.762391e+00 2.299187e+00 4.165606e+00 2.097154e+00 2.064363e+00 5.852209e+00
<GCONST> 1.033245e+02
<STATE> 3
<MEAN> 25
 -1.115347e+01 2.132632e+00 -5.798190e+00 6.793760e+00 -8.635556e+00 4.716082e+00 5.775075e+00 9.385086e+00 9.317474e-01 1.195140e+00 6.344735e+00 1.471783e+00 2.094254e-01 3.726820e-01 1.314595e-01 -2.845656e-01 3.080188e-01 3.565243e-01 1.353893e-02 -1.085837e-01 1.331016e-02 2.620195e-01 -1.967836e-01 -1.792823e-01 -4.431265e-01
<VARIANCE> 25
 1.100833e+01 7.159152e+00 9.262544e+00 9.780623e+00 1.967623e+01 1.955449e+01 1.870901e+01 2.072170e+01 1.627479e+01 1.787268e+01 1.697254e+01 1.162224e+01 1.454877e+00 1.001745e+00 7.089989e-01 6.030869e-01 1.346422e+00 2.281202e+00 1.985373e+00 1.365666e+00 1.609783e+00 1.792741e+00 1.836689e+00 1.449377e+00 1.895610e-01
<GCONST> 7.971313e+01
<STATE> 4
<MEAN> 25
 -5.588796e+00 1.193514e+01 -3.087760e+00 5.799738e+00 5.588947e+00 -3.750797e-01 5.897183e+00 3.079498e+00 -8.876063e-01 3.888439e+00 4.876192e-01 -1.204757e+00 5.445932e-02 1.367628e-01 1.628989e-01 -6.883130e-02 3.162403e-01 -1.316950e-01 -2.098111e-03 -1.149534e-02 -1.408868e-01 7.579759e-02 -7.176373e-02 -8.171471e-02 -3.677267e-01
<VARIANCE> 25
 7.960099e+00 3.416269e+01 7.559669e+00 8.772969e+00 1.992220e+01 1.718068e+01 1.639285e+01 1.888616e+01 1.360016e+01 1.818169e+01 1.625342e+01 1.175918e+01 8.852358e-01 7.475898e-01 5.221745e-01 6.410615e-01 1.671650e+00 1.259840e+00 1.511757e+00 1.283432e+00 1.519347e+00 1.362049e+00 1.554750e+00 1.014865e+00 7.933964e-01
<GCONST> 7.893367e+01
<TRANSP> 5
 0.000000e+00 1.000000e+00 0.000000e+00 0.000000e+00 0.000000e+00
 0.000000e+00 8.610117e-01 1.389883e-01 0.000000e+00 0.000000e+00
 0.000000e+00 0.000000e+00 8.918710e-01 1.081290e-01 0.000000e+00
 0.000000e+00 0.000000e+00 0.000000e+00 9.225292e-01 7.747080e-02
 0.000000e+00 0.000000e+00 0.000000e+00 0.000000e+00 0.000000e+00
<ENDHMM>
~h "y"
<BEGINHMM>
<NUMSTATES> 5
<STATE> 2
<MEAN> 25
 1.605290e+00 5.672534e+00 9.351110e+00 -8.543550e+00 -1.514544e+01 -3.491010e+00 -7.507770e+00 -6.332475e+00 -4.830793e+00 1.802997e+00 -9.125873e+00 2.824430e-01 -2.013541e-01 5.737097e-01 6.927187e-01 -1.620776e-01 -6.796191e-01 4.560552e-01 -2.995659e-01 -3.649866e-01 9.276213e-03 2.927691e-01 7.013913e-02 -8.639795e-02 -2.983277e-01
<VARIANCE> 25
 4.740135e+00 6.073574e+01 1.825879e+01 2.864794e+01 5.893816e+01 3.385262e+01 7.065652e+01 2.498838e+01 3.598431e+01 2.669358e+01 1.548795e+01 2.210238e+01 5.483362e-01 2.384905e+00 1.742416e+00 1.188390e+00 3.747783e+00 1.858508e+00 4.074870e+00 2.061313e+00 2.710016e+00 2.598890e+00 1.517271e+00 2.058852e+00 5.552958e-01
<GCONST> 9.321539e+01
<STATE> 3
<MEAN> 25
 -5.540695e-01 6.749970e-02 6.058171e+00 -3.510647e+00 -6.382983e+00 9.943611e-01 -2.263473e+00 -3.242851e+00 -1.725237e+00 6.267815e-01 -1.020968e+00 1.621068e+00 -1.827422e-01 -8.058867e-01 -1.041635e+00 8.905762e-01 1.856797e+00 4.212815e-01 1.025629e+00 9.036081e-01 3.195032e-01 -2.328783e-01 1.133870e+00 2.483091e-01 -7.522075e-01
<VARIANCE> 25
 2.972669e+01 3.529055e+01 3.908883e+01 3.973835e+01 4.480602e+01 5.924156e+01 5.148757e+01 3.011098e+01 3.845478e+01 5.460299e+01 4.383865e+01 2.187417e+01 1.593626e+00 2.359130e+00 2.310354e+00 3.038408e+00 2.273515e+00 4.283306e+00 4.452878e+00 2.562042e+00 4.041216e+00 3.970662e+00 2.833626e+00 2.221413e+00 9.528577e-01
<GCONST> 1.025467e+02
<STATE> 4
<MEAN> 25
 -2.027309e+00 -4.497734e-01 -6.861016e-01 2.979304e+00 3.661021e+00 3.764018e+00 4.830545e+00 2.346813e+00 1.734220e+00 2.322573e+00 3.130301e+00 5.549766e-01 1.535611e-02 1.357074e-02 -9.236214e-02 5.232288e-02 5.303182e-02 -4.239028e-02 1.366747e-02 -3.275798e-02 5.942237e-02 3.632895e-02 -7.606235e-02 -3.307138e-02 -4.651583e-02
<VARIANCE> 25
 2.904932e+00 6.849864e+00 5.735437e+00 7.268650e+00 7.538727e+00 1.190720e+01 1.463841e+01 1.352861e+01 1.483520e+01 1.738751e+01 1.458363e+01 1.212378e+01 1.840866e-01 3.432017e-01 5.863782e-01 6.064419e-01 7.561139e-01 1.038017e+00 1.399231e+00 1.216686e+00 1.371071e+00 1.368780e+00 1.371656e+00 1.283427e+00 1.035159e-01
<GCONST> 6.860239e+01
<TRANSP> 5
 0.000000e+00 1.000000e+00 0.000000e+00 0.000000e+00 0.000000e+00
 0.000000e+00 9.061122e-01 9.388775e-02 0.000000e+00 0.000000e+00
 0.000000e+00 0.000000e+00 8.646839e-01 1.353161e-01 0.000000e+00
 0.000000e+00 0.000000e+00 0.000000e+00 9.623173e-01 3.768264e-02
 0.000000e+00 0.000000e+00 0.000000e+00 0.000000e+00 0.000000e+00
<ENDHMM>
~h "z"
<BEGINHMM>
<NUMSTATES> 5
<STATE> 2
<MEAN> 25
 -1.766472e+01 2.206791e+01 3.211324e+00 2.851621e+00 8.198353e+00 5.212972e+00 1.451434e+01 9.544827e+00 9.260283e-01 8.944443e+00 5.793282e+00 1.002034e+00 -3.598365e-01 3.442485e-01 4.401901e-01 -2.401522e-03 4.401566e-02 3.805897e-01 2.306631e-01 2.499248e-02 1.162600e-01 2.183936e-01 2.428930e-01 9.780504e-02 -3.158789e-01
<VARIANCE> 25
 5.190195e+01 4.998335e+01 3.303237e+01 3.978070e+00 2.531094e+01 1.537306e+01 3.621546e+01 2.952391e+01 1.356148e+01 1.912580e+01 3.840700e+01 1.335393e+01 2.478632e+00 1.409436e+00 1.756812e+00 6.848925e-01 5.829709e-01 9.439702e-01 1.769060e+00 1.449445e+00 1.526852e+00 1.265478e+00 1.710591e+00 1.359007e+00 1.431787e+00
<GCONST> 8.706454e+01
<STATE> 3
<MEAN> 25
 -5.055713e+00 6.245936e-01 2.711645e+00 3.766420e+00 1.918097e+00 6.721087e+00 3.185966e+00 -2.153729e+00 1.874435e+00 1.688110e+00 -9.156596e-01 -4.308562e-01 2.620223e+00 -5.879478e+00 4.574115e-01 -1.621915e+00 -9.609957e-01 5.102253e-03 -3.391317e+00 -9.053335e-01 -3.242694e-03 -2.246837e+00 -1.319115e-02 5.817451e-01 5.260998e+00
<VARIANCE> 25
 6.212271e+01 2.663692e+02 9.789923e+00 2.973873e+01 6.205916e+01 5.013778e+01 6.363991e+01 5.797651e+01 1.640822e+01 6.406954e+01 4.837496e+01 4.070424e+01 5.839478e+00 1.732526e+01 3.755828e+00 6.878697e+00 1.822986e+01 5.129340e+00 2.815600e+00 6.759781e+00 2.519848e+00 3.043265e+00 4.721334e+00 4.692771e+00 8.338511e+00
<GCONST> 1.147428e+02
<STATE> 4
<MEAN> 25
 1.436320e+00 -1.194932e+01 7.049593e+00 -1.242061e-01 -6.691595e+00 6.238519e+00 -7.121849e+00 -3.244347e+00 6.719630e+00 -2.547757e+00 -8.417692e-02 -3.869072e-01 1.510066e+00 7.866344e-01 -1.427321e-01 -2.372740e+00 -1.434126e+00 -2.510383e+00 -1.139297e+00 -1.055742e+00 -6.880740e-02 1.208040e+00 -3.786866e-01 -5.567072e-01 1.632557e+00
<VARIANCE> 25
 5.552147e+01 7.014481e+01 1.596762e+01 4.531997e+01 1.723079e+02 3.451168e+01 2.552635e+01 2.115893e+01 2.782101e+01 2.083075e+01 3.687319e+01 3.776517e+01 1.790213e+00 9.368157e+00 5.908423e+00 2.756435e+00 4.712152e+00 2.504367e+00 3.120977e+00 1.091134e+00 2.937090e+00 1.461231e+00 2.588776e+00 6.279770e-01 7.231372e+00
<GCONST> 1.026066e+02
<TRANSP> 5
 0.000000e+00 1.000000e+00 0.000000e+00 0.000000e+00 0.000000e+00
 0.000000e+00 8.875088e-01 1.124912e-01 0.000000e+00 0.000000e+00
 0.000000e+00 0.000000e+00 7.114082e-01 2.885917e-01 0.000000e+00
 0.000000e+00 0.000000e+00 0.000000e+00 3.741028e-01 6.258972e-01
 0.000000e+00 0.000000e+00 0.000000e+00 0.000000e+00 0.000000e+00
<ENDHMM>
~h "ah"
<BEGINHMM>
<NUMSTATES> 5
<STATE> 2
<MEAN> 25
 -1.684587e-08 -6.193333e-08 -4.487690e-08 3.351832e-08 -6.047171e-08 2.058664e-08 -6.607048e-08 -2.205446e-08 -8.534414e-09 2.910867e-08 3.022347e-08 -1.071447e-09 -2.678578e-03 2.715191e-03 1.970940e-04 1.666228e-04 1.831201e-03 -7.320007e-04 3.372927e-03 1.125320e-03 -7.564414e-05 2.413395e-03 8.106225e-04 -2.148533e-03 -1.727290e-03
<VARIANCE> 25
 4.499385e+01 7.342516e+01 3.566479e+01 5.718780e+01 5.546888e+01 4.305736e+01 6.020990e+01 4.209700e+01 2.990068e+01 4.475465e+01 3.376802e+01 1.839641e+01 1.592596e+00 2.317776e+00 1.700131e+00 2.390033e+00 2.486403e+00 2.357601e+00 2.972100e+00 2.655601e+00 2.270027e+00 2.542916e+00 2.264997e+00 1.647762e+00 2.549860e+00
<GCONST> 1.014657e+02
<STATE> 3
<MEAN> 25
 -1.684587e-08 -6.193333e-08 -4.487690e-08 3.351832e-08 -6.047171e-08 2.058664e-08 -6.607048e-08 -2.205446e-08 -8.534414e-09 2.910867e-08 3.022347e-08 -1.071447e-09 -2.678578e-03 2.715191e-03 1.970940e-04 1.666228e-04 1.831201e-03 -7.320007e-04 3.372927e-03 1.125320e-03 -7.564414e-05 2.413395e-03 8.106225e-04 -2.148533e-03 -1.727290e-03
<VARIANCE> 25
 4.499385e+01 7.342516e+01 3.566479e+01 5.718780e+01 5.546888e+01 4.305736e+01 6.020990e+01 4.209700e+01 2.990068e+01 4.475465e+01 3.376802e+01 1.839641e+01 1.592596e+00 2.317776e+00 1.700131e+00 2.390033e+00 2.486403e+00 2.357601e+00 2.972100e+00 2.655601e+00 2.270027e+00 2.542916e+00 2.264997e+00 1.647762e+00 2.549860e+00
<GCONST> 1.014657e+02
<STATE> 4
<MEAN> 25
 -1.684587e-08 -6.193333e-08 -4.487690e-08 3.351832e-08 -6.047171e-08 2.058664e-08 -6.607048e-08 -2.205446e-08 -8.534414e-09 2.910867e-08 3.022347e-08 -1.071447e-09 -2.678578e-03 2.715191e-03 1.970940e-04 1.666228e-04 1.831201e-03 -7.320007e-04 3.372927e-03 1.125320e-03 -7.564414e-05 2.413395e-03 8.106225e-04 -2.148533e-03 -1.727290e-03
<VARIANCE> 25
 4.499385e+01 7.342516e+01 3.566479e+01 5.718780e+01 5.546888e+01 4.305736e+01 6.020990e+01 4.209700e+01 2.990068e+01 4.475465e+01 3.376802e+01 1.839641e+01 1.592596e+00 2.317776e+00 1.700131e+00 2.390033e+00 2.486403e+00 2.357601e+00 2.972100e+00 2.655601e+00 2.270027e+00 2.542916e+00 2.264997e+00 1.647762e+00 2.549860e+00
<GCONST> 1.014657e+02
<TRANSP> 5
 0.000000e+00 1.000000e+00 0.000000e+00 0.000000e+00 0.000000e+00
 0.000000e+00 6.000000e-01 4.000000e-01 0.000000e+00 0.000000e+00
 0.000000e+00 0.000000e+00 6.000000e-01 4.000000e-01 0.000000e+00
 0.000000e+00 0.000000e+00 0.000000e+00 7.000000e-01 3.000000e-01
 0.000000e+00 0.000000e+00 0.000000e+00 0.000000e+00 0.000000e+00
<ENDHMM>
~h "aw"
<BEGINHMM>
<NUMSTATES> 5
<STATE> 2
<MEAN> 25
 -1.684587e-08 -6.193333e-08 -4.487690e-08 3.351832e-08 -6.047171e-08 2.058664e-08 -6.607048e-08 -2.205446e-08 -8.534414e-09 2.910867e-08 3.022347e-08 -1.071447e-09 -2.678578e-03 2.715191e-03 1.970940e-04 1.666228e-04 1.831201e-03 -7.320007e-04 3.372927e-03 1.125320e-03 -7.564414e-05 2.413395e-03 8.106225e-04 -2.148533e-03 -1.727290e-03
<VARIANCE> 25
 4.499385e+01 7.342516e+01 3.566479e+01 5.718780e+01 5.546888e+01 4.305736e+01 6.020990e+01 4.209700e+01 2.990068e+01 4.475465e+01 3.376802e+01 1.839641e+01 1.592596e+00 2.317776e+00 1.700131e+00 2.390033e+00 2.486403e+00 2.357601e+00 2.972100e+00 2.655601e+00 2.270027e+00 2.542916e+00 2.264997e+00 1.647762e+00 2.549860e+00
<GCONST> 1.014657e+02
<STATE> 3
<MEAN> 25
 -1.684587e-08 -6.193333e-08 -4.487690e-08 3.351832e-08 -6.047171e-08 2.058664e-08 -6.607048e-08 -2.205446e-08 -8.534414e-09 2.910867e-08 3.022347e-08 -1.071447e-09 -2.678578e-03 2.715191e-03 1.970940e-04 1.666228e-04 1.831201e-03 -7.320007e-04 3.372927e-03 1.125320e-03 -7.564414e-05 2.413395e-03 8.106225e-04 -2.148533e-03 -1.727290e-03
<VARIANCE> 25
 4.499385e+01 7.342516e+01 3.566479e+01 5.718780e+01 5.546888e+01 4.305736e+01 6.020990e+01 4.209700e+01 2.990068e+01 4.475465e+01 3.376802e+01 1.839641e+01 1.592596e+00 2.317776e+00 1.700131e+00 2.390033e+00 2.486403e+00 2.357601e+00 2.972100e+00 2.655601e+00 2.270027e+00 2.542916e+00 2.264997e+00 1.647762e+00 2.549860e+00
<GCONST> 1.014657e+02
<STATE> 4
<MEAN> 25
 -1.684587e-08 -6.193333e-08 -4.487690e-08 3.351832e-08 -6.047171e-08 2.058664e-08 -6.607048e-08 -2.205446e-08 -8.534414e-09 2.910867e-08 3.022347e-08 -1.071447e-09 -2.678578e-03 2.715191e-03 1.970940e-04 1.666228e-04 1.831201e-03 -7.320007e-04 3.372927e-03 1.125320e-03 -7.564414e-05 2.413395e-03 8.106225e-04 -2.148533e-03 -1.727290e-03
<VARIANCE> 25
 4.499385e+01 7.342516e+01 3.566479e+01 5.718780e+01 5.546888e+01 4.305736e+01 6.020990e+01 4.209700e+01 2.990068e+01 4.475465e+01 3.376802e+01 1.839641e+01 1.592596e+00 2.317776e+00 1.700131e+00 2.390033e+00 2.486403e+00 2.357601e+00 2.972100e+00 2.655601e+00 2.270027e+00 2.542916e+00 2.264997e+00 1.647762e+00 2.549860e+00
<GCONST> 1.014657e+02
<TRANSP> 5
 0.000000e+00 1.000000e+00 0.000000e+00 0.000000e+00 0.000000e+00
 0.000000e+00 6.000000e-01 4.000000e-01 0.000000e+00 0.000000e+00
 0.000000e+00 0.000000e+00 6.000000e-01 4.000000e-01 0.000000e+00
 0.000000e+00 0.000000e+00 0.000000e+00 7.000000e-01 3.000000e-01
 0.000000e+00 0.000000e+00 0.000000e+00 0.000000e+00 0.000000e+00
<ENDHMM>
~h "ay"
<BEGINHMM>
<NUMSTATES> 5
<STATE> 2
<MEAN> 25
 2.630465e+00 -2.301339e+00 4.077774e+00 -7.001447e+00 -1.343116e+01 -5.514373e-01 -3.714933e+00 -2.127587e-01 -9.924555e+00 -9.336431e+00 -7.174122e+00 1.888366e+00 -3.704765e-01 1.018334e+00 1.105561e+00 -1.066917e+00 -1.474946e+00 8.683024e-01 -4.329234e-02 -1.113803e+00 4.729094e-01 1.242910e+00 -7.038794e-01 -5.481125e-01 -4.888330e-01
<VARIANCE> 25
 6.458120e+00 1.605342e+01 1.821529e+01 2.450494e+01 3.371578e+01 2.523005e+01 1.014897e+01 3.510349e+01 2.003473e+01 4.562183e+01 2.813013e+01 2.483938e+01 2.040856e-01 5.431088e-01 4.442961e-01 1.481957e+00 2.381296e+00 1.275267e+00 2.064862e+00 1.254226e+00 1.595598e+00 1.700579e+00 1.630518e+00 1.263309e+00 1.844262e-01
<GCONST> 8.215329e+01
<STATE> 3
<MEAN> 25
 -2.228372e+00 3.593934e-01 8.491272e+00 -7.135209e+00 -9.713085e+00 7.152937e+00 -3.856955e+00 -3.969364e+00 -1.384848e+00 -2.946469e-01 -5.377745e+00 1.189485e+00 -3.322319e-01 -3.659305e-01 -3.073981e-01 9.940473e-01 1.584305e+00 3.796605e-01 8.018427e-01 7.857783e-01 5.808380e-01 3.526248e-01 1.258756e+00 1.826730e-01 -9.590201e-01
<VARIANCE> 25
 8.185701e+00 1.366053e+01 7.512949e+00 2.029936e+01 3.911480e+01 2.338795e+01 4.690998e+01 3.108335e+01 2.830223e+01 2.475093e+01 4.752431e+01 1.156598e+01 6.767312e-01 6.576722e-01 9.262503e-01 1.427669e+00 1.521541e+00 2.532710e+00 3.629382e+00 1.640100e+00 3.550896e+00 2.729562e+00 1.800401e+00 1.547718e+00 3.218496e-01
<GCONST> 8.742097e+01
<STATE> 4
<MEAN> 25
 -2.058941e+00 -2.884118e-01 -6.996658e-01 3.542164e+00 5.203530e+00 4.944482e+00 4.632258e+00 3.438495e+00 2.118193e+00 2.789720e+00 3.580339e+00 4.612652e-01 5.321423e-02 5.528220e-02 -1.504190e-01 7.688280e-02 7.842017e-02 -9.334468e-02 -7.717675e-03 -3.843346e-02 4.086071e-02 7.993610e-02 -9.371058e-03 -3.763771e-03 -5.771827e-02
<VARIANCE> 25
 2.641426e+00 3.455888e+00 5.901524e+00 5.921948e+00 8.358577e+00 8.723947e+00 8.785789e+00 1.404318e+01 1.424528e+01 1.024198e+01 1.309610e+01 9.700349e+00 2.167530e-01 2.824133e-01 8.140890e-01 7.700710e-01 8.594537e-01 8.173414e-01 8.307573e-01 1.009386e+00 1.123314e+00 1.137569e+00 1.090337e+00 8.207513e-01 9.313783e-02
<GCONST> 6.461510e+01
<TRANSP> 5
 0.000000e+00 1.000000e+00 0.000000e+00 0.000000e+00 0.000000e+00
 0.000000e+00 8.919908e-01 1.080092e-01 0.000000e+00 0.000000e+00
 0.000000e+00 0.000000e+00 9.192672e-01 8.073275e-02 0.000000e+00
 0.000000e+00 0.000000e+00 0.000000e+00 9.737989e-01 2.620109e-02
 0.000000e+00 0.000000e+00 0.000000e+00 0.000000e+00 0.000000e+00
<ENDHMM>
~h "kh"
<BEGINHMM>
<NUMSTATES> 5
<STATE> 2
<MEAN> 25
 -7.093314e-01 1.276226e+00 -1.131957e+00 2.394164e+00 3.271315e+00 3.943712e+00 4.638206e+00 1.892100e+00 1.488305e+00 2.548435e+00 2.784269e+00 1.849802e-01 2.096222e-03 -1.218788e-03 -2.148496e-02 5.336047e-03 9.213896e-03 2.010191e-02 1.509875e-02 -4.901944e-02 2.140587e-02 4.787598e-02 -4.976567e-02 -2.343682e-02 -1.842101e-02
<VARIANCE> 25
 1.222295e+00 1.911757e+00 5.040033e+00 6.037286e+00 1.317294e+01 1.135315e+01 1.844572e+01 1.262763e+01 1.523396e+01 1.451555e+01 1.227798e+01 1.099346e+01 1.073427e-01 1.736058e-01 4.059442e-01 5.394117e-01 7.626425e-01 9.314892e-01 1.086920e+00 1.307914e+00 1.067035e+00 1.344596e+00 1.214710e+00 1.032632e+00 4.286677e-02
<GCONST> 6.291955e+01
<STATE> 3
<MEAN> 25
 -2.117162e+00 -1.150727e+00 -6.183499e+00 8.741813e-01 7.980285e+00 1.029465e+00 -1.421983e+00 5.104318e+00 4.660289e+00 6.186810e+00 -1.664687e+00 -1.297942e-01 -8.120502e-01 -1.186329e+00 -3.282173e-01 1.792514e-02 1.734773e+00 -1.648625e+00 -2.618767e+00 6.340133e-01 1.457474e+00 5.470613e-01 -1.505011e+00 1.901925e-01 3.531071e+00
<VARIANCE> 25
 5.362538e+00 2.151359e+01 3.338225e+01 1.622259e+01 3.359811e+01 3.089351e+01 7.402209e+01 2.124072e+01 3.688099e+01 2.241352e+01 3.938115e+01 1.609259e+01 5.450782e-01 2.616590e+00 3.903004e+00 2.401600e+00 2.696629e+00 2.829475e+00 4.513887e+00 3.585180e+00 4.098344e+00 2.529024e+00 1.740264e+00 1.988117e+00 3.471246e+00
<GCONST> 9.669693e+01
<STATE> 4
<MEAN> 25
 -6.495679e+00 -7.866181e+00 9.098811e-01 2.429316e+00 8.843677e+00 -2.576319e+00 -3.867506e+00 -8.936784e-01 5.134327e+00 2.431333e+00 -1.582082e+00 4.010816e+00 9.925942e-01 -3.073393e-01 2.589495e-01 -5.620623e-01 -1.378359e+00 -6.784803e-01 -1.717439e-02 -1.940945e+00 -1.740099e+00 -1.249448e+00 2.923566e-01 3.464750e-01 9.185433e-02
<VARIANCE> 25
 2.771118e+01 2.884712e+01 1.956859e+01 9.586023e+00 2.258217e+01 3.771290e+01 3.352260e+01 4.638548e+01 3.793307e+01 3.770195e+01 1.562853e+01 1.961826e+01 5.571164e+00 1.948080e+00 2.132779e+00 2.102802e+00 2.303460e+00 3.508958e+00 4.573410e+00 3.879157e+00 3.444882e+00 2.441039e+00 1.840590e+00 2.770916e+00 6.420459e-01
<GCONST> 9.711873e+01
<TRANSP> 5
 0.000000e+00 1.000000e+00 0.000000e+00 0.000000e+00 0.000000e+00
 0.000000e+00 9.783847e-01 2.161530e-02 0.000000e+00 0.000000e+00
 0.000000e+00 0.000000e+00 7.904193e-01 2.095806e-01 0.000000e+00
 0.000000e+00 0.000000e+00 0.000000e+00 8.312333e-01 1.687667e-01
 0.000000e+00 0.000000e+00 0.000000e+00 0.000000e+00 0.000000e+00
<ENDHMM>
~h "ng"
<BEGINHMM>
<NUMSTATES> 5
<STATE> 2
<MEAN> 25
 5.325937e+00 4.003879e+00 3.049980e+00 -1.467664e-01 -4.064707e+00 -7.837487e+00 -8.407007e+00 -5.875902e+00 -3.119571e+00 -5.225193e+00 -2.093679e+00 -3.685395e-01 -1.757081e-01 4.031753e-02 5.814351e-02 1.166215e-01 -5.069685e-02 1.373759e-01 1.114362e-01 1.093509e-01 -3.445001e-01 -2.350907e-02 -7.913821e-02 -1.851411e-01 -2.512607e-01
<VARIANCE> 25
 5.075881e+00 1.173523e+01 1.051533e+01 2.175583e+01 1.640900e+01 1.890890e+01 1.823466e+01 2.871331e+01 2.189399e+01 2.296318e+01 1.777853e+01 2.979377e+01 3.303984e-01 4.533297e-01 7.897753e-01 7.093050e-01 1.132304e+00 9.464964e-01 1.095047e+00 1.732429e+00 1.283932e+00 1.542860e+00 1.331491e+00 1.398377e+00 3.465635e-01
<GCONST> 7.843428e+01
<STATE> 3
<MEAN> 25
 2.809506e-01 1.910372e+00 7.559254e-01 1.180421e+00 6.058443e-01 1.805508e-02 -1.400304e-01 -3.024756e-01 -3.399012e+00 -2.573756e+00 5.515855e-01 -2.343119e-01 -7.902613e-01 -6.338434e-01 -4.038330e-01 2.478481e-01 1.117570e+00 1.240767e+00 1.469269e+00 1.327800e+00 1.308210e+00 1.092380e+00 8.077745e-01 3.445987e-01 -4.953229e-01
<VARIANCE> 25
 2.168752e+01 1.562910e+01 1.740744e+01 1.507688e+01 2.045248e+01 3.216710e+01 4.212555e+01 3.386037e+01 3.765636e+01 4.565620e+01 2.566576e+01 1.825813e+01 1.049145e+00 1.386614e+00 1.400106e+00 1.227175e+00 2.153905e+00 2.443189e+00 3.216138e+00 3.323649e+00 4.630453e+00 3.432004e+00 2.445618e+00 1.657441e+00 9.724724e-01
<GCONST> 9.377760e+01
<STATE> 4
<MEAN> 25
 -2.959646e+00 3.895027e-01 -1.054146e-01 2.462859e+00 3.657736e+00 5.032986e+00 4.752160e+00 2.384734e+00 2.468706e+00 4.338258e+00 2.484271e+00 -2.079729e-01 -2.020492e-02 -1.776305e-03 -1.461836e-02 2.904561e-02 8.789012e-04 2.582423e-02 1.301585e-02 7.792293e-03 4.798727e-02 3.524192e-02 -3.959550e-03 1.007383e-02 -1.611763e-02
<VARIANCE> 25
 2.464514e+00 4.848174e+00 5.282812e+00 7.077487e+00 1.247422e+01 1.201160e+01 1.364085e+01 1.065152e+01 1.214640e+01 1.410624e+01 1.292335e+01 1.053445e+01 1.288011e-01 2.203801e-01 4.012010e-01 6.247793e-01 9.600227e-01 8.585765e-01 1.161487e+00 1.090976e+00 1.163952e+00 1.081682e+00 1.201965e+00 8.713009e-01 1.072731e-01
<GCONST> 6.523666e+01
<TRANSP> 5
 0.000000e+00 1.000000e+00 0.000000e+00 0.000000e+00 0.000000e+00
 0.000000e+00 8.883923e-01 1.116077e-01 0.000000e+00 0.000000e+00
 0.000000e+00 0.000000e+00 7.795439e-01 2.204561e-01 0.000000e+00
 0.000000e+00 0.000000e+00 0.000000e+00 9.465838e-01 5.341612e-02
 0.000000e+00 0.000000e+00 0.000000e+00 0.000000e+00 0.000000e+00
<ENDHMM>
~h "ny"
<BEGINHMM>
<NUMSTATES> 5
<STATE> 2
<MEAN> 25
 7.317569e-01 3.655004e+00 4.823979e+00 -2.716546e-01 -7.041950e+00 -5.960099e+00 -5.758954e+00 -5.113980e-01 -9.425255e+00 -8.334393e+00 -1.427528e+00 -1.972967e+00 -1.884243e-01 -1.750111e-01 -8.023021e-02 2.856150e-01 3.977372e-01 2.180044e-01 2.376602e-01 1.634820e-01 3.062192e-01 8.003571e-02 1.724641e-01 1.556022e-01 -2.649888e-01
<VARIANCE> 25
 1.925129e+01 5.091879e+01 1.750998e+01 1.727383e+01 6.765826e+01 3.799420e+01 2.578874e+01 7.685879e+01 6.135630e+01 6.937670e+01 3.579694e+01 3.158506e+01 2.232171e+00 3.174124e+00 1.521560e+00 2.437912e+00 4.448872e+00 3.509506e+00 3.121585e+00 7.048600e+00 3.647341e+00 5.381207e+00 2.242923e+00 2.385777e+00 2.766077e+00
<GCONST> 1.041571e+02
<STATE> 3
<MEAN> 25
 -7.423149e+00 6.827569e+00 -3.573128e+00 3.899860e+00 4.160542e+00 1.002171e+00 6.834550e+00 -2.441352e-01 1.405244e+00 3.268582e+00 2.161851e+00 1.004412e+00 1.693841e-01 5.191778e-02 -1.087251e-02 6.670698e-02 2.094298e-01 3.279813e-01 3.876950e-01 2.058613e-01 1.834526e-01 5.580401e-01 -3.861431e-02 -1.607522e-01 -5.504373e-01
<VARIANCE> 25
 3.408593e+01 2.698224e+01 9.427765e+00 8.306942e+00 8.876764e+00 9.385244e+00 3.473822e+01 2.293863e+01 2.349670e+01 1.951004e+01 2.152778e+01 1.614811e+01 9.574012e-01 1.152714e+00 7.467309e-01 5.589520e-01 7.560965e-01 8.464594e-01 1.947746e+00 2.216197e+00 1.552802e+00 1.435616e+00 1.894119e+00 1.008933e+00 2.851256e-01
<GCONST> 8.064942e+01
<STATE> 4
<MEAN> 25
 -2.546586e+00 -8.570850e-01 -8.874433e-01 3.018006e+00 4.289627e+00 4.876237e+00 5.801110e+00 2.439707e+00 2.666163e+00 3.478435e+00 2.755807e+00 6.550402e-01 1.951007e-02 -3.854556e-03 -3.210657e-02 -1.973757e-02 -4.580962e-02 -2.199496e-02 6.256763e-02 -1.075289e-01 -6.632930e-02 4.070681e-02 -2.753183e-02 -1.453416e-02 -2.480488e-02
<VARIANCE> 25
 1.883451e+00 4.798911e+00 3.859905e+00 5.865832e+00 7.040783e+00 1.208269e+01 1.250934e+01 1.316784e+01 1.363796e+01 1.492792e+01 1.741901e+01 1.040879e+01 1.252659e-01 2.052177e-01 3.150327e-01 5.283555e-01 6.867792e-01 1.107938e+00 1.334496e+00 1.400910e+00 1.421399e+00 1.258240e+00 1.659052e+00 9.866477e-01 6.456161e-02
<GCONST> 6.456464e+01
<TRANSP> 5
 0.000000e+00 1.000000e+00 0.000000e+00 0.000000e+00 0.000000e+00
 0.000000e+00 9.194322e-01 8.056782e-02 0.000000e+00 0.000000e+00
 0.000000e+00 0.000000e+00 8.180017e-01 1.819983e-01 0.000000e+00
 0.000000e+00 0.000000e+00 0.000000e+00 9.645009e-01 3.549911e-02
 0.000000e+00 0.000000e+00 0.000000e+00 0.000000e+00 0.000000e+00
<ENDHMM>
~h "sp"
<BEGINHMM>
<NUMSTATES> 3
<STATE> 2
~s "silst"
<TRANSP> 3
 0.000000e+00 2.199495e-01 7.800505e-01
 0.000000e+00 9.006513e-01 9.934866e-02
 0.000000e+00 0.000000e+00 0.000000e+00
<ENDHMM>
~h "sy"
<BEGINHMM>
<NUMSTATES> 5
<STATE> 2
<MEAN> 25
 -7.521622e-01 4.241265e-01 5.720015e-01 1.650957e+00 -9.715201e-02 2.288406e+00 2.254142e+00 3.277865e+00 -2.238351e-01 1.003417e+00 3.744987e+00 6.866902e-01 1.566154e-02 2.598573e-02 1.014880e-02 4.238141e-02 6.000949e-02 2.744958e-02 1.006577e-01 -2.558443e-02 -5.557057e-02 1.418505e-01 -1.319502e-02 -5.936092e-02 -4.403874e-02
<VARIANCE> 25
 3.795656e+00 5.485315e+00 8.444621e+00 7.040577e+00 8.359324e+00 1.289623e+01 2.048704e+01 1.663408e+01 1.586084e+01 1.917631e+01 2.099069e+01 1.210975e+01 2.169991e-01 3.438798e-01 4.685906e-01 4.962348e-01 5.092728e-01 8.778189e-01 1.168262e+00 1.381780e+00 1.309910e+00 1.250693e+00 1.249512e+00 1.214180e+00 8.515611e-02
<GCONST> 6.890221e+01
<STATE> 3
<MEAN> 25
 -4.081340e+00 -1.424228e+00 6.928822e+00 -2.249767e-01 -6.771897e-01 3.026790e+00 1.705466e+00 3.464816e+00 1.986513e+00 2.183209e+00 3.484474e+00 -4.064613e-01 -2.575530e+00 -8.923034e-01 2.106611e+00 -1.108046e+00 3.501080e-01 -1.826558e-01 -1.439772e-01 1.142486e+00 1.764028e+00 4.608537e-01 1.298966e+00 3.505874e-01 1.538103e+00
<VARIANCE> 25
 3.065009e+01 1.171006e+01 4.792147e+01 1.742043e+01 2.324846e+01 1.127980e+01 1.239454e+01 1.234650e+01 3.039004e+01 2.343374e+01 1.737964e+01 2.186413e+01 2.779037e+00 1.061088e+00 2.473177e+00 1.236264e+00 2.091807e+00 1.246840e+00 2.065508e+00 6.803855e-01 3.836914e+00 3.230696e+00 1.873140e+00 1.778847e+00 1.173544e+00
<GCONST> 8.904443e+01
<STATE> 4
<MEAN> 25
 -1.485792e+01 -3.592039e+00 1.469052e+01 -2.869076e+00 -3.526685e+00 3.463533e+00 3.345561e+00 2.729573e+00 3.861865e+00 4.017041e+00 4.678046e+00 -7.184964e-01 6.332676e-01 6.938884e-02 5.640540e-02 -3.884765e-01 -7.791838e-01 -4.047337e-01 -5.024194e-01 -3.197567e-01 -2.262410e-01 -2.975256e-01 -3.730753e-01 -6.066175e-02 2.427244e-01
<VARIANCE> 25
 3.447454e+01 2.187321e+01 1.211177e+01 3.429116e+01 4.762021e+01 2.946172e+01 4.586312e+01 2.440229e+01 1.499809e+01 3.097869e+01 1.299212e+01 1.661039e+01 6.986480e+00 9.445605e-01 1.633892e+00 1.521724e+00 3.674869e+00 2.211877e+00 3.661841e+00 1.466702e+00 1.684653e+00 1.525466e+00 1.168716e+00 1.377934e+00 9.188746e-01
<GCONST> 9.229361e+01
<TRANSP> 5
 0.000000e+00 1.000000e+00 0.000000e+00 0.000000e+00 0.000000e+00
 0.000000e+00 9.496400e-01 5.036000e-02 0.000000e+00 0.000000e+00
 0.000000e+00 0.000000e+00 6.211744e-01 3.788256e-01 0.000000e+00
 0.000000e+00 0.000000e+00 0.000000e+00 9.354299e-01 6.457009e-02
 0.000000e+00 0.000000e+00 0.000000e+00 0.000000e+00 0.000000e+00
<ENDHMM>
~h "sil"
<BEGINHMM>
<NUMSTATES> 5
<STATE> 2
<MEAN> 25
 -3.176186e+00 3.289803e+00 -2.538923e-02 4.950196e+00 3.883212e+00 1.912106e+00 2.873430e+00 2.172203e+00 1.639914e+00 3.272743e+00 1.874940e+00 -7.338230e-02 -4.979232e-02 8.817641e-02 3.331181e-02 1.630466e-02 8.528938e-02 2.820698e-02 6.311392e-02 4.988356e-03 -1.660906e-02 6.952997e-02 -2.419185e-02 -3.386111e-02 -7.102153e-02
<VARIANCE> 25
 3.242787e+00 1.752674e+01 1.493711e+01 9.425473e+00 1.051712e+01 1.624144e+01 1.474853e+01 1.353481e+01 1.532398e+01 1.453924e+01 1.389914e+01 1.187789e+01 1.297485e-01 3.115718e-01 4.478498e-01 6.083521e-01 8.352510e-01 8.948069e-01 1.071551e+00 1.127650e+00 1.244120e+00 1.198373e+00 1.178021e+00 1.083376e+00 8.637221e-02
<GCONST> 6.946781e+01
<STATE> 3
~s "silst"
<STATE> 4
<MEAN> 25
 -1.600071e+00 3.387488e-01 -9.063151e-01 3.161629e+00 5.198598e-01 2.562399e-01 -6.930971e-02 6.498112e-01 1.765335e+00 1.095282e-01 1.171074e+00 2.731003e-01 2.643048e-01 -3.160802e-01 -8.359320e-02 -7.674389e-02 -2.667139e-01 -1.951573e-01 -3.080738e-01 -1.481948e-01 -6.099686e-02 -2.523528e-01 -6.171460e-02 2.521064e-02 3.800131e-01
<VARIANCE> 25
 1.373803e+01 3.831832e+01 3.383545e+01 2.784105e+01 4.195057e+01 3.506607e+01 4.395738e+01 3.031303e+01 2.672985e+01 4.261033e+01 3.182722e+01 2.117731e+01 1.440204e+00 3.329028e+00 2.242570e+00 2.029798e+00 3.470818e+00 2.864007e+00 3.698984e+00 2.739268e+00 2.441696e+00 3.289073e+00 2.544879e+00 2.078789e+00 2.664278e+00
<GCONST> 9.952519e+01
<TRANSP> 5
 0.000000e+00 1.000000e+00 0.000000e+00 0.000000e+00 0.000000e+00
 0.000000e+00 9.166820e-01 1.414143e-02 6.917660e-02 0.000000e+00
 0.000000e+00 0.000000e+00 9.533383e-01 4.666165e-02 0.000000e+00
 0.000000e+00 1.407841e-01 0.000000e+00 6.968139e-01 1.624021e-01
 0.000000e+00 0.000000e+00 0.000000e+00 0.000000e+00 0.000000e+00
<ENDHMM>
