~o
<STREAMINFO> 1 25
<VECSIZE> 25<NULLD><MFCC_D_N_Z_0><DIAGC>
~h "E"
<BEGINHMM>
<NUMSTATES> 5
<STATE> 2
<MEAN> 25
 5.658566e-01 -1.059502e+00 -2.410797e-01 -2.600125e-01 -3.585143e-01 -1.353588e+00 1.350977e-02 2.307186e-01 -4.216852e-01 3.900183e-01 7.119025e-02 -1.076161e-01 -1.467618e-02 -4.479425e-03 -5.447311e-03 9.259090e-03 -3.696864e-03 -4.325194e-02 -1.647108e-03 7.485415e-03 1.564278e-02 -1.058466e-03 -2.305493e-03 7.236525e-03 2.632536e-02
<VARIANCE> 25
 4.175573e+01 4.687965e+01 2.760587e+01 4.528764e+01 9.529559e+01 9.875591e+01 4.515877e+01 3.870259e+01 3.794099e+01 4.395258e+01 3.850945e+01 2.305368e+01 9.383624e-01 1.216693e+00 9.805862e-01 1.404410e+00 2.308637e+00 2.720001e+00 2.479782e+00 1.978598e+00 2.250512e+00 2.300463e+00 2.346378e+00 1.739125e+00 1.438687e+00
<GCONST> 9.877563e+01
<STATE> 3
<MEAN> 25
 4.964067e-01 -1.069622e+00 -2.728403e-01 -2.081677e-01 -3.731672e-01 -1.562427e+00 5.141559e-04 2.655263e-01 -3.503288e-01 3.898292e-01 7.568192e-02 -7.358369e-02 -1.434969e-02 -1.010135e-03 -8.754130e-03 9.915691e-03 -7.444500e-04 -3.765454e-02 -3.420933e-03 5.847020e-03 1.259291e-02 1.781300e-04 3.505631e-05 7.067968e-03 1.836073e-02
<VARIANCE> 25
 4.242096e+01 4.654403e+01 2.847269e+01 4.432536e+01 9.799590e+01 9.963713e+01 4.502822e+01 3.933371e+01 3.773131e+01 4.323847e+01 3.806376e+01 2.341676e+01 9.413883e-01 1.205076e+00 1.015958e+00 1.379262e+00 2.322036e+00 2.730150e+00 2.491444e+00 1.991108e+00 2.250462e+00 2.301542e+00 2.330338e+00 1.763677e+00 1.438723e+00
<GCONST> 9.886498e+01
<STATE> 4
<MEAN> 25
 5.415916e-01 -1.071556e+00 -2.579234e-01 -1.216559e-01 -6.966402e-01 -2.057099e+00 -2.297214e-01 1.329397e-01 -2.230254e-01 2.891652e-01 3.851253e-01 -3.736402e-02 -4.590045e-03 4.272582e-03 -1.335973e-02 4.558256e-03 7.890057e-04 -1.794963e-02 -8.810230e-03 -2.087085e-03 4.229570e-03 -2.504012e-04 7.058066e-03 2.937153e-03 4.988853e-03
<VARIANCE> 25
 4.109319e+01 4.418626e+01 3.268620e+01 4.321277e+01 1.055790e+02 9.764902e+01 4.584726e+01 4.285489e+01 3.794860e+01 4.265120e+01 3.745191e+01 2.355512e+01 9.266680e-01 1.133635e+00 1.130061e+00 1.369282e+00 2.414465e+00 2.669803e+00 2.533815e+00 2.029864e+00 2.263497e+00 2.349649e+00 2.287938e+00 1.768880e+00 1.464911e+00
<GCONST> 9.913789e+01
<TRANSP> 5
 0.000000e+00 1.000000e+00 0.000000e+00 0.000000e+00 0.000000e+00
 0.000000e+00 8.118294e-01 1.881705e-01 0.000000e+00 0.000000e+00
 0.000000e+00 0.000000e+00 8.118294e-01 1.881707e-01 0.000000e+00
 0.000000e+00 0.000000e+00 0.000000e+00 9.462461e-01 5.375388e-02
 0.000000e+00 0.000000e+00 0.000000e+00 0.000000e+00 0.000000e+00
<ENDHMM>
~h "a"
<BEGINHMM>
<NUMSTATES> 5
<STATE> 2
<MEAN> 25
 4.188187e-01 -4.587809e-01 -9.475558e-02 -5.716600e-01 -6.059326e-01 -5.560789e-01 -8.494479e-01 -7.346109e-01 1.280533e+00 -7.682869e-01 -2.086645e-01 -3.177681e-01 -9.437809e-03 1.227807e-02 1.112479e-02 5.539968e-03 2.200018e-03 7.235123e-03 9.060373e-03 3.901137e-03 -1.245304e-02 4.302138e-03 8.846442e-03 2.932836e-03 -1.824294e-02
<VARIANCE> 25
 3.291216e+01 3.561040e+01 4.802652e+01 2.884262e+01 5.185910e+01 4.812470e+01 5.371824e+01 5.608809e+01 5.999778e+01 3.611833e+01 3.588315e+01 2.205015e+01 8.649672e-01 9.533948e-01 1.070766e+00 1.098508e+00 2.033135e+00 1.823523e+00 2.522485e+00 2.225364e+00 2.318175e+00 1.939737e+00 2.040845e+00 1.537055e+00 1.229648e+00
<GCONST> 9.629306e+01
<STATE> 3
<MEAN> 25
 3.611019e-01 -3.890628e-01 -3.636247e-02 -5.404126e-01 -5.812342e-01 -5.101137e-01 -7.957348e-01 -7.077924e-01 1.205477e+00 -7.348803e-01 -1.558129e-01 -2.991912e-01 -9.856772e-03 1.206566e-02 1.049638e-02 6.341740e-03 4.256589e-03 9.143144e-03 9.987631e-03 4.364676e-03 -1.417773e-02 6.204932e-03 8.863865e-03 2.693719e-03 -2.067535e-02
<VARIANCE> 25
 3.284741e+01 3.485983e+01 4.794622e+01 2.870444e+01 5.177254e+01 4.790629e+01 5.298337e+01 5.639452e+01 5.941803e+01 3.609291e+01 3.558166e+01 2.197222e+01 8.616933e-01 9.418526e-01 1.062774e+00 1.087959e+00 2.022470e+00 1.809790e+00 2.485621e+00 2.223248e+00 2.326733e+00 1.937069e+00 2.022560e+00 1.531145e+00 1.218994e+00
<GCONST> 9.614552e+01
<STATE> 4
<MEAN> 25
 3.227911e-01 -3.616391e-01 -3.241614e-02 -7.413415e-01 -4.485911e-01 -6.341507e-01 -9.135656e-01 -8.430635e-01 1.308040e+00 -7.271625e-01 -1.349422e-01 -3.907188e-01 -1.460690e-02 1.469844e-02 9.895165e-03 1.010892e-02 1.363183e-02 1.477782e-02 1.224173e-02 1.331924e-02 -1.790319e-02 1.385014e-02 1.121806e-02 5.409264e-03 -3.200483e-02
<VARIANCE> 25
 3.271959e+01 3.211529e+01 4.477135e+01 2.880463e+01 4.643977e+01 4.522632e+01 5.169088e+01 5.753731e+01 5.905928e+01 3.468998e+01 3.159607e+01 2.120126e+01 8.067416e-01 8.766623e-01 9.997322e-01 1.106521e+00 1.916953e+00 1.779691e+00 2.342872e+00 2.198639e+00 2.328689e+00 1.922360e+00 1.962605e+00 1.494692e+00 1.193281e+00
<GCONST> 9.521870e+01
<TRANSP> 5
 0.000000e+00 1.000000e+00 0.000000e+00 0.000000e+00 0.000000e+00
 0.000000e+00 8.223590e-01 1.776410e-01 0.000000e+00 0.000000e+00
 0.000000e+00 0.000000e+00 8.223591e-01 1.776409e-01 0.000000e+00
 0.000000e+00 0.000000e+00 0.000000e+00 9.612925e-01 3.870745e-02
 0.000000e+00 0.000000e+00 0.000000e+00 0.000000e+00 0.000000e+00
<ENDHMM>
~h "b"
<BEGINHMM>
<NUMSTATES> 5
<STATE> 2
<MEAN> 25
 2.711044e-07 2.276736e-08 -6.105108e-08 -1.720701e-07 -1.586201e-07 9.768173e-08 -1.135738e-07 -1.298416e-07 7.694315e-08 -1.660590e-07 -1.083516e-07 -5.706868e-08 -2.818740e-03 -4.409721e-03 -4.277692e-03 -1.165964e-03 -3.608679e-03 5.208261e-03 -1.757075e-03 5.998432e-03 4.891248e-03 1.720927e-03 7.501529e-04 -5.307185e-03 6.137643e-03
<VARIANCE> 25
 2.670229e+01 2.794268e+01 3.749357e+01 3.307458e+01 5.256620e+01 4.928031e+01 4.561778e+01 4.954230e+01 4.604616e+01 3.096663e+01 2.869331e+01 1.969207e+01 8.024186e-01 8.637462e-01 9.762595e-01 1.208383e+00 1.860729e+00 1.938551e+00 2.342637e+00 2.054597e+00 2.126093e+00 1.768907e+00 1.840738e+00 1.505519e+00 1.027859e+00
<GCONST> 9.389128e+01
<STATE> 3
<MEAN> 25
 2.711044e-07 2.276736e-08 -6.105108e-08 -1.720701e-07 -1.586201e-07 9.768173e-08 -1.135738e-07 -1.298416e-07 7.694315e-08 -1.660590e-07 -1.083516e-07 -5.706868e-08 -2.818740e-03 -4.409721e-03 -4.277692e-03 -1.165964e-03 -3.608679e-03 5.208261e-03 -1.757075e-03 5.998432e-03 4.891248e-03 1.720927e-03 7.501529e-04 -5.307185e-03 6.137643e-03
<VARIANCE> 25
 2.670229e+01 2.794268e+01 3.749357e+01 3.307458e+01 5.256620e+01 4.928031e+01 4.561778e+01 4.954230e+01 4.604616e+01 3.096663e+01 2.869331e+01 1.969207e+01 8.024186e-01 8.637462e-01 9.762595e-01 1.208383e+00 1.860729e+00 1.938551e+00 2.342637e+00 2.054597e+00 2.126093e+00 1.768907e+00 1.840738e+00 1.505519e+00 1.027859e+00
<GCONST> 9.389128e+01
<STATE> 4
<MEAN> 25
 2.711044e-07 2.276736e-08 -6.105108e-08 -1.720701e-07 -1.586201e-07 9.768173e-08 -1.135738e-07 -1.298416e-07 7.694315e-08 -1.660590e-07 -1.083516e-07 -5.706868e-08 -2.818740e-03 -4.409721e-03 -4.277692e-03 -1.165964e-03 -3.608679e-03 5.208261e-03 -1.757075e-03 5.998432e-03 4.891248e-03 1.720927e-03 7.501529e-04 -5.307185e-03 6.137643e-03
<VARIANCE> 25
 2.670229e+01 2.794268e+01 3.749357e+01 3.307458e+01 5.256620e+01 4.928031e+01 4.561778e+01 4.954230e+01 4.604616e+01 3.096663e+01 2.869331e+01 1.969207e+01 8.024186e-01 8.637462e-01 9.762595e-01 1.208383e+00 1.860729e+00 1.938551e+00 2.342637e+00 2.054597e+00 2.126093e+00 1.768907e+00 1.840738e+00 1.505519e+00 1.027859e+00
<GCONST> 9.389128e+01
<TRANSP> 5
 0.000000e+00 1.000000e+00 0.000000e+00 0.000000e+00 0.000000e+00
 0.000000e+00 6.000000e-01 4.000000e-01 0.000000e+00 0.000000e+00
 0.000000e+00 0.000000e+00 6.000000e-01 4.000000e-01 0.000000e+00
 0.000000e+00 0.000000e+00 0.000000e+00 7.000000e-01 3.000000e-01
 0.000000e+00 0.000000e+00 0.000000e+00 0.000000e+00 0.000000e+00
<ENDHMM>
~h "d"
<BEGINHMM>
<NUMSTATES> 5
<STATE> 2
<MEAN> 25
 2.711044e-07 2.276736e-08 -6.105108e-08 -1.720701e-07 -1.586201e-07 9.768173e-08 -1.135738e-07 -1.298416e-07 7.694315e-08 -1.660590e-07 -1.083516e-07 -5.706868e-08 -2.818740e-03 -4.409721e-03 -4.277692e-03 -1.165964e-03 -3.608679e-03 5.208261e-03 -1.757075e-03 5.998432e-03 4.891248e-03 1.720927e-03 7.501529e-04 -5.307185e-03 6.137643e-03
<VARIANCE> 25
 2.670229e+01 2.794268e+01 3.749357e+01 3.307458e+01 5.256620e+01 4.928031e+01 4.561778e+01 4.954230e+01 4.604616e+01 3.096663e+01 2.869331e+01 1.969207e+01 8.024186e-01 8.637462e-01 9.762595e-01 1.208383e+00 1.860729e+00 1.938551e+00 2.342637e+00 2.054597e+00 2.126093e+00 1.768907e+00 1.840738e+00 1.505519e+00 1.027859e+00
<GCONST> 9.389128e+01
<STATE> 3
<MEAN> 25
 2.711044e-07 2.276736e-08 -6.105108e-08 -1.720701e-07 -1.586201e-07 9.768173e-08 -1.135738e-07 -1.298416e-07 7.694315e-08 -1.660590e-07 -1.083516e-07 -5.706868e-08 -2.818740e-03 -4.409721e-03 -4.277692e-03 -1.165964e-03 -3.608679e-03 5.208261e-03 -1.757075e-03 5.998432e-03 4.891248e-03 1.720927e-03 7.501529e-04 -5.307185e-03 6.137643e-03
<VARIANCE> 25
 2.670229e+01 2.794268e+01 3.749357e+01 3.307458e+01 5.256620e+01 4.928031e+01 4.561778e+01 4.954230e+01 4.604616e+01 3.096663e+01 2.869331e+01 1.969207e+01 8.024186e-01 8.637462e-01 9.762595e-01 1.208383e+00 1.860729e+00 1.938551e+00 2.342637e+00 2.054597e+00 2.126093e+00 1.768907e+00 1.840738e+00 1.505519e+00 1.027859e+00
<GCONST> 9.389128e+01
<STATE> 4
<MEAN> 25
 2.711044e-07 2.276736e-08 -6.105108e-08 -1.720701e-07 -1.586201e-07 9.768173e-08 -1.135738e-07 -1.298416e-07 7.694315e-08 -1.660590e-07 -1.083516e-07 -5.706868e-08 -2.818740e-03 -4.409721e-03 -4.277692e-03 -1.165964e-03 -3.608679e-03 5.208261e-03 -1.757075e-03 5.998432e-03 4.891248e-03 1.720927e-03 7.501529e-04 -5.307185e-03 6.137643e-03
<VARIANCE> 25
 2.670229e+01 2.794268e+01 3.749357e+01 3.307458e+01 5.256620e+01 4.928031e+01 4.561778e+01 4.954230e+01 4.604616e+01 3.096663e+01 2.869331e+01 1.969207e+01 8.024186e-01 8.637462e-01 9.762595e-01 1.208383e+00 1.860729e+00 1.938551e+00 2.342637e+00 2.054597e+00 2.126093e+00 1.768907e+00 1.840738e+00 1.505519e+00 1.027859e+00
<GCONST> 9.389128e+01
<TRANSP> 5
 0.000000e+00 1.000000e+00 0.000000e+00 0.000000e+00 0.000000e+00
 0.000000e+00 6.000000e-01 4.000000e-01 0.000000e+00 0.000000e+00
 0.000000e+00 0.000000e+00 6.000000e-01 4.000000e-01 0.000000e+00
 0.000000e+00 0.000000e+00 0.000000e+00 7.000000e-01 3.000000e-01
 0.000000e+00 0.000000e+00 0.000000e+00 0.000000e+00 0.000000e+00
<ENDHMM>
~h "e"
<BEGINHMM>
<NUMSTATES> 5
<STATE> 2
<MEAN> 25
 -4.232310e-01 -1.411157e+00 -1.872078e+00 -1.759836e+00 8.385124e-01 -1.440663e+00 -4.931421e-01 -1.764501e+00 1.677584e+00 1.583066e-01 -7.832388e-01 5.954500e-01 3.413185e-02 -3.807271e-02 -3.943263e-02 -1.409032e-02 -1.356171e-03 8.946957e-03 -2.794407e-02 -1.921542e-02 3.719767e-02 -1.956639e-02 -1.657740e-02 -1.934009e-02 3.900785e-02
<VARIANCE> 25
 3.339830e+01 3.143289e+01 3.838848e+01 4.463277e+01 5.534725e+01 4.543516e+01 5.899301e+01 6.176270e+01 5.911657e+01 2.803581e+01 2.541600e+01 2.259824e+01 1.256248e+00 7.801136e-01 8.894447e-01 1.311693e+00 1.888206e+00 1.917111e+00 2.959561e+00 1.922703e+00 2.072106e+00 1.806726e+00 1.690700e+00 1.680912e+00 1.222830e+00
<GCONST> 9.587129e+01
<STATE> 3
<MEAN> 25
 -2.334622e-01 -1.638741e+00 -2.092417e+00 -1.837187e+00 8.217516e-01 -1.410069e+00 -6.574761e-01 -1.867129e+00 1.905836e+00 3.929960e-02 -8.869489e-01 4.818944e-01 3.320093e-02 -3.950958e-02 -3.695472e-02 -1.302894e-02 -6.129684e-03 5.664953e-03 -2.731336e-02 -1.846447e-02 3.772505e-02 -2.148922e-02 -1.656377e-02 -2.012625e-02 4.225351e-02
<VARIANCE> 25
 3.279071e+01 3.280772e+01 3.897747e+01 4.515619e+01 5.248094e+01 4.446827e+01 6.026854e+01 6.238863e+01 6.112477e+01 2.867804e+01 2.554051e+01 2.281941e+01 1.236357e+00 7.922516e-01 9.071296e-01 1.305428e+00 1.882858e+00 1.913199e+00 2.985882e+00 1.919507e+00 2.079004e+00 1.811844e+00 1.714653e+00 1.666566e+00 1.256757e+00
<GCONST> 9.600581e+01
<STATE> 4
<MEAN> 25
 3.279612e-01 -2.195660e+00 -2.229242e+00 -1.714392e+00 2.077627e-01 -1.335933e+00 -1.448155e+00 -1.885963e+00 2.500363e+00 -4.574533e-01 -1.005863e+00 -6.028864e-02 2.967513e-02 -4.061006e-02 -2.246489e-02 -1.396199e-02 -2.202021e-02 -6.138561e-03 -3.897145e-02 -1.995411e-02 4.225602e-02 -3.093168e-02 -1.684870e-02 -1.972814e-02 5.980657e-02
<VARIANCE> 25
 2.796755e+01 3.347087e+01 3.940966e+01 3.805014e+01 4.865286e+01 4.334532e+01 6.953674e+01 5.880991e+01 6.733627e+01 3.171509e+01 2.488511e+01 2.183564e+01 1.050243e+00 8.597791e-01 1.016382e+00 1.270860e+00 1.893396e+00 2.030150e+00 3.012165e+00 1.923013e+00 2.228246e+00 1.726598e+00 1.881872e+00 1.558657e+00 1.304333e+00
<GCONST> 9.598201e+01
<TRANSP> 5
 0.000000e+00 1.000000e+00 0.000000e+00 0.000000e+00 0.000000e+00
 0.000000e+00 8.254518e-01 1.745482e-01 0.000000e+00 0.000000e+00
 0.000000e+00 0.000000e+00 8.254520e-01 1.745480e-01 0.000000e+00
 0.000000e+00 0.000000e+00 0.000000e+00 9.647132e-01 3.528673e-02
 0.000000e+00 0.000000e+00 0.000000e+00 0.000000e+00 0.000000e+00
<ENDHMM>
~h "f"
<BEGINHMM>
<NUMSTATES> 5
<STATE> 2
<MEAN> 25
 2.711044e-07 2.276736e-08 -6.105108e-08 -1.720701e-07 -1.586201e-07 9.768173e-08 -1.135738e-07 -1.298416e-07 7.694315e-08 -1.660590e-07 -1.083516e-07 -5.706868e-08 -2.818740e-03 -4.409721e-03 -4.277692e-03 -1.165964e-03 -3.608679e-03 5.208261e-03 -1.757075e-03 5.998432e-03 4.891248e-03 1.720927e-03 7.501529e-04 -5.307185e-03 6.137643e-03
<VARIANCE> 25
 2.670229e+01 2.794268e+01 3.749357e+01 3.307458e+01 5.256620e+01 4.928031e+01 4.561778e+01 4.954230e+01 4.604616e+01 3.096663e+01 2.869331e+01 1.969207e+01 8.024186e-01 8.637462e-01 9.762595e-01 1.208383e+00 1.860729e+00 1.938551e+00 2.342637e+00 2.054597e+00 2.126093e+00 1.768907e+00 1.840738e+00 1.505519e+00 1.027859e+00
<GCONST> 9.389128e+01
<STATE> 3
<MEAN> 25
 2.711044e-07 2.276736e-08 -6.105108e-08 -1.720701e-07 -1.586201e-07 9.768173e-08 -1.135738e-07 -1.298416e-07 7.694315e-08 -1.660590e-07 -1.083516e-07 -5.706868e-08 -2.818740e-03 -4.409721e-03 -4.277692e-03 -1.165964e-03 -3.608679e-03 5.208261e-03 -1.757075e-03 5.998432e-03 4.891248e-03 1.720927e-03 7.501529e-04 -5.307185e-03 6.137643e-03
<VARIANCE> 25
 2.670229e+01 2.794268e+01 3.749357e+01 3.307458e+01 5.256620e+01 4.928031e+01 4.561778e+01 4.954230e+01 4.604616e+01 3.096663e+01 2.869331e+01 1.969207e+01 8.024186e-01 8.637462e-01 9.762595e-01 1.208383e+00 1.860729e+00 1.938551e+00 2.342637e+00 2.054597e+00 2.126093e+00 1.768907e+00 1.840738e+00 1.505519e+00 1.027859e+00
<GCONST> 9.389128e+01
<STATE> 4
<MEAN> 25
 2.711044e-07 2.276736e-08 -6.105108e-08 -1.720701e-07 -1.586201e-07 9.768173e-08 -1.135738e-07 -1.298416e-07 7.694315e-08 -1.660590e-07 -1.083516e-07 -5.706868e-08 -2.818740e-03 -4.409721e-03 -4.277692e-03 -1.165964e-03 -3.608679e-03 5.208261e-03 -1.757075e-03 5.998432e-03 4.891248e-03 1.720927e-03 7.501529e-04 -5.307185e-03 6.137643e-03
<VARIANCE> 25
 2.670229e+01 2.794268e+01 3.749357e+01 3.307458e+01 5.256620e+01 4.928031e+01 4.561778e+01 4.954230e+01 4.604616e+01 3.096663e+01 2.869331e+01 1.969207e+01 8.024186e-01 8.637462e-01 9.762595e-01 1.208383e+00 1.860729e+00 1.938551e+00 2.342637e+00 2.054597e+00 2.126093e+00 1.768907e+00 1.840738e+00 1.505519e+00 1.027859e+00
<GCONST> 9.389128e+01
<TRANSP> 5
 0.000000e+00 1.000000e+00 0.000000e+00 0.000000e+00 0.000000e+00
 0.000000e+00 6.000000e-01 4.000000e-01 0.000000e+00 0.000000e+00
 0.000000e+00 0.000000e+00 6.000000e-01 4.000000e-01 0.000000e+00
 0.000000e+00 0.000000e+00 0.000000e+00 7.000000e-01 3.000000e-01
 0.000000e+00 0.000000e+00 0.000000e+00 0.000000e+00 0.000000e+00
<ENDHMM>
~h "g"
<BEGINHMM>
<NUMSTATES> 5
<STATE> 2
<MEAN> 25
 3.456634e-01 3.970122e-01 9.691625e-01 9.840941e-02 -6.260612e-01 -1.303747e-01 -1.242341e+00 4.009263e-01 3.641524e-01 3.013130e-01 1.764920e+00 -1.220207e-01 -1.045194e-02 6.988712e-03 1.221348e-02 1.755707e-02 1.438012e-02 1.721958e-02 1.460488e-02 2.445496e-02 -1.059396e-02 1.234839e-02 1.083807e-02 5.376219e-03 -3.259864e-02
<VARIANCE> 25
 4.940268e+01 2.982828e+01 4.486300e+01 3.362584e+01 6.829296e+01 5.771286e+01 7.103378e+01 5.113104e+01 5.584657e+01 4.082000e+01 5.645366e+01 2.068984e+01 1.014699e+00 1.067618e+00 1.133222e+00 1.131164e+00 1.878849e+00 1.948458e+00 2.803294e+00 2.286307e+00 2.348973e+00 2.036271e+00 2.363139e+00 1.633146e+00 1.134934e+00
<GCONST> 9.835890e+01
<STATE> 3
<MEAN> 25
 2.855416e-01 4.367698e-01 1.036375e+00 1.982746e-01 -5.466563e-01 -3.067110e-02 -1.160153e+00 5.401857e-01 2.973053e-01 3.722346e-01 1.823516e+00 -8.973441e-02 -9.869944e-03 7.292994e-03 9.979780e-03 1.814367e-02 1.526322e-02 1.868106e-02 1.739550e-02 2.498905e-02 -1.196355e-02 1.326825e-02 8.301371e-03 4.761851e-03 -3.539014e-02
<VARIANCE> 25
 4.872983e+01 2.908612e+01 4.442131e+01 3.305679e+01 6.753709e+01 5.739798e+01 7.000204e+01 5.035936e+01 5.490963e+01 4.036163e+01 5.537573e+01 2.063488e+01 1.010831e+00 1.042382e+00 1.119542e+00 1.108329e+00 1.859151e+00 1.916811e+00 2.732773e+00 2.257102e+00 2.329994e+00 2.003435e+00 2.321511e+00 1.624468e+00 1.088611e+00
<GCONST> 9.798178e+01
<STATE> 4
<MEAN> 25
 -2.874193e-01 4.518576e-01 1.168993e+00 -9.709326e-02 -2.129896e-01 -2.320167e-01 -1.424093e+00 6.378074e-01 5.561858e-01 2.778737e-01 1.822179e+00 4.053843e-02 -7.355377e-03 6.711229e-03 5.460202e-03 2.494197e-02 1.483196e-02 2.614669e-02 2.611632e-02 2.833629e-02 -2.149094e-02 1.774936e-02 3.774587e-03 5.642295e-03 -4.919783e-02
<VARIANCE> 25
 5.211743e+01 2.520649e+01 3.900753e+01 3.286235e+01 5.936313e+01 5.233238e+01 6.678556e+01 5.098272e+01 5.364952e+01 3.671731e+01 4.762359e+01 1.983806e+01 1.021875e+00 9.399497e-01 1.014216e+00 1.096614e+00 1.817137e+00 1.856168e+00 2.579525e+00 2.207861e+00 2.328450e+00 1.866611e+00 2.180839e+00 1.520457e+00 9.884874e-01
<GCONST> 9.657244e+01
<TRANSP> 5
 0.000000e+00 1.000000e+00 0.000000e+00 0.000000e+00 0.000000e+00
 0.000000e+00 8.161991e-01 1.838009e-01 0.000000e+00 0.000000e+00
 0.000000e+00 0.000000e+00 8.161989e-01 1.838011e-01 0.000000e+00
 0.000000e+00 0.000000e+00 0.000000e+00 9.555545e-01 4.444544e-02
 0.000000e+00 0.000000e+00 0.000000e+00 0.000000e+00 0.000000e+00
<ENDHMM>
~h "h"
<BEGINHMM>
<NUMSTATES> 5
<STATE> 2
<MEAN> 25
 2.711044e-07 2.276736e-08 -6.105108e-08 -1.720701e-07 -1.586201e-07 9.768173e-08 -1.135738e-07 -1.298416e-07 7.694315e-08 -1.660590e-07 -1.083516e-07 -5.706868e-08 -2.818740e-03 -4.409721e-03 -4.277692e-03 -1.165964e-03 -3.608679e-03 5.208261e-03 -1.757075e-03 5.998432e-03 4.891248e-03 1.720927e-03 7.501529e-04 -5.307185e-03 6.137643e-03
<VARIANCE> 25
 2.670229e+01 2.794268e+01 3.749357e+01 3.307458e+01 5.256620e+01 4.928031e+01 4.561778e+01 4.954230e+01 4.604616e+01 3.096663e+01 2.869331e+01 1.969207e+01 8.024186e-01 8.637462e-01 9.762595e-01 1.208383e+00 1.860729e+00 1.938551e+00 2.342637e+00 2.054597e+00 2.126093e+00 1.768907e+00 1.840738e+00 1.505519e+00 1.027859e+00
<GCONST> 9.389128e+01
<STATE> 3
<MEAN> 25
 2.711044e-07 2.276736e-08 -6.105108e-08 -1.720701e-07 -1.586201e-07 9.768173e-08 -1.135738e-07 -1.298416e-07 7.694315e-08 -1.660590e-07 -1.083516e-07 -5.706868e-08 -2.818740e-03 -4.409721e-03 -4.277692e-03 -1.165964e-03 -3.608679e-03 5.208261e-03 -1.757075e-03 5.998432e-03 4.891248e-03 1.720927e-03 7.501529e-04 -5.307185e-03 6.137643e-03
<VARIANCE> 25
 2.670229e+01 2.794268e+01 3.749357e+01 3.307458e+01 5.256620e+01 4.928031e+01 4.561778e+01 4.954230e+01 4.604616e+01 3.096663e+01 2.869331e+01 1.969207e+01 8.024186e-01 8.637462e-01 9.762595e-01 1.208383e+00 1.860729e+00 1.938551e+00 2.342637e+00 2.054597e+00 2.126093e+00 1.768907e+00 1.840738e+00 1.505519e+00 1.027859e+00
<GCONST> 9.389128e+01
<STATE> 4
<MEAN> 25
 2.711044e-07 2.276736e-08 -6.105108e-08 -1.720701e-07 -1.586201e-07 9.768173e-08 -1.135738e-07 -1.298416e-07 7.694315e-08 -1.660590e-07 -1.083516e-07 -5.706868e-08 -2.818740e-03 -4.409721e-03 -4.277692e-03 -1.165964e-03 -3.608679e-03 5.208261e-03 -1.757075e-03 5.998432e-03 4.891248e-03 1.720927e-03 7.501529e-04 -5.307185e-03 6.137643e-03
<VARIANCE> 25
 2.670229e+01 2.794268e+01 3.749357e+01 3.307458e+01 5.256620e+01 4.928031e+01 4.561778e+01 4.954230e+01 4.604616e+01 3.096663e+01 2.869331e+01 1.969207e+01 8.024186e-01 8.637462e-01 9.762595e-01 1.208383e+00 1.860729e+00 1.938551e+00 2.342637e+00 2.054597e+00 2.126093e+00 1.768907e+00 1.840738e+00 1.505519e+00 1.027859e+00
<GCONST> 9.389128e+01
<TRANSP> 5
 0.000000e+00 1.000000e+00 0.000000e+00 0.000000e+00 0.000000e+00
 0.000000e+00 6.000000e-01 4.000000e-01 0.000000e+00 0.000000e+00
 0.000000e+00 0.000000e+00 6.000000e-01 4.000000e-01 0.000000e+00
 0.000000e+00 0.000000e+00 0.000000e+00 7.000000e-01 3.000000e-01
 0.000000e+00 0.000000e+00 0.000000e+00 0.000000e+00 0.000000e+00
<ENDHMM>
~h "i"
<BEGINHMM>
<NUMSTATES> 5
<STATE> 2
<MEAN> 25
 -5.090211e-01 5.617450e-01 9.789590e-01 -3.516343e-01 -1.208506e+00 -8.787901e-01 -1.541086e-01 -1.019717e+00 -2.396851e-02 -4.520997e-01 1.248623e-01 3.111757e-01 2.754716e-03 4.476164e-03 -5.483418e-03 1.062726e-03 4.454724e-03 -3.778517e-03 -2.463530e-04 1.011826e-02 3.251746e-04 9.592150e-03 -3.992662e-04 -1.776854e-03 7.356120e-05
<VARIANCE> 25
 3.054683e+01 2.812358e+01 5.494471e+01 3.862521e+01 7.503850e+01 5.826678e+01 4.835330e+01 6.931278e+01 4.472410e+01 3.285773e+01 2.922033e+01 2.293430e+01 1.134660e+00 1.026623e+00 1.074219e+00 1.400182e+00 2.428297e+00 2.378184e+00 2.971452e+00 2.691396e+00 2.243975e+00 1.707008e+00 1.982078e+00 1.632298e+00 1.184637e+00
<GCONST> 9.774344e+01
<STATE> 3
<MEAN> 25
 -4.964325e-01 5.837424e-01 9.512461e-01 -3.444418e-01 -1.188196e+00 -9.068261e-01 -1.557162e-01 -9.654704e-01 -1.811215e-02 -4.028474e-01 1.267045e-01 3.014939e-01 2.664455e-03 2.887965e-03 -7.496042e-03 -1.278376e-04 4.083572e-03 -5.409300e-03 -1.356832e-03 1.038818e-02 2.108928e-03 9.608972e-03 4.919836e-04 -2.622618e-03 3.382697e-03
<VARIANCE> 25
 3.099337e+01 2.798317e+01 5.370015e+01 3.844018e+01 7.548695e+01 5.858604e+01 4.929554e+01 6.901498e+01 4.479667e+01 3.231828e+01 2.924489e+01 2.270746e+01 1.136238e+00 1.029642e+00 1.065093e+00 1.401750e+00 2.432766e+00 2.384825e+00 3.036475e+00 2.695122e+00 2.236280e+00 1.695879e+00 2.006372e+00 1.620731e+00 1.189163e+00
<GCONST> 9.775108e+01
<STATE> 4
<MEAN> 25
 -5.673515e-01 6.680884e-01 9.231837e-01 -2.803859e-01 -1.102514e+00 -1.077477e+00 -1.254499e-02 -9.127371e-01 -1.589033e-01 -2.094304e-01 2.410019e-01 3.997565e-01 1.885043e-03 -3.060297e-03 -1.200862e-02 -1.926765e-03 2.022531e-03 -9.303601e-03 -7.001891e-03 7.617503e-03 7.487100e-03 8.301144e-03 4.138303e-03 -6.162030e-03 1.142809e-02
<VARIANCE> 25
 3.000339e+01 2.470632e+01 4.836829e+01 3.679822e+01 7.575150e+01 5.749218e+01 4.876646e+01 6.639986e+01 4.187306e+01 2.885585e+01 2.742728e+01 2.121362e+01 1.123990e+00 9.572299e-01 1.003610e+00 1.395021e+00 2.372888e+00 2.332165e+00 2.987789e+00 2.612864e+00 2.127472e+00 1.629257e+00 1.930135e+00 1.559221e+00 1.109226e+00
<GCONST> 9.658863e+01
<TRANSP> 5
 0.000000e+00 1.000000e+00 0.000000e+00 0.000000e+00 0.000000e+00
 0.000000e+00 8.188363e-01 1.811638e-01 0.000000e+00 0.000000e+00
 0.000000e+00 0.000000e+00 8.188363e-01 1.811637e-01 0.000000e+00
 0.000000e+00 0.000000e+00 0.000000e+00 9.566047e-01 4.339527e-02
 0.000000e+00 0.000000e+00 0.000000e+00 0.000000e+00 0.000000e+00
<ENDHMM>
~h "k"
<BEGINHMM>
<NUMSTATES> 5
<STATE> 2
<MEAN> 25
 1.042778e+00 -9.171818e-01 -1.336147e+00 -2.139409e-01 -1.549756e-01 -7.939445e-01 -1.675708e-01 -5.608695e-01 6.634133e-01 -1.533731e-01 -5.007625e-01 -4.381543e-01 5.505098e-03 -4.552702e-03 -6.229416e-03 -5.886555e-03 -1.060718e-02 -1.308633e-02 -1.263301e-02 -1.642760e-02 -1.407196e-02 -2.190937e-02 -1.810280e-02 -1.393405e-02 1.012937e-02
<VARIANCE> 25
 2.695470e+01 3.767100e+01 3.726743e+01 4.076663e+01 5.289264e+01 5.420420e+01 4.725909e+01 5.255177e+01 5.738857e+01 3.001241e+01 2.803018e+01 2.052428e+01 8.525916e-01 8.652504e-01 9.736487e-01 1.279551e+00 2.038277e+00 1.963821e+00 2.602517e+00 2.036066e+00 2.042571e+00 1.959351e+00 1.878615e+00 1.554825e+00 1.218925e+00
<GCONST> 9.540754e+01
<STATE> 3
<MEAN> 25
 1.069034e+00 -9.312026e-01 -1.371126e+00 -2.502929e-01 -2.051061e-01 -8.560240e-01 -2.136649e-01 -6.173375e-01 6.061266e-01 -2.449288e-01 -5.624965e-01 -4.941192e-01 2.085019e-03 -1.532713e-04 -3.844578e-03 -3.865588e-03 -7.939129e-03 -8.474014e-03 -5.651453e-03 -7.544716e-03 -1.325718e-02 -1.549697e-02 -1.033544e-02 -9.422889e-03 1.877728e-03
<VARIANCE> 25
 2.705095e+01 3.808878e+01 3.769207e+01 4.039716e+01 5.164207e+01 5.309264e+01 4.648496e+01 5.222551e+01 5.809299e+01 2.984275e+01 2.828160e+01 2.056508e+01 8.410770e-01 8.714039e-01 9.868830e-01 1.275263e+00 2.016179e+00 1.956765e+00 2.595205e+00 2.036165e+00 2.053013e+00 1.950492e+00 1.866044e+00 1.527079e+00 1.212881e+00
<GCONST> 9.533166e+01
<STATE> 4
<MEAN> 25
 1.167327e+00 -9.485421e-01 -1.378440e+00 -4.745980e-01 -3.690305e-01 -1.041533e+00 -2.177369e-01 -8.006042e-01 7.389582e-01 -3.484637e-01 -5.695670e-01 -7.023607e-01 -1.772334e-03 2.974624e-03 3.014643e-03 -4.182189e-04 3.807389e-04 1.351398e-03 1.452883e-04 3.100857e-03 -2.833179e-03 -6.362565e-03 -3.615244e-03 -7.606552e-03 -2.687030e-03
<VARIANCE> 25
 2.567032e+01 3.783193e+01 3.622998e+01 3.595830e+01 4.558191e+01 4.733407e+01 4.496424e+01 5.162888e+01 5.761288e+01 3.045958e+01 2.685325e+01 2.001923e+01 7.744964e-01 8.775639e-01 9.676495e-01 1.277223e+00 1.935439e+00 1.929992e+00 2.510086e+00 1.988430e+00 2.084926e+00 1.990020e+00 1.826544e+00 1.417218e+00 1.214402e+00
<GCONST> 9.450101e+01
<TRANSP> 5
 0.000000e+00 1.000000e+00 0.000000e+00 0.000000e+00 0.000000e+00
 0.000000e+00 8.216813e-01 1.783187e-01 0.000000e+00 0.000000e+00
 0.000000e+00 0.000000e+00 8.216814e-01 1.783186e-01 0.000000e+00
 0.000000e+00 0.000000e+00 0.000000e+00 9.609599e-01 3.904006e-02
 0.000000e+00 0.000000e+00 0.000000e+00 0.000000e+00 0.000000e+00
<ENDHMM>
~h "l"
<BEGINHMM>
<NUMSTATES> 5
<STATE> 2
<MEAN> 25
 2.711044e-07 2.276736e-08 -6.105108e-08 -1.720701e-07 -1.586201e-07 9.768173e-08 -1.135738e-07 -1.298416e-07 7.694315e-08 -1.660590e-07 -1.083516e-07 -5.706868e-08 -2.818740e-03 -4.409721e-03 -4.277692e-03 -1.165964e-03 -3.608679e-03 5.208261e-03 -1.757075e-03 5.998432e-03 4.891248e-03 1.720927e-03 7.501529e-04 -5.307185e-03 6.137643e-03
<VARIANCE> 25
 2.670229e+01 2.794268e+01 3.749357e+01 3.307458e+01 5.256620e+01 4.928031e+01 4.561778e+01 4.954230e+01 4.604616e+01 3.096663e+01 2.869331e+01 1.969207e+01 8.024186e-01 8.637462e-01 9.762595e-01 1.208383e+00 1.860729e+00 1.938551e+00 2.342637e+00 2.054597e+00 2.126093e+00 1.768907e+00 1.840738e+00 1.505519e+00 1.027859e+00
<GCONST> 9.389128e+01
<STATE> 3
<MEAN> 25
 2.711044e-07 2.276736e-08 -6.105108e-08 -1.720701e-07 -1.586201e-07 9.768173e-08 -1.135738e-07 -1.298416e-07 7.694315e-08 -1.660590e-07 -1.083516e-07 -5.706868e-08 -2.818740e-03 -4.409721e-03 -4.277692e-03 -1.165964e-03 -3.608679e-03 5.208261e-03 -1.757075e-03 5.998432e-03 4.891248e-03 1.720927e-03 7.501529e-04 -5.307185e-03 6.137643e-03
<VARIANCE> 25
 2.670229e+01 2.794268e+01 3.749357e+01 3.307458e+01 5.256620e+01 4.928031e+01 4.561778e+01 4.954230e+01 4.604616e+01 3.096663e+01 2.869331e+01 1.969207e+01 8.024186e-01 8.637462e-01 9.762595e-01 1.208383e+00 1.860729e+00 1.938551e+00 2.342637e+00 2.054597e+00 2.126093e+00 1.768907e+00 1.840738e+00 1.505519e+00 1.027859e+00
<GCONST> 9.389128e+01
<STATE> 4
<MEAN> 25
 2.711044e-07 2.276736e-08 -6.105108e-08 -1.720701e-07 -1.586201e-07 9.768173e-08 -1.135738e-07 -1.298416e-07 7.694315e-08 -1.660590e-07 -1.083516e-07 -5.706868e-08 -2.818740e-03 -4.409721e-03 -4.277692e-03 -1.165964e-03 -3.608679e-03 5.208261e-03 -1.757075e-03 5.998432e-03 4.891248e-03 1.720927e-03 7.501529e-04 -5.307185e-03 6.137643e-03
<VARIANCE> 25
 2.670229e+01 2.794268e+01 3.749357e+01 3.307458e+01 5.256620e+01 4.928031e+01 4.561778e+01 4.954230e+01 4.604616e+01 3.096663e+01 2.869331e+01 1.969207e+01 8.024186e-01 8.637462e-01 9.762595e-01 1.208383e+00 1.860729e+00 1.938551e+00 2.342637e+00 2.054597e+00 2.126093e+00 1.768907e+00 1.840738e+00 1.505519e+00 1.027859e+00
<GCONST> 9.389128e+01
<TRANSP> 5
 0.000000e+00 1.000000e+00 0.000000e+00 0.000000e+00 0.000000e+00
 0.000000e+00 6.000000e-01 4.000000e-01 0.000000e+00 0.000000e+00
 0.000000e+00 0.000000e+00 6.000000e-01 4.000000e-01 0.000000e+00
 0.000000e+00 0.000000e+00 0.000000e+00 7.000000e-01 3.000000e-01
 0.000000e+00 0.000000e+00 0.000000e+00 0.000000e+00 0.000000e+00
<ENDHMM>
~h "m"
<BEGINHMM>
<NUMSTATES> 5
<STATE> 2
<MEAN> 25
 2.711044e-07 2.276736e-08 -6.105108e-08 -1.720701e-07 -1.586201e-07 9.768173e-08 -1.135738e-07 -1.298416e-07 7.694315e-08 -1.660590e-07 -1.083516e-07 -5.706868e-08 -2.818740e-03 -4.409721e-03 -4.277692e-03 -1.165964e-03 -3.608679e-03 5.208261e-03 -1.757075e-03 5.998432e-03 4.891248e-03 1.720927e-03 7.501529e-04 -5.307185e-03 6.137643e-03
<VARIANCE> 25
 2.670229e+01 2.794268e+01 3.749357e+01 3.307458e+01 5.256620e+01 4.928031e+01 4.561778e+01 4.954230e+01 4.604616e+01 3.096663e+01 2.869331e+01 1.969207e+01 8.024186e-01 8.637462e-01 9.762595e-01 1.208383e+00 1.860729e+00 1.938551e+00 2.342637e+00 2.054597e+00 2.126093e+00 1.768907e+00 1.840738e+00 1.505519e+00 1.027859e+00
<GCONST> 9.389128e+01
<STATE> 3
<MEAN> 25
 2.711044e-07 2.276736e-08 -6.105108e-08 -1.720701e-07 -1.586201e-07 9.768173e-08 -1.135738e-07 -1.298416e-07 7.694315e-08 -1.660590e-07 -1.083516e-07 -5.706868e-08 -2.818740e-03 -4.409721e-03 -4.277692e-03 -1.165964e-03 -3.608679e-03 5.208261e-03 -1.757075e-03 5.998432e-03 4.891248e-03 1.720927e-03 7.501529e-04 -5.307185e-03 6.137643e-03
<VARIANCE> 25
 2.670229e+01 2.794268e+01 3.749357e+01 3.307458e+01 5.256620e+01 4.928031e+01 4.561778e+01 4.954230e+01 4.604616e+01 3.096663e+01 2.869331e+01 1.969207e+01 8.024186e-01 8.637462e-01 9.762595e-01 1.208383e+00 1.860729e+00 1.938551e+00 2.342637e+00 2.054597e+00 2.126093e+00 1.768907e+00 1.840738e+00 1.505519e+00 1.027859e+00
<GCONST> 9.389128e+01
<STATE> 4
<MEAN> 25
 2.711044e-07 2.276736e-08 -6.105108e-08 -1.720701e-07 -1.586201e-07 9.768173e-08 -1.135738e-07 -1.298416e-07 7.694315e-08 -1.660590e-07 -1.083516e-07 -5.706868e-08 -2.818740e-03 -4.409721e-03 -4.277692e-03 -1.165964e-03 -3.608679e-03 5.208261e-03 -1.757075e-03 5.998432e-03 4.891248e-03 1.720927e-03 7.501529e-04 -5.307185e-03 6.137643e-03
<VARIANCE> 25
 2.670229e+01 2.794268e+01 3.749357e+01 3.307458e+01 5.256620e+01 4.928031e+01 4.561778e+01 4.954230e+01 4.604616e+01 3.096663e+01 2.869331e+01 1.969207e+01 8.024186e-01 8.637462e-01 9.762595e-01 1.208383e+00 1.860729e+00 1.938551e+00 2.342637e+00 2.054597e+00 2.126093e+00 1.768907e+00 1.840738e+00 1.505519e+00 1.027859e+00
<GCONST> 9.389128e+01
<TRANSP> 5
 0.000000e+00 1.000000e+00 0.000000e+00 0.000000e+00 0.000000e+00
 0.000000e+00 6.000000e-01 4.000000e-01 0.000000e+00 0.000000e+00
 0.000000e+00 0.000000e+00 6.000000e-01 4.000000e-01 0.000000e+00
 0.000000e+00 0.000000e+00 0.000000e+00 7.000000e-01 3.000000e-01
 0.000000e+00 0.000000e+00 0.000000e+00 0.000000e+00 0.000000e+00
<ENDHMM>
~h "o"
<BEGINHMM>
<NUMSTATES> 5
<STATE> 2
<MEAN> 25
 4.379120e-01 9.164455e-01 -1.694998e-01 1.667818e+00 1.439338e+00 2.112223e+00 1.346991e+00 1.556950e+00 -2.295886e+00 5.963915e-01 -4.689040e-01 -6.647888e-01 -1.875550e-02 5.526812e-03 -1.356748e-03 6.192909e-03 2.177457e-03 5.683116e-03 3.844210e-03 5.005518e-03 2.097905e-03 -8.614556e-03 -4.070067e-03 -2.135779e-03 -1.948544e-02
<VARIANCE> 25
 1.191308e+01 2.209859e+01 2.677091e+01 3.464423e+01 3.350684e+01 3.780806e+01 2.375838e+01 3.866610e+01 2.614162e+01 2.454628e+01 2.143796e+01 1.551926e+01 4.355192e-01 6.232535e-01 8.639608e-01 1.034662e+00 1.337581e+00 1.520014e+00 1.523525e+00 1.518534e+00 1.543961e+00 1.554443e+00 1.419800e+00 1.292556e+00 5.672744e-01
<GCONST> 8.563891e+01
<STATE> 3
<MEAN> 25
 3.359399e-01 9.493788e-01 -1.679491e-01 1.697081e+00 1.457712e+00 2.142275e+00 1.364359e+00 1.575798e+00 -2.274896e+00 5.544872e-01 -4.848519e-01 -6.684377e-01 -1.881813e-02 6.472406e-03 5.138323e-04 4.629917e-03 -1.148408e-03 5.567686e-03 6.586991e-04 -5.209332e-04 4.276496e-03 -6.938078e-03 1.998604e-03 -7.376712e-04 -1.297711e-02
<VARIANCE> 25
 1.207483e+01 2.162388e+01 2.673225e+01 3.383803e+01 3.247090e+01 3.620802e+01 2.298908e+01 3.818953e+01 2.541691e+01 2.478631e+01 2.149865e+01 1.564803e+01 4.469346e-01 6.546924e-01 8.951181e-01 1.052305e+00 1.349645e+00 1.543124e+00 1.513614e+00 1.550754e+00 1.580507e+00 1.560446e+00 1.433383e+00 1.295532e+00 5.924277e-01
<GCONST> 8.572683e+01
<STATE> 4
<MEAN> 25
 8.442243e-02 1.004354e+00 2.406065e-02 1.434339e+00 1.294097e+00 1.892570e+00 1.266719e+00 1.454392e+00 -2.146520e+00 3.553105e-01 -3.757893e-01 -4.431616e-01 -1.764005e-02 4.274531e-03 4.328965e-03 -8.690855e-03 -1.036214e-02 -2.818703e-03 -6.365197e-03 -1.659067e-02 8.706928e-03 -8.885394e-03 1.064877e-02 6.703738e-03 1.297417e-02
<VARIANCE> 25
 1.420525e+01 1.996680e+01 2.635466e+01 3.533928e+01 3.419584e+01 3.613521e+01 2.282869e+01 3.830778e+01 2.385455e+01 2.641219e+01 2.246593e+01 1.654279e+01 5.460975e-01 7.782542e-01 9.182763e-01 1.227738e+00 1.497625e+00 1.819190e+00 1.551251e+00 1.725680e+00 1.677155e+00 1.632044e+00 1.501070e+00 1.349195e+00 7.111508e-01
<GCONST> 8.731100e+01
<TRANSP> 5
 0.000000e+00 1.000000e+00 0.000000e+00 0.000000e+00 0.000000e+00
 0.000000e+00 8.146277e-01 1.853722e-01 0.000000e+00 0.000000e+00
 0.000000e+00 0.000000e+00 8.146273e-01 1.853727e-01 0.000000e+00
 0.000000e+00 0.000000e+00 0.000000e+00 9.504948e-01 4.950514e-02
 0.000000e+00 0.000000e+00 0.000000e+00 0.000000e+00 0.000000e+00
<ENDHMM>
~h "p"
<BEGINHMM>
<NUMSTATES> 5
<STATE> 2
<MEAN> 25
 2.711044e-07 2.276736e-08 -6.105108e-08 -1.720701e-07 -1.586201e-07 9.768173e-08 -1.135738e-07 -1.298416e-07 7.694315e-08 -1.660590e-07 -1.083516e-07 -5.706868e-08 -2.818740e-03 -4.409721e-03 -4.277692e-03 -1.165964e-03 -3.608679e-03 5.208261e-03 -1.757075e-03 5.998432e-03 4.891248e-03 1.720927e-03 7.501529e-04 -5.307185e-03 6.137643e-03
<VARIANCE> 25
 2.670229e+01 2.794268e+01 3.749357e+01 3.307458e+01 5.256620e+01 4.928031e+01 4.561778e+01 4.954230e+01 4.604616e+01 3.096663e+01 2.869331e+01 1.969207e+01 8.024186e-01 8.637462e-01 9.762595e-01 1.208383e+00 1.860729e+00 1.938551e+00 2.342637e+00 2.054597e+00 2.126093e+00 1.768907e+00 1.840738e+00 1.505519e+00 1.027859e+00
<GCONST> 9.389128e+01
<STATE> 3
<MEAN> 25
 2.711044e-07 2.276736e-08 -6.105108e-08 -1.720701e-07 -1.586201e-07 9.768173e-08 -1.135738e-07 -1.298416e-07 7.694315e-08 -1.660590e-07 -1.083516e-07 -5.706868e-08 -2.818740e-03 -4.409721e-03 -4.277692e-03 -1.165964e-03 -3.608679e-03 5.208261e-03 -1.757075e-03 5.998432e-03 4.891248e-03 1.720927e-03 7.501529e-04 -5.307185e-03 6.137643e-03
<VARIANCE> 25
 2.670229e+01 2.794268e+01 3.749357e+01 3.307458e+01 5.256620e+01 4.928031e+01 4.561778e+01 4.954230e+01 4.604616e+01 3.096663e+01 2.869331e+01 1.969207e+01 8.024186e-01 8.637462e-01 9.762595e-01 1.208383e+00 1.860729e+00 1.938551e+00 2.342637e+00 2.054597e+00 2.126093e+00 1.768907e+00 1.840738e+00 1.505519e+00 1.027859e+00
<GCONST> 9.389128e+01
<STATE> 4
<MEAN> 25
 2.711044e-07 2.276736e-08 -6.105108e-08 -1.720701e-07 -1.586201e-07 9.768173e-08 -1.135738e-07 -1.298416e-07 7.694315e-08 -1.660590e-07 -1.083516e-07 -5.706868e-08 -2.818740e-03 -4.409721e-03 -4.277692e-03 -1.165964e-03 -3.608679e-03 5.208261e-03 -1.757075e-03 5.998432e-03 4.891248e-03 1.720927e-03 7.501529e-04 -5.307185e-03 6.137643e-03
<VARIANCE> 25
 2.670229e+01 2.794268e+01 3.749357e+01 3.307458e+01 5.256620e+01 4.928031e+01 4.561778e+01 4.954230e+01 4.604616e+01 3.096663e+01 2.869331e+01 1.969207e+01 8.024186e-01 8.637462e-01 9.762595e-01 1.208383e+00 1.860729e+00 1.938551e+00 2.342637e+00 2.054597e+00 2.126093e+00 1.768907e+00 1.840738e+00 1.505519e+00 1.027859e+00
<GCONST> 9.389128e+01
<TRANSP> 5
 0.000000e+00 1.000000e+00 0.000000e+00 0.000000e+00 0.000000e+00
 0.000000e+00 6.000000e-01 4.000000e-01 0.000000e+00 0.000000e+00
 0.000000e+00 0.000000e+00 6.000000e-01 4.000000e-01 0.000000e+00
 0.000000e+00 0.000000e+00 0.000000e+00 7.000000e-01 3.000000e-01
 0.000000e+00 0.000000e+00 0.000000e+00 0.000000e+00 0.000000e+00
<ENDHMM>
~h "r"
<BEGINHMM>
<NUMSTATES> 5
<STATE> 2
<MEAN> 25
 6.464380e-01 -1.341146e+00 -1.276076e+00 -1.114493e+00 2.493628e-01 -7.284873e-01 -5.278096e-01 -6.209152e-01 1.132451e+00 -3.589572e-01 -1.150972e+00 -2.673499e-01 -9.186579e-03 -3.243051e-03 7.551973e-03 2.687381e-03 -6.845628e-03 -1.934005e-02 4.964526e-03 1.257760e-02 2.979429e-03 -5.535542e-03 2.389750e-03 1.137361e-02 1.340326e-02
<VARIANCE> 25
 2.600668e+01 4.265121e+01 3.602563e+01 3.731425e+01 4.919027e+01 5.568438e+01 3.910768e+01 5.124891e+01 5.148997e+01 3.295856e+01 2.777048e+01 1.988366e+01 7.854932e-01 1.112178e+00 9.152339e-01 1.291306e+00 2.011250e+00 2.199648e+00 2.314233e+00 2.140553e+00 2.846859e+00 2.027282e+00 1.821106e+00 1.550784e+00 1.566430e+00
<GCONST> 9.578993e+01
<STATE> 3
<MEAN> 25
 5.875215e-01 -1.341784e+00 -1.227694e+00 -1.076289e+00 2.200229e-01 -8.256963e-01 -4.894112e-01 -5.338696e-01 1.132129e+00 -3.766540e-01 -1.132243e+00 -2.036787e-01 -1.046802e-02 -2.116256e-03 7.512745e-03 6.231134e-03 -6.569105e-03 -2.138956e-02 6.318644e-03 1.530715e-02 2.092665e-03 -3.037021e-03 3.306960e-03 1.173518e-02 1.052591e-02
<VARIANCE> 25
 2.668363e+01 4.314634e+01 3.586034e+01 3.692276e+01 5.178025e+01 5.782521e+01 3.911160e+01 5.076564e+01 5.021029e+01 3.297958e+01 2.787724e+01 2.000840e+01 7.817672e-01 1.109485e+00 9.110638e-01 1.262185e+00 1.996382e+00 2.213959e+00 2.330181e+00 2.140110e+00 2.817599e+00 2.025461e+00 1.826594e+00 1.563714e+00 1.550563e+00
<GCONST> 9.583834e+01
<STATE> 4
<MEAN> 25
 4.392471e-01 -1.192320e+00 -1.110003e+00 -6.891703e-01 2.747563e-01 -8.421463e-01 -3.149919e-01 -1.251877e-01 1.006438e+00 -2.724886e-01 -9.989822e-01 -1.424460e-01 -1.189398e-02 9.909500e-03 1.407529e-02 1.636818e-02 -1.628831e-03 -1.138465e-02 1.195756e-02 2.332505e-02 -9.571445e-03 3.939526e-03 1.202247e-02 1.136971e-02 -1.287503e-02
<VARIANCE> 25
 2.534134e+01 4.148547e+01 3.541317e+01 3.256356e+01 5.533438e+01 5.874767e+01 3.770542e+01 5.000620e+01 4.716705e+01 3.115282e+01 2.655108e+01 1.971759e+01 6.994637e-01 9.953071e-01 8.779653e-01 1.094275e+00 1.868532e+00 2.088330e+00 2.282866e+00 2.068574e+00 2.645479e+00 1.933728e+00 1.753260e+00 1.539717e+00 1.383983e+00
<GCONST> 9.459872e+01
<TRANSP> 5
 0.000000e+00 1.000000e+00 0.000000e+00 0.000000e+00 0.000000e+00
 0.000000e+00 8.186924e-01 1.813075e-01 0.000000e+00 0.000000e+00
 0.000000e+00 0.000000e+00 8.186926e-01 1.813074e-01 0.000000e+00
 0.000000e+00 0.000000e+00 0.000000e+00 9.542803e-01 4.571971e-02
 0.000000e+00 0.000000e+00 0.000000e+00 0.000000e+00 0.000000e+00
<ENDHMM>
~h "s"
<BEGINHMM>
<NUMSTATES> 5
<STATE> 2
<MEAN> 25
 -7.930468e-01 -6.720188e-02 6.364854e-01 -7.847681e-01 -7.178815e-01 -1.457367e+00 -2.128205e-01 -6.638547e-01 2.698914e-01 -1.263289e-01 2.474010e-01 9.105108e-01 6.613812e-03 2.158167e-03 -1.970664e-02 1.905421e-03 1.810197e-02 1.563829e-02 2.654775e-03 -4.982776e-03 3.117355e-03 1.109217e-02 -1.373545e-02 -5.315575e-03 -1.044437e-02
<VARIANCE> 25
 4.485141e+01 3.099181e+01 5.158676e+01 4.768099e+01 8.309184e+01 6.853433e+01 5.183392e+01 6.655379e+01 4.670488e+01 3.330739e+01 3.657109e+01 2.620602e+01 1.478904e+00 1.109458e+00 1.089420e+00 1.586843e+00 2.401959e+00 2.542002e+00 3.037960e+00 2.548926e+00 2.258191e+00 1.850931e+00 1.937741e+00 1.811774e+00 1.231132e+00
<GCONST> 9.979269e+01
<STATE> 3
<MEAN> 25
 -7.474928e-01 -6.705643e-02 5.245695e-01 -7.836551e-01 -6.332135e-01 -1.377017e+00 -2.076912e-01 -7.029991e-01 2.938668e-01 -7.423189e-02 1.728617e-01 8.773571e-01 8.607414e-03 -2.059633e-04 -2.179952e-02 -9.673581e-04 1.640085e-02 1.510179e-02 -3.594118e-07 -6.654723e-03 5.206617e-03 9.314810e-03 -1.394970e-02 -6.987532e-03 -5.933629e-03
<VARIANCE> 25
 4.380907e+01 3.072364e+01 5.150356e+01 4.822802e+01 8.151221e+01 6.749385e+01 5.181455e+01 6.697055e+01 4.754236e+01 3.269375e+01 3.538321e+01 2.616036e+01 1.476835e+00 1.095886e+00 1.082779e+00 1.591676e+00 2.395640e+00 2.513221e+00 3.072030e+00 2.544447e+00 2.238955e+00 1.842237e+00 1.924296e+00 1.807671e+00 1.239073e+00
<GCONST> 9.966859e+01
<STATE> 4
<MEAN> 25
 -6.563081e-01 -1.292707e-01 3.893461e-01 -8.055165e-01 -8.212207e-01 -1.245742e+00 -2.953486e-01 -9.659423e-01 3.002595e-01 -1.507759e-02 1.908574e-01 8.709317e-01 1.109847e-02 -8.677368e-03 -2.528166e-02 -7.289995e-03 8.125992e-03 7.378457e-03 -6.172865e-03 -1.126244e-02 1.176338e-02 3.651065e-03 -1.327314e-02 -9.669825e-03 9.757229e-03
<VARIANCE> 25
 3.953295e+01 2.763687e+01 5.043770e+01 4.799334e+01 7.643041e+01 6.327964e+01 5.118766e+01 6.874482e+01 4.814294e+01 2.957414e+01 3.139646e+01 2.471056e+01 1.446977e+00 1.025986e+00 1.055025e+00 1.611765e+00 2.347708e+00 2.466631e+00 3.061008e+00 2.554817e+00 2.152498e+00 1.777003e+00 1.793962e+00 1.719736e+00 1.213146e+00
<GCONST> 9.870028e+01
<TRANSP> 5
 0.000000e+00 1.000000e+00 0.000000e+00 0.000000e+00 0.000000e+00
 0.000000e+00 8.176972e-01 1.823028e-01 0.000000e+00 0.000000e+00
 0.000000e+00 0.000000e+00 8.176973e-01 1.823027e-01 0.000000e+00
 0.000000e+00 0.000000e+00 0.000000e+00 9.556701e-01 4.432990e-02
 0.000000e+00 0.000000e+00 0.000000e+00 0.000000e+00 0.000000e+00
<ENDHMM>
~h "t"
<BEGINHMM>
<NUMSTATES> 5
<STATE> 2
<MEAN> 25
 2.069449e-01 1.323124e-01 2.537024e-01 -1.566644e-01 -1.017614e+00 -1.003341e+00 -7.355447e-01 -2.685497e-01 2.886209e-02 -1.830517e-01 2.133339e-01 6.085605e-02 6.872325e-04 3.851072e-03 1.601805e-03 5.275799e-03 1.396033e-02 7.217125e-03 4.462885e-03 6.284675e-03 9.961968e-03 3.909035e-03 -9.166225e-03 1.918518e-03 -6.937688e-03
<VARIANCE> 25
 3.402810e+01 3.327637e+01 4.438115e+01 2.969638e+01 7.480602e+01 6.265738e+01 5.594342e+01 4.837304e+01 4.991702e+01 3.321723e+01 4.073069e+01 1.829750e+01 8.113393e-01 1.211907e+00 1.293003e+00 1.243504e+00 2.479146e+00 2.305830e+00 3.260353e+00 2.323477e+00 2.486353e+00 2.029311e+00 2.399382e+00 1.591064e+00 1.456759e+00
<GCONST> 9.810645e+01
<STATE> 3
<MEAN> 25
 2.079124e-01 1.527229e-01 2.602402e-01 -1.328682e-01 -9.435753e-01 -9.645103e-01 -7.131776e-01 -2.413115e-01 9.065591e-02 -1.692054e-01 1.570506e-01 7.059377e-02 1.347906e-03 2.494861e-03 2.327114e-03 4.130422e-03 1.135133e-02 6.768991e-03 2.666041e-03 4.501623e-03 1.277103e-02 1.660313e-03 -7.911555e-03 1.839621e-03 -3.982949e-03
<VARIANCE> 25
 3.372829e+01 3.324453e+01 4.496466e+01 2.934833e+01 7.295580e+01 6.119618e+01 5.606471e+01 4.830077e+01 5.039257e+01 3.299279e+01 4.157742e+01 1.824650e+01 8.178973e-01 1.222755e+00 1.296697e+00 1.230164e+00 2.450392e+00 2.280388e+00 3.224245e+00 2.333622e+00 2.534512e+00 2.036738e+00 2.377784e+00 1.605040e+00 1.464394e+00
<GCONST> 9.807770e+01
<STATE> 4
<MEAN> 25
 2.791108e-01 4.575977e-02 1.186446e-01 -2.397780e-01 -9.339562e-01 -1.090043e+00 -7.783554e-01 -3.803298e-01 4.032229e-01 -2.371544e-01 -3.388969e-02 8.103716e-02 9.354054e-04 -1.919061e-03 -2.163900e-03 -9.297243e-05 9.540942e-03 6.300088e-03 2.033890e-04 3.321051e-05 1.965156e-02 -2.022062e-03 -9.482770e-03 1.590620e-03 3.351873e-03
<VARIANCE> 25
 3.209652e+01 3.446200e+01 4.757780e+01 2.907270e+01 6.862948e+01 5.795222e+01 5.518874e+01 5.012113e+01 5.310831e+01 3.240974e+01 4.182860e+01 1.815358e+01 8.372007e-01 1.253089e+00 1.314090e+00 1.216537e+00 2.445618e+00 2.245966e+00 3.084004e+00 2.404434e+00 2.770581e+00 2.074408e+00 2.281575e+00 1.626035e+00 1.562824e+00
<GCONST> 9.821477e+01
<TRANSP> 5
 0.000000e+00 1.000000e+00 0.000000e+00 0.000000e+00 0.000000e+00
 0.000000e+00 8.136225e-01 1.863775e-01 0.000000e+00 0.000000e+00
 0.000000e+00 0.000000e+00 8.136225e-01 1.863775e-01 0.000000e+00
 0.000000e+00 0.000000e+00 0.000000e+00 9.482476e-01 5.175242e-02
 0.000000e+00 0.000000e+00 0.000000e+00 0.000000e+00 0.000000e+00
<ENDHMM>
~h "u"
<BEGINHMM>
<NUMSTATES> 5
<STATE> 2
<MEAN> 25
 -3.117585e-01 2.292667e-01 4.986445e-01 3.776472e-01 -6.385146e-02 -2.004449e-01 -5.085597e-01 5.881440e-01 6.561730e-02 2.868361e-03 4.005403e-01 2.865267e-01 1.944746e-02 -6.443664e-03 1.491594e-02 7.728484e-03 -2.606647e-02 -5.812562e-04 -3.438650e-04 3.711812e-03 -4.712588e-03 -1.910956e-03 2.300501e-02 2.672820e-03 -3.445998e-03
<VARIANCE> 25
 4.181497e+01 2.534911e+01 3.447868e+01 2.970154e+01 5.146462e+01 4.512603e+01 5.705745e+01 4.206250e+01 4.856005e+01 3.037941e+01 4.206522e+01 1.805112e+01 8.736058e-01 1.000960e+00 9.887186e-01 1.087453e+00 1.798204e+00 1.994143e+00 2.947740e+00 2.147306e+00 2.214199e+00 1.866533e+00 2.310148e+00 1.508569e+00 1.002098e+00
<GCONST> 9.503717e+01
<STATE> 3
<MEAN> 25
 -1.987593e-01 1.981362e-01 5.777913e-01 4.176214e-01 -2.147106e-01 -2.002313e-01 -5.036639e-01 6.031315e-01 4.021914e-02 -6.097994e-03 5.207721e-01 3.008794e-01 2.007937e-02 -5.847735e-03 1.448255e-02 5.809200e-03 -2.751353e-02 -1.563699e-03 -5.216087e-04 2.002950e-03 -2.964012e-03 -2.101919e-03 2.317670e-02 3.044261e-03 -1.586928e-03
<VARIANCE> 25
 4.116110e+01 2.577560e+01 3.549083e+01 2.938556e+01 5.260292e+01 4.527778e+01 5.692692e+01 4.146285e+01 4.796978e+01 3.104459e+01 4.342446e+01 1.814797e+01 8.724078e-01 1.001724e+00 1.002979e+00 1.089517e+00 1.787393e+00 1.970522e+00 2.902424e+00 2.133086e+00 2.227031e+00 1.886883e+00 2.277216e+00 1.513724e+00 9.929553e-01
<GCONST> 9.508351e+01
<STATE> 4
<MEAN> 25
 8.972152e-02 2.087795e-01 6.224927e-01 2.987802e-01 -4.322935e-01 -1.950777e-01 -3.438015e-01 5.233500e-01 -6.446219e-02 -6.035169e-02 4.645360e-01 2.207229e-01 2.246545e-02 -5.189957e-03 5.262192e-03 -6.495879e-04 -2.673739e-02 -2.994929e-03 4.512154e-03 -5.382697e-03 2.516803e-03 -7.978644e-04 1.324298e-02 1.519176e-04 4.345182e-03
<VARIANCE> 25
 3.694377e+01 2.550348e+01 3.091040e+01 2.958628e+01 4.395208e+01 3.946736e+01 4.831196e+01 3.966150e+01 4.434443e+01 2.962889e+01 3.599026e+01 1.775543e+01 8.025459e-01 9.048713e-01 8.873480e-01 1.152461e+00 1.707783e+00 1.774889e+00 2.557975e+00 1.993799e+00 2.148990e+00 1.884016e+00 1.986112e+00 1.427062e+00 9.193419e-01
<GCONST> 9.306761e+01
<TRANSP> 5
 0.000000e+00 1.000000e+00 0.000000e+00 0.000000e+00 0.000000e+00
 0.000000e+00 8.235828e-01 1.764172e-01 0.000000e+00 0.000000e+00
 0.000000e+00 0.000000e+00 8.235828e-01 1.764172e-01 0.000000e+00
 0.000000e+00 0.000000e+00 0.000000e+00 9.640290e-01 3.597102e-02
 0.000000e+00 0.000000e+00 0.000000e+00 0.000000e+00 0.000000e+00
<ENDHMM>
~h "ng"
<BEGINHMM>
<NUMSTATES> 5
<STATE> 2
<MEAN> 25
 2.711044e-07 2.276736e-08 -6.105108e-08 -1.720701e-07 -1.586201e-07 9.768173e-08 -1.135738e-07 -1.298416e-07 7.694315e-08 -1.660590e-07 -1.083516e-07 -5.706868e-08 -2.818740e-03 -4.409721e-03 -4.277692e-03 -1.165964e-03 -3.608679e-03 5.208261e-03 -1.757075e-03 5.998432e-03 4.891248e-03 1.720927e-03 7.501529e-04 -5.307185e-03 6.137643e-03
<VARIANCE> 25
 2.670229e+01 2.794268e+01 3.749357e+01 3.307458e+01 5.256620e+01 4.928031e+01 4.561778e+01 4.954230e+01 4.604616e+01 3.096663e+01 2.869331e+01 1.969207e+01 8.024186e-01 8.637462e-01 9.762595e-01 1.208383e+00 1.860729e+00 1.938551e+00 2.342637e+00 2.054597e+00 2.126093e+00 1.768907e+00 1.840738e+00 1.505519e+00 1.027859e+00
<GCONST> 9.389128e+01
<STATE> 3
<MEAN> 25
 2.711044e-07 2.276736e-08 -6.105108e-08 -1.720701e-07 -1.586201e-07 9.768173e-08 -1.135738e-07 -1.298416e-07 7.694315e-08 -1.660590e-07 -1.083516e-07 -5.706868e-08 -2.818740e-03 -4.409721e-03 -4.277692e-03 -1.165964e-03 -3.608679e-03 5.208261e-03 -1.757075e-03 5.998432e-03 4.891248e-03 1.720927e-03 7.501529e-04 -5.307185e-03 6.137643e-03
<VARIANCE> 25
 2.670229e+01 2.794268e+01 3.749357e+01 3.307458e+01 5.256620e+01 4.928031e+01 4.561778e+01 4.954230e+01 4.604616e+01 3.096663e+01 2.869331e+01 1.969207e+01 8.024186e-01 8.637462e-01 9.762595e-01 1.208383e+00 1.860729e+00 1.938551e+00 2.342637e+00 2.054597e+00 2.126093e+00 1.768907e+00 1.840738e+00 1.505519e+00 1.027859e+00
<GCONST> 9.389128e+01
<STATE> 4
<MEAN> 25
 2.711044e-07 2.276736e-08 -6.105108e-08 -1.720701e-07 -1.586201e-07 9.768173e-08 -1.135738e-07 -1.298416e-07 7.694315e-08 -1.660590e-07 -1.083516e-07 -5.706868e-08 -2.818740e-03 -4.409721e-03 -4.277692e-03 -1.165964e-03 -3.608679e-03 5.208261e-03 -1.757075e-03 5.998432e-03 4.891248e-03 1.720927e-03 7.501529e-04 -5.307185e-03 6.137643e-03
<VARIANCE> 25
 2.670229e+01 2.794268e+01 3.749357e+01 3.307458e+01 5.256620e+01 4.928031e+01 4.561778e+01 4.954230e+01 4.604616e+01 3.096663e+01 2.869331e+01 1.969207e+01 8.024186e-01 8.637462e-01 9.762595e-01 1.208383e+00 1.860729e+00 1.938551e+00 2.342637e+00 2.054597e+00 2.126093e+00 1.768907e+00 1.840738e+00 1.505519e+00 1.027859e+00
<GCONST> 9.389128e+01
<TRANSP> 5
 0.000000e+00 1.000000e+00 0.000000e+00 0.000000e+00 0.000000e+00
 0.000000e+00 6.000000e-01 4.000000e-01 0.000000e+00 0.000000e+00
 0.000000e+00 0.000000e+00 6.000000e-01 4.000000e-01 0.000000e+00
 0.000000e+00 0.000000e+00 0.000000e+00 7.000000e-01 3.000000e-01
 0.000000e+00 0.000000e+00 0.000000e+00 0.000000e+00 0.000000e+00
<ENDHMM>
~h "sil"
<BEGINHMM>
<NUMSTATES> 5
<STATE> 2
<MEAN> 25
 -4.233437e-01 1.670815e+00 6.895253e-02 2.404990e+00 2.594674e+00 3.332455e+00 2.580198e+00 2.867434e+00 -1.996229e+00 1.939318e+00 5.990596e-01 1.150095e-01 -5.987587e-02 -5.074381e-02 -3.502332e-03 -1.021984e-01 4.687815e-03 1.079290e-01 -3.251611e-02 4.185460e-02 8.958787e-02 9.317419e-03 9.646966e-02 1.964746e-02 -2.608944e-02
<VARIANCE> 25
 2.444129e+00 3.671594e+00 7.023906e+00 8.042736e+00 7.482337e+00 1.151239e+01 1.273390e+01 1.641736e+01 1.156207e+01 1.223124e+01 1.282473e+01 1.121395e+01 1.547514e-01 3.273218e-01 6.551821e-01 6.987354e-01 8.459941e-01 1.102277e+00 1.152479e+00 1.302124e+00 1.315002e+00 1.275036e+00 1.217346e+00 1.026232e+00 2.919895e-01
<GCONST> 6.797448e+01
<STATE> 3
<MEAN> 25
 -5.147792e-01 1.607707e+00 -1.082712e-01 2.187845e+00 2.508370e+00 3.494488e+00 2.566522e+00 2.868213e+00 -1.978965e+00 1.946160e+00 8.410547e-01 6.172548e-02 -9.049893e-03 -7.259898e-03 -2.579730e-02 -1.620587e-02 -8.485467e-03 3.149171e-02 3.483540e-03 5.850784e-03 -1.024287e-02 -2.684737e-03 1.622331e-02 -2.396372e-02 7.305011e-03
<VARIANCE> 25
 2.380589e+00 4.137773e+00 7.807081e+00 9.388198e+00 8.167673e+00 1.271797e+01 1.259814e+01 1.573622e+01 1.211227e+01 1.205429e+01 1.130232e+01 1.166322e+01 1.573717e-01 3.681574e-01 7.218024e-01 7.921940e-01 8.342237e-01 1.182122e+00 1.094745e+00 1.315777e+00 1.349859e+00 1.191920e+00 1.152248e+00 1.224203e+00 3.336238e-01
<GCONST> 6.899223e+01
<STATE> 4
<MEAN> 25
 -5.959762e-01 1.391244e+00 -2.923100e-01 2.110993e+00 2.291703e+00 3.099365e+00 2.390791e+00 2.660798e+00 -2.069551e+00 1.879247e+00 5.885573e-01 -1.672444e-01 -1.917413e-02 -3.243765e-02 -2.846027e-02 1.521667e-02 -3.112637e-02 3.785675e-02 -6.379235e-03 5.052140e-02 2.471624e-02 1.610283e-02 -2.246409e-02 -4.689988e-02 5.715802e-02
<VARIANCE> 25
 2.339017e+00 4.454144e+00 7.436996e+00 8.765598e+00 8.907650e+00 1.309774e+01 1.222502e+01 1.479750e+01 1.383295e+01 1.204997e+01 1.182094e+01 1.297291e+01 1.639068e-01 4.360544e-01 7.505229e-01 8.299193e-01 8.980148e-01 1.205329e+00 1.140404e+00 1.447313e+00 1.555432e+00 1.285460e+00 1.125757e+00 1.312553e+00 4.050981e-01
<GCONST> 7.022202e+01
<TRANSP> 5
 0.000000e+00 1.000000e+00 0.000000e+00 0.000000e+00 0.000000e+00
 0.000000e+00 8.265104e-01 1.734895e-01 0.000000e+00 0.000000e+00
 0.000000e+00 0.000000e+00 8.265104e-01 1.734895e-01 0.000000e+00
 0.000000e+00 0.000000e+00 0.000000e+00 9.653543e-01 3.464568e-02
 0.000000e+00 0.000000e+00 0.000000e+00 0.000000e+00 0.000000e+00
<ENDHMM>
