~o
<STREAMINFO> 1 25
<VECSIZE> 25<NULLD><MFCC_D_N_Z_0><DIAGC>
~t "T_E"
<TRANSP> 5
 0.000000e+00 1.000000e+00 0.000000e+00 0.000000e+00 0.000000e+00
 0.000000e+00 6.043979e-01 3.956021e-01 0.000000e+00 0.000000e+00
 0.000000e+00 0.000000e+00 7.823082e-01 2.176919e-01 0.000000e+00
 0.000000e+00 0.000000e+00 0.000000e+00 7.082906e-01 2.917095e-01
 0.000000e+00 0.000000e+00 0.000000e+00 0.000000e+00 0.000000e+00
~t "T_K"
<TRANSP> 5
 0.000000e+00 1.000000e+00 0.000000e+00 0.000000e+00 0.000000e+00
 0.000000e+00 6.000000e-01 4.000000e-01 0.000000e+00 0.000000e+00
 0.000000e+00 0.000000e+00 6.000000e-01 4.000000e-01 0.000000e+00
 0.000000e+00 0.000000e+00 0.000000e+00 7.000000e-01 3.000000e-01
 0.000000e+00 0.000000e+00 0.000000e+00 0.000000e+00 0.000000e+00
~t "T_a"
<TRANSP> 5
 0.000000e+00 1.000000e+00 0.000000e+00 0.000000e+00 0.000000e+00
 0.000000e+00 8.611588e-01 1.388411e-01 0.000000e+00 0.000000e+00
 0.000000e+00 0.000000e+00 8.108980e-01 1.891020e-01 0.000000e+00
 0.000000e+00 0.000000e+00 0.000000e+00 9.157050e-01 8.429503e-02
 0.000000e+00 0.000000e+00 0.000000e+00 0.000000e+00 0.000000e+00
~t "T_b"
<TRANSP> 5
 0.000000e+00 1.000000e+00 0.000000e+00 0.000000e+00 0.000000e+00
 0.000000e+00 6.836321e-01 3.163679e-01 0.000000e+00 0.000000e+00
 0.000000e+00 0.000000e+00 7.896892e-01 2.103108e-01 0.000000e+00
 0.000000e+00 0.000000e+00 0.000000e+00 8.343582e-01 1.656418e-01
 0.000000e+00 0.000000e+00 0.000000e+00 0.000000e+00 0.000000e+00
~t "T_c"
<TRANSP> 5
 0.000000e+00 1.000000e+00 0.000000e+00 0.000000e+00 0.000000e+00
 0.000000e+00 9.670919e-01 3.290804e-02 0.000000e+00 0.000000e+00
 0.000000e+00 0.000000e+00 4.947681e-01 5.052319e-01 0.000000e+00
 0.000000e+00 0.000000e+00 0.000000e+00 6.614465e-01 3.385535e-01
 0.000000e+00 0.000000e+00 0.000000e+00 0.000000e+00 0.000000e+00
~t "T_d"
<TRANSP> 5
 0.000000e+00 1.000000e+00 0.000000e+00 0.000000e+00 0.000000e+00
 0.000000e+00 8.746745e-01 1.253255e-01 0.000000e+00 0.000000e+00
 0.000000e+00 0.000000e+00 6.774541e-01 3.225459e-01 0.000000e+00
 0.000000e+00 0.000000e+00 0.000000e+00 8.189576e-01 1.810425e-01
 0.000000e+00 0.000000e+00 0.000000e+00 0.000000e+00 0.000000e+00
~t "T_e"
<TRANSP> 5
 0.000000e+00 1.000000e+00 0.000000e+00 0.000000e+00 0.000000e+00
 0.000000e+00 3.040978e-01 6.959022e-01 0.000000e+00 0.000000e+00
 0.000000e+00 0.000000e+00 5.090476e-01 4.909523e-01 0.000000e+00
 0.000000e+00 0.000000e+00 0.000000e+00 7.894443e-01 2.105557e-01
 0.000000e+00 0.000000e+00 0.000000e+00 0.000000e+00 0.000000e+00
~t "T_f"
<TRANSP> 5
 0.000000e+00 1.000000e+00 0.000000e+00 0.000000e+00 0.000000e+00
 0.000000e+00 9.532817e-01 4.671827e-02 0.000000e+00 0.000000e+00
 0.000000e+00 0.000000e+00 7.224103e-01 2.775897e-01 0.000000e+00
 0.000000e+00 0.000000e+00 0.000000e+00 7.326801e-01 2.673198e-01
 0.000000e+00 0.000000e+00 0.000000e+00 0.000000e+00 0.000000e+00
~t "T_g"
<TRANSP> 5
 0.000000e+00 1.000000e+00 0.000000e+00 0.000000e+00 0.000000e+00
 0.000000e+00 8.602935e-01 1.397064e-01 0.000000e+00 0.000000e+00
 0.000000e+00 0.000000e+00 8.570323e-01 1.429677e-01 0.000000e+00
 0.000000e+00 0.000000e+00 0.000000e+00 8.012605e-01 1.987395e-01
 0.000000e+00 0.000000e+00 0.000000e+00 0.000000e+00 0.000000e+00
~t "T_h"
<TRANSP> 5
 0.000000e+00 1.000000e+00 0.000000e+00 0.000000e+00 0.000000e+00
 0.000000e+00 9.319042e-01 6.809579e-02 0.000000e+00 0.000000e+00
 0.000000e+00 0.000000e+00 8.048393e-01 1.951608e-01 0.000000e+00
 0.000000e+00 0.000000e+00 0.000000e+00 6.385118e-01 3.614882e-01
 0.000000e+00 0.000000e+00 0.000000e+00 0.000000e+00 0.000000e+00
~t "T_i"
<TRANSP> 5
 0.000000e+00 1.000000e+00 0.000000e+00 0.000000e+00 0.000000e+00
 0.000000e+00 8.283761e-01 1.716238e-01 0.000000e+00 0.000000e+00
 0.000000e+00 0.000000e+00 7.127499e-01 2.872501e-01 0.000000e+00
 0.000000e+00 0.000000e+00 0.000000e+00 8.356770e-01 1.643230e-01
 0.000000e+00 0.000000e+00 0.000000e+00 0.000000e+00 0.000000e+00
~t "T_j"
<TRANSP> 5
 0.000000e+00 1.000000e+00 0.000000e+00 0.000000e+00 0.000000e+00
 0.000000e+00 9.598432e-01 4.015675e-02 0.000000e+00 0.000000e+00
 0.000000e+00 0.000000e+00 8.699872e-01 1.300128e-01 0.000000e+00
 0.000000e+00 0.000000e+00 0.000000e+00 8.536187e-01 1.463813e-01
 0.000000e+00 0.000000e+00 0.000000e+00 0.000000e+00 0.000000e+00
~t "T_k"
<TRANSP> 5
 0.000000e+00 1.000000e+00 0.000000e+00 0.000000e+00 0.000000e+00
 0.000000e+00 8.001430e-01 1.998570e-01 0.000000e+00 0.000000e+00
 0.000000e+00 0.000000e+00 4.700088e-01 5.299911e-01 0.000000e+00
 0.000000e+00 0.000000e+00 0.000000e+00 5.690091e-01 4.309909e-01
 0.000000e+00 0.000000e+00 0.000000e+00 0.000000e+00 0.000000e+00
~t "T_l"
<TRANSP> 5
 0.000000e+00 1.000000e+00 0.000000e+00 0.000000e+00 0.000000e+00
 0.000000e+00 8.773293e-01 1.226707e-01 0.000000e+00 0.000000e+00
 0.000000e+00 0.000000e+00 7.325807e-01 2.674192e-01 0.000000e+00
 0.000000e+00 0.000000e+00 0.000000e+00 5.312055e-01 4.687944e-01
 0.000000e+00 0.000000e+00 0.000000e+00 0.000000e+00 0.000000e+00
~t "T_m"
<TRANSP> 5
 0.000000e+00 1.000000e+00 0.000000e+00 0.000000e+00 0.000000e+00
 0.000000e+00 8.221184e-01 1.778816e-01 0.000000e+00 0.000000e+00
 0.000000e+00 0.000000e+00 8.293057e-01 1.706943e-01 0.000000e+00
 0.000000e+00 0.000000e+00 0.000000e+00 6.572680e-01 3.427320e-01
 0.000000e+00 0.000000e+00 0.000000e+00 0.000000e+00 0.000000e+00
~t "T_n"
<TRANSP> 5
 0.000000e+00 1.000000e+00 0.000000e+00 0.000000e+00 0.000000e+00
 0.000000e+00 8.145120e-01 1.854881e-01 0.000000e+00 0.000000e+00
 0.000000e+00 0.000000e+00 6.648971e-01 3.351029e-01 0.000000e+00
 0.000000e+00 0.000000e+00 0.000000e+00 9.217714e-01 7.822859e-02
 0.000000e+00 0.000000e+00 0.000000e+00 0.000000e+00 0.000000e+00
~t "T_o"
<TRANSP> 5
 0.000000e+00 1.000000e+00 0.000000e+00 0.000000e+00 0.000000e+00
 0.000000e+00 5.994239e-01 4.005761e-01 0.000000e+00 0.000000e+00
 0.000000e+00 0.000000e+00 7.149853e-01 2.850147e-01 0.000000e+00
 0.000000e+00 0.000000e+00 0.000000e+00 6.590288e-01 3.409712e-01
 0.000000e+00 0.000000e+00 0.000000e+00 0.000000e+00 0.000000e+00
~t "T_p"
<TRANSP> 5
 0.000000e+00 1.000000e+00 0.000000e+00 0.000000e+00 0.000000e+00
 0.000000e+00 7.358966e-01 2.641034e-01 0.000000e+00 0.000000e+00
 0.000000e+00 0.000000e+00 7.457297e-01 2.542703e-01 0.000000e+00
 0.000000e+00 0.000000e+00 0.000000e+00 6.635637e-01 3.364363e-01
 0.000000e+00 0.000000e+00 0.000000e+00 0.000000e+00 0.000000e+00
~t "T_r"
<TRANSP> 5
 0.000000e+00 1.000000e+00 0.000000e+00 0.000000e+00 0.000000e+00
 0.000000e+00 6.728657e-01 3.271343e-01 0.000000e+00 0.000000e+00
 0.000000e+00 0.000000e+00 6.882358e-01 3.117642e-01 0.000000e+00
 0.000000e+00 0.000000e+00 0.000000e+00 8.892357e-01 1.107643e-01
 0.000000e+00 0.000000e+00 0.000000e+00 0.000000e+00 0.000000e+00
~t "T_s"
<TRANSP> 5
 0.000000e+00 1.000000e+00 0.000000e+00 0.000000e+00 0.000000e+00
 0.000000e+00 7.997565e-01 2.002435e-01 0.000000e+00 0.000000e+00
 0.000000e+00 0.000000e+00 4.404988e-01 5.595012e-01 0.000000e+00
 0.000000e+00 0.000000e+00 0.000000e+00 6.468459e-01 3.531541e-01
 0.000000e+00 0.000000e+00 0.000000e+00 0.000000e+00 0.000000e+00
~t "T_t"
<TRANSP> 5
 0.000000e+00 1.000000e+00 0.000000e+00 0.000000e+00 0.000000e+00
 0.000000e+00 8.980529e-01 1.019470e-01 0.000000e+00 0.000000e+00
 0.000000e+00 0.000000e+00 5.330324e-01 4.669676e-01 0.000000e+00
 0.000000e+00 0.000000e+00 0.000000e+00 6.032699e-01 3.967302e-01
 0.000000e+00 0.000000e+00 0.000000e+00 0.000000e+00 0.000000e+00
~t "T_u"
<TRANSP> 5
 0.000000e+00 1.000000e+00 0.000000e+00 0.000000e+00 0.000000e+00
 0.000000e+00 8.424833e-01 1.575166e-01 0.000000e+00 0.000000e+00
 0.000000e+00 0.000000e+00 6.490482e-01 3.509518e-01 0.000000e+00
 0.000000e+00 0.000000e+00 0.000000e+00 8.953563e-01 1.046437e-01
 0.000000e+00 0.000000e+00 0.000000e+00 0.000000e+00 0.000000e+00
~t "T_w"
<TRANSP> 5
 0.000000e+00 1.000000e+00 0.000000e+00 0.000000e+00 0.000000e+00
 0.000000e+00 9.589300e-01 4.107009e-02 0.000000e+00 0.000000e+00
 0.000000e+00 0.000000e+00 7.598807e-01 2.401192e-01 0.000000e+00
 0.000000e+00 0.000000e+00 0.000000e+00 9.478725e-01 5.212752e-02
 0.000000e+00 0.000000e+00 0.000000e+00 0.000000e+00 0.000000e+00
~t "T_x"
<TRANSP> 5
 0.000000e+00 1.000000e+00 0.000000e+00 0.000000e+00 0.000000e+00
 0.000000e+00 8.537037e-01 1.462963e-01 0.000000e+00 0.000000e+00
 0.000000e+00 0.000000e+00 9.060663e-01 9.393365e-02 0.000000e+00
 0.000000e+00 0.000000e+00 0.000000e+00 9.199638e-01 8.003624e-02
 0.000000e+00 0.000000e+00 0.000000e+00 0.000000e+00 0.000000e+00
~t "T_y"
<TRANSP> 5
 0.000000e+00 1.000000e+00 0.000000e+00 0.000000e+00 0.000000e+00
 0.000000e+00 8.932188e-01 1.067812e-01 0.000000e+00 0.000000e+00
 0.000000e+00 0.000000e+00 8.648658e-01 1.351342e-01 0.000000e+00
 0.000000e+00 0.000000e+00 0.000000e+00 9.573640e-01 4.263608e-02
 0.000000e+00 0.000000e+00 0.000000e+00 0.000000e+00 0.000000e+00
~t "T_z"
<TRANSP> 5
 0.000000e+00 1.000000e+00 0.000000e+00 0.000000e+00 0.000000e+00
 0.000000e+00 8.333426e-01 1.666574e-01 0.000000e+00 0.000000e+00
 0.000000e+00 0.000000e+00 7.152647e-01 2.847353e-01 0.000000e+00
 0.000000e+00 0.000000e+00 0.000000e+00 4.287834e-01 5.712166e-01
 0.000000e+00 0.000000e+00 0.000000e+00 0.000000e+00 0.000000e+00
~t "T_ah"
<TRANSP> 5
 0.000000e+00 1.000000e+00 0.000000e+00 0.000000e+00 0.000000e+00
 0.000000e+00 6.000000e-01 4.000000e-01 0.000000e+00 0.000000e+00
 0.000000e+00 0.000000e+00 6.000000e-01 4.000000e-01 0.000000e+00
 0.000000e+00 0.000000e+00 0.000000e+00 7.000000e-01 3.000000e-01
 0.000000e+00 0.000000e+00 0.000000e+00 0.000000e+00 0.000000e+00
~t "T_aw"
<TRANSP> 5
 0.000000e+00 1.000000e+00 0.000000e+00 0.000000e+00 0.000000e+00
 0.000000e+00 6.000000e-01 4.000000e-01 0.000000e+00 0.000000e+00
 0.000000e+00 0.000000e+00 6.000000e-01 4.000000e-01 0.000000e+00
 0.000000e+00 0.000000e+00 0.000000e+00 7.000000e-01 3.000000e-01
 0.000000e+00 0.000000e+00 0.000000e+00 0.000000e+00 0.000000e+00
~t "T_ay"
<TRANSP> 5
 0.000000e+00 1.000000e+00 0.000000e+00 0.000000e+00 0.000000e+00
 0.000000e+00 8.924789e-01 1.075211e-01 0.000000e+00 0.000000e+00
 0.000000e+00 0.000000e+00 9.218850e-01 7.811503e-02 0.000000e+00
 0.000000e+00 0.000000e+00 0.000000e+00 9.734353e-01 2.656463e-02
 0.000000e+00 0.000000e+00 0.000000e+00 0.000000e+00 0.000000e+00
~t "T_kh"
<TRANSP> 5
 0.000000e+00 1.000000e+00 0.000000e+00 0.000000e+00 0.000000e+00
 0.000000e+00 9.764016e-01 2.359846e-02 0.000000e+00 0.000000e+00
 0.000000e+00 0.000000e+00 7.732393e-01 2.267607e-01 0.000000e+00
 0.000000e+00 0.000000e+00 0.000000e+00 8.211033e-01 1.788967e-01
 0.000000e+00 0.000000e+00 0.000000e+00 0.000000e+00 0.000000e+00
~t "T_ng"
<TRANSP> 5
 0.000000e+00 1.000000e+00 0.000000e+00 0.000000e+00 0.000000e+00
 0.000000e+00 8.751928e-01 1.248072e-01 0.000000e+00 0.000000e+00
 0.000000e+00 0.000000e+00 7.607644e-01 2.392357e-01 0.000000e+00
 0.000000e+00 0.000000e+00 0.000000e+00 9.476473e-01 5.235270e-02
 0.000000e+00 0.000000e+00 0.000000e+00 0.000000e+00 0.000000e+00
~t "T_ny"
<TRANSP> 5
 0.000000e+00 1.000000e+00 0.000000e+00 0.000000e+00 0.000000e+00
 0.000000e+00 9.232094e-01 7.679065e-02 0.000000e+00 0.000000e+00
 0.000000e+00 0.000000e+00 7.434373e-01 2.565627e-01 0.000000e+00
 0.000000e+00 0.000000e+00 0.000000e+00 9.631290e-01 3.687099e-02
 0.000000e+00 0.000000e+00 0.000000e+00 0.000000e+00 0.000000e+00
~t "T_sy"
<TRANSP> 5
 0.000000e+00 1.000000e+00 0.000000e+00 0.000000e+00 0.000000e+00
 0.000000e+00 9.530201e-01 4.697990e-02 0.000000e+00 0.000000e+00
 0.000000e+00 0.000000e+00 7.024363e-01 2.975637e-01 0.000000e+00
 0.000000e+00 0.000000e+00 0.000000e+00 9.251147e-01 7.488530e-02
 0.000000e+00 0.000000e+00 0.000000e+00 0.000000e+00 0.000000e+00
~s "ST_f_2_1"
<MEAN> 25
 -3.002616e+00 1.336107e+00 7.303182e-01 4.538387e+00 3.590364e+00 3.928725e+00 2.386686e+00 3.067608e+00 1.950736e+00 2.668928e+00 2.858251e+00 -1.785872e-01 -1.068685e-01 1.250555e-02 -4.598360e-02 3.053947e-02 -5.206134e-02 1.722548e-02 4.666036e-02 -9.404230e-03 3.052521e-02 7.125463e-02 3.236322e-02 -4.510649e-03 9.000764e-02
<VARIANCE> 25
 5.644389e+00 6.106446e+00 1.300872e+01 1.021419e+01 1.245072e+01 1.278373e+01 1.533277e+01 1.446110e+01 1.463830e+01 1.548803e+01 1.655905e+01 1.161406e+01 1.887884e-01 3.202703e-01 5.311656e-01 6.362911e-01 8.843516e-01 9.278374e-01 1.252052e+00 1.250767e+00 1.339083e+00 1.348525e+00 1.422130e+00 1.140364e+00 2.203233e-01
<GCONST> 7.145267e+01
~s "ST_f_3_1"
<MEAN> 25
 -4.430209e+00 5.122789e+00 -4.601725e+00 3.406885e+00 3.201898e+00 1.925796e+00 2.583086e+00 1.092669e+00 1.970858e+00 3.393445e+00 3.197118e+00 -4.004169e-01 4.125003e-01 -7.633498e-01 -1.301758e-01 -3.003753e-01 -2.741792e-01 -1.045452e-01 -9.375922e-02 -7.146642e-02 -4.546116e-02 -2.041810e-01 -1.847981e-01 2.078667e-02 5.038288e-01
<VARIANCE> 25
 7.885559e+00 3.501385e+01 2.067721e+01 1.058099e+01 3.156217e+01 2.531285e+01 2.513247e+01 2.084793e+01 2.248182e+01 1.682458e+01 2.576100e+01 1.852628e+01 7.095219e-01 2.859818e+00 2.034112e+00 1.672669e+00 1.964189e+00 2.090220e+00 2.020231e+00 1.968824e+00 2.217679e+00 1.772547e+00 2.336295e+00 1.563862e+00 1.166728e+00
<GCONST> 8.954796e+01
~s "ST_kh_2_1"
<MEAN> 25
 -6.947805e-01 1.274621e+00 -1.192982e+00 2.398501e+00 3.452945e+00 4.062744e+00 4.820702e+00 1.919761e+00 1.718755e+00 2.693704e+00 2.794142e+00 2.366195e-01 3.104647e-03 5.172705e-03 -7.169704e-03 3.880513e-03 7.757214e-03 2.172872e-02 -6.635142e-03 -2.863611e-02 2.091909e-02 2.820960e-02 -2.804709e-02 -3.781956e-02 -8.833314e-03
<VARIANCE> 25
 1.044688e+00 1.875025e+00 4.777231e+00 6.078469e+00 1.279997e+01 1.116759e+01 1.866135e+01 1.255886e+01 1.476928e+01 1.452951e+01 1.224991e+01 1.061739e+01 8.398695e-02 1.661718e-01 3.698576e-01 5.432853e-01 7.726816e-01 9.095847e-01 1.039959e+00 1.274377e+00 1.095095e+00 1.362592e+00 1.181832e+00 1.011157e+00 3.522378e-02
<GCONST> 6.192871e+01
~s "ST_f_4_1"
<MEAN> 25
 -9.273958e-01 -8.003674e+00 -2.068713e+00 1.544564e+00 -3.371719e+00 3.015188e+00 -5.857540e-01 -1.449029e+00 1.190449e+00 -1.821678e+00 4.012867e-01 -1.758665e-01 1.617659e+00 -1.727195e+00 7.224473e-01 -1.695197e+00 -9.982878e-01 -4.163823e-01 -1.442518e+00 -1.471038e+00 -7.417576e-01 -8.167336e-01 -1.279792e+00 -1.500586e-01 2.058558e+00
<VARIANCE> 25
 1.302761e+01 7.817075e+01 4.043129e+01 2.410693e+01 4.514223e+01 2.491343e+01 3.522416e+01 2.396125e+01 1.637303e+01 3.089861e+01 2.146639e+01 1.295325e+01 3.004670e+00 8.547521e+00 3.977288e+00 4.314310e+00 3.728501e+00 4.476782e+00 3.684791e+00 4.172527e+00 2.679957e+00 3.247983e+00 5.171064e+00 2.046223e+00 3.161566e+00
<GCONST> 1.026825e+02
~s "ST_kh_3_1"
<MEAN> 25
 -2.025045e+00 -1.080232e+00 -6.436145e+00 6.024754e-01 7.941594e+00 1.506206e+00 -6.881157e-01 5.153621e+00 4.432471e+00 6.461688e+00 -1.163239e+00 2.057748e-01 -8.125588e-01 -1.402323e+00 -5.862082e-01 -9.617847e-02 1.833860e+00 -1.946327e+00 -2.978545e+00 8.588344e-01 1.455304e+00 7.735736e-01 -1.661334e+00 7.520596e-02 3.741599e+00
<VARIANCE> 25
 5.466809e+00 2.247031e+01 3.296462e+01 1.613385e+01 3.547353e+01 2.974146e+01 7.181868e+01 2.232692e+01 3.856769e+01 2.145327e+01 3.620559e+01 1.480132e+01 5.311266e-01 2.120248e+00 3.269256e+00 2.419824e+00 2.784663e+00 1.743908e+00 3.045660e+00 3.130636e+00 4.352682e+00 1.814454e+00 1.552009e+00 1.912747e+00 2.985672e+00
<GCONST> 9.464841e+01
~s "ST_kh_4_1"
<MEAN> 25
 -7.341264e+00 -8.032888e+00 1.601061e+00 3.058023e+00 9.248602e+00 -2.346601e+00 -4.377935e+00 -5.113873e-01 5.536169e+00 2.148972e+00 -2.163045e+00 3.278157e+00 5.814200e-01 -4.401646e-01 5.932219e-01 -1.180729e-01 -1.243276e+00 -4.949178e-01 3.740526e-01 -1.843828e+00 -1.554594e+00 -1.278065e+00 4.839997e-01 4.493220e-01 5.398889e-02
<VARIANCE> 25
 1.933360e+01 2.699473e+01 1.036065e+01 7.499546e+00 2.191469e+01 3.679054e+01 3.393579e+01 4.008317e+01 3.008251e+01 2.082368e+01 1.728540e+01 2.468222e+01 5.008485e+00 1.375172e+00 2.362695e+00 1.057444e+00 2.518621e+00 4.233291e+00 3.464302e+00 3.836210e+00 4.227241e+00 2.778923e+00 1.608699e+00 2.950312e+00 7.683004e-01
<GCONST> 9.451751e+01
~s "ST_s_2_1"
<MEAN> 25
 -1.008447e+01 2.763584e+00 -3.115581e+00 5.641208e+00 -1.628450e+00 3.367979e+00 5.379251e+00 3.133148e+00 2.989459e+00 4.096505e+00 3.649243e+00 -3.545563e-01 -2.592836e-02 -1.908249e-01 1.151738e-01 -7.506568e-02 -5.819717e-02 -3.408968e-02 -8.470596e-02 3.263782e-02 7.893170e-02 -5.222191e-03 8.681002e-02 -5.350568e-02 1.531808e-01
<VARIANCE> 25
 2.163112e+01 3.067167e+01 1.910534e+01 1.690231e+01 2.089326e+01 2.993316e+01 2.550435e+01 1.946144e+01 1.859655e+01 2.042188e+01 1.628983e+01 1.533635e+01 1.333187e+00 1.357345e+00 9.529338e-01 1.539302e+00 1.286175e+00 1.638724e+00 1.548135e+00 1.390690e+00 1.668958e+00 1.655978e+00 1.470505e+00 1.152612e+00 8.126625e-01
<GCONST> 8.615329e+01
~s "ST_s_3_1"
<MEAN> 25
 -5.859570e+00 -1.054034e+00 -1.246203e+00 2.843307e+00 -1.710746e+00 1.195295e+00 4.724429e+00 2.544429e+00 3.344422e+00 2.959296e+00 2.454562e+00 1.599603e-01 2.454551e+00 -6.087384e-01 8.318956e-01 -1.391991e+00 -1.238079e+00 -1.060282e+00 -2.195659e+00 -1.489179e+00 -5.434882e-01 -1.324398e+00 -1.240095e+00 3.248306e-02 8.327617e-01
<VARIANCE> 25
 2.099916e+01 6.471046e+01 2.976747e+01 1.926447e+01 3.023877e+01 3.946961e+01 2.968729e+01 2.567722e+01 2.340476e+01 2.268630e+01 1.877472e+01 1.496208e+01 4.990834e+00 7.012346e+00 3.854948e+00 4.045398e+00 4.203301e+00 4.517657e+00 5.550499e+00 5.220698e+00 2.567754e+00 2.297444e+00 2.986213e+00 1.649640e+00 3.429184e+00
<GCONST> 1.023610e+02
~s "ST_s_4_1"
<MEAN> 25
 3.980633e+00 -8.541565e+00 2.297491e+00 -3.952428e+00 -5.838378e+00 1.409749e+00 -4.224165e+00 -3.882821e+00 1.228340e-01 -1.504039e+00 -5.134115e-01 -4.525873e-01 1.369857e+00 1.717580e-01 4.029861e-01 -1.327748e+00 -4.084371e-01 -7.099488e-01 -1.423633e+00 -8.907552e-01 -4.017985e-01 -6.471101e-01 -6.975842e-01 1.385830e-01 9.130314e-01
<VARIANCE> 25
 5.278592e+01 1.360585e+02 6.451586e+01 6.938198e+01 5.912945e+01 5.462267e+01 6.500091e+01 6.001195e+01 3.196359e+01 4.123326e+01 3.639037e+01 2.335864e+01 6.161428e+00 7.557166e+00 3.791260e+00 6.806702e+00 5.345738e+00 5.640120e+00 7.662107e+00 6.494648e+00 3.025429e+00 5.551933e+00 4.861305e+00 2.832989e+00 6.994556e+00
<GCONST> 1.153049e+02
~s "ST_i_2_1"
<MEAN> 25
 3.404863e+00 2.860991e+00 1.620780e+01 -1.600859e+01 -1.605182e+01 -1.731985e+00 -1.585966e+01 -1.088977e+01 2.657360e+00 -2.912309e+00 -5.189182e+00 2.685747e+00 -1.002346e-01 2.620274e-01 9.563504e-02 -6.688268e-01 2.171739e-01 3.266637e-01 -6.843821e-01 2.794137e-01 4.008502e-01 -2.117621e-01 1.964707e-01 5.246090e-01 -3.619368e-01
<VARIANCE> 25
 1.436676e+01 1.101196e+02 3.297211e+01 3.026134e+01 2.176916e+01 1.464841e+01 2.908756e+01 2.219045e+01 1.744857e+01 2.021612e+01 1.570617e+01 2.134111e+01 7.543640e-01 1.393329e+00 1.735623e+00 2.360594e+00 2.507240e+00 2.063874e+00 2.603746e+00 2.594688e+00 1.811817e+00 2.630702e+00 2.153998e+00 2.463318e+00 1.143139e+00
<GCONST> 9.251264e+01
~s "ST_i_2_2"
<MEAN> 25
 4.322569e+00 1.335003e+00 1.381895e+01 -1.245791e+01 -1.503034e+01 -3.052996e+00 -1.246191e+01 -8.909779e+00 -9.642498e-01 -7.154140e-01 -4.882781e+00 2.282655e+00 2.407616e-01 2.989877e-01 4.415858e-01 -4.892045e-01 -8.923526e-01 1.010209e-01 -5.057900e-01 -6.202900e-01 -6.945865e-02 1.060994e-01 -4.523475e-01 -4.089099e-02 4.235397e-01
<VARIANCE> 25
 2.614566e+01 1.290747e+02 3.898341e+01 4.000481e+01 4.932651e+01 2.245371e+01 6.094574e+01 3.751770e+01 1.803850e+01 3.386286e+01 2.126519e+01 1.946824e+01 2.090356e+00 3.843193e+00 3.822371e+00 5.679937e+00 5.070033e+00 3.257713e+00 6.376460e+00 4.125302e+00 1.947963e+00 3.939577e+00 2.684544e+00 2.564400e+00 3.534685e+00
<GCONST> 1.050738e+02
~s "ST_i_3_1"
<MEAN> 25
 2.176655e+00 1.080818e+00 8.445999e+00 -4.842216e+00 -1.273737e+01 -8.728127e-01 -8.193169e+00 -6.985720e+00 -6.271845e-01 -1.407574e+00 -1.677130e+00 9.351364e-01 -8.375925e-01 -4.988068e-01 -2.078419e+00 2.785606e+00 2.067511e+00 3.979819e-01 2.368836e+00 1.626853e+00 -6.142055e-02 1.728292e-01 1.179766e+00 -4.719826e-01 -2.066396e+00
<VARIANCE> 25
 2.836452e+01 8.535076e+01 3.856495e+01 4.848995e+01 5.459866e+01 4.734203e+01 6.440414e+01 4.009133e+01 3.763066e+01 4.002250e+01 3.544404e+01 3.547421e+01 2.351952e+00 6.065570e+00 3.086162e+00 2.967733e+00 3.422163e+00 4.715624e+00 4.803000e+00 3.572618e+00 4.057038e+00 4.969481e+00 3.080817e+00 3.000373e+00 3.738664e+00
<GCONST> 1.084830e+02
~s "ST_i_4_1"
<MEAN> 25
 -2.103817e+00 2.219607e+00 7.663735e-01 2.537258e+00 -1.890451e-01 2.609160e+00 1.912179e+00 5.882186e-01 7.170879e-01 1.932225e+00 3.495532e+00 6.107695e-01 -1.170000e-01 -1.791793e-02 -2.775139e-01 3.260776e-01 6.080201e-01 -8.681701e-02 5.386871e-01 3.276887e-01 -1.224366e-01 2.873815e-02 5.721877e-02 -2.654263e-01 -2.026450e-01
<VARIANCE> 25
 4.993580e+00 2.385341e+01 2.281772e+01 1.168432e+01 2.598030e+01 2.842044e+01 2.573505e+01 2.030410e+01 2.242596e+01 1.732430e+01 2.634950e+01 1.438353e+01 3.461384e-01 1.107205e+00 1.117560e+00 9.485080e-01 2.379572e+00 1.931833e+00 2.435873e+00 1.744532e+00 2.472314e+00 1.785811e+00 2.467914e+00 1.339506e+00 5.002446e-01
<GCONST> 8.513521e+01
~s "ST_i_4_2"
<MEAN> 25
 -3.745172e+00 9.721525e-01 3.101106e+00 6.216238e+00 2.067999e+00 3.781480e+00 2.143186e+00 2.898489e+00 2.616975e+00 2.748049e+00 3.264570e+00 7.749140e-01 -1.410895e-02 -7.746343e-02 -5.702279e-02 1.171340e-01 2.033995e-01 -2.276320e-02 2.469827e-01 1.079652e-01 -3.828007e-02 2.306800e-02 -5.519728e-02 -8.586600e-02 -7.062458e-02
<VARIANCE> 25
 2.461078e+00 5.174047e+00 9.697023e+00 1.140819e+01 1.781246e+01 1.754389e+01 1.821207e+01 1.743830e+01 1.584928e+01 1.544986e+01 1.539641e+01 1.359928e+01 1.713596e-01 4.097692e-01 6.876389e-01 6.604914e-01 1.245407e+00 1.514436e+00 1.646168e+00 1.498012e+00 1.549300e+00 1.142968e+00 1.356050e+00 1.298009e+00 1.277677e-01
<GCONST> 7.271854e+01
~s "ST_i_4_3"
<MEAN> 25
 4.646740e-03 6.589964e-01 2.532779e+00 2.074188e+00 -6.472039e+00 -7.737803e-01 -2.285581e-02 -1.675185e+00 2.836550e-01 1.816081e+00 1.747755e-01 -7.246417e-01 -1.543127e-01 -3.520102e-01 -9.434953e-01 1.074957e+00 1.470098e+00 -7.724566e-02 8.556936e-01 1.086922e+00 9.478038e-02 2.585061e-01 2.620023e-01 -9.616450e-02 -7.510035e-01
<VARIANCE> 25
 3.521264e+01 6.609055e+01 2.373312e+01 3.050100e+01 4.227522e+01 5.555119e+01 3.290812e+01 2.334038e+01 3.229874e+01 3.122061e+01 2.355497e+01 2.224621e+01 1.215394e+00 2.051142e+00 2.461678e+00 1.807237e+00 2.102714e+00 3.417665e+00 2.515591e+00 3.202271e+00 2.930298e+00 3.613551e+00 1.971930e+00 1.717083e+00 9.669619e-01
<GCONST> 9.787750e+01
~s "ST_E_2_1"
<MEAN> 25
 6.658403e+00 -1.158869e+01 7.627639e-01 -6.661705e+00 -4.474185e+00 -3.149103e+00 -9.772335e-01 -1.821205e+00 -3.413856e+00 -5.004271e+00 -4.683419e+00 -2.793585e-01 1.465446e+00 -1.781463e+00 -9.261651e-02 -1.863505e+00 -7.571683e-01 -1.509575e+00 6.336032e-01 -5.606080e-01 -1.288355e+00 -1.601904e+00 -8.761467e-01 1.890519e-01 2.766370e+00
<VARIANCE> 25
 3.505258e+01 8.154790e+01 3.677712e+01 5.847596e+01 5.010276e+01 4.230483e+01 4.563095e+01 5.584391e+01 3.542342e+01 4.154446e+01 4.232005e+01 2.141401e+01 3.154197e+00 4.708113e+00 2.474468e+00 3.622561e+00 3.360596e+00 3.733108e+00 4.380346e+00 6.903290e+00 3.256002e+00 3.084313e+00 4.975821e+00 2.393862e+00 5.141122e+00
<GCONST> 1.084353e+02
~s "ST_E_3_1"
<MEAN> 25
 7.103616e+00 -1.280953e+01 2.742541e+00 -8.122143e+00 -7.891013e+00 -5.022892e+00 3.046463e+00 -3.876940e+00 -8.384131e+00 -5.928223e+00 -2.847600e+00 2.973733e-01 -1.396637e-02 4.729642e-02 -2.821244e-01 2.144066e-01 -3.998571e-02 -4.628396e-02 4.334802e-01 -7.301707e-02 9.763510e-02 1.235825e-02 -3.263549e-01 1.252318e-01 -1.489120e-01
<VARIANCE> 25
 1.729725e+01 9.237260e+01 3.582411e+01 2.846131e+01 5.222239e+01 3.711364e+01 3.191267e+01 3.679600e+01 2.844472e+01 3.326991e+01 3.356701e+01 1.810639e+01 4.838570e-01 6.630645e-01 1.141991e+00 8.664660e-01 1.600345e+00 1.219346e+00 2.495823e+00 1.930790e+00 2.090440e+00 1.541000e+00 1.451749e+00 1.108574e+00 4.797188e-01
<GCONST> 9.015555e+01
~s "ST_E_3_2"
<MEAN> 25
 7.873558e+00 -1.455543e+01 -1.546111e+00 -1.016441e+01 -6.924129e+00 -9.837291e+00 9.770488e+00 -5.978013e+00 -9.388380e+00 -9.988983e+00 -6.625360e+00 -8.195792e-01 -2.522102e-03 1.505741e-02 2.076359e-02 3.182956e-01 -3.948977e-01 -8.917937e-02 5.812653e-01 -4.594550e-02 -8.697534e-02 5.530847e-02 2.201087e-01 5.703633e-02 -2.190647e-02
<VARIANCE> 25
 6.679776e+00 1.530270e+01 1.372591e+01 1.142081e+01 1.369518e+01 2.454743e+01 2.683046e+01 2.807584e+01 1.237598e+01 1.163829e+01 2.506520e+01 1.067744e+01 1.794733e-01 3.078302e-01 6.185325e-01 4.603721e-01 7.290729e-01 7.111098e-01 2.044282e+00 9.216055e-01 1.712833e+00 7.062549e-01 1.084899e+00 7.280886e-01 9.303700e-02
<GCONST> 7.203475e+01
~s "ST_E_4_1"
<MEAN> 25
 6.627392e+00 -1.027078e+01 6.466898e-01 -5.156397e+00 -7.141660e+00 -4.740480e+00 6.802641e-01 -2.170634e+00 -2.851200e+00 -4.728008e+00 -4.203629e+00 -3.778445e-02 -5.819434e-01 1.606997e+00 -7.948303e-01 9.415860e-01 8.381632e-01 7.184639e-01 -9.566877e-01 3.556076e-01 1.260416e+00 6.778752e-01 1.389551e-01 -3.351068e-01 -2.014014e+00
<VARIANCE> 25
 2.826529e+01 7.590285e+01 4.458123e+01 3.873049e+01 5.236975e+01 4.374643e+01 6.960134e+01 5.020703e+01 3.149025e+01 5.060038e+01 4.785376e+01 2.663329e+01 1.445943e+00 3.044298e+00 2.722252e+00 2.814558e+00 3.426666e+00 3.805582e+00 3.936714e+00 4.636440e+00 2.883303e+00 2.942587e+00 3.968288e+00 2.561414e+00 3.578907e+00
<GCONST> 1.062144e+02
~s "ST_l_2_1"
<MEAN> 25
 1.006693e+01 -1.963609e+00 -1.014904e+01 -1.487879e+01 3.513925e+00 -3.220007e+00 -5.655618e+00 -7.447343e+00 -2.323489e+00 -3.617648e+00 -6.773707e+00 -4.082529e+00 1.446928e-01 4.523492e-01 -1.460762e-01 1.553741e-01 -6.965976e-02 -1.127709e-01 -2.930729e-01 -3.718667e-02 2.281798e-01 8.488107e-02 2.284443e-01 -1.646961e-02 -2.485708e-01
<VARIANCE> 25
 7.327399e+00 3.380275e+01 1.454936e+01 4.645022e+01 1.433813e+01 2.264737e+01 2.506222e+01 3.518753e+01 4.268641e+01 2.329925e+01 2.343287e+01 1.540810e+01 1.489309e-01 5.073464e-01 3.098159e-01 9.816952e-01 7.334181e-01 1.018748e+00 8.632675e-01 7.607467e-01 1.116130e+00 9.135130e-01 9.055738e-01 7.199497e-01 1.854308e-01
<GCONST> 7.675293e+01
~s "ST_l_3_1"
<MEAN> 25
 1.025928e+01 -6.174352e+00 -6.347325e+00 -9.666815e+00 2.553144e+00 -3.391909e+00 -9.915880e+00 -5.042369e+00 3.922825e-01 -4.566297e+00 -5.489536e+00 -2.345165e+00 -3.313385e-01 -4.612007e-01 8.957733e-01 1.144098e+00 -6.797838e-01 -7.292651e-01 -4.457191e-01 3.082467e-01 5.991111e-02 -6.129454e-01 -1.455376e-01 6.419321e-01 1.311278e-01
<VARIANCE> 25
 1.408128e+01 9.615998e+01 2.092569e+01 3.612545e+01 3.051245e+01 4.645751e+01 3.183539e+01 4.337031e+01 3.940112e+01 3.072497e+01 2.425887e+01 1.976839e+01 6.865475e-01 1.252358e+00 1.086820e+00 1.639501e+00 2.124651e+00 1.727133e+00 2.164387e+00 2.053158e+00 2.497890e+00 1.343270e+00 1.593806e+00 1.676512e+00 5.850939e-01
<GCONST> 9.242012e+01
~s "ST_l_4_1"
<MEAN> 25
 8.298800e+00 -2.288620e+00 1.993525e-01 -5.206604e+00 -7.794807e+00 -8.773071e+00 -8.491849e+00 -4.632907e+00 8.811277e-01 -4.841935e+00 -3.344333e+00 1.181981e+00 -1.506134e+00 3.057957e-01 3.090643e+00 -1.125109e-01 -2.944915e+00 1.142368e+00 1.295722e+00 -6.388430e-01 -1.239306e+00 4.566017e-01 3.560807e-01 6.384163e-01 9.916881e-02
<VARIANCE> 25
 1.768254e+01 7.563712e+01 3.995894e+01 3.749706e+01 9.002819e+01 4.979934e+01 7.224174e+01 4.092362e+01 4.043019e+01 4.102712e+01 3.164297e+01 2.115601e+01 1.194617e+00 1.273281e+00 3.878520e+00 3.552478e+00 6.940520e+00 3.956901e+00 3.104766e+00 5.487527e+00 3.619191e+00 3.843795e+00 2.708409e+00 3.012700e+00 9.259692e-01
<GCONST> 1.046234e+02
~s "ST_y_2_1"
<MEAN> 25
 1.536674e+00 5.980770e+00 9.594133e+00 -8.700626e+00 -1.540996e+01 -3.282585e+00 -7.715835e+00 -6.622734e+00 -4.803535e+00 1.967790e+00 -9.202010e+00 1.267565e-01 -2.129960e-01 7.054197e-01 7.537135e-01 -2.425097e-01 -6.125666e-01 5.503458e-01 -6.062036e-01 -3.633105e-01 2.096062e-01 3.618143e-01 3.683491e-02 1.646015e-02 -3.809089e-01
<VARIANCE> 25
 4.562534e+00 5.738202e+01 1.764235e+01 2.661467e+01 5.995535e+01 3.248708e+01 7.088089e+01 2.242128e+01 3.524161e+01 2.735644e+01 1.214443e+01 2.231992e+01 4.464352e-01 1.792722e+00 1.330292e+00 1.061910e+00 3.087533e+00 1.655770e+00 3.105742e+00 1.920874e+00 2.382139e+00 2.319596e+00 1.473763e+00 1.721602e+00 4.931250e-01
<GCONST> 9.055917e+01
~s "ST_y_3_1"
<MEAN> 25
 -1.316111e+00 1.429628e-01 6.693122e+00 -4.218188e+00 -7.500464e+00 2.367205e+00 -1.715329e+00 -2.419080e+00 -7.720122e-01 2.439440e+00 -1.292141e+00 1.920385e+00 -8.658548e-02 -1.098590e+00 -1.172489e+00 1.029012e+00 1.932828e+00 3.535051e-01 1.339964e+00 9.390754e-01 2.161160e-01 -3.191558e-01 1.124998e+00 1.907813e-01 -6.138111e-01
<VARIANCE> 25
 2.619056e+01 3.235281e+01 3.909460e+01 4.494302e+01 5.529217e+01 5.269824e+01 5.350280e+01 2.919492e+01 3.177392e+01 3.631773e+01 4.758078e+01 1.950944e+01 1.658593e+00 2.248930e+00 2.235661e+00 2.790572e+00 2.142563e+00 4.132735e+00 4.266006e+00 2.503371e+00 3.595377e+00 3.949738e+00 2.663697e+00 2.584394e+00 9.616603e-01
<GCONST> 1.016155e+02
~s "ST_y_4_1"
<MEAN> 25
 -1.868681e+00 -6.824403e-01 -7.183704e-01 2.950791e+00 3.719295e+00 3.663751e+00 4.737145e+00 2.200873e+00 1.549484e+00 2.088140e+00 3.095585e+00 5.371943e-01 1.184670e-02 1.293011e-02 -6.973641e-02 2.631011e-02 3.965095e-02 -4.410553e-02 -6.773795e-03 -1.363685e-02 5.664779e-02 5.102648e-03 -6.427549e-02 -2.398809e-02 -2.775977e-02
<VARIANCE> 25
 2.875136e+00 7.016007e+00 5.746732e+00 6.794197e+00 7.470909e+00 1.214262e+01 1.424297e+01 1.347362e+01 1.469882e+01 1.715372e+01 1.448478e+01 1.207447e+01 1.711263e-01 3.259581e-01 5.745056e-01 5.605338e-01 7.326649e-01 1.023162e+00 1.327446e+00 1.168832e+00 1.419291e+00 1.346374e+00 1.301883e+00 1.257598e+00 8.776946e-02
<GCONST> 6.791402e+01
~s "ST_b_2_1"
<MEAN> 25
 4.263704e+00 3.128327e-01 -3.710601e-01 -8.021783e-01 -4.005806e+00 -3.709225e+00 -6.403850e+00 -4.384023e+00 -2.047836e+00 -1.255059e+00 -3.310486e+00 -4.571540e-01 2.438578e+00 -3.157044e-01 -3.467683e-01 -2.840594e+00 -2.369751e+00 -1.734087e+00 -2.520831e+00 -9.199345e-01 -1.045138e+00 -1.729092e+00 -1.892060e+00 2.116917e-01 3.464523e+00
<VARIANCE> 25
 5.106363e+01 6.060855e+01 4.013866e+01 6.610534e+01 6.049587e+01 4.716868e+01 6.576853e+01 4.616796e+01 5.276698e+01 4.245866e+01 4.236852e+01 2.056425e+01 4.795052e+00 8.272175e+00 4.817969e+00 6.833193e+00 4.731176e+00 4.405220e+00 4.581625e+00 5.706864e+00 5.629540e+00 4.421825e+00 3.878349e+00 2.659976e+00 7.389352e+00
<GCONST> 1.133508e+02
~s "ST_b_3_1"
<MEAN> 25
 8.268766e+00 5.249713e+00 -4.734732e-01 -8.929004e+00 -9.200200e+00 -7.285880e+00 -1.000053e+01 -4.317275e+00 -6.420397e+00 -6.297604e+00 -7.480306e+00 5.960071e-01 7.026310e-02 -7.784588e-02 1.084771e-01 -6.759833e-01 -1.332015e-01 2.142680e-01 2.715057e-01 2.457410e-01 -8.946584e-02 -2.529156e-01 -3.120189e-02 3.204820e-01 3.768586e-01
<VARIANCE> 25
 2.827570e+01 5.464392e+01 6.080488e+01 4.953235e+01 1.959607e+01 1.565895e+01 3.321098e+01 2.939647e+01 3.532443e+01 2.254853e+01 2.702539e+01 2.356868e+01 5.843784e-01 1.480430e+00 1.163446e+00 2.669836e+00 1.349832e+00 1.135867e+00 1.673280e+00 2.310329e+00 1.616667e+00 1.919579e+00 1.222260e+00 1.961988e+00 1.721261e+00
<GCONST> 9.236540e+01
~s "ST_b_4_1"
<MEAN> 25
 1.268763e+01 -1.146681e+01 1.095756e+00 -1.305177e+01 -6.005244e+00 -3.605726e+00 -7.801226e+00 -3.010727e+00 -2.166663e+00 -8.129755e+00 -5.851339e+00 1.800011e+00 -4.496932e-01 -5.554865e-01 -2.046215e-03 3.309683e-01 5.975131e-02 1.307471e-01 4.223157e-01 4.620687e-01 2.628073e-01 -2.368883e-01 1.998861e-02 2.284988e-01 -4.620861e-02
<VARIANCE> 25
 3.960928e+01 1.287791e+02 5.189376e+01 5.830550e+01 4.628117e+01 3.285377e+01 4.187303e+01 7.690245e+01 4.115883e+01 4.199892e+01 2.998005e+01 2.511814e+01 8.928573e-01 5.479245e+00 2.356851e+00 4.696386e+00 3.595613e+00 2.693004e+00 3.158281e+00 5.695169e+00 4.467404e+00 4.586823e+00 2.904876e+00 3.092669e+00 5.563472e+00
<GCONST> 1.080656e+02
~s "ST_o_2_1"
<MEAN> 25
 8.982045e+00 -3.526685e+00 -5.918550e+00 -1.306631e+01 -9.914933e-01 1.976441e+00 -5.757071e+00 -7.257386e+00 -4.525735e+00 -1.716993e+00 -4.815972e+00 -8.772600e-01 1.819322e+00 -3.493491e-01 -6.001939e-01 -2.133936e+00 3.063360e-01 -4.498699e-01 -7.429603e-01 -1.142521e+00 -7.179152e-01 -8.964210e-01 -2.848919e-01 -6.417281e-01 1.652584e+00
<VARIANCE> 25
 2.269379e+01 6.899393e+01 3.459075e+01 6.854514e+01 2.830177e+01 7.162767e+01 3.507864e+01 3.377255e+01 5.082024e+01 3.468169e+01 2.993587e+01 2.091848e+01 1.797233e+00 1.850459e+00 3.922539e+00 3.236089e+00 5.038802e+00 5.813509e+00 3.588560e+00 4.550867e+00 3.892655e+00 4.549435e+00 3.653748e+00 2.299525e+00 1.979546e+00
<GCONST> 1.052786e+02
~s "ST_o_3_1"
<MEAN> 25
 1.107620e+01 -3.385237e+00 -8.321651e+00 -1.772662e+01 9.176980e-01 1.759447e+00 -5.531564e+00 -5.822320e+00 -4.772439e+00 -1.061527e+00 -4.705671e+00 -2.041537e+00 -1.164694e-01 -3.776331e-01 -7.578676e-02 2.442718e-01 3.175992e-01 -2.390694e-01 2.561126e-01 1.342806e-01 4.757423e-01 -7.901751e-02 -7.498740e-02 -2.150824e-01 2.260472e-01
<VARIANCE> 25
 1.004941e+01 7.206326e+01 1.582840e+01 2.837284e+01 2.106841e+01 2.370866e+01 2.527234e+01 3.062592e+01 2.586771e+01 2.482866e+01 2.446571e+01 1.760792e+01 3.543673e-01 8.300292e-01 5.604637e-01 1.714105e+00 1.358016e+00 2.215715e+00 1.454026e+00 1.781989e+00 2.165408e+00 2.228770e+00 2.380360e+00 1.252773e+00 7.473392e-01
<GCONST> 8.720030e+01
~s "ST_o_4_1"
<MEAN> 25
 6.074866e+00 -3.321389e+00 -5.279402e+00 -6.932009e+00 -1.138031e+00 -1.209598e+00 -2.029015e+00 -2.800719e+00 4.897056e-01 -1.343994e+00 -5.235136e+00 -1.272164e+00 -1.548530e+00 3.260890e-01 1.578690e+00 2.273665e+00 -8.743812e-01 -2.732183e-01 1.313960e+00 9.540470e-01 2.364383e-01 -2.048694e-01 7.043441e-01 6.664175e-01 -1.349471e+00
<VARIANCE> 25
 2.428700e+01 4.912001e+01 2.770326e+01 4.409521e+01 2.527862e+01 5.574301e+01 4.941945e+01 3.535020e+01 2.901073e+01 4.525392e+01 5.652700e+01 2.143813e+01 1.921297e+00 1.762106e+00 2.166432e+00 2.716752e+00 3.845766e+00 4.491898e+00 2.976382e+00 2.302956e+00 3.331629e+00 4.086493e+00 5.303852e+00 1.647876e+00 1.750677e+00
<GCONST> 1.022405e+02
~s "ST_o_4_2"
<MEAN> 25
 1.193298e+01 -4.795354e+00 -7.941494e+00 -1.684518e+01 3.116108e-01 -2.447888e+00 -4.464293e+00 -8.138797e+00 -5.524421e+00 -4.934180e+00 -2.363072e+00 -2.358944e+00 -4.707562e-01 6.388039e-01 1.429722e+00 2.404786e+00 -1.169712e+00 -1.672989e+00 -4.531001e-01 -5.939892e-01 1.019224e+00 4.169276e-01 -5.846736e-01 -2.626487e-01 -7.763849e-01
<VARIANCE> 25
 8.775693e+00 3.958357e+01 2.041609e+01 4.617191e+01 2.497592e+01 4.361995e+01 2.342418e+01 1.861899e+01 1.661839e+01 3.271944e+01 3.013039e+01 1.381274e+01 3.023086e-01 7.905508e-01 2.660682e+00 4.859799e+00 2.512197e+00 2.877728e+00 1.900124e+00 2.622942e+00 9.773985e-01 1.874803e+00 1.781413e+00 9.948657e-01 1.272629e+00
<GCONST> 9.017860e+01
~s "ST_K_2_1"
<MEAN> 25
 -1.684587e-08 -6.193333e-08 -4.487690e-08 3.351832e-08 -6.047171e-08 2.058664e-08 -6.607048e-08 -2.205446e-08 -8.534414e-09 2.910867e-08 3.022347e-08 -1.071447e-09 -2.678578e-03 2.715191e-03 1.970940e-04 1.666228e-04 1.831201e-03 -7.320007e-04 3.372927e-03 1.125320e-03 -7.564414e-05 2.413395e-03 8.106225e-04 -2.148533e-03 -1.727290e-03
<VARIANCE> 25
 4.499385e+01 7.342516e+01 3.566479e+01 5.718780e+01 5.546888e+01 4.305736e+01 6.020990e+01 4.209700e+01 2.990068e+01 4.475465e+01 3.376802e+01 1.839641e+01 1.592596e+00 2.317776e+00 1.700131e+00 2.390033e+00 2.486403e+00 2.357601e+00 2.972100e+00 2.655601e+00 2.270027e+00 2.542916e+00 2.264997e+00 1.647762e+00 2.549860e+00
<GCONST> 1.014657e+02
~s "ST_K_3_1"
<MEAN> 25
 -1.684587e-08 -6.193333e-08 -4.487690e-08 3.351832e-08 -6.047171e-08 2.058664e-08 -6.607048e-08 -2.205446e-08 -8.534414e-09 2.910867e-08 3.022347e-08 -1.071447e-09 -2.678578e-03 2.715191e-03 1.970940e-04 1.666228e-04 1.831201e-03 -7.320007e-04 3.372927e-03 1.125320e-03 -7.564414e-05 2.413395e-03 8.106225e-04 -2.148533e-03 -1.727290e-03
<VARIANCE> 25
 4.499385e+01 7.342516e+01 3.566479e+01 5.718780e+01 5.546888e+01 4.305736e+01 6.020990e+01 4.209700e+01 2.990068e+01 4.475465e+01 3.376802e+01 1.839641e+01 1.592596e+00 2.317776e+00 1.700131e+00 2.390033e+00 2.486403e+00 2.357601e+00 2.972100e+00 2.655601e+00 2.270027e+00 2.542916e+00 2.264997e+00 1.647762e+00 2.549860e+00
<GCONST> 1.014657e+02
~s "ST_K_4_1"
<MEAN> 25
 -1.684587e-08 -6.193333e-08 -4.487690e-08 3.351832e-08 -6.047171e-08 2.058664e-08 -6.607048e-08 -2.205446e-08 -8.534414e-09 2.910867e-08 3.022347e-08 -1.071447e-09 -2.678578e-03 2.715191e-03 1.970940e-04 1.666228e-04 1.831201e-03 -7.320007e-04 3.372927e-03 1.125320e-03 -7.564414e-05 2.413395e-03 8.106225e-04 -2.148533e-03 -1.727290e-03
<VARIANCE> 25
 4.499385e+01 7.342516e+01 3.566479e+01 5.718780e+01 5.546888e+01 4.305736e+01 6.020990e+01 4.209700e+01 2.990068e+01 4.475465e+01 3.376802e+01 1.839641e+01 1.592596e+00 2.317776e+00 1.700131e+00 2.390033e+00 2.486403e+00 2.357601e+00 2.972100e+00 2.655601e+00 2.270027e+00 2.542916e+00 2.264997e+00 1.647762e+00 2.549860e+00
<GCONST> 1.014657e+02
~s "ST_aw_2_1"
<MEAN> 25
 -1.684587e-08 -6.193333e-08 -4.487690e-08 3.351832e-08 -6.047171e-08 2.058664e-08 -6.607048e-08 -2.205446e-08 -8.534415e-09 2.910867e-08 3.022347e-08 -1.071447e-09 -2.678578e-03 2.715191e-03 1.970940e-04 1.666228e-04 1.831201e-03 -7.320007e-04 3.372927e-03 1.125320e-03 -7.564414e-05 2.413395e-03 8.106226e-04 -2.148533e-03 -1.727290e-03
<VARIANCE> 25
 4.499385e+01 7.342516e+01 3.566479e+01 5.718780e+01 5.546888e+01 4.305737e+01 6.020990e+01 4.209700e+01 2.990068e+01 4.475465e+01 3.376802e+01 1.839641e+01 1.592596e+00 2.317776e+00 1.700131e+00 2.390033e+00 2.486403e+00 2.357601e+00 2.972100e+00 2.655601e+00 2.270027e+00 2.542916e+00 2.264997e+00 1.647762e+00 2.549860e+00
<GCONST> 1.014657e+02
~s "ST_aw_3_1"
<MEAN> 25
 -1.684587e-08 -6.193333e-08 -4.487690e-08 3.351832e-08 -6.047171e-08 2.058664e-08 -6.607048e-08 -2.205446e-08 -8.534414e-09 2.910867e-08 3.022347e-08 -1.071447e-09 -2.678578e-03 2.715191e-03 1.970940e-04 1.666228e-04 1.831201e-03 -7.320006e-04 3.372927e-03 1.125320e-03 -7.564413e-05 2.413395e-03 8.106225e-04 -2.148533e-03 -1.727290e-03
<VARIANCE> 25
 4.499385e+01 7.342516e+01 3.566479e+01 5.718780e+01 5.546888e+01 4.305736e+01 6.020990e+01 4.209700e+01 2.990068e+01 4.475465e+01 3.376802e+01 1.839641e+01 1.592596e+00 2.317776e+00 1.700131e+00 2.390033e+00 2.486403e+00 2.357601e+00 2.972100e+00 2.655601e+00 2.270027e+00 2.542916e+00 2.264997e+00 1.647762e+00 2.549860e+00
<GCONST> 1.014657e+02
~s "ST_aw_4_1"
<MEAN> 25
 -1.684587e-08 -6.193333e-08 -4.487690e-08 3.351832e-08 -6.047171e-08 2.058664e-08 -6.607048e-08 -2.205446e-08 -8.534414e-09 2.910867e-08 3.022347e-08 -1.071447e-09 -2.678578e-03 2.715191e-03 1.970940e-04 1.666228e-04 1.831201e-03 -7.320007e-04 3.372927e-03 1.125320e-03 -7.564414e-05 2.413395e-03 8.106225e-04 -2.148533e-03 -1.727290e-03
<VARIANCE> 25
 4.499385e+01 7.342516e+01 3.566479e+01 5.718780e+01 5.546888e+01 4.305736e+01 6.020990e+01 4.209700e+01 2.990068e+01 4.475465e+01 3.376802e+01 1.839641e+01 1.592596e+00 2.317776e+00 1.700131e+00 2.390033e+00 2.486403e+00 2.357601e+00 2.972100e+00 2.655601e+00 2.270027e+00 2.542916e+00 2.264997e+00 1.647762e+00 2.549860e+00
<GCONST> 1.014657e+02
~s "ST_e_2_1"
<MEAN> 25
 6.273077e+00 -4.159620e+00 -2.130210e+00 -6.122274e+00 -3.232397e+00 -7.419326e+00 -6.513674e+00 -1.774661e+00 2.331387e+00 -3.442093e+00 -4.826497e+00 -8.230578e-02 2.530631e+00 -4.074360e-01 -5.324231e-02 -3.171132e+00 -8.142606e-01 -1.554331e+00 -2.079562e+00 -1.560857e+00 -2.943799e-01 -1.961523e+00 -1.692567e+00 -3.064126e-02 2.545541e+00
<VARIANCE> 25
 4.352161e+01 1.004803e+02 3.681148e+01 4.104736e+01 5.204651e+01 4.667586e+01 4.791563e+01 4.264242e+01 2.446286e+01 3.721757e+01 3.750501e+01 1.551198e+01 3.686706e+00 3.865611e+00 4.390378e+00 4.296334e+00 7.290411e+00 5.663250e+00 5.135481e+00 7.630487e+00 3.901310e+00 5.029469e+00 4.676492e+00 2.696920e+00 5.953373e+00
<GCONST> 1.105265e+02
~s "ST_e_3_1"
<MEAN> 25
 9.693102e+00 -1.023554e+01 -2.346182e+00 -1.224705e+01 -2.294288e+00 -5.358038e+00 -7.501298e+00 -1.665687e+00 3.588529e+00 -6.044263e+00 -7.626405e+00 -1.378572e+00 2.986864e-01 -3.363277e-01 -9.490359e-02 -8.914942e-01 3.947464e-01 2.825870e-01 1.090510e-01 -6.312775e-01 -2.830563e-01 -6.445042e-01 -8.078005e-01 -2.896324e-01 4.711160e-01
<VARIANCE> 25
 2.053580e+01 1.198598e+02 4.534129e+01 3.304345e+01 4.491797e+01 5.458554e+01 3.978221e+01 4.880948e+01 4.042989e+01 3.293443e+01 3.292288e+01 2.614110e+01 1.685869e+00 2.685534e+00 2.580001e+00 2.971214e+00 4.374870e+00 2.718730e+00 4.089966e+00 3.146360e+00 2.589438e+00 4.455789e+00 3.079092e+00 2.644724e+00 2.600374e+00
<GCONST> 1.044714e+02
~s "ST_e_4_1"
<MEAN> 25
 5.207819e+00 -5.027480e+00 -4.909299e+00 -7.135597e+00 -1.710753e+00 -4.042916e+00 -2.264403e+00 -1.134522e+00 2.000873e+00 -5.207277e+00 -6.911794e+00 -4.413003e-01 -8.667934e-01 8.479541e-01 2.084655e-01 1.441769e+00 1.040903e-01 9.867227e-01 8.954620e-01 5.278190e-01 -1.564035e-01 8.565337e-01 9.929060e-01 -1.027942e-01 -2.039645e+00
<VARIANCE> 25
 1.976024e+01 5.725528e+01 2.199981e+01 4.693464e+01 3.712919e+01 5.303296e+01 5.488663e+01 5.259281e+01 2.420991e+01 3.490785e+01 4.193124e+01 1.883404e+01 1.510558e+00 3.454055e+00 1.678195e+00 2.228086e+00 2.381295e+00 2.727106e+00 2.979937e+00 4.329134e+00 2.517622e+00 3.633233e+00 2.763830e+00 1.588797e+00 4.416902e+00
<GCONST> 1.014598e+02
~s "ST_r_2_1"
<MEAN> 25
 6.131187e+00 -9.549547e+00 2.798853e+00 -3.451483e+00 -6.573647e+00 -3.068561e+00 -2.585868e+00 -8.607849e-01 -1.720969e+00 -6.577353e+00 -3.650019e+00 5.245624e-01 -8.396337e-01 3.020027e-01 3.626835e-01 7.352549e-01 3.252644e-01 1.132945e+00 -5.395676e-01 5.131180e-01 7.366511e-01 1.599408e-01 9.552622e-01 3.009688e-01 -8.898651e-01
<VARIANCE> 25
 3.524528e+01 8.693458e+01 3.759150e+01 4.475965e+01 5.366987e+01 4.470749e+01 4.434438e+01 4.171029e+01 4.987185e+01 4.145278e+01 3.132280e+01 2.425444e+01 3.965817e+00 4.550578e+00 4.142803e+00 4.068224e+00 4.907559e+00 4.937135e+00 3.689069e+00 5.308630e+00 5.626030e+00 4.175966e+00 4.442334e+00 2.715191e+00 5.110857e+00
<GCONST> 1.101331e+02
~s "ST_r_3_1"
<MEAN> 25
 -1.605883e+00 -6.411024e+00 2.468356e+00 2.047746e+00 -2.909478e+00 3.497304e+00 -2.904220e-01 2.986418e+00 3.501252e+00 -3.236478e+00 1.990409e+00 2.048838e+00 -7.981325e-01 1.059819e+00 -5.071342e-02 5.817087e-01 7.870926e-01 2.779780e-01 2.486677e-01 4.253329e-01 2.457266e-01 9.241315e-01 6.508446e-01 -2.946803e-01 -1.155306e+00
<VARIANCE> 25
 1.878306e+01 7.055172e+01 3.349211e+01 2.623560e+01 3.778328e+01 3.334366e+01 4.353938e+01 3.178599e+01 3.134168e+01 4.926501e+01 2.469067e+01 2.566191e+01 2.436406e+00 4.224557e+00 3.889623e+00 1.615606e+00 3.441092e+00 3.925971e+00 4.535142e+00 3.753923e+00 3.558105e+00 4.781114e+00 3.438817e+00 2.354687e+00 1.704342e+00
<GCONST> 1.031458e+02
~s "ST_r_4_1"
<MEAN> 25
 -2.517719e+00 2.766083e+00 -4.279724e-01 4.231793e+00 3.788199e+00 2.473863e+00 2.730260e+00 2.101717e+00 1.290188e+00 3.146190e+00 2.646305e+00 9.370617e-02 -5.803888e-02 1.183323e-01 1.572616e-02 -4.381972e-02 6.354532e-02 -6.360687e-02 7.341523e-03 -9.474378e-02 -4.645224e-02 1.929476e-01 -3.496252e-04 -3.394888e-02 -6.331707e-02
<VARIANCE> 25
 2.705553e+00 9.882557e+00 1.330845e+01 8.363942e+00 9.525682e+00 1.686434e+01 1.595949e+01 1.370287e+01 1.804422e+01 1.575829e+01 1.354989e+01 1.135741e+01 1.635456e-01 4.030158e-01 3.983424e-01 7.018425e-01 7.689210e-01 1.197716e+00 1.294810e+00 1.332671e+00 1.377220e+00 1.424574e+00 1.194379e+00 1.019434e+00 1.203888e-01
<GCONST> 7.032169e+01
~s "ST_r_4_2"
<MEAN> 25
 -6.616021e-01 -5.110475e+00 6.220778e+00 1.135549e+00 -1.810642e+00 7.551867e-01 -1.042866e+00 3.971672e+00 2.684203e+00 -2.009671e+00 2.661166e+00 1.015401e+00 1.064975e+00 1.951794e-01 -9.260657e-02 -1.703645e-01 -9.941888e-01 -9.086083e-01 -1.073090e+00 -1.106953e+00 -8.355974e-01 -2.270811e-01 -5.963747e-01 -4.211478e-01 -9.065149e-02
<VARIANCE> 25
 4.006031e+01 4.457177e+01 3.792371e+01 3.015728e+01 4.396428e+01 2.771342e+01 3.295837e+01 4.491555e+01 3.937311e+01 3.733147e+01 2.791732e+01 2.286052e+01 3.221350e+00 1.263416e+00 2.790664e+00 1.151913e+00 5.114658e+00 2.688076e+00 2.284295e+00 3.507376e+00 2.330934e+00 2.892759e+00 3.132948e+00 1.349458e+00 9.167861e-01
<GCONST> 9.916978e+01
~s "ST_r_4_3"
<MEAN> 25
 -4.459265e+00 2.045779e+00 -1.961488e-01 5.173173e+00 2.129025e+00 3.360554e+00 2.418394e+00 3.762863e+00 2.010117e+00 2.127089e+00 2.851871e+00 -2.321331e-01 1.244914e-01 1.783320e-02 1.491896e-01 1.318594e-02 2.246532e-01 -3.152493e-02 -1.466548e-02 3.875954e-02 3.354516e-02 8.376988e-02 2.748624e-03 5.234860e-02 -2.997158e-01
<VARIANCE> 25
 1.508168e+01 5.874878e+00 1.804146e+01 8.309823e+00 2.636198e+01 1.316587e+01 1.274150e+01 1.511987e+01 1.513292e+01 1.506943e+01 1.533313e+01 1.179943e+01 5.859344e-01 4.297042e-01 5.733724e-01 8.060053e-01 1.194376e+00 1.053383e+00 1.176349e+00 1.393655e+00 1.428991e+00 1.315945e+00 1.576435e+00 1.149234e+00 5.048407e-01
<GCONST> 7.629442e+01
~s "ST_ny_2_1"
<MEAN> 25
 1.004541e+00 3.803952e+00 4.518350e+00 -5.268183e-01 -7.127682e+00 -6.148269e+00 -5.699441e+00 -3.080903e-01 -9.060028e+00 -8.186806e+00 -1.547004e+00 -2.311006e+00 -1.926267e-01 -1.836512e-01 -7.153983e-02 2.674635e-01 3.908794e-01 2.451508e-01 2.671345e-01 1.483554e-01 2.625530e-01 1.016171e-01 1.501152e-01 1.623297e-01 -2.869549e-01
<VARIANCE> 25
 2.193639e+01 5.109314e+01 1.874647e+01 2.030737e+01 6.572626e+01 3.635414e+01 2.615093e+01 7.605383e+01 6.255261e+01 7.067319e+01 3.687275e+01 3.265504e+01 2.235817e+00 2.866624e+00 1.513942e+00 2.494061e+00 4.343454e+00 3.448515e+00 2.970005e+00 7.067416e+00 3.600843e+00 5.418471e+00 2.264528e+00 2.512023e+00 2.652533e+00
<GCONST> 1.043944e+02
~s "ST_ny_3_1"
<MEAN> 25
 -8.506320e+00 5.321135e+00 -3.541968e+00 2.911294e+00 3.637036e+00 9.569682e-01 8.718519e+00 2.132379e+00 3.675817e+00 4.145189e+00 3.539745e+00 1.625703e+00 3.999572e-01 -2.895897e-01 -5.697439e-02 1.282349e-01 2.813320e-01 6.257944e-01 3.861319e-01 1.075282e-01 2.632010e-01 3.812439e-01 -8.950733e-02 -1.067464e-01 -5.972834e-01
<VARIANCE> 25
 3.755416e+01 3.608608e+01 1.115790e+01 8.633657e+00 7.244402e+00 1.008508e+01 3.324815e+01 1.403764e+01 1.719725e+01 1.705277e+01 2.319740e+01 1.585071e+01 1.148767e+00 1.041063e+00 8.140873e-01 6.602865e-01 5.286194e-01 8.587685e-01 2.702675e+00 2.450204e+00 1.729375e+00 1.367727e+00 2.040457e+00 8.589383e-01 3.741032e-01
<GCONST> 8.084940e+01
~s "ST_ny_4_1"
<MEAN> 25
 -2.534624e+00 -8.242008e-01 -8.757845e-01 3.078188e+00 4.331975e+00 4.905906e+00 5.759723e+00 2.497200e+00 2.670156e+00 3.438574e+00 2.733224e+00 6.208878e-01 2.342319e-02 1.888734e-03 -3.590379e-02 -2.307019e-02 -3.096084e-02 -1.305747e-02 7.196597e-02 -1.043615e-01 -7.797480e-02 3.766569e-02 -4.078287e-02 -1.773108e-02 -2.451216e-02
<VARIANCE> 25
 1.893104e+00 4.736205e+00 3.941437e+00 5.811518e+00 7.017691e+00 1.213251e+01 1.281293e+01 1.318698e+01 1.365107e+01 1.492493e+01 1.730862e+01 1.044637e+01 1.196543e-01 2.005708e-01 3.116615e-01 5.222734e-01 6.810811e-01 1.099341e+00 1.275063e+00 1.428470e+00 1.440278e+00 1.272809e+00 1.687496e+00 9.743709e-01 5.359812e-02
<GCONST> 6.430228e+01
~s "ST_h_2_1"
<MEAN> 25
 -3.306955e+00 7.489693e-01 2.122665e+00 5.802825e+00 3.644988e+00 3.563788e+00 3.898929e+00 3.439188e+00 2.220991e+00 3.288270e+00 2.753344e+00 1.865972e-01 -2.252632e-02 1.563331e-02 -2.606889e-03 4.034646e-02 6.380984e-02 6.023047e-02 3.300731e-02 -1.457743e-02 1.740394e-02 5.464897e-02 5.661210e-03 -5.348743e-03 -1.667051e-02
<VARIANCE> 25
 2.359711e+00 4.475758e+00 8.610788e+00 1.201625e+01 1.061542e+01 1.101097e+01 1.361033e+01 1.219479e+01 1.370383e+01 1.599044e+01 1.292457e+01 1.114490e+01 1.172988e-01 2.257531e-01 4.211671e-01 5.712477e-01 7.965141e-01 8.471333e-01 1.037549e+00 1.115302e+00 1.233299e+00 1.392865e+00 1.130749e+00 9.390374e-01 4.629789e-02
<GCONST> 6.540118e+01
~s "ST_h_3_1"
<MEAN> 25
 -1.647210e+00 -2.537627e+00 -2.354297e+00 -3.709351e+00 5.844530e+00 7.993288e+00 2.823193e+00 2.842050e+00 5.823364e-01 1.205661e+00 4.082636e-01 3.243055e-01 1.134300e-01 -3.213368e-01 -2.524441e-01 -1.140884e+00 -3.282074e-02 1.396122e-01 -4.117183e-01 -2.404449e-01 -1.991932e-01 -4.385761e-02 -1.155633e-01 1.705789e-01 6.445864e-01
<VARIANCE> 25
 6.025545e+00 1.946884e+01 1.526326e+01 5.171218e+01 1.800035e+01 2.191900e+01 2.819630e+01 1.572286e+01 1.829873e+01 1.951977e+01 2.030867e+01 2.152603e+01 4.348686e-01 6.084580e-01 1.077696e+00 1.582689e+00 1.395023e+00 1.209901e+00 1.414782e+00 1.347748e+00 1.281427e+00 1.511353e+00 1.564153e+00 1.721918e+00 3.001182e-01
<GCONST> 8.223495e+01
~s "ST_h_4_1"
<MEAN> 25
 -2.118701e+00 -3.458219e+00 -2.428738e-01 -3.731343e+00 4.803899e+00 2.879263e+00 -1.706064e+00 -1.926806e+00 9.718630e-01 -2.589920e-01 6.544396e-01 1.225265e+00 1.349196e+00 1.892172e-01 -5.290564e-02 -8.796433e-01 -1.003543e+00 -1.269454e+00 -1.787268e+00 -1.809291e+00 -9.622690e-01 -1.314204e+00 -1.132697e+00 -5.208257e-01 1.221293e+00
<VARIANCE> 25
 2.225173e+01 6.030977e+01 3.334772e+01 6.754288e+01 3.918219e+01 3.719904e+01 4.855403e+01 3.819991e+01 4.309449e+01 3.516055e+01 2.628475e+01 3.069754e+01 2.582195e+00 3.836975e+00 2.575516e+00 2.645923e+00 2.870140e+00 4.831664e+00 3.670080e+00 2.794134e+00 4.022671e+00 2.507781e+00 2.630340e+00 3.286724e+00 1.760654e+00
<GCONST> 1.038988e+02
~s "ST_u_2_1"
<MEAN> 25
 9.640594e+00 6.780893e+00 -4.333334e+00 -8.493036e+00 -7.830244e+00 -8.271957e+00 -1.004113e+01 -6.319316e+00 -5.401039e+00 -3.094418e+00 -2.102247e+00 1.363346e+00 8.895310e-02 4.531180e-01 3.745642e-01 2.436148e-01 -3.068950e-01 -2.710204e-01 -2.655941e-01 -9.939221e-02 -2.775126e-01 -3.639722e-01 -2.190176e-01 -3.194808e-01 -3.678768e-01
<VARIANCE> 25
 1.634332e+01 2.464522e+01 2.244703e+01 4.674456e+01 2.685580e+01 3.049267e+01 3.908612e+01 3.191925e+01 3.550370e+01 3.541618e+01 2.144924e+01 3.093372e+01 2.740483e+00 2.104843e+00 2.241992e+00 5.190879e+00 2.331534e+00 2.989710e+00 5.239984e+00 3.634785e+00 3.563890e+00 2.623147e+00 2.330884e+00 2.928218e+00 2.078158e+00
<GCONST> 1.003550e+02
~s "ST_u_3_1"
<MEAN> 25
 1.755704e+00 3.448418e+00 -7.351239e-01 -1.449349e+00 -4.824564e+00 -5.916270e+00 -2.932019e+00 -2.459137e+00 -3.509908e+00 -5.545316e-01 -2.681031e-02 -7.022291e-01 -2.516360e+00 -9.057596e-01 1.006296e-01 1.202835e+00 1.602157e+00 1.464644e+00 2.656806e+00 1.620722e+00 1.229341e+00 2.002621e+00 1.483119e+00 4.364357e-01 -8.873234e-01
<VARIANCE> 25
 4.057884e+01 2.579953e+01 2.455290e+01 2.060339e+01 3.184367e+01 4.461364e+01 4.948084e+01 4.629309e+01 4.264665e+01 4.480254e+01 2.997852e+01 2.266894e+01 2.218429e+00 2.366154e+00 1.747431e+00 2.804721e+00 1.997477e+00 2.338935e+00 4.506029e+00 3.470912e+00 3.335424e+00 3.274017e+00 2.189350e+00 2.300650e+00 1.894398e+00
<GCONST> 1.003842e+02
~s "ST_u_4_1"
<MEAN> 25
 -1.119076e+00 9.994703e-01 -1.205143e+00 2.927299e+00 1.568145e+00 1.489908e+00 2.553051e+00 1.654456e+00 1.141508e+00 2.943514e+00 2.176225e+00 9.065304e-02 -1.652229e-01 -1.464432e-02 8.311980e-02 1.961758e-01 2.793582e-01 1.580513e-01 1.583795e-01 9.936324e-02 5.829157e-02 4.850920e-02 -4.015705e-02 -5.491696e-02 -1.177195e-01
<VARIANCE> 25
 7.250471e+00 1.495564e+01 1.139409e+01 1.149815e+01 1.635692e+01 2.065476e+01 2.128069e+01 1.828568e+01 1.841252e+01 2.060018e+01 1.666117e+01 1.300504e+01 1.997227e-01 5.400816e-01 5.656269e-01 8.225251e-01 1.006223e+00 1.157516e+00 1.315082e+00 1.228630e+00 1.652176e+00 1.550703e+00 1.261687e+00 1.099562e+00 2.360206e-01
<GCONST> 7.607617e+01
~s "ST_u_4_2"
<MEAN> 25
 -9.769224e+00 3.740736e+00 -1.748880e+00 -1.021905e+00 1.065485e+00 -3.479679e+00 7.338379e+00 2.799638e+00 -9.833267e-01 5.861601e+00 2.218248e+00 2.735470e-01 -9.385234e-02 1.195720e-01 3.990000e-03 2.700618e-01 3.197910e-01 3.128502e-01 3.915166e-01 -7.796181e-02 4.237389e-01 3.723691e-02 -4.779983e-02 7.733093e-02 -3.557495e-01
<VARIANCE> 25
 4.619206e+01 1.536821e+01 1.309755e+01 1.851638e+01 1.618415e+01 3.298701e+01 3.844820e+01 2.472171e+01 2.502627e+01 3.335898e+01 2.154856e+01 1.333119e+01 6.743332e-01 7.045584e-01 4.679278e-01 9.260897e-01 1.085014e+00 1.486265e+00 1.687777e+00 1.340053e+00 1.691579e+00 1.548703e+00 1.567055e+00 1.144500e+00 1.757665e-01
<GCONST> 8.305013e+01
~s "ST_k_2_1"
<MEAN> 25
 -2.444747e+00 1.551089e+00 9.357600e-01 4.771986e+00 3.204222e+00 3.439592e+00 3.495774e+00 2.737064e+00 2.089554e+00 3.286260e+00 2.244964e+00 -3.823490e-01 -5.416562e-02 -2.879837e-01 -3.405041e-01 -8.188690e-02 2.911694e-01 -6.518310e-02 -1.802452e-01 1.524214e-01 8.479149e-02 1.617929e-01 -3.721891e-02 9.015799e-02 4.646887e-01
<VARIANCE> 25
 5.895735e+00 1.088903e+01 1.354090e+01 1.601266e+01 1.734828e+01 1.789156e+01 1.773832e+01 1.912715e+01 1.731142e+01 1.557505e+01 1.745165e+01 1.203310e+01 6.448912e-01 1.527031e+00 2.184636e+00 2.243419e+00 1.715951e+00 2.396634e+00 2.083141e+00 1.821121e+00 2.284750e+00 2.019408e+00 1.888614e+00 1.401110e+00 2.224651e+00
<GCONST> 8.562003e+01
~s "ST_k_3_1"
<MEAN> 25
 -1.526072e+00 -1.498974e+00 -6.611738e+00 -4.874009e-01 4.020392e+00 5.428879e-01 1.154495e+00 3.303238e+00 1.600399e+00 5.277802e+00 -1.133306e+00 6.923097e-01 1.121237e+00 -1.830212e+00 -1.874079e+00 -2.387475e+00 -4.413636e-02 -7.082790e-01 -1.759567e+00 -4.570967e-01 -3.026228e-01 -1.004456e-01 -1.709175e+00 2.106418e-01 3.441823e+00
<VARIANCE> 25
 1.973628e+01 4.645890e+01 5.923436e+01 5.571907e+01 4.689802e+01 5.509221e+01 3.080743e+01 2.310263e+01 3.701161e+01 3.446665e+01 2.380318e+01 2.026262e+01 3.318386e+00 8.422175e+00 6.757265e+00 5.422119e+00 4.841184e+00 6.985983e+00 5.146299e+00 4.499268e+00 5.131095e+00 4.194671e+00 3.020199e+00 2.200553e+00 4.757997e+00
<GCONST> 1.087420e+02
~s "ST_k_4_1"
<MEAN> 25
 2.426260e+00 -7.021915e+00 -3.288807e+00 -4.483619e+00 2.096156e+00 3.506363e-01 -4.017276e+00 -3.757088e-01 1.223222e+00 1.263990e-01 -2.969537e+00 -1.581410e-01 1.449065e+00 -7.295318e-01 7.437971e-01 -1.626284e+00 -6.951504e-01 -4.956338e-01 -7.838445e-01 -1.258931e+00 -8.314121e-01 -1.386120e+00 -5.678821e-01 -1.142286e-02 1.621839e+00
<VARIANCE> 25
 4.158116e+01 1.036882e+02 6.369600e+01 5.067284e+01 7.046866e+01 7.558990e+01 6.719307e+01 5.948298e+01 4.085899e+01 4.353516e+01 4.356762e+01 2.159396e+01 4.219820e+00 7.659508e+00 3.586208e+00 5.653151e+00 4.327974e+00 5.702760e+00 5.340760e+00 6.363998e+00 3.846089e+00 3.466577e+00 4.356188e+00 2.493788e+00 8.469683e+00
<GCONST> 1.139289e+02
~s "ST_x_2_1"
<MEAN> 25
 -2.164605e+00 -1.008013e+01 2.983336e-01 3.935275e+00 -5.098979e+00 2.673912e+00 7.766521e-01 4.234949e+00 2.041909e+00 -3.274523e+00 3.594273e+00 2.725823e+00 -6.863665e-01 1.505297e-01 -8.907142e-01 7.758127e-01 -2.749183e-01 -2.665220e-01 3.824727e-01 6.172767e-01 -2.310295e-02 -1.039620e-01 4.693515e-01 3.549138e-01 8.094480e-01
<VARIANCE> 25
 1.052478e+01 1.045682e+02 4.573985e+01 3.334333e+01 3.975347e+01 6.417655e+01 2.364429e+01 3.634957e+01 1.820856e+01 3.030056e+01 1.568737e+01 1.776947e+01 1.974721e+00 9.760573e+00 3.283922e+00 3.278440e+00 5.398533e+00 5.513005e+00 2.596343e+00 4.995198e+00 2.470213e+00 4.279666e+00 2.152121e+00 1.793279e+00 5.948124e+00
<GCONST> 1.036071e+02
~s "ST_x_3_1"
<MEAN> 25
 -1.003427e+01 2.117934e+00 -5.284028e+00 6.677464e+00 -7.807746e+00 4.466272e+00 5.559046e+00 9.454201e+00 9.863408e-01 9.704898e-01 5.844654e+00 1.338043e+00 3.770962e-01 2.293788e-01 2.799914e-01 -1.998976e-01 6.119556e-01 2.390740e-01 -1.132307e-01 -2.194831e-01 -1.787660e-01 1.448424e-01 -1.002197e-01 -6.933285e-02 -6.641455e-01
<VARIANCE> 25
 1.908524e+01 5.603445e+00 9.423471e+00 9.291788e+00 2.263150e+01 1.978209e+01 1.773512e+01 1.794434e+01 1.540548e+01 1.672734e+01 1.941242e+01 1.186868e+01 1.625142e+00 1.115338e+00 7.641997e-01 6.466793e-01 1.877647e+00 2.160688e+00 1.920690e+00 1.554615e+00 1.754558e+00 1.813987e+00 1.831369e+00 1.467847e+00 5.510764e-01
<GCONST> 8.188509e+01
~s "ST_x_4_1"
<MEAN> 25
 -5.453691e+00 1.184784e+01 -3.140201e+00 6.250406e+00 5.875183e+00 -1.214396e+00 5.064486e+00 2.015377e+00 -1.075591e+00 3.636653e+00 4.088911e-01 -8.505067e-01 -1.359529e-01 2.676238e-01 9.081404e-02 -8.187439e-02 1.937317e-01 -5.816382e-02 1.031730e-01 7.567114e-02 -8.425509e-02 1.303573e-01 -9.711077e-02 -1.526067e-01 -2.314062e-01
<VARIANCE> 25
 3.943420e+00 1.788248e+01 7.492889e+00 9.749413e+00 1.007055e+01 1.544355e+01 1.798419e+01 1.377528e+01 1.243858e+01 1.729212e+01 1.601237e+01 1.314079e+01 1.656418e-01 6.173646e-01 4.654258e-01 5.667762e-01 1.078363e+00 1.140001e+00 1.143123e+00 9.441304e-01 1.319220e+00 1.272938e+00 1.526946e+00 1.034711e+00 1.742890e-01
<GCONST> 7.167193e+01
~s "ST_a_2_1"
<MEAN> 25
 6.278774e+00 -8.841827e+00 -7.070103e-01 -4.093392e+00 -1.879374e+00 -4.117714e+00 -5.830700e+00 -3.140552e+00 -3.243073e+00 -9.177896e+00 -5.229951e+00 3.716293e-01 -3.348128e-01 5.047178e-01 -4.835152e-02 5.616630e-01 1.975162e-02 2.392159e-01 1.639464e-01 4.958517e-03 1.497967e-02 8.290550e-02 1.818839e-01 2.427147e-02 -9.037077e-01
<VARIANCE> 25
 1.907966e+01 7.516190e+01 3.246672e+01 3.973503e+01 5.373238e+01 3.895780e+01 5.679900e+01 4.105159e+01 3.004195e+01 3.865107e+01 3.285349e+01 2.506168e+01 1.996177e+00 3.624550e+00 2.032418e+00 2.009775e+00 3.758731e+00 2.911667e+00 3.736239e+00 3.414973e+00 2.884363e+00 3.525278e+00 2.941946e+00 2.050601e+00 3.517132e+00
<GCONST> 1.032484e+02
~s "ST_a_3_1"
<MEAN> 25
 -1.922640e+00 -3.696624e+00 -9.497048e-02 1.253611e+00 2.520150e+00 1.327855e+00 -2.791469e-01 2.801260e+00 1.263398e+00 -3.035370e+00 1.630344e+00 1.958692e+00 -3.850079e-01 6.550122e-01 2.084486e-01 3.935738e-01 2.868260e-01 3.682294e-01 5.772344e-01 4.911672e-01 3.152988e-01 8.634320e-01 5.925896e-01 -1.155170e-01 -9.852271e-01
<VARIANCE> 25
 1.417680e+01 3.060273e+01 2.207263e+01 1.834489e+01 3.283289e+01 2.844903e+01 3.046867e+01 3.753819e+01 3.151609e+01 4.223535e+01 3.901933e+01 2.167360e+01 1.105356e+00 1.698599e+00 1.439944e+00 1.404341e+00 2.227995e+00 2.536784e+00 3.024130e+00 3.076115e+00 2.888059e+00 3.484898e+00 3.480952e+00 2.235574e+00 1.800081e+00
<GCONST> 9.608390e+01
~s "ST_a_3_2"
<MEAN> 25
 -8.095176e+00 1.077263e+00 -5.695002e+00 3.607019e+00 -3.900099e+00 3.567920e+00 4.889160e+00 3.037593e+00 2.491630e+00 2.430435e+00 3.968296e+00 -7.433420e-01 -3.890670e-01 5.896041e-01 1.408586e-01 4.927251e-01 6.886801e-01 3.125885e-01 2.905747e-01 2.415330e-01 4.406749e-01 6.405584e-01 3.820085e-01 -2.611315e-02 -6.825781e-01
<VARIANCE> 25
 2.299371e+01 1.961469e+01 2.353667e+01 1.389520e+01 2.383487e+01 2.359399e+01 2.170022e+01 2.160665e+01 1.805733e+01 2.334336e+01 1.782251e+01 1.480987e+01 2.990570e+00 1.827814e+00 2.034665e+00 1.679940e+00 1.785051e+00 2.082050e+00 1.919094e+00 2.056434e+00 3.602023e+00 4.901118e+00 3.601021e+00 1.569392e+00 7.914330e-01
<GCONST> 9.193288e+01
~s "ST_a_4_1"
<MEAN> 25
 -1.574692e+00 8.700752e-01 -3.246340e-01 3.377123e+00 3.031908e+00 3.121173e+00 3.127296e+00 1.837637e+00 1.033905e+00 2.235205e+00 1.949242e+00 -4.759053e-02 -3.990753e-02 8.297642e-02 4.567968e-02 4.619448e-02 2.941762e-02 1.181722e-02 4.987144e-02 -5.210843e-02 -1.771669e-02 8.950121e-02 -1.381788e-02 -2.650782e-02 -7.160106e-02
<VARIANCE> 25
 4.643620e+00 1.108639e+01 8.092937e+00 9.547015e+00 1.252942e+01 1.561019e+01 1.520276e+01 1.579018e+01 1.483629e+01 1.698574e+01 1.541481e+01 1.196492e+01 1.398633e-01 3.383491e-01 4.411870e-01 6.142653e-01 8.482876e-01 9.430363e-01 1.217905e+00 1.252694e+00 1.245964e+00 1.330651e+00 1.303481e+00 1.099695e+00 9.985910e-02
<GCONST> 7.014352e+01
~s "ST_n_2_1"
<MEAN> 25
 5.764346e+00 5.033487e+00 5.276044e+00 1.031734e+00 -9.727162e+00 -1.204195e+01 -7.168244e+00 -5.265659e+00 -4.196020e+00 -4.910646e+00 -1.869516e+00 -2.181625e+00 -2.242887e-01 1.253607e-01 2.313296e-02 8.863574e-02 2.744789e-01 -4.443156e-02 -3.082061e-01 -1.527745e-01 -3.550037e-01 -1.907937e-02 6.120474e-02 -2.079785e-01 -3.039705e-01
<VARIANCE> 25
 8.521991e+00 1.290605e+01 1.148839e+01 1.369226e+01 3.144102e+01 2.116910e+01 2.308816e+01 1.415323e+01 2.191830e+01 2.529260e+01 1.302278e+01 1.488286e+01 3.179019e-01 5.482767e-01 5.543791e-01 6.627088e-01 9.075999e-01 1.255911e+00 1.581889e+00 1.477556e+00 1.807912e+00 1.658547e+00 1.457284e+00 1.272331e+00 2.718185e-01
<GCONST> 7.822462e+01
~s "ST_n_3_1"
<MEAN> 25
 3.384822e-01 3.021783e+00 4.212778e+00 3.444600e+00 -3.456347e+00 -4.607516e+00 -3.657058e+00 -1.742360e+00 -4.322324e+00 -2.661552e+00 1.914030e+00 -4.862063e-01 -1.039713e+00 -5.219117e-01 -6.126935e-01 1.637562e-01 1.253459e+00 1.913501e+00 1.735056e+00 1.345773e+00 1.231801e+00 1.495408e+00 1.072094e+00 6.224849e-01 -7.007762e-01
<VARIANCE> 25
 1.197081e+01 2.644522e+01 1.534596e+01 1.531523e+01 2.942387e+01 3.593832e+01 3.540506e+01 3.074495e+01 2.556268e+01 3.903656e+01 2.863220e+01 2.117993e+01 6.598119e-01 9.759463e-01 9.249065e-01 1.006484e+00 1.150148e+00 2.143440e+00 2.464209e+00 2.467302e+00 2.478469e+00 2.468521e+00 2.428052e+00 1.715001e+00 2.571463e-01
<GCONST> 8.850879e+01
~s "ST_n_4_1"
<MEAN> 25
 -2.315933e+00 8.327498e-01 5.106896e-01 3.956734e+00 3.412991e+00 3.876611e+00 3.396212e+00 2.634475e+00 1.763368e+00 3.566540e+00 2.896439e+00 2.424400e-01 -2.052079e-02 4.208102e-02 -8.163263e-02 4.790336e-02 1.688314e-01 1.004241e-01 9.073167e-02 1.101972e-02 9.435703e-02 9.664278e-02 -8.034718e-02 -4.409563e-02 -6.404746e-02
<VARIANCE> 25
 5.971825e+00 7.221421e+00 1.271419e+01 1.076565e+01 1.645085e+01 1.825964e+01 1.830468e+01 1.552981e+01 1.366095e+01 1.475945e+01 1.645885e+01 1.291970e+01 1.651004e-01 3.071107e-01 5.102051e-01 6.464459e-01 9.861777e-01 1.193373e+00 1.281081e+00 1.300902e+00 1.283277e+00 1.443465e+00 1.305459e+00 1.075552e+00 1.250495e-01
<GCONST> 7.211061e+01
~s "ST_d_2_1"
<MEAN> 25
 -2.800792e+00 5.975855e+00 -2.187311e+00 4.376981e+00 2.980142e+00 2.985068e-01 3.259855e+00 3.319432e-01 -5.273391e-01 2.761305e+00 6.875095e-01 -5.411870e-01 -8.123721e-02 1.260089e-01 -1.495728e-02 -1.728248e-02 7.294471e-02 8.874663e-03 3.601121e-02 7.676173e-02 -6.690178e-02 6.701445e-02 6.381508e-02 -2.445882e-02 -9.439336e-02
<VARIANCE> 25
 7.704736e+00 2.464001e+01 9.730424e+00 7.680643e+00 1.976841e+01 2.326566e+01 1.373458e+01 1.456087e+01 1.268979e+01 1.376784e+01 1.191777e+01 1.330737e+01 1.106387e-01 3.409627e-01 3.765267e-01 4.541719e-01 8.737558e-01 9.322695e-01 9.796164e-01 1.023254e+00 1.248155e+00 1.133616e+00 1.104414e+00 1.121946e+00 7.458593e-02
<GCONST> 6.988534e+01
~s "ST_d_3_1"
<MEAN> 25
 -1.167564e+00 6.361974e+00 2.634163e+00 1.774341e+00 4.213506e-02 -1.101910e+00 -2.147182e+00 -6.602305e-01 -1.010030e+00 1.023050e+00 9.916385e-01 -8.897228e-01 3.735915e-01 -9.915931e-01 1.197878e+00 -1.060322e+00 -1.564466e+00 -3.721925e-02 -1.537028e+00 4.245086e-02 -2.958183e-01 -6.402171e-01 2.378455e-02 -1.721953e-01 2.433666e+00
<VARIANCE> 25
 3.136897e+01 5.575083e+01 2.320590e+01 2.517737e+01 4.192586e+01 4.991668e+01 7.354560e+01 3.858734e+01 2.316537e+01 1.984905e+01 1.624027e+01 1.548552e+01 3.089114e+00 5.704380e+00 3.838687e+00 3.679841e+00 5.839887e+00 5.694970e+00 5.488719e+00 5.286151e+00 2.180593e+00 3.121807e+00 1.854107e+00 1.749919e+00 5.342543e+00
<GCONST> 1.041992e+02
~s "ST_d_4_1"
<MEAN> 25
 4.505659e+00 -5.932490e-01 5.611484e+00 -5.819517e+00 -9.270702e+00 -5.113338e+00 -6.031345e+00 -1.180470e+00 -3.184310e+00 -5.349338e+00 -1.938320e+00 -5.069818e-01 7.840546e-01 -9.988926e-01 -5.578771e-02 -1.300772e+00 -1.150577e+00 -6.292592e-01 2.514965e-01 4.012696e-02 -6.899688e-02 -5.882790e-01 -8.686018e-01 3.614904e-01 2.087069e+00
<VARIANCE> 25
 2.439117e+01 9.709601e+01 5.461159e+01 4.130027e+01 7.012806e+01 3.035048e+01 6.781561e+01 4.640451e+01 3.188054e+01 5.693838e+01 3.761652e+01 2.673669e+01 2.626554e+00 7.337416e+00 5.526337e+00 5.804588e+00 9.049136e+00 4.509952e+00 7.913095e+00 4.283626e+00 3.478172e+00 5.203624e+00 4.000514e+00 2.784024e+00 1.052627e+01
<GCONST> 1.128919e+02
~s "ST_ay_2_1"
<MEAN> 25
 2.630806e+00 -2.229463e+00 4.218783e+00 -6.992449e+00 -1.363145e+01 -5.139279e-01 -3.808860e+00 -2.750123e-01 -9.800574e+00 -9.109580e+00 -7.341367e+00 1.811262e+00 -3.909497e-01 1.038403e+00 1.124858e+00 -1.038564e+00 -1.419417e+00 8.635104e-01 -8.645470e-02 -1.111102e+00 4.964899e-01 1.265038e+00 -6.853480e-01 -5.933486e-01 -5.102658e-01
<VARIANCE> 25
 6.180569e+00 1.565108e+01 1.780429e+01 2.362957e+01 3.322111e+01 2.496078e+01 1.050036e+01 3.460658e+01 2.024768e+01 4.593205e+01 2.912285e+01 2.473822e+01 2.306353e-01 5.203135e-01 4.217642e-01 1.542081e+00 2.417635e+00 1.283756e+00 1.978406e+00 1.227201e+00 1.527573e+00 1.641407e+00 1.487070e+00 1.226295e+00 1.816208e-01
<GCONST> 8.187523e+01
~s "ST_ay_3_1"
<MEAN> 25
 -2.354990e+00 2.748137e-01 8.319149e+00 -6.837519e+00 -9.125230e+00 7.281170e+00 -3.411803e+00 -3.556798e+00 -1.254233e+00 -2.245668e-01 -4.810419e+00 1.159279e+00 -2.758638e-01 -3.628552e-01 -3.943073e-01 1.058820e+00 1.613107e+00 3.578761e-01 8.592618e-01 7.593096e-01 5.724664e-01 2.821053e-01 1.188764e+00 1.718711e-01 -9.606243e-01
<VARIANCE> 25
 7.477148e+00 1.354083e+01 8.032476e+00 2.232689e+01 4.091609e+01 2.165631e+01 4.800273e+01 3.448334e+01 2.791814e+01 2.405085e+01 4.843125e+01 1.149495e+01 6.591899e-01 6.168995e-01 9.477373e-01 1.473053e+00 1.494868e+00 2.449406e+00 3.517025e+00 1.607807e+00 3.442487e+00 2.701862e+00 1.929908e+00 1.482213e+00 3.129819e-01
<GCONST> 8.736759e+01
~s "ST_ay_4_1"
<MEAN> 25
 -2.042846e+00 -2.612398e-01 -7.810119e-01 3.589994e+00 5.281070e+00 4.905615e+00 4.631567e+00 3.393048e+00 2.140894e+00 2.816338e+00 3.571229e+00 4.747533e-01 4.813382e-02 5.364593e-02 -1.256402e-01 3.927137e-02 4.449901e-02 -9.553757e-02 -3.467561e-02 -3.439723e-02 3.640576e-02 9.255263e-02 3.713769e-03 7.300971e-03 -4.179610e-02
<VARIANCE> 25
 2.661540e+00 3.474369e+00 5.545186e+00 5.821251e+00 8.113021e+00 8.748677e+00 8.918295e+00 1.411547e+01 1.425558e+01 1.033247e+01 1.327905e+01 9.766051e+00 2.173466e-01 2.856507e-01 7.845407e-01 6.938882e-01 7.970884e-01 8.287079e-01 8.012484e-01 1.018406e+00 1.137080e+00 1.140915e+00 1.094369e+00 8.269624e-01 7.907692e-02
<GCONST> 6.421876e+01
~s "ST_g_2_1"
<MEAN> 25
 6.599576e+00 -8.537693e+00 2.682399e+00 -5.747500e+00 -4.229742e+00 -3.433473e+00 -5.878275e+00 -2.263906e+00 1.320404e+00 -2.609271e+00 -2.329698e+00 1.543257e+00 8.656772e-01 -9.735213e-01 -7.473877e-02 -1.717179e+00 -1.291547e+00 -1.095081e+00 -4.977097e-01 -5.715429e-01 -1.826272e-01 -3.728163e-01 -8.181601e-01 4.852777e-01 2.224379e+00
<VARIANCE> 25
 6.673925e+01 1.408216e+02 3.722911e+01 9.905751e+01 1.012859e+02 5.668861e+01 7.937357e+01 7.208163e+01 3.380379e+01 4.800383e+01 3.221722e+01 3.125915e+01 2.346749e+00 8.738400e+00 3.650871e+00 6.674343e+00 6.592716e+00 4.969657e+00 4.880131e+00 6.526797e+00 4.177656e+00 3.962426e+00 3.870344e+00 3.256061e+00 7.322921e+00
<GCONST> 1.154180e+02
~s "ST_g_3_1"
<MEAN> 25
 7.169893e+00 -4.704393e+00 1.316934e+00 -1.311633e+01 -9.825479e+00 -9.058030e+00 -1.862648e+00 -6.812776e+00 -1.291353e+00 -3.916515e+00 -9.774257e+00 7.863126e-01 3.684739e-02 3.560538e-01 -1.095654e-02 4.792135e-01 -1.947913e-01 -2.074004e-02 2.484653e-01 -7.952268e-02 -5.332436e-01 -3.350681e-01 1.652607e-01 -3.597569e-01 -6.603523e-01
<VARIANCE> 25
 1.462728e+01 6.208028e+01 5.057967e+01 2.398719e+01 8.871699e+01 2.592081e+01 7.363479e+01 4.911451e+01 1.685980e+01 4.412899e+01 2.414322e+01 1.368416e+01 4.679910e-01 2.008985e+00 7.205466e-01 1.792980e+00 1.760385e+00 1.418048e+00 2.643389e+00 1.578622e+00 1.439245e+00 1.450931e+00 1.380043e+00 1.016066e+00 1.348527e+00
<GCONST> 9.211665e+01
~s "ST_g_4_1"
<MEAN> 25
 2.143730e+00 -9.874726e+00 1.767799e+00 -1.182443e+00 -7.504907e+00 1.790827e+00 -2.501739e+00 -2.508063e+00 -5.523580e-01 -2.733728e+00 7.249712e-01 -7.336828e-01 -1.125873e+00 7.393949e-02 -8.441634e-01 9.007537e-01 6.245598e-01 1.023279e+00 6.307306e-01 4.514662e-01 3.165279e-01 6.095636e-01 6.682246e-01 -2.490674e-02 -7.481369e-01
<VARIANCE> 25
 2.237983e+01 1.773919e+02 3.992112e+01 3.171838e+01 5.459610e+01 5.063348e+01 3.510246e+01 3.231614e+01 3.740789e+01 3.992598e+01 3.511489e+01 2.084522e+01 3.242285e+00 3.511722e+00 3.161223e+00 2.871868e+00 2.550647e+00 5.847551e+00 3.400742e+00 3.722594e+00 4.188781e+00 3.910259e+00 3.353945e+00 2.366940e+00 2.240122e+00
<GCONST> 1.057937e+02
~s "ST_t_2_1"
<MEAN> 25
 -2.856045e+00 2.788863e+00 5.804222e-01 5.218013e+00 4.252838e+00 2.288860e+00 3.356174e+00 2.462836e+00 1.026767e+00 2.955474e+00 1.791845e+00 -2.203171e-01 -6.113319e-02 1.383729e-02 8.634216e-03 3.692102e-02 7.361565e-02 5.243762e-02 4.685392e-02 3.641095e-02 3.265802e-02 2.871765e-02 -6.548288e-03 -1.658130e-02 -4.919107e-02
<VARIANCE> 25
 3.414982e+00 1.575880e+01 1.169292e+01 8.864558e+00 1.266257e+01 1.488736e+01 1.236714e+01 1.224299e+01 1.452481e+01 1.224421e+01 1.424799e+01 1.120833e+01 1.407294e-01 3.318971e-01 4.266937e-01 5.646112e-01 8.557996e-01 9.454557e-01 1.079115e+00 1.168226e+00 1.191232e+00 1.147925e+00 1.354234e+00 1.119881e+00 1.248450e-01
<GCONST> 6.926827e+01
~s "ST_t_3_1"
<MEAN> 25
 -3.198204e+00 1.911975e+00 -9.898349e-01 3.799933e+00 3.553675e+00 1.680756e+00 3.874954e+00 2.562844e+00 2.220614e+00 2.607574e+00 1.567663e+00 4.514102e-01 2.164196e-02 -1.374799e+00 -1.348917e-01 -1.099747e+00 -6.045421e-01 -1.236971e+00 -5.247859e-01 1.334463e-01 9.194748e-01 -4.506692e-01 -1.397961e-01 5.350884e-01 2.808423e+00
<VARIANCE> 25
 7.314231e+00 1.951088e+01 1.315227e+01 1.388998e+01 2.074189e+01 2.198416e+01 1.635621e+01 1.723187e+01 1.800689e+01 1.960091e+01 1.633372e+01 1.412575e+01 1.820507e+00 4.126596e+00 2.282094e+00 2.939932e+00 4.763203e+00 4.614884e+00 2.891405e+00 2.976262e+00 2.380825e+00 2.551049e+00 2.007902e+00 1.782696e+00 6.000941e+00
<GCONST> 9.322065e+01
~s "ST_t_4_1"
<MEAN> 25
 1.717604e+00 -6.756906e+00 -4.643195e-01 -2.920618e+00 -5.274199e-01 -2.678405e+00 -3.403430e+00 -6.254430e-01 2.659138e+00 -2.024055e+00 -9.286797e-02 1.293701e+00 2.697533e+00 -1.622838e+00 -1.542191e-01 -2.767761e+00 -1.273875e+00 -1.043609e+00 -2.851779e+00 -1.761454e+00 -9.073623e-01 -1.806749e+00 -9.363531e-01 8.090338e-02 3.955788e+00
<VARIANCE> 25
 6.600802e+01 8.916601e+01 2.872642e+01 6.372841e+01 6.973469e+01 4.939473e+01 9.546645e+01 5.745946e+01 3.139757e+01 4.646769e+01 2.969133e+01 1.947835e+01 4.000282e+00 1.360928e+01 3.943681e+00 5.441586e+00 5.738203e+00 6.515891e+00 7.990486e+00 6.317681e+00 2.971911e+00 4.608264e+00 2.930708e+00 1.912228e+00 1.052870e+01
<GCONST> 1.138407e+02
~s "ST_sil_2_1"
<MEAN> 25
 -3.319610e+00 4.014728e+00 -3.905622e-01 4.956660e+00 4.121904e+00 1.621997e+00 2.903270e+00 2.170892e+00 1.565121e+00 3.487762e+00 1.675628e+00 -1.066988e-01 -5.848717e-02 9.837390e-02 4.970676e-02 1.376311e-02 8.696733e-02 3.767556e-02 6.520922e-02 6.654512e-03 -3.222676e-02 6.574572e-02 -1.794864e-02 -3.100102e-02 -7.626689e-02
<VARIANCE> 25
 3.360718e+00 1.886369e+01 1.633993e+01 9.108200e+00 1.022368e+01 1.667968e+01 1.502463e+01 1.339204e+01 1.543675e+01 1.454547e+01 1.372258e+01 1.197735e+01 1.298506e-01 3.194777e-01 4.392827e-01 6.065454e-01 8.188213e-01 8.767965e-01 1.053965e+00 1.114538e+00 1.229845e+00 1.213383e+00 1.185072e+00 1.079068e+00 8.134229e-02
<GCONST> 6.952016e+01
~s "silst"
<MEAN> 25
 -9.934250e+00 1.498341e+01 -1.988089e+00 4.208089e+00 7.659710e+00 1.611753e+00 9.579600e+00 6.056384e+00 2.576601e-01 6.617698e+00 2.679989e+00 -1.974474e-01 -1.337869e-01 7.624476e-02 1.102707e-02 -2.452861e-02 2.583727e-02 2.478765e-02 9.299926e-02 1.043327e-01 8.912896e-02 6.898995e-02 7.108525e-02 3.569671e-02 -7.823946e-02
<VARIANCE> 25
 3.279541e+01 3.914824e+01 2.377099e+01 8.909319e+00 1.341109e+01 2.129669e+01 2.919214e+01 1.892861e+01 1.673779e+01 1.537886e+01 1.991362e+01 1.475289e+01 2.263097e+00 2.158718e+00 1.734702e+00 8.512009e-01 1.228976e+00 1.532511e+00 2.182653e+00 1.612501e+00 1.426447e+00 1.328327e+00 1.536834e+00 1.266376e+00 1.828034e+00
<GCONST> 8.743847e+01
~s "ST_sil_3_1"
<MEAN> 25
 -1.003098e+01 1.498159e+01 -1.957108e+00 4.180741e+00 7.654225e+00 1.657184e+00 9.652210e+00 6.115901e+00 3.151597e-01 6.650980e+00 2.731324e+00 -1.697924e-01 -1.336749e-01 7.734928e-02 1.612914e-02 -2.374422e-02 2.670774e-02 1.857692e-02 8.668329e-02 1.060752e-01 8.947846e-02 6.480841e-02 6.181825e-02 3.347177e-02 -7.729667e-02
<VARIANCE> 25
 3.316226e+01 3.999872e+01 2.400405e+01 8.996277e+00 1.370869e+01 2.154668e+01 2.929642e+01 1.893015e+01 1.687884e+01 1.536193e+01 1.989538e+01 1.500388e+01 2.315084e+00 2.189267e+00 1.768552e+00 8.675287e-01 1.245811e+00 1.565873e+00 2.210156e+00 1.636198e+00 1.445231e+00 1.320273e+00 1.560955e+00 1.281369e+00 1.867859e+00
<GCONST> 8.774431e+01
~s "ST_sil_4_1"
<MEAN> 25
 -1.949346e+00 4.858041e-01 -1.123595e+00 3.867582e+00 9.204602e-01 4.956569e-01 1.951866e-01 8.706883e-01 2.282283e+00 3.528759e-01 1.445142e+00 5.616374e-01 2.667858e-01 -2.903535e-01 -1.064778e-01 -1.120369e-01 -2.763865e-01 -2.119505e-01 -3.220141e-01 -1.589783e-01 -5.579397e-02 -2.300391e-01 -6.265171e-02 2.186455e-02 3.833158e-01
<VARIANCE> 25
 1.119450e+01 3.748864e+01 2.820080e+01 2.181116e+01 3.530386e+01 3.121212e+01 3.701050e+01 2.651435e+01 2.531775e+01 3.973805e+01 2.885200e+01 2.072452e+01 1.287812e+00 3.468558e+00 2.109760e+00 1.941577e+00 2.998441e+00 2.655747e+00 3.395775e+00 2.589257e+00 2.624438e+00 3.159109e+00 2.257525e+00 1.999221e+00 2.457821e+00
<GCONST> 9.728609e+01
~s "ST_j_2_1"
<MEAN> 25
 -1.694559e+00 1.015048e+00 -7.069303e-01 2.178685e+00 3.706696e+00 3.408079e+00 4.329875e+00 1.013716e+00 4.503436e-01 3.749031e+00 3.227757e+00 -4.396246e-01 -1.253231e-02 1.530512e-02 -4.310415e-02 -1.768074e-02 3.772882e-03 -8.781610e-03 9.381159e-02 -4.273312e-02 -5.963878e-02 7.978244e-03 -3.188063e-02 1.183708e-02 -1.327466e-02
<VARIANCE> 25
 2.129243e+00 2.288995e+00 4.183671e+00 4.547326e+00 7.104197e+00 9.272516e+00 1.338267e+01 1.314611e+01 1.275714e+01 1.226129e+01 1.539106e+01 9.525766e+00 8.092678e-02 1.614278e-01 4.130472e-01 5.194900e-01 7.371861e-01 8.332048e-01 1.345353e+00 1.524516e+00 1.290101e+00 9.242427e-01 1.553475e+00 8.929042e-01 3.318499e-02
<GCONST> 6.132611e+01
~s "ST_j_3_1"
<MEAN> 25
 -4.198198e+00 5.146220e+00 3.808421e+00 -4.123857e+00 -2.875960e+00 -4.350273e+00 1.114284e+00 -3.296752e+00 6.065908e-01 3.364990e+00 1.772525e+00 -2.532187e-01 2.161524e-01 3.815615e-01 1.099766e+00 -1.656160e+00 -2.264741e+00 -1.455614e+00 -8.117303e-01 -9.268103e-01 -2.991596e-01 -1.949322e-01 -6.585615e-01 -2.771646e-01 2.177895e+00
<VARIANCE> 25
 4.456733e+01 1.631518e+01 2.861668e+01 4.480456e+01 9.678146e+01 5.190295e+01 4.055429e+01 3.180804e+01 3.085529e+01 2.643642e+01 1.816163e+01 1.835973e+01 9.364486e+00 1.763205e+00 3.129462e+00 3.082021e+00 1.153446e+01 4.053051e+00 6.554531e+00 3.269544e+00 5.074930e+00 2.718045e+00 2.076885e+00 2.048698e+00 3.673818e+00
<GCONST> 1.052437e+02
~s "ST_j_4_1"
<MEAN> 25
 4.112911e+00 -1.267646e+00 2.860925e+00 -8.156759e+00 -1.089286e+01 -1.058499e+01 -1.459661e-01 -2.805958e+00 -4.111906e+00 -5.523611e+00 -8.860226e+00 -4.726362e-01 3.752628e-01 -5.606279e-01 -9.399869e-01 5.091146e-01 9.363270e-01 2.561591e-02 -7.416514e-02 2.391406e-01 1.124042e-01 -8.332057e-01 -8.072836e-01 5.053899e-01 -1.814031e-01
<VARIANCE> 25
 4.285606e+00 3.158593e+01 1.782747e+01 1.799401e+01 4.182799e+01 2.144000e+01 3.329502e+01 1.942640e+01 1.618306e+01 3.564798e+01 1.997268e+01 1.433204e+01 2.192091e-01 1.261721e+00 9.642036e-01 4.024619e-01 2.027688e+00 1.646300e+00 1.881383e+00 2.147764e+00 1.940742e+00 3.299753e+00 2.098613e+00 1.423792e+00 3.928899e-01
<GCONST> 8.429835e+01
~s "ST_w_2_1"
<MEAN> 25
 -1.562798e+00 -7.742434e-01 -1.269928e+00 3.782645e+00 4.328385e+00 4.159630e+00 4.208427e+00 2.770917e+00 2.123271e+00 2.561416e+00 3.469748e+00 2.849365e-01 3.874136e-02 5.353267e-02 -2.923485e-02 -6.470063e-02 -7.529011e-02 1.812953e-02 6.107327e-02 -1.142031e-01 -1.032629e-01 9.608831e-02 -9.315082e-02 -9.153500e-02 -3.317684e-02
<VARIANCE> 25
 2.231538e+00 4.284927e+00 4.491169e+00 5.933170e+00 7.550125e+00 1.200741e+01 1.894708e+01 1.663235e+01 1.283519e+01 1.870904e+01 1.742876e+01 1.140291e+01 1.374339e-01 2.753896e-01 3.770988e-01 5.455930e-01 6.421900e-01 9.225293e-01 1.510371e+00 1.391377e+00 1.332237e+00 1.646674e+00 1.277726e+00 1.026816e+00 6.773152e-02
<GCONST> 6.624947e+01
~s "ST_w_3_1"
<MEAN> 25
 2.651925e-01 -1.520532e+00 -1.149501e+00 5.902294e-01 1.845881e+00 -4.217468e+00 -4.429330e+00 -5.369786e+00 -1.902215e+00 -2.329655e+00 -3.969043e+00 -1.332695e+00 2.079073e+00 4.555143e-01 -5.004416e-01 -1.527435e+00 -6.439316e-01 -2.309665e+00 -1.972806e+00 -1.588342e+00 -7.014740e-01 -1.577023e+00 -1.008365e+00 -9.229855e-01 1.604549e+00
<VARIANCE> 25
 2.186953e+01 3.205454e+01 1.373617e+01 8.907743e+00 3.784782e+01 4.030614e+01 4.382185e+01 7.745763e+01 4.069806e+01 3.253273e+01 3.402908e+01 2.640214e+01 2.407372e+00 2.314751e+00 1.311339e+00 2.607132e+00 3.288027e+00 2.205401e+00 3.729362e+00 4.823753e+00 6.397840e+00 3.247363e+00 1.698082e+00 2.680836e+00 2.452947e+00
<GCONST> 1.000203e+02
~s "ST_w_4_1"
<MEAN> 25
 1.133116e+01 -1.457843e-01 -7.060188e+00 -1.279862e+01 1.753032e+00 -4.233697e+00 -5.779983e+00 -7.436669e+00 -3.762856e+00 -3.046934e-01 -5.007713e+00 -5.257867e+00 -1.566055e-02 -4.026303e-01 -1.011709e-01 -8.320388e-02 5.633506e-01 9.604138e-02 -6.242550e-02 4.022681e-03 3.434309e-02 9.748697e-02 -9.973687e-02 -2.053834e-02 2.912374e-01
<VARIANCE> 25
 1.231439e+01 5.493557e+01 1.323425e+01 3.560382e+01 7.339376e+01 3.490328e+01 2.211154e+01 2.987773e+01 2.198143e+01 1.957666e+01 1.532395e+01 8.944459e+00 1.270111e+00 3.204941e+00 1.083543e+00 4.833814e+00 5.548242e+00 3.181465e+00 1.344304e+00 2.622317e+00 1.881912e+00 9.316297e-01 1.231852e+00 1.241733e+00 1.410726e+00
<GCONST> 9.246675e+01
~s "ST_ng_2_1"
<MEAN> 25
 5.421849e+00 4.266678e+00 3.026386e+00 -3.226216e-01 -4.225248e+00 -7.566988e+00 -8.070399e+00 -5.144111e+00 -3.835438e+00 -5.340740e+00 -1.850981e+00 -2.951357e-01 -1.898734e-01 2.746194e-02 5.983940e-02 1.363214e-01 -3.017778e-02 2.008767e-02 -4.040541e-02 1.338503e-01 -4.002371e-01 -1.181220e-01 -1.061215e-01 -2.877958e-01 -2.148092e-01
<VARIANCE> 25
 5.097732e+00 1.193897e+01 1.120533e+01 2.382046e+01 1.699448e+01 2.303609e+01 1.969029e+01 2.903353e+01 1.760431e+01 2.420355e+01 1.800319e+01 3.105264e+01 2.221588e-01 4.179739e-01 7.312490e-01 6.561091e-01 9.830403e-01 8.533598e-01 8.702611e-01 1.858310e+00 1.399341e+00 1.655449e+00 1.405570e+00 1.439396e+00 3.361079e-01
<GCONST> 7.799018e+01
~s "ST_ng_3_1"
<MEAN> 25
 -5.328422e-01 2.079929e+00 2.018536e+00 1.681006e+00 3.747843e-01 -9.343704e-01 -1.046368e+00 1.189329e-01 -4.086052e+00 -2.817552e+00 1.402058e+00 -9.488152e-01 -9.187577e-01 -8.253633e-01 -6.096636e-01 1.662361e-01 1.189577e+00 1.452531e+00 1.793535e+00 1.458012e+00 1.558567e+00 1.386673e+00 1.026111e+00 5.124560e-01 -5.347176e-01
<VARIANCE> 25
 1.498543e+01 1.739997e+01 9.906378e+00 1.205253e+01 2.060544e+01 3.158330e+01 5.029896e+01 4.281924e+01 4.006854e+01 3.893415e+01 2.780579e+01 2.055173e+01 1.086871e+00 1.261024e+00 6.552753e-01 1.338360e+00 1.725977e+00 1.913762e+00 2.814142e+00 3.469474e+00 3.724420e+00 2.614475e+00 2.402561e+00 1.666446e+00 8.347585e-01
<GCONST> 9.128683e+01
~s "ST_m_2_1"
<MEAN> 25
 6.194376e+00 -4.076637e+00 2.121348e+00 -2.074727e+00 -2.492561e+00 -6.282818e+00 -9.845047e+00 -4.864484e+00 -3.148779e+00 -6.207611e+00 -1.532533e+00 -1.746446e+00 5.418645e-01 -2.864704e-01 3.455673e-01 -2.375919e-02 -2.494915e-01 -9.470285e-01 -1.180390e+00 -5.272736e-01 -5.801383e-01 -8.818286e-01 -3.044730e-01 -2.407139e-01 8.843375e-01
<VARIANCE> 25
 3.350908e+01 8.646986e+01 2.749149e+01 4.482612e+01 5.441431e+01 3.963789e+01 5.148447e+01 4.724665e+01 4.304395e+01 4.916636e+01 3.240989e+01 2.453071e+01 2.659789e+00 6.412113e+00 3.077978e+00 5.934506e+00 5.884280e+00 4.336654e+00 4.948877e+00 5.734483e+00 4.412861e+00 3.986672e+00 3.086487e+00 2.887619e+00 6.521002e+00
<GCONST> 1.101006e+02
~s "ST_ng_4_1"
<MEAN> 25
 -2.999191e+00 3.377872e-01 -1.899195e-01 2.432796e+00 3.642324e+00 5.098866e+00 4.815712e+00 2.455890e+00 2.486829e+00 4.388211e+00 2.516313e+00 -2.715248e-01 -2.415161e-02 2.089609e-03 -1.455498e-02 3.221652e-02 3.130835e-03 2.183942e-02 3.957792e-02 7.615682e-03 3.646094e-02 4.809023e-02 -1.797403e-02 -2.037091e-02 -1.866925e-02
<VARIANCE> 25
 2.081697e+00 4.666843e+00 5.265125e+00 7.094646e+00 1.202145e+01 1.110749e+01 1.260821e+01 1.017664e+01 1.197423e+01 1.391539e+01 1.305436e+01 1.050439e+01 1.177232e-01 2.009975e-01 4.039842e-01 6.039904e-01 9.399791e-01 8.355836e-01 1.125767e+00 1.048976e+00 1.134578e+00 1.082919e+00 1.162268e+00 8.473465e-01 9.593128e-02
<GCONST> 6.424328e+01
~s "ST_m_3_1"
<MEAN> 25
 6.753550e+00 1.405867e+00 3.985868e+00 5.974118e-01 -3.605121e+00 -1.172495e+01 -1.087131e+01 -8.209251e+00 -5.091732e+00 -6.879292e+00 -1.868162e+00 -2.973616e+00 -5.773055e-02 3.119751e-01 1.429196e-01 1.743892e-01 -1.514603e-01 -8.980068e-02 2.489751e-02 -1.014769e-01 -1.061718e-01 3.227652e-01 -1.374714e-01 -4.002300e-02 -2.173015e-01
<VARIANCE> 25
 1.119946e+01 5.023595e+01 1.305606e+01 1.385254e+01 2.503223e+01 1.950888e+01 2.301825e+01 4.891449e+01 2.319135e+01 5.462682e+01 2.597060e+01 1.538512e+01 2.902816e-01 5.885041e-01 6.237545e-01 6.350483e-01 1.046022e+00 1.027928e+00 1.317560e+00 1.306005e+00 1.421059e+00 1.677900e+00 1.327169e+00 1.057145e+00 4.023135e-01
<GCONST> 8.204851e+01
~s "ST_m_4_1"
<MEAN> 25
 5.256640e+00 9.235150e-01 2.911007e+00 1.048272e+00 -2.637636e+00 -6.561468e+00 -9.164823e+00 -6.858993e+00 -4.736632e+00 -3.719298e+00 -1.277827e+00 -1.997342e+00 -7.908476e-01 -5.789292e-01 -7.832821e-01 -8.179046e-01 7.053562e-01 1.455131e+00 1.175303e+00 1.950116e+00 7.039071e-01 -2.086269e-01 5.491164e-01 7.870653e-01 2.209905e-01
<VARIANCE> 25
 3.031316e+01 7.789833e+01 1.905912e+01 2.859388e+01 3.593107e+01 3.446257e+01 4.835522e+01 5.684665e+01 2.389590e+01 5.404473e+01 3.268015e+01 2.586551e+01 2.323171e+00 3.149361e+00 2.667015e+00 3.598865e+00 3.223044e+00 2.637079e+00 3.912159e+00 4.117369e+00 3.000032e+00 4.394700e+00 2.675924e+00 2.557449e+00 3.742666e+00
<GCONST> 1.039514e+02
~s "ST_ah_2_1"
<MEAN> 25
 -1.684587e-08 -6.193333e-08 -4.487690e-08 3.351832e-08 -6.047171e-08 2.058664e-08 -6.607048e-08 -2.205446e-08 -8.534414e-09 2.910867e-08 3.022347e-08 -1.071447e-09 -2.678578e-03 2.715191e-03 1.970940e-04 1.666228e-04 1.831201e-03 -7.320007e-04 3.372927e-03 1.125320e-03 -7.564414e-05 2.413395e-03 8.106225e-04 -2.148533e-03 -1.727290e-03
<VARIANCE> 25
 4.499385e+01 7.342516e+01 3.566479e+01 5.718780e+01 5.546888e+01 4.305736e+01 6.020990e+01 4.209700e+01 2.990068e+01 4.475465e+01 3.376802e+01 1.839641e+01 1.592596e+00 2.317776e+00 1.700131e+00 2.390033e+00 2.486403e+00 2.357601e+00 2.972100e+00 2.655601e+00 2.270027e+00 2.542916e+00 2.264997e+00 1.647762e+00 2.549860e+00
<GCONST> 1.014657e+02
~s "ST_ah_3_1"
<MEAN> 25
 -1.684587e-08 -6.193333e-08 -4.487690e-08 3.351832e-08 -6.047171e-08 2.058664e-08 -6.607048e-08 -2.205446e-08 -8.534414e-09 2.910867e-08 3.022347e-08 -1.071447e-09 -2.678578e-03 2.715191e-03 1.970940e-04 1.666228e-04 1.831201e-03 -7.320006e-04 3.372927e-03 1.125320e-03 -7.564414e-05 2.413395e-03 8.106225e-04 -2.148533e-03 -1.727290e-03
<VARIANCE> 25
 4.499385e+01 7.342516e+01 3.566479e+01 5.718781e+01 5.546888e+01 4.305736e+01 6.020990e+01 4.209700e+01 2.990068e+01 4.475465e+01 3.376802e+01 1.839641e+01 1.592596e+00 2.317776e+00 1.700131e+00 2.390033e+00 2.486403e+00 2.357601e+00 2.972100e+00 2.655601e+00 2.270027e+00 2.542916e+00 2.264997e+00 1.647762e+00 2.549860e+00
<GCONST> 1.014657e+02
~s "ST_ah_4_1"
<MEAN> 25
 -1.684587e-08 -6.193333e-08 -4.487690e-08 3.351832e-08 -6.047171e-08 2.058664e-08 -6.607048e-08 -2.205446e-08 -8.534414e-09 2.910867e-08 3.022347e-08 -1.071447e-09 -2.678578e-03 2.715191e-03 1.970940e-04 1.666228e-04 1.831201e-03 -7.320007e-04 3.372927e-03 1.125320e-03 -7.564414e-05 2.413395e-03 8.106225e-04 -2.148533e-03 -1.727290e-03
<VARIANCE> 25
 4.499385e+01 7.342516e+01 3.566479e+01 5.718780e+01 5.546888e+01 4.305736e+01 6.020990e+01 4.209700e+01 2.990068e+01 4.475465e+01 3.376802e+01 1.839641e+01 1.592596e+00 2.317776e+00 1.700131e+00 2.390033e+00 2.486403e+00 2.357601e+00 2.972100e+00 2.655601e+00 2.270027e+00 2.542916e+00 2.264997e+00 1.647762e+00 2.549860e+00
<GCONST> 1.014657e+02
~s "ST_z_2_1"
<MEAN> 25
 -1.991440e+01 2.277431e+01 5.691731e+00 2.936106e+00 7.078547e+00 6.457920e+00 1.653939e+01 9.992834e+00 1.355222e+00 9.958585e+00 7.722848e+00 2.123011e+00 -1.959144e-01 2.654961e-01 3.742007e-01 3.198605e-02 -1.908070e-02 4.053333e-01 1.871528e-01 -1.396395e-01 1.858399e-01 2.572687e-01 1.270676e-01 8.688097e-03 -1.719120e-01
<VARIANCE> 25
 4.684674e+01 5.891942e+01 1.874695e+01 1.873750e+00 3.457336e+01 1.028408e+01 2.682695e+01 4.171456e+01 1.280636e+01 1.466936e+01 2.916642e+01 8.081461e+00 1.735948e+00 1.301253e+00 1.911014e+00 6.306182e-01 4.411652e-01 8.912944e-01 1.486796e+00 1.637266e+00 1.144588e+00 9.801867e-01 1.193588e+00 7.423477e-01 9.330990e-01
<GCONST> 8.190369e+01
~s "ST_z_3_1"
<MEAN> 25
 -5.828197e+00 1.785779e+00 2.735057e+00 4.679076e+00 2.052767e+00 7.351818e+00 3.482567e+00 -2.385735e+00 2.667349e+00 1.733134e+00 -2.254712e+00 -1.268896e+00 2.282822e+00 -5.869592e+00 3.763972e-01 -1.119458e+00 -5.738245e-01 2.905191e-01 -3.365806e+00 -8.189753e-01 -1.152444e-01 -2.392312e+00 -1.208163e-01 4.758577e-01 4.790137e+00
<VARIANCE> 25
 4.823384e+01 2.584415e+02 1.000325e+01 2.297631e+01 6.195027e+01 4.074551e+01 5.986257e+01 5.923822e+01 1.868411e+01 6.365032e+01 6.001910e+01 3.768274e+01 6.009159e+00 1.696518e+01 3.392435e+00 5.629357e+00 1.644361e+01 4.294229e+00 2.863990e+00 6.530406e+00 2.993961e+00 2.808705e+00 4.752480e+00 4.713704e+00 9.540708e+00
<GCONST> 1.138812e+02
~s "ST_z_4_1"
<MEAN> 25
 2.395886e+00 -1.185861e+01 6.522733e+00 -8.950919e-01 -6.415070e+00 4.949992e+00 -6.936758e+00 -3.320767e+00 5.803415e+00 -2.086005e+00 6.766769e-01 5.125431e-01 1.873973e+00 6.587328e-01 2.782714e-01 -2.912764e+00 -1.991260e+00 -2.662306e+00 -1.062386e+00 -1.230762e+00 -2.130250e-01 1.124269e+00 -2.732207e-01 -3.602882e-01 2.270098e+00
<VARIANCE> 25
 5.687745e+01 6.229883e+01 1.677053e+01 4.396651e+01 1.539764e+02 4.521747e+01 2.310844e+01 1.903276e+01 3.380251e+01 1.773733e+01 3.457629e+01 4.035587e+01 2.690741e+00 8.526428e+00 6.654153e+00 4.453752e+00 6.524016e+00 2.366526e+00 2.750699e+00 1.183952e+00 2.814185e+00 1.344944e+00 2.411824e+00 7.141564e-01 9.821450e+00
<GCONST> 1.038935e+02
~s "ST_sy_2_1"
<MEAN> 25
 -8.881038e-01 2.753400e-01 2.052583e-01 2.009870e+00 3.015987e-01 2.786146e+00 3.179986e+00 2.857762e+00 2.727755e-01 1.867005e+00 2.940877e+00 6.084743e-01 2.890453e-02 -6.096374e-03 -1.582026e-02 3.982534e-02 5.282806e-02 1.199715e-03 6.381082e-03 8.292979e-03 -2.112401e-02 2.979748e-02 2.286585e-02 -3.565376e-02 -6.346138e-03
<VARIANCE> 25
 4.397644e+00 5.455240e+00 9.171184e+00 5.583627e+00 8.121370e+00 1.307619e+01 1.239148e+01 1.496641e+01 1.332297e+01 1.058214e+01 1.442070e+01 1.004632e+01 1.346821e-01 3.122524e-01 3.483983e-01 5.306056e-01 5.611634e-01 8.915026e-01 9.891261e-01 1.279551e+00 1.090205e+00 9.788947e-01 1.007368e+00 1.089249e+00 5.742985e-02
<GCONST> 6.485984e+01
~s "ST_sy_3_1"
<MEAN> 25
 -6.248667e+00 -1.852063e+00 7.757056e+00 -8.166234e-01 6.516869e-01 3.047982e+00 2.486865e+00 4.076334e+00 2.491575e+00 2.079360e+00 5.002002e+00 -1.078095e-01 -2.386990e+00 -6.462995e-01 2.257610e+00 -1.354054e+00 -2.224289e-01 -3.656538e-01 -5.461890e-02 4.735343e-01 8.843547e-01 1.451684e-02 6.803211e-01 -2.906413e-01 1.854734e+00
<VARIANCE> 25
 3.424651e+01 1.432010e+01 4.545719e+01 2.151911e+01 1.336719e+01 1.086765e+01 2.558564e+01 1.421096e+01 1.928045e+01 1.973261e+01 1.148175e+01 2.046638e+01 1.758138e+00 1.360811e+00 2.448063e+00 1.135895e+00 1.880936e+00 1.004816e+00 2.006179e+00 1.809402e+00 1.932156e+00 1.629244e+00 1.374958e+00 1.759421e+00 1.103858e+00
<GCONST> 8.725326e+01
~s "ST_sy_4_1"
<MEAN> 25
 -1.631848e+01 -3.698223e+00 1.497846e+01 -2.194890e+00 -2.990093e+00 4.054430e+00 4.229625e+00 2.644964e+00 4.067262e+00 4.333060e+00 4.802325e+00 -8.505436e-01 8.057563e-01 1.413392e-01 2.622616e-02 -2.501892e-01 -7.265597e-01 -4.526154e-01 -5.728680e-01 -3.058888e-01 -2.708768e-01 -1.753175e-01 -3.626641e-01 3.924788e-02 1.092278e-02
<VARIANCE> 25
 1.155313e+01 2.078021e+01 1.057817e+01 2.903483e+01 3.667657e+01 2.725403e+01 3.604360e+01 2.490894e+01 1.381737e+01 3.404883e+01 1.151691e+01 1.667692e+01 6.083499e+00 8.046603e-01 7.355461e-01 1.392941e+00 3.308655e+00 2.302076e+00 3.244528e+00 1.377562e+00 1.620363e+00 1.137809e+00 9.416185e-01 1.328642e+00 4.905620e-01
<GCONST> 8.753773e+01
~s "ST_c_2_1"
<MEAN> 25
 -1.163030e+00 1.018524e+00 -3.627426e-01 2.359851e+00 3.026613e+00 3.862381e+00 3.755325e+00 1.287949e+00 -2.424494e-01 2.616938e+00 1.664939e+00 -5.457571e-01 -4.184663e-02 2.756801e-03 4.053045e-03 2.856867e-02 4.555063e-02 4.782714e-02 6.958968e-02 6.048198e-02 5.281455e-02 1.482633e-02 -1.872553e-02 5.201137e-03 -9.032820e-03
<VARIANCE> 25
 2.066437e+00 2.566083e+00 4.515809e+00 5.336617e+00 7.944521e+00 9.434807e+00 1.220206e+01 1.222684e+01 1.098717e+01 1.193037e+01 1.201073e+01 1.255416e+01 1.261584e-01 2.055203e-01 3.504341e-01 5.126696e-01 7.061201e-01 9.601578e-01 1.145778e+00 1.113345e+00 1.031265e+00 1.170525e+00 1.229630e+00 1.331119e+00 3.699541e-02
<GCONST> 6.188080e+01
~s "ST_c_3_1"
<MEAN> 25
 -2.039322e+00 2.050097e+00 -5.774248e-01 3.477468e+00 4.949431e+00 3.571741e+00 5.562583e+00 6.570723e-01 4.279933e-01 2.813769e+00 1.945977e+00 9.750062e-01 -1.436188e+00 2.397652e-01 1.952146e-02 -1.314661e+00 -5.500974e-01 -2.276835e+00 -5.683552e-01 -2.221656e-01 1.147230e+00 4.463944e-01 3.560282e-01 1.036626e+00 2.740195e+00
<VARIANCE> 25
 2.156837e+00 4.713271e+00 4.066056e+00 7.769022e+00 6.787637e+00 1.779456e+01 1.324388e+01 9.893954e+00 3.523309e+00 8.735375e+00 3.314971e+00 1.217975e+01 1.578742e+00 3.239529e-01 5.330492e-01 2.855765e+00 1.178622e+00 2.402159e+00 1.586802e+00 1.833155e+00 1.407413e+00 2.628878e+00 9.089910e-01 9.970965e-01 4.559792e+00
<GCONST> 7.309863e+01
~s "ST_c_4_1"
<MEAN> 25
 -7.068858e+00 3.105154e+00 9.661707e-01 -4.430853e+00 1.077470e-01 -3.431922e+00 2.330412e+00 1.475615e+00 5.659864e+00 3.932614e+00 2.311875e+00 1.775426e+00 6.281086e-01 5.170229e-01 1.682194e+00 -2.194893e+00 -3.179223e+00 -1.594710e+00 -2.604742e+00 -1.468991e+00 -7.818459e-01 -2.451970e+00 -9.918486e-01 -1.953652e-01 3.446922e+00
<VARIANCE> 25
 3.462780e+01 1.012125e+01 3.037209e+01 3.377853e+01 2.105719e+01 2.452575e+01 2.277154e+01 2.244847e+01 1.473643e+01 3.347906e+01 1.485346e+01 6.114918e+00 6.148003e+00 4.480739e+00 4.881797e+00 2.368087e+00 2.594077e+00 2.945158e+00 7.676619e+00 4.701279e+00 3.293836e+00 5.368732e+00 3.409199e+00 7.315410e-01 3.535081e+00
<GCONST> 9.836565e+01
~s "ST_p_2_1"
<MEAN> 25
 2.807967e+00 -4.101061e+00 -8.271092e-01 -2.372916e-01 -1.107930e+00 -1.705317e-01 -6.869119e-01 1.870326e-01 3.488849e-01 -6.253936e-02 -1.318702e-01 -6.759264e-01 2.275512e+00 -2.489741e+00 -9.570012e-01 -2.209992e+00 -1.484909e+00 -1.301914e+00 -1.224826e+00 -7.749938e-01 -6.349286e-01 -1.653654e+00 -1.245605e+00 -1.884859e-01 3.899626e+00
<VARIANCE> 25
 4.387699e+01 9.203738e+01 3.003771e+01 3.799213e+01 4.406367e+01 3.346899e+01 3.809838e+01 4.570670e+01 3.093044e+01 3.464806e+01 2.842430e+01 2.077058e+01 3.386564e+00 1.074015e+01 3.310488e+00 4.887848e+00 4.319022e+00 3.173489e+00 3.572070e+00 6.632369e+00 3.903649e+00 3.899315e+00 3.444421e+00 2.257388e+00 7.674328e+00
<GCONST> 1.083790e+02
~s "ST_p_3_1"
<MEAN> 25
 9.791157e+00 -1.191582e+01 -2.599866e+00 -8.932793e+00 -6.251741e+00 -7.203571e+00 5.464100e-01 -2.603211e+00 -5.508810e+00 -7.797696e+00 -5.335506e+00 -1.508245e+00 -1.982736e-02 3.068709e-03 1.356817e-01 -7.091399e-01 -1.730520e-01 -5.362883e-01 6.013460e-01 -6.233218e-01 -4.581192e-01 -7.127438e-01 -2.872160e-01 1.902712e-01 2.891788e-01
<VARIANCE> 25
 1.764143e+01 1.015458e+02 3.221568e+01 2.974184e+01 5.246885e+01 3.058001e+01 5.774376e+01 4.850014e+01 2.372437e+01 2.839485e+01 2.089007e+01 1.355135e+01 1.173354e+00 2.495177e+00 8.463905e-01 2.187580e+00 2.722769e+00 1.933109e+00 3.862150e+00 2.409570e+00 2.412320e+00 2.046481e+00 2.339963e+00 1.347200e+00 1.532216e+00
<GCONST> 9.653261e+01
~s "ST_p_4_1"
<MEAN> 25
 2.252294e+00 -4.256922e+00 -1.831208e+00 -1.157200e+00 2.002331e-01 -2.733258e-01 2.689608e+00 -1.261308e+00 -6.355281e-01 -1.347499e+00 -1.734311e+00 3.028815e-01 -2.915482e-01 4.394062e-01 2.989592e-01 3.279409e-01 -5.113875e-02 3.335957e-01 -3.430019e-01 5.155286e-02 2.187474e-01 3.504588e-01 2.875610e-01 8.504929e-02 -5.229343e-01
<VARIANCE> 25
 3.392045e+01 7.152930e+01 2.023247e+01 6.046569e+01 5.083743e+01 4.452516e+01 4.271068e+01 4.050742e+01 2.941155e+01 4.479179e+01 2.867706e+01 1.852176e+01 1.092089e+00 2.420732e+00 1.283848e+00 2.128743e+00 1.657059e+00 1.854754e+00 2.084238e+00 2.742370e+00 1.549294e+00 2.176039e+00 1.682180e+00 1.504883e+00 4.621125e+00
<GCONST> 9.800780e+01
~h "E"
<BEGINHMM>
<NUMSTATES> 5
<STATE> 2
~s "ST_E_2_1"
<STATE> 3
~s "ST_E_3_1"
<STATE> 4
~s "ST_E_4_1"
~t "T_E"
<ENDHMM>
~h "K"
<BEGINHMM>
<NUMSTATES> 5
<STATE> 2
~s "ST_K_2_1"
<STATE> 3
~s "ST_K_3_1"
<STATE> 4
~s "ST_K_4_1"
~t "T_K"
<ENDHMM>
~h "a"
<BEGINHMM>
<NUMSTATES> 5
<STATE> 2
~s "ST_a_2_1"
<STATE> 3
~s "ST_a_3_1"
<STATE> 4
~s "ST_a_4_1"
~t "T_a"
<ENDHMM>
~h "b"
<BEGINHMM>
<NUMSTATES> 5
<STATE> 2
~s "ST_b_2_1"
<STATE> 3
~s "ST_b_3_1"
<STATE> 4
~s "ST_b_4_1"
~t "T_b"
<ENDHMM>
~h "c"
<BEGINHMM>
<NUMSTATES> 5
<STATE> 2
~s "ST_c_2_1"
<STATE> 3
~s "ST_c_3_1"
<STATE> 4
~s "ST_c_4_1"
~t "T_c"
<ENDHMM>
~h "d"
<BEGINHMM>
<NUMSTATES> 5
<STATE> 2
~s "ST_d_2_1"
<STATE> 3
~s "ST_d_3_1"
<STATE> 4
~s "ST_d_4_1"
~t "T_d"
<ENDHMM>
~h "e"
<BEGINHMM>
<NUMSTATES> 5
<STATE> 2
~s "ST_e_2_1"
<STATE> 3
~s "ST_e_3_1"
<STATE> 4
~s "ST_e_4_1"
~t "T_e"
<ENDHMM>
~h "f"
<BEGINHMM>
<NUMSTATES> 5
<STATE> 2
~s "ST_f_2_1"
<STATE> 3
~s "ST_f_3_1"
<STATE> 4
~s "ST_f_4_1"
~t "T_f"
<ENDHMM>
~h "g"
<BEGINHMM>
<NUMSTATES> 5
<STATE> 2
~s "ST_g_2_1"
<STATE> 3
~s "ST_g_3_1"
<STATE> 4
~s "ST_g_4_1"
~t "T_g"
<ENDHMM>
~h "h"
<BEGINHMM>
<NUMSTATES> 5
<STATE> 2
~s "ST_h_2_1"
<STATE> 3
~s "ST_h_3_1"
<STATE> 4
~s "ST_h_4_1"
~t "T_h"
<ENDHMM>
~h "i"
<BEGINHMM>
<NUMSTATES> 5
<STATE> 2
~s "ST_i_2_1"
<STATE> 3
~s "ST_i_3_1"
<STATE> 4
~s "ST_i_4_1"
~t "T_i"
<ENDHMM>
~h "j"
<BEGINHMM>
<NUMSTATES> 5
<STATE> 2
~s "ST_j_2_1"
<STATE> 3
~s "ST_j_3_1"
<STATE> 4
~s "ST_j_4_1"
~t "T_j"
<ENDHMM>
~h "k"
<BEGINHMM>
<NUMSTATES> 5
<STATE> 2
~s "ST_k_2_1"
<STATE> 3
~s "ST_k_3_1"
<STATE> 4
~s "ST_k_4_1"
~t "T_k"
<ENDHMM>
~h "l"
<BEGINHMM>
<NUMSTATES> 5
<STATE> 2
~s "ST_l_2_1"
<STATE> 3
~s "ST_l_3_1"
<STATE> 4
~s "ST_l_4_1"
~t "T_l"
<ENDHMM>
~h "m"
<BEGINHMM>
<NUMSTATES> 5
<STATE> 2
~s "ST_m_2_1"
<STATE> 3
~s "ST_m_3_1"
<STATE> 4
~s "ST_m_4_1"
~t "T_m"
<ENDHMM>
~h "n"
<BEGINHMM>
<NUMSTATES> 5
<STATE> 2
~s "ST_n_2_1"
<STATE> 3
~s "ST_n_3_1"
<STATE> 4
~s "ST_n_4_1"
~t "T_n"
<ENDHMM>
~h "o"
<BEGINHMM>
<NUMSTATES> 5
<STATE> 2
~s "ST_o_2_1"
<STATE> 3
~s "ST_o_3_1"
<STATE> 4
~s "ST_o_4_1"
~t "T_o"
<ENDHMM>
~h "p"
<BEGINHMM>
<NUMSTATES> 5
<STATE> 2
~s "ST_p_2_1"
<STATE> 3
~s "ST_p_3_1"
<STATE> 4
~s "ST_p_4_1"
~t "T_p"
<ENDHMM>
~h "r"
<BEGINHMM>
<NUMSTATES> 5
<STATE> 2
~s "ST_r_2_1"
<STATE> 3
~s "ST_r_3_1"
<STATE> 4
~s "ST_r_4_1"
~t "T_r"
<ENDHMM>
~h "s"
<BEGINHMM>
<NUMSTATES> 5
<STATE> 2
~s "ST_s_2_1"
<STATE> 3
~s "ST_s_3_1"
<STATE> 4
~s "ST_s_4_1"
~t "T_s"
<ENDHMM>
~h "t"
<BEGINHMM>
<NUMSTATES> 5
<STATE> 2
~s "ST_t_2_1"
<STATE> 3
~s "ST_t_3_1"
<STATE> 4
~s "ST_t_4_1"
~t "T_t"
<ENDHMM>
~h "u"
<BEGINHMM>
<NUMSTATES> 5
<STATE> 2
~s "ST_u_2_1"
<STATE> 3
~s "ST_u_3_1"
<STATE> 4
~s "ST_u_4_1"
~t "T_u"
<ENDHMM>
~h "w"
<BEGINHMM>
<NUMSTATES> 5
<STATE> 2
~s "ST_w_2_1"
<STATE> 3
~s "ST_w_3_1"
<STATE> 4
~s "ST_w_4_1"
~t "T_w"
<ENDHMM>
~h "x"
<BEGINHMM>
<NUMSTATES> 5
<STATE> 2
~s "ST_x_2_1"
<STATE> 3
~s "ST_x_3_1"
<STATE> 4
~s "ST_x_4_1"
~t "T_x"
<ENDHMM>
~h "y"
<BEGINHMM>
<NUMSTATES> 5
<STATE> 2
~s "ST_y_2_1"
<STATE> 3
~s "ST_y_3_1"
<STATE> 4
~s "ST_y_4_1"
~t "T_y"
<ENDHMM>
~h "z"
<BEGINHMM>
<NUMSTATES> 5
<STATE> 2
~s "ST_z_2_1"
<STATE> 3
~s "ST_z_3_1"
<STATE> 4
~s "ST_z_4_1"
~t "T_z"
<ENDHMM>
~h "u-r+f"
<BEGINHMM>
<NUMSTATES> 5
<STATE> 2
~s "ST_r_2_1"
<STATE> 3
~s "ST_r_3_1"
<STATE> 4
~s "ST_r_4_2"
~t "T_r"
<ENDHMM>
~h "ah"
<BEGINHMM>
<NUMSTATES> 5
<STATE> 2
~s "ST_ah_2_1"
<STATE> 3
~s "ST_ah_3_1"
<STATE> 4
~s "ST_ah_4_1"
~t "T_ah"
<ENDHMM>
~h "aw"
<BEGINHMM>
<NUMSTATES> 5
<STATE> 2
~s "ST_aw_2_1"
<STATE> 3
~s "ST_aw_3_1"
<STATE> 4
~s "ST_aw_4_1"
~t "T_aw"
<ENDHMM>
~h "ay"
<BEGINHMM>
<NUMSTATES> 5
<STATE> 2
~s "ST_ay_2_1"
<STATE> 3
~s "ST_ay_3_1"
<STATE> 4
~s "ST_ay_4_1"
~t "T_ay"
<ENDHMM>
~h "kh"
<BEGINHMM>
<NUMSTATES> 5
<STATE> 2
~s "ST_kh_2_1"
<STATE> 3
~s "ST_kh_3_1"
<STATE> 4
~s "ST_kh_4_1"
~t "T_kh"
<ENDHMM>
~h "ng"
<BEGINHMM>
<NUMSTATES> 5
<STATE> 2
~s "ST_ng_2_1"
<STATE> 3
~s "ST_ng_3_1"
<STATE> 4
~s "ST_ng_4_1"
~t "T_ng"
<ENDHMM>
~h "ny"
<BEGINHMM>
<NUMSTATES> 5
<STATE> 2
~s "ST_ny_2_1"
<STATE> 3
~s "ST_ny_3_1"
<STATE> 4
~s "ST_ny_4_1"
~t "T_ny"
<ENDHMM>
~h "sp"
<BEGINHMM>
<NUMSTATES> 3
<STATE> 2
~s "ST_sil_3_1"
<TRANSP> 3
 0.000000e+00 1.233599e-01 8.766400e-01
 0.000000e+00 9.293265e-01 7.067354e-02
 0.000000e+00 0.000000e+00 0.000000e+00
<ENDHMM>
~h "sy"
<BEGINHMM>
<NUMSTATES> 5
<STATE> 2
~s "ST_sy_2_1"
<STATE> 3
~s "ST_sy_3_1"
<STATE> 4
~s "ST_sy_4_1"
~t "T_sy"
<ENDHMM>
~h "k-i+a"
<BEGINHMM>
<NUMSTATES> 5
<STATE> 2
~s "ST_i_2_2"
<STATE> 3
~s "ST_i_3_1"
<STATE> 4
~s "ST_i_4_3"
~t "T_i"
<ENDHMM>
~h "k-o+l"
<BEGINHMM>
<NUMSTATES> 5
<STATE> 2
~s "ST_o_2_1"
<STATE> 3
~s "ST_o_3_1"
<STATE> 4
~s "ST_o_4_2"
~t "T_o"
<ENDHMM>
~h "k-u+l"
<BEGINHMM>
<NUMSTATES> 5
<STATE> 2
~s "ST_u_2_1"
<STATE> 3
~s "ST_u_3_1"
<STATE> 4
~s "ST_u_4_2"
~t "T_u"
<ENDHMM>
~h "g-a+s"
<BEGINHMM>
<NUMSTATES> 5
<STATE> 2
~s "ST_a_2_1"
<STATE> 3
~s "ST_a_3_2"
<STATE> 4
~s "ST_a_4_1"
~t "T_a"
<ENDHMM>
~h "g-r+a"
<BEGINHMM>
<NUMSTATES> 5
<STATE> 2
~s "ST_r_2_1"
<STATE> 3
~s "ST_r_3_1"
<STATE> 4
~s "ST_r_4_3"
~t "T_r"
<ENDHMM>
~h "f-E+d"
<BEGINHMM>
<NUMSTATES> 5
<STATE> 2
~s "ST_E_2_1"
<STATE> 3
~s "ST_E_3_2"
<STATE> 4
~s "ST_E_4_1"
~t "T_E"
<ENDHMM>
~h "l-i"
<BEGINHMM>
<NUMSTATES> 5
<STATE> 2
~s "ST_i_2_1"
<STATE> 3
~s "ST_i_3_1"
<STATE> 4
~s "ST_i_4_2"
~t "T_i"
<ENDHMM>
~h "sil"
<BEGINHMM>
<NUMSTATES> 5
<STATE> 2
~s "ST_sil_2_1"
<STATE> 3
~s "ST_sil_3_1"
<STATE> 4
~s "ST_sil_4_1"
<TRANSP> 5
 0.000000e+00 1.000000e+00 0.000000e+00 0.000000e+00 0.000000e+00
 0.000000e+00 9.106589e-01 1.468170e-02 7.465941e-02 0.000000e+00
 0.000000e+00 0.000000e+00 9.542313e-01 4.576871e-02 0.000000e+00
 0.000000e+00 1.176034e-01 0.000000e+00 7.359051e-01 1.464914e-01
 0.000000e+00 0.000000e+00 0.000000e+00 0.000000e+00 0.000000e+00
<ENDHMM>
