~o
<STREAMINFO> 1 25
<VECSIZE> 25<NULLD><MFCC_D_N_Z_0><DIAGC>
~s "silst"
<MEAN> 25
 -1.484480e+00 1.567741e+00 3.305963e-01 1.421031e+00 2.645167e+00 3.303896e+00 2.638471e+00 2.075564e+00 -2.330878e+00 1.496536e+00 8.065290e-02 4.147114e-01 4.626426e-04 1.616619e-02 2.525608e-02 1.930605e-02 8.812303e-03 5.399882e-03 9.553405e-03 -2.121549e-02 2.770463e-03 -2.856590e-02 -4.752308e-02 2.497739e-02 -6.141298e-03
<VARIANCE> 25
 1.590497e+00 2.595836e+00 4.356476e+00 6.246374e+00 9.770153e+00 1.005810e+01 1.063239e+01 1.081892e+01 1.136207e+01 1.136342e+01 1.090505e+01 1.070392e+01 1.119080e-01 2.825275e-01 4.511110e-01 6.879473e-01 9.895834e-01 1.028277e+00 1.259619e+00 1.147336e+00 1.254700e+00 1.154787e+00 1.186831e+00 1.148709e+00 5.727106e-02
<GCONST> 6.320429e+01
~h "E"
<BEGINHMM>
<NUMSTATES> 5
<STATE> 2
<MEAN> 25
 3.508074e+00 -1.058347e+00 -1.774927e+00 -4.260104e+00 -2.897886e+00 -5.507664e+00 -2.360560e+00 1.062929e+00 -2.765174e-01 3.437680e+00 7.326816e+00 4.040722e+00 -7.969744e-01 -3.692018e-01 -3.047709e-01 5.806630e-01 -5.486871e-01 -6.348174e-01 1.382415e-01 7.320824e-01 1.330475e-01 8.297594e-01 3.775761e-01 9.062831e-01 -5.979771e-01
<VARIANCE> 25
 6.375826e+01 1.372601e+01 5.651499e+01 5.964245e+01 3.089911e+01 2.179954e+01 1.584667e+01 5.607166e+01 4.081136e+01 3.821199e+01 1.596181e+01 3.658756e+00 1.187366e+00 1.243284e-01 3.724693e-01 6.912861e-01 7.942451e-01 7.726417e+00 5.108160e-01 7.907493e-01 4.249434e-01 9.855545e-01 3.991907e-01 1.229793e+00 5.114417e-01
<GCONST> 8.095136e+01
<STATE> 3
<MEAN> 25
 9.903799e-01 -2.516991e+00 -3.758874e+00 -1.804460e+00 -1.908621e+00 -5.265920e+00 -1.855542e+00 1.874740e+00 1.489423e+00 4.841364e+00 8.888739e+00 4.989573e+00 -1.843373e-01 1.942261e-02 -5.725514e-01 3.754795e-02 -7.262118e-01 1.506353e+00 5.440922e-01 -2.070976e-01 2.656081e-01 1.848449e-02 8.011547e-01 1.247494e+00 -4.295389e-01
<VARIANCE> 25
 7.717947e+01 1.468200e+01 6.311612e+01 1.189613e+02 1.794459e+01 3.112387e+01 1.161816e+01 9.030925e+01 2.544397e+01 5.862505e+01 4.142437e+00 2.454969e+01 3.751316e-01 3.008891e-01 7.334625e-01 2.251745e-01 3.568712e-01 2.942137e+00 2.684037e+00 7.103742e-01 1.002092e+00 8.080730e-02 4.408528e-01 6.481196e-01 4.243111e-01
<GCONST> 7.920232e+01
<STATE> 4
<MEAN> 25
 5.392868e+00 -3.287272e+00 -1.218483e+01 -1.219308e+01 -4.120406e+00 1.631403e+00 -5.544158e+00 -4.526417e+00 4.340502e+00 -5.788911e+00 1.051810e+01 2.960974e+00 1.179307e-01 2.077689e-01 -2.010557e-01 1.047034e-01 -1.976950e-01 3.142719e-01 -9.823202e-02 1.856344e-01 6.171171e-02 9.757741e-02 -3.623305e-01 8.928152e-02 -2.164768e-02
<VARIANCE> 25
 5.118008e+01 4.750103e+00 5.703753e+01 9.063767e+01 8.718535e+00 4.686099e+01 5.743840e+01 1.068202e+02 3.567296e+00 3.254267e+01 1.574420e+01 1.615353e+01 1.913066e-01 1.432128e-01 1.910096e-01 1.045476e+00 9.154711e-01 3.544535e+00 7.392722e-01 6.092465e-01 2.903851e-01 1.659442e+00 1.474985e+00 5.531682e-01 3.749744e-02
<GCONST> 7.597270e+01
<TRANSP> 5
 0.000000e+00 1.000000e+00 0.000000e+00 0.000000e+00 0.000000e+00
 0.000000e+00 4.067859e-01 5.932141e-01 0.000000e+00 0.000000e+00
 0.000000e+00 0.000000e+00 2.390893e-01 7.609107e-01 0.000000e+00
 0.000000e+00 0.000000e+00 0.000000e+00 6.274481e-01 3.725519e-01
 0.000000e+00 0.000000e+00 0.000000e+00 0.000000e+00 0.000000e+00
<ENDHMM>
~h "a"
<BEGINHMM>
<NUMSTATES> 5
<STATE> 2
<MEAN> 25
 2.624419e+00 -4.513999e+00 1.317152e+00 -1.466917e+00 -2.151906e+00 -5.198454e+00 -1.370502e+00 -3.307771e+00 3.483292e+00 -2.892409e+00 -3.312034e-01 -2.197399e+00 -1.856972e-01 -1.082891e+00 -5.501872e-01 -8.348163e-01 -5.340064e-01 -1.327514e+00 -1.365695e-01 -8.884430e-01 3.398545e-01 -1.004605e+00 6.544557e-01 -3.002468e-01 1.659771e+00
<VARIANCE> 25
 1.861910e+01 6.231037e+01 8.799419e+01 2.016298e+01 5.427143e+01 8.910912e+01 3.877320e+01 3.370947e+01 1.025452e+02 5.212543e+01 2.046220e+01 2.688828e+01 7.883689e-01 2.741147e+00 3.019001e+00 1.543564e+00 3.182568e+00 3.620231e+00 2.428645e+00 6.273229e+00 6.428419e+00 2.208726e+00 2.413620e+00 1.997023e+00 7.030526e+00
<GCONST> 1.046916e+02
<STATE> 3
<MEAN> 25
 3.155888e+00 -5.219319e+00 -1.439543e-01 -4.384703e+00 -4.380828e+00 -9.021367e+00 -4.981938e+00 -9.403837e+00 8.646055e+00 -6.376695e+00 -1.155157e+00 -2.815241e+00 2.855425e-01 8.977017e-01 -9.589309e-02 1.155369e-02 7.176483e-02 -1.603313e-01 -4.725430e-01 -5.704929e-01 -6.688139e-01 6.721528e-01 -2.595351e-02 1.859188e-01 -5.290621e-01
<VARIANCE> 25
 7.217409e+00 4.700687e+01 1.172125e+02 1.808064e+01 5.295876e+01 3.827597e+01 4.772956e+01 7.020378e+01 1.088643e+02 4.091962e+01 1.572725e+01 2.010567e+01 6.017036e-01 1.144997e+00 1.189752e+00 6.202164e-01 2.503811e+00 1.646914e+00 2.553873e+00 3.037383e+00 5.155722e+00 4.024122e+00 1.542683e+00 1.514147e+00 1.128772e+00
<GCONST> 9.611266e+01
<STATE> 4
<MEAN> 25
 6.815598e+00 6.996753e-01 -1.138317e+00 -3.889112e+00 -1.870417e+00 -5.153346e+00 -4.497269e+00 -6.296134e+00 2.987643e+00 6.154003e-01 -3.644647e+00 -3.666991e+00 5.006868e-02 9.953425e-01 4.778312e-01 -7.569436e-02 5.654529e-03 5.921761e-01 7.066171e-01 1.248802e+00 -1.079012e+00 -3.059949e-01 -2.523957e-01 3.647326e-01 -7.444063e-01
<VARIANCE> 25
 2.188966e+01 2.991496e+01 4.738088e+01 3.105209e+01 4.303746e+01 2.923969e+01 2.264837e+01 6.660708e+01 3.030871e+01 2.276218e+01 4.317262e+01 2.221199e+01 1.084453e+00 1.024895e+00 1.305455e+00 2.976543e+00 2.754520e+00 2.393560e+00 2.330945e+00 1.980530e+00 3.563333e+00 2.812154e+00 2.348425e+00 2.002263e+00 1.431849e+00
<GCONST> 9.667433e+01
<TRANSP> 5
 0.000000e+00 1.000000e+00 0.000000e+00 0.000000e+00 0.000000e+00
 0.000000e+00 3.684291e-01 6.315710e-01 0.000000e+00 0.000000e+00
 0.000000e+00 0.000000e+00 6.417220e-01 3.582780e-01 0.000000e+00
 0.000000e+00 0.000000e+00 0.000000e+00 5.256455e-01 4.743545e-01
 0.000000e+00 0.000000e+00 0.000000e+00 0.000000e+00 0.000000e+00
<ENDHMM>
~h "b"
<BEGINHMM>
<NUMSTATES> 5
<STATE> 2
<MEAN> 25
 2.711044e-07 2.276736e-08 -6.105108e-08 -1.720701e-07 -1.586201e-07 9.768173e-08 -1.135738e-07 -1.298416e-07 7.694315e-08 -1.660590e-07 -1.083516e-07 -5.706868e-08 -2.818740e-03 -4.409721e-03 -4.277692e-03 -1.165964e-03 -3.608679e-03 5.208261e-03 -1.757075e-03 5.998432e-03 4.891248e-03 1.720927e-03 7.501529e-04 -5.307185e-03 6.137643e-03
<VARIANCE> 25
 2.670229e+01 2.794268e+01 3.749357e+01 3.307458e+01 5.256620e+01 4.928031e+01 4.561778e+01 4.954230e+01 4.604616e+01 3.096663e+01 2.869331e+01 1.969207e+01 8.024186e-01 8.637462e-01 9.762596e-01 1.208383e+00 1.860729e+00 1.938551e+00 2.342637e+00 2.054597e+00 2.126093e+00 1.768907e+00 1.840738e+00 1.505519e+00 1.027859e+00
<GCONST> 9.389127e+01
<STATE> 3
<MEAN> 25
 2.711044e-07 2.276736e-08 -6.105108e-08 -1.720701e-07 -1.586201e-07 9.768173e-08 -1.135738e-07 -1.298416e-07 7.694315e-08 -1.660590e-07 -1.083516e-07 -5.706868e-08 -2.818740e-03 -4.409721e-03 -4.277692e-03 -1.165964e-03 -3.608679e-03 5.208261e-03 -1.757075e-03 5.998432e-03 4.891248e-03 1.720927e-03 7.501529e-04 -5.307185e-03 6.137643e-03
<VARIANCE> 25
 2.670229e+01 2.794268e+01 3.749357e+01 3.307458e+01 5.256620e+01 4.928031e+01 4.561778e+01 4.954230e+01 4.604616e+01 3.096663e+01 2.869331e+01 1.969207e+01 8.024186e-01 8.637462e-01 9.762596e-01 1.208383e+00 1.860729e+00 1.938551e+00 2.342637e+00 2.054597e+00 2.126093e+00 1.768907e+00 1.840738e+00 1.505519e+00 1.027859e+00
<GCONST> 9.389127e+01
<STATE> 4
<MEAN> 25
 2.711044e-07 2.276736e-08 -6.105108e-08 -1.720701e-07 -1.586201e-07 9.768173e-08 -1.135738e-07 -1.298416e-07 7.694315e-08 -1.660590e-07 -1.083516e-07 -5.706868e-08 -2.818740e-03 -4.409721e-03 -4.277692e-03 -1.165964e-03 -3.608679e-03 5.208261e-03 -1.757075e-03 5.998432e-03 4.891248e-03 1.720927e-03 7.501529e-04 -5.307185e-03 6.137643e-03
<VARIANCE> 25
 2.670229e+01 2.794268e+01 3.749357e+01 3.307458e+01 5.256620e+01 4.928031e+01 4.561778e+01 4.954230e+01 4.604616e+01 3.096663e+01 2.869331e+01 1.969207e+01 8.024186e-01 8.637462e-01 9.762596e-01 1.208383e+00 1.860729e+00 1.938551e+00 2.342637e+00 2.054597e+00 2.126093e+00 1.768907e+00 1.840738e+00 1.505519e+00 1.027859e+00
<GCONST> 9.389127e+01
<TRANSP> 5
 0.000000e+00 1.000000e+00 0.000000e+00 0.000000e+00 0.000000e+00
 0.000000e+00 6.000000e-01 4.000000e-01 0.000000e+00 0.000000e+00
 0.000000e+00 0.000000e+00 6.000000e-01 4.000000e-01 0.000000e+00
 0.000000e+00 0.000000e+00 0.000000e+00 7.000000e-01 3.000000e-01
 0.000000e+00 0.000000e+00 0.000000e+00 0.000000e+00 0.000000e+00
<ENDHMM>
~h "d"
<BEGINHMM>
<NUMSTATES> 5
<STATE> 2
<MEAN> 25
 2.711044e-07 2.276736e-08 -6.105108e-08 -1.720701e-07 -1.586201e-07 9.768173e-08 -1.135738e-07 -1.298416e-07 7.694315e-08 -1.660590e-07 -1.083516e-07 -5.706868e-08 -2.818740e-03 -4.409721e-03 -4.277692e-03 -1.165964e-03 -3.608679e-03 5.208261e-03 -1.757075e-03 5.998432e-03 4.891248e-03 1.720927e-03 7.501529e-04 -5.307185e-03 6.137643e-03
<VARIANCE> 25
 2.670229e+01 2.794268e+01 3.749357e+01 3.307458e+01 5.256620e+01 4.928031e+01 4.561778e+01 4.954230e+01 4.604616e+01 3.096663e+01 2.869331e+01 1.969207e+01 8.024186e-01 8.637462e-01 9.762596e-01 1.208383e+00 1.860729e+00 1.938551e+00 2.342637e+00 2.054597e+00 2.126093e+00 1.768907e+00 1.840738e+00 1.505519e+00 1.027859e+00
<GCONST> 9.389127e+01
<STATE> 3
<MEAN> 25
 2.711044e-07 2.276736e-08 -6.105108e-08 -1.720701e-07 -1.586201e-07 9.768173e-08 -1.135738e-07 -1.298416e-07 7.694315e-08 -1.660590e-07 -1.083516e-07 -5.706868e-08 -2.818740e-03 -4.409721e-03 -4.277692e-03 -1.165964e-03 -3.608679e-03 5.208261e-03 -1.757075e-03 5.998432e-03 4.891248e-03 1.720927e-03 7.501529e-04 -5.307185e-03 6.137643e-03
<VARIANCE> 25
 2.670229e+01 2.794268e+01 3.749357e+01 3.307458e+01 5.256620e+01 4.928031e+01 4.561778e+01 4.954230e+01 4.604616e+01 3.096663e+01 2.869331e+01 1.969207e+01 8.024186e-01 8.637462e-01 9.762596e-01 1.208383e+00 1.860729e+00 1.938551e+00 2.342637e+00 2.054597e+00 2.126093e+00 1.768907e+00 1.840738e+00 1.505519e+00 1.027859e+00
<GCONST> 9.389127e+01
<STATE> 4
<MEAN> 25
 2.711044e-07 2.276736e-08 -6.105108e-08 -1.720701e-07 -1.586201e-07 9.768173e-08 -1.135738e-07 -1.298416e-07 7.694315e-08 -1.660590e-07 -1.083516e-07 -5.706868e-08 -2.818740e-03 -4.409721e-03 -4.277692e-03 -1.165964e-03 -3.608679e-03 5.208261e-03 -1.757075e-03 5.998432e-03 4.891248e-03 1.720927e-03 7.501529e-04 -5.307185e-03 6.137643e-03
<VARIANCE> 25
 2.670229e+01 2.794268e+01 3.749357e+01 3.307458e+01 5.256620e+01 4.928031e+01 4.561778e+01 4.954230e+01 4.604616e+01 3.096663e+01 2.869331e+01 1.969207e+01 8.024186e-01 8.637462e-01 9.762596e-01 1.208383e+00 1.860729e+00 1.938551e+00 2.342637e+00 2.054597e+00 2.126093e+00 1.768907e+00 1.840738e+00 1.505519e+00 1.027859e+00
<GCONST> 9.389127e+01
<TRANSP> 5
 0.000000e+00 1.000000e+00 0.000000e+00 0.000000e+00 0.000000e+00
 0.000000e+00 6.000000e-01 4.000000e-01 0.000000e+00 0.000000e+00
 0.000000e+00 0.000000e+00 6.000000e-01 4.000000e-01 0.000000e+00
 0.000000e+00 0.000000e+00 0.000000e+00 7.000000e-01 3.000000e-01
 0.000000e+00 0.000000e+00 0.000000e+00 0.000000e+00 0.000000e+00
<ENDHMM>
~h "e"
<BEGINHMM>
<NUMSTATES> 5
<STATE> 2
<MEAN> 25
 -2.977718e+00 -3.063137e+00 -8.759976e-01 -1.286370e+00 1.469887e+00 -7.797584e+00 -4.107342e+00 2.059969e+00 -1.978433e+00 -3.325415e-01 -2.702570e+00 1.985492e+00 6.220367e-01 -1.273454e+00 -2.416469e-01 -5.133479e-01 -7.318140e-01 -2.034605e+00 -4.817005e+00 -7.022756e-01 2.849805e+00 -4.605367e-01 5.724608e-01 -6.805870e-02 2.789072e+00
<VARIANCE> 25
 2.140777e+00 4.301183e+01 5.064621e+00 2.742007e+00 1.703301e+00 9.519048e+01 8.430386e+01 1.350550e+01 9.756504e+00 3.096663e-01 5.701072e+00 1.605467e+01 6.299957e+00 2.573909e+00 7.011337e-01 5.421253e-01 1.327662e+01 1.275585e+01 4.605422e+00 1.901572e+00 1.526443e+00 2.695937e+00 2.197813e-01 4.841727e+00 6.489049e-01
<GCONST> 8.101378e+01
<STATE> 3
<MEAN> 25
 -5.522302e-01 -6.535689e+00 -4.328124e+00 -7.722636e+00 -2.013091e-01 -1.343963e+01 -1.832779e+01 -1.666938e+00 1.103941e+01 3.417862e-01 -1.101004e+00 2.541669e+00 1.362332e+00 -4.358269e-01 -6.165943e-01 -1.577232e+00 -2.648255e+00 7.613408e-01 -1.292088e+00 -1.730795e+00 2.455449e+00 -1.365080e+00 6.809123e-01 -7.830524e-01 2.778985e+00
<VARIANCE> 25
 2.762363e+01 2.286989e+01 1.018108e+01 1.048856e+01 1.124521e+02 2.799717e+01 1.685380e+01 4.408902e+01 2.790919e+01 2.460072e+01 2.201207e+01 2.342775e+01 3.324986e+00 4.541597e+00 9.080163e-01 5.724967e-01 7.974150e+00 7.876688e+00 8.225171e+00 2.382930e+00 7.190585e+00 2.170339e+00 6.090369e+00 4.513338e+00 1.817984e+00
<GCONST> 1.003442e+02
<STATE> 4
<MEAN> 25
 5.111023e+00 -8.520815e+00 -1.439754e+00 -6.629333e+00 -1.040525e+01 -4.678305e+00 -1.548341e+01 -7.126990e+00 1.358131e+01 -9.478571e+00 -2.387291e+00 -2.504841e+00 3.215587e-02 6.151125e-02 3.287083e-01 1.501947e-01 2.763991e-02 -1.063461e-01 2.521159e-01 2.195734e-01 -2.702688e-01 1.849059e-02 -6.783003e-02 -5.834514e-02 -3.681053e-01
<VARIANCE> 25
 3.141963e+00 1.066314e+01 4.791041e+01 2.852370e+01 1.807161e+01 8.018940e+01 4.407288e+01 3.031324e+01 9.211037e+01 3.038643e+01 2.684512e+01 2.296722e+01 3.305926e-01 8.382913e-01 2.442516e+00 2.182311e+00 7.998083e-01 1.345205e+00 2.293420e+00 2.504677e+00 4.070218e+00 1.516550e+00 3.120838e+00 1.443175e+00 1.504254e+00
<GCONST> 9.146083e+01
<TRANSP> 5
 0.000000e+00 1.000000e+00 0.000000e+00 0.000000e+00 0.000000e+00
 0.000000e+00 4.000021e-01 5.999980e-01 0.000000e+00 0.000000e+00
 0.000000e+00 0.000000e+00 7.545183e-01 2.454816e-01 0.000000e+00
 0.000000e+00 0.000000e+00 0.000000e+00 9.566412e-01 4.335886e-02
 0.000000e+00 0.000000e+00 0.000000e+00 0.000000e+00 0.000000e+00
<ENDHMM>
~h "f"
<BEGINHMM>
<NUMSTATES> 5
<STATE> 2
<MEAN> 25
 2.711044e-07 2.276736e-08 -6.105108e-08 -1.720701e-07 -1.586201e-07 9.768173e-08 -1.135738e-07 -1.298416e-07 7.694315e-08 -1.660590e-07 -1.083516e-07 -5.706868e-08 -2.818740e-03 -4.409721e-03 -4.277692e-03 -1.165964e-03 -3.608679e-03 5.208261e-03 -1.757075e-03 5.998432e-03 4.891248e-03 1.720927e-03 7.501529e-04 -5.307185e-03 6.137643e-03
<VARIANCE> 25
 2.670229e+01 2.794268e+01 3.749357e+01 3.307458e+01 5.256620e+01 4.928031e+01 4.561778e+01 4.954230e+01 4.604616e+01 3.096663e+01 2.869331e+01 1.969207e+01 8.024186e-01 8.637462e-01 9.762596e-01 1.208383e+00 1.860729e+00 1.938551e+00 2.342637e+00 2.054597e+00 2.126093e+00 1.768907e+00 1.840738e+00 1.505519e+00 1.027859e+00
<GCONST> 9.389127e+01
<STATE> 3
<MEAN> 25
 2.711044e-07 2.276736e-08 -6.105108e-08 -1.720701e-07 -1.586201e-07 9.768173e-08 -1.135738e-07 -1.298416e-07 7.694315e-08 -1.660590e-07 -1.083516e-07 -5.706868e-08 -2.818740e-03 -4.409721e-03 -4.277692e-03 -1.165964e-03 -3.608679e-03 5.208261e-03 -1.757075e-03 5.998432e-03 4.891248e-03 1.720927e-03 7.501529e-04 -5.307185e-03 6.137643e-03
<VARIANCE> 25
 2.670229e+01 2.794268e+01 3.749357e+01 3.307458e+01 5.256620e+01 4.928031e+01 4.561778e+01 4.954230e+01 4.604616e+01 3.096663e+01 2.869331e+01 1.969207e+01 8.024186e-01 8.637462e-01 9.762596e-01 1.208383e+00 1.860729e+00 1.938551e+00 2.342637e+00 2.054597e+00 2.126093e+00 1.768907e+00 1.840738e+00 1.505519e+00 1.027859e+00
<GCONST> 9.389127e+01
<STATE> 4
<MEAN> 25
 2.711044e-07 2.276736e-08 -6.105108e-08 -1.720701e-07 -1.586201e-07 9.768173e-08 -1.135738e-07 -1.298416e-07 7.694315e-08 -1.660590e-07 -1.083516e-07 -5.706868e-08 -2.818740e-03 -4.409721e-03 -4.277692e-03 -1.165964e-03 -3.608679e-03 5.208261e-03 -1.757075e-03 5.998432e-03 4.891248e-03 1.720927e-03 7.501529e-04 -5.307185e-03 6.137643e-03
<VARIANCE> 25
 2.670229e+01 2.794268e+01 3.749357e+01 3.307458e+01 5.256620e+01 4.928031e+01 4.561778e+01 4.954230e+01 4.604616e+01 3.096663e+01 2.869331e+01 1.969207e+01 8.024186e-01 8.637462e-01 9.762596e-01 1.208383e+00 1.860729e+00 1.938551e+00 2.342637e+00 2.054597e+00 2.126093e+00 1.768907e+00 1.840738e+00 1.505519e+00 1.027859e+00
<GCONST> 9.389127e+01
<TRANSP> 5
 0.000000e+00 1.000000e+00 0.000000e+00 0.000000e+00 0.000000e+00
 0.000000e+00 6.000000e-01 4.000000e-01 0.000000e+00 0.000000e+00
 0.000000e+00 0.000000e+00 6.000000e-01 4.000000e-01 0.000000e+00
 0.000000e+00 0.000000e+00 0.000000e+00 7.000000e-01 3.000000e-01
 0.000000e+00 0.000000e+00 0.000000e+00 0.000000e+00 0.000000e+00
<ENDHMM>
~h "g"
<BEGINHMM>
<NUMSTATES> 5
<STATE> 2
<MEAN> 25
 6.337506e+00 -5.349110e+00 1.277621e+01 -3.507997e+00 -1.906584e+01 -8.232361e+00 -1.445820e+01 -5.833189e+00 4.160242e+00 -1.303641e+01 1.547653e+01 8.612539e-01 2.543566e-01 -5.005494e-01 -3.035758e-01 1.685734e-01 -4.214830e-01 5.210776e-01 -1.059544e+00 -8.084273e-01 8.175915e-01 1.024548e-01 9.522179e-01 -8.063485e-02 2.725967e-01
<VARIANCE> 25
 1.210074e+01 5.576571e+01 6.094668e+01 4.007453e+01 5.203148e+01 5.844838e+01 4.365388e+01 3.291903e+01 3.640659e+01 2.555475e+01 7.783565e+01 2.464287e+01 2.953492e-01 7.177830e-01 2.251040e+00 6.013400e-01 3.700066e+00 1.336511e+00 1.652048e+00 2.940026e+00 1.676096e+00 5.516950e+00 4.369843e+00 1.486465e+00 5.331997e-01
<GCONST> 9.534409e+01
<STATE> 3
<MEAN> 25
 1.086396e+01 -2.613995e+00 2.262616e-01 -6.447360e+00 -9.383552e+00 2.081838e+00 -1.425898e+01 -8.058791e+00 5.378218e-01 -8.577186e-01 1.358029e+01 2.888672e+00 -7.313379e-01 7.391728e-01 -4.828214e-02 5.044847e-02 1.413117e+00 -4.244816e-02 1.557106e+00 6.510491e-01 -8.442358e-01 8.532420e-01 -1.494182e+00 2.259154e-01 -6.827539e-01
<VARIANCE> 25
 2.910314e+01 2.481872e+01 2.457343e+01 2.289395e+01 2.534214e+01 2.528983e+01 7.780423e+01 3.468521e+01 8.083933e+01 1.623333e+01 9.716846e+01 9.040773e+00 2.582337e+00 8.075126e-01 2.185971e+00 2.653967e+00 3.211862e+00 3.660693e+00 8.005457e-01 3.733353e+00 4.479656e+00 2.403997e+00 5.316508e+00 2.986871e+00 6.221852e-01
<GCONST> 9.790257e+01
<STATE> 4
<MEAN> 25
 -1.557534e+01 3.069908e+00 6.440558e+00 -7.490480e+00 3.080919e+00 -5.954020e+00 -1.214194e+01 3.517969e+00 9.500463e+00 -1.661382e+00 1.608333e+00 2.046174e+00 -6.753206e-01 -1.984682e-01 6.753947e-02 -2.693106e-01 3.783748e-01 -1.519557e-02 3.353910e-01 7.233923e-01 3.657690e-01 4.227465e-01 -2.575196e-02 8.032186e-03 -2.073211e-01
<VARIANCE> 25
 6.137281e+01 2.251339e+01 2.134934e+01 1.776223e+01 2.034251e+01 2.654797e+01 3.441298e+01 3.416481e+01 3.559526e+01 4.067133e+01 2.653622e+01 1.109282e+01 2.477039e+00 5.338520e-01 5.780410e-01 1.087191e+00 7.921242e-01 1.208507e+00 7.528647e-01 1.728717e+00 1.424078e+00 1.183165e+00 1.581658e+00 9.228730e-01 2.749510e-01
<GCONST> 8.508347e+01
<TRANSP> 5
 0.000000e+00 1.000000e+00 0.000000e+00 0.000000e+00 0.000000e+00
 0.000000e+00 8.624288e-01 1.375713e-01 0.000000e+00 0.000000e+00
 0.000000e+00 0.000000e+00 7.765647e-01 2.234354e-01 0.000000e+00
 0.000000e+00 0.000000e+00 0.000000e+00 8.333381e-01 1.666618e-01
 0.000000e+00 0.000000e+00 0.000000e+00 0.000000e+00 0.000000e+00
<ENDHMM>
~h "h"
<BEGINHMM>
<NUMSTATES> 5
<STATE> 2
<MEAN> 25
 2.711044e-07 2.276736e-08 -6.105108e-08 -1.720701e-07 -1.586201e-07 9.768173e-08 -1.135738e-07 -1.298416e-07 7.694315e-08 -1.660590e-07 -1.083516e-07 -5.706868e-08 -2.818740e-03 -4.409721e-03 -4.277692e-03 -1.165964e-03 -3.608679e-03 5.208261e-03 -1.757075e-03 5.998432e-03 4.891248e-03 1.720927e-03 7.501529e-04 -5.307185e-03 6.137643e-03
<VARIANCE> 25
 2.670229e+01 2.794268e+01 3.749357e+01 3.307458e+01 5.256620e+01 4.928031e+01 4.561778e+01 4.954230e+01 4.604616e+01 3.096663e+01 2.869331e+01 1.969207e+01 8.024186e-01 8.637462e-01 9.762596e-01 1.208383e+00 1.860729e+00 1.938551e+00 2.342637e+00 2.054597e+00 2.126093e+00 1.768907e+00 1.840738e+00 1.505519e+00 1.027859e+00
<GCONST> 9.389127e+01
<STATE> 3
<MEAN> 25
 2.711044e-07 2.276736e-08 -6.105108e-08 -1.720701e-07 -1.586201e-07 9.768173e-08 -1.135738e-07 -1.298416e-07 7.694315e-08 -1.660590e-07 -1.083516e-07 -5.706868e-08 -2.818740e-03 -4.409721e-03 -4.277692e-03 -1.165964e-03 -3.608679e-03 5.208261e-03 -1.757075e-03 5.998432e-03 4.891248e-03 1.720927e-03 7.501529e-04 -5.307185e-03 6.137643e-03
<VARIANCE> 25
 2.670229e+01 2.794268e+01 3.749357e+01 3.307458e+01 5.256620e+01 4.928031e+01 4.561778e+01 4.954230e+01 4.604616e+01 3.096663e+01 2.869331e+01 1.969207e+01 8.024186e-01 8.637462e-01 9.762596e-01 1.208383e+00 1.860729e+00 1.938551e+00 2.342637e+00 2.054597e+00 2.126093e+00 1.768907e+00 1.840738e+00 1.505519e+00 1.027859e+00
<GCONST> 9.389127e+01
<STATE> 4
<MEAN> 25
 2.711044e-07 2.276736e-08 -6.105108e-08 -1.720701e-07 -1.586201e-07 9.768173e-08 -1.135738e-07 -1.298416e-07 7.694315e-08 -1.660590e-07 -1.083516e-07 -5.706868e-08 -2.818740e-03 -4.409721e-03 -4.277692e-03 -1.165964e-03 -3.608679e-03 5.208261e-03 -1.757075e-03 5.998432e-03 4.891248e-03 1.720927e-03 7.501529e-04 -5.307185e-03 6.137643e-03
<VARIANCE> 25
 2.670229e+01 2.794268e+01 3.749357e+01 3.307458e+01 5.256620e+01 4.928031e+01 4.561778e+01 4.954230e+01 4.604616e+01 3.096663e+01 2.869331e+01 1.969207e+01 8.024186e-01 8.637462e-01 9.762596e-01 1.208383e+00 1.860729e+00 1.938551e+00 2.342637e+00 2.054597e+00 2.126093e+00 1.768907e+00 1.840738e+00 1.505519e+00 1.027859e+00
<GCONST> 9.389127e+01
<TRANSP> 5
 0.000000e+00 1.000000e+00 0.000000e+00 0.000000e+00 0.000000e+00
 0.000000e+00 6.000000e-01 4.000000e-01 0.000000e+00 0.000000e+00
 0.000000e+00 0.000000e+00 6.000000e-01 4.000000e-01 0.000000e+00
 0.000000e+00 0.000000e+00 0.000000e+00 7.000000e-01 3.000000e-01
 0.000000e+00 0.000000e+00 0.000000e+00 0.000000e+00 0.000000e+00
<ENDHMM>
~h "i"
<BEGINHMM>
<NUMSTATES> 5
<STATE> 2
<MEAN> 25
 8.405731e-01 3.284303e+00 6.853325e-01 -1.482489e+00 -1.465799e+00 -1.921074e+00 -7.746003e-01 -6.075047e-01 -3.668119e+00 1.787170e-02 -4.966168e-01 2.422418e+00 -5.449468e-01 -4.175698e-01 -3.770439e-02 2.573223e-01 6.632034e-01 -8.727633e-01 3.635727e-01 8.571432e-01 2.835169e-01 7.727825e-02 -4.919125e-01 -5.160655e-01 -5.046223e-02
<VARIANCE> 25
 8.865421e+01 2.362687e+01 2.110959e+01 1.229456e+01 1.752326e+01 3.130023e+01 2.842833e+01 3.710414e+01 2.503515e+01 2.104896e+01 1.347070e+01 2.022855e+01 4.009029e-01 1.292825e+00 9.471302e-01 2.368550e+00 1.364689e+00 2.979284e+00 3.736359e+00 3.262125e+00 3.001876e+00 1.349680e+00 2.023165e+00 2.304462e+00 1.493086e+00
<GCONST> 9.168927e+01
<STATE> 3
<MEAN> 25
 -4.986681e+00 6.615230e-01 5.319836e-01 -2.782408e+00 1.560479e+00 -8.059052e+00 -2.343794e+00 4.295341e+00 2.900677e+00 9.127403e-01 -1.785985e+00 3.748157e+00 -3.132854e-01 -2.925423e-01 -1.765904e-01 -2.605585e-01 9.227611e-01 -8.494778e-01 -8.231404e-01 -3.977889e-01 6.029306e-01 2.389560e-01 -3.282772e-01 -6.789013e-01 8.013909e-01
<VARIANCE> 25
 7.443815e+01 2.601595e+01 2.489837e+01 2.398283e+01 2.943577e+01 3.643611e+01 4.129053e+01 2.804390e+01 2.157418e+01 2.808753e+01 2.969055e+01 2.962608e+01 6.510902e-01 8.732873e-01 2.237194e+00 3.443480e+00 1.214425e+00 6.387570e+00 1.190125e+01 7.519212e+00 2.538181e+00 3.901167e-01 1.068633e+00 5.787673e-01 4.191843e+00
<GCONST> 9.608888e+01
<STATE> 4
<MEAN> 25
 -6.475125e+00 1.570092e-01 8.153135e-01 -2.592951e+00 3.539773e+00 -3.714430e+00 1.398784e+00 2.273177e+00 -1.028736e-01 6.909506e-01 -2.810651e+00 1.736083e+00 5.172196e-01 3.968143e-01 -1.763915e-01 1.967349e-01 -1.532522e-01 2.051141e-01 -1.389841e-01 -6.507692e-01 -3.986746e-01 -5.560394e-02 4.265746e-01 -4.613326e-01 -2.439758e-01
<VARIANCE> 25
 6.819419e+01 1.757266e+01 2.101653e+01 7.569145e+00 1.874314e+01 3.741589e+01 4.088686e+01 1.125986e+01 1.880494e+01 1.067694e+01 1.755647e+01 2.737854e+01 8.056161e-01 6.111249e-01 2.630716e+00 2.070288e+00 1.689935e+00 1.616666e+00 5.891227e+00 5.612836e+00 1.117683e+00 1.587367e+00 1.852716e+00 1.772585e+00 2.663639e+00
<GCONST> 9.049943e+01
<TRANSP> 5
 0.000000e+00 1.000000e+00 0.000000e+00 0.000000e+00 0.000000e+00
 0.000000e+00 5.257073e-01 4.742927e-01 0.000000e+00 0.000000e+00
 0.000000e+00 0.000000e+00 1.052380e-01 8.947620e-01 0.000000e+00
 0.000000e+00 0.000000e+00 0.000000e+00 5.452251e-01 4.547749e-01
 0.000000e+00 0.000000e+00 0.000000e+00 0.000000e+00 0.000000e+00
<ENDHMM>
~h "k"
<BEGINHMM>
<NUMSTATES> 5
<STATE> 2
<MEAN> 25
 5.479267e+00 -3.556262e-01 7.361260e-02 -6.694617e+00 -3.610763e+00 -3.743770e+00 -1.099303e+01 -4.177007e+00 3.066317e+00 5.305479e-01 8.531002e-02 -1.685870e+00 -1.538403e-02 -9.155821e-01 -4.082465e-01 -4.720757e-01 -2.571991e-01 -6.306102e-01 -2.133290e-01 -3.354591e-01 1.232920e+00 -5.458119e-01 -2.349357e-01 -3.512106e-01 1.634525e+00
<VARIANCE> 25
 4.022419e+01 7.036547e+01 2.828438e+01 3.691452e+01 5.643946e+01 7.742876e+01 1.045076e+02 7.509981e+01 7.367966e+01 4.032178e+01 4.911266e+01 1.993967e+01 2.426867e+00 3.642384e+00 1.900581e+00 4.287230e+00 8.014959e+00 8.270765e+00 1.488497e+01 6.148247e+00 3.715848e+00 5.588293e+00 6.041272e+00 2.657978e+00 6.178845e+00
<GCONST> 1.136982e+02
<STATE> 3
<MEAN> 25
 2.900642e-01 -9.293589e+00 -1.124769e+01 -6.151663e+00 -1.493773e+00 -9.611366e+00 -6.157294e-01 -8.073285e+00 1.326576e+01 -4.374802e+00 -6.248039e+00 -2.015141e+00 -2.784279e-02 1.765012e-01 -2.360848e-01 3.931643e-01 3.348947e-01 9.211261e-02 3.734762e-01 5.168018e-03 -1.495008e-01 3.008556e-02 5.524796e-02 6.925613e-02 -4.934953e-01
<VARIANCE> 25
 6.335864e+01 4.642244e+01 2.384858e+01 1.541392e+01 3.207519e+01 1.368513e+01 2.030559e+01 8.144382e+01 2.201562e+01 1.667883e+01 2.251986e+01 3.048941e+01 8.760015e-01 1.015210e+00 1.281595e+00 8.771290e-01 7.921797e-01 1.564167e+00 2.192251e+00 2.964965e+00 1.462913e+00 1.189685e+00 2.107710e+00 8.674296e-01 7.736329e-01
<GCONST> 8.876014e+01
<STATE> 4
<MEAN> 25
 3.690673e+00 -6.184837e+00 -8.778824e+00 -1.592992e+00 1.808604e-01 -1.170698e+00 1.783346e+00 -1.308746e+00 7.335713e+00 -2.199375e+00 -5.355081e-01 -5.485097e+00 1.356789e-01 5.554647e-01 6.934751e-01 3.116882e-01 7.371134e-02 6.976134e-01 1.173530e-01 2.660160e-01 -1.249047e+00 9.158646e-01 -8.744400e-02 -3.370081e-01 -1.243688e+00
<VARIANCE> 25
 2.386450e+01 2.305335e+01 1.067425e+01 1.132713e+01 2.071254e+01 1.663266e+01 1.951125e+01 5.747828e+01 3.861618e+01 3.796454e+01 9.872108e+00 3.350959e+01 4.297940e-01 5.497072e-01 8.766767e-01 1.121753e+00 1.390534e+00 1.129901e+00 1.623278e+00 2.136175e+00 2.405575e+00 1.491780e+00 1.075402e+00 2.262036e+00 2.389468e-01
<GCONST> 8.397950e+01
<TRANSP> 5
 0.000000e+00 1.000000e+00 0.000000e+00 0.000000e+00 0.000000e+00
 0.000000e+00 8.527603e-01 1.472397e-01 0.000000e+00 0.000000e+00
 0.000000e+00 0.000000e+00 9.343495e-01 6.565052e-02 0.000000e+00
 0.000000e+00 0.000000e+00 0.000000e+00 8.274643e-01 1.725356e-01
 0.000000e+00 0.000000e+00 0.000000e+00 0.000000e+00 0.000000e+00
<ENDHMM>
~h "l"
<BEGINHMM>
<NUMSTATES> 5
<STATE> 2
<MEAN> 25
 2.711044e-07 2.276736e-08 -6.105108e-08 -1.720701e-07 -1.586201e-07 9.768173e-08 -1.135738e-07 -1.298416e-07 7.694315e-08 -1.660590e-07 -1.083516e-07 -5.706868e-08 -2.818740e-03 -4.409721e-03 -4.277692e-03 -1.165964e-03 -3.608679e-03 5.208261e-03 -1.757075e-03 5.998432e-03 4.891248e-03 1.720927e-03 7.501529e-04 -5.307185e-03 6.137643e-03
<VARIANCE> 25
 2.670229e+01 2.794268e+01 3.749357e+01 3.307458e+01 5.256620e+01 4.928031e+01 4.561778e+01 4.954230e+01 4.604616e+01 3.096663e+01 2.869331e+01 1.969207e+01 8.024186e-01 8.637462e-01 9.762596e-01 1.208383e+00 1.860729e+00 1.938551e+00 2.342637e+00 2.054597e+00 2.126093e+00 1.768907e+00 1.840738e+00 1.505519e+00 1.027859e+00
<GCONST> 9.389127e+01
<STATE> 3
<MEAN> 25
 2.711044e-07 2.276736e-08 -6.105108e-08 -1.720701e-07 -1.586201e-07 9.768173e-08 -1.135738e-07 -1.298416e-07 7.694315e-08 -1.660590e-07 -1.083516e-07 -5.706868e-08 -2.818740e-03 -4.409721e-03 -4.277692e-03 -1.165964e-03 -3.608679e-03 5.208261e-03 -1.757075e-03 5.998432e-03 4.891248e-03 1.720927e-03 7.501529e-04 -5.307185e-03 6.137643e-03
<VARIANCE> 25
 2.670229e+01 2.794268e+01 3.749357e+01 3.307458e+01 5.256620e+01 4.928031e+01 4.561778e+01 4.954230e+01 4.604616e+01 3.096663e+01 2.869331e+01 1.969207e+01 8.024186e-01 8.637462e-01 9.762596e-01 1.208383e+00 1.860729e+00 1.938551e+00 2.342637e+00 2.054597e+00 2.126093e+00 1.768907e+00 1.840738e+00 1.505519e+00 1.027859e+00
<GCONST> 9.389127e+01
<STATE> 4
<MEAN> 25
 2.711044e-07 2.276736e-08 -6.105108e-08 -1.720701e-07 -1.586201e-07 9.768173e-08 -1.135738e-07 -1.298416e-07 7.694315e-08 -1.660590e-07 -1.083516e-07 -5.706868e-08 -2.818740e-03 -4.409721e-03 -4.277692e-03 -1.165964e-03 -3.608679e-03 5.208261e-03 -1.757075e-03 5.998432e-03 4.891248e-03 1.720927e-03 7.501529e-04 -5.307185e-03 6.137643e-03
<VARIANCE> 25
 2.670229e+01 2.794268e+01 3.749357e+01 3.307458e+01 5.256620e+01 4.928031e+01 4.561778e+01 4.954230e+01 4.604616e+01 3.096663e+01 2.869331e+01 1.969207e+01 8.024186e-01 8.637462e-01 9.762596e-01 1.208383e+00 1.860729e+00 1.938551e+00 2.342637e+00 2.054597e+00 2.126093e+00 1.768907e+00 1.840738e+00 1.505519e+00 1.027859e+00
<GCONST> 9.389127e+01
<TRANSP> 5
 0.000000e+00 1.000000e+00 0.000000e+00 0.000000e+00 0.000000e+00
 0.000000e+00 6.000000e-01 4.000000e-01 0.000000e+00 0.000000e+00
 0.000000e+00 0.000000e+00 6.000000e-01 4.000000e-01 0.000000e+00
 0.000000e+00 0.000000e+00 0.000000e+00 7.000000e-01 3.000000e-01
 0.000000e+00 0.000000e+00 0.000000e+00 0.000000e+00 0.000000e+00
<ENDHMM>
~h "m"
<BEGINHMM>
<NUMSTATES> 5
<STATE> 2
<MEAN> 25
 2.711044e-07 2.276736e-08 -6.105108e-08 -1.720701e-07 -1.586201e-07 9.768173e-08 -1.135738e-07 -1.298416e-07 7.694315e-08 -1.660590e-07 -1.083516e-07 -5.706868e-08 -2.818740e-03 -4.409721e-03 -4.277692e-03 -1.165964e-03 -3.608679e-03 5.208261e-03 -1.757075e-03 5.998432e-03 4.891248e-03 1.720927e-03 7.501529e-04 -5.307185e-03 6.137643e-03
<VARIANCE> 25
 2.670229e+01 2.794268e+01 3.749357e+01 3.307458e+01 5.256620e+01 4.928031e+01 4.561778e+01 4.954230e+01 4.604616e+01 3.096663e+01 2.869331e+01 1.969207e+01 8.024186e-01 8.637462e-01 9.762596e-01 1.208383e+00 1.860729e+00 1.938551e+00 2.342637e+00 2.054597e+00 2.126093e+00 1.768907e+00 1.840738e+00 1.505519e+00 1.027859e+00
<GCONST> 9.389127e+01
<STATE> 3
<MEAN> 25
 2.711044e-07 2.276736e-08 -6.105108e-08 -1.720701e-07 -1.586201e-07 9.768173e-08 -1.135738e-07 -1.298416e-07 7.694315e-08 -1.660590e-07 -1.083516e-07 -5.706868e-08 -2.818740e-03 -4.409721e-03 -4.277692e-03 -1.165964e-03 -3.608679e-03 5.208261e-03 -1.757075e-03 5.998432e-03 4.891248e-03 1.720927e-03 7.501529e-04 -5.307185e-03 6.137643e-03
<VARIANCE> 25
 2.670229e+01 2.794268e+01 3.749357e+01 3.307458e+01 5.256620e+01 4.928031e+01 4.561778e+01 4.954230e+01 4.604616e+01 3.096663e+01 2.869331e+01 1.969207e+01 8.024186e-01 8.637462e-01 9.762596e-01 1.208383e+00 1.860729e+00 1.938551e+00 2.342637e+00 2.054597e+00 2.126093e+00 1.768907e+00 1.840738e+00 1.505519e+00 1.027859e+00
<GCONST> 9.389127e+01
<STATE> 4
<MEAN> 25
 2.711044e-07 2.276736e-08 -6.105108e-08 -1.720701e-07 -1.586201e-07 9.768173e-08 -1.135738e-07 -1.298416e-07 7.694315e-08 -1.660590e-07 -1.083516e-07 -5.706868e-08 -2.818740e-03 -4.409721e-03 -4.277692e-03 -1.165964e-03 -3.608679e-03 5.208261e-03 -1.757075e-03 5.998432e-03 4.891248e-03 1.720927e-03 7.501529e-04 -5.307185e-03 6.137643e-03
<VARIANCE> 25
 2.670229e+01 2.794268e+01 3.749357e+01 3.307458e+01 5.256620e+01 4.928031e+01 4.561778e+01 4.954230e+01 4.604616e+01 3.096663e+01 2.869331e+01 1.969207e+01 8.024186e-01 8.637462e-01 9.762596e-01 1.208383e+00 1.860729e+00 1.938551e+00 2.342637e+00 2.054597e+00 2.126093e+00 1.768907e+00 1.840738e+00 1.505519e+00 1.027859e+00
<GCONST> 9.389127e+01
<TRANSP> 5
 0.000000e+00 1.000000e+00 0.000000e+00 0.000000e+00 0.000000e+00
 0.000000e+00 6.000000e-01 4.000000e-01 0.000000e+00 0.000000e+00
 0.000000e+00 0.000000e+00 6.000000e-01 4.000000e-01 0.000000e+00
 0.000000e+00 0.000000e+00 0.000000e+00 7.000000e-01 3.000000e-01
 0.000000e+00 0.000000e+00 0.000000e+00 0.000000e+00 0.000000e+00
<ENDHMM>
~h "o"
<BEGINHMM>
<NUMSTATES> 5
<STATE> 2
<MEAN> 25
 8.613292e-01 3.099782e+00 -2.172070e+00 -8.225708e-02 1.583382e+00 1.595284e+00 2.669363e+00 2.497344e+00 5.834094e-01 5.238508e+00 4.476947e-01 -6.167426e-01 -1.128676e-01 2.620783e-01 4.050654e-01 3.221707e-01 5.160444e-01 4.563501e-01 -1.765806e-01 -7.941247e-02 -8.504752e-02 -2.214005e-01 -1.698392e-02 2.673599e-01 -3.045004e-01
<VARIANCE> 25
 8.404869e+00 5.256128e+00 1.061810e+01 7.477188e+00 2.904621e+01 1.982929e+01 1.719820e+01 2.233019e+01 1.220149e+01 8.541330e+00 1.597444e+01 2.876600e+01 3.845120e-01 3.075677e-01 7.889975e-01 7.464452e-01 9.841500e-01 9.007171e-01 1.159524e+00 1.064667e+00 1.130188e+00 5.683580e-01 1.502601e+00 1.915435e+00 5.470123e-02
<GCONST> 7.232752e+01
<STATE> 3
<MEAN> 25
 6.303077e-01 2.939069e+00 2.128502e-01 4.034426e+00 3.474878e+00 5.867192e+00 3.508989e+00 3.878218e+00 -3.926708e+00 3.456058e+00 1.038976e-01 -1.361325e+00 8.614538e-03 -2.754283e-02 -3.944031e-03 2.179829e-02 -3.959763e-02 4.254775e-02 -3.925581e-03 1.175412e-02 -4.547765e-02 -2.509440e-02 -3.673435e-02 7.296480e-03 -1.948615e-02
<VARIANCE> 25
 9.693286e-01 2.147308e+00 3.061263e+00 5.689759e+00 7.239636e+00 8.389516e+00 1.151431e+01 1.267150e+01 1.151075e+01 1.099199e+01 1.152985e+01 1.066650e+01 9.878177e-02 2.846007e-01 2.922007e-01 5.111234e-01 6.564968e-01 9.750729e-01 1.189705e+00 1.161942e+00 1.087654e+00 1.113583e+00 1.248494e+00 1.098351e+00 2.933581e-02
<GCONST> 5.966265e+01
<STATE> 4
<MEAN> 25
 3.329800e-01 2.404624e+00 1.061323e-02 2.801386e+00 2.240811e+00 1.996865e+00 1.895726e+00 2.602546e+00 -3.551121e+00 1.452181e+00 -1.214099e+00 1.704580e-01 9.190653e-02 -3.176511e-01 1.671577e-01 7.221726e-01 1.022176e+00 3.723691e-02 3.180223e-01 4.956234e-01 -4.547543e-02 -3.986984e-01 -7.538471e-01 -2.425565e-01 -3.532360e-02
<VARIANCE> 25
 4.059928e-01 1.158831e+00 7.213637e+00 1.117175e+01 1.579903e+01 4.063011e+01 1.111260e+01 9.715952e+00 4.787230e+00 6.243958e+00 1.086021e+01 2.595398e+00 1.866385e-01 3.587472e-01 2.158172e-01 3.959957e-01 5.368161e-01 1.373315e+00 1.118529e+00 9.191352e-01 4.038842e-01 5.849469e-01 1.062368e+00 1.199455e+00 2.073319e-01
<GCONST> 5.925049e+01
<TRANSP> 5
 0.000000e+00 1.000000e+00 0.000000e+00 0.000000e+00 0.000000e+00
 0.000000e+00 8.257639e-01 1.742361e-01 0.000000e+00 0.000000e+00
 0.000000e+00 0.000000e+00 9.722080e-01 2.779203e-02 0.000000e+00
 0.000000e+00 0.000000e+00 0.000000e+00 4.864028e-01 5.135971e-01
 0.000000e+00 0.000000e+00 0.000000e+00 0.000000e+00 0.000000e+00
<ENDHMM>
~h "p"
<BEGINHMM>
<NUMSTATES> 5
<STATE> 2
<MEAN> 25
 2.711044e-07 2.276736e-08 -6.105108e-08 -1.720701e-07 -1.586201e-07 9.768173e-08 -1.135738e-07 -1.298416e-07 7.694315e-08 -1.660590e-07 -1.083516e-07 -5.706868e-08 -2.818740e-03 -4.409721e-03 -4.277692e-03 -1.165964e-03 -3.608679e-03 5.208261e-03 -1.757075e-03 5.998432e-03 4.891248e-03 1.720927e-03 7.501529e-04 -5.307185e-03 6.137643e-03
<VARIANCE> 25
 2.670229e+01 2.794268e+01 3.749357e+01 3.307458e+01 5.256620e+01 4.928031e+01 4.561778e+01 4.954230e+01 4.604616e+01 3.096663e+01 2.869331e+01 1.969207e+01 8.024186e-01 8.637462e-01 9.762596e-01 1.208383e+00 1.860729e+00 1.938551e+00 2.342637e+00 2.054597e+00 2.126093e+00 1.768907e+00 1.840738e+00 1.505519e+00 1.027859e+00
<GCONST> 9.389127e+01
<STATE> 3
<MEAN> 25
 2.711044e-07 2.276736e-08 -6.105108e-08 -1.720701e-07 -1.586201e-07 9.768173e-08 -1.135738e-07 -1.298416e-07 7.694315e-08 -1.660590e-07 -1.083516e-07 -5.706868e-08 -2.818740e-03 -4.409721e-03 -4.277692e-03 -1.165964e-03 -3.608679e-03 5.208261e-03 -1.757075e-03 5.998432e-03 4.891248e-03 1.720927e-03 7.501529e-04 -5.307185e-03 6.137643e-03
<VARIANCE> 25
 2.670229e+01 2.794268e+01 3.749357e+01 3.307458e+01 5.256620e+01 4.928031e+01 4.561778e+01 4.954230e+01 4.604616e+01 3.096663e+01 2.869331e+01 1.969207e+01 8.024186e-01 8.637462e-01 9.762596e-01 1.208383e+00 1.860729e+00 1.938551e+00 2.342637e+00 2.054597e+00 2.126093e+00 1.768907e+00 1.840738e+00 1.505519e+00 1.027859e+00
<GCONST> 9.389127e+01
<STATE> 4
<MEAN> 25
 2.711044e-07 2.276736e-08 -6.105108e-08 -1.720701e-07 -1.586201e-07 9.768173e-08 -1.135738e-07 -1.298416e-07 7.694315e-08 -1.660590e-07 -1.083516e-07 -5.706868e-08 -2.818740e-03 -4.409721e-03 -4.277692e-03 -1.165964e-03 -3.608679e-03 5.208261e-03 -1.757075e-03 5.998432e-03 4.891248e-03 1.720927e-03 7.501529e-04 -5.307185e-03 6.137643e-03
<VARIANCE> 25
 2.670229e+01 2.794268e+01 3.749357e+01 3.307458e+01 5.256620e+01 4.928031e+01 4.561778e+01 4.954230e+01 4.604616e+01 3.096663e+01 2.869331e+01 1.969207e+01 8.024186e-01 8.637462e-01 9.762596e-01 1.208383e+00 1.860729e+00 1.938551e+00 2.342637e+00 2.054597e+00 2.126093e+00 1.768907e+00 1.840738e+00 1.505519e+00 1.027859e+00
<GCONST> 9.389127e+01
<TRANSP> 5
 0.000000e+00 1.000000e+00 0.000000e+00 0.000000e+00 0.000000e+00
 0.000000e+00 6.000000e-01 4.000000e-01 0.000000e+00 0.000000e+00
 0.000000e+00 0.000000e+00 6.000000e-01 4.000000e-01 0.000000e+00
 0.000000e+00 0.000000e+00 0.000000e+00 7.000000e-01 3.000000e-01
 0.000000e+00 0.000000e+00 0.000000e+00 0.000000e+00 0.000000e+00
<ENDHMM>
~h "r"
<BEGINHMM>
<NUMSTATES> 5
<STATE> 2
<MEAN> 25
 2.007826e+00 -5.853506e+00 6.389636e-01 -2.368851e+00 -1.333627e+00 -9.721699e+00 -8.128937e+00 -9.281158e-01 3.015898e+00 -1.862873e+00 -4.252371e-01 -2.432640e+00 -8.624732e-02 -1.608699e-01 -1.760724e-01 -2.478748e-01 3.316610e-01 6.917596e-01 4.184445e-01 5.439420e-01 -3.332002e-01 -9.955848e-01 -1.153134e-01 -4.220193e-01 4.235586e-01
<VARIANCE> 25
 4.032019e+01 3.740655e+01 5.895824e+01 3.605883e+01 8.274078e+01 6.031538e+01 2.498775e+01 6.193720e+01 1.845222e+01 2.987368e+01 6.862959e+01 6.346495e+01 1.780552e+00 1.133134e+00 3.287747e+00 3.494530e+00 1.019166e-01 3.232874e+00 2.862583e+00 5.818149e+00 5.672726e+00 4.449789e+00 1.245062e+00 6.464328e-01 8.119440e+00
<GCONST> 1.014303e+02
<STATE> 3
<MEAN> 25
 2.705340e+00 -7.130737e+00 1.894218e+00 -1.783273e+00 -5.009907e+00 -9.733416e+00 -4.991767e+00 -1.441769e-01 1.420187e+00 -2.701879e+00 3.387350e+00 -3.344555e+00 -4.035902e-02 -2.223135e-01 -1.365215e-01 3.467025e-01 -5.000844e-01 1.420586e+00 2.241726e+00 1.361407e+00 -7.077592e-02 -1.876726e-01 8.774255e-02 -5.234439e-01 -1.133380e+00
<VARIANCE> 25
 3.431231e+01 2.390670e+01 4.629627e+01 3.635363e+01 1.030525e+02 5.037167e+01 1.698567e+01 5.874537e+01 1.839236e+01 1.255036e+01 6.308595e+01 6.055916e+01 2.430810e+00 9.064348e-01 2.421823e+00 1.099250e+00 6.723900e-01 4.805222e+00 7.767100e-01 1.216059e+00 2.590500e+00 2.999944e+00 1.837082e+00 9.983832e-01 5.150465e+00
<GCONST> 9.641593e+01
<STATE> 4
<MEAN> 25
 2.612138e+00 -9.337247e+00 4.280083e-01 -9.403011e-01 -1.157662e+01 -1.118365e+01 1.118402e+00 5.813142e+00 1.803265e+00 3.017789e-01 6.083981e+00 -4.158473e+00 -3.219441e-01 3.301038e-01 -6.008893e-01 1.213767e-01 1.476427e-02 2.591324e-01 7.344089e-01 8.300674e-01 2.288652e-01 1.344276e+00 8.885324e-01 1.239136e+00 -1.056828e+00
<VARIANCE> 25
 2.423303e+01 1.376810e+01 2.251311e+01 2.655271e+01 1.159205e+02 4.376760e+01 1.892448e+01 4.560067e+01 2.289494e+01 2.568634e+01 4.582254e+01 5.027157e+01 8.264499e-01 7.463198e-01 6.642158e-01 1.451839e+00 8.220666e-01 3.460799e+00 8.220649e-01 8.137975e-01 5.653763e-01 2.389380e+00 1.709732e+00 7.828537e-01 8.638040e-01
<GCONST> 8.813143e+01
<TRANSP> 5
 0.000000e+00 1.000000e+00 0.000000e+00 0.000000e+00 0.000000e+00
 0.000000e+00 6.108203e-05 9.999390e-01 0.000000e+00 0.000000e+00
 0.000000e+00 0.000000e+00 1.707824e-01 8.292176e-01 0.000000e+00
 0.000000e+00 0.000000e+00 0.000000e+00 5.451776e-01 4.548225e-01
 0.000000e+00 0.000000e+00 0.000000e+00 0.000000e+00 0.000000e+00
<ENDHMM>
~h "s"
<BEGINHMM>
<NUMSTATES> 5
<STATE> 2
<MEAN> 25
 -2.486388e+00 5.137259e-01 1.205969e+01 -1.170096e+00 -1.395019e+01 -1.224978e+01 -4.609494e+00 -1.053180e+01 -1.057497e+00 -3.948869e+00 6.040323e+00 1.821296e+00 8.098834e-01 1.861245e-01 3.455283e-01 -4.187438e-01 -9.671575e-01 -1.591453e-02 -5.541954e-01 -7.619326e-01 -1.306817e-01 -1.742527e-01 4.296502e-01 -2.428253e-01 2.621668e-01
<VARIANCE> 25
 6.174346e+01 2.231540e+01 5.415379e+01 1.753887e+01 1.113095e+02 3.156355e+01 8.754962e+01 8.517919e+01 2.353512e+01 4.097495e+01 4.075547e+01 2.662112e+01 5.252549e+00 2.328966e+00 2.249238e+00 3.181332e+00 6.916454e+00 4.122841e+00 7.068328e+00 5.093546e+00 3.743807e+00 3.477217e+00 3.401859e+00 2.739951e+00 2.408684e+00
<GCONST> 1.080572e+02
<STATE> 3
<MEAN> 25
 2.791114e+00 2.272982e+00 2.452111e+00 -7.847849e+00 -8.425268e+00 -9.394516e-01 -2.842782e+00 -7.256828e+00 2.176225e+00 -2.291265e+00 1.745558e+00 8.658066e-01 -7.527223e-01 -1.952052e-01 -3.526399e-01 4.327354e-01 1.514555e+00 4.430282e-02 3.908790e-01 1.296437e+00 1.565710e-01 1.747116e-01 -2.581915e-01 4.958434e-01 2.841096e-02
<VARIANCE> 25
 4.631769e+01 1.707704e+01 1.291264e+02 1.440448e+02 5.501466e+01 5.225295e+01 2.681890e+01 8.540372e+01 6.231818e+01 2.996911e+01 3.152941e+01 3.235175e+01 2.746391e+00 2.664948e+00 3.702692e+00 3.903723e+00 2.173534e+00 6.231426e+00 3.069764e+00 6.027285e+00 1.783465e+00 2.322554e+00 3.248570e+00 2.112062e+00 2.647437e+00
<GCONST> 1.071173e+02
<STATE> 4
<MEAN> 25
 -1.076200e+01 1.411956e+00 7.292112e-02 -3.712630e+00 5.621279e+00 -7.661441e+00 -1.575593e+00 2.245494e+00 5.583776e+00 8.037645e-01 -2.958257e-01 6.035346e+00 -4.473134e-01 9.008580e-02 -6.084123e-01 -2.716820e-01 -1.799409e-01 -6.403317e-02 2.185877e-01 -5.377474e-01 -4.812218e-01 -1.578059e-01 1.223596e-01 3.388268e-01 2.376363e-01
<VARIANCE> 25
 5.709068e+01 2.787077e+01 3.525040e+01 1.708506e+01 5.040271e+01 3.449068e+01 6.423309e+01 4.246614e+01 3.552634e+01 1.885533e+01 1.901454e+01 2.517959e+01 4.494578e+00 1.075210e+00 1.449459e+00 6.757541e-01 2.061791e+00 2.864959e+00 6.282222e+00 2.158715e+00 2.912566e+00 1.481263e+00 1.961460e+00 2.566949e+00 1.928851e+00
<GCONST> 9.744337e+01
<TRANSP> 5
 0.000000e+00 1.000000e+00 0.000000e+00 0.000000e+00 0.000000e+00
 0.000000e+00 8.745534e-01 1.254466e-01 0.000000e+00 0.000000e+00
 0.000000e+00 0.000000e+00 7.865385e-01 2.134616e-01 0.000000e+00
 0.000000e+00 0.000000e+00 0.000000e+00 7.189041e-01 2.810958e-01
 0.000000e+00 0.000000e+00 0.000000e+00 0.000000e+00 0.000000e+00
<ENDHMM>
~h "t"
<BEGINHMM>
<NUMSTATES> 5
<STATE> 2
<MEAN> 25
 7.001844e+00 -4.337271e+00 2.102643e+00 2.065267e+00 -1.627144e+01 -9.626826e+00 -8.280601e+00 -8.106126e+00 5.373482e+00 -6.087241e+00 4.977445e+00 2.519052e+00 3.216335e-01 -9.822972e-01 8.119452e-01 1.071928e+00 -1.605750e+00 -1.964285e+00 1.655048e-01 9.538011e-01 -2.371789e-01 -5.091394e-01 8.713618e-01 3.709386e-02 1.606911e-01
<VARIANCE> 25
 1.179745e+01 4.789246e+01 5.294325e+01 1.041396e+01 1.638955e+02 2.970553e+01 2.451999e+01 3.425333e+01 1.220518e+01 7.214134e+01 3.063136e+01 8.225159e+00 1.547614e-01 1.290513e+00 5.984790e+00 1.011218e+00 3.365489e+00 1.602076e+00 1.220832e+00 1.083954e+00 2.948515e+00 3.065423e+00 2.220979e+00 1.117152e+00 6.743670e-01
<GCONST> 9.100047e+01
<STATE> 3
<MEAN> 25
 6.135754e+00 -9.992591e-01 8.564076e+00 2.269019e+00 -1.699118e+01 -1.272117e+01 -6.712550e+00 -6.951433e+00 -4.675894e+00 -6.078173e+00 7.432590e+00 -2.038081e+00 -5.743083e-01 5.838397e-01 3.453059e-01 -5.235683e-01 1.602150e+00 5.218752e-02 -1.115738e-02 -2.353743e-01 -5.744323e-01 1.084963e+00 -8.915935e-01 -2.219396e-02 -4.873250e-01
<VARIANCE> 25
 9.955169e+00 3.885435e+01 1.755447e+01 1.322326e+01 7.539984e+01 2.972492e+01 2.198888e+01 1.582846e+01 4.009556e+01 2.689598e+01 2.847620e+01 1.493587e+01 3.910807e-01 2.163661e+00 8.076779e-01 1.243811e+00 5.749153e+00 8.652604e-01 2.097759e+00 2.110648e+00 3.038357e+00 2.874420e+00 4.653650e+00 2.171726e+00 6.618378e-01
<GCONST> 9.095270e+01
<STATE> 4
<MEAN> 25
 4.353838e+00 -5.271012e+00 4.033814e+00 3.005863e-01 -3.406609e+00 -1.258167e+01 -1.362706e+01 -2.736406e+00 7.117857e+00 -2.869910e-02 -3.992460e-01 7.432292e-01 -5.321183e-01 -2.219666e+00 2.181649e-02 -6.050335e-01 -1.151529e+00 7.596823e-02 -1.081394e+00 1.923726e-01 2.546674e+00 -1.263698e+00 8.487130e-01 -6.096069e-01 1.902327e+00
<VARIANCE> 25
 1.190702e+01 7.709594e+01 1.733024e+01 2.604354e+00 9.874332e+01 4.396763e+01 1.017640e+02 3.061219e+01 7.319803e+01 4.539599e+01 3.199931e+01 7.173958e+00 1.528763e+00 1.827032e+00 1.031504e+00 9.606177e-01 1.796677e+01 3.639366e+00 9.251068e+00 1.410329e+00 2.613237e+00 6.834331e+00 6.071959e+00 2.568724e+00 3.642291e+00
<GCONST> 1.012327e+02
<TRANSP> 5
 0.000000e+00 1.000000e+00 0.000000e+00 0.000000e+00 0.000000e+00
 0.000000e+00 6.921824e-01 3.078177e-01 0.000000e+00 0.000000e+00
 0.000000e+00 0.000000e+00 7.842984e-01 2.157016e-01 0.000000e+00
 0.000000e+00 0.000000e+00 0.000000e+00 6.786864e-01 3.213136e-01
 0.000000e+00 0.000000e+00 0.000000e+00 0.000000e+00 0.000000e+00
<ENDHMM>
~h "u"
<BEGINHMM>
<NUMSTATES> 5
<STATE> 2
<MEAN> 25
 -1.915578e+00 -5.129845e-01 1.906387e+00 -3.969715e+00 -1.054753e+00 -4.897019e+00 -4.670646e+00 5.001667e+00 7.769534e+00 1.796805e+00 2.501713e+00 -1.535525e+00 1.754339e-01 -9.949936e-01 -4.545780e-01 -9.180354e-01 -4.762163e-01 1.383326e+00 1.551979e+00 1.181014e-01 -1.221775e-01 -3.360646e-01 -2.712915e-01 -5.741105e-01 -8.087530e-02
<VARIANCE> 25
 8.185944e+01 4.489542e+01 1.064661e+01 3.511861e+01 7.707352e+01 2.281326e+01 1.285154e+02 2.398968e+00 4.500280e+01 2.400685e+01 2.490952e+01 2.618486e+00 4.000765e-01 5.828794e-01 1.831036e+00 7.338572e-01 4.694897e-01 8.975994e-01 3.636262e+00 2.022798e-01 5.092816e-01 3.466919e-01 2.943735e+00 1.460978e+00 3.243649e-01
<GCONST> 8.071343e+01
<STATE> 3
<MEAN> 25
 -5.716555e-01 -5.553749e+00 -7.362863e-01 -6.330145e+00 -6.348864e+00 -4.169870e+00 -3.240268e+00 3.716296e+00 1.155489e+01 -3.017740e+00 -3.172400e+00 -3.513520e+00 -1.513989e-01 -3.324918e-01 -1.055770e+00 -1.797516e-02 8.951867e-01 4.595690e-01 2.413975e+00 -5.519977e-01 -2.143275e-01 -5.886412e-01 -2.082797e+00 -5.104245e-01 7.562760e-02
<VARIANCE> 25
 4.292574e+01 5.079898e+01 2.091540e+01 1.302579e+01 8.782277e+01 2.043378e+01 7.420675e+01 1.093131e+01 8.489888e+01 1.511800e+01 2.412935e+01 2.576185e+00 4.843151e-01 4.413825e-01 2.152860e+00 1.220609e+00 6.390147e-01 8.915800e-01 6.687945e+00 6.727024e-01 8.645924e-01 9.824224e-01 3.105078e+00 3.519746e-01 2.169127e-01
<GCONST> 8.348167e+01
<STATE> 4
<MEAN> 25
 9.005814e-02 2.166387e+00 -4.501193e-01 3.703377e+00 3.465646e+00 5.039642e+00 2.944209e+00 2.996299e+00 -4.286783e+00 2.025469e+00 -5.576446e-01 -9.012629e-01 2.889499e-02 -9.688742e-02 5.528362e-03 8.338546e-02 -4.698526e-02 2.785411e-02 -9.761489e-02 3.275532e-02 -1.626647e-02 -1.124387e-02 -4.310656e-03 8.844921e-02 -3.244650e-02
<VARIANCE> 25
 5.472106e+00 8.129763e+00 5.035228e+00 1.101244e+01 1.151210e+01 1.276721e+01 1.144082e+01 8.710344e+00 2.734479e+01 1.207983e+01 1.507781e+01 9.251553e+00 1.604735e-01 2.496937e-01 2.977105e-01 6.678488e-01 8.569524e-01 8.063897e-01 1.819086e+00 1.010630e+00 1.707971e+00 1.229312e+00 1.775024e+00 8.362429e-01 5.088014e-02
<GCONST> 6.765301e+01
<TRANSP> 5
 0.000000e+00 1.000000e+00 0.000000e+00 0.000000e+00 0.000000e+00
 0.000000e+00 7.099476e-03 9.929006e-01 0.000000e+00 0.000000e+00
 0.000000e+00 0.000000e+00 4.268272e-01 5.731728e-01 0.000000e+00
 0.000000e+00 0.000000e+00 0.000000e+00 9.200829e-01 7.991708e-02
 0.000000e+00 0.000000e+00 0.000000e+00 0.000000e+00 0.000000e+00
<ENDHMM>
~h "ng"
<BEGINHMM>
<NUMSTATES> 5
<STATE> 2
<MEAN> 25
 2.711044e-07 2.276736e-08 -6.105108e-08 -1.720701e-07 -1.586201e-07 9.768173e-08 -1.135738e-07 -1.298416e-07 7.694315e-08 -1.660590e-07 -1.083516e-07 -5.706868e-08 -2.818740e-03 -4.409721e-03 -4.277692e-03 -1.165964e-03 -3.608679e-03 5.208261e-03 -1.757075e-03 5.998432e-03 4.891248e-03 1.720927e-03 7.501529e-04 -5.307185e-03 6.137643e-03
<VARIANCE> 25
 2.670229e+01 2.794268e+01 3.749357e+01 3.307458e+01 5.256620e+01 4.928031e+01 4.561778e+01 4.954230e+01 4.604616e+01 3.096663e+01 2.869331e+01 1.969207e+01 8.024186e-01 8.637462e-01 9.762596e-01 1.208383e+00 1.860729e+00 1.938551e+00 2.342637e+00 2.054597e+00 2.126093e+00 1.768907e+00 1.840738e+00 1.505519e+00 1.027859e+00
<GCONST> 9.389127e+01
<STATE> 3
<MEAN> 25
 2.711044e-07 2.276736e-08 -6.105108e-08 -1.720701e-07 -1.586201e-07 9.768173e-08 -1.135738e-07 -1.298416e-07 7.694315e-08 -1.660590e-07 -1.083516e-07 -5.706868e-08 -2.818740e-03 -4.409721e-03 -4.277692e-03 -1.165964e-03 -3.608679e-03 5.208261e-03 -1.757075e-03 5.998432e-03 4.891248e-03 1.720927e-03 7.501529e-04 -5.307185e-03 6.137643e-03
<VARIANCE> 25
 2.670229e+01 2.794268e+01 3.749357e+01 3.307458e+01 5.256620e+01 4.928031e+01 4.561778e+01 4.954230e+01 4.604616e+01 3.096663e+01 2.869331e+01 1.969207e+01 8.024186e-01 8.637462e-01 9.762596e-01 1.208383e+00 1.860729e+00 1.938551e+00 2.342637e+00 2.054597e+00 2.126093e+00 1.768907e+00 1.840738e+00 1.505519e+00 1.027859e+00
<GCONST> 9.389127e+01
<STATE> 4
<MEAN> 25
 2.711044e-07 2.276736e-08 -6.105108e-08 -1.720701e-07 -1.586201e-07 9.768173e-08 -1.135738e-07 -1.298416e-07 7.694315e-08 -1.660590e-07 -1.083516e-07 -5.706868e-08 -2.818740e-03 -4.409721e-03 -4.277692e-03 -1.165964e-03 -3.608679e-03 5.208261e-03 -1.757075e-03 5.998432e-03 4.891248e-03 1.720927e-03 7.501529e-04 -5.307185e-03 6.137643e-03
<VARIANCE> 25
 2.670229e+01 2.794268e+01 3.749357e+01 3.307458e+01 5.256620e+01 4.928031e+01 4.561778e+01 4.954230e+01 4.604616e+01 3.096663e+01 2.869331e+01 1.969207e+01 8.024186e-01 8.637462e-01 9.762596e-01 1.208383e+00 1.860729e+00 1.938551e+00 2.342637e+00 2.054597e+00 2.126093e+00 1.768907e+00 1.840738e+00 1.505519e+00 1.027859e+00
<GCONST> 9.389127e+01
<TRANSP> 5
 0.000000e+00 1.000000e+00 0.000000e+00 0.000000e+00 0.000000e+00
 0.000000e+00 6.000000e-01 4.000000e-01 0.000000e+00 0.000000e+00
 0.000000e+00 0.000000e+00 6.000000e-01 4.000000e-01 0.000000e+00
 0.000000e+00 0.000000e+00 0.000000e+00 7.000000e-01 3.000000e-01
 0.000000e+00 0.000000e+00 0.000000e+00 0.000000e+00 0.000000e+00
<ENDHMM>
~h "sp"
<BEGINHMM>
<NUMSTATES> 3
<STATE> 2
~s "silst"
<TRANSP> 3
 0.000000e+00 3.560684e-01 6.439316e-01
 0.000000e+00 9.577063e-01 4.229370e-02
 0.000000e+00 0.000000e+00 0.000000e+00
<ENDHMM>
~h "sil"
<BEGINHMM>
<NUMSTATES> 5
<STATE> 2
<MEAN> 25
 -5.670843e-02 1.624209e+00 2.539229e-01 2.751383e+00 2.311451e+00 2.994886e+00 2.573676e+00 2.702332e+00 -2.709691e+00 1.502111e+00 -1.308183e-01 -1.303123e-01 -4.335767e-03 4.060767e-03 1.478638e-03 -1.483739e-03 7.664789e-03 2.640061e-02 2.724118e-02 8.598624e-03 -1.638753e-02 5.863595e-03 7.120621e-03 -1.088199e-03 -1.729508e-02
<VARIANCE> 25
 1.263213e+00 2.928624e+00 3.879609e+00 6.644055e+00 7.719543e+00 1.147587e+01 1.082248e+01 1.192861e+01 1.235365e+01 1.164574e+01 1.134296e+01 1.055100e+01 9.605175e-02 2.213691e-01 3.638496e-01 5.957167e-01 7.286449e-01 1.001239e+00 1.199312e+00 1.100086e+00 1.284409e+00 1.212969e+00 1.058687e+00 1.017516e+00 3.368298e-02
<GCONST> 6.131186e+01
<STATE> 3
~s "silst"
<STATE> 4
<MEAN> 25
 -6.478995e-01 -2.480485e+00 -1.582281e+00 -4.475950e+00 -1.828445e+00 -3.478485e+00 -2.197452e+00 -4.109628e+00 2.775562e+00 -2.063827e+00 -1.023317e+00 1.095040e+00 1.467513e-02 -2.588429e-02 -4.901477e-02 -4.410002e-02 -6.549466e-02 -6.059361e-02 -9.159843e-02 2.259898e-02 8.172955e-02 1.625617e-02 -2.867763e-03 -4.153857e-02 1.162686e-01
<VARIANCE> 25
 6.193121e+01 6.079935e+01 7.929228e+01 6.281816e+01 9.068665e+01 6.364137e+01 4.980429e+01 7.997923e+01 5.132920e+01 5.694423e+01 4.832586e+01 3.453518e+01 1.876019e+00 1.968180e+00 1.803659e+00 2.365109e+00 3.278704e+00 3.344655e+00 3.295714e+00 3.225329e+00 3.647708e+00 2.700920e+00 2.657520e+00 2.623296e+00 2.735919e+00
<GCONST> 1.077961e+02
<TRANSP> 5
 0.000000e+00 1.000000e+00 0.000000e+00 0.000000e+00 0.000000e+00
 0.000000e+00 9.775521e-01 8.429551e-03 1.401835e-02 0.000000e+00
 0.000000e+00 0.000000e+00 9.683563e-01 3.164377e-02 0.000000e+00
 0.000000e+00 4.086740e-02 0.000000e+00 9.362729e-01 2.285970e-02
 0.000000e+00 0.000000e+00 0.000000e+00 0.000000e+00 0.000000e+00
<ENDHMM>
