~o
<STREAMINFO> 1 25
<VECSIZE> 25<NULLD><MFCC_D_N_Z_0><DIAGC>
~s "silst"
<MEAN> 25
 -9.701195e+00 1.453641e+01 -2.092183e+00 4.222464e+00 7.513963e+00 1.594984e+00 9.355057e+00 5.855762e+00 3.579213e-01 6.464959e+00 2.567994e+00 -1.786603e-01 -1.212731e-01 7.326080e-02 2.083862e-02 -1.487048e-02 1.200687e-02 -1.186266e-03 6.965645e-02 9.656156e-02 9.116322e-02 5.288958e-02 5.882879e-02 3.229953e-02 -6.590672e-02
<VARIANCE> 25
 3.245077e+01 4.133812e+01 2.322208e+01 8.905580e+00 1.382420e+01 2.117935e+01 2.940476e+01 1.966032e+01 1.660840e+01 1.579186e+01 2.008569e+01 1.476289e+01 2.124550e+00 2.149361e+00 1.704517e+00 8.455957e-01 1.243371e+00 1.544752e+00 2.176740e+00 1.609095e+00 1.459507e+00 1.328145e+00 1.539352e+00 1.296194e+00 1.731955e+00
<GCONST> 8.747334e+01
~h "E"
<BEGINHMM>
<NUMSTATES> 5
<STATE> 2
<MEAN> 25
 5.462534e+00 -9.457504e+00 1.489966e+00 -5.718942e+00 -3.757179e+00 -2.676525e+00 -1.305032e+00 -1.637915e+00 -2.905370e+00 -3.486980e+00 -4.142708e+00 -4.339466e-01 1.804594e+00 -2.525476e+00 -7.949177e-02 -2.475935e+00 -1.153109e+00 -1.435991e+00 3.547036e-01 -6.463136e-01 -1.455909e+00 -1.692631e+00 -1.094110e+00 2.565875e-01 3.589386e+00
<VARIANCE> 25
 4.609065e+01 9.780929e+01 3.525718e+01 6.442216e+01 5.774382e+01 4.201941e+01 5.310349e+01 6.219813e+01 4.194806e+01 4.097748e+01 4.190574e+01 2.206458e+01 3.556411e+00 8.679273e+00 2.666081e+00 4.185079e+00 5.170392e+00 4.262003e+00 4.905473e+00 6.961268e+00 3.943232e+00 3.295868e+00 4.300733e+00 2.868285e+00 7.256892e+00
<GCONST> 1.117886e+02
<STATE> 3
<MEAN> 25
 8.133867e+00 -1.489954e+01 4.806501e-01 -9.835207e+00 -6.679183e+00 -6.804328e+00 5.716475e+00 -3.820413e+00 -8.250122e+00 -8.607053e+00 -4.814003e+00 3.683957e-01 7.987583e-03 6.399880e-02 1.982841e-02 2.242424e-01 -3.765827e-01 -1.670865e-01 4.197353e-01 -5.803407e-02 5.454469e-02 1.347188e-02 4.782984e-02 6.833792e-02 -7.944730e-02
<VARIANCE> 25
 1.162225e+01 5.030187e+01 2.870770e+01 1.866120e+01 3.058566e+01 3.756626e+01 4.639550e+01 4.612322e+01 2.257314e+01 2.245221e+01 3.298726e+01 1.735955e+01 4.079623e-01 8.600976e-01 9.479758e-01 7.359059e-01 1.213527e+00 1.317597e+00 3.060486e+00 1.964811e+00 2.243766e+00 1.539561e+00 1.914541e+00 1.293281e+00 6.975248e-01
<GCONST> 8.853710e+01
<STATE> 4
<MEAN> 25
 6.060497e+00 -1.000579e+01 3.988262e+00 -5.644604e+00 -8.722870e+00 -2.580772e+00 -6.976478e-01 -3.848273e+00 -2.241264e+00 -2.422016e+00 -2.677333e+00 1.501146e-01 -6.530203e-01 1.487776e+00 -6.760930e-01 1.056215e+00 6.896481e-01 5.999849e-01 -5.951314e-01 3.163761e-01 9.254161e-01 5.665490e-01 2.551314e-01 -2.027974e-01 -1.905805e+00
<VARIANCE> 25
 3.362142e+01 7.783044e+01 7.705051e+01 4.739921e+01 7.414075e+01 6.104976e+01 7.289516e+01 5.336394e+01 2.997863e+01 5.299852e+01 5.322171e+01 2.328669e+01 2.353885e+00 4.206407e+00 3.839688e+00 4.082176e+00 4.176607e+00 5.057071e+00 4.856519e+00 5.482175e+00 3.095553e+00 3.655866e+00 4.540845e+00 2.307498e+00 5.296907e+00
<GCONST> 1.110161e+02
<TRANSP> 5
 0.000000e+00 1.000000e+00 0.000000e+00 0.000000e+00 0.000000e+00
 0.000000e+00 5.777927e-01 4.222073e-01 0.000000e+00 0.000000e+00
 0.000000e+00 0.000000e+00 8.250331e-01 1.749668e-01 0.000000e+00
 0.000000e+00 0.000000e+00 0.000000e+00 7.092633e-01 2.907367e-01
 0.000000e+00 0.000000e+00 0.000000e+00 0.000000e+00 0.000000e+00
<ENDHMM>
~h "K"
<BEGINHMM>
<NUMSTATES> 5
<STATE> 2
<MEAN> 25
 -1.684587e-08 -6.193333e-08 -4.487690e-08 3.351832e-08 -6.047171e-08 2.058664e-08 -6.607048e-08 -2.205446e-08 -8.534414e-09 2.910867e-08 3.022347e-08 -1.071447e-09 -2.678578e-03 2.715191e-03 1.970940e-04 1.666228e-04 1.831201e-03 -7.320007e-04 3.372927e-03 1.125320e-03 -7.564414e-05 2.413395e-03 8.106225e-04 -2.148533e-03 -1.727290e-03
<VARIANCE> 25
 4.499385e+01 7.342516e+01 3.566479e+01 5.718780e+01 5.546888e+01 4.305736e+01 6.020990e+01 4.209700e+01 2.990068e+01 4.475465e+01 3.376802e+01 1.839641e+01 1.592596e+00 2.317776e+00 1.700131e+00 2.390033e+00 2.486403e+00 2.357601e+00 2.972100e+00 2.655601e+00 2.270027e+00 2.542916e+00 2.264997e+00 1.647762e+00 2.549860e+00
<GCONST> 1.014657e+02
<STATE> 3
<MEAN> 25
 -1.684587e-08 -6.193333e-08 -4.487690e-08 3.351832e-08 -6.047171e-08 2.058664e-08 -6.607048e-08 -2.205446e-08 -8.534414e-09 2.910867e-08 3.022347e-08 -1.071447e-09 -2.678578e-03 2.715191e-03 1.970940e-04 1.666228e-04 1.831201e-03 -7.320007e-04 3.372927e-03 1.125320e-03 -7.564414e-05 2.413395e-03 8.106225e-04 -2.148533e-03 -1.727290e-03
<VARIANCE> 25
 4.499385e+01 7.342516e+01 3.566479e+01 5.718780e+01 5.546888e+01 4.305736e+01 6.020990e+01 4.209700e+01 2.990068e+01 4.475465e+01 3.376802e+01 1.839641e+01 1.592596e+00 2.317776e+00 1.700131e+00 2.390033e+00 2.486403e+00 2.357601e+00 2.972100e+00 2.655601e+00 2.270027e+00 2.542916e+00 2.264997e+00 1.647762e+00 2.549860e+00
<GCONST> 1.014657e+02
<STATE> 4
<MEAN> 25
 -1.684587e-08 -6.193333e-08 -4.487690e-08 3.351832e-08 -6.047171e-08 2.058664e-08 -6.607048e-08 -2.205446e-08 -8.534414e-09 2.910867e-08 3.022347e-08 -1.071447e-09 -2.678578e-03 2.715191e-03 1.970940e-04 1.666228e-04 1.831201e-03 -7.320007e-04 3.372927e-03 1.125320e-03 -7.564414e-05 2.413395e-03 8.106225e-04 -2.148533e-03 -1.727290e-03
<VARIANCE> 25
 4.499385e+01 7.342516e+01 3.566479e+01 5.718780e+01 5.546888e+01 4.305736e+01 6.020990e+01 4.209700e+01 2.990068e+01 4.475465e+01 3.376802e+01 1.839641e+01 1.592596e+00 2.317776e+00 1.700131e+00 2.390033e+00 2.486403e+00 2.357601e+00 2.972100e+00 2.655601e+00 2.270027e+00 2.542916e+00 2.264997e+00 1.647762e+00 2.549860e+00
<GCONST> 1.014657e+02
<TRANSP> 5
 0.000000e+00 1.000000e+00 0.000000e+00 0.000000e+00 0.000000e+00
 0.000000e+00 6.000000e-01 4.000000e-01 0.000000e+00 0.000000e+00
 0.000000e+00 0.000000e+00 6.000000e-01 4.000000e-01 0.000000e+00
 0.000000e+00 0.000000e+00 0.000000e+00 7.000000e-01 3.000000e-01
 0.000000e+00 0.000000e+00 0.000000e+00 0.000000e+00 0.000000e+00
<ENDHMM>
~h "a"
<BEGINHMM>
<NUMSTATES> 5
<STATE> 2
<MEAN> 25
 5.463616e+00 -7.705112e+00 -1.590546e+00 -3.059977e+00 -1.465742e+00 -4.653081e+00 -5.343578e+00 -3.378125e+00 -3.258378e+00 -8.736346e+00 -5.670194e+00 3.776768e-01 -2.198331e-01 4.694183e-01 -3.006238e-02 5.323433e-01 5.395042e-02 1.752502e-01 5.906485e-02 1.590592e-02 -3.340282e-04 1.325692e-02 1.813968e-01 6.349014e-02 -7.998282e-01
<VARIANCE> 25
 1.764530e+01 5.331939e+01 2.641786e+01 3.499071e+01 4.613146e+01 3.525251e+01 5.853558e+01 3.578497e+01 3.079592e+01 3.931327e+01 3.225978e+01 2.583113e+01 2.038406e+00 3.592274e+00 1.867788e+00 1.970706e+00 3.494497e+00 2.928750e+00 3.914122e+00 3.431333e+00 2.983680e+00 3.458238e+00 2.758606e+00 2.102923e+00 3.532842e+00
<GCONST> 1.020598e+02
<STATE> 3
<MEAN> 25
 -2.231410e+00 -4.158637e+00 -6.474462e-01 1.267492e+00 1.940891e+00 1.124332e+00 3.127940e-02 2.861735e+00 1.504197e+00 -3.142095e+00 1.208329e+00 2.068913e+00 -4.463390e-01 7.430926e-01 2.831842e-01 5.072372e-01 3.475002e-01 4.047580e-01 5.295821e-01 5.248021e-01 4.218842e-01 8.837153e-01 6.969587e-01 -1.215337e-01 -1.118287e+00
<VARIANCE> 25
 2.210389e+01 3.581411e+01 2.544729e+01 2.033450e+01 3.802912e+01 3.003023e+01 3.431027e+01 3.770834e+01 3.192056e+01 4.409531e+01 3.866257e+01 2.257306e+01 1.377993e+00 1.821787e+00 1.493259e+00 1.483896e+00 2.319903e+00 2.458797e+00 3.054804e+00 3.247317e+00 3.095828e+00 3.566978e+00 3.578752e+00 2.233232e+00 1.925429e+00
<GCONST> 9.798428e+01
<STATE> 4
<MEAN> 25
 -1.676135e+00 8.402767e-01 -1.416232e-01 3.513903e+00 2.983263e+00 2.865610e+00 2.841627e+00 2.068579e+00 1.057133e+00 1.921507e+00 1.926445e+00 6.429474e-02 -5.444675e-02 1.265082e-01 6.900557e-02 5.238755e-02 3.716356e-02 2.206017e-02 6.944946e-02 -7.270759e-02 -3.134711e-02 1.383183e-01 2.575030e-03 -5.081081e-02 -1.111703e-01
<VARIANCE> 25
 5.945515e+00 1.285248e+01 9.224398e+00 1.123635e+01 1.447257e+01 1.750729e+01 1.692609e+01 1.705728e+01 1.568665e+01 1.960368e+01 1.672794e+01 1.253794e+01 1.936549e-01 4.279301e-01 5.043434e-01 6.795158e-01 9.277040e-01 1.043835e+00 1.299843e+00 1.290136e+00 1.320870e+00 1.541596e+00 1.409979e+00 1.175236e+00 1.643497e-01
<GCONST> 7.353267e+01
<TRANSP> 5
 0.000000e+00 1.000000e+00 0.000000e+00 0.000000e+00 0.000000e+00
 0.000000e+00 8.122216e-01 1.877784e-01 0.000000e+00 0.000000e+00
 0.000000e+00 0.000000e+00 7.330989e-01 2.669011e-01 0.000000e+00
 0.000000e+00 0.000000e+00 0.000000e+00 9.061278e-01 9.387225e-02
 0.000000e+00 0.000000e+00 0.000000e+00 0.000000e+00 0.000000e+00
<ENDHMM>
~h "b"
<BEGINHMM>
<NUMSTATES> 5
<STATE> 2
<MEAN> 25
 4.173622e+00 2.549063e-01 -4.388322e-01 -2.665434e-01 -3.751323e+00 -3.347999e+00 -6.153847e+00 -4.583652e+00 -2.312854e+00 -1.589292e+00 -2.934576e+00 -4.325656e-01 2.655927e+00 -2.293677e-01 -2.654214e-01 -2.697469e+00 -2.320417e+00 -1.718851e+00 -2.726570e+00 -1.239508e+00 -1.218872e+00 -1.918194e+00 -1.809832e+00 5.198243e-02 3.295982e+00
<VARIANCE> 25
 5.055058e+01 6.259667e+01 3.752296e+01 6.424467e+01 5.773206e+01 4.606298e+01 6.531215e+01 4.410599e+01 5.158332e+01 4.113505e+01 3.805185e+01 2.061404e+01 4.549629e+00 8.535243e+00 4.560057e+00 7.351651e+00 4.424489e+00 4.391771e+00 4.450031e+00 4.417545e+00 5.684486e+00 4.063026e+00 3.842738e+00 2.547521e+00 8.404819e+00
<GCONST> 1.126375e+02
<STATE> 3
<MEAN> 25
 8.489386e+00 7.024832e+00 9.036505e-01 -7.129034e+00 -8.751107e+00 -7.511554e+00 -1.168040e+01 -5.746727e+00 -7.006403e+00 -5.646828e+00 -6.811303e+00 -4.091267e-01 1.409345e-01 -1.454917e-01 -4.899151e-02 -8.414534e-01 -1.306504e-01 7.563133e-02 1.183049e-01 4.058062e-01 1.169662e-01 -6.009739e-02 -1.694385e-01 3.428234e-01 6.207567e-01
<VARIANCE> 25
 2.665120e+01 3.903372e+01 5.726286e+01 5.727393e+01 2.076349e+01 1.730193e+01 2.516434e+01 2.837243e+01 3.378229e+01 2.245829e+01 2.206002e+01 2.896854e+01 9.195294e-01 2.273429e+00 1.803889e+00 3.602832e+00 1.503044e+00 1.251934e+00 1.399512e+00 3.058115e+00 1.921069e+00 1.867210e+00 1.445228e+00 2.181940e+00 2.551761e+00
<GCONST> 9.459386e+01
<STATE> 4
<MEAN> 25
 1.224041e+01 -8.997321e+00 -1.078441e+00 -1.296422e+01 -6.603463e+00 -4.591195e+00 -6.977486e+00 -2.495276e+00 -2.746262e+00 -8.190131e+00 -6.344299e+00 1.818221e+00 -3.462290e-01 -5.989730e-01 2.681225e-03 1.994153e-01 4.971061e-02 1.500850e-01 5.658130e-01 4.796441e-01 1.752398e-01 -3.596718e-01 6.970449e-02 2.735431e-01 3.663431e-02
<VARIANCE> 25
 3.592310e+01 1.220493e+02 5.122835e+01 5.362776e+01 4.045021e+01 3.206211e+01 3.543589e+01 6.344007e+01 3.739529e+01 4.223786e+01 3.491011e+01 2.005368e+01 8.484391e-01 4.732885e+00 1.771833e+00 4.410511e+00 3.126482e+00 2.597491e+00 2.992085e+00 4.955900e+00 4.105588e+00 4.351615e+00 2.769860e+00 2.840669e+00 4.714747e+00
<GCONST> 1.057863e+02
<TRANSP> 5
 0.000000e+00 1.000000e+00 0.000000e+00 0.000000e+00 0.000000e+00
 0.000000e+00 6.421191e-01 3.578809e-01 0.000000e+00 0.000000e+00
 0.000000e+00 0.000000e+00 7.671475e-01 2.328525e-01 0.000000e+00
 0.000000e+00 0.000000e+00 0.000000e+00 8.519957e-01 1.480043e-01
 0.000000e+00 0.000000e+00 0.000000e+00 0.000000e+00 0.000000e+00
<ENDHMM>
~h "c"
<BEGINHMM>
<NUMSTATES> 5
<STATE> 2
<MEAN> 25
 -1.160103e+00 9.905783e-01 -3.873341e-01 2.376584e+00 3.059078e+00 3.866146e+00 3.734630e+00 1.278194e+00 -2.398479e-01 2.662789e+00 1.661453e+00 -5.191988e-01 -3.819606e-02 8.080682e-03 1.198589e-02 2.805452e-02 5.947066e-02 5.193871e-02 6.386558e-02 4.179701e-02 3.528510e-02 2.838249e-02 -1.541205e-02 1.144521e-02 -1.245737e-02
<VARIANCE> 25
 2.075157e+00 2.672705e+00 4.588688e+00 5.263598e+00 8.020886e+00 9.363566e+00 1.218558e+01 1.222189e+01 1.102225e+01 1.245266e+01 1.204769e+01 1.228323e+01 1.226203e-01 2.025233e-01 3.459416e-01 5.107242e-01 6.892129e-01 9.485878e-01 1.147806e+00 1.101002e+00 1.008317e+00 1.195717e+00 1.229300e+00 1.301110e+00 3.484911e-02
<GCONST> 6.176585e+01
<STATE> 3
<MEAN> 25
 -1.745145e+00 1.596035e+00 -6.345261e-01 3.251422e+00 4.380841e+00 3.173285e+00 4.959776e+00 7.779799e-01 2.449170e-01 3.057630e+00 1.925984e+00 -5.018136e-01 -7.953348e-01 1.282660e-01 -5.835630e-02 -2.837573e-01 -5.152998e-01 -1.730745e+00 -5.414292e-01 -1.741532e-01 9.522790e-01 -8.562516e-04 -3.386363e-02 1.029675e+00 1.382559e+00
<VARIANCE> 25
 8.608754e-01 2.380645e+00 4.405217e+00 6.842981e+00 8.475008e+00 1.659981e+01 1.304070e+01 1.091410e+01 3.488377e+00 5.055209e+00 3.628478e+00 1.745608e+01 1.228285e+00 1.989198e-01 6.112779e-01 1.187880e+00 1.210839e+00 1.944574e+00 1.674586e+00 2.058884e+00 1.360455e+00 2.271601e+00 8.072690e-01 8.822051e-01 2.420156e+00
<GCONST> 6.903104e+01
<STATE> 4
<MEAN> 25
 -6.697374e+00 3.200481e+00 -1.945017e-01 -2.773346e+00 1.767483e+00 -2.029569e+00 3.409209e+00 1.778253e+00 5.434174e+00 4.429013e+00 2.261584e+00 1.988477e+00 -3.780281e-01 6.874682e-01 1.469316e+00 -2.693708e+00 -2.706232e+00 -2.060235e+00 -2.189310e+00 -1.091324e+00 -1.161407e-01 -1.335403e+00 -5.572720e-01 -4.070261e-03 4.155212e+00
<VARIANCE> 25
 2.823013e+01 9.742418e+00 1.752377e+01 3.996582e+01 1.525097e+01 3.278579e+01 2.315588e+01 1.736667e+01 1.471475e+01 2.794884e+01 1.321564e+01 6.558807e+00 5.214436e+00 3.464507e+00 4.415333e+00 1.614345e+00 2.774031e+00 3.065445e+00 7.723547e+00 4.472230e+00 3.341078e+00 4.266425e+00 3.554396e+00 9.878473e-01 2.247882e+00
<GCONST> 9.607194e+01
<TRANSP> 5
 0.000000e+00 1.000000e+00 0.000000e+00 0.000000e+00 0.000000e+00
 0.000000e+00 9.668552e-01 3.314481e-02 0.000000e+00 0.000000e+00
 0.000000e+00 0.000000e+00 4.348182e-01 5.651817e-01 0.000000e+00
 0.000000e+00 0.000000e+00 0.000000e+00 6.836830e-01 3.163171e-01
 0.000000e+00 0.000000e+00 0.000000e+00 0.000000e+00 0.000000e+00
<ENDHMM>
~h "d"
<BEGINHMM>
<NUMSTATES> 5
<STATE> 2
<MEAN> 25
 -2.150703e+00 3.514648e+00 -1.983625e+00 3.658648e+00 3.292480e+00 1.549935e+00 3.135141e+00 8.957854e-01 1.531256e-01 2.737844e+00 1.050675e+00 -5.851117e-01 -5.373471e-02 1.067747e-01 1.122672e-02 6.103179e-03 6.259310e-02 1.896853e-02 4.706955e-02 2.235449e-02 -9.811589e-02 6.357196e-02 8.354023e-04 -2.023622e-02 -7.567298e-02
<VARIANCE> 25
 5.095574e+00 2.031074e+01 8.723660e+00 7.492425e+00 1.618995e+01 2.238004e+01 1.408679e+01 1.409762e+01 1.362692e+01 1.380032e+01 1.302210e+01 1.225888e+01 9.915770e-02 3.049720e-01 3.510644e-01 4.858161e-01 7.011959e-01 9.297585e-01 1.089682e+00 1.112840e+00 1.194756e+00 1.049473e+00 1.169066e+00 1.062007e+00 7.425139e-02
<GCONST> 6.859983e+01
<STATE> 3
<MEAN> 25
 -3.612421e-01 6.632330e+00 2.346339e+00 2.374195e+00 2.828733e-01 -1.136457e+00 -1.877802e+00 -4.761217e-01 -1.530409e+00 1.292569e+00 1.234947e+00 -1.983994e-01 1.218382e-01 -1.134398e+00 9.928382e-01 -9.752797e-01 -1.430269e+00 2.357960e-01 -1.508550e+00 1.930071e-01 -4.855895e-01 -7.161676e-01 2.952405e-01 -2.739851e-01 2.161680e+00
<VARIANCE> 25
 2.418176e+01 4.400090e+01 2.348407e+01 1.500841e+01 4.040379e+01 5.761114e+01 6.779665e+01 3.368888e+01 2.172084e+01 1.668339e+01 1.510037e+01 1.400375e+01 1.130794e+00 3.000012e+00 2.236351e+00 3.401371e+00 3.860956e+00 4.810438e+00 3.092737e+00 3.672429e+00 2.637669e+00 2.652279e+00 2.194850e+00 1.637328e+00 3.434508e+00
<GCONST> 9.857526e+01
<STATE> 4
<MEAN> 25
 3.371948e+00 -3.916770e-01 1.830898e+00 -4.281284e+00 -8.782321e+00 -5.493931e+00 -2.168633e+00 -1.670155e-01 -2.802884e+00 -4.517563e+00 -2.455119e+00 -7.353606e-01 3.503311e-01 -8.662111e-01 -1.979476e-01 -7.463796e-01 -6.239309e-01 -4.779650e-01 4.121888e-01 1.781236e-02 -1.288422e-01 -6.187825e-01 -7.831921e-01 3.479300e-01 1.497329e+00
<VARIANCE> 25
 1.765654e+01 3.484567e+01 2.699951e+01 3.901956e+01 6.028479e+01 4.178835e+01 4.471462e+01 3.644896e+01 3.265720e+01 4.235300e+01 4.247593e+01 2.381422e+01 1.881178e+00 3.469596e+00 3.378024e+00 3.706499e+00 8.531020e+00 4.485341e+00 5.698279e+00 4.582450e+00 3.147752e+00 5.112188e+00 4.424366e+00 2.271366e+00 7.010844e+00
<GCONST> 1.070516e+02
<TRANSP> 5
 0.000000e+00 1.000000e+00 0.000000e+00 0.000000e+00 0.000000e+00
 0.000000e+00 9.160445e-01 8.395550e-02 0.000000e+00 0.000000e+00
 0.000000e+00 0.000000e+00 5.027417e-01 4.972583e-01 0.000000e+00
 0.000000e+00 0.000000e+00 0.000000e+00 8.287007e-01 1.712993e-01
 0.000000e+00 0.000000e+00 0.000000e+00 0.000000e+00 0.000000e+00
<ENDHMM>
~h "e"
<BEGINHMM>
<NUMSTATES> 5
<STATE> 2
<MEAN> 25
 3.814280e+00 -4.282308e+00 -2.212478e+00 -3.479468e+00 -1.852453e+00 -5.486117e+00 -5.078977e+00 -6.094726e-02 3.196914e+00 -2.119910e+00 -2.985296e+00 -4.771037e-01 2.648484e+00 -1.367489e+00 -2.636606e-02 -2.835918e+00 -7.990026e-01 -1.393213e+00 -2.053232e+00 -1.381604e+00 -1.520444e-01 -1.755501e+00 -1.376520e+00 -1.132235e-02 3.159663e+00
<VARIANCE> 25
 5.116125e+01 1.099234e+02 5.303512e+01 4.623449e+01 5.403213e+01 4.784283e+01 4.991367e+01 4.590355e+01 2.926717e+01 4.408335e+01 4.285822e+01 1.748952e+01 4.297006e+00 1.009660e+01 5.254253e+00 5.700274e+00 7.632473e+00 6.073877e+00 5.323747e+00 6.662198e+00 3.621173e+00 5.137894e+00 4.426181e+00 2.449030e+00 9.847541e+00
<GCONST> 1.139313e+02
<STATE> 3
<MEAN> 25
 9.294295e+00 -7.861965e+00 -2.189264e+00 -1.008806e+01 -3.360627e+00 -7.480083e+00 -7.535017e+00 -3.529223e+00 2.086640e+00 -5.678689e+00 -7.088955e+00 -8.466441e-01 8.261376e-01 -6.337953e-01 2.336425e-01 -1.663301e+00 2.505611e-01 8.044631e-02 -1.525673e-02 -1.075011e+00 -2.747221e-01 -8.215154e-01 -9.176731e-01 -2.900981e-01 1.252645e+00
<VARIANCE> 25
 2.195710e+01 9.172306e+01 5.451966e+01 4.133728e+01 5.377650e+01 3.508183e+01 4.359966e+01 3.667487e+01 3.718579e+01 3.980993e+01 3.950557e+01 3.166318e+01 2.685637e+00 3.828088e+00 3.821406e+00 4.471223e+00 6.212584e+00 3.735573e+00 4.850741e+00 3.295486e+00 3.844021e+00 5.043625e+00 4.301801e+00 3.378774e+00 4.697630e+00
<GCONST> 1.088994e+02
<STATE> 4
<MEAN> 25
 7.643462e+00 -1.053156e+01 -3.510700e+00 -9.388467e+00 -3.400833e-01 -2.469551e+00 -3.899022e+00 -1.817081e+00 1.603256e+00 -6.014228e+00 -6.889159e+00 -6.126720e-01 -6.047655e-01 6.985967e-01 1.049265e-01 1.005026e+00 6.391267e-02 7.488782e-01 5.289354e-01 3.904699e-01 -2.915587e-01 3.961669e-01 6.198193e-01 -1.076566e-01 -1.439542e+00
<VARIANCE> 25
 2.442899e+01 9.426424e+01 3.785434e+01 5.045415e+01 3.617740e+01 4.831879e+01 5.690462e+01 5.007494e+01 3.666215e+01 3.161673e+01 3.658270e+01 1.919215e+01 1.446886e+00 3.106020e+00 1.478796e+00 2.418855e+00 2.767209e+00 2.479418e+00 3.096087e+00 3.504807e+00 2.561363e+00 3.448960e+00 2.953336e+00 1.522148e+00 3.742159e+00
<GCONST> 1.023630e+02
<TRANSP> 5
 0.000000e+00 1.000000e+00 0.000000e+00 0.000000e+00 0.000000e+00
 0.000000e+00 3.508772e-01 6.491228e-01 0.000000e+00 0.000000e+00
 0.000000e+00 0.000000e+00 3.257506e-01 6.742494e-01 0.000000e+00
 0.000000e+00 0.000000e+00 0.000000e+00 8.331425e-01 1.668575e-01
 0.000000e+00 0.000000e+00 0.000000e+00 0.000000e+00 0.000000e+00
<ENDHMM>
~h "f"
<BEGINHMM>
<NUMSTATES> 5
<STATE> 2
<MEAN> 25
 -2.928110e+00 1.539403e+00 3.274707e-01 4.391866e+00 3.436064e+00 3.547401e+00 2.434277e+00 2.873078e+00 1.891236e+00 2.633874e+00 2.803407e+00 -9.760884e-02 -1.067618e-01 2.026035e-02 -4.169640e-02 3.016659e-02 -4.912307e-02 5.565771e-03 4.770640e-02 5.302667e-03 2.928360e-02 6.695538e-02 5.207217e-02 -6.939389e-03 8.125067e-02
<VARIANCE> 25
 5.818729e+00 7.530721e+00 1.299848e+01 9.869924e+00 1.215718e+01 1.386406e+01 1.499430e+01 1.501507e+01 1.480907e+01 1.540359e+01 1.611861e+01 1.156293e+01 1.899698e-01 3.259116e-01 5.231233e-01 6.260633e-01 8.585657e-01 9.039556e-01 1.233841e+00 1.262897e+00 1.344189e+00 1.370262e+00 1.388994e+00 1.108648e+00 2.180386e-01
<GCONST> 7.159413e+01
<STATE> 3
<MEAN> 25
 -4.344970e+00 5.167464e+00 -4.601294e+00 3.385313e+00 2.822545e+00 1.116684e+00 2.493905e+00 1.534761e+00 2.121306e+00 3.286035e+00 2.959442e+00 -4.122143e-01 5.638338e-01 -8.558696e-01 -1.307782e-01 -4.083774e-01 -3.611437e-01 -2.993317e-02 -2.179926e-01 -2.758313e-01 -1.180028e-01 -3.692613e-01 -3.596895e-01 -4.022942e-02 6.168385e-01
<VARIANCE> 25
 7.544149e+00 3.205678e+01 1.654742e+01 9.568817e+00 2.596887e+01 2.368370e+01 2.235882e+01 1.728442e+01 2.209329e+01 1.754237e+01 2.418831e+01 1.530003e+01 8.696007e-01 3.127712e+00 1.918126e+00 1.658667e+00 1.939692e+00 1.880844e+00 1.866583e+00 1.773634e+00 2.200380e+00 1.895061e+00 2.586125e+00 1.479647e+00 1.184730e+00
<GCONST> 8.834096e+01
<STATE> 4
<MEAN> 25
 1.657143e+00 -1.088651e+01 -1.120047e+00 -6.699872e-01 -4.060217e+00 2.866541e+00 -2.251621e+00 -1.581124e+00 4.874500e-01 -4.262165e+00 -7.916433e-01 1.448559e-01 1.407968e+00 -1.405095e+00 5.332231e-01 -1.410329e+00 -7.173667e-01 -3.888702e-01 -1.216707e+00 -1.158854e+00 -4.989148e-01 -6.375597e-01 -1.079272e+00 -1.198181e-01 1.823908e+00
<VARIANCE> 25
 3.370816e+01 8.852823e+01 4.040363e+01 4.281921e+01 4.542791e+01 3.046589e+01 3.447329e+01 3.101993e+01 1.783922e+01 4.262214e+01 2.726758e+01 1.568451e+01 4.112819e+00 9.574932e+00 3.957364e+00 4.950042e+00 4.524094e+00 4.371569e+00 3.742977e+00 4.371451e+00 2.678352e+00 3.895873e+00 5.176112e+00 2.067486e+00 6.906330e+00
<GCONST> 1.073793e+02
<TRANSP> 5
 0.000000e+00 1.000000e+00 0.000000e+00 0.000000e+00 0.000000e+00
 0.000000e+00 9.567060e-01 4.329390e-02 0.000000e+00 0.000000e+00
 0.000000e+00 0.000000e+00 7.647270e-01 2.352730e-01 0.000000e+00
 0.000000e+00 0.000000e+00 0.000000e+00 7.922823e-01 2.077177e-01
 0.000000e+00 0.000000e+00 0.000000e+00 0.000000e+00 0.000000e+00
<ENDHMM>
~h "g"
<BEGINHMM>
<NUMSTATES> 5
<STATE> 2
<MEAN> 25
 7.624350e+00 -8.716840e+00 2.565375e+00 -6.392395e+00 -4.305722e+00 -3.241245e+00 -6.699603e+00 -2.551947e+00 9.688315e-01 -3.142219e+00 -2.155772e+00 1.315511e+00 9.503382e-01 -9.392231e-01 5.943772e-02 -1.527314e+00 -1.273573e+00 -1.109405e+00 -6.343376e-01 -6.537747e-01 -2.682833e-01 -4.557720e-01 -7.540253e-01 3.550569e-01 2.139698e+00
<VARIANCE> 25
 7.146319e+01 1.437308e+02 3.368807e+01 1.040170e+02 1.019477e+02 5.404344e+01 8.119669e+01 7.400510e+01 3.797869e+01 4.964067e+01 3.063445e+01 2.968538e+01 2.912367e+00 9.753407e+00 3.149745e+00 8.066545e+00 6.642654e+00 4.826447e+00 5.831063e+00 6.777267e+00 4.091513e+00 4.286163e+00 3.926411e+00 3.181218e+00 8.795694e+00
<GCONST> 1.163052e+02
<STATE> 3
<MEAN> 25
 8.058137e+00 -5.748432e+00 -1.393433e+00 -1.159667e+01 -7.166926e+00 -9.620986e+00 -2.077249e+00 -4.428877e+00 -1.545689e+00 -6.267610e+00 -9.699556e+00 6.868932e-01 -5.934292e-02 6.091171e-01 2.063965e-02 4.959598e-01 -2.261542e-01 1.137983e-01 6.897878e-02 -1.204918e-01 -5.468181e-01 -3.862720e-01 1.611461e-01 -2.741480e-01 -8.205770e-01
<VARIANCE> 25
 1.075362e+01 5.404612e+01 2.581880e+01 2.131846e+01 8.258663e+01 2.729691e+01 8.506542e+01 1.971248e+01 1.781625e+01 2.838195e+01 2.814367e+01 1.378953e+01 6.993076e-01 2.222779e+00 1.013263e+00 2.301768e+00 2.135889e+00 1.900488e+00 2.865237e+00 1.672381e+00 1.727288e+00 1.598892e+00 1.772478e+00 1.169916e+00 1.778711e+00
<GCONST> 9.253199e+01
<STATE> 4
<MEAN> 25
 -1.146004e+00 -7.471438e+00 -5.806497e-01 3.073847e-04 -7.174428e+00 3.086817e+00 -9.284747e-01 -9.686624e-01 5.294676e-01 -1.031380e+00 2.011645e+00 -1.066778e+00 -9.483540e-01 4.201459e-02 -6.246237e-01 7.069267e-01 6.358505e-01 9.711251e-01 6.820884e-01 5.163394e-01 3.846532e-01 6.872233e-01 5.615727e-01 4.953434e-02 -6.568015e-01
<VARIANCE> 25
 4.556350e+01 1.615642e+02 5.435894e+01 3.275157e+01 4.410418e+01 4.131335e+01 4.111857e+01 3.639198e+01 3.211872e+01 4.068439e+01 3.383509e+01 2.028653e+01 3.259193e+00 3.012117e+00 2.842907e+00 2.537911e+00 2.173754e+00 4.704901e+00 2.584887e+00 3.075096e+00 3.569012e+00 3.523591e+00 3.416566e+00 2.259522e+00 1.627546e+00
<GCONST> 1.045818e+02
<TRANSP> 5
 0.000000e+00 1.000000e+00 0.000000e+00 0.000000e+00 0.000000e+00
 0.000000e+00 8.668615e-01 1.331386e-01 0.000000e+00 0.000000e+00
 0.000000e+00 0.000000e+00 8.311610e-01 1.688390e-01 0.000000e+00
 0.000000e+00 0.000000e+00 0.000000e+00 8.488078e-01 1.511922e-01
 0.000000e+00 0.000000e+00 0.000000e+00 0.000000e+00 0.000000e+00
<ENDHMM>
~h "h"
<BEGINHMM>
<NUMSTATES> 5
<STATE> 2
<MEAN> 25
 -2.823809e+00 7.739514e-01 1.483684e+00 5.155890e+00 3.357508e+00 3.623145e+00 3.750647e+00 3.048838e+00 1.870580e+00 3.190868e+00 2.633330e+00 1.781383e-01 -1.615952e-02 1.059132e-02 -2.270865e-03 3.735520e-02 5.388826e-02 5.096065e-02 3.385201e-02 -1.068998e-02 1.567305e-02 3.780076e-02 -8.948949e-03 -1.036890e-02 -1.837387e-02
<VARIANCE> 25
 3.108135e+00 4.516285e+00 9.170400e+00 1.212275e+01 1.057767e+01 1.128315e+01 1.347631e+01 1.268035e+01 1.418914e+01 1.517860e+01 1.242933e+01 1.093071e+01 1.087135e-01 2.177365e-01 4.025714e-01 5.634199e-01 7.942636e-01 8.575099e-01 1.123696e+00 1.130044e+00 1.216247e+00 1.309002e+00 1.114242e+00 9.374829e-01 4.457977e-02
<GCONST> 6.553262e+01
<STATE> 3
<MEAN> 25
 -2.220970e+00 -2.629019e+00 -1.526347e+00 -3.582574e+00 5.951910e+00 7.589265e+00 2.618043e+00 2.597444e+00 1.352513e+00 1.161256e+00 6.222427e-01 4.952564e-01 1.092851e-01 -3.046626e-01 -2.800886e-01 -1.123274e+00 -8.550899e-02 2.060374e-02 -4.811856e-01 -3.195353e-01 -1.815113e-01 -6.870575e-02 -1.244314e-01 1.440734e-01 7.164970e-01
<VARIANCE> 25
 9.060127e+00 2.215393e+01 2.131054e+01 5.047794e+01 1.961542e+01 2.274770e+01 2.879774e+01 1.648176e+01 2.332894e+01 2.000229e+01 2.024536e+01 2.222693e+01 5.845648e-01 7.838913e-01 1.302289e+00 1.626543e+00 1.553407e+00 1.342463e+00 1.464910e+00 1.428403e+00 1.428208e+00 1.595604e+00 1.717090e+00 1.875223e+00 4.985410e-01
<GCONST> 8.548816e+01
<STATE> 4
<MEAN> 25
 2.055766e+00 -3.884881e+00 -3.326029e+00 -6.501915e+00 3.717418e+00 4.640739e-01 -4.199777e+00 -4.989963e+00 -9.140080e-01 -2.108070e+00 -2.291097e+00 -8.763158e-01 1.313414e+00 3.849004e-01 -3.951256e-01 -7.351675e-01 -7.473986e-01 -1.110777e+00 -1.019120e+00 -1.133711e+00 -8.866703e-01 -8.882141e-01 -1.044846e+00 -4.788444e-01 7.414351e-01
<VARIANCE> 25
 3.832697e+01 4.847626e+01 2.000707e+01 5.704236e+01 4.483715e+01 4.782052e+01 4.516081e+01 5.162360e+01 4.040246e+01 4.218718e+01 3.513136e+01 2.494256e+01 2.789312e+00 2.075059e+00 1.205361e+00 1.606947e+00 1.704537e+00 3.591326e+00 4.231159e+00 4.285324e+00 3.497939e+00 2.979561e+00 2.773963e+00 2.469700e+00 1.682763e+00
<GCONST> 1.020706e+02
<TRANSP> 5
 0.000000e+00 1.000000e+00 0.000000e+00 0.000000e+00 0.000000e+00
 0.000000e+00 9.482087e-01 5.179127e-02 0.000000e+00 0.000000e+00
 0.000000e+00 0.000000e+00 8.274182e-01 1.725818e-01 0.000000e+00
 0.000000e+00 0.000000e+00 0.000000e+00 6.816439e-01 3.183561e-01
 0.000000e+00 0.000000e+00 0.000000e+00 0.000000e+00 0.000000e+00
<ENDHMM>
~h "i"
<BEGINHMM>
<NUMSTATES> 5
<STATE> 2
<MEAN> 25
 4.180965e+00 1.457268e+00 1.416148e+01 -1.279103e+01 -1.514737e+01 -2.770275e+00 -1.313302e+01 -9.293139e+00 -4.864409e-02 -1.681014e+00 -4.952416e+00 2.088982e+00 2.041410e-01 3.600933e-01 4.177026e-01 -5.895406e-01 -6.991659e-01 1.088624e-01 -7.046257e-01 -4.242109e-01 1.912666e-02 -3.483633e-02 -3.534322e-01 1.452648e-01 2.198667e-01
<VARIANCE> 25
 2.689817e+01 1.232439e+02 4.021687e+01 4.481617e+01 4.416842e+01 2.235624e+01 5.682765e+01 3.753108e+01 2.147010e+01 3.438878e+01 2.175488e+01 2.313456e+01 2.165104e+00 3.614474e+00 4.311075e+00 5.697424e+00 5.156274e+00 3.427909e+00 5.989998e+00 4.189490e+00 2.191789e+00 3.619497e+00 2.763380e+00 2.754017e+00 3.841420e+00
<GCONST> 1.057357e+02
<STATE> 3
<MEAN> 25
 1.338113e+00 1.241930e+00 6.952603e+00 -3.734661e+00 -1.167429e+01 -6.439368e-01 -6.846368e+00 -5.943864e+00 -7.736556e-01 -1.602617e+00 -1.227313e+00 1.024194e+00 -7.565115e-01 -5.115432e-01 -1.900671e+00 2.487606e+00 2.053921e+00 3.567252e-01 2.298678e+00 1.598552e+00 4.118831e-02 3.328173e-01 1.186796e+00 -3.094376e-01 -1.855663e+00
<VARIANCE> 25
 2.684997e+01 7.611719e+01 3.835690e+01 4.645515e+01 5.484851e+01 4.413459e+01 6.415936e+01 4.145878e+01 4.003829e+01 4.278692e+01 4.162679e+01 3.446394e+01 2.232798e+00 6.174980e+00 3.333466e+00 3.048661e+00 3.496557e+00 4.394788e+00 4.689576e+00 3.613645e+00 4.209087e+00 5.025691e+00 3.047565e+00 2.931748e+00 3.847919e+00
<GCONST> 1.085415e+02
<STATE> 4
<MEAN> 25
 -2.512262e+00 1.833109e+00 1.445684e+00 4.316489e+00 7.358186e-01 2.423943e+00 2.172953e+00 1.484400e+00 1.356967e+00 2.315899e+00 2.665639e+00 4.011174e-01 -7.991476e-02 -1.233962e-02 -1.788715e-01 3.098001e-01 5.636104e-01 -4.878783e-03 3.396776e-01 2.876679e-01 -7.835267e-02 3.628505e-02 -1.294607e-02 -1.384054e-01 -2.324132e-01
<VARIANCE> 25
 1.040844e+01 2.507908e+01 1.748319e+01 1.676393e+01 3.393307e+01 2.786522e+01 2.293548e+01 2.121653e+01 2.276234e+01 1.913278e+01 2.209219e+01 1.629212e+01 3.311021e-01 8.290135e-01 1.085087e+00 1.041504e+00 1.802278e+00 1.836808e+00 1.843320e+00 1.751248e+00 1.949916e+00 1.681659e+00 1.824824e+00 1.462313e+00 4.057378e-01
<GCONST> 8.465916e+01
<TRANSP> 5
 0.000000e+00 1.000000e+00 0.000000e+00 0.000000e+00 0.000000e+00
 0.000000e+00 8.433017e-01 1.566984e-01 0.000000e+00 0.000000e+00
 0.000000e+00 0.000000e+00 7.513554e-01 2.486446e-01 0.000000e+00
 0.000000e+00 0.000000e+00 0.000000e+00 8.487430e-01 1.512571e-01
 0.000000e+00 0.000000e+00 0.000000e+00 0.000000e+00 0.000000e+00
<ENDHMM>
~h "j"
<BEGINHMM>
<NUMSTATES> 5
<STATE> 2
<MEAN> 25
 -2.192193e+00 1.391439e+00 1.500208e-02 3.340339e+00 3.629581e+00 3.267454e+00 3.670740e+00 1.652120e+00 8.526503e-01 3.391163e+00 3.304061e+00 -3.593192e-01 9.347343e-05 3.605003e-02 -6.983047e-03 -3.630462e-03 -1.947660e-03 6.324396e-03 7.872400e-02 -6.549753e-02 -5.542327e-02 -8.386102e-03 -5.831091e-02 -5.833296e-03 -1.135172e-02
<VARIANCE> 25
 1.840377e+00 2.511347e+00 6.754045e+00 9.077588e+00 6.431233e+00 8.274856e+00 1.551016e+01 1.498583e+01 1.376095e+01 1.295850e+01 1.427794e+01 1.060142e+01 9.707285e-02 1.854550e-01 4.624274e-01 5.225365e-01 7.325320e-01 8.555397e-01 1.381495e+00 1.622117e+00 1.361192e+00 9.866821e-01 1.497047e+00 1.076620e+00 5.348184e-02
<GCONST> 6.396588e+01
<STATE> 3
<MEAN> 25
 -1.294852e+00 5.375830e+00 3.318914e+00 -3.052825e+00 -4.494098e+00 -4.879176e+00 -8.001106e-01 -2.636214e+00 -1.742810e+00 2.600714e+00 8.829981e-01 -7.825279e-01 6.262247e-03 2.254941e-01 7.245994e-01 -1.212409e+00 -1.708736e+00 -1.173794e+00 -4.074818e-01 -5.308635e-01 -2.163308e-01 -1.781726e-01 -3.150355e-01 -3.136274e-01 1.703743e+00
<VARIANCE> 25
 4.619661e+01 1.753771e+01 2.151272e+01 3.680129e+01 8.206032e+01 4.067879e+01 4.442506e+01 2.422719e+01 4.582642e+01 2.392221e+01 1.744490e+01 1.438949e+01 6.266182e+00 1.748262e+00 2.338200e+00 3.215691e+00 9.491963e+00 2.939359e+00 3.683766e+00 2.907900e+00 4.367140e+00 2.377529e+00 1.738759e+00 1.456722e+00 5.240138e+00
<GCONST> 1.019751e+02
<STATE> 4
<MEAN> 25
 3.217330e+00 8.153956e-02 3.402671e+00 -7.971167e+00 -1.275365e+01 -9.421229e+00 -1.918203e-01 -1.711063e+00 -4.050302e+00 -3.740825e+00 -8.478063e+00 -1.219567e+00 5.203238e-01 -6.731981e-01 -9.436448e-01 5.437621e-01 1.072707e+00 -9.145275e-02 2.928347e-02 4.444878e-01 1.432972e-02 -1.476359e+00 -1.153714e+00 6.403495e-01 -1.509406e-01
<VARIANCE> 25
 1.698038e+01 1.809892e+01 1.225847e+01 2.495059e+01 4.208866e+01 1.772654e+01 2.344114e+01 1.258138e+01 1.721835e+01 2.502148e+01 2.572486e+01 1.252442e+01 6.558915e-01 1.835138e+00 1.762117e+00 5.263203e-01 2.408813e+00 3.008178e+00 2.478014e+00 2.606341e+00 2.193420e+00 2.202926e+00 2.300424e+00 1.393946e+00 5.297644e-01
<GCONST> 8.760140e+01
<TRANSP> 5
 0.000000e+00 1.000000e+00 0.000000e+00 0.000000e+00 0.000000e+00
 0.000000e+00 9.730076e-01 2.699235e-02 0.000000e+00 0.000000e+00
 0.000000e+00 0.000000e+00 9.032136e-01 9.678642e-02 0.000000e+00
 0.000000e+00 0.000000e+00 0.000000e+00 8.226554e-01 1.773445e-01
 0.000000e+00 0.000000e+00 0.000000e+00 0.000000e+00 0.000000e+00
<ENDHMM>
~h "k"
<BEGINHMM>
<NUMSTATES> 5
<STATE> 2
<MEAN> 25
 -1.809365e+00 1.780185e+00 -5.237596e-01 3.174947e+00 2.574616e+00 2.320178e+00 3.167658e+00 2.566947e+00 2.102428e+00 3.707617e+00 1.095265e+00 -3.205397e-01 -5.981923e-02 -7.847731e-01 -1.028225e+00 -5.384564e-01 4.591187e-01 -1.392229e-01 -3.368161e-01 3.735566e-01 1.950281e-01 4.561878e-01 -2.135577e-01 2.804160e-01 1.250491e+00
<VARIANCE> 25
 8.979390e+00 1.253357e+01 1.763522e+01 2.067865e+01 2.183490e+01 2.209499e+01 1.809737e+01 2.206645e+01 1.842975e+01 1.842425e+01 1.750983e+01 1.415202e+01 1.192943e+00 2.844717e+00 4.867929e+00 4.214535e+00 2.539429e+00 4.036679e+00 3.011553e+00 2.484861e+00 3.205538e+00 2.883073e+00 2.998291e+00 1.535113e+00 4.797774e+00
<GCONST> 9.397987e+01
<STATE> 3
<MEAN> 25
 -7.391888e-01 -3.811684e+00 -7.598639e+00 -2.411410e+00 3.705621e+00 8.206496e-01 -3.095706e-01 2.617689e+00 1.255658e+00 4.353961e+00 -2.386862e+00 1.107831e+00 1.571898e+00 -1.683909e+00 -1.026921e+00 -2.658439e+00 -5.284231e-01 -6.269000e-01 -1.846708e+00 -1.215641e+00 -6.917138e-01 -8.646208e-01 -1.633708e+00 1.076935e-01 3.302315e+00
<VARIANCE> 25
 2.859881e+01 7.248122e+01 5.985509e+01 6.161843e+01 5.417440e+01 7.313731e+01 4.889608e+01 3.343707e+01 4.572517e+01 4.714668e+01 2.681959e+01 2.143189e+01 3.565999e+00 7.964432e+00 6.117941e+00 5.244509e+00 4.880506e+00 7.334414e+00 4.790194e+00 5.130580e+00 4.779760e+00 4.168217e+00 3.478268e+00 2.393244e+00 4.666842e+00
<GCONST> 1.117563e+02
<STATE> 4
<MEAN> 25
 4.231828e+00 -8.039110e+00 -4.026499e+00 -6.822137e+00 1.517326e+00 -1.579178e-01 -3.721399e+00 -8.606911e-01 -2.384689e-02 -8.167823e-01 -2.709723e+00 1.838493e-01 1.121863e+00 -4.084681e-01 6.650487e-01 -1.104582e+00 -4.802639e-01 -5.554823e-01 -3.301975e-01 -1.230943e+00 -7.203848e-01 -1.210515e+00 -3.539466e-01 -1.118207e-01 1.181626e+00
<VARIANCE> 25
 5.132066e+01 1.270377e+02 4.385852e+01 6.842142e+01 5.506421e+01 7.755732e+01 5.275682e+01 4.308072e+01 4.373245e+01 4.582870e+01 4.403411e+01 2.031492e+01 4.572600e+00 5.401894e+00 3.256310e+00 5.081143e+00 3.391811e+00 4.488769e+00 4.660568e+00 5.342940e+00 3.578801e+00 4.046974e+00 3.893825e+00 2.369740e+00 7.700323e+00
<GCONST> 1.121110e+02
<TRANSP> 5
 0.000000e+00 1.000000e+00 0.000000e+00 0.000000e+00 0.000000e+00
 0.000000e+00 6.615739e-01 3.384261e-01 0.000000e+00 0.000000e+00
 0.000000e+00 0.000000e+00 4.309244e-01 5.690756e-01 0.000000e+00
 0.000000e+00 0.000000e+00 0.000000e+00 4.751253e-01 5.248747e-01
 0.000000e+00 0.000000e+00 0.000000e+00 0.000000e+00 0.000000e+00
<ENDHMM>
~h "l"
<BEGINHMM>
<NUMSTATES> 5
<STATE> 2
<MEAN> 25
 1.010909e+01 -2.395274e+00 -9.828042e+00 -1.459352e+01 3.059834e+00 -3.050078e+00 -5.715445e+00 -7.271029e+00 -2.529970e+00 -3.758667e+00 -6.937566e+00 -3.739477e+00 1.120877e-01 3.426708e-01 -1.138594e-01 1.628461e-01 -3.914458e-02 -1.057485e-01 -3.114585e-01 -6.965804e-03 2.405593e-01 7.910281e-02 1.600457e-01 -1.435839e-02 -1.901095e-01
<VARIANCE> 25
 6.949607e+00 4.557744e+01 1.527590e+01 4.647642e+01 1.728588e+01 2.567767e+01 2.514705e+01 3.394591e+01 4.331298e+01 2.194407e+01 2.299423e+01 1.618249e+01 1.917908e-01 6.149701e-01 3.622995e-01 1.000176e+00 8.055839e-01 1.019690e+00 9.874691e-01 8.834090e-01 1.184660e+00 9.691126e-01 9.334327e-01 7.703608e-01 2.420625e-01
<GCONST> 7.879522e+01
<STATE> 3
<MEAN> 25
 1.075360e+01 -6.836126e+00 -5.609059e+00 -9.843793e+00 1.385243e+00 -4.048739e+00 -1.082372e+01 -5.169897e+00 5.996090e-01 -5.398753e+00 -4.932286e+00 -1.917417e+00 -4.471723e-01 -2.519819e-01 1.064669e+00 1.383512e+00 -9.722884e-01 -8.964374e-01 -4.368125e-01 2.373209e-01 -1.776143e-01 -6.205241e-01 -7.602578e-02 6.011103e-01 -1.570866e-01
<VARIANCE> 25
 1.567339e+01 1.197841e+02 2.206681e+01 3.663500e+01 3.688413e+01 4.810477e+01 2.985095e+01 4.876999e+01 4.696928e+01 3.602912e+01 1.991695e+01 2.170137e+01 8.267900e-01 1.795137e+00 1.386001e+00 1.750349e+00 2.684434e+00 1.827260e+00 2.166891e+00 2.561751e+00 3.247053e+00 1.972129e+00 2.022017e+00 2.180294e+00 1.100350e+00
<GCONST> 9.646835e+01
<STATE> 4
<MEAN> 25
 8.252790e+00 -3.117052e+00 -1.835193e-01 -4.581868e+00 -7.351580e+00 -8.473730e+00 -8.514148e+00 -4.656853e+00 -1.419139e-01 -5.522101e+00 -3.178219e+00 1.489698e+00 -1.575555e+00 3.789057e-01 3.095497e+00 1.170982e-01 -2.786887e+00 1.143469e+00 1.464497e+00 -6.056135e-01 -1.211813e+00 8.488036e-01 5.281619e-01 5.930512e-01 -8.340265e-02
<VARIANCE> 25
 1.776736e+01 7.321111e+01 4.280515e+01 3.372292e+01 9.160017e+01 5.541859e+01 7.293172e+01 3.678916e+01 4.539808e+01 4.934640e+01 3.732486e+01 2.153803e+01 1.184866e+00 1.866618e+00 4.181262e+00 3.683511e+00 8.010416e+00 3.277182e+00 3.131862e+00 5.931119e+00 4.070480e+00 3.637609e+00 2.648067e+00 2.949977e+00 1.408658e+00
<GCONST> 1.060345e+02
<TRANSP> 5
 0.000000e+00 1.000000e+00 0.000000e+00 0.000000e+00 0.000000e+00
 0.000000e+00 8.972219e-01 1.027781e-01 0.000000e+00 0.000000e+00
 0.000000e+00 0.000000e+00 6.770222e-01 3.229779e-01 0.000000e+00
 0.000000e+00 0.000000e+00 0.000000e+00 4.825643e-01 5.174357e-01
 0.000000e+00 0.000000e+00 0.000000e+00 0.000000e+00 0.000000e+00
<ENDHMM>
~h "m"
<BEGINHMM>
<NUMSTATES> 5
<STATE> 2
<MEAN> 25
 7.366776e+00 -6.406814e+00 3.191288e+00 -1.997721e+00 -2.331246e+00 -5.632134e+00 -1.116040e+01 -5.947679e+00 -3.118294e+00 -5.971822e+00 -2.306637e+00 -1.747704e+00 5.121065e-01 -4.267383e-01 1.746965e-01 -4.007682e-01 7.976786e-02 -7.863881e-01 -1.215597e+00 -2.273318e-01 -5.027124e-01 -9.670132e-01 -1.436363e-01 -1.894781e-01 1.094848e+00
<VARIANCE> 25
 3.398871e+01 1.074705e+02 2.897808e+01 5.069186e+01 5.372638e+01 4.114235e+01 5.123193e+01 5.752881e+01 4.484594e+01 4.268548e+01 3.066705e+01 2.453961e+01 2.573478e+00 6.470674e+00 3.045789e+00 6.446561e+00 5.617594e+00 4.311957e+00 4.882158e+00 6.676249e+00 4.252789e+00 3.691407e+00 3.032318e+00 3.059869e+00 6.241679e+00
<GCONST> 1.105865e+02
<STATE> 3
<MEAN> 25
 6.725408e+00 -7.797654e-01 3.556131e+00 -1.624330e+00 -2.640141e+00 -1.058298e+01 -1.141099e+01 -5.573229e+00 -4.705682e+00 -8.759617e+00 -1.133209e+00 -1.924104e+00 -6.730328e-02 2.757570e-01 1.109655e-01 1.881004e-01 -2.519540e-01 -1.911680e-02 5.012265e-02 9.682199e-03 -6.974036e-02 1.134938e-01 -2.137701e-01 2.666058e-02 -2.601778e-01
<VARIANCE> 25
 1.301085e+01 9.615982e+01 1.794650e+01 2.738975e+01 3.200821e+01 2.704300e+01 2.573029e+01 5.909285e+01 2.213193e+01 5.629744e+01 2.376407e+01 2.093233e+01 4.136060e-01 1.033491e+00 1.063903e+00 1.012588e+00 1.309841e+00 1.530629e+00 1.669670e+00 1.748067e+00 1.532917e+00 2.098253e+00 1.444549e+00 1.175539e+00 8.699046e-01
<GCONST> 8.925333e+01
<STATE> 4
<MEAN> 25
 3.900417e+00 4.350033e-01 2.784881e+00 1.028346e+00 -3.517968e+00 -4.924187e+00 -7.963127e+00 -4.832851e+00 -3.424540e+00 -3.742934e+00 -1.753489e+00 -1.620477e+00 -1.428626e+00 2.292645e-01 -8.597159e-01 2.128996e-01 2.997186e-01 1.523031e+00 1.817507e+00 1.356651e+00 1.014897e+00 1.065474e+00 7.827947e-01 4.654333e-01 -9.761105e-01
<VARIANCE> 25
 2.968208e+01 9.262588e+01 3.019250e+01 2.436799e+01 3.306204e+01 4.249074e+01 5.693540e+01 5.533522e+01 3.648437e+01 7.570175e+01 3.377322e+01 2.790697e+01 2.977500e+00 4.817147e+00 2.666993e+00 2.432816e+00 3.350048e+00 2.845812e+00 4.197573e+00 4.168132e+00 4.225658e+00 6.146261e+00 2.677807e+00 2.879529e+00 4.613611e+00
<GCONST> 1.070209e+02
<TRANSP> 5
 0.000000e+00 1.000000e+00 0.000000e+00 0.000000e+00 0.000000e+00
 0.000000e+00 8.251117e-01 1.748883e-01 0.000000e+00 0.000000e+00
 0.000000e+00 0.000000e+00 8.769665e-01 1.230335e-01 0.000000e+00
 0.000000e+00 0.000000e+00 0.000000e+00 6.351609e-01 3.648392e-01
 0.000000e+00 0.000000e+00 0.000000e+00 0.000000e+00 0.000000e+00
<ENDHMM>
~h "n"
<BEGINHMM>
<NUMSTATES> 5
<STATE> 2
<MEAN> 25
 5.651743e+00 5.006039e+00 5.309721e+00 1.228680e+00 -9.509213e+00 -1.186302e+01 -7.183777e+00 -5.594549e+00 -4.463847e+00 -5.423135e+00 -2.003849e+00 -2.124759e+00 -2.560145e-01 1.428989e-01 5.288541e-02 9.619266e-02 2.734620e-01 3.055352e-03 -2.948765e-01 -1.570929e-01 -3.570049e-01 1.845447e-02 9.686073e-02 -2.050086e-01 -3.400638e-01
<VARIANCE> 25
 8.155768e+00 1.301789e+01 1.160041e+01 1.391996e+01 3.116388e+01 2.024812e+01 2.286718e+01 1.668458e+01 2.361716e+01 2.590978e+01 1.371807e+01 1.737648e+01 3.665878e-01 5.989897e-01 5.761809e-01 6.637602e-01 9.814357e-01 1.310180e+00 1.601504e+00 1.558720e+00 1.853818e+00 1.787384e+00 1.510532e+00 1.301623e+00 3.371715e-01
<GCONST> 7.945421e+01
<STATE> 3
<MEAN> 25
 -2.620376e-01 2.626444e+00 4.228815e+00 3.554363e+00 -3.096393e+00 -3.474862e+00 -2.869944e+00 -1.106030e+00 -3.469863e+00 -2.043473e+00 2.550009e+00 6.336821e-02 -9.915906e-01 -4.068714e-01 -5.821506e-01 1.608055e-01 1.307366e+00 1.853198e+00 1.704793e+00 1.266527e+00 1.190896e+00 1.552406e+00 9.734473e-01 4.871374e-01 -7.373512e-01
<VARIANCE> 25
 1.111491e+01 2.558711e+01 1.597941e+01 1.478728e+01 3.025504e+01 3.740002e+01 3.593114e+01 3.476220e+01 2.835803e+01 4.006755e+01 3.052674e+01 2.265345e+01 6.869620e-01 1.125114e+00 9.046255e-01 9.957098e-01 1.237608e+00 2.142305e+00 2.465842e+00 2.659085e+00 2.437507e+00 2.694791e+00 2.396117e+00 1.817692e+00 2.702085e-01
<GCONST> 8.933682e+01
<STATE> 4
<MEAN> 25
 -2.512144e+00 1.199743e+00 3.471606e-01 4.155872e+00 3.730099e+00 4.045762e+00 3.693838e+00 2.526412e+00 1.679628e+00 3.566222e+00 2.599222e+00 4.767531e-02 -9.717795e-03 3.640489e-02 -6.741333e-02 1.955837e-02 1.040331e-01 6.532352e-02 8.145303e-02 7.888991e-03 7.389178e-02 8.153062e-02 -5.248075e-02 -4.769956e-02 -4.010463e-02
<VARIANCE> 25
 5.705606e+00 1.017769e+01 1.173147e+01 1.083393e+01 1.357867e+01 1.851279e+01 1.678527e+01 1.491422e+01 1.342561e+01 1.502667e+01 1.597828e+01 1.194079e+01 1.614851e-01 3.268625e-01 4.816374e-01 6.603022e-01 9.234570e-01 1.177519e+00 1.224644e+00 1.273181e+00 1.171488e+00 1.427705e+00 1.341257e+00 1.058242e+00 1.127267e-01
<GCONST> 7.158403e+01
<TRANSP> 5
 0.000000e+00 1.000000e+00 0.000000e+00 0.000000e+00 0.000000e+00
 0.000000e+00 8.235987e-01 1.764013e-01 0.000000e+00 0.000000e+00
 0.000000e+00 0.000000e+00 7.049227e-01 2.950773e-01 0.000000e+00
 0.000000e+00 0.000000e+00 0.000000e+00 9.230940e-01 7.690600e-02
 0.000000e+00 0.000000e+00 0.000000e+00 0.000000e+00 0.000000e+00
<ENDHMM>
~h "o"
<BEGINHMM>
<NUMSTATES> 5
<STATE> 2
<MEAN> 25
 7.949108e+00 -1.151499e+00 -3.379027e+00 -1.448765e+01 -4.770043e+00 -9.564058e-01 -3.855507e+00 -8.164215e+00 -4.818303e+00 -1.053713e-01 -6.390369e+00 -6.438615e-01 1.080900e+00 -5.035494e-01 -7.177281e-01 -1.249296e+00 4.429653e-01 -1.428961e-01 -3.278572e-01 -5.083340e-01 -4.081436e-01 -6.188329e-01 -2.293710e-01 -5.508891e-01 9.984599e-01
<VARIANCE> 25
 2.325902e+01 4.434665e+01 7.235548e+01 6.821028e+01 7.172126e+01 6.364973e+01 3.920916e+01 5.353553e+01 4.204197e+01 3.224506e+01 2.687564e+01 2.270240e+01 1.728705e+00 1.356394e+00 2.732060e+00 3.712288e+00 3.788994e+00 4.444136e+00 3.080713e+00 4.088114e+00 3.117614e+00 3.293050e+00 2.813434e+00 1.791810e+00 1.691496e+00
<GCONST> 1.040890e+02
<STATE> 3
<MEAN> 25
 1.092232e+01 -5.115118e+00 -8.146688e+00 -1.612400e+01 1.826604e+00 1.349971e+00 -5.771784e+00 -6.453928e+00 -3.676101e+00 -2.044659e+00 -3.784062e+00 -2.775033e+00 -1.955995e-01 -1.476500e-01 3.307706e-01 9.254150e-01 -2.163832e-01 -8.272834e-01 2.167192e-01 2.294358e-01 6.238363e-01 -2.848757e-01 -2.051551e-01 -7.360799e-02 -7.595623e-02
<VARIANCE> 25
 1.308654e+01 6.769707e+01 1.496683e+01 3.063448e+01 1.654494e+01 3.290033e+01 2.757220e+01 2.977870e+01 2.484189e+01 3.780447e+01 3.391344e+01 1.516388e+01 3.775087e-01 1.061078e+00 1.102745e+00 2.424555e+00 2.255716e+00 3.076064e+00 1.930724e+00 1.805147e+00 2.362415e+00 2.731503e+00 2.989142e+00 1.379986e+00 1.017219e+00
<GCONST> 9.151229e+01
<STATE> 4
<MEAN> 25
 7.288113e+00 -3.382388e+00 -4.938396e+00 -8.349885e+00 -1.248199e+00 -1.744100e+00 -2.053813e+00 -4.307213e+00 -6.322930e-01 -2.046151e+00 -4.998908e+00 -1.312109e+00 -1.312107e+00 3.394299e-01 1.616680e+00 2.387161e+00 -8.185527e-01 -3.127594e-01 7.403712e-01 3.341137e-01 3.906926e-01 7.061253e-02 5.172528e-01 3.622058e-01 -1.193140e+00
<VARIANCE> 25
 2.310195e+01 4.452843e+01 2.600982e+01 6.267485e+01 2.429166e+01 5.584294e+01 4.265385e+01 3.990918e+01 2.990264e+01 3.898674e+01 4.337381e+01 1.637719e+01 1.674939e+00 1.351211e+00 2.329030e+00 3.955567e+00 3.587183e+00 3.871688e+00 3.582937e+00 3.597294e+00 2.715949e+00 3.353611e+00 4.745443e+00 1.661569e+00 1.594664e+00
<GCONST> 1.015243e+02
<TRANSP> 5
 0.000000e+00 1.000000e+00 0.000000e+00 0.000000e+00 0.000000e+00
 0.000000e+00 7.153157e-01 2.846843e-01 0.000000e+00 0.000000e+00
 0.000000e+00 0.000000e+00 6.863973e-01 3.136027e-01 0.000000e+00
 0.000000e+00 0.000000e+00 0.000000e+00 5.326558e-01 4.673442e-01
 0.000000e+00 0.000000e+00 0.000000e+00 0.000000e+00 0.000000e+00
<ENDHMM>
~h "p"
<BEGINHMM>
<NUMSTATES> 5
<STATE> 2
<MEAN> 25
 3.038420e+00 -3.931504e+00 -8.601792e-01 -3.785588e-01 -1.191429e+00 -3.567150e-01 -8.987442e-01 1.929430e-02 7.105899e-01 -3.943980e-01 -6.019706e-01 -9.370391e-01 2.123023e+00 -2.441484e+00 -8.858781e-01 -2.092745e+00 -1.434058e+00 -1.263552e+00 -1.146842e+00 -7.722171e-01 -5.541651e-01 -1.657158e+00 -1.324645e+00 -3.298145e-01 3.719632e+00
<VARIANCE> 25
 4.143548e+01 8.612927e+01 3.049946e+01 3.791945e+01 4.527394e+01 3.326913e+01 3.412170e+01 4.588046e+01 2.786347e+01 3.701187e+01 2.897284e+01 2.093933e+01 3.195223e+00 8.715901e+00 3.409754e+00 5.112278e+00 4.543228e+00 3.320341e+00 3.156994e+00 6.806294e+00 3.581684e+00 4.003574e+00 3.228554e+00 2.000996e+00 7.454451e+00
<GCONST> 1.077037e+02
<STATE> 3
<MEAN> 25
 9.021327e+00 -1.129810e+01 -3.193270e+00 -8.206834e+00 -5.822771e+00 -8.070434e+00 8.157924e-01 -4.554924e+00 -5.002921e+00 -8.125367e+00 -6.374800e+00 -2.014229e+00 -2.773890e-01 2.810241e-01 2.230299e-01 -3.863503e-01 -1.777324e-01 -1.804104e-01 5.135398e-01 -3.604611e-01 -3.721074e-01 -5.038257e-01 4.500620e-02 3.134764e-01 -7.922179e-02
<VARIANCE> 25
 1.765499e+01 6.919895e+01 2.617031e+01 3.120775e+01 6.353388e+01 3.230368e+01 5.593087e+01 4.713445e+01 2.571110e+01 2.830314e+01 1.747521e+01 1.518019e+01 1.677046e+00 2.681027e+00 9.476637e-01 3.152670e+00 2.602899e+00 2.748983e+00 4.138137e+00 2.848308e+00 2.480322e+00 2.889802e+00 2.658016e+00 1.628335e+00 2.463645e+00
<GCONST> 9.880367e+01
<STATE> 4
<MEAN> 25
 9.854789e-01 -2.076022e+00 -1.583358e+00 1.646663e-01 8.941683e-01 1.011242e+00 2.843560e+00 2.369779e-01 -1.877874e-01 -4.263873e-01 -7.028378e-01 2.804301e-01 -5.054212e-01 3.997440e-01 1.665861e-01 2.344893e-01 2.305498e-01 4.414903e-01 -4.196827e-02 4.018293e-01 3.383997e-01 5.113707e-01 4.405648e-01 1.179976e-01 -4.319289e-01
<VARIANCE> 25
 2.595876e+01 5.797578e+01 1.939361e+01 4.654513e+01 3.829921e+01 3.076242e+01 3.421978e+01 3.227145e+01 2.521974e+01 3.955643e+01 2.176085e+01 1.682608e+01 1.953074e+00 2.718416e+00 1.237346e+00 2.433003e+00 1.628083e+00 2.543191e+00 2.104200e+00 2.731954e+00 1.934198e+00 2.631225e+00 2.154667e+00 1.523712e+00 4.473022e+00
<GCONST> 9.721126e+01
<TRANSP> 5
 0.000000e+00 1.000000e+00 0.000000e+00 0.000000e+00 0.000000e+00
 0.000000e+00 7.219472e-01 2.780528e-01 0.000000e+00 0.000000e+00
 0.000000e+00 0.000000e+00 7.493688e-01 2.506311e-01 0.000000e+00
 0.000000e+00 0.000000e+00 0.000000e+00 7.084888e-01 2.915112e-01
 0.000000e+00 0.000000e+00 0.000000e+00 0.000000e+00 0.000000e+00
<ENDHMM>
~h "r"
<BEGINHMM>
<NUMSTATES> 5
<STATE> 2
<MEAN> 25
 6.640951e+00 -9.999577e+00 2.096270e+00 -3.230198e+00 -6.742298e+00 -2.853732e+00 -3.600464e+00 -1.020754e+00 -1.169284e+00 -7.425326e+00 -4.203024e+00 -1.549644e-03 -7.040213e-01 3.218395e-01 1.806291e-01 8.231227e-01 2.252004e-02 1.068838e+00 -5.398118e-01 2.093277e-01 6.254333e-01 1.332735e-02 6.196477e-01 1.573977e-01 -1.146559e+00
<VARIANCE> 25
 3.854919e+01 9.769804e+01 3.566486e+01 4.180452e+01 4.225621e+01 3.971675e+01 4.503023e+01 3.898209e+01 4.840735e+01 4.237295e+01 3.146597e+01 2.173459e+01 4.113925e+00 3.647195e+00 4.218528e+00 3.032991e+00 4.988955e+00 4.719583e+00 3.596310e+00 5.522852e+00 5.640493e+00 3.836926e+00 5.019917e+00 2.483935e+00 3.320181e+00
<GCONST> 1.087409e+02
<STATE> 3
<MEAN> 25
 -5.385293e-01 -7.046133e+00 1.957780e+00 1.477950e+00 -2.888988e+00 2.951216e+00 -1.031402e+00 2.762912e+00 3.018627e+00 -3.997902e+00 1.481425e+00 2.045056e+00 -9.321873e-01 1.085561e+00 1.094764e-01 7.060530e-01 9.696767e-01 4.063102e-01 4.181210e-01 4.823955e-01 2.260729e-01 1.137664e+00 8.199260e-01 -2.585038e-01 -1.271692e+00
<VARIANCE> 25
 2.593287e+01 5.692955e+01 3.740717e+01 2.567385e+01 3.846450e+01 3.418365e+01 4.458869e+01 3.361813e+01 3.270307e+01 5.223495e+01 2.781334e+01 2.620692e+01 2.163526e+00 4.250774e+00 4.197362e+00 1.370364e+00 3.257396e+00 4.055217e+00 4.620800e+00 4.061522e+00 3.677034e+00 4.928281e+00 3.661239e+00 2.711375e+00 1.827132e+00
<GCONST> 1.039169e+02
<STATE> 4
<MEAN> 25
 -3.190981e+00 1.376941e+00 3.669166e-01 4.578609e+00 2.747218e+00 3.025880e+00 2.289184e+00 3.287542e+00 1.951396e+00 2.150837e+00 2.791759e+00 2.232707e-02 4.155619e-02 8.706834e-02 9.704351e-02 1.302953e-02 1.093907e-01 -8.062150e-02 -8.547993e-02 -5.953929e-02 -4.999938e-03 1.155887e-01 -1.222933e-02 -2.623846e-02 -2.029140e-01
<VARIANCE> 25
 1.333949e+01 1.919815e+01 1.990837e+01 1.360905e+01 2.396213e+01 1.753409e+01 1.769901e+01 1.856306e+01 1.955633e+01 1.865232e+01 1.642032e+01 1.334569e+01 5.116388e-01 6.060588e-01 7.171898e-01 8.144265e-01 1.293891e+00 1.320810e+00 1.555862e+00 1.631761e+00 1.573653e+00 1.539980e+00 1.604519e+00 1.216821e+00 4.537995e-01
<GCONST> 8.074177e+01
<TRANSP> 5
 0.000000e+00 1.000000e+00 0.000000e+00 0.000000e+00 0.000000e+00
 0.000000e+00 6.634417e-01 3.365582e-01 0.000000e+00 0.000000e+00
 0.000000e+00 0.000000e+00 6.471685e-01 3.528315e-01 0.000000e+00
 0.000000e+00 0.000000e+00 0.000000e+00 8.948467e-01 1.051533e-01
 0.000000e+00 0.000000e+00 0.000000e+00 0.000000e+00 0.000000e+00
<ENDHMM>
~h "s"
<BEGINHMM>
<NUMSTATES> 5
<STATE> 2
<MEAN> 25
 -1.055817e+01 2.608699e+00 -3.438947e+00 5.603940e+00 -2.287271e+00 3.262567e+00 5.432850e+00 3.219506e+00 3.140690e+00 4.055048e+00 3.866557e+00 -3.402068e-01 -6.481293e-03 -2.548001e-01 1.273529e-01 -1.199282e-01 -8.500302e-02 -2.784813e-02 -6.516151e-02 9.415099e-02 8.662739e-02 -2.934624e-02 8.741181e-02 -2.924906e-02 1.483682e-01
<VARIANCE> 25
 2.043958e+01 3.205100e+01 2.113766e+01 1.793606e+01 1.985647e+01 2.954709e+01 2.529542e+01 2.154968e+01 1.826177e+01 2.075968e+01 1.502192e+01 1.571664e+01 1.573457e+00 1.652403e+00 1.143757e+00 1.736909e+00 1.390547e+00 1.722569e+00 1.585397e+00 1.511192e+00 1.768947e+00 1.750363e+00 1.494139e+00 1.143744e+00 9.807100e-01
<GCONST> 8.748290e+01
<STATE> 3
<MEAN> 25
 -5.570067e+00 -2.115080e+00 -9.366171e-01 2.609391e+00 -1.844509e+00 1.747182e+00 4.027400e+00 2.502582e+00 3.543565e+00 2.630421e+00 2.183140e+00 2.894718e-01 2.569835e+00 -5.187725e-01 8.966628e-01 -1.574679e+00 -1.224130e+00 -1.254218e+00 -2.403923e+00 -1.807063e+00 -6.342056e-01 -1.478702e+00 -1.467417e+00 7.320347e-02 9.632334e-01
<VARIANCE> 25
 2.365017e+01 7.215250e+01 3.155828e+01 1.992126e+01 3.394231e+01 4.192149e+01 3.443685e+01 2.928203e+01 2.254928e+01 2.444737e+01 2.000099e+01 1.536763e+01 5.686495e+00 7.061182e+00 4.000500e+00 4.063608e+00 4.531159e+00 4.710476e+00 5.707857e+00 5.208234e+00 2.490829e+00 2.371366e+00 2.932524e+00 1.688206e+00 3.510345e+00
<GCONST> 1.036149e+02
<STATE> 4
<MEAN> 25
 4.499985e+00 -9.475740e+00 3.419261e+00 -5.492209e+00 -5.566007e+00 1.500665e+00 -4.090169e+00 -3.236052e+00 -1.627827e-01 -2.605097e+00 -6.613969e-01 -1.840251e-01 9.806539e-01 3.636869e-01 1.214370e-01 -9.021392e-01 -1.986560e-01 -6.327547e-01 -1.002065e+00 -7.411546e-01 -3.675996e-01 -5.016112e-01 -6.269435e-01 -7.130965e-02 4.715774e-01
<VARIANCE> 25
 5.109931e+01 1.327448e+02 7.314444e+01 6.702487e+01 7.634528e+01 6.069057e+01 5.380803e+01 6.079886e+01 2.596953e+01 4.621341e+01 3.319358e+01 2.172938e+01 6.054955e+00 7.537241e+00 3.998684e+00 7.064199e+00 6.111828e+00 5.979161e+00 7.022303e+00 6.072119e+00 2.523892e+00 4.956012e+00 4.171044e+00 2.652268e+00 8.450401e+00
<GCONST> 1.150491e+02
<TRANSP> 5
 0.000000e+00 1.000000e+00 0.000000e+00 0.000000e+00 0.000000e+00
 0.000000e+00 7.993315e-01 2.006685e-01 0.000000e+00 0.000000e+00
 0.000000e+00 0.000000e+00 3.779268e-01 6.220732e-01 0.000000e+00
 0.000000e+00 0.000000e+00 0.000000e+00 6.655192e-01 3.344809e-01
 0.000000e+00 0.000000e+00 0.000000e+00 0.000000e+00 0.000000e+00
<ENDHMM>
~h "t"
<BEGINHMM>
<NUMSTATES> 5
<STATE> 2
<MEAN> 25
 -1.807263e+00 2.246398e+00 1.401246e-01 4.702210e+00 3.577850e+00 2.164235e+00 3.061980e+00 1.324283e+00 6.931121e-01 2.499457e+00 1.318180e+00 2.133528e-02 -1.576231e-01 2.677100e-02 5.432138e-02 2.694126e-02 -9.604876e-03 2.656903e-02 3.828461e-02 6.549967e-02 1.375056e-01 1.767736e-01 1.400804e-01 3.374122e-02 -1.312074e-02
<VARIANCE> 25
 4.431696e+00 1.294416e+01 1.224242e+01 7.812884e+00 1.283626e+01 1.536782e+01 1.343088e+01 1.524747e+01 1.486095e+01 1.267232e+01 1.265935e+01 1.035027e+01 3.527937e-01 8.908401e-01 6.801161e-01 6.708729e-01 1.193480e+00 1.463796e+00 1.429971e+00 1.593094e+00 1.737211e+00 1.495615e+00 1.376578e+00 1.068833e+00 1.293977e+00
<GCONST> 7.631493e+01
<STATE> 3
<MEAN> 25
 -3.196786e+00 1.532286e+00 -7.077734e-01 3.718208e+00 2.648387e+00 1.679213e+00 4.050749e+00 2.902945e+00 2.426026e+00 2.193864e+00 1.430493e+00 -2.410528e-02 3.935512e-02 -1.407908e+00 -1.771245e-01 -1.211834e+00 -8.392787e-01 -1.269795e+00 -7.190500e-01 1.976264e-01 9.970277e-01 -6.691077e-01 -1.934693e-01 6.399323e-01 2.991328e+00
<VARIANCE> 25
 1.005530e+01 2.041003e+01 1.624061e+01 1.405714e+01 3.000708e+01 1.810383e+01 1.788854e+01 1.771344e+01 1.909495e+01 1.856941e+01 1.543808e+01 1.353713e+01 1.943509e+00 3.584135e+00 2.545719e+00 2.904719e+00 5.096755e+00 5.125816e+00 2.936936e+00 3.812374e+00 2.106942e+00 2.622586e+00 1.948381e+00 1.743851e+00 5.414384e+00
<GCONST> 9.421278e+01
<STATE> 4
<MEAN> 25
 -8.290861e-02 -4.922168e+00 -6.028310e-01 -1.813082e+00 4.019379e-02 -2.150970e+00 -2.528888e+00 1.577505e-02 2.915560e+00 -2.106441e+00 7.270466e-02 1.093894e+00 2.232401e+00 -1.271247e+00 -1.860221e-01 -2.433245e+00 -1.143106e+00 -8.835575e-01 -2.632543e+00 -1.756069e+00 -6.873279e-01 -1.600148e+00 -9.668924e-01 1.488741e-01 3.433501e+00
<VARIANCE> 25
 5.462062e+01 9.619180e+01 2.722725e+01 5.528588e+01 6.268633e+01 5.426145e+01 8.150425e+01 5.271556e+01 3.273944e+01 4.820851e+01 2.878218e+01 2.175242e+01 4.135024e+00 1.062028e+01 4.563696e+00 5.350310e+00 6.225592e+00 6.622342e+00 6.501495e+00 6.202695e+00 3.079835e+00 4.664060e+00 2.635204e+00 2.273522e+00 9.646085e+00
<GCONST> 1.132468e+02
<TRANSP> 5
 0.000000e+00 1.000000e+00 0.000000e+00 0.000000e+00 0.000000e+00
 0.000000e+00 7.721702e-01 2.278297e-01 0.000000e+00 0.000000e+00
 0.000000e+00 0.000000e+00 4.224510e-01 5.775490e-01 0.000000e+00
 0.000000e+00 0.000000e+00 0.000000e+00 5.942202e-01 4.057798e-01
 0.000000e+00 0.000000e+00 0.000000e+00 0.000000e+00 0.000000e+00
<ENDHMM>
~h "u"
<BEGINHMM>
<NUMSTATES> 5
<STATE> 2
<MEAN> 25
 9.347922e+00 6.857057e+00 -4.235118e+00 -7.968471e+00 -7.865287e+00 -8.710857e+00 -1.014183e+01 -6.208685e+00 -5.120440e+00 -2.716881e+00 -1.976178e+00 1.495307e+00 1.891407e-01 4.301773e-01 3.294850e-01 7.911301e-02 -3.209438e-01 -3.249268e-01 -3.266547e-01 -1.175501e-01 -3.109559e-01 -3.654206e-01 -2.089360e-01 -2.871597e-01 -2.590582e-01
<VARIANCE> 25
 1.750799e+01 2.353748e+01 2.389017e+01 4.800626e+01 2.706832e+01 3.122096e+01 4.217609e+01 3.183463e+01 3.274885e+01 3.321234e+01 2.238819e+01 3.150697e+01 3.281435e+00 2.200762e+00 2.542389e+00 5.080576e+00 2.545338e+00 3.202743e+00 6.124377e+00 3.935709e+00 3.815509e+00 2.785809e+00 2.408217e+00 3.101222e+00 2.106013e+00
<GCONST> 1.014407e+02
<STATE> 3
<MEAN> 25
 8.371403e-01 3.364049e+00 -7.312456e-01 -1.787493e+00 -4.684286e+00 -5.860270e+00 -2.073205e+00 -1.663082e+00 -3.344548e+00 2.458378e-01 4.112933e-01 -6.252940e-01 -2.467993e+00 -8.413970e-01 4.668525e-02 1.054729e+00 1.575015e+00 1.480056e+00 2.611555e+00 1.578573e+00 1.237512e+00 1.904662e+00 1.403081e+00 4.153444e-01 -7.968897e-01
<VARIANCE> 25
 4.732714e+01 2.327284e+01 2.105007e+01 2.102012e+01 3.013369e+01 4.205145e+01 4.792202e+01 4.666199e+01 4.037454e+01 4.307229e+01 2.944774e+01 2.156704e+01 2.294890e+00 2.470812e+00 1.683772e+00 2.926518e+00 2.084449e+00 2.285197e+00 4.314316e+00 3.316756e+00 3.257113e+00 3.367483e+00 2.279256e+00 2.096674e+00 1.765090e+00
<GCONST> 9.989496e+01
<STATE> 4
<MEAN> 25
 -3.564512e+00 1.991618e+00 -8.466537e-01 2.150908e+00 1.798297e+00 6.560901e-01 4.045621e+00 2.139611e+00 6.663857e-01 3.832385e+00 2.352153e+00 1.156231e-02 -6.475205e-02 2.912928e-03 5.849941e-02 1.981618e-01 2.425507e-01 2.116805e-01 1.735136e-01 6.117133e-02 1.418736e-01 1.196521e-02 -4.713978e-02 -1.307174e-02 -1.942226e-01
<VARIANCE> 25
 2.940888e+01 1.577978e+01 1.307931e+01 1.702822e+01 1.561005e+01 2.955426e+01 2.786300e+01 1.812792e+01 1.892564e+01 2.369842e+01 1.715483e+01 1.254729e+01 3.860853e-01 5.670323e-01 5.228043e-01 7.970768e-01 9.476341e-01 1.266369e+00 1.509028e+00 1.204323e+00 1.628895e+00 1.497294e+00 1.380514e+00 1.084117e+00 2.464926e-01
<GCONST> 7.960918e+01
<TRANSP> 5
 0.000000e+00 1.000000e+00 0.000000e+00 0.000000e+00 0.000000e+00
 0.000000e+00 8.380862e-01 1.619138e-01 0.000000e+00 0.000000e+00
 0.000000e+00 0.000000e+00 6.428741e-01 3.571259e-01 0.000000e+00
 0.000000e+00 0.000000e+00 0.000000e+00 9.080954e-01 9.190453e-02
 0.000000e+00 0.000000e+00 0.000000e+00 0.000000e+00 0.000000e+00
<ENDHMM>
~h "w"
<BEGINHMM>
<NUMSTATES> 5
<STATE> 2
<MEAN> 25
 -1.558029e+00 -7.917017e-01 -1.289752e+00 3.762058e+00 4.329028e+00 4.157843e+00 4.166167e+00 2.759779e+00 2.099766e+00 2.560085e+00 3.499319e+00 2.998104e-01 3.943402e-02 5.061747e-02 -2.839749e-02 -6.198687e-02 -6.464191e-02 1.564456e-02 5.900345e-02 -1.111944e-01 -1.015205e-01 8.805019e-02 -8.197670e-02 -8.442445e-02 -3.024745e-02
<VARIANCE> 25
 2.230911e+00 4.321733e+00 4.495999e+00 6.055208e+00 7.547365e+00 1.210295e+01 1.911804e+01 1.650883e+01 1.306583e+01 1.876104e+01 1.752053e+01 1.136624e+01 1.371974e-01 2.773141e-01 3.762808e-01 5.461996e-01 6.563846e-01 9.269868e-01 1.501987e+00 1.391461e+00 1.325097e+00 1.642781e+00 1.297426e+00 1.029019e+00 6.870974e-02
<GCONST> 6.636028e+01
<STATE> 3
<MEAN> 25
 5.699658e-01 2.724977e-01 4.706277e-01 8.908046e-01 -4.373774e-01 -2.643800e+00 -2.774871e+00 -4.397110e+00 -2.892993e+00 -7.229217e-01 -2.535949e+00 -2.161608e+00 2.203462e+00 1.222254e+00 -2.591701e-01 -1.831912e+00 -1.383986e+00 -2.463467e+00 -2.689559e+00 -1.624188e+00 -1.455992e+00 -2.038833e+00 -1.119628e+00 -1.374663e+00 1.204387e+00
<VARIANCE> 25
 1.776493e+01 3.023835e+01 7.039763e+00 9.131267e+00 2.154638e+01 3.659354e+01 4.788873e+01 4.167816e+01 2.500637e+01 3.042124e+01 2.678170e+01 2.292702e+01 1.440561e+00 1.267707e+00 1.372641e+00 3.177217e+00 1.845477e+00 2.245106e+00 2.515674e+00 3.422894e+00 3.296140e+00 2.426427e+00 1.267301e+00 1.699837e+00 1.189289e+00
<GCONST> 9.238924e+01
<STATE> 4
<MEAN> 25
 1.035730e+01 -6.779227e-01 -6.779241e+00 -1.167333e+01 2.375713e+00 -4.462985e+00 -6.014847e+00 -7.583166e+00 -3.547519e+00 -6.927015e-01 -5.235998e+00 -4.936305e+00 2.162349e-02 -4.424396e-01 -1.139156e-01 -1.173290e-01 6.031541e-01 -5.308415e-02 -5.219911e-02 -1.060424e-01 5.501240e-02 -7.307715e-04 -1.353302e-01 -4.580507e-02 4.206439e-01
<VARIANCE> 25
 2.268890e+01 5.377011e+01 1.366565e+01 4.529390e+01 7.427687e+01 3.451436e+01 2.244175e+01 3.787949e+01 2.573363e+01 2.169665e+01 1.739479e+01 1.259692e+01 2.000806e+00 3.013889e+00 1.172703e+00 4.544412e+00 5.349356e+00 3.398239e+00 1.580825e+00 3.054813e+00 2.457868e+00 1.205301e+00 1.405101e+00 1.417149e+00 1.831929e+00
<GCONST> 9.611570e+01
<TRANSP> 5
 0.000000e+00 1.000000e+00 0.000000e+00 0.000000e+00 0.000000e+00
 0.000000e+00 9.594561e-01 4.054380e-02 0.000000e+00 0.000000e+00
 0.000000e+00 0.000000e+00 6.313134e-01 3.686866e-01 0.000000e+00
 0.000000e+00 0.000000e+00 0.000000e+00 9.529166e-01 4.708331e-02
 0.000000e+00 0.000000e+00 0.000000e+00 0.000000e+00 0.000000e+00
<ENDHMM>
~h "x"
<BEGINHMM>
<NUMSTATES> 5
<STATE> 2
<MEAN> 25
 -2.013460e+00 -9.974026e+00 -7.944772e-02 3.579247e+00 -5.020435e+00 2.586347e+00 8.543583e-01 3.932975e+00 1.852305e+00 -3.380901e+00 3.145793e+00 2.777747e+00 -7.563220e-01 2.635534e-01 -8.117329e-01 7.046824e-01 -3.486507e-01 -2.600895e-01 3.161122e-01 4.816551e-01 -8.350238e-02 -9.657639e-02 5.726095e-01 4.406204e-01 6.369517e-01
<VARIANCE> 25
 9.821505e+00 9.975110e+01 4.552566e+01 3.232278e+01 3.787500e+01 6.079025e+01 2.272278e+01 3.576419e+01 1.812999e+01 3.013430e+01 1.777167e+01 1.861944e+01 1.850329e+00 8.971915e+00 3.258919e+00 3.288546e+00 5.638803e+00 5.219461e+00 2.500490e+00 4.697353e+00 2.291568e+00 4.399326e+00 2.061954e+00 2.111397e+00 5.842025e+00
<GCONST> 1.032489e+02
<STATE> 3
<MEAN> 25
 -1.115235e+01 2.122712e+00 -5.731786e+00 6.740789e+00 -8.716146e+00 4.661662e+00 5.761066e+00 9.443047e+00 9.719297e-01 1.173352e+00 6.283948e+00 1.495008e+00 2.498910e-01 3.539857e-01 1.593594e-01 -2.668153e-01 3.404760e-01 3.425526e-01 -5.127958e-03 -9.508749e-02 -3.919870e-02 1.969794e-01 -1.858584e-01 -1.678226e-01 -4.484670e-01
<VARIANCE> 25
 1.091114e+01 7.309646e+00 9.194236e+00 9.651250e+00 1.760107e+01 2.006214e+01 1.864288e+01 2.018172e+01 1.605807e+01 1.704709e+01 1.779888e+01 1.164172e+01 1.543603e+00 9.241295e-01 7.191479e-01 6.003405e-01 1.393917e+00 2.285490e+00 1.910339e+00 1.376576e+00 1.651484e+00 1.676862e+00 1.821564e+00 1.434121e+00 2.027791e-01
<GCONST> 7.957857e+01
<STATE> 4
<MEAN> 25
 -5.021347e+00 1.092268e+01 -3.032986e+00 6.019959e+00 5.221093e+00 -3.613136e-01 5.378583e+00 2.758365e+00 -8.020363e-01 3.419396e+00 5.111573e-01 -9.789004e-01 6.318692e-03 1.391518e-01 1.726862e-01 -7.470890e-02 4.085512e-01 -1.297698e-01 -1.826286e-02 -2.798308e-02 -1.651007e-01 9.197796e-02 -6.200989e-02 -8.460166e-02 -4.327136e-01
<VARIANCE> 25
 4.947164e+00 3.001108e+01 7.685701e+00 9.340628e+00 1.704413e+01 1.723475e+01 1.583490e+01 1.743156e+01 1.327850e+01 1.894610e+01 1.654986e+01 1.226008e+01 5.240337e-01 6.738544e-01 5.163565e-01 6.293940e-01 1.716344e+00 1.203238e+00 1.252910e+00 1.145996e+00 1.449511e+00 1.328809e+00 1.557188e+00 1.034275e+00 5.941042e-01
<GCONST> 7.689819e+01
<TRANSP> 5
 0.000000e+00 1.000000e+00 0.000000e+00 0.000000e+00 0.000000e+00
 0.000000e+00 8.625986e-01 1.374014e-01 0.000000e+00 0.000000e+00
 0.000000e+00 0.000000e+00 8.931188e-01 1.068812e-01 0.000000e+00
 0.000000e+00 0.000000e+00 0.000000e+00 9.146566e-01 8.534335e-02
 0.000000e+00 0.000000e+00 0.000000e+00 0.000000e+00 0.000000e+00
<ENDHMM>
~h "y"
<BEGINHMM>
<NUMSTATES> 5
<STATE> 2
<MEAN> 25
 1.526552e+00 6.092858e+00 9.490579e+00 -8.714556e+00 -1.523848e+01 -3.387347e+00 -7.742037e+00 -6.445667e+00 -4.857609e+00 1.969811e+00 -9.135382e+00 2.169329e-01 -1.921286e-01 6.063960e-01 6.983411e-01 -1.740033e-01 -6.339034e-01 4.900746e-01 -4.374629e-01 -4.008951e-01 7.545696e-02 3.028697e-01 3.937668e-02 -5.276235e-02 -3.205608e-01
<VARIANCE> 25
 4.549992e+00 5.812772e+01 1.753220e+01 2.688966e+01 6.020579e+01 3.291378e+01 7.072308e+01 2.316789e+01 3.563757e+01 2.608251e+01 1.305604e+01 2.201766e+01 4.854686e-01 2.245292e+00 1.589366e+00 1.126438e+00 3.416132e+00 1.714404e+00 3.737263e+00 1.900097e+00 2.602080e+00 2.567257e+00 1.464138e+00 1.947956e+00 5.365620e-01
<GCONST> 9.189049e+01
<STATE> 3
<MEAN> 25
 -9.634804e-01 1.491483e-01 6.345090e+00 -3.749746e+00 -6.865436e+00 1.755137e+00 -1.963838e+00 -2.888047e+00 -1.197609e+00 1.527794e+00 -1.127594e+00 1.808090e+00 -1.439674e-01 -9.247380e-01 -1.082111e+00 9.839634e-01 1.897950e+00 3.634130e-01 1.118851e+00 9.070184e-01 2.699623e-01 -2.601681e-01 1.154760e+00 2.145382e-01 -6.983399e-01
<VARIANCE> 25
 2.802019e+01 3.364013e+01 3.942573e+01 4.147926e+01 4.793192e+01 5.745452e+01 5.230651e+01 2.825151e+01 3.613253e+01 4.633220e+01 4.419109e+01 2.102010e+01 1.656257e+00 2.242938e+00 2.284340e+00 2.882480e+00 2.208799e+00 4.221233e+00 4.415730e+00 2.630647e+00 3.802793e+00 3.876502e+00 2.763754e+00 2.469876e+00 9.453690e-01
<GCONST> 1.021086e+02
<STATE> 4
<MEAN> 25
 -1.941142e+00 -5.843744e-01 -7.071264e-01 2.985760e+00 3.711601e+00 3.691400e+00 4.784389e+00 2.251234e+00 1.647012e+00 2.237476e+00 3.146791e+00 5.667306e-01 1.101841e-02 1.698487e-02 -7.797404e-02 3.634918e-02 5.313697e-02 -4.417884e-02 -1.295032e-02 -2.337991e-02 5.157677e-02 7.767410e-03 -6.658638e-02 -2.282466e-02 -3.213887e-02
<VARIANCE> 25
 2.862504e+00 6.749070e+00 5.740191e+00 6.903807e+00 7.487607e+00 1.198013e+01 1.434397e+01 1.354067e+01 1.477573e+01 1.736200e+01 1.433095e+01 1.184799e+01 1.798830e-01 3.339792e-01 5.843544e-01 5.713359e-01 7.433444e-01 1.026041e+00 1.356650e+00 1.201550e+00 1.387970e+00 1.355984e+00 1.310313e+00 1.252291e+00 9.246472e-02
<GCONST> 6.809025e+01
<TRANSP> 5
 0.000000e+00 1.000000e+00 0.000000e+00 0.000000e+00 0.000000e+00
 0.000000e+00 9.005798e-01 9.942026e-02 0.000000e+00 0.000000e+00
 0.000000e+00 0.000000e+00 8.648042e-01 1.351958e-01 0.000000e+00
 0.000000e+00 0.000000e+00 0.000000e+00 9.594960e-01 4.050405e-02
 0.000000e+00 0.000000e+00 0.000000e+00 0.000000e+00 0.000000e+00
<ENDHMM>
~h "z"
<BEGINHMM>
<NUMSTATES> 5
<STATE> 2
<MEAN> 25
 -1.928626e+01 2.281588e+01 5.094169e+00 2.700221e+00 7.527073e+00 6.083226e+00 1.588498e+01 9.868368e+00 1.330102e+00 9.853128e+00 7.192297e+00 1.853952e+00 -4.356615e-01 3.173213e-01 4.979787e-01 -2.869973e-02 -1.790205e-02 4.326918e-01 2.573656e-01 -3.861347e-02 2.082432e-01 3.465312e-01 2.863080e-01 5.424981e-02 -3.486571e-01
<VARIANCE> 25
 4.879596e+01 5.536811e+01 2.192958e+01 2.716500e+00 3.359832e+01 1.371722e+01 3.054105e+01 3.816645e+01 1.283053e+01 1.506618e+01 3.142263e+01 8.554174e+00 2.378993e+00 1.257925e+00 1.989211e+00 6.411954e-01 4.182608e-01 8.621096e-01 1.481252e+00 1.620528e+00 1.129053e+00 1.083949e+00 1.450478e+00 7.650111e-01 1.295332e+00
<GCONST> 8.374799e+01
<STATE> 3
<MEAN> 25
 -5.155175e+00 1.225484e+00 2.660844e+00 4.127961e+00 1.937864e+00 6.801019e+00 3.128536e+00 -2.455341e+00 2.388596e+00 1.672311e+00 -1.881758e+00 -8.507214e-01 2.412997e+00 -5.664941e+00 5.011138e-01 -1.378330e+00 -8.203174e-01 1.116267e-01 -3.270043e+00 -8.976244e-01 -1.714176e-01 -2.291047e+00 -8.947293e-02 5.047148e-01 4.928027e+00
<VARIANCE> 25
 5.664846e+01 2.551604e+02 9.443063e+00 2.761631e+01 5.971098e+01 4.600848e+01 6.072781e+01 5.703352e+01 1.899582e+01 6.119141e+01 5.886682e+01 3.941073e+01 6.010352e+00 1.742513e+01 3.641948e+00 6.722940e+00 1.713605e+01 4.797195e+00 3.007539e+00 6.410042e+00 2.938793e+00 2.931813e+00 4.581407e+00 4.543137e+00 9.328453e+00
<GCONST> 1.146052e+02
<STATE> 4
<MEAN> 25
 1.620968e+00 -1.194767e+01 7.022048e+00 -2.109058e-01 -6.851239e+00 5.991873e+00 -7.075738e+00 -3.202422e+00 6.624571e+00 -2.334239e+00 2.077289e-01 -2.293712e-01 1.580419e+00 7.539310e-01 -3.978030e-02 -2.513282e+00 -1.563204e+00 -2.542274e+00 -1.101783e+00 -1.087909e+00 -7.623526e-02 1.216184e+00 -3.454369e-01 -4.994872e-01 1.777157e+00
<VARIANCE> 25
 5.637602e+01 6.807966e+01 1.586644e+01 4.499545e+01 1.664508e+02 3.764010e+01 2.520919e+01 2.078612e+01 2.888635e+01 1.963970e+01 3.606983e+01 3.873743e+01 1.998468e+00 9.265264e+00 6.169981e+00 3.235477e+00 5.248896e+00 2.512341e+00 2.986279e+00 1.124770e+00 2.860054e+00 1.379308e+00 2.571466e+00 6.043543e-01 7.970137e+00
<GCONST> 1.029502e+02
<TRANSP> 5
 0.000000e+00 1.000000e+00 0.000000e+00 0.000000e+00 0.000000e+00
 0.000000e+00 8.482826e-01 1.517174e-01 0.000000e+00 0.000000e+00
 0.000000e+00 0.000000e+00 7.255294e-01 2.744706e-01 0.000000e+00
 0.000000e+00 0.000000e+00 0.000000e+00 3.778996e-01 6.221004e-01
 0.000000e+00 0.000000e+00 0.000000e+00 0.000000e+00 0.000000e+00
<ENDHMM>
~h "ah"
<BEGINHMM>
<NUMSTATES> 5
<STATE> 2
<MEAN> 25
 -1.684587e-08 -6.193333e-08 -4.487690e-08 3.351832e-08 -6.047171e-08 2.058664e-08 -6.607048e-08 -2.205446e-08 -8.534414e-09 2.910867e-08 3.022347e-08 -1.071447e-09 -2.678578e-03 2.715191e-03 1.970940e-04 1.666228e-04 1.831201e-03 -7.320007e-04 3.372927e-03 1.125320e-03 -7.564414e-05 2.413395e-03 8.106225e-04 -2.148533e-03 -1.727290e-03
<VARIANCE> 25
 4.499385e+01 7.342516e+01 3.566479e+01 5.718780e+01 5.546888e+01 4.305736e+01 6.020990e+01 4.209700e+01 2.990068e+01 4.475465e+01 3.376802e+01 1.839641e+01 1.592596e+00 2.317776e+00 1.700131e+00 2.390033e+00 2.486403e+00 2.357601e+00 2.972100e+00 2.655601e+00 2.270027e+00 2.542916e+00 2.264997e+00 1.647762e+00 2.549860e+00
<GCONST> 1.014657e+02
<STATE> 3
<MEAN> 25
 -1.684587e-08 -6.193333e-08 -4.487690e-08 3.351832e-08 -6.047171e-08 2.058664e-08 -6.607048e-08 -2.205446e-08 -8.534414e-09 2.910867e-08 3.022347e-08 -1.071447e-09 -2.678578e-03 2.715191e-03 1.970940e-04 1.666228e-04 1.831201e-03 -7.320007e-04 3.372927e-03 1.125320e-03 -7.564414e-05 2.413395e-03 8.106225e-04 -2.148533e-03 -1.727290e-03
<VARIANCE> 25
 4.499385e+01 7.342516e+01 3.566479e+01 5.718780e+01 5.546888e+01 4.305736e+01 6.020990e+01 4.209700e+01 2.990068e+01 4.475465e+01 3.376802e+01 1.839641e+01 1.592596e+00 2.317776e+00 1.700131e+00 2.390033e+00 2.486403e+00 2.357601e+00 2.972100e+00 2.655601e+00 2.270027e+00 2.542916e+00 2.264997e+00 1.647762e+00 2.549860e+00
<GCONST> 1.014657e+02
<STATE> 4
<MEAN> 25
 -1.684587e-08 -6.193333e-08 -4.487690e-08 3.351832e-08 -6.047171e-08 2.058664e-08 -6.607048e-08 -2.205446e-08 -8.534414e-09 2.910867e-08 3.022347e-08 -1.071447e-09 -2.678578e-03 2.715191e-03 1.970940e-04 1.666228e-04 1.831201e-03 -7.320007e-04 3.372927e-03 1.125320e-03 -7.564414e-05 2.413395e-03 8.106225e-04 -2.148533e-03 -1.727290e-03
<VARIANCE> 25
 4.499385e+01 7.342516e+01 3.566479e+01 5.718780e+01 5.546888e+01 4.305736e+01 6.020990e+01 4.209700e+01 2.990068e+01 4.475465e+01 3.376802e+01 1.839641e+01 1.592596e+00 2.317776e+00 1.700131e+00 2.390033e+00 2.486403e+00 2.357601e+00 2.972100e+00 2.655601e+00 2.270027e+00 2.542916e+00 2.264997e+00 1.647762e+00 2.549860e+00
<GCONST> 1.014657e+02
<TRANSP> 5
 0.000000e+00 1.000000e+00 0.000000e+00 0.000000e+00 0.000000e+00
 0.000000e+00 6.000000e-01 4.000000e-01 0.000000e+00 0.000000e+00
 0.000000e+00 0.000000e+00 6.000000e-01 4.000000e-01 0.000000e+00
 0.000000e+00 0.000000e+00 0.000000e+00 7.000000e-01 3.000000e-01
 0.000000e+00 0.000000e+00 0.000000e+00 0.000000e+00 0.000000e+00
<ENDHMM>
~h "aw"
<BEGINHMM>
<NUMSTATES> 5
<STATE> 2
<MEAN> 25
 -1.684587e-08 -6.193333e-08 -4.487690e-08 3.351832e-08 -6.047171e-08 2.058664e-08 -6.607048e-08 -2.205446e-08 -8.534414e-09 2.910867e-08 3.022347e-08 -1.071447e-09 -2.678578e-03 2.715191e-03 1.970940e-04 1.666228e-04 1.831201e-03 -7.320007e-04 3.372927e-03 1.125320e-03 -7.564414e-05 2.413395e-03 8.106225e-04 -2.148533e-03 -1.727290e-03
<VARIANCE> 25
 4.499385e+01 7.342516e+01 3.566479e+01 5.718780e+01 5.546888e+01 4.305736e+01 6.020990e+01 4.209700e+01 2.990068e+01 4.475465e+01 3.376802e+01 1.839641e+01 1.592596e+00 2.317776e+00 1.700131e+00 2.390033e+00 2.486403e+00 2.357601e+00 2.972100e+00 2.655601e+00 2.270027e+00 2.542916e+00 2.264997e+00 1.647762e+00 2.549860e+00
<GCONST> 1.014657e+02
<STATE> 3
<MEAN> 25
 -1.684587e-08 -6.193333e-08 -4.487690e-08 3.351832e-08 -6.047171e-08 2.058664e-08 -6.607048e-08 -2.205446e-08 -8.534414e-09 2.910867e-08 3.022347e-08 -1.071447e-09 -2.678578e-03 2.715191e-03 1.970940e-04 1.666228e-04 1.831201e-03 -7.320007e-04 3.372927e-03 1.125320e-03 -7.564414e-05 2.413395e-03 8.106225e-04 -2.148533e-03 -1.727290e-03
<VARIANCE> 25
 4.499385e+01 7.342516e+01 3.566479e+01 5.718780e+01 5.546888e+01 4.305736e+01 6.020990e+01 4.209700e+01 2.990068e+01 4.475465e+01 3.376802e+01 1.839641e+01 1.592596e+00 2.317776e+00 1.700131e+00 2.390033e+00 2.486403e+00 2.357601e+00 2.972100e+00 2.655601e+00 2.270027e+00 2.542916e+00 2.264997e+00 1.647762e+00 2.549860e+00
<GCONST> 1.014657e+02
<STATE> 4
<MEAN> 25
 -1.684587e-08 -6.193333e-08 -4.487690e-08 3.351832e-08 -6.047171e-08 2.058664e-08 -6.607048e-08 -2.205446e-08 -8.534414e-09 2.910867e-08 3.022347e-08 -1.071447e-09 -2.678578e-03 2.715191e-03 1.970940e-04 1.666228e-04 1.831201e-03 -7.320007e-04 3.372927e-03 1.125320e-03 -7.564414e-05 2.413395e-03 8.106225e-04 -2.148533e-03 -1.727290e-03
<VARIANCE> 25
 4.499385e+01 7.342516e+01 3.566479e+01 5.718780e+01 5.546888e+01 4.305736e+01 6.020990e+01 4.209700e+01 2.990068e+01 4.475465e+01 3.376802e+01 1.839641e+01 1.592596e+00 2.317776e+00 1.700131e+00 2.390033e+00 2.486403e+00 2.357601e+00 2.972100e+00 2.655601e+00 2.270027e+00 2.542916e+00 2.264997e+00 1.647762e+00 2.549860e+00
<GCONST> 1.014657e+02
<TRANSP> 5
 0.000000e+00 1.000000e+00 0.000000e+00 0.000000e+00 0.000000e+00
 0.000000e+00 6.000000e-01 4.000000e-01 0.000000e+00 0.000000e+00
 0.000000e+00 0.000000e+00 6.000000e-01 4.000000e-01 0.000000e+00
 0.000000e+00 0.000000e+00 0.000000e+00 7.000000e-01 3.000000e-01
 0.000000e+00 0.000000e+00 0.000000e+00 0.000000e+00 0.000000e+00
<ENDHMM>
~h "ay"
<BEGINHMM>
<NUMSTATES> 5
<STATE> 2
<MEAN> 25
 2.627984e+00 -2.050711e+00 4.347486e+00 -7.200638e+00 -1.389112e+01 -2.803619e-01 -3.744540e+00 -3.184933e-01 -9.802298e+00 -8.877243e+00 -7.520316e+00 1.600423e+00 -3.865523e-01 1.068541e+00 1.128333e+00 -1.027000e+00 -1.434707e+00 8.850297e-01 -1.079133e-01 -1.148782e+00 5.491122e-01 1.292585e+00 -7.274257e-01 -6.194764e-01 -5.311090e-01
<VARIANCE> 25
 6.341289e+00 1.521994e+01 1.755915e+01 2.317725e+01 3.162436e+01 2.333078e+01 1.052354e+01 3.548971e+01 2.092105e+01 4.510969e+01 2.861988e+01 2.358219e+01 2.343936e-01 4.868138e-01 4.250324e-01 1.581952e+00 2.480738e+00 1.290542e+00 2.019258e+00 1.230772e+00 1.440856e+00 1.644766e+00 1.438344e+00 1.214242e+00 1.679143e-01
<GCONST> 8.155894e+01
<STATE> 3
<MEAN> 25
 -2.326953e+00 3.263422e-01 8.450917e+00 -7.036722e+00 -9.398109e+00 7.278758e+00 -3.649032e+00 -3.855034e+00 -1.340362e+00 -2.666594e-01 -5.079074e+00 1.180060e+00 -2.980720e-01 -3.789667e-01 -3.517177e-01 1.018978e+00 1.596717e+00 3.703386e-01 8.350292e-01 8.032377e-01 5.816480e-01 3.185238e-01 1.251424e+00 1.967920e-01 -9.578427e-01
<VARIANCE> 25
 7.720928e+00 1.375519e+01 7.677742e+00 2.107296e+01 3.912790e+01 2.232185e+01 4.770953e+01 3.241093e+01 2.833564e+01 2.470991e+01 4.754519e+01 1.165875e+01 6.649352e-01 6.269863e-01 9.104069e-01 1.460276e+00 1.527209e+00 2.520467e+00 3.600269e+00 1.583180e+00 3.548535e+00 2.747703e+00 1.836948e+00 1.509908e+00 3.217400e-01
<GCONST> 8.734531e+01
<STATE> 4
<MEAN> 25
 -2.053812e+00 -2.780117e-01 -7.314188e-01 3.559280e+00 5.230882e+00 4.932836e+00 4.628985e+00 3.424361e+00 2.134428e+00 2.800528e+00 3.574965e+00 4.747700e-01 5.158487e-02 5.472824e-02 -1.425164e-01 6.330543e-02 6.648353e-02 -9.459002e-02 -1.757555e-02 -3.872543e-02 3.978209e-02 8.434145e-02 -2.179166e-03 5.046827e-04 -5.227041e-02
<VARIANCE> 25
 2.647551e+00 3.463369e+00 5.748573e+00 5.873042e+00 8.280131e+00 8.729215e+00 8.825471e+00 1.408018e+01 1.420703e+01 1.027766e+01 1.316348e+01 9.724268e+00 2.169654e-01 2.838273e-01 8.067660e-01 7.433735e-01 8.374375e-01 8.219738e-01 8.256025e-01 1.013437e+00 1.127609e+00 1.137338e+00 1.089462e+00 8.236129e-01 8.909611e-02
<GCONST> 6.449282e+01
<TRANSP> 5
 0.000000e+00 1.000000e+00 0.000000e+00 0.000000e+00 0.000000e+00
 0.000000e+00 8.899254e-01 1.100746e-01 0.000000e+00 0.000000e+00
 0.000000e+00 0.000000e+00 9.193590e-01 8.064089e-02 0.000000e+00
 0.000000e+00 0.000000e+00 0.000000e+00 9.736930e-01 2.630694e-02
 0.000000e+00 0.000000e+00 0.000000e+00 0.000000e+00 0.000000e+00
<ENDHMM>
~h "kh"
<BEGINHMM>
<NUMSTATES> 5
<STATE> 2
<MEAN> 25
 -7.050766e-01 1.283395e+00 -1.120921e+00 2.404364e+00 3.231447e+00 3.937582e+00 4.663389e+00 1.883953e+00 1.487183e+00 2.588472e+00 2.753197e+00 1.931820e-01 5.731518e-03 3.435552e-03 -6.966196e-03 1.796481e-03 9.971736e-03 1.785408e-02 -6.964485e-03 -2.883194e-02 2.493726e-02 3.492990e-02 -3.043605e-02 -3.855440e-02 -1.071839e-02
<VARIANCE> 25
 1.193620e+00 1.888180e+00 5.024943e+00 6.097540e+00 1.318311e+01 1.134443e+01 1.861658e+01 1.252972e+01 1.540365e+01 1.452489e+01 1.223494e+01 1.083900e+01 1.036253e-01 1.673085e-01 3.914629e-01 5.461181e-01 7.665788e-01 9.188514e-01 1.047644e+00 1.285434e+00 1.077175e+00 1.349640e+00 1.187867e+00 1.017955e+00 4.048453e-02
<GCONST> 6.264637e+01
<STATE> 3
<MEAN> 25
 -2.040456e+00 -1.284305e+00 -6.467716e+00 7.982220e-01 7.877343e+00 9.616103e-01 -1.306363e+00 5.096322e+00 4.519447e+00 6.370127e+00 -1.430323e+00 -5.900934e-02 -7.757154e-01 -1.255278e+00 -4.018041e-01 -6.197836e-03 1.755789e+00 -1.726102e+00 -2.683821e+00 6.702092e-01 1.504511e+00 6.151893e-01 -1.530838e+00 1.784249e-01 3.535511e+00
<VARIANCE> 25
 5.109928e+00 2.206237e+01 3.150196e+01 1.575058e+01 3.324673e+01 3.202283e+01 7.364655e+01 2.150236e+01 3.613755e+01 2.252426e+01 3.902780e+01 1.594830e+01 5.800251e-01 2.406807e+00 3.616261e+00 2.382649e+00 2.686659e+00 2.516398e+00 4.226199e+00 3.500954e+00 4.165995e+00 2.374302e+00 1.689775e+00 1.991348e+00 3.609098e+00
<GCONST> 9.623356e+01
<STATE> 4
<MEAN> 25
 -6.769067e+00 -7.679705e+00 1.086356e+00 2.545028e+00 9.055561e+00 -2.323957e+00 -3.895791e+00 -5.520684e-01 5.527068e+00 2.638240e+00 -1.618682e+00 3.924360e+00 9.009492e-01 -2.463395e-01 3.709863e-01 -5.120729e-01 -1.391813e+00 -6.180538e-01 -1.466423e-02 -1.955437e+00 -1.749152e+00 -1.262986e+00 3.337195e-01 3.772949e-01 8.882640e-02
<VARIANCE> 25
 2.515986e+01 3.003030e+01 1.868584e+01 9.521349e+00 2.255666e+01 3.634025e+01 3.314764e+01 4.382071e+01 3.512945e+01 3.369742e+01 1.571924e+01 2.087645e+01 5.538994e+00 2.083479e+00 2.243940e+00 2.172609e+00 2.330749e+00 3.727015e+00 4.718914e+00 3.920373e+00 3.304026e+00 2.436530e+00 1.822164e+00 2.759159e+00 6.091958e-01
<GCONST> 9.693031e+01
<TRANSP> 5
 0.000000e+00 1.000000e+00 0.000000e+00 0.000000e+00 0.000000e+00
 0.000000e+00 9.779346e-01 2.206537e-02 0.000000e+00 0.000000e+00
 0.000000e+00 0.000000e+00 7.882518e-01 2.117483e-01 0.000000e+00
 0.000000e+00 0.000000e+00 0.000000e+00 8.275696e-01 1.724304e-01
 0.000000e+00 0.000000e+00 0.000000e+00 0.000000e+00 0.000000e+00
<ENDHMM>
~h "ng"
<BEGINHMM>
<NUMSTATES> 5
<STATE> 2
<MEAN> 25
 5.423450e+00 4.268803e+00 3.046795e+00 -2.954401e-01 -4.255245e+00 -7.654874e+00 -8.188824e+00 -5.233896e+00 -3.879655e+00 -5.356932e+00 -1.843066e+00 -3.361501e-01 -2.003087e-01 2.951217e-02 7.125042e-02 1.587066e-01 -3.105873e-03 7.069208e-02 -1.267757e-02 1.351636e-01 -3.914384e-01 -8.801164e-02 -1.021614e-01 -2.866004e-01 -2.250977e-01
<VARIANCE> 25
 4.817214e+00 1.190048e+01 1.102869e+01 2.329222e+01 1.655586e+01 2.106032e+01 1.941475e+01 2.899246e+01 1.806464e+01 2.411457e+01 1.822520e+01 3.119933e+01 2.429751e-01 4.287621e-01 7.019877e-01 6.400675e-01 1.012237e+00 8.715883e-01 9.180561e-01 1.810359e+00 1.310608e+00 1.648528e+00 1.380586e+00 1.442857e+00 3.355526e-01
<GCONST> 7.784013e+01
<STATE> 3
<MEAN> 25
 -7.104341e-01 1.961273e+00 1.836920e+00 1.803271e+00 6.466184e-01 -7.256317e-01 -8.540215e-01 2.773478e-01 -3.533178e+00 -2.073199e+00 1.502156e+00 -7.676789e-01 -8.752203e-01 -7.424421e-01 -5.346966e-01 2.083876e-01 1.221310e+00 1.431195e+00 1.671057e+00 1.380247e+00 1.513183e+00 1.295577e+00 9.048162e-01 3.975276e-01 -5.259725e-01
<VARIANCE> 25
 1.469244e+01 1.738923e+01 1.114811e+01 1.236946e+01 2.195744e+01 3.019692e+01 4.755715e+01 3.966828e+01 4.071576e+01 4.800875e+01 2.640398e+01 1.940561e+01 1.065322e+00 1.374599e+00 1.052257e+00 1.342249e+00 1.969369e+00 1.859183e+00 2.894853e+00 3.585968e+00 3.835022e+00 3.252661e+00 2.494113e+00 1.667630e+00 1.006121e+00
<GCONST> 9.259264e+01
<STATE> 4
<MEAN> 25
 -3.008489e+00 3.636635e-01 -1.727781e-01 2.444910e+00 3.663187e+00 5.106120e+00 4.804640e+00 2.421026e+00 2.462028e+00 4.390251e+00 2.495584e+00 -2.824061e-01 -2.465616e-02 -7.440978e-03 -2.194139e-02 3.206197e-02 -3.924691e-03 2.270371e-02 3.654333e-02 1.663174e-02 5.386230e-02 5.134064e-02 -7.127893e-03 -2.600623e-03 -1.717638e-02
<VARIANCE> 25
 2.230283e+00 4.748030e+00 5.321986e+00 7.079395e+00 1.204290e+01 1.097783e+01 1.262944e+01 1.023408e+01 1.217011e+01 1.380613e+01 1.303905e+01 1.045393e+01 1.164761e-01 2.023311e-01 4.032129e-01 5.983490e-01 9.153225e-01 8.295981e-01 1.107535e+00 1.060113e+00 1.154885e+00 1.078544e+00 1.158990e+00 8.551114e-01 9.393459e-02
<GCONST> 6.428185e+01
<TRANSP> 5
 0.000000e+00 1.000000e+00 0.000000e+00 0.000000e+00 0.000000e+00
 0.000000e+00 8.766539e-01 1.233461e-01 0.000000e+00 0.000000e+00
 0.000000e+00 0.000000e+00 7.716239e-01 2.283760e-01 0.000000e+00
 0.000000e+00 0.000000e+00 0.000000e+00 9.481154e-01 5.188460e-02
 0.000000e+00 0.000000e+00 0.000000e+00 0.000000e+00 0.000000e+00
<ENDHMM>
~h "ny"
<BEGINHMM>
<NUMSTATES> 5
<STATE> 2
<MEAN> 25
 7.299005e-01 3.586019e+00 4.747692e+00 -2.168116e-01 -6.982681e+00 -5.836967e+00 -5.779658e+00 -6.264911e-01 -9.299064e+00 -8.371147e+00 -1.344445e+00 -1.893998e+00 -2.033407e-01 -1.127221e-01 -1.394345e-01 2.970693e-01 4.287294e-01 1.962409e-01 3.120320e-01 1.592532e-01 2.963340e-01 1.740607e-01 1.898339e-01 1.947164e-01 -3.246585e-01
<VARIANCE> 25
 1.922427e+01 5.250069e+01 1.762553e+01 1.781994e+01 6.677797e+01 3.966997e+01 2.538904e+01 7.602482e+01 6.079916e+01 6.827477e+01 3.677025e+01 3.185099e+01 2.279920e+00 3.421237e+00 1.802236e+00 2.435063e+00 4.430055e+00 3.536921e+00 3.330922e+00 6.907800e+00 3.580238e+00 5.640476e+00 2.197756e+00 2.417444e+00 2.900331e+00
<GCONST> 1.046189e+02
<STATE> 3
<MEAN> 25
 -7.266931e+00 6.492646e+00 -3.477486e+00 3.792666e+00 4.158072e+00 1.131866e+00 6.762803e+00 -7.146202e-02 1.567286e+00 3.235510e+00 2.338370e+00 1.113854e+00 1.542872e-01 6.010123e-02 -8.415945e-03 8.621154e-02 2.182054e-01 3.589477e-01 4.159907e-01 1.857071e-01 1.836094e-01 5.505106e-01 -6.290890e-02 -1.851725e-01 -5.745920e-01
<VARIANCE> 25
 3.379459e+01 2.918294e+01 9.428954e+00 8.609486e+00 8.656637e+00 9.607190e+00 3.394141e+01 2.311868e+01 2.377420e+01 1.920779e+01 2.251758e+01 1.612451e+01 9.427700e-01 1.221312e+00 7.520494e-01 5.748329e-01 7.530641e-01 8.547975e-01 2.016936e+00 2.179727e+00 1.526613e+00 1.409891e+00 1.886542e+00 9.934337e-01 3.030605e-01
<GCONST> 8.088568e+01
<STATE> 4
<MEAN> 25
 -2.538401e+00 -8.361368e-01 -8.818808e-01 3.041686e+00 4.296307e+00 4.883718e+00 5.787408e+00 2.456335e+00 2.650491e+00 3.461528e+00 2.714677e+00 6.121893e-01 2.141621e-02 -4.351994e-03 -3.574421e-02 -2.039499e-02 -3.826110e-02 -1.939240e-02 7.305054e-02 -1.044925e-01 -6.821911e-02 4.126427e-02 -3.074983e-02 -9.817203e-03 -2.101402e-02
<VARIANCE> 25
 1.892190e+00 4.744107e+00 3.887785e+00 5.826477e+00 7.092420e+00 1.216864e+01 1.264591e+01 1.311531e+01 1.366679e+01 1.497455e+01 1.721377e+01 1.036057e+01 1.204194e-01 2.030102e-01 3.131907e-01 5.252308e-01 6.760188e-01 1.087015e+00 1.289049e+00 1.412050e+00 1.430049e+00 1.268412e+00 1.669268e+00 9.744235e-01 5.640900e-02
<GCONST> 6.431739e+01
<TRANSP> 5
 0.000000e+00 1.000000e+00 0.000000e+00 0.000000e+00 0.000000e+00
 0.000000e+00 9.215329e-01 7.846707e-02 0.000000e+00 0.000000e+00
 0.000000e+00 0.000000e+00 8.241044e-01 1.758955e-01 0.000000e+00
 0.000000e+00 0.000000e+00 0.000000e+00 9.638855e-01 3.611449e-02
 0.000000e+00 0.000000e+00 0.000000e+00 0.000000e+00 0.000000e+00
<ENDHMM>
~h "sp"
<BEGINHMM>
<NUMSTATES> 3
<STATE> 2
~s "silst"
<TRANSP> 3
 0.000000e+00 1.570767e-01 8.429233e-01
 0.000000e+00 9.157039e-01 8.429610e-02
 0.000000e+00 0.000000e+00 0.000000e+00
<ENDHMM>
~h "sy"
<BEGINHMM>
<NUMSTATES> 5
<STATE> 2
<MEAN> 25
 -7.582018e-01 3.463852e-01 4.280815e-01 1.736029e+00 2.073127e-02 2.398655e+00 2.497812e+00 3.110639e+00 -1.181396e-01 1.202970e+00 3.524038e+00 6.828279e-01 1.014224e-02 2.314836e-02 4.658597e-03 3.705366e-02 4.160541e-02 -3.291416e-03 6.090051e-02 -2.392119e-02 -5.705323e-02 1.142944e-01 1.523317e-02 -4.295010e-02 -3.484990e-02
<VARIANCE> 25
 3.686843e+00 5.428628e+00 8.356188e+00 6.730416e+00 8.490997e+00 1.265761e+01 1.838336e+01 1.593055e+01 1.521569e+01 1.717064e+01 1.926061e+01 1.140924e+01 2.096663e-01 3.407323e-01 4.469531e-01 5.344268e-01 5.357131e-01 8.953571e-01 1.116709e+00 1.324723e+00 1.239147e+00 1.193867e+00 1.190814e+00 1.160580e+00 7.787373e-02
<GCONST> 6.803664e+01
<STATE> 3
<MEAN> 25
 -4.682619e+00 -1.560033e+00 7.596573e+00 -6.193620e-01 -2.927989e-01 2.768537e+00 1.580760e+00 3.868043e+00 2.041581e+00 2.161248e+00 3.972171e+00 -3.864720e-01 -2.692947e+00 -7.645553e-01 2.181098e+00 -1.227709e+00 3.571141e-01 -2.668606e-01 -1.570169e-01 1.070322e+00 1.590416e+00 5.296047e-01 1.286918e+00 2.616218e-01 1.660470e+00
<VARIANCE> 25
 3.135788e+01 1.135479e+01 4.779555e+01 1.760755e+01 2.288584e+01 1.138270e+01 1.189147e+01 1.286529e+01 2.930700e+01 2.165831e+01 1.811686e+01 2.082604e+01 2.646650e+00 1.135206e+00 2.420382e+00 1.347420e+00 1.889195e+00 1.291211e+00 1.901674e+00 7.041435e-01 3.874144e+00 3.033652e+00 1.864211e+00 1.899379e+00 1.230920e+00
<GCONST> 8.893866e+01
<STATE> 4
<MEAN> 25
 -1.544939e+01 -3.648788e+00 1.474989e+01 -2.562695e+00 -3.261560e+00 3.746322e+00 3.670892e+00 2.704629e+00 4.050037e+00 4.139069e+00 4.717369e+00 -6.919478e-01 6.821904e-01 1.134250e-01 7.946900e-02 -3.322330e-01 -7.840480e-01 -3.976158e-01 -5.731771e-01 -3.337176e-01 -2.646485e-01 -2.509896e-01 -3.708755e-01 -3.024355e-02 1.444472e-01
<VARIANCE> 25
 2.364889e+01 2.247038e+01 1.230459e+01 3.236874e+01 4.112437e+01 2.691401e+01 4.386790e+01 2.414543e+01 1.358721e+01 3.187297e+01 1.256616e+01 1.669453e+01 6.755375e+00 8.717529e-01 1.202882e+00 1.458465e+00 3.689306e+00 2.285755e+00 3.602274e+00 1.489519e+00 1.642895e+00 1.234918e+00 1.052548e+00 1.364462e+00 7.188229e-01
<GCONST> 9.048775e+01
<TRANSP> 5
 0.000000e+00 1.000000e+00 0.000000e+00 0.000000e+00 0.000000e+00
 0.000000e+00 9.526945e-01 4.730551e-02 0.000000e+00 0.000000e+00
 0.000000e+00 0.000000e+00 6.597187e-01 3.402814e-01 0.000000e+00
 0.000000e+00 0.000000e+00 0.000000e+00 9.327257e-01 6.727424e-02
 0.000000e+00 0.000000e+00 0.000000e+00 0.000000e+00 0.000000e+00
<ENDHMM>
~h "sil"
<BEGINHMM>
<NUMSTATES> 5
<STATE> 2
<MEAN> 25
 -3.206876e+00 3.450210e+00 -1.547037e-01 4.954589e+00 3.940290e+00 1.824378e+00 2.903911e+00 2.181581e+00 1.642041e+00 3.324423e+00 1.851401e+00 -8.260325e-02 -4.902457e-02 8.863543e-02 3.544854e-02 1.627957e-02 8.527058e-02 2.590656e-02 6.226563e-02 3.153468e-03 -2.154170e-02 6.505418e-02 -2.482311e-02 -3.345380e-02 -7.142699e-02
<VARIANCE> 25
 3.324889e+00 1.829554e+01 1.553313e+01 9.429962e+00 1.031510e+01 1.649303e+01 1.479596e+01 1.355489e+01 1.533294e+01 1.469591e+01 1.392731e+01 1.197698e+01 1.264355e-01 3.108208e-01 4.437433e-01 6.069764e-01 8.289216e-01 8.918398e-01 1.069155e+00 1.130270e+00 1.248843e+00 1.195378e+00 1.188614e+00 1.083383e+00 7.994302e-02
<GCONST> 6.947995e+01
<STATE> 3
~s "silst"
<STATE> 4
<MEAN> 25
 -1.697946e+00 2.803689e-01 -8.226111e-01 3.240040e+00 3.309209e-01 2.567439e-01 2.266712e-02 7.386343e-01 1.954397e+00 1.927246e-01 1.345575e+00 4.094952e-01 2.651826e-01 -3.075531e-01 -9.440000e-02 -1.014895e-01 -2.682869e-01 -1.905290e-01 -3.087769e-01 -1.498137e-01 -5.146424e-02 -2.572540e-01 -7.226191e-02 3.738082e-02 3.896400e-01
<VARIANCE> 25
 1.296894e+01 3.924075e+01 3.271404e+01 2.665717e+01 4.374585e+01 3.424813e+01 4.275619e+01 2.935556e+01 2.692143e+01 4.160679e+01 3.161768e+01 2.082125e+01 1.393354e+00 3.364976e+00 2.272944e+00 2.066750e+00 3.556121e+00 2.862191e+00 3.632064e+00 2.725475e+00 2.570847e+00 3.231445e+00 2.482891e+00 2.056590e+00 2.599194e+00
<GCONST> 9.931568e+01
<TRANSP> 5
 0.000000e+00 1.000000e+00 0.000000e+00 0.000000e+00 0.000000e+00
 0.000000e+00 9.197228e-01 1.372117e-02 6.655605e-02 0.000000e+00
 0.000000e+00 0.000000e+00 9.559358e-01 4.406421e-02 0.000000e+00
 0.000000e+00 1.200535e-01 0.000000e+00 7.311211e-01 1.488254e-01
 0.000000e+00 0.000000e+00 0.000000e+00 0.000000e+00 0.000000e+00
<ENDHMM>
